svm_type c_svc
kernel_type polynomial
degree 1
gamma 0.125
coef0 0
nr_class 26
total_sv 2504
rho -0.73884778118246464 -0.9990206385878202 0.80990585912161173 -0.99981904214328043 -1.0562181520609206 -1.0388797309111668 -1.0092210851517724 -1.0002046033985272 -0.99967060510126249 -0.91033659685679025 -1.0114292194270438 -1.0002172019742446 -0.9992810016558159 -0.99989575623063254 -0.99940619214177473 -0.99975068267232758 -1.0000079718091128 -0.99992188271152005 -1.0005955082681548 -1.000080171374627 -1.0000407361173986 -1.0015596638859054 -0.99943031521482284 -1.0018167490208589 -1.0003465926218069 -0.90302162076677073 0.9433526985784193 -0.58785295569629714 -1.0381623419495307 -1.0309218948270065 -1.0502439400514545 -1.000231699362673 -0.98304339534812213 -1.029503183399131 -1.0082016610440199 -0.99994693985582439 -0.99479868615303912 -0.99585803406993589 -0.99200662215080027 -0.99432289649153327 -0.99802200770415195 -0.99807542853207398 -0.99997916455040525 -0.99998078633237775 -1.0003326861072837 -1.0008940395013786 -0.99935352997688387 -1.0012125096939228 -1.0001378066166557 0.99390026232814066 0.99862489318092607 -0.98136071680274639 -1.0198816643958841 -0.55692192063850865 -1.0007114469845038 -0.99985276110852417 0.45978017111975777 -1.0116612357489858 -1.0005999429612549 -0.99989618480910203 -1.0007613189899933 -0.99998967719902976 -0.99975280865186 -1.0004222573870405 -1.0001867577103261 -1.0005311252323947 -1.0003811849019806 -1.0004784398754267 -1.0015659128074292 -0.99970771635223499 -1.0017368280225329 -1.0000444699533719 -0.95203687843591878 -1.0555605078871264 -1.0405135379161368 -1.0656575559649943 -0.99998220935638393 -0.9975814716230369 -1.0144889086519404 -1.0098481687866609 -0.99979522924509701 -0.99862761717562731 -0.99912426796197984 -0.99794753077085474 -0.99865989622648044 -0.99934957115119161 -0.99933133888793657 -1.000060500696472 -1.0003427937267533 -0.99982554111362165 -1.0010492356471072 -0.99969474741018305 -1.0013680281462491 -1.0002930999705886 -1.0259650170889083 -1.0397491343779333 -0.91788673092480932 -1.0005825129987089 -0.99946824765197506 -0.6287335931848691 -1.0118704436369881 -1.0009082401691134 -0.99927734098975807 -0.99966525153830954 -0.9988960089718103 -0.99891929673474733 -1.0000335759460142 -1.0003789369794862 -1.0004761638694708 -1.0002950985488011 -1.0003124425038328 -1.0014447133850168 -0.99992691368638398 -1.0016848597629571 -1.0001493352062909 -1.0065858840345701 1.0049638319530603 -0.95763443243390878 0.9242333582107316 1.0194440547089099 -1.0015384150140079 -0.92746629234529865 -0.7614938119572966 -0.59658425333507248 0.84768660370271975 -0.75849524305423399 -0.85083194547850227 -0.90744248099176839 -0.97734526480421602 -0.99741717510753203 -0.98256681635745413 -1.0001548605936543 -0.98991848427204432 -1.0006670315324526 -0.99565931801282437 1.0150193262983249 -0.93623824835823921 0.99900246416161109 1.024113782907051 -0.99965593692661958 -0.89060588555847431 -0.66515760212837738 0.96089005313905651 0.99727914499026959 -0.66555192903902993 -0.78611203459562895 -0.86528091558059783 -0.96663172935729902 -0.99599884804568184 -0.97446339480411237 -1.0000955278490795 -0.98682330300410581 -1.0006301259552992 -0.99380992118425049 -0.98916387532463723 -0.5209870479859402 0.99989209219247632 -1.005026814930233 -0.97613930363455259 -0.89286005788304501 -0.80268193102717666 -0.70352830990781012 -0.89065663958315777 -0.93967564974402162 -0.96278340713315802 -0.9948112973853761 -0.99986557772866003 -0.99732326205681876 -1.00158663995472 -0.99778418845416583 -1.00089493430691 -0.99987893983905707 1.0001836117173053 0.99830553869509875 -0.024386746165009299 1.0003814440634518 1.0003096416993691 1.0000103534465299 1.0004530201393842 1.0005098853533596 1.0006504584805191 1.0002171886555944 -0.99948496122229513 -1.0000769767906839 -1.0000439436054891 -1.0014202137941934 -0.99935771172778787 -1.0013756177613113 -1.000058267038902 0.80702481178543795 -1.010412427654237 -1.0001821243491622 -0.9994560284299876 -1.0003142172705966 -0.99963134636169415 -0.99974792017394498 -1.0000570652097327 -0.99983950635640617 -1.0001752298460782 -1.0000631426865167 -1.0003774842549769 -1.0010713219274709 -0.999592741974342 -1.0013209410287716 -1.0001623416455998 -1.0060571263053382 -0.9958564790755613 -0.96364955440232614 -0.94088979628351777 -0.89918688739891395 -0.9625968293922138 -0.98277642449463021 -0.98868916551955932 -0.9985550272933863 -1.0001960519031448 -0.99937045114275835 -1.0008787526688387 -0.99890732618025802 -1.0012716508581352 -1.0000177832600556 0.98790085129511684 1.0011813692104667 1.0091958252920046 1.0101920522197529 1.0047611381720614 1.001718144741135 0.98106632595249432 -0.95264673794125332 -0.99390518111119297 -0.96259426512399027 -1.0000924000769484 -0.98273574074274617 -1.0006377240757884 -0.99129549484853507 1.0001221862176064 1.0002821714237886 1.0004481766727746 1.0003306946329511 0.9997651967059038 0.99438707164143536 -0.99995039905892857 -1.0002898634657231 -1.0001553690612868 -1.000792885268176 -0.999390221293742 -1.0007918918574297 -0.99989800241817561 0.99842386568850983 0.99967390210864149 -0.98895160121380443 -0.99959365775455078 -1.0001483285185189 -1.0001976456363151 -1.0002467149431444 -1.0003633787970485 -1.0015113107216211 -0.99995107526054849 -1.0014814224876003 -1.0002387315954691 1.0006259373004891 -0.99722469887224829 -0.99996863403874969 -0.99933551927025266 -1.0003285768093382 -1.0002230880437075 -1.0000397042953335 -1.0017532175521793 -0.99968910998609561 -1.0018399941884439 -0.99983815965820466 -0.99895263378008581 -1.0000961617323156 -1.0002433462326945 -1.0002159387802667 -1.0005944254212964 -1.0002323868145628 -1.0010555850134955 -0.99972765168441313 -1.0011734568778379 -1.0001031241440326 -0.99572144794824335 -1.0007456148479927 -1.0001973480183119 -1.0002364047523316 -1.0005743237544116 -1.0010931118402953 -1.0000322459130491 -1.0010982652505238 -1.0000680199872878 -0.99997012640836402 -1.0002318407873239 -1.0002788322755425 -1.000149538031275 -1.0014400893339404 -0.99998814057324759 -1.0015024825194736 -1.0004427429334617 -1.0000102574561198 -1.0005435083328713 -1.0000045694537276 -1.0010083661771114 -0.99991965341597178 -1.0009392442894569 -1.0000567748289937 -1.0001062752371643 -1.0001561026903225 -1.0011083212347676 -0.999657171377903 -1.0010629749776405 -1.0001021246160819 1.0000881197616103 -0.0036733428269256629 1.000279162279287 -0.0042562026668477859 0.00061970746811523814 -1.0006546490354302 -0.99981481997038091 -1.0005630297977248 -0.99955390959979162 0.99728243108148928 -0.00058285983992212298 0.0042930502950409011 -0.99705349966699697 -0.99988845070664678 0.0048759101349630241
label 10 8 12 9 11 5 4 6 21 13 7 3 19 16 15 14 17 18 20 23 26 22 2 27 1 29
nr_sv 379 344 167 409 275 70 40 156 10 107 243 10 16 38 61 80 37 28 17 6 1 5 1 2 1 1
SV
0.012345679012345678 0 0.012345679012345678 0 0.012345679012345678 0 0.012345679012345678 0 0 0.012345679012345678 0 0 0 0 0 0 0 0 0 0 0 0 0 0 0 1:1 2:0.27027027 3:0.2605042 4:-0.73451327 5:-0.47582787 6:-0.52723605 7:-0.58525346 8:-0.58844046 
0.012345679012345678 0 0.012345679012345678 0 0 0 0 0 0 0 0 0 0 0 0 0 0 0 0 0 0 0 0 0 0 1:-1 2:0.45945946 3:0.36134454 4:-0.69911504 5:-0.25305472 6:-0.35373235 7:-0.28505596 8:-0.46487294 
0 0.012345679012345678 0.012345679012345678 0.012345679012345678 0 0 0 0.0099591467314200533 0.012345679012345678 0 0 0.012345679012345678 0.012345679012345678 0.012345679012345678 0.012345679012345678 0.012345679012345678 0.012345679012345678 0.012345679012345678 0.012345679012345678 0 0.0080600447614664079 0 0.0079420317940314556 0 0 1:-1 2:0.87837838 3:0.83193277 4:-0.61946903 5:0.55303701 6:0.4129119 7:0.26793943 8:0.16093672 
0.012345679012345678 0 0.012345679012345678 0 0 0 0 0 0 0.012345679012345678 0 0 0 0 0 0 0 0 0 0 0 0 0 0 0 1:-1 2:0.21621622 3:0.17647059 4:-0.76106195 5:-0.46484859 6:-0.55682582 7:-0.4325214 8:-0.61434978 
0.012345679012345678 0 0.012345679012345678 0.012345679012345678 0.012345679012345678 0.012345679012345678 0.012345679012345678 0 0 0.012345679012345678 0 0 0 0 0 0 0 0 0 0 0 0 0 0 0 1:1 2:0.25675676 3:0.21008403 4:-0.80530973 5:-0.56295378 6:-0.63080027 7:-0.60631995 8:-0.65122073 
0 0.012345679012345678 0.012345679012345678 0.012345679012345678 0 0 0 0 0.012345679012345678 0 0 0 0 0 0 0 0 0 0 0 0 0 0 0 0 1:-1 2:0.78378378 3:0.73109244 4:-0.62831858 5:0.58207898 6:0.5729657 7:0.21790652 8:0.05630294 
0.012345679012345678 0 0.012345679012345678 0 0 0 0 0 0 0.012345679012345678 0 0 0 0 0 0 0 0 0 0 0 0 0 0 0 1:-1 2:0.14864865 3:0.075630252 4:-0.73451327 5:-0.55091199 6:-0.66039005 7:-0.6194865 8:-0.6243149 
0.012345679012345678 0 0.012345679012345678 0 0 0 0 0 0 0.012345679012345678 0 0 0 0 0 0 0 0 0 0 0 0 0 0 0 1:-1 2:0.22972973 3:0.21008403 4:-0.75221239 5:-0.48857801 6:-0.58372562 7:-0.560237 8:-0.59441953 
0.012345679012345678 0.012345679012345678 0.012345679012345678 0.012345679012345678 0 0 0 0 0 0 0 0 0 0 0 0 0 0 0 0 0 0 0 0 0 2:0.62162162 3:0.59663866 4:-0.69026549 5:0.023198158 6:-0.090114324 7:-0.1323239 8:-0.22770304 
0.012345679012345678 0 0.012345679012345678 0.012345679012345678 0 0 0 0 0 0.012345679012345678 0 0 0 0 0 0 0 0 0 0 0 0 0 0 0 2:0.47297297 3:0.41176471 4:-0.71681416 5:-0.20134585 6:-0.37861466 7:-0.29427255 8:-0.34529148 
0.012345679012345678 0.012345679012345678 0.012345679012345678 0.012345679012345678 0 0 0 0 0.012345679012345678 0 0 0 0 0 0 0 0 0 0 0 0 0 0 0 0 2:0.67567568 3:0.66386555 4:-0.72566372 5:0.30865947 6:0.030262273 7:0.16260698 8:-0.17090184 
0.012345679012345678 0.012345679012345678 0.012345679012345678 0.012345679012345678 0 0 0 0 0 0 0 0 0 0 0 0 0 0 0 0 0 0 0 0 0 1:-1 2:0.54054054 3:0.51260504 4:-0.73451327 5:-0.17938729 6:-0.30329523 7:-0.31270573 8:-0.33532636 
0.012345679012345678 0 0.012345679012345678 0 0 0 0.012345679012345678 0 0 0.012345679012345678 0 0 0 0 0 0 0 0 0 0 0 0 0 0 0 2:0.37837838 3:0.27731092 4:-0.69026549 5:-0.3058261 6:-0.45595158 7:-0.34430546 8:-0.46487294 
0.012345679012345678 0.012345679012345678 0.012345679012345678 0.012345679012345678 0 0 0.012345679012345678 0 0 0.012345679012345678 0 0 0 0.012345679012345678 0.012345679012345678 0 0 0 0 0 0 0 0 0 0 1:-1 2:0.13513514 3:0.092436975 4:-0.78761062 5:-0.66566318 6:-0.73638198 7:-0.72086899 8:-0.69506726 
0.012345679012345678 0 0.012345679012345678 0 0 0 0.012345679012345678 0 0 0.012345679012345678 0 0 0 0 0 0 0 0 0 0 0 0 0 0 0 2:0.37837838 3:0.32773109 4:-0.71681416 5:-0.23853373 6:-0.32952253 7:-0.24423963 8:-0.50473343 
0.012345679012345678 0 0.012345679012345678 0 0.012345679012345678 0 0.012345679012345678 0 0 0.012345679012345678 0 0 0 0 0 0 0 0 0 0 0 0 0 0 0 2:0.013513514 3:0.025210084 4:-0.77876106 5:-0.64264211 6:-0.70275723 7:-0.72481896 8:-0.68410563 
0.012345679012345678 0.012345679012345678 0.012345679012345678 0.012345679012345678 0 0 0 0 0.012345679012345678 0.012345679012345678 0 0 0.012345679012345678 0.012345679012345678 0.012345679012345678 0.012345679012345678 0.012345679012345678 0.012345679012345678 0 0 0 0 0 0 0 1:-1 2:0.27027027 3:0.36134454 4:-0.71681416 5:-0.36568089 6:-0.54270343 7:-0.56550362 8:-0.31539611 
0.012345679012345678 0 0.012345679012345678 0.012345679012345678 0.012345679012345678 0 0.012345679012345678 0 0 0.012345679012345678 0 0 0 0 0 0 0 0 0 0 0 0 0 0 0 2:0.081081081 3:0.12605042 4:-0.78761062 5:-0.62564193 6:-0.71418964 7:-0.69716919 8:-0.66417539 
0.012345679012345678 0.012345679012345678 0.012345679012345678 0.012345679012345678 0 0 0 0 0.012345679012345678 0 0 0 0 0 0 0 0 0 0 0 0 0 0 0 0 1:-1 2:0.51351351 3:0.54621849 4:-0.7079646 5:-0.13086595 6:-0.32145259 7:-0.21790652 8:-0.29845541 
0.012345679012345678 0.012345679012345678 0.012345679012345678 0.012345679012345678 0 0 0 0 0.012345679012345678 0.012345679012345678 0 0 0.012345679012345678 0.012345679012345678 0.012345679012345678 0.012345679012345678 0.012345679012345678 0.0068391048036660811 0 0 0 0 0 0 0 2:0.58108108 3:0.61344538 4:-0.63716814 5:0.019656455 6:-0.20443847 7:-0.27057275 8:-0.026407573 
0.012345679012345678 0.012345679012345678 0.012345679012345678 0.012345679012345678 0 0 0 0 0.012345679012345678 0 0 0 0 0 0 0 0 0 0 0 0 0 0 0 0 2:0.56756757 3:0.56302521 4:-0.66371681 5:0.028864884 6:-0.19435104 7:0.016458196 8:-0.23966119 
0.012345679012345678 0 0.012345679012345678 0 0 0 0.012345679012345678 0 0 0.012345679012345678 0 0 0 0 0 0 0 0 0 0 0 0 0 0 0 2:0.18918919 3:0.21008403 4:-0.75221239 5:-0.5101824 6:-0.58238063 7:-0.60105332 8:-0.60438465 
0.012345679012345678 0 0.012345679012345678 0 0 0 0 0 0 0.012345679012345678 0 0 0 0 0 0 0 0 0 0 0 0 0 0 0 1:-1 2:0.10810811 3:0.15966387 4:-0.76106195 5:-0.53178679 6:-0.58036315 7:-0.640553 8:-0.60438465 
0.012345679012345678 0 0.012345679012345678 0 0 0 0 0 0 0.012345679012345678 0 0 0 0 0 0 0 0 0 0 0 0 0 0 0 1:-1 2:0.32432432 3:0.2605042 4:-0.73451327 5:-0.41278555 6:-0.43039677 7:-0.54443713 8:-0.56651719 
0.012345679012345678 0 0.012345679012345678 0.012345679012345678 0 0 0 0 0 0 0 0 0 0 0 0 0 0 0 0 0 0 0 0 0 1:-1 2:0.48648649 3:0.46218487 4:-0.7079646 5:-0.14786612 6:-0.30531271 7:-0.18367347 8:-0.31240658 
0.012345679012345678 0 0.012345679012345678 0.012345679012345678 0 0 0 0 0 0 0 0 0 0 0 0 0 0 0 0 0 0 0 0 0 1:-1 2:0.56756757 3:0.46218487 4:-0.69026549 5:-0.039135824 6:-0.14122394 7:-0.22712311 8:-0.27553563 
0.012345679012345678 0 0.012345679012345678 0.012345679012345678 0.012345679012345678 0.012345679012345678 0.012345679012345678 0 0.012345679012345678 0.012345679012345678 0 0 0 0 0.012345679012345678 0 0 0 0 0 0 0 0 0 0 2:-0.18918919 3:-0.21008403 4:-0.79646018 5:-0.80981052 6:-0.87626093 7:-0.8275181 8:-0.82660688 
0.012345679012345678 0 0.012345679012345678 0.012345679012345678 0 0 0.012345679012345678 0 0 0.012345679012345678 0 0 0 0 0 0 0 0 0 0 0 0 0 0 0 2:0.5 3:0.41176471 4:-0.72566372 5:-0.2927218 6:-0.39340955 7:-0.33772219 8:-0.47483807 
0.012345679012345678 0 0.012345679012345678 0 0 0 0 0 0 0 0 0 0 0 0 0 0 0 0 0 0 0 0 0 0 1:-1 2:0.40540541 3:0.41176471 4:-0.75221239 5:-0.27147158 6:-0.33893746 7:-0.42988808 8:-0.44892875 
0 0.012345679012345678 0.012345679012345678 0.012345679012345678 0 0 0 0 0.012345679012345678 0 0 0 0.0029560930940660487 0.012345679012345678 0.012345679012345678 0 0 0 0 0 0 0 0 0 0 1:-1 2:0.58108108 3:0.57983193 4:-0.6460177 5:0.053302639 6:-0.18560861 7:-0.0019749835 8:-0.16392626 
0.012345679012345678 0 0.012345679012345678 0.012345679012345678 0 0 0 0 0 0 0 0 0 0 0 0 0 0 0 0 0 0 0 0 0 1:-1 2:0.47297297 3:0.44537815 4:-0.72566372 5:-0.25836727 6:-0.37995965 7:-0.39302172 8:-0.50473343 
0.012345679012345678 0.012345679012345678 0.012345679012345678 0.012345679012345678 0 0 0 0 0 0 0 0 0 0 0 0 0 0 0 0 0 0 0 0 0 2:0.77027027 3:0.73109244 4:-0.7079646 5:0.42695236 6:0.43577673 7:0.099407505 8:-0.13602392 
0.012345679012345678 0 0.012345679012345678 0 0 0 0.012345679012345678 0 0 0.012345679012345678 0 0 0 0 0 0 0 0 0 0 0 0 0 0 0 2:0.2027027 3:0.19327731 4:-0.77876106 5:-0.50664069 6:-0.60524546 7:-0.57340355 8:-0.57448929 
0.012345679012345678 0 0.012345679012345678 0.012345679012345678 0 0 0 0 0 0 0 0 0 0 0 0 0 0 0 0 0 0 0 0 0 1:-1 2:0.36486486 3:0.29411765 4:-0.69026549 5:-0.13334514 6:-0.27437794 7:-0.28900592 8:-0.35226707 
0.012345679012345678 0.012345679012345678 0.012345679012345678 0.012345679012345678 0 0 0 0 0.012345679012345678 0 0 0 0 0.012345679012345678 0.00015917645139947381 0 0.0055009914370980325 0.0025309866904016584 0 0 0 0 0 0 0 2:0.74324324 3:0.76470588 4:-0.65486726 5:0.48822384 6:0.37928716 7:0.26267281 8:0.068261086 
0.012345679012345678 0.012345679012345678 0.012345679012345678 0.012345679012345678 0 0 0 0 0.012345679012345678 0 0 0 0 0 0.012345679012345678 0 0 0 0 0 0 0 0 0 0 2:0.67567568 3:0.61344538 4:-0.69026549 5:0.30086772 6:0.079354405 7:0.041474654 8:-0.0004982561 
0.012345679012345678 0.012345679012345678 0.012345679012345678 0.012345679012345678 0 0 0.012345679012345678 0 0 0.012345679012345678 0 0 0 0 0 0 0 0 0 0 0 0 0 0 0 2:0.47297297 3:0.41176471 4:-0.69026549 5:-0.28138835 6:-0.41560188 7:-0.43778802 8:-0.3552566 
0.012345679012345678 0.012345679012345678 0.012345679012345678 0.012345679012345678 0 0 0 0 0.012345679012345678 0 0 0 0.012345679012345678 0.012345679012345678 0.012345679012345678 0.0065126778948435878 0 0 0 0 0 0 0 0 0 1:-1 2:0.54054054 3:0.49579832 4:-0.69026549 5:-0.054010979 6:-0.25622058 7:-0.19025675 8:-0.1758844 
0.012345679012345678 0 0.012345679012345678 0.012345679012345678 0 0 0 0 0 0.012345679012345678 0 0 0 0 0 0 0 0 0 0 0 0 0 0 0 2:0.51351351 3:0.46218487 4:-0.69026549 5:-0.12059501 6:-0.22057835 7:-0.17709019 8:-0.39511709 
0.012345679012345678 0 0.012345679012345678 0 0.012345679012345678 0.012345679012345678 0.012345679012345678 0 0 0.012345679012345678 0 0 0 0 0 0 0 0 0 0 0 0 0 0 0 1:1 2:0.28378378 3:0.17647059 4:-0.73451327 5:-0.52293253 6:-0.59583053 7:-0.61553654 8:-0.58445441 
0.012345679012345678 0 0.012345679012345678 0 0 0 0.012345679012345678 0 0 0.012345679012345678 0 0 0 0 0 0 0 0 0 0 0 0 0 0 0 2:0.2027027 3:0.24369748 4:-0.73451327 5:-0.42553568 6:-0.48352387 7:-0.47070441 8:-0.54459392 
0.012345679012345678 0 0.012345679012345678 0.012345679012345678 0 0 0 0 0 0.012345679012345678 0 0 0 0 0 0 0 0 0 0 0 0 0 0 0 2:0.41891892 3:0.39495798 4:-0.66371681 5:-0.19780414 6:-0.33960995 7:-0.31797235 8:-0.3303438 
0 0.012345679012345678 0.012345679012345678 0.012345679012345678 0 0 0 0 0 0 0 0 0 0 0 0 0 0 0 0 0 0 0 0 0 1:-1 2:0.60810811 3:0.6302521 4:-0.69026549 5:0.048344254 6:-0.0073974445 7:-0.23107307 8:-0.27553563 
0 0.012345679012345678 0.012345679012345678 0.012345679012345678 0 0 0 0 0 0 0 0 0 0 0 0 0 0 0 0 0 0 0 0 0 1:-1 2:0.54054054 3:0.49579832 4:-0.65486726 5:-0.0090313441 6:-0.17215871 7:-0.075707702 8:-0.26058794 
0.012345679012345678 0.012345679012345678 0.012345679012345678 0.012345679012345678 0 0 0 0 0 0 0 0 0 0 0 0 0 0 0 0 0 0 0 0 0 1:-1 2:0.48648649 3:0.46218487 4:-0.78761062 5:-0.38055605 6:-0.38802959 7:-0.52732061 8:-0.53861485 
0.012345679012345678 0.012345679012345678 0.012345679012345678 0.012345679012345678 0.012345679012345678 0.012345679012345678 0.012345679012345678 0.0053900228633873368 0.012345679012345678 0.012345679012345678 0.012345679012345678 0.012345679012345678 0.012345679012345678 0.012345679012345678 0.0059705621620236788 0.012345679012345678 0.0080696040315024059 0.0055065742086795972 0.010391589007812256 0 0.012345679012345678 0 0 0 0 1:-1 2:-0.41891892 3:-0.42857143 4:-0.85840708 5:-0.90968656 6:-0.92938803 7:-0.93285056 8:-0.91330344 
0 0.012345679012345678 0.012345679012345678 0.012345679012345678 0 0 0 0 0 0 0 0 0 0 0 0 0 0 0 0 0 0 0 0 0 1:-1 2:0.58108108 3:0.56302521 4:-0.66371681 5:0.10217815 6:0.014122394 7:-0.21658986 8:-0.20577977 
0 0.012345679012345678 0.012345679012345678 0.012345679012345678 0 0 0 0 0.0022321051633791542 0 0 0 0 0 0 0 0 0 0 0 0 0 0 0 0 1:-1 2:0.56756757 3:0.64705882 4:-0.66371681 5:0.0076146627 6:-0.15063887 7:-0.12442396 8:-0.24962631 
0.012345679012345678 0 0.012345679012345678 0 0 0 0 0 0 0.012345679012345678 0 0 0 0 0 0 0 0 0 0 0 0 0 0 0 1:-1 2:0.18918919 3:0.092436975 4:-0.76106195 5:-0.5328493 6:-0.61466039 7:-0.44963792 8:-0.69407075 
0.012345679012345678 0 0.012345679012345678 0 0 0 0.012345679012345678 0 0 0.012345679012345678 0 0 0 0 0 0 0 0 0 0 0 0 0 0 0 2:0.13513514 3:0.1092437 4:-0.7699115 5:-0.51230742 6:-0.58103564 7:-0.52995392 8:-0.65421026 
0.012345679012345678 0.012345679012345678 0.012345679012345678 0.012345679012345678 0 0 0.012345679012345678 0 0.012345679012345678 0.012345679012345678 0 0.012345679012345678 0.012345679012345678 0.012345679012345678 0.012345679012345678 0.0096008517218692177 0.012345679012345678 0.012345679012345678 0.012345679012345678 0 0.010112577004084144 0 0 0 0 1:1 2:0.63513514 3:0.59663866 4:-0.67256637 5:-0.21551266 6:-0.41089442 7:-0.35615537 8:-0.32536124 
0.012345679012345678 0.009867769530582101 0.012345679012345678 0.012345679012345678 0 0 0 0 0 0 0 0 0 0 0 0 0 0 0 0 0 0 0 0 0 2:0.58108108 3:0.4789916 4:-0.62831858 5:0.095094741 6:-0.027572293 7:-0.073074391 8:-0.22072745 
0 0 0.012345679012345678 0.012345679012345678 0 0 0 0 0 0 0 0 0 0 0 0 0 0 0 0 0 0 0 0 0 1:-1 2:0.48648649 3:0.56302521 4:-0.69026549 5:-0.0023021073 6:-0.07195696 7:-0.15339039 8:-0.31240658 
0.012345679012345678 0 0.012345679012345678 0.012345679012345678 0 0 0 0 0 0 0 0 0 0 0 0 0 0 0 0 0 0 0 0 0 1:-1 2:0.40540541 3:0.39495798 4:-0.72566372 5:-0.15034532 6:-0.33960995 7:0.016458196 8:-0.47483807 
0.012345679012345678 0.012345679012345678 0.012345679012345678 0 0.012345679012345678 0.012345679012345678 0.012345679012345678 0 0.012345679012345678 0.012345679012345678 0 0.012345679012345678 0 0.012345679012345678 0.012345679012345678 0 0 0 0 0 0.0022331020082615354 0 0 0 0 1:-1 2:-0.27027027 3:-0.32773109 4:-0.85840708 5:-0.8817071 6:-0.9206456 7:-0.88940092 8:-0.89536622 
0.012345679012345678 0 0.012345679012345678 0 0 0 0 0 0 0.012345679012345678 0 0 0 0 0 0 0 0 0 0 0 0 0 0 0 1:-1 2:0.33783784 3:0.27731092 4:-0.69911504 5:-0.38303524 6:-0.48755884 7:-0.51942067 8:-0.46387643 
0.012345679012345678 0 0.012345679012345678 0.012345679012345678 0 0 0.012345679012345678 0 0 0.012345679012345678 0 0 0 0 0 0 0 0 0 0 0 0 0 0 0 2:0.43243243 3:0.42857143 4:-0.73451327 5:-0.23711705 6:-0.39542703 7:-0.25477288 8:-0.41903338 
0.012345679012345678 0.012345679012345678 0.012345679012345678 0.012345679012345678 0.012345679012345678 0.012345679012345678 0.012345679012345678 0 0.012345679012345678 0.012345679012345678 0 0 0 0.012345679012345678 0.012345679012345678 0 0.012345679012345678 0 0 0 0 0 0 0 0 2:-0.054054054 3:-0.058823529 4:-0.83185841 5:-0.77333097 6:-0.83927371 7:-0.84068466 8:-0.75386148 
0.012345679012345678 0.012345679012345678 0.012345679012345678 0.012345679012345678 0.012345679012345678 0.012345679012345678 0.012345679012345678 0 0 0.012345679012345678 0.0033381404479090105 0 0 0 0 0 0 0 0 0 0 0 0 0 0 1:1 2:-0.081081081 3:-0.092436975 4:-0.82300885 5:-0.77368514 6:-0.79488904 7:-0.84463463 8:-0.79372197 
0.012345679012345678 0.012345679012345678 0.012345679012345678 0.012345679012345678 0 0 0 0 0 0 0 0 0 0 0 0 0 0 0 0 0 0 0 0 0 2:0.58108108 3:0.57983193 4:-0.68141593 5:0.12944927 6:0.043039677 7:0.044107966 8:-0.28450424 
0.012345679012345678 0 0.012345679012345678 0.012345679012345678 0 0 0 0 0 0 0 0 0 0 0 0 0 0 0 0 0 0 0 0 0 1:-1 2:0.41891892 3:0.41176471 4:-0.69911504 5:-0.19992917 6:-0.31809011 7:-0.28505596 8:-0.38714499 
0.012345679012345678 0 0.012345679012345678 0.012345679012345678 0 0 0.012345679012345678 0 0.012345679012345678 0.012345679012345678 0 0 0 0.012345679012345678 0.012345679012345678 0 0 0 0 0 0 0 0 0 0 1:-1 2:0.013513514 3:-0.0084033613 4:-0.82300885 5:-0.74110147 6:-0.80430397 7:-0.73403555 8:-0.76382661 
0.012345679012345678 0 0.012345679012345678 0 0 0 0.012345679012345678 0 0 0.012345679012345678 0 0 0 0 0 0 0 0 0 0 0 0 0 0 0 1:-1 2:0.10810811 3:0.025210084 4:-0.7699115 5:-0.61785019 6:-0.65232011 7:-0.74851876 8:-0.68410563 
0.012345679012345678 0.012345679012345678 0.012345679012345678 0.012345679012345678 0.012345679012345678 0 0.012345679012345678 0 0 0.012345679012345678 0 0 0 0 0 0 0 0 0 0 0 0 0 0 0 1:1 2:0.33783784 3:0.2605042 4:-0.74336283 5:-0.41136887 6:-0.52521856 7:-0.62211982 8:-0.44195316 
0.012345679012345678 0.012345679012345678 0.012345679012345678 0.012345679012345678 0 0 0 0 0 0.012345679012345678 0 0 0 0 0 0 0 0 0 0 0 0 0 0 0 2:0.62162162 3:0.52941176 4:-0.65486726 5:-0.022489818 6:-0.18829859 7:-0.16524029 8:-0.21275536 
0.012345679012345678 0 0.012345679012345678 0.012345679012345678 0 0 0 0 0 0 0 0 0 0 0 0 0 0 0 0 0 0 0 0 0 1:-1 2:0.33783784 3:0.32773109 4:-0.72566372 5:-0.15494953 6:-0.24478816 7:-0.32587228 8:-0.41504733 
0.012345679012345678 0.012345679012345678 0.012345679012345678 0.012345679012345678 0 0 0 0 9.1480877391147269e-05 0.012345679012345678 0 0 0 0 0 0 0 0 0 0 0 0 0 0 0 2:0.47297297 3:0.42857143 4:-0.7079646 5:-0.28422171 6:-0.28513786 7:0.14812377 8:-0.35724963 
0.012345679012345678 0 0.012345679012345678 0 0 0 0.012345679012345678 0 0 0.012345679012345678 0 0 0 0 0 0 0 0 0 0 0 0 0 0 0 1:-1 2:-0.013513514 3:0.042016807 4:-0.77876106 5:-0.63591287 6:-0.71149966 7:-0.70111916 8:-0.69407075 
0.012345679012345678 0 0.012345679012345678 0.012345679012345678 0 0 0 0 0 0 0 0 0 0 0 0 0 0 0 0 0 0 0 0 0 1:-1 2:0.48648649 3:0.49579832 4:-0.75221239 5:-0.22507526 6:-0.26899798 7:-0.43120474 8:-0.41504733 
0.012345679012345678 0 0.012345679012345678 0.012345679012345678 0 0 0 0 0 0 0 0 0 0 0 0 0 0 0 0 0 0 0 0 0 1:-1 2:0.45945946 3:0.41176471 4:-0.69911504 5:-0.20170002 6:-0.35642233 7:-0.20605662 8:-0.40508221 
0 0.012345679012345678 0.012345679012345678 0.012345679012345678 0 0 0 0 0.012345679012345678 0 0 0 0 0 0.012345679012345678 0 0 0 0 0 0 0 0 0 0 1:-1 2:0.60810811 3:0.49579832 4:-0.66371681 5:0.07455286 6:-0.1728312 7:0.020408163 8:-0.1758844 
0.012345679012345678 0 0.012345679012345678 0.012345679012345678 0 0 0 0 0 0.012345679012345678 0 0 0 0 0 0 0 0 0 0 0 0 0 0 0 2:0.48648649 3:0.42857143 4:-0.69911504 5:-0.043385869 6:-0.16274378 7:-0.26925609 8:-0.27553563 
0.012345679012345678 0.012345679012345678 0.012345679012345678 0.012345679012345678 0 0 0 0 0.012345679012345678 0 0 0 0 0 0 0 0 0 0 0 0 0 0 0 0 1:-1 2:0.48648649 3:0.51260504 4:-0.67256637 5:-0.18222065 6:-0.30195024 7:-0.36800527 8:-0.29845541 
0.012345679012345678 0.012345679012345678 0.012345679012345678 0.012345679012345678 0 0 0 0 0.012345679012345678 0 0 0 0.012345679012345678 0.012345679012345678 0.012345679012345678 0.012345679012345678 0.0018902088627621881 0 0 0 0 0 0 0 0 2:0.7027027 3:0.73109244 4:-0.67256637 5:0.24597131 6:0.0033624748 7:-0.020408163 8:-0.030393622 
0.012345679012345678 0.012345679012345678 0.012345679012345678 0.012345679012345678 0 0 0 0 0 0 0 0 0 0 0 0 0 0 0 0 0 0 0 0 0 2:0.67567568 3:0.66386555 4:-0.67256637 5:0.18788737 6:0.08137189 7:0.055957867 8:-0.21275536 
0.012345679012345678 0.012345679012345678 0.012345679012345678 0 0.012345679012345678 0.012345679012345678 0.012345679012345678 0 0.012345679012345678 0.012345679012345678 0 0 0 0 0 0 0 0 0 0 0 0 0 0 0 2:-0.17567568 3:-0.21008403 4:-0.81415929 5:-0.81937312 6:-0.86819099 7:-0.86701777 8:-0.83358246 
0.012345679012345678 0.012345679012345678 0.012345679012345678 0.012345679012345678 0 0 0.012345679012345678 0 0 0.012345679012345678 0 0 0 0 0 0 0 0 0 0 0 0 0 0 0 1:1 2:0.43243243 3:0.42857143 4:-0.72566372 5:-0.29343014 6:-0.42972428 7:-0.47860434 8:-0.40508221 
0.012345679012345678 0 0.012345679012345678 0.012345679012345678 0 0 0 0 0 0 0 0 0 0 0 0 0 0 0 0 0 0 0 0 0 1:-1 2:0.39189189 3:0.41176471 4:-0.75221239 5:-0.30936781 6:-0.37928716 7:-0.4680711 8:-0.45490782 
0.012345679012345678 0 0.012345679012345678 0.012345679012345678 0 0 0.012345679012345678 0 0 0.012345679012345678 0 0 0 0 0 0 0 0 0 0 0 0 0 0 0 2:0.14864865 3:0.15966387 4:-0.77876106 5:-0.59305826 6:-0.67921991 7:-0.66951942 8:-0.63428002 
0.012345679012345678 0.012345679012345678 0.012345679012345678 0.012345679012345678 0 0 0 0 0 0 0 0 0 0 0 0 0 0 0 0 0 0 0 0 0 1:-1 2:0.48648649 3:0.42857143 4:-0.74336283 5:-0.23286701 6:-0.37659718 7:-0.35747202 8:-0.35127055 
0.012345679012345678 0 0.012345679012345678 0.012345679012345678 0 0 0 0 0 0 0 0 0 0 0 0 0 0 0 0 0 0 0 0 0 1:-1 2:0.48648649 3:0.54621849 4:-0.7079646 5:-0.13936604 6:-0.10423672 7:-0.45753785 8:-0.38216243 
0.012345679012345678 0 0.012345679012345678 0 0.012345679012345678 0.012345679012345678 0.012345679012345678 0 0 0.012345679012345678 0 0 0 0 0 0 0 0 0 0 0 0 0 0 0 1:1 2:0.081081081 3:0.042016807 4:-0.78761062 5:-0.6259961 6:-0.66442502 7:-0.7445688 8:-0.67912307 
0.012345679012345678 0 0.012345679012345678 0 0 0 0 0 0 0.012345679012345678 0 0 0 0 0 0 0 0 0 0 0 0 0 0 0 1:-1 2:0.054054054 3:0.17647059 4:-0.76106195 5:-0.45068178 6:-0.41492939 7:-0.54970375 8:-0.71300448 
0 0.012345679012345678 0.012345679012345678 0.012345679012345678 0 0 0 0 0.012345679012345678 0 0 0 0.012345679012345678 0 0.012345679012345678 0.012345679012345678 0 0 0 0 0 0 0 0 0 1:-1 2:0.55405405 3:0.57983193 4:-0.67256637 5:0.14751195 6:-0.10759919 7:-0.15207373 8:-0.052316891 
0.012345679012345678 0 0.012345679012345678 0 0 0 0.012345679012345678 0 0 0.012345679012345678 0 0 0 0 0 0 0 0 0 0 0 0 0 0 0 1:-1 2:0.081081081 3:0.075630252 4:-0.77876106 5:-0.58137064 6:-0.62878278 7:-0.69848585 8:-0.64424514 
0.012345679012345678 0.012345679012345678 0.012345679012345678 0.012345679012345678 0 0 0 0 0.012345679012345678 0 0 0 0 0 0.012345679012345678 0 0 0 0 0 0 0 0 0 0 2:0.59459459 3:0.59663866 4:-0.68141593 5:0.05471932 6:-0.14794889 7:-0.10072416 8:-0.13602392 
0.012345679012345678 0 0.012345679012345678 0.012345679012345678 0 0 0 0 0 0.012345679012345678 0 0 0 0 0 0 0 0 0 0 0 0 0 0 0 2:0.5 3:0.44537815 4:-0.67256637 5:-0.17478307 6:-0.26429052 7:-0.34693878 8:-0.32536124 
0.012345679012345678 0.012345679012345678 0.012345679012345678 0.012345679012345678 0 0 0 0.0026262535249559848 0.012345679012345678 0 0 0 0.012345679012345678 0.012345679012345678 0.012345679012345678 0.012345679012345678 0.012345679012345678 0.012345679012345678 0 0 0 0 0 0 0 1:-1 2:0.5 3:0.4789916 4:-0.68141593 5:-0.073490349 6:-0.33557498 7:-0.2244898 8:-0.067264574 
0.012345679012345678 0 0.012345679012345678 0 0 0 0 0 0 0 0 0 0 0 0 0 0 0 0 0 0 0 0 0 0 1:-1 2:0.25675676 3:0.34453782 4:-0.75221239 5:-0.31290951 6:-0.43779422 7:-0.32982225 8:-0.46686597 
0.012345679012345678 0 0.012345679012345678 0 0 0 0.012345679012345678 0 0 0.012345679012345678 0 0 0 0 0 0 0 0 0 0 0 0 0 0 0 2:0.35135135 3:0.32773109 4:-0.71681416 5:-0.2449088 6:-0.2535306 7:-0.43778802 8:-0.48978575 
0.012345679012345678 0.012345679012345678 0.012345679012345678 0.012345679012345678 0 0 0.012345679012345678 0 0.012345679012345678 0.012345679012345678 0 0 0.012345679012345678 0.012345679012345678 0.012345679012345678 0.012345679012345678 0.00399185816664615 0.004061262189939286 0 0 0 0 0 0 0 2:0.44594595 3:0.41176471 4:-0.71681416 5:-0.21126262 6:-0.48554136 7:-0.41408822 8:-0.24763328 
0.012345679012345678 0.012345679012345678 0.012345679012345678 0.012345679012345678 0 0 0 0 0 0 0 0 0 0 0 0 0 0 0 0 0 0 0 0 0 1:-1 2:0.54054054 3:0.52941176 4:-0.65486726 5:-0.13299097 6:-0.20981843 7:-0.41803818 8:-0.25660189 
0.012345679012345678 0 0.012345679012345678 0.012345679012345678 0 0 0 0 0 0 0 0 0 0 0 0 0 0 0 0 0 0 0 0 0 1:-1 2:0.44594595 3:0.42857143 4:-0.67256637 5:-0.075969541 6:-0.073974445 7:-0.23370639 8:-0.42501246 
0.012345679012345678 0 0.012345679012345678 0 0 0 0 0 0 0 0 0 0 0 0 0 0 0 0 0 0 0 0 0 0 1:-1 2:0.35135135 3:0.27731092 4:-0.76106195 5:-0.2987427 6:-0.42030935 7:-0.41540487 8:-0.5266567 
0.012345679012345678 0 0.012345679012345678 0.012345679012345678 0.012345679012345678 0.012345679012345678 0.012345679012345678 0 0 0.012345679012345678 0 0 0 0 0 0 0 0 0 0 0 0 0 0 0 2:-0.081081081 3:-0.15966387 4:-0.81415929 5:-0.74605985 6:-0.8399462 7:-0.78538512 8:-0.8036871 
0.012345679012345678 0 0.012345679012345678 0 0 0 0 0 0 0.012345679012345678 0 0 0 0 0 0 0 0 0 0 0 0 0 0 0 1:-1 2:0.35135135 3:0.36134454 4:-0.72566372 5:-0.36957677 6:-0.40753194 7:-0.53785385 8:-0.56452417 
0.012345679012345678 0 0.012345679012345678 0.012345679012345678 0 0 0 0 0 0.012345679012345678 0 0 0 0 0 0 0 0 0 0 0 0 0 0 0 2:0.45945946 3:0.44537815 4:-0.71681416 5:-0.18151231 6:-0.32817754 7:-0.34430546 8:-0.37518685 
0.012345679012345678 0 0.012345679012345678 0 0.012345679012345678 0 0.012345679012345678 0 0 0.012345679012345678 0 0 0 0 0 0 0 0 0 0 0 0 0 0 0 2:0.16216216 3:0.075630252 4:-0.79646018 5:-0.58384983 6:-0.64694015 7:-0.68531929 8:-0.67015446 
0.012345679012345678 0 0.012345679012345678 0 0.012345679012345678 0 0.012345679012345678 0 0 0.012345679012345678 0 0 0 0 0 0 0 0 0 0 0 0 0 0 0 2:0.027027027 3:-0.0084033613 4:-0.75221239 5:-0.63414202 6:-0.70410222 7:-0.66820276 8:-0.73393124 
0.012345679012345678 0.012345679012345678 0.012345679012345678 0.012345679012345678 0.012345679012345678 0.012345679012345678 0.012345679012345678 0 0.012345679012345678 0.012345679012345678 0.012345679012345678 0 0.012345679012345678 0 0.012345679012345678 0 0 0 0 0 0 0.012345679012345678 0 0.012345679012345678 0 1:1 2:-0.22972973 3:-0.2605042 4:-0.80530973 5:-0.83601913 6:-0.87357095 7:-0.86306781 8:-0.83358246 
0.012345679012345678 0 0.012345679012345678 0.012345679012345678 0 0 0 0 0 0.012345679012345678 0 0 0 0 0 0 0 0 0 0 0 0 0 0 0 2:0.5 3:0.46218487 4:-0.60176991 5:-0.05507349 6:-0.086079354 7:-0.31928901 8:-0.35625311 
0.012345679012345678 0 0.012345679012345678 0 0 0 0 0 0 0 0 0 0 0 0 0 0 0 0 0 0 0 0 0 0 1:-1 2:0.36486486 3:0.34453782 4:-0.73451327 5:-0.28457588 6:-0.33086752 7:-0.4443713 8:-0.43796712 
0.012345679012345678 0.012345679012345678 0.012345679012345678 0.012345679012345678 0 0 0 0.012345679012345678 0.012345679012345678 0.012345679012345678 0 0.012345679012345678 0.012345679012345678 0.012345679012345678 0.012345679012345678 0.012345679012345678 0.012345679012345678 0 0.0019540900045334226 0 0 0 0 0 0 2:0.60810811 3:0.78151261 4:-0.71681416 5:-0.07419869 6:-0.26899798 7:-0.22580645 8:-0.17987045 
0.012345679012345678 0 0.012345679012345678 0 0 0 0 0 0 0.012345679012345678 0 0 0 0 0 0 0 0 0 0 0 0 0 0 0 1:-1 2:0.40540541 3:0.34453782 4:-0.73451327 5:-0.37382681 6:-0.42098184 7:-0.47202107 8:-0.55854509 
0.012345679012345678 0.012345679012345678 0.012345679012345678 0.012345679012345678 0 0 0 0 0.012345679012345678 0.012345679012345678 0 0 0.012345679012345678 0.012345679012345678 0.012345679012345678 0.0027448272904764606 0 0 0 0 0 0 0 0 0 1:-1 2:0.2972973 3:0.32773109 4:-0.69026549 5:-0.3823269 6:-0.56086079 7:-0.46938776 8:-0.39511709 
0.012345679012345678 0 0.012345679012345678 0.012345679012345678 0 0 0.012345679012345678 0 0 0.012345679012345678 0 0 0 0 0 0 0 0 0 0 0 0 0 0 0 2:0.35135135 3:0.39495798 4:-0.72566372 5:-0.21090845 6:-0.31674512 7:-0.37458855 8:-0.32536124 
0.012345679012345678 0 0.012345679012345678 0 0 0 0.012345679012345678 0 0 0.012345679012345678 0 0 0 0 0 0 0 0 0 0 0 0 0 0 0 1:-1 2:0.081081081 3:0.075630252 4:-0.78761062 5:-0.60262086 6:-0.66173504 7:-0.68400263 8:-0.63428002 
0.012345679012345678 0.012345679012345678 0.012345679012345678 0.012345679012345678 0 0 0 0 0.012345679012345678 0 0 0 0 0 0 0 0 0 0 0 0 0 0 0 0 1:-1 2:0.44594595 3:0.46218487 4:-0.71681416 5:-0.21374181 6:-0.37592468 7:-0.40092166 8:-0.32336821 
0.012345679012345678 0 0.012345679012345678 0 0 0 0 0 0 0.012345679012345678 0 0 0 0 0 0 0 0 0 0 0 0 0 0 0 1:-1 2:0.22972973 3:0.17647059 4:-0.73451327 5:-0.41243138 6:-0.52790854 7:-0.50888743 8:-0.49975087 
0.012345679012345678 0.012345679012345678 0.012345679012345678 0.012345679012345678 0 0 0.012345679012345678 0 0.012345679012345678 0.012345679012345678 0 0 0 0.012345679012345678 0.012345679012345678 0 0 0 0 0 0 0 0 0 0 2:0.28378378 3:0.32773109 4:-0.74336283 5:-0.47653621 6:-0.60457297 7:-0.62343647 8:-0.47184853 
0.012345679012345678 0 0.012345679012345678 0.012345679012345678 0 0 0.012345679012345678 0 0 0.012345679012345678 0 0 0 0 0 0 0 0 0 0 0 0 0 0 0 2:0.41891892 3:0.42857143 4:-0.69911504 5:-0.25340889 6:-0.3860121 7:-0.36010533 8:-0.37817638 
0.012345679012345678 0.012345679012345678 0.012345679012345678 0.012345679012345678 0 0 0.012345679012345678 0 0.012345679012345678 0.012345679012345678 0 0 0 0.012345679012345678 0.012345679012345678 0 0 0 0 0 0 0 0 0 0 1:-1 2:0.067567568 3:0.025210084 4:-0.76106195 5:-0.64653798 6:-0.77740417 7:-0.69848585 8:-0.67414051 
0.012345679012345678 0 0.012345679012345678 0.012345679012345678 0 0 0 0 0 0 0 0 0 0 0 0 0 0 0 0 0 0 0 0 0 1:-1 2:0.58108108 3:0.51260504 4:-0.7079646 5:-0.028156543 6:-0.20914593 7:-0.077024358 8:-0.31539611 
0.012345679012345678 0 0.012345679012345678 0.012345679012345678 0 0 0 0 0 0 0 0 0 0 0 0 0 0 0 0 0 0 0 0 0 1:-1 2:0.41891892 3:0.32773109 4:-0.65486726 5:-0.052240128 6:-0.17148621 7:-0.1441738 8:-0.28450424 
0.012345679012345678 0.012345679012345678 0.012345679012345678 0.012345679012345678 0.012345679012345678 0.012345679012345678 0.012345679012345678 0 0.012345679012345678 0.012345679012345678 0 0 0 0.012345679012345678 0.012345679012345678 0 0.0020314369510969991 0 0 0 0 0 0 0 0 1:1 2:0.067567568 3:0.075630252 4:-0.81415929 5:-0.68903843 6:-0.77673167 7:-0.77353522 8:-0.714001 
0.012345679012345678 0 0.012345679012345678 0 0 0 0 0 0 0 0 0 0 0 0 0 0 0 0 0 0 0 0 0 0 1:-1 2:0.40540541 3:0.36134454 4:-0.69911504 5:-0.20134585 6:-0.23470074 7:-0.3285056 8:-0.47483807 
0.012345679012345678 0 0.012345679012345678 0 0 0 0.012345679012345678 0 0 0.012345679012345678 0 0 0 0 0 0 0 0 0 0 0 0 0 0 0 2:0.28378378 3:0.092436975 4:-0.7079646 5:-0.14786612 6:-0.27101547 7:-0.22712311 8:-0.33632287 
0.012345679012345678 0 0.012345679012345678 0 0 0 0.012345679012345678 0 0 0.012345679012345678 0 0 0 0 0 0 0 0 0 0 0 0 0 0 0 2:0.32432432 3:0.31092437 4:-0.72566372 5:-0.41632725 6:-0.54270343 7:-0.46017117 8:-0.50971599 
0.012345679012345678 0 0.012345679012345678 0.012345679012345678 0 0 0 0 0 0 0 0 0 0 0 0 0 0 0 0 0 0 0 0 0 1:-1 2:0.43243243 3:0.41176471 4:-0.66371681 5:-0.20417921 6:-0.20780094 7:-0.35088874 8:-0.48480319 
0.012345679012345678 0 0.012345679012345678 0.012345679012345678 0 0 0 0 0 0.012345679012345678 0 0 0 0 0 0 0 0 0 0 0 0 0 0 0 2:0.41891892 3:0.41176471 4:-0.72566372 5:-0.14432442 6:-0.12306658 7:-0.55497038 8:-0.36422521 
0.012345679012345678 0 0.012345679012345678 0.012345679012345678 0 0 0 0 0 0 0 0 0 0 0 0 0 0 0 0 0 0 0 0 0 1:-1 2:0.52702703 3:0.54621849 4:-0.7079646 5:-0.031698247 6:-0.15131137 7:-0.10204082 8:-0.2894868 
0.012345679012345678 0 0.012345679012345678 0.012345679012345678 0.012345679012345678 0.012345679012345678 0.012345679012345678 0 0 0.012345679012345678 0.012345679012345678 0 0 0 0 0 0 0 0 0 0 0 0 0 0 1:1 2:-0.10810811 3:-0.15966387 4:-0.81415929 5:-0.74464317 6:-0.79085407 7:-0.8156682 8:-0.75386148 
0.012345679012345678 0 0.012345679012345678 0.012345679012345678 0 0 0 0 0.0072973157458100929 0.012345679012345678 0 0 0 0 0 0 0 0 0 0 0 0 0 0 0 2:0.5 3:0.49579832 4:-0.67256637 5:-0.021781477 6:-0.27505044 7:-0.12837393 8:-0.24564026 
0.012345679012345678 0.012345679012345678 0.012345679012345678 0 0 0 0.012345679012345678 0 0.012345679012345678 0.012345679012345678 0 0 0 0 0.012345679012345678 0 0 0 0 0 0 0 0 0 0 2:0.24324324 3:0.21008403 4:-0.69911504 5:-0.3787852 6:-0.60457297 7:-0.48387097 8:-0.43497758 
0.012345679012345678 0.012345679012345678 0.012345679012345678 0.012345679012345678 0 0 0 0 0.012345679012345678 0 0 0 0 0 0.012345679012345678 0 0 0 0 0 0 0 0 0 0 1:-1 2:0.51351351 3:0.44537815 4:-0.68141593 5:-0.16592881 6:-0.35776732 7:-0.27057275 8:-0.29546587 
0.012345679012345678 0 0.012345679012345678 0 0.012345679012345678 0 0.012345679012345678 0 0 0.012345679012345678 0 0 0 0 0 0 0 0 0 0 0 0 0 0 0 2:0.027027027 3:-0.0084033613 4:-0.75221239 5:-0.59589162 6:-0.73705447 7:-0.6524029 8:-0.65421026 
0.012345679012345678 0.012345679012345678 0.012345679012345678 0.012345679012345678 0 0 0.012345679012345678 0 0 0.012345679012345678 0 0.012345679012345678 0.00032443818258945075 0.012345679012345678 0.0063751168503219996 0 0.0052017330609176486 0 0 0 0 0 0 0 0 1:1 2:0.55405405 3:0.56302521 4:-0.73451327 5:-0.12449088 6:-0.26227303 7:-0.22185648 8:-0.34429497 
0.012345679012345678 0.012345679012345678 0.012345679012345678 0.012345679012345678 0 0 0 0 0.012345679012345678 0 0 0 0 0.012345679012345678 0.012345679012345678 0 0 0 0 0 0 0 0 0 0 1:-1 2:0.36486486 3:0.39495798 4:-0.7079646 5:-0.29484682 6:-0.47209146 7:-0.3640553 8:-0.34529148 
0.012345679012345678 0 0.012345679012345678 0 0 0 0.012345679012345678 0 0 0.012345679012345678 0 0 0 0 0 0 0 0 0 0 0 0 0 0 0 2:0.27027027 3:0.29411765 4:-0.76106195 5:-0.35080574 6:-0.42434432 7:-0.47070441 8:-0.52964624 
0.012345679012345678 0.012345679012345678 0.012345679012345678 0.012345679012345678 0 0 0 0 0.012345679012345678 0.012345679012345678 0 0 0 0 0.012345679012345678 0 0 0 0 0 0 0 0 0 0 2:0.55405405 3:0.52941176 4:-0.67256637 5:-0.027448203 6:-0.28715535 7:0.0098749177 8:-0.20876931 
0.012345679012345678 0.012345679012345678 0.012345679012345678 0.012345679012345678 0 0 0.012345679012345678 0 0 0.012345679012345678 0 0 0 0 0 0 0 0 0 0 0 0 0 0 0 1:-1 2:0.16216216 3:0.1092437 4:-0.79646018 5:-0.65964229 6:-0.71889711 7:-0.72876893 8:-0.69706029 
0.012345679012345678 0.012345679012345678 0.012345679012345678 0.012345679012345678 0 0 0 0 0 0.012345679012345678 0 0 0 0 0 0 0 0 0 0 0 0 0 0 0 2:0.45945946 3:0.41176471 4:-0.72566372 5:-0.21161679 6:-0.35036987 7:-0.4443713 8:-0.29546587 
0.012345679012345678 0.012345679012345678 0.012345679012345678 0.012345679012345678 0 0 0 0 0.012254198134954531 0.012345679012345678 0 0 0 0 0.012345679012345678 0 0 0 0 0 0 0 0 0 0 2:0.54054054 3:0.54621849 4:-0.73451327 5:-0.14290774 6:-0.30867518 7:-0.46017117 8:-0.23567514 
0.012345679012345678 0 0.012345679012345678 0.012345679012345678 0 0 0 0 0 0 0 0 0 0 0 0 0 0 0 0 0 0 0 0 0 1:-1 2:0.43243243 3:0.42857143 4:-0.69911504 5:-0.16309545 6:-0.21856086 7:-0.37853851 8:-0.3712008 
0.012345679012345678 0 0.012345679012345678 0 0 0 0.012345679012345678 0 0 0.012345679012345678 0 0 0 0 0 0 0 0 0 0 0 0 0 0 0 2:0.14864865 3:0.14285714 4:-0.75221239 5:-0.4945989 6:-0.57565568 7:-0.53785385 8:-0.52466368 
0 0.012345679012345678 0.012345679012345678 0.012345679012345678 0 0 0 0 0.012345679012345678 0 0 0 0 0.012345679012345678 0.012345679012345678 0 0 0 0 0 0 0 0 0 0 1:-1 2:0.63513514 3:0.56302521 4:-0.65486726 5:0.028156543 6:-0.20511096 7:0.028308097 8:-0.18086697 
0 0.012345679012345678 0.012345679012345678 0.012345679012345678 0 0 0 0 0.012345679012345678 0 0 0 0 0 0 0 0 0 0 0 0 0 0 0 0 1:-1 2:0.7972973 3:0.73109244 4:-0.68141593 5:0.3249513 6:0.22461332 7:0.12310731 8:-0.11410065 
0.012345679012345678 0 0.012345679012345678 0.012345679012345678 0.012345679012345678 0 0.012345679012345678 0 0 0.012345679012345678 0 0 0 0 0 0 0 0 0 0 0 0 0 0 0 2:0.067567568 3:0.025210084 4:-0.78761062 5:-0.66318399 6:-0.71822461 7:-0.7235023 8:-0.70403587 
0.012345679012345678 0 0.012345679012345678 0.012345679012345678 0 0 0 0 0 0.012345679012345678 0 0 0 0 0 0 0 0 0 0 0 0 0 0 0 2:0.47297297 3:0.44537815 4:-0.69026549 5:-0.14042855 6:-0.26832549 7:-0.33508887 8:-0.31539611 
0.012345679012345678 0 0.012345679012345678 0.012345679012345678 0 0 0 0 0 0 0 0 0 0 0 0 0 0 0 0 0 0 0 0 0 1:-1 2:0.41891892 3:0.39495798 4:-0.71681416 5:-0.15565787 6:-0.24478816 7:-0.19947334 8:-0.4778276 
0.012345679012345678 0 0.012345679012345678 0.012345679012345678 0 0 0 0 0 0.012345679012345678 0 0 0 0 0 0 0 0 0 0 0 0 0 0 0 2:0.45945946 3:0.49579832 4:-0.7079646 5:-0.061448557 6:-0.19435104 7:-0.20737327 8:-0.29546587 
0.012345679012345678 0 0.012345679012345678 0 0 0 0.012345679012345678 0 0 0.012345679012345678 0 0 0 0 0 0 0 0 0 0 0 0 0 0 0 1:1 2:0.32432432 3:0.36134454 4:-0.72566372 5:-0.38409775 6:-0.49630128 7:-0.43515471 8:-0.50473343 
0.012345679012345678 0.012345679012345678 0.012345679012345678 0.012345679012345678 0 0 0 0 0 0.012345679012345678 0 0 0 0 0 0 0 0 0 0 0 0 0 0 0 1:-1 2:0.39189189 3:0.34453782 4:-0.72566372 5:-0.37418098 6:-0.4794889 7:-0.50625411 8:-0.45490782 
0.012345679012345678 0 0.012345679012345678 0 0 0 0 0 0 0 0 0 0 0 0 0 0 0 0 0 0 0 0 0 0 1:-1 2:0.40540541 3:0.32773109 4:-0.74336283 5:-0.32211794 6:-0.37861466 7:-0.45753785 8:-0.49775785 
0.012345679012345678 0.012345679012345678 0.012345679012345678 0.012345679012345678 0 0 0.012345679012345678 0 0 0.012345679012345678 0 0 0 0 0 0 0 0 0 0 0 0 0 0 0 1:-1 2:0.040540541 3:0.042016807 4:-0.77876106 5:-0.67062157 6:-0.7464694 7:-0.75246873 8:-0.68809168 
0.012345679012345678 0 0.012345679012345678 0 0 0 0 0 0 0 0 0 0 0 0 0 0 0 0 0 0 0 0 0 0 1:-1 2:0.37837838 3:0.41176471 4:-0.73451327 5:-0.24703382 6:-0.28648285 7:-0.47728769 8:-0.42800199 
0 0.012345679012345678 0.012345679012345678 0.012345679012345678 0 0 0 0 0 0 0 0 0 0 0 0 0 0 0 0 0 0 0 0 0 1:-1 2:0.51351351 3:0.57983193 4:-0.67256637 5:-0.0051354702 6:-0.08137189 7:-0.21132324 8:-0.25660189 
0.012345679012345678 0.012345679012345678 0.012345679012345678 0.012345679012345678 0.012345679012345678 0.012345679012345678 0.012345679012345678 0 0.012345679012345678 0.012345679012345678 0.012345679012345678 0 0 0 0 0 0 0 0 0 0 0 0 0 0 1:1 2:-0.2027027 3:-0.21008403 4:-0.82300885 5:-0.8243315 6:-0.86348352 7:-0.86833443 8:-0.83358246 
0.012345679012345678 0 0.012345679012345678 0 0 0 0.012345679012345678 0 0 0.012345679012345678 0 0 0 0 0 0 0 0 0 0 0 0 0 0 0 2:0.21621622 3:0.21008403 4:-0.73451327 5:-0.50168231 6:-0.55884331 7:-0.61421988 8:-0.60637768 
0.012345679012345678 0 0.012345679012345678 0.012345679012345678 0 0 0.012345679012345678 0 0 0.012345679012345678 0 0 0 0 0 0 0 0 0 0 0 0 0 0 0 1:-1 3:0.0084033613 4:-0.80530973 5:-0.68868426 6:-0.75857431 7:-0.72876893 8:-0.70303936 
0 0.012345679012345678 0.012345679012345678 0.012345679012345678 0 0 0 0 0.012345679012345678 0 0 0 0 0.012345679012345678 0.012345679012345678 0 0 0 0 0 0 0 0 0 0 1:-1 2:0.72972973 3:0.71428571 4:-0.69026549 5:0.38161856 6:0.026899798 7:0.10072416 8:-0.17887394 
0.012345679012345678 0 0.012345679012345678 0.012345679012345678 0 0 0 0 0 0 0 0 0 0 0 0 0 0 0 0 0 0 0 0 0 1:-1 2:0.47297297 3:0.39495798 4:-0.74336283 5:-0.2318045 6:-0.31405514 7:-0.28637261 8:-0.49177877 
0.012345679012345678 0 0.012345679012345678 0 0 0 0 0 0 0 0 0 0 0 0 0 0 0 0 0 0 0 0 0 0 1:-1 2:0.28378378 3:0.32773109 4:-0.73451327 5:-0.28280503 6:-0.4539341 7:-0.47070441 8:-0.42999502 
0.012345679012345678 0 0.012345679012345678 0.012345679012345678 0 0 0 0 0 0 0 0 0 0 0 0 0 0 0 0 0 0 0 0 0 1:-1 2:0.52702703 3:0.54621849 4:-0.85840708 5:-0.26332566 6:-0.30867518 7:-0.53917051 8:-0.65421026 
0.012345679012345678 0 0.012345679012345678 0.012345679012345678 0 0 0.012345679012345678 0 0 0.012345679012345678 0 0 0 0 0 0 0 0 0 0 0 0 0 0 0 1:1 2:0.39189189 3:0.32773109 4:-0.74336283 5:-0.27749247 6:-0.42568931 7:-0.2955892 8:-0.47483807 
0 0.012345679012345678 0.012345679012345678 0.012345679012345678 0 0 0 0 0 0 0 0 0 0 0 0.0034808594816475658 0 0 0 0 0 0 0 0 0 1:-1 2:0.41891892 3:0.46218487 4:-0.62831858 5:0.40641048 6:0.35036987 7:0.10204082 8:-0.024414549 
0 0.012345679012345678 0.012345679012345678 0.012345679012345678 0 0 0 0 0.012345679012345678 0 0 0 0.012345679012345678 0.012345679012345678 0.012345679012345678 0.012345679012345678 0 0 0 0 0 0 0 0 0 1:-1 2:0.58108108 3:0.59663866 4:-0.65486726 5:0.096865592 6:-0.12642905 7:-0.13364055 8:-0.016442451 
0.012345679012345678 0 0.012345679012345678 0.012345679012345678 0 0 0 0 0 0 0 0 0 0 0 0 0 0 0 0 0 0 0 0 0 1:-1 2:0.44594595 3:0.41176471 4:-0.72566372 5:-0.17407473 6:-0.25622058 7:-0.37195523 8:-0.34628799 
0 0.012345679012345678 0.012345679012345678 0.012345679012345678 0 0 0 0.0057620676901626077 0.012345679012345678 0 0 0.012345679012345678 0.012345679012345678 0.012345679012345678 0.012345679012345678 0.012345679012345678 0.012345679012345678 0.012345679012345678 0.010392729399765294 0 0 0 0.0040947923961620397 0 0.0082948294249169004 2:0.7027027 3:0.69747899 4:-0.63716814 5:0.68514255 6:0.33221251 7:0.31665569 8:0.2406577 
0.012345679012345678 0 0.012345679012345678 0 0 0 0 0 0 0.012345679012345678 0 0 0 0 0 0 0 0 0 0 0 0 0 0 0 1:-1 2:0.18918919 3:0.17647059 4:-0.7699115 5:-0.48999469 6:-0.57094822 7:-0.65635286 8:-0.58445441 
0.012345679012345678 0 0.012345679012345678 0.012345679012345678 0 0 0 0 0 0 0 0 0 0 0 0 0 0 0 0 0 0 0 0 0 1:-1 2:0.5 3:0.46218487 4:-0.7079646 5:-0.15105366 6:-0.22797579 7:-0.28242265 8:-0.41704036 
0.012345679012345678 0 0.012345679012345678 0.012345679012345678 0 0 0 0 0 0.012345679012345678 0 0 0 0 0 0 0 0 0 0 0 0 0 0 0 2:0.59459459 3:0.52941176 4:-0.69026549 5:-0.023552329 6:-0.093476799 7:-0.21527321 8:-0.3552566 
0.012345679012345678 0 0.012345679012345678 0.012345679012345678 0 0 0 0 0 0.012345679012345678 0 0 0 0 0 0 0 0 0 0 0 0 0 0 0 2:0.47297297 3:0.42857143 4:-0.69911504 5:-0.21905437 6:-0.28177539 7:-0.34298881 8:-0.43099153 
0.012345679012345678 0 0.012345679012345678 0.012345679012345678 0 0 0 0 0 0.012345679012345678 0 0 0 0 0 0 0 0 0 0 0 0 0 0 0 2:0.56756757 3:0.51260504 4:-0.69026549 5:-0.087302993 6:-0.16677875 7:-0.22053983 8:-0.35326358 
0.012345679012345678 0.012345679012345678 0.012345679012345678 0.012345679012345678 0 0 0.012345679012345678 0.0075706125889438494 0.012345679012345678 0.012345679012345678 0 0 0.012345679012345678 0.012345679012345678 0.012345679012345678 0.012345679012345678 0.012345679012345678 0 0 0 0 0 0 0 0 1:-1 2:-0.013513514 3:-0.042016807 4:-0.81415929 5:-0.71666372 6:-0.82582381 7:-0.74983542 8:-0.67414051 
0.012345679012345678 0.012345679012345678 0.012345679012345678 0.012345679012345678 0.012345679012345678 0.012345679012345678 0.012345679012345678 0 0 0.012345679012345678 0.012345679012345678 0 0 0 0 0 0 0 0 0 0 0 0 0 0 1:1 2:-0.13513514 3:-0.19327731 4:-0.82300885 5:-0.80910218 6:-0.82111634 7:-0.91573404 8:-0.83358246 
0.012345679012345678 0.012345679012345678 0.012345679012345678 0.012345679012345678 0 0 0 0 0.012345679012345678 0.012345679012345678 0 0 0 0.012345679012345678 0.012345679012345678 0 0 0 0 0 0 0 0 0 0 2:0.59459459 3:0.49579832 4:-0.73451327 5:-0.11776164 6:-0.37928716 7:-0.22317314 8:-0.28649726 
0.012345679012345678 0.012345679012345678 0.012345679012345678 0.012345679012345678 0 0 0 0 0 0 0 0 0 0 0 0 0 0 0 0 0 0 0 0 0 2:0.7027027 3:0.61344538 4:-0.61061947 5:0.32034709 6:0.24815064 7:0.008558262 8:-0.12705531 
0.012345679012345678 0.012345679012345678 0.012345679012345678 0.012345679012345678 0 0 0 0 0 0 0 0 0 0 0 0 0 0 0 0 0 0 0 0 0 2:0.58108108 3:0.59663866 4:-0.68141593 5:0.073490349 6:0.043039677 7:-0.20605662 8:-0.20378675 
0.012345679012345678 0 0.012345679012345678 0.012345679012345678 0.012345679012345678 0.012345679012345678 0.012345679012345678 0 0 0.012345679012345678 0 0 0 0 0 0 0 0 0 0 0 0 0 0 0 1:1 2:0.2027027 3:0.1092437 4:-0.79646018 5:-0.58987073 6:-0.65770007 7:-0.59052008 8:-0.71798705 
0 0.012345679012345678 0.012345679012345678 0.012345679012345678 0 0 0 0 0.012345679012345678 0 0 0 0 0 0 0 0 0 0 0 0 0 0 0 0 1:-1 2:0.66216216 3:0.51260504 4:-0.6460177 5:0.32459713 6:0.199731 7:0.055957867 8:-0.046337818 
0.012345679012345678 0.012345679012345678 0.012345679012345678 0.012345679012345678 0.012345679012345678 0 0.012345679012345678 0 0.012345679012345678 0.012345679012345678 0 0 0.012345679012345678 0.012345679012345678 0.012345679012345678 0.012345679012345678 0.012345679012345678 0 0 0 0 0 0 0 0 1:-1 2:-0.22972973 3:-0.19327731 4:-0.7699115 5:-0.80556047 6:-0.88096839 7:-0.85121791 8:-0.80269058 
0.012345679012345678 0 0.012345679012345678 0 0 0 0 0 0 0.012345679012345678 0 0 0 0 0 0 0 0 0 0 0 0 0 0 0 1:-1 2:0.25675676 3:0.21008403 4:-0.69911504 5:-0.3787852 6:-0.54539341 7:-0.45358789 8:-0.49476831 
0.012345679012345678 0.012345679012345678 0.012345679012345678 0.012345679012345678 0 0 0 0 0.012345679012345678 0.012345679012345678 0 0 0 0 0 0 0 0 0 0 0 0 0 0 0 1:-1 2:0.40540541 3:0.37815126 4:-0.77876106 5:-0.43545245 6:-0.56489576 7:-0.47465438 8:-0.54459392 
0.012345679012345678 0 0.012345679012345678 0 0 0 0 0 0.012345679012345678 0.012345679012345678 0 0 0 0 0 0 0 0 0 0 0 0 0 0 0 1:-1 2:0.31081081 3:0.29411765 4:-0.71681416 5:-0.38905614 6:-0.55682582 7:-0.45490454 8:-0.48480319 
0.012345679012345678 0 0.012345679012345678 0 0 0 0.012345679012345678 0 0 0.012345679012345678 0 0 0 0 0 0 0 0 0 0 0 0 0 0 0 2:0.24324324 3:0.15966387 4:-0.73451327 5:-0.13440765 6:-0.17014122 7:-0.27715602 8:-0.42999502 
0.012345679012345678 0 0.012345679012345678 0.012345679012345678 0 0 0 0 0.012345679012345678 0 0 0 0 0 0 0 0 0 0 0 0 0 0 0 0 1:-1 2:0.5 3:0.49579832 4:-0.67256637 5:-0.036656632 6:-0.22326833 7:-0.17840685 8:-0.23766816 
0.012345679012345678 0 0.012345679012345678 0.012345679012345678 0 0 0 0 0 0.012345679012345678 0 0 0 0 0 0 0 0 0 0 0 0 0 0 0 2:0.51351351 3:0.51260504 4:-0.74336283 5:-0.19780414 6:-0.32212508 7:-0.30217248 8:-0.37518685 
0.012345679012345678 0.012345679012345678 0.012345679012345678 0.012345679012345678 0 0 0.012345679012345678 0 0.0015685423889525618 0.012345679012345678 0 0 0.012345679012345678 0.012345679012345678 0.012345679012345678 0 0 0 0 0 0 0 0 0 0 1:1 2:0.47297297 3:0.32773109 4:-0.76106195 5:-0.34690986 6:-0.5198386 7:-0.40487163 8:-0.4120578 
0.012345679012345678 0.012345679012345678 0.012345679012345678 0.012345679012345678 0 0 0 0.012345679012345678 0.012345679012345678 0 0 0 0.012345679012345678 0.012345679012345678 0.012345679012345678 0.012345679012345678 0.012345679012345678 0.012345679012345678 0 0 0.011606710176548393 0 0 0 0 1:-1 2:0.5 3:0.57983193 4:-0.65486726 5:-0.071011156 6:-0.33759247 7:-0.32587228 8:-0.076233184 
0.012345679012345678 0.012345679012345678 0.012345679012345678 0 0 0 0.012345679012345678 0 0 0.012345679012345678 0 0 0 0 0 0 0 0 0 0 0 0 0 0 0 2:0.2027027 3:0.21008403 4:-0.74336283 5:-0.43155658 6:-0.55413584 7:-0.54707044 8:-0.43497758 
0.012345679012345678 0.012345679012345678 0.012345679012345678 0.012345679012345678 0.012345679012345678 0.012345679012345678 0.012345679012345678 0 0 0.012345679012345678 0 0 0 0 0 0 0 0 0 0 0 0 0 0 0 2:-0.081081081 3:-0.042016807 4:-0.7699115 5:-0.74110147 6:-0.80497646 7:-0.7682686 8:-0.76382661 
0.012345679012345678 0 0.012345679012345678 0.012345679012345678 0 0 0 0 0 0.012345679012345678 0 0 0 0 0 0 0 0 0 0 0 0 0 0 0 2:0.58108108 3:0.54621849 4:-0.69911504 5:-0.05436515 6:-0.17417619 7:-0.17840685 8:-0.29048331 
0.012345679012345678 0 0.012345679012345678 0 0 0 0 0 0 0 0 0 0 0 0 0 0 0 0 0 0 0 0 0 0 1:-1 2:0.33783784 3:0.32773109 4:-0.74336283 5:-0.32849301 6:-0.46267653 7:-0.41277156 8:-0.43597409 
0 0.012345679012345678 0.012345679012345678 0.012345679012345678 0 0 0 0 0 0 0 0 0 0 0 0 0 0 0 0 0 0 0 0 0 1:-1 2:0.7027027 3:0.69747899 4:-0.7079646 5:0.18505401 6:0.07061197 7:0.077024358 8:-0.22969606 
0.012345679012345678 0.012345679012345678 0.012345679012345678 0.012345679012345678 0 0 0.012345679012345678 0 0.012345679012345678 0.012345679012345678 0 0 0 0.012345679012345678 0.012345679012345678 0.012345679012345678 0.012345679012345678 0 0 0 0 0 0 0 0 2:0.27027027 3:0.21008403 4:-0.71681416 5:-0.45493182 6:-0.63550773 7:-0.61816985 8:-0.45191829 
0 0.012345679012345678 0.012345679012345678 0.012345679012345678 0 0 0 0 0.012345679012345678 0 0 0 0.012345679012345678 0.012345679012345678 0.012345679012345678 0.012345679012345678 0.012345679012345678 0 0 0 0 0 0 0 0 1:-1 2:0.58108108 3:0.4789916 4:-0.65486726 5:0.15140783 6:-0.20242098 7:-0.054641211 8:-0.036372696 
0.012345679012345678 0 0.012345679012345678 0 0 0 0.012345679012345678 0 0 0.012345679012345678 0 0 0 0 0 0 0 0 0 0 0 0 0 0 0 1:1 2:0.39189189 3:0.41176471 4:-0.74336283 5:-0.31113866 6:-0.37256221 7:-0.4562212 8:-0.48679621 
0.012345679012345678 0.012345679012345678 0.012345679012345678 0.012345679012345678 0.012345679012345678 0 0.012345679012345678 0.0023729343240736613 0.012345679012345678 0.012345679012345678 0 0 0 0.012345679012345678 0.012345679012345678 0.012345679012345678 0.012345679012345678 0 0 0 0 0 0 0 0 2:0.067567568 3:0.0084033613 4:-0.82300885 5:-0.66460067 6:-0.77605918 7:-0.78933509 8:-0.63428002 
0 0.012345679012345678 0.012345679012345678 0.012345679012345678 0 0 0 0 0 0 0 0 0 0 0 0 0 0 0 0 0 0 0 0 0 1:-1 2:0.55405405 3:0.54621849 4:-0.69026549 5:0.037010802 6:-0.090786819 7:-0.19947334 8:-0.20577977 
0.012345679012345678 0 0.012345679012345678 0 0 0 0 0 0 0.012345679012345678 0 0 0 0 0 0 0 0 0 0 0 0 0 0 0 1:-1 2:0.28378378 3:0.29411765 4:-0.76106195 5:-0.3787852 6:-0.5063887 7:-0.44963792 8:-0.47483807 
0.012345679012345678 0 0.012345679012345678 0.012345679012345678 0.012345679012345678 0 0.012345679012345678 0 0 0.012345679012345678 0 0 0 0 0 0 0 0 0 0 0 0 0 0 0 1:1 2:0.28378378 3:0.27731092 4:-0.75221239 5:-0.46768196 6:-0.5595158 7:-0.59183673 8:-0.53961136 
0.012345679012345678 0.012345679012345678 0.012345679012345678 0.012345679012345678 0 0 0 0 0.012345679012345678 0 0 0 0 0 0 0 0 0 0 0 0 0 0 0 0 1:-1 2:0.64864865 3:0.61344538 4:-0.72566372 5:-0.020718966 6:-0.11163416 7:-0.43647136 8:-0.19083209 
0.012345679012345678 0 0.012345679012345678 0.012345679012345678 0.012345679012345678 0 0.012345679012345678 0 0 0.012345679012345678 0 0 0 0 0 0 0 0 0 0 0 0 0 0 0 1:1 2:0.35135135 3:0.32773109 4:-0.76106195 5:-0.42978573 6:-0.51513114 7:-0.53785385 8:-0.49676134 
0.012345679012345678 0 0.012345679012345678 0 0.012345679012345678 0.012345679012345678 0.012345679012345678 0 0.00583288389125689 0.012345679012345678 0.012345679012345678 0 0 0 0 0 0 0 0 0 0 0 0 0 0 2:-0.22972973 3:-0.29411765 4:-0.84070796 5:-0.84806092 6:-0.87222596 7:-0.90388413 8:-0.85650224 
0.012345679012345678 0.012345679012345678 0.012345679012345678 0.012345679012345678 0 0 0.012345679012345678 0 0.012345679012345678 0.012345679012345678 0 0 0.0016451670284449407 0.012345679012345678 0.012345679012345678 0.012345679012345678 0 0 0 0 0 0 0 0 0 1:-1 2:0.040540541 3:-0.042016807 4:-0.76106195 5:-0.65078803 6:-0.77874916 7:-0.69321922 8:-0.63428002 
0.012345679012345678 0 0.012345679012345678 0.012345679012345678 0.012345679012345678 0 0.012345679012345678 0 0 0.012345679012345678 0 0 0 0 0 0 0 0 0 0 0 0 0 0 0 1:1 2:0.28378378 3:0.2605042 4:-0.74336283 5:-0.49707809 6:-0.59448554 7:-0.60105332 8:-0.55455904 
0.012345679012345678 0.012345679012345678 0.012345679012345678 0.012345679012345678 0 0 0 0 0 0 0 0 0 0 0 0 0 0 0 0 0 0 0 0 0 2:0.59459459 3:0.57983193 4:-0.62831858 5:0.16309545 6:0.098856759 7:-0.10730744 8:-0.1509716 
0.012345679012345678 0 0.012345679012345678 0 0.012345679012345678 0.012345679012345678 0.012345679012345678 0 0 0.012345679012345678 0 0 0 0 0 0 0 0 0 0 0 0 0 0 0 2:-0.067567568 3:-0.075630252 4:-0.77876106 5:-0.67345493 6:-0.75117687 7:-0.7116524 8:-0.714001 
0.012345679012345678 0.012345679012345678 0.012345679012345678 0.012345679012345678 0.012345679012345678 0 0.012345679012345678 0 0.012345679012345678 0.012345679012345678 0 0 0 0.012345679012345678 0.012345679012345678 0 0 0 0 0 0 0 0 0 0 1:1 2:0.33783784 3:0.32773109 4:-0.74336283 5:-0.46945281 6:-0.62138534 7:-0.42330481 8:-0.56153463 
0.012345679012345678 0.012345679012345678 0.012345679012345678 0.012345679012345678 0.012345679012345678 0.012345679012345678 0.012345679012345678 0.006111680960428364 0.012345679012345678 0.012345679012345678 0 0 0 0.012345679012345678 0.012345679012345678 0 0.0056296080359343444 0 0 0 0 0 0 0 0.0019661378990340488 1:1 2:-0.054054054 3:0.092436975 4:-0.81415929 5:-0.77014344 6:-0.82851379 7:-0.79460171 8:-0.8036871 
0.012345679012345678 0 0.012345679012345678 0 0.012345679012345678 0 0.012345679012345678 0 0 0.012345679012345678 0 0 0 0 0 0 0 0 0 0 0 0 0 0 0 1:1 2:0.28378378 3:0.24369748 4:-0.74336283 5:-0.37099345 6:-0.41963685 7:-0.55102041 8:-0.53263577 
0 0.012345679012345678 0.012345679012345678 0.012345679012345678 0 0 0 0 0.012345679012345678 0 0 0.0057778700904041417 0 0.012345679012345678 0.012345679012345678 0.012345679012345678 0.0055291672903815311 0 0 0 0 0 0 0 0 1:-1 2:0.7027027 3:0.71428571 4:-0.088495575 5:0.56401629 6:0.48823134 7:0.27978934 8:0.017438964 
0.012345679012345678 0 0.012345679012345678 0.012345679012345678 0 0 0 0 0 0 0 0 0 0 0 0 0 0 0 0 0 0 0 0 0 1:-1 2:0.37837838 3:0.36134454 4:-0.73451327 5:-0.14715778 6:-0.21990585 7:-0.4325214 8:-0.35924265 
0.012345679012345678 0 0.012345679012345678 0 0 0 0.012345679012345678 0 0 0.012345679012345678 0 0 0 0 0 0 0 0 0 0 0 0 0 0 0 2:0.21621622 3:0.15966387 4:-0.76106195 5:-0.49566141 6:-0.5736382 7:-0.63791968 8:-0.58844046 
0.012345679012345678 0 0.012345679012345678 0.012345679012345678 0 0 0.012345679012345678 0 0 0.012345679012345678 0 0 0 0 0 0 0 0 0 0 0 0 0 0 0 2:0.45945946 3:0.41176471 4:-0.72566372 5:-0.29024261 6:-0.399462 7:-0.49308756 8:-0.42600897 
0.012345679012345678 0.012345679012345678 0.012345679012345678 0.012345679012345678 0 0 0 0 0 0.012345679012345678 0 0 0 0 0 0 0 0 0 0 0 0 0 0 0 2:0.5 3:0.46218487 4:-0.69911504 5:-0.14042855 6:-0.37928716 7:-0.46280448 8:-0.38415546 
0.012345679012345678 0.012345679012345678 0.012345679012345678 0.012345679012345678 0.012345679012345678 0.012345679012345678 0.012345679012345678 0 0 0.012345679012345678 0.012345679012345678 0 0 0 0.012345679012345678 0 0 0 0 0 0 0 0 0 0 1:1 2:-0.081081081 3:-0.14285714 4:-0.80530973 5:-0.79139366 6:-0.83591123 7:-0.85121791 8:-0.80468361 
0 0.012345679012345678 0.012345679012345678 0.012345679012345678 0 0 0 0 0 0 0 0 0 0 0 0 0 0 0 0 0 0 0 0 0 1:-1 2:0.67567568 3:0.69747899 4:-0.67256637 5:0.23109616 6:0.18897108 7:-0.023041475 8:-0.13104136 
0.012345679012345678 0.012345679012345678 0.012345679012345678 0.012345679012345678 0.012345679012345678 0.012345679012345678 0.012345679012345678 0 0.012345679012345678 0.012345679012345678 0 0 0 0 0 0 0 0 0 0 0 0 0 0 0 1:-1 2:-0.28378378 3:-0.29411765 4:-0.84955752 5:-0.87143616 6:-0.89778077 7:-0.88018433 8:-0.87344295 
0.012345679012345678 0 0.012345679012345678 0.012345679012345678 0 0 0 0 0 0.012345679012345678 0 0 0 0 0 0 0 0 0 0 0 0 0 0 0 2:0.45945946 3:0.42857143 4:-0.7079646 5:-0.17867894 6:-0.31136516 7:-0.20868993 8:-0.39511709 
0.012345679012345678 0 0.012345679012345678 0.012345679012345678 0.012345679012345678 0 0.012345679012345678 0 0 0.012345679012345678 0 0 0 0 0 0 0 0 0 0 0 0 0 0 0 1:1 2:0.36486486 3:0.29411765 4:-0.74336283 5:-0.44147335 6:-0.52723605 7:-0.56813693 8:-0.52067763 
0.012345679012345678 0 0.012345679012345678 0.012345679012345678 0 0 0 0 0 0 0 0 0 0 0 0 0 0 0 0 0 0 0 0 0 1:-1 2:0.43243243 3:0.41176471 4:-0.73451327 5:-0.18682486 6:-0.22797579 7:-0.39038841 8:-0.41106129 
0 0.012345679012345678 0.012345679012345678 0.012345679012345678 0 0 0 0 0 0 0 0 0 0 0 0 0 0 0 0 0 0 0 0 0 1:-1 2:0.68918919 3:0.57983193 4:-0.69026549 5:0.24420046 6:0.17484869 7:-0.049374589 8:-0.066268062 
0.012345679012345678 0 0.012345679012345678 0.012345679012345678 0 0 0 0 0 0.012345679012345678 0 0 0 0 0 0 0 0 0 0 0 0 0 0 0 2:0.54054054 3:0.42857143 4:-0.69911504 5:-0.19780414 6:-0.29119032 7:-0.33245556 8:-0.39511709 
0.012345679012345678 0 0.012345679012345678 0 0 0 0 0 0 0 0 0 0 0 0 0 0 0 0 0 0 0 0 0 0 1:-1 2:0.41891892 3:0.37815126 4:-0.72566372 5:-0.28138835 6:-0.31271015 7:-0.3522054 8:-0.55455904 
0.012345679012345678 0.012345679012345678 0.012345679012345678 0.012345679012345678 0 0 0 0 0.012345679012345678 0 0 0 0 0 0 0 0 0 0 0 0 0 0 0 0 1:-1 2:0.45945946 3:0.4789916 4:-0.6460177 5:-0.13794935 6:-0.24277068 7:-0.40355497 8:-0.22869955 
0.012345679012345678 0 0.012345679012345678 0 0 0 0 0 0 0.012345679012345678 0 0 0 0 0 0 0 0 0 0 0 0 0 0 0 1:-1 2:0.17567568 3:0.15966387 4:-0.75221239 5:-0.53993271 6:-0.67114997 7:-0.56287031 8:-0.63428002 
0.012345679012345678 0 0.012345679012345678 0.012345679012345678 0 0 0 0 0 0.012345679012345678 0 0 0 0 0 0 0 0 0 0 0 0 0 0 0 2:0.54054054 3:0.49579832 4:-0.71681416 5:-0.11846998 6:-0.26496301 7:-0.14022383 8:-0.40508221 
0 0.012345679012345678 0.012345679012345678 0.012345679012345678 0 0 0 0 0 0 0 0 0 0 0 0 0 0 0 0 0 0 0 0 0 1:-1 2:0.54054054 3:0.59663866 4:-0.65486726 5:-0.016823092 6:-0.13180901 7:-0.22580645 8:-0.25859492 
0.012345679012345678 0 0.012345679012345678 0.012345679012345678 0.012345679012345678 0.012345679012345678 0.012345679012345678 0 0 0.012345679012345678 0 0 0 0 0 0 0 0 0 0 0 0 0 0 0 1:1 2:0.2027027 3:0.15966387 4:-0.7699115 5:-0.58880822 6:-0.68796234 7:-0.64186965 8:-0.64424514 
0.012345679012345678 0 0.012345679012345678 0.012345679012345678 0 0 0 0 0 0.012345679012345678 0 0 0 0 0 0 0 0 0 0 0 0 0 0 0 2:0.54054054 3:0.49579832 4:-0.72566372 5:-0.13688684 6:-0.17484869 7:-0.37985517 8:-0.36821126 
0.012345679012345678 0 0.012345679012345678 0.012345679012345678 0 0 0 0 0 0.012345679012345678 0 0 0 0 0 0 0 0 0 0 0 0 0 0 0 2:0.71621622 3:0.49579832 4:-0.73451327 5:-0.068886134 6:-0.082044385 7:-0.2600395 8:-0.4449427 
0 0.012345679012345678 0.012345679012345678 0.012345679012345678 0 0 0 0 0 0 0 0 0 0 0 0 0 0 0 0 0 0 0 0 0 1:-1 2:0.72972973 3:0.61344538 4:-0.66371681 5:0.18540818 6:0.19435104 7:-0.17709019 8:-0.16591928 
0.012345679012345678 0 0.012345679012345678 0 0.012345679012345678 0.012345679012345678 0.012345679012345678 0 0 0.012345679012345678 0 0 0.001778835147702718 0 0 0 0 0 0 0 0 0 0 0 0 1:1 2:0.18918919 3:0.21008403 4:-0.76106195 5:-0.49672392 6:-0.61802286 7:-0.60105332 8:-0.51469856 
0.012345679012345678 0.012345679012345678 0.012345679012345678 0.012345679012345678 0 0 0.012345679012345678 0 0 0.012345679012345678 0 0 0 0 0 0 0 0 0 0 0 0 0 0 0 1:1 2:0.52702703 3:0.46218487 4:-0.76106195 5:-0.2222419 6:-0.34498991 7:-0.34167215 8:-0.4200299 
0.012345679012345678 0 0.012345679012345678 0.012345679012345678 0 0 0 0 0 0 0 0 0 0 0 0 0 0 0 0 0 0 0 0 0 1:-1 2:0.48648649 3:0.41176471 4:-0.69026549 5:-0.051885957 6:-0.11903161 7:-0.25608953 8:-0.33134031 
0.012345679012345678 0 0.012345679012345678 0 0.012345679012345678 0.012345679012345678 0.012345679012345678 0 0 0.012345679012345678 0 0 0 0 0 0 0 0 0 0 0 0 0 0 0 1:1 2:0.067567568 3:0.058823529 4:-0.75221239 5:-0.64830884 6:-0.7195696 7:-0.67873601 8:-0.714001 
0.012345679012345678 0 0.012345679012345678 0 0 0 0.012345679012345678 0 0 0.012345679012345678 0 0 0 0 0 0 0 0 0 0 0 0 0 0 0 2:0.35135135 3:0.22689076 4:-0.76106195 5:-0.39436869 6:-0.38130464 7:-0.61421988 8:-0.57947185 
0.012345679012345678 0.012345679012345678 0.012345679012345678 0.012345679012345678 0 0 0 0 0.0042806899577096345 0 0 0 0 0 0 0 0 0 0 0 0 0 0 0 0 2:0.68918919 3:0.57983193 4:-0.66371681 5:0.13299097 6:-0.050437122 7:-0.040157999 8:-0.14598904 
0.012345679012345678 0 0.012345679012345678 0.012345679012345678 0.012345679012345678 0 0.012345679012345678 0 0 0.012345679012345678 0 0 0 0 0 0 0 0 0 0 0 0 0 0 0 1:1 2:0.27027027 3:0.24369748 4:-0.75221239 5:-0.42447317 6:-0.59112307 7:-0.39302172 8:-0.51669158 
0.012345679012345678 0 0.012345679012345678 0 0 0 0.012345679012345678 0 0 0.012345679012345678 0 0 0 0 0 0 0 0 0 0 0 0 0 0 0 2:0.17567568 3:0.15966387 4:-0.75221239 5:-0.42447317 6:-0.38399462 7:-0.48387097 8:-0.61434978 
0.012345679012345678 0 0.012345679012345678 0.012345679012345678 0 0 0.012345679012345678 0 0 0.012345679012345678 0 0 0 0 0 0 0 0 0 0 0 0 0 0 0 2:0.45945946 3:0.34453782 4:-0.74336283 5:-0.21126262 6:-0.32279758 7:-0.37458855 8:-0.37518685 
0.012345679012345678 0 0.012345679012345678 0 0 0 0 0 0 0 0 0 0 0 0 0 0 0 0 0 0 0 0 0 0 1:-1 2:0.35135135 3:0.29411765 4:-0.67256637 5:-0.27536745 6:-0.31876261 7:-0.41013825 8:-0.50772297 
0.012345679012345678 0 0.012345679012345678 0 0.012345679012345678 0 0.012345679012345678 0 0 0.012345679012345678 0 0 0 0 0 0 0 0 0 0 0 0 0 0 0 1:1 2:0.31081081 3:0.29411765 4:-0.75221239 5:-0.41703559 6:-0.46065905 7:-0.63528637 8:-0.51469856 
0.012345679012345678 0.012345679012345678 0.012345679012345678 0.012345679012345678 0 0 0 0 0 0.012345679012345678 0 0 0 0 0 0 0 0 0 0 0 0 0 0 0 1:-1 2:0.37837838 3:0.37815126 4:-0.7079646 5:-0.37453515 6:-0.45998655 7:-0.57340355 8:-0.45690085 
0.012345679012345678 0 0.012345679012345678 0 0 0 0 0 0 0 0 0 0 0 0 0 0 0 0 0 0 0 0 0 0 1:-1 2:0.41891892 3:0.32773109 4:-0.71681416 5:-0.19249159 6:-0.27639543 7:-0.40882159 8:-0.39113104 
0.012345679012345678 0 0.012345679012345678 0 0 0 0.012345679012345678 0 0 0.012345679012345678 0 0 0 0 0 0 0 0 0 0 0 0 0 0 0 2:0.14864865 3:0.15966387 4:-0.77876106 5:-0.52859926 6:-0.65030262 7:-0.65503621 8:-0.56452417 
0.012345679012345678 0 0.012345679012345678 0.012345679012345678 0 0 0.012345679012345678 0 0 0.012345679012345678 0 0 0 0 0 0 0 0 0 0 0 0 0 0 0 2:0.5 3:0.4789916 4:-0.66371681 5:-0.17584558 6:-0.2804304 7:-0.4443713 8:-0.67912307 
0.012345679012345678 0.012345679012345678 0.012345679012345678 0.012345679012345678 0.012345679012345678 0 0.012345679012345678 0 0.012345679012345678 0.012345679012345678 0 0 0.012345679012345678 0 0.012345679012345678 0 0.0067160709764113339 0 0 0 0 0 0 0 0 1:1 2:0.2972973 3:0.2605042 4:-0.72566372 5:-0.47759872 6:-0.57969065 7:-0.62343647 8:-0.4449427 
0.012345679012345678 0.012345679012345678 0.012345679012345678 0.012345679012345678 0.012345679012345678 0.012345679012345678 0.012345679012345678 0 0.012345679012345678 0.012345679012345678 0 0 0 0 0.012345679012345678 0 0 0 0 0 0 0 0 0 0 1:-1 2:-0.28378378 3:-0.2605042 4:-0.84070796 5:-0.85514432 6:-0.90383322 7:-0.88808427 8:-0.86347783 
0.012345679012345678 0 0.012345679012345678 0.012345679012345678 0 0 0 0 0 0 0 0 0 0 0 0 0 0 0 0 0 0 0 0 0 1:-1 2:0.37837838 3:0.39495798 4:-0.7079646 5:-0.0033646184 6:0.07464694 7:-0.39828835 8:-0.41504733 
0.012345679012345678 0 0.012345679012345678 0 0 0 0 0 0 0.012345679012345678 0 0 0 0 0 0 0 0 0 0 0 0 0 0 0 1:-1 2:0.17567568 3:0.12605042 4:-0.77876106 5:-0.536391 6:-0.64895763 7:-0.51810402 8:-0.65421026 
0.012345679012345678 0.012345679012345678 0.012345679012345678 0.012345679012345678 0.012345679012345678 0.012345679012345678 0.012345679012345678 0 0.012345679012345678 0.012345679012345678 0.012345679012345678 0.0065678089219415366 0 0.012345679012345678 0.012345679012345678 0.0027301972250709816 0.012345679012345678 0.012345679012345678 0.012345679012345678 0 0 0 0 0 0 1:1 2:-0.17567568 3:-0.2605042 4:-0.82300885 5:-0.84168585 6:-0.8937458 7:-0.8722844 8:-0.83358246 
0.012345679012345678 0 0.012345679012345678 0.012345679012345678 0 0 0 0 0 0.012345679012345678 0 0 0 0 0 0 0 0 0 0 0 0 0 0 0 2:0.48648649 3:0.44537815 4:-0.69026549 5:-0.036656632 6:-0.091459314 7:-0.31270573 8:-0.26457399 
0.012345679012345678 0 0.012345679012345678 0.012345679012345678 0 0 0.012345679012345678 0 0 0.012345679012345678 0 0 0 0 0 0 0 0 0 0 0 0 0 0 0 2:0.44594595 3:0.36134454 4:-0.74336283 5:-0.2091376 6:-0.35843981 7:-0.22580645 8:-0.40807175 
0.012345679012345678 0 0.012345679012345678 0.012345679012345678 0.012345679012345678 0 0.012345679012345678 0 0 0.012345679012345678 0 0 0 0 0 0 0 0 0 0 0 0 0 0 0 1:1 2:0.28378378 3:0.27731092 4:-0.75221239 5:-0.43509828 6:-0.60457297 7:-0.49967084 8:-0.52864973 
0.012345679012345678 0 0.012345679012345678 0 0 0 0 0 0 0.012345679012345678 0 0 0 0 0 0 0 0 0 0 0 0 0 0 0 1:-1 2:0.31081081 3:0.24369748 4:-0.76106195 5:-0.40003542 6:-0.56220578 7:-0.41935484 8:-0.47583458 
0.012345679012345678 0 0.012345679012345678 0 0 0 0 0 0 0 0 0 0 0 0 0 0 0 0 0 0 0 0 0 0 1:-1 2:0.37837838 3:0.36134454 4:-0.7079646 5:-0.2126793 6:-0.21788837 7:-0.38380513 8:-0.45690085 
0 0.012345679012345678 0.012345679012345678 0.012345679012345678 0 0 0 0 0.012345679012345678 0 0 0 0.012345679012345678 0.012345679012345678 0.012345679012345678 0.012345679012345678 0.0023858661180810848 0 0 0 0 0 0 0 0 1:-1 2:0.68918919 3:0.71428571 4:-0.69026549 5:0.31361785 6:0.13449899 7:0.034891376 8:0.073243647 
0.012345679012345678 0.012345679012345678 0.012345679012345678 0.012345679012345678 0 0 0 0 0 0 0 0 0 0 0 0 0 0 0 0 0 0 0 0 0 2:0.56756757 3:0.52941176 4:-0.69026549 5:0.16911634 6:0.14391392 7:-0.11520737 8:-0.1998007 
0.012345679012345678 0.012345679012345678 0.012345679012345678 0.012345679012345678 0 0 0 0 0 0.012345679012345678 0 0 0 0 0 0 0 0 0 0 0 0 0 0 0 2:0.59459459 3:0.54621849 4:-0.68141593 5:-0.017531433 6:-0.20174849 7:-0.14812377 8:-0.21574489 
0.012345679012345678 0.012345679012345678 0.012345679012345678 0.012345679012345678 0 0 0.012345679012345678 0.012345679012345678 0.012345679012345678 0.012345679012345678 0 0.012345679012345678 0.012345679012345678 0.012345679012345678 0.012345679012345678 0.012345679012345678 0.012345679012345678 0.012345679012345678 0.0019529496125803843 0 0.0042856342508792705 0 0 0 0 2:0.18918919 3:0.14285714 4:-0.7079646 5:-0.46555693 6:-0.74512441 7:-0.55365372 8:-0.36422521 
0.012345679012345678 0 0.012345679012345678 0 0.012345679012345678 0 0.012345679012345678 0 0 0.012345679012345678 0 0 0 0 0 0 0 0 0 0 0 0 0 0 0 2:0.081081081 3:0.075630252 4:-0.77876106 5:-0.59164158 6:-0.62811029 7:-0.77748519 8:-0.69407075 
0 0.012345679012345678 0.012345679012345678 0.012345679012345678 0 0 0 0 0.012345679012345678 0 0 0 0.012345679012345678 0.012345679012345678 0.012345679012345678 0.012345679012345678 0.011929020722295177 0.012345679012345678 0 0 0 0 0 0 0 1:-1 2:0.59459459 3:0.57983193 4:-0.72566372 5:-0.039844165 6:-0.28513786 7:-0.19947334 8:-0.10911809 
0.012345679012345678 0 0.012345679012345678 0 0 0 0 0 0 0.012345679012345678 0 0 0 0 0 0 0 0 0 0 0 0 0 0 0 1:-1 2:0.24324324 3:0.22689076 4:-0.74336283 5:-0.44111918 6:-0.55749832 7:-0.5036208 8:-0.50473343 
0.012345679012345678 0.012345679012345678 0.012345679012345678 0.012345679012345678 0.012345679012345678 0 0.012345679012345678 0 0.012345679012345678 0.012345679012345678 0 0.012345679012345678 0.0027240956869097211 0.012345679012345678 0.012345679012345678 0.012345679012345678 0 0 0 0 0 0 0 0 0 1:-1 2:-0.12162162 3:-0.12605042 4:-0.81415929 5:-0.7981229 6:-0.84868863 7:-0.90388413 8:-0.77777778 
0.012345679012345678 0 0.012345679012345678 0 0 0 0.012345679012345678 0 0 0.012345679012345678 0 0 0 0 0 0 0 0 0 0 0 0 0 0 0 1:-1 2:0.10810811 3:0.0084033613 4:-0.78761062 5:-0.61395431 6:-0.71217216 7:-0.57603687 8:-0.72396612 
0.012345679012345678 0.012345679012345678 0.012345679012345678 0.012345679012345678 0 0 0 0 0.012345679012345678 0 0 0 0.012345679012345678 0.012345679012345678 0.012345679012345678 0.012345679012345678 0.0028528294086014954 0.0057534301320047339 0 0 0 0 0 0 0 1:-1 2:0.35135135 3:0.39495798 4:-0.67256637 5:-0.30370108 6:-0.49764627 7:-0.42857143 8:-0.29546587 
0.012345679012345678 0 0.012345679012345678 0 0 0 0.012345679012345678 0 0 0.012345679012345678 0 0 0 0 0 0 0 0 0 0 0 0 0 0 0 2:0.40540541 3:0.37815126 4:-0.73451327 5:-0.30724278 6:-0.44788164 7:-0.48518762 8:-0.55356253 
0.012345679012345678 0.012345679012345678 0.012345679012345678 0.012345679012345678 0 0 0.012345679012345678 0 0 0.012345679012345678 0 0 0 0 0 0 0 0 0 0 0 0 0 0 0 1:-1 2:-0.040540541 3:-0.0084033613 4:-0.80530973 5:-0.71383035 6:-0.77605918 7:-0.78801843 8:-0.73393124 
0.012345679012345678 0 0.012345679012345678 0.012345679012345678 0 0 0.012345679012345678 0 0 0.012345679012345678 0 0 0 0 0 0 0 0 0 0 0 0 0 0 0 2:0.33783784 3:0.39495798 4:-0.75221239 5:-0.38445192 6:-0.48352387 7:-0.44568795 8:-0.54160438 
0 0.012345679012345678 0.012345679012345678 0.012345679012345678 0 0 0 0 0.0056255064526337228 0 0 0 0 0 0 0 0 0 0 0 0 0 0 0 0 1:-1 2:0.74324324 3:0.66386555 4:-0.63716814 5:0.53214096 6:0.48554136 7:0.38117182 8:-0.19780767 
0.012345679012345678 0 0.012345679012345678 0 0.012345679012345678 0.012345679012345678 0.012345679012345678 0 0 0.012345679012345678 0 0 0 0 0 0 0 0 0 0 0 0 0 0 0 1:1 2:0.054054054 3:-0.092436975 4:-0.75221239 5:-0.46201523 6:-0.51445864 7:-0.59710336 8:-0.58644743 
0.012345679012345678 0.012345679012345678 0.012345679012345678 0.012345679012345678 0 0 0 0 0 0.012345679012345678 0 0 0 0 0 0 0 0 0 0 0 0 0 0 0 1:-1 2:0.28378378 3:0.27731092 4:-0.75221239 5:-0.46130689 6:-0.56153329 7:-0.55760369 8:-0.48679621 
0.012345679012345678 0.012345679012345678 0.012345679012345678 0.012345679012345678 0 0 0 0 0 0 0 0 0 0 0 0 0 0 0 0 0 0 0 0 0 2:0.71621622 3:0.6302521 4:-0.63716814 5:0.11811581 6:0.07733692 7:-0.24555629 8:-0.13602392 
0.012345679012345678 0.012345679012345678 0.012345679012345678 0.012345679012345678 0 0 0 0.0052605947420085002 0.012345679012345678 0.012345679012345678 0 0 0.012345679012345678 0.012345679012345678 0.012345679012345678 0.012345679012345678 0.012345679012345678 0.012345679012345678 0.0071065783299395511 0 0 0 0 0 0 1:-1 2:0.28378378 3:0.36134454 4:-0.69026549 5:-0.3858686 6:-0.57700067 7:-0.52073733 8:-0.36522172 
0.012345679012345678 0 0.012345679012345678 0.012345679012345678 0.012345679012345678 0 0.012345679012345678 0 0 0.012345679012345678 0 0 0 0 0 0 0 0 0 0 0 0 0 0 0 1:1 2:0.33783784 3:0.29411765 4:-0.7699115 5:-0.45847353 6:-0.53463349 7:-0.53127057 8:-0.6003986 
0.012345679012345678 0.012345679012345678 0.012345679012345678 0.012345679012345678 0.012345679012345678 0.012345679012345678 0.012345679012345678 0 0.012345679012345678 0.012345679012345678 0 0 0 0.012345679012345678 0 0 0 0 0 0 0 0 0 0 0 1:1 2:0.22972973 3:0.2605042 4:-0.76106195 5:-0.55834957 6:-0.67182246 7:-0.61816985 8:-0.57747882 
0.012345679012345678 0.012345679012345678 0.012345679012345678 0.012345679012345678 0 0 0.012345679012345678 0 0.012345679012345678 0.012345679012345678 0 0 0 0.012345679012345678 0.012345679012345678 0 0 0 0 0 0 0 0 0 0 1:-1 3:-0.025210084 4:-0.84070796 5:-0.73260138 6:-0.80901143 7:-0.80645161 8:-0.75386148 
0.012345679012345678 0 0.012345679012345678 0.012345679012345678 0 0 0 0 0 0 0 0 0 0 0 0 0 0 0 0 0 0 0 0 0 1:-1 2:0.39189189 3:0.46218487 4:-0.7079646 5:-0.14644944 6:-0.24949563 7:-0.38248848 8:-0.38714499 
0.012345679012345678 0.012345679012345678 0.012345679012345678 0.012345679012345678 0 0 0.012345679012345678 0 0.012345679012345678 0.012345679012345678 0 0 0 0 0.012186502560946205 0 0 0 0 0 0 0 0 0 0 2:0.36486486 3:0.49579832 4:-0.7079646 5:-0.34620152 6:-0.50369872 7:-0.51415405 8:-0.4040857 
0.012345679012345678 0.012345679012345678 0.012345679012345678 0.012345679012345678 0 0 0 0 0.012345679012345678 0.012345679012345678 0 0 0 0 0.011199741552572662 0 0 0 0 0 0 0 0 0 0 2:0.48648649 3:0.4789916 4:-0.7079646 5:-0.1074907 6:-0.3194351 7:-0.16392363 8:-0.22571001 
0.012345679012345678 0 0.012345679012345678 0.012345679012345678 0 0 0 0 0 0.012345679012345678 0 0 0 0 0 0 0 0 0 0 0 0 0 0 0 1:-1 2:0.36486486 3:0.34453782 4:-0.76106195 5:-0.43793165 6:-0.45662408 7:-0.56155365 8:-0.59641256 
0.012345679012345678 0 0.012345679012345678 0 0 0 0.012345679012345678 0 0 0.012345679012345678 0 0 0 0 0 0 0 0 0 0 0 0 0 0 0 2:0.36486486 3:0.34453782 4:-0.78761062 5:-0.24101293 6:-0.35709482 7:-0.28110599 8:-0.47483807 
0.012345679012345678 0.012345679012345678 0.012345679012345678 0.012345679012345678 0 0 0.012345679012345678 0 0.012345679012345678 0.012345679012345678 0 0 0.012345679012345678 0 0 0.012345679012345678 0.012345679012345678 0 0 0 0 0 0.0044036472183142227 0 0 1:1 2:0.44594595 3:0.41176471 4:-0.73451327 5:-0.31680538 6:-0.44384667 7:-0.47465438 8:-0.31539611 
0.012345679012345678 0.012345679012345678 0.012345679012345678 0.012345679012345678 0 0 0 0 0.012345679012345678 0 0 0 0 0 0 0 0 0 0 0 0 0 0 0 0 1:-1 2:0.44594595 3:0.42857143 4:-0.69911504 5:-0.19603329 6:-0.38735709 7:-0.23765635 8:-0.31141006 
0.012345679012345678 0.012345679012345678 0.012345679012345678 0.012345679012345678 0.012345679012345678 0.012345679012345678 0.012345679012345678 0 0.012345679012345678 0.012345679012345678 0.012345679012345678 0 0 0 0.0045048041321756604 0.012345679012345678 0 0 0 0 0 0 0 0 0 2:-0.27027027 3:-0.31092437 4:-0.84070796 5:-0.85479015 6:-0.89710827 7:-0.88676761 8:-0.85052317 
0.012345679012345678 0 0.012345679012345678 0 0 0 0 0 0 0.012345679012345678 0 0 0 0 0 0 0 0 0 0 0 0 0 0 0 1:-1 2:0.36486486 3:0.2605042 4:-0.7699115 5:-0.43616079 6:-0.51042367 7:-0.54575379 8:-0.54758346 
0.012345679012345678 0.012345679012345678 0.012345679012345678 0.012345679012345678 0 0 0.012345679012345678 0 0 0.012345679012345678 0 0 0 0 0 0 0 0 0 0 0 0 0 0 0 1:-1 2:0.040540541 3:0.0084033613 4:-0.75221239 5:-0.65362139 6:-0.72293208 7:-0.69848585 8:-0.65620329 
0.012345679012345678 0 0.012345679012345678 0 0 0 0 0 0 0.012345679012345678 0 0 0 0 0 0 0 0 0 0 0 0 0 0 0 1:-1 2:0.27027027 3:0.24369748 4:-0.76106195 5:-0.40322295 6:-0.49966375 7:-0.44832126 8:-0.5346288 
0.012345679012345678 0 0.012345679012345678 0.012345679012345678 0 0 0 0 0 0 0 0 0 0 0 0 0 0 0 0 0 0 0 0 0 1:-1 2:0.5 3:0.44537815 4:-0.7079646 5:-0.12803258 6:-0.11835911 7:-0.39170507 8:-0.39810663 
0.012345679012345678 0.012345679012345678 0.012345679012345678 0.012345679012345678 0 0 0 0 0.012345679012345678 0.012345679012345678 0 0 0.012345679012345678 0.012345679012345678 0.012345679012345678 0.012345679012345678 0 0.012345679012345678 0 0 0 0 0 0 0 2:0.51351351 3:0.54621849 4:-0.66371681 5:-0.029927395 6:-0.3201076 7:-0.19815668 8:-0.10612855 
0.012345679012345678 0.012345679012345678 0.012345679012345678 0.012345679012345678 0 0 0 0 0 0 0 0 0 0 0 0 0 0 0 0 0 0 0 0 0 2:0.60810811 3:0.66386555 4:-0.72566372 5:0.10784487 6:0.15265636 7:-0.10862409 8:-0.29745889 
0.012345679012345678 0.012345679012345678 0.012345679012345678 0.012345679012345678 0 0 0.012345679012345678 0 0.012345679012345678 0.012345679012345678 0 0 0 0.012345679012345678 0.012345679012345678 0 0 0 0 0 0 0 0 0 0 1:-1 2:0.013513514 3:-0.058823529 4:-0.77876106 5:-0.75420577 6:-0.84129119 7:-0.7235023 8:-0.77379173 
0.012345679012345678 0.012345679012345678 0.012345679012345678 0.012345679012345678 0 0 0 0.012345679012345678 0.012345679012345678 0 0 0.012345679012345678 0.012345679012345678 0.012345679012345678 0.012345679012345678 0.012345679012345678 0.012345679012345678 0.012345679012345678 0 0 0.012345679012345678 0 0 0 0 2:0.77027027 3:0.68067227 4:-0.68141593 5:0.19532495 6:-0.1197041 7:-0.48387097 8:-0.019431988 
0.012345679012345678 0 0.012345679012345678 0 0.012345679012345678 0.012345679012345678 0.012345679012345678 0 0.012345679012345678 0.012345679012345678 0 0 0 0 0 0 0 0 0 0 0 0 0 0 0 1:1 2:0.18918919 3:0.075630252 4:-0.75221239 5:-0.54064105 6:-0.66577001 7:-0.63001975 8:-0.56153463 
0 0.012345679012345678 0.012345679012345678 0.012345679012345678 0 0 0 0 0 0 0 0 0 0 0 0 0 0 0 0 0 0 0 0 0 1:-1 2:0.63513514 3:0.6302521 4:-0.72566372 5:0.085177971 6:-0.098856759 7:-0.0032916392 8:-0.23766816 
0.012345679012345678 0.012345679012345678 0.012345679012345678 0.012345679012345678 0 0 0 0 0.012345679012345678 0 0 0 0.012345679012345678 0.012345679012345678 0.012345679012345678 0.012345679012345678 0 0 0 0 0 0 0 0 0 1:-1 2:0.52702703 3:0.57983193 4:-0.68141593 5:-0.071011156 6:-0.3470074 7:-0.21263989 8:-0.19083209 
0.012345679012345678 0 0.012345679012345678 0.012345679012345678 0 0 0.012345679012345678 0 0 0.012345679012345678 0 0 0 0 0 0 0 0 0 0 0 0 0 0 0 2:0.31081081 3:0.32773109 4:-0.71681416 5:-0.27642996 6:-0.42434432 7:-0.2955892 8:-0.40508221 
0.012345679012345678 0 0.012345679012345678 0.012345679012345678 0 0 0 0 0 0 0 0 0 0 0 0 0 0 0 0 0 0 0 0 0 1:-1 2:0.45945946 3:0.34453782 4:-0.73451327 5:-0.34018063 6:-0.48755884 7:-0.35088874 8:-0.48181365 
0.012345679012345678 0 0.012345679012345678 0.012345679012345678 0 0 0 0 0 0 0 0 0 0 0 0 0 0 0 0 0 0 0 0 0 1:-1 2:0.47297297 3:0.41176471 4:-0.65486726 5:-0.039135824 6:-0.20309348 7:-0.11520737 8:-0.25660189 
0.012345679012345678 0.012345679012345678 0.012345679012345678 0.012345679012345678 0 0 0 0 0.012345679012345678 0.012345679012345678 0 0 0.012345679012345678 0.012345679012345678 0.012345679012345678 0.012345679012345678 0 0 0 0 0 0 0 0 0 2:0.52702703 3:0.54621849 4:-0.7079646 5:-0.072427838 6:-0.33624748 7:-0.3285056 8:-0.18584953 
0.012345679012345678 0 0.012345679012345678 0.012345679012345678 0.012345679012345678 0 0.012345679012345678 0 0 0.012345679012345678 0 0 0 0 0 0 0 0 0 0 0 0 0 0 0 2:0.054054054 3:0.025210084 4:-0.78761062 5:-0.66389233 6:-0.74310693 7:-0.70506912 8:-0.68410563 
0.012345679012345678 0.012345679012345678 0.012345679012345678 0.012345679012345678 0.012345679012345678 0.012345679012345678 0.012345679012345678 0 0.012345679012345678 0.012345679012345678 0 0 0.012345679012345678 0 0.012345679012345678 0 0 0 0 0 0 0 0 0 0 1:1 2:0.18918919 3:0.22689076 4:-0.73451327 5:-0.52505755 6:-0.65770007 7:-0.64976959 8:-0.5346288 
0.012345679012345678 0 0.012345679012345678 0.012345679012345678 0 0 0 0 0 0 0 0 0 0 0 0 0 0 0 0 0 0 0 0 0 1:-1 2:0.2972973 3:0.17647059 4:-0.66371681 5:-0.0054896405 6:-0.17888366 7:-0.10072416 8:-0.22770304 
0 0.012345679012345678 0.012345679012345678 0.012345679012345678 0 0 0 0 0 0 0 0 0 0 0 0 0 0 0 0 0 0 0 0 0 1:-1 2:0.64864865 3:0.56302521 4:-0.7079646 5:0.07455286 6:-0.061197041 7:-0.030941409 8:-0.20577977 
0.012345679012345678 0.012345679012345678 0.012345679012345678 0.012345679012345678 0 0 0 0 0.012345679012345678 0.012345679012345678 0 0 0 0 0.012345679012345678 0 0 0 0 0 0 0 0 0 0 2:0.56756757 3:0.57983193 4:-0.66371681 5:-0.038427484 6:-0.24277068 7:-0.15470704 8:-0.20876931 
0.012345679012345678 0 0.012345679012345678 0.012345679012345678 0 0 0 0 0 0 0 0 0 0 0 0 0 0 0 0 0 0 0 0 0 1:-1 2:0.33783784 3:0.32773109 4:-0.72566372 5:-0.15601204 6:-0.31136516 7:-0.44832126 8:-0.31938216 
0.012345679012345678 0.012345679012345678 0.012345679012345678 0.012345679012345678 0 0 0 0 0 0.012345679012345678 0 0 0 0 0 0 0 0 0 0 0 0 0 0 0 2:0.48648649 3:0.41176471 4:-0.69026549 5:-0.19142908 6:-0.36180229 7:-0.34957209 8:-0.30742402 
0.012345679012345678 0.012345679012345678 0.012345679012345678 0.012345679012345678 0 0 0 0 0.012345679012345678 0 0 0 0 0 0 0 0 0 0 0 0 0 0 0 0 1:-1 2:0.55405405 3:0.44537815 4:-0.71681416 5:0.23074199 6:-0.23268325 7:-0.26793943 8:-0.39013453 
0.012345679012345678 0 0.012345679012345678 0.012345679012345678 0 0 0.012345679012345678 0 0 0.012345679012345678 0 0 0 0 0 0 0 0 0 0 0 0 0 0 0 1:1 2:0.37837838 3:0.41176471 4:-0.71681416 5:-0.25730476 6:-0.35574983 7:-0.38512179 8:-0.43497758 
0.012345679012345678 0.012345679012345678 0.012345679012345678 0.012345679012345678 0 0 0 0 0 0 0 0 0 0 0 0 0 0 0 0 0 0 0 0 0 1:-1 2:0.47297297 3:0.52941176 4:-0.69026549 5:-0.093678059 6:-0.23268325 7:-0.37327189 8:-0.22571001 
0.012345679012345678 0 0.012345679012345678 0 0 0 0.012345679012345678 0 0 0.012345679012345678 0 0 0 0 0 0 0 0 0 0 0 0 0 0 0 1:-1 2:0.067567568 3:0.042016807 4:-0.76106195 5:-0.63166283 6:-0.67921991 7:-0.59973667 8:-0.714001 
0.012345679012345678 0 0.012345679012345678 0.012345679012345678 0 0 0 0 0 0.012345679012345678 0 0 0 0 0 0 0 0 0 0 0 0 0 0 0 2:0.51351351 3:0.49579832 4:-0.73451327 5:-0.026739862 6:-0.12777404 7:-0.050691244 8:-0.38515197 
0.012345679012345678 0 0.012345679012345678 0.012345679012345678 0 0 0 0 0 0 0 0 0 0 0 0 0 0 0 0 0 0 0 0 0 1:-1 2:0.52702703 3:0.51260504 4:-0.72566372 5:-0.007968833 6:-0.053127102 7:-0.30217248 8:-0.33532636 
0.012345679012345678 0 0.012345679012345678 0.012345679012345678 0 0 0 0 0 0.012345679012345678 0 0 0 0 0 0 0 0 0 0 0 0 0 0 0 2:0.27027027 3:0.21008403 4:-0.6460177 5:-0.039489995 6:-0.23873571 7:-0.16392363 8:-0.1998007 
0.012345679012345678 0 0.012345679012345678 0.012345679012345678 0 0 0 0 0 0.012345679012345678 0 0 0 0 0 0 0 0 0 0 0 0 0 0 0 2:0.54054054 3:0.52941176 4:-0.66371681 5:-0.035948291 6:-0.23066577 7:-0.048057933 8:-0.28550075 
0.012345679012345678 0.012345679012345678 0.012345679012345678 0.012345679012345678 0.012345679012345678 0.012345679012345678 0.012345679012345678 0 0.0050483632665355854 0.012345679012345678 0 0 0 0 0.0089868123399430341 0 0 0 0 0 0 0 0 0 0 2:-0.17567568 3:-0.092436975 4:-0.80530973 5:-0.78147689 6:-0.8399462 7:-0.80645161 8:-0.79372197 
0.012345679012345678 0 0.012345679012345678 0.012345679012345678 0.012345679012345678 0 0.012345679012345678 0 0 0.012345679012345678 0 0 0 0 0 0 0 0 0 0 0 0 0 0 0 1:1 2:0.35135135 3:0.27731092 4:-0.7699115 5:-0.43120241 6:-0.57700067 7:-0.43383805 8:-0.51469856 
0.012345679012345678 0.012345679012345678 0.012345679012345678 0.012345679012345678 0 0 0.012345679012345678 0 0.012345679012345678 0.012345679012345678 0 0 0.012345679012345678 0 0.012345679012345678 0 0.012345679012345678 0 0 0 0 0 0 0 0 1:1 2:0.37837838 3:0.36134454 4:-0.74336283 5:-0.40180627 6:-0.54539341 7:-0.56155365 8:-0.41504733 
0.012345679012345678 0 0.012345679012345678 0.012345679012345678 0 0 0.012345679012345678 0 0 0.012345679012345678 0 0 0 0 0 0 0 0 0 0 0 0 0 0 0 2:0.41891892 3:0.34453782 4:-0.74336283 5:-0.37134762 6:-0.43779422 7:-0.54970375 8:-0.46686597 
0.012345679012345678 0.012345679012345678 0.012345679012345678 0.012345679012345678 0 0 0 0.002434150626346093 0.012345679012345678 0.012345679012345678 0 0.012345679012345678 0.0055584059351931857 0.012345679012345678 0.012345679012345678 0 0 0 0 0 0 0 0 0 0 2:0.60810811 3:0.51260504 4:-0.69026549 5:-0.28280503 6:-0.4129119 7:-0.28768927 8:-0.25660189 
0.012345679012345678 0 0.012345679012345678 0 0.012345679012345678 0 0.012345679012345678 0 0 0.012345679012345678 0 0 0 0 0 0 0 0 0 0 0 0 0 0 0 1:1 2:0.35135135 3:0.32773109 4:-0.76106195 5:-0.38409775 6:-0.39609953 7:-0.57472021 8:-0.55455904 
0.012345679012345678 0 0.012345679012345678 0.012345679012345678 0 0 0 0 0 0 0 0 0 0 0 0 0 0 0 0 0 0 0 0 0 1:-1 2:0.44594595 3:0.41176471 4:-0.72566372 5:-0.30511776 6:-0.38735709 7:-0.40092166 8:-0.47284504 
0.012345679012345678 0.012345679012345678 0.012345679012345678 0.012345679012345678 0 0 0.012345679012345678 0 0.012345679012345678 0.012345679012345678 0 0 0 0.012345679012345678 0.012345679012345678 0 0 0 0 0 0 0 0 0 0 2:0.36486486 3:0.36134454 4:-0.67256637 5:-0.28103418 6:-0.52858104 7:-0.47465438 8:-0.36522172 
0.012345679012345678 0.012345679012345678 0.012345679012345678 0.012345679012345678 0 0 0 0 0 0.012345679012345678 0 0 0 0 0 0 0 0 0 0 0 0 0 0 0 1:-1 2:0.44594595 3:0.32773109 4:-0.73451327 5:-0.38445192 6:-0.4539341 7:-0.51810402 8:-0.50473343 
0.012345679012345678 0 0.012345679012345678 0.0089369047175861093 0 0 0.012345679012345678 0 0 0.012345679012345678 0 0 0 0 0 0 0 0 0 0 0 0 0 0 0 2:0.44594595 3:0.37815126 4:-0.71681416 5:-0.24172127 6:-0.35104237 7:-0.33903884 8:-0.4449427 
0.012345679012345678 0 0.012345679012345678 0 0 0 0.012345679012345678 0 0.0051516301707593927 0.012345679012345678 0 0 0 0 0.012345679012345678 0 0 0 0 0 0 0 0 0 0 1:-1 2:0.10810811 3:0.058823529 4:-0.75221239 5:-0.59589162 6:-0.72696705 7:-0.62870309 8:-0.65421026 
0.012345679012345678 0 0.012345679012345678 0.012345679012345678 0.012345679012345678 0 0.012345679012345678 0 0 0.012345679012345678 0 0 0 0 0 0 0 0 0 0 0 0 0 0 0 2:0.12162162 3:0.092436975 4:-0.77876106 5:-0.61253763 6:-0.67182246 7:-0.71823568 8:-0.65620329 
0.012345679012345678 0 0.012345679012345678 0.012345679012345678 0 0 0 0 0 0.012345679012345678 0 0 0 0 0 0 0 0 0 0 0 0 0 0 0 2:0.45945946 3:0.56302521 4:-0.73451327 5:-0.049760935 6:-0.15534633 7:-0.31533904 8:-0.31539611 
0.012345679012345678 0 0.012345679012345678 0 0.012345679012345678 0 0.012345679012345678 0 0 0.012345679012345678 0 0 0 0 0 0 0 0 0 0 0 0 0 0 0 2:0.12162162 3:0.058823529 4:-0.75221239 5:-0.58703736 6:-0.67451244 7:-0.69848585 8:-0.61434978 
0.012345679012345678 0.012345679012345678 0.012345679012345678 0.012345679012345678 0 0 0 0 0.012345679012345678 0 0 0 0 0 0 0 0 0 0 0 0 0 0 0 0 1:-1 2:0.45945946 3:0.39495798 4:-0.7079646 5:-0.20240836 6:-0.40080699 7:-0.42330481 8:-0.32536124 
0.012345679012345678 0 0.012345679012345678 0.003408774294759569 0.012345679012345678 0.012345679012345678 0.012345679012345678 0 0 0.012345679012345678 0 0 0 0 0 0 0 0 0 0 0 0 0 0 0 2:-0.16216216 3:-0.12605042 4:-0.80530973 5:-0.79883124 6:-0.83658373 7:-0.83410138 8:-0.836572 
0.012345679012345678 0 0.012345679012345678 0 0 0 0.012345679012345678 0 0 0.012345679012345678 0 0 0 0 0 0 0 0 0 0 0 0 0 0 0 2:0.39189189 3:0.34453782 4:-0.73451327 5:-0.31007615 6:-0.37592468 7:-0.46017117 8:-0.45191829 
0.012345679012345678 0.012345679012345678 0.012345679012345678 0.012345679012345678 0 0 0 0 0 0.012345679012345678 0 0 0 0 0 0 0 0 0 0 0 0 0 0 0 2:0.52702703 3:0.51260504 4:-0.7079646 5:-0.13476182 6:-0.29993275 7:-0.29163924 8:-0.28550075 
0.012345679012345678 0 0.012345679012345678 0.012345679012345678 0 0 0.012345679012345678 0 0 0.012345679012345678 0 0 0 0 0 0 0 0 0 0 0 0 0 0 0 1:-1 2:0.040540541 3:0.092436975 4:-0.76106195 5:-0.65999646 6:-0.72293208 7:-0.67873601 8:-0.714001 
0.012345679012345678 0 0.012345679012345678 0.012345679012345678 0 0 0 0 0 0.012345679012345678 0 0 0 0 0 0 0 0 0 0 0 0 0 0 0 2:0.48648649 3:0.46218487 4:-0.72566372 5:-0.059323535 6:-0.10356422 7:-0.31928901 8:-0.34529148 
0.012345679012345678 0.012345679012345678 0.012345679012345678 0.012345679012345678 0.012345679012345678 0.012345679012345678 0.012345679012345678 0 0.012345679012345678 0.012345679012345678 0 0 0.0032677446936451634 0 0 0 0 0 0 0 0 0 0 0 0 1:1 2:0.27027027 3:0.2605042 4:-0.73451327 5:-0.48539047 6:-0.59515804 7:-0.65503621 8:-0.49576482 
0.012345679012345678 0.012345679012345678 0.012345679012345678 0.012345679012345678 0 0 0 0 0.012345679012345678 0 0 0 0.012345679012345678 0 0.012345679012345678 0.012345679012345678 0.012345679012345678 0.012345679012345678 0 0 0 0 0 0 0 2:0.74324324 3:0.66386555 4:-0.6460177 5:0.41278555 6:0.2138534 7:0.23370639 8:0.036372696 
0.012345679012345678 0 0.012345679012345678 0.012345679012345678 0 0 0 0 0 0 0 0 0 0 0 0 0 0 0 0 0 0 0 0 0 1:-1 2:0.43243243 3:0.39495798 4:-0.68141593 5:-0.21126262 6:-0.35709482 7:-0.32587228 8:-0.3632287 
0.012345679012345678 0.012345679012345678 0.012345679012345678 0.012345679012345678 0 0 0.012345679012345678 0 0.012345679012345678 0.012345679012345678 0 0.012345679012345678 0 0.012345679012345678 0.012345679012345678 0 0 0 0 0 0 0 0 0 0 2:0.33783784 3:0.37815126 4:-0.71681416 5:-0.36851426 6:-0.57834566 7:-0.32323897 8:-0.47882412 
0.012345679012345678 0 0.012345679012345678 0 0 0 0.012345679012345678 0 0 0.012345679012345678 0 0 0 0 0 0 0 0 0 0 0 0 0 0 0 2:0.33783784 3:0.27731092 4:-0.73451327 5:-0.41384806 6:-0.4801614 7:-0.59052008 8:-0.51469856 
0.012345679012345678 0.012345679012345678 0.012345679012345678 0 0 0 0.012345679012345678 0 0 0.012345679012345678 0 0 0 0 0 0 0 0 0 0 0 0 0 0 0 2:0.25675676 3:0.1092437 4:-0.75221239 5:-0.45918187 6:-0.56220578 7:-0.69585253 8:-0.53163926 
0.012345679012345678 0.0024779094817635773 0.012345679012345678 0.012345679012345678 0.012345679012345678 0.012345679012345678 0.012345679012345678 0.012345679012345678 0.012345679012345678 0.012345679012345678 0 0 0 0.012345679012345678 0.012345679012345678 0 0 0 0 0 0 0 0 0 0 2:-0.13513514 3:-0.19327731 4:-0.83185841 5:-0.84239419 6:-0.89643578 7:-0.85911784 8:-0.84354758 
0.012345679012345678 0 0.012345679012345678 0 0 0 0.012345679012345678 0 0 0.012345679012345678 0 0 0 0 0 0 0 0 0 0 0 0 0 0 0 2:0.24324324 3:0.17647059 4:-0.74336283 5:-0.51655746 6:-0.63483524 7:-0.55102041 8:-0.59441953 
0 0.012345679012345678 0.012345679012345678 0.012345679012345678 0 0 0 0 0.012345679012345678 0 0 0 0 0 0.012345679012345678 0 0 0 0 0 0 0 0 0 0 1:-1 2:0.74324324 3:0.73109244 4:-0.6460177 5:0.29307597 6:0.23470074 7:-0.037524687 8:-0.036372696 
0.012345679012345678 0 0.012345679012345678 0 0 0 0.012345679012345678 0 0 0.012345679012345678 0 0 0 0 0 0 0 0 0 0 0 0 0 0 0 2:0.45945946 3:0.36134454 4:-0.73451327 5:-0.27430494 6:-0.33759247 7:-0.47202107 8:-0.45590433 
0.012345679012345678 0 0.012345679012345678 0.012345679012345678 0 0 0 0 0 0.012345679012345678 0 0 0 0 0 0 0 0 0 0 0 0 0 0 0 2:0.51351351 3:0.41176471 4:-0.73451327 5:-0.16238711 6:-0.28446537 7:-0.19289006 8:-0.42301943 
0.012345679012345678 0 0.012345679012345678 0.012345679012345678 0 0 0 0 0 0.012345679012345678 0 0 0 0 0 0 0 0 0 0 0 0 0 0 0 2:0.36486486 3:0.2605042 4:-0.69911504 5:0.046927572 6:-0.12239408 7:-0.14812377 8:-0.17488789 
0.012345679012345678 0.012345679012345678 0.012345679012345678 0.012345679012345678 0 0 0 0 0 0 0 0 0 0 0 0 0 0 0 0 0 0 0 0 0 1:-1 2:0.51351351 3:0.46218487 4:-0.71681416 5:-0.22153356 6:-0.28312038 7:-0.51020408 8:-0.3143996 
0.012345679012345678 0.012345679012345678 0.012345679012345678 0.012345679012345678 0 0 0 0 0.012345679012345678 0 0 0 0 0.012345679012345678 0.012345679012345678 0 0 0 0 0 0 0 0 0 0 1:-1 2:0.41891892 3:0.41176471 4:-0.73451327 5:-0.30015938 6:-0.48217888 7:-0.42330481 8:-0.38415546 
0.012345679012345678 0.012345679012345678 0.012345679012345678 0.012345679012345678 0 0 0 0.0018952519976562635 0.012345679012345678 0 0 0.012345679012345678 0.012345679012345678 0.012345679012345678 0.012345679012345678 0.012345679012345678 0.012345679012345678 0.012345679012345678 0 0 0 0 0 0 0 2:0.55405405 3:0.64705882 4:-0.69026549 5:0.078448734 6:-0.20780094 7:-0.14285714 8:-0.016442451 
0.012345679012345678 0 0.012345679012345678 0.012345679012345678 0 0 0 0 0 0 0 0 0 0 0 0 0 0 0 0 0 0 0 0 0 1:-1 2:0.5 3:0.49579832 4:-0.69026549 5:-0.10571985 6:-0.24344317 7:-0.19420671 8:-0.32037867 
0.012345679012345678 0.012345679012345678 0.012345679012345678 0.012345679012345678 0 0 0 0 0.012345679012345678 0.012345679012345678 0 0 0 0.012345679012345678 0 0 0 0 0 0 0 0 0 0 0 1:-1 2:0.35135135 3:0.31092437 4:-0.75221239 5:-0.47936958 6:-0.56422327 7:-0.63133641 8:-0.53064275 
0.012345679012345678 0 0.012345679012345678 0 0 0 0 0 0 0 0 0 0 0 0 0 0 0 0 0 0 0 0 0 0 1:-1 2:0.36486486 3:0.29411765 4:-0.73451327 5:-0.26013813 6:-0.30464022 7:-0.42593812 8:-0.44593921 
0 0.012345679012345678 0.012345679012345678 0.012345679012345678 0 0 0 0 0 0 0 0 0 0 0 0 0 0 0 0 0 0 0 0 0 1:-1 2:0.60810811 3:0.52941176 4:-0.69026549 5:0.079865415 6:-0.12575656 7:0.17709019 8:-0.31539611 
0.012345679012345678 0 0.012345679012345678 0.012345679012345678 0 0 0.012345679012345678 0 0 0.012345679012345678 0 0 0 0 0 0 0 0 0 0 0 0 0 0 0 2:0.31081081 3:0.31092437 4:-0.72566372 5:-0.13440765 6:-0.2528581 7:-0.15207373 8:-0.46586946 
0.012345679012345678 0 0.012345679012345678 0.012345679012345678 0 0 0 0 0 0 0 0 0 0 0 0 0 0 0 0 0 0 0 0 0 2:0.55405405 3:0.52941176 4:-0.69911504 5:0.10855321 6:-0.026899798 7:-0.082290981 8:-0.22371699 
0.012345679012345678 0 0.012345679012345678 0 0 0 0.012345679012345678 0 0 0.012345679012345678 0 0 0 0 0 0 0 0 0 0 0 0 0 0 0 2:0.17567568 3:0.15966387 4:-0.78761062 5:-0.50522401 6:-0.53463349 7:-0.71033575 8:-0.61434978 
0.012345679012345678 0.012345679012345678 0.012345679012345678 0.012345679012345678 0 0 0.012345679012345678 0 0 0.012345679012345678 0 0 0 0 0 0 0 0 0 0 0 0 0 0 0 1:-1 2:0.081081081 3:0.075630252 4:-0.7699115 5:-0.63485036 6:-0.72225958 7:-0.69453588 8:-0.66417539 
0.012345679012345678 0.012345679012345678 0.012345679012345678 0.012345679012345678 0 0 0.012345679012345678 0 0 0.012345679012345678 0 0 0 0 0 0 0 0 0 0 0 0 0 0 0 1:1 2:0.5 3:0.41176471 4:-0.74336283 5:-0.25022136 6:-0.3066577 7:-0.42330481 8:-0.4449427 
0.012345679012345678 0.012345679012345678 0.012345679012345678 0.012345679012345678 0 0 0 0 0 0.012345679012345678 0 0 0 0 0 0 0 0 0 0 0 0 0 0 0 2:0.55405405 3:0.61344538 4:-0.69026549 5:-0.088011333 6:-0.18157364 7:-0.27320606 8:-0.31738914 
0.012345679012345678 0.012345679012345678 0.012345679012345678 0.012345679012345678 0 0 0 0 0 0 0 0 0 0 0 0 0 0 0 0 0 0 0 0 0 1:-1 2:0.52702703 3:0.54621849 4:-0.68141593 5:-0.11811581 6:-0.26496301 7:-0.23107307 8:-0.26856004 
0 0.012345679012345678 0.012345679012345678 0.012345679012345678 0 0 0 0.012345679012345678 0.012345679012345678 0 0 0.012345679012345678 0.012345679012345678 0.012345679012345678 0.012345679012345678 0.012345679012345678 0.012345679012345678 0.012345679012345678 0.0052391006824061273 0 0 0 0 0 0 1:-1 2:0.83783784 3:0.76470588 4:-0.63716814 5:0.41986896 6:0.11432414 7:0.055957867 8:0.18285999 
0.012345679012345678 0.012345679012345678 0.012345679012345678 0 0.012345679012345678 0.012345679012345678 0.012345679012345678 0 0.012345679012345678 0.012345679012345678 0.0090075385644366682 0 0 0 0 0 0 0 0 0 0 0 0 0 0 1:-1 2:-0.31081081 3:-0.34453782 4:-0.84070796 5:-0.86187356 6:-0.88702085 7:-0.89335089 8:-0.88241156 
0.012345679012345678 0 0.012345679012345678 0.012345679012345678 0 0 0 0 0 0.012345679012345678 0 0 0 0 0 0 0 0 0 0 0 0 0 0 0 2:0.47297297 3:0.49579832 4:-0.69911504 5:-0.18824154 6:-0.26496301 7:-0.42198815 8:-0.34230194 
0.012345679012345678 0 0.012345679012345678 0.012345679012345678 0.012345679012345678 0.012345679012345678 0.012345679012345678 0 0 0.012345679012345678 0 0 0 0 0 0 0 0 0 0 0 0 0 0 0 1:1 2:0.2027027 3:0.24369748 4:-0.69911504 5:-0.51939083 6:-0.62474781 7:-0.54312047 8:-0.61434978 
0.012345679012345678 0 0.012345679012345678 0.012345679012345678 0 0 0 0 0.012345679012345678 0.012345679012345678 0 0 0 0 0 0 0 0 0 0 0 0 0 0 0 1:-1 2:0.22972973 3:0.27731092 4:-0.72566372 5:-0.50628652 6:-0.6139879 7:-0.58130349 8:-0.59441953 
0.012345679012345678 0.012345679012345678 0.012345679012345678 0.012345679012345678 0 0 0 0 0 0.012345679012345678 0 0 0 0 0 0 0 0 0 0 0 0 0 0 0 2:0.5 3:0.49579832 4:-0.69026549 5:-0.21480432 6:-0.3732347 7:-0.2955892 8:-0.3472845 
0.012345679012345678 0 0.012345679012345678 0 0.012345679012345678 0 0.012345679012345678 0 0 0.012345679012345678 0 0 0 0 0 0 0 0 0 0 0 0 0 0 0 1:1 2:0.31081081 3:0.24369748 4:-0.75221239 5:-0.35151408 6:-0.46267653 7:-0.48123766 8:-0.48480319 
