svm_type c_svc
kernel_type polynomial
degree 2
gamma 0.125
coef0 0
nr_class 26
total_sv 2504
rho -1.1069709325032244 -0.99635267469408362 -0.52400149747659341 -0.99789346318400141 -2.0356546170211098 -2.0185705234144797 -1.9548678707062244 -1.0024303645016444 -0.99845113923659901 -1.5916048950973087 -1.8895677934133595 -1.0005404881968372 -0.99198953065361695 -0.9991161516674375 -0.99537912916053428 -0.99393473199259175 -0.99752134125035641 -0.99784751581741915 -1.0030840224337971 -1.002084672751129 -0.99940570175128918 -1.1395790129899979 -0.99611154781247258 -1.1620354652404785 -1.0012917391751459 0.10578777059506511 1.1651181187969311 0.87672050565192006 -2.3526397608298866 -2.386945348873537 -1.9207416941131648 -1.000681575827469 -0.55664153528077043 -1.3445748553224488 -1.6998135787783866 -0.99842567340296107 -0.9046465307381899 -0.920458946804246 -0.82419320464589563 -0.89804746672824509 -0.97004325191171981 -0.96679910642866673 -0.99827210930454335 -0.99982379504954033 -1.0004043321609453 -1.1087872982025146 -0.99548815923967582 -1.1500745713710785 -1.0037801618381144 0.85548161455288385 0.99621209171001701 -1.7655781022349786 -1.8840064253844018 -1.4994992988266052 -1.0012869318949562 -0.98984311770305744 -1.068722308530786 -1.7673625882200441 -1.0001554164316209 -0.99379610132322638 -0.99811461615522223 -0.98989415837643591 -0.98926171992833956 -0.99849840307789106 -0.99853613518832562 -1.001016097401201 -1.0017787287442457 -0.9997402021219346 -1.1513692352664724 -0.99660593753894744 -1.1749836094434669 -1.0021308264726474 -0.29936620486905963 -2.194840345682568 -2.1798395961792041 -2.1346729295474796 -1.0017360418762031 -0.97535442465418909 -1.5220790374455866 -1.8862265750670755 -1.0010695941989136 -0.97643039066124204 -0.98979458976390255 -0.97378182186773898 -0.97574805601685866 -0.99104197868674193 -0.99522121930790763 -1.0003854611788943 -0.99971759307924413 -0.99936076504581484 -1.1245179325342178 -0.99398068059703315 -1.1652182191610336 -1.0028545794655135 -2.0462080358590766 -1.9640342528051509 -1.6079797206910047 -1.001655464800759 -0.99137246242597499 -1.2827710625695254 -1.7059409827967322 -0.99922040915150256 -0.98525694252162233 -0.99305525882260826 -0.98455969250700826 -0.98377231031621415 -0.99503682232241086 -0.99409315099712081 -0.9999122435689356 -1.0006224960794634 -0.9984424651585756 -1.1259478554129601 -0.99359812002336234 -1.1493507698178291 -1.0022290455384928 -1.673774258085279 1.4496370203638627 0.72931730800769401 1.5635191442822383 2.46203135588358 -1.1908511041128991 0.93863017977288865 1.1375014754342454 1.3487681369992928 1.4610343450615868 1.2760210161008152 1.1543864336938321 0.9444172951164469 0.047049222038931721 -0.87462111800920062 -0.15761655478108594 -1.0215125977993011 -0.69868678417744468 -1.0945377051830292 -0.82708502075522283 2.5029941396779902 0.91957906629114738 1.6734020906592313 2.8377924442136204 -1.0038691325195956 1.0969380219714131 1.2055806390935138 1.4143880278590402 1.4994962121644606 1.2337412232132559 1.180422638678662 1.0136854505467197 0.85500046222948045 -0.76957028326941157 0.48505553293690007 -1.0039114088022698 -0.47046683036057207 -1.071017324924469 -0.71949560169247684 -0.66540707476861727 1.1829170318044759 1.1885187866979769 -1.522274725718999 -0.22717644364476028 0.8464780703724254 1.1745654954329561 1.2591856575035512 0.86790448651614549 0.7457126496298998 0.10978621804276018 -0.87247471580806035 -1.0025826844486554 -0.93291979389639368 -1.0617175996303558 -0.95349339149789458 -1.1228609681129456 -0.99928214738611132 1.0021164331787649 0.96797147417001916 -0.98023376045571731 1.0075245714075192 1.0016504929377668 1.0031865670682976 1.0025396556787181 1.0087869541320296 1.0044553764463873 1.0087799583811499 -0.97158234080007799 -0.99954199838265723 -0.99620973625501286 -1.085502251063621 -0.99288789387905307 -1.0841626506204483 -1.0018689577590889 -0.89990152470228912 -1.561128089658514 -0.99970326391892927 -0.98865358657489233 -0.99969908075977698 -0.98821543591985073 -0.98678179862021831 -0.99310299369526067 -0.9963314422723456 -1.0010564904896264 -0.99954840462814232 -0.99910698062829262 -1.0992857739329338 -0.99440786098070177 -1.1290252320468426 -1.0052544582182077 -1.6612101923784064 -0.90161067701994613 0.15730451200344839 0.59636910016774924 0.8541879544360832 0.0063998963611514234 -0.58112865655600099 -0.75201875122178052 -0.98415931875064477 -1.0010034586748116 -0.9936113495473865 -1.1011306047439575 -0.98161893125743904 -1.1482035219669342 -1.0019082863145741 1.1189328267159913 1.194821152772263 1.3461572131441384 1.425544442033712 1.2328051416885093 1.1963892793003321 1.0600124368927124 0.98267365155517972 -0.58538236863800552 0.92764372090733438 -1.0021855503594765 -0.11957886700405257 -1.0545700192451477 -0.54257853958955382 0.99964005911564968 1.0035537172845799 1.0017908590222095 1.0086973809850477 0.99929691727634928 0.91274116132557748 -1.0045085231201309 -1.0005571819920747 -1.0002042348930684 -1.0845621833577752 -0.98978428148119113 -1.0962156886234879 -1.0055798421603102 0.91240991098322866 0.99472119061194175 -0.85743460668118132 -1.0020693949847967 -0.99998654860716341 -1.0028061933904533 -1.0008508260285591 -0.99968086259218925 -1.0864319857209921 -1.0029276098364832 -1.0963483771851963 -1.0047893129497703 1.0020667547288922 -0.94965341561321337 -0.99673815351508999 -0.9934284407627012 -1.0021755589014352 -0.99995848111388297 -1.0028532812584019 -1.1197871193289757 -1.0026300115493898 -1.1244447603821754 -1.0047002720899312 -0.99254073588330105 -0.99994421809785983 -0.99997457047085825 -1.0003547546074876 -1.0016188845033915 -1.0028072940198223 -1.1063957484439015 -0.99698290914593024 -1.1304435105994344 -1.0019334217447813 -1.0101508672410413 -1.0070540364129044 -1.0015365155644127 -1.000317397691749 -1.0006841528392783 -1.1150478635772219 -0.99918570730712719 -1.1246757074598124 -1.004236769252018 -0.99228960799515564 -0.99991906279767195 -1.0007182628142079 -1.0002751212033976 -1.090796010568738 -0.99849788344022761 -1.094586048704532 -1.003758093262896 -0.99970539313245643 -1.0000582984875317 -1.0023757271241465 -1.0786449541272516 -0.99586452543540338 -1.0863825116301229 -1.0058123404673864 -1.0027572637230451 -0.99983349362256146 -1.0770106274242943 -0.98692189885563053 -1.0842563241800771 -1.0003066344817855 1.0018000968524623 -0.35922112315893173 1.0044577273781004 -0.44877248257398605 0.025691799819469452 -1.0490442016161978 -0.99845110817633009 -1.0534569905139506 -1.0033208995877272 1.0110247942738551 -0.089551359415054321 0.38491292297840118 -1.0100916529686028 -0.99498323655450915 0.47446428239345551
label 10 8 12 9 11 5 4 6 21 13 7 3 19 16 15 14 17 18 20 23 26 22 2 27 1 29
nr_sv 379 344 167 409 275 70 40 156 10 107 243 10 16 38 61 80 37 28 17 6 1 5 1 2 1 1
SV
1 0.45582602250402332 1 0 0 0 1 0 0 1 0 0 0 0 0 0 0 0 0 0 0 0 0 0 0 1:1 2:0.27027027 3:0.2605042 4:-0.73451327 5:-0.47582787 6:-0.52723605 7:-0.58525346 8:-0.58844046 
1 0 1 1 0 0 0 0 0 0 0 0 0 0 0 0 0 0 0 0 0 0 0 0 0 1:-1 2:0.45945946 3:0.36134454 4:-0.69911504 5:-0.25305472 6:-0.35373235 7:-0.28505596 8:-0.46487294 
0 1 0 1 0 0 0.28687865022601311 0 1 1 0 0.0092018425375735291 0 0 0 0 0 0 0 0 0 0 0 0 0 1:-1 2:0.87837838 3:0.83193277 4:-0.61946903 5:0.55303701 6:0.4129119 7:0.26793943 8:0.16093672 
1 0 1 0 0 0 0 0 0 1 0 0 0 0 0 0 0 0 0 0 0 0 0 0 0 1:-1 2:0.21621622 3:0.17647059 4:-0.76106195 5:-0.46484859 6:-0.55682582 7:-0.4325214 8:-0.61434978 
1 0 1 0 0.64500158499524485 0 1 0 0 1 0 0 0 0 0 0 0 0 0 0 0 0 0 0 0 1:1 2:0.25675676 3:0.21008403 4:-0.80530973 5:-0.56295378 6:-0.63080027 7:-0.60631995 8:-0.65122073 
0 1 0 1 0 0 0 0 1 1 0 0 0 0 0 0 0 0 0 0 0 0 0 0 0 1:-1 2:0.78378378 3:0.73109244 4:-0.62831858 5:0.58207898 6:0.5729657 7:0.21790652 8:0.05630294 
1 1 1 0 0 0 0 0 0 1 0 0 0 0 0.33858460154333386 0 0.9971428428404352 0 0 0 0 0 0 0 0 1:-1 2:0.14864865 3:0.075630252 4:-0.73451327 5:-0.55091199 6:-0.66039005 7:-0.6194865 8:-0.6243149 
1 0 1 0 0 0 0 0 0 1 0 0 0 0 0 0 0 0 0 0 0 0 0 0 0 1:-1 2:0.22972973 3:0.21008403 4:-0.75221239 5:-0.48857801 6:-0.58372562 7:-0.560237 8:-0.59441953 
0 1 1 1 0 0 0 0 0 0 0 0 0 0 0 0 0 0 0 0 0 0 0 0 0 2:0.62162162 3:0.59663866 4:-0.69026549 5:0.023198158 6:-0.090114324 7:-0.1323239 8:-0.22770304 
1 0 1 1 0 0 0 0 0 0 0 0 0 0 0 0 0 0 0 0 0 0 0 0 0 2:0.47297297 3:0.41176471 4:-0.71681416 5:-0.20134585 6:-0.37861466 7:-0.29427255 8:-0.34529148 
0 1 1 1 0 0 0 0 1 0 0 0.022672788632027319 0 0 0 0 0 0 0.22846741131176626 0 0 0 0 0 0.026692938767980609 2:0.67567568 3:0.66386555 4:-0.72566372 5:0.30865947 6:0.030262273 7:0.16260698 8:-0.17090184 
0 0 1 1 0 0 0 0 0 0 0 0 0 0 0 0 0 0 0 0 0 0 0 0 0 1:-1 2:0.54054054 3:0.51260504 4:-0.73451327 5:-0.17938729 6:-0.30329523 7:-0.31270573 8:-0.33532636 
1 0 1 1 0 0 0 0 0 0 0 0 0 0 0 0 0 0 0 0 0 0 0 0 0 2:0.37837838 3:0.27731092 4:-0.69026549 5:-0.3058261 6:-0.45595158 7:-0.34430546 8:-0.46487294 
1 1 1 1 0 0 0 0 0 1 0 0 0 0.47114578596465084 0 0 0 0 0 0 0 0 0 0 0 1:-1 2:0.13513514 3:0.092436975 4:-0.78761062 5:-0.66566318 6:-0.73638198 7:-0.72086899 8:-0.69506726 
1 0 1 0.84268694424094692 0 0 0 0 0 0 0 0 0 0 0 0 0 0 0 0 0 0 0 0 0 2:0.37837838 3:0.32773109 4:-0.71681416 5:-0.23853373 6:-0.32952253 7:-0.24423963 8:-0.50473343 
1 0 1 0 0 0 1 0 0 1 0 0 0 0 0 0 0 0 0 0 0 0 0 0 0 2:0.013513514 3:0.025210084 4:-0.77876106 5:-0.64264211 6:-0.70275723 7:-0.72481896 8:-0.68410563 
1 1 1 1 0 0 0 1 1 0 0 1 1 1 1 1 1 0.1583444850559185 0.13525237729350878 0 0 0 0 0 0 1:-1 2:0.27027027 3:0.36134454 4:-0.71681416 5:-0.36568089 6:-0.54270343 7:-0.56550362 8:-0.31539611 
1 0 1 0 0 0 1 0 0 1 0 0 0 0 0 0 0 0 0 0 0 0 0 0 0 2:0.081081081 3:0.12605042 4:-0.78761062 5:-0.62564193 6:-0.71418964 7:-0.69716919 8:-0.66417539 
0 1 1 1 0 0 0 0 0.85143902493204648 0 0 0 0 0.58146824274619247 0 0 0 0 0 0 0 0 0 0 0 1:-1 2:0.51351351 3:0.54621849 4:-0.7079646 5:-0.13086595 6:-0.32145259 7:-0.21790652 8:-0.29845541 
0 1 1 1 0 0 0 0.03132465513860834 1 0 0 0 1 1 1 1 1 1 0 0 0 0 0 0 0 2:0.58108108 3:0.61344538 4:-0.63716814 5:0.019656455 6:-0.20443847 7:-0.27057275 8:-0.026407573 
0 1 1 1 0 0 0 0 1 0 0 0 0 0 0 0 0 0 0 0 0 0 0 0 0 2:0.56756757 3:0.56302521 4:-0.66371681 5:0.028864884 6:-0.19435104 7:0.016458196 8:-0.23966119 
1 0 1 0 0 0 0 0 0 1 0 0 0 0 0 0 0 0 0 0 0 0 0 0 0 2:0.18918919 3:0.21008403 4:-0.75221239 5:-0.5101824 6:-0.58238063 7:-0.60105332 8:-0.60438465 
1 0 1 0 0 0 0 0 0 1 0 0 0 0 0 0 0 0 0 0 0 0 0 0 0 1:-1 2:0.10810811 3:0.15966387 4:-0.76106195 5:-0.53178679 6:-0.58036315 7:-0.640553 8:-0.60438465 
1 0 1 0 0 0 0 0 0 0 0 0 0 0 0 0 0 0 0 0 0 0 0 0 0 1:-1 2:0.32432432 3:0.2605042 4:-0.73451327 5:-0.41278555 6:-0.43039677 7:-0.54443713 8:-0.56651719 
0 0 1 1 0 0 0 0 0 0 0 0 0 0 0 0 0 0 0 0 0 0 0 0 0 1:-1 2:0.48648649 3:0.46218487 4:-0.7079646 5:-0.14786612 6:-0.30531271 7:-0.18367347 8:-0.31240658 
0 0 1 1 0 0 0 0 0 0 0 0 0 0 0 0 0 0 0 0 0 0 0 0 0 1:-1 2:0.56756757 3:0.46218487 4:-0.69026549 5:-0.039135824 6:-0.14122394 7:-0.22712311 8:-0.27553563 
1 0.94830571702199984 1 1 1 1 1 0 0.088252526043368751 1 0 0 0 0 0.44213109163709391 0.34596032960296313 0 0 0 0 0 0 0 0 0 2:-0.18918919 3:-0.21008403 4:-0.79646018 5:-0.80981052 6:-0.87626093 7:-0.8275181 8:-0.82660688 
1 0 1 1 0 0 0 0 0 0 0 0 0 0 0 0 0 0 0 0 0 0 0 0 0 2:0.5 3:0.41176471 4:-0.72566372 5:-0.2927218 6:-0.39340955 7:-0.33772219 8:-0.47483807 
1 0 1 1 0 0 0 0 0 0 0 0 0 0 0 0 0 0 0 0 0 0 0 0 0 1:-1 2:0.40540541 3:0.41176471 4:-0.75221239 5:-0.27147158 6:-0.33893746 7:-0.42988808 8:-0.44892875 
0 1 1 1 0 0 0 0 1 0 0 0 0 1 1 0 0 0 0 0 0 0 0 0 0 1:-1 2:0.58108108 3:0.57983193 4:-0.6460177 5:0.053302639 6:-0.18560861 7:-0.0019749835 8:-0.16392626 
1 0 1 1 0 0 0 0 0 0 0 0 0 0 0 0 0 0 0 0 0 0 0 0 0 1:-1 2:0.47297297 3:0.44537815 4:-0.72566372 5:-0.25836727 6:-0.37995965 7:-0.39302172 8:-0.50473343 
0 1 0 1 0 0 0 0 0 0 0 0 0 0 0 0 0 0 0 0 0 0 0 0 0.074345354478237841 2:0.77027027 3:0.73109244 4:-0.7079646 5:0.42695236 6:0.43577673 7:0.099407505 8:-0.13602392 
1 0 1 0 0 0 0 0 0 1 0 0 0 0 0 0 0 0 0 0 0 0 0 0 0 2:0.2027027 3:0.19327731 4:-0.77876106 5:-0.50664069 6:-0.60524546 7:-0.57340355 8:-0.57448929 
1 0 1 0 0 0 0 0 0.25429604344506485 0 0 0 0 0 0 0 0 0 0 0 0 0 0 0 0 1:-1 2:0.36486486 3:0.29411765 4:-0.69026549 5:-0.13334514 6:-0.27437794 7:-0.28900592 8:-0.35226707 
0 1 0 1 0 0 0 0 0.00719234767879697 0 0 0 0 0 0 0 0 0 0 0 0 0 0 0 0 2:0.74324324 3:0.76470588 4:-0.65486726 5:0.48822384 6:0.37928716 7:0.26267281 8:0.068261086 
0 1 1 1 0 0 0 0 0 0 0 0 0 0 0.4406129650753951 0.2911393560125663 0 0 0 0 0 0 0 0 0 2:0.67567568 3:0.61344538 4:-0.69026549 5:0.30086772 6:0.079354405 7:0.041474654 8:-0.0004982561 
1 1 1 1 0 0 0 0 0 0 0 0 0 0 0 0 0 0 0 0 0 0 0 0 0 2:0.47297297 3:0.41176471 4:-0.69026549 5:-0.28138835 6:-0.41560188 7:-0.43778802 8:-0.3552566 
0 1 1 1 0 0 0 0 1 0 0 0 0 1 1 0 0 0 0 0 0 0 0 0 0 1:-1 2:0.54054054 3:0.49579832 4:-0.69026549 5:-0.054010979 6:-0.25622058 7:-0.19025675 8:-0.1758844 
1 0 1 1 0 0 0 0 0 0 0 0 0 0 0 0 0 0 0 0 0 0 0 0 0 2:0.51351351 3:0.46218487 4:-0.69026549 5:-0.12059501 6:-0.22057835 7:-0.17709019 8:-0.39511709 
1 1 1 0.69582661067632978 0 0 1 0 0 1 0 0 0 0 0 0 0 0 0 0 0 0 0 0 0 1:1 2:0.28378378 3:0.17647059 4:-0.73451327 5:-0.52293253 6:-0.59583053 7:-0.61553654 8:-0.58445441 
1 0 1 0 0 0 0 0 0 0.2200853088086927 0 0 0 0 0 0 0 0 0 0 0 0 0 0 0 2:0.2027027 3:0.24369748 4:-0.73451327 5:-0.42553568 6:-0.48352387 7:-0.47070441 8:-0.54459392 
1 0.19243963250877444 1 1 0 0 0 0 0.15891077930025643 0 0 0 0 0 1 0 0 0 0 0 0 0 0 0 0 2:0.41891892 3:0.39495798 4:-0.66371681 5:-0.19780414 6:-0.33960995 7:-0.31797235 8:-0.3303438 
0 0 1 1 0 0 0 0 0 0 0 0 0 0 0 0 0 0 0 0 0 0 0 0 0 1:-1 2:0.60810811 3:0.6302521 4:-0.69026549 5:0.048344254 6:-0.0073974445 7:-0.23107307 8:-0.27553563 
0 0 1 1 0 0 0 0 0 0 0 0 0 0 0 0 0 0 0 0 0 0 0 0 0 1:-1 2:0.54054054 3:0.49579832 4:-0.65486726 5:-0.0090313441 6:-0.17215871 7:-0.075707702 8:-0.26058794 
1 0 1 0.83811375648252606 0 0 0 0 0 0 0 0 0 0 0 0 0 0 0 0 0 0 0 0 0 1:-1 2:0.48648649 3:0.46218487 4:-0.78761062 5:-0.38055605 6:-0.38802959 7:-0.52732061 8:-0.53861485 
1 0 1 0.68113775898184392 1 1 1 0.053361150930341855 0 1 1 0 0.86370088915687659 0.0088656649822452284 0 0 0 0.27379796677915508 0.034768702270553169 0 0 0 0 0 0 1:-1 2:-0.41891892 3:-0.42857143 4:-0.85840708 5:-0.90968656 6:-0.92938803 7:-0.93285056 8:-0.91330344 
0 1 1 1 0 0 0 0 0 0 0 0 0 0 0 0 0 0 0 0 0 0 0 0 0 1:-1 2:0.58108108 3:0.56302521 4:-0.66371681 5:0.10217815 6:0.014122394 7:-0.21658986 8:-0.20577977 
0 1 1 1 0 0 0 0 0 0 0 0 0 0 0 0 0 0 0 0 0 0 0 0 0 1:-1 2:0.56756757 3:0.64705882 4:-0.66371681 5:0.0076146627 6:-0.15063887 7:-0.12442396 8:-0.24962631 
1 0 1 0 0 0 0 0 0 1 0 0 0 0 0 0 0 0 0 0 0 0 0 0 0 1:-1 2:0.18918919 3:0.092436975 4:-0.76106195 5:-0.5328493 6:-0.61466039 7:-0.44963792 8:-0.69407075 
1 0 1 0 0 0 0 0 0 1 0 0 0 0 0 0 0 0 0 0 0 0 0 0 0 2:0.13513514 3:0.1092437 4:-0.7699115 5:-0.51230742 6:-0.58103564 7:-0.52995392 8:-0.65421026 
1 1 1 1 0 0 0 0 0.076528384006678274 0 0 0 0 0.94531003436981087 0.068280914814540794 0 0.22426495644955791 0 0 0 0 0 0 0 0 1:1 2:0.63513514 3:0.59663866 4:-0.67256637 5:-0.21551266 6:-0.41089442 7:-0.35615537 8:-0.32536124 
0 1 1 1 0 0 0 0 0 0 0 0 0 0 0 0 0 0 0 0 0 0 0 0 0 2:0.58108108 3:0.4789916 4:-0.62831858 5:0.095094741 6:-0.027572293 7:-0.073074391 8:-0.22072745 
0 0 1 1 0 0 0 0 0 0 0 0 0 0 0 0 0 0 0 0 0 0 0 0 0 1:-1 2:0.48648649 3:0.56302521 4:-0.69026549 5:-0.0023021073 6:-0.07195696 7:-0.15339039 8:-0.31240658 
0 0 1 1 0 0 0 0 0 0 0 0.038307740978979189 0 0 0 0 0 0 0 0 0 0 0 0 0 1:-1 2:0.40540541 3:0.39495798 4:-0.72566372 5:-0.15034532 6:-0.33960995 7:0.016458196 8:-0.47483807 
1 0 1 1 1 0.4259838413020352 1 0 0 1 0 0 0 0.37102765709036784 0 0 0 0 0 0 0 0 0 0 0 1:-1 2:-0.27027027 3:-0.32773109 4:-0.85840708 5:-0.8817071 6:-0.9206456 7:-0.88940092 8:-0.89536622 
1 1 1 1 0 0 0 0 0.28597844531055094 0 0 0 0 0 0 0 0 0 0 0 0 0 0 0 0 1:-1 2:0.33783784 3:0.27731092 4:-0.69911504 5:-0.38303524 6:-0.48755884 7:-0.51942067 8:-0.46387643 
1 0 1 1 0 0 0 0 0 0 0 0 0 0 0 0 0 0 0 0 0 0 0 0 0 2:0.43243243 3:0.42857143 4:-0.73451327 5:-0.23711705 6:-0.39542703 7:-0.25477288 8:-0.41903338 
1 1 1 1 1 0 1 0 1 1 0 0 0 0 0 0 0 0 0 0 0 0 0 0 0 2:-0.054054054 3:-0.058823529 4:-0.83185841 5:-0.77333097 6:-0.83927371 7:-0.84068466 8:-0.75386148 
1 0 1 1 1 1 1 0 0 1 0.21633072215630456 0 0 0 0 0 0 0 0 0 0 0 0 0 0 1:1 2:-0.081081081 3:-0.092436975 4:-0.82300885 5:-0.77368514 6:-0.79488904 7:-0.84463463 8:-0.79372197 
0 1 1 1 0 0 0 0 0 0 0 0 0 0 0 0 0 0 0 0 0 0 0 0 0 2:0.58108108 3:0.57983193 4:-0.68141593 5:0.12944927 6:0.043039677 7:0.044107966 8:-0.28450424 
0 0 1 1 0 0 0 0 0 0 0 0 0 0 0 0 0 0 0 0 0 0 0 0 0 1:-1 2:0.41891892 3:0.41176471 4:-0.69911504 5:-0.19992917 6:-0.31809011 7:-0.28505596 8:-0.38714499 
1 0 1 1 0 0 1 0 0 1 0 0 0 0 0 0 0 0 0 0 0 0 0 0 0 1:-1 2:0.013513514 3:-0.0084033613 4:-0.82300885 5:-0.74110147 6:-0.80430397 7:-0.73403555 8:-0.76382661 
1 1 1 0 0 0 0 0 0 1 0 0 0 0 0 0 1 0 0 0 0.1850509637515389 0 0 0 0 1:-1 2:0.10810811 3:0.025210084 4:-0.7699115 5:-0.61785019 6:-0.65232011 7:-0.74851876 8:-0.68410563 
1 0 1 1 0 0 1 0 0 1 0 0 0 0 0 0 0 0 0 0 0 0 0 0 0 1:1 2:0.33783784 3:0.2605042 4:-0.74336283 5:-0.41136887 6:-0.52521856 7:-0.62211982 8:-0.44195316 
0 1 1 1 0 0 0 0 0 0 0 0 0 0 0 0 0 0 0 0 0 0 0 0 0 2:0.62162162 3:0.52941176 4:-0.65486726 5:-0.022489818 6:-0.18829859 7:-0.16524029 8:-0.21275536 
1 0 1 0 0 0 0 0 0 0 0 0 0 0 0 0 0 0 0 0 0 0 0 0 0 1:-1 2:0.33783784 3:0.32773109 4:-0.72566372 5:-0.15494953 6:-0.24478816 7:-0.32587228 8:-0.41504733 
0 0.38811583768264685 1 1 0 0 0 0 0 0 0 0 0 0 0 0 0 0 0 0 0 0 0 0 0 2:0.47297297 3:0.42857143 4:-0.7079646 5:-0.28422171 6:-0.28513786 7:0.14812377 8:-0.35724963 
1 0 1 0 0 0 0 0 0 1 0 0 0 0 0.54695231502897834 0 0 0 0 0 0 0 0 0 0 1:-1 2:-0.013513514 3:0.042016807 4:-0.77876106 5:-0.63591287 6:-0.71149966 7:-0.70111916 8:-0.69407075 
0.080911694028121081 0 1 1 0 0 0 0 0 0 0 0 0 0 0 0 0 0 0 0 0 0 0 0 0 1:-1 2:0.48648649 3:0.49579832 4:-0.75221239 5:-0.22507526 6:-0.26899798 7:-0.43120474 8:-0.41504733 
0 0 1 1 0 0 0 0 0 0 0 0 0 0 0 0 0 0 0 0 0 0 0 0 0 1:-1 2:0.45945946 3:0.41176471 4:-0.69911504 5:-0.20170002 6:-0.35642233 7:-0.20605662 8:-0.40508221 
0 1 1 1 0 0 0 0 1 0 0 0 0 0 0.17043043716763684 0 0 0 0 0 0 0 0 0 0 1:-1 2:0.60810811 3:0.49579832 4:-0.66371681 5:0.07455286 6:-0.1728312 7:0.020408163 8:-0.1758844 
0 1 1 1 0 0 0 0 0 0 0 0 0 0 0 0 0 0 0 0 0 0 0 0 0 2:0.48648649 3:0.42857143 4:-0.69911504 5:-0.043385869 6:-0.16274378 7:-0.26925609 8:-0.27553563 
0 1 1 1 0 0 0 0 0 0 0 0 0 0 0 0 0 0 0 0 0 0 0 0 0 1:-1 2:0.48648649 3:0.51260504 4:-0.67256637 5:-0.18222065 6:-0.30195024 7:-0.36800527 8:-0.29845541 
0 1 1 1 0 0 0 0 0.20472796754342015 0 0 0.82716743942268023 0 0 0 0 0 0 0 0 0 0 0 0 0.20574882113400811 2:0.7027027 3:0.73109244 4:-0.67256637 5:0.24597131 6:0.0033624748 7:-0.020408163 8:-0.030393622 
0 1 1 1 0 0 0 0 0 0 0 0 0 0 0 0 0 0 0 0 0 0 0 0 0 2:0.67567568 3:0.66386555 4:-0.67256637 5:0.18788737 6:0.08137189 7:0.055957867 8:-0.21275536 
1 1 1 1 1 1 1 0 0 1 0 0 0 0 0 0 0 0 0 0 0 0 0 0 0 2:-0.17567568 3:-0.21008403 4:-0.81415929 5:-0.81937312 6:-0.86819099 7:-0.86701777 8:-0.83358246 
1 0 1 1 0 0 0 0 0 1 0 0 0 0 0 0 0 0 0 0 0 0 0 0 0 1:1 2:0.43243243 3:0.42857143 4:-0.72566372 5:-0.29343014 6:-0.42972428 7:-0.47860434 8:-0.40508221 
1 0 1 1 0 0 0 0 0 0 0 0 0 0 0 0 0 0 0 0 0 0 0 0 0 1:-1 2:0.39189189 3:0.41176471 4:-0.75221239 5:-0.30936781 6:-0.37928716 7:-0.4680711 8:-0.45490782 
1 0.95124614105934313 1 0 0 0 0 0 0 1 0 0 0 0 0 0 0 0 0 0 0 0 0 0 0 2:0.14864865 3:0.15966387 4:-0.77876106 5:-0.59305826 6:-0.67921991 7:-0.66951942 8:-0.63428002 
0 0 1 1 0 0 0 0 0 0 0 0 0 0 0 0 0 0 0 0 0 0 0 0 0 1:-1 2:0.48648649 3:0.42857143 4:-0.74336283 5:-0.23286701 6:-0.37659718 7:-0.35747202 8:-0.35127055 
0 0 1 1 0 0 0 0 0 0 0 0 0 0 0 0 0 0 0 0 0 0 0 0 0 1:-1 2:0.48648649 3:0.54621849 4:-0.7079646 5:-0.13936604 6:-0.10423672 7:-0.45753785 8:-0.38216243 
1 0 1 0 1 0 1 0 0 1 0 0 0 0 0 0 0 0 0 0 0 0 0 0 0 1:1 2:0.081081081 3:0.042016807 4:-0.78761062 5:-0.6259961 6:-0.66442502 7:-0.7445688 8:-0.67912307 
1 0 1 0 0 0 0 0 0 1 0 0 0 0 0 0 0.14717182476077739 0 0 0 0 0 0 0 0 1:-1 2:0.054054054 3:0.17647059 4:-0.76106195 5:-0.45068178 6:-0.41492939 7:-0.54970375 8:-0.71300448 
0 1 0 1 0 0 0 0 1 0 0 0 0.75031018328171895 1 1 1 0 0 0 0 0 0 0 0 0 1:-1 2:0.55405405 3:0.57983193 4:-0.67256637 5:0.14751195 6:-0.10759919 7:-0.15207373 8:-0.052316891 
1 0 1 0 0 0 0 0 0 1 0 0 0 0 0 0 0 0 0 0 0 0 0 0 0 1:-1 2:0.081081081 3:0.075630252 4:-0.77876106 5:-0.58137064 6:-0.62878278 7:-0.69848585 8:-0.64424514 
0 1 1 1 0 0 0 0 1 0 0 0 0.29029737384167548 0 0.75971523022446497 0 0 0 0 0 0 0 0 0 0 2:0.59459459 3:0.59663866 4:-0.68141593 5:0.05471932 6:-0.14794889 7:-0.10072416 8:-0.13602392 
1 0 1 1 0 0 0 0 0 0 0 0 0 0 0 0 0 0 0 0 0 0 0 0 0 2:0.5 3:0.44537815 4:-0.67256637 5:-0.17478307 6:-0.26429052 7:-0.34693878 8:-0.32536124 
0 1 1 1 0 0 0 1 1 0 0 0.79793993861497003 1 1 1 1 1 1 0 0 0 0 0.05238967734113107 0 0 1:-1 2:0.5 3:0.4789916 4:-0.68141593 5:-0.073490349 6:-0.33557498 7:-0.2244898 8:-0.067264574 
1 0 1 1 0 0 0 0 0 0 0 0 0 0 0 0 0 0 0 0 0 0 0 0 0 1:-1 2:0.25675676 3:0.34453782 4:-0.75221239 5:-0.31290951 6:-0.43779422 7:-0.32982225 8:-0.46686597 
1 0 1 0 0 0 0 0 0 0 0 0 0 0 0 0 0 0 0 0 0 0 0 0 0 2:0.35135135 3:0.32773109 4:-0.71681416 5:-0.2449088 6:-0.2535306 7:-0.43778802 8:-0.48978575 
1 1 1 1 0 0 0 1 1 0 0 1 1 1 1 1 1 1 0.12498782453607277 0 0 0 0 0 0 2:0.44594595 3:0.41176471 4:-0.71681416 5:-0.21126262 6:-0.48554136 7:-0.41408822 8:-0.24763328 
0 1 1 1 0 0 0 0 0 0 0 0 0 0 0 0 0 0 0 0 0 0 0 0 0 1:-1 2:0.54054054 3:0.52941176 4:-0.65486726 5:-0.13299097 6:-0.20981843 7:-0.41803818 8:-0.25660189 
0 0 1 1 0 0 0 0 0 0 0 0 0 0 0 0 0 0 0 0 0 0 0 0 0 1:-1 2:0.44594595 3:0.42857143 4:-0.67256637 5:-0.075969541 6:-0.073974445 7:-0.23370639 8:-0.42501246 
1 0 1 0 0 0 0 0 0 0 0 0 0 0 0 0 0 0 0 0 0 0 0 0 0 1:-1 2:0.35135135 3:0.27731092 4:-0.76106195 5:-0.2987427 6:-0.42030935 7:-0.41540487 8:-0.5266567 
1 0 1 1 1 0 1 0 0.83236315247885573 1 0 0 0 0 0 0.20754064481671078 0 0 0 0 0 0 0 0 0 2:-0.081081081 3:-0.15966387 4:-0.81415929 5:-0.74605985 6:-0.8399462 7:-0.78538512 8:-0.8036871 
1 0 1 0 0 0 0 0 0 0 0 0 0 0 0 0 0 0 0 0 0 0 0 0 0 1:-1 2:0.35135135 3:0.36134454 4:-0.72566372 5:-0.36957677 6:-0.40753194 7:-0.53785385 8:-0.56452417 
1 0 1 1 0 0 0 0 0 0 0 0 0 0 0 0 0 0 0 0 0 0 0 0 0 2:0.45945946 3:0.44537815 4:-0.71681416 5:-0.18151231 6:-0.32817754 7:-0.34430546 8:-0.37518685 
1 0 1 0 0 0 0.93312683543435226 0 0 1 0 0 0 0 0 0 0 0 0 0 0 0 0 0 0 2:0.16216216 3:0.075630252 4:-0.79646018 5:-0.58384983 6:-0.64694015 7:-0.68531929 8:-0.67015446 
1 0.47480769846653259 1 0 0 0 1 0 0 1 0 0 0 0 0 1 0 0 0 0 0 0 0 0 0 2:0.027027027 3:-0.0084033613 4:-0.75221239 5:-0.63414202 6:-0.70410222 7:-0.66820276 8:-0.73393124 
1 0 1 1 1 1 1 0 1 1 1 0 0 0.038122801385457747 0.73675401231333071 0 0 0 0 0 0 1 0.13235490264998451 1 0 1:1 2:-0.22972973 3:-0.2605042 4:-0.80530973 5:-0.83601913 6:-0.87357095 7:-0.86306781 8:-0.83358246 
0 0 1 1 0 0 0 0 0 0 0 0 0 0 0 0 0 0 0 0 0 0 0 0 0 2:0.5 3:0.46218487 4:-0.60176991 5:-0.05507349 6:-0.086079354 7:-0.31928901 8:-0.35625311 
1 0 1 0 0 0 0 0 0 0 0 0 0 0 0 0 0 0 0 0 0 0 0 0 0 1:-1 2:0.36486486 3:0.34453782 4:-0.73451327 5:-0.28457588 6:-0.33086752 7:-0.4443713 8:-0.43796712 
0 1 1 1 0 0 0 0 1 0 0 0.27578281212272338 1 0 0 0 0 0 0.08689756237172902 0 0 0 0 0 0.22973377185999666 2:0.60810811 3:0.78151261 4:-0.71681416 5:-0.07419869 6:-0.26899798 7:-0.22580645 8:-0.17987045 
1 0 1 0 0 0 0 0 0 0 0 0 0 0 0 0 0 0 0 0 0 0 0 0 0 1:-1 2:0.40540541 3:0.34453782 4:-0.73451327 5:-0.37382681 6:-0.42098184 7:-0.47202107 8:-0.55854509 
1 1 1 1 0 0 0 0 1 0 0 0 1 1 1 1 0 0 0 0 0 0 0 0 0 1:-1 2:0.2972973 3:0.32773109 4:-0.69026549 5:-0.3823269 6:-0.56086079 7:-0.46938776 8:-0.39511709 
1 0 1 1 0 0 0 0 0 0 0 0 0 0 0 0 0 0 0 0 0 0 0 0 0 2:0.35135135 3:0.39495798 4:-0.72566372 5:-0.21090845 6:-0.31674512 7:-0.37458855 8:-0.32536124 
1 0 1 0 0 0 0 0 0 1 0 0 0 0 0 0 0 0 0 0 0 0 0 0 0 1:-1 2:0.081081081 3:0.075630252 4:-0.78761062 5:-0.60262086 6:-0.66173504 7:-0.68400263 8:-0.63428002 
0 1 1 1 0 0 0 0 1 0 0 0 0 0.11893659202716679 0.042933964104632676 0 0 0 0 0 0 0 0 0 0 1:-1 2:0.44594595 3:0.46218487 4:-0.71681416 5:-0.21374181 6:-0.37592468 7:-0.40092166 8:-0.32336821 
1 0 1 0 0 0 0 0 1 0 0 0 0 0 0 0 0 0 0 0 0 0 0 0 0 1:-1 2:0.22972973 3:0.17647059 4:-0.73451327 5:-0.41243138 6:-0.52790854 7:-0.50888743 8:-0.49975087 
1 1 1 1 0 0 0 0 1 1 0 0.86514440101788859 0.85004511251946391 1 1 0 0 0 0 0 0 0 0 0 0 2:0.28378378 3:0.32773109 4:-0.74336283 5:-0.47653621 6:-0.60457297 7:-0.62343647 8:-0.47184853 
1 0 1 1 0 0 0 0 0 0 0 0 0 0 0 0 0 0 0 0 0 0 0 0 0 2:0.41891892 3:0.42857143 4:-0.69911504 5:-0.25340889 6:-0.3860121 7:-0.36010533 8:-0.37817638 
1 1 1 1 0 0 0 0 1 1 0 0.0096040753886128122 0 1 1 0 0 0 0 0 0 0 0 0 0 1:-1 2:0.067567568 3:0.025210084 4:-0.76106195 5:-0.64653798 6:-0.77740417 7:-0.69848585 8:-0.67414051 
0 0 1 1 0 0 0 0 0 0 0 0 0 0 0 0 0 0 0 0 0 0 0 0 0 1:-1 2:0.58108108 3:0.51260504 4:-0.7079646 5:-0.028156543 6:-0.20914593 7:-0.077024358 8:-0.31539611 
0 0 1 1 0 0 0 0 0 0 0 0 0 0 0 0 0 0 0 0 0 0 0 0 0 1:-1 2:0.41891892 3:0.32773109 4:-0.65486726 5:-0.052240128 6:-0.17148621 7:-0.1441738 8:-0.28450424 
1 0.62775901303441783 1 0.84116602579175437 1 1 1 0 0.20462094531709826 1 0 0.85905525254314608 0 0 0 0 0 0 0 0 0 0 0 0 0 1:1 2:0.067567568 3:0.075630252 4:-0.81415929 5:-0.68903843 6:-0.77673167 7:-0.77353522 8:-0.714001 
1 0 1 0 0 0 0 0 0 0 0 0 0 0 0 0 0 0 0 0 0 0 0 0 0 1:-1 2:0.40540541 3:0.36134454 4:-0.69911504 5:-0.20134585 6:-0.23470074 7:-0.3285056 8:-0.47483807 
1 0 1 0 0 0 0 0 0.59766234800315021 0 0 0 0.94955339525391924 0.71303327061411581 0.56239284602589623 0.13251924986709188 0 0 0 0 0 0 0 0 0 2:0.28378378 3:0.092436975 4:-0.7079646 5:-0.14786612 6:-0.27101547 7:-0.22712311 8:-0.33632287 
1 0 1 1 0 0 0 0 0 0 0 0 0 0 0.21737580480390942 0 0 0 0 0 0 0 0 0 0 2:0.32432432 3:0.31092437 4:-0.72566372 5:-0.41632725 6:-0.54270343 7:-0.46017117 8:-0.50971599 
1 0 1 0 0 0 0 0 0 0 0 0 0 0 0 0 0 0 0 0 0 0 0 0 0 1:-1 2:0.43243243 3:0.41176471 4:-0.66371681 5:-0.20417921 6:-0.20780094 7:-0.35088874 8:-0.48480319 
1 0 1 1 0 0 0 0 0 0 0 0 0 0 0 0 0 0 0 0 0 0 0 0 0 2:0.41891892 3:0.41176471 4:-0.72566372 5:-0.14432442 6:-0.12306658 7:-0.55497038 8:-0.36422521 
0 0 1 1 0 0 0 0 0 0 0 0 0 0 0 0 0 0 0 0 0 0 0 0 0 1:-1 2:0.52702703 3:0.54621849 4:-0.7079646 5:-0.031698247 6:-0.15131137 7:-0.10204082 8:-0.2894868 
1 0 1 0.96075724837070986 1 1 1 0 0.53830230608464136 1 1 0 0 0 0 0 0 0 0 0 0 0 0 0 0 1:1 2:-0.10810811 3:-0.15966387 4:-0.81415929 5:-0.74464317 6:-0.79085407 7:-0.8156682 8:-0.75386148 
0 1 1 1 0 0 0 0 1 0 0 0 0 0.57681294431566832 1 0 0 0 0 0 0 0 0 0 0 2:0.5 3:0.49579832 4:-0.67256637 5:-0.021781477 6:-0.27505044 7:-0.12837393 8:-0.24564026 
1 1 1 1 0 0 0 0 1 0 0 0.32939831370806555 1 1 1 1 0 0 0 0 0 0 0 0 0 2:0.24324324 3:0.21008403 4:-0.69911504 5:-0.3787852 6:-0.60457297 7:-0.48387097 8:-0.43497758 
0 1 1 1 0 0 0 0 1 0 0 0 0 0 0 0 0 0 0 0 0 0 0 0 0 1:-1 2:0.51351351 3:0.44537815 4:-0.68141593 5:-0.16592881 6:-0.35776732 7:-0.27057275 8:-0.29546587 
1 0 1 0 0 0 1 0 1 1 0 0 0 0.26210399061317829 1 1 0 0 0 0 0 0 0 0 0 2:0.027027027 3:-0.0084033613 4:-0.75221239 5:-0.59589162 6:-0.73705447 7:-0.6524029 8:-0.65421026 
1 1 1 1 0 0 0 0 0 0 0 0 0 0 0 0 0 0 0 0 0 0 0 0 0 1:1 2:0.55405405 3:0.56302521 4:-0.73451327 5:-0.12449088 6:-0.26227303 7:-0.22185648 8:-0.34429497 
1 1 1 1 0 0 0 0 1 0 0 0 0.044557499513085602 1 1 0 0 0 0 0 0 0 0 0 0 1:-1 2:0.36486486 3:0.39495798 4:-0.7079646 5:-0.29484682 6:-0.47209146 7:-0.3640553 8:-0.34529148 
1 0 1 0 0 0 0 0 0 0 0 0 0 0 0 0 0 0 0 0 0 0 0 0 0 2:0.27027027 3:0.29411765 4:-0.76106195 5:-0.35080574 6:-0.42434432 7:-0.47070441 8:-0.52964624 
0 1 1 1 0 0 0 0 1 0 0 0.35331766370826978 1 1 1 0 0 0 0.36508139372546139 0 0 0 0 0 0 2:0.55405405 3:0.52941176 4:-0.67256637 5:-0.027448203 6:-0.28715535 7:0.0098749177 8:-0.20876931 
1 1 1 1 0 0 0 0 0 1 0 0 0 0 0 0 0 0 0 0 0 0 0 0 0 1:-1 2:0.16216216 3:0.1092437 4:-0.79646018 5:-0.65964229 6:-0.71889711 7:-0.72876893 8:-0.69706029 
1 1 1 1 0 0 0 0 0 0 0 0 0.30780250867956593 0 0 0 0 0 0 0 0 0 0 0 0 2:0.45945946 3:0.41176471 4:-0.72566372 5:-0.21161679 6:-0.35036987 7:-0.4443713 8:-0.29546587 
1 1 1 1 0 0 0 0 0.080081600023972632 0 0 0 1 0 0 0 0 0 0 0 0 0 0 0 0 2:0.54054054 3:0.54621849 4:-0.73451327 5:-0.14290774 6:-0.30867518 7:-0.46017117 8:-0.23567514 
0 0 1 1 0 0 0 0 0 0 0 0 0 0 0 0 0 0 0 0 0 0 0 0 0 1:-1 2:0.43243243 3:0.42857143 4:-0.69911504 5:-0.16309545 6:-0.21856086 7:-0.37853851 8:-0.3712008 
1 0 1 0 0 0 0 0 0 1 0 0 0 0 0 0 0 0 0 0 0 0 0 0 0 2:0.14864865 3:0.14285714 4:-0.75221239 5:-0.4945989 6:-0.57565568 7:-0.53785385 8:-0.52466368 
0 1 1 1 0 0 0 0 1 0 0 0 0 0 0.47026514881221859 0 0 0 0 0 0 0 0 0 0 1:-1 2:0.63513514 3:0.56302521 4:-0.65486726 5:0.028156543 6:-0.20511096 7:0.028308097 8:-0.18086697 
0 1 0 1 0 0 0 0 0 0 0 0 0 0 0 0 0 0 0 0 0 0 0 0 0 1:-1 2:0.7972973 3:0.73109244 4:-0.68141593 5:0.3249513 6:0.22461332 7:0.12310731 8:-0.11410065 
1 1 1 0 0 0 1 0 0 1 0 0 0 0 0 0 0 0 0 0 0 0 0 0 0 2:0.067567568 3:0.025210084 4:-0.78761062 5:-0.66318399 6:-0.71822461 7:-0.7235023 8:-0.70403587 
1 0 1 1 0 0 0 0 0 0 0 0 0 0 0 0 0 0 0 0 0 0 0 0 0 2:0.47297297 3:0.44537815 4:-0.69026549 5:-0.14042855 6:-0.26832549 7:-0.33508887 8:-0.31539611 
1 0 1 0.99386502420746448 0 0 0 0 0 0 0 0 0 0 0 0 0 0 0 0 0 0 0 0 0 1:-1 2:0.41891892 3:0.39495798 4:-0.71681416 5:-0.15565787 6:-0.24478816 7:-0.19947334 8:-0.4778276 
0 1 1 1 0 0 0 0 0 0 0 0 0 0 0 0 0 0 0 0 0 0 0 0 0 2:0.45945946 3:0.49579832 4:-0.7079646 5:-0.061448557 6:-0.19435104 7:-0.20737327 8:-0.29546587 
1 0 1 1 0 0 0 0 0 1 0 0 0 0 0 0 0.051881841301070195 0 0 0 0 0 0 0 0 1:1 2:0.32432432 3:0.36134454 4:-0.72566372 5:-0.38409775 6:-0.49630128 7:-0.43515471 8:-0.50473343 
1 1 1 1 0 0 0 0 0 0 0 0 0 0 0 0 0 0 0 0 0 0 0 0 0 1:-1 2:0.39189189 3:0.34453782 4:-0.72566372 5:-0.37418098 6:-0.4794889 7:-0.50625411 8:-0.45490782 
1 0 1 0 0 0 0 0 0 0 0 0 0 0 0 0 0 0 0 0 0 0 0 0 0 1:-1 2:0.40540541 3:0.32773109 4:-0.74336283 5:-0.32211794 6:-0.37861466 7:-0.45753785 8:-0.49775785 
1 1 1 1 0 0 0 0 0 1 0 0 0 0 0.88696774077946139 0 0 0 0 0 0 0 0 0 0 1:-1 2:0.040540541 3:0.042016807 4:-0.77876106 5:-0.67062157 6:-0.7464694 7:-0.75246873 8:-0.68809168 
1 0 1 0 0 0 0 0 0 0 0 0 0 0 0 0 0 0 0 0 0 0 0 0 0 1:-1 2:0.37837838 3:0.41176471 4:-0.73451327 5:-0.24703382 6:-0.28648285 7:-0.47728769 8:-0.42800199 
0 0 1 1 0 0 0 0 0 0 0 0 0 0 0 0 0 0 0 0 0 0 0 0 0 1:-1 2:0.51351351 3:0.57983193 4:-0.67256637 5:-0.0051354702 6:-0.08137189 7:-0.21132324 8:-0.25660189 
1 0 1 1 1 1 1 0 1 1 1 0 0 0 0 0 0 0 0 0 0 0 0 0 0 1:1 2:-0.2027027 3:-0.21008403 4:-0.82300885 5:-0.8243315 6:-0.86348352 7:-0.86833443 8:-0.83358246 
1 1 1 0 0 0 0 0 0 1 0 0 0 0 0 0 0 0 0 0 0 0 0 0 0 2:0.21621622 3:0.21008403 4:-0.73451327 5:-0.50168231 6:-0.55884331 7:-0.61421988 8:-0.60637768 
1 0 1 0 0 0 0 0 0 1 0 0 0 0 0 0 0 0 0 0 0 0 0 0 0 1:-1 3:0.0084033613 4:-0.80530973 5:-0.68868426 6:-0.75857431 7:-0.72876893 8:-0.70303936 
0 1 0 1 0 0 0 0 0.84028169742436465 0 0 0.55986595669541039 0 0 0 0 0 0 0.098864315371343256 0 0 0 0 0 0.019597144182689843 1:-1 2:0.72972973 3:0.71428571 4:-0.69026549 5:0.38161856 6:0.026899798 7:0.10072416 8:-0.17887394 
1 0 1 0 0 0 0 0 0 0 0 0 0 0 0 0 0 0 0 0 0 0 0 0 0 1:-1 2:0.47297297 3:0.39495798 4:-0.74336283 5:-0.2318045 6:-0.31405514 7:-0.28637261 8:-0.49177877 
1 0.098002670266477576 1 0.1596380704998096 0 0 0 0 1 0 0 0.16687339086165243 0 1 1 0 0 0 0 0 0 0 0 0 0 1:-1 2:0.28378378 3:0.32773109 4:-0.73451327 5:-0.28280503 6:-0.4539341 7:-0.47070441 8:-0.42999502 
1 0 1 0 0 0 0 0 0 0 0 0 0 0 0 0 0 0 0 0 0 0 0 0 0 1:-1 2:0.52702703 3:0.54621849 4:-0.85840708 5:-0.26332566 6:-0.30867518 7:-0.53917051 8:-0.65421026 
1 0 1 1 0 0 0 0.14667385636248381 0.052666553799054674 1 0 0 0 1 0 0 0.38761954387788961 0 0 0 0 0 0 0 0 1:1 2:0.39189189 3:0.32773109 4:-0.74336283 5:-0.27749247 6:-0.42568931 7:-0.2955892 8:-0.47483807 
1 1 0 1 0 0 0 0 1 0 0 0 0 0 0.28209148092330782 0 0 0 0 0 0.023160813489659302 0 0 0 0 1:-1 2:0.41891892 3:0.46218487 4:-0.62831858 5:0.40641048 6:0.35036987 7:0.10204082 8:-0.024414549 
0 1 0 1 0 0 0 0 1 0 0 0 1 1 1 1 0.52896049823610003 0.21450835035496166 0 0 0 0 0 0 0 1:-1 2:0.58108108 3:0.59663866 4:-0.65486726 5:0.096865592 6:-0.12642905 7:-0.13364055 8:-0.016442451 
0 0 1 1 0 0 0 0 0 0 0 0 0 0 0 0 0 0 0 0 0 0 0 0 0 1:-1 2:0.44594595 3:0.41176471 4:-0.72566372 5:-0.17407473 6:-0.25622058 7:-0.37195523 8:-0.34628799 
0 1 0 1 0 0 0 0 0.0080091683894011698 0 0 0 1 0 1 1 0.74358758653589585 1 0.79609232963670784 0 0.15390249037190235 0 0.045377772098166014 0 0.10419494608455358 2:0.7027027 3:0.69747899 4:-0.63716814 5:0.68514255 6:0.33221251 7:0.31665569 8:0.2406577 
1 0 1 0 0 0 0 0 0 1 0 0 0 0 0 0 0 0 0 0 0 0 0 0 0 1:-1 2:0.18918919 3:0.17647059 4:-0.7699115 5:-0.48999469 6:-0.57094822 7:-0.65635286 8:-0.58445441 
0 0 1 1 0 0 0 0 0 0 0 0 0 0 0 0 0 0 0 0 0 0 0 0 0 1:-1 2:0.5 3:0.46218487 4:-0.7079646 5:-0.15105366 6:-0.22797579 7:-0.28242265 8:-0.41704036 
0 0 1 1 0 0 0 0 0 0 0 0 0 0 0 0 0 0 0 0 0 0 0 0 0 2:0.59459459 3:0.52941176 4:-0.69026549 5:-0.023552329 6:-0.093476799 7:-0.21527321 8:-0.3552566 
1 0 1 1 0 0 0 0 0 0 0 0 0 0 0 0 0 0 0 0 0 0 0 0 0 2:0.47297297 3:0.42857143 4:-0.69911504 5:-0.21905437 6:-0.28177539 7:-0.34298881 8:-0.43099153 
0 0 1 1 0 0 0 0 0 0 0 0 0 0 0 0 0 0 0 0 0 0 0 0 0 2:0.56756757 3:0.51260504 4:-0.69026549 5:-0.087302993 6:-0.16677875 7:-0.22053983 8:-0.35326358 
1 1 1 1 0 0 0 0 1 1 0 0 0 0 0.19965705871004386 0 0 0 0 0 0 0 0 0 0 1:-1 2:-0.013513514 3:-0.042016807 4:-0.81415929 5:-0.71666372 6:-0.82582381 7:-0.74983542 8:-0.67414051 
1 1 1 1 1 1 1 0.33147240137972495 0 1 1 0.21168377309814662 0 0.72635487587117942 0 0 0.4144165309028669 0.30258706590017798 0.032063240913674768 0 0 0 0 0 0 1:1 2:-0.13513514 3:-0.19327731 4:-0.82300885 5:-0.80910218 6:-0.82111634 7:-0.91573404 8:-0.83358246 
0 1 1 1 0 0 0 0 1 0 0 0 0 0 1 0 0 0 0 0 0 0 0 0 0 2:0.59459459 3:0.49579832 4:-0.73451327 5:-0.11776164 6:-0.37928716 7:-0.22317314 8:-0.28649726 
0 1 1 1 0 0 0 0 0 0 0 0 0 0 0 0 0 0 0 0 0 0 0 0 0 2:0.7027027 3:0.61344538 4:-0.61061947 5:0.32034709 6:0.24815064 7:0.008558262 8:-0.12705531 
0 1 1 1 0 0 0 0 0 0 0 0 0 0 0 0 0 0 0 0 0 0 0 0 0 2:0.58108108 3:0.59663866 4:-0.68141593 5:0.073490349 6:0.043039677 7:-0.20605662 8:-0.20378675 
1 1 1 0 1 0 1 0.11900835852864597 0 1 0 0 0 0 0 0 0 0 0 0 0 0 0 0 0 1:1 2:0.2027027 3:0.1092437 4:-0.79646018 5:-0.58987073 6:-0.65770007 7:-0.59052008 8:-0.71798705 
0 1 0 1 0 0 0 0 0.4317594968668142 0 0 0 0 0 0 0 0 0 0 0 0 0 0 0 0 1:-1 2:0.66216216 3:0.51260504 4:-0.6460177 5:0.32459713 6:0.199731 7:0.055957867 8:-0.046337818 
1 1 1 1 0 0 1 0 1 1 0 0 0.35693714479770444 0.067394295967895437 1 0.5213810934572175 0 0 0 0 0 0 0 0 0 1:-1 2:-0.22972973 3:-0.19327731 4:-0.7699115 5:-0.80556047 6:-0.88096839 7:-0.85121791 8:-0.80269058 
1 0 1 0 0 0 0 0 1 0 0 0 0 1 1 0 0 0 0 0 0 0 0 0 0 1:-1 2:0.25675676 3:0.21008403 4:-0.69911504 5:-0.3787852 6:-0.54539341 7:-0.45358789 8:-0.49476831 
1 0 1 1 0 0 0 0 0 0 0 0.53210608092737177 0 0 0 0 0 0 0 0 0 0 0 0 0 1:-1 2:0.40540541 3:0.37815126 4:-0.77876106 5:-0.43545245 6:-0.56489576 7:-0.47465438 8:-0.54459392 
1 0.41496837138036929 1 1 0 0 0 0 1 0 0 0 0 1 1 0 0 0 0 0 0 0 0 0 0 1:-1 2:0.31081081 3:0.29411765 4:-0.71681416 5:-0.38905614 6:-0.55682582 7:-0.45490454 8:-0.48480319 
1 0 1 0 0 0 0 0 0 0 0 0 0 0 0 0 0 0 0 0 0 0 0 0 0 2:0.24324324 3:0.15966387 4:-0.73451327 5:-0.13440765 6:-0.17014122 7:-0.27715602 8:-0.42999502 
0 1 1 1 0 0 0 0 1 0 0 0 0 0 0 0 0 0 0 0 0 0 0 0 0 1:-1 2:0.5 3:0.49579832 4:-0.67256637 5:-0.036656632 6:-0.22326833 7:-0.17840685 8:-0.23766816 
1 0 1 1 0 0 0 0 0 0 0 0 0 0 0 0 0 0 0 0 0 0 0 0 0 2:0.51351351 3:0.51260504 4:-0.74336283 5:-0.19780414 6:-0.32212508 7:-0.30217248 8:-0.37518685 
1 0 1 1 0 0 0 0 0 1 0 0 0 0 0.69032802673131854 0 0 0 0 0 0 0 0 0 0 1:1 2:0.47297297 3:0.32773109 4:-0.76106195 5:-0.34690986 6:-0.5198386 7:-0.40487163 8:-0.4120578 
0 1 1 1 0 0 0 1 1 0 0 0.014308709340754872 1 1 1 1 1 1 0 0.38367364788388958 1 0 0.19787320112611495 0 0 1:-1 2:0.5 3:0.57983193 4:-0.65486726 5:-0.071011156 6:-0.33759247 7:-0.32587228 8:-0.076233184 
1 0 1 0 0 0 0 0 1 0 0 0 1 1 1 0 0 0 0 0 0 0 0 0 0 2:0.2027027 3:0.21008403 4:-0.74336283 5:-0.43155658 6:-0.55413584 7:-0.54707044 8:-0.43497758 
1 1 1 1 1 0 1 0 0 1 0 0 0 0 1 0.23569001034498327 0 0 0 0 0 0 0 0 0 2:-0.081081081 3:-0.042016807 4:-0.7699115 5:-0.74110147 6:-0.80497646 7:-0.7682686 8:-0.76382661 
0 0.22345184016046776 1 1 0 0 0 0 0 0 0 0 0 0 0 0 0 0 0 0 0 0 0 0 0 2:0.58108108 3:0.54621849 4:-0.69911504 5:-0.05436515 6:-0.17417619 7:-0.17840685 8:-0.29048331 
1 0 1 1 0 0 0 0 1 0 0 0 0 0 0 0 0 0 0 0 0 0 0 0 0 1:-1 2:0.33783784 3:0.32773109 4:-0.74336283 5:-0.32849301 6:-0.46267653 7:-0.41277156 8:-0.43597409 
0 1 0 1 0 0 0 0 0 0 0 0 0 0 0 0 0 0 0 0 0 0 0 0 0 1:-1 2:0.7027027 3:0.69747899 4:-0.7079646 5:0.18505401 6:0.07061197 7:0.077024358 8:-0.22969606 
1 1 1 1 0 0 0 0 1 1 0 0.38930367034647728 1 1 1 0.19888777936904367 0.85848255698534648 0 0 0 0.67272937511061481 0 0 0 0 2:0.27027027 3:0.21008403 4:-0.71681416 5:-0.45493182 6:-0.63550773 7:-0.61816985 8:-0.45191829 
0 1 0.52322675592468004 1 0 0 0 0 1 0 0 0.54153436552515133 1 1 1 1 1 1 0 0 0.080736253188102874 0 0 0 0 1:-1 2:0.58108108 3:0.4789916 4:-0.65486726 5:0.15140783 6:-0.20242098 7:-0.054641211 8:-0.036372696 
1 0 1 1 0 0 0 0 0 1 0 0 0 0 0 0 0 0 0 0 0 0 0 0 0 1:1 2:0.39189189 3:0.41176471 4:-0.74336283 5:-0.31113866 6:-0.37256221 7:-0.4562212 8:-0.48679621 
1 1 1 0 0 0 1 0 1 1 0 0.056803070109027916 0 0 0 0 0 0 0.22112644846988605 0 0.10246876686480466 0 0 0 0 2:0.067567568 3:0.0084033613 4:-0.82300885 5:-0.66460067 6:-0.77605918 7:-0.78933509 8:-0.63428002 
0 1 1 1 0 0 0 0 0 0 0 0 0 0 0 0 0 0 0 0 0 0 0 0 0 1:-1 2:0.55405405 3:0.54621849 4:-0.69026549 5:0.037010802 6:-0.090786819 7:-0.19947334 8:-0.20577977 
1 0 1 0 0 0 0 0 1 0 0 0 0 0 0 0 0 0 0 0 0 0 0 0 0 1:-1 2:0.28378378 3:0.29411765 4:-0.76106195 5:-0.3787852 6:-0.5063887 7:-0.44963792 8:-0.47483807 
1 0 1 0 0 0 1 0 0 1 0 0 0 0 0 0 0 0 0 0 0 0 0 0 0 1:1 2:0.28378378 3:0.27731092 4:-0.75221239 5:-0.46768196 6:-0.5595158 7:-0.59183673 8:-0.53961136 
0 1 1 1 0 0 0 0 1 0 0 0 0 0 0 0 0 0 0 0.045274748983144583 0 0 0 0 0 1:-1 2:0.64864865 3:0.61344538 4:-0.72566372 5:-0.020718966 6:-0.11163416 7:-0.43647136 8:-0.19083209 
1 0 1 0.72592653407136787 0 0 0.79384384159667842 0 0 1 0 0 0 0 0 0 0 0 0 0 0 0 0 0 0 1:1 2:0.35135135 3:0.32773109 4:-0.76106195 5:-0.42978573 6:-0.51513114 7:-0.53785385 8:-0.49676134 
1 0 1 1 1 1 1 0.14258537165247998 0 1 1 0 0 0 0 0 0 0 0 0 0 0 0 0 0 2:-0.22972973 3:-0.29411765 4:-0.84070796 5:-0.84806092 6:-0.87222596 7:-0.90388413 8:-0.85650224 
1 1 1 1 0 0 0 0 1 1 0 0 0.039784862435359503 1 1 0.30559460316376558 0 0 0 0 0 0 0 0 0 1:-1 2:0.040540541 3:-0.042016807 4:-0.76106195 5:-0.65078803 6:-0.77874916 7:-0.69321922 8:-0.63428002 
1 1 1 1 0 0 1 0 0 1 0 0 0 0 0 0 0 0 0 0 0 0 0 0 0 1:1 2:0.28378378 3:0.2605042 4:-0.74336283 5:-0.49707809 6:-0.59448554 7:-0.60105332 8:-0.55455904 
0 1 1 1 0 0 0 0 0 0 0 0 0 0 0 0 0 0 0 0 0 0 0 0 0 2:0.59459459 3:0.57983193 4:-0.62831858 5:0.16309545 6:0.098856759 7:-0.10730744 8:-0.1509716 
1 0 1 0 0 0 1 0 0 1 0 0 0 0 0 0 0 0 0 0 0 0 0 0 0 2:-0.067567568 3:-0.075630252 4:-0.77876106 5:-0.67345493 6:-0.75117687 7:-0.7116524 8:-0.714001 
1 0.5228241384793274 1 0 0 0 1 0 1 1 0 0 0 0.36588934673211804 0 0.34995935917480725 0 0 0 0 0 0 0 0 0 1:1 2:0.33783784 3:0.32773109 4:-0.74336283 5:-0.46945281 6:-0.62138534 7:-0.42330481 8:-0.56153463 
1 1 1 1 1 1 1 0 1 1 0 0 0 0.60683790647428104 0 0 0.22621974520491875 0 0 0 0.045312923203550619 0 0 0 0 1:1 2:-0.054054054 3:0.092436975 4:-0.81415929 5:-0.77014344 6:-0.82851379 7:-0.79460171 8:-0.8036871 
1 0 1 0.34706411230523915 0 0 1 0 0 1 0 0 0 0 0 0 0.032563952799704282 0 0 0 0 0 0 0 0 1:1 2:0.28378378 3:0.24369748 4:-0.74336283 5:-0.37099345 6:-0.41963685 7:-0.55102041 8:-0.53263577 
1 0 0 1 0.23833693861001698 0 1 0 0.21529444921938584 1 0 0 0 0 0 0 0 0 0 0 0 0 0 0 0 1:-1 2:0.7027027 3:0.71428571 4:-0.088495575 5:0.56401629 6:0.48823134 7:0.27978934 8:0.017438964 
1 0 1 0 0 0 0 0 0 0 0 0 0 0 0 0 0 0 0 0 0 0 0 0 0 1:-1 2:0.37837838 3:0.36134454 4:-0.73451327 5:-0.14715778 6:-0.21990585 7:-0.4325214 8:-0.35924265 
1 0 1 0 0 0 0 0 0 1 0 0 0 0 0 0 0 0 0 0 0 0 0 0 0 2:0.21621622 3:0.15966387 4:-0.76106195 5:-0.49566141 6:-0.5736382 7:-0.63791968 8:-0.58844046 
1 0 1 1 0 0 0 0 0 0 0 0 0 0 0 0 0 0 0 0 0 0 0 0 0 2:0.45945946 3:0.41176471 4:-0.72566372 5:-0.29024261 6:-0.399462 7:-0.49308756 8:-0.42600897 
1 1 1 1 0 0 0 0 1 0 0 0.15646676882124169 0 0 0 0 0 0 0 0 0 0 0 0 0 2:0.5 3:0.46218487 4:-0.69911504 5:-0.14042855 6:-0.37928716 7:-0.46280448 8:-0.38415546 
1 1 1 1 1 1 1 0 0.42256343529424634 1 1 0 0 0 0.046475859868557456 0 0 0 0 0 0 0 0 0 0 1:1 2:-0.081081081 3:-0.14285714 4:-0.80530973 5:-0.79139366 6:-0.83591123 7:-0.85121791 8:-0.80468361 
0 1 0 1 0 0 0 0 0 0 0 0 0 0 0 0 0 0 0 0 0 0 0 0 0 1:-1 2:0.67567568 3:0.69747899 4:-0.67256637 5:0.23109616 6:0.18897108 7:-0.023041475 8:-0.13104136 
1 0 1 1 1 0 1 0 0 1 0 0 0 0 0 0 0 0 0 0 0 0 0 0 0 1:-1 2:-0.28378378 3:-0.29411765 4:-0.84955752 5:-0.87143616 6:-0.89778077 7:-0.88018433 8:-0.87344295 
1 0 1 1 0 0 0 0 0 0 0 0 0 0 0 0 0 0 0 0 0 0 0 0 0 2:0.45945946 3:0.42857143 4:-0.7079646 5:-0.17867894 6:-0.31136516 7:-0.20868993 8:-0.39511709 
1 1 1 1 0 0 1 0 0 1 0 0 0 0 0 0 0 0 0 0 0 0 0 0 0 1:1 2:0.36486486 3:0.29411765 4:-0.74336283 5:-0.44147335 6:-0.52723605 7:-0.56813693 8:-0.52067763 
1 0 1 0 0 0 0 0 0 0 0 0 0 0 0 0 0 0 0 0 0 0 0 0 0 1:-1 2:0.43243243 3:0.41176471 4:-0.73451327 5:-0.18682486 6:-0.22797579 7:-0.39038841 8:-0.41106129 
0 1 0 1 0 0 0 0 0 0 0 0 0 0 0 0 0 0 0 0 0 0 0 0 0 1:-1 2:0.68918919 3:0.57983193 4:-0.69026549 5:0.24420046 6:0.17484869 7:-0.049374589 8:-0.066268062 
1 0 1 1 0 0 0 0 0 0 0 0 0 0 0 0 0 0 0 0 0 0 0 0 0 2:0.54054054 3:0.42857143 4:-0.69911504 5:-0.19780414 6:-0.29119032 7:-0.33245556 8:-0.39511709 
1 0 1 0 0 0 0 0 0 0 0 0 0 0 0 0 0 0 0 0 0 0 0 0 0 1:-1 2:0.41891892 3:0.37815126 4:-0.72566372 5:-0.28138835 6:-0.31271015 7:-0.3522054 8:-0.55455904 
0 1 1 1 0 0 0 0 1 0 0 0 0.13250881646564436 0.77456118094073145 0.64548997102871397 1 0 0 0 0 0 0 0 0 0 1:-1 2:0.45945946 3:0.4789916 4:-0.6460177 5:-0.13794935 6:-0.24277068 7:-0.40355497 8:-0.22869955 
1 0 1 0.34501803792297692 0 0 0 0 0 1 0 0 0 0.20516420093813328 0.7235579808242022 0 0 0 0 0 0 0 0 0 0 1:-1 2:0.17567568 3:0.15966387 4:-0.75221239 5:-0.53993271 6:-0.67114997 7:-0.56287031 8:-0.63428002 
0.71898305349283764 0 1 1 0 0 0 0 0 0 0 0 0 0 0 0 0 0 0 0 0 0 0 0 0 2:0.54054054 3:0.49579832 4:-0.71681416 5:-0.11846998 6:-0.26496301 7:-0.14022383 8:-0.40508221 
0 0 1 1 0 0 0 0 0 0 0 0 0 0 0 0 0 0 0 0 0 0 0 0 0 1:-1 2:0.54054054 3:0.59663866 4:-0.65486726 5:-0.016823092 6:-0.13180901 7:-0.22580645 8:-0.25859492 
1 1 1 0.56017968185593303 1 0 1 0 0 1 0 0 0 0 0 0 0 0 0 0 0 0 0 0 0 1:1 2:0.2027027 3:0.15966387 4:-0.7699115 5:-0.58880822 6:-0.68796234 7:-0.64186965 8:-0.64424514 
1 0 1 1 0 0 0 0 0 0 0 0 0 0 0 0 0 0 0 0 0 0 0 0 0 2:0.54054054 3:0.49579832 4:-0.72566372 5:-0.13688684 6:-0.17484869 7:-0.37985517 8:-0.36821126 
0 0 1 1 0 0 0 0 0 0 0 0 0 0 0 0 0 0 0 0 0 0 0 0 0 2:0.71621622 3:0.49579832 4:-0.73451327 5:-0.068886134 6:-0.082044385 7:-0.2600395 8:-0.4449427 
0 0 0 1 0 0 0 0 0 0 0 0 0 0 0 0 0 0 0 0 0 0 0 0 0 1:-1 2:0.72972973 3:0.61344538 4:-0.66371681 5:0.18540818 6:0.19435104 7:-0.17709019 8:-0.16591928 
1 0 1 0 0 0 1 0 1 1 0 0 0 0 0.4276945953405859 0 0 0 0 0 0 0 0 0 0 1:1 2:0.18918919 3:0.21008403 4:-0.76106195 5:-0.49672392 6:-0.61802286 7:-0.60105332 8:-0.51469856 
1 0 1 1 0 0 0 0 0 0 0 0 0 0 0 0 0 0 0 0 0 0 0 0 0 1:1 2:0.52702703 3:0.46218487 4:-0.76106195 5:-0.2222419 6:-0.34498991 7:-0.34167215 8:-0.4200299 
0 0 1 1 0 0 0 0 0 0 0 0 0 0 0 0 0 0 0 0 0 0 0 0 0 1:-1 2:0.48648649 3:0.41176471 4:-0.69026549 5:-0.051885957 6:-0.11903161 7:-0.25608953 8:-0.33134031 
1 1 1 1 1 0.52371391240945475 1 0 0 1 0 0 0 0 0 0 0.40091926189764143 0 0 0 0.0079003055597445804 0 0.047736327354173172 0 0 1:1 2:0.067567568 3:0.058823529 4:-0.75221239 5:-0.64830884 6:-0.7195696 7:-0.67873601 8:-0.714001 
1 0 1 0 0 0 0 0 0 1 0 0 0 0 0 0 0 0 0 0 0 0 0 0 0 2:0.35135135 3:0.22689076 4:-0.76106195 5:-0.39436869 6:-0.38130464 7:-0.61421988 8:-0.57947185 
0 1 1 1 0 0 0 0 0 0 0 0 0 0 0 0 0 0 0 0 0 0 0 0 0 2:0.68918919 3:0.57983193 4:-0.66371681 5:0.13299097 6:-0.050437122 7:-0.040157999 8:-0.14598904 
1 0 1 0 0 0 1 0 1 1 0 0 0.59152198144388912 0.63487579999955968 1 0 0 0 0 0 0 0 0 0 0 1:1 2:0.27027027 3:0.24369748 4:-0.75221239 5:-0.42447317 6:-0.59112307 7:-0.39302172 8:-0.51669158 
1 0 1 0 0 0 0 0 0 1 0 0 0 0 0 0 0 0 0 0 0 0 0 0 0 2:0.17567568 3:0.15966387 4:-0.75221239 5:-0.42447317 6:-0.38399462 7:-0.48387097 8:-0.61434978 
1 0 1 1 0 0 0 0 0 0 0 0 0 0 0 0 0 0 0 0 0 0 0 0 0 2:0.45945946 3:0.34453782 4:-0.74336283 5:-0.21126262 6:-0.32279758 7:-0.37458855 8:-0.37518685 
1 0 1 0 0 0 0 0 0 0 0 0 0 0 0 0 0 0 0 0 0 0 0 0 0 1:-1 2:0.35135135 3:0.29411765 4:-0.67256637 5:-0.27536745 6:-0.31876261 7:-0.41013825 8:-0.50772297 
1 0 1 1 0 0 1 0 0 1 0 0 0 0 0 0 0 0 0 0 0 0 0 0 0 1:1 2:0.31081081 3:0.29411765 4:-0.75221239 5:-0.41703559 6:-0.46065905 7:-0.63528637 8:-0.51469856 
1 1 1 1 0 0 0 0 0.56292902455745719 0 0 0 0 0 0 0 0 0 0 0 0 0 0 0 0 1:-1 2:0.37837838 3:0.37815126 4:-0.7079646 5:-0.37453515 6:-0.45998655 7:-0.57340355 8:-0.45690085 
1 0 1 0 0 0 0 0 0 0 0 0 0 0 0 0 0 0 0 0 0 0 0 0 0 1:-1 2:0.41891892 3:0.32773109 4:-0.71681416 5:-0.19249159 6:-0.27639543 7:-0.40882159 8:-0.39113104 
1 0 1 0 0 0 0 0 1 1 0 0 0 1 1 0 0 0 0 0 0 0 0 0 0 2:0.14864865 3:0.15966387 4:-0.77876106 5:-0.52859926 6:-0.65030262 7:-0.65503621 8:-0.56452417 
1 0 1 1 0 0 0 0 0 0 0 0.029100673446323836 0 0 0 0 0 0 0 0 0 0 0 0 0 2:0.5 3:0.4789916 4:-0.66371681 5:-0.17584558 6:-0.2804304 7:-0.4443713 8:-0.67912307 
1 0 1 1 0 0 1 0 0 1 0 0 0 0 1 0 0 0 0 0 0 0 0 0 0 1:1 2:0.2972973 3:0.2605042 4:-0.72566372 5:-0.47759872 6:-0.57969065 7:-0.62343647 8:-0.4449427 
1 0 1 1 0.31414055594518847 0 1 0 0 1 0 0 0 0 0.31666021914850595 0 0 0 0 0 0 0 0 0 0 1:-1 2:-0.28378378 3:-0.2605042 4:-0.84070796 5:-0.85514432 6:-0.90383322 7:-0.88808427 8:-0.86347783 
1 0 1 0 0 0 0 0 0 0 0 0 0 0 0 0 0 0 0 0 0 0 0 0 0 1:-1 2:0.37837838 3:0.39495798 4:-0.7079646 5:-0.0033646184 6:0.07464694 7:-0.39828835 8:-0.41504733 
1 0 1 0 0 0 0 0 0 1 0 0 0 0 0 0 0 0 0 0 0 0 0 0 0 1:-1 2:0.17567568 3:0.12605042 4:-0.77876106 5:-0.536391 6:-0.64895763 7:-0.51810402 8:-0.65421026 
1 0.22003323243260045 1 1 1 1 1 0 1 1 1 0 0 0.28818903911052962 0 0 0 0 0 0 0 0 0 0 0 1:1 2:-0.17567568 3:-0.2605042 4:-0.82300885 5:-0.84168585 6:-0.8937458 7:-0.8722844 8:-0.83358246 
0 0.41097211121605892 1 1 0 0 0 0 0 0 0 0 0 0 0 0 0 0 0 0 0 0 0 0 0 2:0.48648649 3:0.44537815 4:-0.69026549 5:-0.036656632 6:-0.091459314 7:-0.31270573 8:-0.26457399 
1 0 1 1 0 0 0 0 0 0 0 0 0 0 0 0 0 0 0 0 0 0 0 0 0 2:0.44594595 3:0.36134454 4:-0.74336283 5:-0.2091376 6:-0.35843981 7:-0.22580645 8:-0.40807175 
1 0 1 1 0 0 1 0 1 1 0 0 0 0 0.51134358973183036 0 0.14046237536772399 0 0 0 0 0 0 0 0 1:1 2:0.28378378 3:0.27731092 4:-0.75221239 5:-0.43509828 6:-0.60457297 7:-0.49967084 8:-0.52864973 
1 0 1 0.96806365891666268 0 0 0 0 1 0 0 0 0 1 0 0 0 0 0 0 0 0 0 0 0 1:-1 2:0.31081081 3:0.24369748 4:-0.76106195 5:-0.40003542 6:-0.56220578 7:-0.41935484 8:-0.47583458 
1 0 1 0 0 0 0 0 0 0 0 0 0 0 0 0 0 0 0 0 0 0 0 0 0 1:-1 2:0.37837838 3:0.36134454 4:-0.7079646 5:-0.2126793 6:-0.21788837 7:-0.38380513 8:-0.45690085 
0 1 0 1 0 0 0 0 1 0 0 0.22153594492480747 0 0 0.15456708353850165 1 0 0 0 0 0 0 0 0 0 1:-1 2:0.68918919 3:0.71428571 4:-0.69026549 5:0.31361785 6:0.13449899 7:0.034891376 8:0.073243647 
0 1 1 1 0 0 0 0 0 0 0 0 0 0 0 0 0 0 0 0 0 0 0 0 0 2:0.56756757 3:0.52941176 4:-0.69026549 5:0.16911634 6:0.14391392 7:-0.11520737 8:-0.1998007 
0 1 1 1 0 0 0 0 0 0 0 0 0 0 0 0 0 0 0 0 0 0 0 0 0 2:0.59459459 3:0.54621849 4:-0.68141593 5:-0.017531433 6:-0.20174849 7:-0.14812377 8:-0.21574489 
1 1 1 1 0 0 0 0.77640402630404037 1 1 0 1 1 1 1 1 0 0.72802478070415799 0.91392925515156154 0 0.86963525669215613 0 0.016485794865302147 0 0 2:0.18918919 3:0.14285714 4:-0.7079646 5:-0.46555693 6:-0.74512441 7:-0.55365372 8:-0.36422521 
1 1 1 0 0 0 1 0 0 1 0 0.074966762288171923 0 0.013967256181832753 0 0 0.68714009083359118 0 0 0 0 0 0 0 0 2:0.081081081 3:0.075630252 4:-0.77876106 5:-0.59164158 6:-0.62811029 7:-0.77748519 8:-0.69407075 
0 1 1 1 0 0 0 1 1 0 0 0.085375514289135451 1 1 1 1 1 1 0 0 0 0 0 0 0 1:-1 2:0.59459459 3:0.57983193 4:-0.72566372 5:-0.039844165 6:-0.28513786 7:-0.19947334 8:-0.10911809 
1 0 1 0 0 0 0 0 0.53542104359778908 0 0 0 0 0 0 0 0 0 0 0 0 0 0 0 0 1:-1 2:0.24324324 3:0.22689076 4:-0.74336283 5:-0.44111918 6:-0.55749832 7:-0.5036208 8:-0.50473343 
1 1 1 1 0 0 1 0.085322041879828628 1 1 0 0 0 0.079100226750185895 1 0 0 0 0.3765384619747672 0 0.085427849192431432 0 0 0 0 1:-1 2:-0.12162162 3:-0.12605042 4:-0.81415929 5:-0.7981229 6:-0.84868863 7:-0.90388413 8:-0.77777778 
1 0 1 0 0 0 0 0 0 1 0 0 0 0 0 0 0 0 0 0 0 0 0 0 0 1:-1 2:0.10810811 3:0.0084033613 4:-0.78761062 5:-0.61395431 6:-0.71217216 7:-0.57603687 8:-0.72396612 
0 1 1 1 0 0 0 0 1 0 0 0 1 1 1 1 1 0.66430683629074716 0 0 0 0 0 0 0 1:-1 2:0.35135135 3:0.39495798 4:-0.67256637 5:-0.30370108 6:-0.49764627 7:-0.42857143 8:-0.29546587 
1 0 1 1 0 0 0 0 0 0 0 0 0 0 0 0 0 0 0 0 0 0 0 0 0 2:0.40540541 3:0.37815126 4:-0.73451327 5:-0.30724278 6:-0.44788164 7:-0.48518762 8:-0.55356253 
1 1 1 1 0 0 0.96303455618611866 0 0 1 0 0 0 0 0 0 0 0 0 0 0 0 0 0 0 1:-1 2:-0.040540541 3:-0.0084033613 4:-0.80530973 5:-0.71383035 6:-0.77605918 7:-0.78801843 8:-0.73393124 
1 0 1 1 0 0 0 0 0 0 0 0 0 0 0 0 0 0 0 0 0 0 0 0 0 2:0.33783784 3:0.39495798 4:-0.75221239 5:-0.38445192 6:-0.48352387 7:-0.44568795 8:-0.54160438 
0 1 0 1 0 0 0 0 0.74152243729719503 0 0 0 0 0 0 0 0 0 0 0 0 0 0 0 0 1:-1 2:0.74324324 3:0.66386555 4:-0.63716814 5:0.53214096 6:0.48554136 7:0.38117182 8:-0.19780767 
1 0 1 0 1 0 1 0.19126457315584211 0 1 0 0 0.1672273589240505 0.23252853561651357 0 0 0.35581162365024127 0 0 0 0 0 0 0 0 1:1 2:0.054054054 3:-0.092436975 4:-0.75221239 5:-0.46201523 6:-0.51445864 7:-0.59710336 8:-0.58644743 
1 1 1 1 0 0 0 0 1 0 0 0 0 0.26238981210952783 0 0 0 0 0 0 0 0 0 0 0 1:-1 2:0.28378378 3:0.27731092 4:-0.75221239 5:-0.46130689 6:-0.56153329 7:-0.55760369 8:-0.48679621 
0 1 1 1 0 0 0 0 0 0 0 0 0 0 0 0 0 0 0 0 0 0 0 0 0 2:0.71621622 3:0.6302521 4:-0.63716814 5:0.11811581 6:0.07733692 7:-0.24555629 8:-0.13602392 
1 1 1 1 0 0 0 0.59655485741058267 1 0 0 0.099065675048805771 1 1 1 1 1 0.4677211943885759 0.32960367672833962 0.40411477055612627 0.32568748130247038 0 0 0 0 1:-1 2:0.28378378 3:0.36134454 4:-0.69026549 5:-0.3858686 6:-0.57700067 7:-0.52073733 8:-0.36522172 
1 0 1 0 0 0 1 0 0 1 0 0 0 0 0 0 0 0 0 0 0 0 0 0 0 1:1 2:0.33783784 3:0.29411765 4:-0.7699115 5:-0.45847353 6:-0.53463349 7:-0.53127057 8:-0.6003986 
1 0 1 0 0 0 1 0 0.31341738680381337 1 0 0 0 0 0 0 0 0 0 0 0 0 0 0 0 1:1 2:0.22972973 3:0.2605042 4:-0.76106195 5:-0.55834957 6:-0.67182246 7:-0.61816985 8:-0.57747882 
1 1 1 0.967900655979405 0 0 1 0 0.26719507314898661 1 0 0 0 0 0 0 0 0 0 0 0 0 0 0 0 1:-1 3:-0.025210084 4:-0.84070796 5:-0.73260138 6:-0.80901143 7:-0.80645161 8:-0.75386148 
0 0 1 1 0 0 0 0 0 0 0 0 0 0 0 0 0 0 0 0 0 0 0 0 0 1:-1 2:0.39189189 3:0.46218487 4:-0.7079646 5:-0.14644944 6:-0.24949563 7:-0.38248848 8:-0.38714499 
1 1 1 1 0 0 0 0 1 0 0 0 1 1 1 0 0 0 0 0 0 0 0 0 0 2:0.36486486 3:0.49579832 4:-0.7079646 5:-0.34620152 6:-0.50369872 7:-0.51415405 8:-0.4040857 
0 1 1 1 0 0 0 0 1 0 0 0 1 0.015955490819490672 1 0 0 0 0 0 0 0 0 0 0 2:0.48648649 3:0.4789916 4:-0.7079646 5:-0.1074907 6:-0.3194351 7:-0.16392363 8:-0.22571001 
1 0 1 0 0 0 0 0 0 0 0 0 0 0 0 0 0 0 0 0 0 0 0 0 0 1:-1 2:0.36486486 3:0.34453782 4:-0.76106195 5:-0.43793165 6:-0.45662408 7:-0.56155365 8:-0.59641256 
1 0 1 1 0 0 0 0 0 0 0 0 0 0 0 0 0 0 0 0 0 0 0 0 0 2:0.36486486 3:0.34453782 4:-0.78761062 5:-0.24101293 6:-0.35709482 7:-0.28110599 8:-0.47483807 
1 0 1 1 0 0 0 0 0 1 0 0 1 0.82187673275710771 1 0 1 0.66402923630110611 0 0 0 0 0 0 0 1:1 2:0.44594595 3:0.41176471 4:-0.73451327 5:-0.31680538 6:-0.44384667 7:-0.47465438 8:-0.31539611 
0 1 1 1 0 0 0 0 1 0 0 0 0 0.25525584497504256 1 0 0 0 0 0 0 0 0 0 0 1:-1 2:0.44594595 3:0.42857143 4:-0.69911504 5:-0.19603329 6:-0.38735709 7:-0.23765635 8:-0.31141006 
1 0 1 1 1 1 1 0 0.95011028495689132 1 1 0.022050650585370993 0 0 0 0 0 0 0 0 0 0 0 0 0 2:-0.27027027 3:-0.31092437 4:-0.84070796 5:-0.85479015 6:-0.89710827 7:-0.88676761 8:-0.85052317 
1 0 1 0 0 0 0 0 0 0 0 0 0 0 0 0 0 0 0 0 0 0 0 0 0 1:-1 2:0.36486486 3:0.2605042 4:-0.7699115 5:-0.43616079 6:-0.51042367 7:-0.54575379 8:-0.54758346 
1 1 1 1 0 0 0 0 0 1 0 0 0 0 0 0 0 0 0 0 0 0 0 0 0 1:-1 2:0.040540541 3:0.0084033613 4:-0.75221239 5:-0.65362139 6:-0.72293208 7:-0.69848585 8:-0.65620329 
1 0 1 0 0 0 0 0 0 0 0 0 0 0 0 0 0 0 0 0 0 0 0 0 0 1:-1 2:0.27027027 3:0.24369748 4:-0.76106195 5:-0.40322295 6:-0.49966375 7:-0.44832126 8:-0.5346288 
0 0 1 0.77476848427168499 0 0 0 0 0 0 0 0 0 0 0 0 0 0 0 0 0 0 0 0 0 1:-1 2:0.5 3:0.44537815 4:-0.7079646 5:-0.12803258 6:-0.11835911 7:-0.39170507 8:-0.39810663 
0 1 1 1 0 0 0 0.67627312537519124 1 0 0 1 1 1 1 1 1 1 0.82582104863921113 0 0.055168969867036788 0 0 0 0 2:0.51351351 3:0.54621849 4:-0.66371681 5:-0.029927395 6:-0.3201076 7:-0.19815668 8:-0.10612855 
0 0.81578570231788861 1 1 0 0 0 0 0 0 0 0 0 0 0 0 0 0 0 0 0 0 0 0 0 2:0.60810811 3:0.66386555 4:-0.72566372 5:0.10784487 6:0.15265636 7:-0.10862409 8:-0.29745889 
1 1 1 1 0 0 1 0 0 1 0 0 0 0 0.059282464301634877 0 0.080343335047909692 0 0 0 0 0 0 0 0 1:-1 2:0.013513514 3:-0.058823529 4:-0.77876106 5:-0.75420577 6:-0.84129119 7:-0.7235023 8:-0.77379173 
0 1 1 1 0 0 0 0.40080409590819788 1 0 0 0.17929973112787456 1 0 1 1 1 0.21737542746886929 0 0 0.49804600295549739 0 0 0 0.33968702349253332 2:0.77027027 3:0.68067227 4:-0.68141593 5:0.19532495 6:-0.1197041 7:-0.48387097 8:-0.019431988 
1 0 1 0 1 0 1 0 1 1 0 0 0 0 1 0 0 0 0 0 0 0 0 0 0 1:1 2:0.18918919 3:0.075630252 4:-0.75221239 5:-0.54064105 6:-0.66577001 7:-0.63001975 8:-0.56153463 
0 1 0 1 0 0 0 0 0 0 0 0 0 0 0 0 0 0 0 0 0 0 0 0 0 1:-1 2:0.63513514 3:0.6302521 4:-0.72566372 5:0.085177971 6:-0.098856759 7:-0.0032916392 8:-0.23766816 
0 1 1 1 0 0 0 0 1 0 0 0.011084691538959635 1 1 1 1 0.085428664809739124 0.49217395763388461 0 0 0 0 0 0 0 1:-1 2:0.52702703 3:0.57983193 4:-0.68141593 5:-0.071011156 6:-0.3470074 7:-0.21263989 8:-0.19083209 
1 0 1 1 0 0 0 0 1 0 0 0 0 1 1 0 0 0 0 0 0 0 0 0 0 2:0.31081081 3:0.32773109 4:-0.71681416 5:-0.27642996 6:-0.42434432 7:-0.2955892 8:-0.40508221 
1 0 1 1 0 0 0 0 0 0 0 0 0 0 0 0 0 0 0 0 0 0 0 0 0 1:-1 2:0.45945946 3:0.34453782 4:-0.73451327 5:-0.34018063 6:-0.48755884 7:-0.35088874 8:-0.48181365 
0 0.57553063315533826 1 1 0 0 0 0 0 0 0 0 0 0 0 0 0 0 0 0 0 0 0 0 0 1:-1 2:0.47297297 3:0.41176471 4:-0.65486726 5:-0.039135824 6:-0.20309348 7:-0.11520737 8:-0.25660189 
0 1 1 1 0 0 0 0 1 0 0 0 1 1 1 1 1 1 0 0 0 0 0 0 0 2:0.52702703 3:0.54621849 4:-0.7079646 5:-0.072427838 6:-0.33624748 7:-0.3285056 8:-0.18584953 
1 0 1 0 0 0 1 0 0 1 0 0 0 0 0 0 0 0 0 0 0 0 0 0 0 2:0.054054054 3:0.025210084 4:-0.78761062 5:-0.66389233 6:-0.74310693 7:-0.70506912 8:-0.68410563 
1 0 1 1 0 0 1 0 1 1 0 0 0 0 1 0 0.020139319669006291 0 0 0 0 0 0 0 0 1:1 2:0.18918919 3:0.22689076 4:-0.73451327 5:-0.52505755 6:-0.65770007 7:-0.64976959 8:-0.5346288 
0.71830348928743715 1 1 0 0 0 0 0 1 0 0 0 0 0.94696190329406749 1 0.85556285094741058 0 0.043137583962816299 0 0 0 0 0 0 0 1:-1 2:0.2972973 3:0.17647059 4:-0.66371681 5:-0.0054896405 6:-0.17888366 7:-0.10072416 8:-0.22770304 
0 1 1 1 0 0 0 0 0 0 0 0 0 0 0 0 0 0 0 0 0 0 0 0 0 1:-1 2:0.64864865 3:0.56302521 4:-0.7079646 5:0.07455286 6:-0.061197041 7:-0.030941409 8:-0.20577977 
0 1 1 1 0 0 0 0 1 0 0 0 0 0 1 0 0 0 0 0 0 0 0 0 0 2:0.56756757 3:0.57983193 4:-0.66371681 5:-0.038427484 6:-0.24277068 7:-0.15470704 8:-0.20876931 
1 1 1 0 0 0 0 0 1 0 0 0 0 0.94880279513081134 1 1 0 0 0 0 0 0 0 0 0 1:-1 2:0.33783784 3:0.32773109 4:-0.72566372 5:-0.15601204 6:-0.31136516 7:-0.44832126 8:-0.31938216 
1 1 1 1 0 0 0 0 1 0 0 0 0 0 1 0 0 0 0 0 0 0 0 0 0 2:0.48648649 3:0.41176471 4:-0.69026549 5:-0.19142908 6:-0.36180229 7:-0.34957209 8:-0.30742402 
0 0 1 1 0 0 0 0 1 0 0 0.32028792815859553 0 0.79816207469980649 0.93872811927518518 0 0 0 0 0 0.16735203912961691 0 0 0 0 1:-1 2:0.55405405 3:0.44537815 4:-0.71681416 5:0.23074199 6:-0.23268325 7:-0.26793943 8:-0.39013453 
1 0 1 1 0 0 0 0 0 1 0 0 0 0 0 0 0.58023559760799615 0 0 0 0 0 0 0 0 1:1 2:0.37837838 3:0.41176471 4:-0.71681416 5:-0.25730476 6:-0.35574983 7:-0.38512179 8:-0.43497758 
0 1 1 1 0 0 0 0 1 0 0 0 0 0.92983014617282755 0 1 0 0 0 0 0 0 0 0 0 1:-1 2:0.47297297 3:0.52941176 4:-0.69026549 5:-0.093678059 6:-0.23268325 7:-0.37327189 8:-0.22571001 
1 0 1 0 0 0 0 0 0 1 0 0 0 0 0 0 0 0 0 0 0 0 0 0 0 1:-1 2:0.067567568 3:0.042016807 4:-0.76106195 5:-0.63166283 6:-0.67921991 7:-0.59973667 8:-0.714001 
0 0 1 1 0 0 0 0 0 0 0 0 0 0 0 0 0 0 0 0 0 0 0 0 0 2:0.51351351 3:0.49579832 4:-0.73451327 5:-0.026739862 6:-0.12777404 7:-0.050691244 8:-0.38515197 
0 0 1 1 0 0 0 0 0 0 0 0 0 0 0 0 0 0 0 0 0 0 0 0 0 1:-1 2:0.52702703 3:0.51260504 4:-0.72566372 5:-0.007968833 6:-0.053127102 7:-0.30217248 8:-0.33532636 
0 1 1 1 0 0 0 0 1 0 0 0.86198436444564075 1 1 1 1 1 1 0 0 0 0 0.48624288665745097 0 0 2:0.27027027 3:0.21008403 4:-0.6460177 5:-0.039489995 6:-0.23873571 7:-0.16392363 8:-0.1998007 
0 1 1 1 0 0 0 0 0.073027280289660407 0 0 0 0 0 0 0 0 0 0 0 0 0 0 0 0 2:0.54054054 3:0.52941176 4:-0.66371681 5:-0.035948291 6:-0.23066577 7:-0.048057933 8:-0.28550075 
1 0 1 0.18293276285291407 1 0.050302246288510065 1 0 0 1 0 0 0 0 0 0 0 0 0 0 0 0 0 0 0 2:-0.17567568 3:-0.092436975 4:-0.80530973 5:-0.78147689 6:-0.8399462 7:-0.80645161 8:-0.79372197 
1 0 1 0 0 0 1 0 0.41511687317286511 1 0 0 0 0 0 0 0 0 0 0 0 0 0 0 0 1:1 2:0.35135135 3:0.27731092 4:-0.7699115 5:-0.43120241 6:-0.57700067 7:-0.43383805 8:-0.51469856 
1 0 1 1 0 0 0 0.14357848691542149 0.62007046202507565 1 0 0 0.06618937194574176 0.30444279988916195 1 0 0 0 0 0 0 0 0 0 0 1:1 2:0.37837838 3:0.36134454 4:-0.74336283 5:-0.40180627 6:-0.54539341 7:-0.56155365 8:-0.41504733 
1 0.60119492803062113 1 1 0 0 0 0 0 0 0 0 0 0 0 0 0 0 0 0 0 0 0 0 0 2:0.41891892 3:0.34453782 4:-0.74336283 5:-0.37134762 6:-0.43779422 7:-0.54970375 8:-0.46686597 
1 1 1 1 0 0 0 0 0 0 0 0 0.5895635017413049 0 0.092120960133396351 0 0 0 0.48592958056211721 0 0 0 0 0 0 2:0.60810811 3:0.51260504 4:-0.69026549 5:-0.28280503 6:-0.4129119 7:-0.28768927 8:-0.25660189 
1 0 1 1 0 0 0 0 0 1 0 0 0 0 0 0 0 0 0 0 0 0 0 0 0 1:1 2:0.35135135 3:0.32773109 4:-0.76106195 5:-0.38409775 6:-0.39609953 7:-0.57472021 8:-0.55455904 
1 0 1 1 0 0 0 0 0 0 0 0 0 0 0 0 0 0 0 0 0 0 0 0 0 1:-1 2:0.44594595 3:0.41176471 4:-0.72566372 5:-0.30511776 6:-0.38735709 7:-0.40092166 8:-0.47284504 
1 1 1 1 0 0 0 0 1 0 0 0.98268211361336744 1 1 1 1 1 0 0 0 0.56460669673079911 0 0 0 0 2:0.36486486 3:0.36134454 4:-0.67256637 5:-0.28103418 6:-0.52858104 7:-0.47465438 8:-0.36522172 
1 0 1 0 0 0 0 0 0 0 0 0 0 0 0 0 0 0 0 0 0 0 0 0 0 1:-1 2:0.44594595 3:0.32773109 4:-0.73451327 5:-0.38445192 6:-0.4539341 7:-0.51810402 8:-0.50473343 
1 0 1 1 0 0 0 0 0 0 0 0 0 0 0 0 0 0 0 0 0 0 0 0 0 2:0.44594595 3:0.37815126 4:-0.71681416 5:-0.24172127 6:-0.35104237 7:-0.33903884 8:-0.4449427 
1 1 1 1 0 0 0 0 1 1 0 0 0 0.026665158117911508 1 0 0 0 0 0 0 0 0 0 0 1:-1 2:0.10810811 3:0.058823529 4:-0.75221239 5:-0.59589162 6:-0.72696705 7:-0.62870309 8:-0.65421026 
1 1 1 0 0 0 1 0 0 1 0 0 0 0 0 0 0 0 0 0 0 0 0 0 0 2:0.12162162 3:0.092436975 4:-0.77876106 5:-0.61253763 6:-0.67182246 7:-0.71823568 8:-0.65620329 
0 0 1 1 0 0 0 0 0 0 0 0 0 0 0 0 0 0 0 0 0 0 0 0 0 2:0.45945946 3:0.56302521 4:-0.73451327 5:-0.049760935 6:-0.15534633 7:-0.31533904 8:-0.31539611 
1 1 1 0 0 0 0 0 1 1 0 0 0 0 0.40651568143136402 0 0 0 0 0 0 0 0 0 0 2:0.12162162 3:0.058823529 4:-0.75221239 5:-0.58703736 6:-0.67451244 7:-0.69848585 8:-0.61434978 
0 1 1 1 0 0 0 0 1 0 0 0 0 1 1 0.14992430684834365 0 0 0 0 0 0 0 0 0 1:-1 2:0.45945946 3:0.39495798 4:-0.7079646 5:-0.20240836 6:-0.40080699 7:-0.42330481 8:-0.32536124 
1 0.0074821883572256144 1 1 1 1 1 0 0 1 0 0 0 0 0 0 0 0 0 0 0 0 0 0 0 2:-0.16216216 3:-0.12605042 4:-0.80530973 5:-0.79883124 6:-0.83658373 7:-0.83410138 8:-0.836572 
1 0 1 1 0 0 0 0 0 0 0 0 0 0 0 0 0 0 0 0 0 0 0 0 0 2:0.39189189 3:0.34453782 4:-0.73451327 5:-0.31007615 6:-0.37592468 7:-0.46017117 8:-0.45191829 
0 1 1 1 0 0 0 0 0 0 0 0 0 0 0 0 0 0 0 0 0 0 0 0 0 2:0.52702703 3:0.51260504 4:-0.7079646 5:-0.13476182 6:-0.29993275 7:-0.29163924 8:-0.28550075 
1 0.85455936371949004 1 1 0 0 0 0 0 1 0 0 0 0 0 0 0 0 0 0 0 0 0 0 0 1:-1 2:0.040540541 3:0.092436975 4:-0.76106195 5:-0.65999646 6:-0.72293208 7:-0.67873601 8:-0.714001 
1 0 1 1 0 0 0 0 0 0 0 0 0 0 0 0 0 0 0 0 0 0 0 0 0 2:0.48648649 3:0.46218487 4:-0.72566372 5:-0.059323535 6:-0.10356422 7:-0.31928901 8:-0.34529148 
1 1 1 1 0 0 1 0 0 1 0 0 0 0 1 0 0.038379477407104901 0 0 0 0 0 0 0 0 1:1 2:0.27027027 3:0.2605042 4:-0.73451327 5:-0.48539047 6:-0.59515804 7:-0.65503621 8:-0.49576482 
0 1 0 1 0 0 0 0 0 0 0 0 0 0 0 0 0 0 0 0 0 0 0 0 0 2:0.74324324 3:0.66386555 4:-0.6460177 5:0.41278555 6:0.2138534 7:0.23370639 8:0.036372696 
0 0 1 1 0 0 0 0 0 0 0 0 0 0 0 0 0 0 0 0 0 0 0 0 0 1:-1 2:0.43243243 3:0.39495798 4:-0.68141593 5:-0.21126262 6:-0.35709482 7:-0.32587228 8:-0.3632287 
1 0 1 1 0 0 0 0 1 0 0 0 0 1 1 1 0 0 0 0 0 0 0 0 0 2:0.33783784 3:0.37815126 4:-0.71681416 5:-0.36851426 6:-0.57834566 7:-0.32323897 8:-0.47882412 
1 1 1 0 0 0 0 0 0 0 0 0 0 0 0 0 0 0 0 0 0 0 0 0 0 2:0.33783784 3:0.27731092 4:-0.73451327 5:-0.41384806 6:-0.4801614 7:-0.59052008 8:-0.51469856 
1 1 1 0 0 0 0 0 1 1 0 0.33217611311678091 0 0 0 0 0 0 0 0 0 0 0 0 0 2:0.25675676 3:0.1092437 4:-0.75221239 5:-0.45918187 6:-0.56220578 7:-0.69585253 8:-0.53163926 
1 1 1 1 1 1 1 0 0 1 0 0 0 0 0 0 0 0 0.22605032716253415 0 0.049324378626230285 0 0 0 0 2:-0.13513514 3:-0.19327731 4:-0.83185841 5:-0.84239419 6:-0.89643578 7:-0.85911784 8:-0.84354758 
1 1 1 0 0 0 0 0 0 1 0 0 0 0.98730613705046921 0.064334218822734629 0.40584041639509683 0 0 0 0 0 0 0 0 0 2:0.24324324 3:0.17647059 4:-0.74336283 5:-0.51655746 6:-0.63483524 7:-0.55102041 8:-0.59441953 
0 1 0 1 0 0 0 0 0 0 0 0 0 0 0 0 0 0 0 0 0 0 0 0 0 1:-1 2:0.74324324 3:0.73109244 4:-0.6460177 5:0.29307597 6:0.23470074 7:-0.037524687 8:-0.036372696 
1 0 1 1 0 0 0 0 0 0 0 0 0 0 0 0 0 0 0 0 0 0 0 0 0 2:0.45945946 3:0.36134454 4:-0.73451327 5:-0.27430494 6:-0.33759247 7:-0.47202107 8:-0.45590433 
1 0 1 1 0 0 0 0 0 0 0 0 0 0 0 0 0 0 0 0 0 0 0 0 0 2:0.51351351 3:0.41176471 4:-0.73451327 5:-0.16238711 6:-0.28446537 7:-0.19289006 8:-0.42301943 
0 1 1 1 0 0 0 0 1 0 0 0 1 0 1 1 0.74315536847599595 0 0 0 0 0 0 0 0 2:0.36486486 3:0.2605042 4:-0.69911504 5:0.046927572 6:-0.12239408 7:-0.14812377 8:-0.17488789 
0 1 1 1 0 0 0 0 0.074865833017155908 0 0 0 0 0 0 0 0 0 0 0 0 0 0 0 0 1:-1 2:0.51351351 3:0.46218487 4:-0.71681416 5:-0.22153356 6:-0.28312038 7:-0.51020408 8:-0.3143996 
1 1 1 1 0 0 0 0 1 0 0 0 0 1 1 0 0 0 0 0 0 0 0 0 0 1:-1 2:0.41891892 3:0.41176471 4:-0.73451327 5:-0.30015938 6:-0.48217888 7:-0.42330481 8:-0.38415546 
0 1 1 1 0 0 0 1 1 0 0 0.94442693795143129 1 1 1 1 1 1 0 0 0 0 0.35554963641504633 0 0 2:0.55405405 3:0.64705882 4:-0.69026549 5:0.078448734 6:-0.20780094 7:-0.14285714 8:-0.016442451 
0 0 1 1 0 0 0 0 0 0 0 0 0 0 0 0 0 0 0 0 0 0 0 0 0 1:-1 2:0.5 3:0.49579832 4:-0.69026549 5:-0.10571985 6:-0.24344317 7:-0.19420671 8:-0.32037867 
1 1 1 1 0 0 0 0 0 0 0 0 0 0.81833313722202061 0 0 0 0 0 0.11360313264571228 0 0 0 0 0 1:-1 2:0.35135135 3:0.31092437 4:-0.75221239 5:-0.47936958 6:-0.56422327 7:-0.63133641 8:-0.53064275 
1 0 1 0 0 0 0 0 0 0 0 0 0 0 0 0 0 0 0 0 0 0 0 0 0 1:-1 2:0.36486486 3:0.29411765 4:-0.73451327 5:-0.26013813 6:-0.30464022 7:-0.42593812 8:-0.44593921 
0 0 1 1 0 0 0 0 0 0 0 0.078100211381189527 0 0 0 0 0 0 0 0 0 0 0 0 0 1:-1 2:0.60810811 3:0.52941176 4:-0.69026549 5:0.079865415 6:-0.12575656 7:0.17709019 8:-0.31539611 
1 0 1 1 0 0 0 0 0 0 0 0 0 0 0 0 0 0 0 0 0 0 0 0 0 2:0.31081081 3:0.31092437 4:-0.72566372 5:-0.13440765 6:-0.2528581 7:-0.15207373 8:-0.46586946 
0 1 1 1 0 0 0 0 0 0 0 0 0 0 0 0 0 0 0 0 0 0 0 0 0 2:0.55405405 3:0.52941176 4:-0.69911504 5:0.10855321 6:-0.026899798 7:-0.082290981 8:-0.22371699 
1 0 1 0 0 0 0 0 0 1 0 0 0 0 0 0 0 0 0 0 0 0 0 0 0 2:0.17567568 3:0.15966387 4:-0.78761062 5:-0.50522401 6:-0.53463349 7:-0.71033575 8:-0.61434978 
1 1 1 1 0 0 0 0 0 1 0 0 0 0 0 0 0 0 0 0 0 0 0 0 0 1:-1 2:0.081081081 3:0.075630252 4:-0.7699115 5:-0.63485036 6:-0.72225958 7:-0.69453588 8:-0.66417539 
1 0 1 1 0 0 0 0 0 0.24120756129927767 0 0 0 0 0 0 0 0 0 0 0 0 0 0 0 1:1 2:0.5 3:0.41176471 4:-0.74336283 5:-0.25022136 6:-0.3066577 7:-0.42330481 8:-0.4449427 
0 0 1 1 0 0 0 0 0 0 0 0 0 0 0 0 0 0 0 0 0 0 0 0 0 2:0.55405405 3:0.61344538 4:-0.69026549 5:-0.088011333 6:-0.18157364 7:-0.27320606 8:-0.31738914 
0 1 1 1 0 0 0 0 0 0 0 0 0 0 0 0 0 0 0 0 0 0 0 0 0 1:-1 2:0.52702703 3:0.54621849 4:-0.68141593 5:-0.11811581 6:-0.26496301 7:-0.23107307 8:-0.26856004 
0 1 0 1 0 0 0 0.30537299905861059 1 0 0 0.45016549591670257 1 0.68560000725083559 1 1 0.80973422268208095 0.77399311515962932 0.017024129582099486 0 0.11348943396384303 0 0.66598980149263087 0 0 1:-1 2:0.83783784 3:0.76470588 4:-0.63716814 5:0.41986896 6:0.11432414 7:0.055957867 8:0.18285999 
1 0 1 0.88454910478615656 1 1 1 0 0 1 0.30597417525784026 0 0 0 0 0 0 0 0 0 0 0 0 0 0 1:-1 2:-0.31081081 3:-0.34453782 4:-0.84070796 5:-0.86187356 6:-0.88702085 7:-0.89335089 8:-0.88241156 
1 0 1 1 0 0 0 0 0 0 0 0 0 0 0 0 0 0 0 0 0 0 0 0 0 2:0.47297297 3:0.49579832 4:-0.69911504 5:-0.18824154 6:-0.26496301 7:-0.42198815 8:-0.34230194 
1 1 1 0 0 0 1 0 0.2953936299719423 1 0 0 0 0.7409303323901989 0.40799767721602431 0 1 0 0 0 0 0 0 0 0 1:1 2:0.2027027 3:0.24369748 4:-0.69911504 5:-0.51939083 6:-0.62474781 7:-0.54312047 8:-0.61434978 
1 1 1 1 0 0 0 0 0 1 0 0 0 0 1 0 0 0 0 0 0 0 0 0 0 1:-1 2:0.22972973 3:0.27731092 4:-0.72566372 5:-0.50628652 6:-0.6139879 7:-0.58130349 8:-0.59441953 
1 0 1 1 0 0 0 0 0 0 0 0 0 0 0 0 0 0 0 0 0 0 0 0 0 2:0.5 3:0.49579832 4:-0.69026549 5:-0.21480432 6:-0.3732347 7:-0.2955892 8:-0.3472845 
1 0 1 1 0 0 0 0 0 1 0 0 0 0.20342717205445587 0 0 0 0 0 0 0 0 0 0 0 1:1 2:0.31081081 3:0.24369748 4:-0.75221239 5:-0.35151408 6:-0.46267653 7:-0.48123766 8:-0.48480319 
1 1 1 1 0 0 0 0 1 1 0 0.023645851042305918 0 1 1 0 0 0 0 0 0 0 0 0 0 1:-1 2:0.22972973 3:0.24369748 4:-0.7699115 5:-0.47334868 6:-0.59852051 7:-0.64450296 8:-0.51469856 
1 1 1 1 0 0 1 0 1 1 0 0 0 1 1 1 0 0 0 0 0 0 0 0 0 2:0.10810811 3:0.075630252 4:-0.76106195 5:-0.60757925 6:-0.74243443 7:-0.65503621 8:-0.66716492 
1 0 1 0 0 0 0 0 0 1 0 0 0 0 0 0 0 0 0 0 0 0 0 0 0 2:0.25675676 3:0.22689076 4:-0.74336283 5:-0.3883478 6:-0.42098184 7:-0.5720869 8:-0.56950673 
1 0 1 0 0 0 0 0 0 0 0 0 0 0 0 0 0 0 0 0 0 0 0 0 0 1:-1 2:0.33783784 3:0.27731092 4:-0.74336283 5:-0.36001417 6:-0.47343645 7:-0.38117182 8:-0.45490782 
0 0 1 1 0 0 0 0 0 0 0 0 0 0 0 0 0 0 0 0 0 0 0 0 0 2:0.47297297 3:0.49579832 4:-0.73451327 5:-0.085532141 6:-0.199731 7:-0.17577354 8:-0.29745889 
0 1 1 1 0 0 0 0 0 0 0 0 0 0 0 0 0 0 0 0 0 0 0 0 0 2:0.56756757 3:0.57983193 4:-0.69026549 5:-0.046573402 6:-0.2138534 7:-0.31533904 8:-0.21773792 
1 0.23553974039003178 1 1 0 0 1 0 0 1 0 0 0 0 0 0 0.44593878265640668 0 0 0 0 0 0 0 0 1:-1 2:-0.2027027 3:-0.21008403 4:-0.84070796 5:-0.83070657 6:-0.8533961 7:-0.88281764 8:-0.86547085 
0 1 1 1 0 0 0 0 1 0 0 0.26751328672436581 1 1 1 1 1 1 0.70150191429866626 0 0 0 0 0 0 2:0.52702703 3:0.49579832 4:-0.69026549 5:-0.013989729 6:-0.33759247 7:-0.23502304 8:-0.20577977 
1 1 1 1 0 0 0 0 1 0 0 0 0 0.73761018789047217 0.34975794064320015 0 0 0 0 0 0 0 0 0 0 1:-1 2:0.24324324 3:0.2605042 4:-0.72566372 5:-0.44572339 6:-0.5595158 7:-0.55628703 8:-0.51469856 
0 1 0.34587305691306947 1 0 0 0 0 0 0 0 0 0 0 0 0 0 0 0 0 0 0 0 0 0 1:-1 2:0.64864865 3:0.52941176 4:-0.7079646 5:0.092969718 6:-0.07868191 7:-0.0072416063 8:-0.19481814 
1 0 1 0 1 0 1 0 0 1 0 0 0 0 0 0 0 0 0 0 0 0 0 0 0 2:-0.094594595 3:-0.092436975 4:-0.81415929 5:-0.74393483 6:-0.78749159 7:-0.79855168 8:-0.76382661 
1 0.98115501781636427 1 1 0 0 0 0 1 1 0 0 0 0.43476061948397887 1 0 0 0 0 0 0 0 0 0 0 2:0.24324324 3:0.27731092 4:-0.71681416 5:-0.42730653 6:-0.57700067 7:-0.52863726 8:-0.52466368 
1 0 1 0 0 0 0 0 0 1 0 0 0 0 0 0 0 0 0 0 0 0 0 0 0 2:0.094594595 3:0.17647059 4:-0.7699115 5:-0.54984948 6:-0.62878278 7:-0.62080316 8:-0.58445441 
1 0 1 0.23040552778627515 0 0 0 0 0 0 0 0 0 0 0 0 0 0 0 0 0 0 0 0 0 1:-1 2:0.39189189 3:0.37815126 4:-0.7079646 5:-0.21161679 6:-0.3066577 7:-0.28242265 8:-0.45490782 
1 0 1 1 0 0 0 0 0 0 0 0 0 0 0 0 0 0 0 0 0 0 0 0 0 1:-1 2:0.44594595 3:0.41176471 4:-0.69911504 5:-0.27430494 6:-0.41627438 7:-0.38643845 8:-0.39810663 
0 1 1 1 0 0 0 0 0 0 0 0 0 0 0 0 0 0 0 0 0 0 0 0 0 1:-1 2:0.5 3:0.52941176 4:-0.69026549 5:-0.051177616 6:-0.11701412 7:-0.31138907 8:-0.25560538 
1 0 1 0 0 0 0 0 0 0 0 0 0 0 0 0 0 0 0 0 0 0 0 0 0 2:0.36486486 3:0.27731092 4:-0.72566372 5:-0.37913937 6:-0.42972428 7:-0.55760369 8:-0.51968112 
1 0 1 0 0 0 0 0 0 0 0 0 0 0 0 0 0 0 0 0.053333699931127215 0 0 0 0 0 1:-1 2:0.36486486 3:0.36134454 4:-0.73451327 5:-0.25836727 6:-0.30127774 7:-0.4917709 8:-0.39511709 
-1 1 1 1 0 0 0 0 0 0 0 0 0 0 0 0 0 0 0 0 0 0 0 0 0 2:0.33783784 3:0.24369748 4:-0.7699115 5:-0.44749424 6:-0.50437122 7:-0.54180382 8:-0.61136024 
-1 0 1 0 0 0 1 0 0 1 0 0 0 0 0 0 0 0 0 0 0 0 0 0 0 2:-0.12162162 3:-0.1092437 4:-0.80530973 5:-0.75137241 6:-0.81237391 7:-0.74193548 8:-0.8036871 
-1 1 1 1 0 0 0 0 1 1 0 0 1 1 1 1 0 0 0 0 0 0 0 0 0 2:0.12162162 3:0.0084033613 4:-0.71681416 5:-0.37843103 6:-0.53261601 7:-0.43515471 8:-0.43996014 
-0 0 1 0 0 0 1 0 0 1 0 0 0 0 0 0 0 0 0 0 0 0 0 0 0 1:1 2:0.027027027 3:-0.042016807 4:-0.79646018 5:-0.6571631 6:-0.65030262 7:-0.82883476 8:-0.74090683 
-0 0 1 0 0 0 1 0 0 1 0 0 0 0 0 0 0 0 0 0 0 0 0 0 0 1:1 3:-0.075630252 4:-0.80530973 5:-0.74783071 6:-0.79623403 7:-0.82488479 8:-0.76681614 
-1 0 1 0.47860455454921247 0 0 0 0 0 1 0 0 0 0 0 0 0 0 0 0 0 0 0 0 0 1:1 2:0.27027027 3:0.17647059 4:-0.76106195 5:-0.58030813 6:-0.63819771 7:-0.68926926 8:-0.63428002 
-0 0 1 0 0 0 1 0 0 1 0 0 0 0 0 0 0 0 0 0 0 0 0 0 0 1:1 2:0.040540541 3:-0.058823529 4:-0.80530973 5:-0.68691341 6:-0.69872226 7:-0.80513496 8:-0.78375685 
-1 1 1 1 0 0 0 0 1 1 0 0.2943998632357635 1 1 1 0.94640618132781285 1 0 0 0 0.31125866850918299 0 0 0 0 1:-1 2:0.094594595 3:0.0084033613 4:-0.71681416 5:-0.67274659 6:-0.70410222 7:-0.72218565 8:-0.5266567 
-1 1 1 1 0 0 0 0 1 0 0 0 0 0 1 0 0 0 0 0 0 0 0 0 0 1:-1 2:0.5 3:0.39495798 4:-0.72566372 5:-0.19922083 6:-0.20914593 7:-0.44568795 8:-0.43099153 
-1 1 1 1 0 0 0 1 1 0 0 0 1 1 1 1 1 1 0 0 0 0 0 0 0 1:-1 2:0.5 3:0.42857143 4:-0.73451327 5:-0.16663715 6:-0.30396772 7:-0.34825543 8:-0.35824614 
-0 0 0 0 1 0 1 0 0 1 0 0 0 0 0 0 0 0 0 0 0 0 0 0 0 1:1 2:-0.094594595 3:-0.17647059 4:-0.84070796 5:-0.78608111 6:-0.82784129 7:-0.81435155 8:-0.81265571 
-1 1 1 1 0 0 0 0 1 0 0 0 0 1 0.67600116646092223 0 0 0 0 0 0 0 0 0 0 1:-1 2:0.33783784 3:0.29411765 4:-0.83185841 5:-0.41561891 6:-0.54472091 7:-0.41803818 8:-0.5346288 
-1 1 1 1 0 0 0 0 0 0 0 0 0 0 0 0 0 0 0 0 0 0 0 0 0 1:-1 2:0.5 3:0.37815126 4:-0.73451327 5:-0.27395077 6:-0.27908541 7:-0.50625411 8:-0.65221724 
-1 1 1 1 0 0 0 0 0 1 0 0 0 0 0 0 0 0 0 0 0 0 0 0 0 2:0.16216216 3:0.12605042 4:-0.79646018 5:-0.53391181 6:-0.59179556 7:-0.59183673 8:-0.65421026 
-1 1 1 1 0 0 0 0 0 0 0 0 0 0 0 0 0 0 0 0 0 0 0 0 0 1:-1 2:0.22972973 3:0.19327731 4:-0.75221239 5:-0.46697361 6:-0.53127102 7:-0.54970375 8:-0.5834579 
-0 0 0 0 1 1 1 0 1 1 0.6540695357232541 0 0 0 0 0 0 0 0 0 0 0 0 0 0 1:1 2:-0.33783784 3:-0.32773109 4:-0.84955752 5:-0.87781123 6:-0.90450572 7:-0.91441738 8:-0.88938714 
-1 0 1 0 0.87916074283777568 0 1 0 0 1 0 0 0 0 0 0 0 0 0 0 0 0 0 0 0 1:-1 2:-0.14864865 3:-0.22689076 4:-0.83185841 5:-0.80945635 6:-0.8533961 7:-0.84331797 8:-0.84354758 
-1 1 1 1 0 0 0 0 0 0 0 0 0 0 0 0 0 0 0 0 0 0 0 0 0 2:0.24324324 3:0.15966387 4:-0.76106195 5:-0.41951479 6:-0.47209146 7:-0.48518762 8:-0.59441953 
-0 0 1 0 0 0 1 0 0 1 0 0 0 0 0 0 0 0 0 0 0 0 0 0 0 1:1 2:0.040540541 3:-0.0084033613 4:-0.82300885 5:-0.66778821 6:-0.66240753 7:-0.79855168 8:-0.75784753 
-0 0 0 0 1 1 1 0 1 1 1 0 0 0 0 0 0 0 0 0 0 0 0 0 0 1:1 2:-0.35135135 3:-0.36134454 4:-0.84955752 5:-0.89976979 6:-0.93006052 7:-0.87623436 8:-0.90333832 
-1 0 1 0 0 0 0 0 0 1 0 0 0 0 0 0 0 0 0 0 0 0 0 0 0 1:1 2:0.17567568 3:0.14285714 4:-0.72566372 5:-0.61926687 6:-0.66980498 7:-0.71560237 8:-0.67015446 
-1 0 1 1 0 0 0 0 0 0 0 0 0 0 0 0 0 0 0 0 0 0 0 0 0 1:1 2:0.31081081 3:0.29411765 4:-0.7699115 5:-0.48893218 6:-0.53194351 7:-0.60895326 8:-0.60438465 
-1 1 1 1 0 0 0 1 1 0 0 1 1 1 1 1 1 0 0 0.81927627317797724 0.10090644536922387 0 0 0 0 1:-1 2:0.36486486 3:0.37815126 4:-0.73451327 5:-0.35930583 6:-0.50235373 7:-0.48387097 8:-0.42501246 
-1 1 1 1 0 0 0 0 1 0 0 0 1 1 1 1 0 0 0 0 0 0 0 0 0 2:0.44594595 3:0.4789916 4:-0.67256637 5:-0.18469984 6:-0.2804304 7:-0.2363397 8:-0.51469856 
-0 0 1 0 0 0 1 0 0 1 0 0 0 0 0 0 0 0 0 0 0 0 0 0 0 1:1 2:0.081081081 3:0.0084033613 4:-0.81415929 5:-0.66991323 6:-0.73100202 7:-0.70770244 8:-0.76382661 
-1 1 1 1 0 0 0 0 1 0 0 1 1 1 1 1 1 0 0 0 0 0 0 0 0 2:0.41891892 3:0.36134454 4:-0.72566372 5:-0.311847 6:-0.4270343 7:-0.46280448 8:-0.40508221 
-1 1 1 1 0 0 0 0 1 0 0 0 0 0 0 0 0 0 0 0 0 0 0 0 0 1:-1 2:0.44594595 3:0.44537815 4:-0.71681416 5:-0.28280503 6:-0.28648285 7:-0.44305464 8:-0.52167414 
-0 0 0 0 1 0 1 0 0 1 0 0 0 0 0 0 0 0 0 0 0 0 0 0 0 1:1 2:-0.054054054 3:-0.092436975 4:-0.80530973 5:-0.77687268 6:-0.81977135 7:-0.87491771 8:-0.82361734 
-1 0 1 1 0 0 0 0 0 1 0 0 0 0 0 0 0 0 0 0 0 0 0 0 0 1:1 2:0.21621622 3:0.1092437 4:-0.7699115 5:-0.57145387 6:-0.68459987 7:-0.67215273 8:-0.61434978 
-0 0 1 0 0 0 0 0 0 1 0 0 0 0 0 0 0 0 0 0 0 0 0 0 0 1:1 2:0.17567568 3:0.092436975 4:-0.79646018 5:-0.63626704 6:-0.71217216 7:-0.70243581 8:-0.67214748 
-1 1 1 1 0 0 0 0 1 0 0 0 0 0.041630928963338115 1 0 0 0 0 0 0 0 0 0 0 1:1 2:0.27027027 3:0.22689076 4:-0.7079646 5:-0.36851426 6:-0.43174176 7:-0.42330481 8:-0.54857997 
-1 1 1 1 0 0 0 0 1 0 0 0 1 1 1 1 0.44161403287071116 0 0 0 0 0 0 0 0 1:-1 2:0.55405405 3:0.49579832 4:-0.75221239 5:-0.12449088 6:-0.17215871 7:-0.38117182 8:-0.36522172 
-0 0 1 0 0 0 0 0 0 1 0 0 0 0 0 0 0 0 0 0 0 0 0 0 0 1:1 2:0.14864865 3:0.092436975 4:-0.77876106 5:-0.63378785 6:-0.667115 7:-0.70243581 8:-0.73592427 
-0 0 1 0 0 0 1 0 0 1 0 0 0 0 0 0 0 0 0 0 0 0 0 0 0 1:1 2:0.067567568 3:0.0084033613 4:-0.68141593 5:-0.66141314 6:-0.72494956 7:-0.72481896 8:-0.70303936 
-1 1 1 1 0 0 0 0 0 0 0 0 0 0 0 0 0 0 0 0 0 0 0 0 0 1:-1 2:0.31081081 3:0.21008403 4:-0.74336283 5:-0.39791039 6:-0.42299933 7:-0.50493746 8:-0.59441953 
-1 1 1 1 0 0 0 0 1 0 0 0 1 0 1 1 0 0 0 0 0 0 0 0 0 2:0.33783784 3:0.34453782 4:-0.73451327 5:-0.21728351 6:-0.27505044 7:-0.32982225 8:-0.46487294 
-1 1 1 1 0 0 0 0 0 0 0 0 0 0 0 0 0 0 0 0 0 0 0 0 0 2:0.33783784 3:0.32773109 4:-0.76106195 5:-0.44855676 6:-0.55144586 7:-0.51415405 8:-0.58445441 
-1 0 1 0 0 0 1 0 0 1 0 0 0 0 0 0 0 0 0 0 0 0 0 0 0 2:-0.054054054 3:-0.075630252 4:-0.79646018 5:-0.71383035 6:-0.78143914 7:-0.78801843 8:-0.73293473 
-0.51819823680839605 0 1 0 0 0 0 0 0 1 0 0 0 0 0 0 0 0 0 0 0 0 0 0 0 1:1 2:0.14864865 3:0.075630252 4:-0.78761062 5:-0.62670444 6:-0.70073974 7:-0.67741935 8:-0.68410563 
-1 1 1 1 0 0 0 0 1 0 0 0 0 1 1 1 0 0 0 0 0 0 0 0 0 1:-1 2:0.44594595 3:0.42857143 4:-0.75221239 5:-0.27111741 6:-0.4129119 7:-0.31270573 8:-0.46487294 
-1 1 1 1 0 0 0 0 1 0 0 0 1 1 1 1 0 0 0 0 0 0 0 0 0 2:0.41891892 3:0.36134454 4:-0.73451327 5:-0.1266159 6:-0.19098857 7:-0.27978934 8:-0.42501246 
-1 1 1 1 0 0 0 0 1 0 0 0 0 1 1 0 0 0 0 0 0 0 0 0 0 1:1 2:0.37837838 3:0.32773109 4:-0.73451327 5:-0.36993094 6:-0.4667115 7:-0.46543779 8:-0.49875436 
-0 0 0 0 1 0 1 0 0 1 0 0 0 0 0 0 0 0 0 0 0 0 0 0 0 1:1 2:-0.081081081 3:-0.092436975 4:-0.80530973 5:-0.77758102 6:-0.81506389 7:-0.7919684 8:-0.81863478 
-1 1 1 1 0 0 0 0 1 0 0 0.01285690094802879 1 1 1 1 1 1 0 0 0 0 0 0 0 2:0.52702703 3:0.41176471 4:-0.75221239 5:-0.24172127 6:-0.34297243 7:-0.39697169 8:-0.38515197 
-0 0 0 0 1 1 1 0 0 1 0 0 0 0 0 0 0 0 0 0 0 0 0 0 0 1:1 2:-0.14864865 3:-0.14285714 4:-0.81415929 5:-0.81264388 6:-0.84196369 7:-0.86306781 8:-0.84155456 
-0 0 1 0 0 0 1 0 0 1 0 0 0 0 0 0 0 0 0 0 0 0 0 0 0 1:1 2:0.10810811 3:0.025210084 4:-0.78761062 5:-0.63626704 6:-0.66980498 7:-0.73140224 8:-0.71001495 
-1 0 1 1 0 0 0 0 0 1 0 0 0 0 0 0 0 0 0 0 0 0 0 0 0 1:-1 2:0.13513514 3:0.14285714 4:-0.78761062 5:-0.60970427 6:-0.70006725 7:-0.63923634 8:-0.67015446 
-1 1 1 1 0 0 0 0 1 0 0 0 1 1 1 1 0 0 0 0 0 0 0 0 0 2:0.2972973 3:0.31092437 4:-0.69026549 5:-0.18930406 6:-0.26025555 7:-0.35878868 8:-0.44793224 
-1 1 1 1 0 0 0 0 1 0 0 0 0 0.51017811563880111 1 0 0 0 0 0 0 0 0 0 0 1:-1 2:0.37837838 3:0.34453782 4:-0.73451327 5:-0.35966 6:-0.45057162 7:-0.39565504 8:-0.53761834 
-1 1 1 1 0 0 0 0 0 0 0 0 0 0 0 0 0 0 0 0 0 0 0 0 0 1:1 2:0.27027027 3:0.27731092 4:-0.76106195 5:-0.45493182 6:-0.50100874 7:-0.61158657 8:-0.55057299 
-1 0 1 0 0 0 0 0 0 1 0 0 0 0 0 0 0 0 0 0 0 0 0 0 0 1:1 2:0.2027027 3:0.19327731 4:-0.78761062 5:-0.57995396 6:-0.6805649 7:-0.70901909 8:-0.6243149 
-1 1 1 1 0 0 0 0 1 0 0 0 0 1 1 1 0 0 0 0 0 0 0 0 0 1:-1 2:0.48648649 3:0.42857143 4:-0.67256637 5:-0.14680361 6:-0.21183591 7:-0.23765635 8:-0.43298455 
-1 1 1 1 0 0 0 0 1 0 0 0 0 0 0.69463016981239967 0 0 0 0 0 0 0 0 0 0 2:0.43243243 3:0.42857143 4:-0.75221239 5:-0.29945104 6:-0.36449227 7:-0.38380513 8:-0.52466368 
-0 0 1 0 0 0 1 0 0 1 0 0 0 0 0 0 0 0 0 0 0 0 0 0 0 1:1 2:0.027027027 3:-0.025210084 4:-0.80530973 5:-0.69399681 6:-0.72293208 7:-0.77616853 8:-0.76083707 
-1 0 1 1 0 0 1 0 0 1 0 0 0 0 0 0 0 0 0 0 0 0 0 0 0 1:-1 2:0.013513514 3:-0.075630252 4:-0.81415929 5:-0.65043386 6:-0.65501009 7:-0.78538512 8:-0.74588939 
-0 0 1 0 0 0 1 0 0 1 0 0 0 0 0 0 0 0 0 0 0 0 0 0 0 1:1 2:0.094594595 3:0.0084033613 4:-0.79646018 5:-0.6667257 6:-0.72360457 7:-0.70638578 8:-0.73991031 
-1 1 1 1 0 0 0 0 1 0 0 0 0 0 0 0 0 0 0 0 0 0 0 0 0 2:0.36486486 3:0.31092437 4:-0.76106195 5:-0.32849301 6:-0.35036987 7:-0.52205398 8:-0.53961136 
-0 0 1 0 0 0 1 0 0 1 0 0 0 0 0 0 0 0 0 0 0 0 0 0 0 1:1 2:0.013513514 3:0.0084033613 4:-0.80530973 5:-0.67664247 6:-0.74041695 7:-0.82488479 8:-0.72396612 
-1 0 1 0 0 0 1 0 0 1 0 0 0 0 0 0 0 0 0 0 0 0 0 0 0 1:1 2:0.094594595 3:-0.0084033613 4:-0.76106195 5:-0.61430848 6:-0.63349025 7:-0.73930217 8:-0.68809168 
-1 0 1 0 0 0 0 0 0 1 0 0 0 0 0 0 0 0 0 0 0 0 0 0 0 1:1 2:0.21621622 3:0.14285714 4:-0.78761062 5:-0.57074553 6:-0.60188299 7:-0.63396972 8:-0.72296961 
-1 0 1 0 0 0 1 0 0 1 0 0 0 0 0 0 0 0 0 0 0 0 0 0 0 1:1 2:0.067567568 3:0.058823529 4:-0.80530973 5:-0.60793342 6:-0.66509751 7:-0.69848585 8:-0.67812656 
-0 0 0 0 1 0 1 0 0 1 0 0 0 0 0 0 0 0 0 0 0 0 0 0 0 1:1 2:-0.13513514 3:-0.17647059 4:-0.78761062 5:-0.78926864 6:-0.83120377 7:-0.82225148 8:-0.82461385 
-1 1 1 1 0 0 0 0 0 0.89362036503246123 0 0 0 0 0 0 0 0 0 0 0 0 0 0 0 1:1 2:0.21621622 3:0.17647059 4:-0.74336283 5:-0.50805738 6:-0.59179556 7:-0.59710336 8:-0.58445441 
-1 0 1 1 0 0 0 0 0 0 0 0 0 0 0 0 0 0 0 0 0 0 0 0 0 1:1 2:0.24324324 3:0.21008403 4:-0.73451327 5:-0.59305826 6:-0.51782112 7:-0.64581962 8:-0.55455904 
-1 1 1 1 0 0 0 0 1 0 0 0 0 1 1 0 0 0 0 0 0 0 0 0 0 1:-1 2:0.2027027 3:0.37815126 4:-0.73451327 5:-0.32813883 6:-0.38802959 7:-0.47728769 8:-0.49476831 
-0 0 0 0 1 0 1 0 0 1 0 0 0 0 0 0 0 0 0 0 0 0 0 0 0 1:1 2:-0.13513514 3:-0.092436975 4:-0.81415929 5:-0.78466442 6:-0.85205111 7:-0.80776827 8:-0.81365222 
-1 0 1 0 0 0 1 0 0 1 0 0 0 0 0 0 0 0 0 0 0 0 0 0 0 2:-0.013513514 3:-0.042016807 4:-0.81415929 5:-0.74358066 6:-0.80228648 7:-0.78933509 8:-0.76880917 
-0 0 0 0 1 1 1 0 0 1 0 0 0 0 0 0 0 0 0 0 0 0 0 0 0 1:1 2:-0.18918919 3:-0.22689076 4:-0.84070796 5:-0.83353993 6:-0.85877606 7:-0.89730086 8:-0.84354758 
-1 0 1 1 0 0 0 0 0 1 0 0 0 0 0 0 0 0 0 0 0 0 0 0 0 1:-1 2:0.067567568 3:0.1092437 4:-0.76106195 5:-0.58384983 6:-0.62945528 7:-0.68531929 8:-0.66417539 
-1 1 1 1 0 0 0 0 0 0 0 0 0 0 0 0 0 0 0 0 0 0 0 0 0 1:1 2:0.33783784 3:0.29411765 4:-0.73451327 5:-0.46661944 6:-0.54068594 7:-0.57998683 8:-0.55655207 
-1 1 1 1 0 0 0 0 1 0 0 0 0 1 1 0 0 0 0 0 0 0 0 0 0 1:-1 2:0.39189189 3:0.39495798 4:-0.73451327 5:-0.39153533 6:-0.44586416 7:-0.56945359 8:-0.50672646 
-1 0 1 1 0 0 0 0 0 1 0 0 0 0 0 0 0 0 0 0 0 0 0 0 0 1:-1 2:0.16216216 3:0.042016807 4:-0.79646018 5:-0.63237117 6:-0.66509751 7:-0.74851876 8:-0.70403587 
-0 0 1 0 0 0 1 0 0 1 0 0 0 0 0 0 0 0 0 0 0 0 0 0 0 1:1 2:-0.054054054 3:-0.042016807 4:-0.82300885 5:-0.73862228 6:-0.7995965 7:-0.77353522 8:-0.77379173 
-1 1 1 1 0 0 0 0 1 0 0 0 0 0 0 0 0 0 0 0 0 0 0 0 0 1:-1 2:0.17567568 3:0.21008403 4:-0.74336283 5:-0.46945281 6:-0.55817081 7:-0.51810402 8:-0.59840558 
-0 0 1 0 0 0 1 0 0 1 0 0 0 0 0 0 0 0 0 0 0 0 0 0 0 1:1 2:0.10810811 3:0.092436975 4:-0.77876106 5:-0.632017 6:-0.70342972 7:-0.69058591 8:-0.68410563 
-1 1 1 1 0 0 0 0 0 1 0 0 0 0 0 0 0 0 0 0 0 0 0 0 0 1:1 2:0.16216216 3:0.15966387 4:-0.74336283 5:-0.50239065 6:-0.55211836 7:-0.62606978 8:-0.59043348 
-1 0 1 1 0 0 0 0 0 1 0 0 0 0 0 0 0 0 0 0 0 0 0 0 0 1:1 2:0.17567568 3:0.15966387 4:-0.77876106 5:-0.58101647 6:-0.6798924 7:-0.65898618 8:-0.59641256 
-1 0 1 1 0 0 0 0 0 1 0 0 0 0 0 0 0 0 0 0 0 0 0 0 0 1:1 2:0.21621622 3:0.15966387 4:-0.7699115 5:-0.54418275 6:-0.56422327 7:-0.67346939 8:-0.66417539 
-0 0 0 0 1 0 1 0 0 1 0 0 0 0 0 0 0 0 0 0 0 0 0 0 0 1:1 2:-0.12162162 3:-0.12605042 4:-0.84070796 5:-0.77156012 6:-0.79825151 7:-0.80908492 8:-0.82760339 
-0 0 1 0 0 0 0 0 0 1 0 0 0 0 0 0 0 0 0 0 0 0 0 0 0 1:1 2:0.2027027 3:0.19327731 4:-0.80530973 5:-0.63414202 6:-0.71015467 7:-0.76036866 8:-0.63627304 
-0 0 1 0 0 0 1 0 0 1 0 0 0 0 0 0 0 0 0 0 0 0 0 0 0 1:1 2:0.013513514 3:-0.042016807 4:-0.77876106 5:-0.71489286 6:-0.77135171 7:-0.81698486 8:-0.73492775 
-1 1 1 1 0 0 0 0 0 1 0 0 0 0 0 0 0 0 0 0 0 0 0 0 0 1:1 2:0.17567568 3:0.1092437 4:-0.74336283 5:-0.45847353 6:-0.46536651 7:-0.63265306 8:-0.64324863 
-1 0 1 1 0 0 0 0 0 1 0 0 0 0 0 0 0 0 0 0 0 0 0 0 0 2:0.040540541 3:0.025210084 4:-0.79646018 5:-0.66460067 6:-0.71822461 7:-0.72481896 8:-0.68410563 
-0 0 1 0 1 0 1 0 0 1 0 0 0 0 0 0 0 0 0 0 0 0 0 0 0 1:1 2:-0.040540541 3:-0.12605042 4:-0.83185841 5:-0.73366389 6:-0.76597176 7:-0.79065174 8:-0.79471849 
-1 1 1 1 0 0 0 0 0 0 0 0 0 0 0 0 0 0 0 0 0 0 0 0 0 1:1 2:0.33783784 3:0.32773109 4:-0.76106195 5:-0.43899416 6:-0.48823134 7:-0.62870309 8:-0.51469856 
-1 1 1 1 0 0 0 0 1 0 0 0 0 0 1 0 0 0 0 0 0 0 0 0 0 2:0.36486486 3:0.31092437 4:-0.73451327 5:-0.39366035 6:-0.46334902 7:-0.59052008 8:-0.49875436 
-1 1 1 1 0 0 0 0 0 0.089611427179402653 0 0 0 0 0 0 0 0 0 0 0 0 0 0 0 2:0.2027027 3:0.17647059 4:-0.79646018 5:-0.45174429 6:-0.57094822 7:-0.5154707 8:-0.56452417 
-1 1 1 1 0 0 0 0 0 0 0 0 0 0 0 0 0 0 0 0 0 0 0 0 0 2:0.28378378 3:0.24369748 4:-0.77876106 5:-0.31857624 6:-0.26496301 7:-0.58262014 8:-0.57448929 
-0 0 1 0 1 0 1 0 0 1 0 0 0 0 0 0 0 0 0 0 0 0 0 0 0 1:1 2:-0.067567568 3:-0.12605042 4:-0.80530973 5:-0.71630954 6:-0.75184936 7:-0.78275181 8:-0.80069756 
-1 0 1 1 0 0 0 0 0 1 0 0 0 0 0 0 0 0 0 0 0 0 0 0 0 1:1 2:0.12162162 3:0.15966387 4:-0.76106195 5:-0.55941208 6:-0.59314055 7:-0.66293614 8:-0.66616841 
-0 0 1 0 0 0 1 0 0 1 0 0 0 0 0 0 0 0 0 0 0 0 0 0 0 1:1 2:0.13513514 3:0.058823529 4:-0.77876106 5:-0.66743404 6:-0.72225958 7:-0.76168532 8:-0.70403587 
-1 1 1 1 0 0 0 0 1 0 0 0 0 1 1 0 0 0 0 0 0 0 0 0 0 1:-1 2:0.40540541 3:0.44537815 4:-0.73451327 5:-0.23392952 6:-0.28782784 7:-0.39302172 8:-0.4529148 
-1 1 1 1 0 0 0 0 0.48093936907844276 0 0 0 0 0 0 0 0 0 0 0 0 0 0 0 0 2:0.44594595 3:0.2605042 4:-0.75221239 5:-0.35753497 6:-0.41223941 7:-0.47465438 8:-0.56452417 
-0 0 1 0 0 0 1 0 0 1 0 0 0 0 0 0 0 0 0 0 0 0 0 0 0 1:1 2:-0.040540541 3:-0.1092437 4:-0.80530973 5:-0.74110147 6:-0.77605918 7:-0.73271889 8:-0.79372197 
-1 0 1 1 0 0 0 0 0 1 0 0 0 0 0 0 0 0 0 0 0 0 0 0 0 1:1 2:0.16216216 3:0.17647059 4:-0.7699115 5:-0.57534974 6:-0.59583053 7:-0.7116524 8:-0.64424514 
-1 1 1 1 0 0 0 0 0 1 0 0 0 0 0 0 0 0 0 0 0 0 0 0 0 2:0.14864865 3:0.092436975 4:-0.75221239 5:-0.55126616 6:-0.62878278 7:-0.62475313 8:-0.64723468 
-1 1 1 1 0 0 0 0 0.4471560462862465 0 0 0 0 0 0 0 0 0 0 0 0 0 0 0 0 1:1 2:0.40540541 3:0.36134454 4:-0.73451327 5:-0.4110147 6:-0.49428379 7:-0.49440421 8:-0.5346288 
-1 0 1 1 0 0 0 0 0 1 0 0 0 0 0 0 0 0 0 0 0 0 0 0 0 1:-1 2:0.067567568 3:0.075630252 4:-0.78761062 5:-0.5902249 6:-0.64357767 7:-0.75510204 8:-0.66616841 
-1 1 1 1 0 0 0 0 1 0 0 0 0 1 1 0 0 0 0 0 0 0 0 0 0 1:-1 2:0.41891892 3:0.34453782 4:-0.72566372 5:-0.33203471 6:-0.41425689 7:-0.45227123 8:-0.50473343 
-1 1 1 1 0 0 1 0 0 1 0 0 0 0 0 0 0 0 0 0 0 0 0.12502179014667747 0 0 1:1 2:-0.10810811 3:-0.14285714 4:-0.80530973 5:-0.35682663 6:-0.44182919 7:-0.45490454 8:-0.80468361 
-0 0 1 0 0 0 0 0 0 1 0 0 0 0 0 0 0 0 0 0 0 0 0 0 0 1:1 2:0.14864865 3:0.1092437 4:-0.78761062 5:-0.60474588 6:-0.62004035 7:-0.73008558 8:-0.73393124 
-0 0 0 0 1 0 1 0 0 1 0 0 0 0 0 0 0 0 0 0 0 0 0 0 0 1:1 2:-0.054054054 3:-0.1092437 4:-0.84955752 5:-0.81583141 6:-0.83523874 7:-0.82488479 8:-0.85849527 
-1 1 1 1 0 0 0 0 1 0 0 0 0 0 1 0 0 0 0 0 0 0 0 0 0 2:0.22972973 3:0.24369748 4:-0.73451327 5:-0.39968125 6:-0.5601883 7:-0.39038841 8:-0.6003986 
-1 0 1 1 0 0 0.014358266489666901 0 0 1 0 0 0 0 0 0 0 0 0 0 0 0 0 0 0 2:0.013513514 3:0.0084033613 4:-0.81415929 5:-0.63130866 6:-0.68258238 7:-0.69453588 8:-0.714001 
-1 0 1 0 0 0 1 0 0 1 0 0 0 0 0 0 0 0 0 0 0 0 0 0 0 1:-1 2:0.013513514 3:-0.092436975 4:-0.79646018 5:-0.696476 6:-0.70073974 7:-0.79460171 8:-0.77279522 
-1 1 1 1 0 0 0 0 0 0 0 0.96247194919277068 0 1 1 0 0 0 0 0 0.67206590494296825 0 0 0 0 2:0.28378378 3:0.2605042 4:-0.73451327 5:-0.53745352 6:-0.64694015 7:-0.68005267 8:-0.56253114 
-1 0 1 0 0 0 1 0 0 1 0 0 0 0 0 0 0 0 0 0 0 0 0 0 0 2:-0.081081081 3:-0.15966387 4:-0.7699115 5:-0.77474765 6:-0.82582381 7:-0.80250165 8:-0.79372197 
-0 0 1 0 0 0 1 0 0 1 0 0 0 0 0 0 0 0 0 0 0 0 0 0 0 1:1 3:-0.1092437 4:-0.78761062 5:-0.73366389 6:-0.79690652 7:-0.78406847 8:-0.76382661 
-0 0 1 0 1 0 1 0 0 1 0 0 0 0 0 0 0 0 0 0 0 0 0 0 0 1:1 2:-0.067567568 3:-0.092436975 4:-0.79646018 5:-0.75066407 6:-0.78278413 7:-0.83278473 8:-0.79372197 
-1 1 1 1 0 0 0 0 0 0.2713261102311692 0 0 0 0 0 0 0 0 0 0 0 0 0 0 0 1:-1 2:0.21621622 3:0.17647059 4:-0.7699115 5:-0.49247388 6:-0.56220578 7:-0.48123766 8:-0.65421026 
-1 0 1 0 0 0 0 0 0 1 0 0 0 0 0 0 0 0 0 0 0 0 0 0 0 1:1 2:0.14864865 3:0.12605042 4:-0.77876106 5:-0.58845405 6:-0.60591796 7:-0.65371955 8:-0.68310912 
-1 1 1 1 0 0 0 0 1 0 0 0 0 0 0 0 0 0 0 0 0 0 0 0 0 2:0.37837838 3:0.34453782 4:-0.7699115 5:-0.38126439 6:-0.44855414 7:-0.45753785 8:-0.55455904 
-0 0 1 0 0 0 1 0 0 1 0 0 0 0 0 0 0 0 0 0 0 0 0 0 0 1:1 2:0.067567568 3:0.042016807 4:-0.82300885 5:-0.71028865 6:-0.76597176 7:-0.77616853 8:-0.73393124 
-1 1 1 1 0 0 0 0 1 0 0 0 0 1 1 0 0 0 0 0 0 0 0 0 0 1:-1 2:0.37837838 3:0.32773109 4:-0.68141593 5:-0.43509828 6:-0.54942838 7:-0.51283739 8:-0.53064275 
-1 1 1 1 0 0 0 0 0 0 0 0 0 0 0 0 0 0 0 0 0 0 0 0 0 2:0.24324324 3:0.22689076 4:-0.7699115 5:-0.50628652 6:-0.58103564 7:-0.58920342 8:-0.59740907 
-0 0 1 0 0 0 1 0 0 1 0 0 0 0 0 0 0 0 0 0 0 0 0 0 0 1:1 3:-0.058823529 4:-0.80530973 5:-0.71028865 6:-0.73436449 7:-0.75510204 8:-0.78574988 
-0 0 1 0 0 0 1 0 0 1 0 0 0 0 0 0 0 0 0 0 0 0 0 0 0 1:1 2:-0.027027027 3:-0.042016807 4:-0.80530973 5:-0.73260138 6:-0.800269 7:-0.77748519 8:-0.76382661 
-1 1 1 1 0 0 0 0 1 0 0 0.95179902360687285 1 1 1 1 1 1 1 0 0 0 0 0 0.88838016346891946 2:0.54054054 3:0.51260504 4:-0.7079646 5:0.013281388 6:-0.08137189 7:-0.19025675 8:-0.33333333 
-1 1 1 1 0 0 0 0 0 1 0 0 0 0 0 0 0 0 0 0 0 0 0 0 0 1:-1 2:0.22972973 3:0.15966387 4:-0.77876106 5:-0.46484859 6:-0.466039 7:-0.60368664 8:-0.65421026 
-1 0 1 0 1 1 1 0 0 1 1 0 0 0 0 0 0 0 0.15435338057281378 0 0 0 0 0 0 1:-1 2:-0.24324324 3:-0.29411765 4:-0.84955752 5:-0.8590402 6:-0.90854069 7:-0.86175115 8:-0.86447434 
-0 0 0 0 0.28786257955635597 0 1 0 0 1 0 0 0 0 0 0 0 0 0 0 0 0 0 0 0 1:1 2:-0.027027027 3:-0.075630252 4:-0.81415929 5:-0.76412254 6:-0.79152656 7:-0.85516787 8:-0.79372197 
-0 0 0 0 1 0 1 0 0 1 0 0 0 0 0 0 0 0 0 0 0 0 0 0 0 1:1 2:-0.067567568 3:-0.14285714 4:-0.82300885 5:-0.79847707 6:-0.84667115 7:-0.80776827 8:-0.83358246 
-1 1 1 1 0 0 0 0 1 0 0 0 0 0 0 0 0 0 0 0 0 0 0 0 0 2:0.28378378 3:0.2605042 4:-0.73451327 5:-0.40641048 6:-0.47007397 7:-0.48782093 8:-0.55854509 
-1 1 1 1 0 0 0 0 1 0 0 0 0 0 1 0 0 0 0 0 0 0 0 0 0 2:0.41891892 3:0.37815126 4:-0.73451327 5:-0.22047105 6:-0.26765299 7:-0.31138907 8:-0.50473343 
-1 0 1 0 0 0 1 0 0 1 0 0 0 0 0 0 0 0 0 0 0 0 0 0 0 1:1 2:0.10810811 3:0.042016807 4:-0.81415929 5:-0.63272534 6:-0.73907196 7:-0.67741935 8:-0.64025909 
-1 1 1 1 0 0 0 1 1 0 0 1 1 1 1 1 1 1 0 0 0.15384047145205393 0 0 0 0 1:-1 2:0.44594595 3:0.42857143 4:-0.7079646 5:-0.12059501 6:-0.25151311 7:-0.29690586 8:-0.26158445 
-1 0 1 0 1 0 1 0 0 1 0 0 0 0 1 0 0.43359512726970956 0 0.41461417460771643 0 0 0 0 0 0 1:-1 2:-0.22972973 3:-0.19327731 4:-0.81415929 5:-0.83070657 6:-0.88500336 7:-0.86175115 8:-0.81365222 
-1 0 1 1 0 0 0 0 0 1 0 0 0 0 0 0 0 0 0 0 0 0 0 0 0 2:0.040540541 3:0.042016807 4:-0.77876106 5:-0.66247565 6:-0.72427707 7:-0.72613562 8:-0.72197309 
-1 1 1 1 0 0 0 0 0 0 0 0 0 0 0 0 0 0 0 0 0 0 0 0 0 2:0.28378378 3:0.21008403 4:-0.76106195 5:-0.42447317 6:-0.4270343 7:-0.51283739 8:-0.65421026 
-1 0 1 0 0 0 1 0 0 1 0 0 0 0 0 0 0 0 0 0 0 0 0 0 0 1:-1 2:-0.040540541 3:-0.058823529 4:-0.79646018 5:-0.71383035 6:-0.77807666 7:-0.75510204 8:-0.73393124 
-1 1 1 1 0 0 0 0 1 0 0 0 0 1 1 0 0 0 0 0 0 0 0 0 0 1:1 2:0.28378378 3:0.27731092 4:-0.7079646 5:-0.43191075 6:-0.54404842 7:-0.49045425 8:-0.51669158 
-1 1 1 1 0 0 0 0 0 0 0 0 0 0 0 0 0 0 0 0 0 0 0 0 0 1:1 2:0.28378378 3:0.21008403 4:-0.74336283 5:-0.44784842 6:-0.49966375 7:-0.57998683 8:-0.56153463 
-1 0 1 0 0 0 0 0 0 1 0 0 0 0 0 0 0 0 0 0 0 0 0 0 0 1:1 2:0.27027027 3:0.075630252 4:-0.78761062 5:-0.61678767 6:-0.68190989 7:-0.69716919 8:-0.65919283 
-1 1 1 1 0 0 0 0 0 1 0 0 0 1 0 0 0 0 0 0 0 0 0 0 0 1:-1 2:0.2972973 3:0.19327731 4:-0.77876106 5:-0.5771206 6:-0.68594486 7:-0.61553654 8:-0.6163428 
-1 1 1 1 0 0 0 0 1 0 0 0 0 1 1 0 1 0 0 0 0 0 0 0 0 1:1 2:0.40540541 3:0.2605042 4:-0.7079646 5:-0.30405525 6:-0.39273705 7:-0.4562212 8:-0.45989038 
-0 0 0 0 1 1 1 0 1 1 0 0 0 0 0 0 0 0 0 0 0 0 0 0 0 1:1 2:-0.2972973 3:-0.31092437 4:-0.82300885 5:-0.86541526 6:-0.89576328 7:-0.84726794 8:-0.86347783 
-0 0 1 0 0 0 1 0 0 1 0 0 0 0 0 0 0 0 0 0 0 0 0 0 0 1:1 2:0.013513514 3:-0.0084033613 4:-0.78761062 5:-0.66991323 6:-0.73167451 7:-0.72086899 8:-0.7389138 
-1 0 1 0 0 0 1 0 0 1 0 0 0 0 0 0 0 0 0 0 0 0 0 0 0 1:-1 3:-0.0084033613 4:-0.79646018 5:-0.74535151 6:-0.79085407 7:-0.81830151 8:-0.76980568 
-1 1 1 1 0 0 0 0 1 0 0 0 1 1 1 1 1 1 0 0 0 0 0 0 0 1:-1 2:0.5 3:0.42857143 4:-0.7079646 5:-0.090490526 6:-0.18897108 7:-0.28768927 8:-0.30543099 
-1 1 1 1 0 0 0 0 1 1 0 0 0 1 1 0 0 0 0 0 0 0 0 0 0 2:0.14864865 3:0.15966387 4:-0.75221239 5:-0.5328493 6:-0.65635508 7:-0.53917051 8:-0.56452417 
-1 0 1 0 0 0 0 0 0 1 0 0 0 0 0 0 0 0 0 0 0 0 0 0 0 1:1 2:0.16216216 3:0.15966387 4:-0.77876106 5:-0.60439171 6:-0.69804976 7:-0.62343647 8:-0.66417539 
-1 1 1 1 0 0 0 0.060006728820343191 1 0 0 0 0.3831012664431156 1 1 0.6469441194210872 0.24562323599740268 0 0 0 0 0 0 0 0 1:-1 2:0.43243243 3:0.41176471 4:-0.74336283 5:-0.37524349 6:-0.48554136 7:-0.49967084 8:-0.46487294 
-1 1 1 1 0 0 0 0 1 0 0 0 0 0 0 0 0 0 0 0 0 0 0 0 0 1:-1 2:0.35135135 3:0.32773109 4:-0.7079646 5:-0.31751372 6:-0.33154001 7:-0.50098749 8:-0.54459392 
-1 1 1 1 0 0 0 0 0 1 0 0 0 0 0 0 0 0 0 0 0 0 0 0 0 2:0.054054054 3:-0.0084033613 4:-0.76106195 5:-0.55764123 6:-0.6529926 7:-0.62080316 8:-0.65421026 
-1 1 1 1 0 0 0 0.90406869984293214 1 0 0 0 1 1 1 1 1 0 0 0 0.44934317188229683 0 0 0 0 1:-1 2:0.21621622 3:0.21008403 4:-0.74336283 5:-0.40286878 6:-0.52723605 7:-0.57077024 8:-0.42999502 
-1 0 1 1 0 0 0 0 0 1 0 0 0 0 0 0 0 0 0 0 0 0 0 0 0 1:-1 2:0.12162162 3:0.1092437 4:-0.77876106 5:-0.57003719 6:-0.58910558 7:-0.74851876 8:-0.6492277 
-1 0 1 1 0 0 0 0 0 1 0 0 0 0 0 0 0 0 0 0 0 0 0 0 0 1:-1 2:0.081081081 3:0.0084033613 4:-0.78761062 5:-0.66141314 6:-0.68661735 7:-0.73403555 8:-0.73393124 
-1 1 1 1 0 0 0 0 1 0 0 0 0.067062561920465863 1 1 0 0 0 0 0 0 0 0 0 0 2:0.41891892 3:0.36134454 4:-0.74336283 5:-0.34088897 6:-0.46536651 7:-0.41013825 8:-0.50871948 
-1 1 1 1 0 0 0 0 1 0 0 0 0 0 1 0 0 0 0 0 0 0 0 0 0 2:0.18918919 3:0.2605042 4:-0.75221239 5:-0.41066053 6:-0.50773369 7:-0.47465438 8:-0.54459392 
-0 0 0 0 1 1 1 0 0 1 0 0 0 0 0 0 0 0 0 0 0 0 0 0 0 1:1 2:-0.16216216 3:-0.21008403 4:-0.84955752 5:-0.82397733 6:-0.85070612 7:-0.84068466 8:-0.84354758 
-0 0 0 0 1 1 1 0 1 1 1 0 0 0.69596646584826738 1 0 0.029735770033806608 0 0 0 0 0 0 0 0 1:1 2:-0.39189189 3:-0.41176471 4:-0.85840708 5:-0.91110324 6:-0.94283793 7:-0.9315339 8:-0.92326856 
-1 0 1 1 0 0 0 0 0 0 0 0 0 0 0 0 0 0 0 0 0 0 0 0 0 1:1 2:0.27027027 3:0.22689076 4:-0.77876106 5:-0.49353639 6:-0.5198386 7:-0.70638578 8:-0.56452417 
-0 0 1 0 0 0 1 0 0 1 0 0 0 0 0 0 0 0 0 0 0 0 0 0 0 1:1 2:0.027027027 3:-0.075630252 4:-0.82300885 5:-0.73791394 6:-0.5198386 7:-0.79723502 8:-0.78375685 
-0 0 0 0 1 1 1 0 0 1 0 0 0 0 0 0 0 0 0 0 0 0 0 0 0 1:1 2:-0.18918919 3:-0.24369748 4:-0.85840708 5:-0.85797769 6:-0.89038332 7:-0.87491771 8:-0.87344295 
-0 0 1 0 0 0 1 0 0 1 0 0 0 0 0 0 0 0 0 0 0 0 0 0 0 1:1 2:0.054054054 3:-0.025210084 4:-0.80530973 5:-0.72303878 6:-0.75588433 7:-0.80776827 8:-0.76382661 
-1 0 1 1 0 0 0 0 0 0 0 0 0 0 0 0 0 0 0 0 0 0 0 0 0 1:1 2:0.25675676 3:0.24369748 4:-0.76106195 5:-0.51549495 6:-0.533961 7:-0.59447005 8:-0.57847534 
-1 0 1 1 0 0 0 0 0 1 0 0 0 0 0 0 0 0 0 0 0 0 0 0 0 1:1 2:0.16216216 3:0.12605042 4:-0.73451327 5:-0.51620329 6:-0.51445864 7:-0.65635286 8:-0.69207773 
-1 1 1 1 0 0 0 0 1 0 0 0 0 0 0 0 0 0 0 0 0 0 0 0 0 2:0.33783784 3:0.31092437 4:-0.74336283 5:-0.37984771 6:-0.44720915 7:-0.42988808 8:-0.56452417 
-0 0 1 0 0 0 1 0 0 1 0 0 0 0 0 0 0 0 0 0 0 0 0 0 0 1:1 2:0.13513514 3:0.075630252 4:-0.79646018 5:-0.64228794 6:-0.67720242 7:-0.73008558 8:-0.70403587 
-1 0.98166013385827433 1 1 0 0 0 0 0 0 0 0 0 0 0 0 0 0 0 0 0 0 0 0 0 1:1 2:0.2972973 3:0.27731092 4:-0.75221239 5:-0.45953604 6:-0.47074647 7:-0.60631995 8:-0.59242651 
-1 0 1 0 1 1 1 0 0 1 0.34593046427674595 0 0.02446606030337652 0 1 0 0 0 0 0 0 0 0 0 0 1:-1 2:-0.25675676 3:-0.2605042 4:-0.80530973 5:-0.79422702 6:-0.83658373 7:-0.83410138 8:-0.82262083 
-0 0 0 0 1 0 1 0 0 1 0 0 0 0 0 0 0 0 0 0 0 0 0 0 0 1:1 2:-0.067567568 3:-0.092436975 4:-0.79646018 5:-0.7789977 6:-0.8271688 7:-0.83410138 8:-0.8036871 
-1 1 1 1 0 0 0 0 1 0 0 0 0 1 1 0 0 0 0 0 0 0 0 0 0 1:-1 2:0.39189189 3:0.29411765 4:-0.73451327 5:-0.38338941 6:-0.48083389 7:-0.43515471 8:-0.51469856 
-1 1 1 1 0 0 0 0 1 0 0 0 0 0 0 0 0 0 0 0 0 0 0 0 0 1:-1 2:0.32432432 3:0.31092437 4:-0.73451327 5:-0.43757747 6:-0.51244116 7:-0.51678736 8:-0.56651719 
-1 0 1 0 0 0 0 0 0 1 0 0 0 0 0 0 0 0 0 0 0 0 0 0 0 1:1 2:0.2027027 3:0.15966387 4:-0.80530973 5:-0.57853728 6:-0.60659045 7:-0.69716919 8:-0.68410563 
-1 0 1 0 0 0 1 0 0 1 0 0 0 0 0 0 0 0 0 0 0 0 0 0 0 1:-1 2:-0.013513514 3:-0.092436975 4:-0.85840708 5:-0.70887197 6:-0.80766644 7:-0.73403555 8:-0.74389636 
-1 1 1 1 0 0 0 0 1 0 0 0 0 0 0 0 0 0 0 0 0 0 0 0 0 2:0.36486486 3:0.31092437 4:-0.74336283 5:-0.37241013 6:-0.44989913 7:-0.52337064 8:-0.51968112 
-1 0 1 1 0 0 0 0 0 1 0 0 0 0 0 0 0 0 0 0 0 0 0 0 0 1:-1 2:0.10810811 3:0.12605042 4:-0.84955752 5:-0.54559943 6:-0.60524546 7:-0.73008558 8:-0.6083707 
-0 0 1 0 0 0 1 0 0 1 0 0 0 0 0 0 0 0 0 0 0 0 0 0 0 1:1 2:0.081081081 3:0.092436975 4:-0.78761062 5:-0.68903843 6:-0.76126429 7:-0.7682686 8:-0.70303936 
-1 1 1 1 0 0 0 0 1 0 0 0 1 1 1 1 1 1 0 0 0 0 0 0 0 2:0.45945946 3:0.42857143 4:-0.71681416 5:-0.11421994 6:-0.21452589 7:-0.31797235 8:-0.34529148 
-1 1 1 1 0 0 0 0 0 0 0 0 0 0 0 0 0 0 0 0 0 0 0 0 0 1:-1 2:0.17567568 3:0.19327731 4:-0.74336283 5:-0.43757747 6:-0.48150639 7:-0.52337064 8:-0.61335326 
-0 0 1 0 0 0 1 0 0 1 0 0 0 0 0 0 0 0 0 0 0 0 0 0 0 1:1 2:0.040540541 3:0.058823529 4:-0.80530973 5:-0.72055959 6:-0.80161399 7:-0.77616853 8:-0.71300448 
-1 0 1 1 0 0 0 0 0 1 0 0 0 0 0 0 0 0 0 0 0 0 0 0 0 1:1 2:0.18918919 3:0.14285714 4:-0.77876106 5:-0.53143262 6:-0.57094822 7:-0.63265306 8:-0.66417539 
-1 0 1 1 0 0 0 0 0 1 0 0 0 0 0 0 0 0 0 0 0 0 0 0 0 1:-1 2:0.040540541 3:-0.025210084 4:-0.78761062 5:-0.65185054 6:-0.67383995 7:-0.69190257 8:-0.73991031 
-1 0 1 0 0 0 1 0 1 1 0 0.17025938074595787 0 1 1 0 0 0 0 0 0 0 0 0 0 1:1 2:0.10810811 3:0.042016807 4:-0.75221239 5:-0.68443421 6:-0.7464694 7:-0.75773535 8:-0.54359741 
-1 0 1 0 0 0 0 0 0 1 0 0 0 0 0 0 0 0 0 0 0 0 0 0 0 1:1 2:0.18918919 3:0.1092437 4:-0.77876106 5:-0.56826634 6:-0.57431069 7:-0.66820276 8:-0.70403587 
-1 0 1 0 0 0 0 0 0 1 0 0 0 0 0 0 0 0 0 0 0 0 0 0 0 1:1 2:0.10810811 3:0.075630252 4:-0.7699115 5:-0.6093501 6:-0.64357767 7:-0.70638578 8:-0.6900847 
-1 0 1 0 0 0 1 0 0 1 0 0 0 0 0 0 0 0 0 0 0 0 0 0 0 1:-1 2:-0.067567568 3:-0.042016807 4:-0.79646018 5:-0.70285107 6:-0.76597176 7:-0.7564187 8:-0.73393124 
-1 1 1 1 0 0 0 0 1 0 0 0 0 0 1 0 0 0 0 0 0 0 0 0 0 1:-1 2:0.44594595 3:0.42857143 4:-0.73451327 5:-0.18717903 6:-0.24277068 7:-0.27978934 8:-0.47683109 
-1 0 1 0 0 0 0 0 0 1 0 0 0 0 0 0 0 0 0 0 0 0 0 0 0 1:1 2:0.13513514 3:0.15966387 4:-0.81415929 5:-0.57499557 6:-0.66442502 7:-0.66820276 8:-0.6243149 
-0 0 1 0 0 0 1 0 0 1 0 0 0 0 0 0 0 0 0 0 0 0 0 0 0 1:1 2:0.027027027 3:-0.025210084 4:-0.81415929 5:-0.71772623 6:-0.78076664 7:-0.80250165 8:-0.75186846 
-1 1 1 1 0 0 0 1 1 0 0 1 1 1 1 1 1 1 1 0 1 0 0 0 0 2:0.48648649 3:0.46218487 4:-0.69026549 5:-0.21692934 6:-0.39811701 7:-0.43120474 8:-0.28649726 
-0 0 0 0 1 0 1 0 0 1 0 0 0 0 0 0 0 0 0 0 0 0 0 0 0 1:1 2:-0.13513514 3:-0.1092437 4:-0.82300885 5:-0.78360191 6:-0.80094149 7:-0.8604345 8:-0.82361734 
-0 0 0 0 1 0 1 0 0 1 0 0 0 0 0 0 0 0 0 0 0 0 0 0 0 1:1 2:-0.027027027 3:-0.092436975 4:-0.81415929 5:-0.76412254 6:-0.81842636 7:-0.83015142 8:-0.77379173 
-1 1 1 1 0 0 0 0 1 0 0 0 0 0 1 0 0 0 0 0 0 0 0 0 0 2:0.37837838 3:0.32773109 4:-0.71681416 5:-0.36072251 6:-0.45662408 7:-0.41803818 8:-0.53761834 
-1 1 1 1 0 0 0 0 1 0 0 0 0 0 0 0 0 0 0 0 0 0 0 0 0 2:0.22972973 3:0.17647059 4:-0.73451327 5:-0.37170179 6:-0.45595158 7:-0.40223831 8:-0.57448929 
-0 0 1 0 0 0 1 0 0 1 0 0 0 0 0 0 0 0 0 0 0 0 0 0 0 1:1 2:0.12162162 3:0.075630252 4:-0.77876106 5:-0.61572516 6:-0.6260928 7:-0.69848585 8:-0.74389636 
-1 0 1 1 0 0 0 0 0 1 0 0 0 0 0 0 0 0 0 0 0 0 0 0 0 1:-1 2:0.067567568 3:-0.0084033613 4:-0.82300885 5:-0.66318399 6:-0.74781439 7:-0.7682686 8:-0.65421026 
-1 1 1 1 0 0 0 0 0 0 0 0 0 0 0 0 0 0 0 0 0 0 0 0 0 1:-1 2:0.21621622 3:0.24369748 4:-0.77876106 5:-0.42624402 6:-0.45864156 7:-0.55233706 8:-0.61434978 
-1 1 1 1 0 0 0 0 1 0 0 0 1 1 1 1 0.94182371699715717 0.96721837261500165 0 0 0 0 0 0 0 1:-1 2:0.10810811 3:0.042016807 4:-0.72566372 5:-0.27253409 6:-0.43174176 7:-0.399605 8:-0.37917289 
-0 0 1 0 0 0 1 0 0 1 0 0 0 0 0 0 0 0 0 0 0 0 0 0 0 1:1 2:-0.027027027 3:-0.092436975 4:-0.78761062 5:-0.71843457 6:-0.75722932 7:-0.84068466 8:-0.77877429 
-1 1 1 1 0 0 0 0 0 1 0 0 0 0 0 0 0 0 0 0 0 0 0 0 0 1:-1 2:0.14864865 3:0.15966387 4:-0.7699115 5:-0.45493182 6:-0.50369872 7:-0.57998683 8:-0.58246139 
-0 1 0 0 1 1 1 0.46871255908001419 1 1 1 0.66817258868827079 0.52537011133304201 1 1 1 1 0.41997103940155095 0 0 0 1 0.087433749890969997 1 0 1:1 2:-0.41891892 3:-0.49579832 4:-0.87610619 5:-0.93235346 6:-0.95292535 7:-0.95128374 8:-0.93323368 
-0 0 0 0 1 1 1 0 0 1 1 0 0 0 0 0 0 0 0 0 0 0 0 0 0 1:1 2:-0.32432432 3:-0.37815126 4:-0.87610619 5:-0.89374889 6:-0.92535306 7:-0.92100066 8:-0.89536622 
-1 1 1 1 0 0 0 0 1 0 0 0 0 1 1 1 0 0 0 0 0 0 0 0 0 1:-1 2:0.21621622 3:0.27731092 4:-0.72566372 5:-0.24703382 6:-0.34767989 7:-0.3877551 8:-0.43497758 
-1 1 1 1 0 0 0 0 0 1 0 0 0 0 0 0 0 0 0 0 0 0 0 0 0 1:-1 2:0.21621622 3:0.15966387 4:-0.75221239 5:-0.4910572 6:-0.50571621 7:-0.6194865 8:-0.6571998 
