svm_type c_svc
kernel_type polynomial
degree 2
gamma 0.125
coef0 0
nr_class 26
total_sv 2504
rho -1.5560752223171359 -0.97923312379502647 -0.90504657660558108 -0.99259313440553409 -3.365907223689264 -3.8937174213054968 -2.4171629813662543 -1.0228551129246772 -0.99344713957450714 -1.9142945682724217 -3.1466748297723903 -1.0005548109930447 -0.92464012673987517 -0.99671709447671086 -0.95844376487033656 -0.94454641091771852 -0.98311209913575515 -0.99062905679886937 -1.0195219227070433 -1.0187379508156911 -1.0013454335291181 -2.2562111169099808 -0.96736191391313076 -2.024244192423426 -1.0152911672048019 0.55705919053292152 1.3063814361906627 0.92197933157214096 -3.0103786558203374 -3.7881997260460301 -1.5993718817668212 -1.007940487810576 0.25470644408964727 -1.1158263270323567 -3.415646681475573 -0.99040298920863101 -0.44531060965273345 -0.28599565154303253 -0.016819174893724996 -0.4512408924859217 -0.77447799916472115 -0.71185274834634138 -0.9829730361809137 -1.0089759605250941 -1.0126157039224459 -1.9790856838226318 -0.95709921884873328 -2.3506711423397069 -1.034021456543029 0.53924711263676894 0.9592512657328246 -3.2080389256666257 -3.1352781045967286 -1.9780660090082012 -1.0104246213947456 -0.92163438519200114 -1.498069396777703 -2.5841341751037432 -1.0027718929766638 -0.95094535317792817 -0.98984181892309098 -0.90720395076366089 -0.91126162153787571 -0.9902594829136907 -0.98497332922887726 -1.009807347902379 -1.0257545915067565 -1.0074642136713801 -2.1689086092957144 -0.97073123984102994 -1.8883430986034284 -1.0154717547142247 -0.083338218656434537 -3.6238227096121403 -4.1352577788911402 -2.1698372409601254 -1.0187504599451671 -0.77776534502836925 -1.5485219985670338 -3.6612350295612379 -1.0226482193504665 -0.78568376492110248 -0.89935946045088677 -0.76581778963200264 -0.77962004782228012 -0.92055289460534351 -0.95419806996775258 -1.0006937736589523 -1.0017775815209744 -0.99362025499880358 -2.1206613928079605 -0.94545898068989098 -2.4869639724493027 -1.0280375118271443 -3.4384187634096421 -2.9448761247872675 -2.221913033158899 -1.0069820832776091 -0.92054375479159845 -1.520002551229672 -2.8853085255912645 -0.99821064541860816 -0.8579601022292852 -0.94495301801450948 -0.86723273474939944 -0.85136103337885827 -0.95415600514106325 -0.94605945696039551 -0.99832578591145038 -1.0027741586478636 -0.99328960878711581 -2.1335306987166405 -0.94185224945991364 -1.9486414903225113 -1.0243006508304215 -4.3972723323434133 1.9348556913519426 1.497449883661697 2.8823054335322813 2.9762679613081722 -2.7176599370160917 1.4798833825354993 1.9315966163719529 2.357446267816806 2.2513789384137333 1.7890294134682372 1.9133956793621323 1.4610343016138181 1.5285596397827461 0.12840993791719424 1.3491097193921946 -1.1936133801937103 0.79698461138347876 -1.8508393466472632 0.55623480937017566 5.4098909592905615 1.7497025952286129 2.8820764293137775 5.1992334075456155 -1.0099042376874223 1.4443714047788887 1.7066702736230464 2.3859856408316911 2.5271056064998945 1.8232082728294916 2.0472648352645364 1.5433552090586844 1.56768611798075 0.80367998125789952 1.4300454562184328 -1.0352026792204272 1.0667661597016433 -1.6391559243202209 0.73979053288344299 0.49868702689526806 1.839473656884409 1.0860330701092593 -4.6778941538725443 1.0834332581670483 1.4852428536770583 1.4556894235880222 1.8143783737057217 1.8058483118098738 1.2852166699782526 0.93014274298736288 -0.053208624997426103 -1.0253948748688293 -0.39675708404198601 -1.5554583966732025 -0.58394036158695117 -2.10574871301651 -0.99353932647500187 1.0144668757171276 0.70967134836430412 -1.5406476321374742 1.067841184864621 1.0147285755691109 1.0181502947803174 1.0093018859614948 1.0775008816182348 1.0364938789975644 1.0828806612308954 -0.74523194065925757 -0.99701493667938734 -0.96673492129349936 -1.2981448175801085 -0.93790318073614731 -1.2233242659011834 -1.0218756558174722 -1.4684567974416842 -2.3145931364090493 -0.99899668552666854 -0.90235983558336008 -0.99831568279568761 -0.89977076197470962 -0.88788861058750557 -0.93944239682462305 -0.96677914099761086 -1.0098597288822553 -0.9954445710184795 -0.99095678164005385 -1.8935719653964043 -0.95031096840655738 -2.3627978269724981 -1.0484524644913014 -4.0905344510139532 -0.11575084268004227 0.85412464589722847 1.4106209936031462 1.4730980902404782 0.7677920455113989 0.39950470512995567 0.061054123091829768 -0.85966792121848123 -1.0113197712526591 -0.93619806291882401 -1.9101754426956172 -0.83593963992884068 -2.3338316977024078 -1.0171745768311666 1.2649091113965245 1.4702977772614865 1.9123109999075893 1.8290920369309176 1.77757657560934 1.8051551137654471 1.2858234117774547 1.4721066639443039 0.83624609641325176 1.3859334960980165 -1.0196699532352878 1.0347626354283666 -1.4911301732063293 0.83656541219763714 0.99898691025674546 1.0275640040395178 1.0076275311446636 1.0754798219130308 0.99523390303646297 0.50251914548931875 -1.0426149505435724 -1.0054995330364842 -1.0049204185059111 -1.6204702413261654 -0.90805853333071929 -1.4421306478792633 -1.0507112259927416 0.20974901140403301 0.9550083498474673 -0.49733256587153701 -1.0224250427509971 -0.99875071823387107 -1.0270720058166447 -1.0112851154026761 -1.0059889921447873 -1.339746393810435 -1.0266778648291899 -1.2806276583105534 -1.0466680145089833 1.0294866046600304 -0.677377204677579 -0.97379837946207715 -0.94429057619508505 -1.0239609675181212 -0.99185914023412347 -1.0284351832981538 -1.6356666067962649 -1.0238451613016091 -1.4609968277994185 -1.0465065066776513 -0.93053224375945143 -1.0022681266190749 -1.0064088829902207 -1.008564317981431 -1.020010950567269 -1.0176695505352427 -2.1204876812798847 -0.97388347729415115 -1.7828716897982189 -1.0167289356731868 -1.1396925928140977 -1.0640820946816434 -1.0145565248008774 -1.016554148783503 -1.0091753562590204 -1.4825779463317013 -0.99278197306993243 -1.4042434486436477 -1.0395590902635892 -0.93309513644326503 -0.99400611169119135 -1.0056237810129685 -0.99996335323126717 -1.4509650480913945 -0.98962552778560031 -1.3227193301864626 -1.0350804698460165 -0.99930566713120572 -1.0109318915391472 -1.027487153675104 -1.2850010637648068 -0.96396409085504831 -1.2358155080145214 -1.0559181272913785 -1.0248153735074048 -0.99850144260305296 -1.2502375338288605 -0.88401682723226715 -1.2166954601552176 -1.0027597103360697 1.0175028851231476 -0.79684113560365999 1.0401195464029045 -0.82863302682207784 0.23122619837522507 -1.1781052408841857 -0.9860599735869704 -1.1323502366018623 -1.0298880962895445 1.0310853784876715 -0.80596223473548889 0.91236131777615737 -1.0236276033506579 -0.95484912899058227 0.93742360839816941
label 10 8 12 9 11 5 4 6 21 13 7 3 19 16 15 14 17 18 20 23 26 22 2 27 1 29
nr_sv 379 344 167 409 275 70 40 156 10 107 243 10 16 38 61 80 37 28 17 6 1 5 1 2 1 1
SV
9 7.4914531031000422 9 0 0 0 9 0 0 9 0 0 0 0 0 0 0 0 0 0 0 0 0 0 0 1:1 2:0.27027027 3:0.2605042 4:-0.73451327 5:-0.47582787 6:-0.52723605 7:-0.58525346 8:-0.58844046 
9 0 9 9 0 0 0 0 0 0 0 0 0 0 0 0 0 0 0 0 0 0 0 0 0 1:-1 2:0.45945946 3:0.36134454 4:-0.69911504 5:-0.25305472 6:-0.35373235 7:-0.28505596 8:-0.46487294 
0 9 0 9 0 0 0.56780014961591141 0 8.2848547217735113 5.2569240160099531 0 0.44822231319962719 0 0 0 0 0 0 0 0 0 0 0 0 0 1:-1 2:0.87837838 3:0.83193277 4:-0.61946903 5:0.55303701 6:0.4129119 7:0.26793943 8:0.16093672 
9 0 9 0 0 0 0 0 0 9 0 0 0 0 0 0 0 0 0 0 0 0 0 0 0 1:-1 2:0.21621622 3:0.17647059 4:-0.76106195 5:-0.46484859 6:-0.55682582 7:-0.4325214 8:-0.61434978 
9 0 9 0 0 0 9 0 0 9 0 0 0 0 0 0 0 0 0 0 0 0 0 0 0 1:1 2:0.25675676 3:0.21008403 4:-0.80530973 5:-0.56295378 6:-0.63080027 7:-0.60631995 8:-0.65122073 
0 9 0 9 0 0 0 0 9 0 0 0 0 0 0 0 0 0 0 0 0 0 0 0 0 1:-1 2:0.78378378 3:0.73109244 4:-0.62831858 5:0.58207898 6:0.5729657 7:0.21790652 8:0.05630294 
9 9 9 0 0 0 0 0 0 9 0 0 0 9 9 0 9 0 0 0 0 0 0 0 0 1:-1 2:0.14864865 3:0.075630252 4:-0.73451327 5:-0.55091199 6:-0.66039005 7:-0.6194865 8:-0.6243149 
9 0 9 0 0 0 0 0 0 9 0 0 0 0 0 0 0 0 0 0 0 0 0 0 0 1:-1 2:0.22972973 3:0.21008403 4:-0.75221239 5:-0.48857801 6:-0.58372562 7:-0.560237 8:-0.59441953 
0 9 9 9 0 0 0 0 0 0 0 0 0 0 0 0 0 0 0 0 0 0 0 0 0 2:0.62162162 3:0.59663866 4:-0.69026549 5:0.023198158 6:-0.090114324 7:-0.1323239 8:-0.22770304 
0 0 9 9 0 0 0 0 0 0 0 0 0 0 0 0 0 0 0 0 0 0 0 0 0 2:0.47297297 3:0.41176471 4:-0.71681416 5:-0.20134585 6:-0.37861466 7:-0.29427255 8:-0.34529148 
0 9 0 9 0 0 0 0 9 0 0 2.9817008939143896 0 0 0 0 0 0 1.2633229213413384 0 0 0 0 0 0 2:0.67567568 3:0.66386555 4:-0.72566372 5:0.30865947 6:0.030262273 7:0.16260698 8:-0.17090184 
0 0 9 9 0 0 0 0 0 0 0 0 0 0 0 0 0 0 0 0 0 0 0 0 0 1:-1 2:0.54054054 3:0.51260504 4:-0.73451327 5:-0.17938729 6:-0.30329523 7:-0.31270573 8:-0.33532636 
9 0 9 9 0 0 0 0 0 0 0 0 0 0 0 0 0 0 0 0 0 0 0 0 0 2:0.37837838 3:0.27731092 4:-0.69026549 5:-0.3058261 6:-0.45595158 7:-0.34430546 8:-0.46487294 
9 9 9 9 0 0 0 0 0 9 0 0 0 0 0 0 0 0 0 0 0 0 0 0 0 1:-1 2:0.13513514 3:0.092436975 4:-0.78761062 5:-0.66566318 6:-0.73638198 7:-0.72086899 8:-0.69506726 
9 0 9 4.688957041459795 0 0 0 0 0 0 0 0 0 0 0 0 0 0 0 0 0 0 0 0 0 2:0.37837838 3:0.32773109 4:-0.71681416 5:-0.23853373 6:-0.32952253 7:-0.24423963 8:-0.50473343 
9 0 9 0 0 0 0 0 0 9 0 0 0 0 0 0 0 0 0 0 0 0 0 0 0 2:0.013513514 3:0.025210084 4:-0.77876106 5:-0.64264211 6:-0.70275723 7:-0.72481896 8:-0.68410563 
0 9 9 9 0 0 0 9 9 0 0 8.0416936749845611 9 9 9 9 9 4.5159045115531544 0 0.97185070030169385 2.4400537887592524 0 0 0 0 1:-1 2:0.27027027 3:0.36134454 4:-0.71681416 5:-0.36568089 6:-0.54270343 7:-0.56550362 8:-0.31539611 
9 0 9 0 0 0 0 0 0 9 0 0 0 0 0 0 0 0 0 0 0 0 0 0 0 2:0.081081081 3:0.12605042 4:-0.78761062 5:-0.62564193 6:-0.71418964 7:-0.69716919 8:-0.66417539 
0 9 9 9 0 0 0 0 9 0 0 0 0 0 0 0 0 0 0 0 0 0 0 0 0 1:-1 2:0.51351351 3:0.54621849 4:-0.7079646 5:-0.13086595 6:-0.32145259 7:-0.21790652 8:-0.29845541 
0 9 0 9 0 0 0 1.8223341321497637 9 0 0 0 9 9 9 9 9 9 0 0 0 0 3.3760751132883042 0 0 2:0.58108108 3:0.61344538 4:-0.63716814 5:0.019656455 6:-0.20443847 7:-0.27057275 8:-0.026407573 
0 9 9 9 0 0 0 0 9 0 0 0 0 0 0 0 0 0 0 0 0 0 0 0 0 2:0.56756757 3:0.56302521 4:-0.66371681 5:0.028864884 6:-0.19435104 7:0.016458196 8:-0.23966119 
9 0 9 0 0 0 0 0 0 0 0 0 0 0 0 0 0 0 0 0 0 0 0 0 0 2:0.18918919 3:0.21008403 4:-0.75221239 5:-0.5101824 6:-0.58238063 7:-0.60105332 8:-0.60438465 
9 0 9 0 0 0 0 0 0 9 0 0 0 0 0 0 0 0 0 0 0 0 0 0 0 1:-1 2:0.10810811 3:0.15966387 4:-0.76106195 5:-0.53178679 6:-0.58036315 7:-0.640553 8:-0.60438465 
9 0 9 0 0 0 0 0 0 9 0 0 0 0 0 0 0 0 0 0 0 0 0 0 0 1:-1 2:0.32432432 3:0.2605042 4:-0.73451327 5:-0.41278555 6:-0.43039677 7:-0.54443713 8:-0.56651719 
0 0 9 9 0 0 0 0 0 0 0 0 0 0 0 0 0 0 0 0 0 0 0 0 0 1:-1 2:0.48648649 3:0.46218487 4:-0.7079646 5:-0.14786612 6:-0.30531271 7:-0.18367347 8:-0.31240658 
0 0 9 9 0 0 0 0 0 0 0 0 0 0 0 0 0 0 0 0 0 0 0 0 0 1:-1 2:0.56756757 3:0.46218487 4:-0.69026549 5:-0.039135824 6:-0.14122394 7:-0.22712311 8:-0.27553563 
9 9 9 9 9 0 9 0 4.4762132252000351 9 0 0 0 0 9 0 0 0 0 0 0 0 0 0 0 2:-0.18918919 3:-0.21008403 4:-0.79646018 5:-0.80981052 6:-0.87626093 7:-0.8275181 8:-0.82660688 
9 0 9 9 0 0 0 0 0 0 0 0 0 0 0 0 0 0 0 0 0 0 0 0 0 2:0.5 3:0.41176471 4:-0.72566372 5:-0.2927218 6:-0.39340955 7:-0.33772219 8:-0.47483807 
9 0 9 9 0 0 0 0 0 0 0 0 0 0 0 0 0 0 0 0 0 0 0 0 0 1:-1 2:0.40540541 3:0.41176471 4:-0.75221239 5:-0.27147158 6:-0.33893746 7:-0.42988808 8:-0.44892875 
0 9 0 9 0 0 0 0 9 0 0 0 0 9 9 0 0 0 0 0 0 0 0 0 0 1:-1 2:0.58108108 3:0.57983193 4:-0.6460177 5:0.053302639 6:-0.18560861 7:-0.0019749835 8:-0.16392626 
9 0 9 9 0 0 0 0 0 0 0 0 0 0 0 0 0 0 0 0 0 0 0 0 0 1:-1 2:0.47297297 3:0.44537815 4:-0.72566372 5:-0.25836727 6:-0.37995965 7:-0.39302172 8:-0.50473343 
0 9 0 9 0 0 0 0 0 0 0 0 0 0 0 0 0 0 0 0 0 0 0 0 0.12946908303175028 2:0.77027027 3:0.73109244 4:-0.7079646 5:0.42695236 6:0.43577673 7:0.099407505 8:-0.13602392 
9 0 9 0 0 0 0 0 0 0 0 0 0 0 0 0 0 0 0 0 0 0 0 0 0 2:0.2027027 3:0.19327731 4:-0.77876106 5:-0.50664069 6:-0.60524546 7:-0.57340355 8:-0.57448929 
9 0 9 0 0 0 0 0 4.7875018571733534 0 0 0 0 0 0 0 0 0 0 0 0 0 0 0 0 1:-1 2:0.36486486 3:0.29411765 4:-0.69026549 5:-0.13334514 6:-0.27437794 7:-0.28900592 8:-0.35226707 
0 9 0 9 0 0 0 0 0 0 0 0.76707413381817047 0 0 0 0 0 0 0 0 0 0 0 0 0 2:0.74324324 3:0.76470588 4:-0.65486726 5:0.48822384 6:0.37928716 7:0.26267281 8:0.068261086 
0 9 0 9 0 0 0 0 0 0 0 0 0 0 3.830222068624979 3.9393540548554311 0 0 0 0 0 0 0 0 0 2:0.67567568 3:0.61344538 4:-0.69026549 5:0.30086772 6:0.079354405 7:0.041474654 8:-0.0004982561 
9 9 9 9 0 0 0 0 0 0 0 0 0 0 0 0 0 0 0 0 0 0 0 0 0 2:0.47297297 3:0.41176471 4:-0.69026549 5:-0.28138835 6:-0.41560188 7:-0.43778802 8:-0.3552566 
0 9 9 9 0 0 0 0 9 0 0 0 0 9 9 0 0 0 0 0 0 0 0 0 0 1:-1 2:0.54054054 3:0.49579832 4:-0.69026549 5:-0.054010979 6:-0.25622058 7:-0.19025675 8:-0.1758844 
0 0 9 9 0 0 0 0 0 0 0 0 0 0 0 0 0 0 0 0 0 0 0 0 0 2:0.51351351 3:0.46218487 4:-0.69026549 5:-0.12059501 6:-0.22057835 7:-0.17709019 8:-0.39511709 
9 9 9 6.4611764440706967 0 0 9 0 0 9 0 0 0 0 0 0 0 0 0 0 0 0 0 0 0 1:1 2:0.28378378 3:0.17647059 4:-0.73451327 5:-0.52293253 6:-0.59583053 7:-0.61553654 8:-0.58445441 
9 0 9 0 0 0 0 0 0 0 0 0 0 0 0 0 0 0 0 0 0 0 0 0 0 2:0.2027027 3:0.24369748 4:-0.73451327 5:-0.42553568 6:-0.48352387 7:-0.47070441 8:-0.54459392 
0 9 9 9 0 0 0 0 0 0 0 0 0 0 9 0 0 0 0 0 0 0 0 0 0 2:0.41891892 3:0.39495798 4:-0.66371681 5:-0.19780414 6:-0.33960995 7:-0.31797235 8:-0.3303438 
0 0 9 9 0 0 0 0 0 0 0 0 0 0 0 0 0 0 0 0 0 0 0 0 0 1:-1 2:0.60810811 3:0.6302521 4:-0.69026549 5:0.048344254 6:-0.0073974445 7:-0.23107307 8:-0.27553563 
0 0 9 9 0 0 0 0 0 0 0 0 0 0 0 0 0 0 0 0 0 0 0 0 0 1:-1 2:0.54054054 3:0.49579832 4:-0.65486726 5:-0.0090313441 6:-0.17215871 7:-0.075707702 8:-0.26058794 
9 0 9 7.7056847319848814 0 0 0 0 0 0 0 0 0 0 0 0 0 0 0 0 0 0 0 0 0 1:-1 2:0.48648649 3:0.46218487 4:-0.78761062 5:-0.38055605 6:-0.38802959 7:-0.52732061 8:-0.53861485 
9 0 9 3.6892533472334486 9 9 9 1.1214088937066384 0 9 9 0 6.0432622403151308 0 0 0 0 1.203137414566182 0 0 0 0 0 0 0 1:-1 2:-0.41891892 3:-0.42857143 4:-0.85840708 5:-0.90968656 6:-0.92938803 7:-0.93285056 8:-0.91330344 
0 9 9 9 0 0 0 0 0 0 0 0 0 0 0 0 0 0 0 0 0 0 0 0 0 1:-1 2:0.58108108 3:0.56302521 4:-0.66371681 5:0.10217815 6:0.014122394 7:-0.21658986 8:-0.20577977 
0 9 9 9 0 0 0 0 0 0 0 0 0 0 0 0 0 0 0 0 0 0 0 0 0 1:-1 2:0.56756757 3:0.64705882 4:-0.66371681 5:0.0076146627 6:-0.15063887 7:-0.12442396 8:-0.24962631 
9 0 9 0 0 0 0 0 0 9 0 0 0 0 0 0 0 0 0 0 0 0 0 0 0 1:-1 2:0.18918919 3:0.092436975 4:-0.76106195 5:-0.5328493 6:-0.61466039 7:-0.44963792 8:-0.69407075 
9 0 9 0 0 0 0 0 0 9 0 0 0 0 0 0 0 0 0 0 0 0 0 0 0 2:0.13513514 3:0.1092437 4:-0.7699115 5:-0.51230742 6:-0.58103564 7:-0.52995392 8:-0.65421026 
9 9 9 9 0 0 0 0 0 0 0 0 0 4.1823681341165138 0 0 0.72134970711354618 0 0 0 0 0 0 0 0 1:1 2:0.63513514 3:0.59663866 4:-0.67256637 5:-0.21551266 6:-0.41089442 7:-0.35615537 8:-0.32536124 
0 9 9 9 0 0 0 0 0 0 0 0 0 0 0 0 0 0 0 0 0 0 0 0 0 2:0.58108108 3:0.4789916 4:-0.62831858 5:0.095094741 6:-0.027572293 7:-0.073074391 8:-0.22072745 
0 0 9 9 0 0 0 0 0 0 0 0 0 0 0 0 0 0 0 0 0 0 0 0 0 1:-1 2:0.48648649 3:0.56302521 4:-0.69026549 5:-0.0023021073 6:-0.07195696 7:-0.15339039 8:-0.31240658 
0 0 9 9 0 0 0 0 0 0 0 2.9436343596613117 0 0 0 0 0 0 0 0 0 0 0 0 0 1:-1 2:0.40540541 3:0.39495798 4:-0.72566372 5:-0.15034532 6:-0.33960995 7:0.016458196 8:-0.47483807 
9 0 9 9 9 2.1309423268281984 9 0 0 9 0 0 0 0 0 0 0 0 0 0 0 0 0 0 0 1:-1 2:-0.27027027 3:-0.32773109 4:-0.85840708 5:-0.8817071 6:-0.9206456 7:-0.88940092 8:-0.89536622 
9 9 9 9 0 0 0 0 8.3098060015661837 0 0 0 0 0 0 0 0 0 0 0 0 0 0 0 0 1:-1 2:0.33783784 3:0.27731092 4:-0.69911504 5:-0.38303524 6:-0.48755884 7:-0.51942067 8:-0.46387643 
9 0 9 9 0 0 0 0 0 0 0 0 0 0 0 0 0 0 0 0 0 0 0 0 0 2:0.43243243 3:0.42857143 4:-0.73451327 5:-0.23711705 6:-0.39542703 7:-0.25477288 8:-0.41903338 
9 9 9 9 0 0 9 0 9 9 0 0 0 0 0 0 0 0 0.21365202414030424 0 0 0 0 0 0 2:-0.054054054 3:-0.058823529 4:-0.83185841 5:-0.77333097 6:-0.83927371 7:-0.84068466 8:-0.75386148 
9 0 9 9 9 0 9 0 0 9 0 0 0 0 0 0 0 0 0 0 0 0 0 0 0 1:1 2:-0.081081081 3:-0.092436975 4:-0.82300885 5:-0.77368514 6:-0.79488904 7:-0.84463463 8:-0.79372197 
0 9 9 9 0 0 0 0 0 0 0 0 0 0 0 0 0 0 0 0 0 0 0 0 0 2:0.58108108 3:0.57983193 4:-0.68141593 5:0.12944927 6:0.043039677 7:0.044107966 8:-0.28450424 
0 0 9 9 0 0 0 0 0 0 0 0 0 0 0 0 0 0 0 0 0 0 0 0 0 1:-1 2:0.41891892 3:0.41176471 4:-0.69911504 5:-0.19992917 6:-0.31809011 7:-0.28505596 8:-0.38714499 
9 0 9 9 0 0 9 0 0 9 0 0 0 0 0 0 0 0 0 0 0 0 0 0 0 1:-1 2:0.013513514 3:-0.0084033613 4:-0.82300885 5:-0.74110147 6:-0.80430397 7:-0.73403555 8:-0.76382661 
9 9 9 0 0 0 6.1437019976693543 0 0 9 0 0.19552593718373013 0 3.366970881843403 0 0 9 0 0 0 1.7235427271171704 0 0 0 0 1:-1 2:0.10810811 3:0.025210084 4:-0.7699115 5:-0.61785019 6:-0.65232011 7:-0.74851876 8:-0.68410563 
9 0 9 9 0 0 0 0 0 9 0 0 0 0 0 0 0 0 0 0 0 0 0 0 0 1:1 2:0.33783784 3:0.2605042 4:-0.74336283 5:-0.41136887 6:-0.52521856 7:-0.62211982 8:-0.44195316 
0 9 9 9 0 0 0 0 0 0 0 0 0 0 0 0 0 0 0 0 0 0 0 0 0 2:0.62162162 3:0.52941176 4:-0.65486726 5:-0.022489818 6:-0.18829859 7:-0.16524029 8:-0.21275536 
9 0 9 0 0 0 0 0 0 0 0 0 0 0 0 0 0 0 0 0 0 0 0 0 0 1:-1 2:0.33783784 3:0.32773109 4:-0.72566372 5:-0.15494953 6:-0.24478816 7:-0.32587228 8:-0.41504733 
0 1.8256350476691712 9 9 0 0 0 0 0 0 0 0 0 0 0 0 0 0 0 0 0 0 0 0 0 2:0.47297297 3:0.42857143 4:-0.7079646 5:-0.28422171 6:-0.28513786 7:0.14812377 8:-0.35724963 
9 0 9 0 0 0 0.052585641275419946 0 0 9 0 0 0 0.14925469777460734 9 0 0 0 0 0 0 0 0 0 0 1:-1 2:-0.013513514 3:0.042016807 4:-0.77876106 5:-0.63591287 6:-0.71149966 7:-0.70111916 8:-0.69407075 
9 0 9 9 0 0 0 0 0 0 0 0 0 0 0 0 0 0 0 0 0 0 0 0 0 1:-1 2:0.48648649 3:0.49579832 4:-0.75221239 5:-0.22507526 6:-0.26899798 7:-0.43120474 8:-0.41504733 
0 0 9 9 0 0 0 0 0 0 0 0 0 0 0 0 0 0 0 0 0 0 0 0 0 1:-1 2:0.45945946 3:0.41176471 4:-0.69911504 5:-0.20170002 6:-0.35642233 7:-0.20605662 8:-0.40508221 
0 9 0 9 0 0 0 0 9 0 0 0 0 0 8.0802044339276957 0 0 0 0 0 0 0 0 0 0 1:-1 2:0.60810811 3:0.49579832 4:-0.66371681 5:0.07455286 6:-0.1728312 7:0.020408163 8:-0.1758844 
0 9 9 9 0 0 0 0 0 0 0 0 0 0 0 0 0 0 0 0 0 0 0 0 0 2:0.48648649 3:0.42857143 4:-0.69911504 5:-0.043385869 6:-0.16274378 7:-0.26925609 8:-0.27553563 
0 9 9 9 0 0 0 0 0.75810829603112206 0 0 0 0 0 0 0 0 0 0 0 0 0 0 0 0 1:-1 2:0.48648649 3:0.51260504 4:-0.67256637 5:-0.18222065 6:-0.30195024 7:-0.36800527 8:-0.29845541 
0 9 0 9 0 0 0 0 0 0 0 0 0 0 0 0 0 0 0 0 0 0 0 0 6.2439856497673842 2:0.7027027 3:0.73109244 4:-0.67256637 5:0.24597131 6:0.0033624748 7:-0.020408163 8:-0.030393622 
0 9 0 9 0 0 0 0 0 0 0 0 0 0 0 0 0 0 0 0 0 0 0 0 0 2:0.67567568 3:0.66386555 4:-0.67256637 5:0.18788737 6:0.08137189 7:0.055957867 8:-0.21275536 
9 9 9 9 9 0 9 0 0 9 0 0 0 0 0 0 0 0 0 0 0 0 0 0 0 2:-0.17567568 3:-0.21008403 4:-0.81415929 5:-0.81937312 6:-0.86819099 7:-0.86701777 8:-0.83358246 
9 0 9 9 0 0 0 0 0 0 0 0 0 0 0 0 4.5499319784813723 0 0 0 0 0 0 0 0 1:1 2:0.43243243 3:0.42857143 4:-0.72566372 5:-0.29343014 6:-0.42972428 7:-0.47860434 8:-0.40508221 
9 0 9 9 0 0 0 0 0 0 0 0 0 0 0 0 0 0 0 0 0 0 0 0 0 1:-1 2:0.39189189 3:0.41176471 4:-0.75221239 5:-0.30936781 6:-0.37928716 7:-0.4680711 8:-0.45490782 
9 9 9 0 0 0 0 0 0 9 0 0 0 0 0 0 0 0 0 0 0 0 0 0 0 2:0.14864865 3:0.15966387 4:-0.77876106 5:-0.59305826 6:-0.67921991 7:-0.66951942 8:-0.63428002 
0 1.683053109783258 9 9 0 0 0 0 0.1074014872287376 0 0 0 0 0 0 0 0 0 0 0 0 0 0 0 0 1:-1 2:0.48648649 3:0.42857143 4:-0.74336283 5:-0.23286701 6:-0.37659718 7:-0.35747202 8:-0.35127055 
9 0 9 9 0 0 0 0 0 0 0 0 0 0 0 0 0 0 0 0 0 0 0 0 0 1:-1 2:0.48648649 3:0.54621849 4:-0.7079646 5:-0.13936604 6:-0.10423672 7:-0.45753785 8:-0.38216243 
9 0 9 0 0 0 9 0 0 9 0 0 0 0 0 0 0 0 0 0 0 0 0 0 0 1:1 2:0.081081081 3:0.042016807 4:-0.78761062 5:-0.6259961 6:-0.66442502 7:-0.7445688 8:-0.67912307 
9 0 9 0 0 0 0 0 0 9 0 0 0 0 0 0 1.129843636747822 0 0 0 0 0 0 0 0 1:-1 2:0.054054054 3:0.17647059 4:-0.76106195 5:-0.45068178 6:-0.41492939 7:-0.54970375 8:-0.71300448 
0 9 0 9 0 0 0 0 9 0 0 0 7.4701823846944979 9 9 9 0 0 0 0 0 0 0 0 0 1:-1 2:0.55405405 3:0.57983193 4:-0.67256637 5:0.14751195 6:-0.10759919 7:-0.15207373 8:-0.052316891 
9 0 9 0 0 0 0 0 0 9 0 0 0 0 0 0 0 0 0 0 0 0 0 0 0 1:-1 2:0.081081081 3:0.075630252 4:-0.77876106 5:-0.58137064 6:-0.62878278 7:-0.69848585 8:-0.64424514 
0 9 0 9 0 0 0 0 9 0 0 0 0 0 9 0 0 0 0 0 0 0 0 0 0 2:0.59459459 3:0.59663866 4:-0.68141593 5:0.05471932 6:-0.14794889 7:-0.10072416 8:-0.13602392 
0 0 9 9 0 0 0 0 0 0 0 0 0 0 0 0 0 0 0 0 0 0 0 0 0 2:0.5 3:0.44537815 4:-0.67256637 5:-0.17478307 6:-0.26429052 7:-0.34693878 8:-0.32536124 
0 9 0 9 0 0 0 9 9 0 0 1.6343922191105018 9 9 9 9 9 9 0 0 0 0 2.4034029714795064 0 0 1:-1 2:0.5 3:0.4789916 4:-0.68141593 5:-0.073490349 6:-0.33557498 7:-0.2244898 8:-0.067264574 
9 0 9 8.7211933920450377 0 0 0 0 0 0 0 0 0 0 0 0 0 0 0 0 0 0 0 0 0 1:-1 2:0.25675676 3:0.34453782 4:-0.75221239 5:-0.31290951 6:-0.43779422 7:-0.32982225 8:-0.46686597 
9 0 9 0 0 0 0 0 0 0 0 0 0 0 0 0 0 0 0 0 0 0 0 0 0 2:0.35135135 3:0.32773109 4:-0.71681416 5:-0.2449088 6:-0.2535306 7:-0.43778802 8:-0.48978575 
0 9 9 9 0 0 0 8.868058938647648 9 0 0 9 9 9 9 9 9 9 9 0 0 0 0 0 0 2:0.44594595 3:0.41176471 4:-0.71681416 5:-0.21126262 6:-0.48554136 7:-0.41408822 8:-0.24763328 
0 9 9 9 0 0 0 0 0 0 0 0 0 0 0 0 0 0 0 0 0 0 0 0 0 1:-1 2:0.54054054 3:0.52941176 4:-0.65486726 5:-0.13299097 6:-0.20981843 7:-0.41803818 8:-0.25660189 
9 0 9 9 0 0 0 0 0 0 0 0 0 0 0 0 0 0 0 0 0 0 0 0 0 1:-1 2:0.44594595 3:0.42857143 4:-0.67256637 5:-0.075969541 6:-0.073974445 7:-0.23370639 8:-0.42501246 
9 0 9 0 0 0 0 0 0 1.2274941005704432 0 0 0 0 0 0 0 0 0 0 0 0 0 0 0 1:-1 2:0.35135135 3:0.27731092 4:-0.76106195 5:-0.2987427 6:-0.42030935 7:-0.41540487 8:-0.5266567 
9 0 9 9 0 0 9 0 4.7289704742565979 9 0 0 0 0 0 1.8633993290404818 0 0 0 0 0 0 0 0 0 2:-0.081081081 3:-0.15966387 4:-0.81415929 5:-0.74605985 6:-0.8399462 7:-0.78538512 8:-0.8036871 
9 0 9 0 0 0 0 0 0 0 0 0 0 0 0 0 0 0 0 0 0 0 0 0 0 1:-1 2:0.35135135 3:0.36134454 4:-0.72566372 5:-0.36957677 6:-0.40753194 7:-0.53785385 8:-0.56452417 
0 0 9 9 0 0 0 0 0 0 0 0 0 0 0 0 0 0 0 0 0 0 0 0 0 2:0.45945946 3:0.44537815 4:-0.71681416 5:-0.18151231 6:-0.32817754 7:-0.34430546 8:-0.37518685 
9 0 9 0 0 0 0 0 0 9 0 0 0 0 0 0 0 0 0 0 0 0 0 0 0 2:0.16216216 3:0.075630252 4:-0.79646018 5:-0.58384983 6:-0.64694015 7:-0.68531929 8:-0.67015446 
9 4.3622905980432201 9 0 0 0 4.4257559137365261 0 0 9 0 0 0 1.2762533917227283 0 9 2.1253348485023027 0 0 0 0 0 0 0 0 2:0.027027027 3:-0.0084033613 4:-0.75221239 5:-0.63414202 6:-0.70410222 7:-0.66820276 8:-0.73393124 
9 0 9 9 9 9 9 0 9 9 8.2119802168985245 0 0 0 2.3884019264801073 0 0 0 0 0 0 9 1.113583249803304 6.2251532719769624 0 1:1 2:-0.22972973 3:-0.2605042 4:-0.80530973 5:-0.83601913 6:-0.87357095 7:-0.86306781 8:-0.83358246 
0 0 9 9 0 0 0 0 0 0 0 0 0 0 0 0 0 0 0 0 0 0 0 0 0 2:0.5 3:0.46218487 4:-0.60176991 5:-0.05507349 6:-0.086079354 7:-0.31928901 8:-0.35625311 
9 0 9 0 0 0 0 0 0 0 0 0 0 0 0 0 0 0 0 0 0 0 0 0 0 1:-1 2:0.36486486 3:0.34453782 4:-0.73451327 5:-0.28457588 6:-0.33086752 7:-0.4443713 8:-0.43796712 
0 9 9 9 0 0 0 0 9 0 0 4.1735314455841355 9 1.0166958081372175 0 0 0 0 3.0178827156344386 0 0 0 0 0 0.30322943989690887 2:0.60810811 3:0.78151261 4:-0.71681416 5:-0.07419869 6:-0.26899798 7:-0.22580645 8:-0.17987045 
9 0 9 0 0 0 0 0 0 0 0 0 0 0 0 0 0 0 0 0 0 0 0 0 0 1:-1 2:0.40540541 3:0.34453782 4:-0.73451327 5:-0.37382681 6:-0.42098184 7:-0.47202107 8:-0.55854509 
9 9 9 9 0 0 0 0 9 0 0 0 9 9 9 8.0318828844961416 0 0 0 0 0 0 0 0 0 1:-1 2:0.2972973 3:0.32773109 4:-0.69026549 5:-0.3823269 6:-0.56086079 7:-0.46938776 8:-0.39511709 
5.3719876950556191 0 9 9 0 0 0 0 0 0 0 0 0 0 0 0 0 0 0 0 0 0 0 0 0 2:0.35135135 3:0.39495798 4:-0.72566372 5:-0.21090845 6:-0.31674512 7:-0.37458855 8:-0.32536124 
9 0 9 0 0 0 0 0 0 9 0 0 0 0 0 0 0 0 0 0 0 0 0 0 0 1:-1 2:0.081081081 3:0.075630252 4:-0.78761062 5:-0.60262086 6:-0.66173504 7:-0.68400263 8:-0.63428002 
0 9 9 9 0 0 0 0 9 0 0 0 0 9 0 0 0 0 0 0 0 0 0 0 0 1:-1 2:0.44594595 3:0.46218487 4:-0.71681416 5:-0.21374181 6:-0.37592468 7:-0.40092166 8:-0.32336821 
9 0 9 0 0 0 0 0 9 0 0 0 0 0 0 0 0 0 0 0 0 0 0 0 0 1:-1 2:0.22972973 3:0.17647059 4:-0.73451327 5:-0.41243138 6:-0.52790854 7:-0.50888743 8:-0.49975087 
9 9 9 9 0 0 0 0 9 0 0 0 4.0131230728222169 6.9182976765499049 9 0 0 0 0 0 0 0 0 0 0 2:0.28378378 3:0.32773109 4:-0.74336283 5:-0.47653621 6:-0.60457297 7:-0.62343647 8:-0.47184853 
9 0 9 9 0 0 0 0 0 0 0 0 0 0 0 0 0 0 0 0 0 0 0 0 0 2:0.41891892 3:0.42857143 4:-0.69911504 5:-0.25340889 6:-0.3860121 7:-0.36010533 8:-0.37817638 
9 9 9 9 0 0 0 0 9 9 0 0.91766419324664594 0 9 9 0 0 0 0 0 0 0 0 0 0 1:-1 2:0.067567568 3:0.025210084 4:-0.76106195 5:-0.64653798 6:-0.77740417 7:-0.69848585 8:-0.67414051 
0 0 9 9 0 0 0 0 0 0 0 0 0 0 0 0 0 0 0 0 0 0 0 0 0 1:-1 2:0.58108108 3:0.51260504 4:-0.7079646 5:-0.028156543 6:-0.20914593 7:-0.077024358 8:-0.31539611 
0 0 9 9 0 0 0 0 0 0 0 0 0 0 0 0 0 0 0 0 0 0 0 0 0 1:-1 2:0.41891892 3:0.32773109 4:-0.65486726 5:-0.052240128 6:-0.17148621 7:-0.1441738 8:-0.28450424 
9 6.1827896591744649 9 9 9 0 9 0 9 9 0 0.037455724061127682 0 0 0 0 0 0 0 0 0 0 0 0 0 1:1 2:0.067567568 3:0.075630252 4:-0.81415929 5:-0.68903843 6:-0.77673167 7:-0.77353522 8:-0.714001 
9 0 9 0 0 0 0 0 0 0 0 0 0 0 0 0 0 0 0 0 0 0 0 0 0 1:-1 2:0.40540541 3:0.36134454 4:-0.69911504 5:-0.20134585 6:-0.23470074 7:-0.3285056 8:-0.47483807 
9 0 9 0 0 0 0 0 0 0 0 0 7.2366563771657662 0 1.3555233669015516 0.83459689152742655 0 0 0 0 0 0 0 0 0 2:0.28378378 3:0.092436975 4:-0.7079646 5:-0.14786612 6:-0.27101547 7:-0.22712311 8:-0.33632287 
9 0 9 9 0 0 0 0 0 0 0 0 0 0 0 0 0 0 0 0 0 0 0 0 0 2:0.32432432 3:0.31092437 4:-0.72566372 5:-0.41632725 6:-0.54270343 7:-0.46017117 8:-0.50971599 
9 0 9 0 0 0 0 0 0 0 0 0 0 0 0 0 0 0 0 0 0 0 0 0 0 1:-1 2:0.43243243 3:0.41176471 4:-0.66371681 5:-0.20417921 6:-0.20780094 7:-0.35088874 8:-0.48480319 
9 0 9 9 0 0 0 0 0 0 0 0 0 0 0 0 0 0 0 0 0 0 0 0 0 2:0.41891892 3:0.41176471 4:-0.72566372 5:-0.14432442 6:-0.12306658 7:-0.55497038 8:-0.36422521 
0 0 9 9 0 0 0 0 0 0 0 0 0 0 0 0 0 0 0 0 0 0 0 0 0 1:-1 2:0.52702703 3:0.54621849 4:-0.7079646 5:-0.031698247 6:-0.15131137 7:-0.10204082 8:-0.2894868 
9 0 9 8.413328665430031 9 0 9 0 9 9 0 0 0 0 0 0 0 0 0 0 0 0 0 0 0 1:1 2:-0.10810811 3:-0.15966387 4:-0.81415929 5:-0.74464317 6:-0.79085407 7:-0.8156682 8:-0.75386148 
0 9 9 9 0 0 0 0 9 0 0 0 0 9 9 0 0 0 0 0 0 0 0 0 0 2:0.5 3:0.49579832 4:-0.67256637 5:-0.021781477 6:-0.27505044 7:-0.12837393 8:-0.24564026 
9 9 9 9 0 0 0 0 9 0 0 2.1828221793565956 9 9 9 9 7.1950611615047046 0 0 0 0 0 0 0 0 2:0.24324324 3:0.21008403 4:-0.69911504 5:-0.3787852 6:-0.60457297 7:-0.48387097 8:-0.43497758 
0 9 9 9 0 0 0 0 9 0 0 0 0 0.016755313414833703 0 0 0 0 0 0 0 0 0 0 0 1:-1 2:0.51351351 3:0.44537815 4:-0.68141593 5:-0.16592881 6:-0.35776732 7:-0.27057275 8:-0.29546587 
9 0 9 0 0 0 0 0 9 9 0 0 0 3.8677316955836156 9 9 0 0 0 0 0 0 0 0 0 2:0.027027027 3:-0.0084033613 4:-0.75221239 5:-0.59589162 6:-0.73705447 7:-0.6524029 8:-0.65421026 
9 8.4657749739701433 9 9 0 0 0 0 0 0 0 0 0 0 0 0 0 0 0 0 0 0 0 0 0 1:1 2:0.55405405 3:0.56302521 4:-0.73451327 5:-0.12449088 6:-0.26227303 7:-0.22185648 8:-0.34429497 
0 9 9 9 0 0 0 0 9 0 0 0 0 9 9 0 0 0 0 0 0 0 0 0 0 1:-1 2:0.36486486 3:0.39495798 4:-0.7079646 5:-0.29484682 6:-0.47209146 7:-0.3640553 8:-0.34529148 
9 0 9 0 0 0 0 0 0 0 0 0 0 0 0 0 0 0 0 0 0 0 0 0 0 2:0.27027027 3:0.29411765 4:-0.76106195 5:-0.35080574 6:-0.42434432 7:-0.47070441 8:-0.52964624 
0 9 9 9 0 0 0 0 9 0 0 0.022699050679119773 9 9 9 0 0 0 8.2002786027781838 0 0 0 0 0 0 2:0.55405405 3:0.52941176 4:-0.67256637 5:-0.027448203 6:-0.28715535 7:0.0098749177 8:-0.20876931 
9 9 9 9 0 0 0 0 0 9 0 0 0 0 0 0 0.25167974512376101 0 0 0 0 0 0 0 0 1:-1 2:0.16216216 3:0.1092437 4:-0.79646018 5:-0.65964229 6:-0.71889711 7:-0.72876893 8:-0.69706029 
0 9 9 9 0 0 0 0 0 0 0 0 9 0 0 0 0 0 0 0 0 0 0 0 0 2:0.45945946 3:0.41176471 4:-0.72566372 5:-0.21161679 6:-0.35036987 7:-0.4443713 8:-0.29546587 
0 9 9 9 0 0 0 0 6.9046665404534853 0 0 0 9 0 0 0 0 0 0 0 0 0 0 0 0 2:0.54054054 3:0.54621849 4:-0.73451327 5:-0.14290774 6:-0.30867518 7:-0.46017117 8:-0.23567514 
9 0 9 9 0 0 0 0 0 0 0 0 0 0 0 0 0 0 0 0 0 0 0 0 0 1:-1 2:0.43243243 3:0.42857143 4:-0.69911504 5:-0.16309545 6:-0.21856086 7:-0.37853851 8:-0.3712008 
9 0 9 0 0 0 0 0 0 0 0 0 0 0 0 0 0 0 0 0 0 0 0 0 0 2:0.14864865 3:0.14285714 4:-0.75221239 5:-0.4945989 6:-0.57565568 7:-0.53785385 8:-0.52466368 
0 9 0 9 0 0 0 0 9 0 0 0 0 0 0 0 0 0 0 0 0 0 0 0 0 1:-1 2:0.63513514 3:0.56302521 4:-0.65486726 5:0.028156543 6:-0.20511096 7:0.028308097 8:-0.18086697 
0 9 0 9 0 0 0 0 0 0 0 0 0 0 0 0 0 0 0 0 0 0 0 0 0 1:-1 2:0.7972973 3:0.73109244 4:-0.68141593 5:0.3249513 6:0.22461332 7:0.12310731 8:-0.11410065 
9 9 9 0 0 0 0 0 0 9 0 0 0 0 0 0 0 0 0 0 0 0 0 0 0 2:0.067567568 3:0.025210084 4:-0.78761062 5:-0.66318399 6:-0.71822461 7:-0.7235023 8:-0.70403587 
0 0 9 9 0 0 0 0 0 0 0 0 0 0 0 0 0 0 0 0 0 0 0 0 0 2:0.47297297 3:0.44537815 4:-0.69026549 5:-0.14042855 6:-0.26832549 7:-0.33508887 8:-0.31539611 
9 0 9 8.9257497721654673 0 0 0 0 0 0 0 0 0 0 0 0 0 0 0 0 0 0 0 0 0 1:-1 2:0.41891892 3:0.39495798 4:-0.71681416 5:-0.15565787 6:-0.24478816 7:-0.19947334 8:-0.4778276 
0 9 9 9 0 0 0 0 0 0 0 0 0 0 0 0 0 0 0 0 0 0 0 0 0 2:0.45945946 3:0.49579832 4:-0.7079646 5:-0.061448557 6:-0.19435104 7:-0.20737327 8:-0.29546587 
9 0 9 9 0 0 0 0 0 9 0 0 0 0 0 0 3.5537482498646464 0 0 0 0 0 0 0 0 1:1 2:0.32432432 3:0.36134454 4:-0.72566372 5:-0.38409775 6:-0.49630128 7:-0.43515471 8:-0.50473343 
9 9 9 9 0 0 0 0 0 0 0 0 0 0 0 0 0 0 0 0 0 0 0 0 0 1:-1 2:0.39189189 3:0.34453782 4:-0.72566372 5:-0.37418098 6:-0.4794889 7:-0.50625411 8:-0.45490782 
9 0 9 0 0 0 0 0 0 0 0 0 0 0 0 0 0 0 0 0 0 0 0 0 0 1:-1 2:0.40540541 3:0.32773109 4:-0.74336283 5:-0.32211794 6:-0.37861466 7:-0.45753785 8:-0.49775785 
9 9 9 9 0 0 0 0 4.4106749798882472 9 0 0 0 0 1.5391032456202745 0 0 0 0 0 0 0 0 0 0 1:-1 2:0.040540541 3:0.042016807 4:-0.77876106 5:-0.67062157 6:-0.7464694 7:-0.75246873 8:-0.68809168 
9 0 9 0 0 0 0 0 0 0 0 0 0 0 0 0 0 0 0 0 0 0 0 0 0 1:-1 2:0.37837838 3:0.41176471 4:-0.73451327 5:-0.24703382 6:-0.28648285 7:-0.47728769 8:-0.42800199 
0 0 9 9 0 0 0 0 0 0 0 0 0 0 0 0 0 0 0 0 0 0 0 0 0 1:-1 2:0.51351351 3:0.57983193 4:-0.67256637 5:-0.0051354702 6:-0.08137189 7:-0.21132324 8:-0.25660189 
9 0 9 9 9 9 9 0 9 9 0 0 0 0 0 0 0 0 0 0 0 0 0 0 0 1:1 2:-0.2027027 3:-0.21008403 4:-0.82300885 5:-0.8243315 6:-0.86348352 7:-0.86833443 8:-0.83358246 
9 9 9 0 0 0 0 0 0 0 0 0 0 0 0 0 0 0 0 0 0 0 0 0 0 2:0.21621622 3:0.21008403 4:-0.73451327 5:-0.50168231 6:-0.55884331 7:-0.61421988 8:-0.60637768 
9 0 9 0 0 0 9 0 0 9 0 0 0 0 0 0 0 0 0 0 0 0 0 0 0 1:-1 3:0.0084033613 4:-0.80530973 5:-0.68868426 6:-0.75857431 7:-0.72876893 8:-0.70303936 
0 9 0 9 0 0 0 0 7.1339431595205269 0 0 0 0 0 0 0 0 0 0.16844601066597628 0 0 0 0 0 0.05197769170041084 1:-1 2:0.72972973 3:0.71428571 4:-0.69026549 5:0.38161856 6:0.026899798 7:0.10072416 8:-0.17887394 
9 0 9 0 0 0 0 0 0 0 0 0 0 0 0 0 0 0 0 0 0 0 0 0 0 1:-1 2:0.47297297 3:0.39495798 4:-0.74336283 5:-0.2318045 6:-0.31405514 7:-0.28637261 8:-0.49177877 
9 0 9 0 0 0 0 0 9 0 0 0 0 9 9 0 0 0 0 0 0 0 0 0 0 1:-1 2:0.28378378 3:0.32773109 4:-0.73451327 5:-0.28280503 6:-0.4539341 7:-0.47070441 8:-0.42999502 
9 0 9 0 0 0 0 0 0 9 0 0.24805198171787687 0 0 0 0 0 0 0 0 0 0 0 0 0 1:-1 2:0.52702703 3:0.54621849 4:-0.85840708 5:-0.26332566 6:-0.30867518 7:-0.53917051 8:-0.65421026 
9 0 9 9 0 0 0 2.1857051662263665 1.1486797413224124 0 0 0 0 2.3359209315396412 0 0 0 0 0 0 0 0 0 0 0 1:1 2:0.39189189 3:0.32773109 4:-0.74336283 5:-0.27749247 6:-0.42568931 7:-0.2955892 8:-0.47483807 
0 9 0 9 0 0 0 0 9 0 0 0 0 0 1.8543897679777797 0 0 0 0 0 0 0 0 0 0 1:-1 2:0.41891892 3:0.46218487 4:-0.62831858 5:0.40641048 6:0.35036987 7:0.10204082 8:-0.024414549 
0 9 0 9 0 0 0 0 9 0 0 0 9 9 9 9 7.631332993979929 9 0 0 0 0 0 0 0 1:-1 2:0.58108108 3:0.59663866 4:-0.65486726 5:0.096865592 6:-0.12642905 7:-0.13364055 8:-0.016442451 
9 0 9 9 0 0 0 0 0 0 0 0 0 0 0 0 0 0 0 0 0 0 0 0 0 1:-1 2:0.44594595 3:0.41176471 4:-0.72566372 5:-0.17407473 6:-0.25622058 7:-0.37195523 8:-0.34628799 
0 9 0 9 0 0 0 0 0 0 0 1.4099947415448071 9 0 9 9 8.95856830921662 9 7.8950395965500659 0 1.7365653626018958 0 0.59645368006096944 0 0 2:0.7027027 3:0.69747899 4:-0.63716814 5:0.68514255 6:0.33221251 7:0.31665569 8:0.2406577 
9 1.4045105102383135 9 0 0 0 0 0 0 9 0 0 0 0 0 0 0 0 0 0 0 0 0 0 0 1:-1 2:0.18918919 3:0.17647059 4:-0.7699115 5:-0.48999469 6:-0.57094822 7:-0.65635286 8:-0.58445441 
9 0 9 9 0 0 0 0 0 0 0 0 0 0 0 0 0 0 0 0 0 0 0 0 0 1:-1 2:0.5 3:0.46218487 4:-0.7079646 5:-0.15105366 6:-0.22797579 7:-0.28242265 8:-0.41704036 
0 0 9 9 0 0 0 0 0 0 0 0 0 0 0 0 0 0 0 0 0 0 0 0 0 2:0.59459459 3:0.52941176 4:-0.69026549 5:-0.023552329 6:-0.093476799 7:-0.21527321 8:-0.3552566 
9 0 9 9 0 0 0 0 0 0 0 0 0 0 0 0 0 0 0 0 0 0 0 0 0 2:0.47297297 3:0.42857143 4:-0.69911504 5:-0.21905437 6:-0.28177539 7:-0.34298881 8:-0.43099153 
0 0 9 9 0 0 0 0 0 0 0 0 0 0 0 0 0 0 0 0 0 0 0 0 0 2:0.56756757 3:0.51260504 4:-0.69026549 5:-0.087302993 6:-0.16677875 7:-0.22053983 8:-0.35326358 
9 9 9 9 0 0 9 0 9 9 0 0 0 0 0.099117998894849957 0 0 0 0 0 0 0 0 0 0 1:-1 2:-0.013513514 3:-0.042016807 4:-0.81415929 5:-0.71666372 6:-0.82582381 7:-0.74983542 8:-0.67414051 
9 9 9 9 9 9 9 5.4042701591945885 0 9 0 3.8365323494491408 0 9 0 0 0 2.4009201973518803 0.24081411477544942 0 0 0 0 0 0 1:1 2:-0.13513514 3:-0.19327731 4:-0.82300885 5:-0.80910218 6:-0.82111634 7:-0.91573404 8:-0.83358246 
0 9 9 9 0 0 0 0 9 0 0 0 0 0.34669068527189573 9 0 0 0 3.0720961434610636 0 0 0 0 0 0 2:0.59459459 3:0.49579832 4:-0.73451327 5:-0.11776164 6:-0.37928716 7:-0.22317314 8:-0.28649726 
0 9 0 9 0 0 0 0 0 0 0 0 0 0 0 0 0 0 0 0 0 0 0 0 0 2:0.7027027 3:0.61344538 4:-0.61061947 5:0.32034709 6:0.24815064 7:0.008558262 8:-0.12705531 
0 9 9 9 0 0 0 0 0 0 0 0 0 0 0 0 0 0 0 0 0 0 0 0 0 2:0.58108108 3:0.59663866 4:-0.68141593 5:0.073490349 6:0.043039677 7:-0.20605662 8:-0.20378675 
9 9 9 0 0 0 9 0.67358600305958549 0 9 0 0 0 0.020046640355743696 0 0 0 0 0 0 0 0 0 0 0 1:1 2:0.2027027 3:0.1092437 4:-0.79646018 5:-0.58987073 6:-0.65770007 7:-0.59052008 8:-0.71798705 
0 9 0 9 0 0 0 0 6.4099134757042666 0 0 0 0 0 0 0 0 0 0 0 0 0 0 0 0 1:-1 2:0.66216216 3:0.51260504 4:-0.6460177 5:0.32459713 6:0.199731 7:0.055957867 8:-0.046337818 
9 9 9 9 0 0 9 0 9 9 0 0 6.2691421524373929 0 9 0.5656545961659466 0 2.8599146335363734 0 0 0 0 0 0 0 1:-1 2:-0.22972973 3:-0.19327731 4:-0.7699115 5:-0.80556047 6:-0.88096839 7:-0.85121791 8:-0.80269058 
9 0 9 0 0 0 0 0 9 0 0 0.34991845702387775 0 9 9 0 0 0 0 0 0 0 0 0 0 1:-1 2:0.25675676 3:0.21008403 4:-0.69911504 5:-0.3787852 6:-0.54539341 7:-0.45358789 8:-0.49476831 
9 0 9 9 0 0 0 0 0 0 0 0.63377913392438645 0 0 0 0 0 0 0 0 0 0 0 0 0 1:-1 2:0.40540541 3:0.37815126 4:-0.77876106 5:-0.43545245 6:-0.56489576 7:-0.47465438 8:-0.54459392 
9 0.36648649879698819 9 9 0 0 0 0 9 0 0 0 0 9 9 0 0 0 0 0 0 0 0 0 0 1:-1 2:0.31081081 3:0.29411765 4:-0.71681416 5:-0.38905614 6:-0.55682582 7:-0.45490454 8:-0.48480319 
9 0 9 0 0 0 0 0 0 0 0 0 0 0 0 0 0 0 0 0 0 0 0 0 0 2:0.24324324 3:0.15966387 4:-0.73451327 5:-0.13440765 6:-0.17014122 7:-0.27715602 8:-0.42999502 
0 9 9 9 0 0 0 0 9 0 0 0 0 0 0 0 0 0 0 0 0 0 0 0 0 1:-1 2:0.5 3:0.49579832 4:-0.67256637 5:-0.036656632 6:-0.22326833 7:-0.17840685 8:-0.23766816 
0 0 9 9 0 0 0 0 0 0 0 0 0 0 0 0 0 0 0 0 0 0 0 0 0 2:0.51351351 3:0.51260504 4:-0.74336283 5:-0.19780414 6:-0.32212508 7:-0.30217248 8:-0.37518685 
9 0 9 9 0 0 0 0 0 0 0 0 0 0.049045438028659197 6.7347230924318842 0 0 0 0 0 0 0 0 0 0 1:1 2:0.47297297 3:0.32773109 4:-0.76106195 5:-0.34690986 6:-0.5198386 7:-0.40487163 8:-0.4120578 
0 9 0 9 0 0 0 9 9 0 0 2.833160862091237 9 9 9 9 9 9 2.7427807667026904 3.5985106045337614 9 0 0 0 0 1:-1 2:0.5 3:0.57983193 4:-0.65486726 5:-0.071011156 6:-0.33759247 7:-0.32587228 8:-0.076233184 
9 0 9 0 0 0 0 0 9 0 0 0 9 9 9 0 0 0 0 0 0 0 0 0 0 2:0.2027027 3:0.21008403 4:-0.74336283 5:-0.43155658 6:-0.55413584 7:-0.54707044 8:-0.43497758 
9 9 9 9 0 0 9 0 0 9 0 0 0 0 9 8.7866278037837926 0 0 0 0 0 0 0 0 0 2:-0.081081081 3:-0.042016807 4:-0.7699115 5:-0.74110147 6:-0.80497646 7:-0.7682686 8:-0.76382661 
0 1.1034929354354011 9 9 0 0 0 0 0 0 0 0 0 0 0 0 0 0 0 0 0 0 0 0 0 2:0.58108108 3:0.54621849 4:-0.69911504 5:-0.05436515 6:-0.17417619 7:-0.17840685 8:-0.29048331 
9 0 9 9 0 0 0 0 6.9138624857896627 0 0 0 0 0 0 0 0 0 0 0 0 0 0 0 0 1:-1 2:0.33783784 3:0.32773109 4:-0.74336283 5:-0.32849301 6:-0.46267653 7:-0.41277156 8:-0.43597409 
0 9 0 9 0 0 0 0 0 0 0 0 0 0 0 0 0 0 0 0 0 0 0 0 0 1:-1 2:0.7027027 3:0.69747899 4:-0.7079646 5:0.18505401 6:0.07061197 7:0.077024358 8:-0.22969606 
9 9 9 9 0 0 0 0 9 0 0 4.4805290858348119 9 9 9 0.27001207797655596 0 0 1.2846788406484058 0 9 0 0 0 0 2:0.27027027 3:0.21008403 4:-0.71681416 5:-0.45493182 6:-0.63550773 7:-0.61816985 8:-0.45191829 
0 9 0 9 0 0 0 0.76891299665423762 9 0 0 9 9 9 9 9 9 9 0.89761983980073079 0 1.061221386054781 0 0 0 0 1:-1 2:0.58108108 3:0.4789916 4:-0.65486726 5:0.15140783 6:-0.20242098 7:-0.054641211 8:-0.036372696 
9 0 9 9 0 0 0 0 0 0 0 0 0 0 0 0 0 0 0 0 0 0 0 0 0 1:1 2:0.39189189 3:0.41176471 4:-0.74336283 5:-0.31113866 6:-0.37256221 7:-0.4562212 8:-0.48679621 
9 9 9 0 0 0 0 0 9 9 0 6.3234141330328058 0 0 0 0 0 0 0.74312992418557222 0 0 0 0 0 0 2:0.067567568 3:0.0084033613 4:-0.82300885 5:-0.66460067 6:-0.77605918 7:-0.78933509 8:-0.63428002 
0 9 9 9 0 0 0 0 0 0 0 0 0 0 0 0 0 0 0 0 0 0 0 0 0 1:-1 2:0.55405405 3:0.54621849 4:-0.69026549 5:0.037010802 6:-0.090786819 7:-0.19947334 8:-0.20577977 
9 0 9 0 0 0 0 0 0 0 0 0 0 0 0 0 0 0 0 0 0 0 0 0 0 1:-1 2:0.28378378 3:0.29411765 4:-0.76106195 5:-0.3787852 6:-0.5063887 7:-0.44963792 8:-0.47483807 
9 0 9 0 0 0 2.8735717048554941 0 0 9 0 0 0 0 0 0 0 0 0 0 0 0 0 0 0 1:1 2:0.28378378 3:0.27731092 4:-0.75221239 5:-0.46768196 6:-0.5595158 7:-0.59183673 8:-0.53961136 
0 9 9 9 0 0 0 0 8.6908592608990567 0 0 0 0 0 0 0 0 0 0 0 0 0 0 0 0 1:-1 2:0.64864865 3:0.61344538 4:-0.72566372 5:-0.020718966 6:-0.11163416 7:-0.43647136 8:-0.19083209 
9 0 9 9 0 0 0 0 0 9 0 0 0 0 0 0 0 0 0 0 0 0 0 0 0 1:1 2:0.35135135 3:0.32773109 4:-0.76106195 5:-0.42978573 6:-0.51513114 7:-0.53785385 8:-0.49676134 
9 0 9 9 9 1.8930847719226105 9 0 0 9 0 0 0 0 0 0 0 0 1.043614914537718 0 0 0 0 0 0 2:-0.22972973 3:-0.29411765 4:-0.84070796 5:-0.84806092 6:-0.87222596 7:-0.90388413 8:-0.85650224 
9 9 9 9 0 0 0 0 9 9 0 0 0 5.6058754683732834 9 8.826573448948384 0 0 0 0 0 0 0 0 0 1:-1 2:0.040540541 3:-0.042016807 4:-0.76106195 5:-0.65078803 6:-0.77874916 7:-0.69321922 8:-0.63428002 
9 9 9 9 0 0 9 0 0 9 0 0 0 0 0 0 0 0 0 0 0 0 0 0 0 1:1 2:0.28378378 3:0.2605042 4:-0.74336283 5:-0.49707809 6:-0.59448554 7:-0.60105332 8:-0.55455904 
0 9 9 9 0 0 0 0 0 0 0 0 0 0 0 0 0 0 0 0 0 0 0 0 0 2:0.59459459 3:0.57983193 4:-0.62831858 5:0.16309545 6:0.098856759 7:-0.10730744 8:-0.1509716 
9 0 9 0 0 0 9 0 0 9 0 0 0 0 4.1040212232125723 0 0 0 0 0 0 0 0 0 0 2:-0.067567568 3:-0.075630252 4:-0.77876106 5:-0.67345493 6:-0.75117687 7:-0.7116524 8:-0.714001 
9 6.0559291738626504 9 1.7604210817601267 0 0 0 0 9 9 0 0 0 9 0 3.208339897446276 0 0 0 0 0 0 0 0 0 1:1 2:0.33783784 3:0.32773109 4:-0.74336283 5:-0.46945281 6:-0.62138534 7:-0.42330481 8:-0.56153463 
9 6.2145972121164483 9 4.7500457155038296 9 0 9 0 0.31213640449175883 9 0 0.59244564056278393 0 0 0 0 0 0 0 0 0.37650909092494017 0 0 0 0 1:1 2:-0.054054054 3:0.092436975 4:-0.81415929 5:-0.77014344 6:-0.82851379 7:-0.79460171 8:-0.8036871 
9 0 9 5.0240557908070551 0 0 9 0 0 9 0 0 0 0 0 0 0 0 0 0 0 0 0 0 0 1:1 2:0.28378378 3:0.24369748 4:-0.74336283 5:-0.37099345 6:-0.41963685 7:-0.55102041 8:-0.53263577 
0 0 0 9 0 0 9 0 1.2912477695545366 9 0 0 0 0 0 0 0 0 0 0 0 0 0 0 0 1:-1 2:0.7027027 3:0.71428571 4:-0.088495575 5:0.56401629 6:0.48823134 7:0.27978934 8:0.017438964 
9 0 9 0 0 0 0 0 0 0 0 0 0 0 0 0 0 0 0 0 0 0 0 0 0 1:-1 2:0.37837838 3:0.36134454 4:-0.73451327 5:-0.14715778 6:-0.21990585 7:-0.4325214 8:-0.35924265 
9 0 9 0 0 0 0 0 0 4.8911008850430688 0 0 0 0 0 0 0 0 0 0 0 0 0 0 0 2:0.21621622 3:0.15966387 4:-0.76106195 5:-0.49566141 6:-0.5736382 7:-0.63791968 8:-0.58844046 
9 0 9 9 0 0 0 0 0 0 0 0 0 0 0 0 0 0 0 0 0 0 0 0 0 2:0.45945946 3:0.41176471 4:-0.72566372 5:-0.29024261 6:-0.399462 7:-0.49308756 8:-0.42600897 
0 9 9 9 0 0 0 0 9 0 0 7.8207216299418816 0 0 0 0 0 0 0 0 0 0 0 0 0 2:0.5 3:0.46218487 4:-0.69911504 5:-0.14042855 6:-0.37928716 7:-0.46280448 8:-0.38415546 
9 9 9 9 9 0 9 0 0 9 0 0 0 0.96839695456341912 0 0 0 0 0 0 0 0 0 0 0 1:1 2:-0.081081081 3:-0.14285714 4:-0.80530973 5:-0.79139366 6:-0.83591123 7:-0.85121791 8:-0.80468361 
0 9 0 9 0 0 0 0 0 0 0 0 0 0 0 0 0 0 0 0 0 0 0 0 0 1:-1 2:0.67567568 3:0.69747899 4:-0.67256637 5:0.23109616 6:0.18897108 7:-0.023041475 8:-0.13104136 
9 0 9 9 3.1613640331617003 0 9 0 0 9 0 0 0 0 0 0 0 0 0 0 0 0 0 0 0 1:-1 2:-0.28378378 3:-0.29411765 4:-0.84955752 5:-0.87143616 6:-0.89778077 7:-0.88018433 8:-0.87344295 
0 0 9 9 0 0 0 0 0 0 0 0 0 0 0 0 0 0 0 0 0 0 0 0 0 2:0.45945946 3:0.42857143 4:-0.7079646 5:-0.17867894 6:-0.31136516 7:-0.20868993 8:-0.39511709 
9 9 9 9 0 0 0 0 0 9 0 0 0 0 0 0 0 0 0 0 0 0 0 0 0 1:1 2:0.36486486 3:0.29411765 4:-0.74336283 5:-0.44147335 6:-0.52723605 7:-0.56813693 8:-0.52067763 
9 0 9 0 0 0 0 0 0 0 0 0 0 0 0 0 0 0 0 0 0 0 0 0 0 1:-1 2:0.43243243 3:0.41176471 4:-0.73451327 5:-0.18682486 6:-0.22797579 7:-0.39038841 8:-0.41106129 
0 9 0 9 0 0 0 0 0 0 0 0 0 0 0 0 0 0 0 0 0 0 0 0 0 1:-1 2:0.68918919 3:0.57983193 4:-0.69026549 5:0.24420046 6:0.17484869 7:-0.049374589 8:-0.066268062 
9 0 9 9 0 0 0 0 0 0 0 0 0 0 0 0 0 0 0 0 0 0 0 0 0 2:0.54054054 3:0.42857143 4:-0.69911504 5:-0.19780414 6:-0.29119032 7:-0.33245556 8:-0.39511709 
9 0 9 0 0 0 0 0 0 0 0 0 0 0 0 0 0 0 0 0 0 0 0 0 0 1:-1 2:0.41891892 3:0.37815126 4:-0.72566372 5:-0.28138835 6:-0.31271015 7:-0.3522054 8:-0.55455904 
0 9 9 9 0 0 0 0 9 0 0 0 0 1.5915516236342135 5.2432537362287785 9 0 0 0 0 0 0 0 0 0 1:-1 2:0.45945946 3:0.4789916 4:-0.6460177 5:-0.13794935 6:-0.24277068 7:-0.40355497 8:-0.22869955 
9 0 9 5.6434400447651196 0 0 0 0 0 9 0 0 0 0 4.4031066613213952 0 0 0 0 0 0 0 0 0 0 1:-1 2:0.17567568 3:0.15966387 4:-0.75221239 5:-0.53993271 6:-0.67114997 7:-0.56287031 8:-0.63428002 
0 0 9 9 0 0 0 0 0 0 0 0 0 0 0 0 0 0 0 0 0 0 0 0 0 2:0.54054054 3:0.49579832 4:-0.71681416 5:-0.11846998 6:-0.26496301 7:-0.14022383 8:-0.40508221 
0 0.92900417524020351 9 9 0 0 0 0 0 0 0 0 0 0 0 0 0 0 0 0 0 0 0 0 0 1:-1 2:0.54054054 3:0.59663866 4:-0.65486726 5:-0.016823092 6:-0.13180901 7:-0.22580645 8:-0.25859492 
9 9 9 0 0 0 9 0 0 9 0 0 0 0 0 0 0 0 0 0 0 0 0 0 0 1:1 2:0.2027027 3:0.15966387 4:-0.7699115 5:-0.58880822 6:-0.68796234 7:-0.64186965 8:-0.64424514 
9 0 9 9 0 0 0 0 0 0 0 0 0 0 0 0 0 0 0 0 0 0 0 0 0 2:0.54054054 3:0.49579832 4:-0.72566372 5:-0.13688684 6:-0.17484869 7:-0.37985517 8:-0.36821126 
0 0 9 9 0 0 0 0 0 0 0 0 0 0 0 0 0 0 0 0 0 0 0 0 0 2:0.71621622 3:0.49579832 4:-0.73451327 5:-0.068886134 6:-0.082044385 7:-0.2600395 8:-0.4449427 
0 0 9 9 0 0 0 0 0 0 0 0 0 0 0 0 0 0 0 0 0 0 0 0 0 1:-1 2:0.72972973 3:0.61344538 4:-0.66371681 5:0.18540818 6:0.19435104 7:-0.17709019 8:-0.16591928 
9 0 9 0 0 0 9 0 9 9 0 0 0 0 5.8507908665937585 0 0 0 0 0 0 0 0 0 0 1:1 2:0.18918919 3:0.21008403 4:-0.76106195 5:-0.49672392 6:-0.61802286 7:-0.60105332 8:-0.51469856 
9 0 9 9 0 0 0 0 0 0 0 0 0 0 0 0 0 0 0 0 0 0 0 0 0 1:1 2:0.52702703 3:0.46218487 4:-0.76106195 5:-0.2222419 6:-0.34498991 7:-0.34167215 8:-0.4200299 
0 0 9 9 0 0 0 0 0 0 0 0 0 0 0 0 0 0 0 0 0 0 0 0 0 1:-1 2:0.48648649 3:0.41176471 4:-0.69026549 5:-0.051885957 6:-0.11903161 7:-0.25608953 8:-0.33134031 
9 9 9 9 3.7653648929343393 0 9 0 0 9 0 0 0 4.8457723078355182 0 0 5.303766875899214 0 0 0 0.035088620376949403 0 0.54422164715818233 0 0 1:1 2:0.067567568 3:0.058823529 4:-0.75221239 5:-0.64830884 6:-0.7195696 7:-0.67873601 8:-0.714001 
9 0 9 0 0 0 0 0 0 0 0 0 0 0 0 0 0 0 0 0 0 0 0 0 0 2:0.35135135 3:0.22689076 4:-0.76106195 5:-0.39436869 6:-0.38130464 7:-0.61421988 8:-0.57947185 
0 9 0 9 0 0 0 0 0 0 0 0 0 0 0 0 0 0 0 0 0 0 0 0 0 2:0.68918919 3:0.57983193 4:-0.66371681 5:0.13299097 6:-0.050437122 7:-0.040157999 8:-0.14598904 
9 0 9 0 0 0 0 0 9 9 0 0 5.349601851310573 9 9 0 0 0 0 0 0 0 0 0 0 1:1 2:0.27027027 3:0.24369748 4:-0.75221239 5:-0.42447317 6:-0.59112307 7:-0.39302172 8:-0.51669158 
9 0 9 0 0 0 0 0 0 9 0 0 0 0 0 0 0 0 0 0 0 0 0 0 0 2:0.17567568 3:0.15966387 4:-0.75221239 5:-0.42447317 6:-0.38399462 7:-0.48387097 8:-0.61434978 
9 0 9 9 0 0 0 0 0 0 0 0 0 0 0 0 0 0 0 0 0 0 0 0 0 2:0.45945946 3:0.34453782 4:-0.74336283 5:-0.21126262 6:-0.32279758 7:-0.37458855 8:-0.37518685 
9 0 9 0 0 0 0 0 0 0 0 0 0 0 0 0 0 0 0 0 0 0 0 0 0 1:-1 2:0.35135135 3:0.29411765 4:-0.67256637 5:-0.27536745 6:-0.31876261 7:-0.41013825 8:-0.50772297 
9 0 9 9 0 0 0 0 0 9 0 0 0 0 0 0 0 0 0 0 0 0 0 0 0 1:1 2:0.31081081 3:0.29411765 4:-0.75221239 5:-0.41703559 6:-0.46065905 7:-0.63528637 8:-0.51469856 
9 9 9 9 0 0 0 0 0 0 0 0 0 0 0 0 0 0 0 0 0 0 0 0 0 1:-1 2:0.37837838 3:0.37815126 4:-0.7079646 5:-0.37453515 6:-0.45998655 7:-0.57340355 8:-0.45690085 
9 0 9 0 0 0 0 0 0 0 0 0 0 0 0 0 0 0 0 0 0 0 0 0 0 1:-1 2:0.41891892 3:0.32773109 4:-0.71681416 5:-0.19249159 6:-0.27639543 7:-0.40882159 8:-0.39113104 
9 0 9 0 0 0 0 0 9 0 0 0 0 8.1518551593859243 4.9700181598120103 0 0 0 0 0 0 0 0 0 0 2:0.14864865 3:0.15966387 4:-0.77876106 5:-0.52859926 6:-0.65030262 7:-0.65503621 8:-0.56452417 
9 0 9 9 0 0 0 0 0 0 0 0.67349934760486574 0 0 0 0 0 0 0 0 0 0 0 0 0 2:0.5 3:0.4789916 4:-0.66371681 5:-0.17584558 6:-0.2804304 7:-0.4443713 8:-0.67912307 
9 0 9 9 0 0 0 0 0 9 0 0 0 0 9 0 0 0 0 0 0 0 0 0 0 1:1 2:0.2972973 3:0.2605042 4:-0.72566372 5:-0.47759872 6:-0.57969065 7:-0.62343647 8:-0.4449427 
9 0 9 9 0 0 9 0 0 9 0 0 0 0 0 0 0 0 0 0 0 0 0 0 0 1:-1 2:-0.28378378 3:-0.2605042 4:-0.84070796 5:-0.85514432 6:-0.90383322 7:-0.88808427 8:-0.86347783 
9 0 9 0 0 0 0 0 0 9 0 0 0 0 0 0 0 0 0 0 0 0 0 0 0 1:-1 2:0.37837838 3:0.39495798 4:-0.7079646 5:-0.0033646184 6:0.07464694 7:-0.39828835 8:-0.41504733 
9 0 9 0 0 0 0 0 0 9 0 0 0 0 0 0 0 0 0 0 0 0 0 0 0 1:-1 2:0.17567568 3:0.12605042 4:-0.77876106 5:-0.536391 6:-0.64895763 7:-0.51810402 8:-0.65421026 
9 0 9 9 9 9 9 0 9 9 0 0 0 0 0 0 0 0 0 0 0 0 0 0 0 1:1 2:-0.17567568 3:-0.2605042 4:-0.82300885 5:-0.84168585 6:-0.8937458 7:-0.8722844 8:-0.83358246 
0 0 9 9 0 0 0 0 0 0 0 0 0 0 0 0 0 0 0 0 0 0 0 0 0 2:0.48648649 3:0.44537815 4:-0.69026549 5:-0.036656632 6:-0.091459314 7:-0.31270573 8:-0.26457399 
9 0 9 9 0 0 0 0 0 0 0 0 0 0 0 0 0 0 0 0 0 0 0 0 0 2:0.44594595 3:0.36134454 4:-0.74336283 5:-0.2091376 6:-0.35843981 7:-0.22580645 8:-0.40807175 
9 0 9 9 0 0 0 0 9 9 0 0 0 6.3131264332423731 9 0 3.1057815139742582 0 0 0 0 0 0 0 0 1:1 2:0.28378378 3:0.27731092 4:-0.75221239 5:-0.43509828 6:-0.60457297 7:-0.49967084 8:-0.52864973 
9 0 9 9 0 0 0 0 9 0 0 0 0 7.820641305843977 0 0 0 0 0 0 0 0 0 0 0 1:-1 2:0.31081081 3:0.24369748 4:-0.76106195 5:-0.40003542 6:-0.56220578 7:-0.41935484 8:-0.47583458 
9 0 9 0 0 0 0 0 0 0 0 0 0 0 0 0 0 0 0 0 0 0 0 0 0 1:-1 2:0.37837838 3:0.36134454 4:-0.7079646 5:-0.2126793 6:-0.21788837 7:-0.38380513 8:-0.45690085 
0 9 0 9 0 0 0 0 9 0 0 5.0973410311035146 0 0 1.9403225591396289 9 0 0 0 0 0 0 0 0 0 1:-1 2:0.68918919 3:0.71428571 4:-0.69026549 5:0.31361785 6:0.13449899 7:0.034891376 8:0.073243647 
0 9 9 9 0 0 0 0 0 0 0 0 0 0 0 0 0 0 0 0 0 0 0 0 0 2:0.56756757 3:0.52941176 4:-0.69026549 5:0.16911634 6:0.14391392 7:-0.11520737 8:-0.1998007 
0 9 9 9 0 0 0 0 0 0 0 0 0 0 0 0 0 0 0 0 0 0 0 0 0 2:0.59459459 3:0.54621849 4:-0.68141593 5:-0.017531433 6:-0.20174849 7:-0.14812377 8:-0.21574489 
9 9 9 9 0 0 0 6.8702107473453893 9 0 0 9 9 9 9 9 0 7.3835620867590137 9 0 7.3293141887687927 0 0 0 0 2:0.18918919 3:0.14285714 4:-0.7079646 5:-0.46555693 6:-0.74512441 7:-0.55365372 8:-0.36422521 
9 9 9 0 0 0 0 0 0 9 0 0.20591239687347129 0 1.7757530564658668 0 0 9 0 0 0 0 0 0 0 0 2:0.081081081 3:0.075630252 4:-0.77876106 5:-0.59164158 6:-0.62811029 7:-0.77748519 8:-0.69407075 
0 9 0 9 0 0 0 9 9 0 0 3.9057395850468666 9 9 9 9 9 9 0 0 0 0 0 0 0 1:-1 2:0.59459459 3:0.57983193 4:-0.72566372 5:-0.039844165 6:-0.28513786 7:-0.19947334 8:-0.10911809 
9 0 9 0 0 0 0 0 9 0 0 0 0 0 0 0 0 0 0 0 0 0 0 0 0 1:-1 2:0.24324324 3:0.22689076 4:-0.74336283 5:-0.44111918 6:-0.55749832 7:-0.5036208 8:-0.50473343 
9 9 9 9 0 0 9 0 9 9 0 0 0 3.5780400051632038 9 0 0 0 5.151902528782621 0 0.85928805576390255 0 0 0 0 1:-1 2:-0.12162162 3:-0.12605042 4:-0.81415929 5:-0.7981229 6:-0.84868863 7:-0.90388413 8:-0.77777778 
9 0 9 0 0 0 0 0 0 9 0 0 0 0 0 0 0 0 0 0 0 0 0 0 0 1:-1 2:0.10810811 3:0.0084033613 4:-0.78761062 5:-0.61395431 6:-0.71217216 7:-0.57603687 8:-0.72396612 
0 9 9 9 0 0 0 0 9 0 0 0 9 9 9 9 9 0 0 0 0 0 0 0 0 1:-1 2:0.35135135 3:0.39495798 4:-0.67256637 5:-0.30370108 6:-0.49764627 7:-0.42857143 8:-0.29546587 
9 0 9 9 0 0 0 0 0 0 0 0 0 0 0 0 0 0 0 0 0 0 0 0 0 2:0.40540541 3:0.37815126 4:-0.73451327 5:-0.30724278 6:-0.44788164 7:-0.48518762 8:-0.55356253 
9 9 9 9 0 0 9 0 0 9 0 0 0 0 0 0 0 0 0 0 0 0 0 0 0 1:-1 2:-0.040540541 3:-0.0084033613 4:-0.80530973 5:-0.71383035 6:-0.77605918 7:-0.78801843 8:-0.73393124 
9 0 9 9 0 0 0 0 0 0 0 0 0 0 0 0 0 0 0 0 0 0 0 0 0 2:0.33783784 3:0.39495798 4:-0.75221239 5:-0.38445192 6:-0.48352387 7:-0.44568795 8:-0.54160438 
0 9 0 9 0 0 0 0 6.5563404945165376 0 0 0 0 0 0 0 0 0 0 0 0 0 0 0 0 1:-1 2:0.74324324 3:0.66386555 4:-0.63716814 5:0.53214096 6:0.48554136 7:0.38117182 8:-0.19780767 
9 0 9 0 0 0 9 0 0 9 0 0 2.302237033718753 3.0527647403700806 0 0 7.7600509584780388 0 0 0 0 0 0 0 0 1:1 2:0.054054054 3:-0.092436975 4:-0.75221239 5:-0.46201523 6:-0.51445864 7:-0.59710336 8:-0.58644743 
9 9 9 9 0 0 0 0 9 0 0 0 0 0 0 0 0 0 0 0 0 0 0 0 0 1:-1 2:0.28378378 3:0.27731092 4:-0.75221239 5:-0.46130689 6:-0.56153329 7:-0.55760369 8:-0.48679621 
0 9 9 9 0 0 0 0 0 0 0 0 0 0 0 0 0 0 0 0 0 0 0 0 0 2:0.71621622 3:0.6302521 4:-0.63716814 5:0.11811581 6:0.07733692 7:-0.24555629 8:-0.13602392 
8.8839261937053635 9 9 9 0 0 0 6.0438639434307486 9 0 0 0 9 9 9 9 9 0 0 2.5380663771060523 0 0 0 0 0 1:-1 2:0.28378378 3:0.36134454 4:-0.69026549 5:-0.3858686 6:-0.57700067 7:-0.52073733 8:-0.36522172 
9 0 9 0 0 0 9 0 0 9 0 0 0 0 0 0 0 0 0 0 0 0 0 0 0 1:1 2:0.33783784 3:0.29411765 4:-0.7699115 5:-0.45847353 6:-0.53463349 7:-0.53127057 8:-0.6003986 
9 0 9 0 0 0 9 0 7.8146277268533328 9 0 0 0 0 0 0 0 0 0 0 0 0 0 0 0 1:1 2:0.22972973 3:0.2605042 4:-0.76106195 5:-0.55834957 6:-0.67182246 7:-0.61816985 8:-0.57747882 
9 9 9 6.6763492748429174 0 0 9 0 0 9 0 0 0 0 0 0 0 0 0 0 0 0 0 0 0 1:-1 3:-0.025210084 4:-0.84070796 5:-0.73260138 6:-0.80901143 7:-0.80645161 8:-0.75386148 
9 0 9 9 0 0 0 0 0 0 0 0 0 0 0 0 0 0 0 0 0 0 0 0 0 1:-1 2:0.39189189 3:0.46218487 4:-0.7079646 5:-0.14644944 6:-0.24949563 7:-0.38248848 8:-0.38714499 
9 9 9 9 0 0 0 0 9 0 0 3.2586416561652518 8.2652598276685261 9 9 0 0 0 0 0 0 0 0 0 0 2:0.36486486 3:0.49579832 4:-0.7079646 5:-0.34620152 6:-0.50369872 7:-0.51415405 8:-0.4040857 
0 9 9 9 0 0 0 0 9 0 0 0 9 9 9 0 0 0 0 0 0 0 0 0 0 2:0.48648649 3:0.4789916 4:-0.7079646 5:-0.1074907 6:-0.3194351 7:-0.16392363 8:-0.22571001 
9 0 9 0 0 0 0 0 0 9 0 0 0 0 0 0 0 0 0 0 0 0 0 0 0 1:-1 2:0.36486486 3:0.34453782 4:-0.76106195 5:-0.43793165 6:-0.45662408 7:-0.56155365 8:-0.59641256 
9 0 9 9 0 0 0 0 0 0 0 0 0 0 0 0 0 0 0 0 0 0 0 0 0 2:0.36486486 3:0.34453782 4:-0.78761062 5:-0.24101293 6:-0.35709482 7:-0.28110599 8:-0.47483807 
9 0 9 9 0 0 0 0 0 0 0 0 9 4.4800759320593988 9 0 9 6.1200224576875808 0 0 0 0 0 0 0 1:1 2:0.44594595 3:0.41176471 4:-0.73451327 5:-0.31680538 6:-0.44384667 7:-0.47465438 8:-0.31539611 
0 9 9 9 0 0 0 0 9 0 0 0 0 9 9 0 0 0 0 0 0 0 0 0 0 1:-1 2:0.44594595 3:0.42857143 4:-0.69911504 5:-0.19603329 6:-0.38735709 7:-0.23765635 8:-0.31141006 
9 0 9 9 9 9 9 0 9 9 2.4689769581862229 0 0 0 0 0 0 0 0 0 0 0 0 0 0 2:-0.27027027 3:-0.31092437 4:-0.84070796 5:-0.85479015 6:-0.89710827 7:-0.88676761 8:-0.85052317 
9 0 9 0 0 0 0 0 0 9 0 0 0 0 0 0 0 0 0 0 0 0 0 0 0 1:-1 2:0.36486486 3:0.2605042 4:-0.7699115 5:-0.43616079 6:-0.51042367 7:-0.54575379 8:-0.54758346 
9 9 9 9 0 0 0 0 0 9 0 0 0 0 0.45028081004212661 0 0 0 0 0 0 0 0 0 0 1:-1 2:0.040540541 3:0.0084033613 4:-0.75221239 5:-0.65362139 6:-0.72293208 7:-0.69848585 8:-0.65620329 
9 0 9 0 0 0 0 0 0 6.4398426208331916 0 0 0 0 0 0 0 0 0 0 0 0 0 0 0 1:-1 2:0.27027027 3:0.24369748 4:-0.76106195 5:-0.40322295 6:-0.49966375 7:-0.44832126 8:-0.5346288 
9 0 9 9 0 0 0 0 0 0 0 0 0 0 0 0 0 0 0 0 0 0 0 0 0 1:-1 2:0.5 3:0.44537815 4:-0.7079646 5:-0.12803258 6:-0.11835911 7:-0.39170507 8:-0.39810663 
0 9 3.6321494926530025 9 0 0 0 6.0611665476467085 9 0 0 9 9 9 9 9 9 9 0 0 0 0 0 0 0 2:0.51351351 3:0.54621849 4:-0.66371681 5:-0.029927395 6:-0.3201076 7:-0.19815668 8:-0.10612855 
0 7.0654796046446968 9 9 0 0 0 0 0 0 0 0 0 0 0 0 0 0 0 0 0 0 0 0 0 2:0.60810811 3:0.66386555 4:-0.72566372 5:0.10784487 6:0.15265636 7:-0.10862409 8:-0.29745889 
9 9 9 9 0 0 9 0 0 9 0 0 0 0 0 0 0 0 0 0 0 0 0 0 0 1:-1 2:0.013513514 3:-0.058823529 4:-0.77876106 5:-0.75420577 6:-0.84129119 7:-0.7235023 8:-0.77379173 
0 9 0 9 0 0 0 3.7311140999314958 8.2868805063300321 0 0 0 9 3.4405725892776564 9 9 9 1.8078538518511893 0 0 3.8668751099177712 0 0 0 2.2713381356035449 2:0.77027027 3:0.68067227 4:-0.68141593 5:0.19532495 6:-0.1197041 7:-0.48387097 8:-0.019431988 
9 0 9 0 0 0 9 0 9 9 0 0 0 0 9 0 0 0 0 0 0 0 0 0 0 1:1 2:0.18918919 3:0.075630252 4:-0.75221239 5:-0.54064105 6:-0.66577001 7:-0.63001975 8:-0.56153463 
0 9 0 9 0 0 0 0 0 0 0 0 0 0 0 0 0 0 0 0 0 0 0 0 0 1:-1 2:0.63513514 3:0.6302521 4:-0.72566372 5:0.085177971 6:-0.098856759 7:-0.0032916392 8:-0.23766816 
0 9 7.5027378514881056 9 0 0 0 0 9 0 0 2.9008106615142015 9 9 9 9 0 6.5164081012123667 0.064741055995438349 0 0 0 0 0 0 1:-1 2:0.52702703 3:0.57983193 4:-0.68141593 5:-0.071011156 6:-0.3470074 7:-0.21263989 8:-0.19083209 
9 0 9 9 0 0 0 0 9 0 0 0 0 1.0741732638253902 5.2476527936430495 0 0 0 0 0 0 0 0 0 0 2:0.31081081 3:0.32773109 4:-0.71681416 5:-0.27642996 6:-0.42434432 7:-0.2955892 8:-0.40508221 
9 0 9 9 0 0 0 0 0 0 0 0 0 0 0 0 0 0 0 0 0 0 0 0 0 1:-1 2:0.45945946 3:0.34453782 4:-0.73451327 5:-0.34018063 6:-0.48755884 7:-0.35088874 8:-0.48181365 
0 6.3179420369582777 9 9 0 0 0 0 0 0 0 0 0 0 0 0 0 0 0 0 0 0 0 0 0 1:-1 2:0.47297297 3:0.41176471 4:-0.65486726 5:-0.039135824 6:-0.20309348 7:-0.11520737 8:-0.25660189 
0 9 9 9 0 0 0 0 9 0 0 0 9 9 9 9 9 9 0 0 0 0 0 0 0 2:0.52702703 3:0.54621849 4:-0.7079646 5:-0.072427838 6:-0.33624748 7:-0.3285056 8:-0.18584953 
9 0 9 0 0 0 0 0 0 9 0 0 0 0 0 0 0 0 0 0 0 0 0 0 0 2:0.054054054 3:0.025210084 4:-0.78761062 5:-0.66389233 6:-0.74310693 7:-0.70506912 8:-0.68410563 
9 0 9 9 0 0 9 0 9 9 0 4.8219973656587527 0 0 9 0 0 0 0 0 0 0 0 0 0 1:1 2:0.18918919 3:0.22689076 4:-0.73451327 5:-0.52505755 6:-0.65770007 7:-0.64976959 8:-0.5346288 
0 9 9 0 0 0 0 0 9 0 0 0 0 7.6684768829839092 9 7.4835367846433396 0 0 0 0 0 0 0 0 0 1:-1 2:0.2972973 3:0.17647059 4:-0.66371681 5:-0.0054896405 6:-0.17888366 7:-0.10072416 8:-0.22770304 
0 9 0 9 0 0 0 0 0 0 0 0 0 0 0 0 0 0 0 0 0 0 0 0 0 1:-1 2:0.64864865 3:0.56302521 4:-0.7079646 5:0.07455286 6:-0.061197041 7:-0.030941409 8:-0.20577977 
0 9 9 9 0 0 0 0 9 0 0 0 0 0 9 0 0 0 0 0 0 0 0 0 0 2:0.56756757 3:0.57983193 4:-0.66371681 5:-0.038427484 6:-0.24277068 7:-0.15470704 8:-0.20876931 
9 9 9 0 0 0 0 0 9 0 0 0 0 9 9 9 0 0 0 0 0 0 0 0 0 1:-1 2:0.33783784 3:0.32773109 4:-0.72566372 5:-0.15601204 6:-0.31136516 7:-0.44832126 8:-0.31938216 
0 9 9 9 0 0 0 0 9 0 0 0 0 0 9 0 0 0 0 0 0 0 0 0 0 2:0.48648649 3:0.41176471 4:-0.69026549 5:-0.19142908 6:-0.36180229 7:-0.34957209 8:-0.30742402 
0 0 9 9 0 0 0 0 9 0 0 3.5857253074633539 0 5.8947293310042665 7.1240522151544692 0 0 0 0 0 1.5994748259930121 0 0 0 0 1:-1 2:0.55405405 3:0.44537815 4:-0.71681416 5:0.23074199 6:-0.23268325 7:-0.26793943 8:-0.39013453 
9 0 9 9 0 0 0 0 0 0 0 0 0 0 0 0 0 0 0 0 0 0 0 0 0 1:1 2:0.37837838 3:0.41176471 4:-0.71681416 5:-0.25730476 6:-0.35574983 7:-0.38512179 8:-0.43497758 
0 9 9 9 0 0 0 0 9 0 0 0 0 7.5136378318406916 0 9 0 0 0 0 0 0 0 0 0 1:-1 2:0.47297297 3:0.52941176 4:-0.69026549 5:-0.093678059 6:-0.23268325 7:-0.37327189 8:-0.22571001 
9 0 9 0 0 0 0 0 0 9 0 0 0 0 0 0 0 0 0 0 0 0 0 0 0 1:-1 2:0.067567568 3:0.042016807 4:-0.76106195 5:-0.63166283 6:-0.67921991 7:-0.59973667 8:-0.714001 
0 0 9 9 0 0 0 0 0 0 0 0 0 0 0 0 0 0 0 0 0 0 0 0 0 2:0.51351351 3:0.49579832 4:-0.73451327 5:-0.026739862 6:-0.12777404 7:-0.050691244 8:-0.38515197 
0 0 9 9 0 0 0 0 0 0 0 0 0 0 0 0 0 0 0 0 0 0 0 0 0 1:-1 2:0.52702703 3:0.51260504 4:-0.72566372 5:-0.007968833 6:-0.053127102 7:-0.30217248 8:-0.33532636 
0 9 9 9 0 0 0 0 9 0 0 3.0537549791140788 9 9 9 9 9 8.2664743687782618 0 0 0 0 4.0110791999791831 0 0 2:0.27027027 3:0.21008403 4:-0.6460177 5:-0.039489995 6:-0.23873571 7:-0.16392363 8:-0.1998007 
0 9 9 9 0 0 0 0 4.6116179990670307 0 0 0 0 0 0 0 0 0 0 0 0 0 0 0 0 2:0.54054054 3:0.52941176 4:-0.66371681 5:-0.035948291 6:-0.23066577 7:-0.048057933 8:-0.28550075 
9 0 9 8.6144033900357702 0 0 9 0 0 9 0 0 0 0 1.6944634414487443 0 0 0 0 0 0 0 0 0 0 2:-0.17567568 3:-0.092436975 4:-0.80530973 5:-0.78147689 6:-0.8399462 7:-0.80645161 8:-0.79372197 
9 0 9 0 0 0 0 0 1.043908206161005 9 0 0 0 0 0 0 0 0 0 0 0 0 0 0 0 1:1 2:0.35135135 3:0.27731092 4:-0.7699115 5:-0.43120241 6:-0.57700067 7:-0.43383805 8:-0.51469856 
9 0 9 9 0 0 0 0 0 0 0 0 0 0 9 0 1.0381290872398103 0 0 0 0 0 0 0 0 1:1 2:0.37837838 3:0.36134454 4:-0.74336283 5:-0.40180627 6:-0.54539341 7:-0.56155365 8:-0.41504733 
9 3.3366476304225778 9 9 0 0 0 0 0 0 0 0 0 0 0 0 0 0 0 0 0 0 0 0 0 2:0.41891892 3:0.34453782 4:-0.74336283 5:-0.37134762 6:-0.43779422 7:-0.54970375 8:-0.46686597 
0 9 9 9 0 0 0 0 0 0 0 0 7.0505350598671441 0 0 0 0 0 0 0 0 0 0 0 0 2:0.60810811 3:0.51260504 4:-0.69026549 5:-0.28280503 6:-0.4129119 7:-0.28768927 8:-0.25660189 
9 0 9 9 0 0 0 0 0 9 0 0 0 0 0 0 0 0 0 0 0 0 0 0 0 1:1 2:0.35135135 3:0.32773109 4:-0.76106195 5:-0.38409775 6:-0.39609953 7:-0.57472021 8:-0.55455904 
9 0 9 9 0 0 0 0 0 0 0 0 0 0 0 0 0 0 0 0 0 0 0 0 0 1:-1 2:0.44594595 3:0.41176471 4:-0.72566372 5:-0.30511776 6:-0.38735709 7:-0.40092166 8:-0.47284504 
9 9 9 9 0 0 0 0 9 0 0 9 9 9 9 9 9 0 0 0 4.626941918642494 0 0 0 0 2:0.36486486 3:0.36134454 4:-0.67256637 5:-0.28103418 6:-0.52858104 7:-0.47465438 8:-0.36522172 
9 0 9 0 0 0 0 0 0 0 0 0 0 0 0 0 0 0 0 0 0 0 0 0 0 1:-1 2:0.44594595 3:0.32773109 4:-0.73451327 5:-0.38445192 6:-0.4539341 7:-0.51810402 8:-0.50473343 
9 0 9 9 0 0 0 0 0 0 0 0 0 0 0 0 0 0 0 0 0 0 0 0 0 2:0.44594595 3:0.37815126 4:-0.71681416 5:-0.24172127 6:-0.35104237 7:-0.33903884 8:-0.4449427 
9 9 9 9 0 0 0 0 9 9 0 0 0 5.7828434563467015 9 0 0 0 0 0 0 0 0 0 0 1:-1 2:0.10810811 3:0.058823529 4:-0.75221239 5:-0.59589162 6:-0.72696705 7:-0.62870309 8:-0.65421026 
9 9 9 0 0 0 0 0 0 9 0 0 0 0 0 0 0 0 0 0 0 0 0 0 0 2:0.12162162 3:0.092436975 4:-0.77876106 5:-0.61253763 6:-0.67182246 7:-0.71823568 8:-0.65620329 
0 0 9 9 0 0 0 0 0 0 0 0 0 0 0 0 0 0 0 0 0 0 0 0 0 2:0.45945946 3:0.56302521 4:-0.73451327 5:-0.049760935 6:-0.15534633 7:-0.31533904 8:-0.31539611 
9 9 9 0 0 0 0 0 7.0794992366984051 9 0 0 0 0 5.7964661987926878 0 0 0 0 0 0 0 0 0 0 2:0.12162162 3:0.058823529 4:-0.75221239 5:-0.58703736 6:-0.67451244 7:-0.69848585 8:-0.61434978 
0 9 9 9 0 0 0 0 9 0 0 0.1612706049114758 0 9 9 0.53078298069166452 0 0 0 0 0 0 0 0 0 1:-1 2:0.45945946 3:0.39495798 4:-0.7079646 5:-0.20240836 6:-0.40080699 7:-0.42330481 8:-0.32536124 
9 5.8070706432274859 9 9 1.3461246395890438 0 9 0 0 9 0 0 0 0 0 0 0 0.23029142490716703 0 0 0 0 0 0 0 2:-0.16216216 3:-0.12605042 4:-0.80530973 5:-0.79883124 6:-0.83658373 7:-0.83410138 8:-0.836572 
9 0 9 5.0096036101315766 0 0 0 0 0 0 0 0 0 0 0 0 0 0 0 0 0 0 0 0 0 2:0.39189189 3:0.34453782 4:-0.73451327 5:-0.31007615 6:-0.37592468 7:-0.46017117 8:-0.45191829 
0 9 9 9 0 0 0 0 0 0 0 0 0 0 0 0 0 0 0 0 0 0 0 0 0 2:0.52702703 3:0.51260504 4:-0.7079646 5:-0.13476182 6:-0.29993275 7:-0.29163924 8:-0.28550075 
9 9 9 9 0 0 0 0 0 9 0 0 0 0 0 0 0 0 0 0 0 0 0 0 0 1:-1 2:0.040540541 3:0.092436975 4:-0.76106195 5:-0.65999646 6:-0.72293208 7:-0.67873601 8:-0.714001 
0 0 9 9 0 0 0 0 0 0 0 0 0 0 0 0 0 0 0 0 0 0 0 0 0 2:0.48648649 3:0.46218487 4:-0.72566372 5:-0.059323535 6:-0.10356422 7:-0.31928901 8:-0.34529148 
9 9 9 9 0 0 0 0 0 9 0 0 0 0 9 0 0 0 0 0 0 0 0 0 0 1:1 2:0.27027027 3:0.2605042 4:-0.73451327 5:-0.48539047 6:-0.59515804 7:-0.65503621 8:-0.49576482 
0 9 0 9 0 0 0 0 0 0 0 0 0 0 0 0 0 0 0 0 0 0 0 0 0 2:0.74324324 3:0.66386555 4:-0.6460177 5:0.41278555 6:0.2138534 7:0.23370639 8:0.036372696 
0 0 9 9 0 0 0 0 0 0 0 0 0 0 0 0 0 0 0 0 0 0 0 0 0 1:-1 2:0.43243243 3:0.39495798 4:-0.68141593 5:-0.21126262 6:-0.35709482 7:-0.32587228 8:-0.3632287 
9 0 9 9 0 0 0 0 9 0 0 0 0 9 9 9 0 0 0 0 0 0 0 0 0 2:0.33783784 3:0.37815126 4:-0.71681416 5:-0.36851426 6:-0.57834566 7:-0.32323897 8:-0.47882412 
9 9 9 0 0 0 0 0 0 0 0 0 0 0 0 0 0 0 0 0 0 0 0 0 0 2:0.33783784 3:0.27731092 4:-0.73451327 5:-0.41384806 6:-0.4801614 7:-0.59052008 8:-0.51469856 
9 9 9 0 0 0 0 0 9 0 0 1.1568538858102035 0 2.7994404599760809 0 0 0 0 0 0 0 0 0 0 0 2:0.25675676 3:0.1092437 4:-0.75221239 5:-0.45918187 6:-0.56220578 7:-0.69585253 8:-0.53163926 
9 9 9 9 9 0 9 0 0 9 0 0 0 0 0 0 0 0 0 0 0.24851357599031779 0 0 0 0 2:-0.13513514 3:-0.19327731 4:-0.83185841 5:-0.84239419 6:-0.89643578 7:-0.85911784 8:-0.84354758 
9 9 9 0 0 0 0 0 0 0 0 0 0 0 0 0.65923925042457643 0 0 0 0 0 0 0 0 0 2:0.24324324 3:0.17647059 4:-0.74336283 5:-0.51655746 6:-0.63483524 7:-0.55102041 8:-0.59441953 
0 9 0 9 0 0 0 0 0 0 0 0 0 0 0 0 0 0 0 0 0 0 0 0 0 1:-1 2:0.74324324 3:0.73109244 4:-0.6460177 5:0.29307597 6:0.23470074 7:-0.037524687 8:-0.036372696 
9 0 9 9 0 0 0 0 0 0 0 0 0 0 0 0 0 0 0 0 0 0 0 0 0 2:0.45945946 3:0.36134454 4:-0.73451327 5:-0.27430494 6:-0.33759247 7:-0.47202107 8:-0.45590433 
9 0 9 9 0 0 0 0 0 0 0 0 0 0 0 0 0 0 0 0 0 0 0 0 0 2:0.51351351 3:0.41176471 4:-0.73451327 5:-0.16238711 6:-0.28446537 7:-0.19289006 8:-0.42301943 
0 9 9 9 0 0 0 0 9 0 0 0 9 0 9 9 0 0 0 0 0 0 0 0 0 2:0.36486486 3:0.2605042 4:-0.69911504 5:0.046927572 6:-0.12239408 7:-0.14812377 8:-0.17488789 
0 9 9 9 0 0 0 0 0 0 0 0 0 0 0 0 0 0 0 0.89149447404993742 0 0 0 0 0 1:-1 2:0.51351351 3:0.46218487 4:-0.71681416 5:-0.22153356 6:-0.28312038 7:-0.51020408 8:-0.3143996 
9 9 9 9 0 0 0 0 9 0 0 0 0 9 9 0 0 0 0 0 0 0 0 0 0 1:-1 2:0.41891892 3:0.41176471 4:-0.73451327 5:-0.30015938 6:-0.48217888 7:-0.42330481 8:-0.38415546 
0 9 0 9 0 0 0 9 9 0 0 9 9 9 9 9 9 9 0 0 0 0 0 0 0 2:0.55405405 3:0.64705882 4:-0.69026549 5:0.078448734 6:-0.20780094 7:-0.14285714 8:-0.016442451 
0 0 9 9 0 0 0 0 0 0 0 0 0 0 0 0 0 0 0 0 0 0 0 0 0 1:-1 2:0.5 3:0.49579832 4:-0.69026549 5:-0.10571985 6:-0.24344317 7:-0.19420671 8:-0.32037867 
9 9 9 9 0 0 0 0 0 0 0 0 0 0 0 0 0 0 0 1.0000778440085556 0 0 0 0 0 1:-1 2:0.35135135 3:0.31092437 4:-0.75221239 5:-0.47936958 6:-0.56422327 7:-0.63133641 8:-0.53064275 
9 0 9 0 0 0 0 0 0 0 0 0 0 0 0 0 0 0 0 0 0 0 0 0 0 1:-1 2:0.36486486 3:0.29411765 4:-0.73451327 5:-0.26013813 6:-0.30464022 7:-0.42593812 8:-0.44593921 
0 0 9 9 0 0 0 0 0 0 0 0 0 0 0 0 0 0 0 0 0 0 0 0 0 1:-1 2:0.60810811 3:0.52941176 4:-0.69026549 5:0.079865415 6:-0.12575656 7:0.17709019 8:-0.31539611 
9 0 9 9 0 0 0 0 0 0 0 0 0 0 0 0 0 0 0 0 0 0 0 0 0 2:0.31081081 3:0.31092437 4:-0.72566372 5:-0.13440765 6:-0.2528581 7:-0.15207373 8:-0.46586946 
0 9 9 9 0 0 0 0 0 0 0 0 0 0 0 0 0 0 0 0 0 0 0 0 0 2:0.55405405 3:0.52941176 4:-0.69911504 5:0.10855321 6:-0.026899798 7:-0.082290981 8:-0.22371699 
9 0 9 0 0 0 0 0 0 9 0 0 0 0 0 0 0 0 0 0 0 0 0 0 0 2:0.17567568 3:0.15966387 4:-0.78761062 5:-0.50522401 6:-0.53463349 7:-0.71033575 8:-0.61434978 
9 9 9 9 0 0 0 0 0 9 0 0 0 0 0 0 0 0 0 0 0 0 0 0 0 1:-1 2:0.081081081 3:0.075630252 4:-0.7699115 5:-0.63485036 6:-0.72225958 7:-0.69453588 8:-0.66417539 
9 0 9 9 0 0 0 0 0 0 0 0 0 0 0 0 0 0 0 0 0 0 0 0 0 1:1 2:0.5 3:0.41176471 4:-0.74336283 5:-0.25022136 6:-0.3066577 7:-0.42330481 8:-0.4449427 
0 0 9 9 0 0 0 0 0 0 0 0 0 0 0 0 0 0 0 0 0 0 0 0 0 2:0.55405405 3:0.61344538 4:-0.69026549 5:-0.088011333 6:-0.18157364 7:-0.27320606 8:-0.31738914 
0 9 9 9 0 0 0 0 0 0 0 0 0 0 0 0 0 0 0 0 0 0 0 0 0 1:-1 2:0.52702703 3:0.54621849 4:-0.68141593 5:-0.11811581 6:-0.26496301 7:-0.23107307 8:-0.26856004 
0 9 0 9 0 0 0 1.4493683720068351 9 0 0 1.8334090846018261 9 4.7633373778848185 9 9 5.9243060926567983 3.6955109517968321 0 0 1.026356086951113 0 5.9551841382305506 0 0 1:-1 2:0.83783784 3:0.76470588 4:-0.63716814 5:0.41986896 6:0.11432414 7:0.055957867 8:0.18285999 
9 0 9 9 9 9 9 0 0 9 8.8640555689036251 0 0 0.35702860811265769 0 0 0 0 0 0 0 0 0 0 0 1:-1 2:-0.31081081 3:-0.34453782 4:-0.84070796 5:-0.86187356 6:-0.88702085 7:-0.89335089 8:-0.88241156 
0 0 9 9 0 0 0 0 0 0 0 0 0 0 0 0 0 0 0 0 0 0 0 0 0 2:0.47297297 3:0.49579832 4:-0.69911504 5:-0.18824154 6:-0.26496301 7:-0.42198815 8:-0.34230194 
9 9 9 1.9529035846728464 0 0 9 0 6.9382859495201705 9 0 0 0 9 1.4719154993560855 0 9 0 0 0 0 0 0 0 0 1:1 2:0.2027027 3:0.24369748 4:-0.69911504 5:-0.51939083 6:-0.62474781 7:-0.54312047 8:-0.61434978 
9 9 9 9 0 0 0 0 0 0 0 0 0 0 6.8219699343955797 0 0 0 0 0 0 0 0 0 0 1:-1 2:0.22972973 3:0.27731092 4:-0.72566372 5:-0.50628652 6:-0.6139879 7:-0.58130349 8:-0.59441953 
0 1.4039083783738815 9 9 0 0 0 0 0 0 0 0 0 0 0 0 0 0 0 0 0 0 0 0 0 2:0.5 3:0.49579832 4:-0.69026549 5:-0.21480432 6:-0.3732347 7:-0.2955892 8:-0.3472845 
9 0 9 9 0 0 0 0 0 9 0 0 0 0 0 0 0 0 0 0 0 0 0 0 0 1:1 2:0.31081081 3:0.24369748 4:-0.75221239 5:-0.35151408 6:-0.46267653 7:-0.48123766 8:-0.48480319 
9 9 9 9 0 0 0 0 9 0 0 0 0 9 9 0 0 0 0 0 0 0 0 0 0 1:-1 2:0.22972973 3:0.24369748 4:-0.7699115 5:-0.47334868 6:-0.59852051 7:-0.64450296 8:-0.51469856 
9 9 9 9 0 0 0 0 9 9 0 0 0 5.9191241983189506 9 9 0 0 0 0 0.070255262137610408 0 0 0 0 2:0.10810811 3:0.075630252 4:-0.76106195 5:-0.60757925 6:-0.74243443 7:-0.65503621 8:-0.66716492 
9 0 9 0 0 0 0 0 0 0 0 0 0 0 0 0 0 0 0 0 0 0 0 0 0 2:0.25675676 3:0.22689076 4:-0.74336283 5:-0.3883478 6:-0.42098184 7:-0.5720869 8:-0.56950673 
9 0 9 0 0 0 0 0 0 0 0 0 0 0 0 0 0 0 0 0 0 0 0 0 0 1:-1 2:0.33783784 3:0.27731092 4:-0.74336283 5:-0.36001417 6:-0.47343645 7:-0.38117182 8:-0.45490782 
0 0.26878588034674256 9 9 0 0 0 0 0 0 0 0 0 0 0 0 0 0 0 0 0 0 0 0 0 2:0.47297297 3:0.49579832 4:-0.73451327 5:-0.085532141 6:-0.199731 7:-0.17577354 8:-0.29745889 
0 9 9 9 0 0 0 0 0 0 0 0 0 0 0 0 0 0 0 0 0 0 0 0 0 2:0.56756757 3:0.57983193 4:-0.69026549 5:-0.046573402 6:-0.2138534 7:-0.31533904 8:-0.21773792 
9 0 9 9 0 0 9 0 0 9 0 0 0 0.62415335498228708 0 0 3.7511148412171798 0 0 0 0 0 0 0 0 1:-1 2:-0.2027027 3:-0.21008403 4:-0.84070796 5:-0.83070657 6:-0.8533961 7:-0.88281764 8:-0.86547085 
0 9 9 9 0 0 0 0 9 0 0 6.4700799542085994 9 9 9 9 9 9 0 0 0 0 0 0 0 2:0.52702703 3:0.49579832 4:-0.69026549 5:-0.013989729 6:-0.33759247 7:-0.23502304 8:-0.20577977 
9 9 9 9 0 0 0 0 9 0 0 0 0 9 9 0 0 0 0 0 0 0 0 0 0 1:-1 2:0.24324324 3:0.2605042 4:-0.72566372 5:-0.44572339 6:-0.5595158 7:-0.55628703 8:-0.51469856 
0 9 0 9 0 0 0 0 0 0 0 0 0 0 0 0 0 0 0 0 0 0 0 0 0 1:-1 2:0.64864865 3:0.52941176 4:-0.7079646 5:0.092969718 6:-0.07868191 7:-0.0072416063 8:-0.19481814 
9 0 9 0 0 0 9 0 0 9 0 0 0 0 0 0 0 0 0 0 0 0 0 0 0 2:-0.094594595 3:-0.092436975 4:-0.81415929 5:-0.74393483 6:-0.78749159 7:-0.79855168 8:-0.76382661 
9 1.7151488285960308 9 9 0 0 0 0 9 0 0 0 0 8.4325983641705626 9 0 0 0 0 0 0 0 0 0 0 2:0.24324324 3:0.27731092 4:-0.71681416 5:-0.42730653 6:-0.57700067 7:-0.52863726 8:-0.52466368 
9 0 9 0 0 0 0 0 0 0 0 0 0 0 0 0 0 0 0 0 0 0 0 0 0 2:0.094594595 3:0.17647059 4:-0.7699115 5:-0.54984948 6:-0.62878278 7:-0.62080316 8:-0.58445441 
9 0 9 1.9634341130913997 0 0 0 0 0 0 0 0 0 0 0 0 0 0 0 0 0 0 0 0 0 1:-1 2:0.39189189 3:0.37815126 4:-0.7079646 5:-0.21161679 6:-0.3066577 7:-0.28242265 8:-0.45490782 
9 0 9 9 0 0 0 0 0 0 0 0 0 0 0 0 0 0 0 0 0 0 0 0 0 1:-1 2:0.44594595 3:0.41176471 4:-0.69911504 5:-0.27430494 6:-0.41627438 7:-0.38643845 8:-0.39810663 
0 9 9 9 0 0 0 0 0 0 0 0 0 0 0 0 0 0 0 0 0 0 0 0 0 1:-1 2:0.5 3:0.52941176 4:-0.69026549 5:-0.051177616 6:-0.11701412 7:-0.31138907 8:-0.25560538 
9 0 9 0 0 0 0 0 0 0 0 0 0 0 0 0 0 0 0 0 0 0 0 0 0 2:0.36486486 3:0.27731092 4:-0.72566372 5:-0.37913937 6:-0.42972428 7:-0.55760369 8:-0.51968112 
9 0 9 0 0 0 0 0 0 0 0 0 0 0 0 0 0 0 0 0 0 0 0 0 0 1:-1 2:0.36486486 3:0.36134454 4:-0.73451327 5:-0.25836727 6:-0.30127774 7:-0.4917709 8:-0.39511709 
-9 0 9 9 0 0 0 0 0 0 0 0 0 0 0 0 0 0 0 0 0 0 0 0 0 2:0.33783784 3:0.24369748 4:-0.7699115 5:-0.44749424 6:-0.50437122 7:-0.54180382 8:-0.61136024 
-9 0 9 0 0 0 9 0 0 9 0 0 0 0 0 0 0 0 0 0 0 0 0 0 0 2:-0.12162162 3:-0.1092437 4:-0.80530973 5:-0.75137241 6:-0.81237391 7:-0.74193548 8:-0.8036871 
-9 9 9 9 0 0 0 0 9 9 0 0 9 9 9 9 0 0 0 0 0 0 0 0 0 2:0.12162162 3:0.0084033613 4:-0.71681416 5:-0.37843103 6:-0.53261601 7:-0.43515471 8:-0.43996014 
-0 0 0 0 0 0 9 0 0 9 0 0 0 0 0 0 0 0 0 0 0 0 0 0 0 1:1 2:0.027027027 3:-0.042016807 4:-0.79646018 5:-0.6571631 6:-0.65030262 7:-0.82883476 8:-0.74090683 
-0 0 0 0 0 0 9 0 0 9 0 0 0 0 0 0 0 0 0 0 0 0 0 0 0 1:1 3:-0.075630252 4:-0.80530973 5:-0.74783071 6:-0.79623403 7:-0.82488479 8:-0.76681614 
-6.4531233564851709 0 9 0 0 0 0 0 0 0 0 0 0 0 0 0 0 0 0 0 0 0 0 0 0 1:1 2:0.27027027 3:0.17647059 4:-0.76106195 5:-0.58030813 6:-0.63819771 7:-0.68926926 8:-0.63428002 
-0 0 0 0 0 0 9 0 0 9 0 0 0 0 0 0 0 0 0 0 0 0 0 0 0 1:1 2:0.040540541 3:-0.058823529 4:-0.80530973 5:-0.68691341 6:-0.69872226 7:-0.80513496 8:-0.78375685 
-9 9 9 9 0 0 0 0 9 0 0 2.7579414647737552 9 9 9 9 9 0 0 0 1.5239631850287907 0 0 0 0 1:-1 2:0.094594595 3:0.0084033613 4:-0.71681416 5:-0.67274659 6:-0.70410222 7:-0.72218565 8:-0.5266567 
-9 9 9 9 0 0 0 0 9 0 0 0 0 0 0 0 0 0 0 0 0 0 0 0 0 1:-1 2:0.5 3:0.39495798 4:-0.72566372 5:-0.19922083 6:-0.20914593 7:-0.44568795 8:-0.43099153 
-9 9 9 9 0 0 0 9 9 0 0 0 9 9 9 9 9 9 0 0 0 0 0 0 0 1:-1 2:0.5 3:0.42857143 4:-0.73451327 5:-0.16663715 6:-0.30396772 7:-0.34825543 8:-0.35824614 
-0 0 0 0 9 0 9 0 0 9 0 0 0 0 0 0 0 0 0 0 0 0 0 0 0 1:1 2:-0.094594595 3:-0.17647059 4:-0.84070796 5:-0.78608111 6:-0.82784129 7:-0.81435155 8:-0.81265571 
-9 9 9 9 0 0 0 0 9 0 0 0 0 9 9 0 0 0 0 0 0 0 0 0 0 1:-1 2:0.33783784 3:0.29411765 4:-0.83185841 5:-0.41561891 6:-0.54472091 7:-0.41803818 8:-0.5346288 
-9 0 9 9 0 0 0 0 0 0 0 0 0 0 0 0 0 0 0 0 0 0 0 0 0 1:-1 2:0.5 3:0.37815126 4:-0.73451327 5:-0.27395077 6:-0.27908541 7:-0.50625411 8:-0.65221724 
-9 0 9 9 0 0 0 0 0 9 0 0 0 0 0 0 0 0 0 0 0 0 0 0 0 2:0.16216216 3:0.12605042 4:-0.79646018 5:-0.53391181 6:-0.59179556 7:-0.59183673 8:-0.65421026 
-9 9 9 9 0 0 0 0 0 0 0 0 0 0 0 0 0 0 0 0 0 0 0 0 0 1:-1 2:0.22972973 3:0.19327731 4:-0.75221239 5:-0.46697361 6:-0.53127102 7:-0.54970375 8:-0.5834579 
-0 0 0 0 9 9 9 0 2.3455186032495043 9 0 0 0 0 0 0 0 0 0 0 0 0 0 0 0 1:1 2:-0.33783784 3:-0.32773109 4:-0.84955752 5:-0.87781123 6:-0.90450572 7:-0.91441738 8:-0.88938714 
-9 0 9 0 0 0 9 0 0 9 0 0 0 0 0 0 0 0 0 0 0 0 0 0 0 1:-1 2:-0.14864865 3:-0.22689076 4:-0.83185841 5:-0.80945635 6:-0.8533961 7:-0.84331797 8:-0.84354758 
-9 9 9 9 0 0 0 0 0 9 0 0 0 0 0 0 0 0 0 0 0 0 0 0 0 2:0.24324324 3:0.15966387 4:-0.76106195 5:-0.41951479 6:-0.47209146 7:-0.48518762 8:-0.59441953 
-0 0 0 0 0 0 9 0 0 9 0 0 0 0 0 0 0 0 0 0 0 0 0 0 0 1:1 2:0.040540541 3:-0.0084033613 4:-0.82300885 5:-0.66778821 6:-0.66240753 7:-0.79855168 8:-0.75784753 
-0 0 0 0 9 9 9 0 9 9 0 0 0 0 0 0 0 0 0 0 0 0 0 0 0 1:1 2:-0.35135135 3:-0.36134454 4:-0.84955752 5:-0.89976979 6:-0.93006052 7:-0.87623436 8:-0.90333832 
-0 0 9 0 0 0 0 0 0 9 0 0 0 0 0 0 0 0 0 0 0 0 0 0 0 1:1 2:0.17567568 3:0.14285714 4:-0.72566372 5:-0.61926687 6:-0.66980498 7:-0.71560237 8:-0.67015446 
-9 0 9 9 0 0 0 0 0 0 0 0 0 0 0 0 0 0 0 0 0 0 0 0 0 1:1 2:0.31081081 3:0.29411765 4:-0.7699115 5:-0.48893218 6:-0.53194351 7:-0.60895326 8:-0.60438465 
-9 9 9 9 0 0 0 9 9 0 0 9 9 9 9 9 9 0 0 5.7578039735438704 0.64171984807452531 0 0 0 0 1:-1 2:0.36486486 3:0.37815126 4:-0.73451327 5:-0.35930583 6:-0.50235373 7:-0.48387097 8:-0.42501246 
-9 9 9 9 0 0 0 0 9 0 0 0 9 9 9 0 0 0 0 0 0 0 0 0 0 2:0.44594595 3:0.4789916 4:-0.67256637 5:-0.18469984 6:-0.2804304 7:-0.2363397 8:-0.51469856 
-0 0 0 0 0 0 9 0 0 9 0 0 0 0 0 0 0 0 0 0 0 0 0 0 0 1:1 2:0.081081081 3:0.0084033613 4:-0.81415929 5:-0.66991323 6:-0.73100202 7:-0.70770244 8:-0.76382661 
-9 9 9 9 0 0 0 0 9 0 0 9 9 9 9 9 9 0 0 0 0 0 0 0 0 2:0.41891892 3:0.36134454 4:-0.72566372 5:-0.311847 6:-0.4270343 7:-0.46280448 8:-0.40508221 
-9 9 9 9 0 0 0 0 0 0 0 0 0 0 0 0 0 0 0 0 0 0 0 0 0 1:-1 2:0.44594595 3:0.44537815 4:-0.71681416 5:-0.28280503 6:-0.28648285 7:-0.44305464 8:-0.52167414 
-0 0 0 0 0 0 9 0 0 9 0 0 0 0 0 0 0 0 0 0 0 0 0 0 0 1:1 2:-0.054054054 3:-0.092436975 4:-0.80530973 5:-0.77687268 6:-0.81977135 7:-0.87491771 8:-0.82361734 
-9 0 9 4.8741176068319962 0 0 0 0 0 0 0 0 0 0 0 0 0 0 0 0 0 0 0 0 0 1:1 2:0.21621622 3:0.1092437 4:-0.7699115 5:-0.57145387 6:-0.68459987 7:-0.67215273 8:-0.61434978 
-0 0 9 0 0 0 0 0 0 9 0 0 0 0 0 0 0 0 0 0 0 0 0 0 0 1:1 2:0.17567568 3:0.092436975 4:-0.79646018 5:-0.63626704 6:-0.71217216 7:-0.70243581 8:-0.67214748 
-9 9 9 9 0 0 0 0 0.52299623862565259 0 0 0 0 0.41570909669380829 6.8114413456259859 0 0 0 0 0 0 0 0 0 0 1:1 2:0.27027027 3:0.22689076 4:-0.7079646 5:-0.36851426 6:-0.43174176 7:-0.42330481 8:-0.54857997 
-9 9 9 9 0 0 0 0 9 0 0 0 9 9 9 9 0 0 0 0 0 0 0 0 0 1:-1 2:0.55405405 3:0.49579832 4:-0.75221239 5:-0.12449088 6:-0.17215871 7:-0.38117182 8:-0.36522172 
-0 0 9 0 0 0 0 0 0 9 0 0 0 0 0 0 0 0 0 0 0 0 0 0 0 1:1 2:0.14864865 3:0.092436975 4:-0.77876106 5:-0.63378785 6:-0.667115 7:-0.70243581 8:-0.73592427 
-9 0 9 0 0 0 9 0 7.3250556814288288 9 0 0 0 0 0 0 0 0 0 0 0 0 0 0 0 1:1 2:0.067567568 3:0.0084033613 4:-0.68141593 5:-0.66141314 6:-0.72494956 7:-0.72481896 8:-0.70303936 
-9 0 9 9 0 0 0 0 0 0 0 0 0 0 0 0 0 0 0 0 0 0 0 0 0 1:-1 2:0.31081081 3:0.21008403 4:-0.74336283 5:-0.39791039 6:-0.42299933 7:-0.50493746 8:-0.59441953 
-9 9 9 9 0 0 0 0 9 0 0 0 0 0 9 0 0 0 0 0 0 0 0 0 0 2:0.33783784 3:0.34453782 4:-0.73451327 5:-0.21728351 6:-0.27505044 7:-0.32982225 8:-0.46487294 
-9 9 9 9 0 0 0 0 0 0 0 0 0 0 0 0 0 0 0 0 0 0 0 0 0 2:0.33783784 3:0.32773109 4:-0.76106195 5:-0.44855676 6:-0.55144586 7:-0.51415405 8:-0.58445441 
-9 0 9 9 0 0 9 0 0 9 0 0 0 0 0 0 0 0 0 0 0 0 0 0 0 2:-0.054054054 3:-0.075630252 4:-0.79646018 5:-0.71383035 6:-0.78143914 7:-0.78801843 8:-0.73293473 
-0 0 9 0 0 0 0 0 0 9 0 0 0 0 0 0 0 0 0 0 0 0 0 0 0 1:1 2:0.14864865 3:0.075630252 4:-0.78761062 5:-0.62670444 6:-0.70073974 7:-0.67741935 8:-0.68410563 
-9 9 9 9 0 0 0 0 9 0 0 0 0.85750853222073131 9 9 9 0 0 0 0 0 0 0 0 0 1:-1 2:0.44594595 3:0.42857143 4:-0.75221239 5:-0.27111741 6:-0.4129119 7:-0.31270573 8:-0.46487294 
-9 9 9 9 0 0 0 0 9 0 0 0 9 9 9 9 0 0 0 0 0 0 0 0 0 2:0.41891892 3:0.36134454 4:-0.73451327 5:-0.1266159 6:-0.19098857 7:-0.27978934 8:-0.42501246 
-9 9 9 9 0 0 0 0 9 0 0 0 0 9 9 0 0 0 0 0 0 0 0 0 0 1:1 2:0.37837838 3:0.32773109 4:-0.73451327 5:-0.36993094 6:-0.4667115 7:-0.46543779 8:-0.49875436 
-0 0 0 0 0 0 9 0 0 9 0 0 0 0 0 0 0 0 0 0 0 0 0 0 0 1:1 2:-0.081081081 3:-0.092436975 4:-0.80530973 5:-0.77758102 6:-0.81506389 7:-0.7919684 8:-0.81863478 
-9 9 9 9 0 0 0 0 9 0 0 0.72073233084068977 9 9 9 9 9 8.856815393463668 0 0 0 0 0 0 0 2:0.52702703 3:0.41176471 4:-0.75221239 5:-0.24172127 6:-0.34297243 7:-0.39697169 8:-0.38515197 
-0 0 0 0 9 0 9 0 0 9 0 0 0 0 0 0 0 0 0 0 0 0 0 0 0 1:1 2:-0.14864865 3:-0.14285714 4:-0.81415929 5:-0.81264388 6:-0.84196369 7:-0.86306781 8:-0.84155456 
-0 0 9 0 0 0 0 0 0 9 0 0 0 0 0 0 0 0 0 0 0 0 0 0 0 1:1 2:0.10810811 3:0.025210084 4:-0.78761062 5:-0.63626704 6:-0.66980498 7:-0.73140224 8:-0.71001495 
-9 0 9 9 0 0 0 0 0 9 0 0 0 0 0 0 0 0 0 0 0 0 0 0 0 1:-1 2:0.13513514 3:0.14285714 4:-0.78761062 5:-0.60970427 6:-0.70006725 7:-0.63923634 8:-0.67015446 
-9 9 9 9 0 0 0 0 9 0 0 0 9 9 9 9 0 0 0 0 0 0 0 0 0 2:0.2972973 3:0.31092437 4:-0.69026549 5:-0.18930406 6:-0.26025555 7:-0.35878868 8:-0.44793224 
-9 9 9 9 0 0 0 0 9 0 0 0 0 5.4330336430156541 0 0 0 0 0 0 0 0 0 0 0 1:-1 2:0.37837838 3:0.34453782 4:-0.73451327 5:-0.35966 6:-0.45057162 7:-0.39565504 8:-0.53761834 
-9 0 9 9 0 0 0 0 0 0 0 0 0 0 0 0 0 0 0 0 0 0 0 0 0 1:1 2:0.27027027 3:0.27731092 4:-0.76106195 5:-0.45493182 6:-0.50100874 7:-0.61158657 8:-0.55057299 
-9 0 9 0 0 0 0 0 0 0 0 0 0 0 0 0 0 0 0 0 0 0 0 0 0 1:1 2:0.2027027 3:0.19327731 4:-0.78761062 5:-0.57995396 6:-0.6805649 7:-0.70901909 8:-0.6243149 
-9 9 9 9 0 0 0 0 9 0 0 0 0 9 9 0 0 0 0 0 0 0 0 0 0 1:-1 2:0.48648649 3:0.42857143 4:-0.67256637 5:-0.14680361 6:-0.21183591 7:-0.23765635 8:-0.43298455 
-9 9 9 9 0 0 0 0 8.3731427493304942 0 0 0 0 0 0 0 0 0 0 0 0 0 0 0 0 2:0.43243243 3:0.42857143 4:-0.75221239 5:-0.29945104 6:-0.36449227 7:-0.38380513 8:-0.52466368 
-0 0 0 0 0 0 9 0 0 9 0 0 0 0 0 0 0 0 0 0 0 0 0 0 0 1:1 2:0.027027027 3:-0.025210084 4:-0.80530973 5:-0.69399681 6:-0.72293208 7:-0.77616853 8:-0.76083707 
-9 0 9 0 0 0 9 0 0 9 0 0 0 0 0 0 0 0 0 0 0 0 0 0 0 1:-1 2:0.013513514 3:-0.075630252 4:-0.81415929 5:-0.65043386 6:-0.65501009 7:-0.78538512 8:-0.74588939 
-0 0 9 0 0 0 9 0 0 9 0 0 0 0 0 0 0 0 0 0 0 0 0 0 0 1:1 2:0.094594595 3:0.0084033613 4:-0.79646018 5:-0.6667257 6:-0.72360457 7:-0.70638578 8:-0.73991031 
-9 9 9 9 0 0 0 0 0 0 0 0 0 0 0 0 0 0 0 0 0 0 0 0 0 2:0.36486486 3:0.31092437 4:-0.76106195 5:-0.32849301 6:-0.35036987 7:-0.52205398 8:-0.53961136 
-0 0 9 0 0 0 9 0 0 9 0 0 0 0 0 0 0 0 0 0 0 0 0 0 0 1:1 2:0.013513514 3:0.0084033613 4:-0.80530973 5:-0.67664247 6:-0.74041695 7:-0.82488479 8:-0.72396612 
-0 0 9 0 0 0 9 0 0 9 0 0 0 0 0 0 0 0 0 0 0 0 0 0 0 1:1 2:0.094594595 3:-0.0084033613 4:-0.76106195 5:-0.61430848 6:-0.63349025 7:-0.73930217 8:-0.68809168 
-0 0 9 0 0 0 0 0 0 9 0 0 0 0 0 0 0 0 0 0 0 0 0 0 0 1:1 2:0.21621622 3:0.14285714 4:-0.78761062 5:-0.57074553 6:-0.60188299 7:-0.63396972 8:-0.72296961 
-0 0 9 0 0 0 0 0 0 9 0 0 0 0 0 0 0 0 0 0 0 0 0 0 0 1:1 2:0.067567568 3:0.058823529 4:-0.80530973 5:-0.60793342 6:-0.66509751 7:-0.69848585 8:-0.67812656 
-0 0 9 0 9 0 9 0 0 9 0 0 0 0 0 0 0 0 0 0 0 0 0 0 0 1:1 2:-0.13513514 3:-0.17647059 4:-0.78761062 5:-0.78926864 6:-0.83120377 7:-0.82225148 8:-0.82461385 
-9 0 9 9 0 0 0 0 0 0 0 0 0 0 0 0 0 0 0 0 0 0 0 0 0 1:1 2:0.21621622 3:0.17647059 4:-0.74336283 5:-0.50805738 6:-0.59179556 7:-0.59710336 8:-0.58445441 
-9 0 9 9 0 0 0 0 0 0 0 0 0 0 0 0 0 0 0 0 0 0 0 0 0 1:1 2:0.24324324 3:0.21008403 4:-0.73451327 5:-0.59305826 6:-0.51782112 7:-0.64581962 8:-0.55455904 
-9 9 9 9 0 0 0 0 9 0 0 0 0 9 9 0 0 0 0 0 0 0 0 0 0 1:-1 2:0.2027027 3:0.37815126 4:-0.73451327 5:-0.32813883 6:-0.38802959 7:-0.47728769 8:-0.49476831 
-0 0 5.5178125877666986 0 0 0 9 0 0 9 0 0 0 0 0 0 0 0 0 0 0 0 0 0 0 1:1 2:-0.13513514 3:-0.092436975 4:-0.81415929 5:-0.78466442 6:-0.85205111 7:-0.80776827 8:-0.81365222 
-9 0 9 0 0 0 9 0 0 9 0 0 0 0 0 0 0 0 0 0 0 0 0 0 0 2:-0.013513514 3:-0.042016807 4:-0.81415929 5:-0.74358066 6:-0.80228648 7:-0.78933509 8:-0.76880917 
-0 0 0 0 9 0 9 0 0 9 0 0 0 0 0 0 0 0 0 0 0 0 0 0 0 1:1 2:-0.18918919 3:-0.22689076 4:-0.84070796 5:-0.83353993 6:-0.85877606 7:-0.89730086 8:-0.84354758 
-9 0 9 9 0 0 0 0 0 9 0 0 0 0 0 0 0 0 0 0 0 0 0 0 0 1:-1 2:0.067567568 3:0.1092437 4:-0.76106195 5:-0.58384983 6:-0.62945528 7:-0.68531929 8:-0.66417539 
-9 9 9 9 0 0 0 0 0 0 0 0 0 0 0 0 0 0 0 0 0 0 0 0 0 1:1 2:0.33783784 3:0.29411765 4:-0.73451327 5:-0.46661944 6:-0.54068594 7:-0.57998683 8:-0.55655207 
-9 9 9 9 0 0 0 0 9 0 0 0 0 9 9 0 0 0 0 0 0 0 0 0 0 1:-1 2:0.39189189 3:0.39495798 4:-0.73451327 5:-0.39153533 6:-0.44586416 7:-0.56945359 8:-0.50672646 
-9 0 9 0 0 0 0 0 0 9 0 0 0 0 0 0 0 0 0 0 0 0 0 0 0 1:-1 2:0.16216216 3:0.042016807 4:-0.79646018 5:-0.63237117 6:-0.66509751 7:-0.74851876 8:-0.70403587 
-0 0 9 0 0 0 9 0 0 9 0 0 0 0 0 0 0 0 0 0 0 0 0 0 0 1:1 2:-0.054054054 3:-0.042016807 4:-0.82300885 5:-0.73862228 6:-0.7995965 7:-0.77353522 8:-0.77379173 
-9 9 9 9 0 0 0 0 9 0 0 0 0 0 0 0 0 0 0 0 0 0 0 0 0 1:-1 2:0.17567568 3:0.21008403 4:-0.74336283 5:-0.46945281 6:-0.55817081 7:-0.51810402 8:-0.59840558 
-0 0 9 0 0 0 0 0 0 9 0 0 0 0 0 0 0 0 0 0 0 0 0 0 0 1:1 2:0.10810811 3:0.092436975 4:-0.77876106 5:-0.632017 6:-0.70342972 7:-0.69058591 8:-0.68410563 
-9 0 9 9 0 0 0 0 0 0 0 0 0 0 0 0 0 0 0 0 0 0 0 0 0 1:1 2:0.16216216 3:0.15966387 4:-0.74336283 5:-0.50239065 6:-0.55211836 7:-0.62606978 8:-0.59043348 
-9 0 9 9 0 0 0 0 0 0 0 0 0 0 0 0 0 0 0 0 0 0 0 0 0 1:1 2:0.17567568 3:0.15966387 4:-0.77876106 5:-0.58101647 6:-0.6798924 7:-0.65898618 8:-0.59641256 
-0 0 9 0 0 0 0 0 0 0 0 0 0 0 0 0 0 0 0 0 0 0 0 0 0 1:1 2:0.21621622 3:0.15966387 4:-0.7699115 5:-0.54418275 6:-0.56422327 7:-0.67346939 8:-0.66417539 
-0 0 0 0 0.84925756628153071 0 9 0 0 9 0 0 0 0 0 0 0 0 0 0 0 0 0 0 0 1:1 2:-0.12162162 3:-0.12605042 4:-0.84070796 5:-0.77156012 6:-0.79825151 7:-0.80908492 8:-0.82760339 
-0 0 9 0 0 0 0 0 0 0 0 0 0 0 0 0 0 0 0 0 0 0 0 0 0 1:1 2:0.2027027 3:0.19327731 4:-0.80530973 5:-0.63414202 6:-0.71015467 7:-0.76036866 8:-0.63627304 
-0 0 9 0 0 0 9 0 0 9 0 0 0 0 0 0 0 0 0 0 0 0 0 0 0 1:1 2:0.013513514 3:-0.042016807 4:-0.77876106 5:-0.71489286 6:-0.77135171 7:-0.81698486 8:-0.73492775 
-9 0 9 0 0 0 0 0 0 0 0 0 0 0 0 0 0 0 0 0 0 0 0 0 0 1:1 2:0.17567568 3:0.1092437 4:-0.74336283 5:-0.45847353 6:-0.46536651 7:-0.63265306 8:-0.64324863 
-9 0 9 9 0 0 0 0 0 9 0 0 0 0 0 0 0 0 0 0 0 0 0 0 0 2:0.040540541 3:0.025210084 4:-0.79646018 5:-0.66460067 6:-0.71822461 7:-0.72481896 8:-0.68410563 
-0 0 0 0 0 0 9 0 0 9 0 0 0 0 0 0 0 0 0 0 0 0 0 0 0 1:1 2:-0.040540541 3:-0.12605042 4:-0.83185841 5:-0.73366389 6:-0.76597176 7:-0.79065174 8:-0.79471849 
-9 9 9 9 0 0 0 0 0 0 0 0 0 0 0 0 0 0 0 0 0 0 0 0 0 1:1 2:0.33783784 3:0.32773109 4:-0.76106195 5:-0.43899416 6:-0.48823134 7:-0.62870309 8:-0.51469856 
-9 9 9 9 0 0 0 0 9 0 0 0 0 0 9 0 0 0 0 0 0 0 0 0 0 2:0.36486486 3:0.31092437 4:-0.73451327 5:-0.39366035 6:-0.46334902 7:-0.59052008 8:-0.49875436 
-9 9 9 9 0 0 0 0 9 0 0 0 0 0 1.341951722973707 0 0 0 0 0 0 0 0 0 0 2:0.2027027 3:0.17647059 4:-0.79646018 5:-0.45174429 6:-0.57094822 7:-0.5154707 8:-0.56452417 
-9 0 9 9 0 0 0 0 0 0 0 0 0 0 0 0 0 0 0 0 0 0 0 0 0 2:0.28378378 3:0.24369748 4:-0.77876106 5:-0.31857624 6:-0.26496301 7:-0.58262014 8:-0.57448929 
-0 0 0 0 0 0 9 0 0 9 0 0 0 0 0 0 0 0 0 0 0 0 0 0 0 1:1 2:-0.067567568 3:-0.12605042 4:-0.80530973 5:-0.71630954 6:-0.75184936 7:-0.78275181 8:-0.80069756 
-9 0 9 0 0 0 0 0 0 9 0 0 0 0 0 0 0 0 0 0 0 0 0 0 0 1:1 2:0.12162162 3:0.15966387 4:-0.76106195 5:-0.55941208 6:-0.59314055 7:-0.66293614 8:-0.66616841 
-0 0 9 0 0 0 0 0 0 9 0 0 0 0 0 0 0 0 0 0 0 0 0 0 0 1:1 2:0.13513514 3:0.058823529 4:-0.77876106 5:-0.66743404 6:-0.72225958 7:-0.76168532 8:-0.70403587 
-9 9 9 9 0 0 0 0 9 0 0 0 0 9 9 0 0 0 0 0 0 0 0 0 0 1:-1 2:0.40540541 3:0.44537815 4:-0.73451327 5:-0.23392952 6:-0.28782784 7:-0.39302172 8:-0.4529148 
-9 9 9 9 0 0 0 0 0 0 0 0 0 0 0 0 0 0 0 0 0 0 0 0 0 2:0.44594595 3:0.2605042 4:-0.75221239 5:-0.35753497 6:-0.41223941 7:-0.47465438 8:-0.56452417 
-0 0 9 0 0 0 9 0 0 9 0 0 0 0 0 0 0 0 0 0 0 0 0 0 0 1:1 2:-0.040540541 3:-0.1092437 4:-0.80530973 5:-0.74110147 6:-0.77605918 7:-0.73271889 8:-0.79372197 
-4.212727163533506 0 9 0 0 0 0 0 0 0 0 0 0 0 0 0 0 0 0 0 0 0 0 0 0 1:1 2:0.16216216 3:0.17647059 4:-0.7699115 5:-0.57534974 6:-0.59583053 7:-0.7116524 8:-0.64424514 
-9 9 9 9 0 0 0 0 0 9 0 0 0 0 0 0 0 0 0 0 0 0 0 0 0 2:0.14864865 3:0.092436975 4:-0.75221239 5:-0.55126616 6:-0.62878278 7:-0.62475313 8:-0.64723468 
-9 9 9 9 0 0 0 0 0 0 0 0 0 0 0 0 0 0 0 0 0 0 0 0 0 1:1 2:0.40540541 3:0.36134454 4:-0.73451327 5:-0.4110147 6:-0.49428379 7:-0.49440421 8:-0.5346288 
-9 0 9 0.99199688289088594 0 0 0 0 0 9 0 0 0 0 0 0 0 0 0 0 0 0 0 0 0 1:-1 2:0.067567568 3:0.075630252 4:-0.78761062 5:-0.5902249 6:-0.64357767 7:-0.75510204 8:-0.66616841 
-9 9 9 9 0 0 0 0 9 0 0 0 0 9 0 0 0 0 0 0 0 0 0 0 0 1:-1 2:0.41891892 3:0.34453782 4:-0.72566372 5:-0.33203471 6:-0.41425689 7:-0.45227123 8:-0.50473343 
-9 0 9 0 0 0 9 0 0 9 0 0 0 0 0 0 0 0 0 0 0 0 1.1997026610678385 0 0 1:1 2:-0.10810811 3:-0.14285714 4:-0.80530973 5:-0.35682663 6:-0.44182919 7:-0.45490454 8:-0.80468361 
-0 0 7.7765483746419104 0 0 0 0 0 0 9 0 0 0 0 0 0 0 0 0 0 0 0 0 0 0 1:1 2:0.14864865 3:0.1092437 4:-0.78761062 5:-0.60474588 6:-0.62004035 7:-0.73008558 8:-0.73393124 
-0 0 0 0 0 0 9 0 0 9 0 0 0 0 0 0 0 0 0 0 0 0 0 0 0 1:1 2:-0.054054054 3:-0.1092437 4:-0.84955752 5:-0.81583141 6:-0.83523874 7:-0.82488479 8:-0.85849527 
-9 9 9 9 0 0 0 0 9 0 0 0 0 0 9 0 0 0 0 0 0 0 0 0 0 2:0.22972973 3:0.24369748 4:-0.73451327 5:-0.39968125 6:-0.5601883 7:-0.39038841 8:-0.6003986 
-9 0 9 0 0 0 1.7965203471472988 0 0 9 0 0 0 0 0 0 0 0 0 0 0 0 0 0 0 2:0.013513514 3:0.0084033613 4:-0.81415929 5:-0.63130866 6:-0.68258238 7:-0.69453588 8:-0.714001 
-9 0 9 0 0 0 9 0 0 9 0 0 0 0 0 0 0 0 0 0 0 0 0 0 0 1:-1 2:0.013513514 3:-0.092436975 4:-0.79646018 5:-0.696476 6:-0.70073974 7:-0.79460171 8:-0.77279522 
-9 9 9 9 0 0 0 0 9 0 0 8.2164975686575801 0 9 9 0 0 0 0 0 5.2673302675013742 0 0 0 0 2:0.28378378 3:0.2605042 4:-0.73451327 5:-0.53745352 6:-0.64694015 7:-0.68005267 8:-0.56253114 
-9 1.9299099639871073 9 2.0648837209305966 0 0 9 0 0 9 0 0 0 0 0 0 0 0 0 0 0 0 0 0 0 2:-0.081081081 3:-0.15966387 4:-0.7699115 5:-0.77474765 6:-0.82582381 7:-0.80250165 8:-0.79372197 
-0 0 9 0 0 0 9 0 0 9 0 0 0 0 0 0 0 0 0 0 0 0 0 0 0 1:1 3:-0.1092437 4:-0.78761062 5:-0.73366389 6:-0.79690652 7:-0.78406847 8:-0.76382661 
-0 0 0 0 0 0 9 0 0 9 0 0 0 0 0 0 0 0 0 0 0 0 0 0 0 1:1 2:-0.067567568 3:-0.092436975 4:-0.79646018 5:-0.75066407 6:-0.78278413 7:-0.83278473 8:-0.79372197 
-9 0 9 9 0 0 0 0 0 9 0 0 0 0 0 0 0 0 0 0 0 0 0 0 0 1:-1 2:0.21621622 3:0.17647059 4:-0.7699115 5:-0.49247388 6:-0.56220578 7:-0.48123766 8:-0.65421026 
-0 0 9 0 0 0 0 0 0 9 0 0 0 0 0 0 0 0 0 0 0 0 0 0 0 1:1 2:0.14864865 3:0.12605042 4:-0.77876106 5:-0.58845405 6:-0.60591796 7:-0.65371955 8:-0.68310912 
-9 9 9 9 0 0 0 0 0 0 0 0 0 0 0 0 0 0 0 0 0 0 0 0 0 2:0.37837838 3:0.34453782 4:-0.7699115 5:-0.38126439 6:-0.44855414 7:-0.45753785 8:-0.55455904 
-0 0 0 0 0 0 9 0 0 9 0 0 0 0 0 0 0 0 0 0 0 0 0 0 0 1:1 2:0.067567568 3:0.042016807 4:-0.82300885 5:-0.71028865 6:-0.76597176 7:-0.77616853 8:-0.73393124 
-9 9 9 9 0 0 0 0 9 0 0 0 0 9 9 0.019725224269384341 0 0 0 0 0 0 0 0 0 1:-1 2:0.37837838 3:0.32773109 4:-0.68141593 5:-0.43509828 6:-0.54942838 7:-0.51283739 8:-0.53064275 
-9 9 9 9 0 0 0 0 0 0 0 0 0 0 0 0 0 0 0 0 0 0 0 0 0 2:0.24324324 3:0.22689076 4:-0.7699115 5:-0.50628652 6:-0.58103564 7:-0.58920342 8:-0.59740907 
-0 0 0 0 0 0 9 0 0 9 0 0 0 0 0 0 0 0 0 0 0 0 0 0 0 1:1 3:-0.058823529 4:-0.80530973 5:-0.71028865 6:-0.73436449 7:-0.75510204 8:-0.78574988 
-0 0 9 0 0 0 9 0 0 9 0 0 0 0 0 0 0 0 0 0 0 0 0 0 0 1:1 2:-0.027027027 3:-0.042016807 4:-0.80530973 5:-0.73260138 6:-0.800269 7:-0.77748519 8:-0.76382661 
-9 9 9 9 0 0 0 0 9 0 0 8.4385877604793667 9 9 9 9 9 9 9 0 0 0 0 0 7.9954214712202649 2:0.54054054 3:0.51260504 4:-0.7079646 5:0.013281388 6:-0.08137189 7:-0.19025675 8:-0.33333333 
-9 0 9 0 0 0 0 0 0 9 0 0 0 0 0 0 0 0 0 0 0 0 0 0 0 1:-1 2:0.22972973 3:0.15966387 4:-0.77876106 5:-0.46484859 6:-0.466039 7:-0.60368664 8:-0.65421026 
-9 0 9 0 9 9 9 0 0 9 5.4467764262026463 0 0 0 0 0 0 0 0.40762641089708657 0 0 0 0 0 0 1:-1 2:-0.24324324 3:-0.29411765 4:-0.84955752 5:-0.8590402 6:-0.90854069 7:-0.86175115 8:-0.86447434 
-0 0 0 0 0 0 9 0 0 9 0 0 0 0 0 0 0 0 0 0 0 0 0 0 0 1:1 2:-0.027027027 3:-0.075630252 4:-0.81415929 5:-0.76412254 6:-0.79152656 7:-0.85516787 8:-0.79372197 
-0 0 0 0 0 0 9 0 0 9 0 0 0 0 0 0 0 0 0 0 0 0 0 0 0 1:1 2:-0.067567568 3:-0.14285714 4:-0.82300885 5:-0.79847707 6:-0.84667115 7:-0.80776827 8:-0.83358246 
-9 9 9 9 0 0 0 0 0 0 0 0 0 0 0 0 0 0 0 0 0 0 0 0 0 2:0.28378378 3:0.2605042 4:-0.73451327 5:-0.40641048 6:-0.47007397 7:-0.48782093 8:-0.55854509 
-9 9 9 9 0 0 0 0 9 0 0 0 0 0 0 0 0 0 0 0 0 0 0 0 0 2:0.41891892 3:0.37815126 4:-0.73451327 5:-0.22047105 6:-0.26765299 7:-0.31138907 8:-0.50473343 
-9 0 9 0 0 0 0 0 0 9 0 0 0 0 0 0 0 0 0 0 0 0 0 0 0 1:1 2:0.10810811 3:0.042016807 4:-0.81415929 5:-0.63272534 6:-0.73907196 7:-0.67741935 8:-0.64025909 
-9 9 9 9 0 0 0 9 9 0 0 9 9 9 9 9 9 9 0 2.6100013715672907 0 0 0 0 0 1:-1 2:0.44594595 3:0.42857143 4:-0.7079646 5:-0.12059501 6:-0.25151311 7:-0.29690586 8:-0.26158445 
-9 9 9 9 6.196903822571616 0 9 0 9 9 0 0 0.28945508943234066 0 9 0 3.1251997081210794 0 4.6918551203703824 0 0 0 0 0 0 1:-1 2:-0.22972973 3:-0.19327731 4:-0.81415929 5:-0.83070657 6:-0.88500336 7:-0.86175115 8:-0.81365222 
-9 0 9 0 0 0 0 0 0 9 0 0 0 0 0 0 0 0 0 0 0 0 0 0 0 2:0.040540541 3:0.042016807 4:-0.77876106 5:-0.66247565 6:-0.72427707 7:-0.72613562 8:-0.72197309 
-9 0 9 9 0 0 0 0 0 1.1859409670015222 0 0 0 0 0 0 0 0 0 0 0 0 0 0 0 2:0.28378378 3:0.21008403 4:-0.76106195 5:-0.42447317 6:-0.4270343 7:-0.51283739 8:-0.65421026 
-9 7.6447775983910082 9 9 0 0 9 0 0 9 0 0 0 0 0 0 0 0 0 0 0 0 0 0 0 1:-1 2:-0.040540541 3:-0.058823529 4:-0.79646018 5:-0.71383035 6:-0.77807666 7:-0.75510204 8:-0.73393124 
-9 9 9 9 0 0 0 0 9 0 0 0 0 9 9 0 0 0 0 0 0 0 0 0 0 1:1 2:0.28378378 3:0.27731092 4:-0.7079646 5:-0.43191075 6:-0.54404842 7:-0.49045425 8:-0.51669158 
-9 0 9 9 0 0 0 0 0 0 0 0 0 0 0 0 0 0 0 0 0 0 0 0 0 1:1 2:0.28378378 3:0.21008403 4:-0.74336283 5:-0.44784842 6:-0.49966375 7:-0.57998683 8:-0.56153463 
-0 0 9 0 0 0 0 0 0 0.99335795425696372 0 0 0 0 0 0 0 0 0 0 0 0 0 0 0 1:1 2:0.27027027 3:0.075630252 4:-0.78761062 5:-0.61678767 6:-0.68190989 7:-0.69716919 8:-0.65919283 
-9 9 9 9 0 0 0 0 7.401914211903259 0 0 0 0 7.1103721306163923 9 0 0 0 0 0 0 0 0 0 0 1:-1 2:0.2972973 3:0.19327731 4:-0.77876106 5:-0.5771206 6:-0.68594486 7:-0.61553654 8:-0.6163428 
-9 9 9 9 0 0 0 0 9 0 0 0 0 9 9 0 9 0 0 0 0 0 0 0 0 1:1 2:0.40540541 3:0.2605042 4:-0.7079646 5:-0.30405525 6:-0.39273705 7:-0.4562212 8:-0.45989038 
-6.3347531197686964 0 9 7.9712834945857081 9 9 9 0 9 9 0 0 0 0 0 0 0 0 0 0 0 0 0 0 0 1:1 2:-0.2972973 3:-0.31092437 4:-0.82300885 5:-0.86541526 6:-0.89576328 7:-0.84726794 8:-0.86347783 
-0 0 9 0 0 0 9 0 0 9 0 0 0 0 0 0 0 0 0 0 0 0 0 0 0 1:1 2:0.013513514 3:-0.0084033613 4:-0.78761062 5:-0.66991323 6:-0.73167451 7:-0.72086899 8:-0.7389138 
-9 0 9 0 0 0 8.9851823238204584 0 0 9 0 0 0 0 0 0 0 0 0 0 0 0 0 0 0 1:-1 3:-0.0084033613 4:-0.79646018 5:-0.74535151 6:-0.79085407 7:-0.81830151 8:-0.76980568 
-9 9 9 9 0 0 0 0 9 0 0 0 9 9 9 9 9 9 0 0 0 0 0 0 0 1:-1 2:0.5 3:0.42857143 4:-0.7079646 5:-0.090490526 6:-0.18897108 7:-0.28768927 8:-0.30543099 
-9 9 9 9 0 0 0 0 9 9 0 0 1.1070074377261836 9 9 0 0 0 0 0 0 0 0 0 0 2:0.14864865 3:0.15966387 4:-0.75221239 5:-0.5328493 6:-0.65635508 7:-0.53917051 8:-0.56452417 
-9 0 9 0 0 0 0 0 0 9 0 0 0 0 0 0 0 0 0 0 0 0 0 0 0 1:1 2:0.16216216 3:0.15966387 4:-0.77876106 5:-0.60439171 6:-0.69804976 7:-0.62343647 8:-0.66417539 
-9 9 9 9 0 0 0 0.74483043480585642 9 0 0 0 9 9 9 9 6.8788774244821491 0 0 0 0 0 0 0 0 1:-1 2:0.43243243 3:0.41176471 4:-0.74336283 5:-0.37524349 6:-0.48554136 7:-0.49967084 8:-0.46487294 
-9 9 9 9 0 0 0 0 0 0 0 0 0 0 0 0 0 0 0 0 0 0 0 0 0 1:-1 2:0.35135135 3:0.32773109 4:-0.7079646 5:-0.31751372 6:-0.33154001 7:-0.50098749 8:-0.54459392 
-9 9 9 9 0 0 0 0 0 9 0 0 0 0 0 0 0 0 0 0 0 0 0 0 0 2:0.054054054 3:-0.0084033613 4:-0.76106195 5:-0.55764123 6:-0.6529926 7:-0.62080316 8:-0.65421026 
-9 9 9 9 0 0 0 7.8774721386777591 9 0 0 0 9 9 9 9 9 0 0 0 7.9063136411882793 0 0 0 0 1:-1 2:0.21621622 3:0.21008403 4:-0.74336283 5:-0.40286878 6:-0.52723605 7:-0.57077024 8:-0.42999502 
-9 0 9 0 0 0 0 0 0 9 0 0 0 0 0 0 0 0 0 0 0 0 0 0 0 1:-1 2:0.12162162 3:0.1092437 4:-0.77876106 5:-0.57003719 6:-0.58910558 7:-0.74851876 8:-0.6492277 
-9 0 9 0 0 0 0 0 0 9 0 0 0 0 0 0 0 0 0 0 0 0 0 0 0 1:-1 2:0.081081081 3:0.0084033613 4:-0.78761062 5:-0.66141314 6:-0.68661735 7:-0.73403555 8:-0.73393124 
-9 9 9 9 0 0 0 0 9 0 0 0 0 9 9 0 0 0 0 0 0 0 0 0 0 2:0.41891892 3:0.36134454 4:-0.74336283 5:-0.34088897 6:-0.46536651 7:-0.41013825 8:-0.50871948 
-9 9 9 9 0 0 0 0 9 0 0 0 0 0 9 0 0 0 0 0 0 0 0 0 0 2:0.18918919 3:0.2605042 4:-0.75221239 5:-0.41066053 6:-0.50773369 7:-0.47465438 8:-0.54459392 
-0 0 0 0 9 0 9 0 0 9 0 0 0 0 0 0 0 0 0 0 0 0 0 0 0 1:1 2:-0.16216216 3:-0.21008403 4:-0.84955752 5:-0.82397733 6:-0.85070612 7:-0.84068466 8:-0.84354758 
-0 9 0 9 9 9 9 0 9 9 9 0 0 6.297541043999118 1.7980150161374655 0 0.3817823547423515 0 0 0 0 0 0 0 0 1:1 2:-0.39189189 3:-0.41176471 4:-0.85840708 5:-0.91110324 6:-0.94283793 7:-0.9315339 8:-0.92326856 
-9 0 9 2.4373128149530645 0 0 0 0 0 0 0 0 0 0 0 0 0 0 0 0 0 0 0 0 0 1:1 2:0.27027027 3:0.22689076 4:-0.77876106 5:-0.49353639 6:-0.5198386 7:-0.70638578 8:-0.56452417 
-0 0 0 0 0 0 9 0 0 9 0 0 0 0 0 0 0 0 0 0 0 0 0 0 0 1:1 2:0.027027027 3:-0.075630252 4:-0.82300885 5:-0.73791394 6:-0.5198386 7:-0.79723502 8:-0.78375685 
-0 0 0 0 9 0 9 0 0 9 0 0 0 0 0 0 0 0 0 0 0 0 0 0 0 1:1 2:-0.18918919 3:-0.24369748 4:-0.85840708 5:-0.85797769 6:-0.89038332 7:-0.87491771 8:-0.87344295 
-0 0 0 0 0 0 9 0 0 9 0 0 0 0 0 0 0 0 0 0 0 0 0 0 0 1:1 2:0.054054054 3:-0.025210084 4:-0.80530973 5:-0.72303878 6:-0.75588433 7:-0.80776827 8:-0.76382661 
-9 0 9 9 0 0 0 0 0 0 0 0 0 0 0 0 0 0 0 0 0 0 0 0 0 1:1 2:0.25675676 3:0.24369748 4:-0.76106195 5:-0.51549495 6:-0.533961 7:-0.59447005 8:-0.57847534 
-0 0 9 0 0 0 0 0 0 9 0 0 0 0 0 0 0 0 0 0 0 0 0 0 0 1:1 2:0.16216216 3:0.12605042 4:-0.73451327 5:-0.51620329 6:-0.51445864 7:-0.65635286 8:-0.69207773 
-9 9 9 9 0 0 0 0 0 0 0 0 0 0 0 0 0 0 0 0 0 0 0 0 0 2:0.33783784 3:0.31092437 4:-0.74336283 5:-0.37984771 6:-0.44720915 7:-0.42988808 8:-0.56452417 
-0 0 9 0 0 0 0 0 0 9 0 0 0 0 0 0 0 0 0 0 0 0 0 0 0 1:1 2:0.13513514 3:0.075630252 4:-0.79646018 5:-0.64228794 6:-0.67720242 7:-0.73008558 8:-0.70403587 
-9 0 9 9 0 0 0 0 0 0 0 0 0 0 0 0 0 0 0 0 0 0 0 0 0 1:1 2:0.2972973 3:0.27731092 4:-0.75221239 5:-0.45953604 6:-0.47074647 7:-0.60631995 8:-0.59242651 
-9 9 9 9 9 0 9 0 0 9 0 0 0 0 9 0 0 0 0 0 0 0 0 0 0 1:-1 2:-0.25675676 3:-0.2605042 4:-0.80530973 5:-0.79422702 6:-0.83658373 7:-0.83410138 8:-0.82262083 
-0 0 0 0 0 0 9 0 0 9 0 0 0 0 0 0 0 0 0 0 0 0 0 0 0 1:1 2:-0.067567568 3:-0.092436975 4:-0.79646018 5:-0.7789977 6:-0.8271688 7:-0.83410138 8:-0.8036871 
-9 9 9 9 0 0 0 0 9 0 0 0 0 9 9 0 0 0 0 0 0 0 0 0 0 1:-1 2:0.39189189 3:0.29411765 4:-0.73451327 5:-0.38338941 6:-0.48083389 7:-0.43515471 8:-0.51469856 
-9 9 9 9 0 0 0 0 9 0 0 0 0 0 0 0 0 0 0 0 0 0 0 0 0 1:-1 2:0.32432432 3:0.31092437 4:-0.73451327 5:-0.43757747 6:-0.51244116 7:-0.51678736 8:-0.56651719 
-0 0 9 0 0 0 0 0 0 0 0 0 0 0 0 0 0 0 0 0 0 0 0 0 0 1:1 2:0.2027027 3:0.15966387 4:-0.80530973 5:-0.57853728 6:-0.60659045 7:-0.69716919 8:-0.68410563 
-9 0 9 0 0 0 9 0 0 9 0 0 0 0 0 0 0 0 0 0 0 0 0 0 0 1:-1 2:-0.013513514 3:-0.092436975 4:-0.85840708 5:-0.70887197 6:-0.80766644 7:-0.73403555 8:-0.74389636 
-9 9 9 9 0 0 0 0 9 0 0 0 0 0 0 0 0 0 0 0 0 0 0 0 0 2:0.36486486 3:0.31092437 4:-0.74336283 5:-0.37241013 6:-0.44989913 7:-0.52337064 8:-0.51968112 
-9 0 9 9 0 0 0 0 0 9 0 0 0 0 0 0 0 0 0 0 0 0 0 0 0 1:-1 2:0.10810811 3:0.12605042 4:-0.84955752 5:-0.54559943 6:-0.60524546 7:-0.73008558 8:-0.6083707 
-0 0 9 0 0 0 0 0 0 9 0 0 0 0 0 0 0 0 0 0 0 0 0 0 0 1:1 2:0.081081081 3:0.092436975 4:-0.78761062 5:-0.68903843 6:-0.76126429 7:-0.7682686 8:-0.70303936 
-9 9 9 9 0 0 0 0 9 0 0 0 9 9 9 9 9 9 0 0 0 0 0 0 0 2:0.45945946 3:0.42857143 4:-0.71681416 5:-0.11421994 6:-0.21452589 7:-0.31797235 8:-0.34529148 
-9 0 9 9 0 0 0 0 0 0 0 0 0 0 0 0 0 0 0 0 0 0 0 0 0 1:-1 2:0.17567568 3:0.19327731 4:-0.74336283 5:-0.43757747 6:-0.48150639 7:-0.52337064 8:-0.61335326 
-0 0 9 0 0 0 9 0 0 9 0 0 0 0 0 0 0 0 0 0 0 0 0 0 0 1:1 2:0.040540541 3:0.058823529 4:-0.80530973 5:-0.72055959 6:-0.80161399 7:-0.77616853 8:-0.71300448 
-5.1791964771796719 0 9 0 0 0 0 0 0 0 0 0 0 0 0 0 0 0 0 0 0 0 0 0 0 1:1 2:0.18918919 3:0.14285714 4:-0.77876106 5:-0.53143262 6:-0.57094822 7:-0.63265306 8:-0.66417539 
-9 0 9 0 0 0 0 0 0 9 0 0 0 0 0 0 0 0 0 0 0 0 0 0 0 1:-1 2:0.040540541 3:-0.025210084 4:-0.78761062 5:-0.65185054 6:-0.67383995 7:-0.69190257 8:-0.73991031 
-9 9 9 9 0 0 0 0 9 9 0 2.2374037091962595 0 9 9 0 0 0 0 0 0 0 0 0 0 1:1 2:0.10810811 3:0.042016807 4:-0.75221239 5:-0.68443421 6:-0.7464694 7:-0.75773535 8:-0.54359741 
-0 0 9 0 0 0 0 0 0 9 0 0 0 0 0 0 0 0 0 0 0 0 0 0 0 1:1 2:0.18918919 3:0.1092437 4:-0.77876106 5:-0.56826634 6:-0.57431069 7:-0.66820276 8:-0.70403587 
-0 0 9 0 0 0 0 0 0 9 0 0 0 0 0 0 0 0 0 0 0 0 0 0 0 1:1 2:0.10810811 3:0.075630252 4:-0.7699115 5:-0.6093501 6:-0.64357767 7:-0.70638578 8:-0.6900847 
-9 0 9 9 0 0 9 0 0 9 0 0 0 0 0 0 0 0 0 0 0 0 0 0 0 1:-1 2:-0.067567568 3:-0.042016807 4:-0.79646018 5:-0.70285107 6:-0.76597176 7:-0.7564187 8:-0.73393124 
-9 9 9 9 0 0 0 0 9 0 0 0 0 0 0 0 0 0 0 0 0 0 0 0 0 1:-1 2:0.44594595 3:0.42857143 4:-0.73451327 5:-0.18717903 6:-0.24277068 7:-0.27978934 8:-0.47683109 
-9 0 9 0 0 0 0 0 0 0 0 0 0 0 0 0 0 0 0 0 0 0 0 0 0 1:1 2:0.13513514 3:0.15966387 4:-0.81415929 5:-0.57499557 6:-0.66442502 7:-0.66820276 8:-0.6243149 
-0 0 0 0 0 0 9 0 0 9 0 0 0 0 0 0 0 0 0 0 0 0 0 0 0 1:1 2:0.027027027 3:-0.025210084 4:-0.81415929 5:-0.71772623 6:-0.78076664 7:-0.80250165 8:-0.75186846 
-9 9 9 9 0 0 0 9 9 0 0 9 9 9 9 9 9 9 9 0 9 0 0 0 0 2:0.48648649 3:0.46218487 4:-0.69026549 5:-0.21692934 6:-0.39811701 7:-0.43120474 8:-0.28649726 
-0 0 0 0 9 0 9 0 0 9 0 0 0 0 0 0 0 0 0 0 0 0 0 0 0 1:1 2:-0.13513514 3:-0.1092437 4:-0.82300885 5:-0.78360191 6:-0.80094149 7:-0.8604345 8:-0.82361734 
-0 0 0 0 0 0 9 0 0 9 0 0 0 0 0 0 0 0 0 0 0 0 0 0 0 1:1 2:-0.027027027 3:-0.092436975 4:-0.81415929 5:-0.76412254 6:-0.81842636 7:-0.83015142 8:-0.77379173 
-9 9 9 9 0 0 0 0 9 0 0 0 0 0 9 0 0 0 0 0 0 0 0 0 0 2:0.37837838 3:0.32773109 4:-0.71681416 5:-0.36072251 6:-0.45662408 7:-0.41803818 8:-0.53761834 
-9 9 9 9 0 0 0 0 0 0.031372080122029314 0 0 0 0 0 0 0 0 0 0 0 0 0 0 0 2:0.22972973 3:0.17647059 4:-0.73451327 5:-0.37170179 6:-0.45595158 7:-0.40223831 8:-0.57448929 
-0 0 9 0 0 0 0 0 0 9 0 0 0 0 0 0 0 0 0 0 0 0 0 0 0 1:1 2:0.12162162 3:0.075630252 4:-0.77876106 5:-0.61572516 6:-0.6260928 7:-0.69848585 8:-0.74389636 
-9 9 9 9 0 0 0 0 9 9 0 0 0 0 9 0 0 0 0 0 0 0 0 0 0 1:-1 2:0.067567568 3:-0.0084033613 4:-0.82300885 5:-0.66318399 6:-0.74781439 7:-0.7682686 8:-0.65421026 
-9 0 9 9 0 0 0 0 0 0 0 0 0 0 0 0 0 0 0 0 0 0 0 0 0 1:-1 2:0.21621622 3:0.24369748 4:-0.77876106 5:-0.42624402 6:-0.45864156 7:-0.55233706 8:-0.61434978 
-9 9 9 9 0 0 0 0 9 0 0 0 9 9 9 9 8.0858348845896071 8.6204077319665142 0 0 0 0 0 0 0 1:-1 2:0.10810811 3:0.042016807 4:-0.72566372 5:-0.27253409 6:-0.43174176 7:-0.399605 8:-0.37917289 
-0 0 4.0669268396075289 0 0 0 9 0 0 9 0 0 0 0 0 0 0 0 0 0 0 0 0 0 0 1:1 2:-0.027027027 3:-0.092436975 4:-0.78761062 5:-0.71843457 6:-0.75722932 7:-0.84068466 8:-0.77877429 
-9 6.8205076712833206 9 9 0 0 0 0 0 0 0 0 0 0 0 0 0 0 0 0 0 0 0 0 0 1:-1 2:0.14864865 3:0.15966387 4:-0.7699115 5:-0.45493182 6:-0.50369872 7:-0.57998683 8:-0.58246139 
-0 9 0 9 9 9 9 4.2161673585892947 9 9 9 5.8222700518683252 4.8683027943209733 9 9 7.4418667994949956 9 3.7502487210994242 0 0 0 9 0.76771434470790079 9 0 1:1 2:-0.41891892 3:-0.49579832 4:-0.87610619 5:-0.93235346 6:-0.95292535 7:-0.95128374 8:-0.93323368 
-0 0 0 0 9 9 9 0 0 9 0 0 0 0 0 0 0 0 0 0 0 0 0 0 0 1:1 2:-0.32432432 3:-0.37815126 4:-0.87610619 5:-0.89374889 6:-0.92535306 7:-0.92100066 8:-0.89536622 
-9 9 9 9 0 0 0 0 9 0 0 0 0 9 9 9 0 0 0 0 0 0 0 0 0 1:-1 2:0.21621622 3:0.27731092 4:-0.72566372 5:-0.24703382 6:-0.34767989 7:-0.3877551 8:-0.43497758 
-9 0 9 0 0 0 0 0 0 9 0 0 0 0 0 0 0 0 0 0 0 0 0 0 0 1:-1 2:0.21621622 3:0.15966387 4:-0.75221239 5:-0.4910572 6:-0.50571621 7:-0.6194865 8:-0.6571998 
-9 9 9 9 0 0 0 0 9 0 0 0 0 0.23059626342524062 9 0 0 0 0 0 0 0 0 0 0 2:0.31081081 3:0.29411765 4:-0.72566372 5:-0.54772446 6:-0.54942838 7:-0.5365372 8:-0.51469856 
-9 0 9 9 0 0 0 0 0 0 0 0 0 0 0 0 0 0 0 0 0 0 0 0 0 1:1 2:0.31081081 3:0.2605042 4:-0.7699115 5:-0.48574464 6:-0.55010087 7:-0.62343647 8:-0.56950673 
-9 0 9 9 0 0 0 0 0 0 0 0 0 0 0 0 0 0 0 0 0 0 0 0 0 1:1 2:0.28378378 3:0.24369748 4:-0.7699115 5:-0.53107845 6:-0.63887021 7:-0.5720869 8:-0.58445441 
-0 0 9 0 0 0 9 0 0 9 0 0 0 0 0 0 0 0 0 0 0 0 0 0 0 1:1 2:-0.094594595 3:-0.092436975 4:-0.80530973 5:-0.77049761 6:-0.82313383 7:-0.8038183 8:-0.80169407 
-9 9 9 9 0 0 0 0 0 0 0 0 0 0 0 0 0 0 0 0 0 0 0 0 0 1:-1 2:0.2027027 3:0.15966387 4:-0.78761062 5:-0.59057907 6:-0.68661735 7:-0.65503621 8:-0.63428002 
-0 0 0 0 9 0 9 0 0 9 0 0 0 0 0 0 0 0 0 0 0 0 0 0 0 1:1 2:-0.14864865 3:-0.24369748 4:-0.84070796 5:-0.84912343 6:-0.88769334 7:-0.91178407 8:-0.84554061 
