svm_type c_svc
kernel_type polynomial
degree 2
gamma 0.125
coef0 0
nr_class 26
total_sv 2501
rho -0.00077782641604745822 -1.0176791298257883 -0.0090951445576300822 -0.52506158774790601 0.45774092343891654 -5.9492396251811259 -3.2828662091250616 1.2988406152616474 0.89199013163747809 -0.86319054400616069 -1.1188043464990727 -0.47110873835860556 -3.9679053016654393 0.19517350428774433 -1.304082178016043 -7.2196657576207031 -1.0995730967769057 -0.50444507692837415 1.0621633946490827 -1.211052710831019 0.098624247447365546 -1.6254470214804262 -2.4799314634817406 0.088001102152358124 -2.0150490382957074 0.96704018645330048 1.4486788190696966 2.7033160988189997 1.796142948205359 -8.1883926292811022 -1.9349318648477238 1.5240786337710002 2.2195263783597081 3.5339389945671194 1.7342405588200898 0.54692353638617563 -18.728697786747922 -2.1903955599361553 1.6420203382926108 -5.8275012031312023 -0.10634350025462316 1.3573261477995284 0.83014929817720529 0.43335271031176065 -0.1608309911680933 -1.2314557967343518 -4.7218382279091564 -0.31430915768176526 -3.1598391188585433 1.3579677588041668 1.0172258674068455 2.1589061838861716 -3.8671981728316922 -0.62970035526263435 1.1722154002386482 1.4161439652657255 1.0273655779064541 1.5924100045104479 2.1056552368205401 -1.7708117359365592 1.3318623694893861 0.9615737273205861 -3.1883699889704062 -1.9258197350932087 1.3885080003099328 2.3087537541939471 0.088265151894285687 -0.051910595170431263 0.069840881796658386 -1.6204702857620419 0.073846869621641026 -1.4421306504978983 0.68627337656964726 1.651074745314292 -8.204622903079688 -2.6062008611403398 1.0287670911528819 -0.029190512670926989 1.3879136829477789 -1.3126942150065073 -0.69201704207399395 -10.088994662808494 -0.93469138673474672 -1.6744710546755301 -5.4046781991508244 -2.4857429007523018 -1.856954287157363 -0.53648253910220101 -0.92434449480223713 0.18684604933688789 -1.4354480956350619 -4.0266224363038639 -0.38551543050797571 -2.8383773369162379 1.5537526316911139 -8.0399955245683064 -3.8847047208169574 1.4487273788852164 0.25217946882375775 0.52157999461253401 -0.86206901945805359 -0.27614046086290128 -5.3302055328121014 0.028982717643743373 -0.91640341416455207 -9.0059547208345609 -1.8306522343572447 -0.81688874233644726 -0.36206063946956396 -1.183125528792947 -1.1703093190519891 -0.36342931313123689 -3.0839174445639079 -0.39385825716164868 -2.3627977840462639 -10.325635901952353 -2.6435572657459714 1.2619412533026324 -0.052408823551418536 0.10745753871143443 -1.0932190923198939 -0.75623994676216899 -11.687860816844561 -0.57104823425334839 -1.1952855259553299 -14.605993131872953 -3.0898741539986516 -1.5343089625827413 0.018211862629141918 -0.80089697992272491 -0.82065696303052993 -0.59603206232966754 -4.3107387966820241 -0.38453793015188809 -2.9976166112778757 4.8763795572544328 8.5879132270607137 4.7805726928965218 13.367860470666761 8.5931892154166665 5.2007804887989018 -9.8546045960742603 2.0604989205302551 3.0580754968923562 -3.6885663957592048 2.0036442009543953 10.560315384093663 2.6287911057848348 2.1538565921503943 0.92168449107576544 0.56794846511394337 -16.556281954050068 1.068459832365261 -7.2005265910961214 3.438631965070948 3.7806884555905582 3.9131356643976378 0.042139323520602817 3.4562555109262361 -14.113126455368869 -3.1695309589733283 1.8162171819958739 -6.2496633512575599 2.5341635271459251 2.952221500349641 3.7166825507256624 2.0648161583665146 0.30962803007022927 -0.92714783537718215 -20.564836091605425 0.41806131901155802 -6.5737536243780346 -0.11118921536047285 -0.90410720610366602 -1.5059347393207072 -0.30027933978871324 -5.1101391738115636 -1.1581478891605037 -1.2063396264406754 -7.8363769976310804 -3.2821529955547439 -0.94101383275512918 -0.56930359492119154 -1.7565814626927485 -0.0059526265538728243 -1.6656327457480937 -2.6577012544203864 -0.090715700653905093 -2.1134121343254844 -1.6822079159275745 -3.356649030282052 -1.5831190545929841 -2.6961321676275851 -2.1792995918405254 -2.2556387185975355 -9.8571692285842474 -3.908752893500314 -2.0310352329948866 -1.348999523177226 -1.145451703146021 -1.7892230886527034 -3.6672428119373115 -2.1204876717852228 -0.51995424743421603 -1.7828716952565906 -1.0790277364791843 -0.069884338323035061 -2.8225818530624722 -0.86678049594649376 -0.85138998770575447 -5.8729711524307575 -2.0803289619761687 -0.22657811964948399 0.19923066368564696 -1.7916301732706419 -0.26750599450310825 -1.1744651268310229 -2.0612115569163802 -0.90884656715599499 -1.8218488268271125 -0.15418030178439548 -1.9418075530501526 -0.71206883714611102 -0.88790420210130816 -3.1175250109531527 -2.1951150996279156 -0.85290445124569281 -0.7939988359122635 -0.53088831759535127 -0.33017526460630131 -1.2782031325871854 -1.635666571824288 0.67976148229854716 -1.4609968551858583 -1.7412432118632493 -0.66195480590323652 -0.87016434892578787 -2.6153588422175402 -4.7123987273920074 -1.5614700486850328 -0.70331730499673739 0.72109993520736415 -1.2644384019337136 -1.3749020695820138 -1.4509650641970016 -0.01873110793675609 -1.3174631836330839 1.3859334960980165 1.77757657560934 8.7774811445053658 1.1559625367633388 2.2922473301357562 1.2858234117774547 1.4721066639443039 0.9342540819869688 0.83624609641325176 -2.5932662120583387 1.0098269914656259 -15.486173250718068 1.1481166431082614 -1.7300817708059213 -2.4782995487156256 1.3790966733771435 1.3008365901143546 3.326656122026268 -0.43302804212205709 -3.9366154925811898 -1.1781052408841857 0.34141519276493748 -1.1323502366018623 -2.3151168305552403 -4.4642116321998895 -0.6288311231259005 -1.8069202689589321 -0.076488312902292424 -1.052218284060201 -2.1125443803004114 -1.4820894393411563 -0.65679780341088445 -1.4042438909787036 1.3752034149062371 4.0987236826139659 1.6037271584638502 1.7733186260133269 0.93347847778509419 0.8034508955995977 -2.4824546088901025 1.0487311764634009 -11.756347807047444 2.1386864599261757 5.2433953622872931 0.67617988655785766 -0.53925134523056595 -1.2108373900788165 -1.1924726089427482 1.2473033837024277 -1.1552849073307858 -0.73766976027383135 -1.5285331644268516 -0.38832110710733259 -1.5329999818243332 -1.7195297873734869 -0.51025227440297627 -1.5332336080658895 -1.9354995418850045 -2.6073448269805595 -1.4929218529577721 -1.2847224260444408 -1.1555488835751553 -1.2355106958129487 -1.4045413543882634 -0.63942035494008698 -1.2502369895465206 -0.95096067596963951 -1.2167081246206239 -1.0305604304286748 -0.95533976925089847 -0.08399458726019482 -0.95857403804845054 -0.79684113560365999 1.0401140916011962 -0.82863302682207784 0.99800886897337149 -9.0382963923335566 -0.99169447017355483
label 11 7 19 8 13 9 5 6 10 14 12 15 18 3 22 17 4 21 16 20 23 25 26 2 27 1
nr_sv 280 255 19 341 123 406 77 148 385 70 151 58 24 11 6 36 34 9 36 19 8 1 1 1 1 1
SV
0 0 0 729 610.79286377024403 0 0 729 0 0 0 0 0 0 0 0 0 0 0 0 0 0 0 0 0 1:-1 2:0.55405405 3:0.51260504 4:-0.69911504 5:0.10324066 6:-0.066577001 7:-0.075707702 8:-0.21574489 
0 0 0 729 729 0 0 729 262.48267856280478 729 0 0 0 0 0 0 0 0 0 0 0 0 0 0 0 2:0.59459459 3:0.54621849 4:-0.67256637 5:-0.051885957 6:-0.24882313 7:-0.22975642 8:-0.13104136 
0 0 0 0 0 0 0 729 0 0 0 0 0 0 0 0 0 0 0 0 0 0 0 0 0 1:-1 2:0.74324324 3:0.78151261 4:-0.61061947 5:0.35434744 6:0.22999328 7:0.17840685 8:-0.048330842 
729 0 729 0 729 0 729 729 0 0 0 0 0 0 0 0 0 0 0 0 0 0 0 0 0 2:0.040540541 3:0.092436975 4:-0.7699115 5:-0.54878697 6:-0.59784802 7:-0.59973667 8:-0.68410563 
729 0 729 0 729 0 0 729 0 729 0 0 0 0 0 0 0 0 0 0 0 0 0 0 0 2:0.2027027 3:0.17647059 4:-0.78761062 5:-0.55728706 6:-0.64559516 7:-0.62870309 8:-0.64225212 
0 0 0 729 729 0 0 729 729 729 0 62.35854238595563 0 0 0 0 0 0 0 0 0 0 0 0 0 1:-1 2:0.47297297 3:0.37815126 4:-0.66371681 5:-0.051177616 6:-0.23402824 7:-0.16524029 8:-0.29546587 
0 0 0 729 0 0 0 0 729 729 321.32302295040853 0 0 0 729 0 0 729 0 0 0 0 0 0 0 2:0.75675676 3:0.83193277 4:-0.6460177 5:0.22897114 6:-0.063887021 7:-0.057274523 8:0.18285999 
729 0 729 729 729 729 729 729 0 0 0 0 0 0 0 590.48646554064896 0 0 0 0 0 0 10.758608179802001 0 6.2958855891747385 1:1 2:-0.24324324 3:-0.24369748 4:-0.82300885 5:-0.84026917 6:-0.87558843 7:-0.88150099 8:-0.83358246 
271.7328902374727 0 729 729 729 0 0 729 729 729 729 0 0 0 0 0 0 0 0 0 0 0 0 0 0 1:-1 2:0.027027027 3:0.0084033613 4:-0.7699115 5:-0.63662121 6:-0.73234701 7:-0.66556945 8:-0.65421026 
0 0 729 729 729 0 0 729 729 729 683.67276525969851 0 0 0 0 0 0 729 0 0 0 0 0 0 0 2:0.18918919 3:0.24369748 4:-0.76106195 5:-0.49707809 6:-0.64290518 7:-0.57867018 8:-0.50473343 
0 0 0 639.04530076035394 0 0 0 408.00911138920537 0 729 0 0 0 0 0 0 0 0 0 0 0 0 0 0 0 1:-1 2:0.82432432 3:0.68067227 4:-0.61946903 5:0.55764123 6:0.4263618 7:0.37722186 8:0.050323866 
0 0 729 492.73621980315119 729 0 0 729 0 0 0 0 0 0 0 0 0 0 0 0 0 0 0 0 0 2:0.25675676 3:0.41176471 4:-0.72566372 5:-0.3440765 6:-0.47141896 7:-0.49045425 8:-0.48480319 
729 0 729 729 729 0 0 729 727.83592932471151 225.67459356586036 524.90812031627661 0 0 0 0 0 0 0 0 0 0 0 0 0 0 1:-1 2:0.14864865 3:0.12605042 4:-0.7699115 5:-0.49920312 6:-0.63147276 7:-0.55892034 8:-0.64424514 
0 0 729 0 729 0 0 729 0 729 0 0 0 0 0 0 0 0 0 0 0 0 0 0 0 2:0.35135135 3:0.31092437 4:-0.76106195 5:-0.37595183 6:-0.48890383 7:-0.46543779 8:-0.48480319 
0 0 0 0 357.43798576828294 0 0 729 0 729 0 0 0 0 0 0 0 0 0 0 0 0 0 0 0 2:0.74324324 3:0.71428571 4:-0.68141593 5:0.216221 6:0.13718897 7:0.07044108 8:-0.23069258 
0 0 0 0 0 0 0 729 0 0 0 0 0 0 0 0 0 0 0 0 0 0 0 0 0 1:-1 2:0.78378378 3:0.73109244 4:-0.69026549 5:0.33026386 6:0.22192334 7:0.017774852 8:-0.030393622 
706.83394564164439 0 729 0 729 0 0 729 0 0 0 0 0 0 0 0 0 0 0 0 0 0 0 0 0 1:-1 2:0.44594595 3:0.39495798 4:-0.73451327 5:-0.1779706 6:-0.24142569 7:-0.32192232 8:-0.3881415 
0 0 0 0 0 0 0 729 0 0 0 0 0 0 0 0 0 0 0 0 0 0 0 0 0 2:0.82432432 3:0.66386555 4:-0.65486726 5:0.29661767 6:0.11499664 7:-0.037524687 8:-0.12605879 
0 729 0 729 0 0 29.700270337931773 184.34879877305394 729 729 729 729 0 474.93866506697725 729 0 96.805675255773508 729 729 387.58391360548904 0 0 0 0 0 1:-1 2:0.68918919 3:0.68067227 4:-0.6460177 5:0.31468036 6:-0.019502354 7:-0.036208032 8:0.18285999 
0 0 729 0 729 0 0 729 0 729 0 0 0 0 0 0 0 0 0 0 0 0 0 0 0 1:-1 2:0.51351351 3:0.4789916 4:-0.73451327 5:-0.23570037 6:-0.35238736 7:-0.3640553 8:-0.38515197 
0 0 0 0 729 0 0 729 0 729 0 0 0 0 0 0 0 0 0 0 0 0 0 0 0 2:0.51351351 3:0.51260504 4:-0.7079646 5:-0.11528245 6:-0.22528581 7:-0.40355497 8:-0.2406577 
0 33.632049906142171 0 729 0 0 0 689.42927814310792 0 729 0 0 0 0 0 0 0 0 0 0 0 0 0 0 0 1:-1 2:0.7972973 3:0.81512605 4:-0.66371681 5:0.64441296 6:0.54472091 7:0.34562212 8:0.0034877927 
0 0 0 0 729 0 0 729 0 0 0 0 0 0 0 0 0 0 0 0 0 0 0 0 0 2:0.58108108 3:0.57983193 4:-0.6460177 5:0.03488578 6:-0.12373907 7:-0.21263989 8:-0.16193323 
0 127.09870575587732 0 729 702.15054137149946 0 0 729 729 729 729 729 0 0 708.65137338175145 0 0 729 729 0 0 0 0 0 0 1:-1 2:0.33783784 3:0.42857143 4:-0.69026549 5:-0.16203294 6:-0.36381977 7:-0.31402238 8:-0.24564026 
0 0 0 0 0 0 0 729 0 0 0 0 0 0 0 0 0 0 0 0 0 0 0 0 0 1:-1 2:0.71621622 3:0.71428571 4:-0.6460177 5:0.1326368 6:-0.051782112 7:-0.1560237 8:-0.10612855 
0 0 0 0 729 0 0 729 0 90.151218535381773 0 0 0 0 0 0 0 0 0 0 0 0 0 0 0 2:0.45945946 3:0.57983193 4:-0.72566372 5:-0.26580485 6:-0.4270343 7:-0.39170507 8:-0.31539611 
0 0 729 0 729 0 0 729 0 0 0 0 0 0 0 0 0 0 0 0 0 0 0 0 0 2:0.41891892 3:0.37815126 4:-0.72566372 5:-0.26474234 6:-0.36180229 7:-0.34298881 8:-0.4449427 
0 0 0 729 0 0 0 0 0 0 0 0 0 0 0 0 0 19.54485734925397 0 0 0 0 0 0 0 2:0.77027027 3:0.76470588 4:-0.66371681 5:0.22932531 6:-0.088769334 7:0.14285714 8:0.033383159 
0 0 0 729 0 0 0 729 729 586.00144398248904 729 172.96330397092663 0 714.37453266961597 729 0 0 0 729 0 0 0 0 0 0 1:-1 2:0.55405405 3:0.56302521 4:-0.62831858 5:0.1875332 6:-0.10490921 7:-0.19025675 8:-0.086198306 
729 0 729 729 729 0 0 729 729 729 729 678.35664573400936 0 0 367.43469406842195 0 0 0 0 0 0 0 0 0 0 1:1 2:0.2972973 3:0.24369748 4:-0.68141593 5:-0.38161856 6:-0.50437122 7:-0.47333772 8:-0.49476831 
0 0 0 729 0 0 0 729 0 3.409510449461461 0 0 0 0 0 0 0 0 0 0 0 0 0 0 0 2:0.67567568 3:0.61344538 4:-0.6460177 5:0.12165752 6:-0.10423672 7:-0.12179065 8:-0.064275037 
0 0 0 0 729 0 0 729 0 0 0 0 0 0 0 0 0 0 0 0 0 0 0 0 0 2:0.56756757 3:0.51260504 4:-0.65486726 5:0.018948114 6:-0.07599193 7:0.00065832785 8:-0.27952167 
143.87611489950734 0 729 0 729 0 0 729 0 0 0 0 0 0 0 0 0 0 0 0 0 0 0 0 0 1:-1 2:0.55405405 3:0.49579832 4:-0.72566372 5:-0.14999115 6:-0.24142569 7:-0.17577354 8:-0.41704036 
729 0 729 0 729 0 247.35980430218112 729 0 0 0 0 0 0 0 0 0 0 0 0 0 0 0 0 0 1:1 2:0.28378378 3:0.2605042 4:-0.74336283 5:-0.44218169 6:-0.49764627 7:-0.55102041 8:-0.55854509 
0 0 729 729 729 0 0 729 729 729 0 0 0 0 0 0 0 185.28815278462747 0 0 0 0 0 0 0 1:1 2:0.28378378 3:0.31092437 4:-0.74336283 5:-0.4467859 6:-0.59179556 7:-0.58788677 8:-0.47483807 
0 0 729 729 729 0 0 729 729 729 729 0 0 0 729 0 0 69.06049923587716 0 455.62678258682337 0 0 0 0 0 2:0.14864865 3:0.075630252 4:-0.79646018 5:-0.58030813 6:-0.75252186 7:-0.61158657 8:-0.6243149 
729 0 729 0 729 0 666.40770184269127 729 0 729 0 0 0 0 0 0 0 0 0 0 0 0 0 0 0 1:-1 2:0.12162162 3:0.14285714 4:-0.75221239 5:-0.61253763 6:-0.70342972 7:-0.66556945 8:-0.70403587 
0 0 729 0 729 0 0 729 0 0 0 0 0 0 0 0 0 0 0 0 0 0 0 0 0 2:0.48648649 3:0.51260504 4:-0.69026549 5:-0.18682486 6:-0.26496301 7:-0.32718894 8:-0.3961136 
0 0 729 110.3823581612111 729 0 0 729 0 729 0 0 0 0 0 0 0 0 0 0 0 0 0 0 0 1:-1 2:0.35135135 3:0.34453782 4:-0.72566372 5:-0.28386754 6:-0.37121722 7:-0.45227123 8:-0.41504733 
0 0 0 0 0 0 0 729 0 624.8107566344072 0 0 0 0 0 0 0 0 0 0 0 0 0 0 0 1:-1 2:0.81081081 3:0.71428571 4:-0.61946903 5:0.36638923 6:0.20376597 7:0.20605662 8:-0.0064773293 
0 0 0 729 0 0 0 729 0 0 0 0 0 0 0 0 0 0 0 0 0 0 0 0 0 1:-1 2:0.60810811 3:0.57983193 4:-0.7079646 5:0.13794935 6:-0.08406187 7:-0.17314022 8:-0.20478326 
0 0 0 729 0 0 0 729 0 729 0 0 0 0 0 0 0 0 0 0 0 0 0 0 0 1:-1 2:0.67567568 3:0.6302521 4:-0.65486726 5:0.19638746 6:0.031607263 7:-0.045424621 8:-0.055306428 
0 0 0 729 667.83151386120824 0 0 729 729 729 729 0 0 0 0 0 639.65793258957274 729 0 0 0 180.49299347707924 0 0 0 1:-1 2:0.5 3:0.54621849 4:-0.69026549 5:-0.15459536 6:-0.33960995 7:-0.35088874 8:-0.2655705 
0 0 0 404.96025286766064 729 0 0 729 0 729 0 0 0 0 0 0 0 0 0 0 0 0 0 0 0 1:-1 2:0.54054054 3:0.57983193 4:-0.71681416 5:0.066406942 6:0.0013449899 7:-0.35615537 8:-0.14100648 
729 0 729 0 729 0 0 729 0 729 0 0 0 0 0 0 0 0 0 0 0 0 0 0 0 2:0.27027027 3:0.19327731 4:-0.77876106 5:-0.5101824 6:-0.60121049 7:-0.61685319 8:-0.58445441 
0 0 729 729 729 0 0 729 729 729 370.20309376687595 0 0 0 0 0 0 0 0 0 0 0 0 0 0 2:0.28378378 3:0.2605042 4:-0.72566372 5:-0.44536922 6:-0.61264291 7:-0.40355497 8:-0.53861485 
0 0 729 729 729 0 0 729 0 729 0 0 0 0 0 0 0 0 0 0 0 0 0 0 0 2:0.32432432 3:0.31092437 4:-0.77876106 5:-0.41313972 6:-0.57969065 7:-0.53127057 8:-0.54459392 
0 729 0 729 729 0 0 729 729 729 729 0 0 601.42869162723309 729 0 0 660.88514160986881 0 691.48368135057967 0 0 0 0 0 2:0.081081081 3:0.092436975 4:-0.74336283 5:-0.59766248 6:-0.77673167 7:-0.69058591 8:-0.63029397 
0 0 729 729 729 0 0 729 729 729 729 0 0 0 0 0 0 0 0 0 0 0 0 0 0 1:-1 2:0.31081081 3:0.27731092 4:-0.68141593 5:-0.37170179 6:-0.51714862 7:-0.46412113 8:-0.50473343 
0 0 0 510.62444298873737 0 0 0 729 0 729 0 0 0 0 0 0 0 0 0 0 0 0 0 0 0 2:0.67567568 3:0.69747899 4:-0.61061947 5:0.29768018 6:0.13584398 7:0.10994075 8:-0.096163428 
0 0 0 0 729 0 0 729 0 0 0 0 0 0 0 0 0 0 0 0 0 0 0 0 0 1:-1 2:0.68918919 3:0.64705882 4:-0.67256637 5:0.14149106 6:0.0073974445 7:0.06122449 8:-0.26856004 
0 0 729 0 729 0 0 729 0 211.9930189781837 0 0 0 0 0 0 0 0 0 0 0 0 0 0 0 1:-1 2:0.2972973 3:0.32773109 4:-0.74336283 5:-0.35328493 6:-0.46334902 7:-0.35352205 8:-0.43497758 
0 0 0 729 729 0 0 729 0 0 0 0 0 0 0 0 0 0 0 0 0 0 0 0 0 2:0.48648649 3:0.54621849 4:-0.72566372 5:-0.17726226 6:-0.34566241 7:-0.31928901 8:-0.29546587 
0 0 0 729 0 0 0 729 729 729 729 0 0 0 729 0 0 729 0 0 0 0 0 0 0 2:0.56756757 3:0.49579832 4:-0.63716814 5:0.080927926 6:-0.16543376 7:-0.020408163 8:-0.099152965 
729 0 729 0 729 0 0 729 0 93.899076135381648 0 0 0 0 0 0 0 0 0 0 0 0 0 0 0 2:-0.013513514 3:0.0084033613 4:-0.79646018 5:-0.70745529 6:-0.78816409 7:-0.75773535 8:-0.74190334 
0 0 0 729 0 0 0 729 729 729 0 0 0 0 0 0 0 0 0 0 0 0 0 0 0 1:-1 2:0.7027027 3:0.68067227 4:-0.61946903 5:0.51514078 6:0.40618695 7:0.0072416063 8:0.049327354 
729 0 729 0 729 0 0 729 0 0 0 0 0 0 0 0 0 0 0 0 0 0 0 0 0 1:1 2:0.28378378 3:0.22689076 4:-0.79646018 5:-0.52824509 6:-0.60793544 7:-0.640553 8:-0.58644743 
0 0 729 729 729 0 0 729 0 0 0 0 0 0 0 0 0 0 0 0 0 0 0 0 0 2:0.41891892 3:0.37815126 4:-0.71681416 5:-0.19886665 6:-0.37457969 7:-0.24160632 8:-0.40906826 
0 0 96.045720435355719 729 729 0 0 729 729 0 729 0 0 0 0 0 0 0 0 0 0 0 0 0 0 1:-1 2:0.36486486 3:0.36134454 4:-0.68141593 5:-0.19036657 6:-0.35574983 7:-0.2718894 8:-0.3552566 
0 0 729 0 729 0 0 729 0 0 0 0 0 0 0 0 0 0 0 0 0 0 0 0 0 2:0.52702703 3:0.44537815 4:-0.67256637 5:0.0040729591 6:-0.095494284 7:-0.088874259 8:-0.35426009 
729 0 729 0 729 0 0 729 0 0 0 0 0 0 0 0 0 0 0 0 0 0 0 0 0 1:1 2:0.36486486 3:0.31092437 4:-0.73451327 5:-0.37347264 6:-0.48621385 7:-0.45095458 8:-0.49476831 
0 0 0 729 729 0 0 729 0 0 0 0 0 0 0 0 0 0 0 0 0 0 0 0 0 1:-1 2:0.54054054 3:0.56302521 4:-0.69026549 5:0.15742872 6:0.046402152 7:-0.10072416 8:-0.14200299 
239.53793669617374 0 729 729 729 0 0 729 729 729 343.72502214875084 0 0 0 0 0 0 0 0 0 0 0 0 0 0 1:-1 2:0.14864865 3:0.19327731 4:-0.73451327 5:-0.53249513 6:-0.62273033 7:-0.640553 8:-0.56452417 
0 0 0 0 729 0 0 729 0 0 0 0 0 0 0 0 0 0 0 0 0 0 0 0 0 1:-1 2:0.60810811 3:0.54621849 4:-0.7079646 5:-0.17017886 6:-0.2938803 7:-0.25082291 8:-0.37319382 
0 178.88147323837069 729 729 729 0 0 729 0 729 0 0 0 0 0 0 0 0 0 314.60926520921748 0 0 0 0 0 2:0.12162162 3:0.075630252 4:-0.76106195 5:-0.567558 6:-0.65770007 7:-0.73271889 8:-0.56452417 
0 0 0 729 0 0 0 729 0 729 0 0 0 0 0 0 0 0 0 0 0 0 0 0 0 1:-1 2:0.74324324 3:0.71428571 4:-0.66371681 5:0.47264034 6:0.4532616 7:0.1323239 8:-0.0004982561 
0 0 0 0 308.28250789846732 0 0 729 0 729 0 0 0 0 0 0 0 0 0 0 0 0 0 0 0 2:0.64864865 3:0.6302521 4:-0.71681416 5:0.17974146 6:0.11903161 7:-0.0072416063 8:-0.05630294 
729 0 729 0 729 133.91607735089616 729 729 0 729 0 0 0 0 0 0 0 0 0 0 0 0 0 0 0 1:1 2:0.054054054 3:-0.042016807 4:-0.80530973 5:-0.7563308 6:-0.80968393 7:-0.80908492 8:-0.77777778 
0 0 0 229.07896664434654 729 0 0 729 0 0 0 0 0 0 0 0 0 0 0 0 0 0 0 0 0 2:0.47297297 3:0.51260504 4:-0.71681416 5:-0.029219054 6:-0.15601883 7:-0.27715602 8:-0.26856004 
0 0 0 0 729 0 0 729 0 0 0 0 0 0 0 0 0 0 0 0 0 0 0 0 0 1:-1 2:0.62162162 3:0.51260504 4:-0.71681416 5:0.083761289 6:-0.0060524546 7:-0.06122449 8:-0.24265072 
0 131.96804484266258 0 729 729 0 0 729 729 729 729 245.45711529948207 0 0 729 0 729 729 729 0 0 0 0 0 0 2:0.44594595 3:0.44537815 4:-0.7079646 5:-0.23145033 6:-0.42905178 7:-0.39038841 8:-0.24564026 
0 0 729 729 729 0 0 729 0 0 0 0 0 0 0 0 0 0 0 0 0 0 0 0 0 2:0.40540541 3:0.37815126 4:-0.73451327 5:-0.27501328 6:-0.44720915 7:-0.27847268 8:-0.42700548 
0 0 0 0 729 0 0 729 0 0 0 0 0 0 0 0 0 0 0 0 0 0 0 0 0 1:-1 2:0.60810811 3:0.64705882 4:-0.6460177 5:0.20453338 6:0.11903161 7:-0.016458196 8:-0.18584953 
0 0 0 0 729 0 0 729 0 0 0 0 0 0 0 0 0 0 0 0 0 0 0 0 0 2:0.51351351 3:0.57983193 4:-0.68141593 5:-0.031344077 6:-0.14862139 7:-0.16392363 8:-0.27952167 
0 299.13267011538647 0 729 729 0 0 729 729 729 729 46.088744177418612 0 0 423.9730164578927 0 146.06202344401987 729 729 0 0 109.36287656107397 0 0 0 1:-1 2:0.36486486 3:0.41176471 4:-0.73451327 5:-0.31432619 6:-0.48352387 7:-0.43120474 8:-0.30543099 
0 0 729 0 729 0 0 729 0 0 0 0 0 0 0 0 0 0 0 0 0 0 0 0 0 2:0.36486486 3:0.34453782 4:-0.78761062 5:-0.33557641 6:-0.46469401 7:-0.32455563 8:-0.47483807 
729 0 729 365.54757721557314 729 0 96.39657842249764 729 0 729 0 0 0 0 0 0 0 0 0 0 0 0 0 0 0 1:-1 2:0.17567568 3:0.14285714 4:-0.77876106 5:-0.5902249 6:-0.67316745 7:-0.64976959 8:-0.62830095 
0 0 260.61580574599191 0 729 0 0 729 0 604.21359097022275 0 0 0 0 0 0 0 0 0 0 0 0 0 0 0 2:0.56756757 3:0.54621849 4:-0.69911504 5:0.080219586 6:0.13987895 7:-0.3074391 8:-0.34329846 
0 325.38009596680342 0 0 0 0 0 0 0 729 0 0 0 0 0 0 0 0 0 466.69739359844465 0 0 0 0 0 2:0.77027027 3:0.69747899 4:-0.66371681 5:0.37453515 6:0.07330195 7:0.36668861 8:0.12406577 
0 0 0 729 729 0 0 729 0 729 0 0 0 0 0 0 0 0 0 0 0 0 0 0 0 2:0.44594595 3:0.4789916 4:-0.71681416 5:-0.23003365 6:-0.37054472 7:-0.479921 8:-0.23766816 
0 330.90470925407368 0 0 0 0 0 729 0 729 729 599.33134457155325 0 0 0 0 444.77656842696496 525.99691337153229 462.62323908826966 0 0 0 0 0 0 1:-1 2:0.78378378 3:0.79831933 4:-0.61946903 5:0.23605454 6:-0.022864829 7:0.059907834 8:0.10712506 
0 0 0 729 0 0 0 729 729 0 0 0 0 0 0 0 0 0 0 0 0 0 0 0 0 2:0.56756757 3:0.6302521 4:-0.61946903 5:0.1004073 6:-0.066577001 7:-0.22185648 8:-0.1180867 
0 0 729 306.97775890665037 729 0 0 729 0 0 0 0 0 0 0 0 0 0 0 0 0 0 0 0 0 1:-1 2:0.45945946 3:0.41176471 4:-0.69911504 5:-0.16380379 6:-0.36381977 7:-0.23897301 8:-0.52466368 
0 0 729 0 729 0 0 729 0 729 0 0 0 0 0 0 0 0 0 0 0 0 0 0 0 1:-1 2:0.52702703 3:0.51260504 4:-0.72566372 5:-0.15459536 6:-0.2528581 7:-0.44568795 8:-0.31340309 
355.66738193218919 0 729 0 729 0 0 729 0 0 0 0 0 0 0 0 0 0 0 0 0 0 0 0 0 1:-1 2:0.48648649 3:0.4789916 4:-0.67256637 5:-0.021427307 6:-0.045729657 7:-0.21000658 8:-0.31539611 
0 729 0 0 0 0 0 729 729 729 0 0 0 0 0 0 0 0 0 0 0 0 0 0 0 1:-1 2:0.71621622 3:0.69747899 4:-0.61061947 5:0.42588985 6:0.23806321 7:0.19420671 8:0.12506228 
0 0 0 729 729 0 0 729 729 729 588.64101520895952 729 0 0 623.89364735196932 0 0 684.51904045217611 487.86584234272044 160.92493809427447 64.77695050528088 0 0 54.463765373725636 0 2:0.40540541 3:0.2605042 4:-0.62831858 5:0.078448734 6:-0.12306658 7:0.041474654 8:-0.18584953 
0 474.8479569276858 0 729 0 0 0 729 729 729 508.9581153527871 0 0 0 729 0 0 0 0 368.80869064552542 0 0 0 0 0 2:0.51351351 3:0.4789916 4:-0.68141593 5:0.12909509 6:-0.17148621 7:-0.16655695 8:-0.2655705 
729 0 729 0 729 0 0 729 0 729 0 0 0 0 0 0 0 0 0 0 0 0 0 0 0 2:0.22972973 3:0.21008403 4:-0.79646018 5:-0.58243315 6:-0.68796234 7:-0.5839368 8:-0.64424514 
0 0 729 0 729 0 0 729 0 0 0 0 0 0 0 0 0 0 0 0 0 0 0 0 0 1:-1 2:0.41891892 3:0.4789916 4:-0.69026549 5:-0.087657163 6:-0.1862811 7:-0.27452271 8:-0.31639263 
729 0 729 729 729 0 207.17354941350931 729 0 729 0 0 0 0 0 0 0 0 0 0 0 0 0 0 0 1:-1 2:0.054054054 3:0.025210084 4:-0.85840708 5:-0.65574641 6:-0.74445192 7:-0.67215273 8:-0.69407075 
729 152.4985680647118 729 729 729 0 729 729 405.86227117557621 0 0 0 0 0 0 0 0 0 0 0 0 0 0 0 0 1:1 2:0.040540541 3:-0.0084033613 4:-0.78761062 5:-0.65539224 6:-0.74176194 7:-0.72481896 8:-0.69407075 
0 0 0 729 0 0 0 729 0 0 182.44805874289534 0 0 0 0 0 0 0 0 185.71982117231371 0 0 0 0 0 2:0.68918919 3:0.68067227 4:-0.61061947 5:0.17867894 6:-0.13113652 7:0.12705727 8:-0.096163428 
0 354.32821613583604 0 729 588.77050849686907 0 0 729 729 729 729 510.95741292586598 0 0 729 0 0 729 16.427793327218261 0 0 0 0 0 0 1:-1 2:0.27027027 3:0.32773109 4:-0.73451327 5:-0.30865947 6:-0.54875588 7:-0.49967084 8:-0.40508221 
0 0 729 0 729 0 0 729 0 0 0 0 0 0 0 0 0 0 0 0 0 0 0 0 0 1:-1 2:0.41891892 3:0.4789916 4:-0.69026549 5:-0.080219586 6:-0.16812374 7:-0.25345622 8:-0.34828102 
729 0 729 0 729 0 0 729 0 0 0 0 0 0 0 0 0 0 0 0 0 0 0 0 0 2:0.36486486 3:0.37815126 4:-0.74336283 5:-0.30263857 6:-0.36919973 7:-0.43383805 8:-0.50473343 
0 0 729 0 729 0 0 729 0 0 0 0 0 0 0 0 0 0 0 0 0 0 0 0 0 1:-1 2:0.63513514 3:0.54621849 4:-0.71681416 5:-0.12697007 6:-0.17014122 7:-0.31007242 8:-0.3552566 
0 0 729 0 729 0 0 729 0 0 0 0 0 0 0 0 0 0 0 0 0 0 0 0 0 2:0.45945946 3:0.41176471 4:-0.69026549 5:-0.15565787 6:-0.24949563 7:-0.31928901 8:-0.37219731 
0 0 729 0 729 0 0 729 0 0 0 28.778960228395114 0 0 13.604911151176866 0 0 0 249.39566156656633 0 0 0 0 0 0 1:1 2:0.25675676 3:0.24369748 4:-0.7699115 5:-0.42376483 6:-0.5070612 7:-0.64186965 8:-0.51270553 
729 0 729 0 729 0 0 729 0 274.65176257497723 0 0 0 0 156.59303675943627 0 0 0 0 0 0 0 0 0 0 1:1 2:0.44594595 3:0.24369748 4:-0.72566372 5:-0.25872145 6:-0.3194351 7:-0.48650428 8:-0.45690085 
729 0 729 729 729 0 0 729 729 729 729 0 0 0 0 0 0 0 0 0 0 0 0 0 0 1:-1 2:-0.040540541 3:-0.025210084 4:-0.79646018 5:-0.78572693 6:-0.87693342 7:-0.85648453 8:-0.76382661 
729 0 729 729 729 0 729 729 729 0 44.392865916918566 0 0 0 0 0 0 0 0 0 0 0 0 0 0 1:-1 2:-0.35135135 3:-0.34453782 4:-0.84070796 5:-0.85762352 6:-0.91862811 7:-0.90388413 8:-0.8445441 
0 0 0 0.65960495157904575 338.33553500213168 0 0 729 0 623.56024178239193 0 0 0 0 0 0 0 0 0 0 0 0 0 0 0 2:0.63513514 3:0.69747899 4:-0.65486726 5:0.25765893 6:0.15669132 7:-0.15339039 8:-0.1758844 
0 0 0 0 729 0 0 729 0 729 0 0 0 0 0 0 0 0 0 0 0 0 0 0 0 1:-1 2:0.48648649 3:0.46218487 4:-0.7079646 5:-0.21055428 6:-0.34297243 7:-0.31270573 8:-0.34030892 
0 729 0 729 729 0 0 729 729 729 729 729 0 170.53458512920704 729 0 222.73966552253592 729 729 199.25185823534247 0 0 0 0 0 2:0.36486486 3:0.37815126 4:-0.7079646 5:-0.22117939 6:-0.45796907 7:-0.44963792 8:-0.30543099 
0 0 729 0 729 0 0 729 0 729 0 0 0 0 0 0 0 0 0 0 0 0 0 0 0 1:-1 2:0.41891892 3:0.36134454 4:-0.72566372 5:-0.32176377 6:-0.40215198 7:-0.5036208 8:-0.41504733 
0 0 0 156.63357625043102 0 0 0 729 0 573.83272492684 0 0 0 0 0 0 0 0 0 0 0 0 0 0 0 2:0.60810811 3:0.59663866 4:-0.60176991 5:0.10465734 6:-0.15400134 7:0.28110599 8:-0.26058794 
0 0 621.27801315274382 729 729 0 0 729 0 729 729 0 0 0 0 0 0 729 0 0 0 0 0 0 0 1:-1 2:0.28378378 3:0.32773109 4:-0.7699115 5:-0.34974323 6:-0.4929388 7:-0.37327189 8:-0.42501246 
0 0 729 729 729 0 0 729 729 729 729 0 0 0 0 0 0 517.89681209022433 0 0 0 0 0 0 0 1:-1 2:0.14864865 3:0.12605042 4:-0.74336283 5:-0.54028688 6:-0.63416274 7:-0.65371955 8:-0.56452417 
0 0 729 0 729 0 0 729 0 729 0 0 0 0 0 0 0 0 0 0 0 0 0 0 0 2:0.44594595 3:0.41176471 4:-0.75221239 5:-0.19886665 6:-0.29186281 7:-0.38117182 8:-0.30543099 
0 127.17741113257341 0 729 729 0 0 729 729 0 729 0 0 0 417.38494458361669 0 0 729 296.68928361964311 0 0 0 0 93.056974117317395 0 2:0.22972973 3:0.34453782 4:-0.7079646 5:-0.30688861 6:-0.57700067 7:-0.2600395 8:-0.4120578 
0 0 0 729 729 0 0 729 0 0 0 0 0 0 0 0 0 0 0 0 0 0 0 0 0 2:0.54054054 3:0.51260504 4:-0.7079646 5:-0.067823623 6:-0.26160054 7:-0.20737327 8:-0.33532636 
0 0 0 0 729 0 0 729 0 729 0 0 0 0 0 0 0 0 0 0 0 0 0 0 0 2:0.55405405 3:0.51260504 4:-0.7079646 5:-0.17974146 6:-0.35776732 7:-0.27978934 8:-0.30742402 
729 0 729 0 729 0 0 729 0 0 0 0 0 0 0 0 0 0 0 0 0 0 0 0 0 1:1 2:0.2027027 3:0.19327731 4:-0.75221239 5:-0.53214096 6:-0.62811029 7:-0.59183673 8:-0.61235675 
0 0 0 0 729 0 0 729 0 0 0 0 0 0 0 0 0 0 0 0 0 0 0 0 0 1:-1 2:0.55405405 3:0.57983193 4:-0.67256637 5:0.052594298 6:-0.1069267 7:-0.11389072 8:-0.24962631 
0 0 729 0 729 0 0 729 0 0 0 0 0 0 0 0 0 0 0 0 0 0 0 0 0 1:1 2:0.39189189 3:0.36134454 4:-0.74336283 5:-0.36284753 6:-0.43779422 7:-0.53127057 8:-0.48480319 
729 0 729 729 729 0 729 729 729 0 88.191133677085915 729 0 0 405.57635314165185 0 0 105.70620441169648 0 0 0 0 0 0 0 1:1 2:0.067567568 3:-0.0084033613 4:-0.76106195 5:-0.5997875 6:-0.68997983 7:-0.61553654 8:-0.69905331 
729 0 729 0 729 0 0 729 0 0 0 0 0 0 0 0 0 0 0 0 0 0 0 0 0 1:-1 2:0.5 3:0.42857143 4:-0.73451327 5:-0.10111564 6:-0.11297915 7:-0.36273864 8:-0.38515197 
729 0 729 0 729 0 299.29789718977167 729 0 729 0 0 0 0 0 0 0 0 0 0 0 0 0 0 0 1:-1 2:0.31081081 3:0.34453782 4:-0.7079646 5:-0.39224367 6:-0.46133154 7:-0.55497038 8:-0.51469856 
0 0 729 729 729 0 0 729 729 729 0 0 0 0 0 0 0 466.73542851825977 0 0 0 0 0 0 0 2:0.27027027 3:0.29411765 4:-0.69026549 5:-0.4528068 6:-0.5998655 7:-0.50757077 8:-0.47483807 
729 0 729 729 729 0 0 729 729 729 0 0 0 0 127.77531462825242 0 0 0 0 0 0 0 0 0 0 1:-1 2:0.21621622 3:0.15966387 4:-0.69911504 5:-0.48397379 6:-0.6260928 7:-0.46017117 8:-0.61434978 
0 0 729 729 729 0 0 729 0 729 0 0 0 0 0 0 0 0 0 0 0 0 0 0 0 2:0.2027027 3:0.17647059 4:-0.75221239 5:-0.51159908 6:-0.63012777 7:-0.640553 8:-0.57448929 
0 729 716.81843823345537 729 729 0 0 729 729 729 729 729 0 0 729 0 0 702.34942777359811 0 0 0 0 0 0 0 1:-1 2:0.37837838 3:0.2605042 4:-0.71681416 5:-0.3249513 6:-0.51378615 7:-0.53785385 8:-0.46487294 
0 713.49704841342361 0 729 0 0 0 729 729 729 729 729 0 568.10713806232673 729 0 729 729 729 27.526921232369482 376.1639108068801 1.3019966915643264 0 235.31705202436049 0 2:0.48648649 3:0.46218487 4:-0.72566372 5:-0.14538693 6:-0.37592468 7:-0.57472021 8:-0.1838565 
0 135.87051866680088 729 0 729 0 0 729 229.8939163215525 729 0 0 0 124.3956490843952 0 0 0 0 0 0 0 161.36876778270332 0 0 0 1:-1 2:0.45945946 3:0.44537815 4:-0.61946903 5:-0.32034709 6:-0.43375925 7:-0.53785385 8:-0.42501246 
729 0 729 0 729 0 0 729 0 246.33109194042083 0 0 0 0 0 0 0 0 0 0 0 0 0 0 0 2:0.25675676 3:0.22689076 4:-0.75221239 5:-0.43120241 6:-0.50504371 7:-0.54707044 8:-0.58445441 
0 0 729 0 729 0 0 729 0 0 0 0 0 0 0 0 0 0 0 0 0 0 0 0 0 2:0.59459459 3:0.51260504 4:-0.71681416 5:-0.086594652 6:-0.15265636 7:-0.23107307 8:-0.36522172 
0 0 0 0 729 0 0 729 0 0 0 0 0 0 0 0 0 0 0 0 0 0 0 0 0 1:-1 2:0.63513514 3:0.54621849 4:-0.69911504 5:0.14007438 6:0.13046402 7:-0.19552337 8:-0.21574489 
0 0 0 0 729 0 0 729 0 0 0 0 0 0 0 0 0 0 0 0 0 0 0 0 0 1:-1 2:0.56756757 3:0.54621849 4:-0.71681416 5:-0.073490349 6:-0.25756557 7:-0.029624753 8:-0.31539611 
0 0 0 0 729 0 0 729 0 0 0 0 0 0 0 0 0 0 0 0 0 0 0 0 0 2:0.5 3:0.52941176 4:-0.67256637 5:-0.1266159 6:-0.31338265 7:-0.082290981 8:-0.39212755 
729 0 729 697.42556068595638 729 0 0 729 0 546.4921989575937 0 0 0 0 0 0 0 0 0 0 0 0 0 0 0 2:-0.054054054 3:-0.025210084 4:-0.80530973 5:-0.74180981 6:-0.83322125 7:-0.78801843 8:-0.76980568 
0 0 729 0 729 0 0 729 0 0 0 0 0 0 0 0 0 0 0 0 0 0 0 0 0 1:-1 2:0.54054054 3:0.49579832 4:-0.69026549 5:-0.053302639 6:-0.14996638 7:-0.21395655 8:-0.30742402 
729 0 729 0 729 0 729 729 0 0 0 0 0 0 0 0 0 0 0 0 0 0 0 0 0 1:1 2:0.2027027 3:0.14285714 4:-0.79646018 5:-0.54489109 6:-0.57700067 7:-0.67346939 8:-0.632287 
0 0 0 0 729 0 0 729 0 0 0 0 0 0 0 0 0 0 0 0 0 0 0 0 0 1:-1 2:0.52702703 3:0.51260504 4:-0.68141593 5:-0.082698778 6:-0.20780094 7:-0.17840685 8:-0.27952167 
0 0 0 0 0 0 0 0 196.45779445719083 729 0 0 0 0 0 0 0 0 0 0 0 0 0 0 0 2:0.82432432 3:0.73109244 4:-0.62831858 5:0.58243315 6:0.49024882 7:0.36668861 8:0.083208769 
0 1.6181424790837169 0 0 0 0 0 0 615.68376422459846 729 0 0 0 0 0 0 0 0 0 0 0 0 0 0 0 2:0.83783784 3:0.91596639 4:-0.62831858 5:0.7729768 6:0.60793544 7:0.34957209 8:0.34927753 
0 0 0 0 729 0 0 729 330.39842093623389 729 0 0 0 0 0 0 0 0 0 0 0 0 0 0 0 2:0.51351351 3:0.44537815 4:-0.66371681 5:-0.026385692 6:-0.14862139 7:-0.24160632 8:-0.19382162 
0 0 729 0 729 0 0 729 0 0 0 0 0 0 0 0 0 0 0 0 0 0 0 0 0 1:-1 2:0.60810811 3:0.56302521 4:-0.7079646 5:-0.016823092 6:-0.045057162 7:-0.24687294 8:-0.40508221 
0 0 729 729 729 0 0 729 0 729 220.6968845412195 0 0 0 0 0 0 0 0 0 0 0 0 0 0 1:-1 2:0.37837838 3:0.34453782 4:-0.73451327 5:-0.3022844 6:-0.41560188 7:-0.45490454 8:-0.38515197 
0 0 0 0 0 0 0 436.20692887057379 0 703.3731468556249 0 0 0 0 0 0 0 0 0 0 0 0 0 0 0 2:0.7027027 3:0.64705882 4:-0.69911504 5:0.11776164 6:-0.13584398 7:0.20078999 8:-0.47483807 
0 0 0 0 729 0 0 729 0 0 0 0 0 0 0 0 0 0 0 0 0 0 0 0 0 2:0.60810811 3:0.54621849 4:-0.69911504 5:0.0090313441 6:-0.11297915 7:-0.10730744 8:-0.2655705 
0 0 729 729 729 0 0 729 729 729 729 0 0 0 0 0 0 0 0 0 0 0 0 0 0 2:0.36486486 3:0.32773109 4:-0.67256637 5:-0.2962635 6:-0.47074647 7:-0.28505596 8:-0.43497758 
0 0 729 567.91427686974635 729 0 0 729 0 0 729 0 0 0 0 0 0 0 0 0 0 0 0 0 0 1:1 2:0.47297297 3:0.46218487 4:-0.71681416 5:-0.24632548 6:-0.40147949 7:-0.35352205 8:-0.39511709 
0 0 0 0 729 0 0 729 0 729 0 0 0 0 0 0 0 0 0 0 0 0 0 0 0 1:-1 2:0.5 3:0.46218487 4:-0.69911504 5:-0.16947052 6:-0.29455279 7:-0.28242265 8:-0.32735426 
0 0 0 0 729 0 0 729 0 729 0 0 0 0 0 0 0 0 0 0 0 0 0 0 0 1:-1 2:0.48648649 3:0.46218487 4:-0.67256637 5:-0.17336639 6:-0.29186281 7:-0.33377222 8:-0.31738914 
0 0 729 0 729 0 0 729 0 0 0 0 0 0 0 0 0 0 0 0 0 0 0 0 0 2:0.32432432 3:0.46218487 4:-0.72566372 5:-0.34655569 6:-0.45662408 7:-0.42330481 8:-0.49476831 
729 0 729 0 729 0 729 729 0 476.37629465866161 0 0 0 0 0 0 0 0 0 0 0 0 0 0 0 1:-1 2:-0.18918919 3:-0.17647059 4:-0.82300885 5:-0.8268107 6:-0.86146604 7:-0.87623436 8:-0.83756851 
729 0 729 0 729 582.32929934911022 729 729 0 0 0 0 0 0 0 0 0 0 0 0 0 0 0 0 0 2:-0.094594595 3:-0.15966387 4:-0.82300885 5:-0.744289 6:-0.76798924 7:-0.83015142 8:-0.78375685 
729 0 729 0 729 0 0 729 0 729 0 0 0 0 0 0 0 0 0 0 0 0 0 0 0 1:-1 2:0.32432432 3:0.34453782 4:-0.72566372 5:-0.33876395 6:-0.43510424 7:-0.51942067 8:-0.48480319 
729 0 729 0 729 0 729 729 0 0 0 0 0 0 0 0 0 0 0 0 0 0 0 0 0 1:-1 2:-0.33783784 3:-0.36134454 4:-0.86725664 5:-0.8912697 6:-0.92266308 7:-0.90125082 8:-0.90533134 
0 0 0 0 729 0 0 729 0 684.36375944052838 0 0 0 0 0 0 0 0 0 0 0 0 0 0 0 1:1 2:0.5 3:0.51260504 4:-0.68141593 5:-0.1004073 6:-0.19098857 7:-0.2244898 8:-0.37518685 
0 688.31467428232327 0 729 729 0 0 729 729 729 729 0 0 0 729 0 0 729 0 0 0 0 0 0 0 1:-1 2:0.39189189 3:0.29411765 4:-0.73451327 5:-0.32459713 6:-0.50907868 7:-0.36273864 8:-0.41504733 
729 0 729 729 729 0 0 729 729 729 695.03733604757701 0 0 0 0 0 0 0 0 0 0 0 0 0 0 1:1 2:0.2027027 3:0.17647059 4:-0.75221239 5:-0.59234992 6:-0.73234701 7:-0.6194865 8:-0.64623817 
729 0 729 0 729 0 729 729 0 0 0 0 0 0 0 0 0 0 0 0 0 0 0 0 0 1:1 2:0.12162162 3:0.092436975 4:-0.78761062 5:-0.62670444 6:-0.71015467 7:-0.63528637 8:-0.69407075 
0 0 0 0 729 0 0 729 0 729 0 0 0 0 0 0 0 0 0 0 0 0 0 0 0 1:-1 2:0.59459459 3:0.51260504 4:-0.71681416 5:-0.088365504 6:-0.17484869 7:-0.33508887 8:-0.27254609 
0 0 0 729 408.40922340065464 0 0 729 729 729 729 729 0 0 32.420326671770169 0 10.574950409057033 34.099931849918896 378.14311394114861 0 0 0 0 0 0 1:-1 2:0.51351351 3:0.4789916 4:-0.65486726 5:-0.17124137 6:-0.40282448 7:-0.18104016 8:-0.31041355 
0 394.04498603225619 0 729 729 0 0 729 729 729 729 729 0 353.44781369384174 729 0 219.58090549746774 729 0 0 0 0 0 0 0 2:0.47297297 3:0.4789916 4:-0.69911504 5:-0.24915885 6:-0.50100874 7:-0.44042133 8:-0.32536124 
0 729 0 729 0 0 0 729 729 0 729 0 0 0 0 0 0 729 0 0 0 0 0 0 0 2:0.48648649 3:0.56302521 4:-0.68141593 5:-0.042323358 6:-0.34969738 7:-0.077024358 8:-0.25560538 
0 595.95820272617038 0 729 0 0 0 729 729 729 729 729 0 206.67867799875248 729 0 0 729 647.92136105767338 439.57057026858496 0 117.56969528007596 0 0 0 1:-1 2:0.27027027 3:0.27731092 4:-0.74336283 5:-0.33663892 6:-0.50571621 7:-0.67346939 8:-0.31539611 
729 206.73493157362768 729 729 729 273.91777745470489 729 729 0 0 0 0 0 0 0 0 0 428.36537880694345 0 0 0 0 0 2.0480014917207914 0 1:1 2:-0.14864865 3:-0.14285714 4:-0.82300885 5:-0.78749779 6:-0.84532616 7:-0.83278473 8:-0.77379173 
0 0 729 729 729 0 411.10276101211537 729 49.503453779460081 729 729 0 0 0 729 0 0 0 0 0 0 0 0 0 0 1:-1 2:0.12162162 3:0.092436975 4:-0.76106195 5:-0.61785019 6:-0.70880968 7:-0.75115207 8:-0.6243149 
0 0 0 729 729 0 0 729 0 729 0 0 0 0 0 0 0 0 0 0 0 0 0 0 0 1:-1 2:0.48648649 3:0.4789916 4:-0.69026549 5:-0.14609527 6:-0.28715535 7:-0.26135616 8:-0.30044843 
0 0 729 0 729 0 0 729 0 0 0 0 0 0 0 0 0 0 0 0 0 0 0 0 0 1:1 2:0.44594595 3:0.46218487 4:-0.71681416 5:-0.18363733 6:-0.21250841 7:-0.37327189 8:-0.42202292 
0 0 0 0 0 0 0 729 0 729 0 0 0 0 0 0 0 0 0 0 0 0 0 0 0 2:0.75675676 3:0.59663866 4:-0.66371681 5:0.22507526 6:0.11499664 7:0.046741277 8:-0.19581465 
729 0 729 0 729 0 0 729 0 0 0 0 0 0 0 0 0 0 0 0 0 0 0 0 0 1:-1 2:0.39189189 3:0.37815126 4:-0.72566372 5:-0.19674163 6:-0.29589778 7:-0.31270573 8:-0.45490782 
0 0 729 0 729 0 0 729 0 0 0 0 0 0 0 0 0 0 0 0 0 0 0 0 0 2:0.36486486 3:0.36134454 4:-0.78761062 5:-0.29768018 6:-0.37928716 7:-0.37327189 8:-0.4449427 
729 0 729 0 729 0 0 729 0 0 0 0 0 0 0 0 0 0 0 0 0 0 0 0 0 2:0.44594595 3:0.39495798 4:-0.7079646 5:-0.16663715 6:-0.2400807 7:-0.26793943 8:-0.41704036 
0 0 600.47975412228061 0 729 0 0 729 0 0 0 0 0 0 0 0 0 0 0 0 0 0 0 0 0 1:-1 2:0.5 3:0.46218487 4:-0.66371681 5:-0.16734549 6:-0.33759247 7:-0.11520737 8:-0.43497758 
729 0 729 0 729 0 198.50150957970104 729 0 729 0 0 0 0 0 0 0 0 0 0 0 0 0 0 0 3:-0.058823529 4:-0.75221239 5:-0.67805915 6:-0.76126429 7:-0.70111916 8:-0.72396612 
0 0 729 0 729 0 0 729 0 729 0 0 0 0 0 0 0 0 0 0 0 0 0 0 0 1:-1 2:0.31081081 3:0.34453782 4:-0.72566372 5:-0.43686913 6:-0.54404842 7:-0.50098749 8:-0.51968112 
0 0 0 729 729 0 0 729 0 729 0 0 0 0 0 0 0 0 0 0 0 0 0 0 0 2:0.56756757 3:0.52941176 4:-0.72566372 5:-0.088011333 6:-0.28244788 7:-0.24950625 8:-0.18584953 
0 0 0 729 729 0 0 729 0 729 0 0 0 0 0 0 0 0 0 0 0 0 0 0 0 1:-1 2:0.55405405 3:0.51260504 4:-0.66371681 5:-0.098990614 6:-0.20780094 7:-0.39565504 8:-0.22371699 
729 0 729 0 729 0 0 729 525.61647801887489 0 0 0 0 0 0 0 0 0 0 0 0 0 0 0 0 1:1 2:0.21621622 3:0.2605042 4:-0.73451327 5:-0.47972375 6:-0.56758574 7:-0.57735352 8:-0.57448929 
0 0 729 0 729 0 0 729 0 0 0 0 0 0 0 0 0 0 0 0 0 0 0 0 0 1:-1 2:0.47297297 3:0.46218487 4:-0.71681416 5:-0.26828404 6:-0.40954943 7:-0.33640553 8:-0.43497758 
0 0 15.147552700181837 0 729 0 0 729 729 729 0 702.30709924908683 0 0 0 0 0 0 0 0 0 0 0 0 0 2:0.37837838 3:0.41176471 4:-0.67256637 5:-0.32247211 6:-0.44384667 7:-0.57603687 8:-0.34529148 
0 0 0 0 729 0 0 729 0 0 0 0 0 0 0 0 0 0 0 0 0 0 0 0 0 2:0.52702703 3:0.4789916 4:-0.69911504 5:-0.1326368 6:-0.34229993 7:-0.008558262 8:-0.42999502 
0 0 729 729 729 0 0 729 0 729 572.98995925239694 0 0 0 0 0 0 0 0 0 0 0 0 0 0 2:0.27027027 3:0.21008403 4:-0.73451327 5:-0.48184877 6:-0.62542031 7:-0.5720869 8:-0.5675137 
0 568.55400192480329 0 729 729 0 0 729 729 729 729 0 0 186.57810057777382 427.74835075320135 0 0 729 0 0 0 0 0 0 0 2:0.27027027 3:0.2605042 4:-0.7079646 5:-0.43332743 6:-0.60659045 7:-0.51942067 8:-0.4449427 
0 0 729 729 729 0 0 729 0 729 0 0 0 0 0 0 0 0 0 0 0 0 0 0 0 1:-1 2:0.27027027 3:0.32773109 4:-0.73451327 5:-0.37843103 6:-0.48083389 7:-0.60631995 8:-0.47982063 
0 0 0 0 729 0 0 729 0 0 0 0 0 0 0 0 0 0 0 0 0 0 0 0 0 2:0.54054054 3:0.56302521 4:-0.69911504 5:-0.15353285 6:-0.2938803 7:-0.23107307 8:-0.3712008 
0 729 0 729 0 0 0 224.91495705957848 729 729 729 729 0 124.12516929476631 729 0 536.43478433811458 729 729 729 149.77565093757738 0 0 27.296424466266963 0 2:0.63513514 3:0.69747899 4:-0.65486726 5:0.17726226 6:-0.22125084 7:0.013824885 8:0.083208769 
729 0 729 0 729 0 729 729 0 729 674.45550520851612 0 0 0 0 0 0 0 0 0 0 0 0 0 0 1:1 2:0.32432432 3:0.29411765 4:-0.69026549 5:-0.38268107 6:-0.44451917 7:-0.44832126 8:-0.58445441 
0 0 0 0 0 0 0 729 0 0 0 0 0 0 0 0 0 0 0 0 0 0 0 0 0 1:-1 2:0.55405405 3:0.57983193 4:-0.69026549 5:0.086948822 6:-0.078009415 7:-0.057274523 8:-0.19581465 
0 0 0 729 0 0 0 729 0 0 534.11124749721739 0 0 0 0 0 0 0 0 0 0 0 0 0 0 2:0.56756757 3:0.54621849 4:-0.72566372 5:-0.07419869 6:-0.29657028 7:-0.090190915 8:-0.23567514 
0 84.294632083982961 0 0 0 0 0 0 0 729 0 0 0 0 0 0 0 0 0 155.03590561816628 0 0 0 0 0 1:-1 2:0.78378378 3:0.78151261 4:-0.67256637 5:0.50309899 6:0.27908541 7:0.44700461 8:-0.0064773293 
729 0 729 0 729 0 729 729 0 729 0 0 0 0 0 0 0 0 0 0 0 0 0 0 0 2:-0.013513514 3:-0.025210084 4:-0.81415929 5:-0.69789269 6:-0.77942165 7:-0.78275181 8:-0.73991031 
0 0 0 0 729 0 0 729 0 0 0 0 0 0 0 0 0 0 0 0 0 0 0 0 0 1:-1 2:0.59459459 3:0.57983193 4:-0.69026549 5:0.020718966 6:-0.10894418 7:0.011191573 8:-0.29945192 
429.76776517971058 0 729 0 729 0 0 729 0 0 0 0 0 0 0 0 0 0 0 0 0 0 0 0 0 1:-1 2:0.44594595 3:0.42857143 4:-0.75221239 5:-0.24880468 6:-0.3073302 7:-0.40882159 8:-0.42202292 
0 0 729 0 729 0 0 729 0 0 0 0 0 0 0 0 0 0 0 0 0 0 0 0 0 1:-1 2:0.54054054 3:0.46218487 4:-0.69026549 5:-0.066406942 6:-0.12373907 7:-0.3759052 8:-0.32835077 
0 0 0 0 0 0 0 729 0 0 0 0 0 0 0 0 0 0 0 0 0 0 0 0 0 1:-1 2:0.74324324 3:0.69747899 4:-0.68141593 5:0.12236586 6:-0.07195696 7:-0.013824885 8:-0.12107623 
0 0 0 0 0 0 0 729 0 729 0 0 0 0 0 0 0 0 0 0 0 0 0 0 0 1:-1 2:0.72972973 3:0.66386555 4:-0.69026549 5:0.29130512 6:0.26025555 7:0.00065832785 8:-0.12605879 
0 0 0 118.69689266386111 0 0 0 729 336.40871331308057 0 471.7260019398463 0 0 0 0 0 0 36.142369599410685 0 0 0 86.805634200738751 0 0 0 1:-1 2:0.52702703 3:0.74789916 4:-0.69026549 5:0.031698247 6:-0.16072629 7:-0.30085583 8:-0.12705531 
0 0 729 729 729 0 0 729 729 729 0 0 0 0 0 0 0 0 0 0 0 0 0 0 0 2:0.067567568 3:-0.0084033613 4:-0.74336283 5:-0.63485036 6:-0.74983188 7:-0.6761027 8:-0.64424514 
0 0 0 729 729 0 0 729 729 0 729 0 0 0 0 0 0 0 0 0 0 0 0 0 0 1:-1 2:0.41891892 3:0.41176471 4:-0.69026549 5:-0.049052594 6:-0.26294553 7:-0.24423963 8:-0.28550075 
0 0 729 0 729 0 0 729 0 0 0 0 0 0 0 0 0 0 0 0 0 0 0 0 0 2:0.5 3:0.42857143 4:-0.71681416 5:-0.15211617 6:-0.2932078 7:-0.11915734 8:-0.37518685 
0 0 0 729 0 0 0 729 0 0 0 0 0 0 0 0 0 0 0 0 0 0 0 0 0 2:0.63513514 3:0.56302521 4:-0.67256637 5:0.056844342 6:-0.17417619 7:0.034891376 8:-0.19382162 
0 0 729 729 729 0 0 729 0 729 0 0 0 0 0 0 0 0 0 0 0 0 0 0 0 1:-1 2:0.25675676 3:0.22689076 4:-0.76106195 5:-0.42943156 6:-0.53261601 7:-0.52863726 8:-0.5346288 
0 0 729 729 729 0 0 729 0 729 0 0 0 0 0 0 0 0 0 0 0 0 0 0 0 1:-1 2:0.41891892 3:0.37815126 4:-0.7079646 5:-0.25942979 6:-0.37592468 7:-0.38380513 8:-0.37518685 
0 0 425.02016583154284 0 729 0 0 729 0 729 0 0 0 0 0 0 0 0 0 0 0 0 0 0 0 2:0.55405405 3:0.57983193 4:-0.66371681 5:-0.020364795 6:0.19233356 7:-0.18630678 8:-0.19581465 
0 0 0 729 729 0 0 729 0 0 0 0 0 0 0 0 0 0 0 0 0 0 0 0 0 1:-1 2:0.48648649 3:0.39495798 4:-0.68141593 5:-0.19674163 6:-0.39475454 7:-0.14680711 8:-0.39511709 
729 0 729 0 729 0 0 729 0 729 0 0 0 0 0 0 0 0 0 0 0 0 0 0 0 2:0.36486486 3:0.29411765 4:-0.77876106 5:-0.44501505 6:-0.51311365 7:-0.48650428 8:-0.61434978 
0 0 0 504.47540104296286 0 0 0 729 0 729 0 0 0 0 0 0 0 0 0 0 0 0 0 0 0 1:-1 2:0.64864865 3:0.66386555 4:-0.6460177 5:0.25411723 6:0.092131809 7:0.017774852 8:-0.026407573 
729 0 729 729 729 0 0 729 315.46628796168062 0 0 0 0 0 0 0 161.00829353572232 729 0 0 0 0 0 0 0 1:1 2:0.13513514 3:0.12605042 4:-0.77876106 5:-0.53001594 6:-0.61936785 7:-0.57472021 8:-0.60438465 
0 0 0 729 0 0 0 729 729 729 729 729 0 0 729 0 210.68274087506401 729 0 0 0 0 0 0 0 1:-1 2:0.54054054 3:0.49579832 4:-0.68141593 5:0.033469099 6:-0.19636853 7:-0.36273864 8:-0.12805182 
729 0 729 0 729 0 729 729 0 0 0 0 0 0 0 0 0 0 0 0 0 0 0 0 0 2:-0.094594595 3:-0.1092437 4:-0.79646018 5:-0.72728883 6:-0.77942165 7:-0.73666886 8:-0.80667663 
0 729 0 729 729 0 0 729 729 729 729 0 0 0 729 0 0 729 592.18546187184927 0 0 0 0 0 0 2:0.37837838 3:0.44537815 4:-0.73451327 5:-0.23711705 6:-0.44384667 7:-0.4443713 8:-0.29347285 
0 0 0 0 729 0 0 729 0 0 0 0 0 0 0 0 0 0 0 0 0 0 0 0 0 2:0.5 3:0.4789916 4:-0.6460177 5:0.0083230034 6:-0.11499664 7:-0.11652403 8:-0.24564026 
0 334.31156647197406 729 729 729 0 0 729 83.538930131061576 729 0 516.89984385706543 0 0 0 0 0 0 0 0 0 0 0 0 0 1:1 2:0.2972973 3:0.36134454 4:-0.74336283 5:-0.36355587 6:-0.48419637 7:-0.58525346 8:-0.45191829 
0 0 0 0 729 0 0 729 0 0 0 0 0 0 0 0 0 0 0 0 0 0 0 0 0 1:-1 2:0.56756757 3:0.6302521 4:-0.7079646 5:-0.0076146627 6:-0.065904506 7:-0.37327189 8:-0.16591928 
559.87654894949685 0 729 729 729 0 0 729 0 0 0 0 0 0 351.24514085895112 0 0 0 0 0 0 0 0 0 0 1:1 2:0.22972973 3:0.22689076 4:-0.7699115 5:-0.40888968 6:-0.49764627 7:-0.56155365 8:-0.50672646 
0 0 729 729 729 0 0 729 727.27751365664085 729 0 0 0 0 0 0 0 0 0 0 0 0 0 0 0 1:1 2:0.2972973 3:0.27731092 4:-0.74336283 5:-0.50734903 6:-0.64895763 7:-0.58657011 8:-0.52466368 
729 208.81818563141326 729 0 729 0 729 729 0 729 0 0 0 0 31.326404561921141 0 0 0 0 0 0 0 0 0 0 1:-1 2:0.32432432 3:0.12605042 4:-0.77876106 5:-0.47441119 6:-0.52790854 7:-0.65898618 8:-0.66716492 
729 0 729 729 729 729 729 729 0 0 0 0 0 0 0 265.86360247834102 0 0 0 0 0 0 0 0 0 1:1 2:-0.2027027 3:-0.24369748 4:-0.84070796 5:-0.8363733 6:-0.8796234 7:-0.85780118 8:-0.86347783 
0 0 729 0 729 0 0 729 729 729 0 0 0 0 0 0 0 0 0 0 0 0 0 0 0 2:0.2027027 3:0.2605042 4:-0.73451327 5:-0.48574464 6:-0.59515804 7:-0.58657011 8:-0.5346288 
0 729 0 729 0 0 0 729 729 729 729 729 0 673.73663537405866 729 0 129.48905472658052 729 729 729 1.9470270672569399 72.098036006764417 0 10.731348637625674 0 1:-1 2:0.22972973 3:0.19327731 4:-0.7079646 5:-0.48291128 6:-0.7471419 7:-0.55365372 8:-0.38515197 
0 0 0 729 0 0 0 729 0 20.687896523481797 0 0 0 0 0 0 0 0 0 0 0 0 0 0 0 1:-1 2:0.62162162 3:0.56302521 4:-0.74336283 5:-0.03488578 6:-0.25218561 7:-0.10467413 8:-0.23567514 
0 0 729 0 729 0 0 729 0 19.201854206599823 0 0 0 0 0 0 0 0 0 0 0 0 0 0 0 2:0.48648649 3:0.31092437 4:-0.71681416 5:-0.22932531 6:-0.38264963 7:-0.22053983 8:-0.39711011 
0 0 0 0 729 0 0 729 0 729 0 0 0 0 0 0 0 0 0 0 0 0 0 0 0 2:0.48648649 3:0.49579832 4:-0.71681416 5:-0.13936604 6:-0.23133826 7:-0.4562212 8:-0.29546587 
0 0 729 0 729 0 0 729 0 0 0 0 0 0 0 0 0 0 0 0 0 0 0 0 0 2:0.5 3:0.4789916 4:-0.7079646 5:-0.075261201 6:-0.19569603 7:-0.25345622 8:-0.37518685 
0 0 0 0 729 0 0 729 0 0 0 0 0 0 0 0 0 0 0 0 0 0 0 0 0 1:-1 2:0.51351351 3:0.54621849 4:-0.71681416 5:-0.14609527 6:-0.27706792 7:-0.25872284 8:-0.31539611 
0 0 729 729 729 0 0 729 0 729 0 0 0 0 0 0 0 0 0 0 0 0 0 0 0 2:0.21621622 3:0.19327731 4:-0.76106195 5:-0.49955729 6:-0.60726295 7:-0.59973667 8:-0.5346288 
0 0 0 0 0 0 0 729 0 0 0 0 0 0 0 0 0 0 0 0 0 0 0 0 0 2:0.71621622 3:0.69747899 4:-0.68141593 5:0.16876217 6:-0.012777404 7:0.0019749835 8:-0.10114599 
0 0 729 0 729 0 0 729 0 138.03618527723555 0 0 0 0 0 0 0 0 0 0 0 0 0 0 0 2:0.44594595 3:0.44537815 4:-0.69911504 5:-0.22188773 6:-0.31203766 7:-0.39828835 8:-0.39511709 
0 0 0 0 0 0 0 729 729 729 0 0 0 0 0 0 0 0 0 0 0 0 0 0 0 2:0.63513514 3:0.52941176 4:-0.6460177 5:0.13724101 6:-0.041022192 7:-0.10862409 8:-0.06527155 
76.726328111352387 0 729 195.34195985726362 729 0 0 729 729 729 59.763603485424355 0 0 13.204334706887046 415.13473235932508 0 0 0 0 0 0 0 0 0 0 1:1 2:0.2027027 3:0.092436975 4:-0.75221239 5:-0.62953781 6:-0.76260928 7:-0.69848585 8:-0.63428002 
0 0 0 729 0 0 0 729 0 729 0 0 0 0 0 0 0 0 0 0 0 0 0 0 0 2:0.67567568 3:0.71428571 4:-0.66371681 5:0.24774216 6:0.0026899798 7:0.049374589 8:-0.01145989 
0 0 0 0 0 0 0 729 0 0 0 0 0 0 0 0 0 0 0 0 0 0 0 0 0 2:0.71621622 3:0.66386555 4:-0.69911504 5:0.14184523 6:-0.0020174849 7:-0.092824226 8:-0.10612855 
729 0 729 0 729 0 729 729 0 0 0 0 0 0 0 0 0 0 0 0 0 0 0 0 0 1:-1 2:0.35135135 3:0.24369748 4:-0.75221239 5:-0.38976448 6:-0.47276395 7:-0.40355497 8:-0.60438465 
0 0 0 0 729 0 0 729 0 0 0 0 0 0 0 0 0 0 0 0 0 0 0 0 0 1:-1 2:0.55405405 3:0.57983193 4:-0.69026549 5:0.040906676 6:-0.093476799 7:-0.17182357 8:-0.2077728 
508.81202880613631 0 729 0 729 0 565.10407419740966 729 0 729 0 265.81054986771375 0 0 0 0 0 0 0 0 0 0 0 0 0 2:0.40540541 3:0.39495798 4:-0.72566372 5:-0.20736674 6:-0.39408204 7:-0.53258723 8:-0.69407075 
0 0 0 0 0 0 0 729 0 0 0 0 0 0 0 0 0 0 0 0 0 0 0 0 0 2:0.72972973 3:0.57983193 4:-0.67256637 5:0.10359483 6:-0.1062542 7:0.0072416063 8:-0.19581465 
0 0 729 0 729 0 0 729 0 729 0 0 0 0 0 0 0 0 0 0 0 0 0 0 0 2:0.39189189 3:0.39495798 4:-0.69911504 5:-0.36391004 6:-0.52387357 7:-0.49967084 8:-0.50473343 
0 0 0 729 729 0 0 729 729 507.33753496970985 729 0 0 0 387.53791011570434 0 0 0 156.53617086404353 0 0 0 0 0 0 1:-1 2:0.41891892 3:0.36134454 4:-0.69911504 5:-0.16522047 6:-0.38802959 7:-0.11389072 8:-0.3472845 
729 0 729 0 729 0 0 729 0 729 0 0 0 0 0 0 0 0 0 0 0 0 0 0 0 2:0.081081081 3:-0.0084033613 4:-0.79646018 5:-0.68124668 6:-0.77067922 7:-0.75905201 8:-0.69407075 
0 0 729 729 729 0 0 729 729 729 729 0 0 0 0 0 0 0 0 0 0 0 0 0 0 1:-1 2:0.16216216 3:0.15966387 4:-0.7699115 5:-0.46024438 6:-0.59314055 7:-0.5036208 8:-0.56950673 
0 0 729 729 729 0 0 729 122.62032419054817 729 626.15255684979434 0 0 0 0 0 0 293.93904401027623 0 0 0 0 0 0 0 2:0.31081081 3:0.29411765 4:-0.75221239 5:-0.34372233 6:-0.48688635 7:-0.50625411 8:-0.40508221 
0 197.80172900978573 0 729 0 0 0 729 729 0 729 0 0 0 729 0 0 0 387.73714678144233 30.513770089447771 0 0 0 0 0 1:-1 2:0.45945946 3:0.4789916 4:-0.72566372 5:-0.090136356 6:-0.41627438 7:-0.22975642 8:-0.35625311 
729 0 729 0 729 0 729 729 0 729 0 0 0 0 0 0 0 0 0 0 0 0 0 0 0 1:-1 2:-0.17567568 3:-0.22689076 4:-0.82300885 5:-0.81264388 6:-0.84667115 7:-0.84068466 8:-0.85351271 
729 0 729 682.71763009787253 729 0 729 729 0 0 0 0 0 0 0 0 0 0 0 0 0 0 0 0 0 1:1 2:0.067567568 3:-0.025210084 4:-0.79646018 5:-0.65539224 6:-0.73167451 7:-0.71691903 8:-0.67214748 
0 0 0 0 0 0 0 729 0 0 0 0 0 0 0 0 0 0 0 0 0 0 0 0 0 2:0.75675676 3:0.73109244 4:-0.63716814 5:0.1457411 6:-0.00067249496 7:-0.17182357 8:-0.030393622 
0 0 0 729 729 0 0 729 0 729 442.30256760742611 0 0 0 0 0 0 0 0 0 0 0 0 0 0 1:-1 2:0.58108108 3:0.52941176 4:-0.69026549 5:-0.13865769 6:-0.32145259 7:-0.2034233 8:-0.2655705 
0 0 729 0 729 0 0 729 0 484.62873612287365 0 0 0 0 0 0 0 0 0 0 0 0 0 0 0 1:-1 2:0.45945946 3:0.39495798 4:-0.74336283 5:-0.27288826 6:-0.40484196 7:-0.25740619 8:-0.43497758 
729 0 729 0 729 0 729 729 0 417.70530139450693 0 138.30080804525164 0 0 0 0 0 0 0 0 0 0 0 0 0 1:1 2:0.067567568 3:-0.0084033613 4:-0.7699115 5:-0.67132991 6:-0.75319435 7:-0.74061883 8:-0.714001 
0 0 0 0 729 0 0 729 0 436.40001800582115 0 0 0 0 0 0 0 0 0 0 0 0 0 0 0 1:-1 2:0.63513514 3:0.56302521 4:-0.7079646 5:0.04515672 6:-0.027572293 7:-0.26662278 8:-0.19382162 
0 0 0 0 729 0 0 729 0 0 0 0 0 0 0 0 0 0 0 0 0 0 0 0 0 2:0.54054054 3:0.49579832 4:-0.6460177 5:0.010448026 6:-0.14189644 7:-0.19815668 8:-0.28550075 
729 0 729 0 729 729 729 729 0 0 0 0 0 0 0 0 0 0 0 0 0 0 0 0 0 1:1 3:-0.075630252 4:-0.78761062 5:-0.75562245 6:-0.8399462 7:-0.7801185 8:-0.79372197 
729 0 729 0 729 0 729 729 0 729 0 729 0 0 0 0 0 0 0 0 0 0 0 0 0 1:1 2:0.054054054 3:0.092436975 4:-0.7699115 5:-0.67983 6:-0.7464694 7:-0.79065174 8:-0.69407075 
729 0 729 0 729 0 729 729 0 729 0 0 0 0 0 0 0 0 0 0 0 0 0 0 0 2:-0.027027027 3:-0.1092437 4:-0.78761062 5:-0.73330972 6:-0.79690652 7:-0.76036866 8:-0.75386148 
0 476.98520720019064 0 0 0 0 0 729 0 0 0 0 0 0 0 0 0 0 0 0 0 0 0 0 0 1:-1 2:0.56756757 3:0.79831933 4:-0.6460177 5:0.093323889 6:-0.12172159 7:-0.0098749177 8:-0.1758844 
0 0 0 0 0 0 0 0 0 729 0 0 0 0 0 0 0 0 0 0 0 0 0 0 0 2:0.71621622 3:0.71428571 4:-0.65486726 5:0.28563839 6:0.054472091 7:0.29427255 8:-0.026407573 
0 0 0 0 729 0 0 729 0 729 0 0 0 0 0 0 0 0 0 0 0 0 0 0 0 2:0.58108108 3:0.51260504 4:-0.67256637 5:0.080927926 6:-0.07330195 7:-0.20473996 8:-0.12406577 
0 0 729 729 729 0 0 729 0 729 729 0 0 0 0 0 0 0 0 0 0 0 0 0 0 1:-1 2:0.33783784 3:0.34453782 4:-0.72566372 5:-0.41207721 6:-0.51916611 7:-0.54312047 8:-0.45092177 
0 0 0 0 729 0 0 729 0 0 0 0 0 0 0 0 0 0 0 0 0 0 0 0 0 2:0.51351351 3:0.44537815 4:-0.7079646 5:-0.10217815 6:-0.24344317 7:-0.19420671 8:-0.32635775 
0 0 0 0 0 0 0 729 0 729 0 0 0 0 0 0 0 0 0 0 0 0 0 0 0 2:0.60810811 3:0.6302521 4:-0.65486726 5:0.14538693 6:-0.0060524546 7:-0.13100724 8:-0.076233184 
0 0 0 185.74327905586586 729 0 0 729 0 729 0 0 0 0 0 0 0 0 0 0 0 0 0 0 0 2:0.62162162 3:0.52941176 4:-0.67256637 5:0.041969187 6:-0.15467384 7:-0.20473996 8:-0.15695067 
0 0 0 19.897044381746756 0 0 0 729 0 0 0 0 0 0 0 0 0 0 0 0 0 0 0 0 0 1:-1 2:0.82432432 3:0.66386555 4:-0.68141593 5:0.33947229 6:0.26563551 7:0.044107966 8:-0.11609367 
0 0 729 0 729 0 0 729 0 0 0 0 0 0 0 0 0 0 0 0 0 0 0 0 0 1:-1 2:0.64864865 3:0.56302521 4:-0.73451327 5:-0.028510714 6:-0.034969738 7:-0.22975642 8:-0.36522172 
729 0 729 0 729 729 729 729 0 0 0 69.461528754347015 0 0 0 0 0 0 0 0 0 0 0 0 0 1:1 2:-0.067567568 3:-0.092436975 4:-0.82300885 5:-0.7407473 6:-0.77605918 7:-0.83673469 8:-0.77678127 
729 0 729 0 729 0 729 729 0 0 0 0 0 0 0 0 0 0 0 0 0 0 0 0 0 1:-1 2:-0.24324324 3:-0.24369748 4:-0.83185841 5:-0.82751904 6:-0.87289845 7:-0.83805135 8:-0.85351271 
0 0 0 0 0 0 36.672073114212381 0 729 729 0 0 0 0 353.27853700313665 0 0 0 0 0 0 0 0 0 0 1:-1 2:0.77027027 3:0.74789916 4:-0.62831858 5:0.46414025 6:0.24747814 7:0.075707702 8:0.27852516 
0 0 0 729 0 0 0 729 729 729 729 520.77204782914521 0 0 729 0 303.06438526341037 729 729 0 107.64777539721356 0 0 0 0 2:0.58108108 3:0.59663866 4:-0.67256637 5:-0.047990083 6:-0.2669805 7:-0.28900592 8:-0.054309915 
0 0 0 0 729 0 0 729 0 0 0 0 0 0 0 0 0 0 0 0 0 0 0 0 0 2:0.51351351 3:0.51260504 4:-0.72566372 5:-0.088011333 6:-0.20242098 7:-0.17445688 8:-0.31539611 
729 0 729 0 729 0 0 729 0 0 0 0 0 0 0 0 0 0 0 0 0 0 0 0 0 1:-1 2:0.33783784 3:0.36134454 4:-0.72566372 5:-0.2927218 6:-0.39071957 7:-0.46148782 8:-0.47483807 
0 0 729 729 729 0 0 729 729 68.034704103900424 0 0 0 0 542.31233418615818 0 477.56930969186271 729 385.12372256745959 0 0 0 0 0 0 1:1 2:0.32432432 3:0.2605042 4:-0.73451327 5:-0.41951479 6:-0.55480834 7:-0.55760369 8:-0.42501246 
0 0 0 657.78028408954674 729 0 0 729 0 0 0 0 0 0 0 0 0 0 0 0 0 0 0 0 0 2:0.68918919 3:0.66386555 4:-0.69911504 5:0.19142908 6:0.012104909 7:-0.14154049 8:-0.36522172 
0 0 0 729 729 0 0 729 0 729 0 0 0 0 0 0 0 0 0 0 0 0 0 0 0 2:0.51351351 3:0.4789916 4:-0.65486726 5:-0.082698778 6:-0.2535306 7:-0.21527321 8:-0.2655705 
0 0 729 0 729 0 0 729 0 0 0 0 0 0 0 0 0 0 0 0 0 0 0 0 0 2:0.41891892 3:0.39495798 4:-0.76106195 5:-0.31432619 6:-0.37525219 7:-0.48650428 8:-0.47683109 
729 0 729 0 729 0 729 729 0 0 0 0 0 0 0 0 0 0 0 0 0 0 0 0 0 1:-1 2:-0.16216216 3:-0.14285714 4:-0.82300885 5:-0.79989375 6:-0.85810356 7:-0.8038183 8:-0.8036871 
0 0 0 729 729 0 0 729 0 729 0 0 0 0 0 0 0 0 0 0 0 0 0 0 0 2:0.52702703 3:0.49579832 4:-0.69911504 5:0.073490349 6:-0.06926698 7:-0.14285714 8:-0.18784255 
0 0 729 0 729 0 0 729 0 729 0 0 0 0 0 0 0 0 0 0 0 0 0 0 0 2:0.48648649 3:0.39495798 4:-0.74336283 5:-0.30440942 6:-0.36247478 7:-0.47465438 8:-0.47483807 
0 0 0 729 729 0 0 729 417.03376406718871 729 0 0 0 0 0 0 0 0 0 0 0 0 0 0 0 1:-1 2:0.56756757 3:0.52941176 4:-0.61946903 5:0.26190898 6:0.19367855 7:0.077024358 8:-0.16691579 
0 0 729 729 729 0 0 729 0 729 729 0 0 0 703.9060920801976 0 0 0 0 0 0 0 0 0 0 1:-1 2:0.054054054 3:-0.0084033613 4:-0.78761062 5:-0.63272534 6:-0.73032952 7:-0.57340355 8:-0.63428002 
0 0 0 729 0 0 0 729 0 729 729 108.92940641164759 0 0 0 0 0 0 0 0 0 0 0 0 0 1:-1 2:0.62162162 3:0.54621849 4:-0.73451327 5:-0.072073667 6:-0.2535306 7:-0.25213957 8:-0.18285999 
729 0 729 729 729 0 0 729 0 729 0 0 0 0 0 0 0 0 0 0 0 0 0 0 0 1:-1 2:0.027027027 3:-0.0084033613 4:-0.78761062 5:-0.65893395 6:-0.75722932 7:-0.62211982 8:-0.68410563 
729 0 729 0 729 0 729 729 0 27.99834203674974 0 0 0 0 0 0 0 0 0 0 0 0 0 0 0 1:-1 2:0.21621622 3:0.15966387 4:-0.75221239 5:-0.48255711 6:-0.55211836 7:-0.58657011 8:-0.66417539 
0 0 332.99823280310864 0 729 0 0 729 0 729 0 0 0 0 0 0 0 0 0 0 0 0 0 0 0 2:0.56756757 3:0.34453782 4:-0.69911504 5:-0.088011333 6:-0.21183591 7:-0.1678736 8:-0.3223717 
0 147.34627216403524 0 729 729 0 0 729 729 729 729 437.05965143538253 0 0 729 0 0 729 0 490.64648829342048 0 0 0 0 0 1:-1 2:0.2027027 3:0.22689076 4:-0.71681416 5:-0.47370285 6:-0.65837256 7:-0.58788677 8:-0.42800199 
0 0 0 0 729 0 0 729 0 729 0 0 0 0 0 0 0 0 0 0 0 0 0 0 0 1:-1 2:0.54054054 3:0.52941176 4:-0.71681416 5:-0.16309545 6:-0.2535306 7:-0.37327189 8:-0.31539611 
729 0 729 194.37424962022638 729 729 729 729 0 0 0 0 55.278682161465717 0 0 708.36421896186187 0 0 0 0 0 0 0 0 0 1:-1 2:-0.36486486 3:-0.39495798 4:-0.89380531 5:-0.9164158 6:-0.94552791 7:-0.91441738 8:-0.92326856 
0 0 0 729 0 0 0 729 729 729 0 452.80063547301097 0 0 729 0 0 115.39974497221534 331.81879286652799 0 28.688685285791099 0 0 0 0 2:0.56756757 3:0.54621849 4:-0.68141593 5:-0.0012395962 6:-0.16812374 7:-0.34693878 8:-0.012456403 
-729 0 729 0 729 0 0 729 0 0 0 0 0 0 0 0 0 0 0 0 0 0 0 0 0 1:1 2:-0.027027027 3:-0.058823529 4:-0.82300885 5:-0.76801842 6:-0.82784129 7:-0.81698486 8:-0.78375685 
-0 0 729 0 428.02018700513236 0 729 0 0 0 0 0 0 0 0 0 0 0 0 0 0 0 0 0 0 1:1 2:0.040540541 3:0.025210084 4:-0.81415929 5:-0.67132991 6:-0.70208473 7:-0.74061883 8:-0.78375685 
-729 0 729 0 729 0 0 729 0 0 0 0 0 0 0 0 0 0 0 0 0 0 0 0 0 1:1 2:0.17567568 3:0.14285714 4:-0.7699115 5:-0.5746414 6:-0.62340282 7:-0.62475313 8:-0.68011958 
-729 0 729 729 729 0 729 729 0 729 729 0 0 0 0 0 0 0 0 0 0 0 0 0 0 2:0.36486486 3:0.27731092 4:-0.73451327 5:-0.40711882 6:-0.53261601 7:-0.4562212 8:-0.62032885 
-0 0 0 0 0 0 729 0 0 0 0 0 0 0 0 0 0 0 0 0 0 0 0 0 0 1:1 2:-0.21621622 3:-0.2605042 4:-0.76106195 5:-0.83141491 6:-0.85608608 7:-0.8841343 8:-0.85650224 
-729 0 729 0 729 0 0 729 0 0 0 0 0 0 0 0 0 0 0 0 0 0 0 0 0 1:-1 2:-0.2027027 3:-0.24369748 4:-0.83185841 5:-0.84381087 6:-0.8930733 7:-0.86701777 8:-0.85351271 
-0 0 0 0 0 729 729 0 0 0 0 0 0 0 0 665.99870863425519 0 0 0 0 0 0 0 0 0 1:-1 2:-0.47297297 3:-0.52941176 4:-0.87610619 5:-0.92633257 6:-0.93880296 7:-0.95391705 8:-0.93124066 
-729 0 729 729 729 0 0 729 729 0 0 0 0 0 0 0 0 0 0 0 0 0 0 0 0 1:1 2:0.16216216 3:0.092436975 4:-0.78761062 5:-0.5806623 6:-0.65232011 7:-0.62343647 8:-0.64424514 
-0 0 729 0 729 0 0 729 0 0 0 0 0 0 0 0 0 0 0 0 0 0 0 0 0 1:-1 3:-0.1092437 4:-0.78761062 5:-0.70816363 6:-0.733692 7:-0.76431863 8:-0.76980568 
-0 0 729 0 0 0 729 0 0 0 0 0 0 0 0 0 0 0 0 0 0 0 0 0 0 1:1 2:-0.094594595 3:-0.17647059 4:-0.82300885 5:-0.8016646 6:-0.83254876 7:-0.85121791 8:-0.8285999 
-0 0 729 0 729 0 0 729 0 0 0 0 0 0 0 0 0 0 0 0 0 0 0 0 0 1:1 2:-0.013513514 3:-0.075630252 4:-0.80530973 5:-0.73897645 6:-0.79354405 7:-0.7801185 8:-0.76382661 
-0 0 729 0 729 0 0 729 0 0 0 0 0 0 0 0 0 0 0 0 0 0 0 0 0 1:1 2:0.040540541 3:-0.0084033613 4:-0.80530973 5:-0.6702674 6:-0.71553463 7:-0.74061883 8:-0.72894868 
-0 0 729 0 729 0 729 0 0 0 0 0 0 0 0 0 0 0 0 0 0 0 0 0 0 1:1 2:0.081081081 3:0.1092437 4:-0.80530973 5:-0.59518328 6:-0.58305313 7:-0.73140224 8:-0.73193822 
-0 0 0 0 0 482.55083786509238 729 0 0 0 0 0 0 0 0 0 0 0 0 0 0 0 0 0 0 1:1 2:-0.33783784 3:-0.32773109 4:-0.82300885 5:-0.87710289 6:-0.90316073 7:-0.89203423 8:-0.87344295 
-0 0 0 0 0 729 729 0 0 0 0 0 0 0 0 0 0 0 0 0 0 0 0 0 0 1:1 2:-0.25675676 3:-0.31092437 4:-0.83185841 5:-0.85195679 6:-0.88567586 7:-0.85385122 8:-0.86746388 
-585.83456965653625 0 729 0 729 0 729 729 0 0 101.13612720375053 0 0 0 0 15.183893915914027 0 236.1815196960909 0 0 0 0 0 0 0 1:-1 2:0.12162162 3:0.37815126 4:-0.77876106 5:-0.63130866 6:-0.68527236 7:-0.65898618 8:-0.72197309 
-0 0 459.47224495370187 0 0 121.98848266828921 729 0 0 0 0 0 0 0 0 0 0 0 0 0 0 0 0 0 0 1:1 2:-0.18918919 3:-0.27731092 4:-0.84955752 5:-0.84699841 6:-0.87424344 7:-0.89861751 8:-0.86347783 
-729 0 729 0 729 0 0 729 0 0 0 0 0 0 0 0 0 0 0 0 0 0 0 0 0 1:-1 2:0.21621622 3:0.092436975 4:-0.77876106 5:-0.54099522 6:-0.59381305 7:-0.59315339 8:-0.68609865 
-643.84840018549562 0 0 0 729 0 141.3084490206916 729 0 0 0 0 0 0 0 0 0 0 0 0 0 0 0 0 0 1:-1 2:-0.41891892 3:-0.41176471 4:-0.86725664 5:-0.91889499 6:-0.94351042 7:-0.93416722 8:-0.92326856 
-0 0 0 0 0 0 729 0 0 0 0 0 0 0 0 0 0 0 0 0 0 0 0 0 0 1:1 2:-0.21621622 3:-0.29411765 4:-0.76106195 5:-0.84451921 6:-0.86012105 7:-0.87755102 8:-0.88241156 
-0 0 729 0 729 0 0 729 0 0 0 0 0 0 0 0 0 0 0 0 0 0 0 0 0 1:-1 2:-0.2972973 3:-0.34453782 4:-0.84070796 5:-0.87320701 6:-0.89979825 7:-0.89203423 8:-0.88340807 
-0 0 0 0 0 0 729 0 0 0 0 0 0 0 0 0 0 0 0 0 0 0 0 0 0 1:1 2:-0.16216216 3:-0.17647059 4:-0.77876106 5:-0.75845582 6:-0.77202421 7:-0.80776827 8:-0.84155456 
-729 729 729 729 729 0 729 729 729 729 729 571.1818967705816 0 273.06797591213052 729 0 0 729 519.3762515533374 74.542846072972608 0 94.496930955734925 0 0 0 1:-1 2:0.18918919 3:0.19327731 4:-0.75221239 5:-0.48043209 6:-0.58910558 7:-0.640553 8:-0.60438465 
-0 0 729 0 0 0 729 0 0 0 0 0 0 0 0 0 0 0 0 0 0 0 0 0 0 1:1 2:-0.10810811 3:-0.15966387 4:-0.84070796 5:-0.80131043 6:-0.84801614 7:-0.84990125 8:-0.81365222 
-0 0 729 0 0 0 729 0 0 0 0 0 0 0 0 0 0 0 0 0 0 0 0 0 0 1:1 2:-0.081081081 3:-0.092436975 4:-0.82300885 5:-0.67097574 6:-0.69401479 7:-0.72086899 8:-0.77578475 
-0 0 729 0 0 0 156.40015098074943 0 0 0 0 0 0 0 0 0 0 0 0 0 0 0 0 0 0 1:1 2:-0.081081081 3:-0.058823529 4:-0.82300885 5:-0.74783071 6:-0.77404169 7:-0.82488479 8:-0.79372197 
-0 0 729 0 729 0 271.50227282577777 729 0 0 0 0 0 0 0 0 0 0 0 0 0 0 0 0 0 1:1 2:0.2027027 3:0.14285714 4:-0.74336283 5:-0.45599433 6:-0.43106927 7:-0.62738644 8:-0.62531141 
-0 0 729 0 729 0 0 0 0 0 0 0 0 0 0 0 0 0 0 0 0 0 0 0 0 1:1 2:-0.013513514 3:-0.058823529 4:-0.80530973 5:-0.72622631 6:-0.76597176 7:-0.78143515 8:-0.78176383 
-0 0 0 0 0 729 729 0 0 0 0 0 0 0 0 0 0 0 0 0 0 0 0 0 0 1:1 2:-0.2972973 3:-0.34453782 4:-0.86725664 5:-0.8721445 6:-0.9065232 7:-0.88545095 8:-0.89337319 
-0 0 0 0 0 0 729 0 0 0 0 0 0 0 0 0 0 0 0 0 0 0 0 0 0 1:1 2:-0.14864865 3:-0.22689076 4:-0.82300885 5:-0.80237294 6:-0.82985878 7:-0.83805135 8:-0.84952666 
-0 0 729 0 0 0 729 0 0 0 0 0 0 0 0 0 0 0 0 0 0 0 0 0 0 1:1 2:-0.21621622 3:-0.2605042 4:-0.84955752 5:-0.8434567 6:-0.86953598 7:-0.90256748 8:-0.85351271 
-0 0 729 0 0 0 729 0 0 0 0 0 0 0 0 0 0 0 0 0 0 0 0 0 0 1:1 2:-0.12162162 3:-0.15966387 4:-0.82300885 5:-0.75951833 6:-0.76462677 7:-0.83673469 8:-0.83059292 
-0 0 0 0 0 0 729 0 0 0 0 0 0 0 0 0 0 0 0 0 0 0 0 0 0 1:1 2:-0.16216216 3:-0.24369748 4:-0.83185841 5:-0.81937312 6:-0.84129119 7:-0.84595128 8:-0.86347783 
-0 0 729 0 729 0 0 729 0 0 0 0 0 0 0 0 0 0 0 0 0 0 0 0 0 1:-1 2:0.27027027 3:0.22689076 4:-0.78761062 5:-0.44430671 6:-0.45931406 7:-0.51415405 8:-0.66417539 
-0 0 729 0 0 0 729 0 0 0 0 0 0 0 0 0 0 0 0 0 0 0 0 0 0 1:1 2:-0.14864865 3:-0.19327731 4:-0.82300885 5:-0.80378962 6:-0.84599866 7:-0.84595128 8:-0.84354758 
-0 0 729 0 0 0 729 0 0 0 0 0 0 0 0 0 0 0 0 0 0 0 0 0 0 1:1 2:-0.067567568 3:-0.1092437 4:-0.80530973 5:-0.74464317 6:-0.76731675 7:-0.83410138 8:-0.79372197 
-0 0 729 0 729 0 729 0 0 0 0 0 0 0 0 0 0 0 0 0 0 0 0 0 0 1:1 2:-0.013513514 3:0.0084033613 4:-0.78761062 5:-0.65078803 6:-0.69065232 7:-0.7116524 8:-0.75386148 
-729 0 729 729 729 0 0 729 729 729 711.47980911299965 348.79094943939936 0 0 636.7645051337056 0 178.03766061104099 729 0 0 0 0 0 0 0 1:1 2:0.16216216 3:0.1092437 4:-0.78761062 5:-0.57605808 6:-0.6798924 7:-0.62738644 8:-0.63428002 
-0 0 729 0 729 0 0 0 0 0 0 0 0 0 0 0 0 0 0 0 0 0 0 0 0 1:1 2:0.18918919 3:0.092436975 4:-0.78761062 5:-0.55870374 6:-0.56220578 7:-0.66030283 8:-0.68410563 
-729 0 729 0 729 0 0 729 0 0 0 0 0 0 0 0 0 0 0 0 0 0 0 0 0 1:1 2:0.21621622 3:0.15966387 4:-0.75221239 5:-0.53816186 6:-0.59112307 7:-0.57998683 8:-0.66616841 
-0 0 0 0 0 0 729 0 0 0 0 0 0 0 0 0 0 0 0 0 0 0 0 0 0 1:1 2:-0.13513514 3:-0.21008403 4:-0.83185841 5:-0.77545599 6:-0.81573638 7:-0.79065174 8:-0.83956153 
-0 0 729 0 729 0 0 0 0 0 0 0 0 0 0 0 0 0 0 0 0 0 0 0 0 1:1 2:-0.040540541 3:-0.042016807 4:-0.80530973 5:-0.74322649 6:-0.78749159 7:-0.77616853 8:-0.79372197 
-0 0 729 0 0 0 235.17179445654659 0 0 0 0 0 0 0 0 0 0 0 0 0 0 0 0 0 0 1:1 2:-0.027027027 3:-0.025210084 4:-0.79646018 5:-0.70533026 6:-0.70275723 7:-0.80776827 8:-0.79172895 
-0 0 0 0 0 0 729 0 0 0 0 0 0 0 0 0 0 0 0 0 0 0 0 0 0 1:1 2:-0.2027027 3:-0.2605042 4:-0.82300885 5:-0.84558172 6:-0.87491594 7:-0.88281764 8:-0.87344295 
-0 0 729 0 0 0 729 0 0 0 0 0 0 0 0 0 0 0 0 0 0 0 0 0 0 1:1 2:-0.13513514 3:-0.19327731 4:-0.82300885 5:-0.79387285 6:-0.8130464 7:-0.83805135 8:-0.83956153 
-0 0 729 0 0 0 729 0 0 0 0 0 0 0 0 0 0 0 0 0 0 0 0 0 0 1:1 2:-0.094594595 3:-0.14285714 4:-0.84070796 5:-0.76128918 6:-0.79287155 7:-0.81830151 8:-0.82361734 
-0 0 0 0 0 0 729 0 0 0 0 0 0 0 0 0 0 0 0 0 0 0 0 0 0 1:1 2:-0.16216216 3:-0.21008403 4:-0.85840708 5:-0.82539401 6:-0.83725622 7:-0.87096774 8:-0.87344295 
-0 0 729 0 0 0 729 0 0 0 0 0 0 0 0 0 0 0 0 0 0 0 0 0 0 1:1 2:-0.16216216 3:-0.21008403 4:-0.84070796 5:-0.83708164 6:-0.88634835 7:-0.87096774 8:-0.84354758 
-729 0 729 0 729 0 0 729 0 0 0 0 0 0 0 0 0 0 0 0 0 0 0 0 0 1:1 2:0.013513514 3:-0.058823529 4:-0.80530973 5:-0.70426775 6:-0.75790182 7:-0.77748519 8:-0.73492775 
-0 0 729 0 729 0 0 729 0 0 0 0 0 0 0 0 0 0 0 0 0 0 0 0 0 1:-1 2:-0.054054054 3:-0.092436975 4:-0.83185841 5:-0.73330972 6:-0.77202421 7:-0.79065174 8:-0.8036871 
-0 0 729 0 729 0 0 729 0 0 0 0 0 0 0 0 0 0 0 0 0 0 0 0 0 1:-1 2:0.16216216 3:0.15966387 4:-0.76106195 5:-0.48928635 6:-0.49428379 7:-0.60895326 8:-0.64823119 
-0 0 0 0 0 729 729 0 0 0 0 0 0 0 0 0 0 0 0 0 0 0 0 0 0 1:1 2:-0.22972973 3:-0.29411765 4:-0.86725664 5:-0.87072782 6:-0.88971083 7:-0.90520079 8:-0.89337319 
-729 0 729 0 729 0 0 729 0 498.58453062889936 0 0 0 0 0 0 0 0 0 0 0 0 0 0 0 1:1 2:0.24324324 3:0.15966387 4:-0.7699115 5:-0.53603683 6:-0.62004035 7:-0.57472021 8:-0.65421026 
-0 0 729 0 0 0 262.44294515971649 0 0 0 0 0 0 0 0 0 0 0 0 0 0 0 0 0 0 1:1 2:-0.013513514 3:-0.042016807 4:-0.82300885 5:-0.73295555 6:-0.76933423 7:-0.78670178 8:-0.80169407 
-0 0 729 0 0 0 729 0 0 0 0 0 0 0 0 0 0 0 0 0 0 0 0 0 0 1:1 2:-0.16216216 3:-0.17647059 4:-0.83185841 5:-0.78749779 6:-0.79690652 7:-0.83936801 8:-0.85650224 
-0 0 0 0 602.02235195662274 12.257020227788489 729 0 0 0 0 0 0 0 0 0 0 0 0 0 0 0 0 0 0 1:-1 2:-0.40540541 3:-0.46218487 4:-0.86725664 5:-0.91004073 6:-0.93409549 7:-0.92363397 8:-0.92326856 
-0 0 729 0 729 0 0 0 0 0 0 0 0 0 0 0 0 0 0 0 0 0 0 0 0 1:1 3:-0.042016807 4:-0.74336283 5:-0.69399681 6:-0.73974445 7:-0.76300197 8:-0.74389636 
-0 0 729 0 729 0 0 35.914419633118904 0 0 0 0 0 0 0 0 0 0 0 0 0 0 0 0 0 1:-1 2:0.094594595 3:0.058823529 4:-0.76106195 5:-0.55409952 6:-0.53799597 7:-0.73403555 8:-0.68211261 
-0 0 729 0 0 0 0 0 0 0 0 0 0 0 0 0 0 0 0 0 0 0 0 0 0 1:1 2:-0.081081081 3:-0.092436975 4:-0.82300885 5:-0.77970604 6:-0.81439139 7:-0.83673469 8:-0.81066268 
-729 0 729 729 729 0 0 729 0 729 0 0 0 0 0 0 0 0 0 0 0 0 0 0 0 2:-0.027027027 3:-0.092436975 4:-0.79646018 5:-0.72410129 6:-0.79421654 7:-0.75378539 8:-0.76382661 
-0 0 729 0 0 0 0 0 0 0 0 0 0 0 0 0 0 0 0 0 0 0 0 0 0 1:1 2:-0.027027027 3:-0.092436975 4:-0.78761062 5:-0.7563308 6:-0.78749159 7:-0.7801185 8:-0.81365222 
-0 0 729 0 0 0 729 0 0 0 0 0 0 0 0 0 0 0 0 0 0 0 0 0 0 1:1 2:-0.081081081 3:-0.1092437 4:-0.80530973 5:-0.73685143 6:-0.76597176 7:-0.80250165 8:-0.78574988 
-0 0 729 0 0 0 729 0 0 0 0 0 0 0 0 0 0 0 0 0 0 0 0 0 0 1:1 2:-0.081081081 3:-0.092436975 4:-0.82300885 5:-0.76518505 6:-0.80699395 7:-0.81303489 8:-0.81365222 
-0 0 0 0 0 729 729 0 0 0 0 0 0 0 0 729 0 0 0 0 0 0 0 0 0 1:1 2:-0.40540541 3:-0.42857143 4:-0.84070796 5:-0.92314503 6:-0.9468729 7:-0.93680053 8:-0.93921276 
-0 0 729 0 0 0 729 0 0 0 0 0 0 0 0 0 0 0 0 0 0 0 0 0 0 1:1 2:-0.24324324 3:-0.2605042 4:-0.84070796 5:-0.82362316 6:-0.87088097 7:-0.86175115 8:-0.84354758 
-0 0 626.08090146337111 0 99.542622563608745 0 0 0 0 0 0 0 0 0 0 0 0 0 0 0 0 0 0 0 0 1:1 2:0.081081081 3:0.042016807 4:-0.82300885 5:-0.90826988 6:-0.72898453 7:-0.77090191 8:-0.75784753 
-0 0 729 0 0 0 729 0 0 0 0 0 0 0 0 0 0 0 0 0 0 0 0 0 0 1:1 2:-0.14864865 3:-0.21008403 4:-0.82300885 5:-0.84381087 6:-0.87357095 7:-0.87886768 8:-0.85749875 
-729 0 729 729 729 0 0 729 729 729 505.09940744710826 124.60659782279619 0 0 0 0 0 729 0 0 0 0 0 0 0 1:-1 2:0.39189189 3:0.37815126 4:-0.75221239 5:-0.2604923 6:-0.36987223 7:-0.30875576 8:-0.47882412 
-0 0 0 0 0 729 729 0 0 0 0 0 0 0 0 0 0 0 0 0 0 0 0 0 0 1:-1 2:-0.44594595 3:-0.4789916 4:-0.85840708 5:-0.92456171 6:-0.9462004 7:-0.9315339 8:-0.93423019 
-0 0 729 0 729 0 0 0 0 0 0 0 0 0 0 0 0 0 0 0 0 0 0 0 0 1:-1 2:-0.25675676 3:-0.29411765 4:-0.80530973 5:-0.79139366 6:-0.81775387 7:-0.83541804 8:-0.83358246 
-0 0 729 0 729 0 729 0 0 0 0 0 0 0 0 0 0 0 0 0 0 0 0 0 0 1:1 2:0.054054054 3:0.042016807 4:-0.79646018 5:-0.67062157 6:-0.68997983 7:-0.75773535 8:-0.77777778 
-0 0 729 0 635.01527271040629 0 0 0 0 0 0 0 0 0 0 0 0 0 0 0 0 0 0 0 0 1:1 2:-0.067567568 3:-0.17647059 4:-0.81415929 5:-0.77758102 6:-0.83254876 7:-0.81698486 8:-0.79671151 
-729 0 729 0 729 0 0 729 0 729 0 0 0 0 0 0 0 0 0 0 0 0 0 0 0 1:-1 2:0.14864865 3:0.15966387 4:-0.77876106 5:-0.52505755 6:-0.54942838 7:-0.68531929 8:-0.63926258 
-0 0 0 0 0 729 729 0 0 0 0 0 0 0 0 0 0 0 0 0 0 0 0 0 0 1:1 2:-0.31081081 3:-0.34453782 4:-0.83185841 5:-0.85372764 6:-0.86415602 7:-0.89730086 8:-0.89935227 
-0 0 0 0 0 729 729 0 0 0 0 0 0 0 0 0 0 0 0 0 0 0 0 0 0 1:1 2:-0.2972973 3:-0.31092437 4:-0.84070796 5:-0.86222773 6:-0.88365837 7:-0.89335089 8:-0.89138017 
-0 0 729 0 0 0 729 0 0 0 0 0 0 0 0 0 0 0 0 0 0 0 0 0 0 1:1 2:-0.040540541 3:-0.1092437 4:-0.82300885 5:-0.75597662 6:-0.78143914 7:-0.79065174 8:-0.82361734 
-0 0 729 0 729 0 0 0 0 0 0 0 0 0 0 0 0 0 0 0 0 0 0 0 0 1:1 2:-0.013513514 3:-0.092436975 4:-0.84070796 5:-0.75349743 6:-0.80228648 7:-0.82488479 8:-0.79372197 
-729 343.75969933364769 729 729 729 0 0 729 352.8091393681874 729 729 0 0 0 532.92005834730799 0 0 729 0 0 0 0 0 0 0 2:0.040540541 3:0.075630252 4:-0.78761062 5:-0.67522578 6:-0.76260928 7:-0.7116524 8:-0.70403587 
-0 0 729 0 729 0 0 0 0 0 0 0 0 0 0 0 0 0 0 0 0 0 0 0 0 1:1 2:0.040540541 3:-0.025210084 4:-0.78761062 5:-0.70710112 6:-0.73503699 7:-0.7682686 8:-0.78973592 
-0 0 0 0 0 729 729 0 0 0 0 0 0 0 0 0 0 0 0 0 0 0 0 0 0 1:1 2:-0.10810811 3:-0.34453782 4:-0.84070796 5:-0.79776873 6:-0.82918628 7:-0.83541804 8:-0.84255107 
-0 0 0 0 729 0 716.57961451193535 0 0 0 0 0 0 0 0 0 0 0 0 0 0 0 0 0 0 1:-1 2:-0.32432432 3:-0.37815126 4:-0.84955752 5:-0.87887374 6:-0.89441829 7:-0.90125082 8:-0.90333832 
-0 0 729 0 729 0 0 729 0 0 0 0 0 0 0 0 0 0 0 0 0 0 0 0 0 1:1 2:-0.094594595 3:-0.058823529 4:-0.81415929 5:-0.76731008 6:-0.81237391 7:-0.83278473 8:-0.79372197 
-0 0 729 0 729 0 729 0 0 0 0 0 0 0 0 0 0 0 0 0 0 0 0 0 0 1:1 2:-0.013513514 3:-0.058823529 4:-0.79646018 5:-0.70285107 6:-0.76866174 7:-0.79986833 8:-0.77777778 
-0 0 729 0 0 0 729 0 0 0 0 0 0 0 0 0 0 0 0 0 0 0 0 0 0 1:1 2:-0.054054054 3:-0.14285714 4:-0.84070796 5:-0.78820613 6:-0.81506389 7:-0.83015142 8:-0.84354758 
-729 0 729 729 729 0 0 729 0 729 273.72428244796839 0 0 0 0 0 0 729 0 712.43294322560325 0 0 0 0 0 2:-0.040540541 3:-0.042016807 4:-0.78761062 5:-0.72445546 6:-0.79219906 7:-0.75115207 8:-0.72296961 
-729 0 729 0 729 0 0 729 0 0 0 0 0 0 0 0 0 0 0 0 0 0 0 0 0 1:-1 2:-0.12162162 3:-0.1092437 4:-0.83185841 5:-0.78678945 6:-0.82178884 7:-0.84331797 8:-0.8036871 
-729 0 729 0 729 0 0 729 0 0 0 0 0 0 0 0 0 0 0 0 0 0 0 0 0 1:1 2:-0.094594595 3:-0.12605042 4:-0.83185841 5:-0.80272711 6:-0.84801614 7:-0.91046741 8:-0.78375685 
-0 0 729 0 729 0 0 729 0 0 0 0 0 0 0 0 0 0 0 0 0 0 0 0 0 1:1 2:0.13513514 3:0.092436975 4:-0.78761062 5:-0.63874624 6:-0.68796234 7:-0.68400263 8:-0.73193822 
-729 0 729 0 729 0 0 729 0 0 0 0 0 0 0 0 0 0 0 0 0 0 0 0 0 1:1 2:0.13513514 3:-0.075630252 4:-0.82300885 5:-0.68974677 6:-0.76328178 7:-0.75115207 8:-0.70403587 
-0 0 0 0 0 0 729 0 0 0 0 0 0 0 0 0 0 0 0 0 0 0 0 0 0 1:1 2:-0.22972973 3:-0.29411765 4:-0.83185841 5:-0.83743581 6:-0.86012105 7:-0.88018433 8:-0.85351271 
-0 0 729 0 0 0 0 0 0 0 0 0 0 0 0 0 0 0 0 0 0 0 0 0 0 1:1 2:-0.14864865 3:-0.19327731 4:-0.83185841 5:-0.85762352 6:-0.88365837 7:-0.88281764 8:-0.85351271 
-0 0 729 0 0 0 729 0 0 0 0 0 0 0 0 0 0 0 0 0 0 0 0 0 0 1:1 3:-0.092436975 4:-0.82300885 5:-0.73366389 6:-0.7599193 7:-0.73798552 8:-0.82561036 
-0 0 0 0 0 0 729 0 0 0 0 0 0 0 0 0 0 0 0 0 0 0 0 0 0 1:1 2:-0.18918919 3:-0.2605042 4:-0.83185841 5:-0.83885249 6:-0.87357095 7:-0.85780118 8:-0.87144993 
-729 0 729 0 729 0 0 729 0 0 0 0 0 0 0 0 0 0 0 0 0 0 0 0 0 1:1 2:0.081081081 3:0.075630252 4:-0.79646018 5:-0.63272534 6:-0.68796234 7:-0.6879526 8:-0.71300448 
-729 0 729 0 729 0 0 729 212.56297407638667 0 0 0 0 0 0 0 0 0 0 0 0 0 0 0 0 1:1 2:0.18918919 3:0.1092437 4:-0.77876106 5:-0.59624579 6:-0.68258238 7:-0.62343647 8:-0.67414051 
-0 0 729 0 0 0 729 0 0 0 0 0 0 0 0 0 0 0 0 0 0 0 0 0 0 1:1 2:0.013513514 3:-0.025210084 4:-0.80530973 5:-0.66849655 6:-0.68459987 7:-0.77616853 8:-0.77678127 
-729 0 729 0 729 0 0 729 0 729 0 0 0 0 0 0 0 0 0 0 0 0 0 0 0 1:-1 2:0.21621622 3:0.21008403 4:-0.76106195 5:-0.43863999 6:-0.47141896 7:-0.5036208 8:-0.6003986 
-0 0 729 0 0 0 729 0 0 0 0 0 0 0 0 0 0 0 0 0 0 0 0 0 0 1:1 2:-0.2027027 3:-0.24369748 4:-0.83185841 5:-0.81335222 6:-0.83725622 7:-0.86438446 8:-0.84354758 
-0 0 729 0 729 0 0 0 0 0 0 0 0 0 0 0 0 0 0 0 0 0 0 0 0 1:-1 2:-0.14864865 3:-0.24369748 4:-0.77876106 5:-0.60191252 6:-0.59314055 7:-0.74983542 8:-0.71798705 
-729 0 729 729 729 0 0 729 729 729 118.55229729592851 0 0 0 0 0 0 0 0 0 0 0 0 0 0 2:0.2972973 3:0.24369748 4:-0.75221239 5:-0.31928458 6:-0.40954943 7:-0.4114549 8:-0.52466368 
-729 0 729 257.08789707295932 729 0 0 729 0 729 0 0 0 0 0 0 0 0 0 0 0 0 0 0 0 2:0.027027027 3:-0.0084033613 4:-0.78761062 5:-0.67876749 6:-0.73974445 7:-0.72613562 8:-0.72894868 
-729 0 729 729 729 0 0 729 729 729 0 0 0 0 529.69732841018833 0 0 0 0 0 0 0 0 0 0 2:0.36486486 3:0.36134454 4:-0.73451327 5:-0.21126262 6:-0.25151311 7:-0.40750494 8:-0.42501246 
-0 0 729 0 0 0 0 0 0 0 0 0 0 0 0 0 0 0 0 0 0 0 0 0 0 1:1 2:-0.10810811 3:-0.15966387 4:-0.82300885 5:-0.81158137 6:-0.84734364 7:-0.86175115 8:-0.83358246 
-460.43821561261831 1.7807330817832618 729 65.80090200800619 729 0 729 457.51977481034362 0 0 0 0 0 0 156.71735374838832 0 0 0 0 0 0 0 0 0 0 1:-1 2:-0.17567568 3:-0.39495798 4:-0.82300885 5:-0.81866478 6:-0.85944855 7:-0.85911784 8:-0.84354758 
-0 0 0 0 0 729 729 0 0 0 0 0 0 0 0 0 0 0 0 0 0 0 0 0 0 1:1 2:-0.31081081 3:-0.32773109 4:-0.85840708 5:-0.85620684 6:-0.88096839 7:-0.89730086 8:-0.89337319 
-0 0 0 0 0 0 729 0 0 0 0 0 0 0 0 0 0 0 0 0 0 0 0 0 0 1:1 2:-0.22972973 3:-0.17647059 4:-0.84955752 5:-0.81016469 6:-0.84196369 7:-0.83278473 8:-0.85450922 
-0 0 0 0 0 478.71438281681429 729 0 0 0 0 0 0 0 0 0 0 0 0 0 0 0 0 0 0 1:1 2:-0.21621622 3:-0.27731092 4:-0.84955752 5:-0.84381087 6:-0.87558843 7:-0.86306781 8:-0.87144993 
-0 0 0 0 729 0 399.31499500429106 0 0 0 0 0 0 0 0 0 0 0 0 0 0 0 0 0 0 1:-1 2:-0.33783784 3:-0.37815126 4:-0.84955752 5:-0.88099876 6:-0.91324815 7:-0.87755102 8:-0.90533134 
-729 0 729 729 729 0 0 729 729 729 0 0 0 0 0 0 0 0 0 8.8479096876366654 0 0 0 0 0 2:-0.027027027 3:-0.092436975 4:-0.80530973 5:-0.69435098 6:-0.76193679 7:-0.74193548 8:-0.69407075 
-0 0 729 0 729 0 729 0 0 0 0 0 0 0 0 0 0 0 0 0 0 0 0 0 0 1:1 2:0.040540541 3:0.042016807 4:-0.79646018 5:-0.63945458 6:-0.68325488 7:-0.69058591 8:-0.75784753 
-0 0 0 0 0 729 729 0 0 0 0 0 0 0 0 0 0 0 0 0 0 0 0 0 0 1:1 2:-0.21621622 3:-0.29411765 4:-0.84955752 5:-0.85054011 6:-0.87424344 7:-0.8722844 8:-0.88340807 
-729 311.38439143501472 729 729 729 0 0 729 729 729 297.61283486166434 729 0 0 3.7157391680055989 0 0 38.574785772801889 555.6460373510746 0 0 0 0 0 0 1:1 2:0.16216216 3:0.12605042 4:-0.67256637 5:-0.567558 6:-0.64223268 7:-0.62738644 8:-0.66018934 
-0 0 729 0 729 0 0 0 0 0 0 0 0 0 0 0 0 0 0 0 0 0 0 0 0 1:-1 2:0.040540541 3:-0.025210084 4:-0.80530973 5:-0.67593412 6:-0.68527236 7:-0.7682686 8:-0.7717987 
-729 729 729 729 729 0 0 729 729 729 729 729 0 531.0039065112893 729 0 554.21649227707928 729 729 498.49233899921109 0 249.05333381639164 0 0 0 1:-1 2:0.5 3:0.52941176 4:-0.69911504 5:-0.15955375 6:-0.34028245 7:-0.19420671 8:-0.30941704 
-0 0 0 0 0 0 729 0 0 0 0 0 0 0 0 0 0 0 0 0 0 0 0 0 0 1:1 2:-0.2027027 3:-0.2605042 4:-0.82300885 5:-0.83885249 6:-0.88231338 7:-0.87886768 8:-0.86347783 
-0 0 729 0 0 0 729 0 0 0 0 0 0 0 0 0 0 0 0 0 0 0 0 0 0 1:1 2:-0.22972973 3:-0.31092437 4:-0.84070796 5:-0.87497786 6:-0.91459314 7:-0.90388413 8:-0.85351271 
-0 0 729 0 0 0 0 0 0 0 0 0 0 0 0 0 0 0 0 0 0 0 0 0 0 1:1 2:-0.054054054 3:-0.14285714 4:-0.83185841 5:-0.78360191 6:-0.81439139 7:-0.80513496 8:-0.81763827 
-729 2.5212022317454861 729 729 729 0 729 729 22.200136490390264 729 0 0 0 0 0 9.765636379382018 0 0 0 0 0 0 0 0 0 1:-1 2:0.32432432 3:0.21008403 4:-0.77876106 5:-0.52895343 6:-0.59515804 7:-0.59447005 8:-0.63428002 
-0 0 0 0 0 729 729 0 0 0 0 0 0 0 0 0 0 0 0 0 0 0 0 0 0 1:-1 2:-0.43243243 3:-0.4789916 4:-0.86725664 5:-0.91747831 6:-0.92737054 7:-0.92626728 8:-0.92326856 
-729 0 729 729 729 0 0 729 718.57698496932778 729 0 406.51972792692948 0 0 0 0 0 0 0 0 0 0 0 0 0 2:0.2027027 3:0.36134454 4:-0.73451327 5:-0.2796175 6:-0.29791527 7:-0.47860434 8:-0.49676134 
-0 0 729 0 729 0 0 729 0 0 0 0 0 0 0 0 0 0 0 0 0 0 0 0 0 1:1 2:0.10810811 3:0.075630252 4:-0.7699115 5:-0.5746414 6:-0.60659045 7:-0.66293614 8:-0.68410563 
-0 0 729 0 0 0 729 0 0 0 0 0 0 0 0 0 0 0 0 0 0 0 0 0 0 1:1 2:-0.094594595 3:-0.15966387 4:-0.84070796 5:-0.75101824 6:-0.79018157 7:-0.80513496 8:-0.8036871 
-0 0 729 0 729 0 0 729 0 387.02525977295096 0 0 0 0 0 0 0 0 0 0 0 0 0 0 0 2:-0.12162162 3:-0.15966387 4:-0.71681416 5:-0.7407473 6:-0.76866174 7:-0.8156682 8:-0.79372197 
-0 0 729 0 729 0 0 363.36312438223359 0 0 0 0 0 0 0 0 0 0 0 0 0 0 0 0 0 1:1 2:0.040540541 3:-0.0084033613 4:-0.80530973 5:-0.7180804 6:-0.76462677 7:-0.78275181 8:-0.76283009 
-0 0 0 0 0 0 729 0 0 0 0 0 0 0 0 0 0 0 0 0 0 0 0 0 0 1:1 2:-0.27027027 3:-0.27731092 4:-0.80530973 5:-0.85018594 6:-0.89105582 7:-0.85780118 8:-0.86347783 
-0 0 729 0 0 0 0 0 0 0 0 0 0 0 0 0 0 0 0 0 0 0 0 0 0 1:1 2:-0.027027027 3:-0.025210084 4:-0.78761062 5:-0.68443421 6:-0.70410222 7:-0.70638578 8:-0.75386148 
-0 0 729 0 0 0 729 0 0 0 0 0 0 0 0 0 0 0 0 0 0 0 0 0 0 1:1 2:-0.013513514 3:-0.042016807 4:-0.82300885 5:-0.71312201 6:-0.7202421 7:-0.80776827 8:-0.79770802 
-0 0 729 0 729 0 685.71353013083615 729 0 0 0 0 0 0 0 10.230713021714957 0 0 0 0 0 0 0 0 0 1:-1 2:0.081081081 3:0.025210084 4:-0.82300885 5:-0.69789269 6:-0.73705447 7:-0.74061883 8:-0.7797708 
-0 0 0 0 0 729 729 0 0 0 0 0 0 0 0 0 0 0 0 0 0 0 0 0 0 1:1 2:-0.2027027 3:-0.2605042 4:-0.84070796 5:-0.85514432 6:-0.87222596 7:-0.89730086 8:-0.88739412 
-65.413792940975966 0 0 0 0 729 729 0 0 0 0 0 457.65120325620808 0 0 729 0 0 0 0 0 0 0 0 0 1:-1 2:-0.56756757 3:-0.61344538 4:-0.90265487 5:-0.96493713 6:-0.97713517 7:-0.97366689 8:-0.96412556 
-729 185.32946965721277 729 0 729 0 0 729 0 729 679.26025900421757 0 0 0 0 0 0 0 0 0 0 0 0 0 0 1:-1 2:-0.054054054 3:-0.092436975 4:-0.82300885 5:-0.76801842 6:-0.81775387 7:-0.81040158 8:-0.78375685 
-0 0 729 0 729 0 0 729 0 0 0 0 0 0 0 0 0 0 0 0 0 0 0 0 0 1:-1 2:-0.16216216 3:-0.19327731 4:-0.83185841 5:-0.76412254 6:-0.80363147 7:-0.75378539 8:-0.82361734 
-729 0 729 0 729 0 0 729 0 0 0 0 0 0 0 0 0 0 0 0 0 0 0 0 0 1:1 2:-0.027027027 3:-0.058823529 4:-0.83185841 5:-0.79033115 6:-0.85474109 7:-0.8485846 8:-0.77379173 
-729 0 729 0 729 0 209.24914874871192 729 0 729 0 0 0 0 0 0 0 0 0 0 0 0 0 0 0 2:0.37837838 3:0.32773109 4:-0.73451327 5:-0.33699309 6:-0.3732347 7:-0.46675444 8:-0.55455904 
-0 0 0 0 0 0 729 0 0 0 0 0 0 0 0 0 0 0 0 0 0 0 0 0 0 1:1 2:-0.21621622 3:-0.27731092 4:-0.84955752 5:-0.85620684 6:-0.89643578 7:-0.87360105 8:-0.86347783 
-0 0 729 505.74072975235219 729 0 0 269.61694444413672 0 0 0 0 0 0 0 0 0 0 0 0 0 0 0 0 0 1:1 2:-0.10810811 3:-0.17647059 4:-0.78761062 5:-0.77191429 6:-0.83120377 7:-0.81698486 8:-0.78375685 
-0 0 0 0 0 729 729 0 0 0 0 0 0 0 0 0 0 0 0 0 0 0 0 0 0 1:1 2:-0.22972973 3:-0.27731092 4:-0.84955752 5:-0.8625819 6:-0.8796234 7:-0.91178407 8:-0.89735924 
-0 0 729 0 729 0 0 729 0 0 0 0 0 0 0 0 0 0 0 0 0 0 0 0 0 1:1 2:0.040540541 3:0.0084033613 4:-0.80530973 5:-0.70001771 6:-0.73032952 7:-0.78801843 8:-0.74389636 
-729 0 729 729 729 0 729 729 729 729 0 0 0 0 0 0 0 0 0 0 0 0 0 0 0 1:-1 2:0.33783784 3:0.36134454 4:-0.69911504 5:-0.36143085 6:-0.4532616 7:-0.4917709 8:-0.57648231 
-0 0 0 0 0 0 729 0 0 0 0 0 0 0 0 0 0 0 0 0 0 0 0 0 0 1:1 2:-0.18918919 3:-0.24369748 4:-0.85840708 5:-0.84806092 6:-0.87558843 7:-0.75773535 8:-0.86347783 
-729 0 729 0 729 0 0 729 0 729 0 0 0 0 0 0 0 0 0 0 0 0 0 0 0 1:1 2:0.14864865 3:0.075630252 4:-0.75221239 5:-0.61218346 6:-0.66778749 7:-0.70638578 8:-0.68709517 
-0 0 0 0 0 729 729 0 0 0 0 0 0 0 0 0 0 0 0 0 0 0 0 0 0 1:1 2:-0.35135135 3:-0.37815126 4:-0.84955752 5:-0.87993625 6:-0.90585071 7:-0.91046741 8:-0.89636273 
-0 0 0 0 0 0 729 0 0 0 0 0 0 0 0 0 0 0 0 0 0 0 0 0 0 1:1 2:-0.22972973 3:-0.22689076 4:-0.81415929 5:-0.8303524 6:-0.87827841 7:-0.85121791 8:-0.85351271 
-729 0 729 729 729 0 0 729 524.35157051107194 0 0 0 0 0 0 0 0 0 0 0 0 0 0 0 0 1:1 2:0.013513514 3:0.025210084 4:-0.7699115 5:-0.66282982 6:-0.74445192 7:-0.66688611 8:-0.72994519 
-729 729 729 729 729 0 491.87148520720035 729 729 729 729 729 0 138.39751881111906 729 0 565.08815022747626 729 669.03133409026896 164.44506831842472 184.38553242730262 1.551457355586539 0 9.5845357274428533 0 2:0.74324324 3:0.57983193 4:-0.68141593 5:0.022135647 6:-0.15265636 7:-0.15470704 8:-0.13602392 
-0 0 729 0 729 0 0 729 0 0 0 0 0 0 0 0 0 0 0 0 0 0 0 0 0 1:1 2:-0.027027027 3:-0.058823529 4:-0.81415929 5:-0.75101824 6:-0.79152656 7:-0.86965109 8:-0.77678127 
-0 0 729 0 729 0 0 0 0 0 0 0 0 0 0 0 0 0 0 0 0 0 0 0 0 1:1 2:-0.027027027 3:-0.075630252 4:-0.80530973 5:-0.73224721 6:-0.79757902 7:-0.75246873 8:-0.78375685 
-729 729 729 729 729 0 326.19790055264178 729 729 729 729 729 0 0 662.08532491999836 0 0 729 279.39529929906337 0 0 68.860381090554512 0 0 0 1:-1 2:0.35135135 3:0.32773109 4:-0.72566372 5:-0.32990969 6:-0.42434432 7:-0.45885451 8:-0.48679621 
-0 0 729 0 729 0 729 0 0 0 0 0 0 0 0 0 0 0 0 0 0 0 0 0 0 1:1 2:-0.054054054 3:-0.092436975 4:-0.81415929 5:-0.71985125 6:-0.75722932 7:-0.78801843 8:-0.76880917 
-729 0 729 33.672196079224754 729 0 729 729 0 0 0 0 0 0 0 0 442.58437482390451 0 0 0 0 0 0 0 0 1:1 2:0.17567568 3:0.17647059 4:-0.76106195 5:-0.45670267 6:-0.50975118 7:-0.5839368 8:-0.64424514 
-0 0 729 0 729 0 0 729 0 0 0 0 0 0 0 0 0 0 0 0 0 0 0 0 0 1:-1 2:-0.25675676 3:-0.29411765 4:-0.84070796 5:-0.84168585 6:-0.86751849 7:-0.87360105 8:-0.86347783 
-0 0 729 0 729 0 0 0 0 0 0 0 0 0 0 0 0 0 0 0 0 0 0 0 0 1:1 2:0.040540541 3:-0.0084033613 4:-0.79646018 5:-0.70710112 6:-0.75924681 7:-0.74325214 8:-0.76880917 
-0 0 729 0 729 0 0 729 0 0 0 0 0 0 0 0 0 0 0 0 0 0 0 0 0 1:1 2:-0.054054054 3:-0.1092437 4:-0.82300885 5:-0.78501859 6:-0.83187626 7:-0.84331797 8:-0.79172895 
-729 0 729 0 729 0 0 729 0 729 0 0 0 0 0 0 0 0 0 0 0 0 0 0 0 1:-1 2:-0.013513514 3:-0.092436975 4:-0.79646018 5:-0.7251638 6:-0.78211163 7:-0.77221856 8:-0.77777778 
-0 0 0 0 0 729 729 0 0 0 0 0 0 0 0 0 0 0 0 0 0 0 0 0 0 1:1 2:-0.32432432 3:-0.34453782 4:-0.85840708 5:-0.87851957 6:-0.89845326 7:-0.91046741 8:-0.90533134 
-336.70382300570714 0 729 729 729 0 0 729 0 0 109.52281511292665 0 0 0 0 0 0 137.78045880873967 0 0 0 0 0 0 0 1:1 2:0.10810811 3:0.1092437 4:-0.7699115 5:-0.59907916 6:-0.66442502 7:-0.53258723 8:-0.69606378 
-0 0 729 0 729 0 0 0 0 0 0 0 0 0 0 0 0 0 0 0 0 0 0 0 0 1:1 2:0.081081081 3:0.0084033613 4:-0.79646018 5:-0.63343368 6:-0.6260928 7:-0.76958525 8:-0.7389138 
-729 0 729 729 729 0 0 729 536.51133108169222 729 729 0 0 0 0 0 0 27.384857314851608 0 0 0 0 0 0 0 1:-1 2:-0.067567568 3:-0.025210084 4:-0.81415929 5:-0.69683018 6:-0.76597176 7:-0.74851876 8:-0.74389636 
-0 0 0 0 0 0 729 0 0 0 0 0 0 0 0 0 0 0 0 0 0 0 0 0 0 1:1 2:-0.2027027 3:-0.21008403 4:-0.84070796 5:-0.82822738 6:-0.88164089 7:-0.82883476 8:-0.85351271 
-0 0 729 0 729 0 0 729 0 0 0 0 0 0 0 0 0 0 0 0 0 0 0 0 0 1:-1 2:0.16216216 3:0.1092437 4:-0.7699115 5:-0.54559943 6:-0.57969065 7:-0.60895326 8:-0.70104634 
-0 0 0 0 0 729 729 0 0 0 0 0 0 0 0 0 0 0 0 0 0 0 0 0 0 1:1 2:-0.32432432 3:-0.34453782 4:-0.85840708 5:-0.87674872 6:-0.92131809 7:-0.9078341 8:-0.877429 
-0 0 0 0 0 729 729 0 0 0 0 0 0 0 0 0 0 0 0 0 0 0 0 0 0 1:1 2:-0.31081081 3:-0.34453782 4:-0.81415929 5:-0.87993625 6:-0.91324815 7:-0.90915076 8:-0.88340807 
-0 0 729 0 729 0 0 0 0 0 0 0 0 0 0 0 0 0 0 0 0 0 0 0 0 1:1 2:0.094594595 3:0.025210084 4:-0.77876106 5:-0.61749602 6:-0.62542031 7:-0.73140224 8:-0.71001495 
-0 0 729 0 729 0 0 729 0 0 0 0 0 0 0 0 0 0 0 0 0 0 0 0 0 1:-1 2:-0.081081081 3:-0.17647059 4:-0.82300885 5:-0.76376837 6:-0.79354405 7:-0.82093483 8:-0.81365222 
-729 729 729 729 729 0 0 729 729 729 729 729 0 0 729 0 375.33303152638166 729 729 729 135.23162689824937 0 0 154.39697361338349 0 2:0.44594595 3:0.44537815 4:-0.68141593 5:-0.095094741 6:-0.22999328 7:-0.24950625 8:-0.29546587 
-0 0 0 0 0 729 729 0 0 0 0 0 0 0 0 729 0 0 0 0 0 0 0 0 0 1:1 2:-0.48648649 3:-0.51260504 4:-0.88495575 5:-0.93235346 6:-0.94754539 7:-0.94733377 8:-0.94718485 
-0 0 0 0 0 0 729 0 0 0 0 0 0 0 0 0 0 0 0 0 0 0 0 0 0 1:1 2:-0.18918919 3:-0.24369748 4:-0.84955752 5:-0.77793519 6:-0.74983188 7:-0.88018433 8:-0.8694569 
-0 0 729 0 0 0 729 0 0 0 0 0 0 0 0 0 0 0 0 0 0 0 0 0 0 1:1 2:-0.18918919 3:-0.21008403 4:-0.84955752 5:-0.83247742 6:-0.84263618 7:-0.88281764 8:-0.86447434 
-0 0 0 0 0 729 729 0 0 0 0 0 0 0 0 0 0 0 0 0 0 0 0 0 0 1:1 2:-0.2972973 3:-0.34453782 4:-0.86725664 5:-0.86966531 6:-0.87424344 7:-0.90125082 8:-0.91429995 
-729 0 729 729 729 0 0 729 729 729 729 87.106396664043501 0 0 0 0 0 0 0 0 0 0 0 0 0 1:-1 2:0.37837838 3:0.37815126 4:-0.71681416 5:-0.32459713 6:-0.38332213 7:-0.37985517 8:-0.47483807 
-0 0 0 0 0 729 729 0 0 0 0 0 557.00298756890334 0 0 729 0 0 0 0 0 0 36.378961673487964 0 14.405650005914197 1:1 2:-0.48648649 3:-0.52941176 4:-0.90265487 5:-0.94191606 6:-0.95225286 7:-0.95523371 8:-0.95316393 
-0 0 0 0 0 729 729 0 0 0 0 0 0 0 0 0 0 0 0 0 0 0 0 0 0 1:1 2:-0.31081081 3:-0.42857143 4:-0.86725664 5:-0.86895697 6:-0.87424344 7:-0.89730086 8:-0.918286 
-0 0 729 0 729 0 0 729 0 0 0 0 0 0 0 0 0 0 0 0 0 0 0 0 0 1:-1 2:0.067567568 3:0.025210084 4:-0.81415929 5:-0.61607933 6:-0.63819771 7:-0.63396972 8:-0.74588939 
-729 0 729 729 729 0 0 729 0 518.15657728652673 0 0 0 0 88.460793049683545 0 0 0 0 56.440279589572334 0 0 0 0 0 1:-1 2:-0.21621622 3:-0.19327731 4:-0.85840708 5:-0.82043563 6:-0.87088097 7:-0.88808427 8:-0.8036871 
-729 0 729 729 729 0 0 729 729 729 729 0 0 0 729 0 0 536.21669018704551 0 0 0 0 0 0 0 2:0.35135135 3:0.36134454 4:-0.74336283 5:-0.29697184 6:-0.37457969 7:-0.39828835 8:-0.47483807 
-729 729 729 729 729 0 0 729 729 729 729 729 0 729 729 0 0 729 137.66626655108254 729 56.607218062520715 0 0 66.964249578271051 0 2:0.22972973 3:0.14285714 4:-0.74336283 5:-0.45245263 6:-0.5870881 7:-0.55628703 8:-0.49476831 
-729 0 729 729 729 0 481.4596952969373 729 0 729 729 0 0 0 247.11798799770742 0 0 0 0 0 0 0 0 0 0 2:0.16216216 3:0.15966387 4:-0.77876106 5:-0.58845405 6:-0.67047747 7:-0.65898618 8:-0.65421026 
-0 0 729 0 729 0 629.44052455954272 729 0 0 0 0 0 0 0 0 0 0 0 0 0 0 0 0 0 1:-1 2:0.18918919 3:0.12605042 4:-0.72566372 5:-0.49672392 6:-0.50437122 7:-0.640553 8:-0.69407075 
-0 0 729 0 0 0 729 0 0 0 0 0 0 0 0 0 0 0 0 0 0 0 0 0 0 1:1 2:-0.14864865 3:-0.17647059 4:-0.82300885 5:-0.81264388 6:-0.8527236 7:-0.84595128 8:-0.83557549 
-0 0 0 0 0 729 729 0 0 0 0 0 0 0 0 0 0 0 0 0 0 0 0 0 0 1:1 2:-0.28378378 3:-0.34453782 4:-0.87610619 5:-0.84381087 6:-0.86146604 7:-0.88940092 8:-0.89337319 
-0 0 729 0 236.30195706240349 0 729 12.638778194159613 0 0 0 0 0 0 0 0 0 0 0 0 0 0 0 0 0 2:-0.18918919 3:-0.21008403 4:-0.85840708 5:-0.8016646 6:-0.81237391 7:-0.81040158 8:-0.84354758 
-0 0 729 0 729 0 0 729 0 0 0 0 0 0 0 0 0 0 0 0 0 0 0 0 0 1:-1 2:0.14864865 3:0.1092437 4:-0.76106195 5:-0.54630777 6:-0.57162071 7:-0.66161949 8:-0.69706029 
-0 0 729 0 729 0 0 0 0 0 0 0 0 0 0 0 0 0 0 0 0 0 0 0 0 1:1 2:0.013513514 3:-0.058823529 4:-0.81415929 5:-0.74499734 6:-0.78950908 7:-0.7919684 8:-0.78475336 
-216.68231195000294 0 459.18998890863429 0 0 0 729 0 0 0 0 0 0 0 0 0 0 0 0 0 0 0 0 0 0 1:1 2:-0.28378378 3:-0.29411765 4:-0.87610619 5:-0.87037365 6:-0.91728312 7:-0.89730086 8:-0.86347783 
-0 0 729 0 0 0 729 0 0 0 0 0 0 0 0 0 0 0 0 0 0 0 0 0 0 1:1 2:-0.14864865 3:-0.17647059 4:-0.83185841 5:-0.77014344 6:-0.77740417 7:-0.84990125 8:-0.82561036 
-0 0 729 0 729 0 0 729 0 0 0 0 0 0 0 0 0 0 0 0 0 0 0 0 0 1:1 2:0.013513514 3:-0.058823529 4:-0.83185841 5:-0.75314326 6:-0.78412912 7:-0.83673469 8:-0.76681614 
-0 0 0 0 0 729 729 0 0 0 0 0 0 0 0 0 0 0 0 0 0 0 0 0 0 1:1 2:-0.21621622 3:-0.27731092 4:-0.84955752 5:-0.8625819 6:-0.89038332 7:-0.90256748 8:-0.88340807 
-0 0 729 0 729 0 275.72582861274645 729 0 0 0 0 0 0 0 0 0 0 0 0 0 0 0 0 0 2:-0.14864865 3:-0.21008403 4:-0.77876106 5:-0.78501859 6:-0.83860121 7:-0.78538512 8:-0.82361734 
-0 0 0 0 0 0 729 0 0 0 0 0 0 0 0 0 0 0 0 0 0 0 0 0 0 1:1 2:-0.27027027 3:-0.29411765 4:-0.82300885 5:-0.82751904 6:-0.85205111 7:-0.8604345 8:-0.87344295 
-0 0 729 0 729 0 0 729 0 0 0 0 0 0 0 0 0 0 0 0 0 0 0 0 0 1:1 3:-0.025210084 4:-0.81415929 5:-0.71170533 6:-0.77605918 7:-0.73403555 8:-0.76980568 
-0 0 729 0 0 0 729 0 0 0 0 0 0 0 0 0 0 0 0 0 0 0 0 0 0 1:1 2:-0.054054054 3:-0.12605042 4:-0.83185841 5:-0.74110147 6:-0.75050437 7:-0.82356814 8:-0.80667663 
-729 0 729 0 729 0 0 729 0 0 0 0 0 0 0 0 0 0 0 0 0 0 0 0 0 1:-1 2:0.13513514 3:0.15966387 4:-0.76106195 5:-0.56932885 6:-0.63550773 7:-0.62343647 8:-0.71599402 
-0 0 0 0 0 729 729 0 0 0 0 0 0 0 0 0 0 0 0 0 0 0 0 0 0 1:1 2:-0.25675676 3:-0.29411765 4:-0.85840708 5:-0.85974854 6:-0.8802959 7:-0.89071758 8:-0.88340807 
-0 0 0 0 0 729 729 0 0 0 0 0 0 0 0 729 0 0 0 0 0 0 0 0 0 1:1 2:-0.44594595 3:-0.49579832 4:-0.90265487 5:-0.92102001 6:-0.94082044 7:-0.92890059 8:-0.93622322 
-729 0 729 0 729 0 0 729 0 0 0 0 0 0 0 0 0 0 0 0 0 0 0 0 0 1:1 2:0.14864865 3:0.075630252 4:-0.77876106 5:-0.59801665 6:-0.6529926 7:-0.67478604 8:-0.6900847 
-0 0 0 0 0 729 409.93380455317686 0 0 0 0 0 0 0 0 0 0 0 0 0 0 0 0 0 0 1:1 2:-0.24324324 3:-0.27731092 4:-0.86725664 5:-0.85691518 6:-0.59179556 7:-0.88018433 8:-0.88440458 
-729 0 729 657.96488540950452 729 0 0 729 405.34740444939138 729 0 0 0 0 0 0 11.775628874267086 0 0.89362583581443777 0 0 0 0 0 0 1:1 2:0.22972973 3:0.22689076 4:-0.78761062 5:-0.57889145 6:-0.65770007 7:-0.63001975 8:-0.65022422 
-0 0 729 0 729 0 0 0 0 0 0 0 0 0 0 0 0 0 0 0 0 0 0 0 0 1:1 2:-0.081081081 3:-0.1092437 4:-0.79646018 5:-0.78572693 6:-0.83792872 7:-0.80776827 8:-0.81564524 
-0 0 729 0 0 0 729 0 0 0 0 0 0 0 0 0 0 0 0 0 0 0 0 0 0 1:1 2:-0.17567568 3:-0.21008403 4:-0.84955752 5:-0.83956083 6:-0.88298588 7:-0.87886768 8:-0.85351271 
-0 0 0 0 0 729 729 0 0 0 0 0 0 0 0 0 0 0 0 0 0 0 0 0 0 1:1 2:-0.33783784 3:-0.39495798 4:-0.84070796 5:-0.87179033 6:-0.86953598 7:-0.91310072 8:-0.91928251 
-0 0 729 0 343.40790560993952 0 0 0 0 0 0 0 0 0 0 0 0 0 0 0 0 0 0 0 0 1:1 2:0.081081081 3:-0.0084033613 4:-0.82300885 5:-0.67947583 6:-0.71015467 7:-0.70901909 8:-0.77379173 
-0 0 729 0 0 0 729 0 0 0 0 0 0 0 0 0 0 0 0 0 0 0 0 0 0 1:1 2:-0.054054054 3:-0.12605042 4:-0.85840708 5:-0.78678945 6:-0.82515131 7:-0.84726794 8:-0.81365222 
-0 0 729 0 0 0 729 0 0 0 0 0 0 0 0 0 0 0 0 0 0 0 0 0 0 1:1 2:-0.081081081 3:-0.15966387 4:-0.78761062 5:-0.7634142 6:-0.77942165 7:-0.80118499 8:-0.84255107 
-0 0 729 0 0 0 729 0 0 0 0 0 0 0 0 0 0 0 0 0 0 0 0 0 0 1:1 2:-0.24324324 3:-0.24369748 4:-0.80530973 5:-0.84310253 6:-0.89172831 7:-0.86306781 8:-0.84354758 
-0 0 729 0 0 0 729 0 0 0 0 0 0 0 0 0 0 0 0 0 0 0 0 0 0 1:1 2:-0.14864865 3:-0.17647059 4:-0.84070796 5:-0.82291482 6:-0.85810356 7:-0.86175115 8:-0.84354758 
-0 0 729 0 0 0 729 0 0 0 0 0 0 0 0 0 0 0 0 0 0 0 0 0 0 1:1 2:-0.14864865 3:-0.21008403 4:-0.84070796 5:-0.81547724 6:-0.84398117 7:-0.85911784 8:-0.84952666 
-0 0 729 0 0 0 729 0 0 0 0 0 0 0 0 0 0 0 0 0 0 0 0 0 0 1:1 2:-0.10810811 3:-0.17647059 4:-0.80530973 5:-0.77474765 6:-0.77000672 7:-0.88545095 8:-0.81763827 
-0 0 0 0 0 729 729 0 0 0 0 0 0 0 0 0 0 0 0 0 0 0 0 0 0 1:1 2:-0.18918919 3:-0.2605042 4:-0.84955752 5:-0.84558172 6:-0.85474109 7:-0.86965109 8:-0.88241156 
-483.24533106478049 0 729 0 729 0 0 729 0 0 0 0 0 0 0 0 0 0 0 0 0 0 0 0 0 1:-1 2:0.45945946 3:0.32773109 4:-0.73451327 5:-0.15282451 6:-0.050437122 7:-0.44963792 8:-0.50373692 
-0 0 729 0 729 0 0 0 0 0 0 0 0 0 0 0 0 0 0 0 0 0 0 0 0 1:1 2:-0.027027027 3:-0.058823529 4:-0.82300885 5:-0.77156012 6:-0.81977135 7:-0.79460171 8:-0.80767314 
-0 0 729 0 729 0 0 0 0 0 0 0 0 0 0 0 0 0 0 0 0 0 0 0 0 1:1 2:0.081081081 3:0.042016807 4:-0.79646018 5:-0.67628829 6:-0.70880968 7:-0.7564187 8:-0.77080219 
-0 0 729 0 0 0 729 0 0 0 0 0 0 0 0 0 0 0 0 0 0 0 0 0 0 1:1 2:-0.10810811 3:-0.21008403 4:-0.84070796 5:-0.80131043 6:-0.85070612 7:-0.8038183 8:-0.84055805 
-0 0 0 0 729 0 729 580.59065538805521 0 0 0 0 0 0 0 0 0 0 0 0 0 0 0 0 0 1:-1 2:-0.36486486 3:-0.42857143 4:-0.85840708 5:-0.90614486 6:-0.92871553 7:-0.93811718 8:-0.90333832 
-729 0 729 0 729 0 0 729 0 280.36834413850528 0 0 0 0 0 0 0 0 0 0 0 0 0 0 0 1:-1 2:0.14864865 3:0.075630252 4:-0.74336283 5:-0.56118293 6:-0.63281775 7:-0.56418697 8:-0.70702541 
-0 0 0 0 0 729 729 0 0 0 0 0 0 0 0 729 0 0 0 0 0 0 0 0 0 1:1 2:-0.35135135 3:-0.39495798 4:-0.87610619 5:-0.89587392 6:-0.92333557 7:-0.91573404 8:-0.90931739 
-729 185.89232912869792 729 729 729 0 0 729 729 729 0 729 0 42.56023798351297 729 0 0 0 146.86203686710115 0 0 0 0 0 0 1:1 2:0.2027027 3:0.12605042 4:-0.7699115 5:-0.60864176 6:-0.68459987 7:-0.71296906 8:-0.62531141 
-0 0 729 0 0 0 729 0 0 0 0 0 0 0 0 0 0 0 0 0 0 0 0 0 0 1:1 2:0.027027027 3:-0.058823529 4:-0.76106195 5:-0.64653798 6:-0.63281775 7:-0.73930217 8:-0.79073244 
-729 0 729 0 729 0 0 729 0 0 0 0 0 0 0 0 0 0 0 0 0 0 0 0 0 1:-1 2:-0.2972973 3:-0.29411765 4:-0.81415929 5:-0.84416504 6:-0.87558843 7:-0.85385122 8:-0.85351271 
-0 0 0 0 0 729 729 0 0 0 0 0 0 0 0 0 0 0 0 0 0 0 0 0 0 1:1 2:-0.24324324 3:-0.32773109 4:-0.85840708 5:-0.86895697 6:-0.89643578 7:-0.86833443 8:-0.88739412 
-0 0 256.25092233946805 0 0 0 0 0 0 0 0 0 0 0 0 0 0 0 0 0 0 0 0 0 0 1:1 2:0.013513514 3:-0.058823529 4:-0.81415929 5:-0.68478838 6:-0.68728985 7:-0.59842001 8:-0.76581963 
-0 0 729 0 0 0 729 0 0 0 0 0 0 0 0 0 0 0 0 0 0 0 0 0 0 1:1 2:-0.18918919 3:-0.22689076 4:-0.85840708 5:-0.84133168 6:-0.87020847 7:-0.8959842 8:-0.85849527 
-0 0 0 0 0 729 729 0 0 0 0 0 0 0 0 729 0 0 0 0 0 0 0 0 0 1:1 2:-0.45945946 3:-0.51260504 4:-0.86725664 5:-0.94049938 6:-0.9603228 7:-0.95128374 8:-0.9431988 
-0 0 729 0 729 0 0 0 0 0 0 0 0 0 0 0 0 0 0 0 0 0 0 0 0 1:-1 2:0.054054054 3:0.025210084 4:-0.80530973 5:-0.65043386 6:-0.64290518 7:-0.77748519 8:-0.76183358 
-500.66449603756558 0 729 0 729 0 0 729 0 729 0 0 0 0 0 0 0 0 0 0 0 0 0 0 0 2:0.16216216 3:0.12605042 4:-0.77876106 5:-0.61572516 6:-0.67047747 7:-0.60631995 8:-0.72296961 
-0 0 0 0 0 729 729 0 0 0 0 0 0 0 0 0 0 0 0 0 0 0 0 0 0 1:1 2:-0.25675676 3:-0.39495798 4:-0.85840708 5:-0.88099876 6:-0.90383322 7:-0.87886768 8:-0.90433483 
-0 0 0 0 0 729 729 0 0 0 0 0 0 0 0 729 0 0 0 0 0 0 0 0 0 1:1 2:-0.39189189 3:-0.44537815 4:-0.84070796 5:-0.90047813 6:-0.92468056 7:-0.91310072 8:-0.91728949 
-729 0 729 729 729 0 729 729 20.105455672589663 0 0 0 0 0 0 0 0 0 0 0 0 0 0 0 0 2:-0.18918919 3:-0.27731092 4:-0.76106195 5:-0.57853728 6:-0.63550773 7:-0.65635286 8:-0.66915795 
-0 0 729 0 729 0 0 0 0 0 0 0 0 0 0 0 0 0 0 0 0 0 0 0 0 1:-1 2:0.054054054 3:0.025210084 4:-0.79646018 5:-0.59093324 6:-0.60457297 7:-0.63396972 8:-0.76382661 
-0 0 729 0 0 0 729 0 0 0 0 0 0 0 0 0 0 0 0 0 0 0 0 0 0 1:1 2:-0.16216216 3:-0.17647059 4:-0.82300885 5:-0.79635205 6:-0.83792872 7:-0.83541804 8:-0.82361734 
-0 0 0 0 0 729 729 0 0 0 0 0 0 0 0 729 0 0 0 0 0 0 0 0 0 1:1 2:-0.36486486 3:-0.46218487 4:-0.86725664 5:-0.91110324 6:-0.92535306 7:-0.92890059 8:-0.93124066 
-0 0 0 0 0 729 729 0 0 0 0 0 0 0 0 0 0 0 0 0 0 0 0 0 0 1:1 2:-0.24324324 3:-0.31092437 4:-0.84070796 5:-0.86081105 6:-0.90517821 7:-0.87096774 8:-0.88739412 
-729 0 729 729 729 0 729 729 0 0 0 0 0 0 0 0 0 0 0 0 0 0 0 0 0 1:1 2:0.027027027 3:0.0084033613 4:-0.77876106 5:-0.62422525 6:-0.69872226 7:-0.66951942 8:-0.71101146 
-729 0 729 276.53865711849249 729 0 0 729 0 0 0 102.34975412610576 0 0 0 0 0 0 0 0 0 0 0 0 0 1:1 3:-0.0084033613 4:-0.7699115 5:-0.70426775 6:-0.7733692 7:-0.75246873 8:-0.76482312 
-0 0 729 0 623.75859741481759 0 729 729 0 0 0 0 0 0 0 0 0 0 0 0 0 0 0 0 0 2:-0.25675676 3:-0.29411765 4:-0.84070796 5:-0.87001948 6:-0.90114324 7:-0.89203423 8:-0.88340807 
-729 0 729 729 729 0 0 729 0 0 208.12288139500467 0 0 0 0 0 0 0 0 0 0 0 0 0 0 1:-1 2:-0.10810811 3:-0.15966387 4:-0.78761062 5:-0.77581016 6:-0.83523874 7:-0.76300197 8:-0.81365222 
-729 0 729 0 729 0 729 729 0 729 0 0 0 0 0 0 0 0 0 0 0 0 0 0 0 1:-1 2:0.2972973 3:0.15966387 4:-0.7699115 5:-0.50026563 6:-0.55480834 7:-0.5839368 8:-0.64424514 
-0 0 0 0 0 729 729 0 0 0 0 0 0 0 0 0 0 0 0 0 0 0 0 0 0 1:1 2:-0.32432432 3:-0.34453782 4:-0.87610619 5:-0.87781123 6:-0.88365837 7:-0.9078341 8:-0.92326856 
-729 0 0 0 729 0 0 729 0 0 0 0 0 0 0 0 0 0 0 0 0 0 0 0 0 1:-1 2:-0.36486486 3:-0.36134454 4:-0.83185841 5:-0.89516557 6:-0.93073302 7:-0.91178407 8:-0.90732436 
-0 0 729 0 0 0 729 0 0 0 0 0 0 0 0 0 0 0 0 0 0 0 0 0 0 1:1 2:0.040540541 3:0.025210084 4:-0.82300885 5:-0.67310076 6:-0.68863484 7:-0.7564187 8:-0.77379173 
-0 0 628.91068102720305 0 0 0 729 729 0 0 0 0 0 0 0 0 0 0 0 0 0 0 0 0 0 2:-0.32432432 3:-0.31092437 4:-0.84070796 5:-0.86576944 6:-0.88702085 7:-0.90651745 8:-0.87942202 
-0 0 0 0 0 729 729 0 0 0 0 0 0 0 0 0 0 0 0 0 0 0 0 0 0 1:1 2:-0.2972973 3:-0.36134454 4:-0.84070796 5:-0.85868603 6:-0.87222596 7:-0.89466754 8:-0.90732436 
-0 0 729 0 729 0 0 729 0 0 0 0 0 0 0 0 0 0 0 0 0 0 0 0 0 2:0.13513514 3:0.092436975 4:-0.78761062 5:-0.59553745 6:-0.64425017 7:-0.66293614 8:-0.71599402 
-0 0 729 0 0 0 729 0 0 0 0 0 0 0 0 0 0 0 0 0 0 0 0 0 0 1:1 2:-0.12162162 3:-0.17647059 4:-0.84070796 5:-0.80201877 6:-0.84196369 7:-0.84068466 8:-0.84354758 
-729 0 729 0 729 0 0 729 0 0 0 0 0 0 0 0 0 0 0 0 0 0 0 0 0 1:1 2:0.14864865 3:0.092436975 4:-0.80530973 5:-0.65149637 6:-0.70813719 7:-0.76431863 8:-0.7389138 
-0 0 0 0 0 0 729 0 0 0 0 0 0 0 0 0 0 0 0 0 0 0 0 0 0 1:1 2:-0.22972973 3:-0.2605042 4:-0.86725664 5:-0.84522755 6:-0.86886348 7:-0.88545095 8:-0.87144993 
-729 267.21880843337635 729 729 729 0 0 729 571.23326201981797 667.87805375730295 0 494.41396994190461 0 0 0 0 0 78.324266144572135 0 3.2764878541475109 0 0 0 0 0 1:1 2:-0.094594595 3:-0.058823529 4:-0.80530973 5:-0.76766425 6:-0.79018157 7:-0.8156682 8:-0.66417539 
-0 0 729 0 729 0 0 0 0 0 0 0 0 0 0 0 0 0 0 0 0 0 0 0 0 1:1 2:0.054054054 3:0.0084033613 4:-0.80530973 5:-0.66566318 6:-0.69199731 7:-0.73666886 8:-0.76382661 
-0 0 0 0 0 729 729 0 0 0 0 0 0 0 0 45.273231224902823 0 0 0 0 0 0 0 0 0 1:1 2:-0.35135135 3:-0.41176471 4:-0.84070796 5:-0.9103949 6:-0.94351042 7:-0.8959842 8:-0.92326856 
-0 0 0 0 0 729 729 0 0 0 0 0 0 0 0 0 0 0 0 0 0 0 0 0 0 1:1 2:-0.31081081 3:-0.31092437 4:-0.85840708 5:-0.86683195 6:-0.89845326 7:-0.89993417 8:-0.87344295 
-0 0 0 0 0 0 729 0 0 0 0 0 0 0 0 0 0 0 0 0 0 0 0 0 0 1:1 2:-0.13513514 3:-0.21008403 4:-0.83185841 5:-0.78891447 6:-0.78883658 7:-0.82225148 8:-0.84753363 
-0 0 729 0 729 0 0 0 0 0 0 0 0 0 0 0 0 0 0 0 0 0 0 0 0 1:1 2:0.040540541 3:-0.025210084 4:-0.81415929 5:-0.6833717 6:-0.73772697 7:-0.75246873 8:-0.75087195 
-0 0 0 0 0 729 729 0 0 0 0 0 0 0 0 2.7397667841679336 0 0 0 0 0 0 0 0 0 2:-0.37837838 3:-0.41176471 4:-0.85840708 5:-0.89091553 6:-0.91055817 7:-0.91046741 8:-0.90732436 
-0 0 708.22874639821134 0 0 0 729 0 0 0 0 0 0 0 0 0 0 0 0 0 0 0 0 0 0 1:1 2:-0.18918919 3:-0.24369748 4:-0.84955752 5:-0.8494776 6:-0.88634835 7:-0.87360105 8:-0.85949178 
-0 0 0 0 0 729 729 0 0 0 0 0 0 0 0 729 0 0 0 0 0 0 0 0 0 1:1 2:-0.45945946 3:-0.46218487 4:-0.86725664 5:-0.91960333 6:-0.93611298 7:-0.92495063 8:-0.93323368 
-0 0 729 0 0 0 0 0 0 0 0 0 0 0 0 0 0 0 0 0 0 0 0 0 0 1:1 2:0.013513514 3:-0.075630252 4:-0.81415929 5:-0.73826811 6:-0.75050437 7:-0.79460171 8:-0.80866966 
-729 -729 729 729 729 0 0 729 729 729 729 729 0 0 729 0 0 729 729 0 0 0 0 0 0 2:0.54054054 3:0.57983193 4:-0.66371681 5:0.03523995 6:-0.11163416 7:-0.096774194 8:-0.13602392 
-729 -729 729 729 729 0 332.07240576122865 729 729 729 729 729 0 0 729 0 0 729 167.57082410711709 0 0 0 0 0 0 1:-1 2:0.39189189 3:0.41176471 4:-0.71681416 5:-0.33168054 6:-0.48823134 7:-0.51678736 8:-0.46487294 
-729 -0 683.70093084843336 729 729 0 0 729 729 729 729 729 0 495.92793280412275 729 0 38.508331756485816 729 729 0 0 479.01267995575 0 0 0 1:-1 2:0.41891892 3:0.49579832 4:-0.71681416 5:-0.28245086 6:-0.46402152 7:-0.54443713 8:-0.34529148 
-729 -0 729 729 729 0 0 729 729 729 729 729 0 729 729 0 729 729 729 729 236.78045753012245 7.168331124275265 0 371.8320363247197 0 2:0.32432432 3:0.34453782 4:-0.69026549 5:-0.28386754 6:-0.54135844 7:-0.4562212 8:-0.30543099 
-729 -729 729 729 729 0 81.30874956645917 729 729 729 729 729 0 0 729 0 0 729 643.17988833721517 78.99666144597083 0 0 0 0 0 1:-1 2:0.33783784 3:0.17647059 4:-0.71681416 5:-0.34655569 6:-0.53799597 7:-0.42593812 8:-0.41504733 
-729 -0 0 729 480.13516608116026 0 0 729 729 729 729 709.07026429231712 0 130.82393977482201 729 0 0 729 729 331.85317776695769 0 0 0 0 0 1:-1 2:0.66216216 3:0.66386555 4:-0.6460177 5:0.30653444 6:-0.016812374 7:0.24160632 8:0.13303438 
-729 -729 729 729 729 0 729 729 729 729 729 207.52454231048091 0 335.00417008286797 729 0 0 729 0 729 0 0 0 0 0 1:-1 2:0.14864865 3:0.092436975 4:-0.72566372 5:-0.53391181 6:-0.64425017 7:-0.64186965 8:-0.57448929 
