svm_type c_svc
kernel_type polynomial
degree 3
gamma 0.125
coef0 0
nr_class 26
total_sv 2504
rho -1.4318943515483755 -0.99936103974491353 -0.8871290695642402 -0.98281690710407832 0.32458361114334544 -2.4778672715581456 -1.6192767790683327 0.95298294399189309 -0.98246713218193304 -0.99940531417863576 -0.99111038477239499 -0.99109524813693339 -2.2429466789890689 -0.99777735496899189 -0.97264704098047261 -2.1706951751365096 -0.99835338729192935 -0.99351058147431826 -0.9943792688869354 -1.0000711570653074 -0.99799955740937341 -1.0006438774438853 -2.0405061058308891 -0.99222845100921109 -1.0055716749310541 -0.58299384390870035 1.1398280317324045 1.2714403775729346 1.2192231890843743 -2.3943239322418277 -1.0357917593967176 1.3402719323727414 1.0401288496380994 1.1997604964539268 1.0048053921452951 0.28835677035707702 -3.7659537302018058 -0.98540426732712982 0.71468733264011475 -4.0852355427605245 -0.94574365905675084 0.64084422221379778 -0.82241615889004505 -0.95522938981455752 -0.99649800582963499 -1.0024493620775747 -2.0557978004217148 -0.97209239004427916 -1.0024474398387611 0.99236737886294257 0.99972053722322018 0.99918352931828869 -1.1926046642923891 -0.92495636348554422 0.99950204678538312 0.99920790210904342 1.0001688521498426 1.0000645026528479 0.98255551640338723 -1.1150740774633061 -0.99890518460392985 1.0114408625439815 -1.2401446924965187 -1.0107289497051093 0.99641716605858088 -0.98332850095896407 -1.0151227340894908 -1.0013040421302257 -0.99746416093730617 -1.0549590420654706 -0.9940353876323339 -1.0101216150346981 -0.25326644148885341 1.0549723751417339 -2.6226033771016897 -1.3423452190090619 1.0375642694821452 -0.73898863383162461 0.12770220731153009 -0.87330073786628759 -0.93282508497532279 -3.2017556826291638 -0.99383876765341461 -0.81933394543118654 -3.2089811784676998 -1.0125624053217692 -0.915407384884387 -0.98126794380119686 -1.0022896850250396 -0.998317317057693 -1.0017407970248446 -2.1372867971658707 -0.99218931647912867 -1.0082824083223645 0.92488288819823949 -2.0093288035010692 -1.3676383451934939 0.99403522551946943 -0.9852190499971536 0.94624785754016738 -1.0001301005617456 -0.99673521987952951 -1.8496185823406801 -0.99912793031160552 -0.98686651860871444 -2.1072198991492077 -1.0030440685756883 -0.99795240322905543 -0.99991207875512078 -1.0066466478404132 -0.99855783730698244 -0.99853224063890023 -1.5481929374428569 -0.99688810823297669 -1.0079523577532112 -3.1404508836166847 -1.3339647411439783 0.89100114111979445 -0.96551294899978191 -0.87409793967556015 -0.99183927530989968 -0.9934474139759788 -2.3341188991816439 -0.99791335088174915 -0.97048490912010288 -3.2886310477112155 -1.0116746970975006 -0.9904317637981338 -0.99639025572912221 -1.0033015439802833 -0.99958754945774919 -1.0019264727688328 -2.1154596507549286 -0.99725208002939081 -1.0075796909236741 1.5101530263761815 2.7636083425222577 1.7634681656136761 1.9954134793776039 1.8499475853060554 1.2008774051388151 -1.009021307564588 0.44377080616726022 1.3884927339834547 -2.6506057151224751 1.0523296760204628 1.5699404667041668 1.0995420497354786 1.337842053230941 -0.28181052055381262 -0.39422245170208142 -1.2547492384910583 0.45996457674633046 -0.26353970124626097 1.4260645561878402 1.3977581802171894 1.4072716959526652 1.2562122602776817 1.0546564155791296 -2.2702577191419602 -0.97132331526895888 1.2913935471530513 -3.6239272120059405 -0.14860348357674713 1.1952177101036998 0.73238493298676388 -0.40896715994944954 -0.99491138109899968 -1.0046150208010227 -1.4353353977203369 -0.95515553261656838 -1.0011112674837932 -0.99377220273702527 -0.99702353049335513 -0.99695687286531054 -0.99570216944263767 -2.3294091067155835 -0.99827713410465413 -0.99372088847170748 -2.9747849794403427 -1.0084208324237891 -0.99503527100946787 -1.0007039370099036 -1.0096902250112263 -0.99877882035262344 -1.0035814584062765 -2.1367844939231873 -0.99716301671965291 -1.0070005481296764 0.98182369510462431 -1.0027166198884232 -0.99355590902453217 -1.4266845907471815 -0.99902858635282299 -0.97580034712091179 -1.6156548857688904 -1.0131587762450884 -0.99441174995824877 -1.0024236945198821 -1.0041396324234675 -1.0017808119962588 -1.0038695039584584 -1.79209754853655 -0.99692648792618788 -1.0089803899721492 -0.99621163864313178 -0.99684018982890377 -2.0434903440614018 -0.99846602270659768 -0.98378456601734365 -2.4092121085299176 -1.006937000750675 -0.99503962176064753 -0.99541662143406728 -1.0071238648108987 -0.99839095677931677 -1.0057334182432398 -1.6048875659041408 -0.99674263560403153 -1.0039066646682593 -0.98098243743239544 -1.6002852375890626 -0.99909845053821322 -0.79103614254243315 -1.9400042589212647 -1.0080356509772173 -0.92925422682606695 -0.99966506356918527 -0.99877529744152072 -0.99758639254178061 -0.99916057294679805 -1.385374211802247 -0.99187910671197965 -1.0084945236031022 -1.4319784588938484 -0.99878430205000157 1.0174473120867362 -1.6550035083286208 -1.0098073595878572 0.99082816034804555 -0.99364290435060609 -0.99930841860766983 -1.0004934079391052 -1.0005171265562638 -1.2479551332306424 -0.99389059160707427 -1.0085886092242422 0.97864522919874153 1.2504331990554138 1.0146547574196487 1.2476824400668101 1.7393256609109724 1.1424239991942133 1.1786044467699688 0.9841876891138196 0.89986479908199002 -1.2578222453594208 1.0021695990085522 0.95257879384162036 0.99993179227038242 -0.96353461743658042 0.98464884419741205 1.0004648051429095 0.99557346715697748 0.98646070638101546 -0.99363521797366683 -1.0115188031923026 -0.98883645024272793 -0.1360827005119063 -1.0068523221416399 -1.3574101125490916 -1.0231751064668075 -0.69310059790949718 -1.0154791303001094 -1.0074802697182543 -1.0004573715512677 -1.0129132150956279 -1.1325502330499027 -1.00073592607043 -1.0080906582946998 1.433924232246091 1.7498065047540776 1.2305506229373433 1.3578607275879166 0.68201998698259225 0.53464225787756514 -1.0422673628947776 0.84844320358647651 0.69553092536610206 1.0213561448396402 1.0290383930544951 -0.77940428712549548 -0.99831590257352809 -1.0070052271889456 -1.1171579117786785 -0.97329017706131049 -1.0020369805438918 -0.99571768863212218 -1.0096669346853715 -0.99875780166131978 -1.0031472727343853 -1.4158598310505597 -1.0019007195166199 -1.0104877686711176 -1.011120811218817 -0.99963417583909775 -1.0070921003171736 -1.1293377998914584 -0.98952757593677276 -1.0120608888587221 -0.99314720116819999 -0.99938335846554738 -1.0857002512546547 -0.97582100471296673 -0.99724155487162303 -0.11262530589010566 -0.99110071377098996 0.99577390842346136 -0.022726251161657274 -0.92481206111675784 1.0061463019022518 0.089899054728448391 0.99950147336767148 0.97546026373258754 -0.98743408427216506
label 11 7 19 8 13 9 5 6 10 14 12 15 18 3 22 17 4 21 16 20 23 25 26 2 27 29
nr_sv 279 255 19 343 116 429 73 151 381 71 156 56 28 6 2 37 32 9 34 13 8 1 1 1 2 1
SV
0 0 0 9 9 0 0 9 0 0 0 0 0 0 0 0 0 0 0 0 0 0 0 0 0 1:-1 2:0.55405405 3:0.51260504 4:-0.69911504 5:0.10324066 6:-0.066577001 7:-0.075707702 8:-0.21574489 
0 0 0 9 9 0 0 9 4.065975635397189 9 0 9 0 0 9 0 0 9 0 0 0 0 0 0 0 2:0.59459459 3:0.54621849 4:-0.67256637 5:-0.051885957 6:-0.24882313 7:-0.22975642 8:-0.13104136 
0 0 0 0 0 0 0 9 0 8.7923538582900651 0 0 0 0 0 0 0 0 0 0 0 0 0 0 0 1:-1 2:0.74324324 3:0.78151261 4:-0.61061947 5:0.35434744 6:0.22999328 7:0.17840685 8:-0.048330842 
9 0 9 0 9 0 0 9 0 0 0 6.390704071274258 0 0 8.9080990399686542 0 0 0 0 0 0 0 0 0 0 2:0.040540541 3:0.092436975 4:-0.7699115 5:-0.54878697 6:-0.59784802 7:-0.59973667 8:-0.68410563 
9 0 9 0 9 0 0 9 0 1.5761214286538692 0 0 0 0 0 0 0 0 0 0 0 0 0 0 0 2:0.2027027 3:0.17647059 4:-0.78761062 5:-0.55728706 6:-0.64559516 7:-0.62870309 8:-0.64225212 
0 3.8421593410574717 9 9 9 0 0 9 0 0 0 0 0 0 0 0 0 0 0 0 0 0 0 0 0 1:-1 2:0.47297297 3:0.37815126 4:-0.66371681 5:-0.051177616 6:-0.23402824 7:-0.16524029 8:-0.29546587 
0 0 0 9 9 0 0 9 2.1591807472103799 9 0.8957602530538773 9 0 0 9 0 0 9 4.8181645850841957 0 0 0 0 0 4.1353640778618566 2:0.75675676 3:0.83193277 4:-0.6460177 5:0.22897114 6:-0.063887021 7:-0.057274523 8:0.18285999 
9 0 9 6.9085748038755055 9 9 9 9 3.0190658713317777 9 0.66913931102298863 0 9 0 0 9 0.46890038891768354 0.85881193479015205 0 0 0 0 7.7907181528134117 0 0 1:1 2:-0.24324324 3:-0.24369748 4:-0.82300885 5:-0.84026917 6:-0.87558843 7:-0.88150099 8:-0.83358246 
9 0 9 9 9 0 9 9 9 9 9 0 0 0 5.7778957173741183 0 0 0 0 0 0 0 0 0 0 1:-1 2:0.027027027 3:0.0084033613 4:-0.7699115 5:-0.63662121 6:-0.73234701 7:-0.66556945 8:-0.65421026 
9 0 9 9 9 0 0 9 9 9 0 0 0 0 0 0 0 4.5053824493436876 0 1.463242551042502 0 0 0 0 0 2:0.18918919 3:0.24369748 4:-0.76106195 5:-0.49707809 6:-0.64290518 7:-0.57867018 8:-0.50473343 
0 0 0 9 0 0 0 0 3.0173215951059835 9 0 0 0 0 0 0 0 0 0 0 0 0 0 0 0 1:-1 2:0.82432432 3:0.68067227 4:-0.61946903 5:0.55764123 6:0.4263618 7:0.37722186 8:0.050323866 
0 2.1120183708467013 9 0 9 0 0 9 0 0 0 0 0 0 0 0 0 0 0 0 0 0 0 0 0 2:0.25675676 3:0.41176471 4:-0.72566372 5:-0.3440765 6:-0.47141896 7:-0.49045425 8:-0.48480319 
9 0 9 0 9 0 0 9 0 0 0 0 0 0 0 0 0 0 0 0 0 0 0 0 0 1:-1 2:0.14864865 3:0.12605042 4:-0.7699115 5:-0.49920312 6:-0.63147276 7:-0.55892034 8:-0.64424514 
0 0 9 0 9 0 0 9 0 9 0 0 0 0 0 0 0 0 0 0 0 0 0 0 0 2:0.35135135 3:0.31092437 4:-0.76106195 5:-0.37595183 6:-0.48890383 7:-0.46543779 8:-0.48480319 
0 0 0 0 9 0 0 9 0 3.9404507252859058 0 0 0 0 0 0 0 0 0 0 0 0 0 0 0 2:0.74324324 3:0.71428571 4:-0.68141593 5:0.216221 6:0.13718897 7:0.07044108 8:-0.23069258 
0 0 0 0 0 0 0 9 0 9 0 0 0 0 0 0 0 0 0 0 0 0 0 0 0 1:-1 2:0.78378378 3:0.73109244 4:-0.69026549 5:0.33026386 6:0.22192334 7:0.017774852 8:-0.030393622 
0 0 9 0 9 0 0 9 0 0 0 0 0 0 0 0 0 0 0 0 0 0 0 0 0 1:-1 2:0.44594595 3:0.39495798 4:-0.73451327 5:-0.1779706 6:-0.24142569 7:-0.32192232 8:-0.3881415 
0 0 0 0 9 0 0 9 0 0 0 0 0 0 0 0 0 0 0 0 0 0 0 0 0.080653084990163396 2:0.82432432 3:0.66386555 4:-0.65486726 5:0.29661767 6:0.11499664 7:-0.037524687 8:-0.12605879 
0 0.65727887670885543 0 9 0 0 0 9 9 9 9 9 0 0.28322977743481298 9 0 9 9 8.5521408537900125 1.4550215848781645 0 0 0 9 0 1:-1 2:0.68918919 3:0.68067227 4:-0.6460177 5:0.31468036 6:-0.019502354 7:-0.036208032 8:0.18285999 
0 0 9 0 9 0 0 9 0 9 0 0 0 0 0 0 0 0 0 0 0 0 0 0 0 1:-1 2:0.51351351 3:0.4789916 4:-0.73451327 5:-0.23570037 6:-0.35238736 7:-0.3640553 8:-0.38515197 
0 0 9 0 9 0 0 9 0 9 0 0 0 0 0 0 0 0 0 0 0 0 0 0 0 2:0.51351351 3:0.51260504 4:-0.7079646 5:-0.11528245 6:-0.22528581 7:-0.40355497 8:-0.2406577 
0 0 0 5.3365068326102252 0 0 0 0 0 9 0 0 0 0 0 0 0 0 0 0 0 0 0 0 0 1:-1 2:0.7972973 3:0.81512605 4:-0.66371681 5:0.64441296 6:0.54472091 7:0.34562212 8:0.0034877927 
0 0 0 0 9 0 0 9 0 0 0 0 0 0 0 0 0 0 0 0 0 0 0 0 0 2:0.58108108 3:0.57983193 4:-0.6460177 5:0.03488578 6:-0.12373907 7:-0.21263989 8:-0.16193323 
0 9 9 9 9 0 0 9 9 9 9 9 0 2.093878925590166 9 0 0 9 8.1974404945358845 1.8797831619698635 0 0 0 0 0 1:-1 2:0.33783784 3:0.42857143 4:-0.69026549 5:-0.16203294 6:-0.36381977 7:-0.31402238 8:-0.24564026 
0 0 0 0 9 0 0 9 0 0 0 0 0 0 0 0 0 0 0 0 0 0 0 0 0 1:-1 2:0.71621622 3:0.71428571 4:-0.6460177 5:0.1326368 6:-0.051782112 7:-0.1560237 8:-0.10612855 
0 0 9 0 9 0 0 9 0 8.8799280384287957 0 0 0 0 0 0 0 0 0 0 0 0 0 0 0 2:0.45945946 3:0.57983193 4:-0.72566372 5:-0.26580485 6:-0.4270343 7:-0.39170507 8:-0.31539611 
0 0 9 0 9 0 0 9 0 9 0 0 0 0 0 0 0 0 0 0 0 0 0 0 0 2:0.41891892 3:0.37815126 4:-0.72566372 5:-0.26474234 6:-0.36180229 7:-0.34298881 8:-0.4449427 
0 0 0 4.9994648903365144 9 0 0 9 0 8.2517143045376891 0 0 0 0 0 0 0 5.4941629128984086 0 0 0 0 0 0 0 2:0.77027027 3:0.76470588 4:-0.66371681 5:0.22932531 6:-0.088769334 7:0.14285714 8:0.033383159 
0 0 0 9 9 0 0 9 9 9 9 9 0 1.8949658849555244 9 0 0 0 0 0 0 0 0 0 0 1:-1 2:0.55405405 3:0.56302521 4:-0.62831858 5:0.1875332 6:-0.10490921 7:-0.19025675 8:-0.086198306 
9 0 9 9 9 0 0 9 9 9 4.1484781395214849 1.2990086939408743 0 0 0 0 0 0 0.99120151253301758 0 0 0 0 0 0 1:1 2:0.2972973 3:0.24369748 4:-0.68141593 5:-0.38161856 6:-0.50437122 7:-0.47333772 8:-0.49476831 
0 0 0 9 9 0 0 9 0 2.3886838165300635 0 0 0 0 0 0 0 0 0 0 0 0 0 0 0 2:0.67567568 3:0.61344538 4:-0.6460177 5:0.12165752 6:-0.10423672 7:-0.12179065 8:-0.064275037 
0 0 0 0 9 0 0 9 0 0 0 0 0 0 0 0 0 0 0 0 0 0 0 0 0 2:0.56756757 3:0.51260504 4:-0.65486726 5:0.018948114 6:-0.07599193 7:0.00065832785 8:-0.27952167 
0 0 9 0 9 0 0 9 0 0 0 0 0 0 0 0 0 0 0 0 0 0 0 0 0 1:-1 2:0.55405405 3:0.49579832 4:-0.72566372 5:-0.14999115 6:-0.24142569 7:-0.17577354 8:-0.41704036 
9 0 9 0 9 0 0 9 0 0 0 0 0 0 0 0 0 0 0 0 0 0 0 0 0 1:1 2:0.28378378 3:0.2605042 4:-0.74336283 5:-0.44218169 6:-0.49764627 7:-0.55102041 8:-0.55854509 
9 0 9 9 9 0 0 9 0 0 0 1.1987579157702921 0 0 0 0 0 0 0 0 0 0 0 0 0 1:1 2:0.28378378 3:0.31092437 4:-0.74336283 5:-0.4467859 6:-0.59179556 7:-0.58788677 8:-0.47483807 
9 0 9 9 9 0 0 9 9 9 9 0 0 0 0.17227214864623125 0 0 2.070385702004256 0 6.6643827334149881 0 0 0 0 0 2:0.14864865 3:0.075630252 4:-0.79646018 5:-0.58030813 6:-0.75252186 7:-0.61158657 8:-0.6243149 
9 0 9 0 9 0 9 9 0 7.7040436357446174 0 0 0 0 0 0 0 0 0 0 0 0 0 0 0 1:-1 2:0.12162162 3:0.14285714 4:-0.75221239 5:-0.61253763 6:-0.70342972 7:-0.66556945 8:-0.70403587 
0 0 9 0 9 0 0 9 0 0 0 0 0 0 0 0 0 0 0 0 0 0 0 0 0 2:0.48648649 3:0.51260504 4:-0.69026549 5:-0.18682486 6:-0.26496301 7:-0.32718894 8:-0.3961136 
2.3819544735821006 0 9 0 9 0 0 9 0 0 0 0 0 0 0 0 0 0 0 0 0 0 0 0 0 1:-1 2:0.35135135 3:0.34453782 4:-0.72566372 5:-0.28386754 6:-0.37121722 7:-0.45227123 8:-0.41504733 
0 0 0 0 0 0 0 9 0 9 0 0 0 0 0 0 0 0 0 0 0 0 0 0 0 1:-1 2:0.81081081 3:0.71428571 4:-0.61946903 5:0.36638923 6:0.20376597 7:0.20605662 8:-0.0064773293 
0 0 0 9 9 0 0 9 0 0 0 0 0 0 0 0 0 0 0 0 0 0 0 0 0 1:-1 2:0.60810811 3:0.57983193 4:-0.7079646 5:0.13794935 6:-0.08406187 7:-0.17314022 8:-0.20478326 
0 0 0 9 9 0 0 9 0 3.7938697090891607 0 0 0 0 0.58729631106858693 0 0 0 0 0 0 0 0 0 0 1:-1 2:0.67567568 3:0.6302521 4:-0.65486726 5:0.19638746 6:0.031607263 7:-0.045424621 8:-0.055306428 
0 0 0 9 9 0 0 9 8.1205349646025837 9 9 0 0 0 0 0 0 0 1.1119021708502512 0 0 0.7423078579733845 0 0 0 1:-1 2:0.5 3:0.54621849 4:-0.69026549 5:-0.15459536 6:-0.33960995 7:-0.35088874 8:-0.2655705 
0 0 0 0.4546685462606147 9 0 0 9 0 5.387594149396957 0 0 0 0 0 0 0 0 0 0 0 0 0 0 0 1:-1 2:0.54054054 3:0.57983193 4:-0.71681416 5:0.066406942 6:0.0013449899 7:-0.35615537 8:-0.14100648 
9 0 9 0 9 0 0 9 0 9 0 0 0 0 0 0 0 0 0 0 0 0 0 0 0 2:0.27027027 3:0.19327731 4:-0.77876106 5:-0.5101824 6:-0.60121049 7:-0.61685319 8:-0.58445441 
0 0 9 9 9 0 0 9 9 9 1.7981431221471804 0 0 0 2.2685907134005965 0 0 0 0 0 0 0 0 0 0 2:0.28378378 3:0.2605042 4:-0.72566372 5:-0.44536922 6:-0.61264291 7:-0.40355497 8:-0.53861485 
2.2990346404851856 0 9 0 9 0 0 9 0 9 0 0 0 0 0 0 0 0 0 0 0 0 0 0 0 2:0.32432432 3:0.31092437 4:-0.77876106 5:-0.41313972 6:-0.57969065 7:-0.53127057 8:-0.54459392 
9 1.3264505201586136 9 9 9 0 0 9 9 9 9 1.7638758015041844 0 0 0 0 0 1.3846337655909071 0 0 0 0 0 0 0 2:0.081081081 3:0.092436975 4:-0.74336283 5:-0.59766248 6:-0.77673167 7:-0.69058591 8:-0.63029397 
9 0.29418605241479356 9 9 9 0 0 9 9 9 0 0 0 0 0 0 0 0 0 0 0 0 0 0 0 1:-1 2:0.31081081 3:0.27731092 4:-0.68141593 5:-0.37170179 6:-0.51714862 7:-0.46412113 8:-0.50473343 
0 0 0 0 9 0 0 9 0 9 0 0 0 0 0 0 0 0 0 0 0 0 0 0 0 2:0.67567568 3:0.69747899 4:-0.61061947 5:0.29768018 6:0.13584398 7:0.10994075 8:-0.096163428 
0 0 0 0 9 0 0 9 0 0 0 0 0 0 0 0 0 0 0 0 0 0 0 0 0 1:-1 2:0.68918919 3:0.64705882 4:-0.67256637 5:0.14149106 6:0.0073974445 7:0.06122449 8:-0.26856004 
9 0 9 9 9 0 0 9 0 9 0 0 0 0 0 0 0 0 0 0 0 0 0 0 0 1:-1 2:0.2972973 3:0.32773109 4:-0.74336283 5:-0.35328493 6:-0.46334902 7:-0.35352205 8:-0.43497758 
0 0 9 0 9 0 0 9 0 1.2914048179223834 0 0 0 0 0 0 0 0 0 0 0 0 0 0 0 2:0.48648649 3:0.54621849 4:-0.72566372 5:-0.17726226 6:-0.34566241 7:-0.31928901 8:-0.29546587 
0 0 0 9 9 0 0 9 9 9 9 0.14410629705250078 0 0 9 0 0 9 0 0 0 0 0 0 0 2:0.56756757 3:0.49579832 4:-0.63716814 5:0.080927926 6:-0.16543376 7:-0.020408163 8:-0.099152965 
9 0 9 0 9 0 9 9 0 0 0 0 0 0 0 0 0 0 0 0 0 0 0 0 0 2:-0.013513514 3:0.0084033613 4:-0.79646018 5:-0.70745529 6:-0.78816409 7:-0.75773535 8:-0.74190334 
0 0 0 9 0 0 0 9 9 9 0 0 0 0 4.2545115342631563 0 0 0 0 0 0 0 0 0 0 1:-1 2:0.7027027 3:0.68067227 4:-0.61946903 5:0.51514078 6:0.40618695 7:0.0072416063 8:0.049327354 
9 0 9 0 9 0 9 9 0 0 0 0 0 0 0 0 0 0 0 0 0 0 0 0 0 1:1 2:0.28378378 3:0.22689076 4:-0.79646018 5:-0.52824509 6:-0.60793544 7:-0.640553 8:-0.58644743 
0 0 9 9 9 0 0 9 0 8.6463197934663718 0 0 0 0 0 0 0 0 0 0 0 0 0 0 0 2:0.41891892 3:0.37815126 4:-0.71681416 5:-0.19886665 6:-0.37457969 7:-0.24160632 8:-0.40906826 
0 0 9 9 9 0 0 9 9 0 9 0 0 0 0 0 0 9 0 0 0 0 0 0 0 1:-1 2:0.36486486 3:0.36134454 4:-0.68141593 5:-0.19036657 6:-0.35574983 7:-0.2718894 8:-0.3552566 
0 0 9 0 9 0 0 9 0 8.020586896811098 0 0 0 0 0 0 0 0 0 0 0 0 0 0 0 2:0.52702703 3:0.44537815 4:-0.67256637 5:0.0040729591 6:-0.095494284 7:-0.088874259 8:-0.35426009 
9 0 9 0 9 0 0 9 2.4168555162831677 1.9529430040050098 0 0 0 0 0 0 0 0 0 0 0 0 0 0 0 1:1 2:0.36486486 3:0.31092437 4:-0.73451327 5:-0.37347264 6:-0.48621385 7:-0.45095458 8:-0.49476831 
0 0 0 0 9 0 0 9 0 0 0 0 0 0 0 0 0 0 0 0 0 0 0 0 0 1:-1 2:0.54054054 3:0.56302521 4:-0.69026549 5:0.15742872 6:0.046402152 7:-0.10072416 8:-0.14200299 
9 0 9 9 9 0 0 9 9 9 5.5762341830848872 0 0 0 0 0 0 0 0 0 0 0 0 0 0 1:-1 2:0.14864865 3:0.19327731 4:-0.73451327 5:-0.53249513 6:-0.62273033 7:-0.640553 8:-0.56452417 
0 0 9 0 9 0 0 9 0 0 0 0 0 0 0 0 0 0 0 0 0 0 0 0 0 1:-1 2:0.60810811 3:0.54621849 4:-0.7079646 5:-0.17017886 6:-0.2938803 7:-0.25082291 8:-0.37319382 
9 2.6064119424058729 9 9 9 0 0 9 9 0 0 0 0 0 0 0 0 0 0 0 0 0 0 0 0 2:0.12162162 3:0.075630252 4:-0.76106195 5:-0.567558 6:-0.65770007 7:-0.73271889 8:-0.56452417 
0 0 0 0 0 0 0 9 0 9 0 0 0 0 0 0 0 0 0 0 0 0 0 0 0 1:-1 2:0.74324324 3:0.71428571 4:-0.66371681 5:0.47264034 6:0.4532616 7:0.1323239 8:-0.0004982561 
0 0 0 0 9 0 0 9 0 8.840587836249469 0 0 0 0 0 0 0 0 0 0 0 0 0 0 0 2:0.64864865 3:0.6302521 4:-0.71681416 5:0.17974146 6:0.11903161 7:-0.0072416063 8:-0.05630294 
9 0 9 0 9 9 9 9 0 0 0 0 0 0 0 6.2078662085303602 0 0 0 0 0 0 0 0 0 1:1 2:0.054054054 3:-0.042016807 4:-0.80530973 5:-0.7563308 6:-0.80968393 7:-0.80908492 8:-0.77777778 
0 0 9 0 9 0 0 9 0 9 0 0 0 0 0 0 0 0 0 0 0 0 0 0 0 2:0.47297297 3:0.51260504 4:-0.71681416 5:-0.029219054 6:-0.15601883 7:-0.27715602 8:-0.26856004 
0 0 0 0 9 0 0 9 0 0 0 0 0 0 0 0 0 0 0 0 0 0 0 0 0 1:-1 2:0.62162162 3:0.51260504 4:-0.71681416 5:0.083761289 6:-0.0060524546 7:-0.06122449 8:-0.24265072 
0 6.9744708234779438 9 9 9 0 0 9 9 9 9 9 0 0 9 0 9 9 9 0 0 0 0 0 0 2:0.44594595 3:0.44537815 4:-0.7079646 5:-0.23145033 6:-0.42905178 7:-0.39038841 8:-0.24564026 
0 0 9 9 9 0 0 9 0 8.8220292683100396 0 0 0 0 0 0 0 0 0 0 0 0 0 0 0 2:0.40540541 3:0.37815126 4:-0.73451327 5:-0.27501328 6:-0.44720915 7:-0.27847268 8:-0.42700548 
0 0 0 0 9 0 0 9 0 0 0 0 0 0 0 0 0 0 0 0 0 0 0 0 0 1:-1 2:0.60810811 3:0.64705882 4:-0.6460177 5:0.20453338 6:0.11903161 7:-0.016458196 8:-0.18584953 
0 0 0 0 9 0 0 9 0 0 0 0 0 0 0 0 0 0 0 0 0 0 0 0 0 2:0.51351351 3:0.57983193 4:-0.68141593 5:-0.031344077 6:-0.14862139 7:-0.16392363 8:-0.27952167 
0 0 9 9 9 0 0 9 9 9 9 9 0 0 9 0 6.377615075119718 9 9 0.51840089456179816 0 0 0 0 0 1:-1 2:0.36486486 3:0.41176471 4:-0.73451327 5:-0.31432619 6:-0.48352387 7:-0.43120474 8:-0.30543099 
0 0 9 0 9 0 0 9 0 0 0 0 0 0 0 0 0 0 0 0 0 0 0 0 0 2:0.36486486 3:0.34453782 4:-0.78761062 5:-0.33557641 6:-0.46469401 7:-0.32455563 8:-0.47483807 
9 0 9 4.409294840540638 9 0 0 9 5.0303686295739336 9 0 0 0 0 0 0 0 0 0 0 0 0 0 0 0 1:-1 2:0.17567568 3:0.14285714 4:-0.77876106 5:-0.5902249 6:-0.67316745 7:-0.64976959 8:-0.62830095 
0 0 9 0 9 0 0 9 0 9 0 0 0 0 0 0 0 0 0 0 0 0 0 0 0 2:0.56756757 3:0.54621849 4:-0.69911504 5:0.080219586 6:0.13987895 7:-0.3074391 8:-0.34329846 
0 3.6802027079714428 0 0 9 0 0 9 0 9 0.64348920314226377 0 0 0 0 0 0 0 0 9 0 0 0 0 0 2:0.77027027 3:0.69747899 4:-0.66371681 5:0.37453515 6:0.07330195 7:0.36668861 8:0.12406577 
0 0 9 9 9 0 0 9 0 9 5.2780550909561974 8.8961396699033699 0 0 0 0 0 1.8795953046896126 8.2690959110676445 0 0 0 0 0 0 2:0.44594595 3:0.4789916 4:-0.71681416 5:-0.23003365 6:-0.37054472 7:-0.479921 8:-0.23766816 
0 4.3923136117279924 0 9 0 0 0 9 8.0007002543126635 9 9 9 0 0 9 0 7.0282766071282845 9 0 0 0 0 0 0 0 1:-1 2:0.78378378 3:0.79831933 4:-0.61946903 5:0.23605454 6:-0.022864829 7:0.059907834 8:0.10712506 
0 0 0 3.3269564524609407 9 0 0 9 0 0.2307322782607226 0 0 0 0 0 0 0 0 0 0 0 0 0 0 0 2:0.56756757 3:0.6302521 4:-0.61946903 5:0.1004073 6:-0.066577001 7:-0.22185648 8:-0.1180867 
0 0 9 0 9 0 0 9 0 0 0 0 0 0 0 0 0 0 0 0 0 0 0 0 0 1:-1 2:0.45945946 3:0.41176471 4:-0.69911504 5:-0.16380379 6:-0.36381977 7:-0.23897301 8:-0.52466368 
0 0 9 0 9 0 0 9 0 9 0 0 0 0 0 0 0 0 0 0 0 0 0 0 0 1:-1 2:0.52702703 3:0.51260504 4:-0.72566372 5:-0.15459536 6:-0.2528581 7:-0.44568795 8:-0.31340309 
0 0 7.1514581629249854 0 9 0 0 9 0 0 0 0 0 0 0 0 0 0 0 0 0 0 0 0 0 1:-1 2:0.48648649 3:0.4789916 4:-0.67256637 5:-0.021427307 6:-0.045729657 7:-0.21000658 8:-0.31539611 
0 0 0 7.1235209163252371 0 0 0 9 9 9 0 0 0 0 9 0 0 0 0 0 0 0 0 0.088110345124109687 0 1:-1 2:0.71621622 3:0.69747899 4:-0.61061947 5:0.42588985 6:0.23806321 7:0.19420671 8:0.12506228 
0 7.2810883600839063 9 9 9 0 0 9 9 9 9 9 0 1.2855168131338983 9 0 0 9 9 0 1.5968767489449618 0 0 2.8536186674452888 0 2:0.40540541 3:0.2605042 4:-0.62831858 5:0.078448734 6:-0.12306658 7:0.041474654 8:-0.18584953 
0 0 0 9 9 0 0 9 0 9 0 0 0 0 0 0 0 0 0 0 0 0 0 0 0 2:0.51351351 3:0.4789916 4:-0.68141593 5:0.12909509 6:-0.17148621 7:-0.16655695 8:-0.2655705 
9 0 9 0 9 0 0 9 0 9 0 0 0 0 0 0 0 0 0 0 0 0 0 0 0 2:0.22972973 3:0.21008403 4:-0.79646018 5:-0.58243315 6:-0.68796234 7:-0.5839368 8:-0.64424514 
0 0 9 0 9 0 0 9 0 0 0 0 0 0 0 0 0 0 0 0 0 0 0 0 0 1:-1 2:0.41891892 3:0.4789916 4:-0.69026549 5:-0.087657163 6:-0.1862811 7:-0.27452271 8:-0.31639263 
9 0 9 9 9 0 9 9 0 9 0 0 0 0 0 0 0 0 0 0 0 0 0 0 0 1:-1 2:0.054054054 3:0.025210084 4:-0.85840708 5:-0.65574641 6:-0.74445192 7:-0.67215273 8:-0.69407075 
9 0 9 9 9 9 9 9 0 7.9038626377543606 0 0 0 0 0 0 0 0 0.088175074247738905 0 0 0 0 0 0 1:1 2:0.040540541 3:-0.0084033613 4:-0.78761062 5:-0.65539224 6:-0.74176194 7:-0.72481896 8:-0.69407075 
0 0 0 9 9 0 0 9 0 0 0 0 0 0 0 0 0 0 0 0 0 0 0 0 0 2:0.68918919 3:0.68067227 4:-0.61061947 5:0.17867894 6:-0.13113652 7:0.12705727 8:-0.096163428 
5.2439421081909421 1.2373059662318011 9 9 9 0 0 9 9 9 9 4.3497144916583803 0 0 9 0 0 9 0 0 0 0 0 0 0 1:-1 2:0.27027027 3:0.32773109 4:-0.73451327 5:-0.30865947 6:-0.54875588 7:-0.49967084 8:-0.40508221 
0 0 9 0 9 0 0 9 0 0 0 0 0 0 0 0 0 0 0 0 0 0 0 0 0 1:-1 2:0.41891892 3:0.4789916 4:-0.69026549 5:-0.080219586 6:-0.16812374 7:-0.25345622 8:-0.34828102 
0 0 9 0 9 0 0 9 0 0 0 0 0 0 0 0 0 0 0 0 0 0 0 0 0 2:0.36486486 3:0.37815126 4:-0.74336283 5:-0.30263857 6:-0.36919973 7:-0.43383805 8:-0.50473343 
0 0 8.0715892945281507 0 9 0 0 9 0 0 0 0 0 0 0 0 0 0 0 0 0 0 0 0 0 1:-1 2:0.63513514 3:0.54621849 4:-0.71681416 5:-0.12697007 6:-0.17014122 7:-0.31007242 8:-0.3552566 
0 0 9 0 9 0 0 9 0 9 0 0 0 0 0 0 0 0 0 0 0 0 0 0 0 2:0.45945946 3:0.41176471 4:-0.69026549 5:-0.15565787 6:-0.24949563 7:-0.31928901 8:-0.37219731 
9 0 9 0 9 0 9 9 0 0 0 0 0 0 0 0 0 0 0 0 0 0 0 0 0 1:1 2:0.25675676 3:0.24369748 4:-0.7699115 5:-0.42376483 6:-0.5070612 7:-0.64186965 8:-0.51270553 
9 0 9 0 9 0 0 9 4.4674972526088359 9 0 0 0 0 3.4928458655300898 0 0 0 0 0 0 0 0 0 0 1:1 2:0.44594595 3:0.24369748 4:-0.72566372 5:-0.25872145 6:-0.3194351 7:-0.48650428 8:-0.45690085 
9 1.3156270819579865 9 9 9 0 9 9 9 9 5.178695387915166 0.34165929516788973 0 0 0 0 0 0 0 0 0 0 0 0 0 1:-1 2:-0.040540541 3:-0.025210084 4:-0.79646018 5:-0.78572693 6:-0.87693342 7:-0.85648453 8:-0.76382661 
9 0 9 1.886193134280302 9 9 9 9 1.2431458097565333 8.7801491972378027 0.40742868359977374 0.10593620068127943 1.192598784125912 0 0 9 0.33197886999870208 0 0 0 0 0 0 0 0 1:-1 2:-0.35135135 3:-0.34453782 4:-0.84070796 5:-0.85762352 6:-0.91862811 7:-0.90388413 8:-0.8445441 
0 0 0 0 9 0 0 9 0 0 0 0 0 0 0 0 0 0 0 0 0 0 0 0 3.8754752639128864 2:0.63513514 3:0.69747899 4:-0.65486726 5:0.25765893 6:0.15669132 7:-0.15339039 8:-0.1758844 
0 0 9 9 9 0 0 9 0 9 0 0 0 0 0 0 0 0 0 0 0 0 0 0 0 1:-1 2:0.48648649 3:0.46218487 4:-0.7079646 5:-0.21055428 6:-0.34297243 7:-0.31270573 8:-0.34030892 
0 9 9 9 9 0 0 9 9 9 9 9 0 0 9 0 3.7084959849314054 9 9 4.4976805700894991 0 0 0 0 0 2:0.36486486 3:0.37815126 4:-0.7079646 5:-0.22117939 6:-0.45796907 7:-0.44963792 8:-0.30543099 
0 0 9 3.2173851181839668 9 0 0 9 0 9 0 0 0 0 0 0 0 0 0 0 0 0 0 0 0 1:-1 2:0.41891892 3:0.36134454 4:-0.72566372 5:-0.32176377 6:-0.40215198 7:-0.5036208 8:-0.41504733 
0 0 0 0 9 0 0 9 0 4.6115883679537149 0 0 0 0 0 0 0 0 0 0 0 0 0 0 0 2:0.60810811 3:0.59663866 4:-0.60176991 5:0.10465734 6:-0.15400134 7:0.28110599 8:-0.26058794 
9 0 9 9 9 0 0 9 9 9 9 0 0 0 0 0 0 0 0 0 0 0 0 0 0 1:-1 2:0.28378378 3:0.32773109 4:-0.7699115 5:-0.34974323 6:-0.4929388 7:-0.37327189 8:-0.42501246 
9 0 9 9 9 0 0 9 9 9 9 0 0 0 0 0 0 0 0 0 0 0 0 0 0 1:-1 2:0.14864865 3:0.12605042 4:-0.74336283 5:-0.54028688 6:-0.63416274 7:-0.65371955 8:-0.56452417 
0 0 9 0 9 0 0 9 0 9 0 0 0 0 0 0 0 0 0 0 0 0 0 0 0 2:0.44594595 3:0.41176471 4:-0.75221239 5:-0.19886665 6:-0.29186281 7:-0.38117182 8:-0.30543099 
0 6.01793664597741 9 9 9 0 0 9 9 8.4027776239154068 9 0 0 0 9 0 0 9 0.64751123251862286 5.9495582946908945 0 0 0 1.6140024646959965 0 2:0.22972973 3:0.34453782 4:-0.7079646 5:-0.30688861 6:-0.57700067 7:-0.2600395 8:-0.4120578 
0 0 9 0 9 0 0 9 0 0 0 0 0 0 0 0 0 0 0 0 0 0 0 0 0 2:0.54054054 3:0.51260504 4:-0.7079646 5:-0.067823623 6:-0.26160054 7:-0.20737327 8:-0.33532636 
0 0 9 0 9 0 0 9 0 9 0 0 0 0 0 0 0 0 0 0 0 0 0 0 0 2:0.55405405 3:0.51260504 4:-0.7079646 5:-0.17974146 6:-0.35776732 7:-0.27978934 8:-0.30742402 
9 0 9 0 9 0 9 9 0 0 0 0 0 0 0 0 0 0 0 0 0 0 0 0 0 1:1 2:0.2027027 3:0.19327731 4:-0.75221239 5:-0.53214096 6:-0.62811029 7:-0.59183673 8:-0.61235675 
0 0 0 0 9 0 0 9 0 0 0 0 0 0 0 0 0 0 0 0 0 0 0 0 0 1:-1 2:0.55405405 3:0.57983193 4:-0.67256637 5:0.052594298 6:-0.1069267 7:-0.11389072 8:-0.24962631 
9 0 9 0 9 0 0 9 0 0 0 0 0 0 0 0 0 0 0 0 0 0 0 0 0 1:1 2:0.39189189 3:0.36134454 4:-0.74336283 5:-0.36284753 6:-0.43779422 7:-0.53127057 8:-0.48480319 
9 0 9 9 9 9 9 9 7.8787301409616664 9 4.4553267186448053 0 0 0 0 0 0 3.4152440340915868 1.5797372962298084 0 0 0 0 0 0 1:1 2:0.067567568 3:-0.0084033613 4:-0.76106195 5:-0.5997875 6:-0.68997983 7:-0.61553654 8:-0.69905331 
0 0 9 0 9 0 0 9 0 0 0 0 0 0 0 0 0 0 0 0 0 0 0 0 0 1:-1 2:0.5 3:0.42857143 4:-0.73451327 5:-0.10111564 6:-0.11297915 7:-0.36273864 8:-0.38515197 
9 0 9 0 9 0 0 9 0 0 0 0 0 0 0 0 0 0 0 0 0 0 0 0 0 1:-1 2:0.31081081 3:0.34453782 4:-0.7079646 5:-0.39224367 6:-0.46133154 7:-0.55497038 8:-0.51469856 
0 0 9 9 9 0 0 9 9 9 9 0 0 0 9 0 0 0 0 0 0 0 0 0 0 2:0.27027027 3:0.29411765 4:-0.69026549 5:-0.4528068 6:-0.5998655 7:-0.50757077 8:-0.47483807 
9 0.51618745407583799 9 2.7980758390355875 9 0 0 9 6.3812312103550459 9 0 0 0 0 0 0 0 0 0 0 0 0 0 0 0 1:-1 2:0.21621622 3:0.15966387 4:-0.69911504 5:-0.48397379 6:-0.6260928 7:-0.46017117 8:-0.61434978 
9 0 9 9 9 0 0 9 0 9 0 0 0 0 0 0 0 0 0 0 0 0 0 0 0 2:0.2027027 3:0.17647059 4:-0.75221239 5:-0.51159908 6:-0.63012777 7:-0.640553 8:-0.57448929 
9 6.3383595143344991 9 9 9 0 0 9 9 9 9 5.6371426499442672 0 0 1.775772073747234 0 0 0 0 0 0 0 0 0 0 1:-1 2:0.37837838 3:0.2605042 4:-0.71681416 5:-0.3249513 6:-0.51378615 7:-0.53785385 8:-0.46487294 
0 0.93185303463452218 9 9 9 0 0 9 9 9 9 9 0 2.1048876339368685 9 0 9 9 9 0 5.1829739831465105 0.077262447461371148 0 1.1621614828851237 0.35285765737292679 2:0.48648649 3:0.46218487 4:-0.72566372 5:-0.14538693 6:-0.37592468 7:-0.57472021 8:-0.1838565 
0 4.0194741794656919 9 0 9 0 0 9 0 9 0 0 0 0 0 0 0 0 0 0 0 1.061327663047865 0 0 0 1:-1 2:0.45945946 3:0.44537815 4:-0.61946903 5:-0.32034709 6:-0.43375925 7:-0.53785385 8:-0.42501246 
9 0 9 0 9 0 0 9 0 0 0 0 0 0 0 0 0 0 0 0 0 0 0 0 0 2:0.25675676 3:0.22689076 4:-0.75221239 5:-0.43120241 6:-0.50504371 7:-0.54707044 8:-0.58445441 
0 0 9 0 9 0 0 9 0 4.5446832326907511 0 0 0 0 0 0 0 0 0 0 0 0 0 0 0 2:0.59459459 3:0.51260504 4:-0.71681416 5:-0.086594652 6:-0.15265636 7:-0.23107307 8:-0.36522172 
0 0 0 0 9 0 0 9 0 0 0 0 0 0 0 0 0 0 0 0 0 0 0 0 0 1:-1 2:0.63513514 3:0.54621849 4:-0.69911504 5:0.14007438 6:0.13046402 7:-0.19552337 8:-0.21574489 
0 0 0 0 9 0 0 9 0 0 0 0 0 0 0 0 0 0 0 0 0 0 0 0 0 1:-1 2:0.56756757 3:0.54621849 4:-0.71681416 5:-0.073490349 6:-0.25756557 7:-0.029624753 8:-0.31539611 
0 0 9 0 9 0 0 9 0 0 0 0 0 0 0 0 0 0 0 0 0 0 0 0 0 2:0.5 3:0.52941176 4:-0.67256637 5:-0.1266159 6:-0.31338265 7:-0.082290981 8:-0.39212755 
9 0 9 5.2727743110619629 9 9 9 9 0 9 0 0 0 0 0 0 0 0 0 0 0 0 0 0 0 2:-0.054054054 3:-0.025210084 4:-0.80530973 5:-0.74180981 6:-0.83322125 7:-0.78801843 8:-0.76980568 
0 0 0 0 9 0 0 9 0 0 0 0 0 0 0 0 0 0 0 0 0 0 0 0 0 1:-1 2:0.54054054 3:0.49579832 4:-0.69026549 5:-0.053302639 6:-0.14996638 7:-0.21395655 8:-0.30742402 
9 0 9 0 9 0 9 9 0 0 0 0 0 0 0 0 0 0 0 0 0 0 0 0 0 1:1 2:0.2027027 3:0.14285714 4:-0.79646018 5:-0.54489109 6:-0.57700067 7:-0.67346939 8:-0.632287 
0 0 0 0 9 0 0 9 0 0 0 0 0 0 0 0 0 0 0 0 0 0 0 0 0 1:-1 2:0.52702703 3:0.51260504 4:-0.68141593 5:-0.082698778 6:-0.20780094 7:-0.17840685 8:-0.27952167 
0 0 0 0 0 0 0 9 0 9 0 0 0 0 0 0 0 0 0 0 0 0 0 0 0 2:0.82432432 3:0.73109244 4:-0.62831858 5:0.58243315 6:0.49024882 7:0.36668861 8:0.083208769 
0 0.61395054165856755 0 0 0 0 0 0 9 9 0.41987680011935602 0.65962552956757736 0 0 6.1632022381101752 0 0 0 1.2627834935849154 3.6318390694962743 0 0 0 0.92464235017991281 0 2:0.83783784 3:0.91596639 4:-0.62831858 5:0.7729768 6:0.60793544 7:0.34957209 8:0.34927753 
0 0 9 9 9 0 0 9 0 9 0 0 0 0 0 0 0 0 0 0 0 0 0 0 0 2:0.51351351 3:0.44537815 4:-0.66371681 5:-0.026385692 6:-0.14862139 7:-0.24160632 8:-0.19382162 
0 0 0 0 9 0 0 9 0 0 0 0 0 0 0 0 0 0 0 0 0 0 0 0 0 1:-1 2:0.60810811 3:0.56302521 4:-0.7079646 5:-0.016823092 6:-0.045057162 7:-0.24687294 8:-0.40508221 
0 0 9 9 9 0 0 9 9 9 9 0 0 0 0 0 0 0 0 0 0 0 0 0 0 1:-1 2:0.37837838 3:0.34453782 4:-0.73451327 5:-0.3022844 6:-0.41560188 7:-0.45490454 8:-0.38515197 
0 0 0 0 9 0 0 9 0 9 0 0 0 0 0 0 0 0 0 0 0 0 0 0 0.46307510638537452 2:0.7027027 3:0.64705882 4:-0.69911504 5:0.11776164 6:-0.13584398 7:0.20078999 8:-0.47483807 
0 0 0 0 9 0 0 9 0 0 0 0 0 0 0 0 0 0 0 0 0 0 0 0 0 2:0.60810811 3:0.54621849 4:-0.69911504 5:0.0090313441 6:-0.11297915 7:-0.10730744 8:-0.2655705 
0 0 9 9 9 0 0 9 9 9 9 0 0 0 9 0 0 0 0 0 0 0 0 0 0 2:0.36486486 3:0.32773109 4:-0.67256637 5:-0.2962635 6:-0.47074647 7:-0.28505596 8:-0.43497758 
0 0 9 4.7955833680947908 9 0 0 9 0 9 5.9610593579774349 0 0 0 3.5857170481211988 0 0 0 0 0 0 0 0 0 0 1:1 2:0.47297297 3:0.46218487 4:-0.71681416 5:-0.24632548 6:-0.40147949 7:-0.35352205 8:-0.39511709 
0 0 9 7.1948810548814812 9 0 0 9 0 9 0 0 0 0 0 0 0 0 0 0 0 0 0 0 0 1:-1 2:0.5 3:0.46218487 4:-0.69911504 5:-0.16947052 6:-0.29455279 7:-0.28242265 8:-0.32735426 
0 0 9 9 9 0 0 9 0 9 0 0 0 0 0 0 0 0 0 0 0 0 0 0 0 1:-1 2:0.48648649 3:0.46218487 4:-0.67256637 5:-0.17336639 6:-0.29186281 7:-0.33377222 8:-0.31738914 
0 0 9 0 9 0 0 9 0 0 0 0 0 0 0 0 0 0 0 0 0 0 0 0 0 2:0.32432432 3:0.46218487 4:-0.72566372 5:-0.34655569 6:-0.45662408 7:-0.42330481 8:-0.49476831 
9 0 9 0 9 9 9 9 0 0 0 0 0 0 0 1.2819420181286956 0 0 0 0 0 0 0 0 0 1:-1 2:-0.18918919 3:-0.17647059 4:-0.82300885 5:-0.8268107 6:-0.86146604 7:-0.87623436 8:-0.83756851 
9 0 9 0 9 9 9 9 0 0 0 0 0 0 0 0 1.347395346821298 0 0 0 0 0 0 0 0 2:-0.094594595 3:-0.15966387 4:-0.82300885 5:-0.744289 6:-0.76798924 7:-0.83015142 8:-0.78375685 
9 0 9 0 9 0 0 9 0 0 0 0 0 0 0 0 0 0 0 0 0 0 0 0 0 1:-1 2:0.32432432 3:0.34453782 4:-0.72566372 5:-0.33876395 6:-0.43510424 7:-0.51942067 8:-0.48480319 
9 0 9 0 9 9 9 9 0 0 0 0 9 0 0 9 0 0 0 0 0 0 0 0 0 1:-1 2:-0.33783784 3:-0.36134454 4:-0.86725664 5:-0.8912697 6:-0.92266308 7:-0.90125082 8:-0.90533134 
0 0 9 1.3439825361266287 9 0 0 9 0 0 5.7712582024598706 0 0 0 0 0 0 0 0 0 0 0 0 0 0 1:1 2:0.5 3:0.51260504 4:-0.68141593 5:-0.1004073 6:-0.19098857 7:-0.2244898 8:-0.37518685 
0 6.0206619002764361 9 9 9 0 0 9 9 9 9 0 0 0 0 0 0 0 0 0 0 0 0 0 0 1:-1 2:0.39189189 3:0.29411765 4:-0.73451327 5:-0.32459713 6:-0.50907868 7:-0.36273864 8:-0.41504733 
9 0 9 9 9 0 9 9 0 0 7.9074881399160422 0 0 0 0 0 0 0.085768224790374756 2.4918252864506347 0 0 0 0 0 0 1:1 2:0.2027027 3:0.17647059 4:-0.75221239 5:-0.59234992 6:-0.73234701 7:-0.6194865 8:-0.64623817 
9 0 9 9 9 9 9 9 0 2.2968393311700819 0 0 0 0 0 0 0 0 0 0 0 0 0 0 0 1:1 2:0.12162162 3:0.092436975 4:-0.78761062 5:-0.62670444 6:-0.71015467 7:-0.63528637 8:-0.69407075 
0 0 0 0 9 0 0 9 0 9 0 0 0 0 0 0 0 0 0 0 0 0 0 0 0 1:-1 2:0.59459459 3:0.51260504 4:-0.71681416 5:-0.088365504 6:-0.17484869 7:-0.33508887 8:-0.27254609 
0 3.636689434041902 0 9 9 0 0 9 0 9 9 0 0 1.4831616238427994 0 0 0 2.1683516789382562 0 0.16682616241408443 0 0 0 0 0 1:-1 2:0.51351351 3:0.4789916 4:-0.65486726 5:-0.17124137 6:-0.40282448 7:-0.18104016 8:-0.31041355 
0 8.8117827176499368 9 9 9 0 0 9 9 9 9 0 0 0 0 0 0 0 0 0 0 0 0 0 0 2:0.47297297 3:0.4789916 4:-0.69911504 5:-0.24915885 6:-0.50100874 7:-0.44042133 8:-0.32536124 
0 0 0 9 9 0 0 9 7.0672486045005147 0 1.208798676164861 0 0 0 0 0 0 0 0 0 0 0 0 0 0 2:0.48648649 3:0.56302521 4:-0.68141593 5:-0.042323358 6:-0.34969738 7:-0.077024358 8:-0.25560538 
9 3.4214987166246642 9 9 9 0 0 9 9 9 9 9 0 0 9 0 9 9 4.67987058607482 6.5731986862365259 0 1.0718638635077258 0 0 0 1:-1 2:0.27027027 3:0.27731092 4:-0.74336283 5:-0.33663892 6:-0.50571621 7:-0.67346939 8:-0.31539611 
9 0 9 9 9 9 9 9 2.1384007413088342 3.0732785337614787 3.2077815614462968 0 0 0 0 9 0 3.2391541010718141 0 0.43642869648300386 0 0 0 0 0 1:1 2:-0.14864865 3:-0.14285714 4:-0.82300885 5:-0.78749779 6:-0.84532616 7:-0.83278473 8:-0.77379173 
9 0.91361193311378186 9 9 9 0 9 9 9 9 9 4.0281863866423793 0 0 0 0 0 0 0 0 0 0 0 0 0 1:-1 2:0.12162162 3:0.092436975 4:-0.76106195 5:-0.61785019 6:-0.70880968 7:-0.75115207 8:-0.6243149 
0 0 9 9 9 0 0 9 0 9 0 0 0 0 0 0 0 0 0 0 0 0 0 0 0 1:-1 2:0.48648649 3:0.4789916 4:-0.69026549 5:-0.14609527 6:-0.28715535 7:-0.26135616 8:-0.30044843 
0 0 9 0 9 0 0 9 0 0 0 0 0 0 0 0 0 0 0 0 0 0 0 0 0 1:1 2:0.44594595 3:0.46218487 4:-0.71681416 5:-0.18363733 6:-0.21250841 7:-0.37327189 8:-0.42202292 
0 0 0 0 9 0 0 9 0 0 0 0 0 0 0 0 0 0 0 0 0 0 0 0 0 2:0.75675676 3:0.59663866 4:-0.66371681 5:0.22507526 6:0.11499664 7:0.046741277 8:-0.19581465 
0 0 9 0 9 0 0 9 0 0 0 0 0 0 0 0 0 0 0 0 0 0 0 0 0 1:-1 2:0.39189189 3:0.37815126 4:-0.72566372 5:-0.19674163 6:-0.29589778 7:-0.31270573 8:-0.45490782 
0 0 9 0 9 0 0 9 0 0 0 0 0 0 0 0 0 0 0 0 0 0 0 0 0 2:0.36486486 3:0.36134454 4:-0.78761062 5:-0.29768018 6:-0.37928716 7:-0.37327189 8:-0.4449427 
0 0 9 0 9 0 0 9 0 5.9573486149002379 0 0 0 0 0 0 0 0 0 0 0 0 0 0 0 2:0.44594595 3:0.39495798 4:-0.7079646 5:-0.16663715 6:-0.2400807 7:-0.26793943 8:-0.41704036 
0 0 9 0 9 0 0 9 0 0 0 0 0 0 0 0 0 0 0 0 0 0 0 0 0 1:-1 2:0.5 3:0.46218487 4:-0.66371681 5:-0.16734549 6:-0.33759247 7:-0.11520737 8:-0.43497758 
9 0 9 9 9 0 9 9 0 9 0 6.2215998204977181 0 0 0 0 0 5.8110464533406212 0 0 0 0 0 0 0 3:-0.058823529 4:-0.75221239 5:-0.67805915 6:-0.76126429 7:-0.70111916 8:-0.72396612 
9 0 9 0 9 0 0 9 0 9 0 0 0 0 0 0 0 0 0 0 0 0 0 0 0 1:-1 2:0.31081081 3:0.34453782 4:-0.72566372 5:-0.43686913 6:-0.54404842 7:-0.50098749 8:-0.51968112 
0 0 0 9 9 0 0 9 0 9 0 0 0 0 0 0 0 0 0 0 0 0 0 0 0 2:0.56756757 3:0.52941176 4:-0.72566372 5:-0.088011333 6:-0.28244788 7:-0.24950625 8:-0.18584953 
0 0 0 9 9 0 0 9 0 9 0 5.866943282613212 0 0 0 0 0 0 0 0 0 0 0 0 0 1:-1 2:0.55405405 3:0.51260504 4:-0.66371681 5:-0.098990614 6:-0.20780094 7:-0.39565504 8:-0.22371699 
9 0 9 0 9 0 9 9 0 0.060676334315790191 0 0 0 0 0 0 0 0 0 0 0 0 0 0 0 1:1 2:0.21621622 3:0.2605042 4:-0.73451327 5:-0.47972375 6:-0.56758574 7:-0.57735352 8:-0.57448929 
0 0 9 0 9 0 0 9 0 0.038630018903387756 0 0 0 0 0 0 0 0 0 0 0 0 0 0 0 1:-1 2:0.47297297 3:0.46218487 4:-0.71681416 5:-0.26828404 6:-0.40954943 7:-0.33640553 8:-0.43497758 
0 7.0457695374108891 9 9 9 0 0 9 9 9 2.061017423314607 2.904142932952563 0 0 0 0 0 0 0 0 0 0 0 0 0 2:0.37837838 3:0.41176471 4:-0.67256637 5:-0.32247211 6:-0.44384667 7:-0.57603687 8:-0.34529148 
0 0 9 0 9 0 0 9 0 0 0 0 0 0 0 0 0 0 0 0 0 0 0 0 0 2:0.52702703 3:0.4789916 4:-0.69911504 5:-0.1326368 6:-0.34229993 7:-0.008558262 8:-0.42999502 
9 1.3227946607301408 9 9 9 0 0 9 2.4027801200194032 9 0 4.512186862763599 0 0 0 0 0 0 0 0 0 0 0 0 0 2:0.27027027 3:0.21008403 4:-0.73451327 5:-0.48184877 6:-0.62542031 7:-0.5720869 8:-0.5675137 
0 2.0233588054675518 9 9 9 0 0 9 9 9 9 0 0 0 9 0 0 9 0 0.31089699170446311 0 0 0 0.65184601277961884 0 2:0.27027027 3:0.2605042 4:-0.7079646 5:-0.43332743 6:-0.60659045 7:-0.51942067 8:-0.4449427 
9 0 9 0 9 0 0 9 0.89821883184297457 9 0 0 0 0 0 0 0 0 0 0 0 0 0 0 0 1:-1 2:0.27027027 3:0.32773109 4:-0.73451327 5:-0.37843103 6:-0.48083389 7:-0.60631995 8:-0.47982063 
0 0 9 0 9 0 0 9 0 0 0 0 0 0 0 0 0 0 0 0 0 0 0 0 0 2:0.54054054 3:0.56302521 4:-0.69911504 5:-0.15353285 6:-0.2938803 7:-0.23107307 8:-0.3712008 
0 9 0 9 9 0 0 9 9 9 9 9 0 5.8699119126555388 9 0 2.1478902433482112 9 9 0 2.2201492679085288 0 0 0 0 2:0.63513514 3:0.69747899 4:-0.65486726 5:0.17726226 6:-0.22125084 7:0.013824885 8:0.083208769 
9 0 9 0 9 0 0 9 0 9 0 0 0 0 0 0 0 0 0 0 0 0 0 0 0 1:1 2:0.32432432 3:0.29411765 4:-0.69026549 5:-0.38268107 6:-0.44451917 7:-0.44832126 8:-0.58445441 
0 0 0 0 9 0 0 9 0 0 0 0 0 0 0 0 0 0 0 0 0 0 0 0 0 1:-1 2:0.55405405 3:0.57983193 4:-0.69026549 5:0.086948822 6:-0.078009415 7:-0.057274523 8:-0.19581465 
0 0 0 9 9 0 0 9 0 0 0 0 0 0 0 0 0 0 0 0 0 0 0 0 0 2:0.56756757 3:0.54621849 4:-0.72566372 5:-0.07419869 6:-0.29657028 7:-0.090190915 8:-0.23567514 
0 1.3057401101671515 0 0 0 0 0 4.1156687407331294 0 9 0 0 0 0 0 0 0 0 0 0 0 0 0 0 0 1:-1 2:0.78378378 3:0.78151261 4:-0.67256637 5:0.50309899 6:0.27908541 7:0.44700461 8:-0.0064773293 
9 0 9 0 9 0 9 9 0 0 0 0 0 0 0 0 0 0 0 0 0 0 0 0 0 2:-0.013513514 3:-0.025210084 4:-0.81415929 5:-0.69789269 6:-0.77942165 7:-0.78275181 8:-0.73991031 
0 0 0 0 9 0 0 9 0 0 0 0 0 0 0 0 0 0 0 0 0 0 0 0 0 1:-1 2:0.59459459 3:0.57983193 4:-0.69026549 5:0.020718966 6:-0.10894418 7:0.011191573 8:-0.29945192 
0 0 9 0 9 0 0 9 0 0 0 0 0 0 0 0 0 0 0 0 0 0 0 0 0 1:-1 2:0.44594595 3:0.42857143 4:-0.75221239 5:-0.24880468 6:-0.3073302 7:-0.40882159 8:-0.42202292 
0 0 9 0 9 0 0 9 0 0 0 0 0 0 0 0 0 0 0 0 0 0 0 0 0 1:-1 2:0.54054054 3:0.46218487 4:-0.69026549 5:-0.066406942 6:-0.12373907 7:-0.3759052 8:-0.32835077 
0 0 0 0 9 0 0 9 0 0 0 0 0 0 0 0 0 0 0 0 0 0 0 0 0 1:-1 2:0.74324324 3:0.69747899 4:-0.68141593 5:0.12236586 6:-0.07195696 7:-0.013824885 8:-0.12107623 
0 0 0 0 2.6439147117671946 0 0 9 0 0 0 0 0 0 0 0 0 0 0 0 0 0 0 0 0 1:-1 2:0.72972973 3:0.66386555 4:-0.69026549 5:0.29130512 6:0.26025555 7:0.00065832785 8:-0.12605879 
0 0 0 9 9 0 0 9 0 3.8179951312059437 4.4104853145186036 0 0 0 0 0 0 0 0 0 0 1.4838628140645251 0 0 0.092574809476792294 1:-1 2:0.52702703 3:0.74789916 4:-0.69026549 5:0.031698247 6:-0.16072629 7:-0.30085583 8:-0.12705531 
9 0 9 9 9 0 9 9 9 9 9 9 0 0 9 0 2.6601930089092716 9 0 0 0 0 0 0 0 2:0.067567568 3:-0.0084033613 4:-0.74336283 5:-0.63485036 6:-0.74983188 7:-0.6761027 8:-0.64424514 
0 0 9 9 9 0 0 9 9 0 9 0 0 0 4.6065624367063656 0 0 0 0 0 0 0 0 0 0 1:-1 2:0.41891892 3:0.41176471 4:-0.69026549 5:-0.049052594 6:-0.26294553 7:-0.24423963 8:-0.28550075 
0 0 9 0 9 0 0 9 0 0 0 0 0 0 0 0 0 0 0 0 0 0 0 0 0 2:0.5 3:0.42857143 4:-0.71681416 5:-0.15211617 6:-0.2932078 7:-0.11915734 8:-0.37518685 
0 0 0 0 9 0 0 9 0 0 0 0 0 0 0 0 0 0 0 0 0 0 0 0 0 2:0.63513514 3:0.56302521 4:-0.67256637 5:0.056844342 6:-0.17417619 7:0.034891376 8:-0.19382162 
9 0 9 9 9 0 0 9 0 9 0 0 0 0 0 0 0 0 0 0 0 0 0 0 0 1:-1 2:0.25675676 3:0.22689076 4:-0.76106195 5:-0.42943156 6:-0.53261601 7:-0.52863726 8:-0.5346288 
0 0 9 9 9 0 0 9 0 9 0 0 0 0 0 0 0 0 0 0 0 0 0 0 0 1:-1 2:0.41891892 3:0.37815126 4:-0.7079646 5:-0.25942979 6:-0.37592468 7:-0.38380513 8:-0.37518685 
0 0 0 0 9 0 0 9 0 1.9032127567386556 0 0 0 0 0 0 0 0 0 0 0 0 0 0 0 2:0.55405405 3:0.57983193 4:-0.66371681 5:-0.020364795 6:0.19233356 7:-0.18630678 8:-0.19581465 
0 0 9 9 9 0 0 9 0 0 0 0 0 0 0 0 0 0 0 0 0 0 0 0 0 1:-1 2:0.48648649 3:0.39495798 4:-0.68141593 5:-0.19674163 6:-0.39475454 7:-0.14680711 8:-0.39511709 
9 0 9 0 9 0 0 9 0 6.4847673778926342 0 0 0 0 0 0 0 0 0 0 0 0 0 0 0 2:0.36486486 3:0.29411765 4:-0.77876106 5:-0.44501505 6:-0.51311365 7:-0.48650428 8:-0.61434978 
0 0 0 5.8719621265863609 9 0 0 9 0 0 0 0 0 0 2.8089486477806909 0 0 0 0 0 0 0 0 0 0 1:-1 2:0.64864865 3:0.66386555 4:-0.6460177 5:0.25411723 6:0.092131809 7:0.017774852 8:-0.026407573 
9 0 9 9 9 0 9 9 9 9 8.4092428634083038 0 0 0 0 0 0 0 0 0 0 0 0 0 0 1:1 2:0.13513514 3:0.12605042 4:-0.77876106 5:-0.53001594 6:-0.61936785 7:-0.57472021 8:-0.60438465 
0 0 0 9 9 0 0 9 9 9 9 9 0 2.9844474284503923 9 0 5.5657156350570878 0 9 0 0 0.39976525193921159 0 0 0 1:-1 2:0.54054054 3:0.49579832 4:-0.68141593 5:0.033469099 6:-0.19636853 7:-0.36273864 8:-0.12805182 
9 0 9 0 9 9 9 9 0 8.7328913654369931 0 0 0 0 0 0 0 4.0832446205511177 0 0 0 0 0 0 0 2:-0.094594595 3:-0.1092437 4:-0.79646018 5:-0.72728883 6:-0.77942165 7:-0.73666886 8:-0.80667663 
0 2.1448311561011719 9 9 9 0 0 9 9 9 9 0 0 0 0 0 0 9 0.38791113448560888 0 0 0 0 0 0 2:0.37837838 3:0.44537815 4:-0.73451327 5:-0.23711705 6:-0.44384667 7:-0.4443713 8:-0.29347285 
0 0 9 0 9 0 0 9 0 0 0 0 0 0 0 0 0 0 0 0 0 0 0 0 0 2:0.5 3:0.4789916 4:-0.6460177 5:0.0083230034 6:-0.11499664 7:-0.11652403 8:-0.24564026 
9 0 9 0 9 0 0 9 0 4.0097495667372121 0 4.0281157486692241 0 0 3.2917556644948172 0 0 0 0 0 0 0 0 0 0 1:1 2:0.2972973 3:0.36134454 4:-0.74336283 5:-0.36355587 6:-0.48419637 7:-0.58525346 8:-0.45191829 
0 0 0 0 9 0 0 9 0 9 0 0 0 0 0 0 0 0 0 0 0 0 0 0 0 1:-1 2:0.56756757 3:0.6302521 4:-0.7079646 5:-0.0076146627 6:-0.065904506 7:-0.37327189 8:-0.16591928 
9 0 9 9 9 0 7.9187319866877885 9 3.552617776766628 9 0 0.75270407176391874 0 0 0 0 0 0 0 0 0 0 0 0 0 1:1 2:0.22972973 3:0.22689076 4:-0.7699115 5:-0.40888968 6:-0.49764627 7:-0.56155365 8:-0.50672646 
9 0 9 1.1155704284153227 9 0 9 9 0 0 4.0763038861427807 0 0 0 0 0 0 1.6201122133687733 0 0 0 0 0 0 0 1:1 2:0.2972973 3:0.27731092 4:-0.74336283 5:-0.50734903 6:-0.64895763 7:-0.58657011 8:-0.52466368 
9 0.47161592485348719 9 0 9 0 1.5291902953675798 9 0 9 0 0 0 0 0 0 0 0 0 0 0 0 0 0 0 1:-1 2:0.32432432 3:0.12605042 4:-0.77876106 5:-0.47441119 6:-0.52790854 7:-0.65898618 8:-0.66716492 
0 0.13655766565386906 0 9 9 0 0 9 3.0522026977954906 1.6161873371402993 3.8866194658828421 9 0 0 3.2489279231984107 0 0 6.4193354235765829 0 0 0 0 0 0 0 1:1 2:0.58108108 3:0.57983193 4:-0.61946903 5:0.26367983 6:-0.096839274 7:-0.049374589 8:-0.19282511 
0 0 0 9 9 0 0 9 6.5170423658211689 9 9 0 0 0 0 0 0 9 0 0 0 0 0 0 0 2:0.51351351 3:0.56302521 4:-0.7079646 5:-0.051885957 6:-0.3201076 7:-0.22185648 8:-0.18186348 
0 9 9 9 9 0 0 9 9 9 9 0 0 0 6.6283186306266417 0 5.64336120938174 7.8103065681928587 2.1888870300133378 9 0 0 0 1.4571234988220305 0 2:0.2972973 3:0.24369748 4:-0.75221239 5:-0.4432442 6:-0.62205783 7:-0.58130349 8:-0.43497758 
0 0 9 9 9 0 0 9 9 9 9 0 0 0 9 0 0 2.333374109436074 0 0 0 0 0 0 0 1:-1 2:0.37837838 3:0.32773109 4:-0.69026549 5:-0.20276253 6:-0.33893746 7:-0.31138907 8:-0.33532636 
0 0 0 0 9 0 0 9 0 1.1304004841569457 0 0 0 0 0 0 0 0 0 0 0 0 0 0 0 1:-1 2:0.60810811 3:0.49579832 4:-0.6460177 5:-0.10253232 6:-0.2266308 7:-0.21527321 8:-0.30343797 
0 0 9 0 9 0 0 9 0 5.6220731460195124 0 0 0 0 9 0 0 0 0 0 0 0 0 0.24849517806791926 0 1:1 2:0.43243243 3:0.44537815 4:-0.73451327 5:-0.12449088 6:-0.15198386 7:-0.40618828 8:-0.34529148 
9 0 9 4.6612247036238914 9 0 0 9 0 0 0.12819003552973132 0 0 0 0 0 0 0 0 0 0 0 0 0 0 1:1 2:0.35135135 3:0.32773109 4:-0.76106195 5:-0.41738976 6:-0.54741089 7:-0.4443713 8:-0.5266567 
0.46499585402215809 0 9 0 9 0 0 9 0 0 0 0 0 0 4.8322390987939494 0 0 0 0 0 0 0 0 0 0 1:1 2:0.47297297 3:0.41176471 4:-0.71681416 5:-0.35895166 6:-0.50235373 7:-0.56155365 8:-0.39013453 
0 0 0 1.7487040814753825 9 0 0 9 0 0 0 0 0 0 0 0 0 0 0 0 0 0 0 0 0 1:-1 2:0.67567568 3:0.59663866 4:-0.66371681 5:0.22117939 6:0.024209818 7:0.14680711 8:-0.096163428 
0 0 9 0 9 0 0 9 0 0 0 0 0 0 0 0 0 0 0 0 0 0 0 0 0 1:-1 2:0.39189189 3:0.46218487 4:-0.76106195 5:-0.28740924 6:-0.43375925 7:-0.41013825 8:-0.43497758 
9 0.86990186251955592 9 9 9 0 0 9 9 9 9 0 0 0 0 0 0 0 0 0 0 0 0 0 0 1:-1 2:0.22972973 3:0.19327731 4:-0.72566372 5:-0.4945989 6:-0.62407532 7:-0.55760369 8:-0.57648231 
9 0 9 0 9 0 0 9 0 9 0 0 0 0 0 0 0 0 0 0 0 0 0 0 0 1:-1 2:0.35135135 3:0.39495798 4:-0.75221239 5:-0.40818134 6:-0.53261601 7:-0.54443713 8:-0.52466368 
0 0.035316174874000725 0 9 9 0 0 9 0 9 0 0 0 0 0 0 0 0 0 0 0 0 0 0 0 1:-1 2:0.52702703 3:0.59663866 4:-0.7079646 5:-0.1588454 6:-0.3604573 7:-0.21132324 8:-0.30543099 
9 0 9 9 9 0 9 9 3.8212736164634751 9 0 0 0 0 0 0 0 9 0 0 0 0 0 0 0 3:0.0084033613 4:-0.73451327 5:-0.65787144 6:-0.75790182 7:-0.67215273 8:-0.69407075 
9 9 9 9 9 0 0 9 9 9 9 9 0 0 9 0 0.63046595560107521 6.4488331479449377 0 4.3276230616300078 0 0 0 0 0 1:-1 2:0.21621622 3:0.15966387 4:-0.7699115 5:-0.41384806 6:-0.67787492 7:-0.52073733 8:-0.45490782 
0 0 9 0 9 0 0 9 0 0 0 0 0 0 0 0 0 0 0 0 0 0 0 0 0 2:0.47297297 3:0.6302521 4:-0.7079646 5:-0.19461661 6:-0.32952253 7:-0.36010533 8:-0.29147982 
9 0 9 9 9 0 0 9 0 9 0 0 0 0 0 0 0 0 0 0 0 0 0 0 0 1:-1 2:0.36486486 3:0.31092437 4:-0.73451327 5:-0.32672215 6:-0.42098184 7:-0.48913759 8:-0.43099153 
9 0 9 0 9 0 9 9 0 0 0 0 0 0 0 0 0 0 0 0 0 0 0 0 0 2:-0.027027027 3:-0.0084033613 4:-0.78761062 5:-0.67664247 6:-0.74310693 7:-0.73798552 8:-0.74389636 
0 0 0 9 8.377850137526389 0 0 9 6.5964325319170927 9 0 6.1260380292085506 0 0 9 0 0 9 0 4.4725456252027165 0 0 0 0 0 2:0.82432432 3:0.71428571 4:-0.61946903 5:0.37134762 6:0.039004707 7:0.26925609 8:0.1429995 
0 0 9 4.6770635568840042 9 0 0 9 0 9 0 0 0 0 0 0 0 0 0 0 0 0 0 0 0 2:0.47297297 3:0.52941176 4:-0.68141593 5:-0.058261024 6:-0.20242098 7:-0.27452271 8:-0.22969606 
9 0 9 9 9 0 0 9 9 9 0 0 0 0 0 0 0 0 0 0 0 0 0 0 0 2:0.16216216 3:0.1092437 4:-0.79646018 5:-0.5650788 6:-0.67451244 7:-0.71823568 8:-0.58445441 
9 0 9 0 9 0 0 9 0 7.4512942547998398 0 0 0 0 0 0 0 0 0 0 0 0 0 0 0 2:0.12162162 3:0.1092437 4:-0.77876106 5:-0.61926687 6:-0.70880968 7:-0.6642528 8:-0.67414051 
0 0 0 0 0 0 0 9 0 9 0 0 0 0 0 0 0 0 0 0 0 0 0 0 0 1:-1 2:0.71621622 3:0.74789916 4:-0.61946903 5:0.42163981 6:0.32952253 7:0.17709019 8:-0.0024912805 
9 0 9 0 9 0 0 9 0 0 0 0 0 0 0 0 0 0 0 0 0 0 0 0 0 2:0.16216216 3:0.19327731 4:-0.73451327 5:-0.54524526 6:-0.61802286 7:-0.6194865 8:-0.58445441 
0 0 0 9 9 0 0 9 9 9 2.7114614094474008 0 0 0 9 0 0 0 0 0 0 0 0 0 0 1:-1 2:0.54054054 3:0.52941176 4:-0.72566372 5:0.088719674 6:-0.13987895 7:-0.057274523 8:-0.14598904 
0 0 9 0 9 0 0 9 0 9 0 0 0 0 0 0 0 0 0 0 0 0 0 0 0 2:0.52702703 3:0.44537815 4:-0.74336283 5:-0.19851248 6:-0.25823806 7:-0.34167215 8:-0.40209268 
0 0 9 0 9 0 0 9 0 0 0 0 0 0 0 0 0 0 0 0 0 0 0 0 0 1:-1 2:0.52702703 3:0.4789916 4:-0.7079646 5:-0.075615371 6:-0.089441829 7:-0.23238973 8:-0.47284504 
0 0 9 0 9 0 0 9 0 6.0514621491278495 0 0 0 0 0 0 0 0 0 0 0 0 0 0 0 2:0.43243243 3:0.44537815 4:-0.7079646 5:-0.32743049 6:-0.39139206 7:-0.49308756 8:-0.45191829 
0 0 0 0 9 0 0 9 0 0 0 0 0 0 0 0 0 0 0 0 0 0 0 0 0 1:-1 2:0.63513514 3:0.59663866 4:-0.68141593 5:0.081636267 6:0.025554808 7:-0.18104016 8:-0.20079721 
9 0 9 9 9 0 0 9 9 0 9 9 0 0 0.18236936843136609 0 0 9 0 0 0 0 0 0 0 1:1 2:0.24324324 3:0.32773109 4:-0.69911504 5:-0.44820259 6:-0.59045057 7:-0.59183673 8:-0.41504733 
9 0.5468546285722713 9 9 9 0 0 9 9 8.7889111963453743 9 0 0 0 0 0 0 7.1320456571438253 0 0 0 0 0 0 0 1:-1 2:0.22972973 3:0.22689076 4:-0.7079646 5:-0.36780591 6:-0.57229321 7:-0.37195523 8:-0.51469856 
0 0 9 0 9 0 0 9 0 9 0 0 0 0 0 0 0 0 0 0 0 0 0 0 0 1:-1 2:0.48648649 3:0.4789916 4:-0.72566372 5:-0.25872145 6:-0.3463349 7:-0.44305464 8:-0.36223219 
0 0 9 9 9 0 0 9 8.8553896177581919 9 5.5190095393044514 0 0 0 0 0 0 0 0 0 0 0 0 0 0 1:-1 2:0.41891892 3:0.42857143 4:-0.72566372 5:-0.2831592 6:-0.39475454 7:-0.50493746 8:-0.3552566 
0 0 0 0 0 0 0 9 0 9 0 0 0 0 0 0 0 0 0 0 0 0 0 0 0 2:0.83783784 3:0.74789916 4:-0.6460177 5:0.46697361 6:0.36180229 7:0.2244898 8:-0.046337818 
0 0 3.7858452625526966 3.8576124589406366 0 0 0 0 0.05226404199121476 0 0 0 0 0 0 0 0 0 0 0 0 0 0 0 0 2:0.90540541 3:0.93277311 4:-0.61946903 5:0.88064459 6:1 7:0.31138907 8:0.16492277 
0 5.1149403569744534 0 0 9 0 0 9 0 1.5666638445777732 0 0 0 0 0 0 0 0 0 0 0 0 0 0 0 2:0.55405405 3:0.79831933 4:-0.61061947 5:0.17584558 6:0.034297243 7:-0.0059249506 8:-0.13602392 
0 1.8845564220049873 0 0 0 0 0 9 9 9 0 0 0 0 0 0 0 0 0 0 0 0 0 0 0 1:-1 2:0.71621622 3:0.71428571 4:-0.63716814 5:0.5555162 6:0.3597848 7:0.37458855 8:0.08819133 
0 9 9 9 9 0 0 9 9 9 9 9 0 0 9 0 7.5736208447033837 7.9285456858998762 5.3675427080552662 9 0 4.1636101020059169 0 0 0 1:-1 2:0.36486486 3:0.39495798 4:-0.7079646 5:-0.34478484 6:-0.56893073 7:-0.47860434 8:-0.37518685 
9 0 9 0 9 6.5560804536542712 9 9 0 9 0 0 0 0 0 0 1.5160908300821443 2.2674211797100119 0 0 0 0 0 0 0 2:-0.040540541 3:-0.092436975 4:-0.79646018 5:-0.727643 6:-0.80295898 7:-0.72086899 8:-0.78375685 
0 0 9 0 9 0 0 9 0 3.6329092865248338 0 0 0 0 0 0 0 0 0 0 0 0 0 0 0 2:0.44594595 3:0.41176471 4:-0.73451327 5:-0.2126793 6:-0.30262273 7:-0.32323897 8:-0.4040857 
0 0 9 9 9 0 0 9 6.4131473106480463 9 0 0 0 0 0 0 0 0 0 0 0 0 0 0 0 2:0.41891892 3:0.32773109 4:-0.75221239 5:-0.3858686 6:-0.54068594 7:-0.48782093 8:-0.42301943 
0 0 9 9 9 0 0 9 0 9 7.740512286567891 0 0 0 0 0 0 7.1034138196680008 0 0 0 0 0 0 0 1:-1 2:0.41891892 3:0.4789916 4:-0.67256637 5:-0.21197096 6:-0.32145259 7:-0.3074391 8:-0.27154958 
0 0 0 0 9 0 0 9 0 0 0 0 0 0 0 0 0 0 0 0 0 0 0 0 0 1:-1 2:0.55405405 3:0.57983193 4:-0.66371681 5:0.14078272 6:0.043712172 7:-0.030941409 8:-0.21275536 
0 4.6870299805448052 9 0 9 0 0 9 0 9 0 0 0 0 0 0 0 0 0 0 0 0 0 0 0 2:0.40540541 3:0.32773109 4:-0.73451327 5:-0.21232513 6:-0.21250841 7:-0.42067149 8:-0.50473343 
9 0 9 0 9 0 0 9 0 0 0 0 0 0 0 0 0 0 0 0 0 0 0 0 0 1:-1 2:0.27027027 3:0.29411765 4:-0.75221239 5:-0.40676465 6:-0.52252858 7:-0.49967084 8:-0.52765321 
0 0 0 0 9 0 0 9 0 0 0 0 0 0 0 0 0 0 0 0 0 0 0 0 0 1:-1 2:0.59459459 3:0.54621849 4:-0.66371681 5:0.15919957 6:0.11634163 7:-0.059907834 8:-0.26357748 
9 0 9 0 9 0 0 9 0 9 0 0 0 0 0 0 0 0 0 0 0 0 0 0 0 1:-1 2:0.40540541 3:0.34453782 4:-0.74336283 5:-0.33415973 6:-0.42299933 7:-0.52205398 8:-0.45092177 
0 0 9 0 9 0 0 9 0 0 0 0 0 0 0 0 0 0 0 0 0 0 0 0 0 1:-1 2:0.43243243 3:0.39495798 4:-0.7079646 5:-0.12909509 6:-0.19098857 7:-0.31138907 8:-0.4200299 
0 2.7459025499648804 0 9 9 0 0 9 0 0 0 0 0 0 0 0 0 0 0 0 0 0 0 0 0 1:-1 2:0.52702703 3:0.57983193 4:-0.67256637 5:0.20772091 6:0.024882313 7:0.10599078 8:-0.11908321 
0 1.0706667872133697 0.50091077448223087 9 9 0 0 9 0 9 0 2.5033947176121072 0 0 0 0 0 1.1318458748557327 0 0 0 0 0 0 0 2:0.43243243 3:0.51260504 4:-0.68141593 5:0.014343899 6:-0.021519839 7:-0.30612245 8:-0.14399601 
0 0 0 9 9 0 0 9 9 9 9 9 0 0 9 0 0 9 0 0 0 0 0 0 0 2:0.52702703 3:0.49579832 4:-0.68141593 5:0.060740216 6:-0.20376597 7:-0.17445688 8:-0.14399601 
0 0 0 9 9 0 0 9 0.83237411566721597 9 0 0 0 0 0 0 0 0 0 0 0 0 0 0 0 1:-1 2:0.51351351 3:0.46218487 4:-0.69026549 5:-0.027448203 6:-0.16341627 7:-0.28900592 8:-0.21574489 
9 0 9 0 9 0 9 9 0 9 0 0 0 0 0 0 0 0 0 0 0 0 0 0 0 1:-1 2:0.094594595 3:0.075630252 4:-0.78761062 5:-0.58384983 6:-0.66039005 7:-0.6642528 8:-0.66018934 
0 0 9 0 9 0 0 9 0 9 0 0 0 0 0 0 0 0 0 0 0 0 0 0 0 2:0.48648649 3:0.46218487 4:-0.69026549 5:-0.12803258 6:-0.2528581 7:-0.35088874 8:-0.27553563 
0 0 9 0 9 0 0 9 0 9 0 0 0 0 0 0 0 0 0 0 0 0 0 0 0 2:0.44594595 3:0.32773109 4:-0.7699115 5:-0.38338941 6:-0.47814391 7:-0.54970375 8:-0.4608869 
0 0 0 0 0 0 0 9 9 3.0022846497108975 0 0 0 0 0 0 0 0 0 0 0 0 0 0 0 2:0.78378378 3:0.83193277 4:-0.61061947 5:0.80839384 6:0.52320108 7:0.15734036 8:0.19282511 
9 0 9 0 9 0 0 9 0 0 0 0 0 0 0 0 0 0 0 0 0 0 0 0 0 1:1 2:0.43243243 3:0.27731092 4:-0.7699115 5:-0.36213919 6:-0.42030935 7:-0.54312047 8:-0.48480319 
0 0 9 0 9 0 0 9 0 0 0 0 0 0 0 0 0 0 0 0 0 0 0 0 0 1:-1 2:0.5 3:0.4789916 4:-0.69026549 5:-0.10217815 6:-0.18762609 7:-0.28768927 8:-0.34927753 
0 0 0 0 9 0 0 9 0 0 0 0 0 0 0 0 0 0 0 0 0 0 0 0 0 1:-1 2:0.5 3:0.51260504 4:-0.73451327 5:-0.068886134 6:-0.15063887 7:-0.3522054 8:-0.2655705 
9 0 9 9 9 0 9 9 9 9 9 0 0 0 0 0 0 0 0 0 0 0 0 0 0 1:-1 2:-0.067567568 3:-0.042016807 4:-0.77876106 5:-0.68301753 6:-0.77942165 7:-0.70506912 8:-0.71599402 
9 0 9 9 9 0 9 9 9 0 5.9624429848003118 0 0 0 0 0 0 1.6252091475604429 3.3658106304782325 0 0 0 0 0 0 1:1 2:0.16216216 3:0.17647059 4:-0.7699115 5:-0.5771206 6:-0.69939475 7:-0.69190257 8:-0.55455904 
0 0 0 0 9 0 0 9 0 0 0 0 0 0 0 0 0 0 0 0 0 0 0 0 0 1:-1 2:0.51351351 3:0.56302521 4:-0.69026549 5:-0.086240482 6:-0.19435104 7:-0.29295589 8:-0.27154958 
0 8.6326436500507864 0 9 9 0 0 9 9 9 9 4.2700175308118542 0 0 9 0 0 3.1837759905420921 0 2.6525719161852184 0 0 0 0 0 1:-1 2:0.66216216 3:0.66386555 4:-0.68141593 5:0.19674163 6:-0.1062542 7:0.057274523 8:-0.0064773293 
0 0 9 9 9 0 0 9 9 9 0.56770195991058903 0 0 0 0.41467553973772064 0 0 0 0 0 0 0 0 0 0 2:0.48648649 3:0.46218487 4:-0.6460177 5:-0.022135647 6:-0.20847344 7:-0.25082291 8:-0.24364723 
9 0 9 0 9 0 9 9 0 0 0 0 0 0 0 0 0 0 0 0 0 0 0 0 0 1:1 2:0.31081081 3:0.27731092 4:-0.76106195 5:-0.49141137 6:-0.55884331 7:-0.73008558 8:-0.50274041 
9 0 9 0 9 0 0 9 0 9 0 0 0 0 0 0 0 0 0 0 0 0 0 0 0 1:-1 2:0.36486486 3:0.37815126 4:-0.74336283 5:-0.37311847 6:-0.40887693 7:-0.56550362 8:-0.47483807 
0 0 0 0 9 0 0 9 0 0 0 0 0 0 0 0 0 0 0 0 0 0 0 0 0 2:0.64864865 3:0.71428571 4:-0.69026549 5:0.1588454 6:0.044384667 7:-0.013824885 8:-0.13004484 
-0 0 9 0 9 0 0 0 0 0 0 0 0 0 0 0 0 0 0 0 0 0 0 0 0 1:1 2:-0.027027027 3:-0.058823529 4:-0.82300885 5:-0.76801842 6:-0.82784129 7:-0.81698486 8:-0.78375685 
-0 0 9 0 9 0 0 9 0 0 0 0 0 0 0 0 0 0 0 0 0 0 0 0 0 1:1 2:0.040540541 3:0.025210084 4:-0.81415929 5:-0.67132991 6:-0.70208473 7:-0.74061883 8:-0.78375685 
-9 0 9 9 9 0 0 9 2.3169678744897313 9 0 0 0 0 0 0 0 0 0 0 0 0 0 0 0 1:1 2:0.17567568 3:0.14285714 4:-0.7699115 5:-0.5746414 6:-0.62340282 7:-0.62475313 8:-0.68011958 
-9 9 9 9 9 0 0 9 9 9 9 9 0 0 9 0 0 9 0 0 0 0 0 0 0 2:0.36486486 3:0.27731092 4:-0.73451327 5:-0.40711882 6:-0.53261601 7:-0.4562212 8:-0.62032885 
-0 0 1.8216573363243997 0 0 0 9 0 0 0 0 0 0 0 0 0 0 0 0 0 0 0 0 0 0 1:1 2:-0.21621622 3:-0.2605042 4:-0.76106195 5:-0.83141491 6:-0.85608608 7:-0.8841343 8:-0.85650224 
-0 0 9 0 9 0 0 9 0 0 0 0 0 0 0 0 0 0 0 0 0 0 0 0 0 1:-1 2:-0.2027027 3:-0.24369748 4:-0.83185841 5:-0.84381087 6:-0.8930733 7:-0.86701777 8:-0.85351271 
-0 0 0 0 6.6356307009709941 9 9 0 0 0 0 0 0 0 0 9 0 0 0 0 0 0 0 0 0 1:-1 2:-0.47297297 3:-0.52941176 4:-0.87610619 5:-0.92633257 6:-0.93880296 7:-0.95391705 8:-0.93124066 
-9 0 9 9 9 0 0 9 9 9 9 0 0 0 0 0 0 0 0 0 0 0 0 0 0 1:1 2:0.16216216 3:0.092436975 4:-0.78761062 5:-0.5806623 6:-0.65232011 7:-0.62343647 8:-0.64424514 
-9 0 9 0 9 0 0 9 0 9 0 0 0 0 0 0 0 0 0 0 0 0 0 0 0 1:-1 3:-0.1092437 4:-0.78761062 5:-0.70816363 6:-0.733692 7:-0.76431863 8:-0.76980568 
-0 0 9 0 0 0 9 0 0 0 0 0 0 0 0 0 0 0 0 0 0 0 0 0 0 1:1 2:-0.094594595 3:-0.17647059 4:-0.82300885 5:-0.8016646 6:-0.83254876 7:-0.85121791 8:-0.8285999 
-0 0 9 0 9 0 0 0 0 0 0 0 0 0 0 0 0 0 0 0 0 0 0 0 0 1:1 2:-0.013513514 3:-0.075630252 4:-0.80530973 5:-0.73897645 6:-0.79354405 7:-0.7801185 8:-0.76382661 
-0 0 9 0 9 0 0 9 0 0 0 0 0 0 0 0 0 0 0 0 0 0 0 0 0 1:1 2:0.040540541 3:-0.0084033613 4:-0.80530973 5:-0.6702674 6:-0.71553463 7:-0.74061883 8:-0.72894868 
-9 0 9 0 9 0 0 9 0 0 0 0 0 0 0 0 0 0 0 0 0 0 0 0 0 1:1 2:0.081081081 3:0.1092437 4:-0.80530973 5:-0.59518328 6:-0.58305313 7:-0.73140224 8:-0.73193822 
-0 0 0 0 0 9 9 0 0 0 0 0 0 0 0 0 0 0 0 0 0 0 0 0 0 1:1 2:-0.33783784 3:-0.32773109 4:-0.82300885 5:-0.87710289 6:-0.90316073 7:-0.89203423 8:-0.87344295 
-0 0 0 0 0 9 9 0 0 0 0 0 0 0 0 0 0 0 0 0 0 0 0 0 0 1:1 2:-0.25675676 3:-0.31092437 4:-0.83185841 5:-0.85195679 6:-0.88567586 7:-0.85385122 8:-0.86746388 
-9 0 9 9 9 0 0 9 9 9 0 0 0 0 0 0 0 0 0 0 0 0 0 0 0 1:-1 2:0.12162162 3:0.37815126 4:-0.77876106 5:-0.63130866 6:-0.68527236 7:-0.65898618 8:-0.72197309 
-0 0 0 0 0 9 9 0 0 0 0 0 0 0 0 0 0 0 0 0 0 0 0 0 0 1:1 2:-0.18918919 3:-0.27731092 4:-0.84955752 5:-0.84699841 6:-0.87424344 7:-0.89861751 8:-0.86347783 
-9 0 9 9 9 0 0 9 9 9 9 0 0 0 0 0 0 0 0 0 0 0 0 0 0 1:-1 2:0.21621622 3:0.092436975 4:-0.77876106 5:-0.54099522 6:-0.59381305 7:-0.59315339 8:-0.68609865 
-0 0 9 0 9 9 9 9 0 0 0 0 0 0 0 0 0 0 0 0 0 0 0 0 0 1:-1 2:-0.41891892 3:-0.41176471 4:-0.86725664 5:-0.91889499 6:-0.94351042 7:-0.93416722 8:-0.92326856 
-0 0 0 0 0 9 9 0 0 0 0 0 0 0 0 0 0 0 0 0 0 0 0 0 0 1:1 2:-0.21621622 3:-0.29411765 4:-0.76106195 5:-0.84451921 6:-0.86012105 7:-0.87755102 8:-0.88241156 
-0 0 9 0 9 0 0 9 0 0 0 0 0 0 0 0 0 0 0 0 0 0 0 0 0 1:-1 2:-0.2972973 3:-0.34453782 4:-0.84070796 5:-0.87320701 6:-0.89979825 7:-0.89203423 8:-0.88340807 
-0 0 9 0 0 0 9 0 0 0 0 0 0 0 0 0 0 0 0 0 0 0 0 0 0 1:1 2:-0.16216216 3:-0.17647059 4:-0.77876106 5:-0.75845582 6:-0.77202421 7:-0.80776827 8:-0.84155456 
-9 0 9 9 9 0 6.0619565971138325 9 9 9 9 2.4326176337219789 0 0 9 0 0 7.306070237043107 0 5.3856725455569512 0 1.2738361876218203 0 0 0 1:-1 2:0.18918919 3:0.19327731 4:-0.75221239 5:-0.48043209 6:-0.58910558 7:-0.640553 8:-0.60438465 
-0 0 9 0 0 0 9 0 0 0 0 0 0 0 0 0 0 0 0 0 0 0 0 0 0 1:1 2:-0.10810811 3:-0.15966387 4:-0.84070796 5:-0.80131043 6:-0.84801614 7:-0.84990125 8:-0.81365222 
-0 0 9 0 9 0 9 0 0 0 0 0 0 0 0 0 0 0 0 0 0 0 0 0 0 1:1 2:-0.081081081 3:-0.092436975 4:-0.82300885 5:-0.67097574 6:-0.69401479 7:-0.72086899 8:-0.77578475 
-0 0 9 0 9 0 9 0 0 0 0 0 0 0 0 0 0 0 0 0 0 0 0 0 0 1:1 2:-0.081081081 3:-0.058823529 4:-0.82300885 5:-0.74783071 6:-0.77404169 7:-0.82488479 8:-0.79372197 
-9 4.0251365837028192 9 9 9 0 0 9 9 9 9 9 0 0 9 0 0.0084858442203680044 9 7.5213420048099859 0 0 0 0 0 0 1:1 2:0.2027027 3:0.14285714 4:-0.74336283 5:-0.45599433 6:-0.43106927 7:-0.62738644 8:-0.62531141 
-0 0 9 0 9 0 0 0 0 0 0 0 0 0 0 0 0 0 0 0 0 0 0 0 0 1:1 2:-0.013513514 3:-0.058823529 4:-0.80530973 5:-0.72622631 6:-0.76597176 7:-0.78143515 8:-0.78176383 
-0 0 0 0 0 9 9 0 0 0 0 0 0 0 0 0 0 0 0 0 0 0 0 0 0 1:1 2:-0.2972973 3:-0.34453782 4:-0.86725664 5:-0.8721445 6:-0.9065232 7:-0.88545095 8:-0.89337319 
-0 0 9 0 0 0 9 0 0 0 0 0 0 0 0 0 0 0 0 0 0 0 0 0 0 1:1 2:-0.14864865 3:-0.22689076 4:-0.82300885 5:-0.80237294 6:-0.82985878 7:-0.83805135 8:-0.84952666 
-0 0 0 0 0 9 9 0 0 0 0 0 0 0 0 0 0 0 0 0 0 0 0 0 0 1:1 2:-0.21621622 3:-0.2605042 4:-0.84955752 5:-0.8434567 6:-0.86953598 7:-0.90256748 8:-0.85351271 
-0 0 9 0 0 0 9 0 0 0 0 0 0 0 0 0 0 0 0 0 0 0 0 0 0 1:1 2:-0.12162162 3:-0.15966387 4:-0.82300885 5:-0.75951833 6:-0.76462677 7:-0.83673469 8:-0.83059292 
-0 0 9 0 0 0 9 0 0 0 0 0 0 0 0 0 0 0 0 0 0 0 0 0 0 1:1 2:-0.16216216 3:-0.24369748 4:-0.83185841 5:-0.81937312 6:-0.84129119 7:-0.84595128 8:-0.86347783 
-9 0 9 9 9 0 9 9 9 9 9 9 0 0 9 0 0 9 0 0 0 0 0 0 0 1:-1 2:0.27027027 3:0.22689076 4:-0.78761062 5:-0.44430671 6:-0.45931406 7:-0.51415405 8:-0.66417539 
-0 0 9 0 0 0 9 0 0 0 0 0 0 0 0 0 0 0 0 0 0 0 0 0 0 1:1 2:-0.14864865 3:-0.19327731 4:-0.82300885 5:-0.80378962 6:-0.84599866 7:-0.84595128 8:-0.84354758 
-0 0 9 0 0 0 9 0 0 0 0 0 0 0 0 0 0 0 0 0 0 0 0 0 0 1:1 2:-0.067567568 3:-0.1092437 4:-0.80530973 5:-0.74464317 6:-0.76731675 7:-0.83410138 8:-0.79372197 
-0 0 9 0 9 0 0 9 0 0 0 0 0 0 0 0 0 0 0 0 0 0 0 0 0 1:1 2:-0.013513514 3:0.0084033613 4:-0.78761062 5:-0.65078803 6:-0.69065232 7:-0.7116524 8:-0.75386148 
-9 0 9 9 9 0 0 9 9 9 6.750081828789849 0 0 0 0 0 0 0 0 0 0 0 0 0 0 1:1 2:0.16216216 3:0.1092437 4:-0.78761062 5:-0.57605808 6:-0.6798924 7:-0.62738644 8:-0.63428002 
-9 0 9 9 9 0 0 9 0 9 0 0 0 0 0 0 0 0 0 0 0 0 0 0 0 1:1 2:0.18918919 3:0.092436975 4:-0.78761062 5:-0.55870374 6:-0.56220578 7:-0.66030283 8:-0.68410563 
-9 0 9 9 9 0 0 9 9 9 9 4.7711157333423495 0 0 9 0 0 9 0 0 0 0 0 0 0 1:1 2:0.21621622 3:0.15966387 4:-0.75221239 5:-0.53816186 6:-0.59112307 7:-0.57998683 8:-0.66616841 
-0 0 9 0 0 0 9 0 0 0 0 0 0 0 0 0 0 0 0 0 0 0 0 0 0 1:1 2:-0.13513514 3:-0.21008403 4:-0.83185841 5:-0.77545599 6:-0.81573638 7:-0.79065174 8:-0.83956153 
-0 0 9 0 9 0 4.3531481642118965 0 0 0 0 0 0 0 0 0 0 0 0 0 0 0 0 0 0 1:1 2:-0.040540541 3:-0.042016807 4:-0.80530973 5:-0.74322649 6:-0.78749159 7:-0.77616853 8:-0.79372197 
-0 0 9 0 9 0 0 0 0 0 0 0 0 0 0 0 0 0 0 0 0 0 0 0 0 1:1 2:-0.027027027 3:-0.025210084 4:-0.79646018 5:-0.70533026 6:-0.70275723 7:-0.80776827 8:-0.79172895 
-0 0 0 0 0 1.5567323894515528 9 0 0 0 0 0 0 0 0 0 0 0 0 0 0 0 0 0 0 1:1 2:-0.2027027 3:-0.2605042 4:-0.82300885 5:-0.84558172 6:-0.87491594 7:-0.88281764 8:-0.87344295 
-0 0 9 0 0 0 9 0 0 0 0 0 0 0 0 0 0 0 0 0 0 0 0 0 0 1:1 2:-0.13513514 3:-0.19327731 4:-0.82300885 5:-0.79387285 6:-0.8130464 7:-0.83805135 8:-0.83956153 
-0 0 9 0 0 0 9 0 0 0 0 0 0 0 0 0 0 0 0 0 0 0 0 0 0 1:1 2:-0.094594595 3:-0.14285714 4:-0.84070796 5:-0.76128918 6:-0.79287155 7:-0.81830151 8:-0.82361734 
-0 0 9 0 0 0 9 0 0 0 0 0 0 0 0 0 0 0 0 0 0 0 0 0 0 1:1 2:-0.16216216 3:-0.21008403 4:-0.85840708 5:-0.82539401 6:-0.83725622 7:-0.87096774 8:-0.87344295 
-0 0 9 0 0 0 9 0 0 0 0 0 0 0 0 0 0 0 0 0 0 0 0 0 0 1:1 2:-0.16216216 3:-0.21008403 4:-0.84070796 5:-0.83708164 6:-0.88634835 7:-0.87096774 8:-0.84354758 
-0 0 9 0 9 0 0 9 0 0 0 0 0 0 0 0 0 0 0 0 0 0 0 0 0 1:1 2:0.013513514 3:-0.058823529 4:-0.80530973 5:-0.70426775 6:-0.75790182 7:-0.77748519 8:-0.73492775 
-6.5911107551940287 0 9 0 9 0 0 9 0 0 0 0 0 0 0 0 0 0 0 0 0 0 0 0 0 1:-1 2:-0.054054054 3:-0.092436975 4:-0.83185841 5:-0.73330972 6:-0.77202421 7:-0.79065174 8:-0.8036871 
-9 0 9 9 9 0 0 9 9 9 9 0 0 0 9 0 0 0 0 0 0 0 0 0 0 1:-1 2:0.16216216 3:0.15966387 4:-0.76106195 5:-0.48928635 6:-0.49428379 7:-0.60895326 8:-0.64823119 
-0 0 0 0 0 9 9 0 0 0 0 0 0 0 0 0 0 0 0 0 0 0 0 0 0 1:1 2:-0.22972973 3:-0.29411765 4:-0.86725664 5:-0.87072782 6:-0.88971083 7:-0.90520079 8:-0.89337319 
-9 0 9 9 9 0 0 9 9 9 9 0 0 0 5.9081094811013442 0 0 8.4238941253822528 0 0 0 0 0 0 0 1:1 2:0.24324324 3:0.15966387 4:-0.7699115 5:-0.53603683 6:-0.62004035 7:-0.57472021 8:-0.65421026 
-0 0 9 0 9 0 0 0 0 0 0 0 0 0 0 0 0 0 0 0 0 0 0 0 0 1:1 2:-0.013513514 3:-0.042016807 4:-0.82300885 5:-0.73295555 6:-0.76933423 7:-0.78670178 8:-0.80169407 
-0 0 9 0 0 0 9 0 0 0 0 0 0 0 0 0 0 0 0 0 0 0 0 0 0 1:1 2:-0.16216216 3:-0.17647059 4:-0.83185841 5:-0.78749779 6:-0.79690652 7:-0.83936801 8:-0.85650224 
-0 0 3.7789736315719771 0 9 9 9 4.7036857495866675 0 0 0 0 0 0 0 0 0 0 0 0 0 0 0 0 0 1:-1 2:-0.40540541 3:-0.46218487 4:-0.86725664 5:-0.91004073 6:-0.93409549 7:-0.92363397 8:-0.92326856 
-0 0 9 0 9 0 0 9 0 0 0 0 0 0 0 0 0 0 0 0 0 0 0 0 0 1:1 3:-0.042016807 4:-0.74336283 5:-0.69399681 6:-0.73974445 7:-0.76300197 8:-0.74389636 
-9 0 9 9 9 0 0 9 9 9 9 0 0 0 0 0 0 0 0 0 0 0 0 0 0 1:-1 2:0.094594595 3:0.058823529 4:-0.76106195 5:-0.55409952 6:-0.53799597 7:-0.73403555 8:-0.68211261 
-0 0 9 0 0 0 9 0 0 0 0 0 0 0 0 0 0 0 0 0 0 0 0 0 0 1:1 2:-0.081081081 3:-0.092436975 4:-0.82300885 5:-0.77970604 6:-0.81439139 7:-0.83673469 8:-0.81066268 
-9 0 9 9 9 0 9 9 0 9 0 0 0 0 0 0 0 0 0 0 0 0 0 0 0 2:-0.027027027 3:-0.092436975 4:-0.79646018 5:-0.72410129 6:-0.79421654 7:-0.75378539 8:-0.76382661 
-0 0 9 0 9 0 9 0 0 0 0 0 0 0 0 0 0 0 0 0 0 0 0 0 0 1:1 2:-0.027027027 3:-0.092436975 4:-0.78761062 5:-0.7563308 6:-0.78749159 7:-0.7801185 8:-0.81365222 
-0 0 9 0 9 0 9 0 0 0 0 0 0 0 0 0 0 0 0 0 0 0 0 0 0 1:1 2:-0.081081081 3:-0.1092437 4:-0.80530973 5:-0.73685143 6:-0.76597176 7:-0.80250165 8:-0.78574988 
-0 0 9 0 0 0 9 0 0 0 0 0 0 0 0 0 0 0 0 0 0 0 0 0 0 1:1 2:-0.081081081 3:-0.092436975 4:-0.82300885 5:-0.76518505 6:-0.80699395 7:-0.81303489 8:-0.81365222 
-0 0 0 0 0 9 9 0 0 0 0 0 0 0 0 9 0 0 0 0 0 0 0 0 0 1:1 2:-0.40540541 3:-0.42857143 4:-0.84070796 5:-0.92314503 6:-0.9468729 7:-0.93680053 8:-0.93921276 
-0 0 0 0 0 9 9 0 0 0 0 0 0 0 0 0 0 0 0 0 0 0 0 0 0 1:1 2:-0.24324324 3:-0.2605042 4:-0.84070796 5:-0.82362316 6:-0.87088097 7:-0.86175115 8:-0.84354758 
-0 0 9 0 9 0 0 0 0 0 0 0 0 0 0 0 0 0 0 0 0 0 0 0 0 1:1 2:0.081081081 3:0.042016807 4:-0.82300885 5:-0.90826988 6:-0.72898453 7:-0.77090191 8:-0.75784753 
-0 0 9 0 0 0 9 0 0 0 0 0 0 0 0 0 0 0 0 0 0 0 0 0 0 1:1 2:-0.14864865 3:-0.21008403 4:-0.82300885 5:-0.84381087 6:-0.87357095 7:-0.87886768 8:-0.85749875 
-9 9 9 9 9 0 0 9 9 9 9 9 0 0 9 0 9 9 9 0.67203556022462252 0 0 0 0 0 1:-1 2:0.39189189 3:0.37815126 4:-0.75221239 5:-0.2604923 6:-0.36987223 7:-0.30875576 8:-0.47882412 
-0 0 0 0 9 9 9 0 0 0 0 0 0 0 0 6.6158377024973936 0 0 0 0 0 0 0 0 0 1:-1 2:-0.44594595 3:-0.4789916 4:-0.85840708 5:-0.92456171 6:-0.9462004 7:-0.9315339 8:-0.93423019 
-0 0 9 0 9 0 0 9 0 0 0 0 0 0 0 0 0 0 0 0 0 0 0 0 0 1:-1 2:-0.25675676 3:-0.29411765 4:-0.80530973 5:-0.79139366 6:-0.81775387 7:-0.83541804 8:-0.83358246 
-0 0 9 0 9 0 0 9 0 0 0 0 0 0 0 0 0 0 0 0 0 0 0 0 0 1:1 2:0.054054054 3:0.042016807 4:-0.79646018 5:-0.67062157 6:-0.68997983 7:-0.75773535 8:-0.77777778 
-0 0 9 0 0 0 9 0 0 0 0 0 0 0 0 0 0 0 0 0 0 0 0 0 0 1:1 2:-0.067567568 3:-0.17647059 4:-0.81415929 5:-0.77758102 6:-0.83254876 7:-0.81698486 8:-0.79671151 
-9 0 9 9 9 0 0 9 9 9 9 0 0 0 0 0 0 0 0 0 0 0 0 0 0 1:-1 2:0.14864865 3:0.15966387 4:-0.77876106 5:-0.52505755 6:-0.54942838 7:-0.68531929 8:-0.63926258 
-0 0 0 0 0 9 9 0 0 0 0 0 0 0 0 0 0 0 0 0 0 0 0 0 0 1:1 2:-0.31081081 3:-0.34453782 4:-0.83185841 5:-0.85372764 6:-0.86415602 7:-0.89730086 8:-0.89935227 
-0 0 0 0 0 9 9 0 0 0 0 0 0 0 0 0 0 0 0 0 0 0 0 0 0 1:1 2:-0.2972973 3:-0.31092437 4:-0.84070796 5:-0.86222773 6:-0.88365837 7:-0.89335089 8:-0.89138017 
-0 0 9 0 0 0 9 0 0 0 0 0 0 0 0 0 0 0 0 0 0 0 0 0 0 1:1 2:-0.040540541 3:-0.1092437 4:-0.82300885 5:-0.75597662 6:-0.78143914 7:-0.79065174 8:-0.82361734 
-0 0 9 0 9 0 9 0 0 0 0 0 0 0 0 0 0 0 0 0 0 0 0 0 0 1:1 2:-0.013513514 3:-0.092436975 4:-0.84070796 5:-0.75349743 6:-0.80228648 7:-0.82488479 8:-0.79372197 
-9 0 9 9 9 0 0 9 9 9 9 0 0 0 0 0 0 5.5856964794725901 0 0 0 0 0 0 0 2:0.040540541 3:0.075630252 4:-0.78761062 5:-0.67522578 6:-0.76260928 7:-0.7116524 8:-0.70403587 
-0 0 9 0 9 0 0 0 0 0 0 0 0 0 0 0 0 0 0 0 0 0 0 0 0 1:1 2:0.040540541 3:-0.025210084 4:-0.78761062 5:-0.70710112 6:-0.73503699 7:-0.7682686 8:-0.78973592 
-0 0 9 0 0 0 9 0 0 0 0 0 0 0 0 0 0 0 0 0 0 0 0 0 0 1:1 2:-0.10810811 3:-0.34453782 4:-0.84070796 5:-0.79776873 6:-0.82918628 7:-0.83541804 8:-0.84255107 
-0 0 9 0 9 0 9 9 0 0 0 0 0 0 0 0 0 0 0 0 0 0 0 0 0 1:-1 2:-0.32432432 3:-0.37815126 4:-0.84955752 5:-0.87887374 6:-0.89441829 7:-0.90125082 8:-0.90333832 
-0 0 9 0 6.4437581176351548 0 9 0 0 0 0 0 0 0 0 0 0 0 0 0 0 0 0 0 0 1:1 2:-0.094594595 3:-0.058823529 4:-0.81415929 5:-0.76731008 6:-0.81237391 7:-0.83278473 8:-0.79372197 
-0 0 9 0 9 0 0 0 0 0 0 0 0 0 0 0 0 0 0 0 0 0 0 0 0 1:1 2:-0.013513514 3:-0.058823529 4:-0.79646018 5:-0.70285107 6:-0.76866174 7:-0.79986833 8:-0.77777778 
-0 0 9 0 0 0 9 0 0 0 0 0 0 0 0 0 0 0 0 0 0 0 0 0 0 1:1 2:-0.054054054 3:-0.14285714 4:-0.84070796 5:-0.78820613 6:-0.81506389 7:-0.83015142 8:-0.84354758 
-9 0 9 9 9 0 5.0921026924945219 9 5.2649497226070139 9 0 0 0 0 0 0 0 0 0 0 0 0 0 0 0 2:-0.040540541 3:-0.042016807 4:-0.78761062 5:-0.72445546 6:-0.79219906 7:-0.75115207 8:-0.72296961 
-0 0 9 0 9 0 0 9 0 0 0 0 0 0 0 0 0 0 0 0 0 0 0 0 0 1:-1 2:-0.12162162 3:-0.1092437 4:-0.83185841 5:-0.78678945 6:-0.82178884 7:-0.84331797 8:-0.8036871 
-0 0 9 0 0 0 9 0 0 0 0 0 0 0 0 0 0 0 0 0 0 0 0 0 0 1:1 2:-0.094594595 3:-0.12605042 4:-0.83185841 5:-0.80272711 6:-0.84801614 7:-0.91046741 8:-0.78375685 
-9 0 9 0 9 0 0 9 0 0 0 0 0 0 0 0 0 0 0 0 0 0 0 0 0 1:1 2:0.13513514 3:0.092436975 4:-0.78761062 5:-0.63874624 6:-0.68796234 7:-0.68400263 8:-0.73193822 
-0 0 9 0 9 0 0 9 0 0 0 0 0 0 0 0 0 0 0 0 0 0 0 0 0 1:1 2:0.13513514 3:-0.075630252 4:-0.82300885 5:-0.68974677 6:-0.76328178 7:-0.75115207 8:-0.70403587 
-0 0 0 0 0 9 9 0 0 0 0 0 0 0 0 0 0 0 0 0 0 0 0 0 0 1:1 2:-0.22972973 3:-0.29411765 4:-0.83185841 5:-0.83743581 6:-0.86012105 7:-0.88018433 8:-0.85351271 
-0 0 9 0 0 0 9 0 0 0 0 0 0 0 0 0 0 0 0 0 0 0 0 0 0 1:1 2:-0.14864865 3:-0.19327731 4:-0.83185841 5:-0.85762352 6:-0.88365837 7:-0.88281764 8:-0.85351271 
-0 0 9 0 9 0 9 0 0 0 0 0 0 0 0 0 0 0 0 0 0 0 0 0 0 1:1 3:-0.092436975 4:-0.82300885 5:-0.73366389 6:-0.7599193 7:-0.73798552 8:-0.82561036 
-0 0 0 0 0 0 9 0 0 0 0 0 0 0 0 0 0 0 0 0 0 0 0 0 0 1:1 2:-0.18918919 3:-0.2605042 4:-0.83185841 5:-0.83885249 6:-0.87357095 7:-0.85780118 8:-0.87144993 
-9 0 9 0 9 0 0 9 0 0 0 0 0 0 0 0 0 0 0 0 0 0 0 0 0 1:1 2:0.081081081 3:0.075630252 4:-0.79646018 5:-0.63272534 6:-0.68796234 7:-0.6879526 8:-0.71300448 
-9 0 9 9 9 0 0 9 0 9 0 0 0 0 0 0 0 0 0 0 0 0 0 0 0 1:1 2:0.18918919 3:0.1092437 4:-0.77876106 5:-0.59624579 6:-0.68258238 7:-0.62343647 8:-0.67414051 
-0 0 9 0 9 0 0 3.8028911587672658 0 0 0 0 0 0 0 0 0 0 0 0 0 0 0 0 0 1:1 2:0.013513514 3:-0.025210084 4:-0.80530973 5:-0.66849655 6:-0.68459987 7:-0.77616853 8:-0.77678127 
-9 9 9 9 9 0 0 9 9 9 9 9 0 0 9 0 0 9 0 0 0 0 0 0 0 1:-1 2:0.21621622 3:0.21008403 4:-0.76106195 5:-0.43863999 6:-0.47141896 7:-0.5036208 8:-0.6003986 
-0 0 9 0 0 0 9 0 0 0 0 0 0 0 0 0 0 0 0 0 0 0 0 0 0 1:1 2:-0.2027027 3:-0.24369748 4:-0.83185841 5:-0.81335222 6:-0.83725622 7:-0.86438446 8:-0.84354758 
-9 0 9 7.0379368144504193 9 0 0 9 0 9 0 0 0 0 0 0 0 0 0 0 0 0 0 0 0 1:-1 2:-0.14864865 3:-0.24369748 4:-0.77876106 5:-0.60191252 6:-0.59314055 7:-0.74983542 8:-0.71798705 
-9 9 9 9 9 0 0 9 9 9 9 9 0 0 9 0 0 9 9 0 0 0 0 0 0 2:0.2972973 3:0.24369748 4:-0.75221239 5:-0.31928458 6:-0.40954943 7:-0.4114549 8:-0.52466368 
-9 0 9 9 9 0 0 9 9 9 0 0 0 0 0 0 0 0 0 0 0 0 0 0 0 2:0.027027027 3:-0.0084033613 4:-0.78761062 5:-0.67876749 6:-0.73974445 7:-0.72613562 8:-0.72894868 
-9 9 9 9 9 0 0 9 9 9 9 9 0 0 9 0 9 9 9 8.4016383236007215 0 0 0 0 0 2:0.36486486 3:0.36134454 4:-0.73451327 5:-0.21126262 6:-0.25151311 7:-0.40750494 8:-0.42501246 
-0 0 9 0 0 0 9 0 0 0 0 0 0 0 0 0 0 0 0 0 0 0 0 0 0 1:1 2:-0.10810811 3:-0.15966387 4:-0.82300885 5:-0.81158137 6:-0.84734364 7:-0.86175115 8:-0.83358246 
-0 0 9 0 9 0 0 9 0 0 0 0 0 0 0 0 0 0 0 0 0 0 0 0 0 1:-1 2:-0.17567568 3:-0.39495798 4:-0.82300885 5:-0.81866478 6:-0.85944855 7:-0.85911784 8:-0.84354758 
-0 0 0 0 0 9 9 0 0 0 0 0 0 0 0 0 0 0 0 0 0 0 0 0 0 1:1 2:-0.31081081 3:-0.32773109 4:-0.85840708 5:-0.85620684 6:-0.88096839 7:-0.89730086 8:-0.89337319 
-0 0 9 0 0 0 9 0 0 0 0 0 0 0 0 0 0 0 0 0 0 0 0 0 0 1:1 2:-0.22972973 3:-0.17647059 4:-0.84955752 5:-0.81016469 6:-0.84196369 7:-0.83278473 8:-0.85450922 
-0 0 0 0 0 9 9 0 0 0 0 0 0 0 0 0 0 0 0 0 0 0 0 0 0 1:1 2:-0.21621622 3:-0.27731092 4:-0.84955752 5:-0.84381087 6:-0.87558843 7:-0.86306781 8:-0.87144993 
-0 0 9 0 9 0.084222250137248406 1.1067856116636972 9 0 0 0 0 0 0 0 0 0 0 0 0 0 0 0 0 0 1:-1 2:-0.33783784 3:-0.37815126 4:-0.84955752 5:-0.88099876 6:-0.91324815 7:-0.87755102 8:-0.90533134 
-9 0 9 9 9 0 9 9 9 9 6.7134468942484471 0 0 0 0 0 0 9 0 0 0 0 0 0 0 2:-0.027027027 3:-0.092436975 4:-0.80530973 5:-0.69435098 6:-0.76193679 7:-0.74193548 8:-0.69407075 
-9 0 9 0 9 0 0 9 0 0 0 0 0 0 0 0 0 0 0 0 0 0 0 0 0 1:1 2:0.040540541 3:0.042016807 4:-0.79646018 5:-0.63945458 6:-0.68325488 7:-0.69058591 8:-0.75784753 
-0 0 0 0 0 9 9 0 0 0 0 0 0 0 0 0 0 0 0 0 0 0 0 0 0 1:1 2:-0.21621622 3:-0.29411765 4:-0.84955752 5:-0.85054011 6:-0.87424344 7:-0.8722844 8:-0.88340807 
-9 0 9 9 9 0 0 9 9 9 9 9 0 0 9 0 0.32343995076404736 9 1.3428793173453877 0.44608420918487157 0 0 0 0 0 1:1 2:0.16216216 3:0.12605042 4:-0.67256637 5:-0.567558 6:-0.64223268 7:-0.62738644 8:-0.66018934 
-9 0 9 0 9 0 0 9 0 9 0 0 0 0 0 0 0 0 0 0 0 0 0 0 0 1:-1 2:0.040540541 3:-0.025210084 4:-0.80530973 5:-0.67593412 6:-0.68527236 7:-0.7682686 8:-0.7717987 
-9 9 9 9 9 0 0 9 9 9 9 9 0 7.3998111234234498 9 0 9 9 9 9 0 5.0988616204860238 0 3.7622994237877228 0 1:-1 2:0.5 3:0.52941176 4:-0.69911504 5:-0.15955375 6:-0.34028245 7:-0.19420671 8:-0.30941704 
-0 0 0 0 0 0 9 0 0 0 0 0 0 0 0 0 0 0 0 0 0 0 0 0 0 1:1 2:-0.2027027 3:-0.2605042 4:-0.82300885 5:-0.83885249 6:-0.88231338 7:-0.87886768 8:-0.86347783 
-0 0 0 0 0 9 9 0 0 0 0 0 0 0 0 0 0 0 0 0 0 0 0 0 0 1:1 2:-0.22972973 3:-0.31092437 4:-0.84070796 5:-0.87497786 6:-0.91459314 7:-0.90388413 8:-0.85351271 
-0 0 9 0 0 0 9 0 0 0 0 0 0 0 0 0 0 0 0 0 0 0 0 0 0 1:1 2:-0.054054054 3:-0.14285714 4:-0.83185841 5:-0.78360191 6:-0.81439139 7:-0.80513496 8:-0.81763827 
-9 0 9 9 9 0 9 9 9 9 9 0 0 0 0 0 0 0 0 0 0 0 0 0 0 1:-1 2:0.32432432 3:0.21008403 4:-0.77876106 5:-0.52895343 6:-0.59515804 7:-0.59447005 8:-0.63428002 
-0 0 0 0 9 9 9 0 0 0 0 0 0 0 0 0 0 0 0 0 0 0 0 0 0 1:-1 2:-0.43243243 3:-0.4789916 4:-0.86725664 5:-0.91747831 6:-0.92737054 7:-0.92626728 8:-0.92326856 
-9 9 9 9 9 0 0 9 9 9 9 9 0 0 9 0 0 9 9 0 0 0 0 0 0 2:0.2027027 3:0.36134454 4:-0.73451327 5:-0.2796175 6:-0.29791527 7:-0.47860434 8:-0.49676134 
-9 0 9 9 9 0 0 9 0 9 0 0 0 0 0 0 0 0 0 0 0 0 0 0 0 1:1 2:0.10810811 3:0.075630252 4:-0.7699115 5:-0.5746414 6:-0.60659045 7:-0.66293614 8:-0.68410563 
-0 0 9 0 0 0 9 0 0 0 0 0 0 0 0 0 0 0 0 0 0 0 0 0 0 1:1 2:-0.094594595 3:-0.15966387 4:-0.84070796 5:-0.75101824 6:-0.79018157 7:-0.80513496 8:-0.8036871 
-9 0 9 9 9 0 9 9 0 9 0 0 0 0 0 0 1.1559821854620589 0 0 0 0 0 0 0 0 2:-0.12162162 3:-0.15966387 4:-0.71681416 5:-0.7407473 6:-0.76866174 7:-0.8156682 8:-0.79372197 
-0 0 9 0 9 0 0 0 0 0 0 0 0 0 0 0 0 0 0 0 0 0 0 0 0 1:1 2:0.040540541 3:-0.0084033613 4:-0.80530973 5:-0.7180804 6:-0.76462677 7:-0.78275181 8:-0.76283009 
-0 0 0 0 0 9 9 0 0 0 0 0 0 0 0 0 0 0 0 0 0 0 0 0 0 1:1 2:-0.27027027 3:-0.27731092 4:-0.80530973 5:-0.85018594 6:-0.89105582 7:-0.85780118 8:-0.86347783 
-0 0 9 0 9 0 0 9 0 0 0 0 0 0 0 0 0 0 0 0 0 0 0 0 0 1:1 2:-0.027027027 3:-0.025210084 4:-0.78761062 5:-0.68443421 6:-0.70410222 7:-0.70638578 8:-0.75386148 
-0 0 9 0 9 0 0 0 0 0 0 0 0 0 0 0 0 0 0 0 0 0 0 0 0 1:1 2:-0.013513514 3:-0.042016807 4:-0.82300885 5:-0.71312201 6:-0.7202421 7:-0.80776827 8:-0.79770802 
-9 0 9 0 9 0 0 9 0 9 0 0 0 0 0 0 0 0 0 0 0 0 0 0 0 1:-1 2:0.081081081 3:0.025210084 4:-0.82300885 5:-0.69789269 6:-0.73705447 7:-0.74061883 8:-0.7797708 
-0 0 0 0 0 9 9 0 0 0 0 0 0 0 0 0 0 0 0 0 0 0 0 0 0 1:1 2:-0.2027027 3:-0.2605042 4:-0.84070796 5:-0.85514432 6:-0.87222596 7:-0.89730086 8:-0.88739412 
-0 0 0 0 0 9 9 0 0 0 0 0 0 0 0 9 0 0 0 0 0 0 0 0 0 1:-1 2:-0.56756757 3:-0.61344538 4:-0.90265487 5:-0.96493713 6:-0.97713517 7:-0.97366689 8:-0.96412556 
-0 0 9 0 9 0 0 9 0 0 0 0 0 0 0 0 0 0 0 0 0 0 0 0 0 1:-1 2:-0.054054054 3:-0.092436975 4:-0.82300885 5:-0.76801842 6:-0.81775387 7:-0.81040158 8:-0.78375685 
-0 0 9 0 9 0 0 9 0 0 0 0 0 0 0 0 0 0 0 0 0 0 0 0 0 1:-1 2:-0.16216216 3:-0.19327731 4:-0.83185841 5:-0.76412254 6:-0.80363147 7:-0.75378539 8:-0.82361734 
-0 0 9 0 9 0 0 0 0 0 0 0 0 0 0 0 0 0 0 0 0 0 0 0 0 1:1 2:-0.027027027 3:-0.058823529 4:-0.83185841 5:-0.79033115 6:-0.85474109 7:-0.8485846 8:-0.77379173 
-9 9 9 9 9 0 0 9 9 9 9 9 0 0 9 0 0 9 7.3600582369706169 0 0 0 0 0 0 2:0.37837838 3:0.32773109 4:-0.73451327 5:-0.33699309 6:-0.3732347 7:-0.46675444 8:-0.55455904 
-0 0 0 0 0 9 9 0 0 0 0 0 0 0 0 0 0 0 0 0 0 0 0 0 0 1:1 2:-0.21621622 3:-0.27731092 4:-0.84955752 5:-0.85620684 6:-0.89643578 7:-0.87360105 8:-0.86347783 
-0 0 9 0 0 0 9 0 0 0 0 0 0 0 0 0 0 0 0 0 0 0 0 0 0 1:1 2:-0.10810811 3:-0.17647059 4:-0.78761062 5:-0.77191429 6:-0.83120377 7:-0.81698486 8:-0.78375685 
-0 0 0 0 0 9 9 0 0 0 0 0 0 0 0 0 0 0 0 0 0 0 0 0 0 1:1 2:-0.22972973 3:-0.27731092 4:-0.84955752 5:-0.8625819 6:-0.8796234 7:-0.91178407 8:-0.89735924 
-0 0 9 0 9 0 0 9 0 0 0 0 0 0 0 0 0 0 0 0 0 0 0 0 0 1:1 2:0.040540541 3:0.0084033613 4:-0.80530973 5:-0.70001771 6:-0.73032952 7:-0.78801843 8:-0.74389636 
-9 9 9 9 9 0 9 9 9 9 9 9 0 0 9 0 0 9 0.57657361583952471 0 0 0 0 0 0 1:-1 2:0.33783784 3:0.36134454 4:-0.69911504 5:-0.36143085 6:-0.4532616 7:-0.4917709 8:-0.57648231 
-0 0 9 0 0 0 9 0 0 0 0 0 0 0 0 0 0 0 0 0 0 0 0 0 0 1:1 2:-0.18918919 3:-0.24369748 4:-0.85840708 5:-0.84806092 6:-0.87558843 7:-0.75773535 8:-0.86347783 
-9 0 9 0 9 0 0 9 0 0 0 0 0 0 0 0 0 0 0 0 0 0 0 0 0 1:1 2:0.14864865 3:0.075630252 4:-0.75221239 5:-0.61218346 6:-0.66778749 7:-0.70638578 8:-0.68709517 
-0 0 0 0 0 9 9 0 0 0 0 0 0 0 0 9 0 0 0 0 0 0 0 0 0 1:1 2:-0.35135135 3:-0.37815126 4:-0.84955752 5:-0.87993625 6:-0.90585071 7:-0.91046741 8:-0.89636273 
-0 0 9 0 0 0 9 0 0 0 0 0 0 0 0 0 0 0 0 0 0 0 0 0 0 1:1 2:-0.22972973 3:-0.22689076 4:-0.81415929 5:-0.8303524 6:-0.87827841 7:-0.85121791 8:-0.85351271 
-9 0 9 0 9 0 0 9 0 0 0 0 0 0 0 0 0 0 0 0 0 0 0 0 0 1:1 2:0.013513514 3:0.025210084 4:-0.7699115 5:-0.66282982 6:-0.74445192 7:-0.66688611 8:-0.72994519 
-9 9 9 9 9 0 0 9 9 9 9 9 0 6.0961450464851001 9 0 9 9 9 9 3.3829592242652806 0 0 6.1660535961995588 9 2:0.74324324 3:0.57983193 4:-0.68141593 5:0.022135647 6:-0.15265636 7:-0.15470704 8:-0.13602392 
-0 0 9 0 9 0 0 0 0 0 0 0 0 0 0 0 0 0 0 0 0 0 0 0 0 1:1 2:-0.027027027 3:-0.058823529 4:-0.81415929 5:-0.75101824 6:-0.79152656 7:-0.86965109 8:-0.77678127 
-0 0 9 0 9 0 9 0 0 0 0 0 0 0 0 0 0 0 0 0 0 0 0 0 0 1:1 2:-0.027027027 3:-0.075630252 4:-0.80530973 5:-0.73224721 6:-0.79757902 7:-0.75246873 8:-0.78375685 
-9 9 9 9 9 0 9 9 9 9 9 9 0 0 9 0 9 9 9 9 0 2.6273021918921562 0 0 0 1:-1 2:0.35135135 3:0.32773109 4:-0.72566372 5:-0.32990969 6:-0.42434432 7:-0.45885451 8:-0.48679621 
-0 0 9 0 9 0 9 0 0 0 0 0 0 0 0 0 0 0 0 0 0 0 0 0 0 1:1 2:-0.054054054 3:-0.092436975 4:-0.81415929 5:-0.71985125 6:-0.75722932 7:-0.78801843 8:-0.76880917 
-9 0 9 9 9 0 0 9 9 9 9 9 0 0 9 0 0 9 0 0 0 0 0 0 0 1:1 2:0.17567568 3:0.17647059 4:-0.76106195 5:-0.45670267 6:-0.50975118 7:-0.5839368 8:-0.64424514 
-0 0 9 0 9 0 0 9 0 0 0 0 0 0 0 0 0 0 0 0 0 0 0 0 0 1:-1 2:-0.25675676 3:-0.29411765 4:-0.84070796 5:-0.84168585 6:-0.86751849 7:-0.87360105 8:-0.86347783 
-0 0 9 0 9 0 0 9 0 0 0 0 0 0 0 0 0 0 0 0 0 0 0 0 0 1:1 2:0.040540541 3:-0.0084033613 4:-0.79646018 5:-0.70710112 6:-0.75924681 7:-0.74325214 8:-0.76880917 
-0 0 9 0 0 0 9 0 0 0 0 0 0 0 0 0 0 0 0 0 0 0 0 0 0 1:1 2:-0.054054054 3:-0.1092437 4:-0.82300885 5:-0.78501859 6:-0.83187626 7:-0.84331797 8:-0.79172895 
-9 0 9 0 9 0 0 9 0 1.5876808826283932 0 0 0 0 0 0 0 0 0 0 0 0 0 0 0 1:-1 2:-0.013513514 3:-0.092436975 4:-0.79646018 5:-0.7251638 6:-0.78211163 7:-0.77221856 8:-0.77777778 
-0 0 0 0 0 9 9 0 0 0 0 0 0 0 0 9 0 0 0 0 0 0 0 0 0 1:1 2:-0.32432432 3:-0.34453782 4:-0.85840708 5:-0.87851957 6:-0.89845326 7:-0.91046741 8:-0.90533134 
-9 0 9 9 9 0 0 9 9 9 9 0 0 0 0 0 0 0 0 0 0 0 0 0 0 1:1 2:0.10810811 3:0.1092437 4:-0.7699115 5:-0.59907916 6:-0.66442502 7:-0.53258723 8:-0.69606378 
-5.08371480201866 0 9 0 9 0 0 9 0 0 0 0 0 0 0 0 0 0 0 0 0 0 0 0 0 1:1 2:0.081081081 3:0.0084033613 4:-0.79646018 5:-0.63343368 6:-0.6260928 7:-0.76958525 8:-0.7389138 
-9 0 9 0 9 0 0 9 0 9 0 0 0 0 0 0 0 0 0 0 0 0 0 0 0 1:-1 2:-0.067567568 3:-0.025210084 4:-0.81415929 5:-0.69683018 6:-0.76597176 7:-0.74851876 8:-0.74389636 
-0 0 9 0 0 0 9 0 0 0 0 0 0 0 0 0 0 0 0 0 0 0 0 0 0 1:1 2:-0.2027027 3:-0.21008403 4:-0.84070796 5:-0.82822738 6:-0.88164089 7:-0.82883476 8:-0.85351271 
-9 0 9 9 9 0 0 9 9 9 9 0 0 0 0 0 0 0 0 0 0 0 0 0 0 1:-1 2:0.16216216 3:0.1092437 4:-0.7699115 5:-0.54559943 6:-0.57969065 7:-0.60895326 8:-0.70104634 
-0 0 0 0 0 9 9 0 0 0 0 0 0 0 0 0 0 0 0 0 0 0 0 0 0 1:1 2:-0.32432432 3:-0.34453782 4:-0.85840708 5:-0.87674872 6:-0.92131809 7:-0.9078341 8:-0.877429 
-0 0 0 0 0 9 9 0 0 0 0 0 0 0 0 0 0 0 0 0 0 0 0 0 0 1:1 2:-0.31081081 3:-0.34453782 4:-0.81415929 5:-0.87993625 6:-0.91324815 7:-0.90915076 8:-0.88340807 
-9 0 9 0 9 0 0 9 0 0 0 0 0 0 0 0 0 0 0 0 0 0 0 0 0 1:1 2:0.094594595 3:0.025210084 4:-0.77876106 5:-0.61749602 6:-0.62542031 7:-0.73140224 8:-0.71001495 
-0 0 9 0 9 0 0 9 0 0 0 0 0 0 0 0 0 0 0 0 0 0 0 0 0 1:-1 2:-0.081081081 3:-0.17647059 4:-0.82300885 5:-0.76376837 6:-0.79354405 7:-0.82093483 8:-0.81365222 
-9 9 9 9 9 0 0 9 9 9 9 9 0 4.4892297550674014 9 0 9 9 9 9 4.8176211787017804 0 0 6.4512825774059079 0 2:0.44594595 3:0.44537815 4:-0.68141593 5:-0.095094741 6:-0.22999328 7:-0.24950625 8:-0.29546587 
-0 0 0 0 0 9 9 0 0 0 0 0 9 0.01481407502404815 0 9 0 0 0 0 0 0 0 0 0 1:1 2:-0.48648649 3:-0.51260504 4:-0.88495575 5:-0.93235346 6:-0.94754539 7:-0.94733377 8:-0.94718485 
-0 0 9 0 0 0 9 0 0 0 0 0 0 0 0 0 0 0 0 0 0 0 0 0 0 1:1 2:-0.18918919 3:-0.24369748 4:-0.84955752 5:-0.77793519 6:-0.74983188 7:-0.88018433 8:-0.8694569 
-0 0 9 0 0 0 9 0 0 0 0 0 0 0 0 0 0 0 0 0 0 0 0 0 0 1:1 2:-0.18918919 3:-0.21008403 4:-0.84955752 5:-0.83247742 6:-0.84263618 7:-0.88281764 8:-0.86447434 
-0 0 0 0 0 9 9 0 0 0 0 0 0 0 0 0 0 0 0 0 0 0 0 0 0 1:1 2:-0.2972973 3:-0.34453782 4:-0.86725664 5:-0.86966531 6:-0.87424344 7:-0.90125082 8:-0.91429995 
-9 9 9 9 9 0 9 9 9 9 9 9 0 0 9 0 9 9 9 0.4864459182786971 0 0 0 0 0 1:-1 2:0.37837838 3:0.37815126 4:-0.71681416 5:-0.32459713 6:-0.38332213 7:-0.37985517 8:-0.47483807 
-0 0 0 0 0 9 9 0 0 0 0 0 9 0 0 9 0 0 0 0 0 0 9 0 0 1:1 2:-0.48648649 3:-0.52941176 4:-0.90265487 5:-0.94191606 6:-0.95225286 7:-0.95523371 8:-0.95316393 
-0 0 0 0 0 9 9 0 0 0 0 0 0 0 0 9 0 0 0 0 0 0 0 0 0 1:1 2:-0.31081081 3:-0.42857143 4:-0.86725664 5:-0.86895697 6:-0.87424344 7:-0.89730086 8:-0.918286 
-9 0 9 9 9 0 0 9 0 9 0 0 0 0 0 0 0 0 0 0 0 0 0 0 0 1:-1 2:0.067567568 3:0.025210084 4:-0.81415929 5:-0.61607933 6:-0.63819771 7:-0.63396972 8:-0.74588939 
-0 0 9 0 9 0 0 9 0 0 0 0 0 0 0 0 0 0 0 0 0 0 0 0 0 1:-1 2:-0.21621622 3:-0.19327731 4:-0.85840708 5:-0.82043563 6:-0.87088097 7:-0.88808427 8:-0.8036871 
-9 9 9 9 9 0 0 9 9 9 9 9 0 0 9 0 1.0035084531886791 9 9 0 0 0 0 0 0 2:0.35135135 3:0.36134454 4:-0.74336283 5:-0.29697184 6:-0.37457969 7:-0.39828835 8:-0.47483807 
-9 9 9 9 9 0 0 9 9 9 9 9 0 0 9 0 9 9 8.7989560308985268 9 0.79941959703293886 0 0 0.52462686258967772 0 2:0.22972973 3:0.14285714 4:-0.74336283 5:-0.45245263 6:-0.5870881 7:-0.55628703 8:-0.49476831 
-9 0 9 9 9 0 0 9 9 9 9 9 0 0 9 0 0 9 0 0 0 0 0 0 0 2:0.16216216 3:0.15966387 4:-0.77876106 5:-0.58845405 6:-0.67047747 7:-0.65898618 8:-0.65421026 
-9 0 9 9 9 0 5.1233897379516913 9 9 9 9 0 0 0 0 0 0 0 0 0 0 0 0 0 0 1:-1 2:0.18918919 3:0.12605042 4:-0.72566372 5:-0.49672392 6:-0.50437122 7:-0.640553 8:-0.69407075 
-0 0 9 0 0 0 9 0 0 0 0 0 0 0 0 0 0 0 0 0 0 0 0 0 0 1:1 2:-0.14864865 3:-0.17647059 4:-0.82300885 5:-0.81264388 6:-0.8527236 7:-0.84595128 8:-0.83557549 
-0 0 0 0 0 9 9 0 0 0 0 0 0 0 0 0 0 0 0 0 0 0 0 0 0 1:1 2:-0.28378378 3:-0.34453782 4:-0.87610619 5:-0.84381087 6:-0.86146604 7:-0.88940092 8:-0.89337319 
-7.7151015190676997 0 9 0 9 9 9 9 0 0 0 0 0 0 0 0 0 0 0 0 0 0 0 0 0 2:-0.18918919 3:-0.21008403 4:-0.85840708 5:-0.8016646 6:-0.81237391 7:-0.81040158 8:-0.84354758 
-9 0 9 9 9 0 0 9 9 9 9 0 0 0 0 0 0 0 0 0 0 0 0 0 0 1:-1 2:0.14864865 3:0.1092437 4:-0.76106195 5:-0.54630777 6:-0.57162071 7:-0.66161949 8:-0.69706029 
-0 0 9 0 9 0 0 0 0 0 0 0 0 0 0 0 0 0 0 0 0 0 0 0 0 1:1 2:0.013513514 3:-0.058823529 4:-0.81415929 5:-0.74499734 6:-0.78950908 7:-0.7919684 8:-0.78475336 
-0 0 0 0 0 9 9 0 0 0 0 0 0 0 0 0 0 0 0 0 0 0 0 0 0 1:1 2:-0.28378378 3:-0.29411765 4:-0.87610619 5:-0.87037365 6:-0.91728312 7:-0.89730086 8:-0.86347783 
-0 0 9 0 0 0 9 0 0 0 0 0 0 0 0 0 0 0 0 0 0 0 0 0 0 1:1 2:-0.14864865 3:-0.17647059 4:-0.83185841 5:-0.77014344 6:-0.77740417 7:-0.84990125 8:-0.82561036 
-0 0 9 0 9 0 0 0 0 0 0 0 0 0 0 0 0 0 0 0 0 0 0 0 0 1:1 2:0.013513514 3:-0.058823529 4:-0.83185841 5:-0.75314326 6:-0.78412912 7:-0.83673469 8:-0.76681614 
-0 0 0 0 0 9 9 0 0 0 0 0 0 0 0 0 0 0 0 0 0 0 0 0 0 1:1 2:-0.21621622 3:-0.27731092 4:-0.84955752 5:-0.8625819 6:-0.89038332 7:-0.90256748 8:-0.88340807 
-9 0 9 0 9 0 9 9 0 9 0 0 0 0 0 0 0 0 0 0 0 0 0 0 0 2:-0.14864865 3:-0.21008403 4:-0.77876106 5:-0.78501859 6:-0.83860121 7:-0.78538512 8:-0.82361734 
-0 0 0 0 0 9 9 0 0 0 0 0 0 0 0 0 0 0 0 0 0 0 0 0 0 1:1 2:-0.27027027 3:-0.29411765 4:-0.82300885 5:-0.82751904 6:-0.85205111 7:-0.8604345 8:-0.87344295 
-0 0 9 0 9 0 0 0 0 0 0 0 0 0 0 0 0 0 0 0 0 0 0 0 0 1:1 3:-0.025210084 4:-0.81415929 5:-0.71170533 6:-0.77605918 7:-0.73403555 8:-0.76980568 
-0 0 9 0 0 0 9 0 0 0 0 0 0 0 0 0 0 0 0 0 0 0 0 0 0 1:1 2:-0.054054054 3:-0.12605042 4:-0.83185841 5:-0.74110147 6:-0.75050437 7:-0.82356814 8:-0.80667663 
-9 0 9 9 9 0 0 9 9 9 9 0 0 0 0 0 0 0 0 0 0 0 0 0 0 1:-1 2:0.13513514 3:0.15966387 4:-0.76106195 5:-0.56932885 6:-0.63550773 7:-0.62343647 8:-0.71599402 
-0 0 0 0 0 9 9 0 0 0 0 0 0 0 0 0 0 0 0 0 0 0 0 0 0 1:1 2:-0.25675676 3:-0.29411765 4:-0.85840708 5:-0.85974854 6:-0.8802959 7:-0.89071758 8:-0.88340807 
-0 0 0 0 0 9 9 0 0 0 0 0 4.5981811742751182 0 0 9 0 0 0 0 0 0 0 0 0 1:1 2:-0.44594595 3:-0.49579832 4:-0.90265487 5:-0.92102001 6:-0.94082044 7:-0.92890059 8:-0.93622322 
-9 0 9 8.6951463742642208 9 0 0 9 0 0 0 0 0 0 0 0 0 0 0 0 0 0 0 0 0 1:1 2:0.14864865 3:0.075630252 4:-0.77876106 5:-0.59801665 6:-0.6529926 7:-0.67478604 8:-0.6900847 
-0 0 1.1154697893106973 0 0 9 9 0 0 0 0 0 0 0 0 0 0 0 0 0 0 0 0 0 0 1:1 2:-0.24324324 3:-0.27731092 4:-0.86725664 5:-0.85691518 6:-0.59179556 7:-0.88018433 8:-0.88440458 
-9 0 9 9 9 0 0 9 0 9 0 0 0 0 0 0 0 0 0 0 0 0 0 0 0 1:1 2:0.22972973 3:0.22689076 4:-0.78761062 5:-0.57889145 6:-0.65770007 7:-0.63001975 8:-0.65022422 
-0 0 9 0 0 0 9 0 0 0 0 0 0 0 0 0 0 0 0 0 0 0 0 0 0 1:1 2:-0.081081081 3:-0.1092437 4:-0.79646018 5:-0.78572693 6:-0.83792872 7:-0.80776827 8:-0.81564524 
-0 0 9 0 0 0 9 0 0 0 0 0 0 0 0 0 0 0 0 0 0 0 0 0 0 1:1 2:-0.17567568 3:-0.21008403 4:-0.84955752 5:-0.83956083 6:-0.88298588 7:-0.87886768 8:-0.85351271 
-0 0 0 0 0 9 9 0 0 0 0 0 0 0 0 9 0 0 0 0 0 0 0 0 0 1:1 2:-0.33783784 3:-0.39495798 4:-0.84070796 5:-0.87179033 6:-0.86953598 7:-0.91310072 8:-0.91928251 
-9 0 9 0 9 0 0 9 0 0 0 0 0 0 0 0 0 0 0 0 0 0 0 0 0 1:-1 2:-0.054054054 3:-0.075630252 4:-0.85840708 5:-0.74570568 6:-0.82111634 7:-0.78406847 8:-0.75386148 
-9 0 9 0 9 0 0 9 0 0 0 0 0 0 0 0 0 0 0 0 0 0 0 0 0 1:-1 2:-0.10810811 3:-0.14285714 4:-0.82300885 5:-0.72870551 6:-0.76866174 7:-0.76036866 8:-0.78375685 
-0 0 0 0 0 9 9 0 0 0 0 0 0 0 0 9 0 0 0 0 0 0 0 0 0 1:1 2:-0.36486486 3:-0.37815126 4:-0.84070796 5:-0.89835311 6:-0.9199731 7:-0.91836735 8:-0.91330344 
-0 0 0 0 0 9 9 0 0 0 0 0 8.1954143336947425 0 0 9 0.091267826647970493 0 0 0 0 0 0 0 0 1:-1 2:-0.64864865 3:-0.66386555 4:-0.92035398 5:-0.9713122 6:-0.97848016 7:-0.98683344 8:-0.97209766 
-0 0 9 0 9 0 0 0 0 0 0 0 0 0 0 0 0 0 0 0 0 0 0 0 0 1:1 2:0.040540541 3:-0.025210084 4:-0.80530973 5:-0.73543474 6:-0.79623403 7:-0.8485846 8:-0.75386148 
-0 0 9 0 9 0 9 0 0 0 0 0 0 0 0 0 0 0 0 0 0 0 0 0 0 1:1 2:-0.027027027 3:-0.12605042 4:-0.80530973 5:-0.74039313 6:-0.78412912 7:-0.81303489 8:-0.76382661 
-0 0 0 0 0 9 9 0 0 0 0 0 0 0 0 0 0 0 0 0 0 0 0 0 0 1:1 2:-0.2027027 3:-0.27731092 4:-0.84070796 5:-0.87001948 6:-0.9071957 7:-0.88940092 8:-0.87344295 
-0 0 0 0 0 9 9 0 0 0 0 0 0 0 0 9 0 0 0 0 0 0 0 0 0 1:1 2:-0.37837838 3:-0.36134454 4:-0.86725664 5:-0.89091553 6:-0.91055817 7:-0.90125082 8:-0.91330344 
-0 0 9 0 9 0 0 0 0 0 0 0 0 0 0 0 0 0 0 0 0 0 0 0 0 1:1 2:-0.027027027 3:-0.025210084 4:-0.78761062 5:-0.77368514 6:-0.8264963 7:-0.85385122 8:-0.76681614 
-9 0 9 9 9 0 0 9 9 9 9 9 0 0 9 0 0 9 0 0 0 0 0 0 0 1:-1 2:0.27027027 3:0.12605042 4:-0.76106195 5:-0.44643173 6:-0.43308675 7:-0.52337064 8:-0.69207773 
-0 0 0 0 0 0 9 0 0 0 0 0 0 0 0 0 0 0 0 0 0 0 0 0 0 1:1 2:-0.18918919 3:-0.17647059 4:-0.86725664 5:-0.89941562 6:-0.92199059 7:-0.92231731 8:-0.91529646 
-0 0 9 0 9 0 9 0 0 0 0 0 0 0 0 0 0 0 0 0 0 0 0 0 0 1:1 3:-0.058823529 4:-0.82300885 5:-0.6546839 6:-0.63214526 7:-0.77485188 8:-0.78276034 
-0 0 9 0 9 0 0 9 0 0 0 0 0 0 0 0 0 0 0 0 0 0 0 0 0 1:-1 2:-0.31081081 3:-0.32773109 4:-0.83185841 5:-0.8686028 6:-0.90248823 7:-0.88281764 8:-0.88340807 
-0 0 9 0 9 0 9 0 0 0 0 0 0 0 0 0 0 0 0 0 0 0 0 0 0 1:1 2:-0.054054054 3:-0.092436975 4:-0.79646018 5:-0.74039313 6:-0.78345662 7:-0.77353522 8:-0.79471849 
-0 0 9 0 0 0 9 0 0 0 0 0 0 0 0 0 0 0 0 0 0 0 0 0 0 1:1 2:-0.24324324 3:-0.24369748 4:-0.84955752 5:-0.7956437 6:-0.87357095 7:-0.89730086 8:-0.77379173 
-0 0 0 0 0 9 9 0 0 0 0 0 9 0 0 9 0 0 0 0 0 0 0 0 0 1:1 2:-0.44594595 3:-0.51260504 4:-0.88495575 5:-0.93802019 6:-0.95292535 7:-0.95260039 8:-0.9431988 
-9 0 9 9 9 0 0 9 9 9 9 0 0 0 0.22378532852482552 0 6.4173157397168756 9 0 2.2697851877152377 0 0 0 0 0 2:0.081081081 3:0.092436975 4:-0.76106195 5:-0.6571631 6:-0.76798924 7:-0.81698486 8:-0.63428002 
-9 0 9 9 9 0 0 9 7.2288057653319528 9 0 0 0 0 0 0 0 0 0 0 0 0 0 0 0 1:-1 2:0.094594595 3:0.042016807 4:-0.78761062 5:-0.57534974 6:-0.58170814 7:-0.69321922 8:-0.72396612 
-9 4.9748634162971799 9 9 9 0 2.1690178718965187 9 9 9 9 9 0 0 9 0 0 9 0 0 0 0 0 0 0 1:-1 2:0.24324324 3:0.17647059 4:-0.75221239 5:-0.42199398 6:-0.46065905 7:-0.54970375 8:-0.62630792 
-9 9 9 9 9 0 9 9 9 9 9 9 0 0 9 0 0 9 0 0 0 0 0 0 0 1:-1 2:0.27027027 3:0.22689076 4:-0.74336283 5:-0.45032761 6:-0.49764627 7:-0.59447005 8:-0.59441953 
-9 0 9 0 9 0 9 9 0 9 0 0 0 0 0 0 0 0 0 0 0 0 0 0 0 2:-0.16216216 3:-0.15966387 4:-0.81415929 5:-0.76660174 6:-0.81775387 7:-0.80513496 8:-0.8036871 
-0 0 9 0 0 0 9 0 0 0 0 0 0 0 0 0 0 0 0 0 0 0 0 0 0 1:1 2:-0.10810811 3:-0.15966387 4:-0.82300885 5:-0.80945635 6:-0.87155346 7:-0.84068466 8:-0.82162431 
-9 0 9 9 9 0 0 9 9 9 9 0 0 0 0 0 0 0 0 0 0 0 0 0 0 1:-1 2:0.22972973 3:0.17647059 4:-0.77876106 5:-0.53993271 6:-0.63618023 7:-0.57867018 8:-0.632287 
-0 0 9 0 9 0 0 9 0 0 0 0 0 0 0 0 0 0 0 0 0 0 0 0 0 1:1 2:0.054054054 3:-0.025210084 4:-0.80530973 5:-0.68868426 6:-0.76529926 7:-0.76300197 8:-0.76382661 
-9 0 9 0 9 0 0 9 0 0 0 0 0 0 0 0 0 0 0 0 0 0 0 0 0 1:1 2:0.054054054 3:0.058823529 4:-0.80530973 5:-0.68620506 6:-0.78143914 7:-0.74851876 8:-0.67214748 
-0 0 9 0 9 0 9 0 0 0 0 0 0 0 0 0 0 0 0 0 0 0 0 0 0 1:1 2:-0.081081081 3:-0.092436975 4:-0.82300885 5:-0.72870551 6:-0.77673167 7:-0.79065174 8:-0.75386148 
-9 0 9 0 9 0 0 9 0 0 0 0 0 0 0 0 0 0 0 0 0 0 0 0 0 1:1 2:0.14864865 3:0.058823529 4:-0.79646018 5:-0.59447494 6:-0.58977808 7:-0.70638578 8:-0.72197309 
-0 0 9 0 9 0 0 9 0 0 0 0 0 0 0 0 0 0 0 0 0 0 0 0 0 1:1 2:0.027027027 3:-0.0084033613 4:-0.81415929 5:-0.68655923 6:-0.71486214 7:-0.71955234 8:-0.78076731 
-9 0 9 9 9 0 0 9 9 9 3.9830996721841374 0 0 0 0 0 0 0 0 0.33833825543889717 0 0 0 0 0 1:-1 2:0.067567568 3:0.058823529 4:-0.7699115 5:-0.63130866 6:-0.73100202 7:-0.65108624 8:-0.67414051 
-0 0 9 0 9 0 0 0 0 0 0 0 0 0 0 0 0 0 0 0 0 0 0 0 0 1:1 2:-0.013513514 3:-0.025210084 4:-0.78761062 5:-0.74287232 6:-0.77874916 7:-0.78275181 8:-0.78375685 
-0 0 9 0 0 0 9 0 0 0 0 0 0 0 0 0 0 0 0 0 0 0 0 0 0 1:1 2:-0.054054054 3:-0.092436975 4:-0.80530973 5:-0.76518505 6:-0.76866174 7:-0.88281764 8:-0.8036871 
-0 0 0 0 0 0.079541229196959967 9 0 0 0 0 0 0 0 0 0 0 0 0 0 0 0 0 0 0 1:1 2:-0.17567568 3:-0.2605042 4:-0.83185841 5:-0.90401983 6:-0.88567586 7:-0.84726794 8:-0.88241156 
-0 0 9 0 9 0 0 9 0 0 0 0 0 0 0 0 0 0 0 0 0 0 0 0 0 1:1 2:0.054054054 3:0.0084033613 4:-0.81415929 5:-0.68833009 6:-0.72091459 7:-0.7445688 8:-0.76681614 
-0 0 9 0 9 0 9 0 0 0 0 0 0 0 0 0 0 0 0 0 0 0 0 0 0 1:1 2:-0.040540541 3:-0.092436975 4:-0.84070796 5:-0.70037188 6:-0.70948218 7:-0.77221856 8:-0.81365222 
-9 0 9 9 9 0 0 9 9 9 0 0 0 0 0 0 0 0 0 0 0 0 0 0 0 2:0.10810811 3:0.058823529 4:-0.79646018 5:-0.66247565 6:-0.7330195 7:-0.74983542 8:-0.74588939 
-9 0 9 9 9 0 0 9 0 0.98798330024382075 0 0 0 0 0 0 0 0 0 0 0 0 0 0 0 1:1 2:0.18918919 3:0.15966387 4:-0.77876106 5:-0.60297503 6:-0.66509751 7:-0.67346939 8:-0.66417539 
-0 0 9 0 0 0 9 0 0 0 0 0 0 0 0 0 0 0 0 0 0 0 0 0 0 1:1 2:-0.12162162 3:-0.14285714 4:-0.82300885 5:-0.91145741 6:-0.85877606 7:-0.81435155 8:-0.83358246 
-9 0 9 0 9 0 0 9 0 0 0 0 0 0 0 0 0 0 0 0 0 0 0 0 0 1:1 2:0.17567568 3:0.075630252 4:-0.82300885 5:-0.59164158 6:-0.68123739 7:-0.67873601 8:-0.65421026 
-0 0 0 0 0 9 9 0 0 0 0 0 0 0 0 9 0 0 0 0 0 0 0 0 0 1:1 2:-0.33783784 3:-0.37815126 4:-0.86725664 5:-0.87851957 6:-0.89912576 7:-0.9078341 8:-0.90333832 
-0 0 0 0 0 9 9 0 0 0 0 0 9 0 0 9 0 0 0 0 0 0 0 0 0 1:1 2:-0.45945946 3:-0.51260504 4:-0.88495575 5:-0.92810342 6:-0.93745797 7:-0.94733377 8:-0.9431988 
-9 0 9 0 9 0 0 9 0 0 0 0 0 0 0 0 0 0 0 0 0 0 0 0 0 1:1 2:0.054054054 3:0.058823529 4:-0.79646018 5:-0.62316274 6:-0.65030262 7:-0.74325214 8:-0.71798705 
-9 0 9 9 9 0 0 9 9 9 9 0 0 0 0 0 0 0 0 0 0 0 0 0 0 1:1 2:0.2027027 3:0.092436975 4:-0.79646018 5:-0.53072428 6:-0.5595158 7:-0.55365372 8:-0.71898356 
-9 0 9 0 9 0 0 9 0 0 0 0 0 0 0 0 0 0 0 0 0 0 0 0 0 1:-1 2:-0.040540541 3:-0.058823529 4:-0.78761062 5:-0.72020542 6:-0.73436449 7:-0.77353522 8:-0.79671151 
-9 9 9 9 9 0 0 9 9 9 9 9 0 0 9 0 0 9 0 9 0 0 0 1.0957375400171343 0 2:0.081081081 3:0.092436975 4:-0.75221239 5:-0.51336993 6:-0.57565568 7:-0.65503621 8:-0.61335326 
-9 0 9 9 9 0 0 9 9 9 9 9 0 0 9 0 0 9 0 0 0 0 0 0 0 2:0.081081081 3:0.042016807 4:-0.79646018 5:-0.60049584 6:-0.62340282 7:-0.69321922 8:-0.73692078 
-9 9 9 9 9 0 0 9 9 9 9 9 0 0 9 0 0 9 1.4001907941359566 0 0 0 0 0 0 2:0.28378378 3:0.24369748 4:-0.75221239 5:-0.32707632 6:-0.34297243 7:-0.48913759 8:-0.5675137 
-9 0 9 0 9 0 0 9 0 0 0 0 0 0 0 0 0 0 0 0 0 0 0 0 0 1:1 2:0.13513514 3:0.092436975 4:-0.7699115 5:-0.63839207 6:-0.70746469 7:-0.69585253 8:-0.68410563 
-0 0 9 0 0 0 9 0 0 0 0 0 0 0 0 0 0 0 0 0 0 0 0 0 0 1:1 2:-0.16216216 3:-0.19327731 4:-0.84955752 5:-0.82185231 6:-0.86281103 7:-0.84990125 8:-0.83358246 
-0 0 9 0 9 0 9 0 0 0 0 0 0 0 0 0 0 0 0 0 0 0 0 0 0 1:1 2:-0.054054054 3:-0.042016807 4:-0.82300885 5:-0.75243492 6:-0.78278413 7:-0.78538512 8:-0.81564524 
-9 0 9 0 9 0 0 9 0 9 0 0 0 0 0 0 0 0 0 0 0 0 0 0 0 1:-1 2:0.013513514 3:-0.025210084 4:-0.81415929 5:-0.70993448 6:-0.75924681 7:-0.70506912 8:-0.73393124 
-0 0 9 0 0 0 9 0 0 0 0 0 0 0 0 0 0 0 0 0 0 0 0 0 0 1:1 2:-0.2027027 3:-0.24369748 4:-0.83185841 5:-0.79847707 6:-0.79892401 7:-0.81961817 8:-0.8445441 
-0 0 9 0 0 0 9 0 0 0 0 0 0 0 0 0 0 0 0 0 0 0 0 0 0 1:1 2:-0.17567568 3:-0.22689076 4:-0.83185841 5:-0.82928989 6:-0.88096839 7:-0.82620145 8:-0.85351271 
-0 0 9 0 0 0 9 0 0 0 0 0 0 0 0 0 0 0 0 0 0 0 0 0 0 1:1 3:-0.14285714 4:-0.84070796 5:-0.7634142 6:-0.79219906 7:-0.76431863 8:-0.83258595 
-0 0 0 0 0 9 9 0 0 0 0 0 0 0 0 0 0 0 0 0 0 0 0 0 0 1:1 2:-0.22972973 3:-0.2605042 4:-0.83185841 5:-0.84770675 6:-0.88836584 7:-0.88676761 8:-0.82361734 
-0 0 9 0 9 0 9 0 0 0 0 0 0 0 0 0 0 0 0 0 0 0 0 0 0 1:1 2:-0.040540541 3:-0.092436975 4:-0.82300885 5:-0.74322649 6:-0.78950908 7:-0.78406847 8:-0.79372197 
-9 -9 9 9 9 0 1.0509096890472989 9 9 9 9 9 0 1.6407820304062215 9 0 0 9 9 0 0 0 0 0 0 2:0.54054054 3:0.57983193 4:-0.66371681 5:0.03523995 6:-0.11163416 7:-0.096774194 8:-0.13602392 
-9 -9 9 9 9 0 9 9 9 9 9 9 0 0 9 0 0.5342041315118462 9 0 0 0 0 0 0 0 1:-1 2:0.39189189 3:0.41176471 4:-0.71681416 5:-0.33168054 6:-0.48823134 7:-0.51678736 8:-0.46487294 
-9 -9 9 9 9 0 9 9 9 9 9 9 0 1.0599550333015346 9 0 9 9 9 7.0389211312811888 0 6.4916353730652974 0 0 0.098384999903567999 1:-1 2:0.41891892 3:0.49579832 4:-0.71681416 5:-0.28245086 6:-0.46402152 7:-0.54443713 8:-0.34529148 
-9 -9 9 9 9 0 9 9 9 9 9 9 0 0 9 0 0 9 9 0 0 0 0 0.32482434267038757 0 2:0.32432432 3:0.34453782 4:-0.69026549 5:-0.28386754 6:-0.54135844 7:-0.4562212 8:-0.30543099 
-9 -9 9 9 9 0 9 9 9 9 9 9 0 0 9 0 0 9 0 0.55539304282574609 0 0 0 0 0 1:-1 2:0.33783784 3:0.17647059 4:-0.71681416 5:-0.34655569 6:-0.53799597 7:-0.42593812 8:-0.41504733 
-9 -9 9 9 9 0 0 9 9 9 9 9 0 1.6281944413328531 9 0 9 9 9 5.0611749625101146 0 0.3028602776680353 0 8.8345629920570072 0 1:-1 2:0.66216216 3:0.66386555 4:-0.6460177 5:0.30653444 6:-0.016812374 7:0.24160632 8:0.13303438 
-9 -9 9 9 9 9 9 9 9 9 9 9 3.8870280906292014 0 9 9 1.9527794772694385 9 0 5.4183858793251218 0 0 0 0 0 1:-1 2:0.14864865 3:0.092436975 4:-0.72566372 5:-0.53391181 6:-0.64425017 7:-0.64186965 8:-0.57448929 
-9 -9 9 9 9 0 9 9 9 9 9 9 0 1.2777201254232895 9 0 9 9 9 0 0 0.64362853221751659 0 0 0 1:-1 2:0.5 3:0.54621849 4:-0.71681416 5:-0.28174252 6:-0.43443174 7:-0.35878868 8:-0.29546587 
-9 -9 9 9 9 9 9 9 9 9 9 9 0 0 9 0 9 9 9 9 0 0 0 1.9795413202135275 0 2:0.16216216 3:0.24369748 4:-0.75221239 5:-0.39932708 6:-0.63147276 7:-0.57340355 8:-0.43497758 
-9 -9 9 9 9 0 0 9 9 9 9 9 0 0 9 0 0 9 6.2472428752997153 9 0 0 0 0 7.1692492303907294 2:0.63513514 3:0.66386555 4:-0.69026549 5:0.27217992 6:0.094821789 7:0.032258065 8:-0.096163428 
-9 -9 9 9 9 0 9 9 9 9 9 9 0 0 9 0 0 9 9 0 0 0 0 0 0.16243690728767241 2:0.43243243 3:0.44537815 4:-0.7079646 5:-0.28563839 6:-0.41627438 7:-0.45095458 8:-0.40508221 
-9 -9 9 9 9 0 0 9 9 9 9 9 0 3.2606544997272873 9 0 3.6081922493506893 9 9 9 1.1244599447328902 0.19131309735881957 0 1.6746720055202622 1.5699288624180308 2:0.63513514 3:0.76470588 4:-0.6460177 5:0.26438817 6:-0.21452589 7:0.1915734 8:0.19282511 
-9 -9 9 9 9 0 0 9 9 9 9 9 0 0.26369820551171097 9 0 5.6599144693746561 9 0.84384995755550873 0.87945063658954559 0 0 0 0 0 1:-1 2:0.67567568 3:0.73109244 4:-0.59292035 5:0.33380556 6:0.16408877 7:0.1441738 8:-0.0064773293 
-9 -9 9 9 9 0 9 9 9 9 9 9 0 0 9 0 9 9 5.8850673295408171 9 0 0.84561876798444047 0 0 0 1:-1 2:0.25675676 3:0.19327731 4:-0.74336283 5:-0.30086772 6:-0.62273033 7:-0.44042133 8:-0.29546587 
-9 -9 9 9 9 9 9 9 9 9 9 9 2.6901617280111183 0 9 5.8339688027020884 6.8838092088140854 9 0.78398807660920755 9 0 0 2.9298196431921575 0 0 2:0.22972973 3:0.19327731 4:-0.7079646 5:-0.42659819 6:-0.67854741 7:-0.55628703 8:-0.52466368 
-9 -9 9 9 9 0 9 9 9 9 9 9 0 4.5583838102207617 9 0 9 9 9 0 7.8755400552671091 0.30768477975578401 0 5.1863993395388173 0 2:0.41891892 3:0.41176471 4:-0.68141593 5:-0.16522047 6:-0.41694687 7:-0.34957209 8:-0.15595416 
-9 -9 9 9 9 5.6095684230956682 9 9 9 9 9 9 0 0 9 0 8.3611004636792838 9 9 8.0466743474682865 0 0 0 0 0 2:0.39189189 3:0.32773109 4:-0.71681416 5:-0.36391004 6:-0.5198386 7:-0.59052008 8:-0.37518685 
-9 -9 9 9 9 0 5.9002182813015285 9 9 9 9 9 0 4.310611854076341 9 0 0 9 9 0 0 0.21725917195010747 0 0 0 1:-1 2:0.40540541 3:0.34453782 4:-0.65486726 5:-0.058969364 6:-0.38332213 7:-0.14944042 8:-0.31539611 
-9 -9 9 9 9 0 9 9 9 9 9 9 0 0 9 0 0 9 4.2398517609947515 0 0 0 0 0 0 2:0.36486486 3:0.36134454 4:-0.73451327 5:-0.2962635 6:-0.42434432 7:-0.44305464 8:-0.48480319 
-9 -0 -0 9 9 0 0 9 0 9 0 0 0 0 0 0 0 0 0 0 0 0 0 0 0 2:0.35135135 3:0.42857143 4:-0.73451327 5:-0.36603506 6:-0.43174176 7:-0.49967084 8:-0.50871948 
-9 -0 -0 9 9 0 0 9 9 9 0 0 0 0 9 0 0 0 0 0 0 0 0 0 0 2:0.36486486 3:0.32773109 4:-0.74336283 5:-0.19603329 6:-0.25016812 7:-0.42198815 8:-0.42501246 
-0 -9 -0 0 9 0 0 0 0 0 0 0 0 0 0 0 0 0 0 0 0 0 0 0 0 1:1 2:0.22972973 3:0.092436975 4:-0.77876106 5:-0.5650788 6:-0.60860794 7:-0.70375247 8:-0.63428002 
-9 -9 -0 0 9 0 0 9 0 0 0 0 0 0 0 0 0 0 0 0 0 0 0 0 0 1:1 2:0.17567568 3:0.17647059 4:-0.77876106 5:-0.52009917 6:-0.53530599 7:-0.63396972 8:-0.64025909 
-9 -0 -0 9 9 0 0 9 0 9 0 0 0 0 0 0 0 0 0 0 0 0 0 0 0 2:0.40540541 3:0.37815126 4:-0.73451327 5:-0.22188773 6:-0.27303295 7:-0.56418697 8:-0.47483807 
-9 -0 -0 9 9 0 0 9 0 9 0 0 0 0 0 0 0 0 0 0 0 0 0 0 0 2:0.24324324 3:0.31092437 4:-0.77876106 5:-0.38338941 6:-0.4404842 7:-0.47728769 8:-0.52466368 
-9 -0 -0 0 9 0 0 9 0 9 0 0 0 0 0 0 0 0 0 0 0 0 0 0 0 2:0.28378378 3:0.2605042 4:-0.75221239 5:-0.40641048 6:-0.49697377 7:-0.42725477 8:-0.61534629 
-9 -0 -0 9 9 0 0 9 0.46681873230869714 9 0 0 0 0 0 0 0 0 0 0 0 0 0 0 0 1:-1 2:0.35135135 3:0.36134454 4:-0.7079646 5:-0.35293076 6:-0.46267653 7:-0.3522054 8:-0.52765321 
-9 -0 -0 9 9 0 0 9 0 9 0 0 0 0 0 0 0 0 0 0 0 0 0 0 0 2:0.44594595 3:0.36134454 4:-0.72566372 5:-0.32353462 6:-0.42905178 7:-0.48123766 8:-0.47483807 
-9 -0 -0.66204653716984008 9 9 0 0 9 9 9 9 0 0 0 9 0 0 8.887414310445422 0 0 0 0 0 0 0 1:-1 2:0.41891892 3:0.37815126 4:-0.68141593 5:-0.15636621 6:-0.30934768 7:-0.17182357 8:-0.39412058 
-9 -9 -0 0 9 0 0 9 0 0 0 0 0 0 0 0 0 0 0 0 0 0 0 0 0 2:0.16216216 3:0.092436975 4:-0.7699115 5:-0.51053657 6:-0.47545393 7:-0.68663594 8:-0.70104634 
-9 -0 -0 9 9 0 0 9 9 9 9 9 0 0 9 0 0 9 1.8638038965713073 0 0 0 0 0 0 1:1 2:0.41891892 3:0.42857143 4:-0.69911504 5:-0.35151408 6:-0.49024882 7:-0.41540487 8:-0.42501246 
-9 -0 -0 9 9 0 0 9 0 9 0 0 0 0 0 0 0 0 0 0 0 0 0 0 0 1:-1 2:0.55405405 3:0.44537815 4:-0.75221239 5:-0.16911634 6:-0.36247478 7:-0.36010533 8:-0.57448929 
-0 -0 -0 0 9 0 0 9 0 0 0 0 0 0 0 0 0 0 0 0 0 0 0 0 0 1:1 2:0.22972973 3:0.15966387 4:-0.77876106 5:-0.56437046 6:-0.6260928 7:-0.66688611 8:-0.6243149 
-0 -9 -0 0 9 0 0 0 0 0 0 0 0 0 0 0 0 0 0 0 0 0 0 0 0 1:1 2:0.13513514 3:0.075630252 4:-0.78761062 5:-0.584204 6:-0.58776059 7:-0.68136932 8:-0.72296961 
