svm_type c_svc
kernel_type polynomial
degree 3
gamma 0.125
coef0 0
nr_class 26
total_sv 2491
rho -0.67071352073297785 -0.68345758037815663 -0.3735793666507623 -0.85832959740921921 0.088555890945176394 -8.3734655918770091 -0.20725751764808603 1.0010083747868783 -0.11574700156881036 -1.0676572630297758 -0.46701524689193813 -0.75213126793630847 -2.8964624508052328 -0.28171346282402121 -0.097219117185844417 -4.4850286269943576 -0.65271786684141042 0.48786600162636279 0.70146950791025908 0.53803752933049676 -0.15100064957625139 -1.5231035697069475 -2.0405061058308891 -0.40152437053145829 -5.0268018639252521 1.2910072178292058 1.5172337734959733 2.8485111067389868 1.2200274994948335 -6.7922423346388774 -1.5730810041220709 1.183476168934614 2.2870659766370389 1.3582276543159935 3.9642482860118684 1.2214272154016645 -13.825057845837724 0.19335882778143218 2.3442102799170992 -1.1586209330236152 -0.39557746425370516 0.57267697064441203 1.1033574864892637 -0.77055213018416746 -0.46194509759334201 -1.1955939430105338 -3.8806449299474735 -0.40432415039087266 -1.6490153890064456 1.1253913392052863 0.80396239338419406 0.97323002926470292 -1.6769864352543442 0.42367651800801126 1.0139676400511601 0.66954790942717546 1.1922904532157501 1.7103397694198765 -0.8429985788965707 -1.1150740774633061 -0.85827771599989722 3.4551204951126793 -1.401449841014494 -4.2655690123314693 0.3043641507580031 0.026829104992214747 -0.57872255612139623 -1.5405888653138142 0.85404880006670281 -1.0549590420654706 -0.6725381016523776 -2.968438884955563 0.14710729948368034 0.98079487840305613 -8.3370231205895742 -2.1050680671740043 1.0840826005773765 -0.50243278748276732 -0.095779306700529157 0.42120827298607422 -0.93267437267982689 -6.4421641009259476 -0.42425028271954368 -0.03977033437858285 -2.070926586318353 -1.628580044388654 -2.1746119785753857 -1.0033007023798313 -1.281418402659706 -0.51167801615714759 -1.4137642117093243 -3.0234384634761393 -1.7832937416458721 -1.5589884246792332 1.6203221638982972 -11.404332540328092 -3.4035228986273878 1.1886290700735369 0.24532540015036555 0.32706970585394657 -0.95571528154145158 -0.9151373723953673 -1.9574930171946039 -0.69733085655624605 -0.13535199289030703 -3.0159511245955786 -1.2224440701159496 -0.64611041558545745 -0.71828703356597157 -0.70692745920310618 -1.1959915027299233 -0.19228462149540534 -1.5481929374428569 -0.11164089567509861 -4.4556712420004647 -10.835836159958772 -1.7563938886856418 1.1110512595637194 -0.66061277117114015 -0.91577783908526611 -0.7129848740907252 -0.344351918014563 -6.3400772024805319 -0.17028914323454122 -0.72995943965771604 -20.974788653558907 -2.4756726332334904 -1.0527798167953637 -0.048041824255680578 -0.77128659806571376 -0.96643965304697743 -0.64452588889973961 -2.9721965513147657 -0.6152060375420686 -2.6657491801140871 4.8286570984399413 6.9585120390594106 7.2801128996049966 7.0324007591764461 6.1308500427628463 3.6747729691929423 -4.4106430687764373 0.92430595118285519 2.083351791868024 -5.2401255230770349 2.0826176875675326 7.6160071126247191 1.8811789962233394 1.7023738542242506 0.96261993987510419 0.76311964543916488 -23.950375474326364 1.0316678154516361 0.80944633910035357 2.1647526949468254 3.0906288099053811 2.349207197046788 1.1500150386358512 2.1310967267316405 -39.614374141359839 -0.42209638862299192 1.5742743765599039 -13.072458852841107 0.64528694671905729 3.2662643637941793 -0.12943212773295157 0.6702776041737053 -0.36330346304902084 -1.1360598114000169 -16.27630681542243 -0.028236533120884751 -1.2937621725906729 0.30320085632749916 -0.93890581666270989 -0.22208293275769597 -0.57765366474886848 -3.3401200543127727 -0.40914422616998508 -1.1407117286353039 -4.7365521053522981 -1.9774343936149466 -0.81372595355512922 -1.2309948432055011 -0.88970111531317364 -0.49109317366147665 -3.3278397288616892 -2.2186422492190081 -0.69059158599810244 -5.6699521998827169 -0.98722390709798102 -1.0085309116140702 -1.8694895397162032 -2.2726647970498726 0.16861541484225798 -0.055909187245393739 -3.4918928380488858 -2.8370568227940076 -0.33884884648362551 -1.0422586249202239 -0.98309088393244337 -2.5505112494166369 -4.2550793663788191 -1.79209754853655 -0.68209213013251135 -3.3610624562392264 -0.20209510038634343 -0.74925199470758386 -2.0919813616646259 0.18415159376590909 0.4056933942637333 -7.386725732292291 -2.9805590983250876 0.35397848686764644 0.84432215656872933 -0.25779503634878964 -0.36315999468510191 -6.1906016914147806 -1.6048875659041408 -0.79345397361233883 -3.4812421715092143 -0.97546022196404614 -1.6002852375890626 -1.1759096168317398 0.57953743228207155 -2.5097619525266905 -3.0153083627079922 -0.15234152364091169 -1.6712129788046295 -1.5131460435017741 -0.057806418481694481 -1.775605437465315 -1.385374211802247 0.30509358054842978 -3.7788805794050297 -1.4319784588938484 0.068305130501384315 1.3809179052850329 -2.6344933456084907 -2.7071315516094026 -0.61322355277755247 1.3815308776075919 1.0582825192926368 -1.4512235502910413 -1.8250650033588116 -1.2479551332306424 -0.010128737833986514 -2.9884540246566087 0.97864522919874153 1.2504331990554138 3.8843863434417054 1.2476824400668101 1.7393256609109724 1.1424239991942133 1.1786044467699688 0.9841876891138196 0.89986479908199002 -22.40110563996118 1.0021695990085522 0.95257879384162036 1.2592672345229687 -0.96353461743658042 -1.3295620714364773 0.66816738799391262 -0.69355113383448308 -0.81340569685487218 0.43093665187950858 -1.8027422007810936 -0.98883645024272793 0.17388033756961982 -1.4730467913434395 -1.4966643243629469 -4.1455824316778465 0.24571231783438108 -4.1879171260539891 -1.9127772257605304 -1.3861168823771304 -4.7366852573713496 -1.1325502330499027 -0.67897757108448809 -6.4000317497156463 1.5394814059066373 2.3906813167748551 1.2373516637467503 1.3658998344871143 0.97752014705457857 0.90569732387404811 -17.753007793077863 1.0142105595682207 0.9115305373683591 2.1185798386602537 4.189610888971429 2.6739934743201101 -0.43487021491566502 -1.8434349125927332 -1.1171579117786785 0.55598638612952456 -1.1004792051358636 0.62142041290381012 -3.00918365758048 -0.069502509543866081 -2.4438542882335739 -1.4158598310505597 -0.038170273962658104 -3.7445685071389216 -2.7211304064621182 -0.89749360724764349 -4.1197698414627775 -1.1293377998914584 0.065335877052175195 -2.402333324380622 0.57141174136737927 -0.6195607969034953 -1.0857002512546547 0.20196896800717154 -0.82892512799362339 -1.0197475572397203 -0.99110071377098996 0.037107681209576804 -0.99989854551609503 -0.92481206111675784 1.0583835617908195 0.63539001559557473 0.99950147336767148 0.97546026373258754 -0.6375854823578152
label 11 7 19 8 13 9 5 6 10 14 12 15 18 3 22 17 4 21 16 20 23 25 26 2 27 29
nr_sv 277 252 19 341 116 428 72 151 379 71 156 56 28 6 2 37 30 9 34 13 8 1 1 1 2 1
SV
0 0 0 6561 6561 0 0 6561 0 0 0 0 0 0 0 0 0 0 0 0 0 0 0 0 0 1:-1 2:0.55405405 3:0.51260504 4:-0.69911504 5:0.10324066 6:-0.066577001 7:-0.075707702 8:-0.21574489 
0 0 0 6429.3442763844496 3146.2799503109118 0 0 6561 0 6561 3778.2078481866643 1404.6030177562154 0 0 0 0 0 0 0 0 0 0 0 0 0 2:0.59459459 3:0.54621849 4:-0.67256637 5:-0.051885957 6:-0.24882313 7:-0.22975642 8:-0.13104136 
6561 0 6561 0 6561 0 4134.4799366850466 6561 0 0 0 0 0 0 5797.1779703003167 0 0 1095.9379027356781 0 0 0 0 0 0 0 2:0.040540541 3:0.092436975 4:-0.7699115 5:-0.54878697 6:-0.59784802 7:-0.59973667 8:-0.68410563 
6561 0 6561 0 6561 0 0 6561 0 6561 0 0 0 0 0 0 0 0 0 0 0 0 0 0 0 2:0.2027027 3:0.17647059 4:-0.78761062 5:-0.55728706 6:-0.64559516 7:-0.62870309 8:-0.64225212 
0 0 6080.2365472140564 6561 6561 0 0 6561 6561 0 0 0 0 0 3734.8567354222778 0 0 0 0 0 0 0 0 0 0 1:-1 2:0.47297297 3:0.37815126 4:-0.66371681 5:-0.051177616 6:-0.23402824 7:-0.16524029 8:-0.29546587 
731.66210318432627 60.426352863429678 0 6561 0 0 0 1925.608339156224 613.92700399177477 6561 0 3506.9564426165807 0 0 6561 0 0 6561 373.07650563579983 0 0 0 0 0 2942.7581214394531 2:0.75675676 3:0.83193277 4:-0.6460177 5:0.22897114 6:-0.063887021 7:-0.057274523 8:0.18285999 
6561 0 6561 3349.2762420565409 6561 6123.0360807885809 6561 6561 5068.9945265764045 6561 0 0 26.275835443451022 0 0 0 13.390917058888446 0 0 192.45703297129219 0 0 7.7907181528134117 0 0 1:1 2:-0.24324324 3:-0.24369748 4:-0.82300885 5:-0.84026917 6:-0.87558843 7:-0.88150099 8:-0.83358246 
6561 0 6561 6561 6561 0 0 6561 2095.7692969335762 6561 6561 0 0 0 0 0 0 0 0 0 0 0 0 0 0 1:-1 2:0.027027027 3:0.0084033613 4:-0.7699115 5:-0.63662121 6:-0.73234701 7:-0.66556945 8:-0.65421026 
0 0 0 6561 6561 0 0 6561 6561 0 0 0 0 0 0 0 0 5342.9582606162776 0 0 0 0 0 0 0 2:0.18918919 3:0.24369748 4:-0.76106195 5:-0.49707809 6:-0.64290518 7:-0.57867018 8:-0.50473343 
0 0 0 0 0 0 0 6561 1554.2690689763078 6561 0 0 0 0 0 0 0 0 0 0 0 0 0 0 0 1:-1 2:0.82432432 3:0.68067227 4:-0.61946903 5:0.55764123 6:0.4263618 7:0.37722186 8:0.050323866 
0 0 6561 0 6561 0 0 6561 0 1433.0419439555344 0 3037.0541203391253 0 0 0 0 0 0 0 0 0 0 0 0 0 2:0.25675676 3:0.41176471 4:-0.72566372 5:-0.3440765 6:-0.47141896 7:-0.49045425 8:-0.48480319 
6561 0 6561 0 6561 0 615.87517584675822 6561 5137.3544588216337 0 0 0 0 0 0 0 0 0 0 0 0 0 0 0 0 1:-1 2:0.14864865 3:0.12605042 4:-0.7699115 5:-0.49920312 6:-0.63147276 7:-0.55892034 8:-0.64424514 
0 0 6561 0 6561 0 0 6561 0 0 0 0 0 0 0 0 0 0 0 0 0 0 0 0 0 2:0.35135135 3:0.31092437 4:-0.76106195 5:-0.37595183 6:-0.48890383 7:-0.46543779 8:-0.48480319 
0 0 0 0 0 0 0 6561 0 6561 0 0 0 0 0 0 0 0 0 0 0 0 0 0 0 2:0.74324324 3:0.71428571 4:-0.68141593 5:0.216221 6:0.13718897 7:0.07044108 8:-0.23069258 
0 0 0 0 0 0 0 0 0 6561 0 0 0 0 0 0 0 0 0 0 0 0 0 0 0 1:-1 2:0.78378378 3:0.73109244 4:-0.69026549 5:0.33026386 6:0.22192334 7:0.017774852 8:-0.030393622 
0 0 6561 0 6561 0 0 6561 0 0 0 0 0 0 0 0 0 0 0 0 0 0 0 0 0 1:-1 2:0.44594595 3:0.39495798 4:-0.73451327 5:-0.1779706 6:-0.24142569 7:-0.32192232 8:-0.3881415 
0 0 0 0 3174.6864947316394 0 0 6561 0 0 0 0 0 0 0 0 0 0 0 0 0 0 0 0 297.52085227070262 2:0.82432432 3:0.66386555 4:-0.65486726 5:0.29661767 6:0.11499664 7:-0.037524687 8:-0.12605879 
0 139.2958681763451 2343.0963875533503 6561 0 0 0 6561 6561 6561 6561 6561 0 19.278057654179328 6561 0 1992.7249867053774 4658.7192085236329 323.75999860036279 0 0 0 0 46.409226071318095 0 1:-1 2:0.68918919 3:0.68067227 4:-0.6460177 5:0.31468036 6:-0.019502354 7:-0.036208032 8:0.18285999 
0 0 6561 0 6561 0 0 6561 0 6561 0 0 0 0 0 0 0 0 0 0 0 0 0 0 0 1:-1 2:0.51351351 3:0.4789916 4:-0.73451327 5:-0.23570037 6:-0.35238736 7:-0.3640553 8:-0.38515197 
0 0 2937.2924832919543 0 6561 0 0 6561 0 0 0 0 0 0 0 0 0 0 0 0 0 0 0 0 0 2:0.51351351 3:0.51260504 4:-0.7079646 5:-0.11528245 6:-0.22528581 7:-0.40355497 8:-0.2406577 
0 0 0 2933.2558180845754 0 82.731869159528316 0 0 0 6561 0 0 0 0 0 0 0 0 0 0 0 0 0 0 0 1:-1 2:0.7972973 3:0.81512605 4:-0.66371681 5:0.64441296 6:0.54472091 7:0.34562212 8:0.0034877927 
0 0 0 0 6561 0 0 6561 0 0 0 0 0 0 0 0 0 0 0 0 0 0 0 0 0 2:0.58108108 3:0.57983193 4:-0.6460177 5:0.03488578 6:-0.12373907 7:-0.21263989 8:-0.16193323 
0 6561 0 6561 6561 0 0 6561 6561 6561 6561 0 0 1333.7165539587772 6561 0 0 6561 6089.5468730359498 811.64976673994408 0 0 0 0 0 1:-1 2:0.33783784 3:0.42857143 4:-0.69026549 5:-0.16203294 6:-0.36381977 7:-0.31402238 8:-0.24564026 
0 0 0 0 0 0 0 6561 0 3920.0528894895174 0 0 0 0 0 0 0 0 0 0 0 0 0 0 0 1:-1 2:0.71621622 3:0.71428571 4:-0.6460177 5:0.1326368 6:-0.051782112 7:-0.1560237 8:-0.10612855 
0 0 0 0 0 0 0 6561 0 0 0 0 0 0 0 0 0 0 0 0 0 0 0 0 0 2:0.45945946 3:0.57983193 4:-0.72566372 5:-0.26580485 6:-0.4270343 7:-0.39170507 8:-0.31539611 
6540.1308837140259 0 6561 0 6561 0 0 6561 0 0 0 0 0 0 0 0 0 0 0 0 0 0 0 0 0 2:0.41891892 3:0.37815126 4:-0.72566372 5:-0.26474234 6:-0.36180229 7:-0.34298881 8:-0.4449427 
0 0 0 6561 0 0 0 1926.5149760712725 0 2263.8887366253552 0 0 0 0 0 0 0 0 0 0 0 0 0 0 0 2:0.77027027 3:0.76470588 4:-0.66371681 5:0.22932531 6:-0.088769334 7:0.14285714 8:0.033383159 
0 0 0 6561 0 0 0 6561 6561 6561 6561 235.72434840240908 0 1856.6746044227616 6561 0 0 0 0 0 0 0 0 0 0 1:-1 2:0.55405405 3:0.56302521 4:-0.62831858 5:0.1875332 6:-0.10490921 7:-0.19025675 8:-0.086198306 
1828.684443042041 0 6561 3474.7518442576365 6561 0 0 6561 6561 6561 0 0 0 0 0 0 0 0 2091.3875509684349 0 0 0 0 0 0 1:1 2:0.2972973 3:0.24369748 4:-0.68141593 5:-0.38161856 6:-0.50437122 7:-0.47333772 8:-0.49476831 
0 0 0 0 0 0 0 6561 0 6561 0 143.03493561792018 0 0 4790.8900906528897 0 0 0 0 0 0 0 0 0 0 2:0.67567568 3:0.61344538 4:-0.6460177 5:0.12165752 6:-0.10423672 7:-0.12179065 8:-0.064275037 
0 0 0 0 6561 0 0 6561 0 6561 0 0 0 0 0 0 0 0 0 0 0 0 0 0 0 2:0.56756757 3:0.51260504 4:-0.65486726 5:0.018948114 6:-0.07599193 7:0.00065832785 8:-0.27952167 
566.32037940560201 0 6561 0 6561 0 0 6561 0 0 0 0 0 0 0 0 0 0 0 0 0 0 0 0 0 1:-1 2:0.55405405 3:0.49579832 4:-0.72566372 5:-0.14999115 6:-0.24142569 7:-0.17577354 8:-0.41704036 
6561 0 6561 0 6561 0 0 6561 0 0 0 0 0 0 0 0 0 0 0 0 0 0 0 0 0 1:1 2:0.28378378 3:0.2605042 4:-0.74336283 5:-0.44218169 6:-0.49764627 7:-0.55102041 8:-0.55854509 
0 0 2697.9024411323007 6561 6561 0 0 6561 0 524.6449884370063 0 0 0 0 0 0 0 0 0 0 0 0 0 0 0 1:1 2:0.28378378 3:0.31092437 4:-0.74336283 5:-0.4467859 6:-0.59179556 7:-0.58788677 8:-0.47483807 
0 0 0 6561 6561 0 0 6561 6561 6561 6561 0 0 0 5623.0935796686044 0 1196.7728858624096 6561 0 0 0 0 0 0 0 2:0.14864865 3:0.075630252 4:-0.79646018 5:-0.58030813 6:-0.75252186 7:-0.61158657 8:-0.6243149 
6561 0 6561 0 6561 0 6561 6561 0 4320.5753938194393 0 0 0 0 0 0 0 0 0 0 0 0 0 0 0 1:-1 2:0.12162162 3:0.14285714 4:-0.75221239 5:-0.61253763 6:-0.70342972 7:-0.66556945 8:-0.70403587 
0 0 6561 0 6561 0 0 6561 0 6561 0 0 0 0 0 0 0 0 0 0 0 0 0 0 0 2:0.48648649 3:0.51260504 4:-0.69026549 5:-0.18682486 6:-0.26496301 7:-0.32718894 8:-0.3961136 
0 0 6561 0 6561 0 0 6561 0 0 0 0 0 0 0 0 0 0 0 0 0 0 0 0 0 1:-1 2:0.35135135 3:0.34453782 4:-0.72566372 5:-0.28386754 6:-0.37121722 7:-0.45227123 8:-0.41504733 
0 0 0 6561 0 0 0 6561 0 0 0 0 0 0 0 0 0 0 0 0 0 0 0 0 0 1:-1 2:0.60810811 3:0.57983193 4:-0.7079646 5:0.13794935 6:-0.08406187 7:-0.17314022 8:-0.20478326 
0 0 0 0 0 0 0 6561 0 6561 0 0 0 0 0 0 0 0 0 0 0 0 0 0 0 1:-1 2:0.67567568 3:0.6302521 4:-0.65486726 5:0.19638746 6:0.031607263 7:-0.045424621 8:-0.055306428 
0 0 0 6561 6561 0 0 6561 6476.4973516943564 6561 6561 0 0 0 0 0 0 418.61566970498797 0 0 0 1596.4221129754026 0 0 0 1:-1 2:0.5 3:0.54621849 4:-0.69026549 5:-0.15459536 6:-0.33960995 7:-0.35088874 8:-0.2655705 
0 0 0 0 0 0 0 6561 0 2199.3999505576949 0 0 0 0 0 0 0 0 0 0 0 0 0 0 0 1:-1 2:0.54054054 3:0.57983193 4:-0.71681416 5:0.066406942 6:0.0013449899 7:-0.35615537 8:-0.14100648 
6561 0 6561 0 6561 0 0 6561 0 6561 0 0 0 0 0 0 0 0 0 0 0 0 0 0 0 2:0.27027027 3:0.19327731 4:-0.77876106 5:-0.5101824 6:-0.60121049 7:-0.61685319 8:-0.58445441 
0 0 230.1768962314878 6561 6561 0 0 6561 0 6561 0 0 0 0 0 0 0 0 0 0 0 0 0 0 0 2:0.28378378 3:0.2605042 4:-0.72566372 5:-0.44536922 6:-0.61264291 7:-0.40355497 8:-0.53861485 
0 0 6561 770.93372892310754 6561 0 0 6561 0 6561 0 0 0 0 0 0 0 0 0 0 0 0 0 0 0 2:0.32432432 3:0.31092437 4:-0.77876106 5:-0.41313972 6:-0.57969065 7:-0.53127057 8:-0.54459392 
0 2067.5555849106277 0 6561 6561 0 0 6561 6561 6561 6207.9713092640741 4490.4026097996057 0 0 0 0 1913.8547707201719 5619.5562421616796 0 4698.3589801438929 0 0 0 0 0 2:0.081081081 3:0.092436975 4:-0.74336283 5:-0.59766248 6:-0.77673167 7:-0.69058591 8:-0.63029397 
0 3593.3956352300265 6561 3580.8787176285077 6561 0 0 6561 6561 6561 4650.0415164513042 0 0 0 0 0 0 0 0 0 0 0 0 0 0 1:-1 2:0.31081081 3:0.27731092 4:-0.68141593 5:-0.37170179 6:-0.51714862 7:-0.46412113 8:-0.50473343 
0 0 0 0 0 0 0 6561 0 2881.8638177031617 0 0 0 0 0 0 0 0 0 0 0 0 0 0 0 2:0.67567568 3:0.69747899 4:-0.61061947 5:0.29768018 6:0.13584398 7:0.10994075 8:-0.096163428 
0 0 0 6561 0 0 0 6561 0 0 0 2216.2880799997538 0 0 0 0 0 0 0 0 0 0 0 0 0 1:-1 2:0.68918919 3:0.64705882 4:-0.67256637 5:0.14149106 6:0.0073974445 7:0.06122449 8:-0.26856004 
0 0 6561 6561 6561 0 0 6561 0 6561 0 0 0 0 0 0 0 0 0 0 0 0 0 0 0 1:-1 2:0.2972973 3:0.32773109 4:-0.74336283 5:-0.35328493 6:-0.46334902 7:-0.35352205 8:-0.43497758 
0 0 0 0 6561 0 0 6561 0 2520.8909091542805 0 0 0 0 0 0 0 0 0 0 0 0 0 0 0 2:0.48648649 3:0.54621849 4:-0.72566372 5:-0.17726226 6:-0.34566241 7:-0.31928901 8:-0.29546587 
0 0 0 6561 6561 0 0 6561 6561 6561 0 4194.0187674380741 0 0 6561 0 0 6561 0 0 0 0 0 0 0 2:0.56756757 3:0.49579832 4:-0.63716814 5:0.080927926 6:-0.16543376 7:-0.020408163 8:-0.099152965 
6561 0 6561 0 6561 0 0 6561 0 6561 0 0 0 0 0 0 0 0 0 0 0 0 0 0 0 2:-0.013513514 3:0.0084033613 4:-0.79646018 5:-0.70745529 6:-0.78816409 7:-0.75773535 8:-0.74190334 
0 0 0 1921.6553938400868 0 0 0 201.280107586231 2871.3190066515144 6561 0 0 0 0 0 0 0 0 0 0 0 0 0 0 0 1:-1 2:0.7027027 3:0.68067227 4:-0.61946903 5:0.51514078 6:0.40618695 7:0.0072416063 8:0.049327354 
6561 0 6561 0 6561 0 0 6561 0 0 0 0 0 0 0 0 0 0 0 0 0 0 0 0 0 1:1 2:0.28378378 3:0.22689076 4:-0.79646018 5:-0.52824509 6:-0.60793544 7:-0.640553 8:-0.58644743 
0 0 6561 6561 6561 0 0 6561 0 0 0 0 0 0 0 0 0 0 0 0 0 0 0 0 0 2:0.41891892 3:0.37815126 4:-0.71681416 5:-0.19886665 6:-0.37457969 7:-0.24160632 8:-0.40906826 
0 0 0 6561 6561 0 0 6561 6561 0 0 0 0 0 0 0 0 6561 0 0 0 0 0 0 0 1:-1 2:0.36486486 3:0.36134454 4:-0.68141593 5:-0.19036657 6:-0.35574983 7:-0.2718894 8:-0.3552566 
0 0 6561 0 6561 0 0 6561 0 6561 0 0 0 0 0 0 0 0 0 0 0 0 0 0 0 2:0.52702703 3:0.44537815 4:-0.67256637 5:0.0040729591 6:-0.095494284 7:-0.088874259 8:-0.35426009 
0 0 6561 6561 6561 0 0 6561 0 0 0 0 0 0 0 0 0 0 0 0 0 0 0 0 0 1:1 2:0.36486486 3:0.31092437 4:-0.73451327 5:-0.37347264 6:-0.48621385 7:-0.45095458 8:-0.49476831 
0 0 0 0 6561 0 0 6561 0 0 0 0 0 0 0 0 0 0 0 0 0 0 0 0 0 1:-1 2:0.54054054 3:0.56302521 4:-0.69026549 5:0.15742872 6:0.046402152 7:-0.10072416 8:-0.14200299 
0 0 6561 0 6561 0 0 6561 6561 6561 0 0 0 0 0 0 0 0 0 0 0 0 0 0 0 1:-1 2:0.14864865 3:0.19327731 4:-0.73451327 5:-0.53249513 6:-0.62273033 7:-0.640553 8:-0.56452417 
0 0 0 0 6561 0 0 6561 0 6561 0 0 0 0 0 0 0 0 0 0 0 0 0 0 0 1:-1 2:0.60810811 3:0.54621849 4:-0.7079646 5:-0.17017886 6:-0.2938803 7:-0.25082291 8:-0.37319382 
6561 0 6561 6561 6561 0 0 6561 6561 0 0 2396.4438956238005 0 0 2046.3353367422073 0 0 1846.9878726792281 0 0 0 0 0 0 0 2:0.12162162 3:0.075630252 4:-0.76106195 5:-0.567558 6:-0.65770007 7:-0.73271889 8:-0.56452417 
0 0 0 0 2851.7471328476345 0 0 3516.6748617476151 6561 6561 0 0 0 0 0 0 0 0 0 0 0 0 0 0 0 1:-1 2:0.74324324 3:0.71428571 4:-0.66371681 5:0.47264034 6:0.4532616 7:0.1323239 8:-0.0004982561 
0 0 0 0 6561 0 0 6561 0 6561 0 0 0 0 0 0 0 0 0 0 0 0 0 0 0 2:0.64864865 3:0.6302521 4:-0.71681416 5:0.17974146 6:0.11903161 7:-0.0072416063 8:-0.05630294 
6561 0 6561 0 6561 3675.4879139815494 6561 6561 0 0 0 0 0 0 0 0 0 0 0 0 0 0 0 0 0 1:1 2:0.054054054 3:-0.042016807 4:-0.80530973 5:-0.7563308 6:-0.80968393 7:-0.80908492 8:-0.77777778 
0 0 6561 0 6561 0 0 6561 0 6561 0 0 0 0 0 0 0 0 0 0 0 0 0 0 0 2:0.47297297 3:0.51260504 4:-0.71681416 5:-0.029219054 6:-0.15601883 7:-0.27715602 8:-0.26856004 
0 0 0 0 6561 0 0 6561 0 0 0 0 0 0 0 0 0 0 0 0 0 0 0 0 0 1:-1 2:0.62162162 3:0.51260504 4:-0.71681416 5:0.083761289 6:-0.0060524546 7:-0.06122449 8:-0.24265072 
0 0 0 6561 2346.8207143815862 0 0 6561 6561 6561 6561 0 0 0 0 0 0 6561 6561 0 0 0 0 0 0 2:0.44594595 3:0.44537815 4:-0.7079646 5:-0.23145033 6:-0.42905178 7:-0.39038841 8:-0.24564026 
0 0 6561 6561 6561 0 0 6561 0 0 0 0 0 0 0 0 0 0 0 0 0 0 0 0 0 2:0.40540541 3:0.37815126 4:-0.73451327 5:-0.27501328 6:-0.44720915 7:-0.27847268 8:-0.42700548 
0 0 0 6561 0 0 0 6561 0 0 0 0 0 0 0 0 0 0 0 0 0 0 0 0 0 1:-1 2:0.60810811 3:0.64705882 4:-0.6460177 5:0.20453338 6:0.11903161 7:-0.016458196 8:-0.18584953 
0 0 0 0 6561 0 0 6561 0 6561 0 2743.1394555274787 0 0 0 0 0 0 0 0 0 0 0 0 0 2:0.51351351 3:0.57983193 4:-0.68141593 5:-0.031344077 6:-0.14862139 7:-0.16392363 8:-0.27952167 
0 0 0 6561 6561 0 0 6561 6561 6561 6561 6520.7872899420008 0 0 3082.298707918756 0 0 6561 0 0 0 0 0 0 0 1:-1 2:0.36486486 3:0.41176471 4:-0.73451327 5:-0.31432619 6:-0.48352387 7:-0.43120474 8:-0.30543099 
0 0 6561 5261.9779250164602 6561 0 0 6561 0 0 0 0 0 0 0 0 0 0 0 0 0 0 0 0 0 2:0.36486486 3:0.34453782 4:-0.78761062 5:-0.33557641 6:-0.46469401 7:-0.32455563 8:-0.47483807 
6561 0 6561 0 6561 0 0 6561 0 6561 0 0 0 0 0 0 0 0 0 0 0 0 0 0 0 1:-1 2:0.17567568 3:0.14285714 4:-0.77876106 5:-0.5902249 6:-0.67316745 7:-0.64976959 8:-0.62830095 
0 0 2709.4949567873168 0 6561 0 126.16689106358743 6561 2417.8825208313588 6561 0 0 0 0 0 0 0 0 0 0 0 0 0 0 0 2:0.56756757 3:0.54621849 4:-0.69911504 5:0.080219586 6:0.13987895 7:-0.3074391 8:-0.34329846 
0 2985.4906026924136 0 0 0 0 0 1407.994038556762 0 6561 0.58922346212052312 0 0 0 0 0 0 2873.8220774464667 0 0 0 0 0 0 0 2:0.77027027 3:0.69747899 4:-0.66371681 5:0.37453515 6:0.07330195 7:0.36668861 8:0.12406577 
0 0 0 6561 6561 0 0 6561 0 0 0 0 0 0 0 0 0 0 0 0 0 0 0 0 0 2:0.44594595 3:0.4789916 4:-0.71681416 5:-0.23003365 6:-0.37054472 7:-0.479921 8:-0.23766816 
704.52348551990906 3583.6889117984406 0 6561 0 0 0 0 0 101.8309041685025 1544.8158037372484 0 0 0 0 0 736.79292519528553 4871.0691884428361 271.41645587397488 926.86698083161025 0 0 0 0 0 1:-1 2:0.78378378 3:0.79831933 4:-0.61946903 5:0.23605454 6:-0.022864829 7:0.059907834 8:0.10712506 
0 0 0 5519.7338476955874 0 0 0 6561 0 0 0 0 0 0 0 0 0 0 0 0 0 0 0 0 0 2:0.56756757 3:0.6302521 4:-0.61946903 5:0.1004073 6:-0.066577001 7:-0.22185648 8:-0.1180867 
0 0 6561 0 6561 0 0 6561 71.527544281970435 0 0 2269.0252742995676 0 0 0 0 0 0 0 0 0 0 0 0 0 1:-1 2:0.45945946 3:0.41176471 4:-0.69911504 5:-0.16380379 6:-0.36381977 7:-0.23897301 8:-0.52466368 
0 0 0 0 6561 0 0 6561 0 6561 0 0 0 0 0 0 0 0 0 0 0 0 0 0 0 1:-1 2:0.52702703 3:0.51260504 4:-0.72566372 5:-0.15459536 6:-0.2528581 7:-0.44568795 8:-0.31340309 
0 0 0 0 6561 0 0 6561 0 0 0 0 0 0 0 0 0 0 0 0 0 0 0 0 0 1:-1 2:0.48648649 3:0.4789916 4:-0.67256637 5:-0.021427307 6:-0.045729657 7:-0.21000658 8:-0.31539611 
0 0 0 0 0 0 0 0 0 6561 0 0 0 0 1925.2055432134757 0 0 0 0 0 0 0 0 0 0 1:-1 2:0.71621622 3:0.69747899 4:-0.61061947 5:0.42588985 6:0.23806321 7:0.19420671 8:0.12506228 
1205.0604907590341 4641.5470154367495 6561 6561 6561 0 787.01626598008738 6561 6561 6561 6561 3806.4333700239131 0 84.787014419676183 6561 0 143.22537261941036 6561 6561 2241.342315996877 876.17829780069576 0 0 500.25056195971416 0 2:0.40540541 3:0.2605042 4:-0.62831858 5:0.078448734 6:-0.12306658 7:0.041474654 8:-0.18584953 
0 0 0 6561 6561 0 0 6561 0 6561 3601.1618183623564 286.31990405534958 0 0 0 0 0 0 0 0 0 0 0 0 0 2:0.51351351 3:0.4789916 4:-0.68141593 5:0.12909509 6:-0.17148621 7:-0.16655695 8:-0.2655705 
0 0 6561 0 6561 0 0 6561 0 0 0 0 0 0 0 0 0 0 0 0 0 0 0 0 0 2:0.22972973 3:0.21008403 4:-0.79646018 5:-0.58243315 6:-0.68796234 7:-0.5839368 8:-0.64424514 
0 0 0 0 6561 0 0 6561 0 0 0 0 0 0 0 0 0 0 0 0 0 0 0 0 0 1:-1 2:0.41891892 3:0.4789916 4:-0.69026549 5:-0.087657163 6:-0.1862811 7:-0.27452271 8:-0.31639263 
6561 0 6561 6561 6561 0 0 6561 0 6561 0 0 0 0 0 0 0 0 0 0 0 0 0 0 0 1:-1 2:0.054054054 3:0.025210084 4:-0.85840708 5:-0.65574641 6:-0.74445192 7:-0.67215273 8:-0.69407075 
6561 0 6561 6561 6561 0 1663.0822005531545 6561 670.01797758491705 6561 0 3785.6217077918527 0 0 0 0 0 0 0 0 0 0 0 0 0 1:1 2:0.040540541 3:-0.0084033613 4:-0.78761062 5:-0.65539224 6:-0.74176194 7:-0.72481896 8:-0.69407075 
0 0 0 6561 0 0 0 6561 0 0 3506.2121993397864 0 0 0 0 0 0 0 0 0 0 0 0 0 0 2:0.68918919 3:0.68067227 4:-0.61061947 5:0.17867894 6:-0.13113652 7:0.12705727 8:-0.096163428 
0 0 0 6561 6561 0 0 6561 6561 6561 6561 2294.134448336908 0 0 2376.675962119325 0 0 6561 0 0 0 0 0 0 0 1:-1 2:0.27027027 3:0.32773109 4:-0.73451327 5:-0.30865947 6:-0.54875588 7:-0.49967084 8:-0.40508221 
0 0 6561 0 6561 0 0 6561 0 0 0 0 0 0 0 0 0 0 0 0 0 0 0 0 0 1:-1 2:0.41891892 3:0.4789916 4:-0.69026549 5:-0.080219586 6:-0.16812374 7:-0.25345622 8:-0.34828102 
6561 0 6561 0 6561 0 0 6561 0 6561 0 0 0 0 0 0 0 0 0 0 0 0 0 0 0 2:0.36486486 3:0.37815126 4:-0.74336283 5:-0.30263857 6:-0.36919973 7:-0.43383805 8:-0.50473343 
0 0 1654.0465976628918 0 6561 0 0 6561 0 5421.3049491342117 0 0 0 0 0 0 0 0 0 0 0 0 0 0 0 1:-1 2:0.63513514 3:0.54621849 4:-0.71681416 5:-0.12697007 6:-0.17014122 7:-0.31007242 8:-0.3552566 
0 0 6561 0 6561 0 0 6561 0 6561 0 0 0 0 0 0 0 0 0 0 0 0 0 0 0 2:0.45945946 3:0.41176471 4:-0.69026549 5:-0.15565787 6:-0.24949563 7:-0.31928901 8:-0.37219731 
0 0 6561 0 6561 0 0 6561 0 6561 0 0 0 0 0 0 0 0 0 0 0 0 0 0 0 1:1 2:0.25675676 3:0.24369748 4:-0.7699115 5:-0.42376483 6:-0.5070612 7:-0.64186965 8:-0.51270553 
369.09433423931222 0 3479.2965678093965 0 6561 0 0 6561 3361.117486379992 6561 0 0 0 0 0 0 0 0 0 0 0 0 0 0 0 1:1 2:0.44594595 3:0.24369748 4:-0.72566372 5:-0.25872145 6:-0.3194351 7:-0.48650428 8:-0.45690085 
0 0 0 222.22509015777126 6561 0 0 6561 6561 6561 0 0 0 0 0 0 90.513526502993301 0 0 0 0 0 0 0 0 1:-1 2:-0.040540541 3:-0.025210084 4:-0.79646018 5:-0.78572693 6:-0.87693342 7:-0.85648453 8:-0.76382661 
6561 0 4255.5714539619066 1498.4224765998247 6561 0 0 6561 907.86507243864264 5528.4520381072462 335.36892260754195 1502.6882683086494 0 0 0 0 0 456.69740477926598 0 0 0 0 0 0 0 1:-1 2:-0.35135135 3:-0.34453782 4:-0.84070796 5:-0.85762352 6:-0.91862811 7:-0.90388413 8:-0.8445441 
0 0 0 3966.0711392207982 0 0 0 6561 0 2311.5088830537188 0 0 0 0 0 0 0 0 0 0 0 0 0 0 2672.0919538214803 2:0.63513514 3:0.69747899 4:-0.65486726 5:0.25765893 6:0.15669132 7:-0.15339039 8:-0.1758844 
0 0 0 0 6561 0 0 6561 0 6561 0 0 0 0 0 0 0 0 0 0 0 0 0 0 0 1:-1 2:0.48648649 3:0.46218487 4:-0.7079646 5:-0.21055428 6:-0.34297243 7:-0.31270573 8:-0.34030892 
0 6561 0 6561 6561 0 0 6561 6561 6561 6561 6561 0 0 6561 0 4715.8874941750082 6561 6561 6561 0 0 0 0 0 2:0.36486486 3:0.37815126 4:-0.7079646 5:-0.22117939 6:-0.45796907 7:-0.44963792 8:-0.30543099 
0 0 6561 0 6561 0 0 6561 0 6561 0 0 0 0 0 0 0 0 0 0 0 0 0 0 0 1:-1 2:0.41891892 3:0.36134454 4:-0.72566372 5:-0.32176377 6:-0.40215198 7:-0.5036208 8:-0.41504733 
0 0 0 0 0 0 0 5449.3271024548203 0 0 1366.1993596542061 0 0 0 0 0 0 0 0 0 0 0 0 0 0 2:0.60810811 3:0.59663866 4:-0.60176991 5:0.10465734 6:-0.15400134 7:0.28110599 8:-0.26058794 
0 0 6561 6561 6561 0 0 6561 5958.5560553342357 6561 1939.4353690993653 0 0 0 0 0 0 0 0 0 0 0 0 0 0 1:-1 2:0.28378378 3:0.32773109 4:-0.7699115 5:-0.34974323 6:-0.4929388 7:-0.37327189 8:-0.42501246 
0 628.77557380502947 6561 6561 6561 0 3569.4597933794976 6561 6561 6561 6561 0 0 0 0 0 0 0 0 0 0 0 0 0 0 1:-1 2:0.14864865 3:0.12605042 4:-0.74336283 5:-0.54028688 6:-0.63416274 7:-0.65371955 8:-0.56452417 
0 0 6561 0 6561 0 0 6561 0 0 0 0 0 0 0 0 0 0 0 0 0 0 0 0 0 2:0.44594595 3:0.41176471 4:-0.75221239 5:-0.19886665 6:-0.29186281 7:-0.38117182 8:-0.30543099 
0 2438.2757576732088 0 6561 0 0 0 6561 6561 6561 3876.3224164990238 0 0 0 6561 0 490.60279190928685 6561 0 5976.7257611700052 0 0 0 395.21157352885501 0 2:0.22972973 3:0.34453782 4:-0.7079646 5:-0.30688861 6:-0.57700067 7:-0.2600395 8:-0.4120578 
0 0 0 0 6561 0 0 6561 0 6561 0 0 0 0 0 0 0 0 0 0 0 0 0 0 0 2:0.54054054 3:0.51260504 4:-0.7079646 5:-0.067823623 6:-0.26160054 7:-0.20737327 8:-0.33532636 
0 0 0 0 6561 0 0 6561 0 6561 0 0 0 0 0 0 0 0 0 0 0 0 0 0 0 2:0.55405405 3:0.51260504 4:-0.7079646 5:-0.17974146 6:-0.35776732 7:-0.27978934 8:-0.30742402 
6561 0 6561 0 6561 0 0 6561 0 0 0 0 0 0 0 0 0 0 0 0 0 0 0 0 0 1:1 2:0.2027027 3:0.19327731 4:-0.75221239 5:-0.53214096 6:-0.62811029 7:-0.59183673 8:-0.61235675 
0 0 0 0 4592.9265033159263 0 0 6561 0 0 0 0 0 0 0 0 0 0 0 0 0 0 0 0 0 1:-1 2:0.55405405 3:0.57983193 4:-0.67256637 5:0.052594298 6:-0.1069267 7:-0.11389072 8:-0.24962631 
0 0 6561 0 6561 0 0 6561 0 0 0 0 0 0 0 0 0 0 0 0 0 0 0 0 0 1:1 2:0.39189189 3:0.36134454 4:-0.74336283 5:-0.36284753 6:-0.43779422 7:-0.53127057 8:-0.48480319 
6561 0 6561 6561 6561 2188.5360659971807 0 6561 6561 6561 2056.1669367355848 0 0 0 0 0 0 0 879.0910397472212 0 0 0 0 0 0 1:1 2:0.067567568 3:-0.0084033613 4:-0.76106195 5:-0.5997875 6:-0.68997983 7:-0.61553654 8:-0.69905331 
0 0 6561 0 6561 0 0 6561 0 0 0 0 0 0 0 0 0 0 0 0 0 0 0 0 0 1:-1 2:0.5 3:0.42857143 4:-0.73451327 5:-0.10111564 6:-0.11297915 7:-0.36273864 8:-0.38515197 
6561 0 6561 0 6561 0 3509.8790534142067 6561 0 0 0 0 0 0 0 0 0 0 0 0 0 0 0 0 0 1:-1 2:0.31081081 3:0.34453782 4:-0.7079646 5:-0.39224367 6:-0.46133154 7:-0.55497038 8:-0.51469856 
0 0 0 6561 6561 0 0 6561 6561 6561 5909.4107314434468 0 0 0 0 0 0 0 0 0 0 0 0 0 0 2:0.27027027 3:0.29411765 4:-0.69026549 5:-0.4528068 6:-0.5998655 7:-0.50757077 8:-0.47483807 
2340.9697094244539 0 6561 3625.5551837556432 6561 0 0 6561 3033.1213269379818 6561 2949.9356698950328 0 0 0 0 0 0 0 0 0 0 0 0 0 0 1:-1 2:0.21621622 3:0.15966387 4:-0.69911504 5:-0.48397379 6:-0.6260928 7:-0.46017117 8:-0.61434978 
0 0 6561 0 6561 0 0 6561 6561 6561 0 0 0 0 0 0 0 0 0 0 0 0 0 0 0 2:0.2027027 3:0.17647059 4:-0.75221239 5:-0.51159908 6:-0.63012777 7:-0.640553 8:-0.57448929 
0 6561 0 6561 6561 0 0 6561 6561 6561 6561 6363.9227301140245 0 0 5144.9060104665487 0 0 0 0 0 0 0 0 0 0 1:-1 2:0.37837838 3:0.2605042 4:-0.71681416 5:-0.3249513 6:-0.51378615 7:-0.53785385 8:-0.46487294 
0 0 0 6561 0 0 0 6561 2838.4743902341074 6561 6561 6561 0 292.25523230751048 6561 0 4711.3623793450879 0 6561 114.3712434883218 2544.6360915059931 36.661073588578475 0 936.99923532250568 8.9363318022513738 2:0.48648649 3:0.46218487 4:-0.72566372 5:-0.14538693 6:-0.37592468 7:-0.57472021 8:-0.1838565 
0 1322.6582168507191 0 0 6561 0 0 6561 0 6561 0 2189.7486573221881 0 0 0 0 1728.7159351282648 0 0 0 0 546.43358803856609 0 0 0 1:-1 2:0.45945946 3:0.44537815 4:-0.61946903 5:-0.32034709 6:-0.43375925 7:-0.53785385 8:-0.42501246 
6561 0 6561 0 6561 0 6561 6561 0 6561 0 0 0 0 0 0 0 0 0 0 0 0 0 0 0 2:0.25675676 3:0.22689076 4:-0.75221239 5:-0.43120241 6:-0.50504371 7:-0.54707044 8:-0.58445441 
0 0 6561 0 6561 0 0 6561 0 6561 0 0 0 0 0 0 0 0 0 0 0 0 0 0 0 2:0.59459459 3:0.51260504 4:-0.71681416 5:-0.086594652 6:-0.15265636 7:-0.23107307 8:-0.36522172 
0 0 0 6561 6561 0 0 6561 0 0 0 0 0 0 0 0 0 0 0 0 0 0 0 0 0 1:-1 2:0.63513514 3:0.54621849 4:-0.69911504 5:0.14007438 6:0.13046402 7:-0.19552337 8:-0.21574489 
0 0 0 0 6561 0 0 6561 0 0 0 0 0 0 0 0 0 0 0 0 0 0 0 0 0 1:-1 2:0.56756757 3:0.54621849 4:-0.71681416 5:-0.073490349 6:-0.25756557 7:-0.029624753 8:-0.31539611 
0 0 0 0 6561 0 0 6561 0 0 0 0 0 0 0 0 0 0 0 0 0 0 0 0 0 2:0.5 3:0.52941176 4:-0.67256637 5:-0.1266159 6:-0.31338265 7:-0.082290981 8:-0.39212755 
854.38933999402184 0 6561 6561 6561 0 0 6561 0 6561 0 0 0 0 0 0 0 0 0 0 0 0 0 0 0 2:-0.054054054 3:-0.025210084 4:-0.80530973 5:-0.74180981 6:-0.83322125 7:-0.78801843 8:-0.76980568 
0 0 0 0 6561 0 0 6561 0 0 0 0 0 0 0 0 0 0 0 0 0 0 0 0 0 1:-1 2:0.54054054 3:0.49579832 4:-0.69026549 5:-0.053302639 6:-0.14996638 7:-0.21395655 8:-0.30742402 
6561 0 6561 0 6561 0 2239.0338096856399 6561 0 0 0 0 0 0 0 0 0 0 0 0 0 0 0 0 0 1:1 2:0.2027027 3:0.14285714 4:-0.79646018 5:-0.54489109 6:-0.57700067 7:-0.67346939 8:-0.632287 
0 0 0 0 6561 0 0 6561 0 0 0 0 0 0 0 0 0 0 0 0 0 0 0 0 0 1:-1 2:0.52702703 3:0.51260504 4:-0.68141593 5:-0.082698778 6:-0.20780094 7:-0.17840685 8:-0.27952167 
0 0 0 0 1854.5373696926301 0 420.52041203277378 6561 0 639.46716422130169 0 137.68207748042866 0 0 0 0 0 0 0 0 0 0 0 0 0 2:0.82432432 3:0.73109244 4:-0.62831858 5:0.58243315 6:0.49024882 7:0.36668861 8:0.083208769 
52.092915816254113 136.33688825970592 0 1094.5669072753449 0 0 0 0 3872.0489265650076 6561 0 0 0 0 0 0 0 0 11.491756444914 242.39959915932442 0 0 0 0 0 2:0.83783784 3:0.91596639 4:-0.62831858 5:0.7729768 6:0.60793544 7:0.34957209 8:0.34927753 
0 0 0 0 6561 0 0 6561 0 6561 0 0 0 0 0 0 0 0 0 0 0 0 0 0 0 2:0.51351351 3:0.44537815 4:-0.66371681 5:-0.026385692 6:-0.14862139 7:-0.24160632 8:-0.19382162 
0 0 6561 0 6561 0 0 6561 0 0 0 0 0 0 0 0 0 0 0 0 0 0 0 0 0 1:-1 2:0.60810811 3:0.56302521 4:-0.7079646 5:-0.016823092 6:-0.045057162 7:-0.24687294 8:-0.40508221 
0 0 6561 6561 6561 0 0 6561 0 6561 0 0 0 0 0 0 0 0 0 0 0 0 0 0 0 1:-1 2:0.37837838 3:0.34453782 4:-0.73451327 5:-0.3022844 6:-0.41560188 7:-0.45490454 8:-0.38515197 
0 0 0 0 0 0 0 0 0 6449.7701453070886 0 846.31934880498272 0 0 0 0 0 0 0 0 0 0 0 0 217.07777702392499 2:0.7027027 3:0.64705882 4:-0.69911504 5:0.11776164 6:-0.13584398 7:0.20078999 8:-0.47483807 
0 0 0 0 6561 0 0 6561 0 1900.5120158751936 0 0 0 0 0 0 0 0 0 0 0 0 0 0 0 2:0.60810811 3:0.54621849 4:-0.69911504 5:0.0090313441 6:-0.11297915 7:-0.10730744 8:-0.2655705 
0 0 6561 6561 6561 0 0 6561 6561 6561 6561 0 0 0 6561 0 0 0 0 0 0 0 0 0 0 2:0.36486486 3:0.32773109 4:-0.67256637 5:-0.2962635 6:-0.47074647 7:-0.28505596 8:-0.43497758 
0 0 0 1915.6450123617647 6561 0 0 6561 0 3433.033818425251 6561 0 0 0 1123.9016361987003 0 0 0 0 0 0 0 0 0 0 1:1 2:0.47297297 3:0.46218487 4:-0.71681416 5:-0.24632548 6:-0.40147949 7:-0.35352205 8:-0.39511709 
0 0 0 0 6561 0 0 6561 0 6561 0 0 0 0 0 0 0 0 0 0 0 0 0 0 0 1:-1 2:0.5 3:0.46218487 4:-0.69911504 5:-0.16947052 6:-0.29455279 7:-0.28242265 8:-0.32735426 
0 0 0 0 6561 0 0 6561 0 0 0 0 0 0 0 0 0 0 0 0 0 0 0 0 0 1:-1 2:0.48648649 3:0.46218487 4:-0.67256637 5:-0.17336639 6:-0.29186281 7:-0.33377222 8:-0.31738914 
0 0 6561 0 6561 0 0 6561 0 0 0 0 0 0 0 0 0 0 0 0 0 0 0 0 0 2:0.32432432 3:0.46218487 4:-0.72566372 5:-0.34655569 6:-0.45662408 7:-0.42330481 8:-0.49476831 
6561 0 6561 0 6561 2281.2332692286313 6561 6561 0 0 0 0 0 0 0 0 30.065266112121943 0 0 0 0 0 0 0 0 1:-1 2:-0.18918919 3:-0.17647059 4:-0.82300885 5:-0.8268107 6:-0.86146604 7:-0.87623436 8:-0.83756851 
6561 0 6561 0 6561 4294.9195547121344 6561 6561 0 0 0 930.12405402918205 0 0 0 0 0 58.230377596777792 0 247.12955085952478 0 0 0 0 0 2:-0.094594595 3:-0.15966387 4:-0.82300885 5:-0.744289 6:-0.76798924 7:-0.83015142 8:-0.78375685 
0 0 6561 0 6561 0 0 6561 0 0 0 0 0 0 0 0 0 0 0 0 0 0 0 0 0 1:-1 2:0.32432432 3:0.34453782 4:-0.72566372 5:-0.33876395 6:-0.43510424 7:-0.51942067 8:-0.48480319 
6561 0 6561 0 6561 6561 6561 6561 0 410.30570103403142 239.11386253034962 149.83302769699412 1.4697980805642619 0 0 3324.9730151166191 917.1570746204319 0 0 0 0 0 0 0 0 1:-1 2:-0.33783784 3:-0.36134454 4:-0.86725664 5:-0.8912697 6:-0.92266308 7:-0.90125082 8:-0.90533134 
0 0 0 0 6561 0 0 6561 0 0 0 0 0 0 0 0 0 0 0 0 0 0 0 0 0 1:1 2:0.5 3:0.51260504 4:-0.68141593 5:-0.1004073 6:-0.19098857 7:-0.2244898 8:-0.37518685 
0 2835.8115086754883 0 6561 6561 0 0 6561 6561 6561 6561 0 0 0 6561 0 0 0 0 0 0 0 0 0 0 1:-1 2:0.39189189 3:0.29411765 4:-0.73451327 5:-0.32459713 6:-0.50907868 7:-0.36273864 8:-0.41504733 
6561 0 6561 6561 6561 0 0 6561 0 6439.0382232594393 1983.0582242977009 0 0 0 0 0 0 5022.9544544018272 761.55947085386401 0 0 0 0 0 0 1:1 2:0.2027027 3:0.17647059 4:-0.75221239 5:-0.59234992 6:-0.73234701 7:-0.6194865 8:-0.64623817 
6561 0 6561 6561 6561 1038.6962500392401 6561 6561 0 0 0 0 0 0 0 0 0 0 0 0 0 0 0 0 0 1:1 2:0.12162162 3:0.092436975 4:-0.78761062 5:-0.62670444 6:-0.71015467 7:-0.63528637 8:-0.69407075 
0 0 0 0 6561 0 0 6561 0 6561 0 0 0 0 0 0 0 0 0 0 0 0 0 0 0 1:-1 2:0.59459459 3:0.51260504 4:-0.71681416 5:-0.088365504 6:-0.17484869 7:-0.33508887 8:-0.27254609 
0 3959.4206876357885 0 6561 3089.7257353699561 0 0 6561 6561 6561 6561 4481.2782969696882 0 1181.1522855859923 1098.7853317812594 0 0 6561 2722.5401535340307 186.65464084603369 0 0 0 0 0 1:-1 2:0.51351351 3:0.4789916 4:-0.65486726 5:-0.17124137 6:-0.40282448 7:-0.18104016 8:-0.31041355 
0 4437.6063665430456 0 6561 0 0 0 6561 6561 6561 6561 6561 0 0 4672.4394516477469 0 0 0 0 0 0 0 0 0 0 2:0.47297297 3:0.4789916 4:-0.69911504 5:-0.24915885 6:-0.50100874 7:-0.44042133 8:-0.32536124 
0 0 0 6561 0 0 0 6561 5934.7218025020711 5857.6170566534011 3588.12093709187 0 0 0 0 0 0 339.63234454321287 0 0 0 0 0 0 0 2:0.48648649 3:0.56302521 4:-0.68141593 5:-0.042323358 6:-0.34969738 7:-0.077024358 8:-0.25560538 
0 2347.7445641628337 0 6561 6378.9656963505131 0 3326.9035874308156 6561 6561 6561 6561 6561 0 0 6561 0 1852.4820324877683 6561 3387.815807772537 4216.234327732157 0 885.56350674575651 0 10.440083199474403 0 1:-1 2:0.27027027 3:0.27731092 4:-0.74336283 5:-0.33663892 6:-0.50571621 7:-0.67346939 8:-0.31539611 
6561 0 6561 6561 6561 0 6561 6561 0 0 5640.663842226093 0 0 0 0 0 0 3506.8708261270535 0 0 0 0 0 0 0 1:1 2:-0.14864865 3:-0.14285714 4:-0.82300885 5:-0.78749779 6:-0.84532616 7:-0.83278473 8:-0.77379173 
0 1778.6051566387339 6561 6561 6561 0 2819.9297896497592 6561 6561 6561 6561 3231.1055150037168 0 0 0 0 0 0 0 0 0 0 0 0 0 1:-1 2:0.12162162 3:0.092436975 4:-0.76106195 5:-0.61785019 6:-0.70880968 7:-0.75115207 8:-0.6243149 
0 0 0 0 6561 0 0 6561 0 0 0 0 0 0 0 0 0 0 0 0 0 0 0 0 0 1:-1 2:0.48648649 3:0.4789916 4:-0.69026549 5:-0.14609527 6:-0.28715535 7:-0.26135616 8:-0.30044843 
0 0 0 0 6561 0 0 6561 0 0 0 0 0 0 0 0 0 0 0 0 0 0 0 0 0 1:1 2:0.44594595 3:0.46218487 4:-0.71681416 5:-0.18363733 6:-0.21250841 7:-0.37327189 8:-0.42202292 
0 0 0 0 6561 0 0 6561 0 3067.8141762122996 0 0 0 0 0 0 0 0 0 0 0 0 0 0 0 2:0.75675676 3:0.59663866 4:-0.66371681 5:0.22507526 6:0.11499664 7:0.046741277 8:-0.19581465 
6561 0 6561 0 6561 0 0 6561 0 0 0 0 0 0 0 0 0 0 0 0 0 0 0 0 0 1:-1 2:0.39189189 3:0.37815126 4:-0.72566372 5:-0.19674163 6:-0.29589778 7:-0.31270573 8:-0.45490782 
6561 0 6561 0 6561 0 0 6561 0 0 0 0 0 0 0 0 0 0 0 0 0 0 0 0 0 2:0.36486486 3:0.36134454 4:-0.78761062 5:-0.29768018 6:-0.37928716 7:-0.37327189 8:-0.4449427 
6561 0 6561 0 6561 0 0 6561 0 6561 0 0 0 0 0 0 0 0 0 0 0 0 0 0 0 2:0.44594595 3:0.39495798 4:-0.7079646 5:-0.16663715 6:-0.2400807 7:-0.26793943 8:-0.41704036 
5793.4804698721146 0 6561 0 6561 0 0 6561 0 0 0 0 0 0 0 0 0 0 0 0 0 0 0 0 0 1:-1 2:0.5 3:0.46218487 4:-0.66371681 5:-0.16734549 6:-0.33759247 7:-0.11520737 8:-0.43497758 
6561 0 6561 6561 6561 0 0 6561 0 6561 2047.9945767973666 1281.0623659709595 0 0 0 0 0 0 0 0 0 0 0 0 0 3:-0.058823529 4:-0.75221239 5:-0.67805915 6:-0.76126429 7:-0.70111916 8:-0.72396612 
4907.5223364222693 0 6561 0 6561 0 0 6561 0 6561 0 0 0 0 0 0 0 0 0 0 0 0 0 0 0 1:-1 2:0.31081081 3:0.34453782 4:-0.72566372 5:-0.43686913 6:-0.54404842 7:-0.50098749 8:-0.51968112 
0 0 0 6561 6561 0 0 6561 0 6561 0 0 0 0 0 0 0 0 0 0 0 0 0 0 0 2:0.56756757 3:0.52941176 4:-0.72566372 5:-0.088011333 6:-0.28244788 7:-0.24950625 8:-0.18584953 
0 0 0 6561 6561 0 0 6561 0 6561 0 0 0 0 0 0 0 0 0 0 0 0 0 0 0 1:-1 2:0.55405405 3:0.51260504 4:-0.66371681 5:-0.098990614 6:-0.20780094 7:-0.39565504 8:-0.22371699 
4340.206368138568 0 6561 0 6561 0 0 6561 0 0 0 0 0 0 0 0 0 0 0 0 0 0 0 0 0 1:1 2:0.21621622 3:0.2605042 4:-0.73451327 5:-0.47972375 6:-0.56758574 7:-0.57735352 8:-0.57448929 
0 0 6561 0 6561 0 0 6561 0 6561 0 0 0 0 0 0 0 0 0 0 0 0 0 0 0 1:-1 2:0.47297297 3:0.46218487 4:-0.71681416 5:-0.26828404 6:-0.40954943 7:-0.33640553 8:-0.43497758 
0 5654.3181696241591 6561 0 6561 0 0 6561 6561 2986.0367136343061 4629.385219718084 6561 0 0 0 0 0 0 0 0 0 0 0 0 0 2:0.37837838 3:0.41176471 4:-0.67256637 5:-0.32247211 6:-0.44384667 7:-0.57603687 8:-0.34529148 
0 0 0 0 5555.2278121403779 0 0 6561 0 0 0 0 0 0 0 0 0 0 0 0 0 0 0 0 0 2:0.52702703 3:0.4789916 4:-0.69911504 5:-0.1326368 6:-0.34229993 7:-0.008558262 8:-0.42999502 
0 0 6561 0 6561 0 0 6561 6561 6561 4529.5627846129837 5802.3956244472911 0 0 4397.2461016958532 0 0 0 0 0 0 0 0 0 0 2:0.27027027 3:0.21008403 4:-0.73451327 5:-0.48184877 6:-0.62542031 7:-0.5720869 8:-0.5675137 
0 6561 0 6561 6561 0 0 6561 6561 6561 6561 0 0 0 1148.1605416132911 0 0 4168.2432658969819 0 0 0 0 0 0 0 2:0.27027027 3:0.2605042 4:-0.7079646 5:-0.43332743 6:-0.60659045 7:-0.51942067 8:-0.4449427 
0 0 0 0 6561 0 0 6561 4668.330317515386 0 0 0 0 0 0 0 0 1136.3122404376543 0 0 0 0 0 0 0 1:-1 2:0.27027027 3:0.32773109 4:-0.73451327 5:-0.37843103 6:-0.48083389 7:-0.60631995 8:-0.47982063 
0 0 6561 0 6561 0 0 6561 0 0 0 0 0 0 0 0 0 0 0 0 0 0 0 0 0 2:0.54054054 3:0.56302521 4:-0.69911504 5:-0.15353285 6:-0.2938803 7:-0.23107307 8:-0.3712008 
0 6561 0 6561 0 0 0 6561 6561 6561 3967.8317776053082 976.3320732120327 0 993.18260202402928 6561 0 1337.8709329172434 6561 3513.3868127167375 1121.3328781349824 1161.7330922254528 0 0 37.773983495599332 0 2:0.63513514 3:0.69747899 4:-0.65486726 5:0.17726226 6:-0.22125084 7:0.013824885 8:0.083208769 
6561 0 6561 0 6561 117.50355136549942 1705.7250345614684 6561 0 3740.8072846469704 0 0 0 0 0 0 0 0 0 0 0 0 0 0 0 1:1 2:0.32432432 3:0.29411765 4:-0.69026549 5:-0.38268107 6:-0.44451917 7:-0.44832126 8:-0.58445441 
0 0 0 0 6561 0 0 6561 0 0 0 0 0 0 0 0 0 0 0 0 0 0 0 0 0 1:-1 2:0.55405405 3:0.57983193 4:-0.69026549 5:0.086948822 6:-0.078009415 7:-0.057274523 8:-0.19581465 
0 0 0 0 0 0 0 6561 0 0 0 0 0 0 0 0 0 0 0 0 0 0 0 0 0 2:0.56756757 3:0.54621849 4:-0.72566372 5:-0.07419869 6:-0.29657028 7:-0.090190915 8:-0.23567514 
0 0 0 5046.7071069783806 0 0 0 0 0 4635.9086596296247 0 0 0 0 0 0 0 0 0 0 0 0 0 0 0 1:-1 2:0.78378378 3:0.78151261 4:-0.67256637 5:0.50309899 6:0.27908541 7:0.44700461 8:-0.0064773293 
6561 0 6561 3490.4711508453693 6561 0 0 6561 0 6561 0 0 0 0 0 0 0 0 0 0 0 0 0 0 0 2:-0.013513514 3:-0.025210084 4:-0.81415929 5:-0.69789269 6:-0.77942165 7:-0.78275181 8:-0.73991031 
0 0 0 0 6561 0 0 6561 0 0 0 0 0 0 0 0 0 0 0 0 0 0 0 0 0 1:-1 2:0.59459459 3:0.57983193 4:-0.69026549 5:0.020718966 6:-0.10894418 7:0.011191573 8:-0.29945192 
3448.4248626753288 0 6561 0 6561 0 0 6561 0 0 0 0 0 0 0 0 0 0 0 0 0 0 0 0 0 1:-1 2:0.44594595 3:0.42857143 4:-0.75221239 5:-0.24880468 6:-0.3073302 7:-0.40882159 8:-0.42202292 
0 0 0 0 6561 0 0 6561 0 0 0 0 0 0 0 0 0 0 0 0 0 0 0 0 0 1:-1 2:0.54054054 3:0.46218487 4:-0.69026549 5:-0.066406942 6:-0.12373907 7:-0.3759052 8:-0.32835077 
0 0 0 0 0 0 0 6561 0 0 0 44.290640065960083 0 0 0 0 0 0 0 0 0 0 0 0 0 1:-1 2:0.74324324 3:0.69747899 4:-0.68141593 5:0.12236586 6:-0.07195696 7:-0.013824885 8:-0.12107623 
0 0 0 2095.8992408582421 2793.1091524298272 0 0 6561 0 6561 0 0 0 0 0 0 0 0 0 0 0 0 0 0 0 1:-1 2:0.72972973 3:0.66386555 4:-0.69026549 5:0.29130512 6:0.26025555 7:0.00065832785 8:-0.12605879 
0 0 0 0 0 0 0 2738.914102205797 0 3486.1909354628442 4037.8035192190141 0 0 0 0 0 700.0727358158365 0 0 0 0 408.16916355629542 0 0 46.680959823356112 1:-1 2:0.52702703 3:0.74789916 4:-0.69026549 5:0.031698247 6:-0.16072629 7:-0.30085583 8:-0.12705531 
0 0 6561 6561 6561 0 0 6561 6561 6561 6561 0 0 0 6561 0 2440.995789488893 6561 0 528.5039087384024 0 0 0 0 0 2:0.067567568 3:-0.0084033613 4:-0.74336283 5:-0.63485036 6:-0.74983188 7:-0.6761027 8:-0.64424514 
0 0 0 6561 6561 0 0 6561 6561 0 786.93248066625449 0 0 0 0 0 0 622.1208612606506 0 0 0 0 0 0 0 1:-1 2:0.41891892 3:0.41176471 4:-0.69026549 5:-0.049052594 6:-0.26294553 7:-0.24423963 8:-0.28550075 
0 0 6561 0 6561 0 0 6561 0 0 0 0 0 0 0 0 0 0 0 0 0 0 0 0 0 2:0.5 3:0.42857143 4:-0.71681416 5:-0.15211617 6:-0.2932078 7:-0.11915734 8:-0.37518685 
0 0 0 0 0 0 0 6561 0 0 0 0 0 0 0 0 0 0 0 0 0 0 0 0 0 2:0.63513514 3:0.56302521 4:-0.67256637 5:0.056844342 6:-0.17417619 7:0.034891376 8:-0.19382162 
5888.5883687948653 0 6561 3890.819960144529 6561 0 0 6561 0 6561 0 0 0 0 0 0 0 0 0 0 0 0 0 0 0 1:-1 2:0.25675676 3:0.22689076 4:-0.76106195 5:-0.42943156 6:-0.53261601 7:-0.52863726 8:-0.5346288 
0 0 6561 6561 6561 0 0 6561 0 6561 0 0 0 0 0 0 0 0 0 0 0 0 0 0 0 1:-1 2:0.41891892 3:0.37815126 4:-0.7079646 5:-0.25942979 6:-0.37592468 7:-0.38380513 8:-0.37518685 
0 0 0 0 6561 0 0 6561 3571.3995989052205 6561 0 0 0 0 0 0 0 0 0 0 0 0 0 0 0 2:0.55405405 3:0.57983193 4:-0.66371681 5:-0.020364795 6:0.19233356 7:-0.18630678 8:-0.19581465 
0 0 4123.9104895404835 6561 6561 0 0 6561 0 3615.7960658396928 0 0 0 0 0 0 0 0 0 0 0 0 0 0 0 1:-1 2:0.48648649 3:0.39495798 4:-0.68141593 5:-0.19674163 6:-0.39475454 7:-0.14680711 8:-0.39511709 
6561 0 6561 0 6561 0 5351.6072287723173 6561 0 6561 0 0 0 0 0 0 0 0 0 0 0 0 0 0 0 2:0.36486486 3:0.29411765 4:-0.77876106 5:-0.44501505 6:-0.51311365 7:-0.48650428 8:-0.61434978 
0 0 0 0 0 0 0 6561 0 0 0 0 0 0 0 0 0 0 0 0 0 0 0 0 0 1:-1 2:0.64864865 3:0.66386555 4:-0.6460177 5:0.25411723 6:0.092131809 7:0.017774852 8:-0.026407573 
6561 0 6561 6561 6561 0 0 6561 5233.4640735629891 0 3301.6604497580906 0 0 0 0 0 0 0 0 0 0 0 0 0 0 1:1 2:0.13513514 3:0.12605042 4:-0.77876106 5:-0.53001594 6:-0.61936785 7:-0.57472021 8:-0.60438465 
0 0 0 6561 0 0 0 6561 677.19018276129077 6561 6561 6561 0 945.82625958156564 2306.9463844723682 0 0 0 6561 841.27288944133647 2.9820996863754154 27.188576879185966 0 0 0 1:-1 2:0.54054054 3:0.49579832 4:-0.68141593 5:0.033469099 6:-0.19636853 7:-0.36273864 8:-0.12805182 
6561 0 6561 0 6561 2688.3058426550901 6561 6561 0 13.101361310711239 0 0 0 0 0 0 0 5327.4471855953534 0 0 0 0 0 0 0 2:-0.094594595 3:-0.1092437 4:-0.79646018 5:-0.72728883 6:-0.77942165 7:-0.73666886 8:-0.80667663 
0 6561 0 6561 0 0 0 6561 6561 6561 5464.2544058297544 0 0 0 0 0 0 6561 3656.8029087431878 0 0 0 0 0 0 2:0.37837838 3:0.44537815 4:-0.73451327 5:-0.23711705 6:-0.44384667 7:-0.4443713 8:-0.29347285 
0 0 0 0 6561 0 0 6561 0 6561 1081.7475663614553 52.74905593804926 0 0 0 0 0 0 0 0 0 0 0 0 0 2:0.5 3:0.4789916 4:-0.6460177 5:0.0083230034 6:-0.11499664 7:-0.11652403 8:-0.24564026 
0 0 0 0 6561 0 0 6561 0 1623.9184894268108 0 792.19072485281151 0 0 4401.3342687652294 0 0 0 0 0 0 0 0 0 0 1:1 2:0.2972973 3:0.36134454 4:-0.74336283 5:-0.36355587 6:-0.48419637 7:-0.58525346 8:-0.45191829 
0 0 0 0 0 0 0 6561 0 6561 0 0 0 0 0 0 0 0 0 0 0 0 0 0 0 1:-1 2:0.56756757 3:0.6302521 4:-0.7079646 5:-0.0076146627 6:-0.065904506 7:-0.37327189 8:-0.16591928 
0 0 6561 6561 6561 0 0 6561 0 6561 0 0 0 0 0 0 0 0 0 0 0 0 0 0 0 1:1 2:0.22972973 3:0.22689076 4:-0.7699115 5:-0.40888968 6:-0.49764627 7:-0.56155365 8:-0.50672646 
0 0 6561 0 6561 0 0 6561 0 0 6561 0 0 0 0 0 0 0 0 0 0 0 0 0 0 1:1 2:0.2972973 3:0.27731092 4:-0.74336283 5:-0.50734903 6:-0.64895763 7:-0.58657011 8:-0.52466368 
6561 0 6561 0 6561 5.0048330451499643 6561 6561 0 6561 0 428.77249963851591 0 0 0 0 0 0 0 0 0 0 0 0 0 1:-1 2:0.32432432 3:0.12605042 4:-0.77876106 5:-0.47441119 6:-0.52790854 7:-0.65898618 8:-0.66716492 
0 64.29168007646804 0 5581.1751052371419 0 0 0 0 1955.7756610980186 1487.9775766552732 3291.9748027374803 2840.7109083584069 0 0 3475.7197034782375 0 0 1662.8970712270241 0 0 0 0 0 0 1.5048277758440507 1:1 2:0.58108108 3:0.57983193 4:-0.61946903 5:0.26367983 6:-0.096839274 7:-0.049374589 8:-0.19282511 
0 1743.498538580561 0 6561 0 0 0 6561 6561 6561 6561 3856.038878745795 0 0 2517.4935802326027 0 0 6561 0 0 0 0 0 0 0 2:0.51351351 3:0.56302521 4:-0.7079646 5:-0.051885957 6:-0.3201076 7:-0.22185648 8:-0.18186348 
0 6561 0 6561 6561 0 0 6561 6561 6561 0 0 0 0 27.435600841767855 0 3833.5927043436286 6297.0909916963365 6042.2246874107304 4819.7903507464416 0 0 0 0.88174078810355661 0 2:0.2972973 3:0.24369748 4:-0.75221239 5:-0.4432442 6:-0.62205783 7:-0.58130349 8:-0.43497758 
0 0 749.47603786904085 6561 6561 0 0 6561 4494.6591298420717 6152.0609363234744 0 0 0 0 6561 0 0 3212.807477680949 0 0 0 0 0 0 0 1:-1 2:0.37837838 3:0.32773109 4:-0.69026549 5:-0.20276253 6:-0.33893746 7:-0.31138907 8:-0.33532636 
0 0 0 4057.0278972065767 6561 0 0 6561 0 0 0 0 0 0 0 0 0 0 0 0 0 0 0 0 0 1:-1 2:0.60810811 3:0.49579832 4:-0.6460177 5:-0.10253232 6:-0.2266308 7:-0.21527321 8:-0.30343797 
0 0 0 1270.1663100664034 6561 0 0 4375.4471561254022 0 0 0 0 0 0 4288.9243300960952 0 0 0 0 0 0 0 0 0 0 1:1 2:0.43243243 3:0.44537815 4:-0.73451327 5:-0.12449088 6:-0.15198386 7:-0.40618828 8:-0.34529148 
0 0 6561 6561 6561 0 0 6561 0 0 6289.2007995844642 0 0 0 0 0 0 0 0 0 0 0 0 0 0 1:1 2:0.35135135 3:0.32773109 4:-0.76106195 5:-0.41738976 6:-0.54741089 7:-0.4443713 8:-0.5266567 
0 0 2534.3583742582873 0 6561 0 0 6561 821.71514170890475 201.471589119855 0 0 0 0 6335.0578377079109 0 0 0 0 0 0 0 0 0 0 1:1 2:0.47297297 3:0.41176471 4:-0.71681416 5:-0.35895166 6:-0.50235373 7:-0.56155365 8:-0.39013453 
0 0 0 0 0 0 0 6561 0 0 0 0 0 0 0 0 0 0 0 0 0 0 0 0 0 1:-1 2:0.67567568 3:0.59663866 4:-0.66371681 5:0.22117939 6:0.024209818 7:0.14680711 8:-0.096163428 
0 0 4255.6189552688338 0 6561 0 0 6561 0 0 0 0 0 0 0 0 0 0 0 0 0 0 0 0 0 1:-1 2:0.39189189 3:0.46218487 4:-0.76106195 5:-0.28740924 6:-0.43375925 7:-0.41013825 8:-0.43497758 
0 0 6561 6561 6561 0 0 6561 6561 6561 6561 0 0 0 0 0 0 0 0 0 0 0 0 0 0 1:-1 2:0.22972973 3:0.19327731 4:-0.72566372 5:-0.4945989 6:-0.62407532 7:-0.55760369 8:-0.57648231 
0 0 6561 0 6561 0 0 6561 0 6561 0 0 0 0 0 0 0 0 0 0 0 0 0 0 0 1:-1 2:0.35135135 3:0.39495798 4:-0.75221239 5:-0.40818134 6:-0.53261601 7:-0.54443713 8:-0.52466368 
0 0 0 0 6561 0 0 6561 0 6561 0 0 0 0 0 0 0 0 0 0 0 0 0 0 0 1:-1 2:0.52702703 3:0.59663866 4:-0.7079646 5:-0.1588454 6:-0.3604573 7:-0.21132324 8:-0.30543099 
0 0 6561 6561 6561 0 0 6561 4123.8296503134852 6561 0 0 0 0 0 0 0 351.04178280142401 0 0 0 0 0 0 0 3:0.0084033613 4:-0.73451327 5:-0.65787144 6:-0.75790182 7:-0.67215273 8:-0.69407075 
0 6561 0 6561 6561 0 0 6561 6561 6561 6561 1998.4099327879146 0 0 6561 0 474.12637945153023 3890.96572853626 0 4193.2036977351254 0 0 0 0 0 1:-1 2:0.21621622 3:0.15966387 4:-0.7699115 5:-0.41384806 6:-0.67787492 7:-0.52073733 8:-0.45490782 
0 0 0 0 780.1067208477981 0 0 6561 0 0 0 0 0 0 0 0 0 0 0 0 0 0 0 0 374.42917604298748 2:0.47297297 3:0.6302521 4:-0.7079646 5:-0.19461661 6:-0.32952253 7:-0.36010533 8:-0.29147982 
0 0 6561 6561 6561 0 0 6561 0 6561 0 0 0 0 0 0 0 0 0 0 0 0 0 0 0 1:-1 2:0.36486486 3:0.31092437 4:-0.73451327 5:-0.32672215 6:-0.42098184 7:-0.48913759 8:-0.43099153 
6561 0 6561 0 6561 0 0 6561 0 3327.4649351496014 0 0 0 0 0 0 0 0 0 0 0 0 0 0 0 2:-0.027027027 3:-0.0084033613 4:-0.78761062 5:-0.67664247 6:-0.74310693 7:-0.73798552 8:-0.74389636 
757.35355322567193 0 0 6561 0 0 0 6561 6561 6561 0 0 0 0 0 0 0 0 0 0 0 0 0 0 0 2:0.82432432 3:0.71428571 4:-0.61946903 5:0.37134762 6:0.039004707 7:0.26925609 8:0.1429995 
0 0 0 0 6561 0 0 6561 0 6561 0 0 0 0 0 0 0 0 0 0 0 0 0 0 0 2:0.47297297 3:0.52941176 4:-0.68141593 5:-0.058261024 6:-0.20242098 7:-0.27452271 8:-0.22969606 
5032.1613069699579 0 6561 6561 6561 0 0 6561 0 6561 0 0 0 0 0 0 0 0 0 0 0 0 0 0 0 2:0.16216216 3:0.1092437 4:-0.79646018 5:-0.5650788 6:-0.67451244 7:-0.71823568 8:-0.58445441 
6561 0 6561 0 6561 0 0 6561 0 6561 0 0 0 0 0 0 0 0 0 0 0 0 0 0 0 2:0.12162162 3:0.1092437 4:-0.77876106 5:-0.61926687 6:-0.70880968 7:-0.6642528 8:-0.67414051 
0 0 0 0 0 0 0 0 0 2097.657970914649 0 0 0 0 0 0 0 0 0 0 0 0 0 0 0 1:-1 2:0.71621622 3:0.74789916 4:-0.61946903 5:0.42163981 6:0.32952253 7:0.17709019 8:-0.0024912805 
6561 0 6561 0 6561 0 0 6561 0 0 0 0 0 0 0 0 0 0 0 0 0 0 0 0 0 2:0.16216216 3:0.19327731 4:-0.73451327 5:-0.54524526 6:-0.61802286 7:-0.6194865 8:-0.58445441 
0 0 5124.3814663456624 5243.9395473891745 6561 0 0 6561 0 6561 0 0 0 0 0 0 0 0 0 0 0 0 0 0 0 1:-1 2:0.54054054 3:0.52941176 4:-0.72566372 5:0.088719674 6:-0.13987895 7:-0.057274523 8:-0.14598904 
0 0 6561 0 6561 0 0 6561 0 0 0 0 0 0 0 0 0 0 0 0 0 0 0 0 0 2:0.52702703 3:0.44537815 4:-0.74336283 5:-0.19851248 6:-0.25823806 7:-0.34167215 8:-0.40209268 
2274.7426350639403 0 6561 0 6561 0 0 6561 0 0 0 0 0 0 0 0 0 0 0 0 0 0 0 0 0 1:-1 2:0.52702703 3:0.4789916 4:-0.7079646 5:-0.075615371 6:-0.089441829 7:-0.23238973 8:-0.47284504 
0 0 6561 0 6561 0 2192.7635338629075 6561 0 2918.4957881932492 0 0 0 0 0 0 0 0 0 0 0 0 0 0 0 2:0.43243243 3:0.44537815 4:-0.7079646 5:-0.32743049 6:-0.39139206 7:-0.49308756 8:-0.45191829 
0 0 0 0 6561 0 0 6561 0 0 0 0 0 0 0 0 0 0 0 0 0 0 0 0 0 1:-1 2:0.63513514 3:0.59663866 4:-0.68141593 5:0.081636267 6:0.025554808 7:-0.18104016 8:-0.20079721 
0 0 3718.8083480830887 3512.6196329064674 6561 0 0 2971.41195665128 2627.8935821292876 5737.3358534553281 6561 5171.3410840635051 0 0 0 0 0 3655.87457099314 1683.7345777368823 0 0 0 0 6.0202337003066564 0 1:1 2:0.24324324 3:0.32773109 4:-0.69911504 5:-0.44820259 6:-0.59045057 7:-0.59183673 8:-0.41504733 
0 432.54288967290637 0 6561 6561 0 0 6561 6561 714.07961597496865 6561 0 0 0 2656.1390861276309 0 0 88.712669089646198 0 0 0 0 0 0 0 1:-1 2:0.22972973 3:0.22689076 4:-0.7079646 5:-0.36780591 6:-0.57229321 7:-0.37195523 8:-0.51469856 
0 0 0 0 6561 0 0 6561 0 6561 0 0 0 0 0 0 0 0 0 0 0 0 0 0 0 1:-1 2:0.48648649 3:0.4789916 4:-0.72566372 5:-0.25872145 6:-0.3463349 7:-0.44305464 8:-0.36223219 
0 0 0 6561 6561 0 0 6561 0 6561 4325.1665494774497 0 0 0 0 0 0 0 0 0 0 0 0 0 0 1:-1 2:0.41891892 3:0.42857143 4:-0.72566372 5:-0.2831592 6:-0.39475454 7:-0.50493746 8:-0.3552566 
0 0 0 0 0 0 0 0 0 0 0 407.85425213074285 0 0 0 0 0 0 0 0 0 0 0 0 0 2:0.83783784 3:0.74789916 4:-0.6460177 5:0.46697361 6:0.36180229 7:0.2244898 8:-0.046337818 
0 0 0 0 1035.5350048316413 0 0 0 1124.4226614268568 0 0 3.3354504705863941 0 0 0 0 0 0 0 0 0 0 0 0 0 2:0.90540541 3:0.93277311 4:-0.61946903 5:0.88064459 6:1 7:0.31138907 8:0.16492277 
0 4169.4762199878805 0 1229.4390948501134 0 0 0 6561 0 387.98353068427843 581.72432424636395 0 0 0 0 0 0 692.91366153361218 0 0 0 0 0 0 0 2:0.55405405 3:0.79831933 4:-0.61061947 5:0.17584558 6:0.034297243 7:-0.0059249506 8:-0.13602392 
0 2143.5602526376333 0 0 882.46350723300668 0 0 3062.4015353017062 6561 6561 0 0 0 0 0 0 0 0 0 0 0 0 0 0 0 1:-1 2:0.71621622 3:0.71428571 4:-0.63716814 5:0.5555162 6:0.3597848 7:0.37458855 8:0.08819133 
0 6408.2942008310893 0 6561 6561 0 0 6561 6561 6561 6561 6561 0 0 6561 0 6561 6382.1645478356468 2952.3539392508915 3741.1779022468877 0 1683.0493181949068 0 0 0 1:-1 2:0.36486486 3:0.39495798 4:-0.7079646 5:-0.34478484 6:-0.56893073 7:-0.47860434 8:-0.37518685 
6561 0 6561 4069.3172680707025 6561 0 0 6561 0 6561 0 0 0 0 0 0 0 0 0 0 0 0 0 0 0 2:-0.040540541 3:-0.092436975 4:-0.79646018 5:-0.727643 6:-0.80295898 7:-0.72086899 8:-0.78375685 
0 0 6561 0 6561 0 0 6561 0 0 0 0 0 0 0 0 0 0 0 0 0 0 0 0 0 2:0.44594595 3:0.41176471 4:-0.73451327 5:-0.2126793 6:-0.30262273 7:-0.32323897 8:-0.4040857 
0 0 6561 6561 6561 0 0 6561 1319.3699065703158 6561 0 0 0 0 0 0 0 0 0 0 0 0 0 0 0 2:0.41891892 3:0.32773109 4:-0.75221239 5:-0.3858686 6:-0.54068594 7:-0.48782093 8:-0.42301943 
0 0 0 3543.3216010317196 6561 0 0 6561 0 6561 0 0 0 0 0 0 0 2674.3915648168195 0 0 0 0 0 0 0 1:-1 2:0.41891892 3:0.4789916 4:-0.67256637 5:-0.21197096 6:-0.32145259 7:-0.3074391 8:-0.27154958 
0 0 0 0 6561 0 0 6561 0 0 0 0 0 0 0 0 0 0 0 0 0 0 0 0 0 1:-1 2:0.55405405 3:0.57983193 4:-0.66371681 5:0.14078272 6:0.043712172 7:-0.030941409 8:-0.21275536 
6561 4106.3841850397666 6561 0 6561 0 6561 6561 0 6561 0 0 0 0 0 0 0 0 0 0 0 0 0 0 0 2:0.40540541 3:0.32773109 4:-0.73451327 5:-0.21232513 6:-0.21250841 7:-0.42067149 8:-0.50473343 
0 0 6561 0 6561 0 0 6561 0 0 0 0 0 0 0 0 0 0 0 0 0 0 0 0 0 1:-1 2:0.27027027 3:0.29411765 4:-0.75221239 5:-0.40676465 6:-0.52252858 7:-0.49967084 8:-0.52765321 
0 0 0 6561 6561 0 0 6561 0 0 0 0 0 0 0 0 0 0 0 0 0 0 0 0 0 1:-1 2:0.59459459 3:0.54621849 4:-0.66371681 5:0.15919957 6:0.11634163 7:-0.059907834 8:-0.26357748 
0 0 6561 0 6561 0 0 6561 0 6561 0 0 0 0 0 0 0 0 0 0 0 0 0 0 0 1:-1 2:0.40540541 3:0.34453782 4:-0.74336283 5:-0.33415973 6:-0.42299933 7:-0.52205398 8:-0.45092177 
0 0 6561 0 6561 0 0 6561 0 0 0 0 0 0 0 0 0 0 0 0 0 0 0 0 0 1:-1 2:0.43243243 3:0.39495798 4:-0.7079646 5:-0.12909509 6:-0.19098857 7:-0.31138907 8:-0.4200299 
0 3057.5156336158448 0 0 6561 0 0 6561 0 0 0 0 0 0 0 0 0 0 0 0 0 0 0 0 0 1:-1 2:0.52702703 3:0.57983193 4:-0.67256637 5:0.20772091 6:0.024882313 7:0.10599078 8:-0.11908321 
0 873.4835385811075 0 758.66783786224903 6561 0 0 6561 0 6561 0 0 0 0 0 0 0 5900.6545826839665 0 0 0 0 0 0 0 2:0.43243243 3:0.51260504 4:-0.68141593 5:0.014343899 6:-0.021519839 7:-0.30612245 8:-0.14399601 
0 0 0 6561 4494.6390033757853 0 0 6561 3004.80248295617 6561 0 6561 0 0 6561 0 0 6561 0 0 0 0 0 0 0 2:0.52702703 3:0.49579832 4:-0.68141593 5:0.060740216 6:-0.20376597 7:-0.17445688 8:-0.14399601 
0 0 0 6561 6561 0 0 6561 0 5864.0469059935758 0 0 0 0 0 0 0 0 0 0 0 0 0 0 0 1:-1 2:0.51351351 3:0.46218487 4:-0.69026549 5:-0.027448203 6:-0.16341627 7:-0.28900592 8:-0.21574489 
6561 0 6561 0 6561 0 6561 6561 0 6051.7959805659848 0 0 0 0 0 0 0 0 0 0 0 0 0 0 0 1:-1 2:0.094594595 3:0.075630252 4:-0.78761062 5:-0.58384983 6:-0.66039005 7:-0.6642528 8:-0.66018934 
0 0 6561 0 6561 0 0 6561 0 0 0 0 0 0 0 0 0 0 0 0 0 0 0 0 0 2:0.48648649 3:0.46218487 4:-0.69026549 5:-0.12803258 6:-0.2528581 7:-0.35088874 8:-0.27553563 
0 0 6561 0 6561 0 0 6561 0 6201.9964131491006 0 0 0 0 0 0 0 0 0 0 0 0 0 0 0 2:0.44594595 3:0.32773109 4:-0.7699115 5:-0.38338941 6:-0.47814391 7:-0.54970375 8:-0.4608869 
0 0 0 1835.6770839589285 511.17864724160938 0 0 4520.1167651705546 2930.3605216967276 466.47309751178261 0 0 0 0 581.79895490738102 0 0 0 0 0 0 0 0 0 0 2:0.78378378 3:0.83193277 4:-0.61061947 5:0.80839384 6:0.52320108 7:0.15734036 8:0.19282511 
0 0 6561 0 6561 0 0 6561 0 0 0 0 0 0 0 0 0 0 0 0 0 0 0 0 0 1:1 2:0.43243243 3:0.27731092 4:-0.7699115 5:-0.36213919 6:-0.42030935 7:-0.54312047 8:-0.48480319 
0 0 6561 0 6561 0 0 6561 0 0 0 0 0 0 0 0 0 0 0 0 0 0 0 0 0 1:-1 2:0.5 3:0.4789916 4:-0.69026549 5:-0.10217815 6:-0.18762609 7:-0.28768927 8:-0.34927753 
0 0 0 0 6561 0 0 6561 0 0 0 0 0 0 0 0 0 0 0 0 0 0 0 0 0 1:-1 2:0.5 3:0.51260504 4:-0.73451327 5:-0.068886134 6:-0.15063887 7:-0.3522054 8:-0.2655705 
3585.4708024475026 0 6561 6561 6561 0 0 6561 1076.3896314797287 4351.1665040615499 6561 0 0 0 0 0 0 0 0 0 0 0 0 0 0 1:-1 2:-0.067567568 3:-0.042016807 4:-0.77876106 5:-0.68301753 6:-0.77942165 7:-0.70506912 8:-0.71599402 
0 0 6561 6561 6561 0 0 6561 6561 0 2840.3520941752636 0 0 0 0 0 0 0 1109.8517107167502 0 0 0 0 0 0 1:1 2:0.16216216 3:0.17647059 4:-0.7699115 5:-0.5771206 6:-0.69939475 7:-0.69190257 8:-0.55455904 
0 0 0 0 6561 0 0 6561 0 0 0 0 0 0 0 0 0 0 0 0 0 0 0 0 0 1:-1 2:0.51351351 3:0.56302521 4:-0.69026549 5:-0.086240482 6:-0.19435104 7:-0.29295589 8:-0.27154958 
0 6561 0 6561 0 0 0 6561 6063.9198596409797 6561 5466.8391999192736 2155.5052549238767 0 0 1265.3145631714326 0 0 4171.1873509966672 0 0 0 0 0 0 0 1:-1 2:0.66216216 3:0.66386555 4:-0.68141593 5:0.19674163 6:-0.1062542 7:0.057274523 8:-0.0064773293 
0 0 0 5815.7452039465888 6561 0 0 6561 5761.1512352990285 6561 6561 6561 0 0 3981.5983149087178 0 0 0 0 0 0 0 0 0 0 2:0.48648649 3:0.46218487 4:-0.6460177 5:-0.022135647 6:-0.20847344 7:-0.25082291 8:-0.24364723 
0 0 6561 0 6561 0 16.826740088915482 6561 0 0 0 0 0 0 0 0 0 0 0 0 0 0 0 0 0 1:1 2:0.31081081 3:0.27731092 4:-0.76106195 5:-0.49141137 6:-0.55884331 7:-0.73008558 8:-0.50274041 
6561 0 6561 0 6561 0 0 6561 0 0 0 0 0 0 0 0 0 0 0 0 0 0 0 0 0 1:-1 2:0.36486486 3:0.37815126 4:-0.74336283 5:-0.37311847 6:-0.40887693 7:-0.56550362 8:-0.47483807 
0 0 0 0 0 0 0 6561 0 6561 0 0 0 0 0 0 0 0 0 0 0 0 0 0 0 2:0.64864865 3:0.71428571 4:-0.69026549 5:0.1588454 6:0.044384667 7:-0.013824885 8:-0.13004484 
-0 0 6561 0 6561 0 0 0 0 0 0 0 0 0 0 0 0 0 0 0 0 0 0 0 0 1:1 2:-0.027027027 3:-0.058823529 4:-0.82300885 5:-0.76801842 6:-0.82784129 7:-0.81698486 8:-0.78375685 
-0 0 6561 0 0 0 6561 0 0 0 0 0 0 0 0 0 0 0 0 0 0 0 0 0 0 1:1 2:0.040540541 3:0.025210084 4:-0.81415929 5:-0.67132991 6:-0.70208473 7:-0.74061883 8:-0.78375685 
-5858.9465319342771 0 6561 0 6561 0 0 6561 0 0 0 0 0 0 0 0 0 0 0 0 0 0 0 0 0 1:1 2:0.17567568 3:0.14285714 4:-0.7699115 5:-0.5746414 6:-0.62340282 7:-0.62475313 8:-0.68011958 
-6561 0 6561 0 6561 0 6561 6561 0 6561 0 0 0 0 2950.9289676170383 0 0 0 0 386.80696591845822 0 0 0 0 0 2:0.36486486 3:0.27731092 4:-0.73451327 5:-0.40711882 6:-0.53261601 7:-0.4562212 8:-0.62032885 
-0 0 6561 0 0 0 6561 0 0 6561 0 0 0 0 0 0 0 0 0 0 0 0 0 0 0 1:1 2:-0.21621622 3:-0.2605042 4:-0.76106195 5:-0.83141491 6:-0.85608608 7:-0.8841343 8:-0.85650224 
-6561 0 6561 0 6561 0 1194.9605666802688 6561 0 1232.4836121980309 0 0 0 0 -0 0 0 0 0 0 0 0 0 0 0 1:-1 2:-0.2027027 3:-0.24369748 4:-0.83185841 5:-0.84381087 6:-0.8930733 7:-0.86701777 8:-0.85351271 
-0 0 0 0 0 6561 1496.5078627500532 0 0 0 0 0 0 0 0 0 0 0 0 0 0 0 0 0 0 1:-1 2:-0.47297297 3:-0.52941176 4:-0.87610619 5:-0.92633257 6:-0.93880296 7:-0.95391705 8:-0.93124066 
-6561 0 6561 6561 6561 0 0 6561 1262.1195531830886 0 0 0 0 0 0 0 0 0 0 0 0 0 0 0 0 1:1 2:0.16216216 3:0.092436975 4:-0.78761062 5:-0.5806623 6:-0.65232011 7:-0.62343647 8:-0.64424514 
-0 0 6561 0 6561 0 6561 6561 0 0 0 0 0 0 0 0 0 0 0 0 0 0 0 0 0 1:-1 3:-0.1092437 4:-0.78761062 5:-0.70816363 6:-0.733692 7:-0.76431863 8:-0.76980568 
-0 0 6561 0 0 0 6561 0 0 0 0 0 0 0 0 0 0 0 0 0 0 0 0 0 0 1:1 2:-0.094594595 3:-0.17647059 4:-0.82300885 5:-0.8016646 6:-0.83254876 7:-0.85121791 8:-0.8285999 
-0 0 6561 0 6561 0 0 0 0 0 0 0 0 0 0 0 0 0 0 0 0 0 0 0 0 1:1 2:-0.013513514 3:-0.075630252 4:-0.80530973 5:-0.73897645 6:-0.79354405 7:-0.7801185 8:-0.76382661 
-0 0 6561 0 6561 0 0 0 0 0 0 0 0 0 0 0 0 0 0 0 0 0 0 0 0 1:1 2:0.040540541 3:-0.0084033613 4:-0.80530973 5:-0.6702674 6:-0.71553463 7:-0.74061883 8:-0.72894868 
-0 0 6561 0 6561 0 6561 0 0 0 0 0 0 0 0 0 0 0 0 0 0 0 0 0 0 1:1 2:0.081081081 3:0.1092437 4:-0.80530973 5:-0.59518328 6:-0.58305313 7:-0.73140224 8:-0.73193822 
-0 0 6561 0 0 0 6561 0 0 0 0 0 0 0 0 0 0 0 0 0 0 0 0 0 0 1:1 2:-0.33783784 3:-0.32773109 4:-0.82300885 5:-0.87710289 6:-0.90316073 7:-0.89203423 8:-0.87344295 
-0 0 863.80150241404363 0 0 0 6561 0 0 0 0 0 0 0 0 0 0 0 0 0 0 0 0 0 0 1:1 2:-0.25675676 3:-0.31092437 4:-0.83185841 5:-0.85195679 6:-0.88567586 7:-0.85385122 8:-0.86746388 
-253.96702458243703 0 6561 0 6561 563.51871063303986 2258.2112747205074 5877.9324379351501 0 0 0 0 0 0 0 0 247.44785409038053 0 0 0 0 1.413771404686097 0 0 0 1:-1 2:0.12162162 3:0.37815126 4:-0.77876106 5:-0.63130866 6:-0.68527236 7:-0.65898618 8:-0.72197309 
-0 0 0 0 0 0 6561 0 0 0 0 0 0 0 0 0 0 0 0 0 0 0 0 0 0 1:1 2:-0.18918919 3:-0.27731092 4:-0.84955752 5:-0.84699841 6:-0.87424344 7:-0.89861751 8:-0.86347783 
-0 0 6561 0 6561 0 0 6561 0 0 0 0 0 0 0 0 0 0 0 0 0 0 0 0 0 1:-1 2:0.21621622 3:0.092436975 4:-0.77876106 5:-0.54099522 6:-0.59381305 7:-0.59315339 8:-0.68609865 
-0 0 0 0 871.41691687726848 3742.4334576984415 0 6561 0 0 0 0 0 0 0 0 0 0 0 0 0 0 0 0 0 1:-1 2:-0.41891892 3:-0.41176471 4:-0.86725664 5:-0.91889499 6:-0.94351042 7:-0.93416722 8:-0.92326856 
-0 0 0 0 0 549.93128531309435 6561 0 0 0 0 0 0 0 0 0 0 0 0 0 0 0 0 0 0 1:1 2:-0.21621622 3:-0.29411765 4:-0.76106195 5:-0.84451921 6:-0.86012105 7:-0.87755102 8:-0.88241156 
-0 0 6561 0 6561 0 0 6561 0 0 0 0 0 0 0 0 0 0 0 0 0 0 0 0 0 1:-1 2:-0.2972973 3:-0.34453782 4:-0.84070796 5:-0.87320701 6:-0.89979825 7:-0.89203423 8:-0.88340807 
-0 0 0 0 0 0 6561 0 0 0 0 0 0 0 0 0 0 0 0 0 0 0 0 0 0 1:1 2:-0.16216216 3:-0.17647059 4:-0.77876106 5:-0.75845582 6:-0.77202421 7:-0.80776827 8:-0.84155456 
-6561 6561 6561 6561 6561 0 6561 6561 6561 6561 6561 5870.7152036993775 0 0 2267.9867600487883 0 1803.6635854697624 0 0 96.70335393477167 0 76.898781606491184 0 0 0 1:-1 2:0.18918919 3:0.19327731 4:-0.75221239 5:-0.48043209 6:-0.58910558 7:-0.640553 8:-0.60438465 
-0 0 6561 0 0 0 0 0 0 0 0 0 0 0 0 0 0 0 0 0 0 0 0 0 0 1:1 2:-0.10810811 3:-0.15966387 4:-0.84070796 5:-0.80131043 6:-0.84801614 7:-0.84990125 8:-0.81365222 
-0 0 6561 0 0 0 3050.4158166165885 0 0 0 0 0 0 0 0 0 0 0 0 0 0 0 0 0 0 1:1 2:-0.081081081 3:-0.092436975 4:-0.82300885 5:-0.67097574 6:-0.69401479 7:-0.72086899 8:-0.77578475 
-0 0 6561 0 0 0 0 0 0 0 0 0 0 0 0 0 0 0 0 0 0 0 0 0 0 1:1 2:-0.081081081 3:-0.058823529 4:-0.82300885 5:-0.74783071 6:-0.77404169 7:-0.82488479 8:-0.79372197 
-1483.0314561612977 0 6561 0 6561 0 0 6561 0 0 0 0 0 0 0 0 0 0 0 0 0 0 0 0 0 1:1 2:0.2027027 3:0.14285714 4:-0.74336283 5:-0.45599433 6:-0.43106927 7:-0.62738644 8:-0.62531141 
-0 0 6561 0 0 0 0 0 0 0 0 0 0 0 0 0 0 0 0 0 0 0 0 0 0 1:1 2:-0.013513514 3:-0.058823529 4:-0.80530973 5:-0.72622631 6:-0.76597176 7:-0.78143515 8:-0.78176383 
-0 0 0 0 0 6561 6561 0 0 0 0 0 0 0 0 0 0 0 0 0 0 0 0 0 0 1:1 2:-0.2972973 3:-0.34453782 4:-0.86725664 5:-0.8721445 6:-0.9065232 7:-0.88545095 8:-0.89337319 
-0 0 0 0 0 0 6561 0 0 0 0 0 0 0 0 0 0 0 0 0 0 0 0 0 0 1:1 2:-0.14864865 3:-0.22689076 4:-0.82300885 5:-0.80237294 6:-0.82985878 7:-0.83805135 8:-0.84952666 
-0 0 0 0 0 0 6561 0 0 0 0 0 0 0 0 0 0 0 0 0 0 0 0 0 0 1:1 2:-0.21621622 3:-0.2605042 4:-0.84955752 5:-0.8434567 6:-0.86953598 7:-0.90256748 8:-0.85351271 
-0 0 3725.4762286387331 0 0 0 6561 0 0 0 0 0 0 0 0 0 0 0 0 0 0 0 0 0 0 1:1 2:-0.12162162 3:-0.15966387 4:-0.82300885 5:-0.75951833 6:-0.76462677 7:-0.83673469 8:-0.83059292 
-0 0 0 0 0 0 6561 0 0 0 0 0 0 0 0 0 0 0 0 0 0 0 0 0 0 1:1 2:-0.16216216 3:-0.24369748 4:-0.83185841 5:-0.81937312 6:-0.84129119 7:-0.84595128 8:-0.86347783 
-0 0 6561 0 6561 0 0 6561 0 0 0 0 0 0 0 0 0 0 0 0 0 0 0 0 0 1:-1 2:0.27027027 3:0.22689076 4:-0.78761062 5:-0.44430671 6:-0.45931406 7:-0.51415405 8:-0.66417539 
-0 0 0 0 0 0 6561 0 0 0 0 0 0 0 0 0 0 0 0 0 0 0 0 0 0 1:1 2:-0.14864865 3:-0.19327731 4:-0.82300885 5:-0.80378962 6:-0.84599866 7:-0.84595128 8:-0.84354758 
-0 0 6561 0 0 0 6561 0 0 0 0 0 0 0 0 0 0 0 0 0 0 0 0 0 0 1:1 2:-0.067567568 3:-0.1092437 4:-0.80530973 5:-0.74464317 6:-0.76731675 7:-0.83410138 8:-0.79372197 
-0 0 6561 0 0 0 0 0 0 0 0 0 0 0 0 0 0 0 0 0 0 0 0 0 0 1:1 2:-0.013513514 3:0.0084033613 4:-0.78761062 5:-0.65078803 6:-0.69065232 7:-0.7116524 8:-0.75386148 
-6561 0 6561 6561 6561 0 0 6561 6561 6561 6561 4083.5017555537152 0 0 549.0967142555146 0 0 0 0 10.674803678513111 0 0 0 0 0 1:1 2:0.16216216 3:0.1092437 4:-0.78761062 5:-0.57605808 6:-0.6798924 7:-0.62738644 8:-0.63428002 
-0 0 6561 0 6561 0 0 6561 0 0 0 0 0 0 0 0 0 0 0 0 0 0 0 0 0 1:1 2:0.18918919 3:0.092436975 4:-0.78761062 5:-0.55870374 6:-0.56220578 7:-0.66030283 8:-0.68410563 
-0 0 6561 0 6561 0 0 6561 0 0 0 0 0 0 0 0 0 0 0 0 0 0 0 0 0 1:1 2:0.21621622 3:0.15966387 4:-0.75221239 5:-0.53816186 6:-0.59112307 7:-0.57998683 8:-0.66616841 
-0 0 2134.2540683605057 0 0 0 6561 0 0 0 0 0 0 0 0 0 0 0 0 0 0 0 0 0 0 1:1 2:-0.13513514 3:-0.21008403 4:-0.83185841 5:-0.77545599 6:-0.81573638 7:-0.79065174 8:-0.83956153 
-0 0 6561 0 604.90461799007562 0 0 0 0 0 0 0 0 0 0 0 0 0 0 0 0 0 0 0 0 1:1 2:-0.040540541 3:-0.042016807 4:-0.80530973 5:-0.74322649 6:-0.78749159 7:-0.77616853 8:-0.79372197 
-0 0 6561 0 0 0 6561 0 0 0 0 0 0 0 0 0 0 0 0 0 0 0 0 0 0 1:1 2:-0.027027027 3:-0.025210084 4:-0.79646018 5:-0.70533026 6:-0.70275723 7:-0.80776827 8:-0.79172895 
-0 0 0 0 0 0 6561 0 0 0 0 0 0 0 0 0 0 0 0 0 0 0 0 0 0 1:1 2:-0.2027027 3:-0.2605042 4:-0.82300885 5:-0.84558172 6:-0.87491594 7:-0.88281764 8:-0.87344295 
-0 0 0 0 0 0 6561 0 0 0 0 0 0 0 0 0 0 0 0 0 0 0 0 0 0 1:1 2:-0.13513514 3:-0.19327731 4:-0.82300885 5:-0.79387285 6:-0.8130464 7:-0.83805135 8:-0.83956153 
-0 0 6561 0 0 0 6561 0 0 0 0 0 0 0 0 0 0 0 0 0 0 0 0 0 0 1:1 2:-0.094594595 3:-0.14285714 4:-0.84070796 5:-0.76128918 6:-0.79287155 7:-0.81830151 8:-0.82361734 
-0 0 0 0 0 6561 6561 0 0 0 0 0 0 0 0 0 0 0 0 0 0 0 0 0 0 1:1 2:-0.16216216 3:-0.21008403 4:-0.85840708 5:-0.82539401 6:-0.83725622 7:-0.87096774 8:-0.87344295 
-0 0 6561 0 0 0 6561 0 0 0 0 0 0 0 0 0 0 0 0 0 0 0 0 0 0 1:1 2:-0.16216216 3:-0.21008403 4:-0.84070796 5:-0.83708164 6:-0.88634835 7:-0.87096774 8:-0.84354758 
-0 0 6561 0 6561 0 0 0 0 0 0 0 0 0 0 0 0 0 0 0 0 0 0 0 0 1:1 2:0.013513514 3:-0.058823529 4:-0.80530973 5:-0.70426775 6:-0.75790182 7:-0.77748519 8:-0.73492775 
-0 0 6561 0 6561 0 0 0 0 0 0 0 0 0 0 0 0 0 0 0 0 0 0 0 0 1:-1 2:-0.054054054 3:-0.092436975 4:-0.83185841 5:-0.73330972 6:-0.77202421 7:-0.79065174 8:-0.8036871 
-0 0 6561 0 6561 0 0 6561 0 0 0 0 0 0 0 0 0 0 0 0 0 0 0 0 0 1:-1 2:0.16216216 3:0.15966387 4:-0.76106195 5:-0.48928635 6:-0.49428379 7:-0.60895326 8:-0.64823119 
-0 0 0 0 0 6561 6561 0 0 0 0 0 0 0 0 0 0 0 0 0 0 0 0 0 0 1:1 2:-0.22972973 3:-0.29411765 4:-0.86725664 5:-0.87072782 6:-0.88971083 7:-0.90520079 8:-0.89337319 
-6561 0 6561 0 6561 0 0 6561 0 5823.468893381335 0 0 0 0 0 0 0 0 0 0 0 0 0 0 0 1:1 2:0.24324324 3:0.15966387 4:-0.7699115 5:-0.53603683 6:-0.62004035 7:-0.57472021 8:-0.65421026 
-0 0 6561 0 0 0 6561 0 0 0 0 0 0 0 0 0 0 0 0 0 0 0 0 0 0 1:1 2:-0.013513514 3:-0.042016807 4:-0.82300885 5:-0.73295555 6:-0.76933423 7:-0.78670178 8:-0.80169407 
-0 0 0 0 0 0 6561 0 0 0 0 0 0 0 0 0 0 0 0 0 0 0 0 0 0 1:1 2:-0.16216216 3:-0.17647059 4:-0.83185841 5:-0.78749779 6:-0.79690652 7:-0.83936801 8:-0.85650224 
-0 0 0 0 0 0 6561 0 0 0 0 0 0 0 0 0 0 0 0 0 0 0 0 0 0 1:-1 2:-0.40540541 3:-0.46218487 4:-0.86725664 5:-0.91004073 6:-0.93409549 7:-0.92363397 8:-0.92326856 
-0 0 6561 0 6561 0 0 0 0 0 0 0 0 0 0 0 0 0 0 0 0 0 0 0 0 1:1 3:-0.042016807 4:-0.74336283 5:-0.69399681 6:-0.73974445 7:-0.76300197 8:-0.74389636 
-0 0 6561 0 6561 0 0 0 0 0 0 0 0 0 0 0 0 0 0 0 0 0 0 0 0 1:-1 2:0.094594595 3:0.058823529 4:-0.76106195 5:-0.55409952 6:-0.53799597 7:-0.73403555 8:-0.68211261 
-0 0 6561 0 0 0 0 0 0 0 0 0 0 0 0 0 0 0 0 0 0 0 0 0 0 1:1 2:-0.081081081 3:-0.092436975 4:-0.82300885 5:-0.77970604 6:-0.81439139 7:-0.83673469 8:-0.81066268 
-6561 0 6561 0 6561 0 0 6561 0 6561 0 0 0 0 0 0 0 0 0 0 0 0 0 0 0 2:-0.027027027 3:-0.092436975 4:-0.79646018 5:-0.72410129 6:-0.79421654 7:-0.75378539 8:-0.76382661 
-0 0 6561 0 0 0 6561 0 0 0 0 0 0 0 0 0 0 0 0 0 0 0 0 0 0 1:1 2:-0.027027027 3:-0.092436975 4:-0.78761062 5:-0.7563308 6:-0.78749159 7:-0.7801185 8:-0.81365222 
-0 0 6561 0 0 0 0 0 0 0 0 0 0 0 0 0 0 0 0 0 0 0 0 0 0 1:1 2:-0.081081081 3:-0.1092437 4:-0.80530973 5:-0.73685143 6:-0.76597176 7:-0.80250165 8:-0.78574988 
-0 0 6561 0 0 0 6561 0 0 0 0 0 0 0 0 0 0 0 0 0 0 0 0 0 0 1:1 2:-0.081081081 3:-0.092436975 4:-0.82300885 5:-0.76518505 6:-0.80699395 7:-0.81303489 8:-0.81365222 
-0 0 1421.0084539195466 0 0 6561 6561 0 0 965.10453049947671 0 0 0 0 0 6561 0 0 0 0 0 0 0 0 0 1:1 2:-0.40540541 3:-0.42857143 4:-0.84070796 5:-0.92314503 6:-0.9468729 7:-0.93680053 8:-0.93921276 
-0 0 6561 0 0 0 6561 0 0 0 0 0 0 0 0 0 0 0 0 0 0 0 0 0 0 1:1 2:-0.24324324 3:-0.2605042 4:-0.84070796 5:-0.82362316 6:-0.87088097 7:-0.86175115 8:-0.84354758 
-0 0 4832.6022307486546 0 1375.0199864777601 0 0 1900.1087634332773 0 0 0 0 0 0 0 0 0 0 0 0 0 0 0 0 0 1:1 2:0.081081081 3:0.042016807 4:-0.82300885 5:-0.90826988 6:-0.72898453 7:-0.77090191 8:-0.75784753 
-0 0 0 0 0 0 6561 0 0 0 0 0 0 0 0 0 0 0 0 0 0 0 0 0 0 1:1 2:-0.14864865 3:-0.21008403 4:-0.82300885 5:-0.84381087 6:-0.87357095 7:-0.87886768 8:-0.85749875 
-6561 0 6561 1100.6950127542325 6561 0 0 6561 1445.2408685682462 6561 0 0 0 0 0 0 0 0 0 0 0 0 0 0 0 1:-1 2:0.39189189 3:0.37815126 4:-0.75221239 5:-0.2604923 6:-0.36987223 7:-0.30875576 8:-0.47882412 
-0 0 0 0 0 6561 6561 0 0 0 0 0 0 0 0 3381.0923983503098 0 0 0 0 0 0 0 0 0 1:-1 2:-0.44594595 3:-0.4789916 4:-0.85840708 5:-0.92456171 6:-0.9462004 7:-0.9315339 8:-0.93423019 
-0 0 6561 0 6561 0 0 0 0 0 0 0 0 0 0 0 0 0 0 0 0 0 0 0 0 1:-1 2:-0.25675676 3:-0.29411765 4:-0.80530973 5:-0.79139366 6:-0.81775387 7:-0.83541804 8:-0.83358246 
-0 0 6561 0 6561 0 6561 0 0 0 0 0 0 0 0 0 0 0 0 0 0 0 0 0 0 1:1 2:0.054054054 3:0.042016807 4:-0.79646018 5:-0.67062157 6:-0.68997983 7:-0.75773535 8:-0.77777778 
-0 0 6561 0 0 0 6561 0 0 0 0 0 0 0 0 0 0 0 0 0 0 0 0 0 0 1:1 2:-0.067567568 3:-0.17647059 4:-0.81415929 5:-0.77758102 6:-0.83254876 7:-0.81698486 8:-0.79671151 
-0 0 6561 0 6561 0 4369.2854543261346 6561 0 0 0 0 0 0 0 0 0 0 0 0 0 0 0 0 0 1:-1 2:0.14864865 3:0.15966387 4:-0.77876106 5:-0.52505755 6:-0.54942838 7:-0.68531929 8:-0.63926258 
-0 0 0 0 0 6561 6561 0 0 0 0 0 0 0 0 0 0 0 0 0 0 0 0 0 0 1:1 2:-0.31081081 3:-0.34453782 4:-0.83185841 5:-0.85372764 6:-0.86415602 7:-0.89730086 8:-0.89935227 
-0 0 0 0 0 2633.602138964447 6561 0 0 0 0 0 0 0 0 0 0 0 0 0 0 0 0 0 0 1:1 2:-0.2972973 3:-0.31092437 4:-0.84070796 5:-0.86222773 6:-0.88365837 7:-0.89335089 8:-0.89138017 
-0 0 6561 0 0 0 6561 0 0 0 0 0 0 0 0 0 0 0 0 0 0 0 0 0 0 1:1 2:-0.040540541 3:-0.1092437 4:-0.82300885 5:-0.75597662 6:-0.78143914 7:-0.79065174 8:-0.82361734 
-0 0 6561 0 0 0 0 0 0 0 0 0 0 0 0 0 0 0 0 0 0 0 0 0 0 1:1 2:-0.013513514 3:-0.092436975 4:-0.84070796 5:-0.75349743 6:-0.80228648 7:-0.82488479 8:-0.79372197 
-6561 0 6561 6561 6561 0 0 6561 6561 6561 6561 0 0 0 1235.6251256434634 0 0 6561 0 0 0 0 0 0 0 2:0.040540541 3:0.075630252 4:-0.78761062 5:-0.67522578 6:-0.76260928 7:-0.7116524 8:-0.70403587 
-0 0 6561 0 0 0 6561 0 0 0 0 0 0 0 0 0 0 0 0 0 0 0 0 0 0 1:1 2:0.040540541 3:-0.025210084 4:-0.78761062 5:-0.70710112 6:-0.73503699 7:-0.7682686 8:-0.78973592 
-0 0 6561 0 0 6561 6561 0 889.4682687790862 0 0 0 0 0 0 0 0 0 0 0 0 0 0 0 0 1:1 2:-0.10810811 3:-0.34453782 4:-0.84070796 5:-0.79776873 6:-0.82918628 7:-0.83541804 8:-0.84255107 
-0 0 0 0 0 0 6561 0 0 0 0 0 0 0 0 0 0 0 0 0 0 0 0 0 0 1:-1 2:-0.32432432 3:-0.37815126 4:-0.84955752 5:-0.87887374 6:-0.89441829 7:-0.90125082 8:-0.90333832 
-0 0 6561 0 6561 0 0 0 0 0 0 0 0 0 0 0 0 0 0 0 0 0 0 0 0 1:1 2:-0.094594595 3:-0.058823529 4:-0.81415929 5:-0.76731008 6:-0.81237391 7:-0.83278473 8:-0.79372197 
-0 0 6561 0 6561 0 6561 0 0 0 0 0 0 0 0 0 0 0 0 0 0 0 0 0 0 1:1 2:-0.013513514 3:-0.058823529 4:-0.79646018 5:-0.70285107 6:-0.76866174 7:-0.79986833 8:-0.77777778 
-0 0 0 0 0 6561 6561 0 0 0 0 0 0 0 0 0 0 0 0 0 0 0 0 0 0 1:1 2:-0.054054054 3:-0.14285714 4:-0.84070796 5:-0.78820613 6:-0.81506389 7:-0.83015142 8:-0.84354758 
-6561 0 6561 6561 6561 0 0 6561 0 6561 833.95555943500426 0 0 0 0 0 0 6561 0 0 0 0 0 0 0 2:-0.040540541 3:-0.042016807 4:-0.78761062 5:-0.72445546 6:-0.79219906 7:-0.75115207 8:-0.72296961 
-0 0 6561 0 6561 0 0 6561 0 0 0 0 0 0 0 0 0 0 0 0 0 0 0 0 0 1:-1 2:-0.12162162 3:-0.1092437 4:-0.83185841 5:-0.78678945 6:-0.82178884 7:-0.84331797 8:-0.8036871 
-0 0 6561 0 5482.8142310850099 0 0 5313.3449485298061 0 0 0 0 0 0 0 0 0 0 0 0 0 0 0 0 0 1:1 2:-0.094594595 3:-0.12605042 4:-0.83185841 5:-0.80272711 6:-0.84801614 7:-0.91046741 8:-0.78375685 
-0 0 6561 0 6561 0 0 128.37444934454203 0 0 0 0 0 0 0 0 0 0 0 0 0 0 0 0 0 1:1 2:0.13513514 3:0.092436975 4:-0.78761062 5:-0.63874624 6:-0.68796234 7:-0.68400263 8:-0.73193822 
-0 0 6561 0 6561 0 0 2334.4025650103604 0 0 0 0 0 0 0 0 0 0 0 0 0 0 0 0 0 1:1 2:0.13513514 3:-0.075630252 4:-0.82300885 5:-0.68974677 6:-0.76328178 7:-0.75115207 8:-0.70403587 
-0 0 0 0 0 0 6561 0 0 0 0 0 0 0 0 0 0 0 0 0 0 0 0 0 0 1:1 2:-0.22972973 3:-0.29411765 4:-0.83185841 5:-0.83743581 6:-0.86012105 7:-0.88018433 8:-0.85351271 
-0 0 0 0 0 0 6561 0 0 0 0 0 0 0 0 0 0 0 0 0 0 0 0 0 0 1:1 2:-0.14864865 3:-0.19327731 4:-0.83185841 5:-0.85762352 6:-0.88365837 7:-0.88281764 8:-0.85351271 
-0 0 0 0 0 0 6561 0 0 0 0 0 0 0 0 0 0 0 0 0 0 0 0 0 0 1:1 3:-0.092436975 4:-0.82300885 5:-0.73366389 6:-0.7599193 7:-0.73798552 8:-0.82561036 
-0 0 0 0 0 0 6561 0 0 0 0 0 0 0 0 0 0 0 0 0 0 0 0 0 0 1:1 2:-0.18918919 3:-0.2605042 4:-0.83185841 5:-0.83885249 6:-0.87357095 7:-0.85780118 8:-0.87144993 
-0 0 6561 0 6561 0 0 6561 0 0 0 0 0 0 0 0 0 0 0 0 0 0 0 0 0 1:1 2:0.081081081 3:0.075630252 4:-0.79646018 5:-0.63272534 6:-0.68796234 7:-0.6879526 8:-0.71300448 
-4007.7752701934787 0 6561 5976.3494999492987 6561 0 0 6561 0 0 0 0 0 0 0 0 0 0 0 0 0 0 0 0 0 1:1 2:0.18918919 3:0.1092437 4:-0.77876106 5:-0.59624579 6:-0.68258238 7:-0.62343647 8:-0.67414051 
-0 0 6561 0 0 0 6561 0 0 0 0 0 0 0 0 0 0 0 0 0 0 0 0 0 0 1:1 2:0.013513514 3:-0.025210084 4:-0.80530973 5:-0.66849655 6:-0.68459987 7:-0.77616853 8:-0.77678127 
-4867.4155742503026 0 6561 0 6561 0 0 6561 0 0 0 0 0 0 0 0 0 0 0 0 0 0 0 0 0 1:-1 2:0.21621622 3:0.21008403 4:-0.76106195 5:-0.43863999 6:-0.47141896 7:-0.5036208 8:-0.6003986 
-0 0 0 0 0 0 6561 0 0 0 0 0 0 0 0 0 0 0 0 0 0 0 0 0 0 1:1 2:-0.2027027 3:-0.24369748 4:-0.83185841 5:-0.81335222 6:-0.83725622 7:-0.86438446 8:-0.84354758 
-6561 0 6561 6561 6561 0 0 6561 2969.9054266880098 6561 6561 0 0 0 1176.4217453597166 0 0 0 0 2527.2854852609435 0 0 0 0 0 2:0.2972973 3:0.24369748 4:-0.75221239 5:-0.31928458 6:-0.40954943 7:-0.4114549 8:-0.52466368 
-6561 0 6561 0 6561 0 0 6561 0 6561 0 0 0 0 0 0 0 0 0 0 0 0 0 0 0 2:0.027027027 3:-0.0084033613 4:-0.78761062 5:-0.67876749 6:-0.73974445 7:-0.72613562 8:-0.72894868 
-6561 0 6561 6561 6561 0 910.19477306382498 6561 6561 6561 0 0 0 0 0 0 0 0 1406.4610174190097 0 0 0 0 0 0 2:0.36486486 3:0.36134454 4:-0.73451327 5:-0.21126262 6:-0.25151311 7:-0.40750494 8:-0.42501246 
-0 0 6561 0 0 0 6561 0 0 0 0 0 0 0 0 0 0 0 0 0 0 0 0 0 0 1:1 2:-0.10810811 3:-0.15966387 4:-0.82300885 5:-0.81158137 6:-0.84734364 7:-0.86175115 8:-0.83358246 
-0 0 2292.9578602262591 0 3175.7163281838757 0 6561 0 123.84791951327624 0 622.26236526193168 591.64710817033517 0 0 0 2280.5399546066456 0 0 0 0 0 0 0 0 0 1:-1 2:-0.17567568 3:-0.39495798 4:-0.82300885 5:-0.81866478 6:-0.85944855 7:-0.85911784 8:-0.84354758 
-0 0 0 0 0 6561 6561 0 0 0 0 0 0 0 0 0 0 0 0 0 0 0 0 0 0 1:1 2:-0.31081081 3:-0.32773109 4:-0.85840708 5:-0.85620684 6:-0.88096839 7:-0.89730086 8:-0.89337319 
-0 0 0 0 0 0 6561 0 0 0 0 0 0 0 0 0 0 0 0 0 0 0 0 0 0 1:1 2:-0.22972973 3:-0.17647059 4:-0.84955752 5:-0.81016469 6:-0.84196369 7:-0.83278473 8:-0.85450922 
-0 0 0 0 0 0 6561 0 0 0 0 0 0 0 0 0 0 0 0 0 0 0 0 0 0 1:1 2:-0.21621622 3:-0.27731092 4:-0.84955752 5:-0.84381087 6:-0.87558843 7:-0.86306781 8:-0.87144993 
-0 0 1017.1067929095019 0 6561 0 6561 242.69864712962709 0 0 0 0 0 0 0 0 0 0 0 0 0 0 0 0 0 1:-1 2:-0.33783784 3:-0.37815126 4:-0.84955752 5:-0.88099876 6:-0.91324815 7:-0.87755102 8:-0.90533134 
-6561 0 6561 4564.6661509227988 6561 0 0 6561 3569.105229067748 6561 0 0 0 0 0 0 0 4348.3381066739257 0 0 0 0 0 0 0 2:-0.027027027 3:-0.092436975 4:-0.80530973 5:-0.69435098 6:-0.76193679 7:-0.74193548 8:-0.69407075 
-0 0 6561 0 6561 0 6561 0 0 0 0 0 0 0 0 0 0 0 0 0 0 0 0 0 0 1:1 2:0.040540541 3:0.042016807 4:-0.79646018 5:-0.63945458 6:-0.68325488 7:-0.69058591 8:-0.75784753 
-0 0 0 0 0 6561 6561 0 0 0 0 0 0 0 0 0 0 0 0 0 0 0 0 0 0 1:1 2:-0.21621622 3:-0.29411765 4:-0.84955752 5:-0.85054011 6:-0.87424344 7:-0.8722844 8:-0.88340807 
-5337.3129317709017 0 6561 6561 6561 0 311.1127688989759 6561 4870.0689566643205 6561 3460.6405464339778 1688.5147636671093 0 0 0 0 0 26.582389671051814 535.4606589709939 0 0 0 0 0 0 1:1 2:0.16216216 3:0.12605042 4:-0.67256637 5:-0.567558 6:-0.64223268 7:-0.62738644 8:-0.66018934 
-0 0 6561 0 6561 602.88106188047857 2350.5135862056263 0 0 0 0 0 0 0 0 0 0 0 0 0 0 0 0 0 0 1:-1 2:0.040540541 3:-0.025210084 4:-0.80530973 5:-0.67593412 6:-0.68527236 7:-0.7682686 8:-0.7717987 
-6561 5945.773712068386 6561 6561 6561 0 0 6561 6561 6561 6561 6561 0 680.86352131096555 2800.5035068081797 0 506.07035673724363 6561 728.77931723704751 519.66137119058374 0 444.92457851725817 0 6.1501260604527586 0 1:-1 2:0.5 3:0.52941176 4:-0.69911504 5:-0.15955375 6:-0.34028245 7:-0.19420671 8:-0.30941704 
-0 0 0 0 0 0 6561 0 0 0 0 0 0 0 0 0 0 0 0 0 0 0 0 0 0 1:1 2:-0.2027027 3:-0.2605042 4:-0.82300885 5:-0.83885249 6:-0.88231338 7:-0.87886768 8:-0.86347783 
-0 0 6561 0 0 0 6561 0 0 0 0 0 0 0 0 0 0 0 0 0 0 0 0 0 0 1:1 2:-0.22972973 3:-0.31092437 4:-0.84070796 5:-0.87497786 6:-0.91459314 7:-0.90388413 8:-0.85351271 
-0 0 6561 0 0 0 5766.9461288921002 0 0 0 0 0 0 0 0 0 0 0 0 0 0 0 0 0 0 1:1 2:-0.054054054 3:-0.14285714 4:-0.83185841 5:-0.78360191 6:-0.81439139 7:-0.80513496 8:-0.81763827 
-6561 0 6561 0 6561 0 0 6561 0 6561 0 0 0 0 0 0 0 0 0 0 0 0 0 0 0 1:-1 2:0.32432432 3:0.21008403 4:-0.77876106 5:-0.52895343 6:-0.59515804 7:-0.59447005 8:-0.63428002 
-0 0 0 0 0 0 651.89918444919272 0 0 0 0 0 0 0 0 0 0 0 0 0 0 0 0 0 0 1:-1 2:-0.43243243 3:-0.4789916 4:-0.86725664 5:-0.91747831 6:-0.92737054 7:-0.92626728 8:-0.92326856 
-6561 0 6561 1540.3899721773466 6561 0 0 6561 1810.8289556005057 6561 0 4575.1395343873028 0 0 0 0 0 0 0 0 0 0 0 0 0 2:0.2027027 3:0.36134454 4:-0.73451327 5:-0.2796175 6:-0.29791527 7:-0.47860434 8:-0.49676134 
-0 0 6561 0 6561 0 0 6561 0 0 0 0 0 0 0 0 0 0 0 0 0 0 0 0 0 1:1 2:0.10810811 3:0.075630252 4:-0.7699115 5:-0.5746414 6:-0.60659045 7:-0.66293614 8:-0.68410563 
-0 0 6561 0 0 0 6561 0 0 0 0 0 0 0 0 0 0 0 0 0 0 0 0 0 0 1:1 2:-0.094594595 3:-0.15966387 4:-0.84070796 5:-0.75101824 6:-0.79018157 7:-0.80513496 8:-0.8036871 
-3037.0747709738798 0 6561 0 6561 4629.5321084512243 6561 6561 0 0 0 0 0 0 0 0 0 0 0 0 0 0 0 0 0 2:-0.12162162 3:-0.15966387 4:-0.71681416 5:-0.7407473 6:-0.76866174 7:-0.8156682 8:-0.79372197 
-0 0 6561 0 6561 0 0 0 0 0 0 0 0 0 0 0 0 0 0 0 0 0 0 0 0 1:1 2:0.040540541 3:-0.0084033613 4:-0.80530973 5:-0.7180804 6:-0.76462677 7:-0.78275181 8:-0.76283009 
-0 0 6561 0 0 0 6561 0 0 0 0 0 0 0 0 0 0 0 0 0 0 0 0 0 0 1:1 2:-0.27027027 3:-0.27731092 4:-0.80530973 5:-0.85018594 6:-0.89105582 7:-0.85780118 8:-0.86347783 
-0 0 6561 0 0 0 0 0 0 0 0 0 0 0 0 0 0 0 0 0 0 0 0 0 0 1:1 2:-0.027027027 3:-0.025210084 4:-0.78761062 5:-0.68443421 6:-0.70410222 7:-0.70638578 8:-0.75386148 
-0 0 6561 0 0 0 6561 0 0 0 0 0 0 0 0 0 0 0 0 0 0 0 0 0 0 1:1 2:-0.013513514 3:-0.042016807 4:-0.82300885 5:-0.71312201 6:-0.7202421 7:-0.80776827 8:-0.79770802 
-0 0 6561 0 6561 1260.8595457380216 849.10437707950302 6561 0 0 0 0 0 0 0 0 0 0 0 0 0 0 0 0 0 1:-1 2:0.081081081 3:0.025210084 4:-0.82300885 5:-0.69789269 6:-0.73705447 7:-0.74061883 8:-0.7797708 
-0 0 0 0 0 6561 6561 0 0 0 0 0 0 0 0 0 0 0 0 0 0 0 0 0 0 1:1 2:-0.2027027 3:-0.2605042 4:-0.84070796 5:-0.85514432 6:-0.87222596 7:-0.89730086 8:-0.88739412 
-0 0 0 0 0 6561 6561 0 0 0 0 0 0 0 0 6561 0 0 0 0 0 0 0 0 0 1:-1 2:-0.56756757 3:-0.61344538 4:-0.90265487 5:-0.96493713 6:-0.97713517 7:-0.97366689 8:-0.96412556 
-3578.5587356710571 0 6561 0 6561 0 0 6561 0 0 45.216641159131576 0 0 0 0 0 0 0 0 0 0 0 0 0 0 1:-1 2:-0.054054054 3:-0.092436975 4:-0.82300885 5:-0.76801842 6:-0.81775387 7:-0.81040158 8:-0.78375685 
-0 0 6561 0 6561 0 0 6561 0 0 0 0 0 0 0 0 0 0 0 0 0 0 0 0 0 1:-1 2:-0.16216216 3:-0.19327731 4:-0.83185841 5:-0.76412254 6:-0.80363147 7:-0.75378539 8:-0.82361734 
-0 0 6561 0 6561 0 0 0 0 0 0 0 0 0 0 0 0 0 0 0 0 0 0 0 0 1:1 2:-0.027027027 3:-0.058823529 4:-0.83185841 5:-0.79033115 6:-0.85474109 7:-0.8485846 8:-0.77379173 
-6561 0 6561 0 6561 0 6561 6561 0 6561 0 0 0 0 0 0 0 0 0 0 0 0 0 0 0 2:0.37837838 3:0.32773109 4:-0.73451327 5:-0.33699309 6:-0.3732347 7:-0.46675444 8:-0.55455904 
-0 0 0 0 0 0 6561 0 0 0 0 0 0 0 0 0 0 0 0 0 0 0 0 0 0 1:1 2:-0.21621622 3:-0.27731092 4:-0.84955752 5:-0.85620684 6:-0.89643578 7:-0.87360105 8:-0.86347783 
-0 0 6561 0 0 0 3040.0655616733234 0 0 0 0 0 0 0 0 0 0 0 0 0 0 0 0 0 0 1:1 2:-0.10810811 3:-0.17647059 4:-0.78761062 5:-0.77191429 6:-0.83120377 7:-0.81698486 8:-0.78375685 
-0 0 0 0 0 6561 6561 0 0 0 0 0 0 0 0 0 0 0 0 0 0 0 0 0 0 1:1 2:-0.22972973 3:-0.27731092 4:-0.84955752 5:-0.8625819 6:-0.8796234 7:-0.91178407 8:-0.89735924 
-0 0 6561 0 6561 0 0 0 0 0 0 0 0 0 0 0 0 0 0 0 0 0 0 0 0 1:1 2:0.040540541 3:0.0084033613 4:-0.80530973 5:-0.70001771 6:-0.73032952 7:-0.78801843 8:-0.74389636 
-6561 0 6561 0 6561 0 72.162142481492765 6561 2577.5682391458026 6561 0 0 0 0 0 0.4968684630606493 0 0 0 0 0 0 0 0 0 1:-1 2:0.33783784 3:0.36134454 4:-0.69911504 5:-0.36143085 6:-0.4532616 7:-0.4917709 8:-0.57648231 
-0 0 0 349.35267674287059 0 0 342.48072272714671 0 0 0 0 0 0 0 0 0 0 0 0 0 0 0 0 0 0 1:1 2:-0.18918919 3:-0.24369748 4:-0.85840708 5:-0.84806092 6:-0.87558843 7:-0.75773535 8:-0.86347783 
-0 0 6561 0 6561 0 0 6561 0 1780.8583397799478 0 0 0 0 0 0 0 0 0 0 0 0 0 0 0 1:1 2:0.14864865 3:0.075630252 4:-0.75221239 5:-0.61218346 6:-0.66778749 7:-0.70638578 8:-0.68709517 
-0 0 0 0 0 6561 6561 0 0 0 0 0 0 0 0 0 0 0 0 0 0 0 0 0 0 1:1 2:-0.35135135 3:-0.37815126 4:-0.84955752 5:-0.87993625 6:-0.90585071 7:-0.91046741 8:-0.89636273 
-0 0 0 0 0 0 6561 0 0 0 0 0 0 0 0 0 0 0 0 0 0 0 0 0 0 1:1 2:-0.22972973 3:-0.22689076 4:-0.81415929 5:-0.8303524 6:-0.87827841 7:-0.85121791 8:-0.85351271 
-2800.5363171060558 0 6561 6561 6561 0 0 0 5512.9503518353922 0 0 0 0 0 0 0 0 4605.242119133195 0 0 0 0 0 0 0 1:1 2:0.013513514 3:0.025210084 4:-0.7699115 5:-0.66282982 6:-0.74445192 7:-0.66688611 8:-0.72994519 
-6561 5464.7005447321835 6561 6561 6561 0 2906.3535983638521 6561 6561 6561 4834.1135246840886 5621.336400529648 0 454.09176200058852 3315.994563565132 56.470034117118566 2122.5908440819926 6561 5075.5375299598736 0 556.99701900592822 0 0 0 1055.9711537585222 2:0.74324324 3:0.57983193 4:-0.68141593 5:0.022135647 6:-0.15265636 7:-0.15470704 8:-0.13602392 
-0 0 6561 0 6561 0 934.67859835653007 0 0 0 0 0 0 0 0 0 0 0 0 0 0 0 0 0 0 1:1 2:-0.027027027 3:-0.058823529 4:-0.81415929 5:-0.75101824 6:-0.79152656 7:-0.86965109 8:-0.77678127 
-0 0 6561 0 6561 0 0 0 0 0 0 0 0 0 0 0 0 0 0 0 0 0 0 0 0 1:1 2:-0.027027027 3:-0.075630252 4:-0.80530973 5:-0.73224721 6:-0.79757902 7:-0.75246873 8:-0.78375685 
-6561 0 6561 6561 6561 0 0 6561 6561 6561 6561 0 0 0 0 0 0 6258.5398490105736 668.48747275375695 79.087448386478812 0 366.11599825469057 0 0 0 1:-1 2:0.35135135 3:0.32773109 4:-0.72566372 5:-0.32990969 6:-0.42434432 7:-0.45885451 8:-0.48679621 
-0 0 6561 0 0 0 0 0 0 0 0 0 0 0 0 0 0 0 0 0 0 0 0 0 0 1:1 2:-0.054054054 3:-0.092436975 4:-0.81415929 5:-0.71985125 6:-0.75722932 7:-0.78801843 8:-0.76880917 
-6561 0 6561 0 6561 0 0 6561 2462.6223568398136 3254.9034479207467 96.692309465347876 0 0 0 0 0 0 0 596.69277843274801 0 0 0 0 0 0 1:1 2:0.17567568 3:0.17647059 4:-0.76106195 5:-0.45670267 6:-0.50975118 7:-0.5839368 8:-0.64424514 
-0 0 6561 0 6561 0 0 0 0 0 0 0 0 0 0 0 0 0 0 0 0 0 0 0 0 1:-1 2:-0.25675676 3:-0.29411765 4:-0.84070796 5:-0.84168585 6:-0.86751849 7:-0.87360105 8:-0.86347783 
-0 0 6561 0 6561 0 0 0 0 0 0 0 0 0 0 0 0 0 0 0 0 0 0 0 0 1:1 2:0.040540541 3:-0.0084033613 4:-0.79646018 5:-0.70710112 6:-0.75924681 7:-0.74325214 8:-0.76880917 
-0 0 6561 0 6561 0 0 0 0 0 0 0 0 0 0 0 0 0 0 0 0 0 0 0 0 1:1 2:-0.054054054 3:-0.1092437 4:-0.82300885 5:-0.78501859 6:-0.83187626 7:-0.84331797 8:-0.79172895 
-0 0 6561 0 6561 0 6561 6561 0 0 0 0 0 0 0 0 0 0 0 0 0 0 0 0 0 1:-1 2:-0.013513514 3:-0.092436975 4:-0.79646018 5:-0.7251638 6:-0.78211163 7:-0.77221856 8:-0.77777778 
-0 0 0 0 0 6561 6561 0 0 0 0 0 0 0 0 0 0 0 0 0 0 0 0 0 0 1:1 2:-0.32432432 3:-0.34453782 4:-0.85840708 5:-0.87851957 6:-0.89845326 7:-0.91046741 8:-0.90533134 
-4900.4674797927182 0 6561 6561 6561 0 0 4105.4579894655863 1529.2353042509937 0 4181.6917703025383 0 0 0 0 0 0 0 0 0 0 0 0 0 0 1:1 2:0.10810811 3:0.1092437 4:-0.7699115 5:-0.59907916 6:-0.66442502 7:-0.53258723 8:-0.69606378 
-0 0 6561 0 6561 0 0 0 0 0 0 0 0 0 0 0 0 0 0 0 0 0 0 0 0 1:1 2:0.081081081 3:0.0084033613 4:-0.79646018 5:-0.63343368 6:-0.6260928 7:-0.76958525 8:-0.7389138 
-6561 0 6561 2395.8291584837962 6561 0 0 6561 0 757.96761835706798 4712.0238470618679 0 0 0 0 0 0 0 0 0 0 0 0 0 0 1:-1 2:-0.067567568 3:-0.025210084 4:-0.81415929 5:-0.69683018 6:-0.76597176 7:-0.74851876 8:-0.74389636 
-0 0 0 1198.0292994643471 0 0 6561 0 0 0 0 0 0 0 0 0 0 0 0 0 0 0 0 0 0 1:1 2:-0.2027027 3:-0.21008403 4:-0.84070796 5:-0.82822738 6:-0.88164089 7:-0.82883476 8:-0.85351271 
-0 0 6561 0 6561 0 0 6561 0 0 0 0 0 0 0 0 0 0 0 0 0 0 0 0 0 1:-1 2:0.16216216 3:0.1092437 4:-0.7699115 5:-0.54559943 6:-0.57969065 7:-0.60895326 8:-0.70104634 
-0 0 0 0 0 0 6561 0 0 0 0 0 0 0 0 0 0 0 0 0 0 0 0 0 0 1:1 2:-0.32432432 3:-0.34453782 4:-0.85840708 5:-0.87674872 6:-0.92131809 7:-0.9078341 8:-0.877429 
-0 0 310.43498207038255 0 0 3730.8594694793305 6561 0 0 0 0 0 0 0 0 0 0 0 0 0 0 0 0 0 0 1:1 2:-0.31081081 3:-0.34453782 4:-0.81415929 5:-0.87993625 6:-0.91324815 7:-0.90915076 8:-0.88340807 
-0 0 6561 0 6561 0 0 0 0 0 0 0 0 0 0 0 0 0 0 0 0 0 0 0 0 1:1 2:0.094594595 3:0.025210084 4:-0.77876106 5:-0.61749602 6:-0.62542031 7:-0.73140224 8:-0.71001495 
-0 0 6561 0 6561 0 6561 0 0 0 0 0 0 0 0 0 0 0 0 0 0 0 0 0 0 1:-1 2:-0.081081081 3:-0.17647059 4:-0.82300885 5:-0.76376837 6:-0.79354405 7:-0.82093483 8:-0.81365222 
-6561 6561 6561 6561 6561 0 0 6561 6561 6561 6561 6561 0 360.79724010706099 6561 0 2555.9635046926674 6561 6561 432.57371868543538 978.24973619382081 0 0 846.85953059033704 0 2:0.44594595 3:0.44537815 4:-0.68141593 5:-0.095094741 6:-0.22999328 7:-0.24950625 8:-0.29546587 
-606.66294191688303 0 6561 0 6561 6561 6561 6417.7403366196677 0 0 0 0 0 1.2274018943252352 0 6561 0 0 0 0 0 0 0 0 0 1:1 2:-0.48648649 3:-0.51260504 4:-0.88495575 5:-0.93235346 6:-0.94754539 7:-0.94733377 8:-0.94718485 
-0 0 0 0 0 0 6561 0 0 0 0 0 0 0 0 0 0 0 0 0 0 0 0 0 0 1:1 2:-0.18918919 3:-0.24369748 4:-0.84955752 5:-0.77793519 6:-0.74983188 7:-0.88018433 8:-0.8694569 
-0 0 0 0 0 0 6561 0 0 0 0 0 0 0 0 0 0 0 0 0 0 0 0 0 0 1:1 2:-0.18918919 3:-0.21008403 4:-0.84955752 5:-0.83247742 6:-0.84263618 7:-0.88281764 8:-0.86447434 
-0 0 0 0 0 6561 6561 0 0 0 0 0 0 0 0 0 0 0 0 0 0 0 0 0 0 1:1 2:-0.2972973 3:-0.34453782 4:-0.86725664 5:-0.86966531 6:-0.87424344 7:-0.90125082 8:-0.91429995 
-6561 0 6561 6561 6561 0 0 6561 3202.6764946570233 6561 0 0 0 0 0 0 0 0 0 0 0 0 0 0 0 1:-1 2:0.37837838 3:0.37815126 4:-0.71681416 5:-0.32459713 6:-0.38332213 7:-0.37985517 8:-0.47483807 
-0 0 6561 0 5660.4679505573295 6561 6561 0 0 0 0 0 713.49368629317803 0 0 6561 0 0 0 0 0 0 24.166190659698373 0 0 1:1 2:-0.48648649 3:-0.52941176 4:-0.90265487 5:-0.94191606 6:-0.95225286 7:-0.95523371 8:-0.95316393 
-0 0 0 0 0 6561 6561 0 0 0 0 0 0 0 0 0 0 0 0 0 0 0 0 0 0 1:1 2:-0.31081081 3:-0.42857143 4:-0.86725664 5:-0.86895697 6:-0.87424344 7:-0.89730086 8:-0.918286 
-0 0 6561 0 6561 0 0 0 0 0 0 0 0 0 0 0 0 0 0 0 0 0 0 0 0 1:-1 2:0.067567568 3:0.025210084 4:-0.81415929 5:-0.61607933 6:-0.63819771 7:-0.63396972 8:-0.74588939 
-6561 0 6561 0 6561 0 0 6561 0 6561 0 0 0 0 0 0 0 0 0 0 0 0 0 0 0 1:-1 2:-0.21621622 3:-0.19327731 4:-0.85840708 5:-0.82043563 6:-0.87088097 7:-0.88808427 8:-0.8036871 
-6561 6561 6561 6561 6561 0 0 6561 6561 6561 6561 760.47163479731671 0 0 5504.218224489513 0 0 280.85091123143144 0 533.56001298080128 0 0 0 0 0 2:0.35135135 3:0.36134454 4:-0.74336283 5:-0.29697184 6:-0.37457969 7:-0.39828835 8:-0.47483807 
-6561 6561 6561 6561 6561 0 0 6561 6561 6561 6561 6561 0 0 6561 0 6561 6561 0 6561 120.41342124596792 0 0 221.35426118333416 0 2:0.22972973 3:0.14285714 4:-0.74336283 5:-0.45245263 6:-0.5870881 7:-0.55628703 8:-0.49476831 
-6561 0 6561 5388.6107577579496 6561 0 0 6561 3884.4985072431509 6561 0 1539.6291413466654 0 0 6561 0 0 0 0 0 0 0 0 0 0 2:0.16216216 3:0.15966387 4:-0.77876106 5:-0.58845405 6:-0.67047747 7:-0.65898618 8:-0.65421026 
-0 0 6561 0 6561 0 0 0 0 0 0 0 0 0 0 0 0 0 0 0 0 0 0 0 0 1:-1 2:0.18918919 3:0.12605042 4:-0.72566372 5:-0.49672392 6:-0.50437122 7:-0.640553 8:-0.69407075 
-0 0 1986.3258520872471 0 0 0 6561 0 0 0 0 0 0 0 0 0 0 0 0 0 0 0 0 0 0 1:1 2:-0.14864865 3:-0.17647059 4:-0.82300885 5:-0.81264388 6:-0.8527236 7:-0.84595128 8:-0.83557549 
-0 0 0 0 0 6561 6561 0 0 0 0 0 0 0 0 0 0 0 0 0 0 0 0 0 0 1:1 2:-0.28378378 3:-0.34453782 4:-0.87610619 5:-0.84381087 6:-0.86146604 7:-0.88940092 8:-0.89337319 
-1401.5724062728787 0 6561 0 6561 6561 1929.8338616535727 6561 0 0 0 0 0 0 0 0 0 0 0 0 0 0 0 0 0 2:-0.18918919 3:-0.21008403 4:-0.85840708 5:-0.8016646 6:-0.81237391 7:-0.81040158 8:-0.84354758 
-0 0 6561 0 6561 0 0 5097.6658081152345 0 0 0 0 0 0 0 0 0 0 0 0 0 0 0 0 0 1:-1 2:0.14864865 3:0.1092437 4:-0.76106195 5:-0.54630777 6:-0.57162071 7:-0.66161949 8:-0.69706029 
-0 0 6561 0 6561 0 0 0 0 0 0 0 0 0 0 0 0 0 0 0 0 0 0 0 0 1:1 2:0.013513514 3:-0.058823529 4:-0.81415929 5:-0.74499734 6:-0.78950908 7:-0.7919684 8:-0.78475336 
-0 0 0 0 0 0 6561 0 0 0 0 0 0 0 0 0 0 0 0 0 0 0 0 0 0 1:1 2:-0.28378378 3:-0.29411765 4:-0.87610619 5:-0.87037365 6:-0.91728312 7:-0.89730086 8:-0.86347783 
-0 0 6561 0 0 0 6561 0 0 0 0 0 0 0 0 0 0 0 0 0 0 0 0 0 0 1:1 2:-0.14864865 3:-0.17647059 4:-0.83185841 5:-0.77014344 6:-0.77740417 7:-0.84990125 8:-0.82561036 
-0 0 6561 0 6561 0 0 0 0 0 0 0 0 0 0 0 0 0 0 0 0 0 0 0 0 1:1 2:0.013513514 3:-0.058823529 4:-0.83185841 5:-0.75314326 6:-0.78412912 7:-0.83673469 8:-0.76681614 
-0 0 0 0 0 6561 6561 0 0 0 0 0 0 0 0 0 0 0 0 0 0 0 0 0 0 1:1 2:-0.21621622 3:-0.27731092 4:-0.84955752 5:-0.8625819 6:-0.89038332 7:-0.90256748 8:-0.88340807 
-6561 0 6561 3363.6304254550287 6561 2646.0041897142464 6561 6561 0 6561 0 0 0 0 0 0 0 0 0 0 0 0 0 0 0 2:-0.14864865 3:-0.21008403 4:-0.77876106 5:-0.78501859 6:-0.83860121 7:-0.78538512 8:-0.82361734 
-0 0 0 0 0 0 6561 0 0 0 0 0 0 0 0 0 0 0 0 0 0 0 0 0 0 1:1 2:-0.27027027 3:-0.29411765 4:-0.82300885 5:-0.82751904 6:-0.85205111 7:-0.8604345 8:-0.87344295 
-0 0 6561 0 6561 0 0 0 0 0 0 0 0 0 0 0 0 0 0 0 0 0 0 0 0 1:1 3:-0.025210084 4:-0.81415929 5:-0.71170533 6:-0.77605918 7:-0.73403555 8:-0.76980568 
-0 0 6561 0 0 0 6561 0 0 0 0 0 0 0 0 0 0 0 0 0 0 0 0 0 0 1:1 2:-0.054054054 3:-0.12605042 4:-0.83185841 5:-0.74110147 6:-0.75050437 7:-0.82356814 8:-0.80667663 
-0 0 6561 0 6561 0 2572.4522483758647 6561 0 0 0 0 0 0 0 0 0 0 0 0 0 0 0 0 0 1:-1 2:0.13513514 3:0.15966387 4:-0.76106195 5:-0.56932885 6:-0.63550773 7:-0.62343647 8:-0.71599402 
-0 0 0 0 0 0 6561 0 0 0 0 0 0 0 0 0 0 0 0 0 0 0 0 0 0 1:1 2:-0.25675676 3:-0.29411765 4:-0.85840708 5:-0.85974854 6:-0.8802959 7:-0.89071758 8:-0.88340807 
-0 0 6561 0 0 6561 6561 0 608.3040103334605 0 0 0 0 0 0 6561 0 0 0 0 0 0 0 0 0 1:1 2:-0.44594595 3:-0.49579832 4:-0.90265487 5:-0.92102001 6:-0.94082044 7:-0.92890059 8:-0.93622322 
-0 0 6561 0 6561 0 0 6561 0 0 0 0 0 0 0 0 0 0 0 0 0 0 0 0 0 1:1 2:0.14864865 3:0.075630252 4:-0.77876106 5:-0.59801665 6:-0.6529926 7:-0.67478604 8:-0.6900847 
-0 0 0 0 0 2134.4539618306212 2716.159309405708 0 0 0 0 0 0 0 0 0 0 0 0 0 0 0 0 0 0 1:1 2:-0.24324324 3:-0.27731092 4:-0.86725664 5:-0.85691518 6:-0.59179556 7:-0.88018433 8:-0.88440458 
-6561 50.567761105506733 6561 3584.7354009877558 6561 3730.4177394309968 0 6561 0 4676.5273091990939 0 185.92066369158354 0 0 904.95265700945504 0 0 0 1050.2206471168349 0 0 0 0 0 0 1:1 2:0.22972973 3:0.22689076 4:-0.78761062 5:-0.57889145 6:-0.65770007 7:-0.63001975 8:-0.65022422 
-0 0 6561 0 0 0 0 0 0 0 0 0 0 0 0 0 0 0 0 0 0 0 0 0 0 1:1 2:-0.081081081 3:-0.1092437 4:-0.79646018 5:-0.78572693 6:-0.83792872 7:-0.80776827 8:-0.81564524 
-0 0 0 0 0 0 6561 0 0 0 0 0 0 0 0 0 0 0 0 0 0 0 0 0 0 1:1 2:-0.17567568 3:-0.21008403 4:-0.84955752 5:-0.83956083 6:-0.88298588 7:-0.87886768 8:-0.85351271 
-0 0 0 0 0 6561 6561 0 0 0 0 0 0 0 0 0 0 0 0 0 0 0 0 0 0 1:1 2:-0.33783784 3:-0.39495798 4:-0.84070796 5:-0.87179033 6:-0.86953598 7:-0.91310072 8:-0.91928251 
-6561 0 6561 4661.5248665073232 6561 0 0 6561 0 6561 0 0 0 0 0 0 0 0 0 0 0 0 0 0 0 1:-1 2:-0.054054054 3:-0.075630252 4:-0.85840708 5:-0.74570568 6:-0.82111634 7:-0.78406847 8:-0.75386148 
-0 0 6561 0 6561 0 0 6561 0 0 0 0 0 0 0 0 0 0 0 0 0 0 0 0 0 1:-1 2:-0.10810811 3:-0.14285714 4:-0.82300885 5:-0.72870551 6:-0.76866174 7:-0.76036866 8:-0.78375685 
-0 0 0 0 0 6561 6561 0 0 0 0 0 0 0 0 3427.211110439946 0 0 0 0 0 0 0 0 0 1:1 2:-0.36486486 3:-0.37815126 4:-0.84070796 5:-0.89835311 6:-0.9199731 7:-0.91836735 8:-0.91330344 
-1941.2965694909608 0 0 0 0 6561 0 0 0 213.85465504260577 0 135.13583438987024 0 0 0 6561 0 0 0 0 0 0 0 0 0 1:-1 2:-0.64864865 3:-0.66386555 4:-0.92035398 5:-0.9713122 6:-0.97848016 7:-0.98683344 8:-0.97209766 
-0 0 6561 0 6561 0 0 6561 0 0 0 0 0 0 0 0 0 0 0 0 0 0 0 0 0 1:1 2:0.040540541 3:-0.025210084 4:-0.80530973 5:-0.73543474 6:-0.79623403 7:-0.8485846 8:-0.75386148 
-0 0 6561 0 5069.7450595620467 0 0 0 0 0 0 0 0 0 0 0 0 0 0 0 0 0 0 0 0 1:1 2:-0.027027027 3:-0.12605042 4:-0.80530973 5:-0.74039313 6:-0.78412912 7:-0.81303489 8:-0.76382661 
-0 0 0 0 0 6561 6561 0 0 0 0 0 0 0 0 0 0 0 0 0 0 0 0 0 0 1:1 2:-0.2027027 3:-0.27731092 4:-0.84070796 5:-0.87001948 6:-0.9071957 7:-0.88940092 8:-0.87344295 
-0 0 0 0 0 6561 6561 0 0 0 0 0 0 0 0 0 0 0 0 0 0 0 0 0 0 1:1 2:-0.37837838 3:-0.36134454 4:-0.86725664 5:-0.89091553 6:-0.91055817 7:-0.90125082 8:-0.91330344 
-0 0 6561 0 6561 0 0 6561 0 0 0 0 0 0 0 0 0 0 0 0 0 0 0 0 0 1:1 2:-0.027027027 3:-0.025210084 4:-0.78761062 5:-0.77368514 6:-0.8264963 7:-0.85385122 8:-0.76681614 
-0 0 6561 0 6561 0 0 1142.4931112840009 0 0 0 0 0 0 0 0 0 0 0 0 0 0 0 0 0 1:-1 2:0.27027027 3:0.12605042 4:-0.76106195 5:-0.44643173 6:-0.43308675 7:-0.52337064 8:-0.69207773 
-0 0 0 0 0 6561 6561 0 0 0 0 0 0 0 0 0 0 0 0 0 0 0 0 0 0 1:1 2:-0.18918919 3:-0.17647059 4:-0.86725664 5:-0.89941562 6:-0.92199059 7:-0.92231731 8:-0.91529646 
-0 0 6561 0 0 0 6561 0 0 0 0 0 0 0 0 0 0 0 0 0 0 0 0 0 0 1:1 3:-0.058823529 4:-0.82300885 5:-0.6546839 6:-0.63214526 7:-0.77485188 8:-0.78276034 
-0 0 6561 0 6561 0 0 6561 0 0 0 0 0 0 0 0 0 0 0 0 0 0 0 0 0 1:-1 2:-0.31081081 3:-0.32773109 4:-0.83185841 5:-0.8686028 6:-0.90248823 7:-0.88281764 8:-0.88340807 
-0 0 6561 0 0 0 0 0 0 0 0 0 0 0 0 0 0 0 0 0 0 0 0 0 0 1:1 2:-0.054054054 3:-0.092436975 4:-0.79646018 5:-0.74039313 6:-0.78345662 7:-0.77353522 8:-0.79471849 
-6561 0 6561 6452.6086351280001 4069.6096207892301 0 6561 5279.1625544020435 2054.995491646127 67.861714277567174 1460.1105928630359 0 0 0 0 0 0 0 0 0 0 0 0 0 0 1:1 2:-0.24324324 3:-0.24369748 4:-0.84955752 5:-0.7956437 6:-0.87357095 7:-0.89730086 8:-0.77379173 
-0 0 4087.3647571134916 0 0 6561 6561 0 0 0 0 0 0 0 0 6561 0 0 0 0 0 0 0 0 0 1:1 2:-0.44594595 3:-0.51260504 4:-0.88495575 5:-0.93802019 6:-0.95292535 7:-0.95260039 8:-0.9431988 
-6561 0 6561 6561 6561 0 0 6561 6561 6561 6561 6561 0 0 6561 0 1638.55548886782 6561 0 2672.008191938763 0 0 0 0 0 2:0.081081081 3:0.092436975 4:-0.76106195 5:-0.6571631 6:-0.76798924 7:-0.81698486 8:-0.63428002 
-0 0 6561 0 6561 0 0 0 0 0 0 0 0 0 0 0 0 0 0 0 0 0 0 0 0 1:-1 2:0.094594595 3:0.042016807 4:-0.78761062 5:-0.57534974 6:-0.58170814 7:-0.69321922 8:-0.72396612 
-4585.26077859205 0 6561 0 6561 0 0 6561 0 0 0 0 0 0 0 0 0 0 0 0 0 0 0 0 0 1:-1 2:0.24324324 3:0.17647059 4:-0.75221239 5:-0.42199398 6:-0.46065905 7:-0.54970375 8:-0.62630792 
-6561 0 6561 0 6561 0 6561 6561 0 5428.008810645415 0 0 0 0 0 0 0 0 0 0 0 0 0 0 0 1:-1 2:0.27027027 3:0.22689076 4:-0.74336283 5:-0.45032761 6:-0.49764627 7:-0.59447005 8:-0.59441953 
-6561 0 6561 0 6561 0 0 6561 0 0 0 0 0 0 0 0 0 0 0 0 0 0 0 0 0 2:-0.16216216 3:-0.15966387 4:-0.81415929 5:-0.76660174 6:-0.81775387 7:-0.80513496 8:-0.8036871 
-0 0 6561 0 0 0 4731.9238427593609 0 0 0 0 0 0 0 0 0 0 0 0 0 0 0 0 0 0 1:1 2:-0.10810811 3:-0.15966387 4:-0.82300885 5:-0.80945635 6:-0.87155346 7:-0.84068466 8:-0.82162431 
-6561 130.5828694385435 6561 6561 6561 0 0 6561 0 6561 3555.7797550357586 0 0 0 0 0 0 0 0 0 0 0 0 0 0 1:-1 2:0.22972973 3:0.17647059 4:-0.77876106 5:-0.53993271 6:-0.63618023 7:-0.57867018 8:-0.632287 
-0 0 6561 0 6561 0 6561 0 0 0 0 0 0 0 0 0 0 0 0 0 0 0 0 0 0 1:1 2:0.054054054 3:-0.025210084 4:-0.80530973 5:-0.68868426 6:-0.76529926 7:-0.76300197 8:-0.76382661 
-6561 0 6561 6561 6561 0 0 6561 402.43823465126792 6561 0 0 0 0 0 0 0 2148.6791717108435 0 0 0 0 0 0 0 1:1 2:0.054054054 3:0.058823529 4:-0.80530973 5:-0.68620506 6:-0.78143914 7:-0.74851876 8:-0.67214748 
-0 0 6561 0 6561 0 0 0 0 0 0 0 0 0 0 0 0 0 0 0 0 0 0 0 0 1:1 2:-0.081081081 3:-0.092436975 4:-0.82300885 5:-0.72870551 6:-0.77673167 7:-0.79065174 8:-0.75386148 
-0 0 6561 0 6561 0 0 0 0 0 0 0 0 0 0 0 0 0 0 0 0 0 0 0 0 1:1 2:0.14864865 3:0.058823529 4:-0.79646018 5:-0.59447494 6:-0.58977808 7:-0.70638578 8:-0.72197309 
-0 0 6561 0 0 0 0 0 0 0 0 0 0 0 0 0 0 0 0 0 0 0 0 0 0 1:1 2:0.027027027 3:-0.0084033613 4:-0.81415929 5:-0.68655923 6:-0.71486214 7:-0.71955234 8:-0.78076731 
-6561 75.801999463130315 6561 6561 6561 0 0 6561 6561 6561 6561 830.29698252492085 0 0 0 0 4374.6780297313635 1375.8994978871731 0 0 0 0 0 0 0 1:-1 2:0.067567568 3:0.058823529 4:-0.7699115 5:-0.63130866 6:-0.73100202 7:-0.65108624 8:-0.67414051 
-0 0 6561 0 6561 0 0 0 0 0 0 0 0 0 0 0 0 0 0 0 0 0 0 0 0 1:1 2:-0.013513514 3:-0.025210084 4:-0.78761062 5:-0.74287232 6:-0.77874916 7:-0.78275181 8:-0.78375685 
-0 0 6561 0 0 0 6561 0 0 0 0 0 0 0 0 0 0 0 0 0 0 0 0 0 0 1:1 2:-0.054054054 3:-0.092436975 4:-0.80530973 5:-0.76518505 6:-0.76866174 7:-0.88281764 8:-0.8036871 
-0 0 0 0 0 4199.5958787628597 6561 0 0 0 0 0 0 0 0 0 0 0 0 0 0 0 0 0 0 1:1 2:-0.17567568 3:-0.2605042 4:-0.83185841 5:-0.90401983 6:-0.88567586 7:-0.84726794 8:-0.88241156 
-0 0 6561 0 6561 0 0 0 0 0 0 0 0 0 0 0 0 0 0 0 0 0 0 0 0 1:1 2:0.054054054 3:0.0084033613 4:-0.81415929 5:-0.68833009 6:-0.72091459 7:-0.7445688 8:-0.76681614 
-0 0 6561 0 0 0 6561 0 0 0 0 0 0 0 0 0 0 0 0 0 0 0 0 0 0 1:1 2:-0.040540541 3:-0.092436975 4:-0.84070796 5:-0.70037188 6:-0.70948218 7:-0.77221856 8:-0.81365222 
-6561 0 6561 0 6561 134.01759065304299 1230.702134909458 6561 0 1923.5519444037134 0 0 0 0 0 0 0 0 0 0 0 0 0 0 0 2:0.10810811 3:0.058823529 4:-0.79646018 5:-0.66247565 6:-0.7330195 7:-0.74983542 8:-0.74588939 
-6561 0 6561 0 6561 0 0 6561 0 0 0 0 0 0 0 0 0 0 0 0 0 0 0 0 0 1:1 2:0.18918919 3:0.15966387 4:-0.77876106 5:-0.60297503 6:-0.66509751 7:-0.67346939 8:-0.66417539 
-6561 0 6561 217.93472111733846 6561 0 0 6561 0 2221.4920627006345 0 0 0 0 0 0 0 0 0 0 0 0 0 0 0 1:1 2:0.17567568 3:0.075630252 4:-0.82300885 5:-0.59164158 6:-0.68123739 7:-0.67873601 8:-0.65421026 
