svm_type c_svc
kernel_type polynomial
degree 3
gamma 0.125
coef0 0
nr_class 25
total_sv 2493
rho -0.4206788756951842 -0.73993911893126685 -0.39707155291049312 -1.2591779412448285 1.2355216869900139 -2.6271801876775549 -3.5874559476573284 1.5607726748527269 0.26821892208562342 -0.4103446130465655 0.49974863685374382 -0.8103673932113612 -3.2014860633906901 -2.3937176485995186 -0.58403994658921254 -10.901192175327015 -1.6460877636100051 1.0192964252732175 0.99201842095089188 0.75818708364559317 -0.15041443925965009 -1.6876496461130759 -0.93221830480499257 -3.3529648840481139 1.6442567266680779 1.4969401206555983 1.6409692223075663 1.679878801399439 -3.7480798093989511 -3.0090071939491549 1.781901196968956 3.4167914334585117 1.9998434365846975 3.8570012395747146 0.72499039350224248 -11.695808630060816 -0.92515229237686092 0.51172219194876989 -7.4843474751755439 0.91432354013645611 1.8982806548086617 0.99016724196453665 1.0331465708549854 0.097352468287037142 -2.4966126363430612 -0.85715383348879215 -0.61664952034967968 0.84973058293467607 1.3860962144640518 2.961390371340491 -2.4948939015583798 -0.49514400352687382 1.1010073424386257 1.5484068906082664 2.3096414370392981 1.2829694691820239 1.7445820059403951 -1.4760477755162611 -0.75236636457685302 1.7401369354709952 -2.519790545607504 -4.1256162150675992 0.69430237285389362 0.46647617904529876 0.71031151887067756 -1.1907302592862625 -1.2796660173752459 -1.0547634747462755 -3.7511934140292391 -0.8793953483702317 1.0163126874939163 -5.5655113701454173 -1.1472465578764801 1.2855347546412041 -0.59494630670088589 0.50426145677670819 -0.33055358241804872 -0.65092965423242377 -8.3106064439493164 -0.90780397017791004 -1.3751772488920813 -2.3253249130683957 -1.929468137994286 -2.7103479830905197 -1.8320242420437614 0.47899599594587383 -0.51167801615714759 -2.3605583790454281 -0.94865243174326741 -1.5504777065853181 2.929711081819212 -5.7438501956670471 -5.5569037087664004 1.5253181733287875 1.1396176372326516 1.6526906993871626 -0.52117591776375649 -1.0562072229232198 -4.1376850316674991 -1.9274812210172223 -1.3012239994765147 -9.3901214574195091 -2.411266462705592 -0.66492735004868631 -0.45273327472498759 0.058232499265333436 -1.9658982382745396 -1.9707261192636851 -0.94744784844965613 -5.5233153050015247 -14.36034199471707 -2.8187109343414671 0.6874716522755604 -1.1510234808955566 -0.80905448874879871 -1.1636183342430326 -1.4322055310572426 -8.5089293653170746 -0.67046627895981692 -1.4489010816893444 -19.565593047897487 -3.0918589902165334 -0.86683419987929033 -1.6817431360215276 -0.46234648101598641 -0.92417083552608581 -2.4165933687175851 -0.97828721128280771 -3.179845987012397 2.794075709839233 6.1550703482305851 6.0016705387708198 7.0324915336993739 6.1308500427628463 5.1718068340400283 -5.2957857603385703 1.7073260947665598 2.3317686330325587 -2.3941293293788402 2.0826176875675326 7.6160071126247191 1.8815867221416576 1.581563484419771 0.96261993987510419 -5.148149027413929 0.22163033523506193 0.80944633910035357 3.7169847649985965 4.3589624460999632 4.8916142147383113 -0.026958848116253598 5.5923968704911386 -23.18012406405207 -1.3826425022036515 2.9961848255421724 -13.885749960120675 2.3586600762753989 2.5562902268848573 2.7704705112136754 0.73449836123313683 -0.3167283274524556 -5.2923523534802044 -0.91427092268896182 -1.2937621725906729 -0.35623324924014171 -0.93646537925140461 -0.48374404689720418 -0.51804475758383339 -4.0616460914806352 -2.4076762970195404 -1.7363206070515471 -5.9355156195566234 -2.4765343327499312 0.011653269366066379 -1.4746723196751548 -0.36469065959352337 -0.41719169573940951 -1.7875354413946072 -0.95369671895237407 -4.4169341378827216 -0.36585794600918298 -1.4527747687575139 -0.9355062681122015 -2.1523646820078643 -2.1437330690850271 -1.8223243989358542 -7.6075582830878465 -2.6871796467880245 0.0066149060250570105 -0.93514468023470076 1.577483318055749 -0.74948130198227003 -1.5300171785238263 -0.96476171031620772 -3.2838810655207755 -0.72885796203751985 -0.91922771491205035 -2.2952850360805765 -2.5449440447463916 -0.86579944103503093 -6.4782499349897762 -2.8392737053619488 0.65787286620444363 2.1555890235686643 0.66913001784816739 0.20739697520329062 -1.4085525744998639 -1.1332208802594657 -3.7586409426266369 0.086279172593508396 -1.6292237891896948 -3.8545604640356284 -0.06400788372309775 -2.6086284173847436 -3.2412026433182568 1.0328954848906848 -0.12462136963713953 0.29415769843190426 -0.69364459074040585 -1.2404916682028606 -1.100438113287646 -2.6190623901007428 -1.6164152236778131 -1.3545229256294624 0.44991394647078892 -2.6286233682018487 0.051852800796559399 -1.2946990244880774 -0.11655569079908748 2.4977211594580231 -1.3843004203389659 -1.1939007112895563 -0.9803774252831331 -2.6378868903125094 1.2026178442163518 1.341796776472612 -0.22232171485677749 1.287014730935063 1.7890008079239132 1.1622762475477297 1.1868637947487493 0.98305612632548112 -12.408650110556781 0.67485254057773514 0.94786461236774944 2.4018063234604861 -1.4217764260834558 -0.41189846378565964 2.1399929566563789 0.51339314234663957 2.1455766973893313 0.88488953987600194 -1.0560786721617761 -1.4353855492306389 -0.1077757636937996 -1.6560986912282096 -3.6479466365712665 0.400284473385699 -1.034969022371067 0.78523237115454991 -1.8700151647829668 -1.1001280915194598 -1.2074095746149476 -6.4021891835358087 1.5926276463501838 2.9796820902950247 1.3878723252991119 1.3474785540871568 0.97672314563213147 -9.3492540664217199 0.48317200225431484 0.89762990403789011 2.6215206821891477 4.6455293924627181 2.4278756681897935 -0.53248824921715709 -1.0930810223855103 -1.0600126285344527 -1.3921439287084174 -0.45766096356682606 -1.2915802820148323 0.010180917094323639 -1.2844841623324368 -1.3911867126588218 -5.7150708467142488 1.8999970907826469 -3.9233824898995451 -1.0829049363130907 -1.2556799599711661 -2.8524129954119242 -1.1693568688954974 -1.0613028238067201 -0.89806587496443235 -0.76879175339195061 -0.99292004869633743 -0.92654656950178471 -0.99989854551609503 0.8210898585598192 0.98034790118616222 0.86296881220347088
label 11 7 19 8 13 9 5 6 10 14 12 15 18 3 22 17 4 21 16 20 23 25 1 27 29
nr_sv 271 239 20 342 115 415 72 156 387 77 156 63 16 10 5 41 33 11 34 20 6 1 1 1 1
SV
0 0 0 6561 6561 0 0 6561 0 0 0 0 0 0 0 0 0 0 0 0 0 0 0 0 1:-1 2:0.55405405 3:0.51260504 4:-0.69911504 5:0.10324066 6:-0.066577001 7:-0.075707702 8:-0.21574489 
0 0 0 6561 0 0 0 6561 6561 6561 3742.6528633057169 0 0 0 0 0 0 0 0 0 0 0 0 0 2:0.59459459 3:0.54621849 4:-0.67256637 5:-0.051885957 6:-0.24882313 7:-0.22975642 8:-0.13104136 
6561 0 6561 1256.6190724574028 6561 0 6561 6561 0 0 1379.097473551604 0 0 0 1735.1844818943903 0 0 778.25490655979013 0 0 0 0 0 0 2:0.040540541 3:0.092436975 4:-0.7699115 5:-0.54878697 6:-0.59784802 7:-0.59973667 8:-0.68410563 
6561 0 6561 0 6561 0 0 6561 0 6561 0 0 0 0 0 0 0 0 0 0 0 0 0 0 2:0.2027027 3:0.17647059 4:-0.78761062 5:-0.55728706 6:-0.64559516 7:-0.62870309 8:-0.64225212 
0 0 674.55312604196729 6561 6561 0 0 6561 2793.0049619211641 3095.3803231399779 4647.854076582089 0 0 0 0 0 0 0 0 0 0 0 0 0 1:-1 2:0.47297297 3:0.37815126 4:-0.66371681 5:-0.051177616 6:-0.23402824 7:-0.16524029 8:-0.29546587 
0 918.16038836832524 0 6561 0 0 0 796.06473670197124 6561 6561 756.89827266995474 0 0 0 6561 0 0 6561 1540.2413111408057 0 0 0 0 3269.2458987116283 2:0.75675676 3:0.83193277 4:-0.6460177 5:0.22897114 6:-0.063887021 7:-0.057274523 8:0.18285999 
6561 1612.2050055293612 6561 6561 6561 3611.0474871689985 6561 6561 4561.5864458121614 0 146.45817742248343 0 2.8319898126684042 0 0 2502.3987126677366 251.79965300344514 1054.0490306210409 0 158.1941436120421 0 4.3337923678016317 0 0 1:1 2:-0.24324324 3:-0.24369748 4:-0.82300885 5:-0.84026917 6:-0.87558843 7:-0.88150099 8:-0.83358246 
0 0 6561 6561 6561 0 0 6561 4410.3114242040192 6561 0 0 0 0 0 0 0 0 0 0 0 0 0 0 1:-1 2:0.027027027 3:0.0084033613 4:-0.7699115 5:-0.63662121 6:-0.73234701 7:-0.66556945 8:-0.65421026 
0 0 0 6561 6561 0 0 6561 6561 0 4763.7548312933795 0 0 0 0 0 0 6561 0 0 0 0 0 0 2:0.18918919 3:0.24369748 4:-0.76106195 5:-0.49707809 6:-0.64290518 7:-0.57867018 8:-0.50473343 
0 0 0 256.50669223409125 1062.5399070126921 0 0 6561 0 6561 0 0 0 0 0 0 0 0 0 0 0 0 0 0 1:-1 2:0.82432432 3:0.68067227 4:-0.61946903 5:0.55764123 6:0.4263618 7:0.37722186 8:0.050323866 
0 1682.7257659940663 6561 4943.5041994989815 6561 0 0 6561 6561 0 3078.5620661255571 75.500403732230581 0 0 0 0 0 0 0 0 0 0 0 0 2:0.25675676 3:0.41176471 4:-0.72566372 5:-0.3440765 6:-0.47141896 7:-0.49045425 8:-0.48480319 
0 0 6561 1812.2800331076394 6561 0 0 6561 4722.4650380594931 6561 4876.8913245132553 0 0 0 0 0 0 0 0 0 0 0 0 0 1:-1 2:0.14864865 3:0.12605042 4:-0.7699115 5:-0.49920312 6:-0.63147276 7:-0.55892034 8:-0.64424514 
0 0 6561 0 6561 0 0 6561 0 0 0 0 0 0 0 0 0 0 0 0 0 0 0 0 2:0.35135135 3:0.31092437 4:-0.76106195 5:-0.37595183 6:-0.48890383 7:-0.46543779 8:-0.48480319 
0 0 0 0 6561 0 0 6561 0 0 0 0 0 0 0 0 0 0 0 0 0 0 0 0 2:0.74324324 3:0.71428571 4:-0.68141593 5:0.216221 6:0.13718897 7:0.07044108 8:-0.23069258 
2727.4315597762097 0 6561 0 6561 0 0 6561 0 0 0 0 0 0 0 0 0 0 0 0 0 0 0 0 1:-1 2:0.44594595 3:0.39495798 4:-0.73451327 5:-0.1779706 6:-0.24142569 7:-0.32192232 8:-0.3881415 
0 0 0 0 1695.4855044792948 0 0 6561 0 0 0 0 0 0 0 0 0 0 0 0 0 0 0 0 2:0.82432432 3:0.66386555 4:-0.65486726 5:0.29661767 6:0.11499664 7:-0.037524687 8:-0.12605879 
0 6561 530.95127118452717 6561 0 0 0 6561 6561 6561 6561 3160.1088962699491 0 3990.0718868277495 6561 0 480.58379544881211 1950.1198178167647 3286.4689815137394 0 6.4866919870050648 0 30.257787622340107 0 1:-1 2:0.68918919 3:0.68067227 4:-0.6460177 5:0.31468036 6:-0.019502354 7:-0.036208032 8:0.18285999 
0 0 6561 0 6561 0 0 6561 0 6561 0 0 0 0 0 0 0 0 0 0 0 0 0 0 1:-1 2:0.51351351 3:0.4789916 4:-0.73451327 5:-0.23570037 6:-0.35238736 7:-0.3640553 8:-0.38515197 
0 0 0 0 6561 0 0 6561 0 0 0 0 0 0 0 0 0 0 0 0 0 0 0 0 2:0.51351351 3:0.51260504 4:-0.7079646 5:-0.11528245 6:-0.22528581 7:-0.40355497 8:-0.2406577 
0 0 0 6429.0261771233099 0 0 0 0 0 6561 0 0 0 0 0 0 0 0 0 0 0 0 0 0 1:-1 2:0.7972973 3:0.81512605 4:-0.66371681 5:0.64441296 6:0.54472091 7:0.34562212 8:0.0034877927 
0 0 0 0 6561 0 0 6561 0 0 0 0 0 0 0 0 0 0 0 0 0 0 0 0 2:0.58108108 3:0.57983193 4:-0.6460177 5:0.03488578 6:-0.12373907 7:-0.21263989 8:-0.16193323 
0 0 0 6561 0 0 0 6561 6561 6561 6561 0 0 0 6561 0 0 6561 6561 1759.3192467603369 0 0 0 0 1:-1 2:0.33783784 3:0.42857143 4:-0.69026549 5:-0.16203294 6:-0.36381977 7:-0.31402238 8:-0.24564026 
0 0 0 6561 0 0 0 6561 0 0 0 0 0 0 0 0 0 0 0 0 0 0 0 2.2847482381285302 1:-1 2:0.71621622 3:0.71428571 4:-0.6460177 5:0.1326368 6:-0.051782112 7:-0.1560237 8:-0.10612855 
0 2266.6910855546985 0 4922.7157040276115 6561 0 0 6561 6561 6561 6561 0 0 0 0 0 0 0 0 0 0 0 0 0 2:0.45945946 3:0.57983193 4:-0.72566372 5:-0.26580485 6:-0.4270343 7:-0.39170507 8:-0.31539611 
0 0 6561 0 6561 0 0 6561 0 0 0 0 0 0 0 0 0 0 0 0 0 0 0 0 2:0.41891892 3:0.37815126 4:-0.72566372 5:-0.26474234 6:-0.36180229 7:-0.34298881 8:-0.4449427 
0 0 0 6561 0 0 0 0 0 4584.3501062747482 0 0 0 0 21.904138121733386 0 0 3610.207599167587 0 0 0 0 0 0 2:0.77027027 3:0.76470588 4:-0.66371681 5:0.22932531 6:-0.088769334 7:0.14285714 8:0.033383159 
0 24.331671804403104 0 6561 0 0 0 6561 647.47700230292583 1798.2831707581506 6508.4786579017245 3287.4318356057706 0 3737.0520069443091 6561 0 0 3541.9023565421603 629.20744694806183 1410.6794186298962 0 0 0 0 1:-1 2:0.55405405 3:0.56302521 4:-0.62831858 5:0.1875332 6:-0.10490921 7:-0.19025675 8:-0.086198306 
4953.6202194407078 0 6561 0 6561 0 0 6561 6561 6561 0 5244.7079418762605 0 0 0 0 0 0 955.67986816773555 0 0 0 0 0 1:1 2:0.2972973 3:0.24369748 4:-0.68141593 5:-0.38161856 6:-0.50437122 7:-0.47333772 8:-0.49476831 
0 0 0 6561 0 0 0 6561 0 6561 0 0 0 0 0 0 0 0 0 0 0 0 0 0 2:0.67567568 3:0.61344538 4:-0.6460177 5:0.12165752 6:-0.10423672 7:-0.12179065 8:-0.064275037 
0 0 0 0 6561 0 0 6561 0 6561 0 0 0 0 0 0 0 0 0 0 0 0 0 0 2:0.56756757 3:0.51260504 4:-0.65486726 5:0.018948114 6:-0.07599193 7:0.00065832785 8:-0.27952167 
0 0 6561 0 6561 0 0 6561 0 0 0 0 0 0 0 0 0 0 0 0 0 0 0 0 1:-1 2:0.55405405 3:0.49579832 4:-0.72566372 5:-0.14999115 6:-0.24142569 7:-0.17577354 8:-0.41704036 
6561 0 6561 0 6561 0 0 6561 0 6561 0 0 0 0 0 0 0 0 0 0 0 0 0 0 1:1 2:0.28378378 3:0.2605042 4:-0.74336283 5:-0.44218169 6:-0.49764627 7:-0.55102041 8:-0.55854509 
0 0 6561 6561 6561 0 0 6561 5093.7837810136525 0 3656.1807837731249 1236.0529910040245 0 0 3325.6603222661206 0 0 0 0 0 0 0 0 0 1:1 2:0.28378378 3:0.31092437 4:-0.74336283 5:-0.4467859 6:-0.59179556 7:-0.58788677 8:-0.47483807 
0 0 0 6561 6561 0 0 6561 6561 6561 6361.5198238081775 0 0 0 6561 0 1038.3322561027358 6561 0 0 0 0 0 0 2:0.14864865 3:0.075630252 4:-0.79646018 5:-0.58030813 6:-0.75252186 7:-0.61158657 8:-0.6243149 
6561 0 6561 0 6561 0 0 6561 0 6561 0 0 0 0 0 0 0 0 0 0 0 0 0 0 1:-1 2:0.12162162 3:0.14285714 4:-0.75221239 5:-0.61253763 6:-0.70342972 7:-0.66556945 8:-0.70403587 
0 0 6561 0 6561 0 0 6561 0 0 0 0 0 0 0 0 0 0 0 0 0 0 0 0 2:0.48648649 3:0.51260504 4:-0.69026549 5:-0.18682486 6:-0.26496301 7:-0.32718894 8:-0.3961136 
0 0 6561 6561 6561 0 0 6561 6561 6561 0 0 0 0 0 0 0 0 0 0 0 0 0 0 1:-1 2:0.35135135 3:0.34453782 4:-0.72566372 5:-0.28386754 6:-0.37121722 7:-0.45227123 8:-0.41504733 
0 0 0 0 0 0 0 0 0 191.13340288074031 0 0 0 0 0 0 0 0 0 0 0 0 0 0 1:-1 2:0.81081081 3:0.71428571 4:-0.61946903 5:0.36638923 6:0.20376597 7:0.20605662 8:-0.0064773293 
0 0 3697.3367297203863 6561 0 0 0 6561 0 0 0 0 0 0 0 0 0 0 0 0 0 0 0 0 1:-1 2:0.60810811 3:0.57983193 4:-0.7079646 5:0.13794935 6:-0.08406187 7:-0.17314022 8:-0.20478326 
0 0 0 0 0 0 0 6561 0 6561 0 0 0 0 0 0 0 0 0 0 0 0 0 0 1:-1 2:0.67567568 3:0.6302521 4:-0.65486726 5:0.19638746 6:0.031607263 7:-0.045424621 8:-0.055306428 
0 0 0 6561 0 0 0 6561 0 6561 6561 0 0 0 0 0 1951.9078852079983 6561 0 149.82921069619962 0 0 0 0 1:-1 2:0.5 3:0.54621849 4:-0.69026549 5:-0.15459536 6:-0.33960995 7:-0.35088874 8:-0.2655705 
0 0 0 1125.1784722643329 0 0 0 6561 791.48606771078369 6561 0 0 0 0 0 0 0 0 0 0 0 0 0 0 1:-1 2:0.54054054 3:0.57983193 4:-0.71681416 5:0.066406942 6:0.0013449899 7:-0.35615537 8:-0.14100648 
6561 0 6561 0 6561 0 0 6561 0 6561 0 0 0 0 0 0 0 0 0 0 0 0 0 0 2:0.27027027 3:0.19327731 4:-0.77876106 5:-0.5101824 6:-0.60121049 7:-0.61685319 8:-0.58445441 
0 0 6561 6561 6561 0 0 6561 6561 6561 6561 0 0 0 6561 0 0 0 0 0 0 0 0 0 2:0.28378378 3:0.2605042 4:-0.72566372 5:-0.44536922 6:-0.61264291 7:-0.40355497 8:-0.53861485 
0 0 6561 6561 6561 0 0 6561 0 6561 0 0 0 0 0 0 0 0 0 0 0 0 0 0 2:0.32432432 3:0.31092437 4:-0.77876106 5:-0.41313972 6:-0.57969065 7:-0.53127057 8:-0.54459392 
0 2490.4171146612039 0 6561 6561 0 0 6561 6561 6561 6561 0 0 1190.7179762350686 3187.5816200264144 0 0 6561 0 1097.1423817406699 0 0 0 0 2:0.081081081 3:0.092436975 4:-0.74336283 5:-0.59766248 6:-0.77673167 7:-0.69058591 8:-0.63029397 
0 0 6561 6561 6561 0 0 6561 6561 6561 6561 0 0 0 0 0 0 0 0 0 0 0 0 0 1:-1 2:0.31081081 3:0.27731092 4:-0.68141593 5:-0.37170179 6:-0.51714862 7:-0.46412113 8:-0.50473343 
0 0 0 0 0 0 0 6561 0 0 0 0 0 0 0 0 0 0 0 0 0 0 0 0 2:0.67567568 3:0.69747899 4:-0.61061947 5:0.29768018 6:0.13584398 7:0.10994075 8:-0.096163428 
0 0 0 0 0 0 0 6561 0 0 0 0 0 0 0 0 0 0 0 0 0 0 0 0 1:-1 2:0.68918919 3:0.64705882 4:-0.67256637 5:0.14149106 6:0.0073974445 7:0.06122449 8:-0.26856004 
0 0 6561 0 6561 0 0 6561 0 0 0 0 0 0 0 0 0 0 0 0 0 0 0 0 1:-1 2:0.2972973 3:0.32773109 4:-0.74336283 5:-0.35328493 6:-0.46334902 7:-0.35352205 8:-0.43497758 
0 0 0 6561 6561 0 0 6561 0 1415.3551332342035 0 0 0 0 0 0 0 0 0 0 0 0 0 0 2:0.48648649 3:0.54621849 4:-0.72566372 5:-0.17726226 6:-0.34566241 7:-0.31928901 8:-0.29546587 
0 0 0 6561 6561 0 0 6561 6561 6561 0 0 0 0 5247.2356838022934 0 0 6561 1288.0549963251483 0 0 0 0 0 2:0.56756757 3:0.49579832 4:-0.63716814 5:0.080927926 6:-0.16543376 7:-0.020408163 8:-0.099152965 
6561 0 6561 6561 6561 0 0 6561 0 6561 0 0 0 0 0 0 0 0 0 0 0 0 0 0 2:-0.013513514 3:0.0084033613 4:-0.79646018 5:-0.70745529 6:-0.78816409 7:-0.75773535 8:-0.74190334 
0 0 0 0 0 0 0 2537.9008812243851 4633.4902449397914 6235.7380821367169 0 0 0 0 0 0 0 0 0 0 0 0 0 0 1:-1 2:0.7027027 3:0.68067227 4:-0.61946903 5:0.51514078 6:0.40618695 7:0.0072416063 8:0.049327354 
6561 0 6561 0 6561 0 645.43504967322747 6561 0 0 0 0 0 0 0 0 0 0 0 0 0 0 0 0 1:1 2:0.28378378 3:0.22689076 4:-0.79646018 5:-0.52824509 6:-0.60793544 7:-0.640553 8:-0.58644743 
0 0 6561 6561 6561 0 0 6561 6561 6561 0 0 0 0 0 0 0 0 0 0 0 0 0 0 2:0.41891892 3:0.37815126 4:-0.71681416 5:-0.19886665 6:-0.37457969 7:-0.24160632 8:-0.40906826 
0 0 0 6561 6561 0 0 6561 6561 0 6561 0 0 0 0 0 0 0 0 0 0 0 0 0 1:-1 2:0.36486486 3:0.36134454 4:-0.68141593 5:-0.19036657 6:-0.35574983 7:-0.2718894 8:-0.3552566 
0 0 4976.9668991328044 0 6561 0 0 6561 0 6561 0 0 0 0 0 0 0 0 0 0 0 0 0 0 2:0.52702703 3:0.44537815 4:-0.67256637 5:0.0040729591 6:-0.095494284 7:-0.088874259 8:-0.35426009 
0 0 6561 6561 6561 0 0 6561 6561 3595.8129714871579 0 0 0 0 0 0 0 0 0 0 0 0 0 0 1:1 2:0.36486486 3:0.31092437 4:-0.73451327 5:-0.37347264 6:-0.48621385 7:-0.45095458 8:-0.49476831 
0 0 0 0 6561 0 0 6561 0 0 0 0 0 0 0 0 0 0 0 0 0 0 0 0 1:-1 2:0.54054054 3:0.56302521 4:-0.69026549 5:0.15742872 6:0.046402152 7:-0.10072416 8:-0.14200299 
0 0 6561 6561 6561 0 0 6561 6561 6561 6561 0 0 0 0 0 0 0 0 0 0 0 0 0 1:-1 2:0.14864865 3:0.19327731 4:-0.73451327 5:-0.53249513 6:-0.62273033 7:-0.640553 8:-0.56452417 
0 0 0 0 6561 0 0 6561 0 0 0 0 0 0 0 0 0 0 0 0 0 0 0 0 1:-1 2:0.60810811 3:0.54621849 4:-0.7079646 5:-0.17017886 6:-0.2938803 7:-0.25082291 8:-0.37319382 
3755.1049005704904 1481.8119593935489 6561 6561 6561 0 0 6561 6561 6561 0 5489.4661932118979 0 1433.0180630901482 334.87411225579473 0 0 6084.9491019797533 0 0 0 0 0 0 2:0.12162162 3:0.075630252 4:-0.76106195 5:-0.567558 6:-0.65770007 7:-0.73271889 8:-0.56452417 
0 0 0 0 690.58406879537176 0 0 5942.4402196509609 2924.018010622362 6561 0 0 0 0 0 0 0 0 0 0 0 0 0 0 1:-1 2:0.74324324 3:0.71428571 4:-0.66371681 5:0.47264034 6:0.4532616 7:0.1323239 8:-0.0004982561 
0 0 0 0 6561 0 0 6561 0 6561 0 0 0 0 0 0 0 0 0 0 0 0 0 0 2:0.64864865 3:0.6302521 4:-0.71681416 5:0.17974146 6:0.11903161 7:-0.0072416063 8:-0.05630294 
6561 0 6561 0 6561 2340.6268295333789 6561 6561 0 0 0 1858.0831027955321 0 0 0 0 0 0 0 0 0 0 0 0 1:1 2:0.054054054 3:-0.042016807 4:-0.80530973 5:-0.7563308 6:-0.80968393 7:-0.80908492 8:-0.77777778 
0 0 0 0 6561 0 0 6561 0 0 0 0 0 0 0 0 0 0 0 0 0 0 0 0 2:0.47297297 3:0.51260504 4:-0.71681416 5:-0.029219054 6:-0.15601883 7:-0.27715602 8:-0.26856004 
0 0 0 0 6561 0 0 6561 0 0 0 0 0 0 0 0 0 0 0 0 0 0 0 0 1:-1 2:0.62162162 3:0.51260504 4:-0.71681416 5:0.083761289 6:-0.0060524546 7:-0.06122449 8:-0.24265072 
0 6561 0 6561 6561 0 0 6561 6561 6561 6561 0 0 0 6561 0 0 6561 6561 0 0 0 0 0 2:0.44594595 3:0.44537815 4:-0.7079646 5:-0.23145033 6:-0.42905178 7:-0.39038841 8:-0.24564026 
0 0 6561 6561 6561 0 0 6561 5247.0359111814705 2473.5191174862716 6561 0 0 0 0 0 0 0 0 0 0 0 0 0 2:0.40540541 3:0.37815126 4:-0.73451327 5:-0.27501328 6:-0.44720915 7:-0.27847268 8:-0.42700548 
0 0 0 197.83403581561879 0 0 0 6561 0 0 0 0 0 0 0 0 0 0 0 0 0 0 0 0 1:-1 2:0.60810811 3:0.64705882 4:-0.6460177 5:0.20453338 6:0.11903161 7:-0.016458196 8:-0.18584953 
0 0 0 0 6561 0 0 6561 0 0 0 0 0 0 0 0 0 0 0 0 0 0 0 0 2:0.51351351 3:0.57983193 4:-0.68141593 5:-0.031344077 6:-0.14862139 7:-0.16392363 8:-0.27952167 
0 839.98422536203122 0 6561 6561 0 0 6561 6561 6561 6561 0 0 0 0 0 0 6561 6561 0 0 0 0 0 1:-1 2:0.36486486 3:0.41176471 4:-0.73451327 5:-0.31432619 6:-0.48352387 7:-0.43120474 8:-0.30543099 
0 0 6561 6561 6561 0 0 6561 0 0 0 0 0 0 0 0 0 0 0 0 0 0 0 0 2:0.36486486 3:0.34453782 4:-0.78761062 5:-0.33557641 6:-0.46469401 7:-0.32455563 8:-0.47483807 
6561 0 6561 0 6561 0 0 6561 0 6561 0 0 0 0 0 0 0 0 0 0 0 0 0 0 1:-1 2:0.17567568 3:0.14285714 4:-0.77876106 5:-0.5902249 6:-0.67316745 7:-0.64976959 8:-0.62830095 
0 0 109.50427076431409 0 6561 0 0 6561 0 6561 0 0 0 0 0 0 0 0 0 0 0 0 0 0 2:0.56756757 3:0.54621849 4:-0.69911504 5:0.080219586 6:0.13987895 7:-0.3074391 8:-0.34329846 
0 3561.7189471774313 0 0 0 0 44.56149515449637 0 0 6561 0 0 0 0 0 0 0 0 771.51156169684771 0 0 0 0 0 2:0.77027027 3:0.69747899 4:-0.66371681 5:0.37453515 6:0.07330195 7:0.36668861 8:0.12406577 
0 4202.2495402400209 0 3051.4774652239412 6561 0 0 6561 0 3136.5855622174313 0 5001.1460179434735 0 0 0 0 0 0 0 0 0 0 0 0 2:0.44594595 3:0.4789916 4:-0.71681416 5:-0.23003365 6:-0.37054472 7:-0.479921 8:-0.23766816 
0 1186.9608408509489 0 1916.2416338634505 0 0 0 0 0 3913.9936192645982 1108.5369293175672 0 0 0 889.18918269189817 0 3044.8907899135324 0 0 0 0 0 0 0 1:-1 2:0.78378378 3:0.79831933 4:-0.61946903 5:0.23605454 6:-0.022864829 7:0.059907834 8:0.10712506 
0 0 0 0 0 0 0 6561 0 0 0 0 0 0 0 0 0 0 0 0 0 0 0 0 2:0.56756757 3:0.6302521 4:-0.61946903 5:0.1004073 6:-0.066577001 7:-0.22185648 8:-0.1180867 
0 0 6561 0 6561 0 0 6561 0 0 0 0 0 0 0 0 0 0 0 0 0 0 0 0 1:-1 2:0.45945946 3:0.41176471 4:-0.69911504 5:-0.16380379 6:-0.36381977 7:-0.23897301 8:-0.52466368 
0 0 0 51.841913381360747 6561 0 0 6561 0 6561 0 0 0 0 0 0 0 0 0 0 0 0 0 0 1:-1 2:0.52702703 3:0.51260504 4:-0.72566372 5:-0.15459536 6:-0.2528581 7:-0.44568795 8:-0.31340309 
0 0 6561 0 6561 0 0 6561 0 0 0 0 0 0 0 0 0 0 0 0 0 0 0 0 1:-1 2:0.48648649 3:0.4789916 4:-0.67256637 5:-0.021427307 6:-0.045729657 7:-0.21000658 8:-0.31539611 
0 0 0 0 0 0 0 0 0 6561 0 0 0 0 0 0 0 0 0 0 0 0 0 0 1:-1 2:0.71621622 3:0.69747899 4:-0.61061947 5:0.42588985 6:0.23806321 7:0.19420671 8:0.12506228 
1280.8205412681191 1679.3786744862637 6561 6561 6561 0 0 6561 6561 6561 5779.9380423435732 6561 0 0 0 0 0 6561 6561 1395.3151413372057 869.92993166404051 0 0 0 2:0.40540541 3:0.2605042 4:-0.62831858 5:0.078448734 6:-0.12306658 7:0.041474654 8:-0.18584953 
0 5296.4221623194207 0 6561 0 0 0 6561 0 4570.924830921309 0 1271.2172849941755 0 0 6561 0 0 0 0 0 0 0 0 0 2:0.51351351 3:0.4789916 4:-0.68141593 5:0.12909509 6:-0.17148621 7:-0.16655695 8:-0.2655705 
707.80999199302403 0 6561 0 6561 0 0 6561 0 0 0 0 0 0 0 0 0 0 0 0 0 0 0 0 2:0.22972973 3:0.21008403 4:-0.79646018 5:-0.58243315 6:-0.68796234 7:-0.5839368 8:-0.64424514 
0 0 6561 0 6561 0 0 6561 0 0 0 0 0 0 0 0 0 0 0 0 0 0 0 0 1:-1 2:0.41891892 3:0.4789916 4:-0.69026549 5:-0.087657163 6:-0.1862811 7:-0.27452271 8:-0.31639263 
6232.1035091752165 0 6561 4215.5575720262732 6561 0 0 6561 0 662.05802616642188 0 0 0 0 0 0 0 0 0 0 0 0 0 0 1:-1 2:0.054054054 3:0.025210084 4:-0.85840708 5:-0.65574641 6:-0.74445192 7:-0.67215273 8:-0.69407075 
6561 0 6561 6561 6561 0 6561 6561 888.88648062892378 0 0 0 0 0 0 0 0 0 0 0 0 0 0 0 1:1 2:0.040540541 3:-0.0084033613 4:-0.78761062 5:-0.65539224 6:-0.74176194 7:-0.72481896 8:-0.69407075 
0 931.3731684033753 0 6561 0 0 0 6561 6249.1813670894244 6561 2543.1724712950163 0 0 0 5811.9059768529178 0 0 0 0 0 0 0 0 0 2:0.68918919 3:0.68067227 4:-0.61061947 5:0.17867894 6:-0.13113652 7:0.12705727 8:-0.096163428 
0 6409.9787771365336 0 6561 3517.5936197007022 0 0 6561 6561 6561 6561 0 0 3246.8158656082583 6561 0 353.94051048211372 6561 3696.7721443419337 2700.4465401563889 0 0 0 0 1:-1 2:0.27027027 3:0.32773109 4:-0.73451327 5:-0.30865947 6:-0.54875588 7:-0.49967084 8:-0.40508221 
0 0 6561 0 6561 0 0 6561 0 0 0 0 0 0 0 0 0 0 0 0 0 0 0 0 1:-1 2:0.41891892 3:0.4789916 4:-0.69026549 5:-0.080219586 6:-0.16812374 7:-0.25345622 8:-0.34828102 
6561 0 6561 0 6561 0 0 6561 0 0 0 0 0 0 0 0 0 0 0 0 0 0 0 0 2:0.36486486 3:0.37815126 4:-0.74336283 5:-0.30263857 6:-0.36919973 7:-0.43383805 8:-0.50473343 
0 0 421.52989646434384 0 6561 0 0 6561 0 6561 0 0 0 0 0 0 0 0 0 0 0 0 0 0 1:-1 2:0.63513514 3:0.54621849 4:-0.71681416 5:-0.12697007 6:-0.17014122 7:-0.31007242 8:-0.3552566 
0 0 6561 0 6561 0 0 6561 0 6561 0 0 0 0 0 0 0 0 0 0 0 0 0 0 2:0.45945946 3:0.41176471 4:-0.69026549 5:-0.15565787 6:-0.24949563 7:-0.31928901 8:-0.37219731 
0 0 6561 0 6561 0 0 6561 0 0 0 83.883248960116006 0 0 0 0 730.20413931070925 0 0 0 0 0 0 0 1:1 2:0.25675676 3:0.24369748 4:-0.7699115 5:-0.42376483 6:-0.5070612 7:-0.64186965 8:-0.51270553 
0 0 0 0 6561 0 0 6561 4956.5879264504629 1518.9157739657194 0 0 0 0 0 0 263.34177712832974 0 0 0 0 0 0 0 1:1 2:0.44594595 3:0.24369748 4:-0.72566372 5:-0.25872145 6:-0.3194351 7:-0.48650428 8:-0.45690085 
3122.9981413680107 0 2835.613686714305 6561 6561 0 0 6561 4965.3676193652718 6561 0 1999.785328480848 0 0 0 0 1299.813069194533 0 0 0 0 0 0 0 1:-1 2:-0.040540541 3:-0.025210084 4:-0.79646018 5:-0.78572693 6:-0.87693342 7:-0.85648453 8:-0.76382661 
6561 0 6324.2402655240257 6561 6561 2053.5652133809399 0 6561 1710.5696282425652 5824.1442129985326 2221.9443887695757 1416.6049611574426 0 0 0 0 0 1119.4750670953661 0 111.29757106551395 0 0 0 0 1:-1 2:-0.35135135 3:-0.34453782 4:-0.84070796 5:-0.85762352 6:-0.91862811 7:-0.90388413 8:-0.8445441 
0 0 0 0 0 0 0 6532.9060516882491 0 0 0 0 0 0 0 0 0 0 0 0 0 0 0 1040.2374923217571 2:0.63513514 3:0.69747899 4:-0.65486726 5:0.25765893 6:0.15669132 7:-0.15339039 8:-0.1758844 
0 0 0 0 6561 0 0 6561 0 6561 0 0 0 0 0 0 0 0 0 0 0 0 0 0 1:-1 2:0.48648649 3:0.46218487 4:-0.7079646 5:-0.21055428 6:-0.34297243 7:-0.31270573 8:-0.34030892 
0 6561 0 6561 3832.9963486541783 0 0 6561 6561 6561 6561 0 0 0 6561 0 6561 6561 6561 6561 0 0 0 0 2:0.36486486 3:0.37815126 4:-0.7079646 5:-0.22117939 6:-0.45796907 7:-0.44963792 8:-0.30543099 
0 0 6561 0 6561 0 0 6561 0 6561 0 0 0 0 0 0 0 0 0 0 0 0 0 0 1:-1 2:0.41891892 3:0.36134454 4:-0.72566372 5:-0.32176377 6:-0.40215198 7:-0.5036208 8:-0.41504733 
0 0 0 0 3336.6369109619463 0 0 6561 0 6561 0 0 0 0 0 0 0 0 0 0 0 0 0 0 2:0.60810811 3:0.59663866 4:-0.60176991 5:0.10465734 6:-0.15400134 7:0.28110599 8:-0.26058794 
0 0 4839.8146441552508 0 6561 0 0 6561 5531.1674710480111 0 0 0 0 0 0 0 0 0 0 0 0 0 0 0 1:-1 2:0.28378378 3:0.32773109 4:-0.7699115 5:-0.34974323 6:-0.4929388 7:-0.37327189 8:-0.42501246 
0 592.77339393875047 6561 6561 6561 0 0 6561 6561 6561 6561 0 0 0 0 0 0 0 0 0 0 0 0 0 1:-1 2:0.14864865 3:0.12605042 4:-0.74336283 5:-0.54028688 6:-0.63416274 7:-0.65371955 8:-0.56452417 
0 0 6561 0 6561 0 0 6561 0 0 0 0 0 0 0 0 0 0 0 0 0 0 0 0 2:0.44594595 3:0.41176471 4:-0.75221239 5:-0.19886665 6:-0.29186281 7:-0.38117182 8:-0.30543099 
0 507.42869575336704 0 6561 6561 0 0 6561 6561 6561 6561 0 0 0 6561 0 2838.4271265188049 6561 0 4724.435510441841 0 0 4.5275365971199877 0 2:0.22972973 3:0.34453782 4:-0.7079646 5:-0.30688861 6:-0.57700067 7:-0.2600395 8:-0.4120578 
0 0 0 6561 6561 0 0 6561 0 0 0 0 0 0 0 0 0 0 0 0 0 0 0 0 2:0.54054054 3:0.51260504 4:-0.7079646 5:-0.067823623 6:-0.26160054 7:-0.20737327 8:-0.33532636 
0 0 0 0 6561 0 0 6561 0 6561 0 0 0 0 0 0 0 0 0 0 0 0 0 0 2:0.55405405 3:0.51260504 4:-0.7079646 5:-0.17974146 6:-0.35776732 7:-0.27978934 8:-0.30742402 
6561 0 6561 4827.4414426631392 6561 0 6561 6561 0 6561 0 0 0 0 0 0 0 0 0 0 0 0 0 0 1:1 2:0.2027027 3:0.19327731 4:-0.75221239 5:-0.53214096 6:-0.62811029 7:-0.59183673 8:-0.61235675 
0 0 0 0 6561 0 0 6561 0 0 0 0 0 0 0 0 0 0 0 0 0 0 0 0 1:-1 2:0.55405405 3:0.57983193 4:-0.67256637 5:0.052594298 6:-0.1069267 7:-0.11389072 8:-0.24962631 
0 0 6561 0 6561 0 0 6561 0 6561 0 0 0 0 0 0 0 0 0 0 0 0 0 0 1:1 2:0.39189189 3:0.36134454 4:-0.74336283 5:-0.36284753 6:-0.43779422 7:-0.53127057 8:-0.48480319 
6561 0 6561 6561 6561 2181.8170421419536 6561 6561 6561 6561 6561 0 0 0 1918.623087893312 0 550.37586419703541 259.79242588588278 2169.2704613100673 0 0 0 0 0 1:1 2:0.067567568 3:-0.0084033613 4:-0.76106195 5:-0.5997875 6:-0.68997983 7:-0.61553654 8:-0.69905331 
0 0 6561 0 6561 0 0 6561 0 4319.5999562553934 0 0 0 0 0 0 0 0 0 0 0 0 0 0 1:-1 2:0.5 3:0.42857143 4:-0.73451327 5:-0.10111564 6:-0.11297915 7:-0.36273864 8:-0.38515197 
6561 0 6561 0 6561 0 0 6561 0 6561 0 0 0 0 0 0 0 0 0 0 0 0 0 0 1:-1 2:0.31081081 3:0.34453782 4:-0.7079646 5:-0.39224367 6:-0.46133154 7:-0.55497038 8:-0.51469856 
0 4740.4626876252787 0 6561 6561 0 0 6561 6561 6561 6561 0 0 0 0 0 0 3407.4227029508565 0 0 0 0 0 0 2:0.27027027 3:0.29411765 4:-0.69026549 5:-0.4528068 6:-0.5998655 7:-0.50757077 8:-0.47483807 
6561 0 6561 0 6561 0 0 6561 0 6561 0 0 0 0 0 0 0 0 0 0 0 0 0 0 1:-1 2:0.21621622 3:0.15966387 4:-0.69911504 5:-0.48397379 6:-0.6260928 7:-0.46017117 8:-0.61434978 
0 0 6561 3508.703160130181 6561 0 0 6561 6561 6561 503.71386603551895 0 0 0 0 0 0 0 0 0 0 0 0 0 2:0.2027027 3:0.17647059 4:-0.75221239 5:-0.51159908 6:-0.63012777 7:-0.640553 8:-0.57448929 
0 6561 3597.0594240679816 6561 6561 0 0 6561 6561 6561 6561 5785.5248335453298 0 1043.0146263229487 6561 0 128.79372934580599 6561 0 0 0 0 0 0 1:-1 2:0.37837838 3:0.2605042 4:-0.71681416 5:-0.3249513 6:-0.51378615 7:-0.53785385 8:-0.46487294 
0 6561 0 6561 0 0 0 6561 1351.2328950032202 6561 6561 2852.214682600234 0 993.39398594173554 6561 0 6561 3351.7348069450654 6561 391.25101373282297 1555.0598348671638 0 0 96.893504538419919 2:0.48648649 3:0.46218487 4:-0.72566372 5:-0.14538693 6:-0.37592468 7:-0.57472021 8:-0.1838565 
0 3291.3532176352464 0 3463.344965793277 6561 0 0 6561 0 6561 4113.995201701242 1107.3274361064034 0 2611.8571283626452 4252.5357343086471 0 3309.4742988598005 505.43708783989894 0 0 0 0 0 0 1:-1 2:0.45945946 3:0.44537815 4:-0.61946903 5:-0.32034709 6:-0.43375925 7:-0.53785385 8:-0.42501246 
6561 0 6561 0 6561 0 6561 6561 0 6561 0 0 0 0 0 0 0 0 0 0 0 0 0 0 2:0.25675676 3:0.22689076 4:-0.75221239 5:-0.43120241 6:-0.50504371 7:-0.54707044 8:-0.58445441 
0 0 6561 0 6561 0 0 6561 0 0 0 0 0 0 0 0 0 0 0 0 0 0 0 0 2:0.59459459 3:0.51260504 4:-0.71681416 5:-0.086594652 6:-0.15265636 7:-0.23107307 8:-0.36522172 
0 0 0 6561 6561 0 0 6561 0 0 0 0 0 0 0 0 0 0 0 0 0 0 0 0 1:-1 2:0.63513514 3:0.54621849 4:-0.69911504 5:0.14007438 6:0.13046402 7:-0.19552337 8:-0.21574489 
0 0 3271.1752061451939 0 6561 0 0 6561 0 0 0 0 0 0 0 0 0 0 0 0 0 0 0 0 1:-1 2:0.56756757 3:0.54621849 4:-0.71681416 5:-0.073490349 6:-0.25756557 7:-0.029624753 8:-0.31539611 
0 0 6561 6337.1015721129961 6561 0 0 6561 4066.2567366606563 5359.4036387789283 0 2003.3182255889747 0 0 0 0 0 0 0 0 0 0 0 0 2:0.5 3:0.52941176 4:-0.67256637 5:-0.1266159 6:-0.31338265 7:-0.082290981 8:-0.39212755 
6561 0 6561 6561 6561 0 0 6561 0 6561 0 0 0 0 0 0 0 0 0 0 0 0 0 0 2:-0.054054054 3:-0.025210084 4:-0.80530973 5:-0.74180981 6:-0.83322125 7:-0.78801843 8:-0.76980568 
0 0 0 0 6561 0 0 6561 0 0 0 0 0 0 0 0 0 0 0 0 0 0 0 0 1:-1 2:0.54054054 3:0.49579832 4:-0.69026549 5:-0.053302639 6:-0.14996638 7:-0.21395655 8:-0.30742402 
6561 0 6561 0 6561 0 6561 6561 0 0 0 0 0 0 0 0 0 0 0 0 0 0 0 0 1:1 2:0.2027027 3:0.14285714 4:-0.79646018 5:-0.54489109 6:-0.57700067 7:-0.67346939 8:-0.632287 
0 0 0 0 6561 0 0 6561 0 0 0 0 0 0 0 0 0 0 0 0 0 0 0 0 1:-1 2:0.52702703 3:0.51260504 4:-0.68141593 5:-0.082698778 6:-0.20780094 7:-0.17840685 8:-0.27952167 
0 0 0 0 2123.4192811156386 0 0 1942.6154413827912 0 6561 0 0 0 0 0 0 0 0 0 0 0 0 0 0 2:0.82432432 3:0.73109244 4:-0.62831858 5:0.58243315 6:0.49024882 7:0.36668861 8:0.083208769 
0 0 0 0 0 0 0 0 3061.7203747562526 0 0 0 0 0 0 0 0 838.41239708703972 15.472861771191521 0 0 0 0 0 2:0.83783784 3:0.91596639 4:-0.62831858 5:0.7729768 6:0.60793544 7:0.34957209 8:0.34927753 
0 0 0 0 6561 0 0 6561 0 6561 0 0 0 0 0 0 0 0 0 0 0 0 0 0 2:0.51351351 3:0.44537815 4:-0.66371681 5:-0.026385692 6:-0.14862139 7:-0.24160632 8:-0.19382162 
0 0 6561 0 6561 0 0 6561 0 0 0 0 0 0 0 0 0 0 0 0 0 0 0 0 1:-1 2:0.60810811 3:0.56302521 4:-0.7079646 5:-0.016823092 6:-0.045057162 7:-0.24687294 8:-0.40508221 
6561 0 6561 6561 6561 6561 6561 6561 1042.2448151665378 2060.0806125090112 0 0 0 0 62.931829741112253 2321.7382956880324 0 0 0 0 0 0 0 0 1:1 2:-0.2027027 3:-0.24369748 4:-0.84070796 5:-0.8363733 6:-0.8796234 7:-0.85780118 8:-0.86347783 
0 0 6561 0 6561 0 0 6561 6561 6561 0 0 0 0 0 0 0 0 0 0 0 0 0 0 2:0.2027027 3:0.2605042 4:-0.73451327 5:-0.48574464 6:-0.59515804 7:-0.58657011 8:-0.5346288 
0 1545.8978458773674 0 6561 4011.4897713263686 0 0 6561 6561 6561 6561 1947.2774439608972 0 3477.9970214651289 6561 0 437.53515577559807 4323.5882128996527 3434.1765472106567 5724.6342551559201 2.6929988420254967 0 0 0 1:-1 2:0.22972973 3:0.19327731 4:-0.7079646 5:-0.48291128 6:-0.7471419 7:-0.55365372 8:-0.38515197 
0 0 0 0 0 0 0 6561 0 6561 0 0 0 0 0 0 0 0 0 0 0 0 0 0 1:-1 2:0.62162162 3:0.56302521 4:-0.74336283 5:-0.03488578 6:-0.25218561 7:-0.10467413 8:-0.23567514 
0 0 6561 0 6561 0 0 6561 0 4259.9595468167272 0 0 0 0 4743.8397436594969 0 0 0 0 0 0 0 0 0 2:0.48648649 3:0.31092437 4:-0.71681416 5:-0.22932531 6:-0.38264963 7:-0.22053983 8:-0.39711011 
0 0 4385.6881212346425 0 6561 0 0 6561 0 0 0 0 0 0 0 0 0 0 0 0 0 0 0 0 2:0.48648649 3:0.49579832 4:-0.71681416 5:-0.13936604 6:-0.23133826 7:-0.4562212 8:-0.29546587 
0 0 6561 0 6561 0 0 6561 0 0 0 0 0 0 0 0 0 0 0 0 0 0 0 0 2:0.5 3:0.4789916 4:-0.7079646 5:-0.075261201 6:-0.19569603 7:-0.25345622 8:-0.37518685 
0 0 0 0 6561 0 0 6561 0 0 0 0 0 0 0 0 0 0 0 0 0 0 0 0 1:-1 2:0.51351351 3:0.54621849 4:-0.71681416 5:-0.14609527 6:-0.27706792 7:-0.25872284 8:-0.31539611 
0 0 6561 6561 6561 0 0 6561 3000.1326046857835 5858.7315211302939 0 0 0 0 0 0 0 0 0 0 0 0 0 0 2:0.21621622 3:0.19327731 4:-0.76106195 5:-0.49955729 6:-0.60726295 7:-0.59973667 8:-0.5346288 
0 0 0 0 0 0 0 6561 0 0 0 0 0 0 0 0 0 0 0 0 0 0 0 0 2:0.71621622 3:0.69747899 4:-0.68141593 5:0.16876217 6:-0.012777404 7:0.0019749835 8:-0.10114599 
0 0 6561 0 6561 0 0 6561 0 0 0 0 0 0 0 0 0 0 0 0 0 0 0 0 2:0.44594595 3:0.44537815 4:-0.69911504 5:-0.22188773 6:-0.31203766 7:-0.39828835 8:-0.39511709 
0 0 0 0 6561 0 0 6561 0 6561 0 0 0 0 0 0 0 0 0 0 0 0 0 0 2:0.63513514 3:0.52941176 4:-0.6460177 5:0.13724101 6:-0.041022192 7:-0.10862409 8:-0.06527155 
6561 1118.3204352946229 6561 0 6561 0 0 6561 0 3676.8934158218035 1477.9644593462478 0 0 0 0 0 0 0 0 0 0 0 0 0 1:1 2:0.2027027 3:0.092436975 4:-0.75221239 5:-0.62953781 6:-0.76260928 7:-0.69848585 8:-0.63428002 
0 0 0 6561 0 0 0 959.64964758390954 0 6561 0 0 0 0 0 0 0 0 0 0 0 0 0 0 2:0.67567568 3:0.71428571 4:-0.66371681 5:0.24774216 6:0.0026899798 7:0.049374589 8:-0.01145989 
0 0 0 0 0 0 0 6561 0 0 0 0 0 0 0 0 0 0 0 0 0 0 0 0 2:0.71621622 3:0.66386555 4:-0.69911504 5:0.14184523 6:-0.0020174849 7:-0.092824226 8:-0.10612855 
6561 0 6561 0 6561 0 705.94527570313824 6561 0 2878.4040898712965 0 0 0 0 0 0 0 0 0 0 0 0 0 0 1:-1 2:0.35135135 3:0.24369748 4:-0.75221239 5:-0.38976448 6:-0.47276395 7:-0.40355497 8:-0.60438465 
0 0 0 0 882.30376208646169 0 0 6561 0 0 0 0 0 0 0 0 0 0 0 0 0 0 0 0 1:-1 2:0.55405405 3:0.57983193 4:-0.69026549 5:0.040906676 6:-0.093476799 7:-0.17182357 8:-0.2077728 
1376.8744802330207 0 6561 0 6561 711.94899126358632 6156.8151159603922 6561 2529.3107291492397 6561 83.669026272687532 3131.6051245246426 0 0 976.85133770743994 0 0 0 0 0 0 0 0 0 2:0.40540541 3:0.39495798 4:-0.72566372 5:-0.20736674 6:-0.39408204 7:-0.53258723 8:-0.69407075 
0 0 0 0 6561 0 0 6561 0 0 0 0 0 0 0 0 0 0 0 0 0 0 0 0 2:0.72972973 3:0.57983193 4:-0.67256637 5:0.10359483 6:-0.1062542 7:0.0072416063 8:-0.19581465 
0 0 6561 0 6561 0 0 6561 6561 6561 6561 6487.1520126991218 0 1734.8466607197361 0 0 0 0 0 0 0 0 0 0 2:0.39189189 3:0.39495798 4:-0.69911504 5:-0.36391004 6:-0.52387357 7:-0.49967084 8:-0.50473343 
0 2731.8457131967079 0 6561 6561 0 0 6561 0 1033.3449459526903 6561 0 0 0 0 0 0 0 0 0 0 0 0 0 1:-1 2:0.41891892 3:0.36134454 4:-0.69911504 5:-0.16522047 6:-0.38802959 7:-0.11389072 8:-0.3472845 
6561 0 6561 6561 6561 0 0 6561 0 6561 0 0 0 0 0 0 0 0 0 0 0 0 0 0 2:0.081081081 3:-0.0084033613 4:-0.79646018 5:-0.68124668 6:-0.77067922 7:-0.75905201 8:-0.69407075 
0 0 6561 6561 6561 0 0 6561 6561 0 0 0 0 0 0 0 0 0 0 0 0 0 0 0 1:-1 2:0.16216216 3:0.15966387 4:-0.7699115 5:-0.46024438 6:-0.59314055 7:-0.5036208 8:-0.56950673 
0 0 6561 6561 6561 0 0 6561 6561 0 6561 0 0 0 6561 0 0 0 0 0 0 0 0 0 2:0.31081081 3:0.29411765 4:-0.75221239 5:-0.34372233 6:-0.48688635 7:-0.50625411 8:-0.40508221 
0 1192.4995070958669 0 6561 0 0 0 6561 6561 3716.1906172259346 6561 0 0 0 1168.5030027258472 0 0 0 5375.8520911922233 0 0 0 0 0 1:-1 2:0.45945946 3:0.4789916 4:-0.72566372 5:-0.090136356 6:-0.41627438 7:-0.22975642 8:-0.35625311 
6561 0 6561 0 6561 2132.8135399271646 6561 6561 0 6561 222.06164126040255 0 0 0 0 0 0 0 0 0 0 0 0 0 1:-1 2:-0.17567568 3:-0.22689076 4:-0.82300885 5:-0.81264388 6:-0.84667115 7:-0.84068466 8:-0.85351271 
6561 0 6561 3964.6383398884327 6561 0 0 6561 6561 0 0 0 0 0 0 0 1661.1082408860655 0 0 0 0 0 0 0 1:1 2:0.067567568 3:-0.025210084 4:-0.79646018 5:-0.65539224 6:-0.73167451 7:-0.71691903 8:-0.67214748 
0 0 0 0 0 0 0 6561 0 0 0 0 0 0 0 0 0 0 0 0 0 0 0 0 2:0.75675676 3:0.73109244 4:-0.63716814 5:0.1457411 6:-0.00067249496 7:-0.17182357 8:-0.030393622 
0 0 0 2546.5766074527378 6561 0 0 6561 0 6561 0 0 0 0 0 0 0 0 0 0 0 0 0 0 1:-1 2:0.58108108 3:0.52941176 4:-0.69026549 5:-0.13865769 6:-0.32145259 7:-0.2034233 8:-0.2655705 
1246.9397099890791 0 6561 0 6561 0 0 6561 0 4918.4016398515596 0 0 0 0 0 0 0 0 0 0 0 0 0 0 1:-1 2:0.45945946 3:0.39495798 4:-0.74336283 5:-0.27288826 6:-0.40484196 7:-0.25740619 8:-0.43497758 
6561 0 6561 0 6561 0 6561 6561 0 6561 0 2413.4036992795627 0 0 0 0 0 0 132.65155419039996 0 0 0 0 0 1:1 2:0.067567568 3:-0.0084033613 4:-0.7699115 5:-0.67132991 6:-0.75319435 7:-0.74061883 8:-0.714001 
0 0 0 0 6561 0 0 6561 0 6561 0 0 0 0 0 0 0 0 0 0 0 0 0 0 1:-1 2:0.63513514 3:0.56302521 4:-0.7079646 5:0.04515672 6:-0.027572293 7:-0.26662278 8:-0.19382162 
0 0 0 0 6561 0 0 6561 0 29.686257392825507 0 0 0 0 0 0 0 0 0 0 0 0 0 0 2:0.54054054 3:0.49579832 4:-0.6460177 5:0.010448026 6:-0.14189644 7:-0.19815668 8:-0.28550075 
6561 0 6561 0 6561 0 6561 6561 0 6561 0 309.71000505739306 0 0 0 0 0 5255.7292894234815 0 0 0 0 0 0 1:1 3:-0.075630252 4:-0.78761062 5:-0.75562245 6:-0.8399462 7:-0.7801185 8:-0.79372197 
6561 1345.3981057148396 6561 0 6561 0 6561 6561 0 6561 0 387.41577491976784 0 0 0 0 0 0 104.01847120857815 0 0 0 0 0 1:1 2:0.054054054 3:0.092436975 4:-0.7699115 5:-0.67983 6:-0.7464694 7:-0.79065174 8:-0.69407075 
6561 0 6561 6561 6561 0 6561 6561 0 6561 0 0 0 0 824.23229601623916 0 0 0 0 0 0 0 0 0 2:-0.027027027 3:-0.1092437 4:-0.78761062 5:-0.73330972 6:-0.79690652 7:-0.76036866 8:-0.75386148 
359.86068359716393 0 642.21990590872338 0 0 0 0 4298.0199903124649 0 0 4616.5018222184754 0 0 0 0 0 0 0 152.38980435038954 0 0 0 0 0 1:-1 2:0.56756757 3:0.79831933 4:-0.6460177 5:0.093323889 6:-0.12172159 7:-0.0098749177 8:-0.1758844 
0 0 0 0 0 0 0 3741.279487871132 0 4401.8199324783654 0 0 0 0 0 0 0 0 0 0 0 0 0 0 2:0.71621622 3:0.71428571 4:-0.65486726 5:0.28563839 6:0.054472091 7:0.29427255 8:-0.026407573 
0 0 0 0 6561 0 0 6561 0 6561 0 0 0 0 0 0 0 0 0 0 0 0 0 0 2:0.58108108 3:0.51260504 4:-0.67256637 5:0.080927926 6:-0.07330195 7:-0.20473996 8:-0.12406577 
0 0 1068.9864603407766 2846.993817389261 6561 0 0 6561 0 6561 0 0 0 0 0 0 0 0 0 0 0 0 0 0 1:-1 2:0.33783784 3:0.34453782 4:-0.72566372 5:-0.41207721 6:-0.51916611 7:-0.54312047 8:-0.45092177 
0 0 1928.1775580866445 0 6561 0 0 6561 0 0 0 0 0 0 0 0 0 0 0 0 0 0 0 0 2:0.51351351 3:0.44537815 4:-0.7079646 5:-0.10217815 6:-0.24344317 7:-0.19420671 8:-0.32635775 
0 0 0 0 0 0 0 6561 0 3470.7381789891224 0 0 0 0 0 0 0 0 0 0 0 0 0 0 2:0.60810811 3:0.6302521 4:-0.65486726 5:0.14538693 6:-0.0060524546 7:-0.13100724 8:-0.076233184 
0 0 0 3587.4422382090106 6561 0 0 6561 0 0 0 0 0 0 0 0 0 0 0 0 0 0 0 0 2:0.62162162 3:0.52941176 4:-0.67256637 5:0.041969187 6:-0.15467384 7:-0.20473996 8:-0.15695067 
0 0 0 2962.4571740415117 0 0 0 6561 0 4382.3771454324888 0 0 0 0 0 0 0 0 0 0 0 0 0 0 1:-1 2:0.82432432 3:0.66386555 4:-0.68141593 5:0.33947229 6:0.26563551 7:0.044107966 8:-0.11609367 
0 0 6561 0 6561 0 0 6561 0 0 0 0 0 0 0 0 0 0 0 0 0 0 0 0 1:-1 2:0.64864865 3:0.56302521 4:-0.73451327 5:-0.028510714 6:-0.034969738 7:-0.22975642 8:-0.36522172 
6561 0 6561 0 6561 4406.0633941397427 6561 6561 0 6561 0 0 0 0 0 0 0 0 0 0 0 0 0 0 1:1 2:-0.067567568 3:-0.092436975 4:-0.82300885 5:-0.7407473 6:-0.77605918 7:-0.83673469 8:-0.77678127 
6561 0 6561 0 6561 0 6561 6561 0 0 0 0 0 0 0 0 0 0 0 0 0 0 0 0 1:-1 2:-0.24324324 3:-0.24369748 4:-0.83185841 5:-0.82751904 6:-0.87289845 7:-0.83805135 8:-0.85351271 
354.45381108465483 0 0 0 87.074668984783102 0 0 0 0 6561 0 0 0 0 2451.9741155892207 0 0 0 0 0 0 0 89.718898515566821 0 1:-1 2:0.77027027 3:0.74789916 4:-0.62831858 5:0.46414025 6:0.24747814 7:0.075707702 8:0.27852516 
0 0 0 6561 0 0 0 6561 6561 6561 6561 3771.829947853907 0 0 6561 0 478.00108733345411 6561 6561 3824.1974273193882 2448.2955035809523 0 0 0 2:0.58108108 3:0.59663866 4:-0.67256637 5:-0.047990083 6:-0.2669805 7:-0.28900592 8:-0.054309915 
0 0 6561 0 6561 0 0 6561 0 0 0 0 0 0 0 0 0 0 0 0 0 0 0 0 2:0.51351351 3:0.51260504 4:-0.72566372 5:-0.088011333 6:-0.20242098 7:-0.17445688 8:-0.31539611 
0 0 6561 0 6561 0 0 6561 1625.3726749060779 0 0 0 0 0 0 0 0 0 0 0 0 0 0 0 1:-1 2:0.33783784 3:0.36134454 4:-0.72566372 5:-0.2927218 6:-0.39071957 7:-0.46148782 8:-0.47483807 
0 0 6561 6458.5193467208646 6561 0 0 6561 6561 0 0 0 0 0 0 0 1444.0631193251882 0 0 0 0 0 0 0 1:1 2:0.32432432 3:0.2605042 4:-0.73451327 5:-0.41951479 6:-0.55480834 7:-0.55760369 8:-0.42501246 
0 0 0 1810.813411373188 0 0 0 6561 0 0 0 0 0 0 0 0 0 0 0 0 0 0 0 2152.338356190066 2:0.68918919 3:0.66386555 4:-0.69911504 5:0.19142908 6:0.012104909 7:-0.14154049 8:-0.36522172 
0 0 0 0 6561 0 0 6561 6561 6561 0 0 0 0 0 0 0 0 0 0 0 0 0 0 2:0.51351351 3:0.4789916 4:-0.65486726 5:-0.082698778 6:-0.2535306 7:-0.21527321 8:-0.2655705 
0 0 6561 0 6561 0 0 6561 0 0 0 0 0 0 0 0 0 0 0 0 0 0 0 0 2:0.41891892 3:0.39495798 4:-0.76106195 5:-0.31432619 6:-0.37525219 7:-0.48650428 8:-0.47683109 
6561 0 6561 0 6561 0 0 6561 0 0 0 0 0 0 0 0 0 0 0 0 0 0 0 0 1:-1 2:-0.16216216 3:-0.14285714 4:-0.82300885 5:-0.79989375 6:-0.85810356 7:-0.8038183 8:-0.8036871 
0 0 0 0 6561 0 0 6561 0 6561 0 0 0 0 0 0 0 0 0 0 0 0 0 0 2:0.52702703 3:0.49579832 4:-0.69911504 5:0.073490349 6:-0.06926698 7:-0.14285714 8:-0.18784255 
0 0 6561 0 6561 0 4659.4331346937015 6561 0 0 0 0 0 0 0 0 0 0 0 0 0 0 0 0 2:0.48648649 3:0.39495798 4:-0.74336283 5:-0.30440942 6:-0.36247478 7:-0.47465438 8:-0.47483807 
0 0 0 6561 6561 0 0 6561 6561 0 0 0 0 0 0 0 0 0 0 0 0 0 0 0 1:-1 2:0.56756757 3:0.52941176 4:-0.61946903 5:0.26190898 6:0.19367855 7:0.077024358 8:-0.16691579 
0 0 913.75320970711789 6561 6561 0 0 6561 0 6561 0 0 0 0 0 0 0 0 0 0 0 0 0 0 1:-1 2:0.054054054 3:-0.0084033613 4:-0.78761062 5:-0.63272534 6:-0.73032952 7:-0.57340355 8:-0.63428002 
0 0 0 6561 0 0 0 6561 0 6561 0 3413.3303618965133 0 0 0 0 0 0 0 0 0 0 0 0 1:-1 2:0.62162162 3:0.54621849 4:-0.73451327 5:-0.072073667 6:-0.2535306 7:-0.25213957 8:-0.18285999 
0 0 6561 0 6561 0 0 6561 0 6561 0 0 0 0 0 0 0 0 0 0 0 0 0 0 1:-1 2:0.027027027 3:-0.0084033613 4:-0.78761062 5:-0.65893395 6:-0.75722932 7:-0.62211982 8:-0.68410563 
6561 0 6561 0 6561 0 6561 6561 0 6561 0 0 0 0 0 0 0 0 0 0 0 0 0 0 1:-1 2:0.21621622 3:0.15966387 4:-0.75221239 5:-0.48255711 6:-0.55211836 7:-0.58657011 8:-0.66417539 
0 0 0 0 6561 0 0 6561 0 0 0 0 0 0 0 0 0 0 0 0 0 0 0 0 2:0.56756757 3:0.34453782 4:-0.69911504 5:-0.088011333 6:-0.21183591 7:-0.1678736 8:-0.3223717 
0 0 0 6561 6561 0 0 6561 6561 6561 6561 0 0 0 784.68235241650632 0 0 541.02507937622863 0 0 0 0 0 0 1:-1 2:0.2027027 3:0.22689076 4:-0.71681416 5:-0.47370285 6:-0.65837256 7:-0.58788677 8:-0.42800199 
0 0 0 0 6561 0 0 6561 0 6561 0 0 0 0 0 0 0 0 0 0 0 0 0 0 1:-1 2:0.54054054 3:0.52941176 4:-0.71681416 5:-0.16309545 6:-0.2535306 7:-0.37327189 8:-0.31539611 
6561 0 6561 673.40072629241274 6561 6561 6561 6561 0 0 0 0 43.350218315279868 0 0 4141.3416724411873 678.80244563614553 0 0 0 0 0 0 0 1:-1 2:-0.36486486 3:-0.39495798 4:-0.89380531 5:-0.9164158 6:-0.94552791 7:-0.91441738 8:-0.92326856 
0 0 0 6561 0 0 0 6561 0 6561 0 0 0 0 0 0 0 3288.8501022374608 3756.8511281206056 0 20.730330457917255 0 0 0 2:0.56756757 3:0.54621849 4:-0.68141593 5:-0.0012395962 6:-0.16812374 7:-0.34693878 8:-0.012456403 
0 0 0 6561 0 0 0 432.16873527492533 2259.9072301019178 0 0 2285.1518036000921 0 0 4309.4323371783194 0 1116.402563152378 1303.9933470356216 147.44460500088496 0 0 0 2.7526459335408457 0 1:1 2:0.58108108 3:0.57983193 4:-0.61946903 5:0.26367983 6:-0.096839274 7:-0.049374589 8:-0.19282511 
0 6561 0 6561 0 0 0 6561 6561 6561 6561 6561 0 0 6561 0 0 6561 0 0 0 0 0 0 2:0.51351351 3:0.56302521 4:-0.7079646 5:-0.051885957 6:-0.3201076 7:-0.22185648 8:-0.18186348 
0 6561 0 6561 6561 0 0 6561 6561 6561 6561 0 0 4589.2113272076331 6561 0 5337.8528310404881 6561 5773.2487142708642 0 0 0 0 0 2:0.2972973 3:0.24369748 4:-0.75221239 5:-0.4432442 6:-0.62205783 7:-0.58130349 8:-0.43497758 
0 0 0 6561 6561 0 0 6561 6561 6561 6561 0 0 0 4251.4022520751887 0 0 1644.0959861490321 0 0 0 0 0 0 1:-1 2:0.37837838 3:0.32773109 4:-0.69026549 5:-0.20276253 6:-0.33893746 7:-0.31138907 8:-0.33532636 
0 0 0 3529.7336460254196 6561 0 0 6561 0 6561 0 0 0 0 0 0 0 0 0 0 0 0 0 0 1:-1 2:0.60810811 3:0.49579832 4:-0.6460177 5:-0.10253232 6:-0.2266308 7:-0.21527321 8:-0.30343797 
0 0 0 2160.4146598707302 6561 0 0 6561 1137.9022831064588 3909.1058112797095 0 0 0 0 3114.3703748099347 0 0 0 0 0 0 0 0 0 1:1 2:0.43243243 3:0.44537815 4:-0.73451327 5:-0.12449088 6:-0.15198386 7:-0.40618828 8:-0.34529148 
1445.3336475699621 0 6561 6561 6561 0 0 6561 1307.8937020647784 0 0 0 0 0 0 0 0 231.10626104739913 0 0 0 0 0 0 1:1 2:0.35135135 3:0.32773109 4:-0.76106195 5:-0.41738976 6:-0.54741089 7:-0.4443713 8:-0.5266567 
0 0 1310.5707678629444 0 6561 0 0 6561 0 4110.1103280721245 0 0 0 0 4052.7234166637413 0 0 0 0 0 0 0 0 0 1:1 2:0.47297297 3:0.41176471 4:-0.71681416 5:-0.35895166 6:-0.50235373 7:-0.56155365 8:-0.39013453 
0 0 0 0 1337.8715726951427 0 0 6561 0 6561 0 0 0 0 0 0 0 0 0 0 0 0 0 0 1:-1 2:0.67567568 3:0.59663866 4:-0.66371681 5:0.22117939 6:0.024209818 7:0.14680711 8:-0.096163428 
0 0 6561 0 6561 0 0 6561 0 0 0 0 0 0 0 0 0 0 0 0 0 0 0 0 1:-1 2:0.39189189 3:0.46218487 4:-0.76106195 5:-0.28740924 6:-0.43375925 7:-0.41013825 8:-0.43497758 
0 0 6561 6561 6561 0 0 6561 0 6561 4518.7124881989612 0 0 0 0 0 0 0 0 0 0 0 0 0 1:-1 2:0.22972973 3:0.19327731 4:-0.72566372 5:-0.4945989 6:-0.62407532 7:-0.55760369 8:-0.57648231 
0 0 6561 0 6561 0 0 6561 0 6561 0 0 0 0 0 0 0 0 0 0 0 0 0 0 1:-1 2:0.35135135 3:0.39495798 4:-0.75221239 5:-0.40818134 6:-0.53261601 7:-0.54443713 8:-0.52466368 
0 0 0 0 6561 0 0 6561 0 379.38995108836008 6561 0 0 0 0 0 0 0 0 0 0 0 0 0 1:-1 2:0.52702703 3:0.59663866 4:-0.7079646 5:-0.1588454 6:-0.3604573 7:-0.21132324 8:-0.30543099 
2951.0880844585326 0 6561 6561 6561 0 0 6561 6561 6561 3857.7599186428465 0 0 0 0 0 0 6561 0 0 0 0 0 0 3:0.0084033613 4:-0.73451327 5:-0.65787144 6:-0.75790182 7:-0.67215273 8:-0.69407075 
0 855.88849170457377 0 6561 6561 0 0 6561 6561 6561 6561 0 0 0 6561 0 0 2158.892896899421 0 0 0 0 0 0 1:-1 2:0.21621622 3:0.15966387 4:-0.7699115 5:-0.41384806 6:-0.67787492 7:-0.52073733 8:-0.45490782 
0 0 228.7360700904874 0 6561 0 0 6561 0 0 0 48.854360125850775 0 0 0 0 0 0 0 0 0 0 0 0 2:0.47297297 3:0.6302521 4:-0.7079646 5:-0.19461661 6:-0.32952253 7:-0.36010533 8:-0.29147982 
0 6561 6561 6561 6561 0 0 6561 6561 6561 5895.6823255712334 0 0 0 5729.2862262035787 0 0 0 0 0 0 0 0 0 1:-1 2:0.36486486 3:0.31092437 4:-0.73451327 5:-0.32672215 6:-0.42098184 7:-0.48913759 8:-0.43099153 
6561 0 6561 6561 6561 17.516670459507448 3138.8023045071568 6561 0 6561 0 0 0 0 0 0 0 0 0 0 0 0 0 0 2:-0.027027027 3:-0.0084033613 4:-0.78761062 5:-0.67664247 6:-0.74310693 7:-0.73798552 8:-0.74389636 
0 0 0 6276.1872111982484 0 0 0 0 5791.5642176425499 5369.5742071361256 0 0 0 0 0 0 0 0 0 0 0 0 0 0 2:0.82432432 3:0.71428571 4:-0.61946903 5:0.37134762 6:0.039004707 7:0.26925609 8:0.1429995 
0 0 0 0 6561 0 0 6561 17.002818102406952 6561 0 0 0 0 0 0 0 0 0 0 0 0 0 0 2:0.47297297 3:0.52941176 4:-0.68141593 5:-0.058261024 6:-0.20242098 7:-0.27452271 8:-0.22969606 
0 0 6561 6561 6561 0 0 6561 2610.6686547967247 6561 0 0 0 0 6561 0 0 0 0 0 0 0 0 0 2:0.16216216 3:0.1092437 4:-0.79646018 5:-0.5650788 6:-0.67451244 7:-0.71823568 8:-0.58445441 
6561 0 6561 0 6561 0 0 6561 0 6561 0 0 0 0 0 0 0 0 0 0 0 0 0 0 2:0.12162162 3:0.1092437 4:-0.77876106 5:-0.61926687 6:-0.70880968 7:-0.6642528 8:-0.67414051 
0 0 0 0 0 0 0 0 0 5505.6649073350227 0 0 0 0 0 0 0 0 0 0 0 0 0 0 1:-1 2:0.71621622 3:0.74789916 4:-0.61946903 5:0.42163981 6:0.32952253 7:0.17709019 8:-0.0024912805 
6561 0 6561 0 6561 0 0 6561 0 6561 0 0 0 0 0 0 0 0 0 0 0 0 1.6244151961481823 0 2:0.16216216 3:0.19327731 4:-0.73451327 5:-0.54524526 6:-0.61802286 7:-0.6194865 8:-0.58445441 
0 0 4106.5196511505037 6409.8653639010099 0 0 0 6561 6561 6561 0 0 0 0 0 0 0 0 0 0 0 0 0 0 1:-1 2:0.54054054 3:0.52941176 4:-0.72566372 5:0.088719674 6:-0.13987895 7:-0.057274523 8:-0.14598904 
0 0 6561 0 6561 0 0 6561 0 0 0 0 0 0 0 0 0 0 0 0 0 0 0 0 2:0.52702703 3:0.44537815 4:-0.74336283 5:-0.19851248 6:-0.25823806 7:-0.34167215 8:-0.40209268 
4903.8124262922793 0 6561 0 6561 0 0 6561 0 0 0 0 0 0 0 0 0 0 0 0 0 0 0 0 1:-1 2:0.52702703 3:0.4789916 4:-0.7079646 5:-0.075615371 6:-0.089441829 7:-0.23238973 8:-0.47284504 
0 0 6561 0 6561 0 0 6561 0 4341.0723317599977 0 712.84528569151848 0 0 0 0 0 0 0 0 0 0 0 0 2:0.43243243 3:0.44537815 4:-0.7079646 5:-0.32743049 6:-0.39139206 7:-0.49308756 8:-0.45191829 
0 0 0 0 6561 0 0 6561 0 0 0 0 0 0 0 0 0 0 0 0 0 0 0 0 1:-1 2:0.63513514 3:0.59663866 4:-0.68141593 5:0.081636267 6:0.025554808 7:-0.18104016 8:-0.20079721 
0 0 6561 6561 6561 0 0 6561 6561 811.73945703984884 6561 2497.3605401540867 0 0 0 0 0 5100.5152550823414 2993.4083842682303 0 0 0 0 0 1:1 2:0.24324324 3:0.32773109 4:-0.69911504 5:-0.44820259 6:-0.59045057 7:-0.59183673 8:-0.41504733 
0 0 0 6561 6561 0 0 6561 6561 0 6561 0 0 0 0 0 0 0 0 0 0 0 0 0 1:-1 2:0.22972973 3:0.22689076 4:-0.7079646 5:-0.36780591 6:-0.57229321 7:-0.37195523 8:-0.51469856 
0 0 6561 0 6561 0 0 6561 0 6561 0 0 0 0 0 0 0 0 0 0 0 0 0 0 1:-1 2:0.48648649 3:0.4789916 4:-0.72566372 5:-0.25872145 6:-0.3463349 7:-0.44305464 8:-0.36223219 
0 0 0 6561 6561 0 0 6561 3741.2472460392046 6561 6561 0 0 0 1607.1253295709439 0 0 0 0 2424.8541437728127 0 0 0 0 1:-1 2:0.41891892 3:0.42857143 4:-0.72566372 5:-0.2831592 6:-0.39475454 7:-0.50493746 8:-0.3552566 
0 0 0 0 0 0 0 0 0 5879.62265722764 0 0 0 0 0 0 0 0 0 0 0 0 0 0 2:0.83783784 3:0.74789916 4:-0.6460177 5:0.46697361 6:0.36180229 7:0.2244898 8:-0.046337818 
0 0 -0 170.63456035984248 4900.3667481038192 0 216.09895284260338 2071.7834912026615 2350.1822517156247 0 0 0 0 0 0 0 0 0 0 0 0 0 0 0 2:0.90540541 3:0.93277311 4:-0.61946903 5:0.88064459 6:1 7:0.31138907 8:0.16492277 
0 1553.2762389462789 0 2496.1145887284265 0 0 0 6561 835.39196976269568 1391.7391641556912 0 0 0 0 0 0 0 229.07609706974071 0 0 0 0 0 0 2:0.55405405 3:0.79831933 4:-0.61061947 5:0.17584558 6:0.034297243 7:-0.0059249506 8:-0.13602392 
0 0 0 0 0 0 0 0 6561 6561 0 0 0 0 0 0 0 0 0 0 0 0 0 0 1:-1 2:0.71621622 3:0.71428571 4:-0.63716814 5:0.5555162 6:0.3597848 7:0.37458855 8:0.08819133 
0 6561 0 6561 6561 0 0 6561 6561 6561 6561 0 0 0 6561 0 6561 3772.5407238692324 1744.1929279254575 0 0 0 0 0 1:-1 2:0.36486486 3:0.39495798 4:-0.7079646 5:-0.34478484 6:-0.56893073 7:-0.47860434 8:-0.37518685 
6561 0 6561 6561 6561 0 6561 6561 0 174.29915260832706 0 0 0 0 2302.1478970578132 0 0 0 0 0 0 0 0 0 2:-0.040540541 3:-0.092436975 4:-0.79646018 5:-0.727643 6:-0.80295898 7:-0.72086899 8:-0.78375685 
0 0 6561 0 6561 0 0 6561 0 0 0 0 0 0 0 0 0 0 0 0 0 0 0 0 2:0.44594595 3:0.41176471 4:-0.73451327 5:-0.2126793 6:-0.30262273 7:-0.32323897 8:-0.4040857 
0 0 0 0 6561 0 0 6561 0 6561 3112.354718797164 0 0 0 0 0 0 0 0 0 0 0 0 0 2:0.41891892 3:0.32773109 4:-0.75221239 5:-0.3858686 6:-0.54068594 7:-0.48782093 8:-0.42301943 
0 0 0 0 6561 0 0 6561 0 6561 3270.1382733511227 0 0 0 0 0 0 3980.6412783478554 0 0 0 0 0 0 1:-1 2:0.41891892 3:0.4789916 4:-0.67256637 5:-0.21197096 6:-0.32145259 7:-0.3074391 8:-0.27154958 
0 0 0 0 6561 0 0 6561 0 0 0 0 0 0 0 0 0 0 0 0 0 0 0 0 1:-1 2:0.55405405 3:0.57983193 4:-0.66371681 5:0.14078272 6:0.043712172 7:-0.030941409 8:-0.21275536 
6561 0 6561 0 6561 0 3836.3121532353821 6561 0 6561 0 0 0 0 0 0 0 0 0 0 0 0 0 0 2:0.40540541 3:0.32773109 4:-0.73451327 5:-0.21232513 6:-0.21250841 7:-0.42067149 8:-0.50473343 
0 0 6561 0 6561 0 0 6561 0 6561 0 0 0 0 0 0 0 0 0 0 0 0 0 0 1:-1 2:0.27027027 3:0.29411765 4:-0.75221239 5:-0.40676465 6:-0.52252858 7:-0.49967084 8:-0.52765321 
0 0 0 6561 6561 0 0 6561 0 0 0 0 0 0 0 0 0 0 0 0 0 0 0 0 1:-1 2:0.59459459 3:0.54621849 4:-0.66371681 5:0.15919957 6:0.11634163 7:-0.059907834 8:-0.26357748 
0 1036.1791830066174 6561 0 6561 0 0 6561 0 6561 0 0 0 0 0 0 0 0 0 0 0 0 0 0 1:-1 2:0.40540541 3:0.34453782 4:-0.74336283 5:-0.33415973 6:-0.42299933 7:-0.52205398 8:-0.45092177 
239.14652517459885 0 6561 0 6561 0 0 6561 0 0 0 0 0 0 0 0 0 0 0 0 0 0 0 0 1:-1 2:0.43243243 3:0.39495798 4:-0.7079646 5:-0.12909509 6:-0.19098857 7:-0.31138907 8:-0.4200299 
0 0 2098.102145832961 0 6561 0 0 6561 470.87562881188643 0 0 0 0 0 0 0 0 0 0 0 0 0 0 0 1:-1 2:0.52702703 3:0.57983193 4:-0.67256637 5:0.20772091 6:0.024882313 7:0.10599078 8:-0.11908321 
0 0 6013.4323192130259 0 6561 0 0 6561 0 5418.1110140583933 0 0 0 0 0 0 0 0 0 0 0 0 0 0 2:0.43243243 3:0.51260504 4:-0.68141593 5:0.014343899 6:-0.021519839 7:-0.30612245 8:-0.14399601 
0 5516.3559945675888 0 6561 0 0 0 6561 6561 6561 6561 2225.5508789388659 0 0 6561 0 0 6561 0 0 0 0 0 0 2:0.52702703 3:0.49579832 4:-0.68141593 5:0.060740216 6:-0.20376597 7:-0.17445688 8:-0.14399601 
0 0 0 6561 6561 0 0 6561 6561 6561 0 0 0 0 6561 0 0 0 0 0 0 0 0 0 1:-1 2:0.51351351 3:0.46218487 4:-0.69026549 5:-0.027448203 6:-0.16341627 7:-0.28900592 8:-0.21574489 
6561 0 6561 0 6561 0 0 6561 0 6561 5432.7107393051792 0 0 0 0 0 0 0 0 0 0 0 0 0 1:-1 2:0.094594595 3:0.075630252 4:-0.78761062 5:-0.58384983 6:-0.66039005 7:-0.6642528 8:-0.66018934 
0 0 0 0 6561 0 0 6561 0 0 0 0 0 0 0 0 0 0 0 0 0 0 0 0 2:0.48648649 3:0.46218487 4:-0.69026549 5:-0.12803258 6:-0.2528581 7:-0.35088874 8:-0.27553563 
0 0 6561 0 6561 0 0 6561 0 0 0 0 0 0 0 0 0 0 0 0 0 0 0 0 2:0.44594595 3:0.32773109 4:-0.7699115 5:-0.38338941 6:-0.47814391 7:-0.54970375 8:-0.4608869 
0 20.92537339007141 0 3696.9939232941497 0 0 0 0 2008.4666182015494 3156.233054680697 0 0 0 0 163.63460641050685 0 0 0 0 0 0 0 0 0 2:0.78378378 3:0.83193277 4:-0.61061947 5:0.80839384 6:0.52320108 7:0.15734036 8:0.19282511 
0 0 6561 0 6561 0 0 6561 0 0 0 0 0 0 0 0 0 0 0 0 0 0 0 0 1:1 2:0.43243243 3:0.27731092 4:-0.7699115 5:-0.36213919 6:-0.42030935 7:-0.54312047 8:-0.48480319 
0 0 6561 0 6561 0 0 6561 0 0 0 0 0 0 0 0 0 0 0 0 0 0 0 0 1:-1 2:0.5 3:0.4789916 4:-0.69026549 5:-0.10217815 6:-0.18762609 7:-0.28768927 8:-0.34927753 
0 0 0 0 6561 0 0 6561 0 3460.0294482229056 0 0 0 0 0 0 0 0 0 0 0 0 0 0 1:-1 2:0.5 3:0.51260504 4:-0.73451327 5:-0.068886134 6:-0.15063887 7:-0.3522054 8:-0.2655705 
0 0 0 0 6561 0 0 6561 0 0 0 0 0 0 0 0 0 0 0 0 0 0 0 0 1:-1 2:-0.067567568 3:-0.042016807 4:-0.77876106 5:-0.68301753 6:-0.77942165 7:-0.70506912 8:-0.71599402 
0 1503.0318887094684 6561 6561 6561 0 0 6561 3935.6821513794648 0 6561 0 0 0 0 0 0 0 0 0 0 0 0 0 1:1 2:0.16216216 3:0.17647059 4:-0.7699115 5:-0.5771206 6:-0.69939475 7:-0.69190257 8:-0.55455904 
0 0 0 0 6561 0 0 6561 0 0 0 0 0 0 0 0 0 0 0 0 0 0 0 0 1:-1 2:0.51351351 3:0.56302521 4:-0.69026549 5:-0.086240482 6:-0.19435104 7:-0.29295589 8:-0.27154958 
0 6561 0 6561 0 0 0 6561 0 6561 6561 0 0 0 251.93521126463648 0 0 0 4216.2596097212609 0 0 0 0 0 1:-1 2:0.66216216 3:0.66386555 4:-0.68141593 5:0.19674163 6:-0.1062542 7:0.057274523 8:-0.0064773293 
0 0 0 6561 6561 0 0 6561 6561 6561 1532.363181493818 0 0 0 0 0 0 0 0 0 0 0 0 0 2:0.48648649 3:0.46218487 4:-0.6460177 5:-0.022135647 6:-0.20847344 7:-0.25082291 8:-0.24364723 
0 0 6561 0 6561 0 0 6561 0 0 0 0 0 0 0 0 0 0 0 0 0 0 0 0 1:1 2:0.31081081 3:0.27731092 4:-0.76106195 5:-0.49141137 6:-0.55884331 7:-0.73008558 8:-0.50274041 
6561 0 6561 0 6561 412.4851537816034 1274.0842583128608 6561 0 6561 0 0 0 0 0 0 0 0 0 0 0 0 0 0 1:-1 2:0.36486486 3:0.37815126 4:-0.74336283 5:-0.37311847 6:-0.40887693 7:-0.56550362 8:-0.47483807 
0 0 0 0 0 0 0 6561 0 0 0 0 0 0 0 0 0 0 0 0 0 0 0 0 2:0.64864865 3:0.71428571 4:-0.69026549 5:0.1588454 6:0.044384667 7:-0.013824885 8:-0.13004484 
-0 0 6561 0 6561 0 0 0 0 0 0 0 0 0 0 0 0 0 0 0 0 0 0 0 1:1 2:-0.027027027 3:-0.058823529 4:-0.82300885 5:-0.76801842 6:-0.82784129 7:-0.81698486 8:-0.78375685 
-0 0 6561 0 0 0 6561 0 0 0 0 0 0 0 0 0 0 0 0 0 0 0 0 0 1:1 2:0.040540541 3:0.025210084 4:-0.81415929 5:-0.67132991 6:-0.70208473 7:-0.74061883 8:-0.78375685 
-0 0 6561 0 6561 0 0 6561 0 0 0 0 0 0 0 0 0 0 0 0 0 0 0 0 1:1 2:0.17567568 3:0.14285714 4:-0.7699115 5:-0.5746414 6:-0.62340282 7:-0.62475313 8:-0.68011958 
-6561 297.58022415678141 6561 6561 6561 0 6561 6561 2670.0458393246581 6561 5289.8599029808993 109.80202592674451 0 1367.5479604861021 5765.9957715603859 0 640.99112733612083 2393.0996885183822 0 0 0 0 0 0 2:0.36486486 3:0.27731092 4:-0.73451327 5:-0.40711882 6:-0.53261601 7:-0.4562212 8:-0.62032885 
-0 0 0 0 0 0 6273.5348721867185 3119.6930296648634 0 2939.2159941639643 0 0 0 0 0 0 0 0 0 0 0 0 0 0 1:1 2:-0.21621622 3:-0.2605042 4:-0.76106195 5:-0.83141491 6:-0.85608608 7:-0.8841343 8:-0.85650224 
-6561 0 6561 0 6561 0 0 6561 0 4485.457385956739 0 0 0 0 0 0 0 0 0 0 0 0 0 0 1:-1 2:-0.2027027 3:-0.24369748 4:-0.83185841 5:-0.84381087 6:-0.8930733 7:-0.86701777 8:-0.85351271 
-0 0 0 0 0 6561 5761.7577993356808 0 0 0 0 0 0 0 0 0 0 0 0 0 0 0 0 0 1:-1 2:-0.47297297 3:-0.52941176 4:-0.87610619 5:-0.92633257 6:-0.93880296 7:-0.95391705 8:-0.93124066 
-6561 0 6561 0 6561 0 0 6561 4298.5538533872959 0 0 0 0 0 0 0 0 0 0 0 0 0 0 0 1:1 2:0.16216216 3:0.092436975 4:-0.78761062 5:-0.5806623 6:-0.65232011 7:-0.62343647 8:-0.64424514 
-0 0 6561 0 6561 0 6561 6561 0 0 0 0 0 0 0 0 0 0 0 0 0 0 0 0 1:-1 3:-0.1092437 4:-0.78761062 5:-0.70816363 6:-0.733692 7:-0.76431863 8:-0.76980568 
-0 0 6561 0 0 0 6561 0 0 0 0 0 0 0 0 0 0 0 0 0 0 0 0 0 1:1 2:-0.094594595 3:-0.17647059 4:-0.82300885 5:-0.8016646 6:-0.83254876 7:-0.85121791 8:-0.8285999 
-0 0 6561 0 6561 0 0 0 0 0 0 0 0 0 0 0 0 0 0 0 0 0 0 0 1:1 2:-0.013513514 3:-0.075630252 4:-0.80530973 5:-0.73897645 6:-0.79354405 7:-0.7801185 8:-0.76382661 
-0 0 6561 0 6561 0 0 0 0 0 0 0 0 0 0 0 0 0 0 0 0 0 0 0 1:1 2:0.040540541 3:-0.0084033613 4:-0.80530973 5:-0.6702674 6:-0.71553463 7:-0.74061883 8:-0.72894868 
-0 0 6561 0 6561 0 6561 0 0 0 0 0 0 0 0 0 0 0 0 0 0 0 0 0 1:1 2:0.081081081 3:0.1092437 4:-0.80530973 5:-0.59518328 6:-0.58305313 7:-0.73140224 8:-0.73193822 
-0 0 2588.6198931629879 0 0 0 6561 0 0 0 0 0 0 0 0 0 0 0 0 0 0 0 0 0 1:1 2:-0.33783784 3:-0.32773109 4:-0.82300885 5:-0.87710289 6:-0.90316073 7:-0.89203423 8:-0.87344295 
-0 0 0 0 0 0 6561 0 0 0 0 0 0 0 0 0 0 0 0 0 0 0 0 0 1:1 2:-0.25675676 3:-0.31092437 4:-0.83185841 5:-0.85195679 6:-0.88567586 7:-0.85385122 8:-0.86746388 
-4479.6157666540557 0 6561 0 6561 347.09994007203397 0 6561 0 0 0 0 0 0 0 0 0 0 0 0 0 0 0 0 1:-1 2:0.12162162 3:0.37815126 4:-0.77876106 5:-0.63130866 6:-0.68527236 7:-0.65898618 8:-0.72197309 
-0 0 6561 0 0 0 6561 0 0 0 0 0 0 0 0 0 0 0 0 0 0 0 0 0 1:1 2:-0.18918919 3:-0.27731092 4:-0.84955752 5:-0.84699841 6:-0.87424344 7:-0.89861751 8:-0.86347783 
-0 0 6561 0 6561 0 0 6561 0 0 0 0 0 0 0 0 0 0 0 0 0 0 0 0 1:-1 2:0.21621622 3:0.092436975 4:-0.77876106 5:-0.54099522 6:-0.59381305 7:-0.59315339 8:-0.68609865 
-0 0 0 0 0 0 0 3185.0817195157838 0 0 0 0 0 0 0 0 0 0 0 0 0 0 0 0 1:-1 2:-0.41891892 3:-0.41176471 4:-0.86725664 5:-0.91889499 6:-0.94351042 7:-0.93416722 8:-0.92326856 
-0 0 0 0 0 3453.5979817310595 6561 0 0 0 0 0 0 0 0 0 0 0 0 0 0 0 0 0 1:1 2:-0.21621622 3:-0.29411765 4:-0.76106195 5:-0.84451921 6:-0.86012105 7:-0.87755102 8:-0.88241156 
-0 0 0 0 4040.2538714417751 0 6561 6561 0 0 0 0 0 0 0 0 0 0 0 0 0 0 0 0 1:-1 2:-0.2972973 3:-0.34453782 4:-0.84070796 5:-0.87320701 6:-0.89979825 7:-0.89203423 8:-0.88340807 
-0 0 0 0 0 0 6561 0 0 0 0 0 0 0 0 0 0 0 0 0 0 0 0 0 1:1 2:-0.16216216 3:-0.17647059 4:-0.77876106 5:-0.75845582 6:-0.77202421 7:-0.80776827 8:-0.84155456 
-6561 6561 6561 6561 6561 0 0 6561 6561 6561 6561 1564.7641357329585 0 0 3619.8632667051356 0 2364.5674393278514 0 1265.4706576460608 338.07299668544806 0 0 0 0 1:-1 2:0.18918919 3:0.19327731 4:-0.75221239 5:-0.48043209 6:-0.58910558 7:-0.640553 8:-0.60438465 
-0 0 6561 0 0 0 6561 0 0 0 0 0 0 0 0 0 0 0 0 0 0 0 0 0 1:1 2:-0.10810811 3:-0.15966387 4:-0.84070796 5:-0.80131043 6:-0.84801614 7:-0.84990125 8:-0.81365222 
-0 0 6561 0 0 0 6561 0 0 0 0 0 0 0 0 0 0 0 0 0 0 0 0 0 1:1 2:-0.081081081 3:-0.092436975 4:-0.82300885 5:-0.67097574 6:-0.69401479 7:-0.72086899 8:-0.77578475 
-0 0 6561 0 0 0 6561 0 0 0 0 0 0 0 0 0 0 0 0 0 0 0 0 0 1:1 2:-0.081081081 3:-0.058823529 4:-0.82300885 5:-0.74783071 6:-0.77404169 7:-0.82488479 8:-0.79372197 
-2744.6311156669067 0 6561 0 6561 0 0 6561 3053.1512905418199 1733.370737400704 0 396.6802009322393 0 0 0 0 0 0 81.899891790496554 0 0 0 0 0 1:1 2:0.2027027 3:0.14285714 4:-0.74336283 5:-0.45599433 6:-0.43106927 7:-0.62738644 8:-0.62531141 
-0 0 6561 0 0 0 0 0 0 0 0 0 0 0 0 0 0 0 0 0 0 0 0 0 1:1 2:-0.013513514 3:-0.058823529 4:-0.80530973 5:-0.72622631 6:-0.76597176 7:-0.78143515 8:-0.78176383 
-0 0 0 0 0 6561 6561 0 0 0 0 0 0 0 0 0 0 0 0 0 0 0 0 0 1:1 2:-0.2972973 3:-0.34453782 4:-0.86725664 5:-0.8721445 6:-0.9065232 7:-0.88545095 8:-0.89337319 
-0 0 0 0 0 0 6561 0 0 0 0 0 0 0 0 0 0 0 0 0 0 0 0 0 1:1 2:-0.14864865 3:-0.22689076 4:-0.82300885 5:-0.80237294 6:-0.82985878 7:-0.83805135 8:-0.84952666 
-0 0 6561 0 0 0 6561 0 0 0 0 0 0 0 0 0 0 0 0 0 0 0 0 0 1:1 2:-0.21621622 3:-0.2605042 4:-0.84955752 5:-0.8434567 6:-0.86953598 7:-0.90256748 8:-0.85351271 
-0 0 2390.1598334425566 0 0 0 6561 0 0 0 0 0 0 0 0 0 0 0 0 0 0 0 0 0 1:1 2:-0.12162162 3:-0.15966387 4:-0.82300885 5:-0.75951833 6:-0.76462677 7:-0.83673469 8:-0.83059292 
-0 0 0 0 0 0 6561 0 0 0 0 0 0 0 0 0 0 0 0 0 0 0 0 0 1:1 2:-0.16216216 3:-0.24369748 4:-0.83185841 5:-0.81937312 6:-0.84129119 7:-0.84595128 8:-0.86347783 
-0 0 6561 0 6561 0 0 6561 0 0 0 0 0 0 0 0 0 0 0 0 0 0 0 0 1:-1 2:0.27027027 3:0.22689076 4:-0.78761062 5:-0.44430671 6:-0.45931406 7:-0.51415405 8:-0.66417539 
-0 0 0 0 0 0 6561 0 0 0 0 0 0 0 0 0 0 0 0 0 0 0 0 0 1:1 2:-0.14864865 3:-0.19327731 4:-0.82300885 5:-0.80378962 6:-0.84599866 7:-0.84595128 8:-0.84354758 
-0 0 6561 0 0 0 6561 0 0 0 0 0 0 0 0 0 0 0 0 0 0 0 0 0 1:1 2:-0.067567568 3:-0.1092437 4:-0.80530973 5:-0.74464317 6:-0.76731675 7:-0.83410138 8:-0.79372197 
-0 0 6561 0 6561 0 0 0 0 0 0 0 0 0 0 0 0 0 0 0 0 0 0 0 1:1 2:-0.013513514 3:0.0084033613 4:-0.78761062 5:-0.65078803 6:-0.69065232 7:-0.7116524 8:-0.75386148 
-6561 0 6561 6561 6561 0 0 6561 6561 6561 5519.7160397061552 317.9253480863095 0 0 1683.3732576275117 0 411.39993290044782 0 0 0 0 0 0 0 1:1 2:0.16216216 3:0.1092437 4:-0.78761062 5:-0.57605808 6:-0.6798924 7:-0.62738644 8:-0.63428002 
-0 0 6561 0 6561 0 0 5398.675191585362 0 0 0 0 0 0 0 0 0 0 0 0 0 0 0 0 1:1 2:0.18918919 3:0.092436975 4:-0.78761062 5:-0.55870374 6:-0.56220578 7:-0.66030283 8:-0.68410563 
-0 0 6561 0 6561 0 0 6561 0 1078.5192577296259 0 0 0 0 0 0 0 0 0 0 0 0 0 0 1:1 2:0.21621622 3:0.15966387 4:-0.75221239 5:-0.53816186 6:-0.59112307 7:-0.57998683 8:-0.66616841 
-0 0 0 0 0 0 6561 0 0 0 0 0 0 0 0 0 0 0 0 0 0 0 0 0 1:1 2:-0.13513514 3:-0.21008403 4:-0.83185841 5:-0.77545599 6:-0.81573638 7:-0.79065174 8:-0.83956153 
-0 0 6561 0 4093.3199708739417 0 0 0 0 0 0 0 0 0 0 0 0 0 0 0 0 0 0 0 1:1 2:-0.040540541 3:-0.042016807 4:-0.80530973 5:-0.74322649 6:-0.78749159 7:-0.77616853 8:-0.79372197 
-0 0 6561 0 0 0 6561 0 0 0 0 0 0 0 0 0 0 0 0 0 0 0 0 0 1:1 2:-0.027027027 3:-0.025210084 4:-0.79646018 5:-0.70533026 6:-0.70275723 7:-0.80776827 8:-0.79172895 
-0 0 0 0 0 0 6561 0 0 0 0 0 0 0 0 0 0 0 0 0 0 0 0 0 1:1 2:-0.2027027 3:-0.2605042 4:-0.82300885 5:-0.84558172 6:-0.87491594 7:-0.88281764 8:-0.87344295 
-0 0 0 0 0 0 6561 0 0 0 0 0 0 0 0 0 0 0 0 0 0 0 0 0 1:1 2:-0.13513514 3:-0.19327731 4:-0.82300885 5:-0.79387285 6:-0.8130464 7:-0.83805135 8:-0.83956153 
-0 0 6561 0 0 0 6561 0 0 0 0 0 0 0 0 0 0 0 0 0 0 0 0 0 1:1 2:-0.094594595 3:-0.14285714 4:-0.84070796 5:-0.76128918 6:-0.79287155 7:-0.81830151 8:-0.82361734 
-0 0 0 0 0 6561 6561 0 0 0 0 0 0 0 0 0 0 0 0 0 0 0 0 0 1:1 2:-0.16216216 3:-0.21008403 4:-0.85840708 5:-0.82539401 6:-0.83725622 7:-0.87096774 8:-0.87344295 
-0 0 6561 0 0 0 6561 0 0 0 0 0 0 0 0 0 0 0 0 0 0 0 0 0 1:1 2:-0.16216216 3:-0.21008403 4:-0.84070796 5:-0.83708164 6:-0.88634835 7:-0.87096774 8:-0.84354758 
-0 0 6561 0 6561 0 0 0 0 0 0 0 0 0 0 0 0 0 0 0 0 0 0 0 1:1 2:0.013513514 3:-0.058823529 4:-0.80530973 5:-0.70426775 6:-0.75790182 7:-0.77748519 8:-0.73492775 
-0 0 6561 0 6561 0 0 6561 0 0 0 0 0 0 0 0 0 0 0 0 0 0 0 0 1:-1 2:-0.054054054 3:-0.092436975 4:-0.83185841 5:-0.73330972 6:-0.77202421 7:-0.79065174 8:-0.8036871 
-0 0 6561 0 6561 0 0 6561 0 0 0 0 0 0 0 0 0 0 0 0 0 0 0 0 1:-1 2:0.16216216 3:0.15966387 4:-0.76106195 5:-0.48928635 6:-0.49428379 7:-0.60895326 8:-0.64823119 
-0 0 0 0 0 6561 6561 0 0 0 0 0 0 0 0 0 0 0 0 0 0 0 0 0 1:1 2:-0.22972973 3:-0.29411765 4:-0.86725664 5:-0.87072782 6:-0.88971083 7:-0.90520079 8:-0.89337319 
-6561 0 6561 2349.3114041639915 6561 0 4368.7330718312433 6561 0 6561 0 1661.9827356108904 0 0 0 0 0 0 887.15644999019264 0 0 0 0 0 1:1 2:0.24324324 3:0.15966387 4:-0.7699115 5:-0.53603683 6:-0.62004035 7:-0.57472021 8:-0.65421026 
-0 0 6561 0 0 0 0 0 0 0 0 0 0 0 0 0 0 0 0 0 0 0 0 0 1:1 2:-0.013513514 3:-0.042016807 4:-0.82300885 5:-0.73295555 6:-0.76933423 7:-0.78670178 8:-0.80169407 
-0 0 0 0 0 1386.710940658415 6561 0 0 0 0 0 0 0 0 0 0 0 0 0 0 0 0 0 1:1 2:-0.16216216 3:-0.17647059 4:-0.83185841 5:-0.78749779 6:-0.79690652 7:-0.83936801 8:-0.85650224 
-0 0 0 0 0 98.900146383102182 6561 0 0 0 0 0 0 0 0 0 0 0 0 0 0 0 0 0 1:-1 2:-0.40540541 3:-0.46218487 4:-0.86725664 5:-0.91004073 6:-0.93409549 7:-0.92363397 8:-0.92326856 
-0 0 6561 0 6561 0 0 6561 0 0 0 0 0 0 0 0 0 0 0 0 0 0 0 0 1:1 3:-0.042016807 4:-0.74336283 5:-0.69399681 6:-0.73974445 7:-0.76300197 8:-0.74389636 
-0 0 6561 0 6561 0 0 0 0 0 0 0 0 0 0 0 0 0 0 0 0 0 0 0 1:-1 2:0.094594595 3:0.058823529 4:-0.76106195 5:-0.55409952 6:-0.53799597 7:-0.73403555 8:-0.68211261 
-0 0 6561 0 0 0 0 0 0 0 0 0 0 0 0 0 0 0 0 0 0 0 0 0 1:1 2:-0.081081081 3:-0.092436975 4:-0.82300885 5:-0.77970604 6:-0.81439139 7:-0.83673469 8:-0.81066268 
-6561 0 6561 6561 6561 0 0 6561 0 6561 0 0 0 0 0 0 0 0 0 0 0 0 0 0 2:-0.027027027 3:-0.092436975 4:-0.79646018 5:-0.72410129 6:-0.79421654 7:-0.75378539 8:-0.76382661 
-0 0 6561 0 0 0 6561 0 0 0 0 0 0 0 0 0 0 0 0 0 0 0 0 0 1:1 2:-0.081081081 3:-0.1092437 4:-0.80530973 5:-0.73685143 6:-0.76597176 7:-0.80250165 8:-0.78574988 
-0 0 6561 0 0 0 0 0 0 0 0 0 0 0 0 0 0 0 0 0 0 0 0 0 1:1 2:-0.081081081 3:-0.092436975 4:-0.82300885 5:-0.76518505 6:-0.80699395 7:-0.81303489 8:-0.81365222 
-0 0 0 0 0 6561 6561 0 0 1736.2506799399835 0 0 0 0 0 692.70961213626572 0 0 0 0 0 0 0 0 1:1 2:-0.40540541 3:-0.42857143 4:-0.84070796 5:-0.92314503 6:-0.9468729 7:-0.93680053 8:-0.93921276 
-0 0 6561 0 0 0 6561 0 0 0 0 0 0 0 0 0 0 0 0 0 0 0 0 0 1:1 2:-0.24324324 3:-0.2605042 4:-0.84070796 5:-0.82362316 6:-0.87088097 7:-0.86175115 8:-0.84354758 
-0 0 615.25725231053275 0 2615.0185567313515 994.50550835438708 0 0 0 0 0 0 0 0 0 0 0 0 0 0 0 0 0 0 1:1 2:0.081081081 3:0.042016807 4:-0.82300885 5:-0.90826988 6:-0.72898453 7:-0.77090191 8:-0.75784753 
-0 0 0 0 0 0 6561 0 0 0 0 0 0 0 0 0 0 0 0 0 0 0 0 0 1:1 2:-0.14864865 3:-0.21008403 4:-0.82300885 5:-0.84381087 6:-0.87357095 7:-0.87886768 8:-0.85749875 
-6561 0 6561 6561 6561 0 0 6561 6561 6561 0 0 0 0 0 0 0 1952.9005435170334 0 0 0 0 0 0 1:-1 2:0.39189189 3:0.37815126 4:-0.75221239 5:-0.2604923 6:-0.36987223 7:-0.30875576 8:-0.47882412 
-0 0 0 0 0 6561 0 0 0 0 0 0 0 0 0 3034.4684942492827 0 0 0 0 0 0 0 0 1:-1 2:-0.44594595 3:-0.4789916 4:-0.85840708 5:-0.92456171 6:-0.9462004 7:-0.9315339 8:-0.93423019 
-0 0 6561 0 6561 0 0 0 0 0 0 0 0 0 0 0 0 0 0 0 0 0 0 0 1:-1 2:-0.25675676 3:-0.29411765 4:-0.80530973 5:-0.79139366 6:-0.81775387 7:-0.83541804 8:-0.83358246 
-0 0 6561 0 6561 0 0 0 0 0 0 0 0 0 0 0 0 0 0 0 0 0 0 0 1:1 2:0.054054054 3:0.042016807 4:-0.79646018 5:-0.67062157 6:-0.68997983 7:-0.75773535 8:-0.77777778 
-0 0 6561 0 6561 0 0 0 0 0 0 0 0 0 0 0 0 0 0 0 0 0 0 0 1:1 2:-0.067567568 3:-0.17647059 4:-0.81415929 5:-0.77758102 6:-0.83254876 7:-0.81698486 8:-0.79671151 
-0 0 6561 0 6561 0 0 6561 0 0 0 0 0 0 0 0 0 0 0 0 0 0 0 0 1:-1 2:0.14864865 3:0.15966387 4:-0.77876106 5:-0.52505755 6:-0.54942838 7:-0.68531929 8:-0.63926258 
-0 0 0 0 0 6561 6561 0 0 0 0 0 0 0 0 0 0 0 0 0 0 0 0 0 1:1 2:-0.31081081 3:-0.34453782 4:-0.83185841 5:-0.85372764 6:-0.86415602 7:-0.89730086 8:-0.89935227 
-0 0 0 0 0 6561 6561 0 0 0 0 0 0 0 0 0 0 0 0 0 0 0 0 0 1:1 2:-0.2972973 3:-0.31092437 4:-0.84070796 5:-0.86222773 6:-0.88365837 7:-0.89335089 8:-0.89138017 
-0 0 0 0 0 0 6561 0 0 0 0 0 0 0 0 0 0 0 0 0 0 0 0 0 1:1 2:-0.040540541 3:-0.1092437 4:-0.82300885 5:-0.75597662 6:-0.78143914 7:-0.79065174 8:-0.82361734 
-0 0 6561 0 0 0 6561 0 0 0 0 0 0 0 0 0 0 0 0 0 0 0 0 0 1:1 2:-0.013513514 3:-0.092436975 4:-0.84070796 5:-0.75349743 6:-0.80228648 7:-0.82488479 8:-0.79372197 
-6561 0 6561 6561 6561 0 0 6561 6108.909982923019 6561 5902.9893519693469 0 0 0 1618.6246116605469 0 0 6561 0 0 0 0 0 0 2:0.040540541 3:0.075630252 4:-0.78761062 5:-0.67522578 6:-0.76260928 7:-0.7116524 8:-0.70403587 
-0 0 6561 0 182.25059463907067 0 0 0 0 0 0 0 0 0 0 0 0 0 0 0 0 0 0 0 1:1 2:0.040540541 3:-0.025210084 4:-0.78761062 5:-0.70710112 6:-0.73503699 7:-0.7682686 8:-0.78973592 
-0 0 6561 0 0 4886.5321683129523 6561 0 0 0 0 0 0 0 0 0 0 0 0 0 0 0 0 0 1:1 2:-0.10810811 3:-0.34453782 4:-0.84070796 5:-0.79776873 6:-0.82918628 7:-0.83541804 8:-0.84255107 
-0 0 0 0 0 2607.7316661608488 6561 0 0 0 0 0 0 0 0 0 0 0 0 0 0 0 0 0 1:-1 2:-0.32432432 3:-0.37815126 4:-0.84955752 5:-0.87887374 6:-0.89441829 7:-0.90125082 8:-0.90333832 
-0 0 6561 0 0 0 0 0 0 0 0 0 0 0 0 0 0 0 0 0 0 0 0 0 1:1 2:-0.094594595 3:-0.058823529 4:-0.81415929 5:-0.76731008 6:-0.81237391 7:-0.83278473 8:-0.79372197 
-0 0 6561 0 6561 0 0 0 0 0 0 0 0 0 0 0 0 0 0 0 0 0 0 0 1:1 2:-0.013513514 3:-0.058823529 4:-0.79646018 5:-0.70285107 6:-0.76866174 7:-0.79986833 8:-0.77777778 
-0 0 0 0 0 0 6561 0 0 0 0 0 0 0 0 0 0 0 0 0 0 0 0 0 1:1 2:-0.054054054 3:-0.14285714 4:-0.84070796 5:-0.78820613 6:-0.81506389 7:-0.83015142 8:-0.84354758 
-6561 0 6561 6561 6561 0 0 6561 0 6561 0 0 0 0 0 0 0 4629.505760847017 0 0 0 0 0 0 2:-0.040540541 3:-0.042016807 4:-0.78761062 5:-0.72445546 6:-0.79219906 7:-0.75115207 8:-0.72296961 
-0 0 6561 0 6561 0 0 6561 0 0 0 0 0 0 0 0 0 0 0 0 0 0 0 0 1:-1 2:-0.12162162 3:-0.1092437 4:-0.83185841 5:-0.78678945 6:-0.82178884 7:-0.84331797 8:-0.8036871 
-0 0 6561 0 750.56551417120295 0 6561 0 0 0 0 0 0 0 0 0 0 0 0 0 0 0 0 0 1:1 2:-0.094594595 3:-0.12605042 4:-0.83185841 5:-0.80272711 6:-0.84801614 7:-0.91046741 8:-0.78375685 
-0 0 6561 0 6561 0 0 6561 0 0 0 0 0 0 0 0 0 0 0 0 0 0 0 0 1:1 2:0.13513514 3:0.092436975 4:-0.78761062 5:-0.63874624 6:-0.68796234 7:-0.68400263 8:-0.73193822 
-3757.5105704339803 0 6561 0 6561 0 0 1448.9734084992367 0 0 0 0 0 0 0 0 0 0 0 0 0 0 0 0 1:1 2:0.13513514 3:-0.075630252 4:-0.82300885 5:-0.68974677 6:-0.76328178 7:-0.75115207 8:-0.70403587 
-0 0 6561 0 0 0 6561 0 0 0 0 0 0 0 0 0 0 0 0 0 0 0 0 0 1:1 2:-0.22972973 3:-0.29411765 4:-0.83185841 5:-0.83743581 6:-0.86012105 7:-0.88018433 8:-0.85351271 
-0 0 0 0 0 0 6561 0 0 0 0 0 0 0 0 0 0 0 0 0 0 0 0 0 1:1 2:-0.18918919 3:-0.2605042 4:-0.83185841 5:-0.83885249 6:-0.87357095 7:-0.85780118 8:-0.87144993 
-0 0 6561 0 6561 0 0 6561 0 0 0 0 0 0 0 0 0 0 0 0 0 0 0 0 1:1 2:0.081081081 3:0.075630252 4:-0.79646018 5:-0.63272534 6:-0.68796234 7:-0.6879526 8:-0.71300448 
-6561 0 6561 4883.0718096356586 6561 0 0 6561 0 0 0 0 0 0 0 0 0 0 0 0 0 0 0 0 1:1 2:0.18918919 3:0.1092437 4:-0.77876106 5:-0.59624579 6:-0.68258238 7:-0.62343647 8:-0.67414051 
-0 0 6561 0 0 0 6561 0 0 0 0 0 0 0 0 0 0 0 0 0 0 0 0 0 1:1 2:0.013513514 3:-0.025210084 4:-0.80530973 5:-0.66849655 6:-0.68459987 7:-0.77616853 8:-0.77678127 
-0 0 6561 0 6561 0 0 6561 0 0 0 0 0 0 0 0 0 0 0 0 0 0 0 0 1:-1 2:0.21621622 3:0.21008403 4:-0.76106195 5:-0.43863999 6:-0.47141896 7:-0.5036208 8:-0.6003986 
-0 0 6561 0 0 0 6561 0 0 0 0 0 0 0 0 0 0 0 0 0 0 0 0 0 1:1 2:-0.2027027 3:-0.24369748 4:-0.83185841 5:-0.81335222 6:-0.83725622 7:-0.86438446 8:-0.84354758 
-0 0 2740.1426641277722 0 0 0 0 0 0 0 0 0 0 0 0 0 0 0 0 0 0 0 0 0 1:-1 2:-0.14864865 3:-0.24369748 4:-0.77876106 5:-0.60191252 6:-0.59314055 7:-0.74983542 8:-0.71798705 
-6561 0 6561 6561 6561 0 0 6561 6561 6561 6561 0 0 0 6561 0 1442.2473775953054 4627.2552843394924 0 551.19245167045108 0 0 0 0 2:0.2972973 3:0.24369748 4:-0.75221239 5:-0.31928458 6:-0.40954943 7:-0.4114549 8:-0.52466368 
-6561 0 6561 6561 6561 0 0 6561 0 6561 0 0 0 0 0 0 0 0 0 0 0 0 0 0 2:0.027027027 3:-0.0084033613 4:-0.78761062 5:-0.67876749 6:-0.73974445 7:-0.72613562 8:-0.72894868 
-6561 6561 6561 6561 6561 0 6561 6561 6561 6561 6561 6561 0 1636.0957187065455 3023.4544214615557 0 503.49985561981691 0 2624.8049580712286 1308.1836725189344 760.27444981522171 0 19.708697154392215 238.09361647176183 2:0.36486486 3:0.36134454 4:-0.73451327 5:-0.21126262 6:-0.25151311 7:-0.40750494 8:-0.42501246 
-0 0 6561 0 0 0 6561 0 0 0 0 0 0 0 0 0 0 0 0 0 0 0 0 0 1:1 2:-0.10810811 3:-0.15966387 4:-0.82300885 5:-0.81158137 6:-0.84734364 7:-0.86175115 8:-0.83358246 
-0 0 3225.8641964799294 0 6561 0 6561 0 0 0 0 867.55909016059263 0 0 0 2250.5116810540621 0 0 0 0 0 0 0 0 1:-1 2:-0.17567568 3:-0.39495798 4:-0.82300885 5:-0.81866478 6:-0.85944855 7:-0.85911784 8:-0.84354758 
-0 0 0 0 0 6561 6561 0 0 0 0 0 0 0 0 0 0 0 0 0 0 0 0 0 1:1 2:-0.31081081 3:-0.32773109 4:-0.85840708 5:-0.85620684 6:-0.88096839 7:-0.89730086 8:-0.89337319 
-0 0 0 325.63584541155387 0 0 6561 0 0 0 0 0 0 0 0 0 0 0 0 0 0 0 0 0 1:1 2:-0.22972973 3:-0.17647059 4:-0.84955752 5:-0.81016469 6:-0.84196369 7:-0.83278473 8:-0.85450922 
-0 0 0 0 0 0 6561 0 0 0 0 0 0 0 0 0 0 0 0 0 0 0 0 0 1:1 2:-0.21621622 3:-0.27731092 4:-0.84955752 5:-0.84381087 6:-0.87558843 7:-0.86306781 8:-0.87144993 
-0 0 0 0 0 0 6561 0 0 0 0 0 0 0 0 0 0 0 0 0 0 0 0 0 1:-1 2:-0.33783784 3:-0.37815126 4:-0.84955752 5:-0.88099876 6:-0.91324815 7:-0.87755102 8:-0.90533134 
-6561 0 6561 6561 6561 0 0 6561 4263.6100746360007 6561 0 0 0 0 0 0 0 4272.5488738327022 0 0 0 0 0 0 2:-0.027027027 3:-0.092436975 4:-0.80530973 5:-0.69435098 6:-0.76193679 7:-0.74193548 8:-0.69407075 
-0 0 6561 0 6561 0 0 0 0 0 0 0 0 0 0 0 0 0 0 0 0 0 0 0 1:1 2:0.040540541 3:0.042016807 4:-0.79646018 5:-0.63945458 6:-0.68325488 7:-0.69058591 8:-0.75784753 
-0 0 0 0 0 6561 6561 0 0 0 0 0 0 0 0 0 0 0 0 0 0 0 0 0 1:1 2:-0.21621622 3:-0.29411765 4:-0.84955752 5:-0.85054011 6:-0.87424344 7:-0.8722844 8:-0.88340807 
-6561 0 6561 4351.4601443883257 6561 0 0 6561 6561 6561 0 2898.6965363010404 0 0 0 0 0 2715.85501751928 858.46761322017778 0 0 0 0 0 1:1 2:0.16216216 3:0.12605042 4:-0.67256637 5:-0.567558 6:-0.64223268 7:-0.62738644 8:-0.66018934 
-0 0 6561 0 6561 0 6561 0 0 0 0 0 0 0 0 0 0 0 0 0 0 0 0 0 1:-1 2:0.040540541 3:-0.025210084 4:-0.80530973 5:-0.67593412 6:-0.68527236 7:-0.7682686 8:-0.7717987 
-6561 6561 6561 6561 6561 0 719.54840280568362 6561 6561 6561 6561 2760.8975850009897 0 1187.1626584385294 5284.6279035053494 0 512.97360266142289 6561 2721.3285114657592 1205.5362246178299 38.402680407590054 0 19.734623796202619 22.860995314356856 1:-1 2:0.5 3:0.52941176 4:-0.69911504 5:-0.15955375 6:-0.34028245 7:-0.19420671 8:-0.30941704 
-0 0 4406.815225162396 0 0 0 6561 0 0 0 0 0 0 0 0 0 0 0 0 0 0 0 0 0 1:1 2:-0.2027027 3:-0.2605042 4:-0.82300885 5:-0.83885249 6:-0.88231338 7:-0.87886768 8:-0.86347783 
-0 0 6561 0 0 0 6561 1237.2064248495369 0 0 0 0 0 0 0 0 0 0 0 0 0 0 0 0 1:1 2:-0.22972973 3:-0.31092437 4:-0.84070796 5:-0.87497786 6:-0.91459314 7:-0.90388413 8:-0.85351271 
-0 0 6561 0 0 0 6561 0 0 0 0 0 0 0 0 0 0 0 0 0 0 0 0 0 1:1 2:-0.054054054 3:-0.14285714 4:-0.83185841 5:-0.78360191 6:-0.81439139 7:-0.80513496 8:-0.81763827 
-6561 318.79703510762698 6561 0 6561 0 0 6561 0 6561 0 0 0 0 0 0 0 0 0 0 0 0 0 0 1:-1 2:0.32432432 3:0.21008403 4:-0.77876106 5:-0.52895343 6:-0.59515804 7:-0.59447005 8:-0.63428002 
-0 0 0 0 0 0 6561 0 0 0 0 0 0 0 0 0 0 0 0 0 0 0 0 0 1:-1 2:-0.43243243 3:-0.4789916 4:-0.86725664 5:-0.91747831 6:-0.92737054 7:-0.92626728 8:-0.92326856 
-6561 0 6561 5521.410864226752 6561 0 0 6561 2623.2323123983392 5031.3511917699889 0 1128.418815091288 0 0 0 0 0 0 0 21.684842459300182 0 0 0 0 2:0.2027027 3:0.36134454 4:-0.73451327 5:-0.2796175 6:-0.29791527 7:-0.47860434 8:-0.49676134 
-0 0 6561 0 6561 0 0 6561 0 0 0 0 0 0 0 0 0 0 0 0 0 0 0 0 1:1 2:0.10810811 3:0.075630252 4:-0.7699115 5:-0.5746414 6:-0.60659045 7:-0.66293614 8:-0.68410563 
-0 0 6561 0 0 0 6561 0 0 0 0 0 0 0 0 0 0 0 0 0 0 0 0 0 1:1 2:-0.094594595 3:-0.15966387 4:-0.84070796 5:-0.75101824 6:-0.79018157 7:-0.80513496 8:-0.8036871 
-0 0 6561 1088.8045968331915 6561 19.449338524024871 1610.3409411458615 6561 0 6561 0 0 0 0 0 0 0 0 0 0 0 0 0 0 2:-0.12162162 3:-0.15966387 4:-0.71681416 5:-0.7407473 6:-0.76866174 7:-0.8156682 8:-0.79372197 
-0 0 6561 0 6561 0 0 0 0 0 0 0 0 0 0 0 0 0 0 0 0 0 0 0 1:1 2:0.040540541 3:-0.0084033613 4:-0.80530973 5:-0.7180804 6:-0.76462677 7:-0.78275181 8:-0.76283009 
-0 0 0 2805.3578824572878 0 0 0 0 2371.3018384933284 0 0 0 0 0 0 0 0 0 0 0 0 0 0 0 1:1 2:-0.27027027 3:-0.27731092 4:-0.80530973 5:-0.85018594 6:-0.89105582 7:-0.85780118 8:-0.86347783 
-0 0 6561 0 0 0 0 0 0 0 0 0 0 0 0 0 0 0 0 0 0 0 0 0 1:1 2:-0.027027027 3:-0.025210084 4:-0.78761062 5:-0.68443421 6:-0.70410222 7:-0.70638578 8:-0.75386148 
-0 0 6561 0 0 0 6561 0 0 0 0 0 0 0 0 0 0 0 0 0 0 0 0 0 1:1 2:-0.013513514 3:-0.042016807 4:-0.82300885 5:-0.71312201 6:-0.7202421 7:-0.80776827 8:-0.79770802 
-0 0 6561 0 6561 0 6561 6561 0 0 0 0 0 0 0 0 0 0 0 0 0 0 0 0 1:-1 2:0.081081081 3:0.025210084 4:-0.82300885 5:-0.69789269 6:-0.73705447 7:-0.74061883 8:-0.7797708 
-0 0 0 0 0 6561 6561 0 0 0 0 0 0 0 0 0 0 0 0 0 0 0 0 0 1:1 2:-0.2027027 3:-0.2605042 4:-0.84070796 5:-0.85514432 6:-0.87222596 7:-0.89730086 8:-0.88739412 
-0 0 0 0 0 6561 0 0 0 0 0 0 0 0 -0 6561 0 0 0 0 0 0 0 0 1:-1 2:-0.56756757 3:-0.61344538 4:-0.90265487 5:-0.96493713 6:-0.97713517 7:-0.97366689 8:-0.96412556 
-5420.1533846303391 0 6561 0 6561 0 0 6561 0 6561 0 0 0 0 0 0 0 0 0 0 0 0 0 0 1:-1 2:-0.054054054 3:-0.092436975 4:-0.82300885 5:-0.76801842 6:-0.81775387 7:-0.81040158 8:-0.78375685 
-1762.3972468113839 0 6561 0 6561 0 1216.3863993342804 6561 0 0 0 0 0 0 0 0 0 0 0 0 0 0 0 0 1:-1 2:-0.16216216 3:-0.19327731 4:-0.83185841 5:-0.76412254 6:-0.80363147 7:-0.75378539 8:-0.82361734 
-0 0 6561 0 6561 0 0 0 0 0 0 0 0 0 0 0 0 0 0 0 0 0 0 0 1:1 2:-0.027027027 3:-0.058823529 4:-0.83185841 5:-0.79033115 6:-0.85474109 7:-0.8485846 8:-0.77379173 
-6561 0 6561 0 6561 0 6561 6561 0 6561 0 0 0 0 0 0 0 0 0 0 0 0 0 0 2:0.37837838 3:0.32773109 4:-0.73451327 5:-0.33699309 6:-0.3732347 7:-0.46675444 8:-0.55455904 
-0 0 6561 0 0 0 6561 0 0 0 0 0 0 0 0 0 0 0 0 0 0 0 0 0 1:1 2:-0.21621622 3:-0.27731092 4:-0.84955752 5:-0.85620684 6:-0.89643578 7:-0.87360105 8:-0.86347783 
-0 0 6561 0 0 0 0 0 0 0 0 0 0 0 0 0 0 0 0 0 0 0 0 0 1:1 2:0.081081081 3:-0.0084033613 4:-0.82300885 5:-0.67947583 6:-0.71015467 7:-0.70901909 8:-0.77379173 
-0 0 6561 0 0 0 6561 0 0 0 0 0 0 0 0 0 0 0 0 0 0 0 0 0 1:1 2:-0.054054054 3:-0.12605042 4:-0.85840708 5:-0.78678945 6:-0.82515131 7:-0.84726794 8:-0.81365222 
-0 0 0 0 0 0 6561 0 0 0 0 0 0 0 0 0 0 0 0 0 0 0 0 0 1:1 2:-0.081081081 3:-0.15966387 4:-0.78761062 5:-0.7634142 6:-0.77942165 7:-0.80118499 8:-0.84255107 
-6561 0 6561 6561 6561 0 0 2787.1031154671077 0 0 0 0 0 0 0 0 0 303.94804000066642 0 0 0 0 0 0 1:1 2:-0.24324324 3:-0.24369748 4:-0.80530973 5:-0.84310253 6:-0.89172831 7:-0.86306781 8:-0.84354758 
-0 0 3613.0971568920518 0 0 0 6561 0 0 0 0 0 0 0 0 0 0 0 0 0 0 0 0 0 1:1 2:-0.14864865 3:-0.17647059 4:-0.84070796 5:-0.82291482 6:-0.85810356 7:-0.86175115 8:-0.84354758 
-0 0 6561 0 0 0 6561 0 0 0 0 0 0 0 0 0 0 0 0 0 0 0 0 0 1:1 2:-0.14864865 3:-0.21008403 4:-0.84070796 5:-0.81547724 6:-0.84398117 7:-0.85911784 8:-0.84952666 
-0 0 6561 0 0 0 6561 0 0 0 0 0 0 0 0 0 0 0 0 0 0 0 0 0 1:1 2:-0.10810811 3:-0.17647059 4:-0.80530973 5:-0.77474765 6:-0.77000672 7:-0.88545095 8:-0.81763827 
-0 0 0 0 0 6561 6561 0 0 0 0 0 0 0 0 0 0 0 0 0 0 0 0 0 1:1 2:-0.18918919 3:-0.2605042 4:-0.84955752 5:-0.84558172 6:-0.85474109 7:-0.86965109 8:-0.88241156 
-5824.8577073502647 0 6561 0 6561 0 104.94047405667152 6561 1809.179087432753 3368.0425967509268 0 0 0 0 0 0 0 0 0 0 0 0 0 0 1:-1 2:0.45945946 3:0.32773109 4:-0.73451327 5:-0.15282451 6:-0.050437122 7:-0.44963792 8:-0.50373692 
-0 0 6561 0 0 0 0 0 0 0 0 0 0 0 0 0 0 0 0 0 0 0 0 0 1:1 2:-0.027027027 3:-0.058823529 4:-0.82300885 5:-0.77156012 6:-0.81977135 7:-0.79460171 8:-0.80767314 
-0 0 6561 0 6561 0 0 0 0 0 0 0 0 0 0 0 0 0 0 0 0 0 0 0 1:1 2:0.081081081 3:0.042016807 4:-0.79646018 5:-0.67628829 6:-0.70880968 7:-0.7564187 8:-0.77080219 
-0 0 6243.1004160743887 0 0 0 6561 0 0 0 0 0 0 0 0 0 0 0 0 0 0 0 0 0 1:1 2:-0.10810811 3:-0.21008403 4:-0.84070796 5:-0.80131043 6:-0.85070612 7:-0.8038183 8:-0.84055805 
-0 0 0 0 0 0 6370.077682741372 0 0 0 0 0 0 0 0 0 0 0 0 0 0 0 0 0 1:-1 2:-0.36486486 3:-0.42857143 4:-0.85840708 5:-0.90614486 6:-0.92871553 7:-0.93811718 8:-0.90333832 
-1057.343655814878 0 6561 0 6561 0 0 6561 0 0 0 0 0 0 0 0 0 0 0 0 0 0 0 0 1:-1 2:0.14864865 3:0.075630252 4:-0.74336283 5:-0.56118293 6:-0.63281775 7:-0.56418697 8:-0.70702541 
-0 0 0 0 0 6561 6561 0 0 0 0 0 0 0 0 0 0 0 0 0 0 0 0 0 1:1 2:-0.35135135 3:-0.39495798 4:-0.87610619 5:-0.89587392 6:-0.92333557 7:-0.91573404 8:-0.90931739 
-6561 201.99752858646028 6561 0 6561 0 0 6561 0 6561 0 5993.2485207695072 0 14.068550689982009 0 0 0 0 0 0 0 0 0 0 1:1 2:0.2027027 3:0.12605042 4:-0.7699115 5:-0.60864176 6:-0.68459987 7:-0.71296906 8:-0.62531141 
-0 0 809.23452985885137 0 0 0 5810.2568824748205 0 0 0 0 0 0 0 0 0 0 0 0 0 0 0 0 0 1:1 2:0.027027027 3:-0.058823529 4:-0.76106195 5:-0.64653798 6:-0.63281775 7:-0.73930217 8:-0.79073244 
-6561 0 6561 3899.3134930402935 6561 0 0 6561 0 2856.9950075209213 0 59.30296065000271 0 0 0 0 0 0 0 0 0 0 0 0 1:-1 2:-0.2972973 3:-0.29411765 4:-0.81415929 5:-0.84416504 6:-0.87558843 7:-0.85385122 8:-0.85351271 
-0 0 0 0 0 6561 6561 0 0 0 0 0 0 0 0 0 0 0 0 0 0 0 0 0 1:1 2:-0.24324324 3:-0.32773109 4:-0.85840708 5:-0.86895697 6:-0.89643578 7:-0.86833443 8:-0.88739412 
-0 0 0 0 0 0 0 0 0 0 1810.887782318054 0 0 0 0 0 0 0 0 0 0 0 0 0 1:1 2:0.013513514 3:-0.058823529 4:-0.81415929 5:-0.68478838 6:-0.68728985 7:-0.59842001 8:-0.76581963 
-0 0 6561 0 0 0 6561 0 0 0 0 0 0 0 0 0 0 0 0 0 0 0 0 0 1:1 2:-0.18918919 3:-0.22689076 4:-0.85840708 5:-0.84133168 6:-0.87020847 7:-0.8959842 8:-0.85849527 
-0 0 6561 0 4714.9134954209512 6561 6561 0 0 0 0 0 327.67705975987826 0 0 6561 0 0 0 0 0 8.3163417389144136 0 0 1:1 2:-0.45945946 3:-0.51260504 4:-0.86725664 5:-0.94049938 6:-0.9603228 7:-0.95128374 8:-0.9431988 
-0 0 6561 0 6561 607.10579338900698 3211.7193850324875 0 0 0 0 0 0 0 0 0 0 0 0 0 0 0 0 0 1:-1 2:0.054054054 3:0.025210084 4:-0.80530973 5:-0.65043386 6:-0.64290518 7:-0.77748519 8:-0.76183358 
-6561 0 6561 1929.3513996162551 6561 0 6561 6561 0 0 0 0 0 0 0 0 0 0 0 0 0 0 0 0 2:0.16216216 3:0.12605042 4:-0.77876106 5:-0.61572516 6:-0.67047747 7:-0.60631995 8:-0.72296961 
-0 0 0 0 0 6561 6561 0 0 0 0 0 0 0 0 0 0 0 0 0 0 0 0 0 1:1 2:-0.25675676 3:-0.39495798 4:-0.85840708 5:-0.88099876 6:-0.90383322 7:-0.87886768 8:-0.90433483 
-0 0 6561 0 0 6561 6561 0 60.713060721988349 0 0 0 0 0 0 0 0 0 0 0 0 0 0 0 1:1 2:-0.39189189 3:-0.44537815 4:-0.84070796 5:-0.90047813 6:-0.92468056 7:-0.91310072 8:-0.91728949 
-5144.7718321193242 0 6561 2255.8853909450349 6561 0 2471.5282655391275 6561 1071.9141838313658 2334.1854930672621 0 0 0 0 0 0 0 249.6568437313552 0 228.68120934137511 0 0 0.71619803106422442 0 2:-0.18918919 3:-0.27731092 4:-0.76106195 5:-0.57853728 6:-0.63550773 7:-0.65635286 8:-0.66915795 
-0 0 6561 0 6561 0 6561 0 0 0 0 0 0 0 0 0 0 0 0 0 0 0 0 0 1:-1 2:0.054054054 3:0.025210084 4:-0.79646018 5:-0.59093324 6:-0.60457297 7:-0.63396972 8:-0.76382661 
-0 0 6561 0 0 0 6561 0 0 0 0 0 0 0 0 0 0 0 0 0 0 0 0 0 1:1 2:-0.16216216 3:-0.17647059 4:-0.82300885 5:-0.79635205 6:-0.83792872 7:-0.83541804 8:-0.82361734 
-0 0 0 0 0 6561 6561 0 0 0 0 0 0 0 0 6561 0 0 0 0 0 0 0 0 1:1 2:-0.36486486 3:-0.46218487 4:-0.86725664 5:-0.91110324 6:-0.92535306 7:-0.92890059 8:-0.93124066 
-0 0 0 0 0 0 6561 0 0 0 0 0 0 0 0 0 0 0 0 0 0 0 0 0 1:1 2:-0.24324324 3:-0.31092437 4:-0.84070796 5:-0.86081105 6:-0.90517821 7:-0.87096774 8:-0.88739412 
-1157.6941803661921 0 6561 6561 6561 0 0 6561 6561 0 0 0 0 0 0 0 0 0 0 0 0 0 0 0 1:1 2:0.027027027 3:0.0084033613 4:-0.77876106 5:-0.62422525 6:-0.69872226 7:-0.66951942 8:-0.71101146 
-6561 0 6561 0 6561 0 0 3772.9580612435893 0 3287.6858022487095 0 0 0 0 0 0 0 0 0 0 0 0 0 0 1:1 3:-0.0084033613 4:-0.7699115 5:-0.70426775 6:-0.7733692 7:-0.75246873 8:-0.76482312 
-0 0 6561 0 6561 6561 6561 6561 0 0 0 0 0 0 0 0 0 0 0 0 0 0 0 0 2:-0.25675676 3:-0.29411765 4:-0.84070796 5:-0.87001948 6:-0.90114324 7:-0.89203423 8:-0.88340807 
-6561 0 6561 6561 6561 0 2577.8434801303679 6561 0 5483.6941339787518 984.57666696335605 0 0 0 0 0 0 0 0 0 0 0 0 0 1:-1 2:-0.10810811 3:-0.15966387 4:-0.78761062 5:-0.77581016 6:-0.83523874 7:-0.76300197 8:-0.81365222 
-0 0 6561 0 6561 0 0 6561 0 0 0 0 0 0 0 0 0 0 0 0 0 0 0 0 1:-1 2:0.2972973 3:0.15966387 4:-0.7699115 5:-0.50026563 6:-0.55480834 7:-0.5839368 8:-0.64424514 
-0 0 0 0 0 6561 6561 0 0 0 0 0 0 0 0 32.857542765656646 0 0 0 0 0 0 0 0 1:1 2:-0.32432432 3:-0.34453782 4:-0.87610619 5:-0.87781123 6:-0.88365837 7:-0.9078341 8:-0.92326856 
-5930.8861796901265 0 0 0 0 0 0 6561 0 0 0 0 0 0 0 0 0 0 0 0 0 0 0 0 1:-1 2:-0.36486486 3:-0.36134454 4:-0.83185841 5:-0.89516557 6:-0.93073302 7:-0.91178407 8:-0.90732436 
-0 0 6561 0 0 0 6561 0 0 0 0 0 0 0 0 0 0 0 0 0 0 0 0 0 1:1 2:0.040540541 3:0.025210084 4:-0.82300885 5:-0.67310076 6:-0.68863484 7:-0.7564187 8:-0.77379173 
-0 0 6561 0 6561 4584.980399567653 0 6561 0 0 0 0 0 0 0 0 0 0 0 0 0 0 0 0 2:-0.32432432 3:-0.31092437 4:-0.84070796 5:-0.86576944 6:-0.88702085 7:-0.90651745 8:-0.87942202 
-0 0 0 0 0 6561 6561 0 0 0 0 0 0 0 0 0 0 0 0 0 0 0 0 0 1:1 2:-0.2972973 3:-0.36134454 4:-0.84070796 5:-0.85868603 6:-0.87222596 7:-0.89466754 8:-0.90732436 
-0 0 6561 0 6561 0 6561 6561 0 0 0 0 0 0 0 0 0 0 0 0 0 0 0 0 2:0.13513514 3:0.092436975 4:-0.78761062 5:-0.59553745 6:-0.64425017 7:-0.66293614 8:-0.71599402 
-0 0 0 0 0 0 6561 0 0 0 0 0 0 0 0 0 0 0 0 0 0 0 0 0 1:1 2:-0.12162162 3:-0.17647059 4:-0.84070796 5:-0.80201877 6:-0.84196369 7:-0.84068466 8:-0.84354758 
-0 0 6561 0 6561 5064.1174634841955 6064.8043580218828 6561 0 604.85964347956792 0 0 0 0 0 77.762651979940699 0 0 0 0 0 0 0 0 1:1 2:0.14864865 3:0.092436975 4:-0.80530973 5:-0.65149637 6:-0.70813719 7:-0.76431863 8:-0.7389138 
-0 0 0 0 0 0 6561 0 0 0 0 0 0 0 0 0 0 0 0 0 0 0 0 0 1:1 2:-0.22972973 3:-0.2605042 4:-0.86725664 5:-0.84522755 6:-0.86886348 7:-0.88545095 8:-0.87144993 
-0 0 6561 1919.3248543603593 6561 0 0 6561 573.04515310726606 0 0 0 0 0 0 0 0 0 0 1.779970645944964 0 0 0 0 1:1 2:-0.094594595 3:-0.058823529 4:-0.80530973 5:-0.76766425 6:-0.79018157 7:-0.8156682 8:-0.66417539 
-0 0 6561 0 6561 0 0 0 0 0 0 0 0 0 0 0 0 0 0 0 0 0 0 0 1:1 2:0.054054054 3:0.0084033613 4:-0.80530973 5:-0.66566318 6:-0.69199731 7:-0.73666886 8:-0.76382661 
-1601.2012947868145 0 0 0 6561 6561 6561 2437.2752614508699 0 0 0 0 0 0 0 0 0 619.2744435762271 0 0 0 0 0 0 1:1 2:-0.35135135 3:-0.41176471 4:-0.84070796 5:-0.9103949 6:-0.94351042 7:-0.8959842 8:-0.92326856 
-0 0 6561 0 0 0 6561 0 0 0 0 0 0 0 0 0 0 0 0 0 0 0 0 0 1:1 2:-0.31081081 3:-0.31092437 4:-0.85840708 5:-0.86683195 6:-0.89845326 7:-0.89993417 8:-0.87344295 
-0 0 0 0 0 0 6561 0 0 0 0 0 0 0 0 0 0 0 0 0 0 0 0 0 1:1 2:-0.13513514 3:-0.21008403 4:-0.83185841 5:-0.78891447 6:-0.78883658 7:-0.82225148 8:-0.84753363 
-0 0 6561 0 6561 0 0 0 0 0 0 0 0 0 0 0 0 0 0 0 0 0 0 0 1:1 2:0.040540541 3:-0.025210084 4:-0.81415929 5:-0.6833717 6:-0.73772697 7:-0.75246873 8:-0.75087195 
-0 0 6561 0 6561 6561 6561 6561 0 0 0 0 0 0 0 0 0 0 0 0 0 0 0 0 2:-0.37837838 3:-0.41176471 4:-0.85840708 5:-0.89091553 6:-0.91055817 7:-0.91046741 8:-0.90732436 
-0 0 669.39460725113804 0 0 0 6561 0 0 0 0 0 0 0 0 0 0 0 0 0 0 0 0 0 1:1 2:-0.18918919 3:-0.24369748 4:-0.84955752 5:-0.8494776 6:-0.88634835 7:-0.87360105 8:-0.85949178 
-0 0 0 0 0 6561 6561 0 0 0 0 0 0 0 0 6561 0 0 0 0 0 0 0 0 1:1 2:-0.45945946 3:-0.46218487 4:-0.86725664 5:-0.91960333 6:-0.93611298 7:-0.92495063 8:-0.93323368 
-0 0 6561 0 0 0 6561 0 0 0 0 0 0 0 0 0 0 0 0 0 0 0 0 0 1:1 2:0.013513514 3:-0.075630252 4:-0.81415929 5:-0.73826811 6:-0.75050437 7:-0.79460171 8:-0.80866966 
-6561 0 6561 6079.1229793394377 6561 0 0 6561 0 6561 2437.1345468214522 0 0 0 -0 0 0 0 0 0 0 0 0 0 1:-1 2:-0.054054054 3:-0.075630252 4:-0.85840708 5:-0.74570568 6:-0.82111634 7:-0.78406847 8:-0.75386148 
-0 0 6561 0 6561 0 0 6561 0 0 0 0 0 0 0 0 0 0 0 0 0 0 0 0 1:-1 2:-0.10810811 3:-0.14285714 4:-0.82300885 5:-0.72870551 6:-0.76866174 7:-0.76036866 8:-0.78375685 
-0 0 0 0 0 6561 6561 0 0 0 0 0 0 0 0 0 0 0 0 0 0 0 0 0 1:1 2:-0.36486486 3:-0.37815126 4:-0.84070796 5:-0.89835311 6:-0.9199731 7:-0.91836735 8:-0.91330344 
-518.6475179339501 0 0 0 0 6561 0 0 0 0 0 0 6557.6536702384283 0 0 6561 0 0 0 0 0 0 0 0 1:-1 2:-0.64864865 3:-0.66386555 4:-0.92035398 5:-0.9713122 6:-0.97848016 7:-0.98683344 8:-0.97209766 
-6168.8545261329973 0 6561 0 6561 0 0 786.49065700002654 0 0 0 0 0 0 0 0 0 0 0 0 0 0 0 0 1:1 2:0.040540541 3:-0.025210084 4:-0.80530973 5:-0.73543474 6:-0.79623403 7:-0.8485846 8:-0.75386148 
-0 0 6561 0 6561 0 3415.2328710570391 0 0 0 0 0 0 0 0 0 0 0 0 0 0 0 0 0 1:1 2:-0.027027027 3:-0.12605042 4:-0.80530973 5:-0.74039313 6:-0.78412912 7:-0.81303489 8:-0.76382661 
-0 0 0 0 0 0 6561 0 0 0 0 0 0 0 0 0 0 0 0 0 0 0 0 0 1:1 2:-0.2027027 3:-0.27731092 4:-0.84070796 5:-0.87001948 6:-0.9071957 7:-0.88940092 8:-0.87344295 
-0 0 0 0 0 6561 6561 0 0 0 0 0 0 0 0 2036.8647358358533 0 0 0 0 0 0 0 0 1:1 2:-0.37837838 3:-0.36134454 4:-0.86725664 5:-0.89091553 6:-0.91055817 7:-0.90125082 8:-0.91330344 
-4244.5021188677347 0 6561 0 6561 0 0 6561 0 598.79545991963312 0 0 0 0 0 0 0 0 0 0 0 0 0 0 1:1 2:-0.027027027 3:-0.025210084 4:-0.78761062 5:-0.77368514 6:-0.8264963 7:-0.85385122 8:-0.76681614 
-0 0 6561 0 6561 0 35.978694964115341 2792.6665425821366 0 0 0 0 0 0 0 0 0 0 0 0 0 0 0 0 1:-1 2:0.27027027 3:0.12605042 4:-0.76106195 5:-0.44643173 6:-0.43308675 7:-0.52337064 8:-0.69207773 
-0 0 0 0 0 2009.843328927315 6561 0 0 0 0 0 0 0 0 1446.0173880991422 0 0 0 0 0 0 0 0 1:1 2:-0.18918919 3:-0.17647059 4:-0.86725664 5:-0.89941562 6:-0.92199059 7:-0.92231731 8:-0.91529646 
-0 0 6561 0 0 3753.6038896957843 6561 0 0 0 0 0 0 0 0 0 0 0 0 0 0 0 0 0 1:1 3:-0.058823529 4:-0.82300885 5:-0.6546839 6:-0.63214526 7:-0.77485188 8:-0.78276034 
-0 0 5563.4165829651865 0 6561 0 0 6561 0 0 0 0 0 0 0 0 0 0 0 0 0 0 0 0 1:-1 2:-0.31081081 3:-0.32773109 4:-0.83185841 5:-0.8686028 6:-0.90248823 7:-0.88281764 8:-0.88340807 
-0 0 6561 0 0 0 0 0 0 0 0 0 0 0 0 0 0 0 0 0 0 0 0 0 1:1 2:-0.054054054 3:-0.092436975 4:-0.79646018 5:-0.74039313 6:-0.78345662 7:-0.77353522 8:-0.79471849 
-5527.3311347321096 0 6561 3414.856513260007 2798.4605628259119 0 6561 5389.7222670911824 2155.4637965189163 0 0 0 0 0 0 0 0 0 0 0 0 0 0 0 1:1 2:-0.24324324 3:-0.24369748 4:-0.84955752 5:-0.7956437 6:-0.87357095 7:-0.89730086 8:-0.77379173 
-0 0 6561 0 0 6561 6561 0 0 0 0 0 0 0 0 6561 0 0 0 0 0 0 0 0 1:1 2:-0.44594595 3:-0.51260504 4:-0.88495575 5:-0.93802019 6:-0.95292535 7:-0.95260039 8:-0.9431988 
-6561 2503.3409974098936 6561 6561 6561 0 0 6561 6561 6561 6561 3222.5084777415323 0 636.44796406278613 6561 0 2384.4003592650411 5311.8425919626416 0 438.84364995873511 0 0 0 0 2:0.081081081 3:0.092436975 4:-0.76106195 5:-0.6571631 6:-0.76798924 7:-0.81698486 8:-0.63428002 
-0 0 6561 0 6561 0 0 0 0 0 0 0 0 0 0 0 0 0 0 0 0 0 0 0 1:-1 2:0.094594595 3:0.042016807 4:-0.78761062 5:-0.57534974 6:-0.58170814 7:-0.69321922 8:-0.72396612 
-0 0 6561 0 6561 0 0 6561 0 0 0 0 0 0 0 0 0 0 0 0 0 0 0 0 1:-1 2:0.24324324 3:0.17647059 4:-0.75221239 5:-0.42199398 6:-0.46065905 7:-0.54970375 8:-0.62630792 
-6561 0 6561 0 6561 0 0 6561 574.54712714809455 6561 2230.4087516637865 0 0 0 0 0 0 0 0 0 0 0 0 0 1:-1 2:0.27027027 3:0.22689076 4:-0.74336283 5:-0.45032761 6:-0.49764627 7:-0.59447005 8:-0.59441953 
-6561 0 6561 6561 6561 0 0 6561 0 0 0 0 0 0 0 0 0 0 0 0 0 0 0 0 2:-0.16216216 3:-0.15966387 4:-0.81415929 5:-0.76660174 6:-0.81775387 7:-0.80513496 8:-0.8036871 
-0 0 6561 0 4369.9254751485832 0 0 0 0 0 0 0 0 0 0 0 0 0 0 0 0 0 0 0 1:1 2:-0.10810811 3:-0.15966387 4:-0.82300885 5:-0.80945635 6:-0.87155346 7:-0.84068466 8:-0.82162431 
-6561 0 6561 4317.7109333506787 6561 0 0 6561 471.88474582660871 6561 6561 0 0 0 62.022662434896432 0 0 0 0 0 0 0 0 0 1:-1 2:0.22972973 3:0.17647059 4:-0.77876106 5:-0.53993271 6:-0.63618023 7:-0.57867018 8:-0.632287 
-0 0 6561 0 6561 0 0 0 0 0 0 0 0 0 0 0 0 0 0 0 0 0 0 0 1:1 2:0.054054054 3:-0.025210084 4:-0.80530973 5:-0.68868426 6:-0.76529926 7:-0.76300197 8:-0.76382661 
-6561 6431.8830398284872 6561 6561 6561 0 0 6561 2303.5398058955348 6561 2296.4298665499095 0 0 0 0 0 0 3666.2383684068154 0 0 0 0 0 0 1:1 2:0.054054054 3:0.058823529 4:-0.80530973 5:-0.68620506 6:-0.78143914 7:-0.74851876 8:-0.67214748 
-0 0 6561 0 6561 0 6561 0 0 0 0 0 0 0 0 0 0 0 0 0 0 0 0 0 1:1 2:-0.081081081 3:-0.092436975 4:-0.82300885 5:-0.72870551 6:-0.77673167 7:-0.79065174 8:-0.75386148 
-0 0 6561 0 6561 0 0 0 0 0 0 0 0 0 0 0 0 0 0 0 0 0 0 0 1:1 2:0.14864865 3:0.058823529 4:-0.79646018 5:-0.59447494 6:-0.58977808 7:-0.70638578 8:-0.72197309 
-0 0 6561 0 0 0 0 0 0 0 0 0 0 0 0 0 0 0 0 0 0 0 0 0 1:1 2:0.027027027 3:-0.0084033613 4:-0.81415929 5:-0.68655923 6:-0.71486214 7:-0.71955234 8:-0.78076731 
-6561 0 6561 6561 6561 0 0 6561 6561 6561 6561 70.887655401218183 0 0 0 0 4331.8355151981232 1601.1714188565813 0 0 0 0 0 0 1:-1 2:0.067567568 3:0.058823529 4:-0.7699115 5:-0.63130866 6:-0.73100202 7:-0.65108624 8:-0.67414051 
-0 0 6561 0 6561 0 0 0 0 0 0 0 0 0 0 0 0 0 0 0 0 0 0 0 1:1 2:-0.013513514 3:-0.025210084 4:-0.78761062 5:-0.74287232 6:-0.77874916 7:-0.78275181 8:-0.78375685 
-0 0 6561 0 0 0 6561 0 0 0 0 0 0 0 0 0 0 0 0 0 0 0 0 0 1:1 2:-0.054054054 3:-0.092436975 4:-0.80530973 5:-0.76518505 6:-0.76866174 7:-0.88281764 8:-0.8036871 
-0 0 0 0 0 0 3305.5753457879996 0 0 0 0 0 0 0 0 0 0 0 0 0 0 0 0 0 1:1 2:-0.17567568 3:-0.2605042 4:-0.83185841 5:-0.90401983 6:-0.88567586 7:-0.84726794 8:-0.88241156 
-0 0 6561 0 6561 0 0 0 0 0 0 0 0 0 0 0 0 0 0 0 0 0 0 0 1:1 2:0.054054054 3:0.0084033613 4:-0.81415929 5:-0.68833009 6:-0.72091459 7:-0.7445688 8:-0.76681614 
-0 0 0 0 0 0 6561 0 0 0 0 0 0 0 0 0 0 0 0 0 0 0 0 0 1:1 2:-0.040540541 3:-0.092436975 4:-0.84070796 5:-0.70037188 6:-0.70948218 7:-0.77221856 8:-0.81365222 
-6561 0 6561 0 6561 2156.563303907818 4351.4917777848286 6561 0 5005.1775729528563 0 0 0 0 0 0 0 0 0 0 0 0 0 0 2:0.10810811 3:0.058823529 4:-0.79646018 5:-0.66247565 6:-0.7330195 7:-0.74983542 8:-0.74588939 
-6561 0 6561 6561 6561 0 6232.94943594093 6561 0 6561 0 0 0 0 0 0 0 0 0 0 0 0 0 0 1:1 2:0.18918919 3:0.15966387 4:-0.77876106 5:-0.60297503 6:-0.66509751 7:-0.67346939 8:-0.66417539 
-6561 0 6561 0 6561 0 4269.8354168412634 6561 0 0 0 0 0 0 0 0 0 0 0 0 0 0 0 0 1:1 2:0.17567568 3:0.075630252 4:-0.82300885 5:-0.59164158 6:-0.68123739 7:-0.67873601 8:-0.65421026 
-0 0 0 0 0 6561 6561 0 0 0 0 0 0 0 0 0 0 0 0 0 0 0 0 0 1:1 2:-0.33783784 3:-0.37815126 4:-0.86725664 5:-0.87851957 6:-0.89912576 7:-0.9078341 8:-0.90333832 
-0 0 6561 0 0 6561 6561 0 0 0 0 0 0 0 0 6561 0 0 0 0 0 0 0 0 1:1 2:-0.45945946 3:-0.51260504 4:-0.88495575 5:-0.92810342 6:-0.93745797 7:-0.94733377 8:-0.9431988 
-0 0 6561 0 6561 0 6561 0 0 0 0 0 0 0 0 0 0 0 0 0 0 0 0 0 1:1 2:0.054054054 3:0.058823529 4:-0.79646018 5:-0.62316274 6:-0.65030262 7:-0.74325214 8:-0.71798705 
-0 0 6561 0 4418.5334692620236 0 0 0 0 0 0 0 0 0 0 0 0 0 0 0 0 0 0 0 1:1 2:0.2027027 3:0.092436975 4:-0.79646018 5:-0.53072428 6:-0.5595158 7:-0.55365372 8:-0.71898356 
-0 0 6561 0 6561 2320.4934223608316 6561 1900.2395636181063 0 0 0 0 0 0 0 0 0 0 0 0 0 0 0 0 1:-1 2:-0.040540541 3:-0.058823529 4:-0.78761062 5:-0.72020542 6:-0.73436449 7:-0.77353522 8:-0.79671151 
-6561 0 6561 693.85888529827992 6561 0 0 6561 0 6561 0 0 0 0 0 0 0 0 0 0 0 0 0 0 2:0.081081081 3:0.092436975 4:-0.75221239 5:-0.51336993 6:-0.57565568 7:-0.65503621 8:-0.61335326 
-0 0 6561 0 6561 0 6561 6561 0 0 0 0 0 0 0 0 0 0 0 0 0 0 0 0 2:0.081081081 3:0.042016807 4:-0.79646018 5:-0.60049584 6:-0.62340282 7:-0.69321922 8:-0.73692078 
-0 0 6561 0 6561 0 4449.8127257836077 6561 0 0 0 0 0 0 0 0 0 0 0 0 0 0 0 0 2:0.28378378 3:0.24369748 4:-0.75221239 5:-0.32707632 6:-0.34297243 7:-0.48913759 8:-0.5675137 
-6561 0 6561 0 6561 0 0 6561 0 6561 0 0 0 0 0 0 0 0 0 0 0 0 0 0 1:1 2:0.13513514 3:0.092436975 4:-0.7699115 5:-0.63839207 6:-0.70746469 7:-0.69585253 8:-0.68410563 
-0 0 6561 0 0 0 6561 0 0 0 0 0 0 0 0 0 0 0 0 0 0 0 0 0 1:1 2:-0.16216216 3:-0.19327731 4:-0.84955752 5:-0.82185231 6:-0.86281103 7:-0.84990125 8:-0.83358246 
-6561 0 6561 0 6561 0 0 6561 0 1061.7627749212616 0 0 0 0 0 0 0 0 0 0 0 0 0 0 1:-1 2:0.013513514 3:-0.025210084 4:-0.81415929 5:-0.70993448 6:-0.75924681 7:-0.70506912 8:-0.73393124 
-0 0 0 0 0 0 6561 0 0 0 0 0 0 0 0 0 0 0 0 0 0 0 0 0 1:1 2:-0.2027027 3:-0.24369748 4:-0.83185841 5:-0.79847707 6:-0.79892401 7:-0.81961817 8:-0.8445441 
-0 0 0 0 0 0 6561 0 0 0 0 0 0 0 0 0 0 0 0 0 0 0 0 0 1:1 3:-0.14285714 4:-0.84070796 5:-0.7634142 6:-0.79219906 7:-0.76431863 8:-0.83258595 
-0 0 6561 0 0 0 6561 0 0 0 0 0 0 0 0 0 0 0 0 0 0 0 0 0 1:1 2:-0.22972973 3:-0.2605042 4:-0.83185841 5:-0.84770675 6:-0.88836584 7:-0.88676761 8:-0.82361734 
-0 0 6561 0 0 0 0 0 0 0 0 0 0 0 0 0 0 0 0 0 0 0 0 0 1:1 2:-0.040540541 3:-0.092436975 4:-0.82300885 5:-0.74322649 6:-0.78950908 7:-0.78406847 8:-0.79372197 
-6561 -0 6561 6561 6561 0 2320.0085954767455 6561 6561 6561 6561 6561 0 0 6561 0 0 6561 6561 0 0 0 0 0 2:0.54054054 3:0.57983193 4:-0.66371681 5:0.03523995 6:-0.11163416 7:-0.096774194 8:-0.13602392 
-6561 -5975.0792778270961 6561 6561 6561 0 0 6561 6561 6561 6561 2525.5054645535502 0 0 6561 0 0 569.32032020732674 0 0 0 0 0 0 1:-1 2:0.39189189 3:0.41176471 4:-0.71681416 5:-0.33168054 6:-0.48823134 7:-0.51678736 8:-0.46487294 
-6561 -0 1498.6449227220401 6561 6561 0 0 6561 6561 6561 6561 0 0 4750.4245690208945 6561 0 0 6561 6561 2857.7608066160069 0 0 0 0 1:-1 2:0.41891892 3:0.49579832 4:-0.71681416 5:-0.28245086 6:-0.46402152 7:-0.54443713 8:-0.34529148 
-6561 -0 6561 6561 6561 0 0 6561 6561 6561 6561 6561 0 0 6561 0 0 6561 6561 6561 0 0 0 0 2:0.32432432 3:0.34453782 4:-0.69026549 5:-0.28386754 6:-0.54135844 7:-0.4562212 8:-0.30543099 
-6561 -0 235.44251003721268 6561 6561 0 0 6561 6561 6561 6561 0 0 1315.7824471946305 6561 0 0 6561 3357.4136225809725 1565.8769744103884 0 0 0 0 1:-1 2:0.33783784 3:0.17647059 4:-0.71681416 5:-0.34655569 6:-0.53799597 7:-0.42593812 8:-0.41504733 
-6561 -1389.5554542639875 239.76826052177174 6561 1401.089866584334 0 0 6367.8166029524982 6561 6561 6561 1472.3122964861068 0 1215.9745654352421 2999.7277301521631 0 0 0 4268.1978849771349 0 0 0 78.619059997612482 0 1:-1 2:0.66216216 3:0.66386555 4:-0.6460177 5:0.30653444 6:-0.016812374 7:0.24160632 8:0.13303438 
-6561 -4718.0856584073708 6561 6561 6561 0 719.45690485864156 6561 6561 6561 6561 1134.7419205078636 0 3248.925901426358 6561 0 6159.6889817433894 6561 1967.815885273646 98.822949544262372 0 0 0 0 1:-1 2:0.14864865 3:0.092436975 4:-0.72566372 5:-0.53391181 6:-0.64425017 7:-0.64186965 8:-0.57448929 
-6561 -0 6561 6561 6561 0 0 6561 6561 6561 6561 292.48397521524691 0 0 6561 0 4467.0811039952159 6561 4968.441296629956 1815.0513015194254 0 0 0 0 1:-1 2:0.5 3:0.54621849 4:-0.71681416 5:-0.28174252 6:-0.43443174 7:-0.35878868 8:-0.29546587 
-6561 -642.14963831675925 6561 6561 6561 0 0 6561 6561 6561 6561 598.16504842832046 0 2799.2923886606613 6561 0 1201.554052397029 6561 169.20291571780089 972.71666150297131 0 0 0 0 2:0.16216216 3:0.24369748 4:-0.75221239 5:-0.39932708 6:-0.63147276 7:-0.57340355 8:-0.43497758 
