svm_type c_svc
kernel_type polynomial
degree 4
gamma 0.125
coef0 0
nr_class 26
total_sv 2499
rho -1.3244173586761439 -0.98095903054593192 -1.086244831506451 -0.98891307624388403 -5.3722677279612272 -12.479910724422938 -1.4288544380346582 -1.3037838012312128 -0.99435921914136371 -1.1599418178160277 -3.1681557517815091 -1.0250484360016723 -0.86234740157424872 -0.9355277879442877 -0.73980664044172784 -1.0145042519623602 -0.95732656629438562 -0.9768632817704106 -1.1326938935131237 -1.7140572072778697 -1.0036766966313568 -1.7472657155917677 -0.96066974040565845 -1.4737613977753732 -1.2941306675662319 0.19776729217048566 1.081398759687926 0.3321608121938639 -4.1708148712228796 -1.200741577107219 -1.0793486591666295 -1.1946924910575727 -0.05673608382712881 -0.86560698814540926 -6.576376595434259 -1.1284658908489766 -0.69409743342831409 -0.27352476962799316 0.33474550017312382 -0.2848489856735264 -0.87287290931980299 -0.64952952222478366 -1.0993760446408429 -1.1162465365569996 -1.075354908611776 -2.830346705124076 -1.0173542284473407 -2.0378522423977716 -1.4073059251393647 0.52536320399577374 0.94133939609032247 -3.6648555666148264 -5.43305474372037 -1.4152255278370642 -1.3548650259420212 -0.39792897917210601 -1.3331452947093003 -1.9912961695565694 -1.0276009400900501 -0.67329427732291325 -0.69200739800495181 0.28040077609553454 -0.47613813977306679 -0.90432893026641292 -0.68670392931948587 -1.005991571278309 -1.7681952967884944 -1.0191035304532297 -1.4574744517308587 -0.79019553425660893 -1.3138245144910343 -1.2133755586208006 -0.31875443809889548 -6.1013721266081271 -16.264753014509601 -1.4525466619942495 -1.1793255214281826 -0.72637065515479093 -1.0839733515267089 -6.818911869815536 -1.2572658539059212 -0.75093908372816942 -0.89152168223667405 -0.22768741937024456 -0.64228887364385623 -0.98514861535013099 -0.79725692960761385 -0.92514484990278467 -0.94194507626592816 -0.98849008650399439 -2.8216964259350741 -0.80475217494864071 -2.0461422937231966 -1.5181239118661902 -2.3500484033498279 -2.2063950800344201 -1.1414049326347802 -1.1030550611299155 -0.66732518391721873 -0.67574634303792447 -2.7286065633448144 -0.97860042669331071 -0.59729266726135077 -0.70620728737718974 -0.1735951234517287 -0.58233833358487419 -0.90198206609349574 -0.463412739907682 -0.9951228272219198 -1.1434260518914501 -0.97299261733284104 -1.7195778952355083 -0.91330862820587766 -1.4544868124612913 -1.3701419545557907 -6.342678234137141 3.0860397424026877 1.694540272527036 4.3248674275065833 3.3853342874685675 -14.579207506160007 2.2336751520497278 2.2298760589515716 5.2599443322123403 3.3862332006445128 1.7826801790126681 4.7469328432310371 1.6607507401370691 1.3975226722467111 0.83203068030057803 1.4283356145897208 -20.435499912468096 1.0138217231777873 -4.9626360525389419 0.91510415718450422 6.6987975111557851 1.3491887532879339 6.7167747374602804 5.5602158101875165 -2.4392038780332017 2.1930351084018427 1.5331725801429732 2.2739920451099005 6.4020331133958308 1.3976132797449348 2.2921703242408453 1.268700833901854 1.2197471640768995 0.92081914445412139 1.2481160001141789 -6.3464928970891608 1.0079596693887121 -7.7657788145316289 0.96303675014725287 0.98787481664795762 2.1710528039691273 1.1942782560845291 -12.466964177564549 0.82869843580271085 1.1674921228453825 1.2121954133456527 1.6471951322354754 1.5203700855665188 1.4722021996647112 0.96350957463344222 0.46367247845480758 -1.0532794590187871 -0.28612968078928441 -7.2789151286121534 -0.47388144310604957 -3.4373151599797911 -1.2344552327571798 1.1442525543899091 0.6993934313740956 -1.1535450244016532 1.1400461937805215 1.3697718709259763 1.2096686519355946 1.3670593875768158 1.7944641122159641 1.4198298766541082 1.3895522107760307 0.48570784423561342 -0.94149677885292471 -0.56656629056042374 -1.0602759643613184 -0.65748622478154239 -1.0385471468314356 -1.2277525868073293 -0.82371753552325933 -3.4756462631656331 -1.0763811831383445 -0.48711241676478884 -0.54813826549019384 0.16187963596602101 -0.78302740619269851 -0.94583175407740028 -0.78495538087545791 -1.0126350022593176 -0.90983235481322544 -1.1313425539179292 -2.1720645379310008 -0.79446334958312281 -1.712309103494595 -1.722910159593896 -11.408620221047556 0.10658330285548628 0.8155021380966434 1.3160469833486197 1.328485920611109 0.92028032261968229 0.37198883704994212 0.63131620304437375 -0.45321075979966324 -1.2326417955217421 -0.97772915282416362 -3.3044130464236092 -0.77933214773189963 -2.2506089678519654 -1.1660134459616245 1.343611060184277 1.27139003051849 1.4493765371615499 1.8710005969740828 1.2050967924139928 1.4406931568800712 1.0979434607657341 1.0990774714212761 0.96016248705715224 1.1068254648657962 -7.2279031536272882 1.0021011297262441 -10.355471472404375 0.98545161057461161 1.0244844365806054 1.4869497246862204 1.0909590079246052 1.5508685161452036 0.80990185447915064 1.0736506468408011 -0.92681752164475617 -1.0199757733613479 -1.0965004083723777 -1.2798123352904296 -0.92584208811699742 -1.1782132218095951 -1.6820150816049457 0.50783003616775257 0.80142794850463739 0.55566895751703305 -0.73671871308299941 -0.89800324627130235 -0.9765287572912974 -1.4640771775665145 -1.2197125378508709 -1.0980953643983375 -0.90066335360266936 -1.0676341128345699 -1.6800398334237931 0.8848530422162787 -0.64761598696334288 -1.0279642006375349 -1.0159545914362433 -1.0258103684007762 -0.92197662815070913 -1.5496740127883835 -1.2388291424420133 -0.82611410678513708 -1.1553086949267481 -1.5259102543027179 -0.97842927283513637 -0.99016317262739539 -0.98059222961097636 -1.0521696832977063 -1.5893454519339953 -1.1765511497763224 -1.5745043301274984 -0.9889635728438041 -1.3662624560682446 -1.0786618700154511 -1.4951857331795801 -1.2355606882213401 -0.92573211594561455 -2.0202099451213673 -1.1813924545360994 -1.0897309492888185 -0.94572001227235869 -1.065871401003371 -1.6260522728967106 -0.083074409453252923 -0.53050180195685115 -1.1942228575348783 -1.106755579578061 -1.1901705536865717 -0.8521723426135156 -1.1182169359450542 -1.4608841089173061 -0.90503057738638915 -1.383783814975869 -1.300799298353313 -1.0696081778057993 -1.0267413194132466 -1.0410078673050343 -1.6944490611621343 -1.1058411117335254 -1.7636135226243987 -1.0364678700510404 -0.92150834577329621 -1.0259290492113997 -0.82362830721189229 1.0224777667240004 -0.97373900486135156 1.0257386239558208 -0.98228786525705969 0.71937194897879475 -1.0369477322460572 -0.60895160608128274 -1.0231164485168844 -1.3712759618803658 1.0010738989856389 -6.2621471979423831 0.99467010419376867 -0.99969947890902477 -0.66780868284071404 0.99659075066711111
label 10 8 12 9 11 5 4 6 21 13 7 3 19 16 15 14 17 18 20 23 26 22 2 27 1 29
nr_sv 378 343 167 409 275 69 39 156 10 107 242 10 16 38 61 80 37 28 17 6 1 5 1 2 1 1
SV
2187 0 2187 2187 0 0 0 0 0 2187 0 0 0 0 0 0 0 0 0 0 0 0 0 0 0 1:1 2:0.27027027 3:0.2605042 4:-0.73451327 5:-0.47582787 6:-0.52723605 7:-0.58525346 8:-0.58844046 
2187 0 2187 0 0 0 0 0 0 0 0 0 0 0 0 0 0 0 0 0 0 0 0 0 0 1:-1 2:0.45945946 3:0.36134454 4:-0.69911504 5:-0.25305472 6:-0.35373235 7:-0.28505596 8:-0.46487294 
540.67802836324063 2187 2175.8349098480871 2187 0 0 0 0 2187 0 0 14.807504677644012 0 0 0 0 0 0 0 0 0 0 0 0 0 1:-1 2:0.87837838 3:0.83193277 4:-0.61946903 5:0.55303701 6:0.4129119 7:0.26793943 8:0.16093672 
2187 0 2187 0 0 0 0 0 0 2187 0 0 0 0 0 0 0 0 0 0 0 0 0 0 0 1:-1 2:0.21621622 3:0.17647059 4:-0.76106195 5:-0.46484859 6:-0.55682582 7:-0.4325214 8:-0.61434978 
2187 0 2187 2187 0 0 2187 0 0 2187 0 0 0 0 0 0 0 0 0 0 0 0 0 0 0 1:1 2:0.25675676 3:0.21008403 4:-0.80530973 5:-0.56295378 6:-0.63080027 7:-0.60631995 8:-0.65122073 
0 2187 1831.6558761082235 2187 0 0 0 0 816.4897765306265 0 0 0 0 0 0 0 0 0 0 0 0 0 0 0 0 1:-1 2:0.78378378 3:0.73109244 4:-0.62831858 5:0.58207898 6:0.5729657 7:0.21790652 8:0.05630294 
2187 2187 2187 2187 0 0 2187 0 2170.7493561057768 2187 0 0 0 0 0 0 0 0 0 0 0 0 0 0 0 1:-1 2:0.14864865 3:0.075630252 4:-0.73451327 5:-0.55091199 6:-0.66039005 7:-0.6194865 8:-0.6243149 
2187 0 2187 0 0 0 0 0 0 0 0 0 0 0 0 0 0 0 0 0 0 0 0 0 0 1:-1 2:0.22972973 3:0.21008403 4:-0.75221239 5:-0.48857801 6:-0.58372562 7:-0.560237 8:-0.59441953 
0 2187 2187 2187 0 0 0 0 0 0 0 0 0 0 0 0 0 0 0 0 0 0 0 0 0 2:0.62162162 3:0.59663866 4:-0.69026549 5:0.023198158 6:-0.090114324 7:-0.1323239 8:-0.22770304 
0 0 2187 2187 0 0 0 0 0 0 0 0 0 0 0 0 0 0 0 0 0 0 0 0 0 2:0.47297297 3:0.41176471 4:-0.71681416 5:-0.20134585 6:-0.37861466 7:-0.29427255 8:-0.34529148 
0 2187 0 2187 0 0 0 0 2187 0 0 738.28943966158045 0 0 0 0 0 0 0 0 0 0 0 0 0 2:0.67567568 3:0.66386555 4:-0.72566372 5:0.30865947 6:0.030262273 7:0.16260698 8:-0.17090184 
0 0 2187 2187 0 0 0 0 0 0 0 0 0 0 0 0 0 0 0 0 0 0 0 0 0 1:-1 2:0.54054054 3:0.51260504 4:-0.73451327 5:-0.17938729 6:-0.30329523 7:-0.31270573 8:-0.33532636 
2187 2187 2187 2187 0 0 0 0 0 0 0 0 0 2187 0 324.3563808310231 0 0 0 0 0 0 0 0 0 2:0.37837838 3:0.27731092 4:-0.69026549 5:-0.3058261 6:-0.45595158 7:-0.34430546 8:-0.46487294 
2187 0 2187 0 0 0 0 0 0 0 0 0 0 0 0 0 0 0 0 0 0 0 0 0 0 1:-1 2:0.13513514 3:0.092436975 4:-0.78761062 5:-0.66566318 6:-0.73638198 7:-0.72086899 8:-0.69506726 
2187 961.33875583864096 2187 0 0 0 0 0 0 2187 0 0 0 0 0 0 0 0 0 0 0 0 0 0 0 2:0.37837838 3:0.32773109 4:-0.71681416 5:-0.23853373 6:-0.32952253 7:-0.24423963 8:-0.50473343 
2187 0 2187 2187 0 0 0 0 491.06395139167489 2187 0 0 0 0 0 0 0 0 0 0 0 0 0 0 0 2:0.013513514 3:0.025210084 4:-0.77876106 5:-0.64264211 6:-0.70275723 7:-0.72481896 8:-0.68410563 
0 2187 0 2187 0 0 0 2187 2187 0 0 588.84905454742943 2187 2187 2187 2187 2187 2187 1220.301638230789 421.31048832351502 993.66063076699425 0 0 0 0 1:-1 2:0.27027027 3:0.36134454 4:-0.71681416 5:-0.36568089 6:-0.54270343 7:-0.56550362 8:-0.31539611 
2187 2187 2187 2187 0 0 0 0 1907.1694011787765 0 0 0 0 0 0 0 0 0 0 0 0 0 0 0 0 2:0.081081081 3:0.12605042 4:-0.78761062 5:-0.62564193 6:-0.71418964 7:-0.69716919 8:-0.66417539 
0 0 2187 2187 0 0 0 0 0 0 0 0 0 172.3815108825894 0 0 0 0 0 0 0 0 0 0 0 1:-1 2:0.51351351 3:0.54621849 4:-0.7079646 5:-0.13086595 6:-0.32145259 7:-0.21790652 8:-0.29845541 
0 2187 0 2187 0 0 0 318.22047737150922 2187 0 0 0 2187 2187 2187 1708.3468755287211 2116.0443096609224 2187 0 0 0 0 131.66630154111061 0 0 2:0.58108108 3:0.61344538 4:-0.63716814 5:0.019656455 6:-0.20443847 7:-0.27057275 8:-0.026407573 
0 2187 0 2187 0 0 0 0 2187 0 0 0 0 1814.4827225719503 0 0 608.55181710770387 0 0 0 0 0 0 0 0 2:0.56756757 3:0.56302521 4:-0.66371681 5:0.028864884 6:-0.19435104 7:0.016458196 8:-0.23966119 
2187 1038.0188724049451 2187 2187 0 0 0 0 0 54.746489806815312 0 0 0 0 0 0 0 0 0 0 0 0 0 0 0 2:0.18918919 3:0.21008403 4:-0.75221239 5:-0.5101824 6:-0.58238063 7:-0.60105332 8:-0.60438465 
2187 0 2187 0 0 0 0 0 0 1130.426896404033 0 0 0 0 779.0086265901673 0 0 0 0 0 0 0 0 0 0 1:-1 2:0.10810811 3:0.15966387 4:-0.76106195 5:-0.53178679 6:-0.58036315 7:-0.640553 8:-0.60438465 
2187 0 2187 0 0 0 493.88307082311832 0 0 2187 0 0 0 0 0 0 0 0 0 0 0 0 0 0 0 1:-1 2:0.32432432 3:0.2605042 4:-0.73451327 5:-0.41278555 6:-0.43039677 7:-0.54443713 8:-0.56651719 
0 0 2187 2187 0 0 0 0 0 0 0 0 0 0 0 0 0 0 0 0 0 0 0 0 0 1:-1 2:0.48648649 3:0.46218487 4:-0.7079646 5:-0.14786612 6:-0.30531271 7:-0.18367347 8:-0.31240658 
0 0 2187 2187 0 0 0 0 0 0 0 0 0 0 0 0 0 0 0 0 0 0 0 0 0 1:-1 2:0.56756757 3:0.46218487 4:-0.69026549 5:-0.039135824 6:-0.14122394 7:-0.22712311 8:-0.27553563 
0 585.96587171054546 2187 279.63416721069427 0 0 0 0 0 2187 0 0 0 0 0 0 0 0 0 0 0 0 0 0 0 2:-0.18918919 3:-0.21008403 4:-0.79646018 5:-0.80981052 6:-0.87626093 7:-0.8275181 8:-0.82660688 
2187 0 2187 0 0 0 0 0 0 0 0 0 0 0 0 0 0 0 0 0 0 0 0 0 0 2:0.5 3:0.41176471 4:-0.72566372 5:-0.2927218 6:-0.39340955 7:-0.33772219 8:-0.47483807 
2187 0 2187 2187 0 0 0 0 0 0 0 0 0 0 0 0 0 0 0 0 0 0 0 0 0 1:-1 2:0.40540541 3:0.41176471 4:-0.75221239 5:-0.27147158 6:-0.33893746 7:-0.42988808 8:-0.44892875 
0 0 0 2187 0 0 0 0 2187 0 0 0 0 2187 678.07855890049984 0 0 0 0 0 0 0 0 0 0 1:-1 2:0.58108108 3:0.57983193 4:-0.6460177 5:0.053302639 6:-0.18560861 7:-0.0019749835 8:-0.16392626 
2187 0 2187 2187 0 0 0 0 0 0 0 0 0 0 0 0 0 0 0 0 0 0 0 0 0 1:-1 2:0.47297297 3:0.44537815 4:-0.72566372 5:-0.25836727 6:-0.37995965 7:-0.39302172 8:-0.50473343 
0 445.16782463532854 2187 2187 0 0 48.634709899381413 0 0 0 0 0 0 0 0 0 0 0 0 0 0 0 0 0 0 2:0.77027027 3:0.73109244 4:-0.7079646 5:0.42695236 6:0.43577673 7:0.099407505 8:-0.13602392 
2187 0 2187 2187 0 0 0 0 0 0 0 0 0 0 0 0 0 0 0 0 0 0 0 0 0 2:0.2027027 3:0.19327731 4:-0.77876106 5:-0.50664069 6:-0.60524546 7:-0.57340355 8:-0.57448929 
2187 1997.3734124703869 2187 0 0 0 0 0 2187 0 0 0 0 0 2187 0 0 0 0 0 0 0 0 0 0 1:-1 2:0.36486486 3:0.29411765 4:-0.69026549 5:-0.13334514 6:-0.27437794 7:-0.28900592 8:-0.35226707 
0 2187 351.13562037431251 2187 0 0 0 0 0 0 0 0 0 0 0 0 0 0 0 0 0 0 0 0 0 2:0.74324324 3:0.76470588 4:-0.65486726 5:0.48822384 6:0.37928716 7:0.26267281 8:0.068261086 
0 2187 0 2187 0 0 0 0 51.67391046499737 0 0 0 1709.8328664098231 0 2187 0 0 0 0 0 0 0 0 0 0 2:0.67567568 3:0.61344538 4:-0.69026549 5:0.30086772 6:0.079354405 7:0.041474654 8:-0.0004982561 
1832.95951509874 1642.2811941233931 2187 1020.512639297843 0 0 0 0 0 0 0 0 0 0 517.5291826356713 0 0 0 0 0 0 0 0 0 0 2:0.47297297 3:0.41176471 4:-0.69026549 5:-0.28138835 6:-0.41560188 7:-0.43778802 8:-0.3552566 
0 1387.6329519703506 0 2187 0 0 0 0 2187 0 0 0 0 2187 0 0 0 0 0 0 0 0 0 0 0 1:-1 2:0.54054054 3:0.49579832 4:-0.69026549 5:-0.054010979 6:-0.25622058 7:-0.19025675 8:-0.1758844 
980.53019064119246 0 2187 2187 0 0 0 0 0 0 0 0 0 0 0 0 0 0 0 0 0 0 0 0 0 2:0.51351351 3:0.46218487 4:-0.69026549 5:-0.12059501 6:-0.22057835 7:-0.17709019 8:-0.39511709 
2187 2187 2187 2187 0 0 0 0 0 2187 0 0 0 0 0 0 0 0 0 0 0 0 0 0 0 1:1 2:0.28378378 3:0.17647059 4:-0.73451327 5:-0.52293253 6:-0.59583053 7:-0.61553654 8:-0.58445441 
2187 0 2187 0 0 0 0 0 0 2187 0 0 0 0 0 0 0 0 0 0 0 0 0 0 0 2:0.2027027 3:0.24369748 4:-0.73451327 5:-0.42553568 6:-0.48352387 7:-0.47070441 8:-0.54459392 
0 0 2187 2187 0 0 0 0 0 0 0 0 0 0 2187 0 0 0 0 0 0 0 0 0 0 2:0.41891892 3:0.39495798 4:-0.66371681 5:-0.19780414 6:-0.33960995 7:-0.31797235 8:-0.3303438 
0 0 0 2187 0 0 0 0 0 0 0 0 0 0 0 0 0 0 0 0 0 0 0 0 0 1:-1 2:0.60810811 3:0.6302521 4:-0.69026549 5:0.048344254 6:-0.0073974445 7:-0.23107307 8:-0.27553563 
0 0 2187 2187 0 0 0 0 0 0 0 0 0 0 0 0 0 0 0 0 0 0 0 0 0 1:-1 2:0.54054054 3:0.49579832 4:-0.65486726 5:-0.0090313441 6:-0.17215871 7:-0.075707702 8:-0.26058794 
2187 0 2187 1955.3816209615977 0 0 0 0 0 0 0 0 0 0 0 0 0 0 0 53.185196490174036 0 0 0 0 0 1:-1 2:0.48648649 3:0.46218487 4:-0.78761062 5:-0.38055605 6:-0.38802959 7:-0.52732061 8:-0.53861485 
564.89488506464397 210.40553112941942 2187 2187 2187 1739.7418743306662 2187 0 1060.8628225967473 2187 52.57800413830671 0 0 0 0 0 33.859405262474411 0 0 0 0 0 0 0 0 1:-1 2:-0.41891892 3:-0.42857143 4:-0.85840708 5:-0.90968656 6:-0.92938803 7:-0.93285056 8:-0.91330344 
0 0 0 2187 0 0 0 0 0 0 0 0 0 0 0 0 0 0 0 0 0 0 0 0 0 1:-1 2:0.58108108 3:0.56302521 4:-0.66371681 5:0.10217815 6:0.014122394 7:-0.21658986 8:-0.20577977 
0 0 2187 2187 0 0 0 0 0 0 0 0 0 0 0 0 0 0 0 0 0 0 0 0 0 1:-1 2:0.56756757 3:0.64705882 4:-0.66371681 5:0.0076146627 6:-0.15063887 7:-0.12442396 8:-0.24962631 
2187 0 2187 0 0 0 0 0 0 2187 0 0 0 0 0 0 0 0 0 0 0 0 0 0 0 1:-1 2:0.18918919 3:0.092436975 4:-0.76106195 5:-0.5328493 6:-0.61466039 7:-0.44963792 8:-0.69407075 
2187 0 2187 2187 0 0 2187 0 0 2187 0 0 0 2187 0 322.88553976565532 0 0 0 0 0 0 0 0 0 2:0.13513514 3:0.1092437 4:-0.7699115 5:-0.51230742 6:-0.58103564 7:-0.52995392 8:-0.65421026 
0 675.93311498308492 0 0 0 0 0 0 602.28767914765467 0 0 0 0 609.71695685554641 1777.50567856813 0 0 0 6.2595549338880474 0 0 0 0 0 0 1:1 2:0.63513514 3:0.59663866 4:-0.67256637 5:-0.21551266 6:-0.41089442 7:-0.35615537 8:-0.32536124 
0 2187 0 2187 0 0 0 0 0 0 0 0 0 0 0 0 0 0 0 0 0 0 0 0 0 2:0.58108108 3:0.4789916 4:-0.62831858 5:0.095094741 6:-0.027572293 7:-0.073074391 8:-0.22072745 
0 0 2187 2187 0 0 0 0 0 0 0 0 0 0 0 0 0 0 0 0 0 0 0 0 0 1:-1 2:0.48648649 3:0.56302521 4:-0.69026549 5:-0.0023021073 6:-0.07195696 7:-0.15339039 8:-0.31240658 
0 0 2187 2187 0 0 0 0 0 0 0 270.12714816721029 0 0 0 0 0 213.96806050456127 0 0 0 0 0 0 0 1:-1 2:0.40540541 3:0.39495798 4:-0.72566372 5:-0.15034532 6:-0.33960995 7:0.016458196 8:-0.47483807 
2187 0 2187 2187 1362.7013421285758 399.57978588123876 2187 0 0 2187 0 0 0 0 0 0 0 0 0 0 0 0 0 0 0 1:-1 2:-0.27027027 3:-0.32773109 4:-0.85840708 5:-0.8817071 6:-0.9206456 7:-0.88940092 8:-0.89536622 
2187 2187 2187 2187 0 0 0 0 0 0 0 0 0 0 0 0 0 0 0 0 0 0 0 0 0 1:-1 2:0.33783784 3:0.27731092 4:-0.69911504 5:-0.38303524 6:-0.48755884 7:-0.51942067 8:-0.46387643 
2187 0 2187 2187 0 0 0 0 0 0 0 0 0 0 0 0 0 0 0 0 0 0 0 0 0 2:0.43243243 3:0.42857143 4:-0.73451327 5:-0.23711705 6:-0.39542703 7:-0.25477288 8:-0.41903338 
1458.8277933121158 0 2187 0 0 0 0 0 0 0 0 0 0 0 0 0 0 0 0 0 0 0 0 0 0 2:-0.054054054 3:-0.058823529 4:-0.83185841 5:-0.77333097 6:-0.83927371 7:-0.84068466 8:-0.75386148 
2187 0 2187 1349.5425042943784 2187 0 2187 0 0 2187 0 0 0 0 0 0 0 0 0 0 0 0 0 0 0 1:1 2:-0.081081081 3:-0.092436975 4:-0.82300885 5:-0.77368514 6:-0.79488904 7:-0.84463463 8:-0.79372197 
0 2187 0 2187 0 0 0 0 0 0 0 0 0 0 0 0 0 0 0 0 0 0 0 0 0 2:0.58108108 3:0.57983193 4:-0.68141593 5:0.12944927 6:0.043039677 7:0.044107966 8:-0.28450424 
0 0 2187 2187 0 0 0 0 0 0 0 0 0 0 0 0 0 0 0 0 0 0 0 0 0 1:-1 2:0.41891892 3:0.41176471 4:-0.69911504 5:-0.19992917 6:-0.31809011 7:-0.28505596 8:-0.38714499 
2187 0 2187 810.15879722460375 0 0 0 0 0 2187 0 0 0 0 0 0 0 0 0 0 0 0 0 0 0 1:-1 2:0.013513514 3:-0.0084033613 4:-0.82300885 5:-0.74110147 6:-0.80430397 7:-0.73403555 8:-0.76382661 
2187 0 2187 0 0 0 2187 0 0 2187 0 0 0 387.18815133409623 0 0 721.03537103804763 0 0 0 0 0 0 0 0 1:-1 2:0.10810811 3:0.025210084 4:-0.7699115 5:-0.61785019 6:-0.65232011 7:-0.74851876 8:-0.68410563 
2187 2187 2187 2187 0 0 0 0 0 0 0 0 0 0 0 0 0 0 0 0 0 0 0 0 0 1:1 2:0.33783784 3:0.2605042 4:-0.74336283 5:-0.41136887 6:-0.52521856 7:-0.62211982 8:-0.44195316 
0 2187 2187 2187 0 0 0 0 0 0 0 0 0 0 0 0 0 0 0 0 0 0 0 0 0 2:0.62162162 3:0.52941176 4:-0.65486726 5:-0.022489818 6:-0.18829859 7:-0.16524029 8:-0.21275536 
2187 0 2187 0 0 0 0 0 0 0 0 0 0 0 0 0 0 0 0 0 0 0 0 0 0 1:-1 2:0.33783784 3:0.32773109 4:-0.72566372 5:-0.15494953 6:-0.24478816 7:-0.32587228 8:-0.41504733 
22.406485227401614 2187 2187 2187 0 0 0 0 0 0 0 0 0 0 0 0 0 0 0 0 0 0 0 0 0 2:0.47297297 3:0.42857143 4:-0.7079646 5:-0.28422171 6:-0.28513786 7:0.14812377 8:-0.35724963 
2187 0 2187 2187 0 0 0 0 0 2187 0 0 0 283.08312056120275 0 0 0 0 0 0 0 0 0 0 0 1:-1 2:-0.013513514 3:0.042016807 4:-0.77876106 5:-0.63591287 6:-0.71149966 7:-0.70111916 8:-0.69407075 
2187 0 2187 2187 0 0 0 0 0 0 0 0 0 0 0 0 0 0 0 0 0 0 0 0 0 1:-1 2:0.48648649 3:0.49579832 4:-0.75221239 5:-0.22507526 6:-0.26899798 7:-0.43120474 8:-0.41504733 
0 0 2187 2187 0 0 0 0 0 0 0 0 0 0 0 0 0 0 0 0 0 0 0 0 0 1:-1 2:0.45945946 3:0.41176471 4:-0.69911504 5:-0.20170002 6:-0.35642233 7:-0.20605662 8:-0.40508221 
0 0 0 2187 0 0 0 0 2187 0 0 0 0 0 0 0 0 0 0 0 0 0 0 0 0 1:-1 2:0.60810811 3:0.49579832 4:-0.66371681 5:0.07455286 6:-0.1728312 7:0.020408163 8:-0.1758844 
0 0 2187 2187 0 0 0 0 0 0 0 0 0 0 0 0 0 0 0 0 0 0 0 0 0 2:0.48648649 3:0.42857143 4:-0.69911504 5:-0.043385869 6:-0.16274378 7:-0.26925609 8:-0.27553563 
0 0 2187 2187 0 0 0 0 0 0 0 0 0 0 0 0 0 0 0 0 0 0 0 0 0 1:-1 2:0.48648649 3:0.51260504 4:-0.67256637 5:-0.18222065 6:-0.30195024 7:-0.36800527 8:-0.29845541 
0 2187 0 2187 0 0 0 0 2187 1778.3443289771483 0 2145.2208091098305 2187 0 1174.268882455525 2187 501.9951294342917 902.52377489553453 0 0 0 0 0 0 1647.4977404819708 2:0.7027027 3:0.73109244 4:-0.67256637 5:0.24597131 6:0.0033624748 7:-0.020408163 8:-0.030393622 
0 2187 0 2187 0 0 0 0 0 0 0 0 0 0 0 0 0 0 0 0 0 0 0 0 0 2:0.67567568 3:0.66386555 4:-0.67256637 5:0.18788737 6:0.08137189 7:0.055957867 8:-0.21275536 
0 0 905.28367368035833 0 0 0 0 0 0 2187 0 0 0 0 0 0 0 0 0 0 0 0 0 0 0 2:-0.17567568 3:-0.21008403 4:-0.81415929 5:-0.81937312 6:-0.86819099 7:-0.86701777 8:-0.83358246 
0 0 2187 2187 0 0 0 0 0 0 0 0 0 0 0 0 0 0 0 0 0 0 0 0 0 1:1 2:0.43243243 3:0.42857143 4:-0.72566372 5:-0.29343014 6:-0.42972428 7:-0.47860434 8:-0.40508221 
2187 0 2187 2187 0 0 0 0 0 0 0 0 0 0 0 0 0 0 0 0 0 0 0 0 0 1:-1 2:0.39189189 3:0.41176471 4:-0.75221239 5:-0.30936781 6:-0.37928716 7:-0.4680711 8:-0.45490782 
2187 2187 2187 2187 0 0 0 0 0 0 0 0 0 0 0 0 0 0 0 0 0 0 0 0 0 2:0.14864865 3:0.15966387 4:-0.77876106 5:-0.59305826 6:-0.67921991 7:-0.66951942 8:-0.63428002 
0 2187 2187 2187 0 0 0 0 1925.9961137726157 0 0 0 0 0 0 0 0 0 0 0 0 0 0 0 0 1:-1 2:0.48648649 3:0.42857143 4:-0.74336283 5:-0.23286701 6:-0.37659718 7:-0.35747202 8:-0.35127055 
2187 0 2187 2187 0 0 0 0 0 0 0 0 0 0 0 0 0 0 0 0 0 0 0 0 0 1:-1 2:0.48648649 3:0.54621849 4:-0.7079646 5:-0.13936604 6:-0.10423672 7:-0.45753785 8:-0.38216243 
2187 0 2187 2187 0 0 2187 0 0 2187 0 0 0 0 0 0 0 21.536223864240913 0 0 0 0 0 0 0 1:1 2:0.081081081 3:0.042016807 4:-0.78761062 5:-0.6259961 6:-0.66442502 7:-0.7445688 8:-0.67912307 
2187 0 2187 0 0 0 999.27710161223888 0 0 2187 0 0 0 0 0 0 0 0 0 0 0 0 0 0 0 1:-1 2:0.054054054 3:0.17647059 4:-0.76106195 5:-0.45068178 6:-0.41492939 7:-0.54970375 8:-0.71300448 
0 2187 0 2187 0 0 0 0 2187 0 0 0 0 2187 230.94550094165115 2187 0 0 0 0 159.87581049445339 0 0 0 0 1:-1 2:0.55405405 3:0.57983193 4:-0.67256637 5:0.14751195 6:-0.10759919 7:-0.15207373 8:-0.052316891 
2187 0 2187 0 0 0 2187 0 0 2187 0 0 0 0 0 0 0 0 0 0 0 0 0 0 0 1:-1 2:0.081081081 3:0.075630252 4:-0.77876106 5:-0.58137064 6:-0.62878278 7:-0.69848585 8:-0.64424514 
0 2187 0 2187 0 0 0 0 2187 0 0 0 0 0 0 0 0 0 0 0 0 0 0 0 0 2:0.59459459 3:0.59663866 4:-0.68141593 5:0.05471932 6:-0.14794889 7:-0.10072416 8:-0.13602392 
0 0 2187 2187 0 0 0 0 0 0 0 0 0 0 0 0 0 0 0 0 0 0 0 0 0 2:0.5 3:0.44537815 4:-0.67256637 5:-0.17478307 6:-0.26429052 7:-0.34693878 8:-0.32536124 
0 2187 0 1876.5657309766946 0 0 0 2187 2187 0 0 2187 2187 2187 2187 2187 2187 2187 0 0 0 0 0 0 0 1:-1 2:0.5 3:0.4789916 4:-0.68141593 5:-0.073490349 6:-0.33557498 7:-0.2244898 8:-0.067264574 
1230.049270315787 0 2187 0 0 0 0 0 0 0 0 0 0 0 0 0 0 0 0 0 0 0 0 0 0 1:-1 2:0.25675676 3:0.34453782 4:-0.75221239 5:-0.31290951 6:-0.43779422 7:-0.32982225 8:-0.46686597 
2187 0 2187 0 0 0 0 0 0 0 0 0 0 0 0 0 0 0 0 0 0 0 0 0 0 2:0.35135135 3:0.32773109 4:-0.71681416 5:-0.2449088 6:-0.2535306 7:-0.43778802 8:-0.48978575 
0 2187 2187 2187 0 0 0 1825.6580392681674 2187 0 0 1878.5521676460967 2187 2187 2187 2187 0 2187 2187 0 0 0 1020.7559617572524 0 0 2:0.44594595 3:0.41176471 4:-0.71681416 5:-0.21126262 6:-0.48554136 7:-0.41408822 8:-0.24763328 
0 2187 1952.6406605017498 2187 0 0 0 0 0 0 0 0 0 0 0 0 0 0 0 0 0 0 0 0 0 1:-1 2:0.54054054 3:0.52941176 4:-0.65486726 5:-0.13299097 6:-0.20981843 7:-0.41803818 8:-0.25660189 
719.12356505379762 0 2187 2187 0 0 0 0 0 0 0 0 0 0 0 0 0 0 0 0 0 0 0 0 0 1:-1 2:0.44594595 3:0.42857143 4:-0.67256637 5:-0.075969541 6:-0.073974445 7:-0.23370639 8:-0.42501246 
2187 0 2187 1857.9350028499416 0 0 0 0 0 2187 0 0 0 0 0 0 0 0 0 0 0 0 0 0 0 1:-1 2:0.35135135 3:0.27731092 4:-0.76106195 5:-0.2987427 6:-0.42030935 7:-0.41540487 8:-0.5266567 
2187 2187 2187 2187 0 0 2187 0 2187 2187 0 0 0 0 0 0 0 0 0 0 0 0 0 0 0 2:-0.081081081 3:-0.15966387 4:-0.81415929 5:-0.74605985 6:-0.8399462 7:-0.78538512 8:-0.8036871 
2187 0 2187 0 0 0 0 0 0 2187 0 0 0 0 0 0 0 0 0 0 0 0 0 0 0 1:-1 2:0.35135135 3:0.36134454 4:-0.72566372 5:-0.36957677 6:-0.40753194 7:-0.53785385 8:-0.56452417 
2187 0 2187 2187 0 0 0 0 0 0 0 0 0 0 0 0 0 0 0 0 0 0 0 0 0 2:0.45945946 3:0.44537815 4:-0.71681416 5:-0.18151231 6:-0.32817754 7:-0.34430546 8:-0.37518685 
2187 0 2187 2187 0 0 2187 0 0 2187 0 0 0 0 0 0 0 0 0 0 0 0 0 0 0 2:0.16216216 3:0.075630252 4:-0.79646018 5:-0.58384983 6:-0.64694015 7:-0.68531929 8:-0.67015446 
2187 2177.1271545926529 2187 2187 0 0 2187 0 0 2187 0 0 0 0 0 0 0 0 0 0 0 0 0 0 0 2:0.027027027 3:-0.0084033613 4:-0.75221239 5:-0.63414202 6:-0.70410222 7:-0.66820276 8:-0.73393124 
2187 0 2187 1040.2279655529885 2187 364.24739392037361 2187 0 2187 2187 0 0 121.03878687361438 213.19723581645692 1608.4168101698795 0 0 0 22.574172316832968 0 0 6.4312882331847527 0 3.4022046207537615 0 1:1 2:-0.22972973 3:-0.2605042 4:-0.80530973 5:-0.83601913 6:-0.87357095 7:-0.86306781 8:-0.83358246 
0 0 2187 2187 0 0 0 0 0 0 0 0 0 0 0 0 0 0 0 0 0 0 0 0 0 2:0.5 3:0.46218487 4:-0.60176991 5:-0.05507349 6:-0.086079354 7:-0.31928901 8:-0.35625311 
2187 0 2187 0 0 0 0 0 0 0 0 0 0 0 0 0 0 0 0 0 0 0 0 0 0 1:-1 2:0.36486486 3:0.34453782 4:-0.73451327 5:-0.28457588 6:-0.33086752 7:-0.4443713 8:-0.43796712 
0 2187 944.7677893412399 2187 0 0 0 94.574955742823363 2187 0 0 0 1997.5601090449702 114.83633596822176 0 0 0 0 155.31660009431039 0 0 0 0 0 15.957300479352902 2:0.60810811 3:0.78151261 4:-0.71681416 5:-0.07419869 6:-0.26899798 7:-0.22580645 8:-0.17987045 
2187 0 2187 0 0 0 0 0 0 2187 0 0 0 0 0 0 0 0 0 0 0 0 0 0 0 1:-1 2:0.40540541 3:0.34453782 4:-0.73451327 5:-0.37382681 6:-0.42098184 7:-0.47202107 8:-0.55854509 
0 2187 2187 2187 0 0 0 0 2187 0 0 0 763.94076165350828 2187 2187 2187 0 0 0 0 0 0 0 0 0 1:-1 2:0.2972973 3:0.32773109 4:-0.69026549 5:-0.3823269 6:-0.56086079 7:-0.46938776 8:-0.39511709 
0 0 2187 0 0 0 0 0 0 0 0 0 0 0 0 0 0 0 0 0 0 0 0 0 0 2:0.35135135 3:0.39495798 4:-0.72566372 5:-0.21090845 6:-0.31674512 7:-0.37458855 8:-0.32536124 
2187 0 2187 0 0 0 0 0 0 2187 0 0 0 0 0 0 0 0 0 0 0 0 0 0 0 1:-1 2:0.081081081 3:0.075630252 4:-0.78761062 5:-0.60262086 6:-0.66173504 7:-0.68400263 8:-0.63428002 
0 2187 2187 2187 0 0 0 0 2187 0 0 0 0 2187 0 0 0 0 0 0 0 0 0 0 0 1:-1 2:0.44594595 3:0.46218487 4:-0.71681416 5:-0.21374181 6:-0.37592468 7:-0.40092166 8:-0.32336821 
2187 2187 2187 2187 0 0 0 0 2187 0 0 0 0 1156.7442399226425 2187 632.64826835924623 0 0 0 0 0 0 0 0 0 1:-1 2:0.22972973 3:0.17647059 4:-0.73451327 5:-0.41243138 6:-0.52790854 7:-0.50888743 8:-0.49975087 
0 2187 2187 291.42460965599253 0 0 0 0 2187 0 0 1872.5821343749196 781.04640606425789 953.72342038353861 2187 0 1193.6630214565268 0 0 0 160.7067133106095 0 0 0 0 2:0.28378378 3:0.32773109 4:-0.74336283 5:-0.47653621 6:-0.60457297 7:-0.62343647 8:-0.47184853 
2187 0 2187 0 0 0 0 0 0 0 0 0 0 0 0 0 0 0 0 0 0 0 0 0 0 2:0.41891892 3:0.42857143 4:-0.69911504 5:-0.25340889 6:-0.3860121 7:-0.36010533 8:-0.37817638 
0 2187 2187 2187 0 0 0 0 2187 0 0 0 0 304.72489091888411 2187 0 0 0 0 0 190.12045559698404 0 0 0 0 1:-1 2:0.067567568 3:0.025210084 4:-0.76106195 5:-0.64653798 6:-0.77740417 7:-0.69848585 8:-0.67414051 
0 0 2187 2187 0 0 0 0 0 0 0 0 0 0 0 0 0 0 0 0 0 0 0 0 0 1:-1 2:0.58108108 3:0.51260504 4:-0.7079646 5:-0.028156543 6:-0.20914593 7:-0.077024358 8:-0.31539611 
0 0 2187 0 0 0 0 0 0 0 0 0 0 0 0 0 0 0 0 0 0 0 0 0 0 1:-1 2:0.41891892 3:0.32773109 4:-0.65486726 5:-0.052240128 6:-0.17148621 7:-0.1441738 8:-0.28450424 
2187 972.97888387186663 2187 2187 0 0 2187 0 1755.8594081558665 2187 0 1890.2827412519393 0 0 0 0 0 0 0 0 0 0 0 0 0 1:1 2:0.067567568 3:0.075630252 4:-0.81415929 5:-0.68903843 6:-0.77673167 7:-0.77353522 8:-0.714001 
2187 0 2187 0 0 0 0 0 0 803.94489499916222 0 0 0 0 0 0 0 0 0 0 0 0 0 0 0 1:-1 2:0.40540541 3:0.36134454 4:-0.69911504 5:-0.20134585 6:-0.23470074 7:-0.3285056 8:-0.47483807 
2187 0 2187 1098.0762098028147 0 0 0 0 1094.3916649075193 99.145423899732279 0 0 2187 578.53420629755715 978.77207528291797 2187 0 0 0 0 0 0 0 0 0 2:0.28378378 3:0.092436975 4:-0.7079646 5:-0.14786612 6:-0.27101547 7:-0.22712311 8:-0.33632287 
2187 2187 2187 2187 0 0 0 0 0 0 0 0 0 1676.1579879695018 2187 0 0 0 0 0 0 0 0 0 0 2:0.32432432 3:0.31092437 4:-0.72566372 5:-0.41632725 6:-0.54270343 7:-0.46017117 8:-0.50971599 
2187 0 2187 1119.5684422277984 0 0 0 0 0 0 0 0 0 0 0 0 0 0 0 0 0 0 0 0 0 1:-1 2:0.43243243 3:0.41176471 4:-0.66371681 5:-0.20417921 6:-0.20780094 7:-0.35088874 8:-0.48480319 
2187 644.86951940846723 2187 0 0 0 0 0 0 0 0 690.1680746077011 0 0 0 0 0 0 0 0 0 0 0 0 0 2:0.41891892 3:0.41176471 4:-0.72566372 5:-0.14432442 6:-0.12306658 7:-0.55497038 8:-0.36422521 
0 0 2187 2187 0 0 0 0 0 0 0 0 0 0 0 0 0 0 0 0 0 0 0 0 0 1:-1 2:0.52702703 3:0.54621849 4:-0.7079646 5:-0.031698247 6:-0.15131137 7:-0.10204082 8:-0.2894868 
2187 0 2187 2187 0 0 2187 0 0 2187 0 210.35056325273894 0 684.57361698655598 0 0 0 0 0 0 0 0 0 0 0 1:1 2:-0.10810811 3:-0.15966387 4:-0.81415929 5:-0.74464317 6:-0.79085407 7:-0.8156682 8:-0.75386148 
0 2187 2187 2187 0 0 0 0 2187 0 0 0 0 0 2187 0 0 0 0 0 0 0 0 0 0 2:0.5 3:0.49579832 4:-0.67256637 5:-0.021781477 6:-0.27505044 7:-0.12837393 8:-0.24564026 
0 2187 2187 2187 0 0 0 0 2187 0 0 1724.5699796163963 2187 2187 2187 2187 969.19407337423661 0 987.80724726725941 0 0 0 0 0 0 2:0.24324324 3:0.21008403 4:-0.69911504 5:-0.3787852 6:-0.60457297 7:-0.48387097 8:-0.43497758 
0 2187 0 2187 0 0 0 0 2187 0 0 0 0 2187 0 0 0 0 0 0 0 0 0 0 0 1:-1 2:0.51351351 3:0.44537815 4:-0.68141593 5:-0.16592881 6:-0.35776732 7:-0.27057275 8:-0.29546587 
2187 2187 2187 2187 0 0 0 0 2187 643.4920902352801 0 0 1641.8689057267843 570.01600499343738 2187 2187 0 0 0 0 0 0 0 0 0 2:0.027027027 3:-0.0084033613 4:-0.75221239 5:-0.59589162 6:-0.73705447 7:-0.6524029 8:-0.65421026 
0 2187 0 2187 0 0 0 0 0 0 0 0 918.12006448469231 2187 0 0 2079.7293948092647 0 0 0 0 0 0 0 0 1:1 2:0.55405405 3:0.56302521 4:-0.73451327 5:-0.12449088 6:-0.26227303 7:-0.22185648 8:-0.34429497 
0 2187 2187 2187 0 0 0 0 2187 0 0 0 0 2187 2187 0 0 0 0 0 0 0 0 0 0 1:-1 2:0.36486486 3:0.39495798 4:-0.7079646 5:-0.29484682 6:-0.47209146 7:-0.3640553 8:-0.34529148 
2187 0 2187 0 0 0 0 0 0 2187 0 0 0 0 0 0 0 0 0 0 0 0 0 0 0 2:0.27027027 3:0.29411765 4:-0.76106195 5:-0.35080574 6:-0.42434432 7:-0.47070441 8:-0.52964624 
0 2187 0 2187 0 0 0 0 2187 0 0 684.2312039057249 2187 2187 2187 1432.6649019127615 510.33337871721068 0 96.047634470205665 0 0 0 0 0 0 2:0.55405405 3:0.52941176 4:-0.67256637 5:-0.027448203 6:-0.28715535 7:0.0098749177 8:-0.20876931 
2187 0 2187 0 0 0 641.38922055178102 0 0 2187 0 0 0 0 0 0 0 0 0 0 709.50610702900042 0 0 0 0 1:-1 2:0.16216216 3:0.1092437 4:-0.79646018 5:-0.65964229 6:-0.71889711 7:-0.72876893 8:-0.69706029 
0 0 2187 2187 0 0 0 0 0 0 0 0 0 0 0 0 0 0 0 0 0 0 0 0 0 2:0.45945946 3:0.41176471 4:-0.72566372 5:-0.21161679 6:-0.35036987 7:-0.4443713 8:-0.29546587 
0 0 2187 2187 0 0 0 0 0 0 0 0 0 0 0 0 0 0 0 0 0 0 0 0 0 2:0.54054054 3:0.54621849 4:-0.73451327 5:-0.14290774 6:-0.30867518 7:-0.46017117 8:-0.23567514 
1886.5323878970758 0 2187 2187 0 0 0 0 0 0 0 0 0 0 0 0 0 0 0 0 0 0 0 0 0 1:-1 2:0.43243243 3:0.42857143 4:-0.69911504 5:-0.16309545 6:-0.21856086 7:-0.37853851 8:-0.3712008 
2187 0 2187 2187 0 0 0 0 2187 0 0 0 2187 0 0 0 0 0 0 0 0 0 0 0 0 2:0.14864865 3:0.14285714 4:-0.75221239 5:-0.4945989 6:-0.57565568 7:-0.53785385 8:-0.52466368 
0 0 0 2187 0 0 0 0 2187 0 0 0 0 0.62674131477921502 0 0 0 0 0 0 0 0 0 0 0 1:-1 2:0.63513514 3:0.56302521 4:-0.65486726 5:0.028156543 6:-0.20511096 7:0.028308097 8:-0.18086697 
670.78783809717754 2187 0 2187 0 0 0 0 2187 0 0 0 0 0 0 0 0 0 0 0 0 0 0 0 0 1:-1 2:0.7972973 3:0.73109244 4:-0.68141593 5:0.3249513 6:0.22461332 7:0.12310731 8:-0.11410065 
2187 0 2187 2187 0 0 0 0 0 2187 0 0 0 0 0 0 0 0 0 0 0 0 0 0 0 2:0.067567568 3:0.025210084 4:-0.78761062 5:-0.66318399 6:-0.71822461 7:-0.7235023 8:-0.70403587 
0 0 2187 2187 0 0 0 0 0 0 0 0 0 0 0 0 0 0 0 0 0 0 0 0 0 2:0.47297297 3:0.44537815 4:-0.69026549 5:-0.14042855 6:-0.26832549 7:-0.33508887 8:-0.31539611 
2187 0 2187 2187 0 0 0 0 0 0 0 0 0 0 0 0 0 0 0 0 0 0 0 0 0 1:-1 2:0.41891892 3:0.39495798 4:-0.71681416 5:-0.15565787 6:-0.24478816 7:-0.19947334 8:-0.4778276 
0 0 2187 2187 0 0 0 0 0 0 0 0 0 0 0 0 0 0 0 0 0 0 0 0 0 2:0.45945946 3:0.49579832 4:-0.7079646 5:-0.061448557 6:-0.19435104 7:-0.20737327 8:-0.29546587 
2187 0 2187 0 0 0 0 0 0 0 0 0 0 0 0 0 0 0 0 0 0 0 0 0 0 1:1 2:0.32432432 3:0.36134454 4:-0.72566372 5:-0.38409775 6:-0.49630128 7:-0.43515471 8:-0.50473343 
1445.8162542231339 2187 2187 2187 0 0 0 0 0 0 0 0 0 0 0 0 0 0 0 0 0 0 0 0 0 1:-1 2:0.39189189 3:0.34453782 4:-0.72566372 5:-0.37418098 6:-0.4794889 7:-0.50625411 8:-0.45490782 
2187 0 2187 0 0 0 0 0 0 0 0 0 0 0 0 0 0 0 0 0 0 0 0 0 0 1:-1 2:0.40540541 3:0.32773109 4:-0.74336283 5:-0.32211794 6:-0.37861466 7:-0.45753785 8:-0.49775785 
2187 2187 2187 0 0 0 0 0 0 0 0 0 0 0 598.03994340003374 0 0 0 0 0 0 0 0 0 0 1:-1 2:0.040540541 3:0.042016807 4:-0.77876106 5:-0.67062157 6:-0.7464694 7:-0.75246873 8:-0.68809168 
2187 0 2187 2187 0 0 0 0 0 0 0 0 0 0 0 0 0 0 0 0 0 0 0 0 0 1:-1 2:0.37837838 3:0.41176471 4:-0.73451327 5:-0.24703382 6:-0.28648285 7:-0.47728769 8:-0.42800199 
0 0 2187 2187 0 0 0 0 0 0 0 0 0 0 0 0 0 0 0 0 0 0 0 0 0 1:-1 2:0.51351351 3:0.57983193 4:-0.67256637 5:-0.0051354702 6:-0.08137189 7:-0.21132324 8:-0.25660189 
2187 0 2187 0 2187 0 2187 0 2187 2187 0 0 0 0 0 0 0 0 0 0 0 0 0 0 0 1:1 2:-0.2027027 3:-0.21008403 4:-0.82300885 5:-0.8243315 6:-0.86348352 7:-0.86833443 8:-0.83358246 
2187 2187 2187 185.70691255323271 0 0 0 0 0 2187 0 0 0 0 0 0 0 0 0 0 0 0 0 0 0 2:0.21621622 3:0.21008403 4:-0.73451327 5:-0.50168231 6:-0.55884331 7:-0.61421988 8:-0.60637768 
2187 0 2187 2187 0 0 0 0 0 0 0 0 0 0 0 0 0 0 0 0 0 0 0 0 0 1:-1 3:0.0084033613 4:-0.80530973 5:-0.68868426 6:-0.75857431 7:-0.72876893 8:-0.70303936 
0 1688.1164706138768 0 2187 0 0 0 0 1218.6256935430918 0 0 0 0 0 0 0 0 0 0 0 0 0 0 0 5.8305369932338227 1:-1 2:0.72972973 3:0.71428571 4:-0.69026549 5:0.38161856 6:0.026899798 7:0.10072416 8:-0.17887394 
2187 0 2187 2187 0 0 0 0 0 0 0 0 0 0 0 0 0 0 0 0 0 0 0 0 0 1:-1 2:0.47297297 3:0.39495798 4:-0.74336283 5:-0.2318045 6:-0.31405514 7:-0.28637261 8:-0.49177877 
0 2187 2187 2187 0 0 0 0 2187 0 0 0 0 2187 2187 2187 0 229.02348173991018 0 0 0 0 0 0 0 1:-1 2:0.28378378 3:0.32773109 4:-0.73451327 5:-0.28280503 6:-0.4539341 7:-0.47070441 8:-0.42999502 
2187 654.79451141742538 2187 2187 0 0 0 0 0 791.9258487202095 0 0 0 0 0 0 0 0 0 0 0 0 0 0 0 1:-1 2:0.52702703 3:0.54621849 4:-0.85840708 5:-0.26332566 6:-0.30867518 7:-0.53917051 8:-0.65421026 
0 2187 1570.8906162030382 1197.9625038196368 0 0 0 0 681.51123417525162 0 0 112.42227619177898 0 0 845.93700747703042 0 0 0 0 0 266.91729738651765 0 0 0 0 1:-1 2:0.41891892 3:0.46218487 4:-0.62831858 5:0.40641048 6:0.35036987 7:0.10204082 8:-0.024414549 
0 2187 0 2187 0 0 0 0 2187 0 0 0 1150.2958226390897 2187 993.29134817058082 2187 2187 0 0 0 0 0 0 0 0 1:-1 2:0.58108108 3:0.59663866 4:-0.65486726 5:0.096865592 6:-0.12642905 7:-0.13364055 8:-0.016442451 
1714.5286963942488 2187 2187 2187 0 0 0 0 0 0 0 0 0 0 0 0 0 0 0 0 0 0 0 0 0 1:-1 2:0.44594595 3:0.41176471 4:-0.72566372 5:-0.17407473 6:-0.25622058 7:-0.37195523 8:-0.34628799 
0 2187 1215.8054852429436 2187 0 0 0 0 580.14428729257156 0 0 190.80334640044251 1339.3178396257474 165.20462853963636 1452.8153295234654 595.45496942186048 665.71215212081825 669.57689846141739 1146.9873304990474 0 0 0 0.762630180469696 0 0 2:0.7027027 3:0.69747899 4:-0.63716814 5:0.68514255 6:0.33221251 7:0.31665569 8:0.2406577 
2187 1966.9359361923787 2187 2187 0 0 2187 0 2187 2187 0 0 0 2187 2187 0 0 0 0 0 0 0 0 0 0 1:-1 2:0.18918919 3:0.17647059 4:-0.7699115 5:-0.48999469 6:-0.57094822 7:-0.65635286 8:-0.58445441 
0 0 2187 2187 0 0 0 0 0 0 0 0 0 0 0 0 0 0 0 0 0 0 0 0 0 1:-1 2:0.5 3:0.46218487 4:-0.7079646 5:-0.15105366 6:-0.22797579 7:-0.28242265 8:-0.41704036 
0 0 2187 2187 0 0 0 0 0 0 0 0 0 0 0 0 0 0 0 0 0 0 0 0 0 2:0.59459459 3:0.52941176 4:-0.69026549 5:-0.023552329 6:-0.093476799 7:-0.21527321 8:-0.3552566 
2187 0 2187 0 0 0 0 0 0 0 0 0 0 0 0 0 0 0 0 0 0 0 0 0 0 2:0.47297297 3:0.42857143 4:-0.69911504 5:-0.21905437 6:-0.28177539 7:-0.34298881 8:-0.43099153 
0 0 2187 2187 0 0 0 0 0 0 0 0 0 0 0 0 0 0 0 0 0 0 0 0 0 2:0.56756757 3:0.51260504 4:-0.69026549 5:-0.087302993 6:-0.16677875 7:-0.22053983 8:-0.35326358 
0 2187 2187 2187 0 0 0 0 2187 0 0 0 0 0 2187 0 0 0 0 0 0 0 0 0 0 1:-1 2:-0.013513514 3:-0.042016807 4:-0.81415929 5:-0.71666372 6:-0.82582381 7:-0.74983542 8:-0.67414051 
2187 2187 2187 0 2187 0 2187 0 0 2187 0 123.1167335009648 0 0 0 0 0 0 0 0 0 0 0 0 0 1:1 2:-0.13513514 3:-0.19327731 4:-0.82300885 5:-0.80910218 6:-0.82111634 7:-0.91573404 8:-0.83358246 
0 0 2187 2187 0 0 0 0 2187 0 0 0 0 0 551.9443516054431 0 0 0 0 0 0 0 0 0 0 2:0.59459459 3:0.49579832 4:-0.73451327 5:-0.11776164 6:-0.37928716 7:-0.22317314 8:-0.28649726 
0 2187 0 2187 0 0 0 0 0 0 0 0 0 0 0 0 0 0 0 0 0 0 0 0 0 2:0.7027027 3:0.61344538 4:-0.61061947 5:0.32034709 6:0.24815064 7:0.008558262 8:-0.12705531 
0 2187 2187 2187 0 0 0 0 0 0 0 0 0 0 0 0 0 0 0 0 0 0 0 0 0 2:0.58108108 3:0.59663866 4:-0.68141593 5:0.073490349 6:0.043039677 7:-0.20605662 8:-0.20378675 
2187 633.85587329089481 2187 2187 1200.9797503629845 0 2187 0 1896.0157687153294 2187 0 0 0 0 0 0 0 0 0 0 0 0 0 0 0 1:1 2:0.2027027 3:0.1092437 4:-0.79646018 5:-0.58987073 6:-0.65770007 7:-0.59052008 8:-0.71798705 
0 2187 0 0 0 0 0 0 0 0 0 0 0 0 0 0 0 0 0 0 0 0 0 0 0 1:-1 2:0.66216216 3:0.51260504 4:-0.6460177 5:0.32459713 6:0.199731 7:0.055957867 8:-0.046337818 
0 2187 2187 2187 0 0 0 0 0 0 0 0 0 0 0 0 769.96238092745523 0 0 0 0 0 0 0 0 1:-1 2:-0.22972973 3:-0.19327731 4:-0.7699115 5:-0.80556047 6:-0.88096839 7:-0.85121791 8:-0.80269058 
0 2187 2187 2187 0 0 0 0 2187 0 0 0 0 2187 2187 2187 0 805.68754041421562 227.25469694959364 0 0 0 0 0 0 1:-1 2:0.25675676 3:0.21008403 4:-0.69911504 5:-0.3787852 6:-0.54539341 7:-0.45358789 8:-0.49476831 
2187 2187 2187 2187 0 0 0 0 0 0 0 0 0 0 0 0 0 0 0 0 0 0 0 0 0 1:-1 2:0.40540541 3:0.37815126 4:-0.77876106 5:-0.43545245 6:-0.56489576 7:-0.47465438 8:-0.54459392 
0 2187 2187 2187 0 0 0 0 2187 0 0 0 0 0 2187 0 0 0 0 0 0 0 0 0 0 1:-1 2:0.31081081 3:0.29411765 4:-0.71681416 5:-0.38905614 6:-0.55682582 7:-0.45490454 8:-0.48480319 
2187 0 2187 0 0 0 0 0 0 2187 0 0 0 0 0 0 0 0 0 0 0 0 0 0 0 2:0.24324324 3:0.15966387 4:-0.73451327 5:-0.13440765 6:-0.17014122 7:-0.27715602 8:-0.42999502 
0 0 663.63875762699024 2187 0 0 0 0 500.5496298575178 0 0 0 0 0 0 0 0 0 0 0 0 0 0 0 0 1:-1 2:0.5 3:0.49579832 4:-0.67256637 5:-0.036656632 6:-0.22326833 7:-0.17840685 8:-0.23766816 
2187 0 2187 2187 0 0 0 0 0 0 0 0 0 0 0 0 0 0 0 0 0 0 0 0 0 2:0.51351351 3:0.51260504 4:-0.74336283 5:-0.19780414 6:-0.32212508 7:-0.30217248 8:-0.37518685 
0 0 1161.2204173102912 0 0 0 0 0 0 0 0 0 0 0 2187 0 0 0 0 0 0 0 0 0 0 1:1 2:0.47297297 3:0.32773109 4:-0.76106195 5:-0.34690986 6:-0.5198386 7:-0.40487163 8:-0.4120578 
0 2187 0 2187 0 0 0 2187 2187 0 0 1678.7897103912546 2187 2187 2187 2187 2187 2187 0 692.52438787710128 1118.4049563365711 0 0 0 0 1:-1 2:0.5 3:0.57983193 4:-0.65486726 5:-0.071011156 6:-0.33759247 7:-0.32587228 8:-0.076233184 
2187 0 2187 2187 0 0 0 0 2187 0 0 130.95288766698803 2187 979.6434695305594 2187 357.56395031717051 0 0 0 0 0 0 0 0 0 2:0.2027027 3:0.21008403 4:-0.74336283 5:-0.43155658 6:-0.55413584 7:-0.54707044 8:-0.43497758 
2187 2187 2187 2187 0 0 0 0 0 0 0 0 0 0 0 0 0 0 0 0 0 0 0 0 0 2:-0.081081081 3:-0.042016807 4:-0.7699115 5:-0.74110147 6:-0.80497646 7:-0.7682686 8:-0.76382661 
0 2187 2187 2187 0 0 0 0 0 0 0 0 0 0 0 0 0 0 0 0 0 0 0 0 0 2:0.58108108 3:0.54621849 4:-0.69911504 5:-0.05436515 6:-0.17417619 7:-0.17840685 8:-0.29048331 
0 2187 2187 427.37349096480926 0 0 0 0 0 0 0 0 0 0 0 0 0 0 0 0 0 0 0 0 0 1:-1 2:0.33783784 3:0.32773109 4:-0.74336283 5:-0.32849301 6:-0.46267653 7:-0.41277156 8:-0.43597409 
0 1936.5004922759624 0 2187 0 0 0 0 0 0 0 0 0 0 0 0 0 0 0 0 0 0 0 0 0 1:-1 2:0.7027027 3:0.69747899 4:-0.7079646 5:0.18505401 6:0.07061197 7:0.077024358 8:-0.22969606 
0 2187 2187 2187 0 0 0 740.72832184288734 2187 0 0 2187 2187 2187 2187 2187 2187 0 0 0 2187 0 0 0 0 2:0.27027027 3:0.21008403 4:-0.71681416 5:-0.45493182 6:-0.63550773 7:-0.61816985 8:-0.45191829 
0 2187 0 955.35501665361755 0 0 0 0 2187 0 0 590.60349191432283 2187 2187 2187 2187 2187 2187 0 0 0 0 0 0 0 1:-1 2:0.58108108 3:0.4789916 4:-0.65486726 5:0.15140783 6:-0.20242098 7:-0.054641211 8:-0.036372696 
2187 0 2187 0 0 0 0 0 0 0 0 0 0 0 0 0 0 0 0 0 0 0 0 0 0 1:1 2:0.39189189 3:0.41176471 4:-0.74336283 5:-0.31113866 6:-0.37256221 7:-0.4562212 8:-0.48679621 
1364.650662378684 2187 2187 1957.0724346908573 0 0 0 0 2187 0 0 0 0 0 2187 0 0 0 0 0 0 0 0 0 0 2:0.067567568 3:0.0084033613 4:-0.82300885 5:-0.66460067 6:-0.77605918 7:-0.78933509 8:-0.63428002 
0 0 0 2187 0 0 0 0 0 0 0 0 0 0 0 0 0 0 0 0 0 0 0 0 0 1:-1 2:0.55405405 3:0.54621849 4:-0.69026549 5:0.037010802 6:-0.090786819 7:-0.19947334 8:-0.20577977 
2187 2187 2187 2187 0 0 0 0 1994.0108363437057 0 0 0 0 0 2187 0 0 0 0 0 0 0 0 0 0 1:-1 2:0.28378378 3:0.29411765 4:-0.76106195 5:-0.3787852 6:-0.5063887 7:-0.44963792 8:-0.47483807 
2187 0 2187 2187 0 0 0 0 0 0 0 0 0 0 0 0 0 0 0 0 0 0 0 0 0 1:1 2:0.28378378 3:0.27731092 4:-0.75221239 5:-0.46768196 6:-0.5595158 7:-0.59183673 8:-0.53961136 
0 2187 0 2187 0 0 0 0 297.83246636345791 0 0 0 0 0 0 0 0 0 0 0 0 0 0 0 0 1:-1 2:0.64864865 3:0.61344538 4:-0.72566372 5:-0.020718966 6:-0.11163416 7:-0.43647136 8:-0.19083209 
2187 0 2187 0 0 0 0 0 0 0 0 0 0 0 0 0 0 0 0 0 0 0 0 0 0 1:1 2:0.35135135 3:0.32773109 4:-0.76106195 5:-0.42978573 6:-0.51513114 7:-0.53785385 8:-0.49676134 
1634.310690404194 0 0 0 2187 0 2187 0 0 2187 0 0 0 0 0 0 0 0 1.5602256546773383 0 0 0 0 0 0 2:-0.22972973 3:-0.29411765 4:-0.84070796 5:-0.84806092 6:-0.87222596 7:-0.90388413 8:-0.85650224 
428.99129775916862 2187 2187 2187 0 0 0 0 2187 0 0 0 0 1648.6859619077629 2187 256.55538825316847 796.30325481606417 0 619.48362733630563 0 0 0 0 0 0 1:-1 2:0.040540541 3:-0.042016807 4:-0.76106195 5:-0.65078803 6:-0.77874916 7:-0.69321922 8:-0.63428002 
2187 0 2187 2187 0 0 0 0 0 0 0 0 0 0 0 0 0 0 0 0 0 0 0 0 0 1:1 2:0.28378378 3:0.2605042 4:-0.74336283 5:-0.49707809 6:-0.59448554 7:-0.60105332 8:-0.55455904 
0 2187 0 2187 0 0 0 0 0 0 0 0 0 0 0 0 0 0 0 0 0 0 0 0 0 2:0.59459459 3:0.57983193 4:-0.62831858 5:0.16309545 6:0.098856759 7:-0.10730744 8:-0.1509716 
2187 0 2187 2187 0 0 0 0 2187 2187 0 0 0 0 0 0 0 0 0 0 0 0 0 0 0 2:-0.067567568 3:-0.075630252 4:-0.77876106 5:-0.67345493 6:-0.75117687 7:-0.7116524 8:-0.714001 
2187 0 2187 0 0 0 0 0 0 0 0 0 0 0 0 0 0 0 0 0 0 0 0 0 0 1:1 2:0.33783784 3:0.32773109 4:-0.74336283 5:-0.46945281 6:-0.62138534 7:-0.42330481 8:-0.56153463 
2187 1969.3026026032312 2187 1754.0004332154153 112.03173504531263 0 2187 0 1464.6903077976685 2187 0 0 0 935.07338179189151 1230.6660913615667 31.737469515414755 10.407951869422906 0 0 0 0 0 0 0 0 1:1 2:-0.054054054 3:0.092436975 4:-0.81415929 5:-0.77014344 6:-0.82851379 7:-0.79460171 8:-0.8036871 
2187 2187 2187 2187 0 0 0 0 0 0 0 0 0 0 0 0 0 0 0 0 0 0 0 0 0 1:1 2:0.28378378 3:0.24369748 4:-0.74336283 5:-0.37099345 6:-0.41963685 7:-0.55102041 8:-0.53263577 
582.58028542690715 0 0 355.155836187977 0 0 0 0 111.32523660939418 0 0 294.23737047853939 0 0 0 0 0 0 0 0 0 0 0 0 0 1:-1 2:0.7027027 3:0.71428571 4:-0.088495575 5:0.56401629 6:0.48823134 7:0.27978934 8:0.017438964 
2187 2187 2187 0 0 0 0 0 592.8803508611818 0 0 0 0 0 222.11548324223673 0 0 0 0 0 0 0 0 0 0 1:-1 2:0.37837838 3:0.36134454 4:-0.73451327 5:-0.14715778 6:-0.21990585 7:-0.4325214 8:-0.35924265 
2187 2187 2187 2187 0 0 0 0 0 2187 0 0 0 0 0 0 0 0 0 0 0 0 0 0 0 2:0.21621622 3:0.15966387 4:-0.76106195 5:-0.49566141 6:-0.5736382 7:-0.63791968 8:-0.58844046 
2187 2187 2187 0 0 0 0 0 0 0 0 0 0 0 0 0 0 0 0 0 0 0 0 0 0 2:0.45945946 3:0.41176471 4:-0.72566372 5:-0.29024261 6:-0.399462 7:-0.49308756 8:-0.42600897 
0 465.06844232238376 2187 2187 0 0 0 0 2106.917932082099 0 0 1574.6474419125393 0 0 2057.4794935535424 0 0 0 0 0 0 0 0 0 0 2:0.5 3:0.46218487 4:-0.69911504 5:-0.14042855 6:-0.37928716 7:-0.46280448 8:-0.38415546 
2187 2187 2187 2187 0 0 2187 0 0 2187 0 0 0 0 48.871399811233729 0 487.37625730273498 0 0 0 0 0 0 0 0 1:1 2:-0.081081081 3:-0.14285714 4:-0.80530973 5:-0.79139366 6:-0.83591123 7:-0.85121791 8:-0.80468361 
0 2187 0 2187 0 0 0 0 0 0 0 0 0 0 0 0 0 0 0 0 0 0 0 0 0 1:-1 2:0.67567568 3:0.69747899 4:-0.67256637 5:0.23109616 6:0.18897108 7:-0.023041475 8:-0.13104136 
2187 0 2187 2187 0 0 2187 0 0 2187 0 0 0 0 0 0 0 0 0 0 0 0 0 0 0 1:-1 2:-0.28378378 3:-0.29411765 4:-0.84955752 5:-0.87143616 6:-0.89778077 7:-0.88018433 8:-0.87344295 
2187 0 2187 2187 0 0 0 0 0 0 0 0 0 0 0 0 0 0 0 0 0 0 0 0 0 2:0.45945946 3:0.42857143 4:-0.7079646 5:-0.17867894 6:-0.31136516 7:-0.20868993 8:-0.39511709 
2187 0 2187 392.18115603636119 0 0 0 0 0 0 0 0 0 0 0 0 0 0 0 0 0 0 0 0 0 1:1 2:0.36486486 3:0.29411765 4:-0.74336283 5:-0.44147335 6:-0.52723605 7:-0.56813693 8:-0.52067763 
2187 0 2187 775.27280973266681 0 0 0 0 0 0 0 0 0 0 0 0 0 0 0 0 0 0 0 0 0 1:-1 2:0.43243243 3:0.41176471 4:-0.73451327 5:-0.18682486 6:-0.22797579 7:-0.39038841 8:-0.41106129 
0 2187 0 2187 0 0 0 0 0 0 0 0 0 0 0 0 0 0 0 0 0 0 0 0 0 1:-1 2:0.68918919 3:0.57983193 4:-0.69026549 5:0.24420046 6:0.17484869 7:-0.049374589 8:-0.066268062 
2187 0 2187 997.5527057856666 0 0 0 0 0 0 0 0 0 0 0 0 0 0 0 0 0 0 0 0 0 2:0.54054054 3:0.42857143 4:-0.69911504 5:-0.19780414 6:-0.29119032 7:-0.33245556 8:-0.39511709 
2187 0 2187 0 0 0 0 0 0 2187 0 0 0 0 0 0 0 0 0 0 0 0 0 0 0 1:-1 2:0.41891892 3:0.37815126 4:-0.72566372 5:-0.28138835 6:-0.31271015 7:-0.3522054 8:-0.55455904 
0 2187 0 2187 0 0 0 0 2187 0 0 0 0 2187 0 1662.112789480798 0 0 0 0 0 0 0 0 0 1:-1 2:0.45945946 3:0.4789916 4:-0.6460177 5:-0.13794935 6:-0.24277068 7:-0.40355497 8:-0.22869955 
2187 2187 2187 2187 0 0 0 0 0 0 0 0 0 0 0 0 0 0 0 0 0 0 0 0 0 1:-1 2:0.17567568 3:0.15966387 4:-0.75221239 5:-0.53993271 6:-0.67114997 7:-0.56287031 8:-0.63428002 
0 0 2187 2187 0 0 0 0 0 0 0 0 0 0 0 0 0 0 0 0 0 0 0 0 0 2:0.54054054 3:0.49579832 4:-0.71681416 5:-0.11846998 6:-0.26496301 7:-0.14022383 8:-0.40508221 
0 0 2187 2187 0 0 0 0 0 0 0 0 0 0 0 0 0 0 0 0 0 0 0 0 0 1:-1 2:0.54054054 3:0.59663866 4:-0.65486726 5:-0.016823092 6:-0.13180901 7:-0.22580645 8:-0.25859492 
2187 2187 2187 2187 0 0 1749.9458935777504 0 0 2187 0 0 0 0 0 0 0 0 0 0 0 0 0 0 0 1:1 2:0.2027027 3:0.15966387 4:-0.7699115 5:-0.58880822 6:-0.68796234 7:-0.64186965 8:-0.64424514 
2187 0 2187 2187 0 0 0 0 0 0 0 0 0 0 0 0 0 0 0 0 0 0 0 0 0 2:0.54054054 3:0.49579832 4:-0.72566372 5:-0.13688684 6:-0.17484869 7:-0.37985517 8:-0.36821126 
2187 0 2187 2187 0 0 0 0 0 0 0 0 0 0 0 0 0 0 0 0 0 0 0 0 0 2:0.71621622 3:0.49579832 4:-0.73451327 5:-0.068886134 6:-0.082044385 7:-0.2600395 8:-0.4449427 
0 1291.4311040307643 0 0 0 0 0 0 0 0 0 0 0 0 0 0 0 0 0 0 0 0 0 0 0 1:-1 2:0.72972973 3:0.61344538 4:-0.66371681 5:0.18540818 6:0.19435104 7:-0.17709019 8:-0.16591928 
2187 0 2187 2187 0 0 0 446.96623942461525 1610.7878486564616 2187 0 0 0 2187 1110.1046455538458 0 26.858634143441147 0 0 0 0 0 0 0 0 1:1 2:0.18918919 3:0.21008403 4:-0.76106195 5:-0.49672392 6:-0.61802286 7:-0.60105332 8:-0.51469856 
0 0 2047.63374289439 2187 0 0 0 0 0 0 0 0 0 0 0 0 0 0 0 0 0 0 0 0 0 1:1 2:0.52702703 3:0.46218487 4:-0.76106195 5:-0.2222419 6:-0.34498991 7:-0.34167215 8:-0.4200299 
0 0 2187 2187 0 0 0 0 0 0 0 0 0 0 0 0 0 0 0 0 0 0 0 0 0 1:-1 2:0.48648649 3:0.41176471 4:-0.69026549 5:-0.051885957 6:-0.11903161 7:-0.25608953 8:-0.33134031 
2187 2187 2187 2187 0 0 2187 0 2187 2187 0 0 0 0 819.94956963504205 0 744.60386566393618 0 0 0 0 0 0 0 0 1:1 2:0.067567568 3:0.058823529 4:-0.75221239 5:-0.64830884 6:-0.7195696 7:-0.67873601 8:-0.714001 
2187 0 2187 0 0 0 2187 0 0 2187 0 0 0 0 0 0 0 0 0 0 0 0 0 0 0 2:0.35135135 3:0.22689076 4:-0.76106195 5:-0.39436869 6:-0.38130464 7:-0.61421988 8:-0.57947185 
0 2187 0 2187 0 0 0 0 0 0 0 0 0 0 0 0 0 0 0 0 0 0 0 0 0 2:0.68918919 3:0.57983193 4:-0.66371681 5:0.13299097 6:-0.050437122 7:-0.040157999 8:-0.14598904 
2187 0 2187 84.263104294182028 0 0 0 0 2187 0 0 0 555.26551164146974 2187 2163.1345071512105 0 0 0 0 0 0 0 0 0 0 1:1 2:0.27027027 3:0.24369748 4:-0.75221239 5:-0.42447317 6:-0.59112307 7:-0.39302172 8:-0.51669158 
2187 0 2187 0 0 0 2187 0 0 2187 0 0 0 0 0 0 0 0 0 0 0 0 0 0 0 2:0.17567568 3:0.15966387 4:-0.75221239 5:-0.42447317 6:-0.38399462 7:-0.48387097 8:-0.61434978 
2187 0 2187 0 0 0 0 0 0 0 0 0 0 0 0 0 0 0 0 0 0 0 0 0 0 2:0.45945946 3:0.34453782 4:-0.74336283 5:-0.21126262 6:-0.32279758 7:-0.37458855 8:-0.37518685 
2187 0 2187 0 0 0 0 0 0 2187 0 0 0 0 0 0 0 0 0 0 0 0 0 0 0 1:-1 2:0.35135135 3:0.29411765 4:-0.67256637 5:-0.27536745 6:-0.31876261 7:-0.41013825 8:-0.50772297 
2187 0 2187 2187 0 0 0 0 0 0 0 0 0 0 0 0 0 284.9583429194945 0 0 0 0 0 0 0 1:1 2:0.31081081 3:0.29411765 4:-0.75221239 5:-0.41703559 6:-0.46065905 7:-0.63528637 8:-0.51469856 
93.620609054711778 2187 2187 2187 0 0 0 0 0 0 0 0 556.74894217018846 0 0 0 219.13442297528266 0 0 0 0 0 0 0 0 1:-1 2:0.37837838 3:0.37815126 4:-0.7079646 5:-0.37453515 6:-0.45998655 7:-0.57340355 8:-0.45690085 
2187 2187 2187 2187 0 0 0 0 0 0 0 0 0 0 0 0 0 0 0 0 0 0 0 0 0 1:-1 2:0.41891892 3:0.32773109 4:-0.71681416 5:-0.19249159 6:-0.27639543 7:-0.40882159 8:-0.39113104 
2187 2187 2187 2187 0 0 0 0 2187 0 0 0 2187 815.36707768042345 2187 2187 0 0 0 0 0 0 0 0 0 2:0.14864865 3:0.15966387 4:-0.77876106 5:-0.52859926 6:-0.65030262 7:-0.65503621 8:-0.56452417 
2187 2187 2187 1637.0338093398518 0 0 1084.439783951558 0 0 156.5575879326592 0 0 0 141.88763260227472 0 0 1281.4093486128031 0 0 0 0 0 0 0 0 2:0.5 3:0.4789916 4:-0.66371681 5:-0.17584558 6:-0.2804304 7:-0.4443713 8:-0.67912307 
2187 0 2187 2187 0 0 0 0 0 0 0 0 0 1283.1073759639396 1536.9903676881002 0 0 0 0 0 0 0 0 0 0 1:1 2:0.2972973 3:0.2605042 4:-0.72566372 5:-0.47759872 6:-0.57969065 7:-0.62343647 8:-0.4449427 
0 0 2187 2187 0 0 0 0 0 2187 0 0 0 0 0 0 0 0 0 0 0 0 0 0 0 1:-1 2:-0.28378378 3:-0.2605042 4:-0.84070796 5:-0.85514432 6:-0.90383322 7:-0.88808427 8:-0.86347783 
2187 0 2187 0 0 0 0 0 1571.1613053364561 71.531193495957069 0 0 0 0 0 0 0 0 0 0 0 0 0 0 0 1:-1 2:0.37837838 3:0.39495798 4:-0.7079646 5:-0.0033646184 6:0.07464694 7:-0.39828835 8:-0.41504733 
2187 0 2187 2187 0 0 0 0 0 2187 0 0 0 0 0 0 0 0 0 0 0 0 0 0 0 1:-1 2:0.17567568 3:0.12605042 4:-0.77876106 5:-0.536391 6:-0.64895763 7:-0.51810402 8:-0.65421026 
2187 148.05635377144111 2187 2187 2187 1655.8586843648559 2187 0 1860.3679311091898 2187 0 0 0 0 0 0 0 0 0 0 0 0 0 0 0 1:1 2:-0.17567568 3:-0.2605042 4:-0.82300885 5:-0.84168585 6:-0.8937458 7:-0.8722844 8:-0.83358246 
0 0 2187 2187 0 0 0 0 0 0 0 0 0 0 0 0 0 0 0 0 0 0 0 0 0 2:0.48648649 3:0.44537815 4:-0.69026549 5:-0.036656632 6:-0.091459314 7:-0.31270573 8:-0.26457399 
2187 0 2187 241.28710546029956 0 0 0 0 0 0 0 0 0 0 0 0 0 0 0 0 0 0 0 0 0 2:0.44594595 3:0.36134454 4:-0.74336283 5:-0.2091376 6:-0.35843981 7:-0.22580645 8:-0.40807175 
2187 0 2187 2187 0 0 0 0 2187 0 0 0 0 0 0 0 0 0 0 0 0 0 0 0 0 1:1 2:0.28378378 3:0.27731092 4:-0.75221239 5:-0.43509828 6:-0.60457297 7:-0.49967084 8:-0.52864973 
0 2187 2187 2187 0 0 0 0 2187 0 0 1618.7255586900503 0 861.94336113676468 0 813.81754034739481 0 780.61151394598335 31.362321746941841 0 0 0 0 0 0 1:-1 2:0.31081081 3:0.24369748 4:-0.76106195 5:-0.40003542 6:-0.56220578 7:-0.41935484 8:-0.47583458 
2187 0 2187 0 0 0 0 0 0 0 0 0 0 0 0 0 0 0 0 0 0 0 0 0 0 1:-1 2:0.37837838 3:0.36134454 4:-0.7079646 5:-0.2126793 6:-0.21788837 7:-0.38380513 8:-0.45690085 
0 2187 0 2187 0 0 0 0 2187 0 0 626.73458952998942 0 0 966.39287461903814 0 0 0 0 0 0 0 0 0 0 1:-1 2:0.68918919 3:0.71428571 4:-0.69026549 5:0.31361785 6:0.13449899 7:0.034891376 8:0.073243647 
0 0 2187 2187 0 0 0 0 0 0 0 0 0 0 0 0 0 0 0 0 0 0 0 0 0 2:0.56756757 3:0.52941176 4:-0.69026549 5:0.16911634 6:0.14391392 7:-0.11520737 8:-0.1998007 
0 2187 2187 2187 0 0 0 0 0 0 0 0 0 0 0 0 0 0 0 0 0 0 0 0 0 2:0.59459459 3:0.54621849 4:-0.68141593 5:-0.017531433 6:-0.20174849 7:-0.14812377 8:-0.21574489 
0 2187 0 2187 0 0 0 1627.2725423220759 2187 0 0 2187 2187 2187 2187 2187 1289.6447226945622 1955.1839221038845 1701.2591803149633 0 1635.7837646193743 0 181.12852353494134 0 0 2:0.18918919 3:0.14285714 4:-0.7079646 5:-0.46555693 6:-0.74512441 7:-0.55365372 8:-0.36422521 
2187 0 2187 0 0 0 1012.8986683107394 799.08912684415338 0 2187 0 0 0 0 0 0 840.65295476884137 0 195.1090823444016 0 0 0 0 0 0 2:0.081081081 3:0.075630252 4:-0.77876106 5:-0.59164158 6:-0.62811029 7:-0.77748519 8:-0.69407075 
0 2187 0 2187 0 0 0 1655.1648936386357 2187 0 0 127.70357682039767 2187 2187 0 0 2187 0 0 0 0 0 0 0 0 1:-1 2:0.59459459 3:0.57983193 4:-0.72566372 5:-0.039844165 6:-0.28513786 7:-0.19947334 8:-0.10911809 
2187 2187 2187 2187 0 0 0 0 2187 0 0 0 0 0 2187 0 0 0 0 0 0 0 0 0 0 1:-1 2:0.24324324 3:0.22689076 4:-0.74336283 5:-0.44111918 6:-0.55749832 7:-0.5036208 8:-0.50473343 
2187 2187 2187 0 0 0 0 3.7539462473871552 408.51982397555042 0 0 0 0 0 0 0 288.94467605385296 0 0 0 0 0 0 0 0 1:-1 2:-0.12162162 3:-0.12605042 4:-0.81415929 5:-0.7981229 6:-0.84868863 7:-0.90388413 8:-0.77777778 
2187 0 2187 2187 0 0 2187 0 0 2187 0 0 0 1328.0855984644868 0 0 0 0 0 0 0 0 0 0 0 1:-1 2:0.10810811 3:0.0084033613 4:-0.78761062 5:-0.61395431 6:-0.71217216 7:-0.57603687 8:-0.72396612 
0 2187 0 2187 0 0 0 0 2187 0 0 0 2187 2187 2187 2187 2112.3896419623175 0 0 0 0 0 0 0 0 1:-1 2:0.35135135 3:0.39495798 4:-0.67256637 5:-0.30370108 6:-0.49764627 7:-0.42857143 8:-0.29546587 
2187 2187 2187 2187 0 0 0 0 0 0 0 0 0 0 0 0 0 0 0 0 0 0 0 0 0 2:0.40540541 3:0.37815126 4:-0.73451327 5:-0.30724278 6:-0.44788164 7:-0.48518762 8:-0.55356253 
2187 0 2187 0 0 0 0 0 0 2187 0 0 0 0 0 0 0 0 0 0 0 0 0 0 0 1:-1 2:-0.040540541 3:-0.0084033613 4:-0.80530973 5:-0.71383035 6:-0.77605918 7:-0.78801843 8:-0.73393124 
2187 0 2187 0 0 0 0 0 0 0 0 0 0 0 0 0 0 0 0 0 0 0 0 0 0 2:0.33783784 3:0.39495798 4:-0.75221239 5:-0.38445192 6:-0.48352387 7:-0.44568795 8:-0.54160438 
0 1011.4473781283739 760.60149821040136 413.41221736398035 0 0 0 0 1697.9153612047601 0 0 91.082806367203048 0 0 0 0 0 0 0 0 0 0 0 0 0 1:-1 2:0.74324324 3:0.66386555 4:-0.63716814 5:0.53214096 6:0.48554136 7:0.38117182 8:-0.19780767 
2187 0 2187 2187 0 0 2187 130.81007687940576 1770.7957876651592 2187 0 0 0 0 2037.4314420416185 0 1177.592289634362 98.067620788932118 0 0 0 0 0 0 0 1:1 2:0.054054054 3:-0.092436975 4:-0.75221239 5:-0.46201523 6:-0.51445864 7:-0.59710336 8:-0.58644743 
45.170426186196529 2187 2187 0 0 0 0 0 2187 0 0 0 0 0 2187 0 0 0 0 0 0 0 0 0 0 1:-1 2:0.28378378 3:0.27731092 4:-0.75221239 5:-0.46130689 6:-0.56153329 7:-0.55760369 8:-0.48679621 
0 2187 2187 2187 0 0 0 0 0 0 0 0 0 0 0 0 0 0 0 0 0 0 0 0 0 2:0.71621622 3:0.6302521 4:-0.63716814 5:0.11811581 6:0.07733692 7:-0.24555629 8:-0.13602392 
0 2187 289.9189876925592 2187 0 0 0 0 2187 0 0 0 2187 2187 2187 2187 0 613.57091986757598 0 567.44686217595643 0 0 0 0 0 1:-1 2:0.28378378 3:0.36134454 4:-0.69026549 5:-0.3858686 6:-0.57700067 7:-0.52073733 8:-0.36522172 
2187 0 2187 0 0 0 0 0 0 2187 0 0 0 0 0 0 0 0 0 0 0 0 0 0 0 1:1 2:0.33783784 3:0.29411765 4:-0.7699115 5:-0.45847353 6:-0.53463349 7:-0.53127057 8:-0.6003986 
2187 0 2187 185.53556292843953 0 0 0 0 0 2187 0 0 0 0 0 0 0 0 0 0 0 0 0 0 0 1:1 2:0.22972973 3:0.2605042 4:-0.76106195 5:-0.55834957 6:-0.67182246 7:-0.61816985 8:-0.57747882 
2187 2187 2187 2187 0 0 2106.4960167624818 377.87493593234069 0 2187 0 0 0 2187 0 0 0 0 0 0 0 0 0 0 0 1:-1 3:-0.025210084 4:-0.84070796 5:-0.73260138 6:-0.80901143 7:-0.80645161 8:-0.75386148 
0 0 2187 2187 0 0 0 0 0 0 0 0 0 0 0 0 0 0 0 0 0 0 0 0 0 1:-1 2:0.39189189 3:0.46218487 4:-0.7079646 5:-0.14644944 6:-0.24949563 7:-0.38248848 8:-0.38714499 
0 2187 2187 2187 0 0 0 0 578.96592685033079 0 0 134.12802789935679 0 954.10304673778217 2187 0 0 0 0 0 0 0 0 0 0 2:0.36486486 3:0.49579832 4:-0.7079646 5:-0.34620152 6:-0.50369872 7:-0.51415405 8:-0.4040857 
0 2187 2187 2187 0 0 0 0 2187 0 0 0 0 0 2187 0 0 0 0 0 0 0 0 0 0 2:0.48648649 3:0.4789916 4:-0.7079646 5:-0.1074907 6:-0.3194351 7:-0.16392363 8:-0.22571001 
2187 0 2187 0 0 0 0 0 0 2187 0 0 0 0 0 0 0 0 0 0 0 0 0 0 0 1:-1 2:0.36486486 3:0.34453782 4:-0.76106195 5:-0.43793165 6:-0.45662408 7:-0.56155365 8:-0.59641256 
2187 0 2187 0 0 0 0 0 0 0 0 0 0 0 0 0 0 0 0 0 0 0 0 0 0 2:0.36486486 3:0.34453782 4:-0.78761062 5:-0.24101293 6:-0.35709482 7:-0.28110599 8:-0.47483807 
0 466.39766972795633 2187 2187 0 0 0 0 0 0 0 0 2078.4831386345913 0 2187 0 0 0 0 0 0 0 0 0 0 1:1 2:0.44594595 3:0.41176471 4:-0.73451327 5:-0.31680538 6:-0.44384667 7:-0.47465438 8:-0.31539611 
0 2187 2187 2187 0 0 0 0 2187 0 0 0 0 2187 0 0 0 0 0 0 0 0 0 0 0 1:-1 2:0.44594595 3:0.42857143 4:-0.69911504 5:-0.19603329 6:-0.38735709 7:-0.23765635 8:-0.31141006 
0 0 0 0 29.041801432836436 0 0 0 0 2187 0 0 0 0 0 0 0 0 0 0 0 0 0 0 0 2:-0.27027027 3:-0.31092437 4:-0.84070796 5:-0.85479015 6:-0.89710827 7:-0.88676761 8:-0.85052317 
2187 0 2187 0 0 0 0 0 0 577.13744720343038 0 0 0 0 0 0 0 0 0 0 0 0 0 0 0 1:-1 2:0.36486486 3:0.2605042 4:-0.7699115 5:-0.43616079 6:-0.51042367 7:-0.54575379 8:-0.54758346 
2187 2187 2187 0 0 0 0 0 0 0 0 0 0 0 0 0 0 0 0 0 0 0 0 0 0 1:-1 2:0.040540541 3:0.0084033613 4:-0.75221239 5:-0.65362139 6:-0.72293208 7:-0.69848585 8:-0.65620329 
2187 0 2187 0 0 0 0 0 0 0 0 0 0 0 0 0 0 0 0 0 0 0 0 0 0 1:-1 2:0.27027027 3:0.24369748 4:-0.76106195 5:-0.40322295 6:-0.49966375 7:-0.44832126 8:-0.5346288 
2187 0 2187 1769.8878252886584 0 0 0 0 0 0 0 0 0 0 0 0 0 0 0 0 0 0 0 0 0 1:-1 2:0.5 3:0.44537815 4:-0.7079646 5:-0.12803258 6:-0.11835911 7:-0.39170507 8:-0.39810663 
0 2187 0 2187 0 0 0 0 2187 0 0 1210.8079585464156 2187 2187 2187 2187 1200.0568026967053 2187 0 0 0 0 0 0 0 2:0.51351351 3:0.54621849 4:-0.66371681 5:-0.029927395 6:-0.3201076 7:-0.19815668 8:-0.10612855 
0 1000.7214587389071 2187 2187 0 0 0 0 0 0 0 0 0 0 0 0 0 0 0 0 0 0 0 0 0 2:0.60810811 3:0.66386555 4:-0.72566372 5:0.10784487 6:0.15265636 7:-0.10862409 8:-0.29745889 
2187 733.47650109852668 2187 2145.4812816206158 0 0 0 495.70457657167395 0 2187 0 0 0 0 0 0 0 0 0 0 0 0 0 0 0 1:-1 2:0.013513514 3:-0.058823529 4:-0.77876106 5:-0.75420577 6:-0.84129119 7:-0.7235023 8:-0.77379173 
0 2048.2268202912483 0 2187 0 0 0 380.26576040299983 494.30249227653366 0 0 0 775.12674021556222 241.38519849768824 213.32723205539625 1008.5743778845367 624.70081537757619 198.16632968025857 0 0 556.58692306394903 0 0 0 517.71442204544246 2:0.77027027 3:0.68067227 4:-0.68141593 5:0.19532495 6:-0.1197041 7:-0.48387097 8:-0.019431988 
2187 2187 2187 2187 0 0 0 0 2187 2187 0 0 0 2187 2187 0 701.4511440529883 0 0 0 0 0 0 0 0 1:1 2:0.18918919 3:0.075630252 4:-0.75221239 5:-0.54064105 6:-0.66577001 7:-0.63001975 8:-0.56153463 
0 0 926.2864753769644 2187 0 0 0 0 0 0 0 0 0 0 0 0 0 0 0 0 0 0 0 0 0 1:-1 2:0.63513514 3:0.6302521 4:-0.72566372 5:0.085177971 6:-0.098856759 7:-0.0032916392 8:-0.23766816 
0 498.94215546881099 0 2187 0 0 0 0 2187 0 0 605.72092686172084 1592.238559264282 2187 2187 0 152.09593976471302 2187 0 0 0 0 0 0 0 1:-1 2:0.52702703 3:0.57983193 4:-0.68141593 5:-0.071011156 6:-0.3470074 7:-0.21263989 8:-0.19083209 
2187 0 2187 536.09762864222671 0 0 0 0 0 0 0 0 0 0 2187 1145.3604843379715 0 0 0 0 0 0 0 0 0 2:0.31081081 3:0.32773109 4:-0.71681416 5:-0.27642996 6:-0.42434432 7:-0.2955892 8:-0.40508221 
0 2041.4156135785202 2187 1442.7433615107857 0 0 0 0 0 0 0 0 0 0 0 0 0 0 0 0 0 0 0 0 0 1:-1 2:0.45945946 3:0.34453782 4:-0.73451327 5:-0.34018063 6:-0.48755884 7:-0.35088874 8:-0.48181365 
0 0 2187 2187 0 0 0 0 0 0 0 0 0 0 0 0 0 0 0 0 0 0 0 0 0 1:-1 2:0.47297297 3:0.41176471 4:-0.65486726 5:-0.039135824 6:-0.20309348 7:-0.11520737 8:-0.25660189 
0 2187 2187 2187 0 0 0 0 2187 0 0 0 2187 2187 2187 0 0 1944.9008795196949 0 0 0 0 0 0 0 2:0.52702703 3:0.54621849 4:-0.7079646 5:-0.072427838 6:-0.33624748 7:-0.3285056 8:-0.18584953 
2187 478.51192507787863 2187 2187 0 0 0 0 0 1041.5135552420675 0 0 0 0 0 0 0 0 0 0 0 0 0 0 0 2:0.054054054 3:0.025210084 4:-0.78761062 5:-0.66389233 6:-0.74310693 7:-0.70506912 8:-0.68410563 
2187 0 2187 2187 0 0 0 0 2187 1397.8085000636524 0 0 0 2187 2187 0 2187 74.110859381034871 0 0 0 0 0 0 0 1:1 2:0.18918919 3:0.22689076 4:-0.73451327 5:-0.52505755 6:-0.65770007 7:-0.64976959 8:-0.5346288 
0 995.16901319714327 2187 0 0 0 0 0 2187 0 0 0 0 708.05794600470654 2187 0 0 0 0 0 0 0 0 0 0 1:-1 2:0.2972973 3:0.17647059 4:-0.66371681 5:-0.0054896405 6:-0.17888366 7:-0.10072416 8:-0.22770304 
0 0 832.48278671390665 2187 0 0 0 0 0 0 0 0 0 0 0 0 0 0 0 0 0 0 0 0 0 1:-1 2:0.64864865 3:0.56302521 4:-0.7079646 5:0.07455286 6:-0.061197041 7:-0.030941409 8:-0.20577977 
0 2187 0 2187 0 0 0 0 2187 0 0 0 0 0 0 0 0 0 0 0 0 0 0 0 0 2:0.56756757 3:0.57983193 4:-0.66371681 5:-0.038427484 6:-0.24277068 7:-0.15470704 8:-0.20876931 
2187 2187 2187 2187 0 0 210.25725580247632 0 2187 0 0 59.823545226221462 2187 2187 2187 2187 842.75578775308645 0 0 0 0 0 0 0 0 1:-1 2:0.33783784 3:0.32773109 4:-0.72566372 5:-0.15601204 6:-0.31136516 7:-0.44832126 8:-0.31938216 
0 0 2187 2187 0 0 0 0 0 0 0 0 0 0 2187 0 0 0 0 0 0 0 0 0 0 2:0.48648649 3:0.41176471 4:-0.69026549 5:-0.19142908 6:-0.36180229 7:-0.34957209 8:-0.30742402 
0 243.78758590468126 0 0 0 0 0 0 2187 0 0 843.28709093405746 0 855.27480900689227 2187 1002.7264624936871 1071.3038174200574 72.480150284256439 0 0 95.933155416647864 0 0 0 0 1:-1 2:0.55405405 3:0.44537815 4:-0.71681416 5:0.23074199 6:-0.23268325 7:-0.26793943 8:-0.39013453 
0 0 2187 2187 0 0 0 0 0 0 0 0 0 0 0 0 0 0 0 0 0 0 0 0 0 1:1 2:0.37837838 3:0.41176471 4:-0.71681416 5:-0.25730476 6:-0.35574983 7:-0.38512179 8:-0.43497758 
0 2187 2187 2187 0 0 0 0 2187 0 0 0 0 2187 0 0 0 0 0 0 0 0 0 0 0 1:-1 2:0.47297297 3:0.52941176 4:-0.69026549 5:-0.093678059 6:-0.23268325 7:-0.37327189 8:-0.22571001 
2187 0 2187 0 0 0 0 0 0 2187 0 0 0 0 0 0 0 0 0 0 0 0 0 0 0 1:-1 2:0.067567568 3:0.042016807 4:-0.76106195 5:-0.63166283 6:-0.67921991 7:-0.59973667 8:-0.714001 
0 2187 2187 2187 0 0 0 0 0 0 0 0 0 0 0 0 0 0 0 0 0 0 0 0 0 2:0.51351351 3:0.49579832 4:-0.73451327 5:-0.026739862 6:-0.12777404 7:-0.050691244 8:-0.38515197 
0 0 2187 2187 0 0 0 0 0 0 0 0 0 0 0 0 0 0 0 0 0 0 0 0 0 1:-1 2:0.52702703 3:0.51260504 4:-0.72566372 5:-0.007968833 6:-0.053127102 7:-0.30217248 8:-0.33532636 
0 2187 2187 438.95512359549161 0 0 0 0 2187 0 0 0 2187 2187 2187 554.01087564034356 1444.8361329987001 2187 0 0 0 0 907.33556688920794 0 0 2:0.27027027 3:0.21008403 4:-0.6460177 5:-0.039489995 6:-0.23873571 7:-0.16392363 8:-0.1998007 
0 2187 180.33834985565801 2187 0 0 0 0 801.14143077583651 0 0 0 0 0 0 0 0 0 0 0 0 0 0 0 0 2:0.54054054 3:0.52941176 4:-0.66371681 5:-0.035948291 6:-0.23066577 7:-0.048057933 8:-0.28550075 
0 0 1780.1833878068833 0 0 0 0 0 1449.8814864965261 409.52819455445211 0 0 0 0 0 0 0 0 0 0 0 0 0 0 0 2:-0.17567568 3:-0.092436975 4:-0.80530973 5:-0.78147689 6:-0.8399462 7:-0.80645161 8:-0.79372197 
2187 0 2187 0 0 0 0 0 0 0 0 0 0 0 0 0 0 0 0 0 0 0 0 0 0 1:1 2:0.35135135 3:0.27731092 4:-0.7699115 5:-0.43120241 6:-0.57700067 7:-0.43383805 8:-0.51469856 
624.33156935400632 0 2187 373.7494658291422 0 0 0 0 2187 0 0 0 0 0 0 0 0 0 0 0 0 0 0 0 0 1:1 2:0.37837838 3:0.36134454 4:-0.74336283 5:-0.40180627 6:-0.54539341 7:-0.56155365 8:-0.41504733 
2187 2187 2187 0 0 0 0 0 0 0 0 0 0 0 0 0 0 0 0 0 0 0 0 0 0 2:0.41891892 3:0.34453782 4:-0.74336283 5:-0.37134762 6:-0.43779422 7:-0.54970375 8:-0.46686597 
0 1459.1684413959388 2187 2187 0 0 0 0 406.73997257635972 0 0 0 0 0 0 0 0 0 0 0 0 0 0 0 0 2:0.60810811 3:0.51260504 4:-0.69026549 5:-0.28280503 6:-0.4129119 7:-0.28768927 8:-0.25660189 
2187 0 2187 1057.9486142676421 0 0 0 0 0 0 0 0 0 0 0 0 0 0 0 0 0 0 0 0 0 1:1 2:0.35135135 3:0.32773109 4:-0.76106195 5:-0.38409775 6:-0.39609953 7:-0.57472021 8:-0.55455904 
2187 0 2187 2187 0 0 0 0 0 0 0 0 0 0 0 0 0 0 0 0 0 0 0 0 0 1:-1 2:0.44594595 3:0.41176471 4:-0.72566372 5:-0.30511776 6:-0.38735709 7:-0.40092166 8:-0.47284504 
0 2187 2187 2187 0 0 0 0 2187 0 0 2187 2187 2187 2187 2187 2187 1.0806303470012755 890.33310462715622 0 1156.0054562727353 0 0 0 0 2:0.36486486 3:0.36134454 4:-0.67256637 5:-0.28103418 6:-0.52858104 7:-0.47465438 8:-0.36522172 
2187 0 2187 322.01679878163179 0 0 0 0 0 0 0 0 0 0 0 0 0 0 0 0 0 0 0 0 0 1:-1 2:0.44594595 3:0.32773109 4:-0.73451327 5:-0.38445192 6:-0.4539341 7:-0.51810402 8:-0.50473343 
2187 0 2187 0 0 0 0 0 0 0 0 0 0 0 0 0 0 0 0 0 0 0 0 0 0 2:0.44594595 3:0.37815126 4:-0.71681416 5:-0.24172127 6:-0.35104237 7:-0.33903884 8:-0.4449427 
2187 2187 2187 2187 0 0 0 0 2187 0 0 0 0 1652.5854116204616 2187 0 0 0 0 0 0 0 0 0 0 1:-1 2:0.10810811 3:0.058823529 4:-0.75221239 5:-0.59589162 6:-0.72696705 7:-0.62870309 8:-0.65421026 
2187 0 2187 2187 0 0 0 0 0 1263.1346145569128 0 0 0 0 0 0 0 0 0 0 0 0 0 0 0 2:0.12162162 3:0.092436975 4:-0.77876106 5:-0.61253763 6:-0.67182246 7:-0.71823568 8:-0.65620329 
0 0 2187 2187 0 0 0 0 0 0 0 0 0 0 0 0 0 0 0 0 0 0 0 0 0 2:0.45945946 3:0.56302521 4:-0.73451327 5:-0.049760935 6:-0.15534633 7:-0.31533904 8:-0.31539611 
2187 2187 2187 2187 0 0 0 0 2187 0 0 0 0 0 0 0 0 0 0 0 0 0 0 0 0 2:0.12162162 3:0.058823529 4:-0.75221239 5:-0.58703736 6:-0.67451244 7:-0.69848585 8:-0.61434978 
0 2187 2187 2187 0 0 0 0 2187 0 0 413.49967445657632 2095.5973301852982 2187 2187 2187 2187 0 0 0 0 0 0 0 0 1:-1 2:0.45945946 3:0.39495798 4:-0.7079646 5:-0.20240836 6:-0.40080699 7:-0.42330481 8:-0.32536124 
2187 0 2187 0 0 0 0 0 0 2187 0 0 0 0 0 0 0 0 0 0 0 0 0 0 0 2:-0.16216216 3:-0.12605042 4:-0.80530973 5:-0.79883124 6:-0.83658373 7:-0.83410138 8:-0.836572 
2187 0 2187 0 0 0 0 0 0 0 0 0 0 0 0 0 0 0 0 0 0 0 0 0 0 2:0.39189189 3:0.34453782 4:-0.73451327 5:-0.31007615 6:-0.37592468 7:-0.46017117 8:-0.45191829 
0 0 2187 2187 0 0 0 0 0 0 0 0 0 0 0 0 0 0 0 0 0 0 0 0 0 2:0.52702703 3:0.51260504 4:-0.7079646 5:-0.13476182 6:-0.29993275 7:-0.29163924 8:-0.28550075 
2187 0 2187 0 0 0 0 0 0 1960.5684249939045 0 0 0 0 0 0 0 0 0 0 0 0 0 0 0 1:-1 2:0.040540541 3:0.092436975 4:-0.76106195 5:-0.65999646 6:-0.72293208 7:-0.67873601 8:-0.714001 
0 0 2187 2187 0 0 0 0 0 0 0 0 0 0 0 0 0 0 0 0 0 0 0 0 0 2:0.48648649 3:0.46218487 4:-0.72566372 5:-0.059323535 6:-0.10356422 7:-0.31928901 8:-0.34529148 
2187 887.54303884219962 2187 2187 0 0 0 0 0 0 0 0 0 0 0 0 1428.7533623523495 535.61830211987092 0 0 0 0 0 0 0 1:1 2:0.27027027 3:0.2605042 4:-0.73451327 5:-0.48539047 6:-0.59515804 7:-0.65503621 8:-0.49576482 
0 2187 0 2187 0 0 0 0 550.9633764874601 0 0 0 0 0 334.44253238879617 0 905.32291493658977 0 674.90504396973733 0 0 0 0 0 0 2:0.74324324 3:0.66386555 4:-0.6460177 5:0.41278555 6:0.2138534 7:0.23370639 8:0.036372696 
0 0 2187 2187 0 0 0 0 0 0 0 0 0 0 0 0 0 0 0 0 0 0 0 0 0 1:-1 2:0.43243243 3:0.39495798 4:-0.68141593 5:-0.21126262 6:-0.35709482 7:-0.32587228 8:-0.3632287 
2187 2187 2187 2187 0 0 0 0 2187 0 0 0 0 2187 2187 2187 0 0 869.87710620412577 0 0 0 0 0 0 2:0.33783784 3:0.37815126 4:-0.71681416 5:-0.36851426 6:-0.57834566 7:-0.32323897 8:-0.47882412 
2187 2187 2187 0 0 0 0 0 0 0 0 0 0 0 0 0 0 0 0 0 0 0 0 0 0 2:0.33783784 3:0.27731092 4:-0.73451327 5:-0.41384806 6:-0.4801614 7:-0.59052008 8:-0.51469856 
2187 2187 2187 2187 0 0 0 272.72393263237336 2187 0 0 0 300.64955329906115 0 0 1366.1863240683379 2187 449.42368065484817 592.40946330743964 0 569.34612229473635 0 0 0 0 2:0.25675676 3:0.1092437 4:-0.75221239 5:-0.45918187 6:-0.56220578 7:-0.69585253 8:-0.53163926 
2187 0 2187 21.186197905470241 0 0 19.52614741849413 0 0 2187 0 0 0 0 0 0 0 0 0 0 0 0 0 0 0 2:-0.13513514 3:-0.19327731 4:-0.83185841 5:-0.84239419 6:-0.89643578 7:-0.85911784 8:-0.84354758 
2187 2187 2187 2187 0 0 0 0 0 0 0 0 0 2187 196.88515854360259 533.84611686712549 0 0 0 0 0 0 0 0 0 2:0.24324324 3:0.17647059 4:-0.74336283 5:-0.51655746 6:-0.63483524 7:-0.55102041 8:-0.59441953 
0 2187 0 2187 0 0 0 0 0 0 0 0 0 0 0 0 0 0 0 0 0 0 0 0 0 1:-1 2:0.74324324 3:0.73109244 4:-0.6460177 5:0.29307597 6:0.23470074 7:-0.037524687 8:-0.036372696 
2187 0 2187 0 0 0 0 0 0 0 0 0 0 0 0 0 0 0 0 0 0 0 0 0 0 2:0.45945946 3:0.36134454 4:-0.73451327 5:-0.27430494 6:-0.33759247 7:-0.47202107 8:-0.45590433 
2187 0 2187 2187 0 0 0 0 0 0 0 0 0 0 0 0 0 0 0 0 0 0 0 0 0 2:0.51351351 3:0.41176471 4:-0.73451327 5:-0.16238711 6:-0.28446537 7:-0.19289006 8:-0.42301943 
0 956.10288928691739 2187 0 0 0 0 0 0 0 0 0 22.106408484897916 0 2187 0 0 153.50074287567048 0 0 0 0 0 0 0 2:0.36486486 3:0.2605042 4:-0.69911504 5:0.046927572 6:-0.12239408 7:-0.14812377 8:-0.17488789 
0 2187 2187 2187 0 0 0 0 0 0 0 0 0 0 0 0 112.96782487917763 0 0 390.25012073369862 0 0 0 0 0 1:-1 2:0.51351351 3:0.46218487 4:-0.71681416 5:-0.22153356 6:-0.28312038 7:-0.51020408 8:-0.3143996 
0 2187 2187 2187 0 0 0 0 2187 0 0 0 0 2187 2187 0 0 0 0 62.282944399554381 0 0 0 0 0 1:-1 2:0.41891892 3:0.41176471 4:-0.73451327 5:-0.30015938 6:-0.48217888 7:-0.42330481 8:-0.38415546 
0 2187 0 2187 0 0 0 2187 2187 0 0 2187 2187 2187 2187 2187 2187 2187 0 0 457.53498350147714 0 0 0 0 2:0.55405405 3:0.64705882 4:-0.69026549 5:0.078448734 6:-0.20780094 7:-0.14285714 8:-0.016442451 
0 0 2187 2187 0 0 0 0 0 0 0 0 0 0 0 0 0 0 0 0 0 0 0 0 0 1:-1 2:0.5 3:0.49579832 4:-0.69026549 5:-0.10571985 6:-0.24344317 7:-0.19420671 8:-0.32037867 
2187 2187 2187 2187 0 0 0 0 0 0 0 0 0 0 0 0 965.59758794479637 0 0 0 17.784824755184335 0 0 0 0 1:-1 2:0.35135135 3:0.31092437 4:-0.75221239 5:-0.47936958 6:-0.56422327 7:-0.63133641 8:-0.53064275 
2187 0 2187 0 0 0 0 0 0 2187 0 0 0 0 0 0 0 0 0 0 0 0 0 0 0 1:-1 2:0.36486486 3:0.29411765 4:-0.73451327 5:-0.26013813 6:-0.30464022 7:-0.42593812 8:-0.44593921 
0 627.9028938682734 2187 2187 0 0 0 0 0 0 0 0 0 0 2187 0 0 0 0 0 0 0 0 0 0 1:-1 2:0.60810811 3:0.52941176 4:-0.69026549 5:0.079865415 6:-0.12575656 7:0.17709019 8:-0.31539611 
2187 0 2187 0 0 0 0 0 0 0 0 0 0 0 0 0 0 0 0 0 0 0 0 0 0 2:0.31081081 3:0.31092437 4:-0.72566372 5:-0.13440765 6:-0.2528581 7:-0.15207373 8:-0.46586946 
0 2187 1715.4908439605615 2187 0 0 0 0 0 0 0 0 0 0 0 0 0 0 0 0 0 0 0 0 0 2:0.55405405 3:0.52941176 4:-0.69911504 5:0.10855321 6:-0.026899798 7:-0.082290981 8:-0.22371699 
2187 0 2187 0 0 0 0 0 0 2187 0 0 0 0 0 0 0 0 0 0 0 0 0 0 0 2:0.17567568 3:0.15966387 4:-0.78761062 5:-0.50522401 6:-0.53463349 7:-0.71033575 8:-0.61434978 
2187 2187 2187 518.02131268208223 0 0 0 0 0 0 0 0 0 0 0 0 0 0 0 0 0 0 0 0 0 1:-1 2:0.081081081 3:0.075630252 4:-0.7699115 5:-0.63485036 6:-0.72225958 7:-0.69453588 8:-0.66417539 
274.4987112502713 2096.0255818934311 2187 2187 0 0 0 0 0 0 0 0 0 0 0 0 0 0 0 0 0 0 0 0 0 1:1 2:0.5 3:0.41176471 4:-0.74336283 5:-0.25022136 6:-0.3066577 7:-0.42330481 8:-0.4449427 
0 0 2187 2187 0 0 0 0 0 0 0 0 0 0 0 0 0 0 0 0 0 0 0 0 0 2:0.55405405 3:0.61344538 4:-0.69026549 5:-0.088011333 6:-0.18157364 7:-0.27320606 8:-0.31738914 
0 0 2187 2187 0 0 0 0 0 0 0 0 0 0 0 0 0 0 0 0 0 0 0 0 0 1:-1 2:0.52702703 3:0.54621849 4:-0.68141593 5:-0.11811581 6:-0.26496301 7:-0.23107307 8:-0.26856004 
414.59820603741429 2187 0 2187 0 0 19.918979591393146 646.81936818463464 2187 53.058048147629719 0 921.88216539196867 863.67818207885932 1225.6203993260058 2187 680.20883272442018 43.662239408368436 704.26360908849688 0 0 659.83279915476351 0 153.76805753037573 0 0 1:-1 2:0.83783784 3:0.76470588 4:-0.63716814 5:0.41986896 6:0.11432414 7:0.055957867 8:0.18285999 
2187 0 2187 1955.0159199840969 1137.5053970525453 0 2187 0 0 2187 0 0 0 165.8125544037679 0 0 0 0 0 0 0 0 0 0 0 1:-1 2:-0.31081081 3:-0.34453782 4:-0.84070796 5:-0.86187356 6:-0.88702085 7:-0.89335089 8:-0.88241156 
0 0 2187 2187 0 0 0 0 0 0 0 0 0 0 0 0 0 0 0 0 0 0 0 0 0 2:0.47297297 3:0.49579832 4:-0.69911504 5:-0.18824154 6:-0.26496301 7:-0.42198815 8:-0.34230194 
2187 1881.3607031581987 2187 2187 0 0 703.12478369173891 0 207.85511937428069 2187 0 0 0 0 0 0 0 1072.4165108970969 0 0 0 0 0 0 0 1:1 2:0.2027027 3:0.24369748 4:-0.69911504 5:-0.51939083 6:-0.62474781 7:-0.54312047 8:-0.61434978 
0 1040.2401923332375 2187 0 0 0 0 0 0 0 0 0 0 0 1473.7044753729983 0 0 0 0 0 0 0 0 0 0 1:-1 2:0.22972973 3:0.27731092 4:-0.72566372 5:-0.50628652 6:-0.6139879 7:-0.58130349 8:-0.59441953 
0 0 2187 2187 0 0 0 0 0 0 0 0 0 0 0 0 0 0 0 0 0 0 0 0 0 2:0.5 3:0.49579832 4:-0.69026549 5:-0.21480432 6:-0.3732347 7:-0.2955892 8:-0.3472845 
2187 2187 2187 2187 0 0 0 1382.7753641903785 0 0 0 0 0 0 0 0 0 0 0 0 0 0 0 0 0 1:1 2:0.31081081 3:0.24369748 4:-0.75221239 5:-0.35151408 6:-0.46267653 7:-0.48123766 8:-0.48480319 
2187 2187 2187 2187 0 0 0 0 2187 0 0 0 2187 2187 2187 184.90341166707955 0 0 0 0 0 0 0 0 0 1:-1 2:0.22972973 3:0.24369748 4:-0.7699115 5:-0.47334868 6:-0.59852051 7:-0.64450296 8:-0.51469856 
2187 2187 2187 2187 0 0 0 235.00750945240475 2187 0 0 0 1249.4249356213516 2187 2187 751.37165071324455 252.27322712959761 0 0 0 0 0 0 0 0 2:0.10810811 3:0.075630252 4:-0.76106195 5:-0.60757925 6:-0.74243443 7:-0.65503621 8:-0.66716492 
2187 0 2187 0 0 0 0 0 0 2187 0 0 0 0 0 0 0 0 0 0 0 0 0 0 0 2:0.25675676 3:0.22689076 4:-0.74336283 5:-0.3883478 6:-0.42098184 7:-0.5720869 8:-0.56950673 
2187 0 2187 0 0 0 0 0 0 0 0 0 0 0 0 0 0 0 0 0 0 0 0 0 0 1:-1 2:0.33783784 3:0.27731092 4:-0.74336283 5:-0.36001417 6:-0.47343645 7:-0.38117182 8:-0.45490782 
0 1510.1358330706239 2187 2187 0 0 0 0 0 0 0 0 0 0 0 0 0 0 0 0 0 0 0 0 0 2:0.47297297 3:0.49579832 4:-0.73451327 5:-0.085532141 6:-0.199731 7:-0.17577354 8:-0.29745889 
0 2187 2187 2187 0 0 0 0 0 0 0 0 0 0 0 0 0 0 0 0 0 0 0 0 0 2:0.56756757 3:0.57983193 4:-0.69026549 5:-0.046573402 6:-0.2138534 7:-0.31533904 8:-0.21773792 
2187 0 2187 0 0 0 2187 0 0 2187 0 0 0 112.73702093749459 0 0 0 0 0 0 0 0 0 0 0 1:-1 2:-0.2027027 3:-0.21008403 4:-0.84070796 5:-0.83070657 6:-0.8533961 7:-0.88281764 8:-0.86547085 
0 1873.64570642135 0 2187 0 0 0 0 2187 0 0 0 1174.7856562714155 2187 2187 2187 0 0 0 0 0 0 0 0 0 2:0.52702703 3:0.49579832 4:-0.69026549 5:-0.013989729 6:-0.33759247 7:-0.23502304 8:-0.20577977 
2187 2187 2187 2187 0 0 0 0 404.57717797012293 0 0 0 0 0 2187 0 0 0 0 0 0 0 0 0 0 1:-1 2:0.24324324 3:0.2605042 4:-0.72566372 5:-0.44572339 6:-0.5595158 7:-0.55628703 8:-0.51469856 
0 0 0 2187 0 0 0 0 0 0 0 0 0 0 0 0 0 0 0 0 0 0 0 0 0 1:-1 2:0.64864865 3:0.52941176 4:-0.7079646 5:0.092969718 6:-0.07868191 7:-0.0072416063 8:-0.19481814 
2187 0 2187 0 0 0 0 0 0 2187 0 0 0 0 0 0 0 0 0 0 0 0 0 0 0 2:-0.094594595 3:-0.092436975 4:-0.81415929 5:-0.74393483 6:-0.78749159 7:-0.79855168 8:-0.76382661 
2187 2187 2187 2187 0 0 0 0 2187 0 0 0 0 2187 2187 1808.5296078990489 2187 0 0 0 0 0 0 0 0 2:0.24324324 3:0.27731092 4:-0.71681416 5:-0.42730653 6:-0.57700067 7:-0.52863726 8:-0.52466368 
2187 0 2187 2187 0 0 0 0 2187 0 0 0 817.11936980168934 462.43798307049673 2187 0 0 0 0 0 0 0 0 0 0 2:0.094594595 3:0.17647059 4:-0.7699115 5:-0.54984948 6:-0.62878278 7:-0.62080316 8:-0.58445441 
2187 0 2187 0 0 0 0 0 0 0 0 0 0 0 0 0 0 0 0 0 0 0 0 0 0 1:-1 2:0.39189189 3:0.37815126 4:-0.7079646 5:-0.21161679 6:-0.3066577 7:-0.28242265 8:-0.45490782 
0 2187 2187 2187 0 0 0 0 0 0 0 0 0 0 0 0 0 0 0 0 0 0 0 0 0 1:-1 2:0.44594595 3:0.41176471 4:-0.69911504 5:-0.27430494 6:-0.41627438 7:-0.38643845 8:-0.39810663 
0 0 2187 2187 0 0 0 0 0 0 0 0 0 0 0 0 0 0 0 0 0 0 0 0 0 1:-1 2:0.5 3:0.52941176 4:-0.69026549 5:-0.051177616 6:-0.11701412 7:-0.31138907 8:-0.25560538 
2187 2187 2187 0 0 0 0 0 0 0 0 0 0 0 0 0 0 0 0 0 0 0 0 0 0 2:0.36486486 3:0.27731092 4:-0.72566372 5:-0.37913937 6:-0.42972428 7:-0.55760369 8:-0.51968112 
2187 430.21393016802404 2187 1889.3165057121712 0 0 0 0 0 0 0 0 0 0 0 0 0 0 0 0 0 0 0 0 0 1:-1 2:0.36486486 3:0.36134454 4:-0.73451327 5:-0.25836727 6:-0.30127774 7:-0.4917709 8:-0.39511709 
-2187 0 2187 0 0 0 0 0 0 0 0 0 0 0 0 0 0 0 0 0 0 0 0 0 0 2:0.33783784 3:0.24369748 4:-0.7699115 5:-0.44749424 6:-0.50437122 7:-0.54180382 8:-0.61136024 
-2187 0 2187 2187 0 0 0 0 2187 2187 0 0 0 0 0 0 0 0 0 0 0 0 0 0 0 2:-0.12162162 3:-0.1092437 4:-0.80530973 5:-0.75137241 6:-0.81237391 7:-0.74193548 8:-0.8036871 
-2187 2187 2187 2187 0 0 0 353.74924670824606 2187 1791.7398037981652 0 0 2187 2187 2187 2187 0 2187 1218.2011159258486 0 0 0 0 0 0 2:0.12162162 3:0.0084033613 4:-0.71681416 5:-0.37843103 6:-0.53261601 7:-0.43515471 8:-0.43996014 
-0 0 0 0 0 0 2187 0 0 2187 0 0 0 0 0 0 0 0 0 0 0 0 0 0 0 1:1 2:0.027027027 3:-0.042016807 4:-0.79646018 5:-0.6571631 6:-0.65030262 7:-0.82883476 8:-0.74090683 
-0 0 0 0 0 0 2187 0 0 2187 0 0 0 0 0 0 0 0 0 0 0 0 0 0 0 1:1 3:-0.075630252 4:-0.80530973 5:-0.74783071 6:-0.79623403 7:-0.82488479 8:-0.76681614 
-0 0 2187 0 0 0 0 0 0 0 0 0 0 0 0 0 0 0 0 0 0 0 0 0 0 1:1 2:0.27027027 3:0.17647059 4:-0.76106195 5:-0.58030813 6:-0.63819771 7:-0.68926926 8:-0.63428002 
-0 0 0 0 1149.9885083711788 0 2187 0 0 2187 0 0 0 0 0 0 0 0 0 0 0 0 0 0 0 1:1 2:0.040540541 3:-0.058823529 4:-0.80530973 5:-0.68691341 6:-0.69872226 7:-0.80513496 8:-0.78375685 
-2187 2187 2187 2187 0 0 0 0 2187 0 0 0 314.19297374630281 1247.8149590510923 2187 142.67176104716449 1734.6183201377128 81.737524084084427 439.39338839818339 0 408.99039762562052 0 0 0 0 1:-1 2:0.094594595 3:0.0084033613 4:-0.71681416 5:-0.67274659 6:-0.70410222 7:-0.72218565 8:-0.5266567 
-2187 0 2187 2187 0 0 0 0 0 0 0 0 0 0 0 0 0 0 0 0 0 0 0 0 0 1:-1 2:0.5 3:0.39495798 4:-0.72566372 5:-0.19922083 6:-0.20914593 7:-0.44568795 8:-0.43099153 
-2187 2187 2187 2187 0 0 0 0 2187 656.66420210354215 0 0 0 2187 2187 473.32726403944577 1383.4732569799392 0 0 0 0 0 0 0 0 1:-1 2:0.5 3:0.42857143 4:-0.73451327 5:-0.16663715 6:-0.30396772 7:-0.34825543 8:-0.35824614 
-0 0 0 0 0 0 2187 0 0 2187 0 0 0 0 0 0 0 0 0 0 0 0 0 0 0 1:1 2:-0.094594595 3:-0.17647059 4:-0.84070796 5:-0.78608111 6:-0.82784129 7:-0.81435155 8:-0.81265571 
-2187 0 2187 2187 0 0 0 0 1034.3874290317679 0 0 0 0 0 0 0 0 0 0 0 0 0 0 0 0 1:-1 2:0.33783784 3:0.29411765 4:-0.83185841 5:-0.41561891 6:-0.54472091 7:-0.41803818 8:-0.5346288 
-0 0 2187 0 0 0 0 0 0 749.54666899755318 0 0 0 0 0 0 0 0 0 0 0 0 0 0 0 1:-1 2:0.5 3:0.37815126 4:-0.73451327 5:-0.27395077 6:-0.27908541 7:-0.50625411 8:-0.65221724 
-2187 0 2187 0 0 0 0 0 0 2187 0 0 0 0 0 0 0 0 0 0 0 0 0 0 0 2:0.16216216 3:0.12605042 4:-0.79646018 5:-0.53391181 6:-0.59179556 7:-0.59183673 8:-0.65421026 
-2187 0 2187 0 0 0 0 0 0 0 0 0 0 0 0 0 0 0 0 0 0 0 0 0 0 1:-1 2:0.22972973 3:0.19327731 4:-0.75221239 5:-0.46697361 6:-0.53127102 7:-0.54970375 8:-0.5834579 
-2187 0 0 0 2187 14.356803114973202 2187 0 0 2187 0 0 0 0 0 0 0 0 0 0 0 0 0 0 0 1:1 2:-0.33783784 3:-0.32773109 4:-0.84955752 5:-0.87781123 6:-0.90450572 7:-0.91441738 8:-0.88938714 
-0 0 2187 0 0 0 2187 0 0 2187 0 0 0 0 0 0 0 0 0 0 0 0 0 0 0 1:-1 2:-0.14864865 3:-0.22689076 4:-0.83185841 5:-0.80945635 6:-0.8533961 7:-0.84331797 8:-0.84354758 
-2187 0 2187 0 0 0 0 0 0 1508.4268503320916 0 0 0 0 0 0 0 0 0 0 0 0 0 0 0 2:0.24324324 3:0.15966387 4:-0.76106195 5:-0.41951479 6:-0.47209146 7:-0.48518762 8:-0.59441953 
-0 0 0 0 0 0 2187 0 0 2187 0 0 0 0 0 0 0 0 0 0 0 0 0 0 0 1:1 2:0.040540541 3:-0.0084033613 4:-0.82300885 5:-0.66778821 6:-0.66240753 7:-0.79855168 8:-0.75784753 
-0 0 2187 0 2187 155.21097728704029 2187 0 0 2187 0 0 0 0 0 0 0 0 0 0 0 0 0 0 0 1:1 2:-0.35135135 3:-0.36134454 4:-0.84955752 5:-0.89976979 6:-0.93006052 7:-0.87623436 8:-0.90333832 
-0 0 2187 0 0 0 0 0 0 0 0 0 0 0 0 0 0 0 0 0 0 0 0 0 0 1:1 2:0.17567568 3:0.14285714 4:-0.72566372 5:-0.61926687 6:-0.66980498 7:-0.71560237 8:-0.67015446 
-395.55308653791371 0 2187 0 0 0 0 0 0 0 0 0 0 0 0 0 0 0 0 0 0 0 0 0 0 1:1 2:0.31081081 3:0.29411765 4:-0.7699115 5:-0.48893218 6:-0.53194351 7:-0.60895326 8:-0.60438465 
-2187 2187 2187 2187 0 0 1671.6029696476307 2187 2187 0 0 2187 2187 2187 2187 2187 2187 2158.1388168609601 33.086382590176711 1315.964979457206 351.99565540188922 0 0 0 0 1:-1 2:0.36486486 3:0.37815126 4:-0.73451327 5:-0.35930583 6:-0.50235373 7:-0.48387097 8:-0.42501246 
-2187 2187 2187 2187 0 0 482.50778633628101 0 0 0 0 0 0 0 0 0 0 0 0 0 0 0 0 0 0 2:0.44594595 3:0.4789916 4:-0.67256637 5:-0.18469984 6:-0.2804304 7:-0.2363397 8:-0.51469856 
-0 0 0 0 0 0 2187 0 0 2187 0 0 0 0 0 0 0 0 0 0 0 0 0 0 0 1:1 2:0.081081081 3:0.0084033613 4:-0.81415929 5:-0.66991323 6:-0.73100202 7:-0.70770244 8:-0.76382661 
-2187 2187 2187 2187 0 0 0 0 2187 0 0 2059.1234924707114 2187 2187 2187 2187 1471.3514044630172 0 0 0 0 0 0 0 0 2:0.41891892 3:0.36134454 4:-0.72566372 5:-0.311847 6:-0.4270343 7:-0.46280448 8:-0.40508221 
-2187 0 2187 281.92032695834564 0 0 0 0 0 0 0 0 0 0 0 0 0 0 0 0 0 0 0 0 0 1:-1 2:0.44594595 3:0.44537815 4:-0.71681416 5:-0.28280503 6:-0.28648285 7:-0.44305464 8:-0.52167414 
-0 2187 2162.0982736527362 0 721.51044971322995 0 2187 0 0 2187 0 0 0 0 0 0 0 0 0 0 0 0 0 0 0 1:1 2:-0.054054054 3:-0.092436975 4:-0.80530973 5:-0.77687268 6:-0.81977135 7:-0.87491771 8:-0.82361734 
-2187 0 2187 2187 0 0 0 0 0 0 0 0 0 0 0 0 432.02468663739751 0 0 0 0 0 0 0 0 1:1 2:0.21621622 3:0.1092437 4:-0.7699115 5:-0.57145387 6:-0.68459987 7:-0.67215273 8:-0.61434978 
-0 0 2187 0 0 0 0 0 0 493.10579301253551 0 0 0 0 0 0 0 0 0 0 0 0 0 0 0 1:1 2:0.17567568 3:0.092436975 4:-0.79646018 5:-0.63626704 6:-0.71217216 7:-0.70243581 8:-0.67214748 
-2187 0 2187 2187 0 0 0 0 0 0 0 0 0 0 0 0 0 0 0 0 0 0 0 0 0 1:1 2:0.27027027 3:0.22689076 4:-0.7079646 5:-0.36851426 6:-0.43174176 7:-0.42330481 8:-0.54857997 
-2187 2187 2187 2187 0 0 0 0 1429.2585739093076 0 0 0 0 0 0 0 0 0 0 0 0 0 0 0 0 1:-1 2:0.55405405 3:0.49579832 4:-0.75221239 5:-0.12449088 6:-0.17215871 7:-0.38117182 8:-0.36522172 
-0 0 2187 0 0 0 0 0 0 2187 0 0 0 0 0 0 0 0 0 0 0 0 0 0 0 1:1 2:0.14864865 3:0.092436975 4:-0.77876106 5:-0.63378785 6:-0.667115 7:-0.70243581 8:-0.73592427 
-2187 2187 2187 2187 0 0 0 0 842.24304957402353 2187 0 0 0 0 0 0 0 261.60819232759536 0 0 0 0 0 0 0 1:1 2:0.067567568 3:0.0084033613 4:-0.68141593 5:-0.66141314 6:-0.72494956 7:-0.72481896 8:-0.70303936 
-2187 0 2187 0 0 0 0 0 0 2187 0 0 0 0 0 0 0 0 0 0 0 0 0 0 0 1:-1 2:0.31081081 3:0.21008403 4:-0.74336283 5:-0.39791039 6:-0.42299933 7:-0.50493746 8:-0.59441953 
-2187 2187 2187 2187 0 0 0 0 0 0 0 0 0 0 0 0 0 0 0 0 0 0 0 0 0 2:0.33783784 3:0.34453782 4:-0.73451327 5:-0.21728351 6:-0.27505044 7:-0.32982225 8:-0.46487294 
-2187 2187 2187 2187 0 0 0 0 0 0 0 0 0 0 0 0 0 0 0 0 0 0 0 0 0 2:0.33783784 3:0.32773109 4:-0.76106195 5:-0.44855676 6:-0.55144586 7:-0.51415405 8:-0.58445441 
-2187 2187 2187 2187 0 0 0 0 2187 2187 0 0 222.895139822929 0 0 0 0 0 0 0 0 0 0 0 0 2:-0.054054054 3:-0.075630252 4:-0.79646018 5:-0.71383035 6:-0.78143914 7:-0.78801843 8:-0.73293473 
-0 0 2187 0 0 0 0 0 0 2187 0 0 0 0 0 0 0 0 0 0 0 0 0 0 0 1:1 2:0.14864865 3:0.075630252 4:-0.78761062 5:-0.62670444 6:-0.70073974 7:-0.67741935 8:-0.68410563 
-2187 2187 2187 2187 0 0 0 0 2187 2187 0 0 0 2187 2187 0 0 0 0 0 0 0 0 0 0 1:-1 2:0.44594595 3:0.42857143 4:-0.75221239 5:-0.27111741 6:-0.4129119 7:-0.31270573 8:-0.46487294 
-2187 2187 2187 2187 0 0 0 0 0 0 0 0 0 0 0 0 0 0 0 0 0 0 0 0 0 2:0.41891892 3:0.36134454 4:-0.73451327 5:-0.1266159 6:-0.19098857 7:-0.27978934 8:-0.42501246 
-2187 2187 2187 2187 0 0 0 0 0 0 0 0 0 0 0 0 0 0 0 0 0 0 0 0 0 1:1 2:0.37837838 3:0.32773109 4:-0.73451327 5:-0.36993094 6:-0.4667115 7:-0.46543779 8:-0.49875436 
-0 0 0 0 0 0 2187 0 0 2187 0 0 0 0 0 0 0 0 0 0 0 0 0 0 0 1:1 2:-0.081081081 3:-0.092436975 4:-0.80530973 5:-0.77758102 6:-0.81506389 7:-0.7919684 8:-0.81863478 
-2187 2187 2187 2187 0 0 0 0 2187 0 0 0 0 1010.9411562589271 2187 0 0 0 0 0 0 0 0 0 0 2:0.52702703 3:0.41176471 4:-0.75221239 5:-0.24172127 6:-0.34297243 7:-0.39697169 8:-0.38515197 
-0 0 0 0 0 0 2187 0 0 2187 0 0 0 0 0 0 0 0 0 0 0 0 0 0 0 1:1 2:-0.14864865 3:-0.14285714 4:-0.81415929 5:-0.81264388 6:-0.84196369 7:-0.86306781 8:-0.84155456 
-0 0 0 0 0 0 0 0 0 2187 0 0 0 0 0 0 0 0 0 0 0 0 0 0 0 1:1 2:0.10810811 3:0.025210084 4:-0.78761062 5:-0.63626704 6:-0.66980498 7:-0.73140224 8:-0.71001495 
-2187 2051.4088577234033 2187 2187 0 0 0 0 0 0 0 0 0 0 345.58843840062292 0 0 0 0 0 0 0 0 0 0 1:-1 2:0.13513514 3:0.14285714 4:-0.78761062 5:-0.60970427 6:-0.70006725 7:-0.63923634 8:-0.67015446 
-2187 2187 2187 2187 0 0 0 0 1385.9983763089265 0 0 0 0 0 2187 0 0 0 0 0 0 0 0 0 0 2:0.2972973 3:0.31092437 4:-0.69026549 5:-0.18930406 6:-0.26025555 7:-0.35878868 8:-0.44793224 
-2187 0 2187 2187 0 0 0 0 0 2187 0 0 0 0 0 0 0 0 0 0 0 0 0 0 0 1:-1 2:0.37837838 3:0.34453782 4:-0.73451327 5:-0.35966 6:-0.45057162 7:-0.39565504 8:-0.53761834 
-2187 0 2187 2187 0 0 0 0 0 0 0 0 0 0 0 0 0 0 0 0 0 0 0 0 0 1:1 2:0.27027027 3:0.27731092 4:-0.76106195 5:-0.45493182 6:-0.50100874 7:-0.61158657 8:-0.55057299 
-2187 0 2187 2187 0 0 0 0 0 0 0 0 0 0 0 0 0 0 0 0 0 0 0 0 0 1:1 2:0.2027027 3:0.19327731 4:-0.78761062 5:-0.57995396 6:-0.6805649 7:-0.70901909 8:-0.6243149 
-2187 2187 2187 2187 0 0 0 0 0 0 0 0 0 0 0 0 0 0 0 0 0 0 0 0 0 1:-1 2:0.48648649 3:0.42857143 4:-0.67256637 5:-0.14680361 6:-0.21183591 7:-0.23765635 8:-0.43298455 
-2187 1552.2743905664875 2187 2187 0 0 0 0 0 0 0 0 0 0 0 0 0 0 0 0 0 0 0 0 0 2:0.43243243 3:0.42857143 4:-0.75221239 5:-0.29945104 6:-0.36449227 7:-0.38380513 8:-0.52466368 
-0 0 0 0 0 0 2187 0 0 2187 0 0 0 0 0 0 0 0 0 0 0 0 0 0 0 1:1 2:0.027027027 3:-0.025210084 4:-0.80530973 5:-0.69399681 6:-0.72293208 7:-0.77616853 8:-0.76083707 
-0 0 0 0 0 0 2187 0 0 2187 0 0 0 0 0 0 0 0 0 0 0 0 0 0 0 1:-1 2:0.013513514 3:-0.075630252 4:-0.81415929 5:-0.65043386 6:-0.65501009 7:-0.78538512 8:-0.74588939 
-0 0 608.53835586475782 0 0 0 0 0 0 2187 0 0 0 0 0 0 0 0 0 0 0 0 0 0 0 1:1 2:0.094594595 3:0.0084033613 4:-0.79646018 5:-0.6667257 6:-0.72360457 7:-0.70638578 8:-0.73991031 
-2187 0 2187 0 0 0 0 0 0 0 0 0 0 0 0 0 0 0 0 0 0 0 0 0 0 2:0.36486486 3:0.31092437 4:-0.76106195 5:-0.32849301 6:-0.35036987 7:-0.52205398 8:-0.53961136 
-0 237.11981580629876 2187 2187 0 0 239.2882869980611 0 0 2187 0 163.04083099102999 0 0 0 0 81.0651005624253 0 0 0 0 0 0 0 0 1:1 2:0.013513514 3:0.0084033613 4:-0.80530973 5:-0.67664247 6:-0.74041695 7:-0.82488479 8:-0.72396612 
-0 0 0 0 0 0 0 0 0 2187 0 0 0 0 0 0 0 0 0 0 0 0 0 0 0 1:1 2:0.094594595 3:-0.0084033613 4:-0.76106195 5:-0.61430848 6:-0.63349025 7:-0.73930217 8:-0.68809168 
-0 0 2187 0 0 0 0 0 0 2187 0 0 0 0 0 0 0 0 0 0 0 0 0 0 0 1:1 2:0.21621622 3:0.14285714 4:-0.78761062 5:-0.57074553 6:-0.60188299 7:-0.63396972 8:-0.72296961 
-0 0 0 0 0 0 0 0 0 2187 0 0 0 0 0 0 0 0 0 0 0 0 0 0 0 1:1 2:0.067567568 3:0.058823529 4:-0.80530973 5:-0.60793342 6:-0.66509751 7:-0.69848585 8:-0.67812656 
-0 0 2187 361.1429663345769 0 0 2187 0 0 2187 0 0 0 0 0 0 0 0 0 0 0 0 0 0 0 1:1 2:-0.13513514 3:-0.17647059 4:-0.78761062 5:-0.78926864 6:-0.83120377 7:-0.82225148 8:-0.82461385 
-2187 0 2187 2187 0 0 0 0 0 0 0 0 0 0 0 0 0 0 0 0 0 0 0 0 0 1:1 2:0.21621622 3:0.17647059 4:-0.74336283 5:-0.50805738 6:-0.59179556 7:-0.59710336 8:-0.58445441 
-0 0 1620.3837031579219 0 0 0 0 0 0 0 0 0 0 0 0 0 0 0 0 0 0 0 0 0 0 1:1 2:0.24324324 3:0.21008403 4:-0.73451327 5:-0.59305826 6:-0.51782112 7:-0.64581962 8:-0.55455904 
-2187 730.439059060045 2187 2187 0 0 0 0 481.71714810828195 0 0 0 0 0 2187 0 0 0 0 0 0 0 0 0 0 1:-1 2:0.2027027 3:0.37815126 4:-0.73451327 5:-0.32813883 6:-0.38802959 7:-0.47728769 8:-0.49476831 
-400.67766670415955 2187 2187 2187 0 0 2187 0 2187 2187 0 0 0 925.6416500502728 1145.7197970463822 0 0 0 0 0 0 0 0 0 0 1:1 2:-0.13513514 3:-0.092436975 4:-0.81415929 5:-0.78466442 6:-0.85205111 7:-0.80776827 8:-0.81365222 
-2187 2187 2187 0 0 0 0 0 0 2187 0 0 0 0 0 0 0 0 0 0 0 0 0 0 0 2:-0.013513514 3:-0.042016807 4:-0.81415929 5:-0.74358066 6:-0.80228648 7:-0.78933509 8:-0.76880917 
-0 0 0 0 0 0 2187 0 0 2187 0 0 0 0 0 0 0 0 0 0 0 0 0 0 0 1:1 2:-0.18918919 3:-0.22689076 4:-0.84070796 5:-0.83353993 6:-0.85877606 7:-0.89730086 8:-0.84354758 
-2187 0 2187 0 0 0 0 0 0 218.53526774849442 0 0 0 0 0 0 0 0 0 0 0 0 0 0 0 1:-1 2:0.067567568 3:0.1092437 4:-0.76106195 5:-0.58384983 6:-0.62945528 7:-0.68531929 8:-0.66417539 
-2187 0 2187 2187 0 0 0 0 0 0 0 0 0 0 0 0 0 0 0 0 0 0 0 0 0 1:1 2:0.33783784 3:0.29411765 4:-0.73451327 5:-0.46661944 6:-0.54068594 7:-0.57998683 8:-0.55655207 
-2187 2187 2187 2187 0 0 0 0 0 0 0 0 0 0 0 0 0 0 0 0 0 0 0 0 0 1:-1 2:0.39189189 3:0.39495798 4:-0.73451327 5:-0.39153533 6:-0.44586416 7:-0.56945359 8:-0.50672646 
-0 0 2068.5158918404159 0 0 0 0 0 0 0 0 0 0 0 0 0 0 0 0 0 0 0 0 0 0 1:-1 2:0.16216216 3:0.042016807 4:-0.79646018 5:-0.63237117 6:-0.66509751 7:-0.74851876 8:-0.70403587 
-0 0 0 0 0 0 2187 0 0 2187 0 0 0 0 0 0 0 0 0 0 0 0 0 0 0 1:1 2:-0.054054054 3:-0.042016807 4:-0.82300885 5:-0.73862228 6:-0.7995965 7:-0.77353522 8:-0.77379173 
-2187 0 2187 2187 0 0 0 0 0 0 0 0 0 0 58.261401120658974 0 0 0 0 0 0 0 0 0 0 1:-1 2:0.17567568 3:0.21008403 4:-0.74336283 5:-0.46945281 6:-0.55817081 7:-0.51810402 8:-0.59840558 
-0 0 2187 0 0 0 0 0 0 2187 0 0 0 0 0 0 0 0 0 0 0 0 0 0 0 1:1 2:0.10810811 3:0.092436975 4:-0.77876106 5:-0.632017 6:-0.70342972 7:-0.69058591 8:-0.68410563 
-2187 0 2187 0 0 0 0 0 0 0 0 0 0 0 0 0 0 0 0 0 0 0 0 0 0 1:1 2:0.16216216 3:0.15966387 4:-0.74336283 5:-0.50239065 6:-0.55211836 7:-0.62606978 8:-0.59043348 
-2187 0 2187 2187 0 0 0 0 2187 0 0 0 0 798.75125628914861 885.0997253016975 0 0 0 0 0 0 0 0 0 0 1:1 2:0.17567568 3:0.15966387 4:-0.77876106 5:-0.58101647 6:-0.6798924 7:-0.65898618 8:-0.59641256 
-0 0 2187 0 0 0 0 0 0 0 0 0 0 0 0 0 0 0 0 0 0 0 0 0 0 1:1 2:0.21621622 3:0.15966387 4:-0.7699115 5:-0.54418275 6:-0.56422327 7:-0.67346939 8:-0.66417539 
-0 0 0 0 2187 0 2187 0 0 2187 0 0 0 0 0 0 0 0 0 0 0 0 0 0 0 1:1 2:-0.12162162 3:-0.12605042 4:-0.84070796 5:-0.77156012 6:-0.79825151 7:-0.80908492 8:-0.82760339 
-362.93200898859618 0 2187 1396.7810403506883 0 0 0 0 0 0 0 0 0 0 0 0 0 0 0 0 0 0 0 0 0 1:1 2:0.2027027 3:0.19327731 4:-0.80530973 5:-0.63414202 6:-0.71015467 7:-0.76036866 8:-0.63627304 
-2187 2187 2187 0 0 0 0 0 0 2187 0 0 0 0 0 0 0 0 0 0 0 0 0 0 0 1:1 2:0.013513514 3:-0.042016807 4:-0.77876106 5:-0.71489286 6:-0.77135171 7:-0.81698486 8:-0.73492775 
-0 0 2187 0 0 0 0 0 0 0 0 0 0 0 0 0 0 0 0 0 0 0 0 0 0 1:1 2:0.17567568 3:0.1092437 4:-0.74336283 5:-0.45847353 6:-0.46536651 7:-0.63265306 8:-0.64324863 
-2187 632.74849289812289 2187 2187 0 0 0 0 0 2187 0 0 0 0 0 0 0 0 0 0 0 0 0 0 0 2:0.040540541 3:0.025210084 4:-0.79646018 5:-0.66460067 6:-0.71822461 7:-0.72481896 8:-0.68410563 
-0 0 0 0 0 0 2187 0 0 2187 0 0 0 0 0 0 0 0 0 0 0 0 0 0 0 1:1 2:-0.040540541 3:-0.12605042 4:-0.83185841 5:-0.73366389 6:-0.76597176 7:-0.79065174 8:-0.79471849 
-2187 17.93448456107933 2187 2187 0 0 0 0 0 0 0 0 0 0 0 0 0 0 0 0 0 0 0 0 0 1:1 2:0.33783784 3:0.32773109 4:-0.76106195 5:-0.43899416 6:-0.48823134 7:-0.62870309 8:-0.51469856 
-2187 2187 2187 2187 0 0 0 0 0 0 0 0 0 0 0 0 0 0 0 0 0 0 0 0 0 2:0.36486486 3:0.31092437 4:-0.73451327 5:-0.39366035 6:-0.46334902 7:-0.59052008 8:-0.49875436 
-2187 2187 2187 2187 0 0 0 0 2187 0 0 0 0 2187 2187 2041.0731453153535 0 0 0 0 0 0 0 0 0 2:0.2027027 3:0.17647059 4:-0.79646018 5:-0.45174429 6:-0.57094822 7:-0.5154707 8:-0.56452417 
-2187 0 2187 0 0 0 7.0428098190681903 0 0 0 0 0 0 0 0 0 0 0 0 0 0 0 0 0 0 2:0.28378378 3:0.24369748 4:-0.77876106 5:-0.31857624 6:-0.26496301 7:-0.58262014 8:-0.57448929 
-0 0 0 0 0 0 2187 0 0 2187 0 0 0 0 0 0 0 0 0 0 0 0 0 0 0 1:1 2:-0.067567568 3:-0.12605042 4:-0.80530973 5:-0.71630954 6:-0.75184936 7:-0.78275181 8:-0.80069756 
-0 0 2187 0 0 0 0 0 0 0 0 0 0 0 0 0 0 0 0 0 0 0 0 0 0 1:1 2:0.12162162 3:0.15966387 4:-0.76106195 5:-0.55941208 6:-0.59314055 7:-0.66293614 8:-0.66616841 
-0 0 2187 0 0 0 0 0 0 2187 0 0 0 0 0 0 0 0 0 0 0 0 0 0 0 1:1 2:0.13513514 3:0.058823529 4:-0.77876106 5:-0.66743404 6:-0.72225958 7:-0.76168532 8:-0.70403587 
-2187 627.83937958686874 2187 2187 0 0 0 0 0 0 0 0 0 0 0 0 0 0 0 0 0 0 0 0 0 1:-1 2:0.40540541 3:0.44537815 4:-0.73451327 5:-0.23392952 6:-0.28782784 7:-0.39302172 8:-0.4529148 
-2187 0 2187 0 0 0 0 0 0 0 0 0 0 0 0 0 0 0 0 0 0 0 0 0 0 2:0.44594595 3:0.2605042 4:-0.75221239 5:-0.35753497 6:-0.41223941 7:-0.47465438 8:-0.56452417 
-0 0 0 0 0 0 2187 0 0 2187 0 0 0 0 0 0 0 0 0 0 0 0 0 0 0 1:1 2:-0.040540541 3:-0.1092437 4:-0.80530973 5:-0.74110147 6:-0.77605918 7:-0.73271889 8:-0.79372197 
-0 0 2187 0 0 0 0 0 0 0 0 0 0 0 0 0 0 0 0 0 0 0 0 0 0 1:1 2:0.16216216 3:0.17647059 4:-0.7699115 5:-0.57534974 6:-0.59583053 7:-0.7116524 8:-0.64424514 
-2187 0 2187 683.00911683729669 0 0 0 0 0 2187 0 0 0 0 0 0 0 0 0 0 0 0 0 0 0 2:0.14864865 3:0.092436975 4:-0.75221239 5:-0.55126616 6:-0.62878278 7:-0.62475313 8:-0.64723468 
-2187 1739.8385417193151 2187 2187 0 0 0 0 0 0 0 0 0 0 0 0 0 0 0 0 0 0 0 0 0 1:1 2:0.40540541 3:0.36134454 4:-0.73451327 5:-0.4110147 6:-0.49428379 7:-0.49440421 8:-0.5346288 
-2187 0 2187 0 0 0 2187 0 0 0 0 0 0 0 0 0 0 0 0 0 0 0 0 0 0 1:-1 2:0.067567568 3:0.075630252 4:-0.78761062 5:-0.5902249 6:-0.64357767 7:-0.75510204 8:-0.66616841 
-2187 2187 2187 2187 0 0 0 0 0 0 0 0 0 0 0 0 0 0 0 0 0 0 0 0 0 1:-1 2:0.41891892 3:0.34453782 4:-0.72566372 5:-0.33203471 6:-0.41425689 7:-0.45227123 8:-0.50473343 
-0 64.264105784480535 0 88.507138357991664 1264.4977093790837 31.459361907172003 2187 0 837.99857326128972 2187 0 0 0 0 0 0 46.278007400057476 0 0 0 0 0 0 0 0 1:1 2:-0.10810811 3:-0.14285714 4:-0.80530973 5:-0.35682663 6:-0.44182919 7:-0.45490454 8:-0.80468361 
-0 0 2187 0 0 0 0 0 0 2187 0 0 0 0 0 0 0 0 0 0 0 0 0 0 0 1:1 2:0.14864865 3:0.1092437 4:-0.78761062 5:-0.60474588 6:-0.62004035 7:-0.73008558 8:-0.73393124 
-0 0 0 0 2187 0 2187 0 0 2187 0 0 0 0 0 0 0 0 0 0 0 0 0 0 0 1:1 2:-0.054054054 3:-0.1092437 4:-0.84955752 5:-0.81583141 6:-0.83523874 7:-0.82488479 8:-0.85849527 
-2187 2187 2187 2187 0 0 0 0 2187 0 0 0 0 2187 2187 0 0 0 0 0 0 0 0 0 0 2:0.22972973 3:0.24369748 4:-0.73451327 5:-0.39968125 6:-0.5601883 7:-0.39038841 8:-0.6003986 
-2187 0 2187 0 0 0 795.42463559168743 0 0 2187 0 0 0 0 0 0 0 0 0 0 0 0 0 0 0 2:0.013513514 3:0.0084033613 4:-0.81415929 5:-0.63130866 6:-0.68258238 7:-0.69453588 8:-0.714001 
-0 0 0 0 0 0 2187 0 0 2187 0 0 0 0 0 0 0 0 0 0 0 0 0 0 0 1:-1 2:0.013513514 3:-0.092436975 4:-0.79646018 5:-0.696476 6:-0.70073974 7:-0.79460171 8:-0.77279522 
-2187 2187 2187 2187 0 0 0 0 2187 0 0 2187 2187 2187 2187 2187 2187 0 774.44756800032985 0 2187 0 0 0 0 2:0.28378378 3:0.2605042 4:-0.73451327 5:-0.53745352 6:-0.64694015 7:-0.68005267 8:-0.56253114 
-2187 2187 2187 2187 0 0 0 0 1675.6476148715126 2187 0 0 0 0 0 0 0 0 0 0 0 0 0 0 0 2:-0.081081081 3:-0.15966387 4:-0.7699115 5:-0.77474765 6:-0.82582381 7:-0.80250165 8:-0.79372197 
-0 0 2187 0 0 0 2187 0 0 2187 0 0 0 0 0 0 0 0 0 0 0 0 0 0 0 1:1 3:-0.1092437 4:-0.78761062 5:-0.73366389 6:-0.79690652 7:-0.78406847 8:-0.76382661 
-0 0 0 0 0 0 2187 0 0 2187 0 0 0 0 0 0 0 0 0 0 0 0 0 0 0 1:1 2:-0.067567568 3:-0.092436975 4:-0.79646018 5:-0.75066407 6:-0.78278413 7:-0.83278473 8:-0.79372197 
-2187 0 2187 0 0 0 0 0 0 2187 0 0 0 0 0 0 0 0 0 0 0 0 0 0 0 1:-1 2:0.21621622 3:0.17647059 4:-0.7699115 5:-0.49247388 6:-0.56220578 7:-0.48123766 8:-0.65421026 
-0 0 2187 0 0 0 0 0 0 2187 0 0 0 0 0 0 0 0 0 0 0 0 0 0 0 1:1 2:0.14864865 3:0.12605042 4:-0.77876106 5:-0.58845405 6:-0.60591796 7:-0.65371955 8:-0.68310912 
-2187 0 2187 2187 0 0 0 0 0 0 0 0 0 0 0 0 0 0 0 0 0 0 0 0 0 2:0.37837838 3:0.34453782 4:-0.7699115 5:-0.38126439 6:-0.44855414 7:-0.45753785 8:-0.55455904 
-0 0 51.496166733224342 0 0 0 0 0 0 2187 0 0 0 0 0 0 0 0 0 0 0 0 0 0 0 1:1 2:0.067567568 3:0.042016807 4:-0.82300885 5:-0.71028865 6:-0.76597176 7:-0.77616853 8:-0.73393124 
-2187 2187 2187 2187 0 0 0 0 2187 1433.5010451713283 0 0 0 2187 2187 2187 0 0 0 0 0 0 0 0 0 1:-1 2:0.37837838 3:0.32773109 4:-0.68141593 5:-0.43509828 6:-0.54942838 7:-0.51283739 8:-0.53064275 
-2187 2187 2187 2187 0 0 0 0 0 0 0 0 0 0 0 0 0 0 0 0 0 0 0 0 0 2:0.24324324 3:0.22689076 4:-0.7699115 5:-0.50628652 6:-0.58103564 7:-0.58920342 8:-0.59740907 
-0 0 0 0 0 0 2187 0 0 2187 0 0 0 0 0 0 0 0 0 0 0 0 0 0 0 1:1 3:-0.058823529 4:-0.80530973 5:-0.71028865 6:-0.73436449 7:-0.75510204 8:-0.78574988 
-0 0 2187 0 0 0 2187 0 0 2187 0 0 0 0 0 0 0 0 0 0 0 0 0 0 0 1:1 2:-0.027027027 3:-0.042016807 4:-0.80530973 5:-0.73260138 6:-0.800269 7:-0.77748519 8:-0.76382661 
-2187 2187 2187 2187 0 0 0 0 2187 2187 0 2002.453375740339 2187 2187 2187 2187 2068.5296848881994 1583.4337465233923 0 0 0 0 0 0 2053.6644785434773 2:0.54054054 3:0.51260504 4:-0.7079646 5:0.013281388 6:-0.08137189 7:-0.19025675 8:-0.33333333 
-0 0 2187 0 0 0 0 0 0 2187 0 0 0 0 0 0 0 0 0 0 0 0 0 0 0 1:-1 2:0.22972973 3:0.15966387 4:-0.77876106 5:-0.46484859 6:-0.466039 7:-0.60368664 8:-0.65421026 
-2187 0 2187 2187 298.44371218546189 350.75851057232683 2187 0 0 2187 0 0 0 0 0 0 0 0 0 0 0 0 0 0 0 1:-1 2:-0.24324324 3:-0.29411765 4:-0.84955752 5:-0.8590402 6:-0.90854069 7:-0.86175115 8:-0.86447434 
-0 0 0 0 0 0 2187 0 0 2187 0 0 0 0 0 0 0 0 0 0 0 0 0 0 0 1:1 2:-0.027027027 3:-0.075630252 4:-0.81415929 5:-0.76412254 6:-0.79152656 7:-0.85516787 8:-0.79372197 
-0 0 0 0 0 0 2187 0 0 2187 0 0 0 0 0 0 0 0 0 0 0 0 0 0 0 1:1 2:-0.067567568 3:-0.14285714 4:-0.82300885 5:-0.79847707 6:-0.84667115 7:-0.80776827 8:-0.83358246 
-2187 0 2187 2187 0 0 0 0 0 0 0 0 0 0 0 0 0 0 0 0 0 0 0 0 0 2:0.28378378 3:0.2605042 4:-0.73451327 5:-0.40641048 6:-0.47007397 7:-0.48782093 8:-0.55854509 
-2187 0 2187 2187 0 0 0 0 0 0 0 0 0 0 0 0 0 0 0 0 0 0 0 0 0 2:0.41891892 3:0.37815126 4:-0.73451327 5:-0.22047105 6:-0.26765299 7:-0.31138907 8:-0.50473343 
-1643.7189157576477 0 2187 2187 0 0 0 0 2187 2187 0 0 0 311.48349383500079 21.205939820267073 0 0 0 0 0 0 0 0 0 0 1:1 2:0.10810811 3:0.042016807 4:-0.81415929 5:-0.63272534 6:-0.73907196 7:-0.67741935 8:-0.64025909 
-2187 2187 2187 2187 0 0 0 0 2187 0 0 1687.9961264065239 2187 2187 2187 2187 2187 2059.3248848312132 0 794.6401496219047 0 0 0 0 0 1:-1 2:0.44594595 3:0.42857143 4:-0.7079646 5:-0.12059501 6:-0.25151311 7:-0.29690586 8:-0.26158445 
-2187 2187 2187 2187 0 0 385.99678616019662 121.30777235385378 2187 2187 0 0 0 1090.3305987309413 0 0 672.18000876679309 0 0 0 0 0 0 0 0 1:-1 2:-0.22972973 3:-0.19327731 4:-0.81415929 5:-0.83070657 6:-0.88500336 7:-0.86175115 8:-0.81365222 
-2187 2187 2187 0 0 0 0 0 0 2187 0 0 0 0 0 0 0 0 0 0 0 0 0 0 0 2:0.040540541 3:0.042016807 4:-0.77876106 5:-0.66247565 6:-0.72427707 7:-0.72613562 8:-0.72197309 
-0 0 2187 0 0 0 2187 0 0 2187 0 0 0 0 0 0 0 0 0 0 0 0 0 0 0 2:0.28378378 3:0.21008403 4:-0.76106195 5:-0.42447317 6:-0.4270343 7:-0.51283739 8:-0.65421026 
-2187 2187 2187 2187 0 0 0 0 0 736.88369314093313 0 0 0 0 0 0 0 0 0 0 0 0 0 0 0 1:-1 2:-0.040540541 3:-0.058823529 4:-0.79646018 5:-0.71383035 6:-0.77807666 7:-0.75510204 8:-0.73393124 
-2187 2187 2187 2187 0 0 0 0 2187 0 0 0 0 2187 2187 0 1057.7520393257232 1092.8984519170165 0 0 0 0 0 0 0 1:1 2:0.28378378 3:0.27731092 4:-0.7079646 5:-0.43191075 6:-0.54404842 7:-0.49045425 8:-0.51669158 
-2187 0 2187 0 0 0 0 0 0 0 0 0 0 0 0 0 0 0 0 0 0 0 0 0 0 1:1 2:0.28378378 3:0.21008403 4:-0.74336283 5:-0.44784842 6:-0.49966375 7:-0.57998683 8:-0.56153463 
-0 0 2187 0 0 0 0 0 0 0 0 0 0 0 0 0 0 0 0 0 0 0 0 0 0 1:1 2:0.27027027 3:0.075630252 4:-0.78761062 5:-0.61678767 6:-0.68190989 7:-0.69716919 8:-0.65919283 
-2187 2187 2187 2187 0 0 0 0 2187 0 0 0 0 2187 0 0 0 0 0 0 326.16723375776041 0 0 0 0 1:-1 2:0.2972973 3:0.19327731 4:-0.77876106 5:-0.5771206 6:-0.68594486 7:-0.61553654 8:-0.6163428 
-2187 2187 2187 2187 0 0 0 0 0 0 0 0 0 0 2083.8654520954497 0 0 0 0 0 0 0 0 0 0 1:1 2:0.40540541 3:0.2605042 4:-0.7079646 5:-0.30405525 6:-0.39273705 7:-0.4562212 8:-0.45989038 
-0 0 1407.9222437292394 844.75277238035403 0 0 2187 0 0 2187 0 0 0 0 1098.1867423370052 0 0 0 0 0 0 0 0 0 0 1:1 2:-0.2972973 3:-0.31092437 4:-0.82300885 5:-0.86541526 6:-0.89576328 7:-0.84726794 8:-0.86347783 
-0 0 2187 0 0 0 2187 0 0 2187 0 0 0 0 0 0 0 0 0 0 0 0 0 0 0 1:1 2:0.013513514 3:-0.0084033613 4:-0.78761062 5:-0.66991323 6:-0.73167451 7:-0.72086899 8:-0.7389138 
-2187 0 2187 0 0 0 0 0 0 0 0 0 0 0 0 0 0 0 0 0 0 0 0 0 0 1:-1 3:-0.0084033613 4:-0.79646018 5:-0.74535151 6:-0.79085407 7:-0.81830151 8:-0.76980568 
-2187 2187 2187 2187 0 0 0 0 2187 0 0 0 0 0 1337.0193998855821 0 0 0 0 0 0 0 0 0 0 1:-1 2:0.5 3:0.42857143 4:-0.7079646 5:-0.090490526 6:-0.18897108 7:-0.28768927 8:-0.30543099 
-2187 2187 2187 2187 0 0 0 0 2187 0 0 1529.8437914159917 2187 2187 2187 2187 0 0 563.50370346397062 0 0 0 0 0 0 2:0.14864865 3:0.15966387 4:-0.75221239 5:-0.5328493 6:-0.65635508 7:-0.53917051 8:-0.56452417 
-0 0 2187 0 0 0 0 0 0 2187 0 0 0 0 0 0 0 0 0 0 0 0 0 0 0 1:1 2:0.16216216 3:0.15966387 4:-0.77876106 5:-0.60439171 6:-0.69804976 7:-0.62343647 8:-0.66417539 
-2187 2187 2187 2187 0 0 0 741.13067985575265 2187 0 0 0 2187 2187 1794.9923032725742 477.86042250998901 1859.2094177418476 0 0 0 0 0 0 0 0 1:-1 2:0.43243243 3:0.41176471 4:-0.74336283 5:-0.37524349 6:-0.48554136 7:-0.49967084 8:-0.46487294 
-2187 0 2187 0 0 0 0 0 0 0 0 0 0 0 0 0 0 0 0 0 0 0 0 0 0 1:-1 2:0.35135135 3:0.32773109 4:-0.7079646 5:-0.31751372 6:-0.33154001 7:-0.50098749 8:-0.54459392 
-2187 2187 2187 2187 0 0 0 0 2187 2187 0 0 0 809.0514610782302 1746.0511473424649 576.46227714779184 0 0 0 0 0 0 0 0 0 2:0.054054054 3:-0.0084033613 4:-0.76106195 5:-0.55764123 6:-0.6529926 7:-0.62080316 8:-0.65421026 
