svm_type c_svc
kernel_type polynomial
degree 5
gamma 0.125
coef0 0
nr_class 25
total_sv 2498
rho -0.97209187272835773 -0.99681323820655943 -0.80525472161301659 -0.95708953048121492 0.57532211844164949 -2.0634450864409009 -1.2319164251534567 1.001543157698497 -0.9232512191371216 -0.95143855412768896 -0.90839671986879711 -0.96186389172516062 -2.434657452606249 -1.0453762499823136 -0.9494992580045778 -4.1011244127199831 -0.98433186692415087 -0.84310381665414269 -0.88147037705559683 -0.98857321299353973 -0.99524083259331875 -1.3400104035836211 -0.9946672958869579 -1.0436892970498723 0.78127321369324609 0.9830189907378788 1.2428523307599808 1.0637696370827991 -1.7488759024723191 -1.1747577774835776 1.0236552495869526 1.2019329984332563 1.267906032947697 1.1864397458962568 0.37585332080218109 -8.3528833512236762 -0.85168623501031437 1.0162372352503817 -3.2375142209012839 -0.32036701695597752 0.92566991482477146 0.88348148687284889 -0.28323281162876451 -0.89088728687513496 -1.8962976311190298 -0.97328579176544416 -0.88421262577136939 0.97158740661422582 1.0216055185523831 1.0701929735305449 -2.1341007768331699 -0.95573995174671766 1.0004251643972975 1.0455533293651331 1.0198304526531961 1.0130766630095345 -0.75140255072682371 -1.2675662154383567 -1.2429534336997585 1.032061914343686 -2.0005075648625632 -0.97686722127975278 1.0224188834502084 0.20352820095176191 -0.93839425457602355 -1.0009302047197508 -1.1136704330045086 -1.0393246179491342 -1.1419198518513263 0.15366182387511332 1.011549760755668 -2.0695500547612578 -1.0388601968985454 1.0028144347479839 -0.32593586309792699 0.4417601907538708 -0.6840739064738065 -0.95529966239978159 -6.2611792403983371 -1.0135111857045822 -0.70394775336348292 -1.0656364681476407 -1.0634827541286607 -0.66018261616899354 -0.80822169538670352 -0.98873404296891176 -0.98670787929041681 -1.8082010857810902 -0.99350837348758025 -1.0803662567041288 0.96133576816925481 -2.6197413605549023 -1.3223656666085819 0.97377029734275045 -0.95411670595056175 0.80474035795932342 -0.95945278676310353 -0.99307805730131316 -3.0542774013526679 -1.0655182825708374 -0.98847220468865626 -5.4688794447319529 -1.0864855104697679 -0.97902690740359188 -0.98066108832221877 -0.98827720822261833 -1.0088050116085454 -1.5329493048382594 -0.99381580133007519 -1.1190101850304781 -4.3028693656173091 -1.1862135846128481 0.77517788646035768 -0.96832496219033171 -0.89363302560603575 -1.0135411784910178 -0.99644410893685365 -5.759277535271063 -0.99369717729882845 -1.0373371123317059 -7.4309761312442832 -1.0747329003266795 -0.98667556583630645 -0.97670151365973112 -0.99545268291412436 -0.99648058549742036 -1.793234973121455 -0.99925311716167531 -1.1226837700403656 2.1344602972922124 3.8309059618404291 2.8111482936195493 2.2373322914756826 4.3890489004577589 4.2638103485291223 -1.2530708662604952 1.3474120828311817 1.7235825553113926 -1.6180405362593666 1.4958813429825106 4.7876277489101513 1.4021780852905197 1.1993075195600349 0.99394113412780516 -3.7639504915052715 0.43026880104242127 0.9596439450399783 1.4333542062837763 1.5946284577815781 1.1184758354568631 1.4778574999823286 1.1340532981385993 -9.0215318287623454 -0.93445209666306484 1.0807380566074309 -6.1039725038152941 0.76663007668802663 1.1554748177757159 1.0303034412718266 0.62794840358556936 -0.95607444163090238 -3.8291098072791359 -0.98436645662349653 -1.0226281628667948 -0.98934479313781665 -0.96794656678009838 -0.99084356382807381 -0.97824073934063793 -2.9970581685219164 -1.1119923689111628 -0.9899335487339731 -3.6472172622215142 -1.087934646494622 -0.92252492462617897 -0.98692183620723228 -0.9969506680581498 -0.99628110387197266 -1.4213745489374054 -0.99816220346436424 -1.0710898930398549 0.88263758871192999 -0.97645638003900759 -0.99819726766589845 -1.7000770486610417 -1.0623161271111334 -0.94623692553193894 -5.6488716307314846 -1.0845114502767532 -0.71111394729174959 -0.99493254981015322 -0.96967681296161401 -0.98935055417792861 -1.2561145240826201 -0.99528076749086181 -1.108995801351113 -0.95300251416068882 -0.98504675725059621 -1.7759895006076154 -1.0627448682921328 -0.97028860166303454 -4.7502642598921945 -1.0853085874323061 -0.91391679949920812 -0.9664403098268054 -0.98108373385349801 -0.98529476872728294 -1.1815055224490276 -1.0331133991591355 -1.0457652428287312 -0.98189304899327468 -1.327167767322178 -1.2370815949366512 -0.65480230071197887 -2.0247336584029716 -1.1034206121222649 -0.5211059483044711 -0.88376057152233367 -0.97804103366813455 -0.99663509291801611 -1.0857511332374883 -1.0921997877900171 -1.0781817508956313 -1.3226521983814417 -1.2039802165072842 0.98060676901110999 -2.0487972523791309 -0.98184301574834365 0.90820103306475242 0.72108896368508835 -0.87323188057738621 -1.0039533796677402 -1.0716215633493642 -1.0056054112124146 -1.1487823014062595 1.0556434580127538 1.1105385770200888 0.36118429460760809 1.0814280992054088 1.3295302353314011 1.0592838138305698 1.0363602616436456 0.9993018085425639 -8.8887124075978647 0.90764703320546858 0.99605452356366431 1.085208340315317 -1.1448550264167214 0.94126560151592764 1.147432250243241 1.2219046602566686 1.1850765701126167 -0.39064620778142856 -1.0092513983778235 -1.3017708488623274 -0.33753622659562305 -1.2461602602635382 -1.1664379170796184 -0.68353274790521601 -1.0602756040177392 -0.96611732847996923 -1.0129877937333656 -1.0219905154496376 -1.0530146584208961 -1.1024609032807857 1.2054877554193175 1.9528586043311527 1.1888017194255809 1.0847252165728074 0.99797710890992608 -6.6458673883725652 0.77125706977046649 0.98744096830412209 1.0932409215976717 1.1382948512460815 -0.64980092751559326 -0.99183961315181546 -1.0159846447017051 -1.0140384397863214 -1.0413347121696528 -0.92605542074068148 -0.99594620961117342 -0.98910544305298842 -1.1039419884283181 -1.1676483800307007 -1.1513028721157934 -0.94353115939953358 -1.0301090085107867 -1.0198238826409471 -1.0834062254762657 -1.1401449143956095 -1.0035003176281991 -1.0075431410401259 -0.98364373049550491 -0.95403462308202502 -0.99982352301698885 -0.98283076004031056 -0.30801578779210104 0.97194680323731564 0.99922316222554319 0.94201733512520391
label 11 7 19 8 13 9 5 6 10 14 12 15 18 3 22 17 4 21 16 20 23 25 1 27 29
nr_sv 273 240 20 342 115 417 72 156 387 77 155 63 16 10 5 41 33 11 35 20 6 1 1 1 1
SV
0 0 0 151.60806625777607 2187 0 0 2187 0 0 0 0 0 0 0 0 0 0 0 0 0 0 0 0 1:-1 2:0.55405405 3:0.51260504 4:-0.69911504 5:0.10324066 6:-0.066577001 7:-0.075707702 8:-0.21574489 
0 0 0 2187 2187 0 0 2187 2187 2187 1523.6581381755038 0 0 0 1236.1969714801728 0 0 1909.8565684780931 0 0 0 0 0 0 2:0.59459459 3:0.54621849 4:-0.67256637 5:-0.051885957 6:-0.24882313 7:-0.22975642 8:-0.13104136 
0 0 0 737.74808108803506 0 0 0 0 0 0 0 0 0 0 0 0 0 0 0 0 0 0 0 0 1:-1 2:0.74324324 3:0.78151261 4:-0.61061947 5:0.35434744 6:0.22999328 7:0.17840685 8:-0.048330842 
2187 0 2187 796.50783452430471 2187 0 2187 2187 0 0 1071.8181437636772 0 0 0 1474.2764404587267 0 0 0 0 0 0 0 0 0 2:0.040540541 3:0.092436975 4:-0.7699115 5:-0.54878697 6:-0.59784802 7:-0.59973667 8:-0.68410563 
2187 0 2187 0 2187 0 2187 2187 0 2187 0 0 0 0 0 0 0 0 0 0 0 0 0 0 2:0.2027027 3:0.17647059 4:-0.78761062 5:-0.55728706 6:-0.64559516 7:-0.62870309 8:-0.64225212 
0 0 0 2187 2187 0 0 2187 2187 2187 2187 0 0 0 0 0 0 0 0 0 0 0 0 0 1:-1 2:0.47297297 3:0.37815126 4:-0.66371681 5:-0.051177616 6:-0.23402824 7:-0.16524029 8:-0.29546587 
0 620.072166490987 0 2187 0 0 0 1040.9815697290762 2187 2187 36.470603509546407 0 0 0 2187 0 157.89558612569388 2187 2187 0 0 0 0 869.56090239238006 2:0.75675676 3:0.83193277 4:-0.6460177 5:0.22897114 6:-0.063887021 7:-0.057274523 8:0.18285999 
2187 341.60106852017441 2187 2187 2187 2187 2187 2187 560.06843594728559 165.30050599710376 80.68842431157114 0 5.6901679819631088 0 0 1301.8114721733757 0 312.72606346100076 0 5.2170627422976166 0 2.9606813649701409 0 0 1:1 2:-0.24324324 3:-0.24369748 4:-0.82300885 5:-0.84026917 6:-0.87558843 7:-0.88150099 8:-0.83358246 
0 122.10680142771609 2187 2187 2187 0 0 2187 2187 2187 2187 0 0 0 0 0 0 0 0 0 0 0 0 0 1:-1 2:0.027027027 3:0.0084033613 4:-0.7699115 5:-0.63662121 6:-0.73234701 7:-0.66556945 8:-0.65421026 
0 2187 2187 2187 2187 0 0 2187 2187 0 2187 0 0 0 0 0 0 1981.8858952100654 0 0 0 0 0 0 2:0.18918919 3:0.24369748 4:-0.76106195 5:-0.49707809 6:-0.64290518 7:-0.57867018 8:-0.50473343 
0 0 0 826.71097870833023 2187 0 0 2187 112.73968741142995 2187 0 0 0 0 0 0 0 0 0 0 0 0 0 0 1:-1 2:0.82432432 3:0.68067227 4:-0.61946903 5:0.55764123 6:0.4263618 7:0.37722186 8:0.050323866 
0 0 2187 0 2187 0 0 2187 906.27194307811112 0 0 0 0 0 0 0 0 0 0 0 0 0 0 0 2:0.25675676 3:0.41176471 4:-0.72566372 5:-0.3440765 6:-0.47141896 7:-0.49045425 8:-0.48480319 
2187 0 2187 0 2187 0 184.27440231723853 2187 0 0 0 0 0 0 0 0 0 0 0 0 0 0 0 0 1:-1 2:0.14864865 3:0.12605042 4:-0.7699115 5:-0.49920312 6:-0.63147276 7:-0.55892034 8:-0.64424514 
0 0 2187 0 2187 0 0 2187 0 0 0 0 0 0 0 0 0 0 0 0 0 0 0 0 2:0.35135135 3:0.31092437 4:-0.76106195 5:-0.37595183 6:-0.48890383 7:-0.46543779 8:-0.48480319 
0 0 0 0 0 0 0 2187 0 0 0 0 0 0 0 0 0 0 0 0 0 0 0 0 2:0.74324324 3:0.71428571 4:-0.68141593 5:0.216221 6:0.13718897 7:0.07044108 8:-0.23069258 
0 0 0 0 0 0 0 0 0 2187 0 0 0 0 0 0 0 0 0 0 0 0 0 0 1:-1 2:0.78378378 3:0.73109244 4:-0.69026549 5:0.33026386 6:0.22192334 7:0.017774852 8:-0.030393622 
0 0 2187 0 2187 0 0 2187 0 678.00444194596253 0 0 0 0 0 0 0 0 0 0 0 0 0 0 1:-1 2:0.44594595 3:0.39495798 4:-0.73451327 5:-0.1779706 6:-0.24142569 7:-0.32192232 8:-0.3881415 
0 0 0 0 0 0 0 2187 0 0 0 0 0 0 0 0 0 0 0 0 0 0 0 0 2:0.82432432 3:0.66386555 4:-0.65486726 5:0.29661767 6:0.11499664 7:-0.037524687 8:-0.12605879 
0 2187 0 2187 0 0 0 2187 1422.3789795029711 2187 2187 2061.9513575358956 0 1266.3346077210942 2187 0 1809.9577126983561 1362.0842769501887 2187 37.648575776951859 0 0 138.03275560493799 0 1:-1 2:0.68918919 3:0.68067227 4:-0.6460177 5:0.31468036 6:-0.019502354 7:-0.036208032 8:0.18285999 
0 0 2187 0 2187 0 0 2187 0 2187 0 0 0 0 0 0 0 0 0 0 0 0 0 0 1:-1 2:0.51351351 3:0.4789916 4:-0.73451327 5:-0.23570037 6:-0.35238736 7:-0.3640553 8:-0.38515197 
0 0 0 0 2187 0 0 2187 0 0 0 0 0 0 0 0 0 0 0 0 0 0 0 0 2:0.51351351 3:0.51260504 4:-0.7079646 5:-0.11528245 6:-0.22528581 7:-0.40355497 8:-0.2406577 
0 0 0 153.51352566715639 0 0 16.050408970083396 293.70064228225226 0 2187 0 0 0 0 0 0 0 0 0 0 0 0 0 0 1:-1 2:0.7972973 3:0.81512605 4:-0.66371681 5:0.64441296 6:0.54472091 7:0.34562212 8:0.0034877927 
0 0 0 0 2187 0 0 2187 0 2187 0 0 0 0 0 0 0 0 0 0 0 0 0 0 2:0.58108108 3:0.57983193 4:-0.6460177 5:0.03488578 6:-0.12373907 7:-0.21263989 8:-0.16193323 
0 524.76664905857069 0 2187 2187 0 0 2187 2187 2187 2187 985.34757307260736 0 0 2187 0 803.72584119183512 2187 2187 2043.1737335854673 0 0 0 0 1:-1 2:0.33783784 3:0.42857143 4:-0.69026549 5:-0.16203294 6:-0.36381977 7:-0.31402238 8:-0.24564026 
0 0 0 0 0 0 0 2187 0 0 0 0 0 0 0 0 0 0 0 0 0 0 0 0.83277446967693103 1:-1 2:0.71621622 3:0.71428571 4:-0.6460177 5:0.1326368 6:-0.051782112 7:-0.1560237 8:-0.10612855 
0 486.27713529860478 0 2187 2187 0 0 2187 1850.349528203672 2187 0 0 0 0 0 0 0 0 0 0 0 0 0 0 2:0.45945946 3:0.57983193 4:-0.72566372 5:-0.26580485 6:-0.4270343 7:-0.39170507 8:-0.31539611 
0 0 2187 0 2187 0 0 2187 0 0 0 0 0 0 0 0 0 0 0 0 0 0 0 0 2:0.41891892 3:0.37815126 4:-0.72566372 5:-0.26474234 6:-0.36180229 7:-0.34298881 8:-0.4449427 
0 1037.8346454067002 0 1219.7489107083645 0 0 0 954.97606783678782 0 0 0 0 0 0 478.87761800224428 0 0 2187 0 0 0 0 0 0 2:0.77027027 3:0.76470588 4:-0.66371681 5:0.22932531 6:-0.088769334 7:0.14285714 8:0.033383159 
0 92.039515096611666 0 2187 0 0 0 2187 0 2187 2187 1939.8894949032679 0 1797.5333354436652 2187 0 154.07116619981326 1780.8595717928636 1868.1271645032873 0 0 0 0 0 1:-1 2:0.55405405 3:0.56302521 4:-0.62831858 5:0.1875332 6:-0.10490921 7:-0.19025675 8:-0.086198306 
2187 0 2187 2187 2187 0 0 2187 2187 2187 0 749.83510912475776 0 0 48.168988764023418 0 1171.8176645896544 0 1328.7017757723402 0 0 0 0 0 1:1 2:0.2972973 3:0.24369748 4:-0.68141593 5:-0.38161856 6:-0.50437122 7:-0.47333772 8:-0.49476831 
0 0 0 2187 2187 0 0 2187 0 0 0 0 0 0 1008.7134162405629 0 0 0 0 0 0 0 0 0 2:0.67567568 3:0.61344538 4:-0.6460177 5:0.12165752 6:-0.10423672 7:-0.12179065 8:-0.064275037 
0 0 0 0 2187 0 0 2187 0 2187 0 0 0 0 0 0 0 0 0 0 0 0 0 0 2:0.56756757 3:0.51260504 4:-0.65486726 5:0.018948114 6:-0.07599193 7:0.00065832785 8:-0.27952167 
0 0 2187 0 2187 0 0 2187 0 0 0 0 0 0 0 0 0 0 0 0 0 0 0 0 1:-1 2:0.55405405 3:0.49579832 4:-0.72566372 5:-0.14999115 6:-0.24142569 7:-0.17577354 8:-0.41704036 
2187 0 2187 0 2187 0 2187 2187 0 2187 0 0 0 0 0 0 0 0 0 0 0 0 0 0 1:1 2:0.28378378 3:0.2605042 4:-0.74336283 5:-0.44218169 6:-0.49764627 7:-0.55102041 8:-0.55854509 
0 0 2187 2187 2187 0 0 2187 0 0 1251.9718559615321 0 0 0 0 0 0 0 0 0 0 0 0 0 1:1 2:0.28378378 3:0.31092437 4:-0.74336283 5:-0.4467859 6:-0.59179556 7:-0.58788677 8:-0.47483807 
0 0 2187 2187 2187 0 0 2187 2187 2130.5318437028313 2187 0 0 0 2187 0 493.00474750534573 569.13931217336938 0 0 0 0 0 0 2:0.14864865 3:0.075630252 4:-0.79646018 5:-0.58030813 6:-0.75252186 7:-0.61158657 8:-0.6243149 
2187 0 2187 0 2187 0 2187 2187 0 2187 0 0 0 0 0 0 0 0 0 0 0 0 0 0 1:-1 2:0.12162162 3:0.14285714 4:-0.75221239 5:-0.61253763 6:-0.70342972 7:-0.66556945 8:-0.70403587 
0 0 2187 0 2187 0 0 2187 0 0 0 0 0 0 0 0 0 0 0 0 0 0 0 0 2:0.48648649 3:0.51260504 4:-0.69026549 5:-0.18682486 6:-0.26496301 7:-0.32718894 8:-0.3961136 
0 0 2187 2187 2187 0 0 2187 2187 2187 430.71070465578345 0 0 0 0 0 0 0 0 0 0 0 0 0 1:-1 2:0.35135135 3:0.34453782 4:-0.72566372 5:-0.28386754 6:-0.37121722 7:-0.45227123 8:-0.41504733 
0 0 0 0 0 0 0 0 0 2187 0 0 0 0 0 0 0 0 0 0 0 0 0 0 1:-1 2:0.81081081 3:0.71428571 4:-0.61946903 5:0.36638923 6:0.20376597 7:0.20605662 8:-0.0064773293 
0 0 0 2187 0 0 0 2187 0 0 0 0 0 0 0 0 0 0 0 0 0 0 0 0 1:-1 2:0.60810811 3:0.57983193 4:-0.7079646 5:0.13794935 6:-0.08406187 7:-0.17314022 8:-0.20478326 
0 0 0 0 0 0 0 2187 0 527.58959734989992 0 0 0 0 0 0 0 0 0 0 0 0 0 0 1:-1 2:0.67567568 3:0.6302521 4:-0.65486726 5:0.19638746 6:0.031607263 7:-0.045424621 8:-0.055306428 
0 0 0 2187 2187 0 0 2187 0 2187 2187 496.28147563000073 0 0 1107.9763172783023 0 2187 2187 2187 0 0 0 0 0 1:-1 2:0.5 3:0.54621849 4:-0.69026549 5:-0.15459536 6:-0.33960995 7:-0.35088874 8:-0.2655705 
0 0 0 1899.7457692576572 0 0 0 2187 0 2187 620.36459062848076 0 0 0 0 0 0 0 0 0 0 0 0 0 1:-1 2:0.54054054 3:0.57983193 4:-0.71681416 5:0.066406942 6:0.0013449899 7:-0.35615537 8:-0.14100648 
2187 0 2187 0 2187 0 0 2187 0 2187 0 0 0 0 0 0 0 0 0 0 0 0 0 0 2:0.27027027 3:0.19327731 4:-0.77876106 5:-0.5101824 6:-0.60121049 7:-0.61685319 8:-0.58445441 
0 0 2187 2187 2187 0 0 2187 2187 0 2187 0 0 0 2187 0 0 0 0 0 0 0 0 0 2:0.28378378 3:0.2605042 4:-0.72566372 5:-0.44536922 6:-0.61264291 7:-0.40355497 8:-0.53861485 
0 0 2187 335.06048560669848 2187 0 0 2187 0 0 5.7887778056537353 0 0 0 0 0 0 0 0 0 0 0 0 0 2:0.32432432 3:0.31092437 4:-0.77876106 5:-0.41313972 6:-0.57969065 7:-0.53127057 8:-0.54459392 
0 0 2187 2187 2187 0 0 2187 2187 2187 1100.306651731207 0 0 837.66138284400108 1857.6242185380727 0 574.13217382006121 2187 0 68.791873888656852 0 0 0 0 2:0.081081081 3:0.092436975 4:-0.74336283 5:-0.59766248 6:-0.77673167 7:-0.69058591 8:-0.63029397 
0 0 2187 2187 2187 0 0 2187 0 2187 1238.7601557715632 0 0 0 0 0 0 0 0 0 0 0 0 0 1:-1 2:0.31081081 3:0.27731092 4:-0.68141593 5:-0.37170179 6:-0.51714862 7:-0.46412113 8:-0.50473343 
0 0 0 1794.6793232571654 2187 0 0 2187 0 2187 0 0 0 0 0 0 0 0 0 0 0 0 0 0 2:0.67567568 3:0.69747899 4:-0.61061947 5:0.29768018 6:0.13584398 7:0.10994075 8:-0.096163428 
0 0 0 0 0 0 0 2187 0 0 0 0 0 0 0 0 0 0 0 0 0 0 0 0 1:-1 2:0.68918919 3:0.64705882 4:-0.67256637 5:0.14149106 6:0.0073974445 7:0.06122449 8:-0.26856004 
0 0 2187 1407.9879883307103 2187 0 0 2187 0 1571.2585955945942 0 0 0 0 0 0 0 0 0 0 0 0 0 0 1:-1 2:0.2972973 3:0.32773109 4:-0.74336283 5:-0.35328493 6:-0.46334902 7:-0.35352205 8:-0.43497758 
0 0 0 2187 2187 0 0 2187 0 1402.256248719485 0 0 0 0 0 0 0 0 0 0 0 0 0 0 2:0.48648649 3:0.54621849 4:-0.72566372 5:-0.17726226 6:-0.34566241 7:-0.31928901 8:-0.29546587 
0 423.63905832758985 0 2187 2187 0 0 2187 2187 2187 2187 763.00410657168311 0 0 2187 0 0 2187 1844.0401438969477 0 0 0 0 0 2:0.56756757 3:0.49579832 4:-0.63716814 5:0.080927926 6:-0.16543376 7:-0.020408163 8:-0.099152965 
2187 0 2187 2187 2187 0 2187 2187 0 2187 0 0 0 0 0 0 0 0 0 0 0 0 0 0 2:-0.013513514 3:0.0084033613 4:-0.79646018 5:-0.70745529 6:-0.78816409 7:-0.75773535 8:-0.74190334 
0 0 0 497.64072957956944 0 0 0 2187 2116.2642000616229 2187 0 0 0 0 0 0 0 0 0 0 0 0 0 0 1:-1 2:0.7027027 3:0.68067227 4:-0.61946903 5:0.51514078 6:0.40618695 7:0.0072416063 8:0.049327354 
2187 0 2187 0 2187 0 342.2870101981012 2187 0 0 0 0 0 0 0 0 0 0 0 0 0 0 0 0 1:1 2:0.28378378 3:0.22689076 4:-0.79646018 5:-0.52824509 6:-0.60793544 7:-0.640553 8:-0.58644743 
0 0 2187 2187 2187 0 0 2187 2187 2187 1709.3956135515111 0 0 0 0 0 0 0 0 0 0 0 0 0 2:0.41891892 3:0.37815126 4:-0.71681416 5:-0.19886665 6:-0.37457969 7:-0.24160632 8:-0.40906826 
0 0 2187 2187 2187 0 0 2187 2187 2187 2187 0 0 0 0 0 0 0 0 0 0 0 0 0 1:-1 2:0.36486486 3:0.36134454 4:-0.68141593 5:-0.19036657 6:-0.35574983 7:-0.2718894 8:-0.3552566 
0 0 2187 0 2187 0 0 2187 0 2187 0 0 0 0 0 0 0 0 0 0 0 0 0 0 2:0.52702703 3:0.44537815 4:-0.67256637 5:0.0040729591 6:-0.095494284 7:-0.088874259 8:-0.35426009 
35.002558247302815 0 2187 2187 2187 0 0 2187 833.38880552106195 2187 0 0 0 0 816.89996668489209 0 0 0 0 0 0 0 0 0 1:1 2:0.36486486 3:0.31092437 4:-0.73451327 5:-0.37347264 6:-0.48621385 7:-0.45095458 8:-0.49476831 
0 0 0 0 2187 0 0 2187 0 0 0 0 0 0 0 0 0 0 0 0 0 0 0 0 1:-1 2:0.54054054 3:0.56302521 4:-0.69026549 5:0.15742872 6:0.046402152 7:-0.10072416 8:-0.14200299 
0 0 2187 2187 2187 0 0 2187 2187 2187 2187 0 0 0 0 0 0 0 0 0 0 0 0 0 1:-1 2:0.14864865 3:0.19327731 4:-0.73451327 5:-0.53249513 6:-0.62273033 7:-0.640553 8:-0.56452417 
0 0 0 0 2187 0 0 2187 0 0 0 0 0 0 0 0 0 0 0 0 0 0 0 0 1:-1 2:0.60810811 3:0.54621849 4:-0.7079646 5:-0.17017886 6:-0.2938803 7:-0.25082291 8:-0.37319382 
2187 449.04390121440719 2187 2187 2187 0 0 2187 1354.7725394683641 2187 0 1310.0516285191673 0 99.608181297673525 1612.1318563883162 0 1125.6018057818667 2187 298.73184454298342 0 0 0 0 0 2:0.12162162 3:0.075630252 4:-0.76106195 5:-0.567558 6:-0.65770007 7:-0.73271889 8:-0.56452417 
0 0 0 904.49917805588746 0 0 0 2187 0 2187 0 0 0 0 0 0 0 0 0 0 0 0 0 0 1:-1 2:0.74324324 3:0.71428571 4:-0.66371681 5:0.47264034 6:0.4532616 7:0.1323239 8:-0.0004982561 
0 0 0 0 2187 0 0 2187 0 1102.1230348925744 0 0 0 0 0 0 0 0 0 0 0 0 0 0 2:0.64864865 3:0.6302521 4:-0.71681416 5:0.17974146 6:0.11903161 7:-0.0072416063 8:-0.05630294 
2187 0 2187 0 2187 2187 2187 2187 0 1018.3951188761662 0 0 0 0 0 0 0 0 0 0 0 0 0 0 1:1 2:0.054054054 3:-0.042016807 4:-0.80530973 5:-0.7563308 6:-0.80968393 7:-0.80908492 8:-0.77777778 
0 0 2187 0 2187 0 0 2187 0 0 0 0 0 0 0 0 0 0 0 0 0 0 0 0 2:0.47297297 3:0.51260504 4:-0.71681416 5:-0.029219054 6:-0.15601883 7:-0.27715602 8:-0.26856004 
0 0 0 0 2187 0 0 2187 0 0 0 0 0 0 0 0 0 0 0 0 0 0 0 0 1:-1 2:0.62162162 3:0.51260504 4:-0.71681416 5:0.083761289 6:-0.0060524546 7:-0.06122449 8:-0.24265072 
0 2187 0 2187 2187 0 0 2187 2187 2187 2187 1529.6951278390789 0 0 0 0 0 2187 2187 252.78715122885569 0 0 0 0 2:0.44594595 3:0.44537815 4:-0.7079646 5:-0.23145033 6:-0.42905178 7:-0.39038841 8:-0.24564026 
0 0 2187 2187 2187 0 0 2187 2187 0 2187 0 0 0 0 0 0 0 0 0 0 0 0 0 2:0.40540541 3:0.37815126 4:-0.73451327 5:-0.27501328 6:-0.44720915 7:-0.27847268 8:-0.42700548 
0 0 0 0 0 0 0 2187 0 0 0 0 0 0 0 0 0 0 0 0 0 0 0 0 1:-1 2:0.60810811 3:0.64705882 4:-0.6460177 5:0.20453338 6:0.11903161 7:-0.016458196 8:-0.18584953 
0 0 0 0 2187 0 0 2187 0 0 0 0 0 0 0 0 0 0 0 0 0 0 0 0 2:0.51351351 3:0.57983193 4:-0.68141593 5:-0.031344077 6:-0.14862139 7:-0.16392363 8:-0.27952167 
0 1207.1192911506546 0 2187 2187 0 0 2187 2187 2187 2187 0 0 0 2187 0 2187 2187 2187 755.72051686337841 0 0 0 0 1:-1 2:0.36486486 3:0.41176471 4:-0.73451327 5:-0.31432619 6:-0.48352387 7:-0.43120474 8:-0.30543099 
0 0 2187 119.87546215797386 2187 0 0 2187 0 0 0 0 0 0 0 0 0 0 0 0 0 0 0 0 2:0.36486486 3:0.34453782 4:-0.78761062 5:-0.33557641 6:-0.46469401 7:-0.32455563 8:-0.47483807 
2187 0 2187 0 2187 0 0 2187 0 2187 0 0 0 0 0 0 0 0 0 0 0 0 0 0 1:-1 2:0.17567568 3:0.14285714 4:-0.77876106 5:-0.5902249 6:-0.67316745 7:-0.64976959 8:-0.62830095 
0 0 154.01753494484953 0 2187 0 0 2187 0 2187 0 0 0 0 0 0 0 0 0 0 0 0 0 0 2:0.56756757 3:0.54621849 4:-0.69911504 5:0.080219586 6:0.13987895 7:-0.3074391 8:-0.34329846 
0 843.84649918343621 0 0 0 0 0 0 0 2187 0 0 0 0 0 0 0 0 1723.2494156623798 0 0 0 0 0 2:0.77027027 3:0.69747899 4:-0.66371681 5:0.37453515 6:0.07330195 7:0.36668861 8:0.12406577 
0 711.24232665852662 0 2187 2187 0 0 2187 0 2187 1052.0301744481651 0 0 0 0 0 0 0 314.43033242923548 0 0 0 0 0 2:0.44594595 3:0.4789916 4:-0.71681416 5:-0.23003365 6:-0.37054472 7:-0.479921 8:-0.23766816 
0 0 0 2081.8725529056078 0 0 0 0 0 2187 2187 0 0 0 1346.6206663600526 0 0 0 302.90930924717645 0 0 0 0 0 1:-1 2:0.78378378 3:0.79831933 4:-0.61946903 5:0.23605454 6:-0.022864829 7:0.059907834 8:0.10712506 
0 0 0 0 2187 0 0 2187 0 169.65372582953961 0 0 0 0 0 0 0 0 0 0 0 0 0 0 2:0.56756757 3:0.6302521 4:-0.61946903 5:0.1004073 6:-0.066577001 7:-0.22185648 8:-0.1180867 
0 0 2187 0 2187 0 0 2187 0 0 0 0 0 0 0 0 0 0 0 0 0 0 0 0 1:-1 2:0.45945946 3:0.41176471 4:-0.69911504 5:-0.16380379 6:-0.36381977 7:-0.23897301 8:-0.52466368 
0 0 0 0 2187 0 0 2187 0 2187 0 0 0 0 0 0 0 0 0 0 0 0 0 0 1:-1 2:0.52702703 3:0.51260504 4:-0.72566372 5:-0.15459536 6:-0.2528581 7:-0.44568795 8:-0.31340309 
0 0 2187 0 2187 0 0 2187 0 0 0 0 0 0 0 0 0 0 0 0 0 0 0 0 1:-1 2:0.48648649 3:0.4789916 4:-0.67256637 5:-0.021427307 6:-0.045729657 7:-0.21000658 8:-0.31539611 
0 0 639.88756533818139 0 0 0 0 1396.4669130157019 1910.4076924896565 2187 0 0 0 0 0 0 0 0 0 0 0 0 0 0 1:-1 2:0.71621622 3:0.69747899 4:-0.61061947 5:0.42588985 6:0.23806321 7:0.19420671 8:0.12506228 
1729.8536949572256 2024.0431755335039 2187 2187 2187 0 0 2187 2187 2187 2187 2187 0 0 2187 0 701.6655346828984 2187 2187 1302.4117391184377 608.91027248339856 0 51.262817139349544 0 2:0.40540541 3:0.2605042 4:-0.62831858 5:0.078448734 6:-0.12306658 7:0.041474654 8:-0.18584953 
0 2187 0 2187 2187 0 0 2187 779.33119897482732 2187 0 0 0 0 440.96628631133092 0 0 0 0 0 0 0 0 0 2:0.51351351 3:0.4789916 4:-0.68141593 5:0.12909509 6:-0.17148621 7:-0.16655695 8:-0.2655705 
2187 0 2187 0 2187 0 0 2187 0 0 0 0 0 0 0 0 0 0 0 0 0 0 0 0 2:0.22972973 3:0.21008403 4:-0.79646018 5:-0.58243315 6:-0.68796234 7:-0.5839368 8:-0.64424514 
0 0 2187 0 2187 0 0 2187 0 0 0 0 0 0 0 0 0 0 0 0 0 0 0 0 1:-1 2:0.41891892 3:0.4789916 4:-0.69026549 5:-0.087657163 6:-0.1862811 7:-0.27452271 8:-0.31639263 
2187 0 2187 1713.6913884186874 2187 0 0 2187 0 2024.6350485762921 0 0 0 0 0 0 0 0 0 0 0 0 0 0 1:-1 2:0.054054054 3:0.025210084 4:-0.85840708 5:-0.65574641 6:-0.74445192 7:-0.67215273 8:-0.69407075 
2187 0 2187 15.794232174438301 2187 0 2187 2187 2187 0 561.99715653794772 0 0 0 0 0 0 0 0 0 0 0 0 0 1:1 2:0.040540541 3:-0.0084033613 4:-0.78761062 5:-0.65539224 6:-0.74176194 7:-0.72481896 8:-0.69407075 
0 0 0 2187 1073.8475862559008 0 0 2187 645.01388032060197 0 0 0 0 0 0 0 0 0 0 0 0 0 0 0 2:0.68918919 3:0.68067227 4:-0.61061947 5:0.17867894 6:-0.13113652 7:0.12705727 8:-0.096163428 
0 8.0067791834366204 0 2187 2187 0 0 2187 2187 2187 2187 0 0 46.877459888651885 2187 0 0 2187 1987.2867869371282 645.12406579234823 0 0 0 0 1:-1 2:0.27027027 3:0.32773109 4:-0.73451327 5:-0.30865947 6:-0.54875588 7:-0.49967084 8:-0.40508221 
0 0 2187 0 2187 0 0 2187 0 0 0 0 0 0 0 0 0 0 0 0 0 0 0 0 1:-1 2:0.41891892 3:0.4789916 4:-0.69026549 5:-0.080219586 6:-0.16812374 7:-0.25345622 8:-0.34828102 
240.5998928176335 0 2187 0 2187 0 0 2187 0 0 0 0 0 0 0 0 0 0 0 0 0 0 0 0 2:0.36486486 3:0.37815126 4:-0.74336283 5:-0.30263857 6:-0.36919973 7:-0.43383805 8:-0.50473343 
0 0 2187 0 2187 0 0 2187 0 456.70777052319664 0 0 0 0 0 0 0 0 0 0 0 0 0 0 1:-1 2:0.63513514 3:0.54621849 4:-0.71681416 5:-0.12697007 6:-0.17014122 7:-0.31007242 8:-0.3552566 
0 0 2187 0 2187 0 0 2187 0 0 0 0 0 0 0 0 0 0 0 0 0 0 0 0 2:0.45945946 3:0.41176471 4:-0.69026549 5:-0.15565787 6:-0.24949563 7:-0.31928901 8:-0.37219731 
2187 0 2187 0 2187 0 0 2187 0 0 0 409.22468563351686 0 0 0 0 606.77092745266384 0 0 0 0 0 0 0 1:1 2:0.25675676 3:0.24369748 4:-0.7699115 5:-0.42376483 6:-0.5070612 7:-0.64186965 8:-0.51270553 
0 0 2187 0 2187 0 0 2187 510.35688726172134 1091.6016573462787 0 0 0 0 0 0 0 0 0 0 0 0 0 0 1:1 2:0.44594595 3:0.24369748 4:-0.72566372 5:-0.25872145 6:-0.3194351 7:-0.48650428 8:-0.45690085 
2187 0 2187 1728.6515884235653 2187 0 0 2187 1964.2044021291167 2187 1067.9067932712103 694.33178283990446 0 63.589699613915712 0 0 187.78268954456468 0 0 0 0 0 0 0 1:-1 2:-0.040540541 3:-0.025210084 4:-0.79646018 5:-0.78572693 6:-0.87693342 7:-0.85648453 8:-0.76382661 
2187 17.537118175038227 0 1701.654798621782 2187 1198.3095381407993 371.90277293329052 2187 0 2151.558314891402 164.38223122989979 136.32505928980297 0 0 0 0 0 57.662281398530226 0 10.792679547372998 0 0 0 0 1:-1 2:-0.35135135 3:-0.34453782 4:-0.84070796 5:-0.85762352 6:-0.91862811 7:-0.90388413 8:-0.8445441 
0 0 0 211.33402501026302 2187 0 0 2187 0 0 0 0 0 0 0 0 0 0 0 0 0 0 0 288.40552522024922 2:0.63513514 3:0.69747899 4:-0.65486726 5:0.25765893 6:0.15669132 7:-0.15339039 8:-0.1758844 
0 0 0 0 2187 0 0 2187 0 2187 0 0 0 0 0 0 0 0 0 0 0 0 0 0 1:-1 2:0.48648649 3:0.46218487 4:-0.7079646 5:-0.21055428 6:-0.34297243 7:-0.31270573 8:-0.34030892 
0 2187 2187 2187 2187 0 0 2187 2187 2187 2187 2187 0 0 2187 0 0 2187 2187 2187 0 0 0 0 2:0.36486486 3:0.37815126 4:-0.7079646 5:-0.22117939 6:-0.45796907 7:-0.44963792 8:-0.30543099 
0 0 2187 2187 2187 0 0 2187 0 2187 1740.8985919767508 0 0 0 0 0 0 0 0 0 0 0 0 0 1:-1 2:0.41891892 3:0.36134454 4:-0.72566372 5:-0.32176377 6:-0.40215198 7:-0.5036208 8:-0.41504733 
0 0 0 2187 2187 0 0 2187 673.84803461003469 2187 0 0 0 0 0 0 14.990547012737903 0 0 0 0 0 0 0 2:0.60810811 3:0.59663866 4:-0.60176991 5:0.10465734 6:-0.15400134 7:0.28110599 8:-0.26058794 
0 0 2187 2187 2187 0 0 2187 2187 2187 2187 0 0 0 0 0 0 0 0 0 0 0 0 0 1:-1 2:0.28378378 3:0.32773109 4:-0.7699115 5:-0.34974323 6:-0.4929388 7:-0.37327189 8:-0.42501246 
364.24091457424953 533.76507770043952 2187 2187 2187 0 0 2187 2187 2187 2187 0 0 0 0 0 0 0 0 0 0 0 0 0 1:-1 2:0.14864865 3:0.12605042 4:-0.74336283 5:-0.54028688 6:-0.63416274 7:-0.65371955 8:-0.56452417 
0 0 2187 0 2187 0 0 2187 0 0 0 0 0 0 0 0 0 0 0 0 0 0 0 0 2:0.44594595 3:0.41176471 4:-0.75221239 5:-0.19886665 6:-0.29186281 7:-0.38117182 8:-0.30543099 
0 0 2187 2187 2187 0 0 2187 2187 0 2187 0 0 0 2187 0 0 2187 1026.1251145599713 1094.7018669941972 0 0 31.050748332558928 0 2:0.22972973 3:0.34453782 4:-0.7079646 5:-0.30688861 6:-0.57700067 7:-0.2600395 8:-0.4120578 
0 0 0 0 2187 0 0 2187 0 1927.5868906673527 0 0 0 0 0 0 0 0 0 0 0 0 0 0 2:0.54054054 3:0.51260504 4:-0.7079646 5:-0.067823623 6:-0.26160054 7:-0.20737327 8:-0.33532636 
0 0 0 2187 2187 0 0 2187 0 2187 0 0 0 0 0 0 0 0 0 0 0 0 0 0 2:0.55405405 3:0.51260504 4:-0.7079646 5:-0.17974146 6:-0.35776732 7:-0.27978934 8:-0.30742402 
2187 0 2187 424.29110734629103 2187 0 2187 2187 0 2187 0 0 0 0 0 0 0 306.579524552809 199.51322598398488 0 0 0 0 0 1:1 2:0.2027027 3:0.19327731 4:-0.75221239 5:-0.53214096 6:-0.62811029 7:-0.59183673 8:-0.61235675 
0 0 0 0 2187 0 0 2187 0 0 0 0 0 0 0 0 0 0 0 0 0 0 0 0 1:-1 2:0.55405405 3:0.57983193 4:-0.67256637 5:0.052594298 6:-0.1069267 7:-0.11389072 8:-0.24962631 
0 0 2187 0 2187 0 0 2187 0 2187 0 0 0 0 0 0 0 0 0 0 0 0 0 0 1:1 2:0.39189189 3:0.36134454 4:-0.74336283 5:-0.36284753 6:-0.43779422 7:-0.53127057 8:-0.48480319 
2187 0 2187 2187 2187 0 2187 2187 2187 1492.8938176686913 1648.4019704361576 0 0 0 0 0 0 654.86342898013424 0 0 0 0 0 0 1:1 2:0.067567568 3:-0.0084033613 4:-0.76106195 5:-0.5997875 6:-0.68997983 7:-0.61553654 8:-0.69905331 
0 0 2187 0 2187 0 0 2187 0 0 0 0 0 0 0 0 0 0 0 0 0 0 0 0 1:-1 2:0.5 3:0.42857143 4:-0.73451327 5:-0.10111564 6:-0.11297915 7:-0.36273864 8:-0.38515197 
2187 0 2187 0 2187 0 0 2187 0 2187 0 0 0 0 0 0 0 0 0 0 0 0 0 0 1:-1 2:0.31081081 3:0.34453782 4:-0.7079646 5:-0.39224367 6:-0.46133154 7:-0.55497038 8:-0.51469856 
0 600.92644217907343 2187 2187 2187 0 0 2187 2187 2187 2187 0 0 0 0 0 0 0 0 0 0 0 0 0 2:0.27027027 3:0.29411765 4:-0.69026549 5:-0.4528068 6:-0.5998655 7:-0.50757077 8:-0.47483807 
2187 286.15062237866636 2187 0 2187 0 0 2187 0 2187 0 0 0 0 0 0 0 0 0 0 0 0 0 0 1:-1 2:0.21621622 3:0.15966387 4:-0.69911504 5:-0.48397379 6:-0.6260928 7:-0.46017117 8:-0.61434978 
0 0 2187 2187 2187 0 0 2187 2187 2187 2187 0 0 0 603.39129197078671 0 0 0 0 0 0 0 0 0 2:0.2027027 3:0.17647059 4:-0.75221239 5:-0.51159908 6:-0.63012777 7:-0.640553 8:-0.57448929 
0 2187 2187 2187 2187 0 0 2187 2187 2187 2187 291.50953970213453 0 874.7731293478522 2187 0 0 769.51471375585857 0 274.80030118737841 0 0 0 0 1:-1 2:0.37837838 3:0.2605042 4:-0.71681416 5:-0.3249513 6:-0.51378615 7:-0.53785385 8:-0.46487294 
0 2187 0 2187 2187 0 0 2187 2036.7066978243163 2187 2187 1117.3875268280292 0 120.50076514217803 1687.4341231225499 0 2187 2187 2187 225.78322903230742 556.11032230250476 0 0 0 2:0.48648649 3:0.46218487 4:-0.72566372 5:-0.14538693 6:-0.37592468 7:-0.57472021 8:-0.1838565 
0 1234.4288758303414 2187 1217.6689293332445 2187 0 0 2187 0 2187 421.90182593639292 0 0 382.41355247737965 573.71297733890844 0 0 0 0 0 0 0 0 0 1:-1 2:0.45945946 3:0.44537815 4:-0.61946903 5:-0.32034709 6:-0.43375925 7:-0.53785385 8:-0.42501246 
2187 0 2187 0 2187 0 2187 2187 0 0 0 0 0 0 0 0 0 0 0 0 0 0 0 0 2:0.25675676 3:0.22689076 4:-0.75221239 5:-0.43120241 6:-0.50504371 7:-0.54707044 8:-0.58445441 
0 0 2187 0 2187 0 0 2187 0 0 0 0 0 0 0 0 0 0 0 0 0 0 0 0 2:0.59459459 3:0.51260504 4:-0.71681416 5:-0.086594652 6:-0.15265636 7:-0.23107307 8:-0.36522172 
0 0 0 0 2187 0 0 2187 0 0 0 0 0 0 0 0 0 0 0 0 0 0 0 0 1:-1 2:0.63513514 3:0.54621849 4:-0.69911504 5:0.14007438 6:0.13046402 7:-0.19552337 8:-0.21574489 
0 0 0 0 2187 0 0 2187 0 0 0 0 0 0 0 0 0 0 0 0 0 0 0 0 1:-1 2:0.56756757 3:0.54621849 4:-0.71681416 5:-0.073490349 6:-0.25756557 7:-0.029624753 8:-0.31539611 
0 0 2187 550.02145920976147 2187 0 0 2187 2187 2187 0 0 0 0 0 0 0 0 0 0 0 0 0 0 2:0.5 3:0.52941176 4:-0.67256637 5:-0.1266159 6:-0.31338265 7:-0.082290981 8:-0.39212755 
2187 0 2187 2187 2187 0 0 2187 0 2187 0 0 0 0 0 0 0 179.42411316707643 0 195.82909361725081 0 0 0 0 2:-0.054054054 3:-0.025210084 4:-0.80530973 5:-0.74180981 6:-0.83322125 7:-0.78801843 8:-0.76980568 
0 0 0 0 2187 0 0 2187 0 0 0 0 0 0 0 0 0 0 0 0 0 0 0 0 1:-1 2:0.54054054 3:0.49579832 4:-0.69026549 5:-0.053302639 6:-0.14996638 7:-0.21395655 8:-0.30742402 
2187 0 2187 0 2187 0 2187 2187 0 531.70164553239192 0 690.77872622921359 0 0 0 0 0 0 0 0 0 0 0 0 1:1 2:0.2027027 3:0.14285714 4:-0.79646018 5:-0.54489109 6:-0.57700067 7:-0.67346939 8:-0.632287 
0 0 0 0 2187 0 0 2187 0 0 0 0 0 0 0 0 0 0 0 0 0 0 0 0 1:-1 2:0.52702703 3:0.51260504 4:-0.68141593 5:-0.082698778 6:-0.20780094 7:-0.17840685 8:-0.27952167 
0 0 0 0 326.33579062742132 0 0 1977.9589996003026 0 1996.1943374562666 0 0 0 0 0 0 0 0 0 0 0 0 0 0 2:0.82432432 3:0.73109244 4:-0.62831858 5:0.58243315 6:0.49024882 7:0.36668861 8:0.083208769 
0 0 0 0 0 0 0 0 2187 491.02980807810627 0 0 0 0 69.491066864821931 0 0 134.26337395745756 219.7646133162113 0 0 0 0 0 2:0.83783784 3:0.91596639 4:-0.62831858 5:0.7729768 6:0.60793544 7:0.34957209 8:0.34927753 
0 0 0 0 2187 0 0 2187 2187 2187 0 0 0 0 0 0 0 0 0 0 0 0 0 0 2:0.51351351 3:0.44537815 4:-0.66371681 5:-0.026385692 6:-0.14862139 7:-0.24160632 8:-0.19382162 
0 0 2187 0 2187 0 0 2187 0 0 0 0 0 0 0 0 0 0 0 0 0 0 0 0 1:-1 2:0.60810811 3:0.56302521 4:-0.7079646 5:-0.016823092 6:-0.045057162 7:-0.24687294 8:-0.40508221 
2187 0 2187 2187 2187 2187 2187 2187 502.42881806328063 0 0 0 0 0 0 1089.8674984389093 0 0 0 0 0 0 0 0 1:1 2:-0.2027027 3:-0.24369748 4:-0.84070796 5:-0.8363733 6:-0.8796234 7:-0.85780118 8:-0.86347783 
0 0 2187 2187 2187 0 0 2187 2187 1220.1700725071903 0 0 0 0 0 0 0 0 0 0 0 0 0 0 2:0.2027027 3:0.2605042 4:-0.73451327 5:-0.48574464 6:-0.59515804 7:-0.58657011 8:-0.5346288 
0 0 0 2187 2187 0 0 2187 2187 2187 2187 940.30947271571631 0 714.90771179622061 2187 0 1009.6990919385103 2187 555.33107486534675 1587.166714561371 0 0 0 0 1:-1 2:0.22972973 3:0.19327731 4:-0.7079646 5:-0.48291128 6:-0.7471419 7:-0.55365372 8:-0.38515197 
0 0 0 0 0 0 0 2187 0 0 74.185427534915618 0 0 0 0 0 0 0 0 0 0 0 0 0 1:-1 2:0.62162162 3:0.56302521 4:-0.74336283 5:-0.03488578 6:-0.25218561 7:-0.10467413 8:-0.23567514 
0 0 2187 2187 2187 0 0 2187 0 2187 0 89.873383724297625 0 0 942.27548698158057 0 0 0 0 0 0 0 0 0 2:0.48648649 3:0.31092437 4:-0.71681416 5:-0.22932531 6:-0.38264963 7:-0.22053983 8:-0.39711011 
0 0 2187 0 2187 0 0 2187 0 0 0 0 0 0 0 0 0 0 0 0 0 0 0 0 2:0.48648649 3:0.49579832 4:-0.71681416 5:-0.13936604 6:-0.23133826 7:-0.4562212 8:-0.29546587 
0 0 2187 0 2187 0 0 2187 0 0 0 0 0 0 0 0 0 0 0 0 0 0 0 0 2:0.5 3:0.4789916 4:-0.7079646 5:-0.075261201 6:-0.19569603 7:-0.25345622 8:-0.37518685 
0 0 0 0 2187 0 0 2187 0 0 0 0 0 0 0 0 0 0 0 0 0 0 0 0 1:-1 2:0.51351351 3:0.54621849 4:-0.71681416 5:-0.14609527 6:-0.27706792 7:-0.25872284 8:-0.31539611 
0 0 2187 2187 2187 0 0 2187 2187 2187 0 0 0 0 277.84275546802172 0 0 0 0 0 0 0 0 0 2:0.21621622 3:0.19327731 4:-0.76106195 5:-0.49955729 6:-0.60726295 7:-0.59973667 8:-0.5346288 
0 0 0 0 0 0 0 2187 0 0 0 0 0 0 0 0 0 0 0 0 0 0 0 0 2:0.71621622 3:0.69747899 4:-0.68141593 5:0.16876217 6:-0.012777404 7:0.0019749835 8:-0.10114599 
0 0 2187 0 2187 0 0 2187 0 0 0 0 0 0 0 0 0 0 0 0 0 0 0 0 2:0.44594595 3:0.44537815 4:-0.69911504 5:-0.22188773 6:-0.31203766 7:-0.39828835 8:-0.39511709 
0 0 0 2187 2187 0 0 2187 0 2187 0 0 0 0 0 0 0 1111.707213089428 0 0 0 0 0 0 2:0.63513514 3:0.52941176 4:-0.6460177 5:0.13724101 6:-0.041022192 7:-0.10862409 8:-0.06527155 
2187 689.89378183356746 2187 0 2187 0 0 2187 0 0 682.42980315272393 849.11611072516098 0 0 0 0 0 662.81771969839474 249.02655379107259 0 0 0 0 0 1:1 2:0.2027027 3:0.092436975 4:-0.75221239 5:-0.62953781 6:-0.76260928 7:-0.69848585 8:-0.63428002 
0 0 0 2187 0 0 0 2187 0 1557.1101022100024 0 0 0 0 0 0 0 0 0 0 0 0 0 0 2:0.67567568 3:0.71428571 4:-0.66371681 5:0.24774216 6:0.0026899798 7:0.049374589 8:-0.01145989 
0 0 0 0 0 0 0 2187 0 0 0 0 0 0 0 0 0 0 0 0 0 0 0 0 2:0.71621622 3:0.66386555 4:-0.69911504 5:0.14184523 6:-0.0020174849 7:-0.092824226 8:-0.10612855 
2187 0 2187 0 2187 0 1132.6485719568459 2187 0 0 0 0 0 0 0 0 0 0 0 0 0 0 0 0 1:-1 2:0.35135135 3:0.24369748 4:-0.75221239 5:-0.38976448 6:-0.47276395 7:-0.40355497 8:-0.60438465 
0 0 0 0 1462.7361500997943 0 0 2187 0 0 0 0 0 0 0 0 0 0 0 0 0 0 0 0 1:-1 2:0.55405405 3:0.57983193 4:-0.69026549 5:0.040906676 6:-0.093476799 7:-0.17182357 8:-0.2077728 
2187 0 2187 0 2187 0 2187 2187 0 1806.8091518311576 0 782.97957572283985 0 0 0 0 0 0 0 0 0 0 0 0 2:0.40540541 3:0.39495798 4:-0.72566372 5:-0.20736674 6:-0.39408204 7:-0.53258723 8:-0.69407075 
0 0 0 0 2187 0 0 2187 0 0 0 0 0 0 0 0 0 0 0 0 0 0 0 0 2:0.72972973 3:0.57983193 4:-0.67256637 5:0.10359483 6:-0.1062542 7:0.0072416063 8:-0.19581465 
0 0 2187 0 2187 0 0 2187 0 2187 1148.6482366909088 2114.2404879388837 0 799.73556202508553 0 0 0 0 0 0 0 0 0 0 2:0.39189189 3:0.39495798 4:-0.69911504 5:-0.36391004 6:-0.52387357 7:-0.49967084 8:-0.50473343 
0 60.808542749458539 0 2187 2187 0 0 2187 1750.4538308323408 79.208855593169275 2187 0 0 0 0 0 0 0 0 0 0 0 0 0 1:-1 2:0.41891892 3:0.36134454 4:-0.69911504 5:-0.16522047 6:-0.38802959 7:-0.11389072 8:-0.3472845 
2187 0 2187 2187 2187 0 1811.6665032684416 2187 0 2187 0 0 0 0 61.536262296087244 0 0 0 0 0 0 0 0 0 2:0.081081081 3:-0.0084033613 4:-0.79646018 5:-0.68124668 6:-0.77067922 7:-0.75905201 8:-0.69407075 
0 0 2187 2187 2187 0 0 2187 2187 0 2187 0 0 0 0 0 0 0 0 0 0 0 0 0 1:-1 2:0.16216216 3:0.15966387 4:-0.7699115 5:-0.46024438 6:-0.59314055 7:-0.5036208 8:-0.56950673 
0 559.27431853460416 2187 2187 2187 0 0 2187 2187 0 2187 0 0 0 0 0 0 0 0 0 0 0 0 0 2:0.31081081 3:0.29411765 4:-0.75221239 5:-0.34372233 6:-0.48688635 7:-0.50625411 8:-0.40508221 
0 1105.4665137196707 0 2187 2187 0 0 2187 2187 2166.494395151035 2187 0 0 0 0 0 0 0 1039.7432654372099 0 0 0 0 0 1:-1 2:0.45945946 3:0.4789916 4:-0.72566372 5:-0.090136356 6:-0.41627438 7:-0.22975642 8:-0.35625311 
2187 0 2187 0 2187 113.46571629974345 2187 2187 0 2187 294.56994446793544 683.84478026120223 0 0 0 0 235.93207564566404 0 0 0 0 0 0 0 1:-1 2:-0.17567568 3:-0.22689076 4:-0.82300885 5:-0.81264388 6:-0.84667115 7:-0.84068466 8:-0.85351271 
2187 0 2187 0 2187 0 2187 2187 0 0 0 0 0 0 0 0 0 0 0 0 0 0 0 0 1:1 2:0.067567568 3:-0.025210084 4:-0.79646018 5:-0.65539224 6:-0.73167451 7:-0.71691903 8:-0.67214748 
0 0 0 0 0 0 0 2187 0 0 0 0 0 0 0 0 0 0 0 0 0 0 0 371.9293942060666 2:0.75675676 3:0.73109244 4:-0.63716814 5:0.1457411 6:-0.00067249496 7:-0.17182357 8:-0.030393622 
0 0 0 2187 2187 0 0 2187 0 2187 2187 0 0 0 0 0 0 0 0 0 0 0 0 0 1:-1 2:0.58108108 3:0.52941176 4:-0.69026549 5:-0.13865769 6:-0.32145259 7:-0.2034233 8:-0.2655705 
0 0 2187 0 2187 0 0 2187 0 2187 0 0 0 0 0 0 0 0 0 0 0 0 0 0 1:-1 2:0.45945946 3:0.39495798 4:-0.74336283 5:-0.27288826 6:-0.40484196 7:-0.25740619 8:-0.43497758 
2187 0 2187 0 2187 0 2187 2187 0 2187 0 763.07203972705656 0 0 0 0 0 0 0 0 0 0 0 0 1:1 2:0.067567568 3:-0.0084033613 4:-0.7699115 5:-0.67132991 6:-0.75319435 7:-0.74061883 8:-0.714001 
0 0 0 0 0 0 0 2187 0 2187 0 0 0 0 0 0 0 0 0 0 0 0 0 0 1:-1 2:0.63513514 3:0.56302521 4:-0.7079646 5:0.04515672 6:-0.027572293 7:-0.26662278 8:-0.19382162 
0 0 0 0 2187 0 0 2187 1520.5485066535407 2187 0 0 0 0 0 0 0 0 0 0 0 0 0 0 2:0.54054054 3:0.49579832 4:-0.6460177 5:0.010448026 6:-0.14189644 7:-0.19815668 8:-0.28550075 
2187 0 2187 1341.0524072049047 2187 2034.738644016915 2187 2187 355.38016155283401 2187 0 0 0 0 0 0 0 337.82898406032206 0 0 0 0 0 0 1:1 3:-0.075630252 4:-0.78761062 5:-0.75562245 6:-0.8399462 7:-0.7801185 8:-0.79372197 
2187 1380.6817472953812 2187 0 2187 0 2187 2187 0 2187 0 399.91764976200864 0 0 0 0 0 0 205.96833179478989 0 0 0 0 0 1:1 2:0.054054054 3:0.092436975 4:-0.7699115 5:-0.67983 6:-0.7464694 7:-0.79065174 8:-0.69407075 
2187 0 2187 2187 2187 77.121662229557742 2187 2187 0 2187 0 0 0 0 0 0 0 885.88944713765875 0 0 0 0 0 0 2:-0.027027027 3:-0.1092437 4:-0.78761062 5:-0.73330972 6:-0.79690652 7:-0.76036866 8:-0.75386148 
0 0 0 0 0 0 0 2187 0 0 0 0 0 0 0 0 0 0 0 0 0 0 0 0 1:-1 2:0.56756757 3:0.79831933 4:-0.6460177 5:0.093323889 6:-0.12172159 7:-0.0098749177 8:-0.1758844 
0 0 0 0 0 0 0 2187 0 2187 0 0 0 0 0 0 0 0 0 0 0 0 0 0 2:0.71621622 3:0.71428571 4:-0.65486726 5:0.28563839 6:0.054472091 7:0.29427255 8:-0.026407573 
0 0 0 0 2187 0 0 2187 0 2187 0 0 0 0 0 0 0 0 0 0 0 0 0 0 2:0.58108108 3:0.51260504 4:-0.67256637 5:0.080927926 6:-0.07330195 7:-0.20473996 8:-0.12406577 
0 0 2187 2187 2187 0 0 2187 2187 2187 2187 0 0 0 0 0 0 0 0 0 0 0 0 0 1:-1 2:0.33783784 3:0.34453782 4:-0.72566372 5:-0.41207721 6:-0.51916611 7:-0.54312047 8:-0.45092177 
0 0 2187 0 2187 0 0 2187 0 2187 0 0 0 0 0 0 0 0 0 0 0 0 0 0 2:0.51351351 3:0.44537815 4:-0.7079646 5:-0.10217815 6:-0.24344317 7:-0.19420671 8:-0.32635775 
0 0 0 0 2187 0 0 2187 0 2187 0 0 0 0 0 0 0 0 0 0 0 0 0 0 2:0.60810811 3:0.6302521 4:-0.65486726 5:0.14538693 6:-0.0060524546 7:-0.13100724 8:-0.076233184 
0 0 0 2187 2187 0 0 2187 0 2187 0 0 0 0 0 0 0 0 0 0 0 0 0 0 2:0.62162162 3:0.52941176 4:-0.67256637 5:0.041969187 6:-0.15467384 7:-0.20473996 8:-0.15695067 
0 0 0 2187 0 0 0 0 0 254.34292537918853 0 0 0 0 0 0 0 0 0 0 0 0 0 0 1:-1 2:0.82432432 3:0.66386555 4:-0.68141593 5:0.33947229 6:0.26563551 7:0.044107966 8:-0.11609367 
0 0 2187 0 2187 0 0 2187 0 0 0 0 0 0 0 0 0 0 0 0 0 0 0 0 1:-1 2:0.64864865 3:0.56302521 4:-0.73451327 5:-0.028510714 6:-0.034969738 7:-0.22975642 8:-0.36522172 
2187 0 2187 1915.3255100968795 2187 2187 2187 2187 2015.9505351662688 2187 0 0 0 0 0 0 0 0 0 0 0 0 0 0 1:1 2:-0.067567568 3:-0.092436975 4:-0.82300885 5:-0.7407473 6:-0.77605918 7:-0.83673469 8:-0.77678127 
2187 0 2187 0 2187 0 2187 2187 0 0 0 0 0 0 0 0 0 0 0 0 0 0 0 0 1:-1 2:-0.24324324 3:-0.24369748 4:-0.83185841 5:-0.82751904 6:-0.87289845 7:-0.83805135 8:-0.85351271 
0 0 0 0 0 0 0 0 2187 2187 88.223486406833999 0 0 0 2187 0 0 0 0 0 0 0 405.35410179523933 0 1:-1 2:0.77027027 3:0.74789916 4:-0.62831858 5:0.46414025 6:0.24747814 7:0.075707702 8:0.27852516 
0 0 0 2187 2187 0 0 2187 2187 2187 2187 2187 0 0 2187 0 2187 2187 1328.7916496373516 1172.8471147935861 1021.9794052140967 0 0 0 2:0.58108108 3:0.59663866 4:-0.67256637 5:-0.047990083 6:-0.2669805 7:-0.28900592 8:-0.054309915 
0 0 2187 0 2187 0 0 2187 0 0 0 0 0 0 0 0 0 0 0 0 0 0 0 0 2:0.51351351 3:0.51260504 4:-0.72566372 5:-0.088011333 6:-0.20242098 7:-0.17445688 8:-0.31539611 
2187 0 2187 0 2187 0 0 2187 0 2187 0 0 0 0 0 0 0 0 0 0 0 0 0 0 1:-1 2:0.33783784 3:0.36134454 4:-0.72566372 5:-0.2927218 6:-0.39071957 7:-0.46148782 8:-0.47483807 
0 0 2187 2187 2187 0 0 2187 2187 0 0 12.660439920543425 0 0 0 0 129.1027849207201 0 0 0 0 0 0 0 1:1 2:0.32432432 3:0.2605042 4:-0.73451327 5:-0.41951479 6:-0.55480834 7:-0.55760369 8:-0.42501246 
0 0 0 0 2187 0 0 2187 0 0 0 0 0 0 0 0 0 0 0 0 0 0 0 648.95996700976127 2:0.68918919 3:0.66386555 4:-0.69911504 5:0.19142908 6:0.012104909 7:-0.14154049 8:-0.36522172 
0 0 1685.8003264821689 2187 2187 0 0 2187 2187 2187 0 0 0 0 0 0 0 0 0 0 0 0 0 0 2:0.51351351 3:0.4789916 4:-0.65486726 5:-0.082698778 6:-0.2535306 7:-0.21527321 8:-0.2655705 
0 0 2187 0 2187 0 0 2187 0 0 0 0 0 0 0 0 0 0 0 0 0 0 0 0 2:0.41891892 3:0.39495798 4:-0.76106195 5:-0.31432619 6:-0.37525219 7:-0.48650428 8:-0.47683109 
2187 0 2187 0 2187 0 0 2187 0 1797.9920290800148 0 0 0 0 0 0 0 0 0 0 0 0 0 0 1:-1 2:-0.16216216 3:-0.14285714 4:-0.82300885 5:-0.79989375 6:-0.85810356 7:-0.8038183 8:-0.8036871 
0 0 0 2187 2187 0 0 2187 0 2187 0 0 0 0 0 0 0 0 0 0 0 0 0 0 2:0.52702703 3:0.49579832 4:-0.69911504 5:0.073490349 6:-0.06926698 7:-0.14285714 8:-0.18784255 
0 0 2187 0 2187 0 0 2187 0 0 0 0 0 0 0 0 0 0 0 0 0 0 0 0 2:0.48648649 3:0.39495798 4:-0.74336283 5:-0.30440942 6:-0.36247478 7:-0.47465438 8:-0.47483807 
0 0 0 2187 2187 0 0 2187 0 0 0 0 0 0 0 0 0 0 0 0 0 0 0 0 1:-1 2:0.56756757 3:0.52941176 4:-0.61946903 5:0.26190898 6:0.19367855 7:0.077024358 8:-0.16691579 
0 125.14687707851509 1603.3193296316365 2187 2187 0 0 2187 76.353725956278439 2187 0 0 0 0 0 0 0 0 0 0 0 0 0 0 1:-1 2:0.054054054 3:-0.0084033613 4:-0.78761062 5:-0.63272534 6:-0.73032952 7:-0.57340355 8:-0.63428002 
0 661.6810566233122 0 2187 0 0 0 2187 0 2187 2187 2187 0 0 0 0 2187 650.30408640664336 988.1596018487835 1262.2042812701436 0 0 0 0 1:-1 2:0.62162162 3:0.54621849 4:-0.73451327 5:-0.072073667 6:-0.2535306 7:-0.25213957 8:-0.18285999 
573.34037623116387 0 2187 0 2187 0 0 2187 0 1955.2980201935993 0 0 0 0 0 0 0 0 0 0 0 0 0 0 1:-1 2:0.027027027 3:-0.0084033613 4:-0.78761062 5:-0.65893395 6:-0.75722932 7:-0.62211982 8:-0.68410563 
2187 203.65244430917184 2187 0 2187 0 2187 2187 0 2187 0 0 0 0 0 0 0 0 0 0 0 0 0 0 1:-1 2:0.21621622 3:0.15966387 4:-0.75221239 5:-0.48255711 6:-0.55211836 7:-0.58657011 8:-0.66417539 
0 0 2187 0 2187 0 0 2187 0 2187 0 0 0 0 0 0 0 0 0 0 0 0 0 0 2:0.56756757 3:0.34453782 4:-0.69911504 5:-0.088011333 6:-0.21183591 7:-0.1678736 8:-0.3223717 
0 0 0 2187 2187 0 0 2187 2187 2187 2187 0 0 758.13788361305558 0 0 0 0 0 0 0 0 0 0 1:-1 2:0.2027027 3:0.22689076 4:-0.71681416 5:-0.47370285 6:-0.65837256 7:-0.58788677 8:-0.42800199 
0 0 0 0 2187 0 0 2187 0 2187 0 0 0 0 0 0 0 0 0 0 0 0 0 0 1:-1 2:0.54054054 3:0.52941176 4:-0.71681416 5:-0.16309545 6:-0.2535306 7:-0.37327189 8:-0.31539611 
2187 0 2187 0 2187 2187 2187 2187 0 0 0 0 41.208275990310327 0 0 1997.6686468343323 0 3.0491685922737668 0 0 0 0 0 0 1:-1 2:-0.36486486 3:-0.39495798 4:-0.89380531 5:-0.9164158 6:-0.94552791 7:-0.91441738 8:-0.92326856 
0 0 0 2187 2187 0 0 2187 0 2187 2187 606.25583910451508 0 0 2187 0 1756.8353665288869 2187 2187 0 0 0 0 0 2:0.56756757 3:0.54621849 4:-0.68141593 5:-0.0012395962 6:-0.16812374 7:-0.34693878 8:-0.012456403 
0 0 0 2009.5556093801956 1529.9677098771583 0 0 2187 746.29862164531403 0 0 1888.3697301442794 0 0 1184.6421388562765 0 29.949581009359481 100.54331822034895 0 0 0 0 2.9680496163652301 0 1:1 2:0.58108108 3:0.57983193 4:-0.61946903 5:0.26367983 6:-0.096839274 7:-0.049374589 8:-0.19282511 
0 2187 0 2187 2187 0 0 2187 2187 2187 2187 0 0 0 2187 0 0 2187 0 0 0 0 0 0 2:0.51351351 3:0.56302521 4:-0.7079646 5:-0.051885957 6:-0.3201076 7:-0.22185648 8:-0.18186348 
0 2187 2187 2187 2187 0 0 2187 2187 2187 2187 0 0 2187 2187 0 1635.7569340873652 2187 799.15984238195585 0 0 0 0 0 2:0.2972973 3:0.24369748 4:-0.75221239 5:-0.4432442 6:-0.62205783 7:-0.58130349 8:-0.43497758 
0 0 2187 2187 2187 0 0 2187 2187 2187 2187 0 0 0 2187 0 0 2187 0 0 0 0 0 0 1:-1 2:0.37837838 3:0.32773109 4:-0.69026549 5:-0.20276253 6:-0.33893746 7:-0.31138907 8:-0.33532636 
0 0 0 0 2187 0 0 2187 0 2187 0 0 0 0 0 0 0 0 0 0 0 0 0 0 1:-1 2:0.60810811 3:0.49579832 4:-0.6460177 5:-0.10253232 6:-0.2266308 7:-0.21527321 8:-0.30343797 
0 0 656.17990702888812 1118.9018317471487 2187 0 0 2187 1451.7913903533674 427.59747645336017 0 0 0 0 2187 0 0 0 0 0 0 0 0 0 1:1 2:0.43243243 3:0.44537815 4:-0.73451327 5:-0.12449088 6:-0.15198386 7:-0.40618828 8:-0.34529148 
2187 0 2187 2187 2187 0 0 2187 2187 432.542949025479 0 0 0 0 245.49456550270924 0 0 246.00122118419497 0 0 0 0 0 0 1:1 2:0.35135135 3:0.32773109 4:-0.76106195 5:-0.41738976 6:-0.54741089 7:-0.4443713 8:-0.5266567 
0 0 2187 0 2187 0 0 2187 1059.8969443546446 0 0 0 0 0 1933.1048881251293 0 0 0 0 0 0 0 0 0 1:1 2:0.47297297 3:0.41176471 4:-0.71681416 5:-0.35895166 6:-0.50235373 7:-0.56155365 8:-0.39013453 
0 0 0 900.48132286724751 0 0 0 2187 0 0 0 0 0 0 0 0 0 0 0 0 0 0 0 0 1:-1 2:0.67567568 3:0.59663866 4:-0.66371681 5:0.22117939 6:0.024209818 7:0.14680711 8:-0.096163428 
0 0 2187 0 2187 0 0 2187 0 2187 0 0 0 0 0 0 0 0 0 0 0 0 0 0 1:-1 2:0.39189189 3:0.46218487 4:-0.76106195 5:-0.28740924 6:-0.43375925 7:-0.41013825 8:-0.43497758 
2187 0 2187 2187 2187 0 0 2187 0 2187 0 0 0 0 0 0 0 0 0 0 0 0 0 0 1:-1 2:0.22972973 3:0.19327731 4:-0.72566372 5:-0.4945989 6:-0.62407532 7:-0.55760369 8:-0.57648231 
0 0 2187 0 2187 0 0 2187 0 2187 0 0 0 0 0 0 0 0 0 0 0 0 0 0 1:-1 2:0.35135135 3:0.39495798 4:-0.75221239 5:-0.40818134 6:-0.53261601 7:-0.54443713 8:-0.52466368 
0 0 0 0 2187 0 0 2187 0 0 2187 0 0 0 0 0 0 0 0 0 0 0 0 0 1:-1 2:0.52702703 3:0.59663866 4:-0.7079646 5:-0.1588454 6:-0.3604573 7:-0.21132324 8:-0.30543099 
2187 0 2187 2187 2187 0 0 2187 487.11251166623367 2187 0 0 0 0 0 0 0 2187 0 0 0 0 0 0 3:0.0084033613 4:-0.73451327 5:-0.65787144 6:-0.75790182 7:-0.67215273 8:-0.69407075 
0 657.90056097287118 0 2187 2187 0 0 2187 2187 2187 2187 0 0 0 2187 0 0 333.0360527939693 0 0 0 0 0 0 1:-1 2:0.21621622 3:0.15966387 4:-0.7699115 5:-0.41384806 6:-0.67787492 7:-0.52073733 8:-0.45490782 
0 0 0 0 2187 0 0 2187 0 0 0 0 0 0 0 0 0 0 0 0 0 0 0 0 2:0.47297297 3:0.6302521 4:-0.7079646 5:-0.19461661 6:-0.32952253 7:-0.36010533 8:-0.29147982 
0 0 2187 2187 2187 0 0 2187 2187 2187 2187 0 0 0 901.00973342984128 0 0 0 0 0 0 0 0 0 1:-1 2:0.36486486 3:0.31092437 4:-0.73451327 5:-0.32672215 6:-0.42098184 7:-0.48913759 8:-0.43099153 
2187 0 2187 2187 2187 0 2187 2187 0 2187 0 0 0 0 0 0 0 382.38422965739176 0 0 0 0 0 0 2:-0.027027027 3:-0.0084033613 4:-0.78761062 5:-0.67664247 6:-0.74310693 7:-0.73798552 8:-0.74389636 
0 0 0 809.97207823939345 0 0 0 0 2187 2187 0 0 0 0 2187 0 0 2187 67.892109810019306 0 0 0 0 0 2:0.82432432 3:0.71428571 4:-0.61946903 5:0.37134762 6:0.039004707 7:0.26925609 8:0.1429995 
0 0 0 66.140193490629457 2187 0 0 2187 125.92125781384034 2187 0 0 0 0 0 0 0 0 0 0 0 0 0 0 2:0.47297297 3:0.52941176 4:-0.68141593 5:-0.058261024 6:-0.20242098 7:-0.27452271 8:-0.22969606 
2187 0 2187 2187 2187 0 0 2187 2187 2187 0 0 0 512.23493455946982 2187 0 0 0 0 0 0 0 0 0 2:0.16216216 3:0.1092437 4:-0.79646018 5:-0.5650788 6:-0.67451244 7:-0.71823568 8:-0.58445441 
2187 0 2187 0 2187 0 0 2187 0 2187 0 0 0 0 0 0 0 0 0 0 0 0 0 0 2:0.12162162 3:0.1092437 4:-0.77876106 5:-0.61926687 6:-0.70880968 7:-0.6642528 8:-0.67414051 
0 0 0 165.60823154068322 0 0 0 0 0 501.29206708905173 0 0 0 0 0 0 0 0 0 0 0 0 0 0 1:-1 2:0.71621622 3:0.74789916 4:-0.61946903 5:0.42163981 6:0.32952253 7:0.17709019 8:-0.0024912805 
2187 0 2187 0 2187 0 0 2187 0 2187 0 0 0 0 0 0 0 0 0 0 0 0 0 0 2:0.16216216 3:0.19327731 4:-0.73451327 5:-0.54524526 6:-0.61802286 7:-0.6194865 8:-0.58445441 
0 0 0 2187 0 0 0 2187 2187 0 2187 0 0 0 0 0 0 0 0 0 0 0 0 0 1:-1 2:0.54054054 3:0.52941176 4:-0.72566372 5:0.088719674 6:-0.13987895 7:-0.057274523 8:-0.14598904 
0 0 2187 0 2187 0 0 2187 0 0 0 0 0 0 0 0 0 0 0 0 0 0 0 0 2:0.52702703 3:0.44537815 4:-0.74336283 5:-0.19851248 6:-0.25823806 7:-0.34167215 8:-0.40209268 
1752.0436879996867 0 2187 0 2187 0 0 2187 0 0 0 0 0 0 0 0 0 0 0 0 0 0 0 0 1:-1 2:0.52702703 3:0.4789916 4:-0.7079646 5:-0.075615371 6:-0.089441829 7:-0.23238973 8:-0.47284504 
0 0 2187 0 2187 0 0 2187 0 0 0 0 0 0 0 0 0 0 0 0 0 0 0 0 2:0.43243243 3:0.44537815 4:-0.7079646 5:-0.32743049 6:-0.39139206 7:-0.49308756 8:-0.45191829 
0 0 0 0 0 0 0 2187 0 0 0 0 0 0 0 0 0 0 0 0 0 0 0 0 1:-1 2:0.63513514 3:0.59663866 4:-0.68141593 5:0.081636267 6:0.025554808 7:-0.18104016 8:-0.20079721 
0 0 2187 2187 2187 0 0 2187 2187 1436.8423300949451 2187 526.03724588521652 0 0 0 0 0 1623.2893997020883 299.74433312557989 0 0 0 0 0 1:1 2:0.24324324 3:0.32773109 4:-0.69911504 5:-0.44820259 6:-0.59045057 7:-0.59183673 8:-0.41504733 
0 0 506.55260968628198 2187 2187 0 0 2187 2187 0 2187 0 0 0 0 0 0 0 0 0 0 0 0 0 1:-1 2:0.22972973 3:0.22689076 4:-0.7079646 5:-0.36780591 6:-0.57229321 7:-0.37195523 8:-0.51469856 
0 0 2187 0 2187 0 0 2187 0 2187 0 0 0 0 0 0 0 0 0 0 0 0 0 0 1:-1 2:0.48648649 3:0.4789916 4:-0.72566372 5:-0.25872145 6:-0.3463349 7:-0.44305464 8:-0.36223219 
0 1919.7547738847886 0 2187 2187 0 0 2187 2187 2187 2187 0 0 0 2187 0 0 2187 0 0 0 0 0 0 1:-1 2:0.41891892 3:0.42857143 4:-0.72566372 5:-0.2831592 6:-0.39475454 7:-0.50493746 8:-0.3552566 
0 0 0 0 0 0 0 0 0 1707.3917680942302 0 0 0 0 0 0 0 0 0 0 0 0 0 0 2:0.83783784 3:0.74789916 4:-0.6460177 5:0.46697361 6:0.36180229 7:0.2244898 8:-0.046337818 
0 0 0 0 730.37766308280356 0 0 298.77663996438417 278.88569295958428 0 0 0 0 0 0 0 0 0 0 0 0 0 0 0 2:0.90540541 3:0.93277311 4:-0.61946903 5:0.88064459 6:1 7:0.31138907 8:0.16492277 
0 332.02093563675942 0 729.55396453376875 2187 0 0 2187 0 0 0 0 0 0 0 0 0 0 0 0 0 0 0 0 2:0.55405405 3:0.79831933 4:-0.61061947 5:0.17584558 6:0.034297243 7:-0.0059249506 8:-0.13602392 
0 0 276.17116530168636 710.86855180472628 9.7775321641089477 0 0 0 2187 2187 0 0 0 0 0 0 0 0 16.227527375191926 0 0 0 0 0 1:-1 2:0.71621622 3:0.71428571 4:-0.63716814 5:0.5555162 6:0.3597848 7:0.37458855 8:0.08819133 
0 2187 0 2187 2187 0 0 2187 2187 2187 2187 0 0 473.69179422975765 2187 0 523.30776926400324 2187 2187 0 0 0 0 0 1:-1 2:0.36486486 3:0.39495798 4:-0.7079646 5:-0.34478484 6:-0.56893073 7:-0.47860434 8:-0.37518685 
2187 0 2187 2187 2187 2187 2187 2187 0 2187 0 0 0 0 0 0 0 1016.6444428062582 0 0 0 0 0 0 2:-0.040540541 3:-0.092436975 4:-0.79646018 5:-0.727643 6:-0.80295898 7:-0.72086899 8:-0.78375685 
0 0 2187 0 2187 0 0 2187 0 0 0 0 0 0 0 0 0 0 0 0 0 0 0 0 2:0.44594595 3:0.41176471 4:-0.73451327 5:-0.2126793 6:-0.30262273 7:-0.32323897 8:-0.4040857 
0 0 2187 2187 2187 0 0 2187 637.80051435910207 2187 0 0 0 0 0 0 0 0 0 0 0 0 0 0 2:0.41891892 3:0.32773109 4:-0.75221239 5:-0.3858686 6:-0.54068594 7:-0.48782093 8:-0.42301943 
0 0 0 2187 2187 0 0 2187 0 2187 2187 0 0 0 0 0 0 1743.4304649353408 0 0 0 0 0 0 1:-1 2:0.41891892 3:0.4789916 4:-0.67256637 5:-0.21197096 6:-0.32145259 7:-0.3074391 8:-0.27154958 
0 0 0 0 2187 0 0 2187 0 0 0 0 0 0 0 0 0 0 0 0 0 0 0 0 1:-1 2:0.55405405 3:0.57983193 4:-0.66371681 5:0.14078272 6:0.043712172 7:-0.030941409 8:-0.21275536 
2187 0 2187 0 2187 0 900.0454919907902 2187 0 0 0 0 0 0 0 0 0 0 0 0 0 0 0 0 2:0.40540541 3:0.32773109 4:-0.73451327 5:-0.21232513 6:-0.21250841 7:-0.42067149 8:-0.50473343 
2187 0 2187 0 2187 0 0 2187 0 2187 0 0 0 0 0 0 0 0 0 0 0 0 0 0 1:-1 2:0.27027027 3:0.29411765 4:-0.75221239 5:-0.40676465 6:-0.52252858 7:-0.49967084 8:-0.52765321 
0 0 1632.3781993988623 0 2187 0 0 2187 0 0 0 0 0 0 0 0 0 0 0 0 0 0 0 0 1:-1 2:0.59459459 3:0.54621849 4:-0.66371681 5:0.15919957 6:0.11634163 7:-0.059907834 8:-0.26357748 
1277.356650280502 0 2187 1333.3399770271189 2187 0 0 2187 1306.1525289183433 2187 0 0 0 0 0 0 0 0 0 0 0 0 0 0 1:-1 2:0.40540541 3:0.34453782 4:-0.74336283 5:-0.33415973 6:-0.42299933 7:-0.52205398 8:-0.45092177 
1522.0220500998969 0 2187 0 2187 0 0 2187 0 0 0 0 0 0 0 0 0 0 0 0 0 0 0 0 1:-1 2:0.43243243 3:0.39495798 4:-0.7079646 5:-0.12909509 6:-0.19098857 7:-0.31138907 8:-0.4200299 
0 0 0 376.36973565644377 1508.2323840517893 0 0 2187 954.35365027014848 0 0 0 0 0 0 0 0 0 0 0 0 0 0 0 1:-1 2:0.52702703 3:0.57983193 4:-0.67256637 5:0.20772091 6:0.024882313 7:0.10599078 8:-0.11908321 
0 0 1377.0003438675014 0 2187 0 0 2187 0 2187 0 0 0 0 0 0 0 1738.9858906903175 0 0 0 0 0 0 2:0.43243243 3:0.51260504 4:-0.68141593 5:0.014343899 6:-0.021519839 7:-0.30612245 8:-0.14399601 
0 599.89719786550768 0 2187 2187 0 0 2187 2187 2187 2187 0 0 0 2187 0 0 2187 0 0 0 0 0 0 2:0.52702703 3:0.49579832 4:-0.68141593 5:0.060740216 6:-0.20376597 7:-0.17445688 8:-0.14399601 
0 0 0 2187 2187 0 0 2187 1063.1930901868527 2187 2187 0 0 0 2187 0 0 214.63837466204311 0 0 0 0 0 0 1:-1 2:0.51351351 3:0.46218487 4:-0.69026549 5:-0.027448203 6:-0.16341627 7:-0.28900592 8:-0.21574489 
2187 0 2187 0 2187 0 2187 2187 2187 2187 0 0 0 0 0 0 0 0 0 0 0 0 0 0 1:-1 2:0.094594595 3:0.075630252 4:-0.78761062 5:-0.58384983 6:-0.66039005 7:-0.6642528 8:-0.66018934 
0 0 2187 0 2187 0 0 2187 0 0 0 0 0 0 0 0 0 0 0 0 0 0 0 0 2:0.48648649 3:0.46218487 4:-0.69026549 5:-0.12803258 6:-0.2528581 7:-0.35088874 8:-0.27553563 
0 0 2187 0 2187 0 0 2187 0 2187 0 0 0 0 0 0 0 0 0 0 0 0 0 0 2:0.44594595 3:0.32773109 4:-0.7699115 5:-0.38338941 6:-0.47814391 7:-0.54970375 8:-0.4608869 
0 0 0 759.42499391133401 0 0 0 0 1017.71393991641 491.49776680989476 0 0 0 0 0 0 0 0 0 0 0 0 0 7.3114367018660458 2:0.78378378 3:0.83193277 4:-0.61061947 5:0.80839384 6:0.52320108 7:0.15734036 8:0.19282511 
0 0 2187 0 2187 0 0 2187 0 0 0 0 0 0 0 0 0 0 0 0 0 0 0 0 1:1 2:0.43243243 3:0.27731092 4:-0.7699115 5:-0.36213919 6:-0.42030935 7:-0.54312047 8:-0.48480319 
0 0 2187 0 2187 0 0 2187 0 0 0 0 0 0 0 0 0 0 0 0 0 0 0 0 1:-1 2:0.5 3:0.4789916 4:-0.69026549 5:-0.10217815 6:-0.18762609 7:-0.28768927 8:-0.34927753 
0 0 0 0 2187 0 0 2187 0 2187 0 0 0 0 0 0 0 0 0 0 0 0 0 0 1:-1 2:0.5 3:0.51260504 4:-0.73451327 5:-0.068886134 6:-0.15063887 7:-0.3522054 8:-0.2655705 
1381.643590409969 0 2187 2002.5864826067955 2187 0 0 2187 400.74463962291895 18.509023391519218 0 0 0 0 0 0 0 0 0 0 0 0 0 0 1:-1 2:-0.067567568 3:-0.042016807 4:-0.77876106 5:-0.68301753 6:-0.77942165 7:-0.70506912 8:-0.71599402 
2187 36.694831222321625 2187 2187 2187 0 0 2187 0 0 2187 0 0 0 0 0 0 0 0 0 0 0 0 0 1:1 2:0.16216216 3:0.17647059 4:-0.7699115 5:-0.5771206 6:-0.69939475 7:-0.69190257 8:-0.55455904 
0 0 0 0 2187 0 0 2187 0 0 0 0 0 0 0 0 0 0 0 0 0 0 0 0 1:-1 2:0.51351351 3:0.56302521 4:-0.69026549 5:-0.086240482 6:-0.19435104 7:-0.29295589 8:-0.27154958 
0 1972.6792694595927 0 2187 0 0 0 2187 0 1968.3865548721653 2187 0 0 0 1316.6885065288914 0 0 0 2187 0 0 0 0 0 1:-1 2:0.66216216 3:0.66386555 4:-0.68141593 5:0.19674163 6:-0.1062542 7:0.057274523 8:-0.0064773293 
0 0 2187 2187 2187 0 0 2187 2187 2187 2127.7676764729963 1390.671363967243 0 0 1939.9216577694369 0 0 0 0 0 0 0 0 0 2:0.48648649 3:0.46218487 4:-0.6460177 5:-0.022135647 6:-0.20847344 7:-0.25082291 8:-0.24364723 
0 0 2187 0 2187 0 0 2187 0 0 0 0 0 0 0 0 0 0 0 0 0 0 0 0 1:1 2:0.31081081 3:0.27731092 4:-0.76106195 5:-0.49141137 6:-0.55884331 7:-0.73008558 8:-0.50274041 
2187 0 2187 0 2187 25.430227985808934 0 2187 0 2187 0 0 0 0 0 0 0 0 0 0 0 0 0 0 1:-1 2:0.36486486 3:0.37815126 4:-0.74336283 5:-0.37311847 6:-0.40887693 7:-0.56550362 8:-0.47483807 
0 0 0 0 2187 0 0 2187 0 0 0 0 0 0 0 0 0 0 0 0 0 0 0 0 2:0.64864865 3:0.71428571 4:-0.69026549 5:0.1588454 6:0.044384667 7:-0.013824885 8:-0.13004484 
-0 0 2187 0 2187 0 0 0 0 0 0 0 0 0 0 0 0 0 0 0 0 0 0 0 1:1 2:-0.027027027 3:-0.058823529 4:-0.82300885 5:-0.76801842 6:-0.82784129 7:-0.81698486 8:-0.78375685 
-0 0 2187 0 0 0 2187 0 0 0 0 0 0 0 0 0 0 0 0 0 0 0 0 0 1:1 2:0.040540541 3:0.025210084 4:-0.81415929 5:-0.67132991 6:-0.70208473 7:-0.74061883 8:-0.78375685 
-2187 0 2187 0 2187 0 0 2187 0 0 0 0 0 0 0 0 0 0 0 0 0 0 0 0 1:1 2:0.17567568 3:0.14285714 4:-0.7699115 5:-0.5746414 6:-0.62340282 7:-0.62475313 8:-0.68011958 
-2187 2187 2187 2187 2187 0 2187 2187 2187 2187 2187 2187 0 1396.9286328947221 2187 0 0 2187 1718.8523208169026 0 0 0 0 0 2:0.36486486 3:0.27731092 4:-0.73451327 5:-0.40711882 6:-0.53261601 7:-0.4562212 8:-0.62032885 
-512.98470073567159 0 2187 0 540.6388447774259 0 1284.2541787204482 2187 0 1135.0420871912909 0 0 0 0 0 0 0 0 0 0 0 0 0 0 1:1 2:-0.21621622 3:-0.2605042 4:-0.76106195 5:-0.83141491 6:-0.85608608 7:-0.8841343 8:-0.85650224 
-2187 0 2187 0 2187 0 0 2187 0 45.910517016984969 0 377.62361318412059 0 0 0 0 0 0 0 0 0 0 0 0 1:-1 2:-0.2027027 3:-0.24369748 4:-0.83185841 5:-0.84381087 6:-0.8930733 7:-0.86701777 8:-0.85351271 
-0 0 0 0 0 2187 2187 0 0 0 0 0 0 0 0 1416.566093695275 0 0 0 0 0 0 0 0 1:-1 2:-0.47297297 3:-0.52941176 4:-0.87610619 5:-0.92633257 6:-0.93880296 7:-0.95391705 8:-0.93124066 
-2187 0 2187 2187 2187 0 0 2187 2187 0 1120.9366046186396 0 0 0 0 0 0 0 0 0 0 0 0 0 1:1 2:0.16216216 3:0.092436975 4:-0.78761062 5:-0.5806623 6:-0.65232011 7:-0.62343647 8:-0.64424514 
-0 0 2187 0 2187 0 2187 2187 0 0 0 0 0 0 0 0 0 0 0 0 0 0 0 0 1:-1 3:-0.1092437 4:-0.78761062 5:-0.70816363 6:-0.733692 7:-0.76431863 8:-0.76980568 
-0 0 2187 0 0 0 2187 0 0 0 0 0 0 0 0 0 0 0 0 0 0 0 0 0 1:1 2:-0.094594595 3:-0.17647059 4:-0.82300885 5:-0.8016646 6:-0.83254876 7:-0.85121791 8:-0.8285999 
-0 0 2187 0 2187 0 0 0 0 0 0 0 0 0 0 0 0 0 0 0 0 0 0 0 1:1 2:-0.013513514 3:-0.075630252 4:-0.80530973 5:-0.73897645 6:-0.79354405 7:-0.7801185 8:-0.76382661 
-0 0 2187 0 2187 0 0 0 0 0 0 0 0 0 0 0 0 0 0 0 0 0 0 0 1:1 2:0.040540541 3:-0.0084033613 4:-0.80530973 5:-0.6702674 6:-0.71553463 7:-0.74061883 8:-0.72894868 
-0 0 2187 0 2187 0 2187 0 0 0 0 0 0 0 0 0 0 0 0 0 0 0 0 0 1:1 2:0.081081081 3:0.1092437 4:-0.80530973 5:-0.59518328 6:-0.58305313 7:-0.73140224 8:-0.73193822 
-0 0 2187 0 0 0 2187 0 0 0 0 0 0 0 0 0 0 0 0 0 0 0 0 0 1:1 2:-0.33783784 3:-0.32773109 4:-0.82300885 5:-0.87710289 6:-0.90316073 7:-0.89203423 8:-0.87344295 
-0 0 1778.6517012780216 0 0 0 2187 0 0 0 0 0 0 0 0 0 0 0 0 0 0 0 0 0 1:1 2:-0.25675676 3:-0.31092437 4:-0.83185841 5:-0.85195679 6:-0.88567586 7:-0.85385122 8:-0.86746388 
-2187 0 2187 0 2187 20.02095699930744 0 2187 0 1040.569969434561 116.37527541480787 0 0 0 0 0 0 0 0 0 0 0 0 0 1:-1 2:0.12162162 3:0.37815126 4:-0.77876106 5:-0.63130866 6:-0.68527236 7:-0.65898618 8:-0.72197309 
-0 0 2187 0 0 0 2187 0 0 0 0 0 0 0 0 0 0 0 0 0 0 0 0 0 1:1 2:-0.18918919 3:-0.27731092 4:-0.84955752 5:-0.84699841 6:-0.87424344 7:-0.89861751 8:-0.86347783 
-0 0 2187 0 2187 0 0 2187 0 0 0 0 0 0 0 0 0 0 0 0 0 0 0 0 1:-1 2:0.21621622 3:0.092436975 4:-0.77876106 5:-0.54099522 6:-0.59381305 7:-0.59315339 8:-0.68609865 
-0 0 0 0 0 0 0 990.86569965265642 0 0 0 0 0 0 0 0 0 0 0 0 0 0 0 0 1:-1 2:-0.41891892 3:-0.41176471 4:-0.86725664 5:-0.91889499 6:-0.94351042 7:-0.93416722 8:-0.92326856 
-0 0 0 0 0 1642.7443888224136 2187 0 0 0 0 0 0 0 0 0 0 0 0 0 0 0 0 0 1:1 2:-0.21621622 3:-0.29411765 4:-0.76106195 5:-0.84451921 6:-0.86012105 7:-0.87755102 8:-0.88241156 
-0 0 0 0 2187 0 0 2187 0 0 0 0 0 0 0 0 0 0 0 0 0 0 0 0 1:-1 2:-0.2972973 3:-0.34453782 4:-0.84070796 5:-0.87320701 6:-0.89979825 7:-0.89203423 8:-0.88340807 
-0 0 0 0 0 0 2187 0 0 0 0 0 0 0 0 0 0 0 0 0 0 0 0 0 1:1 2:-0.16216216 3:-0.17647059 4:-0.77876106 5:-0.75845582 6:-0.77202421 7:-0.80776827 8:-0.84155456 
-2187 2187 2187 2187 2187 0 0 2187 2187 2187 2187 0 0 1978.2260677426552 2187 0 1343.6080031979991 2187 1152.5932020662983 1600.6902235273647 0 0 0 0 1:-1 2:0.18918919 3:0.19327731 4:-0.75221239 5:-0.48043209 6:-0.58910558 7:-0.640553 8:-0.60438465 
-0 0 2187 0 0 0 2187 0 0 0 0 0 0 0 0 0 0 0 0 0 0 0 0 0 1:1 2:-0.10810811 3:-0.15966387 4:-0.84070796 5:-0.80131043 6:-0.84801614 7:-0.84990125 8:-0.81365222 
-0 0 2187 0 0 0 2187 0 0 0 0 0 0 0 0 0 0 0 0 0 0 0 0 0 1:1 2:-0.081081081 3:-0.092436975 4:-0.82300885 5:-0.67097574 6:-0.69401479 7:-0.72086899 8:-0.77578475 
-0 0 2187 0 0 0 2187 0 0 0 0 0 0 0 0 0 0 0 0 0 0 0 0 0 1:1 2:-0.081081081 3:-0.058823529 4:-0.82300885 5:-0.74783071 6:-0.77404169 7:-0.82488479 8:-0.79372197 
-2187 0 2187 28.760000311672059 2187 0 0 2187 1760.5767140712212 2187 0 1360.0402982259291 0 0 1239.2767128926516 0 980.50242897406747 0 1210.8409574346263 0 0 0 0 0 1:1 2:0.2027027 3:0.14285714 4:-0.74336283 5:-0.45599433 6:-0.43106927 7:-0.62738644 8:-0.62531141 
-0 0 2187 0 2187 0 0 0 0 0 0 0 0 0 0 0 0 0 0 0 0 0 0 0 1:1 2:-0.013513514 3:-0.058823529 4:-0.80530973 5:-0.72622631 6:-0.76597176 7:-0.78143515 8:-0.78176383 
-0 0 0 0 0 2187 2187 0 0 0 0 0 0 0 0 0 0 0 0 0 0 0 0 0 1:1 2:-0.2972973 3:-0.34453782 4:-0.86725664 5:-0.8721445 6:-0.9065232 7:-0.88545095 8:-0.89337319 
-0 0 0 0 0 0 2187 0 0 0 0 0 0 0 0 0 0 0 0 0 0 0 0 0 1:1 2:-0.14864865 3:-0.22689076 4:-0.82300885 5:-0.80237294 6:-0.82985878 7:-0.83805135 8:-0.84952666 
-0 0 2187 0 0 0 2187 0 0 0 0 0 0 0 0 0 0 0 0 0 0 0 0 0 1:1 2:-0.21621622 3:-0.2605042 4:-0.84955752 5:-0.8434567 6:-0.86953598 7:-0.90256748 8:-0.85351271 
-0 0 0 0 0 0 2187 0 0 0 0 0 0 0 0 0 0 0 0 0 0 0 0 0 1:1 2:-0.12162162 3:-0.15966387 4:-0.82300885 5:-0.75951833 6:-0.76462677 7:-0.83673469 8:-0.83059292 
-0 0 0 0 0 0 2187 0 0 0 0 0 0 0 0 0 0 0 0 0 0 0 0 0 1:1 2:-0.16216216 3:-0.24369748 4:-0.83185841 5:-0.81937312 6:-0.84129119 7:-0.84595128 8:-0.86347783 
-0 0 2187 0 2187 0 0 2187 0 0 0 0 0 0 0 0 0 0 0 0 0 0 0 0 1:-1 2:0.27027027 3:0.22689076 4:-0.78761062 5:-0.44430671 6:-0.45931406 7:-0.51415405 8:-0.66417539 
-0 0 0 0 0 0 2187 0 0 0 0 0 0 0 0 0 0 0 0 0 0 0 0 0 1:1 2:-0.14864865 3:-0.19327731 4:-0.82300885 5:-0.80378962 6:-0.84599866 7:-0.84595128 8:-0.84354758 
-0 0 2187 0 0 0 2187 0 0 0 0 0 0 0 0 0 0 0 0 0 0 0 0 0 1:1 2:-0.067567568 3:-0.1092437 4:-0.80530973 5:-0.74464317 6:-0.76731675 7:-0.83410138 8:-0.79372197 
-0 0 2187 0 2187 0 0 0 0 0 0 0 0 0 0 0 0 0 0 0 0 0 0 0 1:1 2:-0.013513514 3:0.0084033613 4:-0.78761062 5:-0.65078803 6:-0.69065232 7:-0.7116524 8:-0.75386148 
-2187 0 2187 2187 2187 0 0 2187 2187 2187 2187 138.52138903679452 0 0 0 0 5.1702571340840784 1613.7256825220545 0 0 0 0 0 0 1:1 2:0.16216216 3:0.1092437 4:-0.78761062 5:-0.57605808 6:-0.6798924 7:-0.62738644 8:-0.63428002 
-0 0 2187 0 2187 0 0 2187 0 0 0 0 0 0 0 0 0 0 0 0 0 0 0 0 1:1 2:0.18918919 3:0.092436975 4:-0.78761062 5:-0.55870374 6:-0.56220578 7:-0.66030283 8:-0.68410563 
-2187 0 2187 1893.9194823968501 2187 0 0 2187 0 2187 0 0 0 0 0 0 0 0 0 0 0 0 0 0 1:1 2:0.21621622 3:0.15966387 4:-0.75221239 5:-0.53816186 6:-0.59112307 7:-0.57998683 8:-0.66616841 
-0 0 0 0 0 0 2187 0 0 0 0 0 0 0 0 0 0 0 0 0 0 0 0 0 1:1 2:-0.13513514 3:-0.21008403 4:-0.83185841 5:-0.77545599 6:-0.81573638 7:-0.79065174 8:-0.83956153 
-0 0 2187 0 0 0 0 0 0 0 0 0 0 0 0 0 0 0 0 0 0 0 0 0 1:1 2:-0.040540541 3:-0.042016807 4:-0.80530973 5:-0.74322649 6:-0.78749159 7:-0.77616853 8:-0.79372197 
-0 0 2187 0 0 0 2187 0 0 0 0 0 0 0 0 0 0 0 0 0 0 0 0 0 1:1 2:-0.027027027 3:-0.025210084 4:-0.79646018 5:-0.70533026 6:-0.70275723 7:-0.80776827 8:-0.79172895 
-0 0 0 0 0 0 2187 0 0 0 0 0 0 0 0 0 0 0 0 0 0 0 0 0 1:1 2:-0.2027027 3:-0.2605042 4:-0.82300885 5:-0.84558172 6:-0.87491594 7:-0.88281764 8:-0.87344295 
-0 0 0 0 0 0 2187 0 0 0 0 0 0 0 0 0 0 0 0 0 0 0 0 0 1:1 2:-0.13513514 3:-0.19327731 4:-0.82300885 5:-0.79387285 6:-0.8130464 7:-0.83805135 8:-0.83956153 
-0 0 2187 0 0 0 2187 0 0 0 0 0 0 0 0 0 0 0 0 0 0 0 0 0 1:1 2:-0.094594595 3:-0.14285714 4:-0.84070796 5:-0.76128918 6:-0.79287155 7:-0.81830151 8:-0.82361734 
-0 0 0 0 0 2187 2187 0 0 0 0 0 0 0 0 0 0 0 0 0 0 0 0 0 1:1 2:-0.16216216 3:-0.21008403 4:-0.85840708 5:-0.82539401 6:-0.83725622 7:-0.87096774 8:-0.87344295 
-0 0 2187 0 0 0 2187 0 0 0 0 0 0 0 0 0 0 0 0 0 0 0 0 0 1:1 2:-0.16216216 3:-0.21008403 4:-0.84070796 5:-0.83708164 6:-0.88634835 7:-0.87096774 8:-0.84354758 
-0 0 2187 0 2187 0 0 0 0 0 0 0 0 0 0 0 0 0 0 0 0 0 0 0 1:1 2:0.013513514 3:-0.058823529 4:-0.80530973 5:-0.70426775 6:-0.75790182 7:-0.77748519 8:-0.73492775 
-0 0 2187 0 2187 0 0 2187 0 0 0 0 0 0 0 0 0 0 0 0 0 0 0 0 1:-1 2:-0.054054054 3:-0.092436975 4:-0.83185841 5:-0.73330972 6:-0.77202421 7:-0.79065174 8:-0.8036871 
-0 0 2187 0 2187 0 0 2187 0 0 0 0 0 0 0 0 0 0 0 0 0 0 0 0 1:-1 2:0.16216216 3:0.15966387 4:-0.76106195 5:-0.48928635 6:-0.49428379 7:-0.60895326 8:-0.64823119 
-0 0 0 0 0 2187 2187 0 0 0 0 0 0 0 0 0 0 0 0 0 0 0 0 0 1:1 2:-0.22972973 3:-0.29411765 4:-0.86725664 5:-0.87072782 6:-0.88971083 7:-0.90520079 8:-0.89337319 
-2187 0 2187 2187 2187 0 134.69798549384313 2187 2187 2187 0 0 0 0 490.91159606301545 0 436.85188705673136 0 0 0 0 0 0 0 1:1 2:0.24324324 3:0.15966387 4:-0.7699115 5:-0.53603683 6:-0.62004035 7:-0.57472021 8:-0.65421026 
-0 0 2187 0 0 0 0 0 0 0 0 0 0 0 0 0 0 0 0 0 0 0 0 0 1:1 2:-0.013513514 3:-0.042016807 4:-0.82300885 5:-0.73295555 6:-0.76933423 7:-0.78670178 8:-0.80169407 
-0 0 0 0 0 0 2187 0 0 0 0 0 0 0 0 0 0 0 0 0 0 0 0 0 1:1 2:-0.16216216 3:-0.17647059 4:-0.83185841 5:-0.78749779 6:-0.79690652 7:-0.83936801 8:-0.85650224 
-0 0 0 0 0 0 2187 0 0 0 0 0 0 0 0 0 0 0 0 0 0 0 0 0 1:-1 2:-0.40540541 3:-0.46218487 4:-0.86725664 5:-0.91004073 6:-0.93409549 7:-0.92363397 8:-0.92326856 
-729.6952771990517 0 2187 0 2187 0 0 2187 0 0 0 0 0 0 0 0 0 0 0 0 0 0 0 0 1:1 3:-0.042016807 4:-0.74336283 5:-0.69399681 6:-0.73974445 7:-0.76300197 8:-0.74389636 
-0 0 2187 0 2187 0 0 2187 0 0 0 0 0 0 0 0 0 0 0 0 0 0 0 0 1:-1 2:0.094594595 3:0.058823529 4:-0.76106195 5:-0.55409952 6:-0.53799597 7:-0.73403555 8:-0.68211261 
-0 0 2187 0 0 0 466.5141287062728 0 0 0 0 0 0 0 0 0 0 0 0 0 0 0 0 0 1:1 2:-0.081081081 3:-0.092436975 4:-0.82300885 5:-0.77970604 6:-0.81439139 7:-0.83673469 8:-0.81066268 
-2187 0 2187 2187 2187 0 0 2187 0 2187 0 0 0 0 0 0 0 0 0 0 0 0 0 0 2:-0.027027027 3:-0.092436975 4:-0.79646018 5:-0.72410129 6:-0.79421654 7:-0.75378539 8:-0.76382661 
-0 0 2187 0 0 0 0 0 0 0 0 0 0 0 0 0 0 0 0 0 0 0 0 0 1:1 2:-0.027027027 3:-0.092436975 4:-0.78761062 5:-0.7563308 6:-0.78749159 7:-0.7801185 8:-0.81365222 
-0 0 2187 0 0 0 2187 0 0 0 0 0 0 0 0 0 0 0 0 0 0 0 0 0 1:1 2:-0.081081081 3:-0.1092437 4:-0.80530973 5:-0.73685143 6:-0.76597176 7:-0.80250165 8:-0.78574988 
-0 0 2187 0 0 0 166.54344957552357 0 0 0 0 0 0 0 0 0 0 0 0 0 0 0 0 0 1:1 2:-0.081081081 3:-0.092436975 4:-0.82300885 5:-0.76518505 6:-0.80699395 7:-0.81303489 8:-0.81365222 
-0 0 0 0 0 2187 2187 0 0 0 0 0 0 0 0 1105.1147938947463 0 0 0 0 0 0 0 0 1:1 2:-0.40540541 3:-0.42857143 4:-0.84070796 5:-0.92314503 6:-0.9468729 7:-0.93680053 8:-0.93921276 
-0 0 2187 0 0 0 2187 0 0 0 0 0 0 0 0 0 0 0 0 0 0 0 0 0 1:1 2:-0.24324324 3:-0.2605042 4:-0.84070796 5:-0.82362316 6:-0.87088097 7:-0.86175115 8:-0.84354758 
-0 0 0 0 765.61501889804492 353.65085814913186 0 0 0 0 0 0 0 0 0 0 0 0 0 0 0 0 0 0 1:1 2:0.081081081 3:0.042016807 4:-0.82300885 5:-0.90826988 6:-0.72898453 7:-0.77090191 8:-0.75784753 
-0 0 0 0 0 0 2187 0 0 0 0 0 0 0 0 0 0 0 0 0 0 0 0 0 1:1 2:-0.14864865 3:-0.21008403 4:-0.82300885 5:-0.84381087 6:-0.87357095 7:-0.87886768 8:-0.85749875 
-2187 2187 2187 2187 2187 0 0 2187 2187 2187 2187 0 0 41.466250884874214 2187 0 182.50010088348756 2187 2187 1866.0211342209279 0 0 0 0 1:-1 2:0.39189189 3:0.37815126 4:-0.75221239 5:-0.2604923 6:-0.36987223 7:-0.30875576 8:-0.47882412 
-0 0 0 0 0 2187 491.03414518189498 0 0 0 0 0 0 0 0 152.00657320001528 0 0 0 0 0 0 0 0 1:-1 2:-0.44594595 3:-0.4789916 4:-0.85840708 5:-0.92456171 6:-0.9462004 7:-0.9315339 8:-0.93423019 
-0 0 2187 0 2187 0 1054.5359601321925 2187 0 0 0 0 0 0 0 0 0 0 0 0 0 0 0 0 1:-1 2:-0.25675676 3:-0.29411765 4:-0.80530973 5:-0.79139366 6:-0.81775387 7:-0.83541804 8:-0.83358246 
-0 0 2187 0 2187 0 0 0 0 0 0 0 0 0 0 0 0 0 0 0 0 0 0 0 1:1 2:0.054054054 3:0.042016807 4:-0.79646018 5:-0.67062157 6:-0.68997983 7:-0.75773535 8:-0.77777778 
-0 0 2187 0 741.15665816417334 0 0 0 0 0 0 0 0 0 0 0 0 0 0 0 0 0 0 0 1:1 2:-0.067567568 3:-0.17647059 4:-0.81415929 5:-0.77758102 6:-0.83254876 7:-0.81698486 8:-0.79671151 
-2187 0 2187 0 2187 0 0 2187 0 2187 0 0 0 0 0 0 0 0 0 0 0 0 0 0 1:-1 2:0.14864865 3:0.15966387 4:-0.77876106 5:-0.52505755 6:-0.54942838 7:-0.68531929 8:-0.63926258 
-0 0 0 0 0 2187 2187 0 0 0 0 0 0 0 0 0 0 0 0 0 0 0 0 0 1:1 2:-0.31081081 3:-0.34453782 4:-0.83185841 5:-0.85372764 6:-0.86415602 7:-0.89730086 8:-0.89935227 
-0 0 0 0 0 2187 2187 0 0 0 0 0 0 0 0 0 0 0 0 0 0 0 0 0 1:1 2:-0.2972973 3:-0.31092437 4:-0.84070796 5:-0.86222773 6:-0.88365837 7:-0.89335089 8:-0.89138017 
-0 0 0 0 0 0 2187 0 0 0 0 0 0 0 0 0 0 0 0 0 0 0 0 0 1:1 2:-0.040540541 3:-0.1092437 4:-0.82300885 5:-0.75597662 6:-0.78143914 7:-0.79065174 8:-0.82361734 
-0 0 2187 0 0 0 2187 0 0 0 0 0 0 0 0 0 0 0 0 0 0 0 0 0 1:1 2:-0.013513514 3:-0.092436975 4:-0.84070796 5:-0.75349743 6:-0.80228648 7:-0.82488479 8:-0.79372197 
-2187 0 2187 2187 2187 0 0 2187 2187 2187 0 0 0 0 0 0 0 2187 0 0 0 0 0 0 2:0.040540541 3:0.075630252 4:-0.78761062 5:-0.67522578 6:-0.76260928 7:-0.7116524 8:-0.70403587 
-0 0 2187 0 2187 0 0 0 0 0 0 0 0 0 0 0 0 0 0 0 0 0 0 0 1:1 2:0.040540541 3:-0.025210084 4:-0.78761062 5:-0.70710112 6:-0.73503699 7:-0.7682686 8:-0.78973592 
-0 0 2187 0 0 1065.2694591025527 2187 0 0 0 0 0 0 0 0 0 0 0 0 0 0 0 0 0 1:1 2:-0.10810811 3:-0.34453782 4:-0.84070796 5:-0.79776873 6:-0.82918628 7:-0.83541804 8:-0.84255107 
-0 0 0 0 0 0 2187 0 0 0 0 0 0 0 0 0 0 0 0 0 0 0 0 0 1:-1 2:-0.32432432 3:-0.37815126 4:-0.84955752 5:-0.87887374 6:-0.89441829 7:-0.90125082 8:-0.90333832 
-0 0 2187 0 0 0 0 0 0 0 0 0 0 0 0 0 0 0 0 0 0 0 0 0 1:1 2:-0.094594595 3:-0.058823529 4:-0.81415929 5:-0.76731008 6:-0.81237391 7:-0.83278473 8:-0.79372197 
-0 0 2187 0 2187 0 0 0 0 0 0 0 0 0 0 0 0 0 0 0 0 0 0 0 1:1 2:-0.013513514 3:-0.058823529 4:-0.79646018 5:-0.70285107 6:-0.76866174 7:-0.79986833 8:-0.77777778 
-0 0 0 0 0 0 2187 0 0 0 0 0 0 0 0 0 0 0 0 0 0 0 0 0 1:1 2:-0.054054054 3:-0.14285714 4:-0.84070796 5:-0.78820613 6:-0.81506389 7:-0.83015142 8:-0.84354758 
-2187 0 2187 2187 2187 0 0 2187 0 2187 0 0 0 0 0 0 0 0 0 0 0 0 0 0 2:-0.040540541 3:-0.042016807 4:-0.78761062 5:-0.72445546 6:-0.79219906 7:-0.75115207 8:-0.72296961 
-0 0 2187 0 2187 0 0 2187 0 0 0 0 0 0 0 0 0 0 0 0 0 0 0 0 1:-1 2:-0.12162162 3:-0.1092437 4:-0.83185841 5:-0.78678945 6:-0.82178884 7:-0.84331797 8:-0.8036871 
-0 0 2187 0 0 0 2187 0 0 0 0 0 0 0 0 0 0 0 0 0 0 0 0 0 1:1 2:-0.094594595 3:-0.12605042 4:-0.83185841 5:-0.80272711 6:-0.84801614 7:-0.91046741 8:-0.78375685 
-0 0 2187 0 2187 0 0 2187 0 0 0 0 0 0 0 0 0 0 0 0 0 0 0 0 1:1 2:0.13513514 3:0.092436975 4:-0.78761062 5:-0.63874624 6:-0.68796234 7:-0.68400263 8:-0.73193822 
-1838.2118333821115 0 2187 0 2187 0 0 350.29024635784214 0 0 0 0 0 0 0 0 0 0 0 0 0 0 0 0 1:1 2:0.13513514 3:-0.075630252 4:-0.82300885 5:-0.68974677 6:-0.76328178 7:-0.75115207 8:-0.70403587 
-0 0 2187 0 0 0 2187 0 0 0 0 0 0 0 0 0 0 0 0 0 0 0 0 0 1:1 2:-0.22972973 3:-0.29411765 4:-0.83185841 5:-0.83743581 6:-0.86012105 7:-0.88018433 8:-0.85351271 
-0 0 0 0 0 0 2187 0 0 0 0 0 0 0 0 0 0 0 0 0 0 0 0 0 1:1 2:-0.18918919 3:-0.2605042 4:-0.83185841 5:-0.83885249 6:-0.87357095 7:-0.85780118 8:-0.87144993 
-0 0 2187 0 2187 0 0 2187 0 0 0 0 0 0 0 0 0 0 0 0 0 0 0 0 1:1 2:0.081081081 3:0.075630252 4:-0.79646018 5:-0.63272534 6:-0.68796234 7:-0.6879526 8:-0.71300448 
-2187 0 2187 0 2187 0 0 2187 0 751.90533457196523 0 0 0 0 0 0 0 0 0 0 0 0 0 0 1:1 2:0.18918919 3:0.1092437 4:-0.77876106 5:-0.59624579 6:-0.68258238 7:-0.62343647 8:-0.67414051 
-0 0 2187 0 0 0 2187 0 0 0 0 0 0 0 0 0 0 0 0 0 0 0 0 0 1:1 2:0.013513514 3:-0.025210084 4:-0.80530973 5:-0.66849655 6:-0.68459987 7:-0.77616853 8:-0.77678127 
-2187 0 2187 2187 2187 0 0 2187 2187 2187 2187 0 0 0 0 0 0 733.03217845809081 0 0 0 0 0 0 1:-1 2:0.21621622 3:0.21008403 4:-0.76106195 5:-0.43863999 6:-0.47141896 7:-0.5036208 8:-0.6003986 
-0 0 2187 0 0 0 2187 0 0 0 0 0 0 0 0 0 0 0 0 0 0 0 0 0 1:1 2:-0.2027027 3:-0.24369748 4:-0.83185841 5:-0.81335222 6:-0.83725622 7:-0.86438446 8:-0.84354758 
-0 0 2187 0 1939.611241784195 0 0 0 0 0 0 202.40420074684369 0 0 0 0 0 0 16.925520580445248 0 0 0 0 0 1:-1 2:-0.14864865 3:-0.24369748 4:-0.77876106 5:-0.60191252 6:-0.59314055 7:-0.74983542 8:-0.71798705 
-2187 2187 2187 2187 2187 0 0 2187 2187 2187 2187 2187 0 465.59974959190919 2187 0 2187 2187 2187 2187 0 0 0 0 2:0.2972973 3:0.24369748 4:-0.75221239 5:-0.31928458 6:-0.40954943 7:-0.4114549 8:-0.52466368 
-2187 0 2187 2187 2187 0 0 2187 0 2187 0 0 0 0 0 0 0 0 0 0 0 0 0 0 2:0.027027027 3:-0.0084033613 4:-0.78761062 5:-0.67876749 6:-0.73974445 7:-0.72613562 8:-0.72894868 
-2187 2187 2187 2187 2187 0 0 2187 2187 2187 2187 2187 0 2187 2187 0 2187 2187 2187 2187 2146.1507883466247 0 210.73429839851781 2111.233711593376 2:0.36486486 3:0.36134454 4:-0.73451327 5:-0.21126262 6:-0.25151311 7:-0.40750494 8:-0.42501246 
-0 0 2187 0 0 0 2187 0 0 0 0 0 0 0 0 0 0 0 0 0 0 0 0 0 1:1 2:-0.10810811 3:-0.15966387 4:-0.82300885 5:-0.81158137 6:-0.84734364 7:-0.86175115 8:-0.83358246 
-0 0 1597.4370571100656 0 2187 0 2187 0 0 216.65871349987981 0 342.74412908097906 0 0 0 498.91997025227181 15.798032550312467 0 0 0 0 0 0 0 1:-1 2:-0.17567568 3:-0.39495798 4:-0.82300885 5:-0.81866478 6:-0.85944855 7:-0.85911784 8:-0.84354758 
-0 0 0 0 0 2187 2187 0 0 0 0 0 0 0 0 0 0 0 0 0 0 0 0 0 1:1 2:-0.31081081 3:-0.32773109 4:-0.85840708 5:-0.85620684 6:-0.88096839 7:-0.89730086 8:-0.89337319 
-0 0 0 0 0 0 2187 0 0 0 0 0 0 0 0 0 0 0 0 0 0 0 0 0 1:1 2:-0.22972973 3:-0.17647059 4:-0.84955752 5:-0.81016469 6:-0.84196369 7:-0.83278473 8:-0.85450922 
-0 0 0 0 0 0 2187 0 0 0 0 0 0 0 0 0 0 0 0 0 0 0 0 0 1:1 2:-0.21621622 3:-0.27731092 4:-0.84955752 5:-0.84381087 6:-0.87558843 7:-0.86306781 8:-0.87144993 
-0 0 0 0 0 0 2187 0 0 0 0 0 0 0 0 0 0 0 0 0 0 0 0 0 1:-1 2:-0.33783784 3:-0.37815126 4:-0.84955752 5:-0.88099876 6:-0.91324815 7:-0.87755102 8:-0.90533134 
-2187 0 2187 2187 2187 0 0 2187 305.07148525586115 2187 0 0 0 0 0 0 0 1681.4740361852428 0 0 0 0 0 0 2:-0.027027027 3:-0.092436975 4:-0.80530973 5:-0.69435098 6:-0.76193679 7:-0.74193548 8:-0.69407075 
-0 0 2187 0 2187 0 0 0 0 0 0 0 0 0 0 0 0 0 0 0 0 0 0 0 1:1 2:0.040540541 3:0.042016807 4:-0.79646018 5:-0.63945458 6:-0.68325488 7:-0.69058591 8:-0.75784753 
-0 0 0 0 0 2187 2187 0 0 0 0 0 0 0 0 0 0 0 0 0 0 0 0 0 1:1 2:-0.21621622 3:-0.29411765 4:-0.84955752 5:-0.85054011 6:-0.87424344 7:-0.8722844 8:-0.88340807 
-2187 1890.9584912970611 2187 2187 2187 0 0 2187 2187 2187 2187 2187 0 0 0 0 0 2187 811.82812502779461 4.6170129005040783 0 0 0 0 1:1 2:0.16216216 3:0.12605042 4:-0.67256637 5:-0.567558 6:-0.64223268 7:-0.62738644 8:-0.66018934 
-0 0 2187 0 2187 0 2187 0 0 0 0 0 0 0 0 0 0 0 0 0 0 0 0 0 1:-1 2:0.040540541 3:-0.025210084 4:-0.80530973 5:-0.67593412 6:-0.68527236 7:-0.7682686 8:-0.7717987 
-2187 2187 2187 2187 2187 0 315.13882125424686 2187 2187 2187 2187 2187 0 2187 2187 0 2187 2187 2187 2187 40.849211653375463 0 70.626448357773 75.766288406624085 1:-1 2:0.5 3:0.52941176 4:-0.69911504 5:-0.15955375 6:-0.34028245 7:-0.19420671 8:-0.30941704 
-0 0 0 0 0 0 2187 0 0 0 0 0 0 0 0 0 0 0 0 0 0 0 0 0 1:1 2:-0.2027027 3:-0.2605042 4:-0.82300885 5:-0.83885249 6:-0.88231338 7:-0.87886768 8:-0.86347783 
-0 0 2187 0 0 0 2187 0 0 0 0 0 0 0 0 0 0 0 0 0 0 0 0 0 1:1 2:-0.22972973 3:-0.31092437 4:-0.84070796 5:-0.87497786 6:-0.91459314 7:-0.90388413 8:-0.85351271 
-0 0 2187 0 0 0 2187 0 0 0 0 0 0 0 0 0 0 0 0 0 0 0 0 0 1:1 2:-0.054054054 3:-0.14285714 4:-0.83185841 5:-0.78360191 6:-0.81439139 7:-0.80513496 8:-0.81763827 
-2187 0 2187 0 2187 0 73.035109763800861 2187 160.75485685314661 2187 1787.4508074771234 0 0 0 0 0 0 0 0 0 0 0 0 0 1:-1 2:0.32432432 3:0.21008403 4:-0.77876106 5:-0.52895343 6:-0.59515804 7:-0.59447005 8:-0.63428002 
-0 0 0 0 0 634.61423544074739 2187 0 0 0 0 0 0 0 0 0 0 0 0 0 0 0 0 0 1:-1 2:-0.43243243 3:-0.4789916 4:-0.86725664 5:-0.91747831 6:-0.92737054 7:-0.92626728 8:-0.92326856 
-2187 2187 2187 2187 2187 0 0 2187 2187 2187 2187 2187 0 0 2187 0 2187 2187 2187 2187 0 0 0 0 2:0.2027027 3:0.36134454 4:-0.73451327 5:-0.2796175 6:-0.29791527 7:-0.47860434 8:-0.49676134 
-0 0 2187 0 2187 0 0 2187 0 0 0 0 0 0 0 0 0 0 0 0 0 0 0 0 1:1 2:0.10810811 3:0.075630252 4:-0.7699115 5:-0.5746414 6:-0.60659045 7:-0.66293614 8:-0.68410563 
-0 0 2187 0 0 0 2187 0 0 0 0 0 0 0 0 0 0 0 0 0 0 0 0 0 1:1 2:-0.094594595 3:-0.15966387 4:-0.84070796 5:-0.75101824 6:-0.79018157 7:-0.80513496 8:-0.8036871 
-2187 0 2187 2187 2187 0 999.76041023195569 2187 0 2187 0 0 0 0 0 0 0 0 0 0 0 0 0 0 2:-0.12162162 3:-0.15966387 4:-0.71681416 5:-0.7407473 6:-0.76866174 7:-0.8156682 8:-0.79372197 
-0 0 2187 0 2187 0 0 0 0 0 0 0 0 0 0 0 0 0 0 0 0 0 0 0 1:1 2:0.040540541 3:-0.0084033613 4:-0.80530973 5:-0.7180804 6:-0.76462677 7:-0.78275181 8:-0.76283009 
-0 0 0 1449.372748678953 0 0 1727.2326971270036 0 109.29517232081629 0 0 0 0 0 0 0 0 0 0 0 0 0 0 0 1:1 2:-0.27027027 3:-0.27731092 4:-0.80530973 5:-0.85018594 6:-0.89105582 7:-0.85780118 8:-0.86347783 
-0 0 2187 0 2187 0 0 0 0 0 0 0 0 0 0 0 0 0 0 0 0 0 0 0 1:1 2:-0.027027027 3:-0.025210084 4:-0.78761062 5:-0.68443421 6:-0.70410222 7:-0.70638578 8:-0.75386148 
-0 0 2187 0 0 0 2187 0 0 0 0 0 0 0 0 0 0 0 0 0 0 0 0 0 1:1 2:-0.013513514 3:-0.042016807 4:-0.82300885 5:-0.71312201 6:-0.7202421 7:-0.80776827 8:-0.79770802 
-0 0 2187 0 2187 848.50159592362377 2187 2187 0 0 0 0 0 0 0 0 0 0 0 0 0 0 0 0 1:-1 2:0.081081081 3:0.025210084 4:-0.82300885 5:-0.69789269 6:-0.73705447 7:-0.74061883 8:-0.7797708 
-0 0 0 0 0 2187 2187 0 0 0 0 0 0 0 0 0 0 0 0 0 0 0 0 0 1:1 2:-0.2027027 3:-0.2605042 4:-0.84070796 5:-0.85514432 6:-0.87222596 7:-0.89730086 8:-0.88739412 
-0 0 0 0 0 2187 389.40430021657556 0 0 0 0 0 0 0 0 2187 0 0 0 0 0 0 0 0 1:-1 2:-0.56756757 3:-0.61344538 4:-0.90265487 5:-0.96493713 6:-0.97713517 7:-0.97366689 8:-0.96412556 
-2187 0 2187 0 2187 0 0 2187 0 2187 0 0 0 0 0 0 0 0 0 0 0 0 0 0 1:-1 2:-0.054054054 3:-0.092436975 4:-0.82300885 5:-0.76801842 6:-0.81775387 7:-0.81040158 8:-0.78375685 
-0 0 2187 0 2187 0 2187 2187 0 0 0 0 0 0 0 0 0 0 0 0 0 0 0 0 1:-1 2:-0.16216216 3:-0.19327731 4:-0.83185841 5:-0.76412254 6:-0.80363147 7:-0.75378539 8:-0.82361734 
-0 0 2187 0 2187 0 0 0 0 0 0 0 0 0 0 0 0 0 0 0 0 0 0 0 1:1 2:-0.027027027 3:-0.058823529 4:-0.83185841 5:-0.79033115 6:-0.85474109 7:-0.8485846 8:-0.77379173 
-2187 2187 2187 2187 2187 0 2187 2187 2187 2187 2187 2187 0 0 2187 0 2187 2187 2187 0 0 0 0 0 2:0.37837838 3:0.32773109 4:-0.73451327 5:-0.33699309 6:-0.3732347 7:-0.46675444 8:-0.55455904 
-0 0 2187 0 0 0 2187 0 0 0 0 0 0 0 0 0 0 0 0 0 0 0 0 0 1:1 2:-0.21621622 3:-0.27731092 4:-0.84955752 5:-0.85620684 6:-0.89643578 7:-0.87360105 8:-0.86347783 
-0 0 2187 0 133.04943661087364 0 0 0 0 0 0 0 0 0 0 0 0 0 0 0 0 0 0 0 1:1 2:0.081081081 3:-0.0084033613 4:-0.82300885 5:-0.67947583 6:-0.71015467 7:-0.70901909 8:-0.77379173 
-0 0 2187 0 0 0 2187 0 0 0 0 0 0 0 0 0 0 0 0 0 0 0 0 0 1:1 2:-0.054054054 3:-0.12605042 4:-0.85840708 5:-0.78678945 6:-0.82515131 7:-0.84726794 8:-0.81365222 
-0 0 0 0 0 0 2187 0 0 0 0 0 0 0 0 0 0 0 0 0 0 0 0 0 1:1 2:-0.081081081 3:-0.15966387 4:-0.78761062 5:-0.7634142 6:-0.77942165 7:-0.80118499 8:-0.84255107 
-1568.2649995181919 0 2187 0 1777.0648304778181 0 0 2187 0 113.11360183776137 0 0 0 0 0 0 0 0 0 0 0 0 0 0 1:1 2:-0.24324324 3:-0.24369748 4:-0.80530973 5:-0.84310253 6:-0.89172831 7:-0.86306781 8:-0.84354758 
-0 0 0 0 0 0 2187 0 0 0 0 0 0 0 0 0 0 0 0 0 0 0 0 0 1:1 2:-0.14864865 3:-0.17647059 4:-0.84070796 5:-0.82291482 6:-0.85810356 7:-0.86175115 8:-0.84354758 
-0 0 0 0 0 0 2187 0 0 0 0 0 0 0 0 0 0 0 0 0 0 0 0 0 1:1 2:-0.14864865 3:-0.21008403 4:-0.84070796 5:-0.81547724 6:-0.84398117 7:-0.85911784 8:-0.84952666 
-0 0 2187 0 0 73.098968895204649 2187 0 0 0 0 0 0 0 0 0 0 0 0 0 0 0 0 0 1:1 2:-0.10810811 3:-0.17647059 4:-0.80530973 5:-0.77474765 6:-0.77000672 7:-0.88545095 8:-0.81763827 
-0 0 0 0 0 2187 2187 0 0 0 0 0 0 0 0 0 0 0 0 0 0 0 0 0 1:1 2:-0.18918919 3:-0.2605042 4:-0.84955752 5:-0.84558172 6:-0.85474109 7:-0.86965109 8:-0.88241156 
-2187 419.12025570142589 2187 1549.0099670833044 2187 0 70.031329567531074 2187 2187 2187 1210.151947756691 1238.2834833549362 0 0 1660.0545722225186 0 0 619.24954361760615 717.61468743376588 0 0 0 0 0 1:-1 2:0.45945946 3:0.32773109 4:-0.73451327 5:-0.15282451 6:-0.050437122 7:-0.44963792 8:-0.50373692 
-0 0 2187 0 0 0 0 0 0 0 0 0 0 0 0 0 0 0 0 0 0 0 0 0 1:1 2:-0.027027027 3:-0.058823529 4:-0.82300885 5:-0.77156012 6:-0.81977135 7:-0.79460171 8:-0.80767314 
-0 0 2187 0 2187 0 0 0 0 0 0 0 0 0 0 0 0 0 0 0 0 0 0 0 1:1 2:0.081081081 3:0.042016807 4:-0.79646018 5:-0.67628829 6:-0.70880968 7:-0.7564187 8:-0.77080219 
-0 0 0 0 0 0 2187 0 0 0 0 0 0 0 0 0 0 0 0 0 0 0 0 0 1:1 2:-0.10810811 3:-0.21008403 4:-0.84070796 5:-0.80131043 6:-0.85070612 7:-0.8038183 8:-0.84055805 
-0 0 0 0 0 0 1529.9552141457277 259.75144481802079 0 0 0 0 0 0 0 0 0 0 0 0 0 0 0 0 1:-1 2:-0.36486486 3:-0.42857143 4:-0.85840708 5:-0.90614486 6:-0.92871553 7:-0.93811718 8:-0.90333832 
-2187 0 2187 1075.7284902577001 2187 0 0 2187 0 0 0 0 0 0 0 0 0 0 0 0 0 0 0 0 1:-1 2:0.14864865 3:0.075630252 4:-0.74336283 5:-0.56118293 6:-0.63281775 7:-0.56418697 8:-0.70702541 
-0 0 0 0 0 2187 2187 0 0 0 0 0 0 0 0 0 0 0 0 0 0 0 0 0 1:1 2:-0.35135135 3:-0.39495798 4:-0.87610619 5:-0.89587392 6:-0.92333557 7:-0.91573404 8:-0.90931739 
-2187 0 2187 211.2558794202892 2187 0 0 2187 0 2187 673.25829720074637 700.38748957976736 0 0 0 0 0 0 0 0 0 0 0 0 1:1 2:0.2027027 3:0.12605042 4:-0.7699115 5:-0.60864176 6:-0.68459987 7:-0.71296906 8:-0.62531141 
-0 0 2187 0 0 0 2187 0 0 0 0 0 0 0 0 0 0 0 0 0 0 0 0 0 1:1 2:0.027027027 3:-0.058823529 4:-0.76106195 5:-0.64653798 6:-0.63281775 7:-0.73930217 8:-0.79073244 
-2187 0 2187 2025.8500096610562 2187 0 0 2187 0 2187 3.7241265067481328 159.82891604697897 0 0 0 0 0 0 0 0 0 0 0 0 1:-1 2:-0.2972973 3:-0.29411765 4:-0.81415929 5:-0.84416504 6:-0.87558843 7:-0.85385122 8:-0.85351271 
-0 0 0 0 0 2187 2187 0 0 0 0 0 0 0 0 0 0 0 0 0 0 0 0 0 1:1 2:-0.24324324 3:-0.32773109 4:-0.85840708 5:-0.86895697 6:-0.89643578 7:-0.86833443 8:-0.88739412 
-0 0 2187 0 0 0 0 0 0 0 0 0 0 0 0 0 0 0 0 0 0 0 0 0 1:1 2:0.013513514 3:-0.058823529 4:-0.81415929 5:-0.68478838 6:-0.68728985 7:-0.59842001 8:-0.76581963 
-0 0 0 0 0 0 2187 0 0 0 0 0 0 0 0 0 0 0 0 0 0 0 0 0 1:1 2:-0.18918919 3:-0.22689076 4:-0.85840708 5:-0.84133168 6:-0.87020847 7:-0.8959842 8:-0.85849527 
-0 0 2187 306.06997054755323 2187 2187 2187 0 0 0 0 0 319.53052517071148 0 0 2187 0 31.26722983736142 0 0 0 4.9050877840266569 0 0 1:1 2:-0.45945946 3:-0.51260504 4:-0.86725664 5:-0.94049938 6:-0.9603228 7:-0.95128374 8:-0.9431988 
-0 0 2187 0 2187 0 2154.7413282261791 0 0 0 0 0 0 0 0 0 0 0 0 0 0 0 0 0 1:-1 2:0.054054054 3:0.025210084 4:-0.80530973 5:-0.65043386 6:-0.64290518 7:-0.77748519 8:-0.76183358 
-2187 0 2187 2187 2187 0 2187 2187 2187 2187 1566.5350596927428 0 0 0 2187 0 0 0 0 0 0 0 0 0 2:0.16216216 3:0.12605042 4:-0.77876106 5:-0.61572516 6:-0.67047747 7:-0.60631995 8:-0.72296961 
-0 0 0 0 0 2187 2187 0 0 0 0 0 0 0 0 0 0 0 0 0 0 0 0 0 1:1 2:-0.25675676 3:-0.39495798 4:-0.85840708 5:-0.88099876 6:-0.90383322 7:-0.87886768 8:-0.90433483 
-0 0 2187 0 0 2187 2187 0 163.54424551712046 0 0 0 0 0 0 0 0 0 0 0 0 0 0 0 1:1 2:-0.39189189 3:-0.44537815 4:-0.84070796 5:-0.90047813 6:-0.92468056 7:-0.91310072 8:-0.91728949 
-2187 125.20101031954455 2187 2187 2187 0 2187 2187 2187 2187 1944.5984982832647 0 0 0 1134.7382598071451 0 397.14197453777734 2187 193.39702516669198 376.42141765161387 0 0 3.3565068604528392 0 2:-0.18918919 3:-0.27731092 4:-0.76106195 5:-0.57853728 6:-0.63550773 7:-0.65635286 8:-0.66915795 
-0 0 2187 0 2187 0 812.78449296052509 0 0 0 0 0 0 0 0 0 0 0 0 0 0 0 0 0 1:-1 2:0.054054054 3:0.025210084 4:-0.79646018 5:-0.59093324 6:-0.60457297 7:-0.63396972 8:-0.76382661 
-0 0 2187 0 0 0 2187 0 0 0 0 0 0 0 0 0 0 0 0 0 0 0 0 0 1:1 2:-0.16216216 3:-0.17647059 4:-0.82300885 5:-0.79635205 6:-0.83792872 7:-0.83541804 8:-0.82361734 
-0 0 769.63009683350424 0 0 2187 2187 0 0 0 0 0 0 0 0 2187 0 0 0 0 0 0 0 0 1:1 2:-0.36486486 3:-0.46218487 4:-0.86725664 5:-0.91110324 6:-0.92535306 7:-0.92890059 8:-0.93124066 
-0 0 0 0 0 0 2187 0 0 0 0 0 0 0 0 0 0 0 0 0 0 0 0 0 1:1 2:-0.24324324 3:-0.31092437 4:-0.84070796 5:-0.86081105 6:-0.90517821 7:-0.87096774 8:-0.88739412 
-2016.5750241645269 0 2187 2187 2187 0 0 2187 1097.036919826608 0 0 0 0 0 0 0 0 0 0 0 0 0 0 0 1:1 2:0.027027027 3:0.0084033613 4:-0.77876106 5:-0.62422525 6:-0.69872226 7:-0.66951942 8:-0.71101146 
-0 0 2187 0 2187 0 0 391.48518069022697 0 0 0 0 0 0 0 0 0 0 0 0 0 0 0 0 1:1 3:-0.0084033613 4:-0.7699115 5:-0.70426775 6:-0.7733692 7:-0.75246873 8:-0.76482312 
-0 0 2187 0 2187 2187 2187 2187 0 0 0 0 0 0 0 0 0 0 0 0 0 0 0 0 2:-0.25675676 3:-0.29411765 4:-0.84070796 5:-0.87001948 6:-0.90114324 7:-0.89203423 8:-0.88340807 
-2187 0 2187 172.80753236373425 2187 0 2187 2187 0 171.48615539255937 0 0 0 0 0 0 0 0 0 0 0 0 0 0 1:-1 2:-0.10810811 3:-0.15966387 4:-0.78761062 5:-0.77581016 6:-0.83523874 7:-0.76300197 8:-0.81365222 
-2187 0 2187 0 2187 0 0 2187 0 2187 0 0 0 0 0 0 0 0 0 0 0 0 0 0 1:-1 2:0.2972973 3:0.15966387 4:-0.7699115 5:-0.50026563 6:-0.55480834 7:-0.5839368 8:-0.64424514 
-0 0 0 0 0 2187 2187 0 0 0 0 0 0 0 0 0 0 0 0 0 0 0 0 0 1:1 2:-0.32432432 3:-0.34453782 4:-0.87610619 5:-0.87781123 6:-0.88365837 7:-0.9078341 8:-0.92326856 
-2187 0 0 0 605.65059140825758 0 0 2187 0 260.74000186401844 0 0 0 0 0 0 0 0 0 0 0 0 0 0 1:-1 2:-0.36486486 3:-0.36134454 4:-0.83185841 5:-0.89516557 6:-0.93073302 7:-0.91178407 8:-0.90732436 
-0 0 2187 0 85.992009305131532 0 2187 0 0 0 0 0 0 0 0 0 0 0 0 0 0 0 0 0 1:1 2:0.040540541 3:0.025210084 4:-0.82300885 5:-0.67310076 6:-0.68863484 7:-0.7564187 8:-0.77379173 
-0 0 2187 0 2187 2187 1376.9871682816158 2187 0 0 0 0 0 0 0 0 0 0 0 0 0 0 0 0 2:-0.32432432 3:-0.31092437 4:-0.84070796 5:-0.86576944 6:-0.88702085 7:-0.90651745 8:-0.87942202 
-0 0 0 0 0 2187 2187 0 0 0 0 0 0 0 0 0 0 0 0 0 0 0 0 0 1:1 2:-0.2972973 3:-0.36134454 4:-0.84070796 5:-0.85868603 6:-0.87222596 7:-0.89466754 8:-0.90732436 
-2187 0 2187 2187 2187 0 2187 2187 1891.2805084040194 2187 0 0 0 0 204.19456996737981 0 0 0 0 0 0 0 0 0 2:0.13513514 3:0.092436975 4:-0.78761062 5:-0.59553745 6:-0.64425017 7:-0.66293614 8:-0.71599402 
-0 0 0 0 0 0 2187 0 0 0 0 0 0 0 0 0 0 0 0 0 0 0 0 0 1:1 2:-0.12162162 3:-0.17647059 4:-0.84070796 5:-0.80201877 6:-0.84196369 7:-0.84068466 8:-0.84354758 
-0 0 2187 0 2187 1978.5006621666653 0 2187 0 0 0 0 0 0 0 0 0 0 0 0 0 0 0 0 1:1 2:0.14864865 3:0.092436975 4:-0.80530973 5:-0.65149637 6:-0.70813719 7:-0.76431863 8:-0.7389138 
-0 0 0 0 0 0 2187 0 0 0 0 0 0 0 0 0 0 0 0 0 0 0 0 0 1:1 2:-0.22972973 3:-0.2605042 4:-0.86725664 5:-0.84522755 6:-0.86886348 7:-0.88545095 8:-0.87144993 
-2187 1190.1667680956746 2187 2187 2187 0 0 2187 2187 1145.3661668060086 54.971170563645693 205.37603548044615 0 0 0 0 0 321.22529466262489 0 0 0 0 0 0 1:1 2:-0.094594595 3:-0.058823529 4:-0.80530973 5:-0.76766425 6:-0.79018157 7:-0.8156682 8:-0.66417539 
-0 0 2187 0 2187 0 1241.9690430856176 0 0 0 0 0 0 0 0 0 0 0 0 0 0 0 0 0 1:1 2:0.054054054 3:0.0084033613 4:-0.80530973 5:-0.66566318 6:-0.69199731 7:-0.73666886 8:-0.76382661 
-171.11810066463102 0 0 0 1730.7668062830592 2187 2187 681.88617481006804 0 0 0 0 0 0 0 0 0 0 0 0 0 0 0 0 1:1 2:-0.35135135 3:-0.41176471 4:-0.84070796 5:-0.9103949 6:-0.94351042 7:-0.8959842 8:-0.92326856 
-0 0 1467.7929152059196 0 0 1002.4691560262828 2187 0 0 0 0 0 0 0 0 0 0 0 0 0 0 0 0 0 1:1 2:-0.31081081 3:-0.31092437 4:-0.85840708 5:-0.86683195 6:-0.89845326 7:-0.89993417 8:-0.87344295 
-0 0 0 0 0 0 2187 0 0 0 0 0 0 0 0 0 0 0 0 0 0 0 0 0 1:1 2:-0.13513514 3:-0.21008403 4:-0.83185841 5:-0.78891447 6:-0.78883658 7:-0.82225148 8:-0.84753363 
-0 0 2187 0 2187 0 0 0 0 0 0 0 0 0 0 0 0 0 0 0 0 0 0 0 1:1 2:0.040540541 3:-0.025210084 4:-0.81415929 5:-0.6833717 6:-0.73772697 7:-0.75246873 8:-0.75087195 
-0 0 2187 0 2187 2187 2187 2187 0 0 0 0 0 0 0 24.409185899716626 0 0 0 0 0 0 0 0 2:-0.37837838 3:-0.41176471 4:-0.85840708 5:-0.89091553 6:-0.91055817 7:-0.91046741 8:-0.90732436 
-0 0 0 0 0 0 2187 0 0 0 0 0 0 0 0 0 0 0 0 0 0 0 0 0 1:1 2:-0.18918919 3:-0.24369748 4:-0.84955752 5:-0.8494776 6:-0.88634835 7:-0.87360105 8:-0.85949178 
-0 0 660.55474892487757 195.41675030140007 0 2187 2187 0 0 0 0 0 0 0 0 2187 0 0 0 0 0 0 0 0 1:1 2:-0.45945946 3:-0.46218487 4:-0.86725664 5:-0.91960333 6:-0.93611298 7:-0.92495063 8:-0.93323368 
-0 0 2187 0 0 0 2187 0 0 0 0 0 0 0 0 0 0 0 0 0 0 0 0 0 1:1 2:0.013513514 3:-0.075630252 4:-0.81415929 5:-0.73826811 6:-0.75050437 7:-0.79460171 8:-0.80866966 
-2187 0 2187 2187 2187 0 0 2187 271.82498010545555 2187 1373.9802292066825 0 0 0 0 0 0 0 0 0 0 0 0 0 1:-1 2:-0.054054054 3:-0.075630252 4:-0.85840708 5:-0.74570568 6:-0.82111634 7:-0.78406847 8:-0.75386148 
-511.29116334398424 0 2187 0 2187 0 0 2187 0 0 0 0 0 0 0 0 0 0 0 0 0 0 0 0 1:-1 2:-0.10810811 3:-0.14285714 4:-0.82300885 5:-0.72870551 6:-0.76866174 7:-0.76036866 8:-0.78375685 
-0 0 0 0 0 2187 2187 0 0 0 0 0 0 0 0 0 0 0 0 0 0 0 0 0 1:1 2:-0.36486486 3:-0.37815126 4:-0.84070796 5:-0.89835311 6:-0.9199731 7:-0.91836735 8:-0.91330344 
-262.95634350751249 0 0 0 0 2187 0 0 0 0 0 0 2187 0 0 2187 0 0 0 0 0 0 0 0 1:-1 2:-0.64864865 3:-0.66386555 4:-0.92035398 5:-0.9713122 6:-0.97848016 7:-0.98683344 8:-0.97209766 
-0 0 2187 0 2187 0 0 0 0 0 0 0 0 0 0 0 0 0 0 0 0 0 0 0 1:1 2:0.040540541 3:-0.025210084 4:-0.80530973 5:-0.73543474 6:-0.79623403 7:-0.8485846 8:-0.75386148 
-0 0 2187 0 2187 0 2187 0 0 0 0 0 0 0 0 0 0 0 0 0 0 0 0 0 1:1 2:-0.027027027 3:-0.12605042 4:-0.80530973 5:-0.74039313 6:-0.78412912 7:-0.81303489 8:-0.76382661 
-0 0 0 0 0 0 2187 0 0 0 0 0 0 0 0 0 0 0 0 0 0 0 0 0 1:1 2:-0.2027027 3:-0.27731092 4:-0.84070796 5:-0.87001948 6:-0.9071957 7:-0.88940092 8:-0.87344295 
-0 0 0 0 0 2187 2187 0 0 0 0 0 0 0 0 895.40946131963096 0 0 0 0 0 0 0 0 1:1 2:-0.37837838 3:-0.36134454 4:-0.86725664 5:-0.89091553 6:-0.91055817 7:-0.90125082 8:-0.91330344 
-1925.2588174305129 0 2187 0 2187 0 0 2187 0 0 0 0 0 0 0 0 0 0 0 0 0 0 0 0 1:1 2:-0.027027027 3:-0.025210084 4:-0.78761062 5:-0.77368514 6:-0.8264963 7:-0.85385122 8:-0.76681614 
-0 0 2187 0 2187 0 0 2187 0 0 0 0 0 0 0 0 0 0 0 0 0 0 0 0 1:-1 2:0.27027027 3:0.12605042 4:-0.76106195 5:-0.44643173 6:-0.43308675 7:-0.52337064 8:-0.69207773 
-0 0 0 0 0 0 2187 0 0 0 0 0 0 0 0 0 0 0 0 0 0 0 0 0 1:1 2:-0.18918919 3:-0.17647059 4:-0.86725664 5:-0.89941562 6:-0.92199059 7:-0.92231731 8:-0.91529646 
-0 0 2187 0 0 1485.2433235390195 2187 0 0 0 0 0 0 0 0 0 0 0 0 0 0 0 0 0 1:1 3:-0.058823529 4:-0.82300885 5:-0.6546839 6:-0.63214526 7:-0.77485188 8:-0.78276034 
-369.19073632640573 0 1876.0794407914104 0 2187 0 0 2187 0 0 0 0 0 0 0 0 0 0 0 0 0 0 0 0 1:-1 2:-0.31081081 3:-0.32773109 4:-0.83185841 5:-0.8686028 6:-0.90248823 7:-0.88281764 8:-0.88340807 
-0 0 2187 0 0 0 0 0 0 0 0 0 0 0 0 0 0 0 0 0 0 0 0 0 1:1 2:-0.054054054 3:-0.092436975 4:-0.79646018 5:-0.74039313 6:-0.78345662 7:-0.77353522 8:-0.79471849 
-1855.6809625953044 0 2187 1214.7041383125779 2187 0 2187 1776.0993918944052 457.03011300424498 0 0 0 0 0 0 0 0 0 0 0 0 0 0 0 1:1 2:-0.24324324 3:-0.24369748 4:-0.84955752 5:-0.7956437 6:-0.87357095 7:-0.89730086 8:-0.77379173 
-0 0 2187 0 0 2187 2187 0 0 0 0 0 0 0 0 2187 0 0 0 0 0 0 0 0 1:1 2:-0.44594595 3:-0.51260504 4:-0.88495575 5:-0.93802019 6:-0.95292535 7:-0.95260039 8:-0.9431988 
-2187 270.67756576502762 2187 2187 2187 0 0 2187 2187 2187 2187 0 0 1371.0284953913115 2187 0 776.54561556703879 2187 0 0 0 0 0 0 2:0.081081081 3:0.092436975 4:-0.76106195 5:-0.6571631 6:-0.76798924 7:-0.81698486 8:-0.63428002 
-0 0 2187 0 2187 0 0 0 0 0 0 0 0 0 0 0 0 0 0 0 0 0 0 0 1:-1 2:0.094594595 3:0.042016807 4:-0.78761062 5:-0.57534974 6:-0.58170814 7:-0.69321922 8:-0.72396612 
-2187 0 2187 0 2187 0 0 2187 792.31798095210161 2058.6227568489062 0 0 0 0 0 0 0 0 0 0 0 0 0 0 1:-1 2:0.24324324 3:0.17647059 4:-0.75221239 5:-0.42199398 6:-0.46065905 7:-0.54970375 8:-0.62630792 
-2187 2102.8663794238228 2187 2187 2187 0 0 2187 2187 2187 2187 0 0 0 0 0 0 0 0 0 0 0 0 0 1:-1 2:0.27027027 3:0.22689076 4:-0.74336283 5:-0.45032761 6:-0.49764627 7:-0.59447005 8:-0.59441953 
-1488.8754567497247 0 2187 1107.4068434631374 2187 0 0 2187 0 1285.9459940378426 0 0 0 0 0 0 0 0 0 0 0 0 0 0 2:-0.16216216 3:-0.15966387 4:-0.81415929 5:-0.76660174 6:-0.81775387 7:-0.80513496 8:-0.8036871 
-0 0 2187 0 0 0 0 0 0 0 0 0 0 0 0 0 0 0 0 0 0 0 0 0 1:1 2:-0.10810811 3:-0.15966387 4:-0.82300885 5:-0.80945635 6:-0.87155346 7:-0.84068466 8:-0.82162431 
-2187 0 2187 2187 2187 0 0 2187 2187 2187 2187 0 0 0 1201.9318569208315 0 0 982.58096056568365 0 0 0 0 0 0 1:-1 2:0.22972973 3:0.17647059 4:-0.77876106 5:-0.53993271 6:-0.63618023 7:-0.57867018 8:-0.632287 
-0 0 2187 0 2187 0 0 0 0 0 0 0 0 0 0 0 0 0 0 0 0 0 0 0 1:1 2:0.054054054 3:-0.025210084 4:-0.80530973 5:-0.68868426 6:-0.76529926 7:-0.76300197 8:-0.76382661 
-2187 0 2187 2187 2187 0 0 2187 86.182078550907192 2187 145.90342011633538 0 0 0 0 0 0 0 0 0 0 0 0 0 1:1 2:0.054054054 3:0.058823529 4:-0.80530973 5:-0.68620506 6:-0.78143914 7:-0.74851876 8:-0.67214748 
-0 0 2187 0 2187 0 2187 0 0 0 0 0 0 0 0 0 0 0 0 0 0 0 0 0 1:1 2:-0.081081081 3:-0.092436975 4:-0.82300885 5:-0.72870551 6:-0.77673167 7:-0.79065174 8:-0.75386148 
-0 0 2187 0 2187 0 1550.1327341771153 0 0 0 0 0 0 0 0 0 0 0 0 0 0 0 0 0 1:1 2:0.14864865 3:0.058823529 4:-0.79646018 5:-0.59447494 6:-0.58977808 7:-0.70638578 8:-0.72197309 
-0 0 2187 0 0 0 0 0 0 0 0 0 0 0 0 0 0 0 0 0 0 0 0 0 1:1 2:0.027027027 3:-0.0084033613 4:-0.81415929 5:-0.68655923 6:-0.71486214 7:-0.71955234 8:-0.78076731 
-2187 0 2187 2187 2187 0 0 2187 2187 2187 2187 1122.0100284034813 0 0 0 0 1025.0024996447394 0 0 0 0 0 0 0 1:-1 2:0.067567568 3:0.058823529 4:-0.7699115 5:-0.63130866 6:-0.73100202 7:-0.65108624 8:-0.67414051 
-0 0 2187 0 2187 0 0 0 0 0 0 0 0 0 0 0 0 0 0 0 0 0 0 0 1:1 2:-0.013513514 3:-0.025210084 4:-0.78761062 5:-0.74287232 6:-0.77874916 7:-0.78275181 8:-0.78375685 
-0 0 2187 0 0 0 2187 0 0 0 0 0 0 0 0 0 0 0 0 0 0 0 0 0 1:1 2:-0.054054054 3:-0.092436975 4:-0.80530973 5:-0.76518505 6:-0.76866174 7:-0.88281764 8:-0.8036871 
-0 0 0 0 0 0 268.76571491550538 0 0 0 0 0 0 0 0 0 0 0 0 0 0 0 0 0 1:1 2:-0.17567568 3:-0.2605042 4:-0.83185841 5:-0.90401983 6:-0.88567586 7:-0.84726794 8:-0.88241156 
-0 0 2187 0 2187 0 0 0 0 0 0 0 0 0 0 0 0 0 0 0 0 0 0 0 1:1 2:0.054054054 3:0.0084033613 4:-0.81415929 5:-0.68833009 6:-0.72091459 7:-0.7445688 8:-0.76681614 
-0 0 2034.4338190647022 0 0 0 2187 0 0 0 0 0 0 0 0 0 0 0 0 0 0 0 0 0 1:1 2:-0.040540541 3:-0.092436975 4:-0.84070796 5:-0.70037188 6:-0.70948218 7:-0.77221856 8:-0.81365222 
-2187 0 2187 1345.7203665986899 2187 326.48175512395238 1604.9006863219593 2187 0 2187 0 0 0 0 0 0 0 0 0 0 0 0 0 0 2:0.10810811 3:0.058823529 4:-0.79646018 5:-0.66247565 6:-0.7330195 7:-0.74983542 8:-0.74588939 
-2187 0 2187 0 2187 0 1166.9155761372501 2187 0 2187 0 0 0 0 0 0 0 0 0 0 0 0 0 0 1:1 2:0.18918919 3:0.15966387 4:-0.77876106 5:-0.60297503 6:-0.66509751 7:-0.67346939 8:-0.66417539 
-2187 0 2187 0 2187 0 1919.4977370265549 2187 0 0 0 0 0 0 0 0 0 0 0 0 0 0 0 0 1:1 2:0.17567568 3:0.075630252 4:-0.82300885 5:-0.59164158 6:-0.68123739 7:-0.67873601 8:-0.65421026 
-0 0 0 0 0 2187 2187 0 0 0 0 0 0 0 0 0 0 0 0 0 0 0 0 0 1:1 2:-0.33783784 3:-0.37815126 4:-0.86725664 5:-0.87851957 6:-0.89912576 7:-0.9078341 8:-0.90333832 
-0 0 2187 0 0 2187 2187 0 0 0 0 0 0 0 0 2187 0 0 0 0 0 0 0 0 1:1 2:-0.45945946 3:-0.51260504 4:-0.88495575 5:-0.92810342 6:-0.93745797 7:-0.94733377 8:-0.9431988 
-0 0 2187 0 2187 0 2187 0 0 0 0 0 0 0 0 0 0 0 0 0 0 0 0 0 1:1 2:0.054054054 3:0.058823529 4:-0.79646018 5:-0.62316274 6:-0.65030262 7:-0.74325214 8:-0.71798705 
-0 0 2187 0 2187 0 0 2187 0 0 0 0 0 0 0 0 0 0 0 0 0 0 0 0 1:1 2:0.2027027 3:0.092436975 4:-0.79646018 5:-0.53072428 6:-0.5595158 7:-0.55365372 8:-0.71898356 
-0 0 2187 0 2187 460.54145276644994 42.564067074457114 1193.1724859510628 0 0 0 0 0 0 0 0 0 0 0 0 0 0 0 0 1:-1 2:-0.040540541 3:-0.058823529 4:-0.78761062 5:-0.72020542 6:-0.73436449 7:-0.77353522 8:-0.79671151 
-2187 2187 2187 2187 2187 0 0 2187 2187 2187 2187 1850.7547824588385 0 0 2187 0 0 2187 0 0 0 0 0 0 2:0.081081081 3:0.092436975 4:-0.75221239 5:-0.51336993 6:-0.57565568 7:-0.65503621 8:-0.61335326 
-2187 0 2187 0 2187 0 2187 2187 0 2187 0 0 0 0 0 0 0 0 0 0 0 0 0 0 2:0.081081081 3:0.042016807 4:-0.79646018 5:-0.60049584 6:-0.62340282 7:-0.69321922 8:-0.73692078 
-2187 2187 2187 2187 2187 0 2062.8140139537304 2187 2187 2187 2187 2187 0 0 2187 0 1441.9350719034126 2187 2187 290.80102129773871 0 0 0 0 2:0.28378378 3:0.24369748 4:-0.75221239 5:-0.32707632 6:-0.34297243 7:-0.48913759 8:-0.5675137 
-2187 0 2187 0 2187 0 0 2187 0 2187 0 0 0 0 0 0 0 0 0 0 0 0 0 0 1:1 2:0.13513514 3:0.092436975 4:-0.7699115 5:-0.63839207 6:-0.70746469 7:-0.69585253 8:-0.68410563 
-0 0 2187 0 0 0 2187 0 0 0 0 0 0 0 0 0 0 0 0 0 0 0 0 0 1:1 2:-0.16216216 3:-0.19327731 4:-0.84955752 5:-0.82185231 6:-0.86281103 7:-0.84990125 8:-0.83358246 
-2187 0 2187 1509.0580715395906 2187 0 0 2187 0 2187 0 0 0 0 0 0 0 0 0 0 0 0 0 0 1:-1 2:0.013513514 3:-0.025210084 4:-0.81415929 5:-0.70993448 6:-0.75924681 7:-0.70506912 8:-0.73393124 
-0 0 0 0 0 0 2187 0 0 0 0 0 0 0 0 0 0 0 0 0 0 0 0 0 1:1 2:-0.2027027 3:-0.24369748 4:-0.83185841 5:-0.79847707 6:-0.79892401 7:-0.81961817 8:-0.8445441 
-0 0 0 0 0 0 2187 0 0 0 0 0 0 0 0 0 0 0 0 0 0 0 0 0 1:1 3:-0.14285714 4:-0.84070796 5:-0.7634142 6:-0.79219906 7:-0.76431863 8:-0.83258595 
-0 0 2187 0 0 0 2187 0 0 0 0 0 0 0 0 0 0 0 0 0 0 0 0 0 1:1 2:-0.22972973 3:-0.2605042 4:-0.83185841 5:-0.84770675 6:-0.88836584 7:-0.88676761 8:-0.82361734 
-0 0 2187 0 0 0 0 0 0 0 0 0 0 0 0 0 0 0 0 0 0 0 0 0 1:1 2:-0.040540541 3:-0.092436975 4:-0.82300885 5:-0.74322649 6:-0.78950908 7:-0.78406847 8:-0.79372197 
-2187 -2187 2187 2187 2187 0 494.24507865873767 2187 2187 2187 2187 2187 0 0 2187 0 605.43003571309225 2187 2187 1488.4944034425021 0 0 0 0 2:0.54054054 3:0.57983193 4:-0.66371681 5:0.03523995 6:-0.11163416 7:-0.096774194 8:-0.13602392 
-2187 -2187 2187 2187 2187 0 0 2187 2187 2187 2187 0 0 57.970606951762015 2187 0 0 2187 2187 0 0 0 0 0 1:-1 2:0.39189189 3:0.41176471 4:-0.71681416 5:-0.33168054 6:-0.48823134 7:-0.51678736 8:-0.46487294 
-2187 -595.01225516972329 2187 2187 2187 0 0 2187 2187 2187 2187 0 0 1322.1591442657693 2187 0 2036.7838846139261 2187 2187 1646.6982943893183 0 0 0 0 1:-1 2:0.41891892 3:0.49579832 4:-0.71681416 5:-0.28245086 6:-0.46402152 7:-0.54443713 8:-0.34529148 
-2187 -2187 2187 2187 2187 0 0 2187 2187 2187 2187 2187 0 0 2187 0 1863.1644078828688 2187 2187 816.40557963493904 0 0 0 0 2:0.32432432 3:0.34453782 4:-0.69026549 5:-0.28386754 6:-0.54135844 7:-0.4562212 8:-0.30543099 
-2187 -2187 2187 2187 2187 0 319.95787665983664 2187 2187 2187 2187 0 0 2.5848448003938262 2187 0 0 2187 2187 1948.1488810515195 0 0 0 0 1:-1 2:0.33783784 3:0.17647059 4:-0.71681416 5:-0.34655569 6:-0.53799597 7:-0.42593812 8:-0.41504733 
-2187 -185.06636622811925 1612.3669806392072 2187 2187 0 0 2187 2187 2187 2187 1291.7196217713092 0 688.99744948530008 2187 0 863.58178345152612 802.06929500736237 2187 0 0 0 404.93626897775493 0 1:-1 2:0.66216216 3:0.66386555 4:-0.6460177 5:0.30653444 6:-0.016812374 7:0.24160632 8:0.13303438 
-2187 -2187 2187 2187 2187 0 2187 2187 2187 2187 2187 49.021128840098264 0 1729.3430608955287 2187 0 2138.8725570376096 2187 104.39351097019366 607.18313331668992 0 0 0 0 1:-1 2:0.14864865 3:0.092436975 4:-0.72566372 5:-0.53391181 6:-0.64425017 7:-0.64186965 8:-0.57448929 
-2187 -317.90154737938911 2187 2187 2187 0 0 2187 2187 2187 2187 1975.3215591637149 0 23.327607688303026 2187 0 2187 2187 2187 494.53157445555951 0 0 0 0 1:-1 2:0.5 3:0.54621849 4:-0.71681416 5:-0.28174252 6:-0.43443174 7:-0.35878868 8:-0.29546587 
