svm_type c_svc
kernel_type polynomial
degree 5
gamma 0.125
coef0 0
nr_class 26
total_sv 2498
rho -1.1529859520083845 -0.98548302534068744 -1.0723245755892969 -1.0055387666733711 -4.4036507835730374 -10.334446024634394 -1.4572062086720137 -1.1517413068828453 -1.0122750006801253 -1.0822529665121237 -2.7344647056111402 -1.009383034462592 -0.95005885882373875 -0.97124946017410141 -0.89202860276866724 -1.01841025304844 -0.97088010367528943 -0.99120197541512434 -1.0546896491408648 -1.7082084597832359 -1.0114536017981774 -1.5508320369266357 -0.98713316821929986 -1.3332011034407203 -1.2143822628910617 0.28720033205074541 0.9886283543906621 0.5304601158435871 -4.7298878162088585 -1.3742556416200442 -1.2975384198412829 -1.1404008348383847 -0.13522730996767002 -0.91850166382084775 -5.7928407267985511 -1.0267824666445025 -0.36739698499402967 -0.36481740199153984 0.12411214186715723 -0.4117940523830817 -0.89476286140384342 -0.74227851825995128 -1.0781603329616098 -1.0983178602783863 -1.0207631428470845 -2.4802223099614764 -1.0134391653991717 -1.8082010857810902 -1.2401113987436059 0.73903441136441861 0.96037627165178019 -3.5775405947927568 -4.7502642598921945 -1.3822362078538202 -1.2010147064295731 -0.46903392478700495 -1.1331971200278372 -1.7759895006076154 -1.0210113835877261 -0.73821377166622248 -0.80835452632407245 -0.30931489535302653 -0.73529088934592546 -0.95103221071182154 -0.84080470258860573 -0.98804677751081471 -1.7999834435695674 -1.0287545271050706 -1.3002403762274972 -0.90818452450424414 -1.1815055224490276 -1.1355275119893788 -0.36784826043629615 -5.5218614668407762 -12.324693188664412 -1.1706534884904829 -1.1742160132881194 -0.78688153268453986 -1.0028284815396684 -5.759277535271063 -1.1575165307364848 -0.78861299233784532 -0.88594466747700162 -0.56968250075010596 -0.84560036103986869 -1.0189737408781203 -0.84038204826817131 -0.97276920111777465 -0.95461656086930935 -1.0001598445044799 -2.4272964306192475 -0.91425940296701647 -1.793234973121455 -1.3504898062209396 -2.382632624464978 -4.8528946910674593 -1.0538448534972129 -1.001693525012171 -0.81954701094467741 -0.73722387824518298 -2.414818910508314 -0.99254432333559905 -0.80206571730877751 -0.70633690594227438 -0.6227475213149859 -0.77245123322792586 -0.91357898849020036 -0.7326896814441507 -0.96467783845966693 -1.190821660446969 -1.0032377964754537 -1.537850502504998 -0.97305992000821306 -1.3235281618077288 -1.2491711379102302 -4.9044284190517136 3.0190073824886303 1.4778207219186159 4.6046152433565988 2.7438013001229917 -20.261794863507898 2.1341636010280118 1.9306702072605528 4.4537538421401219 2.7330318780962841 1.5857352784906702 4.3826267673462294 1.4653326943162337 1.250653980667449 0.87338041885652795 1.2996409852000688 -17.821362892634049 1.0059627609850392 -4.3044385893607187 0.96298106696612629 4.3748042431734948 1.2054877554193175 5.718109248748739 2.8295836802143324 -5.7443605864908971 2.0010114125747909 1.3377410999027619 2.0248840478508301 5.6496580865772543 1.2463684723117432 2.0494233586607433 1.1888017194255809 1.1191522499370947 0.95906294935978498 1.1450812482201713 -15.998562599629208 1.0024054530890778 -6.6458673883725652 0.98744096830412209 0.92120418892447231 1.6233448864402082 1.2377328437625683 -17.008174322536021 0.84907629957190878 1.0568044665720124 1.1496022466110181 1.4238942791350568 1.3589333848198635 1.3020869257709087 1.0398998957204317 0.708913874871688 -1.0218339726406356 -0.25354672030469216 -6.2181134355298537 -0.73853565435768065 -2.979826268668365 -1.0648158365156917 1.0595427772781294 0.80999037281346009 -1.0811890922750065 1.0368130127275126 1.1945446490064993 1.1691933569669937 1.196644905026669 1.47193278322248 1.204348334498798 1.2181381809466603 0.58733403251471239 -0.9510338175793267 -0.69715127730176174 -1.0271339436380598 -0.83315001311348091 -1.0159846447017051 -1.1246708852379481 -0.71904939370320531 -3.0542774013526679 -1.0878272887851421 -0.71071133841790057 -0.64277722737870868 0.019409920776353305 -0.84988735080932454 -0.99503329911633487 -0.87861494626870562 -1.0031019542201887 -0.94296843867729763 -1.1154521219790652 -1.9144450751897288 -0.89329442849093221 -1.5329493048382594 -1.4879146995593393 -10.330039675226308 0.14752032155491476 0.71698330234181573 1.1630258272940026 1.0280983529306054 0.82613595766249481 0.42838744355766784 0.66629092523502442 -0.70566554675073712 -1.2202569159390471 -0.97233212646572931 -2.8867217486554599 -0.89718821687215522 -1.9876062050155507 -1.1093318141851469 1.2684722372167121 1.1608056813648573 1.3274394700795509 1.7004340046746851 1.1105385770200888 1.3236014423103257 1.0592838138305698 1.0470791051787947 0.983027722358497 1.0556434580127538 -20.347313297688217 1.0004373719030397 -8.8887124075978647 0.99605452356366431 1.0378106022410252 1.2956774783673946 1.0360913593852497 1.3738128913715462 0.79982505474542875 1.0349079104944141 -0.93762986443137863 -0.99331634663749624 -1.0089520997220225 -1.1907124840214602 -0.96668241036647284 -1.1136704330045086 -1.4269314916925517 0.26753925064580691 0.80511149331936405 -0.0069291116654929359 -0.85477171878780922 -0.94187036251059608 -0.98814116812636554 -1.4793713618966977 -1.1703475479797616 -1.0526050540559519 -0.94481356964840857 -1.0335323680158683 -1.4539086163473804 0.8967523114899264 -0.78608783554055028 -1.0766224154470041 -0.98493535314937197 -1.0031743497890493 -0.96086633637200425 -1.4353832158473281 -1.145356749100799 -0.91396963280643617 -1.0906118337717816 -1.3195518581107593 -0.94529140777044529 -0.98079181781072666 -0.97790838447971373 -1.0194875345233887 -1.6275229159960332 -1.1162480181084677 -1.4236162462638973 -1.0000630019738082 -1.2561145240826201 -1.0340091478267994 -1.2986659175101967 -1.1300677214195682 -0.96865325787967171 -2.1521303811185177 -1.1607090180274733 -1.0358003754638019 -0.97109568878033525 -1.0219905154496376 -1.4244074963504132 -0.096419764240669489 -0.75446457283874124 -1.2365184783151899 -1.0641957442821797 -1.1240663565331603 -0.90379263264675858 -1.0716215633493642 -1.2861133477617561 -0.93277271509094828 -1.4048574005963845 -1.1490447072532819 -1.0369481828025624 -1.0173638882423528 -1.0198238826409471 -1.4194887504571227 -1.0561323358651205 -1.4568919419953974 -1.0145781924503585 -0.96269088404728298 -1.0087111073482009 -0.88313346366387968 0.99068092212960446 -0.99099805298079913 1.0128982712113792 -0.99452021120259948 0.79071924851978725 -1.0162996941980849 -0.75173870155308475 -1.0092513983778235 -1.2256260484253483 0.99997586938118754 -5.4355567208539011 0.9987541321531459 -0.99993199856930781 -0.7119747158482399 0.99922316222554319
label 10 8 12 9 11 5 4 6 21 13 7 3 19 16 15 14 17 18 20 23 26 22 2 27 1 29
nr_sv 378 343 167 409 275 70 39 156 10 107 240 10 16 38 61 80 37 28 17 6 1 5 1 2 1 1
SV
6561 0 6561 0 0 0 508.08748590469423 0 0 6561 0 0 0 0 0 0 0 0 0 0 0 0 0 0 0 1:1 2:0.27027027 3:0.2605042 4:-0.73451327 5:-0.47582787 6:-0.52723605 7:-0.58525346 8:-0.58844046 
6561 0 6561 0 0 0 0 0 0 0 0 0 0 0 0 0 0 0 0 0 0 0 0 0 0 1:-1 2:0.45945946 3:0.36134454 4:-0.69911504 5:-0.25305472 6:-0.35373235 7:-0.28505596 8:-0.46487294 
0 6561 802.60158514616307 6561 0 0 0 0 1847.9351466874903 0 0 0 0 0 0 0 0 0 0 0 0 0 0 0 0 1:-1 2:0.87837838 3:0.83193277 4:-0.61946903 5:0.55303701 6:0.4129119 7:0.26793943 8:0.16093672 
6561 0 6561 0 0 0 0 0 0 6561 0 0 0 0 0 0 0 0 0 0 0 0 0 0 0 1:-1 2:0.21621622 3:0.17647059 4:-0.76106195 5:-0.46484859 6:-0.55682582 7:-0.4325214 8:-0.61434978 
6561 0 6561 6561 0 0 6561 0 0 6561 0 0 0 0 0 0 0 0 0 0 0 0 0 0 0 1:1 2:0.25675676 3:0.21008403 4:-0.80530973 5:-0.56295378 6:-0.63080027 7:-0.60631995 8:-0.65122073 
0 6561 3787.9838741146377 469.84901860599456 0 0 0 0 4330.3302191128687 0 0 0 0 0 0 0 0 0 0 0 0 0 0 0 0 1:-1 2:0.78378378 3:0.73109244 4:-0.62831858 5:0.58207898 6:0.5729657 7:0.21790652 8:0.05630294 
6561 6561 6561 6561 0 0 6561 0 6561 6561 0 0 0 0 0 0 0 0 0 0 0 0 0 0 0 1:-1 2:0.14864865 3:0.075630252 4:-0.73451327 5:-0.55091199 6:-0.66039005 7:-0.6194865 8:-0.6243149 
6561 0 6561 0 0 0 0 0 0 0 0 0 0 0 0 0 0 0 0 0 0 0 0 0 0 1:-1 2:0.22972973 3:0.21008403 4:-0.75221239 5:-0.48857801 6:-0.58372562 7:-0.560237 8:-0.59441953 
0 6561 4964.9971851205073 6561 0 0 0 0 0 0 0 0 0 0 0 0 0 0 0 0 0 0 0 0 0 2:0.62162162 3:0.59663866 4:-0.69026549 5:0.023198158 6:-0.090114324 7:-0.1323239 8:-0.22770304 
0 0 6561 6561 0 0 0 0 0 0 0 0 0 0 0 0 0 0 0 0 0 0 0 0 0 2:0.47297297 3:0.41176471 4:-0.71681416 5:-0.20134585 6:-0.37861466 7:-0.29427255 8:-0.34529148 
0 6561 0 6561 0 0 0 0 6561 0 0 1409.8924420527942 0 1083.280444741974 0 0 0 0 0 0 0 0 0 0 0 2:0.67567568 3:0.66386555 4:-0.72566372 5:0.30865947 6:0.030262273 7:0.16260698 8:-0.17090184 
0 0 6561 6561 0 0 0 0 0 0 0 0 0 0 0 0 0 0 0 0 0 0 0 0 0 1:-1 2:0.54054054 3:0.51260504 4:-0.73451327 5:-0.17938729 6:-0.30329523 7:-0.31270573 8:-0.33532636 
6561 6561 6561 6561 0 0 0 0 0 0 0 0 0 6561 0 2723.2683041711261 0 0 0 0 0 0 0 0 0 2:0.37837838 3:0.27731092 4:-0.69026549 5:-0.3058261 6:-0.45595158 7:-0.34430546 8:-0.46487294 
6561 0 6561 0 0 0 0 0 0 3279.2032257073483 0 0 0 0 0 0 0 0 0 0 0 0 0 0 0 1:-1 2:0.13513514 3:0.092436975 4:-0.78761062 5:-0.66566318 6:-0.73638198 7:-0.72086899 8:-0.69506726 
6561 0 6561 0 0 0 0 0 0 6561 0 0 0 0 0 0 0 0 0 0 0 0 0 0 0 2:0.37837838 3:0.32773109 4:-0.71681416 5:-0.23853373 6:-0.32952253 7:-0.24423963 8:-0.50473343 
6561 0 6561 6561 0 0 0 0 0 6522.9688871313101 0 0 0 0 0 0 0 0 0 0 0 0 0 0 0 2:0.013513514 3:0.025210084 4:-0.77876106 5:-0.64264211 6:-0.70275723 7:-0.72481896 8:-0.68410563 
0 6561 1911.4534467922851 6561 0 0 1029.1412094868097 5567.7328520917627 6561 0 0 672.99918332396498 6561 6561 6561 6561 4145.1781643330023 6561 3655.1703152050341 1755.5879015011824 3260.7096642313941 0 0 0 0 1:-1 2:0.27027027 3:0.36134454 4:-0.71681416 5:-0.36568089 6:-0.54270343 7:-0.56550362 8:-0.31539611 
6561 6561 6561 6561 0 0 0 0 3236.3612649684301 0 0 0 0 0 1602.7573062107258 0 0 0 0 0 0 0 0 0 0 2:0.081081081 3:0.12605042 4:-0.78761062 5:-0.62564193 6:-0.71418964 7:-0.69716919 8:-0.66417539 
0 0 6561 6561 0 0 0 0 0 0 0 0 0 2663.6269617607531 0 0 0 0 0 0 0 0 0 0 0 1:-1 2:0.51351351 3:0.54621849 4:-0.7079646 5:-0.13086595 6:-0.32145259 7:-0.21790652 8:-0.29845541 
0 6561 0 6561 0 0 0 886.35966977660826 6561 0 0 0 6561 6561 6561 5633.7909170475914 3728.6507051545291 6561 0 0 0 0 147.32361159413153 0 0 2:0.58108108 3:0.61344538 4:-0.63716814 5:0.019656455 6:-0.20443847 7:-0.27057275 8:-0.026407573 
0 6561 0 6561 0 0 0 0 6561 0 0 0 0 2273.0477323872319 0 0 0 0 0 0 0 0 0 0 0 2:0.56756757 3:0.56302521 4:-0.66371681 5:0.028864884 6:-0.19435104 7:0.016458196 8:-0.23966119 
6561 6561 6561 6561 0 0 0 0 0 0 0 0 0 0 0 0 0 0 0 0 0 0 0 0 0 2:0.18918919 3:0.21008403 4:-0.75221239 5:-0.5101824 6:-0.58238063 7:-0.60105332 8:-0.60438465 
6561 0 6561 0 0 0 0 0 0 2072.5706534692777 0 0 0 0 4151.9407450578228 0 0 0 0 0 0 0 0 0 0 1:-1 2:0.10810811 3:0.15966387 4:-0.76106195 5:-0.53178679 6:-0.58036315 7:-0.640553 8:-0.60438465 
6561 0 6561 0 0 0 0 0 0 6561 0 0 0 0 0 0 0 0 0 0 0 0 0 0 0 1:-1 2:0.32432432 3:0.2605042 4:-0.73451327 5:-0.41278555 6:-0.43039677 7:-0.54443713 8:-0.56651719 
0 0 6561 6561 0 0 0 0 0 0 0 0 0 0 0 0 0 0 0 0 0 0 0 0 0 1:-1 2:0.48648649 3:0.46218487 4:-0.7079646 5:-0.14786612 6:-0.30531271 7:-0.18367347 8:-0.31240658 
0 0 6561 6561 0 0 0 0 0 0 0 0 0 0 0 0 0 0 0 0 0 0 0 0 0 1:-1 2:0.56756757 3:0.46218487 4:-0.69026549 5:-0.039135824 6:-0.14122394 7:-0.22712311 8:-0.27553563 
2741.8389104157504 0 6561 753.59590668633359 0 0 0 0 0 6561 0 0 55.068281658222482 0 0 0 0 0 0 0 0 0 0 0 0 2:-0.18918919 3:-0.21008403 4:-0.79646018 5:-0.80981052 6:-0.87626093 7:-0.8275181 8:-0.82660688 
6561 0 6561 0 0 0 0 0 0 0 0 0 0 0 0 0 0 0 0 0 0 0 0 0 0 2:0.5 3:0.41176471 4:-0.72566372 5:-0.2927218 6:-0.39340955 7:-0.33772219 8:-0.47483807 
6561 0 6561 6561 0 0 0 0 0 0 0 0 0 0 0 0 0 0 0 0 0 0 0 0 0 1:-1 2:0.40540541 3:0.41176471 4:-0.75221239 5:-0.27147158 6:-0.33893746 7:-0.42988808 8:-0.44892875 
0 0 0 6561 0 0 0 0 6561 0 0 0 0 6561 6561 0 0 0 0 0 0 0 0 0 0 1:-1 2:0.58108108 3:0.57983193 4:-0.6460177 5:0.053302639 6:-0.18560861 7:-0.0019749835 8:-0.16392626 
6561 0 6561 6561 0 0 0 0 0 0 0 0 0 0 0 0 191.35319517055697 0 0 0 0 0 0 0 0 1:-1 2:0.47297297 3:0.44537815 4:-0.72566372 5:-0.25836727 6:-0.37995965 7:-0.39302172 8:-0.50473343 
0 3503.9865939128149 6561 6561 0 0 0 0 0 0 0 0 0 0 0 0 0 0 0 0 0 0 0 0 0 2:0.77027027 3:0.73109244 4:-0.7079646 5:0.42695236 6:0.43577673 7:0.099407505 8:-0.13602392 
6561 0 6561 6561 0 0 0 0 6561 0 0 0 0 1486.2947841296566 0 0 0 0 0 0 0 0 0 0 0 2:0.2027027 3:0.19327731 4:-0.77876106 5:-0.50664069 6:-0.60524546 7:-0.57340355 8:-0.57448929 
0 6561 6561 0 0 0 0 0 6561 0 0 0 0 0 6561 0 0 0 0 0 0 0 0 0 0 1:-1 2:0.36486486 3:0.29411765 4:-0.69026549 5:-0.13334514 6:-0.27437794 7:-0.28900592 8:-0.35226707 
0 6561 5358.9899121013241 6561 0 0 0 0 0 0 0 0 0 0 0 0 0 0 0 0 0 0 0 0 0 2:0.74324324 3:0.76470588 4:-0.65486726 5:0.48822384 6:0.37928716 7:0.26267281 8:0.068261086 
0 6561 0 6561 0 0 0 0 6561 0 0 0 6561 0 2221.2727915933224 0 0 0 0 0 0 0 0 0 0 2:0.67567568 3:0.61344538 4:-0.69026549 5:0.30086772 6:0.079354405 7:0.041474654 8:-0.0004982561 
6561 0 6561 6561 0 0 0 0 0 0 0 0 0 0 0 0 0 0 0 0 0 0 0 0 0 2:0.47297297 3:0.41176471 4:-0.69026549 5:-0.28138835 6:-0.41560188 7:-0.43778802 8:-0.3552566 
0 0 0 6561 0 0 0 0 6561 0 0 0 0 6561 0 0 0 0 0 0 0 0 0 0 0 1:-1 2:0.54054054 3:0.49579832 4:-0.69026549 5:-0.054010979 6:-0.25622058 7:-0.19025675 8:-0.1758844 
1853.7729693881338 0 6561 6561 0 0 0 0 0 0 0 0 0 0 0 0 0 0 0 0 0 0 0 0 0 2:0.51351351 3:0.46218487 4:-0.69026549 5:-0.12059501 6:-0.22057835 7:-0.17709019 8:-0.39511709 
6561 6561 6561 6561 0 0 0 0 0 6561 0 0 0 0 0 0 0 380.71572735992783 0 0 0 0 0 0 0 1:1 2:0.28378378 3:0.17647059 4:-0.73451327 5:-0.52293253 6:-0.59583053 7:-0.61553654 8:-0.58445441 
6561 0 6561 0 0 0 0 0 0 6561 0 0 0 2432.1403367168514 0 0 0 0 0 0 0 0 0 0 0 2:0.2027027 3:0.24369748 4:-0.73451327 5:-0.42553568 6:-0.48352387 7:-0.47070441 8:-0.54459392 
0 0 6561 6561 0 0 0 0 0 0 0 0 0 0 1487.5727265771518 0 0 0 0 0 0 0 0 0 0 2:0.41891892 3:0.39495798 4:-0.66371681 5:-0.19780414 6:-0.33960995 7:-0.31797235 8:-0.3303438 
0 0 0 6561 0 0 0 0 0 0 0 0 0 0 0 0 0 0 0 0 0 0 0 0 0 1:-1 2:0.60810811 3:0.6302521 4:-0.69026549 5:0.048344254 6:-0.0073974445 7:-0.23107307 8:-0.27553563 
0 0 6561 6561 0 0 0 0 0 0 0 0 0 0 0 0 0 0 0 0 0 0 0 0 0 1:-1 2:0.54054054 3:0.49579832 4:-0.65486726 5:-0.0090313441 6:-0.17215871 7:-0.075707702 8:-0.26058794 
6561 0 6561 0 0 0 0 0 0 0 0 0 0 0 0 0 0 0 0 0 0 0 0 0 0 1:-1 2:0.48648649 3:0.46218487 4:-0.78761062 5:-0.38055605 6:-0.38802959 7:-0.52732061 8:-0.53861485 
0 384.82515884446423 6561 6561 6561 3677.6237229912304 6561 0 3257.7688972120568 6561 53.922569231861907 0 0 0 0 0 0 16.088438432495536 0 0 0 0 0 0 0 1:-1 2:-0.41891892 3:-0.42857143 4:-0.85840708 5:-0.90968656 6:-0.92938803 7:-0.93285056 8:-0.91330344 
0 0 0 6561 0 0 0 0 0 0 0 0 0 0 0 0 0 0 0 0 0 0 0 0 0 1:-1 2:0.58108108 3:0.56302521 4:-0.66371681 5:0.10217815 6:0.014122394 7:-0.21658986 8:-0.20577977 
0 0 6561 6561 0 0 0 0 0 0 0 0 0 0 0 0 0 0 0 0 0 0 0 0 0 1:-1 2:0.56756757 3:0.64705882 4:-0.66371681 5:0.0076146627 6:-0.15063887 7:-0.12442396 8:-0.24962631 
6561 0 6561 0 0 0 0 0 0 6561 0 0 0 0 0 0 0 0 0 0 0 0 0 0 0 1:-1 2:0.18918919 3:0.092436975 4:-0.76106195 5:-0.5328493 6:-0.61466039 7:-0.44963792 8:-0.69407075 
6561 0 6561 6561 0 0 6561 0 0 6561 0 0 0 6561 0 0 0 0 0 0 0 0 0 0 0 2:0.13513514 3:0.1092437 4:-0.7699115 5:-0.51230742 6:-0.58103564 7:-0.52995392 8:-0.65421026 
0 2007.3329066656534 0 0 0 0 0 0 887.84288306770441 0 0 0 0 1786.9119814012056 3028.5463430927139 0 0 0 19.169212330607532 0 0 0 0 0 0 1:1 2:0.63513514 3:0.59663866 4:-0.67256637 5:-0.21551266 6:-0.41089442 7:-0.35615537 8:-0.32536124 
0 6561 0 6561 0 0 0 0 0 0 0 0 0 0 0 0 0 0 0 0 0 0 0 0 0 2:0.58108108 3:0.4789916 4:-0.62831858 5:0.095094741 6:-0.027572293 7:-0.073074391 8:-0.22072745 
0 0 6561 6561 0 0 0 0 0 0 0 0 0 0 0 0 0 0 0 0 0 0 0 0 0 1:-1 2:0.48648649 3:0.56302521 4:-0.69026549 5:-0.0023021073 6:-0.07195696 7:-0.15339039 8:-0.31240658 
0 0 6561 6561 0 0 0 0 0 0 0 494.79657519371494 0 0 0 0 0 404.56720216219583 0 0 0 0 0 0 0 1:-1 2:0.40540541 3:0.39495798 4:-0.72566372 5:-0.15034532 6:-0.33960995 7:0.016458196 8:-0.47483807 
6561 0 6561 6561 2936.7896081679214 2712.6251727418853 6561 0 0 6561 0 0 0 0 0 0 0 0 0 0 0 0 0 0 0 1:-1 2:-0.27027027 3:-0.32773109 4:-0.85840708 5:-0.8817071 6:-0.9206456 7:-0.88940092 8:-0.89536622 
6561 6561 6561 6561 0 0 0 0 0 0 0 0 0 0 0 0 0 0 0 0 0 0 0 0 0 1:-1 2:0.33783784 3:0.27731092 4:-0.69911504 5:-0.38303524 6:-0.48755884 7:-0.51942067 8:-0.46387643 
6561 0 6561 6561 0 0 0 0 0 0 0 0 0 0 0 0 0 0 0 0 0 0 0 0 0 2:0.43243243 3:0.42857143 4:-0.73451327 5:-0.23711705 6:-0.39542703 7:-0.25477288 8:-0.41903338 
1908.6685737757582 0 6561 0 0 0 0 0 0 0 0 0 0 0 0 0 0 0 0 0 0 0 0 0 0 2:-0.054054054 3:-0.058823529 4:-0.83185841 5:-0.77333097 6:-0.83927371 7:-0.84068466 8:-0.75386148 
6561 0 6561 926.83246344303188 0 0 6561 0 0 6561 0 0 0 0 0 0 0 0 0 0 0 0 0 0 0 1:1 2:-0.081081081 3:-0.092436975 4:-0.82300885 5:-0.77368514 6:-0.79488904 7:-0.84463463 8:-0.79372197 
0 6561 0 6561 0 0 0 0 0 0 0 0 0 0 0 0 0 0 0 0 0 0 0 0 0 2:0.58108108 3:0.57983193 4:-0.68141593 5:0.12944927 6:0.043039677 7:0.044107966 8:-0.28450424 
0 0 6561 6561 0 0 0 0 0 0 0 0 0 0 0 0 0 0 0 0 0 0 0 0 0 1:-1 2:0.41891892 3:0.41176471 4:-0.69911504 5:-0.19992917 6:-0.31809011 7:-0.28505596 8:-0.38714499 
6561 0 6561 4912.4234413555814 0 0 0 0 0 6561 0 0 0 0 0 0 0 0 0 0 0 0 0 0 0 1:-1 2:0.013513514 3:-0.0084033613 4:-0.82300885 5:-0.74110147 6:-0.80430397 7:-0.73403555 8:-0.76382661 
6561 0 6561 0 0 0 6561 0 0 6561 0 0 0 2957.540186854319 0 0 0 0 0 0 0 0 0 0 0 1:-1 2:0.10810811 3:0.025210084 4:-0.7699115 5:-0.61785019 6:-0.65232011 7:-0.74851876 8:-0.68410563 
6561 6561 6561 6561 0 0 0 118.12123458963711 443.2887473664706 0 0 0 0 0 1677.3486983654022 0 3234.7760072134242 0 0 0 0 0 0 0 0 1:1 2:0.33783784 3:0.2605042 4:-0.74336283 5:-0.41136887 6:-0.52521856 7:-0.62211982 8:-0.44195316 
0 6561 6561 6561 0 0 0 0 0 0 0 0 0 0 0 0 0 0 0 0 0 0 0 0 0 2:0.62162162 3:0.52941176 4:-0.65486726 5:-0.022489818 6:-0.18829859 7:-0.16524029 8:-0.21275536 
6561 0 6561 0 0 0 0 0 0 0 0 0 0 0 3294.3685731024384 0 0 0 0 0 0 0 0 0 0 1:-1 2:0.33783784 3:0.32773109 4:-0.72566372 5:-0.15494953 6:-0.24478816 7:-0.32587228 8:-0.41504733 
779.04194430979715 6434.4425288291468 6561 6561 0 0 0 0 0 0 0 0 0 0 0 0 0 0 0 0 0 0 0 0 0 2:0.47297297 3:0.42857143 4:-0.7079646 5:-0.28422171 6:-0.28513786 7:0.14812377 8:-0.35724963 
6561 0 6561 6561 0 0 0 0 0 6561 0 0 0 1804.6567986930149 0 0 0 0 0 0 0 0 0 0 0 1:-1 2:-0.013513514 3:0.042016807 4:-0.77876106 5:-0.63591287 6:-0.71149966 7:-0.70111916 8:-0.69407075 
6561 0 6561 6561 0 0 0 0 0 0 0 0 0 0 0 0 0 0 0 0 0 0 0 0 0 1:-1 2:0.48648649 3:0.49579832 4:-0.75221239 5:-0.22507526 6:-0.26899798 7:-0.43120474 8:-0.41504733 
0 0 6561 6561 0 0 0 0 0 0 0 0 0 0 0 0 0 0 0 0 0 0 0 0 0 1:-1 2:0.45945946 3:0.41176471 4:-0.69911504 5:-0.20170002 6:-0.35642233 7:-0.20605662 8:-0.40508221 
0 0 0 6561 0 0 0 0 6561 0 0 0 0 0 1354.6758335202903 0 0 0 0 0 0 0 0 0 0 1:-1 2:0.60810811 3:0.49579832 4:-0.66371681 5:0.07455286 6:-0.1728312 7:0.020408163 8:-0.1758844 
0 0 6561 6561 0 0 0 0 0 0 0 0 0 0 0 0 0 0 0 0 0 0 0 0 0 2:0.48648649 3:0.42857143 4:-0.69911504 5:-0.043385869 6:-0.16274378 7:-0.26925609 8:-0.27553563 
0 5581.0239108126361 6561 6561 0 0 0 0 0 0 0 0 0 0 0 0 0 0 0 0 0 0 0 0 0 1:-1 2:0.48648649 3:0.51260504 4:-0.67256637 5:-0.18222065 6:-0.30195024 7:-0.36800527 8:-0.29845541 
0 6561 0 6561 0 0 0 0 6561 0 0 6544.9039194200022 6561 0 5081.8709842867529 6561 2971.726435314733 4259.5183794599643 0 0 0 0 0 0 5025.66737450867 2:0.7027027 3:0.73109244 4:-0.67256637 5:0.24597131 6:0.0033624748 7:-0.020408163 8:-0.030393622 
0 6561 0 6561 0 0 0 0 0 0 0 0 0 0 0 0 0 0 0 0 0 0 0 0 0 2:0.67567568 3:0.66386555 4:-0.67256637 5:0.18788737 6:0.08137189 7:0.055957867 8:-0.21275536 
0 0 5189.7194332828594 0 0 0 0 0 0 6561 0 0 0 0 0 0 0 0 0 0 0 0 0 0 0 2:-0.17567568 3:-0.21008403 4:-0.81415929 5:-0.81937312 6:-0.86819099 7:-0.86701777 8:-0.83358246 
0 0 6561 6561 0 0 0 0 0 0 0 0 0 0 0 0 0 0 0 0 0 0 0 0 0 1:1 2:0.43243243 3:0.42857143 4:-0.72566372 5:-0.29343014 6:-0.42972428 7:-0.47860434 8:-0.40508221 
6561 0 6561 6561 0 0 0 0 0 0 0 0 0 0 0 0 0 0 0 0 0 0 0 0 0 1:-1 2:0.39189189 3:0.41176471 4:-0.75221239 5:-0.30936781 6:-0.37928716 7:-0.4680711 8:-0.45490782 
6561 6561 6561 6561 0 0 0 0 0 0 0 0 0 0 0 0 0 0 0 0 0 0 0 0 0 2:0.14864865 3:0.15966387 4:-0.77876106 5:-0.59305826 6:-0.67921991 7:-0.66951942 8:-0.63428002 
0 6561 6561 6561 0 0 0 0 2738.6746757296701 0 0 0 0 0 0 0 0 0 0 0 0 0 0 0 0 1:-1 2:0.48648649 3:0.42857143 4:-0.74336283 5:-0.23286701 6:-0.37659718 7:-0.35747202 8:-0.35127055 
6561 0 6561 6561 0 0 0 0 0 0 0 0 0 0 0 0 0 0 0 0 0 0 0 0 0 1:-1 2:0.48648649 3:0.54621849 4:-0.7079646 5:-0.13936604 6:-0.10423672 7:-0.45753785 8:-0.38216243 
6561 0 6561 6561 0 0 6561 0 0 6561 0 0 0 0 0 0 0 164.34599900974021 0 0 0 0 0 0 0 1:1 2:0.081081081 3:0.042016807 4:-0.78761062 5:-0.6259961 6:-0.66442502 7:-0.7445688 8:-0.67912307 
6561 0 6561 0 0 0 3857.5396476302708 0 0 6561 0 0 0 0 0 0 0 0 0 0 0 0 0 0 0 1:-1 2:0.054054054 3:0.17647059 4:-0.76106195 5:-0.45068178 6:-0.41492939 7:-0.54970375 8:-0.71300448 
0 6561 0 6561 0 0 0 0 3435.1819550757382 0 0 0 0 6561 0 6561 0 0 0 0 2455.5066209405372 0 0 0 0 1:-1 2:0.55405405 3:0.57983193 4:-0.67256637 5:0.14751195 6:-0.10759919 7:-0.15207373 8:-0.052316891 
6561 0 6561 0 0 0 6561 0 2068.7809302402625 6561 0 0 0 0 0 0 0 0 0 0 0 0 0 0 0 1:-1 2:0.081081081 3:0.075630252 4:-0.77876106 5:-0.58137064 6:-0.62878278 7:-0.69848585 8:-0.64424514 
0 6561 0 6561 0 0 0 0 6561 0 0 0 0 0 0 0 0 0 0 0 0 0 0 0 0 2:0.59459459 3:0.59663866 4:-0.68141593 5:0.05471932 6:-0.14794889 7:-0.10072416 8:-0.13602392 
0 0 6561 6561 0 0 0 0 0 0 0 0 0 0 0 0 0 0 0 0 0 0 0 0 0 2:0.5 3:0.44537815 4:-0.67256637 5:-0.17478307 6:-0.26429052 7:-0.34693878 8:-0.32536124 
0 6561 0 2006.6615054101098 0 0 0 6561 6561 0 0 6561 6561 6561 6561 6561 6561 6561 0 0 0 0 0 0 0 1:-1 2:0.5 3:0.4789916 4:-0.68141593 5:-0.073490349 6:-0.33557498 7:-0.2244898 8:-0.067264574 
4699.9823992740012 0 6561 0 0 0 0 0 0 0 0 0 0 0 0 0 0 0 0 0 0 0 0 0 0 1:-1 2:0.25675676 3:0.34453782 4:-0.75221239 5:-0.31290951 6:-0.43779422 7:-0.32982225 8:-0.46686597 
6561 0 6561 0 0 0 0 0 0 0 0 0 0 0 0 0 0 0 0 0 0 0 0 0 0 2:0.35135135 3:0.32773109 4:-0.71681416 5:-0.2449088 6:-0.2535306 7:-0.43778802 8:-0.48978575 
0 6561 6561 6561 0 0 0 4246.349107587258 6561 0 0 6561 6561 6561 6561 3839.3739720093581 0 6561 6544.1387661157441 0 0 0 3075.7853003056543 0 0 2:0.44594595 3:0.41176471 4:-0.71681416 5:-0.21126262 6:-0.48554136 7:-0.41408822 8:-0.24763328 
0 5075.2166712245507 6561 6561 0 0 0 0 0 0 0 0 0 0 0 0 0 0 0 0 0 0 0 0 0 1:-1 2:0.54054054 3:0.52941176 4:-0.65486726 5:-0.13299097 6:-0.20981843 7:-0.41803818 8:-0.25660189 
0 0 6561 6561 0 0 0 0 0 0 0 0 0 0 0 0 0 0 0 0 0 0 0 0 0 1:-1 2:0.44594595 3:0.42857143 4:-0.67256637 5:-0.075969541 6:-0.073974445 7:-0.23370639 8:-0.42501246 
6561 0 6561 4940.9974560019837 0 0 0 0 0 4682.7775558031226 0 0 0 0 0 0 0 0 0 0 0 0 0 0 0 1:-1 2:0.35135135 3:0.27731092 4:-0.76106195 5:-0.2987427 6:-0.42030935 7:-0.41540487 8:-0.5266567 
6561 6561 6561 6561 0 0 6561 0 5964.3646021652157 6561 0 0 0 0 0 0 0 0 0 0 0 0 0 0 0 2:-0.081081081 3:-0.15966387 4:-0.81415929 5:-0.74605985 6:-0.8399462 7:-0.78538512 8:-0.8036871 
6561 0 6561 0 0 0 0 0 0 5387.0238132651702 0 0 0 0 0 0 0 0 0 0 0 0 0 0 0 1:-1 2:0.35135135 3:0.36134454 4:-0.72566372 5:-0.36957677 6:-0.40753194 7:-0.53785385 8:-0.56452417 
6561 0 6561 6561 0 0 0 0 0 0 0 0 0 0 0 0 0 0 0 0 0 0 0 0 0 2:0.45945946 3:0.44537815 4:-0.71681416 5:-0.18151231 6:-0.32817754 7:-0.34430546 8:-0.37518685 
6561 0 6561 6561 0 0 6561 0 0 6561 0 0 0 0 0 0 0 0 0 0 0 0 0 0 0 2:0.16216216 3:0.075630252 4:-0.79646018 5:-0.58384983 6:-0.64694015 7:-0.68531929 8:-0.67015446 
6561 6561 6561 6561 0 0 6561 0 225.38891076690811 6561 0 0 0 0 0 0 0 0 0 0 0 0 0 0 0 2:0.027027027 3:-0.0084033613 4:-0.75221239 5:-0.63414202 6:-0.70410222 7:-0.66820276 8:-0.73393124 
6561 0 6561 3985.7558456771985 5099.1997107707184 376.4046122365923 6561 0 6561 6561 0 0 0 1112.9316251130026 3155.7565727646174 0 0 0 0 0 17.732765138174933 5.8905108339119661 0 2.9287978725401804 0 1:1 2:-0.22972973 3:-0.2605042 4:-0.80530973 5:-0.83601913 6:-0.87357095 7:-0.86306781 8:-0.83358246 
0 0 6561 3029.7268980791368 0 0 0 0 0 0 0 0 0 0 0 0 0 0 0 0 0 0 0 0 0 2:0.5 3:0.46218487 4:-0.60176991 5:-0.05507349 6:-0.086079354 7:-0.31928901 8:-0.35625311 
6561 0 6561 0 0 0 0 0 0 0 0 0 0 0 0 0 0 0 0 0 0 0 0 0 0 1:-1 2:0.36486486 3:0.34453782 4:-0.73451327 5:-0.28457588 6:-0.33086752 7:-0.4443713 8:-0.43796712 
0 6561 0 6561 0 0 0 673.11043811817387 5890.5750374427816 0 0 0 4931.0256577437794 692.79593888611873 0 0 0 0 749.13283555832584 0 0 0 0 0 15.089096161978148 2:0.60810811 3:0.78151261 4:-0.71681416 5:-0.07419869 6:-0.26899798 7:-0.22580645 8:-0.17987045 
6561 0 6561 0 0 0 0 0 0 5053.2433438259759 0 0 0 0 0 0 0 0 0 0 0 0 0 0 0 1:-1 2:0.40540541 3:0.34453782 4:-0.73451327 5:-0.37382681 6:-0.42098184 7:-0.47202107 8:-0.55854509 
0 6561 0 6561 0 0 0 0 6561 0 0 0 1947.5271485112214 4408.1676794362102 6561 6561 0 0 0 0 0 0 0 0 0 1:-1 2:0.2972973 3:0.32773109 4:-0.69026549 5:-0.3823269 6:-0.56086079 7:-0.46938776 8:-0.39511709 
2844.0040572668604 0 6561 0 0 0 0 0 0 0 0 413.76809583664425 0 0 0 0 0 0 0 0 0 0 0 0 0 2:0.35135135 3:0.39495798 4:-0.72566372 5:-0.21090845 6:-0.31674512 7:-0.37458855 8:-0.32536124 
6561 0 6561 2165.3836271375203 0 0 0 0 0 6561 0 0 0 0 0 0 0 0 0 0 0 0 0 0 0 1:-1 2:0.081081081 3:0.075630252 4:-0.78761062 5:-0.60262086 6:-0.66173504 7:-0.68400263 8:-0.63428002 
0 6561 6561 6561 0 0 0 0 6561 0 0 0 0 6561 0 0 0 0 0 0 0 0 0 0 0 1:-1 2:0.44594595 3:0.46218487 4:-0.71681416 5:-0.21374181 6:-0.37592468 7:-0.40092166 8:-0.32336821 
6561 6561 6561 6561 0 0 0 0 6561 0 0 0 0 1163.5206374438542 6561 2058.6277747258605 0 0 0 0 0 0 0 0 0 1:-1 2:0.22972973 3:0.17647059 4:-0.73451327 5:-0.41243138 6:-0.52790854 7:-0.50888743 8:-0.49975087 
2077.9100823140066 6561 6561 586.80076857051586 0 0 0 0 6561 0 0 4410.6431995937519 5117.2951016716088 2221.6165689742957 6561 0 2675.1462556945826 0 0 0 1558.3651956791211 0 0 0 0 2:0.28378378 3:0.32773109 4:-0.74336283 5:-0.47653621 6:-0.60457297 7:-0.62343647 8:-0.47184853 
6561 0 6561 0 0 0 0 0 0 0 0 0 0 0 0 0 0 0 0 0 0 0 0 0 0 2:0.41891892 3:0.42857143 4:-0.69911504 5:-0.25340889 6:-0.3860121 7:-0.36010533 8:-0.37817638 
0 6561 6561 6561 0 0 0 0 6561 0 0 0 0 4316.4699564755847 6561 0 528.10506656328857 0 0 0 1155.6031492475947 0 0 0 0 1:-1 2:0.067567568 3:0.025210084 4:-0.76106195 5:-0.64653798 6:-0.77740417 7:-0.69848585 8:-0.67414051 
0 0 6561 6561 0 0 0 0 0 0 0 0 0 0 0 0 0 0 0 0 0 0 0 0 0 1:-1 2:0.58108108 3:0.51260504 4:-0.7079646 5:-0.028156543 6:-0.20914593 7:-0.077024358 8:-0.31539611 
0 0 6561 0 0 0 0 0 0 0 0 0 0 0 0 0 0 0 0 0 0 0 0 0 0 1:-1 2:0.41891892 3:0.32773109 4:-0.65486726 5:-0.052240128 6:-0.17148621 7:-0.1441738 8:-0.28450424 
6561 4537.2704282176455 6561 6561 0 0 6561 0 5841.1480892126383 6561 0 5303.3040042808161 0 0 0 0 681.2000873180591 0 0 0 0 0 0 0 0 1:1 2:0.067567568 3:0.075630252 4:-0.81415929 5:-0.68903843 6:-0.77673167 7:-0.77353522 8:-0.714001 
6561 0 6561 0 0 0 0 0 0 0 0 0 0 0 0 0 0 0 0 0 0 0 0 0 0 1:-1 2:0.40540541 3:0.36134454 4:-0.69911504 5:-0.20134585 6:-0.23470074 7:-0.3285056 8:-0.47483807 
6561 0 6561 3237.4356544762973 0 0 0 0 2381.2276147727921 0 0 0 6561 1724.4303442433006 6561 6561 0 0 0 0 0 0 0 0 0 2:0.28378378 3:0.092436975 4:-0.7079646 5:-0.14786612 6:-0.27101547 7:-0.22712311 8:-0.33632287 
6561 6561 6561 0 0 0 0 0 0 0 0 0 0 6561 6561 0 0 0 0 0 0 0 0 0 0 2:0.32432432 3:0.31092437 4:-0.72566372 5:-0.41632725 6:-0.54270343 7:-0.46017117 8:-0.50971599 
6561 0 6561 6561 0 0 0 0 0 0 0 0 0 0 0 0 0 0 0 0 0 0 0 0 0 1:-1 2:0.43243243 3:0.41176471 4:-0.66371681 5:-0.20417921 6:-0.20780094 7:-0.35088874 8:-0.48480319 
6561 0 6561 1977.3410167254888 0 0 0 0 0 0 0 1774.8687937152333 0 0 0 0 0 0 0 0 0 0 0 0 0 2:0.41891892 3:0.41176471 4:-0.72566372 5:-0.14432442 6:-0.12306658 7:-0.55497038 8:-0.36422521 
0 0 6561 6561 0 0 0 0 0 0 0 0 0 0 0 0 0 0 0 0 0 0 0 0 0 1:-1 2:0.52702703 3:0.54621849 4:-0.7079646 5:-0.031698247 6:-0.15131137 7:-0.10204082 8:-0.2894868 
6561 0 6561 6561 0 0 6561 0 0 6561 0 17.068477307292877 0 1705.2106094433261 0 0 0 0 0 0 0 0 0 0 0 1:1 2:-0.10810811 3:-0.15966387 4:-0.81415929 5:-0.74464317 6:-0.79085407 7:-0.8156682 8:-0.75386148 
0 6561 6561 6561 0 0 0 0 6561 0 0 0 0 0 6561 0 0 0 0 0 0 0 0 0 0 2:0.5 3:0.49579832 4:-0.67256637 5:-0.021781477 6:-0.27505044 7:-0.12837393 8:-0.24564026 
0 6561 6561 6561 0 0 0 0 6561 0 0 3806.1668955035834 6561 6561 6561 6561 6561 0 6561 0 0 0 0 0 0 2:0.24324324 3:0.21008403 4:-0.69911504 5:-0.3787852 6:-0.60457297 7:-0.48387097 8:-0.43497758 
0 6561 0 6561 0 0 0 0 6561 0 0 0 0 6561 0 0 0 0 0 0 0 0 0 0 0 1:-1 2:0.51351351 3:0.44537815 4:-0.68141593 5:-0.16592881 6:-0.35776732 7:-0.27057275 8:-0.29546587 
6561 6561 6561 6561 0 0 0 0 6561 0 0 0 6561 0 5343.0368551826678 6561 0 0 0 0 0 0 0 0 0 2:0.027027027 3:-0.0084033613 4:-0.75221239 5:-0.59589162 6:-0.73705447 7:-0.6524029 8:-0.65421026 
0 6561 0 6561 0 0 0 0 0 0 0 0 2464.8454161326731 6561 2203.6285295797893 0 4798.7006584961136 0 0 0 0 0 0 0 0 1:1 2:0.55405405 3:0.56302521 4:-0.73451327 5:-0.12449088 6:-0.26227303 7:-0.22185648 8:-0.34429497 
0 6561 6561 6561 0 0 0 0 6561 0 0 0 0 6561 6561 0 0 0 0 0 0 0 0 0 0 1:-1 2:0.36486486 3:0.39495798 4:-0.7079646 5:-0.29484682 6:-0.47209146 7:-0.3640553 8:-0.34529148 
6561 0 6561 0 0 0 0 0 0 6561 0 0 0 0 0 0 0 0 0 0 0 0 0 0 0 2:0.27027027 3:0.29411765 4:-0.76106195 5:-0.35080574 6:-0.42434432 7:-0.47070441 8:-0.52964624 
0 6561 0 6561 0 0 0 0 6561 0 0 2970.8164443422702 6561 6561 6561 5198.4354857501512 3892.348096990333 0 499.52723497003439 0 0 0 0 0 0 2:0.55405405 3:0.52941176 4:-0.67256637 5:-0.027448203 6:-0.28715535 7:0.0098749177 8:-0.20876931 
6561 0 6561 0 254.62726138241197 0 5092.2348656325094 1297.7944250374796 0 6561 0 0 0 0 0 0 0 0 0 0 629.47064642984287 0 0 0 0 1:-1 2:0.16216216 3:0.1092437 4:-0.79646018 5:-0.65964229 6:-0.71889711 7:-0.72876893 8:-0.69706029 
0 0 6561 6561 0 0 0 0 0 0 0 83.058309150681936 0 0 0 0 0 0 0 0 0 0 0 0 0 2:0.45945946 3:0.41176471 4:-0.72566372 5:-0.21161679 6:-0.35036987 7:-0.4443713 8:-0.29546587 
0 0 6561 6561 0 0 0 0 0 0 0 0 0 0 0 0 0 0 0 0 0 0 0 0 0 2:0.54054054 3:0.54621849 4:-0.73451327 5:-0.14290774 6:-0.30867518 7:-0.46017117 8:-0.23567514 
4272.5164449689864 0 6561 6561 0 0 0 0 0 0 0 0 0 0 0 0 0 0 0 0 0 0 0 0 0 1:-1 2:0.43243243 3:0.42857143 4:-0.69911504 5:-0.16309545 6:-0.21856086 7:-0.37853851 8:-0.3712008 
6561 0 6561 6561 0 0 0 0 6561 0 0 0 6561 88.907064922624187 0 0 0 0 0 0 0 0 0 0 0 2:0.14864865 3:0.14285714 4:-0.75221239 5:-0.4945989 6:-0.57565568 7:-0.53785385 8:-0.52466368 
0 0 0 6561 0 0 0 0 6561 2014.4061396554628 0 0 0 0 0 0 0 0 0 0 0 0 0 0 0 1:-1 2:0.63513514 3:0.56302521 4:-0.65486726 5:0.028156543 6:-0.20511096 7:0.028308097 8:-0.18086697 
1914.6557644239469 6561 0 6561 0 0 0 0 6561 0 0 0 0 0 0 0 0 0 0 0 0 0 0 0 0 1:-1 2:0.7972973 3:0.73109244 4:-0.68141593 5:0.3249513 6:0.22461332 7:0.12310731 8:-0.11410065 
6561 0 6561 6561 0 0 1242.0868270608019 0 0 6561 0 0 0 0 0 0 0 0 0 0 0 0 0 0 0 2:0.067567568 3:0.025210084 4:-0.78761062 5:-0.66318399 6:-0.71822461 7:-0.7235023 8:-0.70403587 
0 0 6561 6561 0 0 0 0 0 0 0 0 0 0 0 0 0 0 0 0 0 0 0 0 0 2:0.47297297 3:0.44537815 4:-0.69026549 5:-0.14042855 6:-0.26832549 7:-0.33508887 8:-0.31539611 
6561 0 6561 0 0 0 0 0 0 0 0 0 0 0 0 0 0 0 0 0 0 0 0 0 0 1:-1 2:0.41891892 3:0.39495798 4:-0.71681416 5:-0.15565787 6:-0.24478816 7:-0.19947334 8:-0.4778276 
0 0 6561 6561 0 0 0 0 0 0 0 0 0 0 0 0 0 0 0 0 0 0 0 0 0 2:0.45945946 3:0.49579832 4:-0.7079646 5:-0.061448557 6:-0.19435104 7:-0.20737327 8:-0.29546587 
6561 0 6561 0 0 0 0 0 0 0 0 0 0 0 0 0 0 0 0 0 0 0 0 0 0 1:1 2:0.32432432 3:0.36134454 4:-0.72566372 5:-0.38409775 6:-0.49630128 7:-0.43515471 8:-0.50473343 
1087.3702306934697 6561 6561 6561 0 0 0 0 0 0 0 0 0 0 0 0 0 0 0 0 0 0 0 0 0 1:-1 2:0.39189189 3:0.34453782 4:-0.72566372 5:-0.37418098 6:-0.4794889 7:-0.50625411 8:-0.45490782 
6561 0 6561 0 0 0 0 0 0 0 0 0 0 0 0 0 0 0 0 0 0 0 0 0 0 1:-1 2:0.40540541 3:0.32773109 4:-0.74336283 5:-0.32211794 6:-0.37861466 7:-0.45753785 8:-0.49775785 
6561 6561 6561 0 0 0 0 0 0 0 0 0 0 0 0 0 0 0 0 0 0 0 0 0 0 1:-1 2:0.040540541 3:0.042016807 4:-0.77876106 5:-0.67062157 6:-0.7464694 7:-0.75246873 8:-0.68809168 
6561 0 6561 0 0 0 0 0 0 0 0 0 0 0 0 0 0 0 0 0 0 0 0 0 0 1:-1 2:0.37837838 3:0.41176471 4:-0.73451327 5:-0.24703382 6:-0.28648285 7:-0.47728769 8:-0.42800199 
0 0 6561 6561 0 0 0 0 0 0 0 0 0 0 0 0 0 0 0 0 0 0 0 0 0 1:-1 2:0.51351351 3:0.57983193 4:-0.67256637 5:-0.0051354702 6:-0.08137189 7:-0.21132324 8:-0.25660189 
6561 0 6561 0 6561 0 6561 0 6561 6561 0 0 0 0 143.48478536952462 0 0 0 11.052050424562347 0 0 0 0 0 0 1:1 2:-0.2027027 3:-0.21008403 4:-0.82300885 5:-0.8243315 6:-0.86348352 7:-0.86833443 8:-0.83358246 
6561 6561 6561 4878.4184375393997 0 0 0 0 0 5661.8709434634839 0 0 0 0 0 0 0 0 0 0 0 0 0 0 0 2:0.21621622 3:0.21008403 4:-0.73451327 5:-0.50168231 6:-0.55884331 7:-0.61421988 8:-0.60637768 
6561 0 6561 6561 0 0 0 0 0 0 0 0 0 0 0 0 0 0 0 0 0 0 0 0 0 1:-1 3:0.0084033613 4:-0.80530973 5:-0.68868426 6:-0.75857431 7:-0.72876893 8:-0.70303936 
130.5872707587433 6561 0 6561 0 0 0 0 258.2647117000725 0 0 1218.0989982201529 0 0 0 0 0 0 0 0 0 0 0 0 12.317918465762629 1:-1 2:0.72972973 3:0.71428571 4:-0.69026549 5:0.38161856 6:0.026899798 7:0.10072416 8:-0.17887394 
6561 0 6561 6290.3050915049389 0 0 0 0 0 0 0 0 0 0 0 0 0 0 0 0 0 0 0 0 0 1:-1 2:0.47297297 3:0.39495798 4:-0.74336283 5:-0.2318045 6:-0.31405514 7:-0.28637261 8:-0.49177877 
0 6561 6561 6561 0 0 0 0 6561 0 0 0 2521.3899487120461 6561 6561 6561 0 967.79299119771395 0 0 0 0 0 0 0 1:-1 2:0.28378378 3:0.32773109 4:-0.73451327 5:-0.28280503 6:-0.4539341 7:-0.47070441 8:-0.42999502 
6561 1752.7796677471069 6561 6561 179.84989696737898 0 0 0 0 2311.2564072657892 0 0 0 0 0 0 186.95193019463997 0 0 0 0 0 0 0 0 1:-1 2:0.52702703 3:0.54621849 4:-0.85840708 5:-0.26332566 6:-0.30867518 7:-0.53917051 8:-0.65421026 
0 6561 3496.1940373143821 6561 0 0 0 0 5567.4119149832377 0 0 187.49882081752494 0 0 721.38692354201385 0 0 0 0 0 519.03771840288539 0 0 0 0 1:-1 2:0.41891892 3:0.46218487 4:-0.62831858 5:0.40641048 6:0.35036987 7:0.10204082 8:-0.024414549 
0 6561 0 6561 0 0 0 0 6561 584.99334215046292 0 0 0 6561 39.279398350956292 6561 4154.9538457849185 0 0 0 0 0 0 0 0 1:-1 2:0.58108108 3:0.59663866 4:-0.65486726 5:0.096865592 6:-0.12642905 7:-0.13364055 8:-0.016442451 
6561 6561 6561 6561 0 0 0 0 0 0 0 0 0 0 0 0 0 0 0 0 0 0 0 0 0 1:-1 2:0.44594595 3:0.41176471 4:-0.72566372 5:-0.17407473 6:-0.25622058 7:-0.37195523 8:-0.34628799 
0 6561 3450.0855748250447 6561 0 0 0 0 0 0 0 503.18299539374743 2551.8811142096788 240.65896768523632 4568.8179845587501 1562.8432232190373 1233.6458619429288 1366.9308225387269 3170.8485856189091 0 0 0 10.725967367335347 0 0 2:0.7027027 3:0.69747899 4:-0.63716814 5:0.68514255 6:0.33221251 7:0.31665569 8:0.2406577 
6561 170.6937727152592 6561 6561 0 0 6561 0 6561 6561 0 0 0 6561 6561 0 0 0 0 0 0 0 0 0 0 1:-1 2:0.18918919 3:0.17647059 4:-0.7699115 5:-0.48999469 6:-0.57094822 7:-0.65635286 8:-0.58445441 
6561 0 6561 6561 0 0 0 0 0 0 0 0 0 0 0 0 0 0 0 0 0 0 0 0 0 1:-1 2:0.5 3:0.46218487 4:-0.7079646 5:-0.15105366 6:-0.22797579 7:-0.28242265 8:-0.41704036 
0 0 6561 6561 0 0 0 0 0 0 0 0 0 0 0 0 0 0 0 0 0 0 0 0 0 2:0.59459459 3:0.52941176 4:-0.69026549 5:-0.023552329 6:-0.093476799 7:-0.21527321 8:-0.3552566 
6561 0 6561 0 0 0 0 0 0 0 0 0 0 0 0 0 0 0 0 0 0 0 0 0 0 2:0.47297297 3:0.42857143 4:-0.69911504 5:-0.21905437 6:-0.28177539 7:-0.34298881 8:-0.43099153 
0 0 6561 6561 0 0 0 0 0 0 0 0 0 0 0 0 0 0 0 0 0 0 0 0 0 2:0.56756757 3:0.51260504 4:-0.69026549 5:-0.087302993 6:-0.16677875 7:-0.22053983 8:-0.35326358 
0 6561 6561 6561 0 0 0 0 6561 0 0 0 0 0 6561 0 0 0 0 0 0 0 0 0 0 1:-1 2:-0.013513514 3:-0.042016807 4:-0.81415929 5:-0.71666372 6:-0.82582381 7:-0.74983542 8:-0.67414051 
6561 4851.6859429604665 6561 0 5697.4093905239406 0 6561 0 0 6561 0 0 0 0 0 0 0 0 26.839795089588169 0 0 0 0 0 0 1:1 2:-0.13513514 3:-0.19327731 4:-0.82300885 5:-0.80910218 6:-0.82111634 7:-0.91573404 8:-0.83358246 
0 3331.678051893211 6561 6561 0 0 0 0 6561 0 0 0 0 0 2659.2819461293939 0 0 0 158.61786465496903 0 0 0 0 0 0 2:0.59459459 3:0.49579832 4:-0.73451327 5:-0.11776164 6:-0.37928716 7:-0.22317314 8:-0.28649726 
0 6561 0 6561 0 0 0 0 0 0 0 0 0 0 0 0 0 0 0 0 0 0 0 0 0 2:0.7027027 3:0.61344538 4:-0.61061947 5:0.32034709 6:0.24815064 7:0.008558262 8:-0.12705531 
0 6561 6561 6561 0 0 0 0 0 0 0 0 0 0 0 0 0 0 0 0 0 0 0 0 0 2:0.58108108 3:0.59663866 4:-0.68141593 5:0.073490349 6:0.043039677 7:-0.20605662 8:-0.20378675 
6561 844.55421480747214 6561 6561 4668.716407088089 0 6561 0 6561 6561 0 0 0 0 0 0 0 0 0 0 0 0 0 0 0 1:1 2:0.2027027 3:0.1092437 4:-0.79646018 5:-0.58987073 6:-0.65770007 7:-0.59052008 8:-0.71798705 
0 6561 0 1976.3334835269718 0 0 0 0 0 0 0 0 0 0 0 0 0 0 0 0 0 0 0 0 0 1:-1 2:0.66216216 3:0.51260504 4:-0.6460177 5:0.32459713 6:0.199731 7:0.055957867 8:-0.046337818 
0 6561 6561 3778.05300305234 0 0 0 0 0 0 0 0 0 817.89145487718645 0 0 732.12686353021377 0 0 0 0 0 0 0 0 1:-1 2:-0.22972973 3:-0.19327731 4:-0.7699115 5:-0.80556047 6:-0.88096839 7:-0.85121791 8:-0.80269058 
0 6561 6561 6561 0 0 0 0 6561 0 0 0 0 6561 6561 6561 0 1.8590706531872943 1186.189909029124 0 0 0 0 0 0 1:-1 2:0.25675676 3:0.21008403 4:-0.69911504 5:-0.3787852 6:-0.54539341 7:-0.45358789 8:-0.49476831 
0.095899299730756671 6561 6561 6561 0 0 0 0 0 0 0 0 0 0 0 0 0 0 0 0 0 0 0 0 0 1:-1 2:0.40540541 3:0.37815126 4:-0.77876106 5:-0.43545245 6:-0.56489576 7:-0.47465438 8:-0.54459392 
0 6561 6561 6561 0 0 0 0 6561 0 0 0 0 0 6561 0 0 0 0 0 0 0 0 0 0 1:-1 2:0.31081081 3:0.29411765 4:-0.71681416 5:-0.38905614 6:-0.55682582 7:-0.45490454 8:-0.48480319 
6561 0 6561 0 0 0 0 0 0 6449.7515215203148 0 0 0 0 0 0 0 0 0 0 0 0 0 0 0 2:0.24324324 3:0.15966387 4:-0.73451327 5:-0.13440765 6:-0.17014122 7:-0.27715602 8:-0.42999502 
0 0 6362.6419211964803 6561 0 0 0 0 0 0 0 0 0 0 0 0 0 0 0 0 0 0 0 0 0 1:-1 2:0.5 3:0.49579832 4:-0.67256637 5:-0.036656632 6:-0.22326833 7:-0.17840685 8:-0.23766816 
6561 0 6561 6561 0 0 0 0 0 0 0 0 0 0 0 0 0 0 0 0 0 0 0 0 0 2:0.51351351 3:0.51260504 4:-0.74336283 5:-0.19780414 6:-0.32212508 7:-0.30217248 8:-0.37518685 
0 0 2539.6482761186039 0 0 0 0 0 0 0 0 0 0 0 6561 0 0 0 0 0 0 0 0 0 0 1:1 2:0.47297297 3:0.32773109 4:-0.76106195 5:-0.34690986 6:-0.5198386 7:-0.40487163 8:-0.4120578 
0 6561 0 6561 0 0 0 6561 6561 0 0 6323.1386623764183 6561 6561 6561 6561 6561 6561 0 1885.6818630861626 942.69892354190313 0 0 0 0 1:-1 2:0.5 3:0.57983193 4:-0.65486726 5:-0.071011156 6:-0.33759247 7:-0.32587228 8:-0.076233184 
6561 0 6561 6561 0 0 0 0 6561 0 0 0 6561 6561 6561 3264.4627288284478 0 0 0 0 0 0 0 0 0 2:0.2027027 3:0.21008403 4:-0.74336283 5:-0.43155658 6:-0.55413584 7:-0.54707044 8:-0.43497758 
6561 6561 6561 6561 0 0 0 0 0 0 0 0 0 0 0 0 0 0 0 0 0 0 0 0 0 2:-0.081081081 3:-0.042016807 4:-0.7699115 5:-0.74110147 6:-0.80497646 7:-0.7682686 8:-0.76382661 
0 6561 6561 6561 0 0 0 0 0 0 0 0 0 0 0 0 0 0 0 0 0 0 0 0 0 2:0.58108108 3:0.54621849 4:-0.69911504 5:-0.05436515 6:-0.17417619 7:-0.17840685 8:-0.29048331 
0 6561 6561 6561 0 0 0 0 0 0 0 0 0 0 0 0 0 0 0 0 0 0 0 0 0 1:-1 2:0.33783784 3:0.32773109 4:-0.74336283 5:-0.32849301 6:-0.46267653 7:-0.41277156 8:-0.43597409 
4995.1370919237334 2055.3047279152056 0 6561 0 0 0 0 556.73933679328775 0 0 0 0 0 0 0 0 0 0 0 0 0 0 0 0 1:-1 2:0.7027027 3:0.69747899 4:-0.7079646 5:0.18505401 6:0.07061197 7:0.077024358 8:-0.22969606 
0 6561 6561 6561 0 0 0 2250.3934195938036 6561 0 0 6561 6561 6561 6561 6561 6561 0 0 0 6561 0 0 0 0 2:0.27027027 3:0.21008403 4:-0.71681416 5:-0.45493182 6:-0.63550773 7:-0.61816985 8:-0.45191829 
0 1753.3265871617002 0 0 0 0 0 0 6561 60.279263593633473 0 1237.9872249524872 6561 6561 6561 5259.0638360036064 6561 6561 0 0 0 0 0 0 0 1:-1 2:0.58108108 3:0.4789916 4:-0.65486726 5:0.15140783 6:-0.20242098 7:-0.054641211 8:-0.036372696 
6561 0 6561 0 0 0 0 0 0 0 0 0 0 0 0 0 0 0 0 0 0 0 0 0 0 1:1 2:0.39189189 3:0.41176471 4:-0.74336283 5:-0.31113866 6:-0.37256221 7:-0.4562212 8:-0.48679621 
0 1438.7098159433936 6561 672.4104696208434 0 0 0 0 6561 0 0 0 0 0 1001.0215978123124 0 0 0 0 0 0 0 0 0 0 2:0.067567568 3:0.0084033613 4:-0.82300885 5:-0.66460067 6:-0.77605918 7:-0.78933509 8:-0.63428002 
0 0 0 6561 0 0 0 0 0 0 0 0 0 0 0 0 0 0 0 0 0 0 0 0 0 1:-1 2:0.55405405 3:0.54621849 4:-0.69026549 5:0.037010802 6:-0.090786819 7:-0.19947334 8:-0.20577977 
6561 6561 6561 6561 0 0 0 0 6561 0 0 0 0 0 1847.7129573762036 0 0 0 0 0 0 0 0 0 0 1:-1 2:0.28378378 3:0.29411765 4:-0.76106195 5:-0.3787852 6:-0.5063887 7:-0.44963792 8:-0.47483807 
6561 0 6561 6561 0 0 0 0 0 0 0 0 0 0 0 0 0 0 0 0 0 0 0 0 0 1:1 2:0.28378378 3:0.27731092 4:-0.75221239 5:-0.46768196 6:-0.5595158 7:-0.59183673 8:-0.53961136 
0 6561 0 6561 0 0 0 245.03244591609814 2215.0033435946389 0 0 0 0 0 0 0 0 0 0 0 0 0 0 0 0 1:-1 2:0.64864865 3:0.61344538 4:-0.72566372 5:-0.020718966 6:-0.11163416 7:-0.43647136 8:-0.19083209 
6561 0 6561 0 0 0 0 0 0 0 0 0 0 0 0 0 0 0 0 0 0 0 0 0 0 1:1 2:0.35135135 3:0.32773109 4:-0.76106195 5:-0.42978573 6:-0.51513114 7:-0.53785385 8:-0.49676134 
5437.1453254851695 0 0 0 6561 0 5851.6064924095872 0 430.37256998522247 6561 0 0 114.86606313960144 0 0 0 0 0 0 0 0 0 0 0 0 2:-0.22972973 3:-0.29411765 4:-0.84070796 5:-0.84806092 6:-0.87222596 7:-0.90388413 8:-0.85650224 
435.55468273809919 6561 6561 6561 0 0 0 0 6561 0 0 0 0 4320.993349043355 6561 756.58323415884206 4092.465709128006 108.34178040623009 1532.0602703641466 0 0 0 0 0 0 1:-1 2:0.040540541 3:-0.042016807 4:-0.76106195 5:-0.65078803 6:-0.77874916 7:-0.69321922 8:-0.63428002 
6561 0 6561 6561 0 0 0 0 0 0 0 0 0 0 0 0 0 0 0 0 0 0 0 0 0 1:1 2:0.28378378 3:0.2605042 4:-0.74336283 5:-0.49707809 6:-0.59448554 7:-0.60105332 8:-0.55455904 
0 6561 0 6561 0 0 0 0 0 0 0 0 0 0 0 0 0 0 0 0 0 0 0 0 0 2:0.59459459 3:0.57983193 4:-0.62831858 5:0.16309545 6:0.098856759 7:-0.10730744 8:-0.1509716 
6561 0 6561 6561 0 0 0 0 6561 6561 0 0 0 0 0 0 0 0 0 0 0 0 0 0 0 2:-0.067567568 3:-0.075630252 4:-0.77876106 5:-0.67345493 6:-0.75117687 7:-0.7116524 8:-0.714001 
6210.3449153234469 0 6561 0 0 0 0 0 0 0 0 0 0 0 0 0 0 0 0 0 0 0 0 0 0 1:1 2:0.33783784 3:0.32773109 4:-0.74336283 5:-0.46945281 6:-0.62138534 7:-0.42330481 8:-0.56153463 
6561 4630.9105498065101 6561 5136.5048286958072 1249.9393864892972 0 6561 0 3418.8775202872876 6561 0 0 25.664220355163753 2459.4543759677827 4038.6775371027079 0 0 0 0 0 0 0 0 0 0 1:1 2:-0.054054054 3:0.092436975 4:-0.81415929 5:-0.77014344 6:-0.82851379 7:-0.79460171 8:-0.8036871 
6561 6561 6561 6561 0 0 0 0 0 0 0 0 0 0 0 0 0 181.17203571251258 0 0 0 0 0 0 0 1:1 2:0.28378378 3:0.24369748 4:-0.74336283 5:-0.37099345 6:-0.41963685 7:-0.55102041 8:-0.53263577 
0 0 0 1278.9669017186111 0 0 0 0 300.96332149880544 0 0 105.11171125420493 0 0 0 84.520652313188378 0 0 60.005797631231147 0 0 0 0 0 0 1:-1 2:0.7027027 3:0.71428571 4:-0.088495575 5:0.56401629 6:0.48823134 7:0.27978934 8:0.017438964 
6561 6561 6561 72.490966257295895 0 0 0 0 6561 0 0 0 0 0 0 0 0 0 0 0 0 0 0 0 0 1:-1 2:0.37837838 3:0.36134454 4:-0.73451327 5:-0.14715778 6:-0.21990585 7:-0.4325214 8:-0.35924265 
6561 6561 6561 6561 0 0 0 0 0 5877.2669351092854 0 0 0 0 0 0 0 0 0 0 0 0 0 0 0 2:0.21621622 3:0.15966387 4:-0.76106195 5:-0.49566141 6:-0.5736382 7:-0.63791968 8:-0.58844046 
6561 6561 6561 1207.4983686964033 0 0 0 0 0 0 0 0 0 0 0 0 0 0 0 0 0 0 0 0 0 2:0.45945946 3:0.41176471 4:-0.72566372 5:-0.29024261 6:-0.399462 7:-0.49308756 8:-0.42600897 
0 0 6561 6561 0 0 0 0 6561 0 0 5322.182897839687 0 0 5981.9979322821828 0 2151.0275286479109 0 0 0 0 0 0 0 0 2:0.5 3:0.46218487 4:-0.69911504 5:-0.14042855 6:-0.37928716 7:-0.46280448 8:-0.38415546 
6561 6561 6561 6561 0 0 6561 0 0 6561 0 297.77497740632776 0 0 2135.9622899275628 0 1276.2917069975172 0 0 0 0 0 0 0 0 1:1 2:-0.081081081 3:-0.14285714 4:-0.80530973 5:-0.79139366 6:-0.83591123 7:-0.85121791 8:-0.80468361 
0 248.96001975110477 0 6561 0 0 0 0 6561 0 0 0 0 0 0 0 0 0 0 0 0 0 0 0 0 1:-1 2:0.67567568 3:0.69747899 4:-0.67256637 5:0.23109616 6:0.18897108 7:-0.023041475 8:-0.13104136 
5756.2128299984834 0 6561 6561 0 0 3550.613304405239 0 0 6561 0 0 0 0 0 0 0 0 0 0 0 0 0 0 0 1:-1 2:-0.28378378 3:-0.29411765 4:-0.84955752 5:-0.87143616 6:-0.89778077 7:-0.88018433 8:-0.87344295 
6561 0 6561 6561 0 0 0 0 0 0 0 0 0 0 0 0 0 0 0 0 0 0 0 0 0 2:0.45945946 3:0.42857143 4:-0.7079646 5:-0.17867894 6:-0.31136516 7:-0.20868993 8:-0.39511709 
6561 0 6561 2157.4417652096536 0 0 0 0 0 0 0 0 0 0 0 0 0 0 0 0 0 0 0 0 0 1:1 2:0.36486486 3:0.29411765 4:-0.74336283 5:-0.44147335 6:-0.52723605 7:-0.56813693 8:-0.52067763 
6561 0 6561 6561 0 0 0 0 0 0 0 0 0 0 0 0 0 0 0 0 0 0 0 0 0 1:-1 2:0.43243243 3:0.41176471 4:-0.73451327 5:-0.18682486 6:-0.22797579 7:-0.39038841 8:-0.41106129 
0 6561 0 6561 0 0 0 0 0 0 0 0 0 0 0 0 0 0 0 0 0 0 0 0 0 1:-1 2:0.68918919 3:0.57983193 4:-0.69026549 5:0.24420046 6:0.17484869 7:-0.049374589 8:-0.066268062 
6561 0 6561 6561 0 0 0 0 0 0 0 0 0 0 0 0 0 0 0 0 0 0 0 0 0 2:0.54054054 3:0.42857143 4:-0.69911504 5:-0.19780414 6:-0.29119032 7:-0.33245556 8:-0.39511709 
6561 0 6561 0 0 0 0 0 0 6123.7312729628065 0 0 0 0 0 0 0 0 0 0 0 0 0 0 0 1:-1 2:0.41891892 3:0.37815126 4:-0.72566372 5:-0.28138835 6:-0.31271015 7:-0.3522054 8:-0.55455904 
0 6561 3925.4537914357161 6561 0 0 0 0 5757.2721348810774 0 0 0 0 6561 0 4927.3003694439603 0 0 0 0 0 0 0 0 0 1:-1 2:0.45945946 3:0.4789916 4:-0.6460177 5:-0.13794935 6:-0.24277068 7:-0.40355497 8:-0.22869955 
6561 5493.9581566002244 6561 6561 0 0 0 0 0 0 0 0 0 0 0 0 0 0 0 0 0 0 0 0 0 1:-1 2:0.17567568 3:0.15966387 4:-0.75221239 5:-0.53993271 6:-0.67114997 7:-0.56287031 8:-0.63428002 
0 1765.2517885971131 6561 6561 0 0 0 0 0 0 0 0 0 0 0 0 0 0 0 0 0 0 0 0 0 2:0.54054054 3:0.49579832 4:-0.71681416 5:-0.11846998 6:-0.26496301 7:-0.14022383 8:-0.40508221 
0 0 6561 6561 0 0 0 0 0 0 0 0 0 0 0 0 0 0 0 0 0 0 0 0 0 1:-1 2:0.54054054 3:0.59663866 4:-0.65486726 5:-0.016823092 6:-0.13180901 7:-0.22580645 8:-0.25859492 
6561 6561 6561 6561 0 0 3734.0527341803236 0 1450.4533993520022 6561 0 0 0 0 0 0 0 0 0 0 0 0 0 0 0 1:1 2:0.2027027 3:0.15966387 4:-0.7699115 5:-0.58880822 6:-0.68796234 7:-0.64186965 8:-0.64424514 
6561 0 6561 6561 0 0 0 0 0 0 0 0 0 0 0 0 0 0 0 0 0 0 0 0 0 2:0.54054054 3:0.49579832 4:-0.72566372 5:-0.13688684 6:-0.17484869 7:-0.37985517 8:-0.36821126 
3487.5820313790591 0 6561 6561 0 0 0 0 0 0 0 0 0 0 0 0 0 0 0 0 0 0 0 0 0 2:0.71621622 3:0.49579832 4:-0.73451327 5:-0.068886134 6:-0.082044385 7:-0.2600395 8:-0.4449427 
909.57388473606966 5809.7670179811385 0 5084.87993475239 0 0 0 0 1389.0526960349334 0 0 0 0 0 0 0 0 0 0 0 0 0 0 0 0 1:-1 2:0.72972973 3:0.61344538 4:-0.66371681 5:0.18540818 6:0.19435104 7:-0.17709019 8:-0.16591928 
6561 0 6561 6561 0 0 0 854.28789940735203 6561 6332.7138813899128 0 0 0 6561 4898.852022918305 0 0 0 0 0 0 0 0 0 0 1:1 2:0.18918919 3:0.21008403 4:-0.76106195 5:-0.49672392 6:-0.61802286 7:-0.60105332 8:-0.51469856 
0 0 2838.0300694610637 3591.577839648457 0 0 0 0 0 0 0 0 0 0 0 0 0 0 0 0 0 0 0 0 0 1:1 2:0.52702703 3:0.46218487 4:-0.76106195 5:-0.2222419 6:-0.34498991 7:-0.34167215 8:-0.4200299 
0 0 6561 6561 0 0 0 0 0 0 0 0 0 0 0 0 0 0 0 0 0 0 0 0 0 1:-1 2:0.48648649 3:0.41176471 4:-0.69026549 5:-0.051885957 6:-0.11903161 7:-0.25608953 8:-0.33134031 
6561 6561 6561 6561 0 0 6561 0 3022.9529570426175 6561 0 0 0 0 0 0 3172.2808850965189 0 0 0 0 0 0 0 0 1:1 2:0.067567568 3:0.058823529 4:-0.75221239 5:-0.64830884 6:-0.7195696 7:-0.67873601 8:-0.714001 
6561 951.6923136627704 6561 0 0 0 6561 0 0 6561 0 0 0 0 0 0 0 0 0 0 0 0 0 0 0 2:0.35135135 3:0.22689076 4:-0.76106195 5:-0.39436869 6:-0.38130464 7:-0.61421988 8:-0.57947185 
0 6561 0 6561 0 0 0 0 0 5980.0884884986081 0 0 0 0 0 0 0 0 0 0 0 0 0 0 0 2:0.68918919 3:0.57983193 4:-0.66371681 5:0.13299097 6:-0.050437122 7:-0.040157999 8:-0.14598904 
6561 0 5512.9235500849145 1727.7957357488808 0 0 0 0 6561 0 0 0 2473.730813701738 6108.9823580008569 6561 48.243984880337443 0 0 0 0 0 0 0 0 0 1:1 2:0.27027027 3:0.24369748 4:-0.75221239 5:-0.42447317 6:-0.59112307 7:-0.39302172 8:-0.51669158 
6561 0 6561 0 0 0 6561 0 0 6561 0 0 0 0 0 0 0 0 0 0 0 0 0 0 0 2:0.17567568 3:0.15966387 4:-0.75221239 5:-0.42447317 6:-0.38399462 7:-0.48387097 8:-0.61434978 
6561 0 6561 0 0 0 0 0 0 0 0 0 0 0 0 0 0 0 0 0 0 0 0 0 0 2:0.45945946 3:0.34453782 4:-0.74336283 5:-0.21126262 6:-0.32279758 7:-0.37458855 8:-0.37518685 
6561 0 6561 0 0 0 0 0 0 6561 0 0 0 0 0 0 0 0 0 0 0 0 0 0 0 1:-1 2:0.35135135 3:0.29411765 4:-0.67256637 5:-0.27536745 6:-0.31876261 7:-0.41013825 8:-0.50772297 
6561 0 6561 6561 0 0 0 0 0 0 0 0 0 0 0 0 0 614.89743496432027 0 0 0 0 0 0 0 1:1 2:0.31081081 3:0.29411765 4:-0.75221239 5:-0.41703559 6:-0.46065905 7:-0.63528637 8:-0.51469856 
5888.5372378603615 6561 6561 6561 0 0 0 0 0 0 0 0 3526.8417836902659 0 0 0 3558.3570104004466 0 0 0 0 0 0 0 0 1:-1 2:0.37837838 3:0.37815126 4:-0.7079646 5:-0.37453515 6:-0.45998655 7:-0.57340355 8:-0.45690085 
6561 6561 6561 6561 0 0 0 0 0 0 0 0 0 0 0 0 0 0 0 0 0 0 0 0 0 1:-1 2:0.41891892 3:0.32773109 4:-0.71681416 5:-0.19249159 6:-0.27639543 7:-0.40882159 8:-0.39113104 
6561 6561 6561 6561 0 0 0 2975.5344608640225 6561 0 0 0 6413.9893095394737 0 6561 6561 0 0 1044.3509718035516 0 0 0 0 0 0 2:0.14864865 3:0.15966387 4:-0.77876106 5:-0.52859926 6:-0.65030262 7:-0.65503621 8:-0.56452417 
6561 6561 6561 4327.4431940555969 0 0 2382.7888629571239 0 0 615.0028492378483 0 0 0 530.41411952563647 0 0 2531.2350848177252 0 0 0 0 0 0 0 0 2:0.5 3:0.4789916 4:-0.66371681 5:-0.17584558 6:-0.2804304 7:-0.4443713 8:-0.67912307 
6561 0 6561 6561 0 0 0 0 0 0 0 0 0 4003.3607146865043 4485.1933171855899 0 0 0 0 0 0 0 0 0 0 1:1 2:0.2972973 3:0.2605042 4:-0.72566372 5:-0.47759872 6:-0.57969065 7:-0.62343647 8:-0.4449427 
0 0 6561 6561 0 0 0 0 0 6561 0 0 0 84.295212326447455 0 0 0 0 0 0 0 0 0 0 0 1:-1 2:-0.28378378 3:-0.2605042 4:-0.84070796 5:-0.85514432 6:-0.90383322 7:-0.88808427 8:-0.86347783 
5189.0791585260104 70.747800524498572 6561 0 0 0 0 0 1249.1174815472116 1350.6090987963578 0 0 0 0 1678.1965661622055 0 0 0 0 0 0 0 0 0 0 1:-1 2:0.37837838 3:0.39495798 4:-0.7079646 5:-0.0033646184 6:0.07464694 7:-0.39828835 8:-0.41504733 
6561 0 6561 6561 0 0 0 0 0 6561 0 0 0 0 0 0 0 0 0 0 0 0 0 0 0 1:-1 2:0.17567568 3:0.12605042 4:-0.77876106 5:-0.536391 6:-0.64895763 7:-0.51810402 8:-0.65421026 
6561 1311.8161965429388 6561 6561 2262.9213221843884 2118.7382128404688 6561 0 6310.5246997602362 6561 0 803.36942734859633 109.22991629471414 134.62848265105862 1842.4565827019346 0 0 0 0 0 0 0 0 0 0 1:1 2:-0.17567568 3:-0.2605042 4:-0.82300885 5:-0.84168585 6:-0.8937458 7:-0.8722844 8:-0.83358246 
0 0 6561 6561 0 0 0 0 0 0 0 0 0 0 0 0 0 0 0 0 0 0 0 0 0 2:0.48648649 3:0.44537815 4:-0.69026549 5:-0.036656632 6:-0.091459314 7:-0.31270573 8:-0.26457399 
6561 0 6561 6201.0936389745711 0 0 0 0 0 0 0 0 0 0 0 0 0 0 0 0 0 0 0 0 0 2:0.44594595 3:0.36134454 4:-0.74336283 5:-0.2091376 6:-0.35843981 7:-0.22580645 8:-0.40807175 
6561 0 6561 6561 0 0 0 0 6561 0 0 0 0 0 0 0 0 0 0 0 0 0 0 0 0 1:1 2:0.28378378 3:0.27731092 4:-0.75221239 5:-0.43509828 6:-0.60457297 7:-0.49967084 8:-0.52864973 
0 6561 6561 6561 0 0 0 0 6561 0 0 5067.4135722262872 0 4618.9800131400416 0 2594.7547817644581 0 4778.1547100237494 0 0 0 0 0 0 0 1:-1 2:0.31081081 3:0.24369748 4:-0.76106195 5:-0.40003542 6:-0.56220578 7:-0.41935484 8:-0.47583458 
6561 0 6561 0 0 0 0 0 0 0 0 0 0 0 0 0 0 0 0 0 0 0 0 0 0 1:-1 2:0.37837838 3:0.36134454 4:-0.7079646 5:-0.2126793 6:-0.21788837 7:-0.38380513 8:-0.45690085 
0 6561 2549.2924385699307 6561 0 0 0 0 0 0 0 2044.2438198274506 0 0 4374.7621320957041 0 0 0 0 0 0 0 0 0 0 1:-1 2:0.68918919 3:0.71428571 4:-0.69026549 5:0.31361785 6:0.13449899 7:0.034891376 8:0.073243647 
0 0 4206.3103849348245 6561 0 0 0 0 0 0 0 0 0 0 0 0 0 0 0 0 0 0 0 0 0 2:0.56756757 3:0.52941176 4:-0.69026549 5:0.16911634 6:0.14391392 7:-0.11520737 8:-0.1998007 
0 6561 6561 6561 0 0 0 0 0 0 0 0 0 0 0 0 0 0 0 0 0 0 0 0 0 2:0.59459459 3:0.54621849 4:-0.68141593 5:-0.017531433 6:-0.20174849 7:-0.14812377 8:-0.21574489 
0 6561 2802.2154854939563 6561 0 0 0 4755.8987337438657 6561 0 0 6561 6561 6561 6561 6561 1970.8657991649641 4817.6056081081497 4102.064604329641 0 5326.4682359810813 0 351.11784118605567 0 0 2:0.18918919 3:0.14285714 4:-0.7079646 5:-0.46555693 6:-0.74512441 7:-0.55365372 8:-0.36422521 
6561 0 6561 0 0 0 3627.2294800648392 963.39396101351758 0 6561 0 0 0 0 0 0 2264.2962904051278 0 101.83933625966593 0 0 0 0 0 0 2:0.081081081 3:0.075630252 4:-0.77876106 5:-0.59164158 6:-0.62811029 7:-0.77748519 8:-0.69407075 
0 6561 0 6561 0 0 0 4666.1053227172124 6561 0 0 0 6561 6561 0 0 6561 172.7714997528918 0 0 0 0 0 0 0 1:-1 2:0.59459459 3:0.57983193 4:-0.72566372 5:-0.039844165 6:-0.28513786 7:-0.19947334 8:-0.10911809 
6561 6561 6561 6561 0 0 0 0 6561 0 0 0 0 0 6561 0 0 0 0 0 0 0 0 0 0 1:-1 2:0.24324324 3:0.22689076 4:-0.74336283 5:-0.44111918 6:-0.55749832 7:-0.5036208 8:-0.50473343 
5456.9127520073498 6561 6561 0 0 0 0 0 95.291600922239994 1054.5572560739374 0 0 0 0 0 0 3062.5618829278919 0 0 0 0 0 0 0 0 1:-1 2:-0.12162162 3:-0.12605042 4:-0.81415929 5:-0.7981229 6:-0.84868863 7:-0.90388413 8:-0.77777778 
6561 0 6561 6561 0 0 5873.6490719302092 0 0 6561 0 0 0 3752.9819954658174 0 0 0 0 0 0 0 0 0 0 0 1:-1 2:0.10810811 3:0.0084033613 4:-0.78761062 5:-0.61395431 6:-0.71217216 7:-0.57603687 8:-0.72396612 
0 6561 0 6561 0 0 0 0 6561 0 0 2014.7872280958186 6561 6561 6561 6561 6398.7208456833778 0 0 0 0 0 0 0 0 1:-1 2:0.35135135 3:0.39495798 4:-0.67256637 5:-0.30370108 6:-0.49764627 7:-0.42857143 8:-0.29546587 
6561 6561 6561 6561 0 0 0 0 0 0 0 0 0 0 0 0 0 0 0 0 0 0 0 0 0 2:0.40540541 3:0.37815126 4:-0.73451327 5:-0.30724278 6:-0.44788164 7:-0.48518762 8:-0.55356253 
6561 0 6561 2585.7938284539664 0 0 0 0 0 6561 0 0 0 0 0 0 0 0 0 0 0 0 0 0 0 1:-1 2:-0.040540541 3:-0.0084033613 4:-0.80530973 5:-0.71383035 6:-0.77605918 7:-0.78801843 8:-0.73393124 
6561 0 6561 0 0 0 0 0 0 0 0 0 0 0 0 0 0 0 0 0 0 0 0 0 0 2:0.33783784 3:0.39495798 4:-0.75221239 5:-0.38445192 6:-0.48352387 7:-0.44568795 8:-0.54160438 
0 1260.6761451330713 401.00540438011467 1287.1767751999419 0 0 0 0 4169.950608643122 0 0 87.947091505800387 0 0 0 0 0 0 0 0 0 0 0 0 0 1:-1 2:0.74324324 3:0.66386555 4:-0.63716814 5:0.53214096 6:0.48554136 7:0.38117182 8:-0.19780767 
6561 1206.05928923638 6561 6561 0 0 6561 693.24258016962892 4733.9699919965051 6561 0 0 0 0 4040.8876352533093 0 2185.6912649445649 83.962740262446971 0 0 0 0 0 0 0 1:1 2:0.054054054 3:-0.092436975 4:-0.75221239 5:-0.46201523 6:-0.51445864 7:-0.59710336 8:-0.58644743 
0 6561 6561 6561 0 0 0 0 6479.8553106669806 0 0 0 0 0 2103.3876000930045 0 0 0 0 0 0 0 0 0 0 1:-1 2:0.28378378 3:0.27731092 4:-0.75221239 5:-0.46130689 6:-0.56153329 7:-0.55760369 8:-0.48679621 
0 6561 6104.6891259129734 6561 0 0 0 0 0 204.99362710636316 0 0 0 0 0 0 0 0 0 0 0 0 0 0 0 2:0.71621622 3:0.6302521 4:-0.63716814 5:0.11811581 6:0.07733692 7:-0.24555629 8:-0.13602392 
0 6561 1614.2445778556923 6561 0 0 0 0 6561 0 0 0 6561 6561 6561 6561 0 1246.1128013936825 0 840.70432790141001 0 0 0 0 0 1:-1 2:0.28378378 3:0.36134454 4:-0.69026549 5:-0.3858686 6:-0.57700067 7:-0.52073733 8:-0.36522172 
6561 0 6561 0 0 0 0 0 0 0 0 0 0 0 0 0 0 0 0 0 0 0 0 0 0 1:1 2:0.33783784 3:0.29411765 4:-0.7699115 5:-0.45847353 6:-0.53463349 7:-0.53127057 8:-0.6003986 
6561 0 6561 6561 0 0 0 0 0 6561 0 0 0 0 0 0 0 0 0 0 0 0 0 0 0 1:1 2:0.22972973 3:0.2605042 4:-0.76106195 5:-0.55834957 6:-0.67182246 7:-0.61816985 8:-0.57747882 
6561 6561 6561 6561 0 0 0 428.06979185953497 0 6561 0 0 0 6561 0 0 0 0 0 0 0 0 0 0 0 1:-1 3:-0.025210084 4:-0.84070796 5:-0.73260138 6:-0.80901143 7:-0.80645161 8:-0.75386148 
0 0 6561 6561 0 0 0 0 0 0 0 0 0 0 0 0 0 0 0 0 0 0 0 0 0 1:-1 2:0.39189189 3:0.46218487 4:-0.7079646 5:-0.14644944 6:-0.24949563 7:-0.38248848 8:-0.38714499 
0 6561 6561 6561 0 0 0 0 2732.9428414912509 0 0 2718.9227982229127 0 1752.7850903905637 6561 0 5798.7052679311028 0 0 0 0 0 0 0 0 2:0.36486486 3:0.49579832 4:-0.7079646 5:-0.34620152 6:-0.50369872 7:-0.51415405 8:-0.4040857 
0 6561 6561 6561 0 0 0 0 6561 0 0 0 0 0 6561 0 0 0 0 0 0 0 0 0 0 2:0.48648649 3:0.4789916 4:-0.7079646 5:-0.1074907 6:-0.3194351 7:-0.16392363 8:-0.22571001 
6561 0 6561 0 0 0 0 0 0 6561 0 0 0 0 0 0 0 0 0 0 0 0 0 0 0 1:-1 2:0.36486486 3:0.34453782 4:-0.76106195 5:-0.43793165 6:-0.45662408 7:-0.56155365 8:-0.59641256 
6561 0 6561 0 0 0 0 0 0 0 0 0 0 0 0 0 0 0 0 0 0 0 0 0 0 2:0.36486486 3:0.34453782 4:-0.78761062 5:-0.24101293 6:-0.35709482 7:-0.28110599 8:-0.47483807 
0 0 6561 3493.7898796857921 0 0 0 0 0 0 0 0 5508.864780549954 0 6561 0 0 0 0 0 0 0 0 0 0 1:1 2:0.44594595 3:0.41176471 4:-0.73451327 5:-0.31680538 6:-0.44384667 7:-0.47465438 8:-0.31539611 
0 6561 6561 6561 0 0 0 0 6561 0 0 0 0 6561 0 0 0 0 0 0 0 0 0 0 0 1:-1 2:0.44594595 3:0.42857143 4:-0.69911504 5:-0.19603329 6:-0.38735709 7:-0.23765635 8:-0.31141006 
0 0 0 0 130.85055124881751 0 0 0 0 6561 0 0 241.86714486027716 0 0 0 0 0 0 0 0 0 0 0 0 2:-0.27027027 3:-0.31092437 4:-0.84070796 5:-0.85479015 6:-0.89710827 7:-0.88676761 8:-0.85052317 
6561 0 6561 0 0 0 0 0 0 0 0 0 0 0 0 0 0 0 0 0 0 0 0 0 0 1:-1 2:0.36486486 3:0.2605042 4:-0.7699115 5:-0.43616079 6:-0.51042367 7:-0.54575379 8:-0.54758346 
6561 5600.3323417160946 6561 0 0 0 0 0 0 0 0 0 0 0 0 0 0 0 0 0 0 0 0 0 0 1:-1 2:0.040540541 3:0.0084033613 4:-0.75221239 5:-0.65362139 6:-0.72293208 7:-0.69848585 8:-0.65620329 
6561 0 6561 0 0 0 0 0 0 0 0 0 0 0 0 0 0 0 0 0 0 0 0 0 0 1:-1 2:0.27027027 3:0.24369748 4:-0.76106195 5:-0.40322295 6:-0.49966375 7:-0.44832126 8:-0.5346288 
6561 0 6561 6561 0 0 0 0 0 0 0 0 0 0 0 0 0 0 0 0 0 0 0 0 0 1:-1 2:0.5 3:0.44537815 4:-0.7079646 5:-0.12803258 6:-0.11835911 7:-0.39170507 8:-0.39810663 
0 6561 0 6561 0 0 0 0 6561 0 0 337.44566792787015 6561 6561 6561 6561 560.59105479087486 6561 0 0 0 0 0 0 0 2:0.51351351 3:0.54621849 4:-0.66371681 5:-0.029927395 6:-0.3201076 7:-0.19815668 8:-0.10612855 
0 3208.7056845576217 6561 6561 0 0 0 0 0 0 0 0 0 0 0 0 0 0 0 0 0 0 0 0 0 2:0.60810811 3:0.66386555 4:-0.72566372 5:0.10784487 6:0.15265636 7:-0.10862409 8:-0.29745889 
6312.0185361492713 0 6561 0 0 0 0 1480.8653311294047 0 6561 0 0 0 0 0 0 0 0 0 0 0 0 0 0 0 1:-1 2:0.013513514 3:-0.058823529 4:-0.77876106 5:-0.75420577 6:-0.84129119 7:-0.7235023 8:-0.77379173 
0 6383.6925523503542 0 5937.9705965102612 0 0 0 864.86230556857822 0 198.81189887030354 0 0 1835.2607389878194 663.65384902013614 980.53705925293298 2981.7484887912742 1314.1761457736552 568.29448422253813 0 0 1333.1105751331424 0 0 0 1507.9256108635884 2:0.77027027 3:0.68067227 4:-0.68141593 5:0.19532495 6:-0.1197041 7:-0.48387097 8:-0.019431988 
6561 6561 6561 6561 0 0 0 0 6561 6561 0 0 0 6561 6561 0 3268.39942481962 0 0 0 0 0 0 0 0 1:1 2:0.18918919 3:0.075630252 4:-0.75221239 5:-0.54064105 6:-0.66577001 7:-0.63001975 8:-0.56153463 
0 0 3719.4491255715343 6561 0 0 0 0 0 0 0 0 0 0 0 0 0 0 0 0 0 0 0 0 0 1:-1 2:0.63513514 3:0.6302521 4:-0.72566372 5:0.085177971 6:-0.098856759 7:-0.0032916392 8:-0.23766816 
0 0 0 6561 0 0 0 0 6561 0 0 0 4954.7076734331567 6561 5141.1039067778538 1019.0966657403708 1033.1403469338322 6561 0 0 0 0 0 0 0 1:-1 2:0.52702703 3:0.57983193 4:-0.68141593 5:-0.071011156 6:-0.3470074 7:-0.21263989 8:-0.19083209 
6561 0 6561 0 0 0 0 0 866.92824480064166 0 0 0 146.19417887195715 644.58605984285271 6561 3416.7657006316413 0 0 0 0 0 0 0 0 0 2:0.31081081 3:0.32773109 4:-0.71681416 5:-0.27642996 6:-0.42434432 7:-0.2955892 8:-0.40508221 
0 5098.1388373495429 6561 6561 0 0 0 0 0 0 0 0 0 0 0 0 0 0 0 0 0 0 0 0 0 1:-1 2:0.45945946 3:0.34453782 4:-0.73451327 5:-0.34018063 6:-0.48755884 7:-0.35088874 8:-0.48181365 
0 0 6561 6561 0 0 0 0 0 0 0 0 0 0 0 0 0 0 0 0 0 0 0 0 0 1:-1 2:0.47297297 3:0.41176471 4:-0.65486726 5:-0.039135824 6:-0.20309348 7:-0.11520737 8:-0.25660189 
0 6561 6561 6561 0 0 0 0 6561 0 0 0 6561 6561 6561 0 0 959.92801798820778 0 0 0 0 0 0 0 2:0.52702703 3:0.54621849 4:-0.7079646 5:-0.072427838 6:-0.33624748 7:-0.3285056 8:-0.18584953 
6561 1930.140768801303 6561 6561 0 0 0 0 0 0 0 0 0 0 0 0 0 0 0 0 0 0 0 0 0 2:0.054054054 3:0.025210084 4:-0.78761062 5:-0.66389233 6:-0.74310693 7:-0.70506912 8:-0.68410563 
6561 0 6561 6561 0 0 0 0 6561 4654.945738765754 0 286.47546913988987 0 6561 3838.6643360707999 0 6561 0 0 0 0 0 0 0 0 1:1 2:0.18918919 3:0.22689076 4:-0.73451327 5:-0.52505755 6:-0.65770007 7:-0.64976959 8:-0.5346288 
0 3088.0446457859321 2719.2275678382252 0 0 0 0 0 6561 0 0 183.43308527943728 0 2399.4272312172779 6561 84.612250357696652 0 0 0 0 0 0 0 0 0 1:-1 2:0.2972973 3:0.17647059 4:-0.66371681 5:-0.0054896405 6:-0.17888366 7:-0.10072416 8:-0.22770304 
0 0 6561 6561 0 0 0 0 0 0 0 0 0 0 0 0 0 0 0 0 0 0 0 0 0 1:-1 2:0.64864865 3:0.56302521 4:-0.7079646 5:0.07455286 6:-0.061197041 7:-0.030941409 8:-0.20577977 
0 6561 0 6561 0 0 0 0 6561 0 0 0 0 0 0 0 0 0 0 0 0 0 0 0 0 2:0.56756757 3:0.57983193 4:-0.66371681 5:-0.038427484 6:-0.24277068 7:-0.15470704 8:-0.20876931 
5458.1295485070295 6561 6561 6561 0 0 741.71636909701544 0 6561 0 0 0 6561 6561 6561 6561 3821.3026092829405 0 0 0 0 0 0 0 0 1:-1 2:0.33783784 3:0.32773109 4:-0.72566372 5:-0.15601204 6:-0.31136516 7:-0.44832126 8:-0.31938216 
0 0 6561 6561 0 0 0 0 0 0 0 0 0 0 6561 0 0 0 0 0 0 0 0 0 0 2:0.48648649 3:0.41176471 4:-0.69026549 5:-0.19142908 6:-0.36180229 7:-0.34957209 8:-0.30742402 
0 0 0 0 0 0 0 0 6561 0 0 1877.1141179047361 0 2235.4077750226988 6377.9544654903648 3075.2166552898611 2778.178756670055 529.3725119974888 0 0 0 0 0 0 0 1:-1 2:0.55405405 3:0.44537815 4:-0.71681416 5:0.23074199 6:-0.23268325 7:-0.26793943 8:-0.39013453 
0 0 6561 6561 0 0 0 0 0 0 0 0 0 0 0 0 0 0 0 0 0 0 0 0 0 1:1 2:0.37837838 3:0.41176471 4:-0.71681416 5:-0.25730476 6:-0.35574983 7:-0.38512179 8:-0.43497758 
0 6561 6561 6561 0 0 0 0 3874.0980127585494 0 0 0 0 6561 0 0 0 0 0 0 0 0 0 0 0 1:-1 2:0.47297297 3:0.52941176 4:-0.69026549 5:-0.093678059 6:-0.23268325 7:-0.37327189 8:-0.22571001 
6561 0 6561 0 0 0 0 0 0 6561 0 0 0 0 0 0 0 0 0 0 0 0 0 0 0 1:-1 2:0.067567568 3:0.042016807 4:-0.76106195 5:-0.63166283 6:-0.67921991 7:-0.59973667 8:-0.714001 
0 6561 6561 6561 0 0 0 0 0 0 0 0 0 0 0 0 0 0 0 0 0 0 0 0 0 2:0.51351351 3:0.49579832 4:-0.73451327 5:-0.026739862 6:-0.12777404 7:-0.050691244 8:-0.38515197 
0 6561 6561 6561 0 0 0 0 0 0 0 0 0 0 0 0 0 0 0 0 0 0 0 0 0 1:-1 2:0.52702703 3:0.51260504 4:-0.72566372 5:-0.007968833 6:-0.053127102 7:-0.30217248 8:-0.33532636 
0 4290.7095181144041 6561 4283.3157612975956 0 0 0 0 6561 0 0 2478.8962799662149 6561 6561 6561 0 6561 6561 0 0 0 0 3129.8725072416573 0 0 2:0.27027027 3:0.21008403 4:-0.6460177 5:-0.039489995 6:-0.23873571 7:-0.16392363 8:-0.1998007 
0 6561 6561 6561 0 0 0 0 0 0 0 0 0 0 0 0 0 0 0 0 0 0 0 0 0 2:0.54054054 3:0.52941176 4:-0.66371681 5:-0.035948291 6:-0.23066577 7:-0.048057933 8:-0.28550075 
0 0 1866.5231994457133 0 0 0 0 0 856.049607911983 3758.16800872263 0 0 0 0 0 0 0 0 0 0 0 0 0 0 0 2:-0.17567568 3:-0.092436975 4:-0.80530973 5:-0.78147689 6:-0.8399462 7:-0.80645161 8:-0.79372197 
6561 0 6561 0 0 0 0 0 0 0 0 0 0 0 0 0 0 0 0 0 0 0 0 0 0 1:1 2:0.35135135 3:0.27731092 4:-0.7699115 5:-0.43120241 6:-0.57700067 7:-0.43383805 8:-0.51469856 
0 0 6561 2927.4217229692672 0 0 0 0 6174.9964989264299 0 0 0 0 0 0 0 0 0 0 0 0 0 0 0 0 1:1 2:0.37837838 3:0.36134454 4:-0.74336283 5:-0.40180627 6:-0.54539341 7:-0.56155365 8:-0.41504733 
6561 6561 6561 0 0 0 0 0 0 0 0 0 0 0 0 0 0 0 0 0 0 0 0 0 0 2:0.41891892 3:0.34453782 4:-0.74336283 5:-0.37134762 6:-0.43779422 7:-0.54970375 8:-0.46686597 
0 4519.1433997008817 6561 6561 0 0 0 0 37.020414248489587 0 0 0 0 0 1199.7436713559725 0 0 0 0 0 0 0 0 0 0 2:0.60810811 3:0.51260504 4:-0.69026549 5:-0.28280503 6:-0.4129119 7:-0.28768927 8:-0.25660189 
6561 0 6561 6561 0 0 0 0 0 0 0 0 0 0 0 0 0 0 0 0 0 0 0 0 0 1:1 2:0.35135135 3:0.32773109 4:-0.76106195 5:-0.38409775 6:-0.39609953 7:-0.57472021 8:-0.55455904 
6561 0 6561 6561 0 0 0 0 0 0 0 0 0 0 0 0 0 0 0 0 0 0 0 0 0 1:-1 2:0.44594595 3:0.41176471 4:-0.72566372 5:-0.30511776 6:-0.38735709 7:-0.40092166 8:-0.47284504 
0 6561 6561 6561 0 0 0 0 6561 0 0 6561 6561 6561 6561 6561 6561 5211.2630869067207 196.15565564339252 0 2006.8885206944733 0 0 0 0 2:0.36486486 3:0.36134454 4:-0.67256637 5:-0.28103418 6:-0.52858104 7:-0.47465438 8:-0.36522172 
6561 0 6561 2032.9977651637264 0 0 0 0 0 0 0 0 0 0 0 0 405.69840555233117 0 0 0 0 0 0 0 0 1:-1 2:0.44594595 3:0.32773109 4:-0.73451327 5:-0.38445192 6:-0.4539341 7:-0.51810402 8:-0.50473343 
6561 0 6561 0 0 0 0 0 0 0 0 0 0 0 0 0 0 0 0 0 0 0 0 0 0 2:0.44594595 3:0.37815126 4:-0.71681416 5:-0.24172127 6:-0.35104237 7:-0.33903884 8:-0.4449427 
6561 6561 6561 6561 0 0 0 0 5940.3828092250051 0 0 0 0 0 4125.7049127029195 0 0 0 0 0 0 0 0 0 0 1:-1 2:0.10810811 3:0.058823529 4:-0.75221239 5:-0.59589162 6:-0.72696705 7:-0.62870309 8:-0.65421026 
6561 6561 6561 6561 0 0 0 0 0 0 0 0 0 0 0 0 0 0 0 0 0 0 0 0 0 2:0.12162162 3:0.092436975 4:-0.77876106 5:-0.61253763 6:-0.67182246 7:-0.71823568 8:-0.65620329 
0 0 6561 6561 0 0 0 0 0 0 0 0 0 0 0 0 0 0 0 0 0 0 0 0 0 2:0.45945946 3:0.56302521 4:-0.73451327 5:-0.049760935 6:-0.15534633 7:-0.31533904 8:-0.31539611 
6561 6561 6561 6561 0 0 0 0 0 0 0 0 0 0 0 0 1418.5636916169374 0 0 0 0 0 0 0 0 2:0.12162162 3:0.058823529 4:-0.75221239 5:-0.58703736 6:-0.67451244 7:-0.69848585 8:-0.61434978 
0 6561 0 6561 0 0 0 0 6561 0 0 1444.5583088599199 6561 6561 6561 6561 6561 0 0 0 0 0 0 0 0 1:-1 2:0.45945946 3:0.39495798 4:-0.7079646 5:-0.20240836 6:-0.40080699 7:-0.42330481 8:-0.32536124 
6561 0 6561 0 0 0 0 0 6561 6561 0 0 0 0 0 0 0 0 0 0 0 0 0 0 0 2:-0.16216216 3:-0.12605042 4:-0.80530973 5:-0.79883124 6:-0.83658373 7:-0.83410138 8:-0.836572 
6561 0 6561 0 0 0 0 0 0 0 0 0 0 0 0 0 0 0 0 0 0 0 0 0 0 2:0.39189189 3:0.34453782 4:-0.73451327 5:-0.31007615 6:-0.37592468 7:-0.46017117 8:-0.45191829 
0 0 6561 6561 0 0 0 0 0 0 0 0 0 0 0 0 0 0 0 0 0 0 0 0 0 2:0.52702703 3:0.51260504 4:-0.7079646 5:-0.13476182 6:-0.29993275 7:-0.29163924 8:-0.28550075 
6561 0 6561 0 0 0 0 0 0 631.84931385265384 0 0 0 0 0 0 0 0 0 0 0 0 0 0 0 1:-1 2:0.040540541 3:0.092436975 4:-0.76106195 5:-0.65999646 6:-0.72293208 7:-0.67873601 8:-0.714001 
0 0 6561 4935.1812213144322 0 0 0 0 0 0 0 0 0 0 0 0 0 0 0 0 0 0 0 0 0 2:0.48648649 3:0.46218487 4:-0.72566372 5:-0.059323535 6:-0.10356422 7:-0.31928901 8:-0.34529148 
6561 3931.3579171634619 6561 6561 0 0 0 0 0 0 0 0 0 0 0 0 0 1454.4155904544809 0 0 0 0 0 0 0 1:1 2:0.27027027 3:0.2605042 4:-0.73451327 5:-0.48539047 6:-0.59515804 7:-0.65503621 8:-0.49576482 
0 6561 0 6561 0 0 0 0 1036.6090235213094 0 0 0 736.83268135674518 244.96129376682205 2313.5435217502431 0 4208.4021595856284 0 1327.2361340608584 0 0 0 0 0 0 2:0.74324324 3:0.66386555 4:-0.6460177 5:0.41278555 6:0.2138534 7:0.23370639 8:0.036372696 
0 6561 6561 6561 0 0 0 0 0 0 0 0 0 0 0 0 0 0 0 0 0 0 0 0 0 1:-1 2:0.43243243 3:0.39495798 4:-0.68141593 5:-0.21126262 6:-0.35709482 7:-0.32587228 8:-0.3632287 
6561 5364.0043481815537 6561 6561 0 0 0 0 6561 0 0 0 0 6561 6561 6561 0 0 1380.0860442375279 0 0 0 0 0 0 2:0.33783784 3:0.37815126 4:-0.71681416 5:-0.36851426 6:-0.57834566 7:-0.32323897 8:-0.47882412 
6561 6561 6561 0 0 0 0 0 0 0 0 0 0 0 0 0 0 0 0 0 0 0 0 0 0 2:0.33783784 3:0.27731092 4:-0.73451327 5:-0.41384806 6:-0.4801614 7:-0.59052008 8:-0.51469856 
6561 6561 6561 6561 0 0 0 1085.7483117729321 6561 0 0 0 1120.963590305616 0 2361.3546448587017 5074.2515512937471 6561 391.65121569708202 1902.3635802393474 0 1753.8680565263705 0 0 0 0 2:0.25675676 3:0.1092437 4:-0.75221239 5:-0.45918187 6:-0.56220578 7:-0.69585253 8:-0.53163926 
6561 1250.5754648809339 6561 3495.5125016323141 0 0 0 0 0 2499.8247504169381 0 0 0 0 0 0 0 0 0 0 0 0 0 0 0 2:-0.13513514 3:-0.19327731 4:-0.83185841 5:-0.84239419 6:-0.89643578 7:-0.85911784 8:-0.84354758 
6561 6561 6561 6561 0 0 0 0 0 6561 0 0 0 6561 6002.5967987895247 1847.5405726354054 0 0 0 0 0 0 0 0 0 2:0.24324324 3:0.17647059 4:-0.74336283 5:-0.51655746 6:-0.63483524 7:-0.55102041 8:-0.59441953 
0 6561 0 6561 0 0 0 0 49.676801947821694 0 0 573.24184912873716 0 0 0 0 0 0 0 0 0 0 0 0 0 1:-1 2:0.74324324 3:0.73109244 4:-0.6460177 5:0.29307597 6:0.23470074 7:-0.037524687 8:-0.036372696 
6561 0 6561 0 0 0 0 0 0 0 0 0 0 0 0 0 0 0 0 0 0 0 0 0 0 2:0.45945946 3:0.36134454 4:-0.73451327 5:-0.27430494 6:-0.33759247 7:-0.47202107 8:-0.45590433 
6561 0 6561 6561 0 0 0 0 0 0 0 0 0 0 0 0 0 0 0 0 0 0 0 0 0 2:0.51351351 3:0.41176471 4:-0.73451327 5:-0.16238711 6:-0.28446537 7:-0.19289006 8:-0.42301943 
0 6561 6561 0 0 0 0 0 0 0 0 0 1239.9317439961878 0 6561 0 68.946222167186178 1328.1469782847955 0 0 0 0 0 0 0 2:0.36486486 3:0.2605042 4:-0.69911504 5:0.046927572 6:-0.12239408 7:-0.14812377 8:-0.17488789 
0 6561 6561 6561 0 0 0 0 0 0 0 0 588.86752761199557 0 0 0 963.1871455606954 0 0 1213.8370103046616 0 0 0 0 0 1:-1 2:0.51351351 3:0.46218487 4:-0.71681416 5:-0.22153356 6:-0.28312038 7:-0.51020408 8:-0.3143996 
0 6561 6561 6561 0 0 0 0 6561 0 0 0 0 6561 6561 0 0 0 0 865.18889720658296 0 0 0 0 0 1:-1 2:0.41891892 3:0.41176471 4:-0.73451327 5:-0.30015938 6:-0.48217888 7:-0.42330481 8:-0.38415546 
0 6561 0 6561 0 0 0 6561 6561 1924.0433997737284 0 6561 6561 6561 6561 6561 6561 6561 0 0 1690.1971321712538 0 0 0 0 2:0.55405405 3:0.64705882 4:-0.69026549 5:0.078448734 6:-0.20780094 7:-0.14285714 8:-0.016442451 
0 0 6561 6561 0 0 0 0 0 0 0 0 0 0 0 0 0 0 0 0 0 0 0 0 0 1:-1 2:0.5 3:0.49579832 4:-0.69026549 5:-0.10571985 6:-0.24344317 7:-0.19420671 8:-0.32037867 
6561 6561 6561 5822.4387229588037 0 0 0 0 0 0 0 0 0 0 0 0 0 0 0 0 1547.7274980142074 0 0 0 0 1:-1 2:0.35135135 3:0.31092437 4:-0.75221239 5:-0.47936958 6:-0.56422327 7:-0.63133641 8:-0.53064275 
6561 0 6561 0 0 0 0 0 0 5654.2158072366301 0 0 0 0 0 0 0 0 0 0 0 0 0 0 0 1:-1 2:0.36486486 3:0.29411765 4:-0.73451327 5:-0.26013813 6:-0.30464022 7:-0.42593812 8:-0.44593921 
0 5868.829624118127 5225.9392340016966 6561 0 0 0 0 2354.3979901641765 0 0 0 0 0 6561 0 0 0 0 0 0 0 0 0 0 1:-1 2:0.60810811 3:0.52941176 4:-0.69026549 5:0.079865415 6:-0.12575656 7:0.17709019 8:-0.31539611 
6561 0 6561 0 0 0 0 0 0 0 0 0 0 0 0 0 0 0 0 0 0 0 0 0 0 2:0.31081081 3:0.31092437 4:-0.72566372 5:-0.13440765 6:-0.2528581 7:-0.15207373 8:-0.46586946 
0 6561 0 6561 0 0 0 0 0 0 0 0 0 0 0 0 0 0 0 0 0 0 0 0 0 2:0.55405405 3:0.52941176 4:-0.69911504 5:0.10855321 6:-0.026899798 7:-0.082290981 8:-0.22371699 
6561 0 6561 0 0 0 0 0 0 6561 0 0 0 0 0 0 0 0 0 0 0 0 0 0 0 2:0.17567568 3:0.15966387 4:-0.78761062 5:-0.50522401 6:-0.53463349 7:-0.71033575 8:-0.61434978 
6561 6561 6561 4445.6214450343386 0 0 0 0 0 0 0 0 0 0 0 0 0 0 0 0 0 0 0 0 0 1:-1 2:0.081081081 3:0.075630252 4:-0.7699115 5:-0.63485036 6:-0.72225958 7:-0.69453588 8:-0.66417539 
281.20112133164662 5600.9616048300177 6561 6561 0 0 0 0 0 0 0 0 0 0 0 0 0 0 0 0 0 0 0 0 0 1:1 2:0.5 3:0.41176471 4:-0.74336283 5:-0.25022136 6:-0.3066577 7:-0.42330481 8:-0.4449427 
0 0 6561 6561 0 0 0 0 0 0 0 0 0 0 0 0 0 0 0 0 0 0 0 0 0 2:0.55405405 3:0.61344538 4:-0.69026549 5:-0.088011333 6:-0.18157364 7:-0.27320606 8:-0.31738914 
0 0 6561 6561 0 0 0 0 0 0 0 0 0 0 0 0 0 0 0 0 0 0 0 0 0 1:-1 2:0.52702703 3:0.54621849 4:-0.68141593 5:-0.11811581 6:-0.26496301 7:-0.23107307 8:-0.26856004 
1356.3094079379132 6561 0 6561 0 0 0 1050.5806988442903 6226.4147363807388 0 0 2594.8886565850253 3556.0024232154929 3235.9880057464002 4506.3713795196418 1213.1254694603685 565.92686353479246 1531.9060498717272 0 0 1735.3155710454153 0 355.42961029003152 0 0 1:-1 2:0.83783784 3:0.76470588 4:-0.63716814 5:0.41986896 6:0.11432414 7:0.055957867 8:0.18285999 
6561 0 6561 6561 3045.9023040735678 0 6561 0 0 6561 0 0 0 0 0 0 0 0 0 0 0 0 0 0 0 1:-1 2:-0.31081081 3:-0.34453782 4:-0.84070796 5:-0.86187356 6:-0.88702085 7:-0.89335089 8:-0.88241156 
0 0 6561 6561 0 0 0 0 0 0 0 0 0 0 0 0 0 0 0 0 0 0 0 0 0 2:0.47297297 3:0.49579832 4:-0.69911504 5:-0.18824154 6:-0.26496301 7:-0.42198815 8:-0.34230194 
6561 6561 6561 3937.1926530685955 0 0 0 0 1162.1940778133053 6561 0 0 0 0 0 8.743610080005018 0 3270.0959231218062 0 0 0 0 0 0 0 1:1 2:0.2027027 3:0.24369748 4:-0.69911504 5:-0.51939083 6:-0.62474781 7:-0.54312047 8:-0.61434978 
0 784.97258112176053 6561 0 0 0 0 0 0 0 0 0 0 0 6542.0433311850957 0 0 0 0 0 0 0 0 0 0 1:-1 2:0.22972973 3:0.27731092 4:-0.72566372 5:-0.50628652 6:-0.6139879 7:-0.58130349 8:-0.59441953 
0 0 6561 6561 0 0 0 0 0 0 0 0 0 0 0 0 0 0 0 0 0 0 0 0 0 2:0.5 3:0.49579832 4:-0.69026549 5:-0.21480432 6:-0.3732347 7:-0.2955892 8:-0.3472845 
6561 6385.2899144704252 6561 6561 0 0 0 4232.399117738958 0 0 0 0 0 0 0 0 0 0 0 0 0 0 0 0 0 1:1 2:0.31081081 3:0.24369748 4:-0.75221239 5:-0.35151408 6:-0.46267653 7:-0.48123766 8:-0.48480319 
6561 6561 6561 6561 0 0 0 0 6561 0 0 0 3536.9177323720878 6561 6561 0 0 0 0 0 311.29972682261081 0 0 0 0 1:-1 2:0.22972973 3:0.24369748 4:-0.7699115 5:-0.47334868 6:-0.59852051 7:-0.64450296 8:-0.51469856 
6561 6561 6561 6561 0 0 0 18.529296020848946 6561 0 0 0 3120.7850744748303 6561 6561 2416.0219318788136 821.80844007086603 0 0 0 0 0 0 0 0 2:0.10810811 3:0.075630252 4:-0.76106195 5:-0.60757925 6:-0.74243443 7:-0.65503621 8:-0.66716492 
6561 0 6561 0 0 0 0 0 0 6561 0 0 0 0 0 0 0 0 0 0 0 0 0 0 0 2:0.25675676 3:0.22689076 4:-0.74336283 5:-0.3883478 6:-0.42098184 7:-0.5720869 8:-0.56950673 
6561 0 6561 0 0 0 0 0 0 0 0 0 0 0 0 0 0 0 0 0 0 0 0 0 0 1:-1 2:0.33783784 3:0.27731092 4:-0.74336283 5:-0.36001417 6:-0.47343645 7:-0.38117182 8:-0.45490782 
0 6561 6561 6561 0 0 0 0 0 0 0 0 0 0 0 0 0 0 0 0 0 0 0 0 0 2:0.47297297 3:0.49579832 4:-0.73451327 5:-0.085532141 6:-0.199731 7:-0.17577354 8:-0.29745889 
0 3787.2684606666485 6561 6561 0 0 0 0 0 0 0 0 0 0 0 0 0 0 0 0 0 0 0 0 0 2:0.56756757 3:0.57983193 4:-0.69026549 5:-0.046573402 6:-0.2138534 7:-0.31533904 8:-0.21773792 
6561 0 6561 0 0 0 6561 0 0 6561 0 0 0 0 0 0 0 0 0 0 0 0 0 0 0 1:-1 2:-0.2027027 3:-0.21008403 4:-0.84070796 5:-0.83070657 6:-0.8533961 7:-0.88281764 8:-0.86547085 
0 6561 3288.7547246672875 6561 0 0 0 0 6561 0 0 0 2296.8178160779385 6561 6561 6561 0 0 0 0 0 0 0 0 0 2:0.52702703 3:0.49579832 4:-0.69026549 5:-0.013989729 6:-0.33759247 7:-0.23502304 8:-0.20577977 
6561 6561 6561 6561 0 0 0 0 0 0 0 0 0 0 6561 0 0 0 0 0 0 0 0 0 0 1:-1 2:0.24324324 3:0.2605042 4:-0.72566372 5:-0.44572339 6:-0.5595158 7:-0.55628703 8:-0.51469856 
0 0 5107.6230750628256 6561 0 0 0 0 0 0 0 0 0 0 0 0 0 0 0 0 0 0 0 0 0 1:-1 2:0.64864865 3:0.52941176 4:-0.7079646 5:0.092969718 6:-0.07868191 7:-0.0072416063 8:-0.19481814 
6561 0 6561 0 0 0 0 0 0 6561 0 0 0 0 0 0 0 0 0 0 0 0 0 0 0 2:-0.094594595 3:-0.092436975 4:-0.81415929 5:-0.74393483 6:-0.78749159 7:-0.79855168 8:-0.76382661 
6561 6561 6561 6561 0 0 0 0 6561 0 0 0 0 6561 6561 4627.6685776032637 0 0 0 0 0 0 0 0 0 2:0.24324324 3:0.27731092 4:-0.71681416 5:-0.42730653 6:-0.57700067 7:-0.52863726 8:-0.52466368 
6561 0 6561 5013.8412845067987 0 0 0 0 6561 0 0 0 0 0 6561 0 0 0 0 0 0 0 0 0 0 2:0.094594595 3:0.17647059 4:-0.7699115 5:-0.54984948 6:-0.62878278 7:-0.62080316 8:-0.58445441 
6561 0 6561 0 0 0 0 0 0 0 0 0 0 0 0 0 0 0 0 0 0 0 0 0 0 1:-1 2:0.39189189 3:0.37815126 4:-0.7079646 5:-0.21161679 6:-0.3066577 7:-0.28242265 8:-0.45490782 
0 6561 6561 6561 0 0 0 0 0 0 0 0 0 0 0 0 0 0 0 0 0 0 0 0 0 1:-1 2:0.44594595 3:0.41176471 4:-0.69911504 5:-0.27430494 6:-0.41627438 7:-0.38643845 8:-0.39810663 
0 0 6561 6561 0 0 0 0 0 0 0 0 0 0 0 0 0 0 0 0 0 0 0 0 0 1:-1 2:0.5 3:0.52941176 4:-0.69026549 5:-0.051177616 6:-0.11701412 7:-0.31138907 8:-0.25560538 
6561 6561 6561 0 0 0 0 0 0 0 0 0 0 0 0 0 0 0 0 0 0 0 0 0 0 2:0.36486486 3:0.27731092 4:-0.72566372 5:-0.37913937 6:-0.42972428 7:-0.55760369 8:-0.51968112 
6561 1657.8292227000325 6561 0 0 0 0 0 0 0 0 0 0 0 0 0 0 0 0 0 0 0 0 0 0 1:-1 2:0.36486486 3:0.36134454 4:-0.73451327 5:-0.25836727 6:-0.30127774 7:-0.4917709 8:-0.39511709 
-0 0 6561 0 0 0 0 0 0 0 0 0 0 0 0 0 0 0 0 0 0 0 0 0 0 2:0.33783784 3:0.24369748 4:-0.7699115 5:-0.44749424 6:-0.50437122 7:-0.54180382 8:-0.61136024 
-6561 0 6561 6561 0 0 0 0 6561 6561 0 0 0 0 0 0 0 0 0 0 0 0 0 0 0 2:-0.12162162 3:-0.1092437 4:-0.80530973 5:-0.75137241 6:-0.81237391 7:-0.74193548 8:-0.8036871 
-6561 6561 6561 6561 0 0 0 4056.6385222186932 6561 6561 0 1100.1989735758873 6561 6561 6561 6561 2549.9907718545915 6561 4543.4357683275966 0 0 0 0 0 0 2:0.12162162 3:0.0084033613 4:-0.71681416 5:-0.37843103 6:-0.53261601 7:-0.43515471 8:-0.43996014 
-0 0 0 0 0 0 6561 0 0 6561 0 0 0 0 0 0 0 0 0 0 0 0 0 0 0 1:1 2:0.027027027 3:-0.042016807 4:-0.79646018 5:-0.6571631 6:-0.65030262 7:-0.82883476 8:-0.74090683 
-0 0 0 0 0 0 6561 0 0 6561 0 0 0 0 0 0 0 0 0 0 0 0 0 0 0 1:1 3:-0.075630252 4:-0.80530973 5:-0.74783071 6:-0.79623403 7:-0.82488479 8:-0.76681614 
-0 0 6561 0 0 0 0 0 0 0 0 0 0 0 0 0 0 0 0 0 0 0 0 0 0 1:1 2:0.27027027 3:0.17647059 4:-0.76106195 5:-0.58030813 6:-0.63819771 7:-0.68926926 8:-0.63428002 
-0 0 0 0 658.30954234442584 0 6561 0 0 6561 0 0 0 0 0 0 0 0 0 0 0 0 0 0 0 1:1 2:0.040540541 3:-0.058823529 4:-0.80530973 5:-0.68691341 6:-0.69872226 7:-0.80513496 8:-0.78375685 
-6561 6561 6561 6561 0 0 0 0 3928.2211026905838 0 0 0 186.23724086593973 2137.3055578691901 6561 364.54529364599921 5322.7459413036022 468.7362509725034 1116.4084833242116 0 697.05656920331216 0 0 0 0 1:-1 2:0.094594595 3:0.0084033613 4:-0.71681416 5:-0.67274659 6:-0.70410222 7:-0.72218565 8:-0.5266567 
-6561 0 6561 6561 0 0 0 0 0 0 0 0 0 0 0 0 0 0 0 0 0 0 0 0 0 1:-1 2:0.5 3:0.39495798 4:-0.72566372 5:-0.19922083 6:-0.20914593 7:-0.44568795 8:-0.43099153 
-6561 6561 6561 6561 0 0 0 0 6561 0 0 0 0 6561 6561 5045.7586567644566 6561 0 0 0 0 0 0 0 0 1:-1 2:0.5 3:0.42857143 4:-0.73451327 5:-0.16663715 6:-0.30396772 7:-0.34825543 8:-0.35824614 
-0 0 0 0 0 0 6561 0 0 6561 0 0 0 0 0 0 0 0 0 0 0 0 0 0 0 1:1 2:-0.094594595 3:-0.17647059 4:-0.84070796 5:-0.78608111 6:-0.82784129 7:-0.81435155 8:-0.81265571 
-6561 0 6561 6561 0 0 0 0 2479.5187082988305 0 0 0 0 0 0 0 0 0 0 0 0 0 0 0 0 1:-1 2:0.33783784 3:0.29411765 4:-0.83185841 5:-0.41561891 6:-0.54472091 7:-0.41803818 8:-0.5346288 
-0 0 6561 0 0 0 0 0 0 2638.309408344398 0 0 0 0 0 0 0 0 0 0 0 0 0 0 0 1:-1 2:0.5 3:0.37815126 4:-0.73451327 5:-0.27395077 6:-0.27908541 7:-0.50625411 8:-0.65221724 
-5757.239212950316 0 6561 0 0 0 0 0 0 6561 0 0 0 0 0 0 0 0 0 0 0 0 0 0 0 2:0.16216216 3:0.12605042 4:-0.79646018 5:-0.53391181 6:-0.59179556 7:-0.59183673 8:-0.65421026 
-6561 0 6561 0 0 0 0 0 0 0 0 0 0 0 0 0 0 0 0 0 0 0 0 0 0 1:-1 2:0.22972973 3:0.19327731 4:-0.75221239 5:-0.46697361 6:-0.53127102 7:-0.54970375 8:-0.5834579 
-5581.3155164426335 0 6561 0 6561 415.55140762982029 6561 0 0 6561 0 0 0 0 0 0 0 0 0 0 0 0 0 0 0 1:1 2:-0.33783784 3:-0.32773109 4:-0.84955752 5:-0.87781123 6:-0.90450572 7:-0.91441738 8:-0.88938714 
-0 0 6561 0 0 0 6561 0 0 6561 0 0 0 0 0 0 0 0 0 0 0 0 0 0 0 1:-1 2:-0.14864865 3:-0.22689076 4:-0.83185841 5:-0.80945635 6:-0.8533961 7:-0.84331797 8:-0.84354758 
-6561 0 6561 0 0 0 0 0 0 0 0 0 0 0 0 0 0 0 0 0 0 0 0 0 0 2:0.24324324 3:0.15966387 4:-0.76106195 5:-0.41951479 6:-0.47209146 7:-0.48518762 8:-0.59441953 
-0 0 0 0 0 0 6561 0 0 6561 0 0 0 0 0 0 0 0 0 0 0 0 0 0 0 1:1 2:0.040540541 3:-0.0084033613 4:-0.82300885 5:-0.66778821 6:-0.66240753 7:-0.79855168 8:-0.75784753 
-0 0 4072.1210668088838 0 6561 392.70387152038415 6561 0 0 6561 0 0 0 0 0 0 0 0 0 0 0 0 0 0 0 1:1 2:-0.35135135 3:-0.36134454 4:-0.84955752 5:-0.89976979 6:-0.93006052 7:-0.87623436 8:-0.90333832 
-0 0 6561 0 0 0 0 0 0 0 0 0 0 0 0 0 0 57.407555900487871 0 0 0 0 0 0 0 1:1 2:0.17567568 3:0.14285714 4:-0.72566372 5:-0.61926687 6:-0.66980498 7:-0.71560237 8:-0.67015446 
-1573.3800790976875 0 6561 0 0 0 0 0 0 0 0 0 0 0 0 0 0 0 0 0 0 0 0 0 0 1:1 2:0.31081081 3:0.29411765 4:-0.7699115 5:-0.48893218 6:-0.53194351 7:-0.60895326 8:-0.60438465 
-6561 6561 6561 6561 0 0 699.49822523744706 6561 6561 0 0 6561 6561 6561 6561 6561 6561 6561 0 3818.4611520391586 571.63347143498447 0 0 0 0 1:-1 2:0.36486486 3:0.37815126 4:-0.73451327 5:-0.35930583 6:-0.50235373 7:-0.48387097 8:-0.42501246 
-6561 6561 6561 6561 0 0 0 0 0 94.065911963760541 0 0 0 0 0 0 0 0 0 0 0 0 0 0 0 2:0.44594595 3:0.4789916 4:-0.67256637 5:-0.18469984 6:-0.2804304 7:-0.2363397 8:-0.51469856 
-0 0 0 0 0 0 6561 0 0 6561 0 0 0 0 0 0 0 0 0 0 0 0 0 0 0 1:1 2:0.081081081 3:0.0084033613 4:-0.81415929 5:-0.66991323 6:-0.73100202 7:-0.70770244 8:-0.76382661 
-6561 6561 6561 6561 0 0 0 0 6561 0 0 5276.1711445382898 6561 6561 6561 3185.3010430490781 6561 0 0 0 0 0 0 0 0 2:0.41891892 3:0.36134454 4:-0.72566372 5:-0.311847 6:-0.4270343 7:-0.46280448 8:-0.40508221 
-6561 0 6561 0 0 0 0 0 0 0 0 0 0 0 0 0 0 0 0 0 0 0 0 0 0 1:-1 2:0.44594595 3:0.44537815 4:-0.71681416 5:-0.28280503 6:-0.28648285 7:-0.44305464 8:-0.52167414 
-0 6561 6561 0 4400.963963044147 0 6561 0 0 6561 0 0 0 0 0 0 0 0 0 0 0 0 0 0 0 1:1 2:-0.054054054 3:-0.092436975 4:-0.80530973 5:-0.77687268 6:-0.81977135 7:-0.87491771 8:-0.82361734 
-6561 362.34305590985224 6561 6561 0 0 0 0 542.78949820320486 0 0 0 0 0 0 0 1762.0664160469894 0 0 0 0 0 0 0 0 1:1 2:0.21621622 3:0.1092437 4:-0.7699115 5:-0.57145387 6:-0.68459987 7:-0.67215273 8:-0.61434978 
-0 0 6561 0 0 0 0 0 0 0 0 0 0 0 0 0 0 0 0 0 0 0 0 0 0 1:1 2:0.17567568 3:0.092436975 4:-0.79646018 5:-0.63626704 6:-0.71217216 7:-0.70243581 8:-0.67214748 
-6561 0 6561 6561 0 0 0 0 0 0 0 0 0 0 0 0 0 0 0 0 0 0 0 0 0 1:1 2:0.27027027 3:0.22689076 4:-0.7079646 5:-0.36851426 6:-0.43174176 7:-0.42330481 8:-0.54857997 
-6561 6561 6561 6561 0 0 0 0 5820.8926633867795 0 0 0 0 0 0 0 0 0 0 0 0 0 0 0 0 1:-1 2:0.55405405 3:0.49579832 4:-0.75221239 5:-0.12449088 6:-0.17215871 7:-0.38117182 8:-0.36522172 
-0 0 6561 0 0 0 0 0 0 6561 0 0 0 0 0 0 0 0 0 0 0 0 0 0 0 1:1 2:0.14864865 3:0.092436975 4:-0.77876106 5:-0.63378785 6:-0.667115 7:-0.70243581 8:-0.73592427 
-6561 6561 6561 6561 0 0 0 0 3123.6675450428556 6561 0 0 0 0 0 0 1836.7764318955838 823.85344019446245 0 0 0 0 0 0 0 1:1 2:0.067567568 3:0.0084033613 4:-0.68141593 5:-0.66141314 6:-0.72494956 7:-0.72481896 8:-0.70303936 
-6561 0 6561 0 0 0 0 0 0 6561 0 0 0 0 0 0 0 0 0 0 0 0 0 0 0 1:-1 2:0.31081081 3:0.21008403 4:-0.74336283 5:-0.39791039 6:-0.42299933 7:-0.50493746 8:-0.59441953 
-6561 6561 6561 6561 0 0 0 0 0 0 0 0 0 0 0 0 0 0 0 0 0 0 0 0 0 2:0.33783784 3:0.34453782 4:-0.73451327 5:-0.21728351 6:-0.27505044 7:-0.32982225 8:-0.46487294 
-6561 2015.930265288674 6561 6561 0 0 0 0 0 0 0 0 0 0 0 0 0 0 0 0 0 0 0 0 0 2:0.33783784 3:0.32773109 4:-0.76106195 5:-0.44855676 6:-0.55144586 7:-0.51415405 8:-0.58445441 
-6561 6561 6561 6561 0 0 0 0 6561 6561 0 0 779.60609103434479 0 0 0 0 0 0 0 0 0 0 0 0 2:-0.054054054 3:-0.075630252 4:-0.79646018 5:-0.71383035 6:-0.78143914 7:-0.78801843 8:-0.73293473 
-0 0 6561 0 0 0 0 0 0 6561 0 0 0 0 0 0 0 0 0 0 0 0 0 0 0 1:1 2:0.14864865 3:0.075630252 4:-0.78761062 5:-0.62670444 6:-0.70073974 7:-0.67741935 8:-0.68410563 
-6561 6561 6561 6561 0 0 0 0 6561 6561 0 836.31493809834694 0 6561 5652.8157576118765 0 0 0 0 0 0 0 0 0 0 1:-1 2:0.44594595 3:0.42857143 4:-0.75221239 5:-0.27111741 6:-0.4129119 7:-0.31270573 8:-0.46487294 
-6561 6561 6561 6561 0 0 0 0 2868.8188407769458 0 0 0 0 0 976.62588001052666 0 0 0 0 0 0 0 0 0 0 2:0.41891892 3:0.36134454 4:-0.73451327 5:-0.1266159 6:-0.19098857 7:-0.27978934 8:-0.42501246 
-6561 6561 6561 6561 0 0 0 0 0 0 0 0 0 0 0 0 0 0 0 0 0 0 0 0 0 1:1 2:0.37837838 3:0.32773109 4:-0.73451327 5:-0.36993094 6:-0.4667115 7:-0.46543779 8:-0.49875436 
-0 0 0 0 0 0 6561 0 0 6561 0 0 0 0 0 0 0 0 0 0 0 0 0 0 0 1:1 2:-0.081081081 3:-0.092436975 4:-0.80530973 5:-0.77758102 6:-0.81506389 7:-0.7919684 8:-0.81863478 
-6561 6561 6561 6561 0 0 0 0 6561 0 0 0 3225.8170334591291 4457.446291852073 6561 0 0 0 0 0 0 0 0 0 0 2:0.52702703 3:0.41176471 4:-0.75221239 5:-0.24172127 6:-0.34297243 7:-0.39697169 8:-0.38515197 
-0 0 0 0 0 0 6561 0 0 6561 0 0 0 0 0 0 0 0 0 0 0 0 0 0 0 1:1 2:-0.14864865 3:-0.14285714 4:-0.81415929 5:-0.81264388 6:-0.84196369 7:-0.86306781 8:-0.84155456 
-0 0 0 0 0 0 0 0 0 6561 0 0 0 0 0 0 0 0 0 0 0 0 0 0 0 1:1 2:0.10810811 3:0.025210084 4:-0.78761062 5:-0.63626704 6:-0.66980498 7:-0.73140224 8:-0.71001495 
-6561 723.91692127396391 6561 6561 0 0 0 0 0 0 0 0 0 0 0 0 0 0 0 0 0 0 0 0 0 1:-1 2:0.13513514 3:0.14285714 4:-0.78761062 5:-0.60970427 6:-0.70006725 7:-0.63923634 8:-0.67015446 
-6561 6561 6561 6561 0 0 0 0 6561 0 0 0 609.41129862658056 0 6561 0 0 0 0 0 0 0 0 0 0 2:0.2972973 3:0.31092437 4:-0.69026549 5:-0.18930406 6:-0.26025555 7:-0.35878868 8:-0.44793224 
-6561 0 6561 6561 0 0 0 0 0 6561 0 0 0 0 0 0 0 0 0 0 0 0 0 0 0 1:-1 2:0.37837838 3:0.34453782 4:-0.73451327 5:-0.35966 6:-0.45057162 7:-0.39565504 8:-0.53761834 
-6561 0 6561 6561 0 0 0 0 0 0 0 0 0 0 0 0 0 0 0 0 0 0 0 0 0 1:1 2:0.27027027 3:0.27731092 4:-0.76106195 5:-0.45493182 6:-0.50100874 7:-0.61158657 8:-0.55057299 
-6561 0 6561 6561 0 0 0 0 0 0 0 0 0 0 0 0 0 0 0 0 0 0 0 0 0 1:1 2:0.2027027 3:0.19327731 4:-0.78761062 5:-0.57995396 6:-0.6805649 7:-0.70901909 8:-0.6243149 
-6561 6561 6561 6561 0 0 0 0 0 0 0 0 0 0 0 0 0 0 0 0 0 0 0 0 0 1:-1 2:0.48648649 3:0.42857143 4:-0.67256637 5:-0.14680361 6:-0.21183591 7:-0.23765635 8:-0.43298455 
-6561 0 6561 6561 0 0 0 0 0 0 0 0 0 0 0 0 0 0 0 0 0 0 0 0 0 2:0.43243243 3:0.42857143 4:-0.75221239 5:-0.29945104 6:-0.36449227 7:-0.38380513 8:-0.52466368 
-0 0 0 0 0 0 6561 0 0 6561 0 0 0 0 0 0 0 0 0 0 0 0 0 0 0 1:1 2:0.027027027 3:-0.025210084 4:-0.80530973 5:-0.69399681 6:-0.72293208 7:-0.77616853 8:-0.76083707 
-0 0 0 0 0 0 6561 0 0 6561 0 0 0 0 0 0 0 0 0 0 0 0 0 0 0 1:-1 2:0.013513514 3:-0.075630252 4:-0.81415929 5:-0.65043386 6:-0.65501009 7:-0.78538512 8:-0.74588939 
-0 0 6561 0 0 0 0 0 0 6561 0 0 0 0 0 0 0 0 0 0 0 0 0 0 0 1:1 2:0.094594595 3:0.0084033613 4:-0.79646018 5:-0.6667257 6:-0.72360457 7:-0.70638578 8:-0.73991031 
-6561 0 6561 4631.3870007114465 0 0 0 0 0 0 0 0 0 0 0 0 0 0 0 0 0 0 0 0 0 2:0.36486486 3:0.31092437 4:-0.76106195 5:-0.32849301 6:-0.35036987 7:-0.52205398 8:-0.53961136 
-3687.1331776323559 398.01777386710438 3968.8965461798543 4968.1256873985467 0 0 1697.7238223701963 0 0 6561 0 248.17767024184175 0 0 0 0 220.26598854666676 0 0 0 0 0 0 0 0 1:1 2:0.013513514 3:0.0084033613 4:-0.80530973 5:-0.67664247 6:-0.74041695 7:-0.82488479 8:-0.72396612 
-0 0 0 0 0 0 0 0 0 6561 0 0 0 0 0 0 0 0 0 0 0 0 0 0 0 1:1 2:0.094594595 3:-0.0084033613 4:-0.76106195 5:-0.61430848 6:-0.63349025 7:-0.73930217 8:-0.68809168 
-0 0 6561 0 0 0 0 0 0 6561 0 0 0 0 0 0 0 0 0 0 0 0 0 0 0 1:1 2:0.21621622 3:0.14285714 4:-0.78761062 5:-0.57074553 6:-0.60188299 7:-0.63396972 8:-0.72296961 
-0 0 0 0 0 0 0 0 0 6561 0 0 0 0 0 0 0 0 0 0 0 0 0 0 0 1:1 2:0.067567568 3:0.058823529 4:-0.80530973 5:-0.60793342 6:-0.66509751 7:-0.69848585 8:-0.67812656 
-5942.5548726176748 0 6561 3244.3698688635391 0 0 6561 0 0 6561 0 0 0 0 0 0 0 0 0 0 0 0 0 0 0 1:1 2:-0.13513514 3:-0.17647059 4:-0.78761062 5:-0.78926864 6:-0.83120377 7:-0.82225148 8:-0.82461385 
-6561 0 6561 6561 0 0 0 0 0 0 0 0 0 0 0 0 0 0 0 0 0 0 0 0 0 1:1 2:0.21621622 3:0.17647059 4:-0.74336283 5:-0.50805738 6:-0.59179556 7:-0.59710336 8:-0.58445441 
-0 0 3993.3751150720677 0 0 0 0 0 0 0 0 0 0 0 0 0 0 0 0 0 0 0 0 0 0 1:1 2:0.24324324 3:0.21008403 4:-0.73451327 5:-0.59305826 6:-0.51782112 7:-0.64581962 8:-0.55455904 
-6561 2275.673368175077 6561 6561 0 0 0 0 435.79958845376387 0 0 0 0 0 5880.3810573594756 0 0 0 0 0 0 0 0 0 0 1:-1 2:0.2027027 3:0.37815126 4:-0.73451327 5:-0.32813883 6:-0.38802959 7:-0.47728769 8:-0.49476831 
-6561 4527.3962627718338 4130.5251332057069 6561 0 0 6561 0 6561 6561 0 0 0 1888.1249762433729 6561 0 0 0 0 0 0 0 0 0 0 1:1 2:-0.13513514 3:-0.092436975 4:-0.81415929 5:-0.78466442 6:-0.85205111 7:-0.80776827 8:-0.81365222 
-6561 6561 6561 6561 0 0 0 0 0 6561 0 0 0 0 0 0 0 0 0 0 0 0 0 0 0 2:-0.013513514 3:-0.042016807 4:-0.81415929 5:-0.74358066 6:-0.80228648 7:-0.78933509 8:-0.76880917 
-1840.6319903239385 0 0 0 0 0 6561 0 0 6561 0 0 0 0 0 0 0 0 0 0 0 0 0 0 0 1:1 2:-0.18918919 3:-0.22689076 4:-0.84070796 5:-0.83353993 6:-0.85877606 7:-0.89730086 8:-0.84354758 
-6561 0 6561 0 0 0 0 0 0 0 0 0 0 0 0 0 0 0 0 0 0 0 0 0 0 1:-1 2:0.067567568 3:0.1092437 4:-0.76106195 5:-0.58384983 6:-0.62945528 7:-0.68531929 8:-0.66417539 
-6561 0 6561 6561 0 0 0 0 0 0 0 0 0 0 0 0 0 0 0 0 0 0 0 0 0 1:1 2:0.33783784 3:0.29411765 4:-0.73451327 5:-0.46661944 6:-0.54068594 7:-0.57998683 8:-0.55655207 
-6561 6561 6561 6561 0 0 2263.8224362575083 0 0 0 0 0 0 0 0 0 0 0 0 0 0 0 0 0 0 1:-1 2:0.39189189 3:0.39495798 4:-0.73451327 5:-0.39153533 6:-0.44586416 7:-0.56945359 8:-0.50672646 
-0 0 0 0 0 0 42.345882056025374 0 0 0 0 0 0 0 0 0 0 0 0 0 0 0 0 0 0 1:-1 2:0.16216216 3:0.042016807 4:-0.79646018 5:-0.63237117 6:-0.66509751 7:-0.74851876 8:-0.70403587 
-0 0 0 0 0 0 6561 0 0 6561 0 0 0 0 0 0 0 0 0 0 0 0 0 0 0 1:1 2:-0.054054054 3:-0.042016807 4:-0.82300885 5:-0.73862228 6:-0.7995965 7:-0.77353522 8:-0.77379173 
-6561 0 6561 6561 0 0 0 0 0 0 0 0 0 0 0 0 0 0 0 0 0 0 0 0 0 1:-1 2:0.17567568 3:0.21008403 4:-0.74336283 5:-0.46945281 6:-0.55817081 7:-0.51810402 8:-0.59840558 
-0 0 6561 0 0 0 0 0 0 6561 0 0 0 0 0 0 0 0 0 0 0 0 0 0 0 1:1 2:0.10810811 3:0.092436975 4:-0.77876106 5:-0.632017 6:-0.70342972 7:-0.69058591 8:-0.68410563 
-6561 0 6561 0 0 0 0 0 0 0 0 0 0 0 0 0 0 0 0 0 0 0 0 0 0 1:1 2:0.16216216 3:0.15966387 4:-0.74336283 5:-0.50239065 6:-0.55211836 7:-0.62606978 8:-0.59043348 
-6561 0 6561 6561 0 0 0 0 6561 0 0 0 0 0 0 0 0 0 0 0 0 0 0 0 0 1:1 2:0.17567568 3:0.15966387 4:-0.77876106 5:-0.58101647 6:-0.6798924 7:-0.65898618 8:-0.59641256 
-0 0 6561 0 0 0 0 0 0 0 0 0 0 0 0 0 0 0 0 0 0 0 0 0 0 1:1 2:0.21621622 3:0.15966387 4:-0.7699115 5:-0.54418275 6:-0.56422327 7:-0.67346939 8:-0.66417539 
-0 0 0 0 6561 0 6561 0 0 6561 0 0 0 0 0 0 0 0 0 0 0 0 0 0 0 1:1 2:-0.12162162 3:-0.12605042 4:-0.84070796 5:-0.77156012 6:-0.79825151 7:-0.80908492 8:-0.82760339 
-0 0 6561 0 0 0 0 0 0 0 0 0 0 0 0 0 0 0 0 0 0 0 0 0 0 1:1 2:0.2027027 3:0.19327731 4:-0.80530973 5:-0.63414202 6:-0.71015467 7:-0.76036866 8:-0.63627304 
-312.03260394942225 6561 6561 0 0 0 0 0 0 6561 0 0 0 0 0 0 0 0 0 0 0 0 0 0 0 1:1 2:0.013513514 3:-0.042016807 4:-0.77876106 5:-0.71489286 6:-0.77135171 7:-0.81698486 8:-0.73492775 
-0 0 6561 0 0 0 0 0 0 0 0 0 0 0 0 0 0 0 0 0 0 0 0 0 0 1:1 2:0.17567568 3:0.1092437 4:-0.74336283 5:-0.45847353 6:-0.46536651 7:-0.63265306 8:-0.64324863 
-6561 6561 6561 6561 0 0 0 0 6561 6561 0 0 0 0 0 0 0 0 0 0 0 0 0 0 0 2:0.040540541 3:0.025210084 4:-0.79646018 5:-0.66460067 6:-0.71822461 7:-0.72481896 8:-0.68410563 
-0 0 0 0 0 0 6561 0 0 6561 0 0 0 0 0 0 0 0 0 0 0 0 0 0 0 1:1 2:-0.040540541 3:-0.12605042 4:-0.83185841 5:-0.73366389 6:-0.76597176 7:-0.79065174 8:-0.79471849 
-6561 0 6561 6561 0 192.02364849877884 0 0 0 0 0 0 0 0 0 0 0 0 0 0 0 0 0 0 0 1:1 2:0.33783784 3:0.32773109 4:-0.76106195 5:-0.43899416 6:-0.48823134 7:-0.62870309 8:-0.51469856 
-6561 6561 6561 6561 0 0 0 0 0 0 0 0 0 0 4709.8255420818396 0 0 0 0 0 0 0 0 0 0 2:0.36486486 3:0.31092437 4:-0.73451327 5:-0.39366035 6:-0.46334902 7:-0.59052008 8:-0.49875436 
-6561 6561 6561 6561 0 0 0 0 6561 0 0 0 0 6561 6561 6561 0 0 0 0 0 0 0 0 0 2:0.2027027 3:0.17647059 4:-0.79646018 5:-0.45174429 6:-0.57094822 7:-0.5154707 8:-0.56452417 
-6561 0 6561 0 0 0 0 0 0 0 0 0 0 0 0 0 0 0 0 0 0 0 0 0 0 2:0.28378378 3:0.24369748 4:-0.77876106 5:-0.31857624 6:-0.26496301 7:-0.58262014 8:-0.57448929 
-0 0 0 0 6561 0 6561 0 0 6561 0 0 0 0 0 0 0 0 0 0 0 0 0 0 0 1:1 2:-0.067567568 3:-0.12605042 4:-0.80530973 5:-0.71630954 6:-0.75184936 7:-0.78275181 8:-0.80069756 
-0 0 6561 0 0 0 0 0 0 0 0 0 0 0 0 0 0 0 0 0 0 0 0 0 0 1:1 2:0.12162162 3:0.15966387 4:-0.76106195 5:-0.55941208 6:-0.59314055 7:-0.66293614 8:-0.66616841 
-0 0 6561 0 0 0 0 0 0 6561 0 0 0 0 0 0 0 0 0 0 0 0 0 0 0 1:1 2:0.13513514 3:0.058823529 4:-0.77876106 5:-0.66743404 6:-0.72225958 7:-0.76168532 8:-0.70403587 
-6561 6561 6561 6561 0 0 0 0 0 0 0 0 0 0 0 0 0 0 0 0 0 0 0 0 0 1:-1 2:0.40540541 3:0.44537815 4:-0.73451327 5:-0.23392952 6:-0.28782784 7:-0.39302172 8:-0.4529148 
-6561 0 6561 0 0 0 0 0 0 0 0 0 0 0 0 0 0 0 0 0 0 0 0 0 0 2:0.44594595 3:0.2605042 4:-0.75221239 5:-0.35753497 6:-0.41223941 7:-0.47465438 8:-0.56452417 
-0 0 0 0 0 0 6561 0 0 6561 0 0 0 0 0 0 0 0 0 0 0 0 0 0 0 1:1 2:-0.040540541 3:-0.1092437 4:-0.80530973 5:-0.74110147 6:-0.77605918 7:-0.73271889 8:-0.79372197 
-0 0 6561 0 0 0 0 0 0 0 0 0 0 0 0 0 0 0 0 0 0 0 0 0 0 1:1 2:0.16216216 3:0.17647059 4:-0.7699115 5:-0.57534974 6:-0.59583053 7:-0.7116524 8:-0.64424514 
-6561 6561 6561 6561 0 0 0 0 0 6561 0 0 0 0 0 0 0 0 0 0 0 0 0 0 0 2:0.14864865 3:0.092436975 4:-0.75221239 5:-0.55126616 6:-0.62878278 7:-0.62475313 8:-0.64723468 
-6561 3011.1110208079358 6561 6561 0 0 0 0 0 0 0 0 0 0 0 0 0 0 0 0 0 0 0 0 0 1:1 2:0.40540541 3:0.36134454 4:-0.73451327 5:-0.4110147 6:-0.49428379 7:-0.49440421 8:-0.5346288 
-0 0 6561 0 0 0 5362.1225458729768 0 0 0 0 0 0 0 0 0 0 0 0 0 0 0 0 0 0 1:-1 2:0.067567568 3:0.075630252 4:-0.78761062 5:-0.5902249 6:-0.64357767 7:-0.75510204 8:-0.66616841 
-6561 5246.9338604170407 6561 6561 0 0 0 0 0 0 0 0 0 0 0 0 0 0 0 0 0 0 0 0 0 1:-1 2:0.41891892 3:0.34453782 4:-0.72566372 5:-0.33203471 6:-0.41425689 7:-0.45227123 8:-0.50473343 
-0 1924.2829085862379 0 1511.8429229239835 2321.768808447111 68.275907937829828 6561 0 3873.4828330316732 6561 0 0 0 0 0 0 299.46367855854453 0 0 0 0 0 0 0 0 1:1 2:-0.10810811 3:-0.14285714 4:-0.80530973 5:-0.35682663 6:-0.44182919 7:-0.45490454 8:-0.80468361 
-0 0 6561 0 0 0 0 0 0 6561 0 0 0 0 0 0 0 0 0 0 0 0 0 0 0 1:1 2:0.14864865 3:0.1092437 4:-0.78761062 5:-0.60474588 6:-0.62004035 7:-0.73008558 8:-0.73393124 
-0 0 0 0 6561 0 6561 0 0 6561 0 0 0 0 0 0 0 0 0 0 0 0 0 0 0 1:1 2:-0.054054054 3:-0.1092437 4:-0.84955752 5:-0.81583141 6:-0.83523874 7:-0.82488479 8:-0.85849527 
-6561 6561 6561 6561 0 0 0 0 6561 0 0 0 0 6561 6561 2103.0012850816306 0 0 0 0 0 0 0 0 0 2:0.22972973 3:0.24369748 4:-0.73451327 5:-0.39968125 6:-0.5601883 7:-0.39038841 8:-0.6003986 
-6561 0 6561 0 0 0 6561 0 0 6561 0 0 0 0 0 0 0 0 0 0 0 0 0 0 0 2:0.013513514 3:0.0084033613 4:-0.81415929 5:-0.63130866 6:-0.68258238 7:-0.69453588 8:-0.714001 
-0 0 0 0 0 0 6561 0 0 6561 0 0 0 0 0 0 0 0 0 0 0 0 0 0 0 1:-1 2:0.013513514 3:-0.092436975 4:-0.79646018 5:-0.696476 6:-0.70073974 7:-0.79460171 8:-0.77279522 
-6561 6561 6561 6561 0 0 0 1457.5151653163812 6561 0 0 6561 6561 6561 6561 6561 6561 373.25121872100624 2467.6564133824381 0 6561 0 0 0 0 2:0.28378378 3:0.2605042 4:-0.73451327 5:-0.53745352 6:-0.64694015 7:-0.68005267 8:-0.56253114 
-6561 6561 6561 6561 0 0 0 0 268.79990669336297 930.43985579361879 0 0 0 0 0 0 0 0 0 0 0 0 0 0 0 2:-0.081081081 3:-0.15966387 4:-0.7699115 5:-0.77474765 6:-0.82582381 7:-0.80250165 8:-0.79372197 
-0 792.50339788117651 6561 0 0 0 6561 0 0 6561 0 0 0 0 0 0 0 0 0 0 0 0 0 0 0 1:1 3:-0.1092437 4:-0.78761062 5:-0.73366389 6:-0.79690652 7:-0.78406847 8:-0.76382661 
-0 0 0 0 0 0 6561 0 0 6561 0 0 0 0 0 0 0 0 0 0 0 0 0 0 0 1:1 2:-0.067567568 3:-0.092436975 4:-0.79646018 5:-0.75066407 6:-0.78278413 7:-0.83278473 8:-0.79372197 
-6561 0 6561 0 0 0 0 0 0 6561 0 0 0 0 0 0 0 0 0 0 0 0 0 0 0 1:-1 2:0.21621622 3:0.17647059 4:-0.7699115 5:-0.49247388 6:-0.56220578 7:-0.48123766 8:-0.65421026 
-0 0 3471.0193850377123 0 0 0 0 0 0 6561 0 0 0 0 0 0 0 0 0 0 0 0 0 0 0 1:1 2:0.14864865 3:0.12605042 4:-0.77876106 5:-0.58845405 6:-0.60591796 7:-0.65371955 8:-0.68310912 
-6561 0 6561 3197.9077686970977 0 0 0 0 0 0 0 0 0 0 0 0 0 0 0 0 0 0 0 0 0 2:0.37837838 3:0.34453782 4:-0.7699115 5:-0.38126439 6:-0.44855414 7:-0.45753785 8:-0.55455904 
-0 0 0 0 0 0 0 0 0 6561 0 0 0 0 0 0 0 0 0 0 0 0 0 0 0 1:1 2:0.067567568 3:0.042016807 4:-0.82300885 5:-0.71028865 6:-0.76597176 7:-0.77616853 8:-0.73393124 
-6561 6561 6561 6561 0 0 5137.1972281697326 0 6561 3530.6990732305749 0 0 0 6561 6561 6561 0 0 0 0 0 0 0 0 0 1:-1 2:0.37837838 3:0.32773109 4:-0.68141593 5:-0.43509828 6:-0.54942838 7:-0.51283739 8:-0.53064275 
-6561 5713.7370347047199 6561 1686.2011070813205 0 0 0 0 0 0 0 0 0 0 0 0 0 0 0 0 0 0 0 0 0 2:0.24324324 3:0.22689076 4:-0.7699115 5:-0.50628652 6:-0.58103564 7:-0.58920342 8:-0.59740907 
-0 0 0 0 0 0 6561 0 0 6561 0 0 0 0 0 0 0 0 0 0 0 0 0 0 0 1:1 3:-0.058823529 4:-0.80530973 5:-0.71028865 6:-0.73436449 7:-0.75510204 8:-0.78574988 
-0 0 6561 760.20468647986695 0 0 6561 0 0 6561 0 0 0 0 0 0 0 0 0 0 0 0 0 0 0 1:1 2:-0.027027027 3:-0.042016807 4:-0.80530973 5:-0.73260138 6:-0.800269 7:-0.77748519 8:-0.76382661 
-6561 6561 6561 6561 0 0 0 0 6561 6561 0 6561 6561 6561 6561 6561 6561 6379.3811576839844 0 0 0 0 0 0 6277.1793091177469 2:0.54054054 3:0.51260504 4:-0.7079646 5:0.013281388 6:-0.08137189 7:-0.19025675 8:-0.33333333 
-0 0 6561 0 0 0 0 0 0 6561 0 0 0 0 0 0 0 0 0 0 0 0 0 0 0 1:-1 2:0.22972973 3:0.15966387 4:-0.77876106 5:-0.46484859 6:-0.466039 7:-0.60368664 8:-0.65421026 
-6561 0 6561 6561 0 507.83406291123305 6561 0 0 6561 0 0 0 0 0 0 0 0 0 0 0 0 0 0 0 1:-1 2:-0.24324324 3:-0.29411765 4:-0.84955752 5:-0.8590402 6:-0.90854069 7:-0.86175115 8:-0.86447434 
-0 0 0 0 0 0 6561 0 0 6561 0 0 0 0 0 0 0 0 0 0 0 0 0 0 0 1:1 2:-0.027027027 3:-0.075630252 4:-0.81415929 5:-0.76412254 6:-0.79152656 7:-0.85516787 8:-0.79372197 
-0 0 2185.4173177573621 0 0 0 6561 0 0 6561 0 0 0 0 0 0 0 0 0 0 0 0 0 0 0 1:1 2:-0.067567568 3:-0.14285714 4:-0.82300885 5:-0.79847707 6:-0.84667115 7:-0.80776827 8:-0.83358246 
-6561 0 6561 6561 0 0 0 0 0 0 0 0 0 0 0 0 0 0 0 0 0 0 0 0 0 2:0.28378378 3:0.2605042 4:-0.73451327 5:-0.40641048 6:-0.47007397 7:-0.48782093 8:-0.55854509 
-6561 6561 6561 6561 0 0 0 0 0 0 0 0 0 0 0 0 0 0 0 0 0 0 0 0 0 2:0.41891892 3:0.37815126 4:-0.73451327 5:-0.22047105 6:-0.26765299 7:-0.31138907 8:-0.50473343 
-0 0 6561 6561 0 0 0 0 6561 5108.9625276357538 0 0 0 4235.816629788319 1782.9980079709389 0 0 0 0 0 0 0 0 0 0 1:1 2:0.10810811 3:0.042016807 4:-0.81415929 5:-0.63272534 6:-0.73907196 7:-0.67741935 8:-0.64025909 
-6561 6561 6561 6561 0 0 0 1550.8611775050133 6561 2416.1966003433022 0 5987.2637918548025 6561 6561 6561 6561 6561 6561 0 2603.732166875855 0 0 0 0 0 1:-1 2:0.44594595 3:0.42857143 4:-0.7079646 5:-0.12059501 6:-0.25151311 7:-0.29690586 8:-0.26158445 
-6561 6561 6561 6561 1214.1918095940607 0 0 0 4022.5014725252954 6561 0 0 0 2559.7079144233962 0 0 2817.3014804515674 0 0 0 0 0 0.062529054551477475 0 0 1:-1 2:-0.22972973 3:-0.19327731 4:-0.81415929 5:-0.83070657 6:-0.88500336 7:-0.86175115 8:-0.81365222 
-6561 6561 6561 6561 0 0 0 0 0 6561 0 0 0 0 0 0 0 0 0 0 0 0 0 0 0 2:0.040540541 3:0.042016807 4:-0.77876106 5:-0.66247565 6:-0.72427707 7:-0.72613562 8:-0.72197309 
-0 0 6561 0 0 0 6561 0 0 6561 0 0 0 0 0 0 0 0 0 0 0 0 0 0 0 2:0.28378378 3:0.21008403 4:-0.76106195 5:-0.42447317 6:-0.4270343 7:-0.51283739 8:-0.65421026 
-6561 379.29747388726042 6561 6561 0 0 0 0 0 0 0 0 0 0 0 0 0 0 0 0 0 0 0 0 0 1:-1 2:-0.040540541 3:-0.058823529 4:-0.79646018 5:-0.71383035 6:-0.77807666 7:-0.75510204 8:-0.73393124 
-6561 6561 6561 6561 0 0 0 0 6561 0 0 0 613.47882300940717 6561 6561 0 217.29312350038856 3892.057406701339 0 0 0 0 0 0 0 1:1 2:0.28378378 3:0.27731092 4:-0.7079646 5:-0.43191075 6:-0.54404842 7:-0.49045425 8:-0.51669158 
-6561 0 6561 0 0 0 0 0 0 0 0 0 0 0 0 0 0 0 0 0 0 0 0 0 0 1:1 2:0.28378378 3:0.21008403 4:-0.74336283 5:-0.44784842 6:-0.49966375 7:-0.57998683 8:-0.56153463 
-0 0 6561 0 0 0 0 0 0 0 0 0 0 0 0 0 0 0 0 0 0 0 0 0 0 1:1 2:0.27027027 3:0.075630252 4:-0.78761062 5:-0.61678767 6:-0.68190989 7:-0.69716919 8:-0.65919283 
-6561 6561 6561 6561 0 0 0 0 6561 0 0 0 0 6187.6584949279822 0 0 0 0 0 0 1711.3157299791612 0 0 0 0 1:-1 2:0.2972973 3:0.19327731 4:-0.77876106 5:-0.5771206 6:-0.68594486 7:-0.61553654 8:-0.6163428 
-6561 6561 6561 6561 0 0 0 0 0 0 0 0 0 0 6561 0 0 0 0 0 0 0 0 0 0 1:1 2:0.40540541 3:0.2605042 4:-0.7079646 5:-0.30405525 6:-0.39273705 7:-0.4562212 8:-0.45989038 
-0 0 6561 0 0 0 6561 0 1454.7267562230829 6561 0 0 0 0 0 0 0 0 0 0 0 0 0 0 0 1:1 2:-0.2972973 3:-0.31092437 4:-0.82300885 5:-0.86541526 6:-0.89576328 7:-0.84726794 8:-0.86347783 
-0 0 6561 0 0 0 6561 0 0 6561 0 0 0 0 0 0 0 0 0 0 0 0 0 0 0 1:1 2:0.013513514 3:-0.0084033613 4:-0.78761062 5:-0.66991323 6:-0.73167451 7:-0.72086899 8:-0.7389138 
